%YAML:1.0
---
opencv_ml_svm:
   format: 3
   svmType: C_SVC
   kernel:
      type: RBF
      gamma: 3.3750000000000002e-02
   C: 1.2500000000000000e+01
   term_criteria: { iterations:10000 }
   var_count: 5
   class_count: 4
   class_labels: !!opencv-matrix
      rows: 4
      cols: 1
      dt: i
      data: [ 0, 1, 2, 3 ]
   sv_total: 9141
   support_vectors:
      - [ 0., 4.42188144e-01, 2.16075450e-01, -6.20051205e-01,
          -7.27758944e-01 ]
      - [ 0., -6.30643010e-01, -4.16986018e-01, 6.79799318e-01,
          6.86063647e-01 ]
      - [ 0., -3.28149825e-01, -2.56211817e-01, 3.76116067e-01,
          2.93650866e-01 ]
      - [ 0., -9.03973222e-01, -5.42158365e-01, 8.95918548e-01,
          1.11705971e+00 ]
      - [ 0., -2.09175795e-01, -1.87487617e-01, 1.83574140e-01,
          8.72752294e-02 ]
      - [ 0., -4.20416445e-01, -3.10923517e-01, 4.19218391e-01,
          3.27149510e-01 ]
      - [ 0., 4.15653944e-01, 1.83195218e-01, -5.11883259e-01,
          -6.51788771e-01 ]
      - [ 0., -6.21926665e-01, -4.12074804e-01, 7.70708799e-01,
          7.72203028e-01 ]
      - [ 0., -2.74271667e-01, -2.26182699e-01, 2.70239234e-01,
          2.11698800e-01 ]
      - [ 0., -7.41040111e-01, -4.77933109e-01, 9.48303998e-01,
          9.01711226e-01 ]
      - [ 0., 9.34641600e-01, 5.52955687e-01, -1.19801044e+00,
          -1.25596094e+00 ]
      - [ 0., 1.18362594e+00, 7.22404301e-01, -1.27902532e+00,
          -1.35944784e+00 ]
      - [ 0., 1.61952481e-01, 4.02242430e-02, -4.10310626e-01,
          -4.62162495e-01 ]
      - [ 0., -1.18002570e+00, -6.69439971e-01, 1.49439716e+00,
          1.84954357e+00 ]
      - [ 0., -5.10165930e-01, -3.60264689e-01, 6.69077158e-01,
          5.11990309e-01 ]
      - [ 0., -9.09721792e-01, -5.52935660e-01, 1.19531810e+00,
          1.19990909e+00 ]
      - [ 0., 9.96836722e-01, 5.85916281e-01, -1.23055613e+00,
          -1.23681879e+00 ]
      - [ 0., 3.75398725e-01, 1.68814883e-01, -6.26915514e-01,
          -6.50293291e-01 ]
      - [ 0., -6.30237043e-01, -4.15869445e-01, 6.84024692e-01,
          6.88157320e-01 ]
      - [ 0., -6.58119768e-02, -1.09881103e-01, -1.77724920e-02,
          -1.64861947e-01 ]
      - [ 0., 3.30233306e-01, 1.26911968e-01, -4.30109918e-01,
          -5.88679731e-01 ]
      - [ 0., 6.90559924e-01, 3.83345276e-01, -9.53599215e-01,
          -1.01578760e+00 ]
      - [ 0., 7.13932037e-01, 3.90883029e-01, -1.00173879e+00,
          -1.04749167e+00 ]
      - [ 0., -3.06652725e-01, -2.52788216e-01, 4.20275599e-01,
          2.47590199e-01 ]
      - [ 0., -3.52010429e-01, -2.76415348e-01, 4.05194581e-01,
          2.78995186e-01 ]
      - [ 0., 5.25665045e-01, 2.55202681e-01, -6.37683272e-01,
          -7.64547646e-01 ]
      - [ 0., -4.16031331e-01, -3.02783877e-01, 4.13378447e-01,
          4.26149994e-01 ]
      - [ 0., -2.30825439e-01, -2.00421929e-01, 1.18616134e-01,
          6.69367611e-02 ]
      - [ 0., 1.08135891e+00, 6.42907858e-01, -1.25743234e+00,
          -1.29603970e+00 ]
      - [ 0., 1.04496866e-01, -3.51016107e-03, -2.51982629e-01,
          -3.47309977e-01 ]
      - [ 0., 1.55775881e+00, 1.02325606e+00, -1.70803177e+00,
          -1.65076649e+00 ]
      - [ 0., -6.22731864e-01, -4.17552561e-01, 7.38819540e-01,
          6.71407998e-01 ]
      - [ 0., -3.68950546e-01, -2.70468116e-01, 2.76678979e-01,
          3.00230950e-01 ]
      - [ 0., -7.07048893e-01, -4.55777586e-01, 8.45499337e-01,
          8.08094442e-01 ]
      - [ 0., 2.08350554e-01, 5.82114942e-02, -2.81663626e-01,
          -4.39431250e-01 ]
      - [ 0., 5.88217914e-01, 2.99038023e-01, -7.54238427e-01,
          -8.60557199e-01 ]
      - [ 0., -7.43332744e-01, -4.74564701e-01, 1.03960788e+00,
          9.36406255e-01 ]
      - [ 0., -5.35982966e-01, -3.65808636e-01, 6.20266318e-01,
          6.24450028e-01 ]
      - [ 0., 6.11321986e-01, 3.06121349e-01, -7.75304317e-01,
          -9.09010589e-01 ]
      - [ 0., -9.69793797e-01, -5.86772203e-01, 1.31157553e+00,
          1.40120006e+00 ]
      - [ 0., -3.07830989e-01, -2.48370737e-01, 4.21457827e-01,
          2.29943588e-01 ]
      - [ 0., -4.91449118e-01, -3.42847019e-01, 5.17300546e-01,
          4.86268103e-01 ]
      - [ 0., -2.91346252e-01, -2.30643541e-01, 2.52299726e-01,
          1.64740860e-01 ]
      - [ 0., 1.11287105e+00, 6.70060813e-01, -1.36076748e+00,
          -1.36453247e+00 ]
      - [ 0., -8.22607756e-01, -5.16290665e-01, 9.82616186e-01,
          1.02912569e+00 ]
      - [ 0., -3.71271431e-01, -2.75309265e-01, 3.66271436e-01,
          3.51077110e-01 ]
      - [ 0., 6.10073516e-03, -5.91615774e-02, -1.26549974e-01,
          -2.02547938e-01 ]
      - [ 0., 4.45148200e-01, 2.11700112e-01, -5.92854083e-01,
          -6.75716400e-01 ]
      - [ 0., -8.52993190e-01, -5.30638695e-01, 1.12577188e+00,
          1.10150671e+00 ]
      - [ 0., 1.49766321e+01, 2.44602032e+01, -6.40899086e+00,
          -3.74712420e+00 ]
      - [ 0., 1.56125152e+00, 1.03179657e+00, -1.80401766e+00,
          -1.65286016e+00 ]
      - [ 0., -4.60944891e-01, -3.24364662e-01, 5.65332294e-01,
          4.63536888e-01 ]
      - [ 0., 9.57757533e-01, 5.62390506e-01, -1.21357405e+00,
          -1.21079755e+00 ]
      - [ 0., 1.90534091e+00, 1.33462203e+00, -2.11027265e+00,
          -1.86521769e+00 ]
      - [ 0., -6.20033503e-01, -4.05546159e-01, 6.04490876e-01,
          7.27338791e-01 ]
      - [ 0., -4.94366676e-01, -3.42188746e-01, 5.17026842e-01,
          5.28141439e-01 ]
      - [ 0., -7.95024693e-01, -5.00005364e-01, 9.81823325e-01,
          1.04318321e+00 ]
      - [ 0., 1.94339588e-01, 6.11941181e-02, -4.95977163e-01,
          -4.62760687e-01 ]
      - [ 0., -2.23690316e-01, -2.04335555e-01, 1.18757360e-01,
          6.15530461e-02 ]
      - [ 0., 2.69717503e+00, 2.03706980e+00, -2.66297126e+00,
          -2.25882673e+00 ]
      - [ 0., 3.59299630e-01, 1.41935289e-01, -3.77448469e-01,
          -6.58667982e-01 ]
      - [ 0., -1.07465982e+00, -6.21060729e-01, 1.29295874e+00,
          1.58095622e+00 ]
      - [ 0., 1.19797957e+00, 7.42787957e-01, -1.39437234e+00,
          -1.42913699e+00 ]
      - [ 0., 6.73128128e-01, 3.54299068e-01, -8.44928861e-01,
          -9.73615110e-01 ]
      - [ 0., -2.92210013e-01, -2.35055849e-01, 2.46280491e-01,
          2.37420976e-01 ]
      - [ 0., 9.01476860e-01, 5.19037187e-01, -1.07947302e+00,
          -1.14768851e+00 ]
      - [ 0., -1.19219971e+00, -6.79713905e-01, 1.62099957e+00,
          1.80109024e+00 ]
      - [ 0., -3.45207840e-01, -2.63199300e-01, 3.01977545e-01,
          2.97838181e-01 ]
      - [ 0., 1.45779237e-01, 1.77600197e-02, -1.89871609e-01,
          -3.29065174e-01 ]
      - [ 0., 5.06753504e-01, 2.46021867e-01, -6.42367959e-01,
          -7.87278891e-01 ]
      - [ 0., 2.11101755e-01, 5.58111593e-02, -3.14755172e-01,
          -4.63957071e-01 ]
      - [ 0., 4.16547686e-01, 2.00862274e-01, -7.27870524e-01,
          -7.15196967e-01 ]
      - [ 0., 9.61114645e-01, 5.71436107e-01, -1.22079968e+00,
          -1.18447721e+00 ]
      - [ 0., 2.08028764e-01, 4.95471470e-02, -2.33452633e-01,
          -4.48404104e-01 ]
      - [ 0., 5.27516119e-02, -3.75341102e-02, -1.53438181e-01,
          -2.88687319e-01 ]
      - [ 0., -1.28736389e+00, -7.19508648e-01, 1.75312221e+00,
          2.12201929e+00 ]
      - [ 0., -7.16207623e-02, -1.14950314e-01, 7.68231601e-02,
          -1.09230265e-01 ]
      - [ 0., 1.14906275e+00, 7.04977214e-01, -1.39350581e+00,
          -1.36842072e+00 ]
      - [ 0., -2.65633464e-01, -2.27037355e-01, 3.45388234e-01,
          1.93154901e-01 ]
      - [ 0., 3.13108265e-01, 1.07610874e-01, -2.92975485e-01,
          -5.69238544e-01 ]
      - [ 0., 8.20524395e-02, -1.69169437e-02, -1.98956221e-01,
          -2.96762884e-01 ]
      - [ 0., 8.06619287e-01, 4.53009456e-01, -1.06097126e+00,
          -1.09714139e+00 ]
      - [ 0., -1.92103490e-01, -1.81256324e-01, 1.95789292e-01,
          3.64290588e-02 ]
      - [ 0., 4.24692452e-01, 2.03132525e-01, -5.69643915e-01,
          -6.58069789e-01 ]
      - [ 0., 4.28917184e-02, -4.89654802e-02, -1.59828618e-01,
          -2.58777827e-01 ]
      - [ 0., 1.46496773e-01, 7.78497010e-03, -2.70003498e-01,
          -4.16400939e-01 ]
      - [ 0., 1.67193723e+00, 1.13260853e+00, -1.91059399e+00,
          -1.71955836e+00 ]
      - [ 0., -1.06842196e+00, -6.23647988e-01, 1.34878635e+00,
          1.53280187e+00 ]
      - [ 0., -9.84917939e-01, -5.86363852e-01, 1.29513800e+00,
          1.41585577e+00 ]
      - [ 0., -1.90260217e-01, -1.81671336e-01, 1.26468599e-01,
          1.01033598e-01 ]
      - [ 0., -3.72173131e-01, -2.85972327e-01, 3.98383200e-01,
          3.33430499e-01 ]
      - [ 0., 4.25016075e-01, 1.95228145e-01, -5.77257037e-01,
          -7.25067079e-01 ]
      - [ 0., -4.80749965e-01, -3.37014616e-01, 4.55871254e-01,
          4.16279852e-01 ]
      - [ 0., -9.15623784e-01, -5.51910937e-01, 1.12818635e+00,
          1.28604841e+00 ]
      - [ 0., -9.24300134e-01, -5.52295268e-01, 1.02408338e+00,
          1.22234118e+00 ]
      - [ 0., -1.26888320e-01, -1.49112388e-01, 1.23904087e-02,
          -8.17135125e-02 ]
      - [ 0., -4.25804406e-01, -3.06075692e-01, 4.91818488e-01,
          4.31533694e-01 ]
      - [ 0., 2.02407110e-02, -6.44276515e-02, -1.20156668e-02,
          -2.42626682e-01 ]
      - [ 0., -9.78554428e-01, -5.92165351e-01, 1.35150528e+00,
          1.37816978e+00 ]
      - [ 0., -1.71277016e-01, -1.72438458e-01, 1.69645339e-01,
          -1.23234456e-02 ]
      - [ 0., 8.40784609e-01, 4.80577409e-01, -9.74249303e-01,
          -1.07979393e+00 ]
      - [ 0., -2.73492664e-01, -2.23697484e-01, 2.23727211e-01,
          1.45598769e-01 ]
      - [ 0., -2.43432418e-01, -2.11051151e-01, 1.96438894e-01,
          1.16586551e-01 ]
      - [ 0., -2.83857673e-01, -2.28643164e-01, 2.60484368e-01,
          2.17381597e-01 ]
      - [ 0., 2.15530872e+00, 1.54193294e+00, -2.23208952e+00,
          -2.01984978e+00 ]
      - [ 0., 3.51540685e-01, 1.40138492e-01, -4.04817462e-01,
          -5.95558941e-01 ]
      - [ 0., -3.65962327e-01, -2.81732112e-01, 4.66351420e-01,
          3.29542279e-01 ]
      - [ 0., -1.05147190e-01, -1.36612251e-01, 4.11109403e-02,
          -1.14613973e-01 ]
      - [ 0., -8.40209544e-01, -5.18156707e-01, 1.06603932e+00,
          1.11107779e+00 ]
      - [ 0., -3.51825595e-01, -2.69440174e-01, 3.59815150e-01,
          2.63442248e-01 ]
      - [ 0., 3.93652588e-01, 1.69151202e-01, -4.65218335e-01,
          -6.72426343e-01 ]
      - [ 0., -1.05495825e-01, -1.26586303e-01, 6.05437979e-02,
          -4.16347645e-02 ]
      - [ 0., 1.42593050e+00, 9.16868329e-01, -1.67777836e+00,
          -1.56582344e+00 ]
      - [ 0., 1.03409529e+00, 6.07998371e-01, -1.15918922e+00,
          -1.29484332e+00 ]
      - [ 0., 1.11389220e+00, 6.72908008e-01, -1.35682380e+00,
          -1.33970749e+00 ]
      - [ 0., 1.04710305e+00, 6.26648784e-01, -1.32125914e+00,
          -1.29783428e+00 ]
      - [ 0., -6.91983581e-01, -4.51786101e-01, 8.41837466e-01,
          7.95831561e-01 ]
      - [ 0., -6.48980439e-01, -4.29212540e-01, 7.51044095e-01,
          6.90550089e-01 ]
      - [ 0., 4.80007589e-01, 2.29375899e-01, -6.05307758e-01,
          -7.68435895e-01 ]
      - [ 0., -5.34221530e-01, -3.60702217e-01, 4.60652530e-01,
          5.41899800e-01 ]
      - [ 0., 2.95284241e-01, 1.09954417e-01, -3.90518308e-01,
          -5.47105491e-01 ]
      - [ 0., 8.16490889e-01, 4.55365241e-01, -1.02839255e+00,
          -1.06872737e+00 ]
      - [ 0., 1.11675870e+00, 6.89901948e-01, -1.35872185e+00,
          -1.34060478e+00 ]
      - [ 0., 1.66679859e-01, 2.65444387e-02, -3.36849988e-01,
          -4.56778795e-01 ]
      - [ 0., -4.66640800e-01, -3.37201744e-01, 5.89938164e-01,
          5.02718329e-01 ]
      - [ 0., 1.05340207e+00, 6.15261018e-01, -1.14316845e+00,
          -1.29962885e+00 ]
      - [ 0., -9.32712197e-01, -5.67429185e-01, 1.19923711e+00,
          1.30848062e+00 ]
      - [ 0., -5.78127563e-01, -3.86223733e-01, 6.62392259e-01,
          6.07999802e-01 ]
      - [ 0., 5.53405106e-01, 2.79156148e-01, -7.43435442e-01,
          -8.51285219e-01 ]
      - [ 0., -4.29850101e-01, -3.15499961e-01, 4.42070842e-01,
          3.67826432e-01 ]
      - [ 0., 3.87622774e-01, 1.65168762e-01, -5.03749013e-01,
          -6.55078828e-01 ]
      - [ 0., 1.69540063e-01, 1.59373395e-02, -1.05003402e-01,
          -4.38533992e-01 ]
      - [ 0., 4.60297734e-01, 2.16406524e-01, -6.00373149e-01,
          -7.36133635e-01 ]
      - [ 0., 1.68483293e+00, 1.13882565e+00, -1.82101357e+00,
          -1.71866107e+00 ]
      - [ 0., 4.49004918e-01, 2.00582623e-01, -5.17746985e-01,
          -7.19982505e-01 ]
      - [ 0., 4.73398864e-01, 2.24492058e-01, -6.76232100e-01,
          -7.60061204e-01 ]
      - [ 0., 3.55999064e+00, 2.90847206e+00, -3.16588140e+00,
          -2.58513951e+00 ]
      - [ 0., 1.22745195e-02, -6.07156642e-02, -1.85344815e-01,
          -2.61170566e-01 ]
      - [ 0., -4.07939851e-01, -2.95648038e-01, 3.79893243e-01,
          4.04615134e-01 ]
      - [ 0., -4.39887941e-01, -3.14682484e-01, 4.53572661e-01,
          4.29739118e-01 ]
      - [ 0., -1.00337766e-01, -1.29605711e-01, -3.95705784e-03,
          -7.09460899e-02 ]
      - [ 0., 1.27936435e+00, 7.97134757e-01, -1.41140413e+00,
          -1.47160852e+00 ]
      - [ 0., -7.61870980e-01, -4.76542950e-01, 7.79743612e-01,
          9.13675010e-01 ]
      - [ 0., -3.96134883e-01, -2.90794522e-01, 4.47075844e-01,
          4.21962649e-01 ]
      - [ 0., -1.30682178e-02, -7.68285692e-02, -1.06711231e-01,
          -2.28569210e-01 ]
      - [ 0., -1.08284163e+00, -6.30850196e-01, 1.48242450e+00,
          1.57168424e+00 ]
      - [ 0., -8.93576682e-01, -5.43452382e-01, 1.15191281e+00,
          1.21755564e+00 ]
      - [ 0., -6.92391276e-01, -4.44869697e-01, 7.94475973e-01,
          8.34414840e-01 ]
      - [ 0., 3.17836165e-01, 1.22307859e-01, -4.78638560e-01,
          -5.45909107e-01 ]
      - [ 0., -1.95865870e-01, -1.90605417e-01, 2.33264983e-01,
          6.39458075e-02 ]
      - [ 0., -1.76835045e-01, -1.69123679e-01, 1.00578956e-01,
          2.05770172e-02 ]
      - [ 0., 2.91370656e-02, -4.73901257e-02, -1.57980084e-01,
          -1.92378700e-01 ]
      - [ 0., 7.53040195e-01, 4.02805895e-01, -9.23461318e-01,
          -1.01967573e+00 ]
      - [ 0., -4.56748158e-01, -3.30076665e-01, 5.85186183e-01,
          4.79688019e-01 ]
      - [ 0., -3.49493891e-01, -2.71584719e-01, 4.20364797e-01,
          2.99931854e-01 ]
      - [ 0., -4.01464552e-01, -3.01248372e-01, 4.52997208e-01,
          3.33131403e-01 ]
      - [ 0., -6.39042437e-01, -4.20157462e-01, 8.01293969e-01,
          7.42293537e-01 ]
      - [ 0., 1.81494787e-01, 3.43277864e-02, -1.84942201e-01,
          -3.82902294e-01 ]
      - [ 0., -4.15878862e-01, -3.13510984e-01, 4.86072481e-01,
          3.29542279e-01 ]
      - [ 0., -1.90474704e-01, -1.87357500e-01, 3.01008344e-01,
          4.30091508e-02 ]
      - [ 0., -5.52867770e-01, -3.74292135e-01, 5.45650482e-01,
          5.41600704e-01 ]
      - [ 0., -2.63155967e-01, -2.22476825e-01, 2.84118682e-01,
          2.17082500e-01 ]
      - [ 0., 3.16473693e-02, -5.29041439e-02, -1.16659380e-01,
          -2.33055636e-01 ]
      - [ 0., -2.26031125e-01, -2.06263617e-01, 2.56961763e-01,
          1.52178869e-01 ]
      - [ 0., -3.06085736e-01, -2.47311413e-01, 3.01646680e-01,
          2.43103772e-01 ]
      - [ 0., 2.55592793e-01, 8.37173983e-02, -3.69402647e-01,
          -4.80706394e-01 ]
      - [ 0., -2.34670956e-02, -8.78589377e-02, -2.99856607e-02,
          -2.14511737e-01 ]
      - [ 0., -4.91811872e-01, -3.43750656e-01, 6.88658714e-01,
          5.25150478e-01 ]
      - [ 0., -7.24433184e-01, -4.66072857e-01, 9.42725420e-01,
          9.17563260e-01 ]
      - [ 0., 1.07519433e-01, -1.28753250e-02, -1.70974389e-01,
          -3.17400455e-01 ]
      - [ 0., 5.45195043e-01, 2.70039618e-01, -7.90519774e-01,
          -8.37526858e-01 ]
      - [ 0., -1.23992121e+00, -6.98208094e-01, 1.59138262e+00,
          1.89410877e+00 ]
      - [ 0., 3.89626138e-02, -4.37324420e-02, -1.58868700e-01,
          -2.35747486e-01 ]
      - [ 0., -4.37299430e-01, -3.10799479e-01, 4.28574681e-01,
          4.23458129e-01 ]
      - [ 0., 8.55481252e-02, -1.81163736e-02, -1.74898937e-01,
          -3.00352037e-01 ]
      - [ 0., 3.67544919e-01, 1.49369702e-01, -5.01568317e-01,
          -6.55677021e-01 ]
      - [ 0., -3.26687753e-01, -2.38266811e-01, 1.30269691e-01,
          2.20372558e-01 ]
      - [ 0., 3.70622933e-01, 1.55939296e-01, -5.08193612e-01,
          -6.44610524e-01 ]
      - [ 0., -3.92827809e-01, -2.91400343e-01, 4.11153436e-01,
          3.40907872e-01 ]
      - [ 0., -8.70625257e-01, -5.35233915e-01, 1.18187034e+00,
          1.18585157e+00 ]
      - [ 0., -3.49885762e-01, -2.73129493e-01, 4.44203466e-01,
          2.63143152e-01 ]
      - [ 0., 6.60570920e-01, 3.47218931e-01, -7.15275347e-01,
          -9.17983472e-01 ]
      - [ 0., -7.70282984e-01, -4.89369273e-01, 9.99701023e-01,
          9.81569588e-01 ]
      - [ 0., 2.13130236e-01, 5.71200438e-02, -4.21150744e-01,
          -5.01942158e-01 ]
      - [ 0., 7.43004978e-02, -2.67324373e-02, -2.15176672e-01,
          -2.90481895e-01 ]
      - [ 0., 6.19578779e-01, 3.26833129e-01, -8.35320592e-01,
          -9.18581605e-01 ]
      - [ 0., -3.09431493e-01, -2.48407438e-01, 2.49628618e-01,
          2.11100608e-01 ]
      - [ 0., -3.11294079e-01, -2.45331630e-01, 2.39030331e-01,
          2.59553999e-01 ]
      - [ 0., 3.19655299e-01, 1.18152700e-01, -3.24314892e-01,
          -5.71930408e-01 ]
      - [ 0., -2.04296336e-01, -1.86295822e-01, 1.44277006e-01,
          1.12698309e-01 ]
      - [ 0., 1.32642651e+00, 8.29109013e-01, -1.46317506e+00,
          -1.46084106e+00 ]
      - [ 0., 6.68366492e-01, 3.58066142e-01, -7.90337980e-01,
          -9.29349065e-01 ]
      - [ 0., 2.06758268e-02, -5.66825159e-02, -6.25016540e-02,
          -1.97762415e-01 ]
      - [ 0., 1.05333008e-01, -2.58661550e-03, -2.06842616e-01,
          -3.22485089e-01 ]
      - [ 0., 7.90781602e-02, -2.50347555e-02, -1.63403004e-01,
          -2.72237092e-01 ]
      - [ 0., -5.28618813e-01, -3.68044376e-01, 5.80504537e-01,
          5.33525109e-01 ]
      - [ 0., 7.70344257e-01, 4.35499549e-01, -1.19099891e+00,
          -1.09953415e+00 ]
      - [ 0., 2.45583391e+00, 1.81437790e+00, -2.47989678e+00,
          -2.16401362e+00 ]
      - [ 0., 6.94881856e-01, 3.70493412e-01, -8.31928849e-01,
          -9.76007879e-01 ]
      - [ 0., -9.53339934e-01, -5.73565662e-01, 1.24170446e+00,
          1.35125113e+00 ]
      - [ 0., -1.27645269e-01, -1.29895955e-01, -6.09793179e-02,
          -2.30908692e-02 ]
      - [ 0., 1.30880678e+00, 8.30528677e-01, -1.50749147e+00,
          -1.46562660e+00 ]
      - [ 0., 1.11825502e+00, 6.76319242e-01, -1.34198701e+00,
          -1.25057721e+00 ]
      - [ 0., -9.63025391e-01, -5.70200384e-01, 1.12829816e+00,
          1.28634751e+00 ]
      - [ 0., -8.01752746e-01, -5.03048539e-01, 9.77523327e-01,
          1.02314389e+00 ]
      - [ 0., -9.71652508e-01, -5.79331934e-01, 1.19664407e+00,
          1.29083395e+00 ]
      - [ 0., 3.60428868e-03, -6.81620389e-02, -2.14425534e-01,
          -2.99155653e-01 ]
      - [ 0., 8.79426003e-01, 5.13739884e-01, -1.16812730e+00,
          -1.16144681e+00 ]
      - [ 0., -4.44978625e-01, -3.26332748e-01, 5.21615565e-01,
          4.15681660e-01 ]
      - [ 0., 3.36037040e-01, 1.36185780e-01, -4.92407978e-01,
          -5.74024081e-01 ]
      - [ 0., -1.49080098e-01, -1.62833810e-01, 1.76077530e-01,
          -1.59125868e-02 ]
      - [ 0., 1.46598518e+00, 9.39833164e-01, -1.60239542e+00,
          -1.57509542e+00 ]
      - [ 0., -3.13107193e-01, -2.46486634e-01, 2.94466347e-01,
          1.99734986e-01 ]
      - [ 0., -1.01355128e-01, -1.34767383e-01, 9.52077936e-03,
          -7.12451860e-02 ]
      - [ 0., 1.60959816e+00, 1.05362439e+00, -1.69744301e+00,
          -1.65884209e+00 ]
      - [ 0., 1.24698114e+00, 7.73764491e-01, -1.37257588e+00,
          -1.40550852e+00 ]
      - [ 0., -5.93282580e-01, -3.94001305e-01, 7.10254431e-01,
          6.86960936e-01 ]
      - [ 0., -6.37649477e-01, -4.07658726e-01, 5.36419809e-01,
          7.26441503e-01 ]
      - [ 0., 6.73085630e-01, 3.44294727e-01, -7.11602330e-01,
          -9.18880701e-01 ]
      - [ 0., -9.64850783e-01, -5.78114748e-01, 1.24259067e+00,
          1.33360457e+00 ]
      - [ 0., 4.36354160e-01, 1.93464771e-01, -5.43542862e-01,
          -7.25067079e-01 ]
      - [ 0., -2.59393454e-01, -2.23324925e-01, 2.18470380e-01,
          1.31242201e-01 ]
      - [ 0., -1.15673673e+00, -6.63419306e-01, 1.49594295e+00,
          1.78075171e+00 ]
      - [ 0., -1.99224174e-01, -1.80725455e-01, 8.82692561e-02,
          9.02661756e-02 ]
      - [ 0., 1.36187685e+00, 8.82301569e-01, -1.63305712e+00,
          -1.51856637e+00 ]
      - [ 0., -7.71522701e-01, -4.89580125e-01, 9.59827125e-01,
          9.62427497e-01 ]
      - [ 0., -2.78924048e-01, -2.27923110e-01, 2.99344271e-01,
          2.13792458e-01 ]
      - [ 0., -6.75911129e-01, -4.40729737e-01, 8.63679886e-01,
          8.46378624e-01 ]
      - [ 0., 7.67191172e-01, 4.32442576e-01, -1.02916980e+00,
          -1.06334364e+00 ]
      - [ 0., -1.60571381e-01, -1.66678399e-01, 1.60416514e-01,
          2.56616343e-02 ]
      - [ 0., -1.25848579e+00, -7.04811454e-01, 1.62930048e+00,
          1.93089747e+00 ]
      - [ 0., 6.08785450e-03, -7.35747665e-02, -1.59804493e-01,
          -2.61170566e-01 ]
      - [ 0., -1.43825233e-01, -1.57661363e-01, 2.74813063e-02,
          1.10059734e-02 ]
      - [ 0., -1.02907665e-01, -1.33544579e-01, 1.25066966e-01,
          -6.85533285e-02 ]
      - [ 0., 2.33435559e+00, 1.70469141e+00, -2.31387043e+00,
          -2.07847238e+00 ]
      - [ 0., -3.77485789e-02, -9.13121626e-02, 7.48543674e-03,
          -1.30765110e-01 ]
      - [ 0., 9.48504567e-01, 5.47960758e-01, -1.10831475e+00,
          -1.18148625e+00 ]
      - [ 0., -1.06641841e+00, -6.20838881e-01, 1.43046057e+00,
          1.62492323e+00 ]
      - [ 0., 4.31870222e-01, 2.04528958e-01, -5.88140786e-01,
          -6.33843064e-01 ]
      - [ 0., 8.08414876e-01, 4.66452330e-01, -1.06580877e+00,
          -1.10880613e+00 ]
      - [ 0., -7.06527710e-01, -4.57481384e-01, 9.03898239e-01,
          8.37405741e-01 ]
      - [ 0., 3.40346664e-01, 1.38621911e-01, -4.57985193e-01,
          -5.91670692e-01 ]
      - [ 0., 8.90734732e-01, 5.28686762e-01, -1.22389996e+00,
          -1.19434738e+00 ]
      - [ 0., -6.76015258e-01, -4.46428239e-01, 8.46732318e-01,
          7.69810259e-01 ]
      - [ 0., -5.51349344e-03, -7.24891424e-02, -1.57694578e-01,
          -2.26176456e-01 ]
      - [ 0., 1.07313156e+00, 6.46523356e-01, -1.28644490e+00,
          -1.31069529e+00 ]
      - [ 0., -3.48534547e-02, -8.71711224e-02, -3.51842083e-02,
          -1.06239311e-01 ]
      - [ 0., -1.20449662e+00, -6.85260653e-01, 1.58198297e+00,
          1.88513589e+00 ]
      - [ 0., 1.94675052e+00, 1.35326147e+00, -2.08015656e+00,
          -1.89452899e+00 ]
      - [ 0., -3.63954931e-01, -2.81691283e-01, 4.17908102e-01,
          2.81088859e-01 ]
      - [ 0., 5.57054520e-01, 2.84912735e-01, -8.70292246e-01,
          -8.80895674e-01 ]
      - [ 0., 9.34557617e-01, 5.39533436e-01, -1.04809237e+00,
          -1.18507540e+00 ]
      - [ 0., -5.17767966e-01, -3.50787729e-01, 4.69255894e-01,
          4.61144120e-01 ]
      - [ 0., -1.04100239e+00, -6.12284362e-01, 1.35330319e+00,
          1.47926390e+00 ]
      - [ 0., -9.09213305e-01, -5.53239822e-01, 1.21763313e+00,
          1.21546197e+00 ]
      - [ 0., -2.43874475e-01, -2.12100223e-01, 2.37108961e-01,
          1.00136317e-01 ]
      - [ 0., 3.50001276e-01, 1.48373842e-01, -5.46328247e-01,
          -5.77613235e-01 ]
      - [ 0., -4.01755989e-01, -2.98016787e-01, 4.75867957e-01,
          4.42899317e-01 ]
      - [ 0., -1.16407001e+00, -6.66302741e-01, 1.38827014e+00,
          1.69550967e+00 ]
      - [ 0., 4.25125694e+00, 3.77421761e+00, -3.64072871e+00,
          -2.78822517e+00 ]
      - [ 0., -1.11278379e+00, -6.47305369e-01, 1.53010213e+00,
          1.66081464e+00 ]
      - [ 0., 1.88223529e+00, 1.29383397e+00, -1.96449852e+00,
          -1.84517825e+00 ]
      - [ 0., -5.94173610e-01, -3.94095629e-01, 5.64079225e-01,
          5.97830594e-01 ]
      - [ 0., 1.53581429e+00, 1.01532996e+00, -1.71597385e+00,
          -1.62594151e+00 ]
      - [ 0., -1.39845565e-01, -1.49610549e-01, -4.91266176e-02,
          -4.46257181e-02 ]
      - [ 0., 2.63019204e-01, 8.45016390e-02, -2.69259036e-01,
          -5.42020917e-01 ]
      - [ 0., 3.79545361e-01, 1.56424597e-01, -4.98082727e-01,
          -6.58967078e-01 ]
      - [ 0., -3.92163932e-01, -2.90776968e-01, 4.61803526e-01,
          3.92053157e-01 ]
      - [ 0., 8.01470339e-01, 4.52630669e-01, -1.01715505e+00,
          -1.09983325e+00 ]
      - [ 0., 4.86431986e-01, 2.25698128e-01, -5.29604256e-01,
          -7.60958493e-01 ]
      - [ 0., 1.95206511e+00, 1.35688925e+00, -2.08274555e+00,
          -1.89722085e+00 ]
      - [ 0., 1.07009661e+00, 6.40206516e-01, -1.19252908e+00,
          -1.31338716e+00 ]
      - [ 0., -1.05287898e+00, -6.22036695e-01, 1.36726677e+00,
          1.51904356e+00 ]
      - [ 0., -3.04168433e-01, -2.45227292e-01, 3.23980629e-01,
          2.34729111e-01 ]
      - [ 0., 3.25348639e+00, 2.58938766e+00, -2.87478352e+00,
          -2.48284912e+00 ]
      - [ 0., 7.47631669e-01, 4.12663698e-01, -9.31427538e-01,
          -9.92458105e-01 ]
      - [ 0., 1.57398093e+00, 1.05155778e+00, -1.88957918e+00,
          -1.71357644e+00 ]
      - [ 0., -5.31370997e-01, -3.69136184e-01, 6.22842014e-01,
          4.86866295e-01 ]
      - [ 0., 4.65018958e-01, 2.16407135e-01, -5.97042382e-01,
          -7.38825500e-01 ]
      - [ 0., 3.89890075e-01, 1.58259273e-01, -3.67554128e-01,
          -6.40722275e-01 ]
      - [ 0., -5.88943958e-01, -3.99803042e-01, 6.74227536e-01,
          5.57452738e-01 ]
      - [ 0., 1.29776418e-01, 1.11285001e-02, -3.35768342e-01,
          -4.01745290e-01 ]
      - [ 0., 3.75409514e-01, 1.62018493e-01, -5.19962072e-01,
          -6.41021371e-01 ]
      - [ 0., -1.08574533e+00, -6.28400981e-01, 1.34535682e+00,
          1.52951181e+00 ]
      - [ 0., 1.37657180e-01, 1.37252994e-02, -2.59831727e-01,
          -4.09222662e-01 ]
      - [ 0., 2.86538988e-01, 9.82407108e-02, -3.36632013e-01,
          -5.65948486e-01 ]
      - [ 0., 2.61288851e-01, 8.61111954e-02, -3.96368682e-01,
          -5.23177922e-01 ]
      - [ 0., -1.86892703e-01, -1.82239383e-01, 1.30487964e-01,
          6.93295226e-02 ]
      - [ 0., -3.91641468e-01, -3.06720912e-01, 6.29865468e-01,
          2.48188391e-01 ]
      - [ 0., -2.37259507e-01, -2.04581261e-01, 2.21384123e-01,
          1.52477965e-01 ]
      - [ 0., -3.71012747e-01, -2.80855536e-01, 3.67517769e-01,
          3.51376206e-01 ]
      - [ 0., 2.01174691e-01, 4.41000536e-02, -2.50671536e-01,
          -4.74126309e-01 ]
      - [ 0., -8.17795694e-01, -5.08467615e-01, 1.02542508e+00,
          1.06292343e+00 ]
      - [ 0., 2.54529744e-01, 8.45060945e-02, -4.41103011e-01,
          -5.42319953e-01 ]
      - [ 0., -9.84291911e-01, -5.87015569e-01, 1.11941099e+00,
          1.29322672e+00 ]
      - [ 0., -3.87510896e-01, -2.94453710e-01, 4.61349040e-01,
          3.19073945e-01 ]
      - [ 0., -3.40234756e-01, -2.70569712e-01, 4.42113876e-01,
          2.96940893e-01 ]
      - [ 0., -3.12821299e-01, -2.48782530e-01, 3.65452975e-01,
          2.55366683e-01 ]
      - [ 0., -7.34607041e-01, -4.73349780e-01, 9.49485660e-01,
          8.70605350e-01 ]
      - [ 0., -1.56081226e-02, -6.87859207e-02, -9.29251984e-02,
          -2.02847034e-01 ]
      - [ 0., -6.70355618e-01, -4.38575298e-01, 8.54203820e-01,
          7.83568621e-01 ]
      - [ 0., -1.11352158e+00, -6.42643511e-01, 1.32619667e+00,
          1.63449419e+00 ]
      - [ 0., 1.76493490e+00, 1.20147610e+00, -1.96070671e+00,
          -1.76920807e+00 ]
      - [ 0., -8.92868280e-01, -5.51853061e-01, 1.20907414e+00,
          1.18973982e+00 ]
      - [ 0., -6.78534806e-01, -4.51148361e-01, 8.86522174e-01,
          7.94036984e-01 ]
      - [ 0., -7.94920981e-01, -5.00354767e-01, 8.95109177e-01,
          9.45977271e-01 ]
      - [ 0., 1.98258555e+00, 1.37170458e+00, -2.10818172e+00,
          -1.91426921e+00 ]
      - [ 0., 2.75526345e-01, 9.80688855e-02, -3.93395752e-01,
          -5.62060237e-01 ]
      - [ 0., -6.41101599e-01, -4.17527914e-01, 7.17085898e-01,
          7.86559582e-01 ]
      - [ 0., 4.62862045e-01, 2.17009634e-01, -5.60563028e-01,
          -7.63949454e-01 ]
      - [ 0., 7.66637683e-01, 4.32048827e-01, -1.03544736e+00,
          -1.00412285e+00 ]
      - [ 0., 1.77345181e+00, 1.20465899e+00, -1.98008013e+00,
          -1.80809045e+00 ]
      - [ 0., 1.29146767e+00, 8.00309598e-01, -1.39849246e+00,
          -1.45695281e+00 ]
      - [ 0., 1.04269214e-01, -7.89630227e-03, -1.42187133e-01,
          -3.96062464e-01 ]
      - [ 0., -1.08601236e+00, -6.26897573e-01, 1.48374939e+00,
          1.64496255e+00 ]
      - [ 0., 4.01317835e-01, 1.67654306e-01, -4.48549360e-01,
          -7.01737702e-01 ]
      - [ 0., 4.06075382e+00, 3.48860073e+00, -3.44378686e+00,
          -2.73827624e+00 ]
      - [ 0., -1.08863747e+00, -6.32226706e-01, 1.36665082e+00,
          1.59591103e+00 ]
      - [ 0., 4.24695343e-01, 1.81897178e-01, -5.79280317e-01,
          -7.83390641e-01 ]
      - [ 0., -2.10826352e-01, -1.88941643e-01, 1.66051343e-01,
          1.27952158e-01 ]
      - [ 0., 1.09006064e-02, -5.35970032e-02, -2.25925192e-01,
          -2.17203602e-01 ]
      - [ 0., 8.76267135e-01, 5.07182300e-01, -1.10826766e+00,
          -1.15187585e+00 ]
      - [ 0., -9.90738571e-01, -5.90324283e-01, 1.27044141e+00,
          1.46251452e+00 ]
      - [ 0., 2.03756317e-01, 5.32372408e-02, -2.94816583e-01,
          -4.33150262e-01 ]
      - [ 0., -1.55385888e+00, -8.26070130e-01, 2.10569739e+00,
          2.58501840e+00 ]
      - [ 0., 1.06408024e+00, 6.34767652e-01, -1.19358051e+00,
          -1.30561066e+00 ]
      - [ 0., 1.82042927e-01, 3.79967205e-02, -2.76223063e-01,
          -4.50198680e-01 ]
      - [ 0., 1.92775726e+00, 1.34987640e+00, -2.14811468e+00,
          -1.90439916e+00 ]
      - [ 0., 1.23494744e+00, 7.65832782e-01, -1.41444349e+00,
          -1.43003428e+00 ]
      - [ 0., -1.11300242e+00, -6.39796734e-01, 1.35721290e+00,
          1.57646978e+00 ]
      - [ 0., -4.32057470e-01, -3.03869128e-01, 4.16107357e-01,
          4.47684824e-01 ]
      - [ 0., 3.93761188e-01, 1.74899831e-01, -5.12970567e-01,
          -6.67341769e-01 ]
      - [ 0., -5.97505808e-01, -4.00326163e-01, 6.13142252e-01,
          6.34320199e-01 ]
      - [ 0., 3.80215466e-01, 1.64836556e-01, -4.94474739e-01,
          -6.57770693e-01 ]
      - [ 0., 1.57982811e-01, 2.91324873e-02, -3.69773865e-01,
          -3.93669724e-01 ]
      - [ 0., 2.30330214e-01, 6.26679137e-02, -3.68165195e-01,
          -4.63059783e-01 ]
      - [ 0., -1.26927840e-02, -8.17406401e-02, -6.62742481e-02,
          -2.22288221e-01 ]
      - [ 0., -4.75179374e-01, -3.43231291e-01, 5.68638086e-01,
          4.59947735e-01 ]
      - [ 0., -7.95636177e-01, -5.03851593e-01, 9.89199162e-01,
          1.00669360e+00 ]
      - [ 0., -9.62841928e-01, -5.83108842e-01, 1.27373946e+00,
          1.31625700e+00 ]
      - [ 0., 8.36065412e-01, 4.82083082e-01, -1.18112874e+00,
          -1.15337133e+00 ]
      - [ 0., 2.75606275e+00, 2.10555148e+00, -2.56657243e+00,
          -2.26062131e+00 ]
      - [ 0., 1.43874419e+00, 9.22193885e-01, -1.60219026e+00,
          -1.59214377e+00 ]
      - [ 0., 5.95175385e-01, 3.11599374e-01, -8.22711110e-01,
          -9.20974374e-01 ]
      - [ 0., 1.03487551e+00, 6.17108047e-01, -1.20559931e+00,
          -1.26224196e+00 ]
      - [ 0., 3.38688642e-01, 1.42073467e-01, -4.38758105e-01,
          -5.90175211e-01 ]
      - [ 0., -7.75033236e-01, -4.89978194e-01, 9.45478261e-01,
          9.79775012e-01 ]
      - [ 0., 2.21076876e-01, 6.35644868e-02, -3.53118747e-01,
          -4.46310461e-01 ]
      - [ 0., 6.61190271e-01, 3.65312904e-01, -9.88906682e-01,
          -1.02087212e+00 ]
      - [ 0., 3.80591702e+00, 3.23766351e+00, -3.40665627e+00,
          -2.64854765e+00 ]
      - [ 0., -7.67383993e-01, -4.86684442e-01, 8.92469347e-01,
          9.37901735e-01 ]
      - [ 0., 1.81524217e-01, 3.45273092e-02, -2.47865304e-01,
          -4.48703200e-01 ]
      - [ 0., 5.31290956e-02, -2.86841635e-02, -3.19758177e-01,
          -3.02146614e-01 ]
      - [ 0., -7.22402871e-01, -4.71011877e-01, 1.01662278e+00,
          8.79279077e-01 ]
      - [ 0., 9.32825387e-01, 5.58027864e-01, -1.18628454e+00,
          -1.25835371e+00 ]
      - [ 0., 6.84370577e-01, 3.66786063e-01, -8.05338860e-01,
          -9.55669403e-01 ]
      - [ 0., -1.23245865e-01, -1.45376191e-01, 1.48599923e-01,
          2.33221496e-03 ]
      - [ 0., -4.55247104e-01, -3.33910704e-01, 4.97837126e-01,
          3.92053157e-01 ]
      - [ 0., 2.43597046e-01, 8.09142366e-02, -4.28353429e-01,
          -5.03138542e-01 ]
      - [ 0., -1.04279268e+00, -6.15358949e-01, 1.37564349e+00,
          1.49332130e+00 ]
      - [ 0., -4.79257762e-01, -3.41415286e-01, 6.22345328e-01,
          4.90455449e-01 ]
      - [ 0., -6.17140174e-01, -4.10056233e-01, 7.28739858e-01,
          6.59145057e-01 ]
      - [ 0., -1.05485946e-01, -1.37017339e-01, -6.74930681e-03,
          -5.74868061e-02 ]
      - [ 0., 4.35344934e-01, 2.09236443e-01, -7.13310719e-01,
          -7.75315046e-01 ]
      - [ 0., -7.91524589e-01, -4.99214828e-01, 1.06550968e+00,
          1.04019225e+00 ]
      - [ 0., 3.97071749e-01, 1.75245225e-01, -5.93860924e-01,
          -6.94858491e-01 ]
      - [ 0., 1.59563589e+00, 1.06304562e+00, -1.76641762e+00,
          -1.65106559e+00 ]
      - [ 0., -6.90795481e-01, -4.37780321e-01, 7.13707626e-01,
          8.41892183e-01 ]
      - [ 0., 4.12801266e-01, 1.85019195e-01, -5.68733275e-01,
          -7.08915949e-01 ]
      - [ 0., -2.97722250e-01, -2.35880733e-01, 2.95643240e-01,
          1.54571623e-01 ]
      - [ 0., 1.06351805e+00, 6.40149534e-01, -1.45494211e+00,
          -1.31906998e+00 ]
      - [ 0., 1.62402606e+00, 1.07858622e+00, -1.81954050e+00,
          -1.71208096e+00 ]
      - [ 0., -5.30568004e-01, -3.53096932e-01, 4.60224777e-01,
          5.53863585e-01 ]
      - [ 0., -4.56761152e-01, -3.20557088e-01, 5.48681557e-01,
          5.31431496e-01 ]
      - [ 0., 5.43228269e-01, 2.77586758e-01, -7.44565010e-01,
          -8.45004261e-01 ]
      - [ 0., 6.44266725e-01, 3.33850086e-01, -7.85857081e-01,
          -9.38620985e-01 ]
      - [ 0., -4.89560515e-01, -3.47942352e-01, 7.29149461e-01,
          5.30534208e-01 ]
      - [ 0., 2.93356985e-01, 1.02501653e-01, -3.51557434e-01,
          -5.69537640e-01 ]
      - [ 0., -4.89013642e-01, -3.35123837e-01, 4.29716021e-01,
          4.98231918e-01 ]
      - [ 0., 7.06411779e-01, 3.71619105e-01, -7.27505922e-01,
          -9.76007879e-01 ]
      - [ 0., -9.83815372e-01, -5.83537161e-01, 1.21489000e+00,
          1.43230593e+00 ]
      - [ 0., -4.05150145e-01, -2.99782276e-01, 4.19550091e-01,
          3.84575754e-01 ]
      - [ 0., 6.69490159e-01, 3.66399765e-01, -8.97681534e-01,
          -9.28152680e-01 ]
      - [ 0., -6.00540936e-01, -3.95281732e-01, 7.05138326e-01,
          7.14178562e-01 ]
      - [ 0., 1.40868977e-01, 1.75733548e-02, -2.72893488e-01,
          -4.10419047e-01 ]
      - [ 0., 1.46878970e+00, 9.58334029e-01, -1.70093811e+00,
          -1.62624061e+00 ]
      - [ 0., -8.94623101e-01, -5.43994009e-01, 1.08143425e+00,
          1.19542265e+00 ]
      - [ 0., 2.03330374e+00, 1.44463432e+00, -2.18718004e+00,
          -1.96571362e+00 ]
      - [ 0., -8.78376901e-01, -5.34621894e-01, 1.00627589e+00,
          1.17927146e+00 ]
      - [ 0., 3.12158704e-01, 1.32386357e-01, -4.50936437e-01,
          -5.77912331e-01 ]
      - [ 0., 1.00291049e+00, 5.92607200e-01, -1.10027397e+00,
          -1.23143518e+00 ]
      - [ 0., -1.78168878e-01, -1.83413580e-01, 2.92715400e-01,
          1.81842558e-02 ]
      - [ 0., -1.65836915e-01, -1.67231679e-01, 1.60008937e-01,
          1.07068783e-02 ]
      - [ 0., -3.49664122e-01, -2.68366456e-01, 2.92887539e-01,
          3.05913746e-01 ]
      - [ 0., 2.52799177e+00, 1.89348233e+00, -2.55705309e+00,
          -2.22951555e+00 ]
      - [ 0., -6.20124280e-01, -4.20961320e-01, 8.09609830e-01,
          7.00719297e-01 ]
      - [ 0., 6.66196719e-02, -2.37230789e-02, -2.43310869e-01,
          -2.20194548e-01 ]
      - [ 0., -7.87852526e-01, -4.96198863e-01, 1.03900790e+00,
          1.04856694e+00 ]
      - [ 0., -1.85493112e-01, -1.77500993e-01, 1.71876684e-01,
          8.30878988e-02 ]
      - [ 0., 1.85866094e+00, 1.26354790e+00, -1.95127428e+00,
          -1.83500910e+00 ]
      - [ 0., 2.39322245e-01, 7.20167384e-02, -3.91197383e-01,
          -5.03437638e-01 ]
      - [ 0., -1.04403305e+00, -6.15601182e-01, 1.34108818e+00,
          1.54715848e+00 ]
      - [ 0., -3.23042333e-01, -2.61029541e-01, 3.72888416e-01,
          2.63143152e-01 ]
      - [ 0., -4.53317255e-01, -3.23696256e-01, 4.85876560e-01,
          4.48582113e-01 ]
      - [ 0., 2.21912932e+00, 1.58252692e+00, -2.23264575e+00,
          -2.03779554e+00 ]
      - [ 0., 3.18453217e+00, 2.55046129e+00, -3.02382922e+00,
          -2.46879148e+00 ]
      - [ 0., -9.23535049e-01, -5.57892025e-01, 1.19655490e+00,
          1.28814209e+00 ]
      - [ 0., -7.41111815e-01, -4.77712572e-01, 9.37441528e-01,
          9.17563260e-01 ]
      - [ 0., 6.61300302e-01, 3.62833112e-01, -9.36774909e-01,
          -9.71222401e-01 ]
      - [ 0., 1.20811969e-01, 4.89707571e-03, -2.45485574e-01,
          -3.85295063e-01 ]
      - [ 0., -2.22122833e-01, -1.92806512e-01, 1.67550325e-01,
          1.24961212e-01 ]
      - [ 0., -7.99404681e-01, -4.96569008e-01, 9.93024468e-01,
          1.02703202e+00 ]
      - [ 0., -5.61096787e-01, -3.85930359e-01, 6.80921018e-01,
          5.28440535e-01 ]
      - [ 0., -6.31759986e-02, -1.07238747e-01, -1.27152074e-02,
          -1.08931169e-01 ]
      - [ 0., 2.24230051e-01, 6.10876530e-02, -3.60925317e-01,
          -4.54685122e-01 ]
      - [ 0., 2.10274145e-01, 5.41798696e-02, -2.86978453e-01,
          -4.51694161e-01 ]
      - [ 0., 1.09721088e+00, 6.70624554e-01, -1.42185295e+00,
          -1.34568942e+00 ]
      - [ 0., 4.26435918e-01, 1.86148524e-01, -4.20513511e-01,
          -6.92764819e-01 ]
      - [ 0., 9.91043568e-01, 5.88558316e-01, -1.16255987e+00,
          -1.22694874e+00 ]
      - [ 0., -3.35215598e-01, -2.59184957e-01, 3.82761389e-01,
          3.26850414e-01 ]
      - [ 0., -7.69775093e-01, -4.90013272e-01, 9.86092150e-01,
          9.04702187e-01 ]
      - [ 0., 9.30345774e-01, 5.43306470e-01, -1.14935577e+00,
          -1.17251337e+00 ]
      - [ 0., 1.84769526e-01, 4.14652899e-02, -3.02161962e-01,
          -4.03838933e-01 ]
      - [ 0., -1.01990461e+00, -6.04704618e-01, 1.38543200e+00,
          1.45832717e+00 ]
      - [ 0., -2.68392004e-02, -8.92547742e-02, -4.95802537e-02,
          -1.93874180e-01 ]
      - [ 0., 7.74935484e-02, -2.17337795e-02, -2.11706340e-01,
          -3.15007687e-01 ]
      - [ 0., 1.12120306e+00, 6.69125676e-01, -1.28871453e+00,
          -1.35107315e+00 ]
      - [ 0., 1.43209350e+00, 9.29332137e-01, -1.66297519e+00,
          -1.50929451e+00 ]
      - [ 0., -8.96565914e-01, -5.47899246e-01, 1.16548944e+00,
          1.21247101e+00 ]
      - [ 0., 3.28430653e-01, 1.31332904e-01, -4.60659683e-01,
          -6.04531765e-01 ]
      - [ 0., 1.67875409e+00, 1.10839641e+00, -1.87550843e+00,
          -1.72673666e+00 ]
      - [ 0., -4.38323826e-01, -3.21252018e-01, 5.33389568e-01,
          4.33926463e-01 ]
      - [ 0., -2.48488247e-01, -2.07967207e-01, 1.68898657e-01,
          1.57263488e-01 ]
      - [ 0., 4.61906642e-01, 2.17112496e-01, -5.75662315e-01,
          -7.30450809e-01 ]
      - [ 0., 1.36122668e+00, 8.69267702e-01, -1.63202775e+00,
          -1.50301349e+00 ]
      - [ 0., 2.31739759e-01, 6.16765693e-02, -2.57458776e-01,
          -4.64256167e-01 ]
      - [ 0., -8.99706721e-01, -5.52205622e-01, 1.17517674e+00,
          1.22712672e+00 ]
      - [ 0., 1.88362598e-02, -6.11634515e-02, -4.89516221e-02,
          -2.30363786e-01 ]
      - [ 0., -3.74512464e-01, -2.86582798e-01, 4.25981432e-01,
          2.82883435e-01 ]
      - [ 0., -1.02038771e-01, -1.31001800e-01, 6.66840822e-02,
          -8.59008431e-02 ]
      - [ 0., -7.20462263e-01, -4.51469481e-01, 6.89505279e-01,
          8.14076364e-01 ]
      - [ 0., 7.38860846e-01, 4.05904233e-01, -1.05019462e+00,
          -1.05437076e+00 ]
      - [ 0., -1.28335044e-01, -1.51837051e-01, 1.87438115e-01,
          6.81864191e-03 ]
      - [ 0., -3.36297631e-01, -2.55565822e-01, 3.03393126e-01,
          3.09203804e-01 ]
      - [ 0., -3.40090021e-02, -7.77001828e-02, -9.30644944e-02,
          -2.17203602e-01 ]
      - [ 0., 1.39652812e+00, 9.24773932e-01, -1.75255680e+00,
          -1.56492615e+00 ]
      - [ 0., -4.49765563e-01, -3.23839903e-01, 6.05367303e-01,
          4.76397961e-01 ]
      - [ 0., 3.46811228e-02, -4.78798412e-02, -8.97011161e-02,
          -2.28868306e-01 ]
      - [ 0., -1.06182802e+00, -6.23642266e-01, 1.39570451e+00,
          1.53549373e+00 ]
      - [ 0., 1.69194710e+00, 1.13576531e+00, -1.88350689e+00,
          -1.73870039e+00 ]
      - [ 0., 9.02453363e-01, 5.25983095e-01, -1.13410842e+00,
          -1.16114771e+00 ]
      - [ 0., -4.71249640e-01, -3.29943091e-01, 4.63213444e-01,
          5.23056805e-01 ]
      - [ 0., -1.25181958e-01, -1.47046313e-01, 9.58884731e-02,
          -3.68492454e-02 ]
      - [ 0., 4.89758030e-02, -3.57841514e-02, -1.70073375e-01,
          -3.44618112e-01 ]
      - [ 0., 2.02579558e-01, 5.41414209e-02, -2.55450755e-01,
          -4.54984218e-01 ]
      - [ 0., -4.07137603e-01, -3.08077753e-01, 4.86135095e-01,
          3.76799285e-01 ]
      - [ 0., -1.07865417e+00, -6.31045282e-01, 1.50308168e+00,
          1.59202278e+00 ]
      - [ 0., -7.60700285e-01, -4.89488870e-01, 9.36370194e-01,
          9.03206706e-01 ]
      - [ 0., -4.19737935e-01, -3.11648965e-01, 5.24336398e-01,
          4.06110615e-01 ]
      - [ 0., 1.27152669e+00, 7.97215164e-01, -1.43592989e+00,
          -1.45814919e+00 ]
      - [ 0., -1.81006685e-01, -1.72194034e-01, 1.29169226e-01,
          -2.15421175e-03 ]
      - [ 0., -1.81621425e-02, -1.00995779e-01, 1.61315128e-01,
          -2.28868306e-01 ]
      - [ 0., -3.46645087e-01, -2.73352504e-01, 5.25529742e-01,
          2.89762616e-01 ]
      - [ 0., 6.56905249e-02, -2.44249124e-02, -2.27029979e-01,
          -3.29663366e-01 ]
      - [ 0., -4.47541982e-01, -3.11177611e-01, 3.30687463e-01,
          4.60246831e-01 ]
      - [ 0., 1.27437484e+00, 8.00728559e-01, -1.49161732e+00,
          -1.40790129e+00 ]
      - [ 0., 2.03620926e-01, 5.56128323e-02, -3.10641646e-01,
          -4.74126309e-01 ]
      - [ 0., 9.32970703e-01, 5.54274321e-01, -1.15120506e+00,
          -1.16443777e+00 ]
      - [ 0., -8.02562296e-01, -4.97780353e-01, 7.79676795e-01,
          9.22049701e-01 ]
      - [ 0., -1.15273941e+00, -6.63044691e-01, 1.64986587e+00,
          1.80976403e+00 ]
      - [ 0., 1.53178692e+00, 9.94361579e-01, -1.65863395e+00,
          -1.61427689e+00 ]
      - [ 0., -2.34360546e-01, -2.01720297e-01, 1.75731093e-01,
          1.43206015e-01 ]
      - [ 0., -6.09392166e-01, -4.07117397e-01, 7.32070386e-01,
          7.03112066e-01 ]
      - [ 0., -4.38593850e-02, -9.52179581e-02, -2.44980715e-02,
          -1.26876876e-01 ]
      - [ 0., -3.17926109e-01, -2.56030649e-01, 3.66290540e-01,
          2.38916442e-01 ]
      - [ 0., -5.02985537e-01, -3.46908808e-01, 5.23951828e-01,
          4.68920588e-01 ]
      - [ 0., 3.25449519e-02, -5.98113649e-02, -7.91562200e-02,
          -2.24980071e-01 ]
      - [ 0., -4.67839628e-01, -3.41036052e-01, 5.45648873e-01,
          4.04914230e-01 ]
      - [ 0., 3.15216333e-02, -5.82098328e-02, -6.92968741e-02,
          -2.22886398e-01 ]
      - [ 0., -1.90470502e-01, -1.83330417e-01, 1.96474254e-01,
          5.64684309e-02 ]
      - [ 0., -1.83680922e-01, -1.79147631e-01, 1.60548478e-01,
          4.45046276e-02 ]
      - [ 0., 2.75441527e-01, 9.52942371e-02, -3.44418406e-01,
          -5.16896904e-01 ]
      - [ 0., 7.12514818e-01, 3.86738181e-01, -8.67863655e-01,
          -9.65539575e-01 ]
      - [ 0., -1.00322083e-01, -1.30496904e-01, 5.21089099e-02,
          -3.65501493e-02 ]
      - [ 0., -8.12039793e-01, -5.10458410e-01, 1.05385125e+00,
          1.05694163e+00 ]
      - [ 0., 1.47434258e+00, 9.55700576e-01, -1.65379417e+00,
          -1.64358819e+00 ]
      - [ 0., 1.09616734e-01, -9.15702898e-03, -2.69350141e-01,
          -3.70639384e-01 ]
      - [ 0., 5.79384446e-01, 2.90217012e-01, -7.55013108e-01,
          -8.49191546e-01 ]
      - [ 0., -6.13537207e-02, -1.15477443e-01, 6.73919246e-02,
          -1.45121679e-01 ]
      - [ 0., -3.79528254e-01, -2.87045330e-01, 4.32962090e-01,
          3.11895669e-01 ]
      - [ 0., -2.31893256e-01, -1.94457114e-01, 1.89892381e-01,
          1.19876593e-01 ]
      - [ 0., -9.97326016e-01, -5.95880687e-01, 1.25783491e+00,
          1.39222717e+00 ]
      - [ 0., -7.03564107e-01, -4.51652080e-01, 8.61097336e-01,
          8.23348284e-01 ]
      - [ 0., -4.49868202e-01, -3.12745094e-01, 3.12386572e-01,
          4.79089826e-01 ]
      - [ 0., 2.67814130e-01, 1.01038329e-01, -4.23234046e-01,
          -5.39628148e-01 ]
      - [ 0., -1.09220982e+00, -6.30187809e-01, 1.29914033e+00,
          1.56181407e+00 ]
      - [ 0., -3.04281920e-01, -2.52774239e-01, 4.58393574e-01,
          2.06614181e-01 ]
      - [ 0., -5.02561688e-01, -3.47523928e-01, 4.59152609e-01,
          4.46787536e-01 ]
      - [ 0., 3.00013106e-02, -5.83361760e-02, -4.80158590e-02,
          -2.42028490e-01 ]
      - [ 0., 1.11944795e+00, 6.70334578e-01, -1.23536897e+00,
          -1.28437495e+00 ]
      - [ 0., -3.25108141e-01, -2.65022039e-01, 4.21821773e-01,
          2.30242684e-01 ]
      - [ 0., -9.70750332e-01, -5.81094980e-01, 1.23117292e+00,
          1.32014525e+00 ]
      - [ 0., 1.34069276e+00, 8.26744914e-01, -1.44863164e+00,
          -1.55625236e+00 ]
      - [ 0., 8.18627059e-01, 4.68784928e-01, -1.07455242e+00,
          -1.06573641e+00 ]
      - [ 0., -9.20287594e-02, -1.29453301e-01, 2.56378669e-02,
          -1.07734784e-01 ]
      - [ 0., -8.74855876e-01, -5.40263832e-01, 1.06917202e+00,
          1.16790581e+00 ]
      - [ 0., -2.95190006e-01, -2.40125179e-01, 2.93516755e-01,
          2.04819605e-01 ]
      - [ 0., 3.05387706e-01, 1.20763868e-01, -5.06215513e-01,
          -5.52489221e-01 ]
      - [ 0., -1.01592386e+00, -5.96227288e-01, 1.31604016e+00,
          1.53250277e+00 ]
      - [ 0., 9.27585512e-02, -1.95233151e-02, -2.21892715e-01,
          -3.48207265e-01 ]
      - [ 0., -4.32065278e-01, -3.13854694e-01, 4.79445994e-01,
          4.19868976e-01 ]
      - [ 0., -2.55815625e-01, -2.18217239e-01, 2.69113272e-01,
          1.34831354e-01 ]
      - [ 0., 5.40488064e-01, 2.67690152e-01, -6.95219815e-01,
          -8.32741320e-01 ]
      - [ 0., 6.33956075e-01, 3.36139023e-01, -7.08731890e-01,
          -8.94654036e-01 ]
      - [ 0., -3.94885600e-01, -2.97393233e-01, 4.67645228e-01,
          3.13391119e-01 ]
      - [ 0., 6.41485080e-02, -1.94401350e-02, -2.69493818e-01,
          -2.97061980e-01 ]
      - [ 0., 1.50972202e-01, 2.20243372e-02, -2.23680153e-01,
          -3.54787350e-01 ]
      - [ 0., -6.63115233e-02, -1.03588417e-01, -7.04947710e-02,
          -1.13118500e-01 ]
      - [ 0., -6.48630112e-02, -1.09112948e-01, 7.83095881e-02,
          -7.90216550e-02 ]
      - [ 0., 1.11840892e+00, 6.78770065e-01, -1.24701715e+00,
          -1.30381608e+00 ]
      - [ 0., -8.96471262e-01, -5.47109187e-01, 1.09066641e+00,
          1.16162491e+00 ]
      - [ 0., 2.40936503e-01, 7.82464147e-02, -3.67301315e-01,
          -4.93567467e-01 ]
      - [ 0., 2.76629239e-01, 9.73822474e-02, -3.85725647e-01,
          -4.68443483e-01 ]
      - [ 0., 1.61262441e+00, 1.07515645e+00, -1.88178658e+00,
          -1.69024706e+00 ]
      - [ 0., -7.03259408e-01, -4.52808917e-01, 8.32643270e-01,
          8.55351448e-01 ]
      - [ 0., 1.31671906e-01, 4.85712523e-03, -2.44483307e-01,
          -3.79313141e-01 ]
      - [ 0., -7.37921178e-01, -4.72892314e-01, 8.17796469e-01,
          8.84064615e-01 ]
      - [ 0., -2.95183867e-01, -2.43365854e-01, 3.43440890e-01,
          1.76704660e-01 ]
      - [ 0., -1.37797937e-01, -1.56852767e-01, 1.15615189e-01,
          -5.59913330e-02 ]
      - [ 0., 1.22265625e+00, 7.77107656e-01, -1.62234533e+00,
          -1.49733067e+00 ]
      - [ 0., -4.83115554e-01, -3.43912214e-01, 5.27066708e-01,
          4.39011067e-01 ]
      - [ 0., 1.50246668e+00, 9.54338551e-01, -1.67016387e+00,
          -1.67289948e+00 ]
      - [ 0., 1.44783258e+00, 9.23469067e-01, -1.53012383e+00,
          -1.57210445e+00 ]
      - [ 0., -8.81727397e-01, -5.42380095e-01, 1.03726399e+00,
          1.09462762e+00 ]
      - [ 0., 4.21168178e-01, 2.00498864e-01, -6.80283487e-01,
          -7.17589736e-01 ]
      - [ 0., 1.44047749e+00, 9.30812657e-01, -1.63160598e+00,
          -1.57150626e+00 ]
      - [ 0., -9.36769426e-01, -5.68408072e-01, 1.21148968e+00,
          1.28126287e+00 ]
      - [ 0., -5.00460327e-01, -3.53014886e-01, 6.37168765e-01,
          5.08102059e-01 ]
      - [ 0., 7.66582131e-01, 4.12931532e-01, -8.92249823e-01,
          -1.04001427e+00 ]
      - [ 0., -6.38499320e-01, -4.25803035e-01, 7.87926495e-01,
          7.42293537e-01 ]
      - [ 0., -3.55285287e-01, -2.76155591e-01, 4.09711540e-01,
          2.50282049e-01 ]
      - [ 0., 5.03292819e-03, -6.87434226e-02, -1.91587284e-02,
          -1.72638431e-01 ]
      - [ 0., -7.35778928e-01, -4.64659870e-01, 6.56399071e-01,
          8.84363711e-01 ]
      - [ 0., -3.57026547e-01, -2.76883036e-01, 4.18049663e-01,
          3.22962165e-01 ]
      - [ 0., 1.70354143e-01, 3.05222515e-02, -3.13854486e-01,
          -4.05932605e-01 ]
      - [ 0., 1.44640827e+00, 9.24027562e-01, -1.51149094e+00,
          -1.55565417e+00 ]
      - [ 0., -5.08442044e-01, -3.51059496e-01, 5.40120125e-01,
          4.67724204e-01 ]
      - [ 0., -1.01313543e+00, -5.95011592e-01, 1.19275177e+00,
          1.46191633e+00 ]
      - [ 0., 2.60878205e-01, 8.51308405e-02, -3.30045491e-01,
          -5.35739899e-01 ]
      - [ 0., -4.36293513e-01, -3.21347684e-01, 5.31719923e-01,
          4.05213326e-01 ]
      - [ 0., 9.93900836e-01, 5.89042723e-01, -1.17770135e+00,
          -1.22335958e+00 ]
      - [ 0., -3.42453271e-01, -2.60531902e-01, 3.01703125e-01,
          3.01128238e-01 ]
      - [ 0., -5.58423877e-01, -3.72312725e-01, 5.06125987e-01,
          5.37114263e-01 ]
      - [ 0., 1.56221557e-02, -5.17937392e-02, -1.55755743e-01,
          -2.19297260e-01 ]
      - [ 0., 1.58718741e+00, 1.05431795e+00, -1.84707201e+00,
          -1.67289948e+00 ]
      - [ 0., 3.55270803e-01, 1.57075018e-01, -4.91357476e-01,
          -5.71930408e-01 ]
      - [ 0., -9.18527693e-02, -1.16449445e-01, -1.29594328e-02,
          -6.73569441e-02 ]
      - [ 0., 5.17315567e-02, -3.76100354e-02, -1.21783666e-01,
          -2.61469662e-01 ]
      - [ 0., -7.75240541e-01, -4.74156290e-01, 6.99381053e-01,
          9.77681398e-01 ]
      - [ 0., 1.51392376e+00, 9.87410724e-01, -1.68934560e+00,
          -1.61128592e+00 ]
      - [ 0., -1.06819129e+00, -6.23323023e-01, 1.36237109e+00,
          1.54087746e+00 ]
      - [ 0., -1.12190032e+00, -6.47363663e-01, 1.46111548e+00,
          1.67277837e+00 ]
      - [ 0., 1.90672994e+00, 1.30096817e+00, -2.01586246e+00,
          -1.88196695e+00 ]
      - [ 0., -6.85256183e-01, -4.36255097e-01, 7.21711934e-01,
          7.65622914e-01 ]
      - [ 0., -5.85227847e-01, -4.00711387e-01, 6.91671014e-01,
          6.31030142e-01 ]
      - [ 0., -7.10832000e-01, -4.51871842e-01, 7.58737147e-01,
          8.61931562e-01 ]
      - [ 0., -4.43771690e-01, -3.03782463e-01, 2.71196365e-01,
          4.34225559e-01 ]
      - [ 0., 2.40586363e-02, -5.70990331e-02, -2.41728425e-02,
          -2.64460623e-01 ]
      - [ 0., 4.90075022e-01, 2.38190055e-01, -6.39658272e-01,
          -7.72324145e-01 ]
      - [ 0., -7.46874273e-01, -4.77946609e-01, 9.13279772e-01,
          9.17862356e-01 ]
      - [ 0., 4.20270771e-01, 1.96460575e-01, -6.31721199e-01,
          -6.61060750e-01 ]
      - [ 0., -4.81218755e-01, -3.39702338e-01, 5.80105543e-01,
          4.70416069e-01 ]
      - [ 0., 1.43255186e+00, 9.28690851e-01, -1.59368432e+00,
          -1.55625236e+00 ]
      - [ 0., 9.77341294e-01, 5.78589439e-01, -1.11725140e+00,
          -1.23592150e+00 ]
      - [ 0., -4.30720776e-01, -3.14224839e-01, 4.53449428e-01,
          4.34823751e-01 ]
      - [ 0., 6.35960877e-01, 3.35152060e-01, -7.62254834e-01,
          -9.18880701e-01 ]
      - [ 0., 5.26310802e-01, 2.68643767e-01, -7.79691577e-01,
          -7.96251714e-01 ]
      - [ 0., 7.39377916e-01, 3.98707986e-01, -9.90124881e-01,
          -1.08248580e+00 ]
      - [ 0., -4.14958537e-01, -3.03476095e-01, 4.02147382e-01,
          3.40309680e-01 ]
      - [ 0., 4.73724842e-01, 2.18099728e-01, -6.17068708e-01,
          -7.42414594e-01 ]
      - [ 0., -4.45456415e-01, -3.22332144e-01, 6.49795294e-01,
          4.47983921e-01 ]
      - [ 0., -2.93479145e-01, -2.38201901e-01, 2.57107884e-01,
          2.09605128e-01 ]
      - [ 0., -3.96500349e-01, -3.02882642e-01, 4.13101226e-01,
          3.60349059e-01 ]
      - [ 0., 1.49236575e-01, 7.24232383e-03, -1.75350398e-01,
          -4.05932605e-01 ]
      - [ 0., -7.38488287e-02, -1.24239683e-01, 1.27973199e-01,
          -1.17006734e-01 ]
      - [ 0., -6.76235855e-01, -4.49552357e-01, 9.27267253e-01,
          8.11085403e-01 ]
      - [ 0., 3.75981092e-01, 1.68850020e-01, -5.51052988e-01,
          -6.56275213e-01 ]
      - [ 0., 2.28665948e-01, 5.52310236e-02, -3.09453160e-01,
          -5.27365208e-01 ]
      - [ 0., 1.57571062e-01, 2.46258657e-02, -2.13091284e-01,
          -3.55684638e-01 ]
      - [ 0., -7.46721745e-01, -4.76928204e-01, 1.02024889e+00,
          9.07693088e-01 ]
      - [ 0., -2.92403072e-01, -2.36763373e-01, 3.05730075e-01,
          2.26952642e-01 ]
      - [ 0., 7.50114679e-01, 4.03301328e-01, -8.85284483e-01,
          -1.07411110e+00 ]
      - [ 0., 1.21791339e+00, 7.64329195e-01, -1.43083453e+00,
          -1.41059303e+00 ]
      - [ 0., 9.47558463e-01, 5.51868975e-01, -1.17695689e+00,
          -1.21857405e+00 ]
      - [ 0., 9.91439298e-02, -1.46036260e-02, -2.12185547e-01,
          -3.43122631e-01 ]
      - [ 0., 4.40848976e-01, 1.99655086e-01, -5.32606125e-01,
          -7.44807363e-01 ]
      - [ 0., -4.61757302e-01, -3.20574164e-01, 4.20347720e-01,
          5.08102059e-01 ]
      - [ 0., -4.32583272e-01, -3.21528077e-01, 4.47039723e-01,
          4.03418750e-01 ]
      - [ 0., -5.31704366e-01, -3.67868036e-01, 6.86660349e-01,
          5.38310647e-01 ]
      - [ 0., 3.01894879e+00, 2.35726929e+00, -2.90214849e+00,
          -2.40687895e+00 ]
      - [ 0., 1.10348240e-02, -6.13134839e-02, -6.36361614e-02,
          -1.46018967e-01 ]
      - [ 0., -4.16649640e-01, -3.08490783e-01, 4.59897459e-01,
          3.94744992e-01 ]
      - [ 0., -6.75122082e-01, -4.40333962e-01, 8.82272661e-01,
          8.05103481e-01 ]
      - [ 0., 6.28394544e-01, 3.12483430e-01, -7.91819811e-01,
          -9.20077085e-01 ]
      - [ 0., -1.24479748e-01, -1.36452258e-01, -3.53417173e-02,
          -8.08162242e-02 ]
      - [ 0., 1.47134197e+00, 9.70132828e-01, -1.75857532e+00,
          -1.62324977e+00 ]
      - [ 0., 1.13721347e+00, 6.79380238e-01, -1.24002326e+00,
          -1.35944784e+00 ]
      - [ 0., 1.40613127e+00, 9.14822102e-01, -1.67150116e+00,
          -1.59692931e+00 ]
      - [ 0., -2.13464320e-01, -1.97069511e-01, 2.11895466e-01,
          9.53507945e-02 ]
      - [ 0., 1.44834980e-01, 3.10905725e-02, -4.04596299e-01,
          -3.96361560e-01 ]
      - [ 0., 6.58219874e-01, 3.46460432e-01, -7.76759267e-01,
          -9.23068047e-01 ]
      - [ 0., 7.10603595e-01, 3.84376258e-01, -8.60297680e-01,
          -9.84083474e-01 ]
      - [ 0., -1.16188228e+00, -6.69639051e-01, 1.68855309e+00,
          1.83369160e+00 ]
      - [ 0., -6.63539171e-01, -4.42077637e-01, 8.27643692e-01,
          7.75792181e-01 ]
      - [ 0., 1.18494928e+00, 7.23306656e-01, -1.35425282e+00,
          -1.35735416e+00 ]
      - [ 0., 2.98084438e-01, 1.23699918e-01, -5.79250753e-01,
          -5.87483346e-01 ]
      - [ 0., 3.95636380e-01, 1.71837196e-01, -4.56857949e-01,
          -6.47302389e-01 ]
      - [ 0., 3.76559228e-01, 1.65338919e-01, -5.48035562e-01,
          -6.98148549e-01 ]
      - [ 0., 7.83054605e-02, -3.49945389e-02, -5.10352440e-02,
          -3.46412688e-01 ]
      - [ 0., 1.76963553e-01, 2.55390760e-02, -1.83612272e-01,
          -4.13709074e-01 ]
      - [ 0., -6.66486323e-01, -4.26836282e-01, 6.90498590e-01,
          8.27834725e-01 ]
      - [ 0., 4.38874125e-01, 2.02295959e-01, -5.72773993e-01,
          -6.80202842e-01 ]
      - [ 0., -1.51933551e+00, -8.08292389e-01, 2.11576605e+00,
          2.61941433e+00 ]
      - [ 0., -6.85754836e-01, -4.52369273e-01, 9.43095803e-01,
          8.16469133e-01 ]
      - [ 0., 7.92742550e-01, 4.63866293e-01, -1.13190508e+00,
          -1.11060071e+00 ]
      - [ 0., 1.11805212e+00, 6.75114930e-01, -1.32060719e+00,
          -1.36542976e+00 ]
      - [ 0., -4.22800422e-01, -3.13080549e-01, 5.69682658e-01,
          3.79491150e-01 ]
      - [ 0., -4.05682445e-01, -2.93374360e-01, 4.09286708e-01,
          3.98035049e-01 ]
      - [ 0., -6.77445531e-01, -4.37847763e-01, 7.98733056e-01,
          7.89251447e-01 ]
      - [ 0., 1.23673105e+00, 7.70697296e-01, -1.39741826e+00,
          -1.43123066e+00 ]
      - [ 0., 3.39406043e-01, 1.28383607e-01, -3.65067571e-01,
          -6.02737188e-01 ]
      - [ 0., -6.86376035e-01, -4.40832883e-01, 7.28195190e-01,
          7.67417490e-01 ]
      - [ 0., -8.21812987e-01, -5.05483627e-01, 1.02594733e+00,
          1.09283304e+00 ]
      - [ 0., 2.60541946e-01, 9.03363228e-02, -4.41132575e-01,
          -4.50497776e-01 ]
      - [ 0., -8.74648094e-01, -5.40699601e-01, 1.17162597e+00,
          1.14756739e+00 ]
      - [ 0., 1.45964730e+00, 9.42834079e-01, -1.63483262e+00,
          -1.57928276e+00 ]
      - [ 0., 3.35849017e-01, 1.33762375e-01, -5.12520254e-01,
          -6.64949000e-01 ]
      - [ 0., -4.72191006e-01, -3.34863245e-01, 4.82980490e-01,
          5.14682114e-01 ]
      - [ 0., -5.47125220e-01, -3.76416087e-01, 5.27862310e-01,
          5.75996637e-01 ]
      - [ 0., -6.14340961e-01, -4.10852343e-01, 8.03893805e-01,
          7.00420201e-01 ]
      - [ 0., -1.29161882e+00, -7.17751026e-01, 1.68842578e+00,
          2.13517952e+00 ]
      - [ 0., -6.68680608e-01, -4.29353982e-01, 6.88457668e-01,
          7.71604836e-01 ]
      - [ 0., 2.08773828e+00, 1.46806121e+00, -2.14110208e+00,
          -1.94657159e+00 ]
      - [ 0., 1.46793616e+00, 9.40318942e-01, -1.60606754e+00,
          -1.60859406e+00 ]
      - [ 0., -9.53094721e-01, -5.73451936e-01, 1.25663066e+00,
          1.37248695e+00 ]
      - [ 0., -5.06608009e-01, -3.58257085e-01, 6.79485023e-01,
          5.26047766e-01 ]
      - [ 0., 5.03443241e-01, 2.42923692e-01, -6.51724637e-01,
          -7.79203296e-01 ]
      - [ 0., 6.76985383e-01, 3.58130991e-01, -8.49379659e-01,
          -9.36826408e-01 ]
      - [ 0., 3.76893544e+00, 3.17718983e+00, -3.37446284e+00,
          -2.63209748e+00 ]
      - [ 0., 1.69854656e-01, 3.84275988e-02, -3.63975823e-01,
          -4.06530797e-01 ]
      - [ 0., -2.38861039e-01, -2.02410147e-01, 1.70947284e-01,
          1.77901044e-01 ]
      - [ 0., 1.78306535e-01, 3.40068042e-02, -2.89217323e-01,
          -4.24476504e-01 ]
      - [ 0., 9.90826339e-02, -9.48803872e-03, -1.71604559e-01,
          -3.51497293e-01 ]
      - [ 0., -5.29092789e-01, -3.62062246e-01, 4.83094573e-01,
          5.28141439e-01 ]
      - [ 0., -2.33083650e-01, -1.98384643e-01, 2.02213615e-01,
          1.41411439e-01 ]
      - [ 0., -8.55123758e-01, -5.23586750e-01, 1.08187485e+00,
          1.13889360e+00 ]
      - [ 0., 2.52247393e-01, 7.62044713e-02, -3.48719686e-01,
          -5.37235379e-01 ]
      - [ 0., -1.63305789e-01, -1.76541835e-01, 2.17062220e-01,
          -4.73175719e-02 ]
      - [ 0., 1.29425931e+00, 8.27000797e-01, -1.70869446e+00,
          -1.51737010e+00 ]
      - [ 0., 3.60611010e+00, 2.98671651e+00, -3.36789274e+00,
          -2.63419127e+00 ]
      - [ 0., 1.78872183e-01, 3.36365774e-02, -2.94151098e-01,
          -4.50796872e-01 ]
      - [ 0., -5.23952127e-01, -3.65814656e-01, 6.41833067e-01,
          5.42797089e-01 ]
      - [ 0., 7.99399707e-03, -6.00715615e-02, -1.26430526e-01,
          -2.03445226e-01 ]
      - [ 0., 1.90990186e+00, 1.30760777e+00, -2.02758360e+00,
          -1.89422989e+00 ]
      - [ 0., -8.06087535e-03, -8.67642164e-02, 5.97609431e-02,
          -1.79218516e-01 ]
      - [ 0., -2.02149916e-02, -8.55431408e-02, -5.35857454e-02,
          -2.03146130e-01 ]
      - [ 0., 8.75048578e-01, 5.02014518e-01, -1.06030893e+00,
          -1.06723189e+00 ]
      - [ 0., -8.16213965e-01, -5.10393441e-01, 1.09509170e+00,
          1.08146739e+00 ]
      - [ 0., 5.03127754e-01, 2.40747720e-01, -7.15587974e-01,
          -8.03729117e-01 ]
      - [ 0., 2.25459039e-02, -5.96316233e-02, -1.72866136e-01,
          -2.33354732e-01 ]
      - [ 0., -1.39932409e-01, -1.58191592e-01, 2.41288006e-01,
          -2.81754863e-02 ]
      - [ 0., -5.26704967e-01, -3.56735408e-01, 5.32886088e-01,
          5.32328725e-01 ]
      - [ 0., 5.61407506e-01, 2.84382284e-01, -7.59464622e-01,
          -8.14795613e-01 ]
      - [ 0., -7.69488931e-01, -4.77214634e-01, 8.10398638e-01,
          9.60333884e-01 ]
      - [ 0., 1.27298713e-01, 1.25157107e-02, -2.17439130e-01,
          -3.04539382e-01 ]
      - [ 0., 1.04181123e+00, 6.35026574e-01, -1.31148100e+00,
          -1.25386727e+00 ]
      - [ 0., 3.97914022e-01, 1.71408936e-01, -6.31225467e-01,
          -7.35236347e-01 ]
      - [ 0., 3.55807751e-01, 1.61690265e-01, -6.95991993e-01,
          -6.87081993e-01 ]
      - [ 0., 1.31635153e+00, 8.34430754e-01, -1.56938410e+00,
          -1.50091982e+00 ]
      - [ 0., -1.51681200e-01, -1.57294422e-01, 8.74706432e-02,
          2.26706825e-02 ]
      - [ 0., 9.16418612e-01, 5.28300285e-01, -1.13297629e+00,
          -1.15426862e+00 ]
      - [ 0., -9.34497535e-01, -5.53325117e-01, 9.44523931e-01,
          1.20110548e+00 ]
      - [ 0., 4.04369682e-01, 1.79548755e-01, -5.74090302e-01,
          -7.17589736e-01 ]
      - [ 0., 9.02241468e-01, 5.09288728e-01, -1.03103781e+00,
          -1.13662195e+00 ]
      - [ 0., -3.94711107e-01, -2.84708172e-01, 3.62877786e-01,
          3.75303805e-01 ]
      - [ 0., 1.69005167e+00, 1.13678741e+00, -1.81707704e+00,
          -1.73361576e+00 ]
      - [ 0., 2.23893929e+00, 1.59983373e+00, -2.15659380e+00,
          -2.01386786e+00 ]
      - [ 0., -5.17139494e-01, -3.56539786e-01, 5.64680398e-01,
          5.55359066e-01 ]
      - [ 0., -5.43389022e-01, -3.76220644e-01, 6.65693879e-01,
          6.29235566e-01 ]
      - [ 0., -4.53976631e-01, -3.33299011e-01, 6.20992184e-01,
          4.43796605e-01 ]
      - [ 0., -5.09925544e-01, -3.51957053e-01, 5.39831698e-01,
          5.54760873e-01 ]
      - [ 0., 1.49376750e+00, 9.58402574e-01, -1.66032600e+00,
          -1.59334016e+00 ]
      - [ 0., -1.09936929e+00, -6.37252927e-01, 1.41214967e+00,
          1.60637927e+00 ]
      - [ 0., 3.03738445e-01, 1.17651060e-01, -4.06329989e-01,
          -5.71332216e-01 ]
      - [ 0., 4.35309696e+00, 3.78066421e+00, -3.70781732e+00,
          -2.84176326e+00 ]
      - [ 0., 4.57723409e-01, 2.07932159e-01, -4.12467301e-01,
          -7.06523180e-01 ]
      - [ 0., 1.39386499e+00, 8.76312733e-01, -1.45664763e+00,
          -1.53082931e+00 ]
      - [ 0., -8.04506719e-01, -5.02874494e-01, 1.02923703e+00,
          1.08834660e+00 ]
      - [ 0., -2.47908920e-01, -2.14473829e-01, 2.37377465e-01,
          1.27054870e-01 ]
      - [ 0., 5.12366712e-01, 2.47180074e-01, -5.98514378e-01,
          -7.70230472e-01 ]
      - [ 0., 1.07602561e+00, 6.50922358e-01, -1.25802267e+00,
          -1.29843247e+00 ]
      - [ 0., -4.40318249e-02, -9.34977457e-02, -1.03427947e-01,
          -1.40635252e-01 ]
      - [ 0., 1.15065854e-02, -6.78951517e-02, -1.48819640e-01,
          -2.46215820e-01 ]
      - [ 0., -2.92512804e-01, -2.45104194e-01, 3.52322191e-01,
          1.72218233e-01 ]
      - [ 0., -2.82311410e-01, -2.35332817e-01, 2.90038586e-01,
          2.20073462e-01 ]
      - [ 0., 1.29199183e+00, 8.04540694e-01, -1.32839668e+00,
          -1.47878683e+00 ]
      - [ 0., 2.51788068e+00, 1.86427569e+00, -2.44713831e+00,
          -2.17956662e+00 ]
      - [ 0., 1.00248885e+00, 5.89598656e-01, -1.32079041e+00,
          -1.25895190e+00 ]
      - [ 0., -5.24928749e-01, -3.64713490e-01, 6.22800946e-01,
          5.47582626e-01 ]
      - [ 0., -2.02204570e-01, -1.85777649e-01, 1.58895969e-01,
          9.47526023e-02 ]
      - [ 0., 1.85720533e-01, 4.25772630e-02, -2.99954921e-01,
          -4.42721307e-01 ]
      - [ 0., -3.58412087e-01, -2.73963004e-01, 3.77956003e-01,
          3.49581629e-01 ]
      - [ 0., 3.94948453e-01, 1.67480379e-01, -4.51322049e-01,
          -6.81100130e-01 ]
      - [ 0., -4.88717198e-01, -3.48593891e-01, 6.65772676e-01,
          4.78491634e-01 ]
      - [ 0., -1.10885754e-01, -1.37098700e-01, 9.39135551e-02,
          -4.37284335e-02 ]
      - [ 0., -6.40832663e-01, -4.17275965e-01, 6.21715248e-01,
          6.89054608e-01 ]
      - [ 0., 4.05419230e-01, 1.77613273e-01, -5.19651532e-01,
          -6.91269338e-01 ]
      - [ 0., -1.45511702e-02, -8.08327124e-02, -1.92540903e-02,
          -1.75629377e-01 ]
      - [ 0., 1.07593484e-01, -5.77263301e-03, -2.53644496e-01,
          -3.52992773e-01 ]
      - [ 0., 5.37650704e-01, 2.65566498e-01, -6.37752950e-01,
          -7.65145838e-01 ]
      - [ 0., -1.38433114e-01, -1.51291549e-01, 3.21396701e-02,
          -3.14655341e-02 ]
      - [ 0., -1.00806570e+00, -5.99085093e-01, 1.29898286e+00,
          1.45144808e+00 ]
      - [ 0., -1.07514191e+00, -6.25181556e-01, 1.32388592e+00,
          1.56540322e+00 ]
      - [ 0., -4.73013856e-02, -1.06501102e-01, 1.92605089e-02,
          -1.60375521e-01 ]
      - [ 0., 6.21172547e-01, 3.27065229e-01, -8.57240260e-01,
          -9.20675278e-01 ]
      - [ 0., 6.18192136e-01, 3.18060875e-01, -8.36359382e-01,
          -9.06617820e-01 ]
      - [ 0., 3.75747196e-02, -4.12910692e-02, -7.59096220e-02,
          -1.83405846e-01 ]
      - [ 0., 1.28397667e+00, 7.89030612e-01, -1.40971231e+00,
          -1.46682298e+00 ]
      - [ 0., 2.79733253e+00, 2.14182901e+00, -2.81131935e+00,
          -2.33120775e+00 ]
      - [ 0., 5.27102292e-01, 2.68000543e-01, -7.36809433e-01,
          -8.07916462e-01 ]
      - [ 0., 1.26846388e-01, 3.94257158e-03, -1.86891690e-01,
          -3.50300908e-01 ]
      - [ 0., -1.40209302e-01, -1.53669447e-01, 7.41915926e-02,
          2.65589189e-02 ]
      - [ 0., -9.71160591e-01, -5.78131914e-01, 1.25937414e+00,
          1.37697339e+00 ]
      - [ 0., -7.30015397e-01, -4.57606524e-01, 7.95306087e-01,
          8.57146025e-01 ]
      - [ 0., -9.65294719e-01, -5.81843257e-01, 1.19655430e+00,
          1.34526932e+00 ]
      - [ 0., -1.44942212e+00, -7.83789992e-01, 1.93289614e+00,
          2.36966991e+00 ]
      - [ 0., 2.37099826e-01, 6.64129630e-02, -2.56955028e-01,
          -5.13606846e-01 ]
      - [ 0., -1.11841738e-01, -1.37348562e-01, 1.49405107e-01,
          -8.43520928e-03 ]
      - [ 0., -9.03473079e-01, -5.50850868e-01, 1.12033415e+00,
          1.24686694e+00 ]
      - [ 0., 3.19184518e+00, 2.52376771e+00, -2.94297981e+00,
          -2.49092460e+00 ]
      - [ 0., -4.74385440e-01, -3.28926504e-01, 3.88677776e-01,
          4.71313357e-01 ]
      - [ 0., 1.17715888e-01, -7.56241847e-03, -2.38297999e-01,
          -3.78714949e-01 ]
      - [ 0., 8.71551275e-01, 4.90590274e-01, -1.06291783e+00,
          -1.14051020e+00 ]
      - [ 0., -8.14523637e-01, -5.13325453e-01, 1.05677605e+00,
          1.08116829e+00 ]
      - [ 0., 1.77577361e-01, 3.72032747e-02, -2.58501291e-01,
          -3.62862915e-01 ]
      - [ 0., -5.86122155e-01, -3.90353799e-01, 6.29302919e-01,
          7.28236079e-01 ]
      - [ 0., 7.31045157e-02, -1.70671269e-02, -3.14995319e-01,
          -3.15007687e-01 ]
      - [ 0., -9.10190940e-01, -5.54772198e-01, 1.19103384e+00,
          1.26182175e+00 ]
      - [ 0., -6.79816231e-02, -1.11516453e-01, -2.39819996e-02,
          -1.28671438e-01 ]
      - [ 0., 3.97801638e-01, 1.68529183e-01, -5.65363944e-01,
          -6.88577473e-01 ]
      - [ 0., -1.67795926e-01, -1.67113051e-01, 2.11162552e-01,
          2.92507745e-02 ]
      - [ 0., 1.84529102e+00, 1.26938200e+00, -2.03860259e+00,
          -1.84368277e+00 ]
      - [ 0., -6.88688084e-02, -1.14793010e-01, 4.52139750e-02,
          -1.26577780e-01 ]
      - [ 0., 5.33540070e-01, 2.62726873e-01, -7.02974737e-01,
          -7.69632280e-01 ]
      - [ 0., -2.39975199e-01, -2.01401070e-01, 1.75192103e-01,
          1.39018685e-01 ]
      - [ 0., -1.22093499e+00, -6.88560486e-01, 1.56729400e+00,
          1.90577352e+00 ]
      - [ 0., 1.38132203e+00, 9.01782334e-01, -1.66803467e+00,
          -1.57988095e+00 ]
      - [ 0., 6.96136713e-01, 3.76616150e-01, -7.86023319e-01,
          -9.58959460e-01 ]
      - [ 0., 9.95981768e-02, -1.15842931e-02, -2.06274346e-01,
          -3.21288705e-01 ]
      - [ 0., 4.32865918e-01, 2.02588871e-01, -6.28708005e-01,
          -7.26562560e-01 ]
      - [ 0., 6.75421059e-02, -2.89282538e-02, -2.53847629e-01,
          -2.58478731e-01 ]
      - [ 0., -3.84999484e-01, -2.92212248e-01, 4.30730045e-01,
          3.66929144e-01 ]
      - [ 0., -1.03328049e+00, -6.13921642e-01, 1.45099831e+00,
          1.44456887e+00 ]
      - [ 0., 2.96707720e-01, 1.11038558e-01, -4.12176728e-01,
          -6.16495550e-01 ]
      - [ 0., -4.46843833e-01, -3.08759898e-01, 3.35033834e-01,
          4.06110615e-01 ]
      - [ 0., -3.89381319e-01, -2.91709810e-01, 4.77075249e-01,
          3.45394313e-01 ]
      - [ 0., -6.50864318e-02, -1.12810068e-01, 6.20814487e-02,
          -1.06837504e-01 ]
      - [ 0., 1.65229857e+00, 1.08884251e+00, -1.81903481e+00,
          -1.72284842e+00 ]
      - [ 0., -4.98599797e-01, -3.42618823e-01, 5.35515547e-01,
          5.35319686e-01 ]
      - [ 0., 4.64039668e-02, -4.21270169e-02, -2.00903714e-01,
          -2.74330765e-01 ]
      - [ 0., 6.64910853e-01, 3.47337812e-01, -8.23937714e-01,
          -9.23666239e-01 ]
      - [ 0., 2.36306000e+00, 1.72390997e+00, -2.45493984e+00,
          -2.14158154e+00 ]
      - [ 0., -2.01231427e-02, -8.68577585e-02, 6.74614385e-02,
          -1.60674617e-01 ]
      - [ 0., 8.24779332e-01, 4.58411187e-01, -9.65824962e-01,
          -1.06693280e+00 ]
      - [ 0., -2.09597647e-02, -7.79586807e-02, -1.08273536e-01,
          -1.63067386e-01 ]
      - [ 0., -5.72440982e-01, -3.86926383e-01, 6.03329241e-01,
          5.88259518e-01 ]
      - [ 0., -3.50861073e-01, -2.74785399e-01, 4.46577221e-01,
          2.87070751e-01 ]
      - [ 0., -3.59318107e-01, -2.76045442e-01, 4.75267291e-01,
          3.29243183e-01 ]
      - [ 0., -1.11642499e-02, -7.09242523e-02, -1.52401626e-01,
          -1.81013092e-01 ]
      - [ 0., 1.31797099e+00, 8.16522121e-01, -1.42274165e+00,
          -1.48417044e+00 ]
      - [ 0., -2.07563460e-01, -1.96869358e-01, 2.27076665e-01,
          1.45299673e-01 ]
      - [ 0., -7.01243877e-01, -4.53479350e-01, 8.96692455e-01,
          8.13478172e-01 ]
      - [ 0., -7.00489223e-01, -4.58567888e-01, 9.34802830e-01,
          8.74493539e-01 ]
      - [ 0., -1.45845383e-01, -1.41613930e-01, -5.93515262e-02,
          -2.93718670e-02 ]
      - [ 0., 1.01197338e+00, 5.97421288e-01, -1.30125582e+00,
          -1.27480388e+00 ]
      - [ 0., -4.22102511e-01, -3.00655186e-01, 4.12682742e-01,
          4.01624203e-01 ]
      - [ 0., 9.96406794e-01, 6.01918876e-01, -1.28803861e+00,
          -1.26254106e+00 ]
      - [ 0., 9.26240027e-01, 5.21920562e-01, -1.03084922e+00,
          -1.20003009e+00 ]
      - [ 0., 9.12188888e-02, -1.11168912e-02, -2.40637854e-01,
          -3.25476021e-01 ]
      - [ 0., -1.47918299e-01, -1.68056116e-01, 1.78607285e-01,
          -1.68098714e-02 ]
      - [ 0., -1.21501160e+00, -6.84725940e-01, 1.50895202e+00,
          1.87406945e+00 ]
      - [ 0., 7.96465397e-01, 4.44398075e-01, -1.00477791e+00,
          -1.02894771e+00 ]
      - [ 0., 3.56628776e-01, 1.42098129e-01, -4.30554062e-01,
          -6.59864366e-01 ]
      - [ 0., -3.10752302e-01, -2.49566376e-01, 3.45356017e-01,
          2.17680693e-01 ]
      - [ 0., -1.17902249e-01, -1.41797081e-01, 3.76680382e-02,
          -8.20126086e-02 ]
      - [ 0., 7.72258639e-01, 4.30851847e-01, -9.96575773e-01,
          -1.00741291e+00 ]
      - [ 0., 1.79363623e-01, 3.62656564e-02, -2.99114674e-01,
          -4.40627635e-01 ]
      - [ 0., 1.58292723e+00, 1.03937662e+00, -1.65880072e+00,
          -1.69174254e+00 ]
      - [ 0., 1.86850294e-01, 3.28762680e-02, -3.16513479e-01,
          -4.75920856e-01 ]
      - [ 0., -5.40272295e-01, -3.71641457e-01, 5.47828674e-01,
          4.99428302e-01 ]
      - [ 0., -3.21890086e-01, -2.47648835e-01, 2.81244189e-01,
          2.94847220e-01 ]
      - [ 0., 1.20141454e-01, -3.06159793e-03, -1.51721016e-01,
          -3.67947519e-01 ]
      - [ 0., 1.60467118e-01, 1.98257044e-02, -2.29760289e-01,
          -4.40926731e-01 ]
      - [ 0., -2.92003304e-01, -2.42066726e-01, 3.11155111e-01,
          2.28149027e-01 ]
      - [ 0., 4.56117600e-01, 2.05478966e-01, -5.67920923e-01,
          -7.33142674e-01 ]
      - [ 0., -5.83530843e-01, -3.95501703e-01, 7.14876115e-01,
          6.34918392e-01 ]
      - [ 0., 2.59681702e+00, 1.96514630e+00, -2.57410002e+00,
          -2.19332504e+00 ]
      - [ 0., -9.56950307e-01, -5.76758385e-01, 1.19433463e+00,
          1.31356514e+00 ]
      - [ 0., -8.50261569e-01, -5.28394282e-01, 1.01065004e+00,
          1.09073937e+00 ]
      - [ 0., 3.86309177e-01, 1.66084826e-01, -4.79514867e-01,
          -6.42815948e-01 ]
      - [ 0., 6.41701341e-01, 3.43005031e-01, -8.21422338e-01,
          -9.30246353e-01 ]
      - [ 0., -3.60866487e-01, -2.69847989e-01, 3.54780495e-01,
          3.35524172e-01 ]
      - [ 0., -3.15728098e-01, -2.51047164e-01, 3.08804303e-01,
          2.39215538e-01 ]
      - [ 0., -4.75212365e-01, -3.38738024e-01, 4.86571789e-01,
          4.15681660e-01 ]
      - [ 0., -6.37285650e-01, -4.13681149e-01, 7.44336963e-01,
          8.13179076e-01 ]
      - [ 0., -2.41987109e-01, -2.12556034e-01, 4.03573155e-01,
          1.31541297e-01 ]
      - [ 0., -3.27078670e-01, -2.55645752e-01, 3.47261608e-01,
          2.60152191e-01 ]
      - [ 0., -8.44974577e-01, -5.23624480e-01, 1.06376362e+00,
          1.06770897e+00 ]
      - [ 0., 4.35984850e-01, 2.04595953e-01, -5.87029815e-01,
          -7.09514141e-01 ]
      - [ 0., -6.28298461e-01, -4.17812824e-01, 7.48565316e-01,
          6.64229691e-01 ]
      - [ 0., -4.83407438e-01, -3.43009561e-01, 5.64680040e-01,
          4.66228724e-01 ]
      - [ 0., -7.98738718e-01, -5.00005066e-01, 1.05340970e+00,
          1.01925564e+00 ]
      - [ 0., 3.67453380e-04, -7.68363550e-02, -8.12947601e-02,
          -1.92378700e-01 ]
      - [ 0., -9.79291260e-01, -5.87610245e-01, 1.30144882e+00,
          1.41077113e+00 ]
      - [ 0., -2.48630106e-01, -2.22015589e-01, 3.22181582e-01,
          1.62647188e-01 ]
      - [ 0., -8.61338496e-01, -5.27654886e-01, 1.06257021e+00,
          1.15713847e+00 ]
      - [ 0., 5.17878652e-01, 2.39803717e-01, -5.37814558e-01,
          -7.80997872e-01 ]
      - [ 0., -1.15535390e+00, -6.63092732e-01, 1.48975444e+00,
          1.74216843e+00 ]
      - [ 0., 3.75176954e+00, 3.11145091e+00, -3.18884706e+00,
          -2.64196777e+00 ]
      - [ 0., -2.54502259e-02, -9.15986896e-02, -6.76786751e-02,
          -2.24680975e-01 ]
      - [ 0., 6.32238209e-01, 3.31746578e-01, -7.49918044e-01,
          -9.35031891e-01 ]
      - [ 0., 2.29795590e-01, 6.23408407e-02, -2.98849881e-01,
          -5.08223116e-01 ]
      - [ 0., 5.45187712e-01, 2.66028941e-01, -5.88549376e-01,
          -8.51285219e-01 ]
      - [ 0., -9.46233928e-01, -5.66416085e-01, 1.14574909e+00,
          1.27797282e+00 ]
      - [ 0., -6.00137413e-01, -4.02173191e-01, 7.71383166e-01,
          6.95036471e-01 ]
      - [ 0., 5.67036010e-02, -3.28800492e-02, -1.29275680e-01,
          -2.83901811e-01 ]
      - [ 0., -8.22173711e-03, -7.02165738e-02, -1.00990295e-01,
          -1.96566030e-01 ]
      - [ 0., 1.45553648e+00, 9.43307877e-01, -1.73530698e+00,
          -1.60769677e+00 ]
      - [ 0., -1.78610906e-01, -1.81590050e-01, 2.35564470e-01,
          4.54019122e-02 ]
      - [ 0., 2.12543392e+00, 1.50212598e+00, -2.27882433e+00,
          -2.00968051e+00 ]
      - [ 0., -6.97891831e-01, -4.44089502e-01, 7.01244652e-01,
          8.19160938e-01 ]
      - [ 0., -1.02098036e+00, -6.06164277e-01, 1.28360987e+00,
          1.40209734e+00 ]
      - [ 0., -1.04696643e+00, -6.17865920e-01, 1.40835357e+00,
          1.51036978e+00 ]
      - [ 0., -5.34421146e-01, -3.56140107e-01, 4.67040509e-01,
          5.99326074e-01 ]
      - [ 0., -8.20312500e-01, -5.11713445e-01, 1.05353773e+00,
          1.09253395e+00 ]
      - [ 0., 5.48848748e-01, 2.74737626e-01, -6.68348908e-01,
          -7.73221433e-01 ]
      - [ 0., -4.30544645e-01, -3.01353455e-01, 3.49771947e-01,
          4.30038214e-01 ]
      - [ 0., 5.58844984e-01, 2.78372794e-01, -5.72407603e-01,
          -8.38424146e-01 ]
      - [ 0., 1.96186677e-01, 3.98934521e-02, -2.01763749e-01,
          -4.31953877e-01 ]
      - [ 0., 8.39939654e-01, 4.68388855e-01, -1.06390798e+00,
          -1.12615359e+00 ]
      - [ 0., 1.64308667e-01, 2.81323064e-02, -1.59135163e-01,
          -3.68545711e-01 ]
      - [ 0., -1.97321877e-01, -1.92731902e-01, 1.87955096e-01,
          6.09548576e-02 ]
      - [ 0., 2.09444284e-01, 5.36505505e-02, -3.06447208e-01,
          -4.48105037e-01 ]
      - [ 0., 1.54367518e+00, 1.00904989e+00, -1.72001278e+00,
          -1.66033757e+00 ]
      - [ 0., 4.23275083e-02, -4.94719073e-02, -9.68778431e-02,
          -2.85098195e-01 ]
      - [ 0., 4.03676838e-01, 1.87889725e-01, -7.17446089e-01,
          -7.24169791e-01 ]
      - [ 0., -2.06757814e-01, -1.90620333e-01, 1.79175615e-01,
          8.99670795e-02 ]
      - [ 0., 4.76619780e-01, 2.18299791e-01, -6.18073881e-01,
          -7.45106459e-01 ]
      - [ 0., -4.93457854e-01, -3.45193505e-01, 5.88389575e-01,
          5.24253190e-01 ]
      - [ 0., 3.87427539e-01, 1.64337531e-01, -5.41647494e-01,
          -6.66444480e-01 ]
      - [ 0., 1.44633555e+00, 9.06334639e-01, -1.56570733e+00,
          -1.62384796e+00 ]
      - [ 0., -1.20821321e+00, -6.85948491e-01, 1.56901121e+00,
          1.92282188e+00 ]
      - [ 0., -2.71932751e-01, -2.35017747e-01, 3.06967765e-01,
          1.86574802e-01 ]
      - [ 0., 5.40449977e-01, 2.62393147e-01, -7.76400447e-01,
          -8.27357650e-01 ]
      - [ 0., 6.41009450e-01, 3.45471919e-01, -8.15410078e-01,
          -8.51883411e-01 ]
      - [ 0., 9.06510472e-01, 5.13040483e-01, -1.11053824e+00,
          -1.16473687e+00 ]
      - [ 0., 9.76415277e-01, 5.81702173e-01, -1.28235328e+00,
          -1.24609077e+00 ]
      - [ 0., -1.97060004e-01, -1.75287977e-01, 6.77697435e-02,
          6.84322342e-02 ]
      - [ 0., 6.94933295e-01, 3.73733521e-01, -8.91777575e-01,
          -9.75409687e-01 ]
      - [ 0., -6.90950572e-01, -4.43468779e-01, 7.24122703e-01,
          8.28432918e-01 ]
      - [ 0., 1.03093565e+00, 6.43120825e-01, -1.40171313e+00,
          -1.25356817e+00 ]
      - [ 0., -8.13783884e-01, -5.07343590e-01, 1.05135155e+00,
          1.08176649e+00 ]
      - [ 0., 2.00968787e-01, 4.69693020e-02, -2.23069549e-01,
          -4.11615431e-01 ]
      - [ 0., -7.51899600e-01, -4.68316466e-01, 7.16331601e-01,
          8.85260999e-01 ]
      - [ 0., -1.51333392e-01, -1.54973775e-01, 9.77013186e-02,
          1.99788269e-02 ]
      - [ 0., 9.76365805e-02, -1.43918032e-02, -2.08266184e-01,
          -3.75424922e-01 ]
      - [ 0., 1.21792547e-01, 5.93423983e-03, -2.30881289e-01,
          -3.58675599e-01 ]
      - [ 0., -9.09129679e-01, -5.55735290e-01, 1.19439495e+00,
          1.21336830e+00 ]
      - [ 0., 1.55779660e+00, 1.01910806e+00, -1.69882727e+00,
          -1.65315926e+00 ]
      - [ 0., 1.06262311e-01, -8.39043036e-03, -2.22334608e-01,
          -3.74228537e-01 ]
      - [ 0., -6.56011999e-02, -1.13512494e-01, 1.35416523e-01,
          -9.36773121e-02 ]
      - [ 0., -8.73360336e-02, -1.19351953e-01, 7.94684365e-02,
          -7.15442747e-02 ]
      - [ 0., 9.15587246e-01, 5.37544608e-01, -1.08994460e+00,
          -1.13811743e+00 ]
      - [ 0., -3.79702337e-02, -8.46796185e-02, -9.84432921e-02,
          -1.42429814e-01 ]
      - [ 0., 6.70587540e-01, 3.49994808e-01, -7.57057905e-01,
          -9.67334151e-01 ]
      - [ 0., 1.23344874e+00, 7.67705262e-01, -1.44814336e+00,
          -1.41717315e+00 ]
      - [ 0., -2.24881306e-01, -2.04485476e-01, 1.40255570e-01,
          -5.14516281e-03 ]
      - [ 0., -2.32364804e-01, -1.93409055e-01, 1.76620290e-01,
          1.33634970e-01 ]
      - [ 0., -5.40733397e-01, -3.60327482e-01, 5.53422213e-01,
          6.03513360e-01 ]
      - [ 0., 2.35211873e+00, 1.70791757e+00, -2.36913013e+00,
          -2.13470244e+00 ]
      - [ 0., -1.26760900e+00, -7.10853755e-01, 1.76361847e+00,
          2.07446313e+00 ]
      - [ 0., -5.09213150e-01, -3.57805461e-01, 6.72597706e-01,
          5.91848671e-01 ]
      - [ 0., 9.23073143e-02, -2.10593250e-02, -7.07906857e-02,
          -2.87790030e-01 ]
      - [ 0., 9.23646331e-01, 5.34209728e-01, -1.10997534e+00,
          -1.19315100e+00 ]
      - [ 0., -1.70260143e+00, -8.75770509e-01, 2.20242906e+00,
          3.18560147e+00 ]
      - [ 0., -6.71657801e-01, -4.35287952e-01, 8.72983336e-01,
          8.23946476e-01 ]
      - [ 0., -3.14534575e-01, -2.53165066e-01, 3.39011282e-01,
          2.44898349e-01 ]
      - [ 0., -1.19430602e+00, -6.73941553e-01, 1.53952324e+00,
          1.85492730e+00 ]
      - [ 0., 1.19975829e+00, 7.31373847e-01, -1.47621882e+00,
          -1.41119123e+00 ]
      - [ 0., 5.31507730e-01, 2.72947788e-01, -7.79397011e-01,
          -8.11206460e-01 ]
      - [ 0., 1.14738023e+00, 7.10701704e-01, -1.47017944e+00,
          -1.39264739e+00 ]
      - [ 0., 2.86748111e-01, 1.19584605e-01, -4.95271623e-01,
          -5.82996905e-01 ]
      - [ 0., 2.20737219e+00, 1.57696915e+00, -2.24905562e+00,
          -2.03540277e+00 ]
      - [ 0., 8.04261506e-01, 4.42577511e-01, -9.69806075e-01,
          -1.08517766e+00 ]
      - [ 0., -4.32421789e-02, -9.33247879e-02, -5.53398132e-02,
          -1.66357428e-01 ]
      - [ 0., 1.76925683e+00, 1.19680905e+00, -1.92579913e+00,
          -1.78715384e+00 ]
      - [ 0., 1.32135257e-01, 1.29525121e-02, -3.47435087e-01,
          -3.84397775e-01 ]
      - [ 0., -7.18121469e-01, -4.56289262e-01, 8.45672429e-01,
          9.51361001e-01 ]
      - [ 0., 1.97685707e+00, 1.36277759e+00, -1.96954310e+00,
          -1.88106966e+00 ]
      - [ 0., -6.65222168e-01, -4.28950638e-01, 6.33798957e-01,
          7.15374947e-01 ]
      - [ 0., -8.06474030e-01, -5.03977478e-01, 9.34968114e-01,
          9.93234336e-01 ]
      - [ 0., -4.61244375e-01, -3.25734347e-01, 4.80278671e-01,
          4.35721040e-01 ]
      - [ 0., -1.36276241e-02, -7.40777105e-02, -1.29496336e-01,
          -2.48608589e-01 ]
      - [ 0., 6.53640568e-01, 3.47018838e-01, -8.73337150e-01,
          -9.08412397e-01 ]
      - [ 0., -6.82282567e-01, -4.42329556e-01, 7.86243916e-01,
          7.90746927e-01 ]
      - [ 0., 1.18053532e+00, 7.30971277e-01, -1.45674980e+00,
          -1.42465055e+00 ]
      - [ 0., -6.44575238e-01, -4.24301386e-01, 7.39804208e-01,
          6.79483533e-01 ]
      - [ 0., 1.21874595e+00, 7.61477411e-01, -1.54278541e+00,
          -1.45336366e+00 ]
      - [ 0., -6.56919122e-01, -4.27089125e-01, 7.86072910e-01,
          8.02112520e-01 ]
      - [ 0., 6.46795094e-01, 3.50824594e-01, -8.31009507e-01,
          -8.72221887e-01 ]
      - [ 0., 4.98770744e-01, 2.38341093e-01, -6.19253814e-01,
          -7.27758944e-01 ]
      - [ 0., -1.33461261e+00, -7.39517808e-01, 1.76262379e+00,
          2.08732414e+00 ]
      - [ 0., 1.07754767e+00, 6.33636117e-01, -1.21141529e+00,
          -1.30590975e+00 ]
      - [ 0., 1.79389358e-01, 3.25328670e-02, -2.24438205e-01,
          -4.48105037e-01 ]
      - [ 0., 7.79976606e-01, 4.26656663e-01, -1.02289557e+00,
          -1.05377257e+00 ]
      - [ 0., -7.29563653e-01, -4.74996030e-01, 8.63015890e-01,
          7.89550543e-01 ]
      - [ 0., -4.95193526e-03, -7.33344331e-02, -6.18691109e-02,
          -1.71741143e-01 ]
      - [ 0., -4.56103623e-01, -3.22190642e-01, 5.27932703e-01,
          4.85071719e-01 ]
      - [ 0., -1.41347766e+00, -7.66511440e-01, 1.79466081e+00,
          2.27096868e+00 ]
      - [ 0., -1.65676922e-01, -1.65120155e-01, 1.96122721e-01,
          8.31411686e-03 ]
      - [ 0., 1.06307054e+00, 6.30427480e-01, -1.21579766e+00,
          -1.31398535e+00 ]
      - [ 0., 3.34567100e-01, 1.27482891e-01, -4.46602285e-01,
          -6.29356682e-01 ]
      - [ 0., -7.37012982e-01, -4.67477292e-01, 8.86538506e-01,
          9.56744730e-01 ]
      - [ 0., -5.89431822e-03, -7.96854645e-02, -3.35094915e-03,
          -1.78321227e-01 ]
      - [ 0., -5.67214012e-01, -3.87686849e-01, 6.16777062e-01,
          6.05607033e-01 ]
      - [ 0., -3.11014801e-02, -9.94266421e-02, 2.19873376e-02,
          -1.51701763e-01 ]
      - [ 0., -3.59050453e-01, -2.79364586e-01, 4.55491394e-01,
          2.65236825e-01 ]
      - [ 0., 4.68962520e-01, 2.23962098e-01, -6.78970337e-01,
          -7.35834539e-01 ]
      - [ 0., 3.08409154e-01, 1.25404969e-01, -5.35238922e-01,
          -6.19187415e-01 ]
      - [ 0., 6.33786097e-02, -2.80993935e-02, -1.89173505e-01,
          -2.49206766e-01 ]
      - [ 0., -1.83285177e-01, -1.78182229e-01, 2.23098263e-01,
          8.18915144e-02 ]
      - [ 0., -3.20899278e-01, -2.58348823e-01, 4.35397446e-01,
          2.61647671e-01 ]
      - [ 0., 6.34654403e-01, 3.26840997e-01, -7.63344228e-01,
          -9.29349065e-01 ]
      - [ 0., 1.03919756e+00, 6.17290735e-01, -1.24015319e+00,
          -1.30620885e+00 ]
      - [ 0., -6.56022072e-01, -4.29837018e-01, 7.53834903e-01,
          7.33320653e-01 ]
      - [ 0., -8.24059606e-01, -5.10191739e-01, 1.05820918e+00,
          1.09672117e+00 ]
      - [ 0., -2.72731453e-01, -2.37279251e-01, 3.35372180e-01,
          1.29447639e-01 ]
      - [ 0., 1.23769408e-02, -7.07546920e-02, 6.34815823e-03,
          -2.45019436e-01 ]
      - [ 0., 2.78813958e-01, 1.02457613e-01, -3.62226844e-01,
          -5.28262496e-01 ]
      - [ 0., -4.94047970e-01, -3.53805363e-01, 6.39805853e-01,
          4.62639600e-01 ]
      - [ 0., 1.02017188e+00, 6.07755065e-01, -1.24835372e+00,
          -1.27689755e+00 ]
      - [ 0., 1.38846919e-01, 2.45417953e-02, -3.37747663e-01,
          -4.07428086e-01 ]
      - [ 0., 4.02280748e-01, 1.70221597e-01, -5.07562041e-01,
          -7.37030923e-01 ]
      - [ 0., 6.96502090e-01, 3.73064607e-01, -8.87755930e-01,
          -9.93654490e-01 ]
      - [ 0., 1.99350327e-01, 5.43816127e-02, -3.13997298e-01,
          -4.27168369e-01 ]
      - [ 0., -1.43852815e-01, -1.55080453e-01, 1.63198650e-01,
          3.19426320e-02 ]
      - [ 0., 1.01448994e+01, 1.30896816e+01, -5.83968687e+00,
          -3.58351898e+00 ]
      - [ 0., -3.78052592e-01, -2.85382152e-01, 4.38548505e-01,
          3.34925979e-01 ]
      - [ 0., -1.55870855e-01, -1.61144271e-01, 1.34045795e-01,
          -1.55602139e-03 ]
      - [ 0., -3.13790858e-01, -2.50373632e-01, 3.12536091e-01,
          2.43103772e-01 ]
      - [ 0., -5.16741335e-01, -3.53976488e-01, 4.48873669e-01,
          5.36815166e-01 ]
      - [ 0., -6.39346302e-01, -4.17296559e-01, 7.24498451e-01,
          7.70707548e-01 ]
      - [ 0., -8.57047439e-01, -5.25249481e-01, 1.11327326e+00,
          1.17508411e+00 ]
      - [ 0., -9.96899188e-01, -5.98280609e-01, 1.35498762e+00,
          1.36351407e+00 ]
      - [ 0., 2.56562662e+00, 1.93724644e+00, -2.72798920e+00,
          -2.24776030e+00 ]
      - [ 0., 1.19403076e+00, 7.40089595e-01, -1.35386109e+00,
          -1.35526049e+00 ]
      - [ 0., 1.23059976e+00, 7.76937127e-01, -1.37806785e+00,
          -1.40281665e+00 ]
      - [ 0., 1.16450715e+00, 7.32951522e-01, -1.51910448e+00,
          -1.42913699e+00 ]
      - [ 0., -4.43878621e-01, -3.17222148e-01, 4.00509834e-01,
          3.58554482e-01 ]
      - [ 0., 5.51769733e-01, 2.69466341e-01, -6.28657579e-01,
          -8.49191546e-01 ]
      - [ 0., 1.50185418e+00, 9.73276675e-01, -1.69513988e+00,
          -1.65196288e+00 ]
      - [ 0., -7.57283509e-01, -4.83185053e-01, 9.33219790e-01,
          9.42687273e-01 ]
      - [ 0., -9.05736864e-01, -5.51735640e-01, 1.12551582e+00,
          1.21007824e+00 ]
      - [ 0., 1.73504996e+00, 1.15350330e+00, -1.80884790e+00,
          -1.75455248e+00 ]
      - [ 0., 9.81140673e-01, 5.77503443e-01, -1.24801111e+00,
          -1.23143518e+00 ]
      - [ 0., 8.55927706e-01, 4.94717211e-01, -1.12523222e+00,
          -1.15486681e+00 ]
      - [ 0., 9.80399251e-01, 5.83319366e-01, -1.22485852e+00,
          -1.23921156e+00 ]
      - [ 0., 2.60623470e-02, -5.88621721e-02, -1.02018036e-01,
          -2.31560156e-01 ]
      - [ 0., -9.27082777e-01, -5.54598272e-01, 9.69553769e-01,
          1.21905112e+00 ]
      - [ 0., 1.65433034e-01, 3.33191305e-02, -2.85460383e-01,
          -3.68844807e-01 ]
      - [ 0., 4.89661038e-01, 2.50508457e-01, -8.32314968e-01,
          -8.33339512e-01 ]
      - [ 0., 8.05940330e-01, 4.47307497e-01, -9.84925032e-01,
          -1.08069122e+00 ]
      - [ 0., 1.20821393e+00, 7.60577500e-01, -1.53324020e+00,
          -1.45306456e+00 ]
      - [ 0., 2.67852336e-01, 9.22168568e-02, -4.70982075e-01,
          -5.51591933e-01 ]
      - [ 0., 1.16134739e+00, 7.06922114e-01, -1.32831442e+00,
          -1.34778309e+00 ]
      - [ 0., -8.08481812e-01, -4.95570779e-01, 8.21165323e-01,
          9.83065069e-01 ]
      - [ 0., -1.43429208e+00, -7.75358498e-01, 1.96289301e+00,
          2.41184235e+00 ]
      - [ 0., -5.09580553e-01, -3.44222575e-01, 3.70860636e-01,
          4.59947735e-01 ]
      - [ 0., -3.43180209e-01, -2.66349256e-01, 4.11063641e-01,
          3.04119170e-01 ]
      - [ 0., -1.76740170e-01, -1.65333331e-01, 7.09733516e-02,
          -2.42872499e-02 ]
      - [ 0., 1.46518934e+00, 9.41675544e-01, -1.55175173e+00,
          -1.57449722e+00 ]
      - [ 0., -2.88931858e-02, -9.15961489e-02, -1.03088208e-02,
          -1.99257895e-01 ]
      - [ 0., -1.93068683e-01, -1.90481305e-01, 2.59214729e-01,
          6.24503307e-02 ]
      - [ 0., -1.29672149e-02, -7.59932846e-02, -1.04512582e-02,
          -2.19895452e-01 ]
      - [ 0., 1.10517204e+00, 6.83788419e-01, -1.48674202e+00,
          -1.39324558e+00 ]
      - [ 0., -5.70483863e-01, -3.86285156e-01, 7.03288019e-01,
          6.64528787e-01 ]
      - [ 0., 1.30039334e-01, -3.87146673e-03, -1.83635697e-01,
          -3.58675599e-01 ]
      - [ 0., -9.08361733e-01, -5.55924416e-01, 1.27779853e+00,
          1.25703621e+00 ]
      - [ 0., -6.23475790e-01, -4.10423368e-01, 6.12398922e-01,
          6.35516584e-01 ]
      - [ 0., -5.04705131e-01, -3.56627107e-01, 6.72895789e-01,
          5.41600704e-01 ]
      - [ 0., -5.20361245e-01, -3.58196467e-01, 6.06575668e-01,
          5.69117427e-01 ]
      - [ 0., -9.62981880e-01, -5.74897468e-01, 1.16034138e+00,
          1.27109373e+00 ]
      - [ 0., -2.89870679e-01, -2.30124652e-01, 1.95706606e-01,
          1.56067103e-01 ]
      - [ 0., -4.21592742e-01, -3.12957674e-01, 4.71830636e-01,
          3.76799285e-01 ]
      - [ 0., -9.15694237e-01, -5.55730462e-01, 1.10716558e+00,
          1.21277010e+00 ]
      - [ 0., 2.83595473e-01, 1.01403967e-01, -4.53350961e-01,
          -5.85090578e-01 ]
      - [ 0., -2.40321159e-01, -2.19585925e-01, 3.56394053e-01,
          1.04622744e-01 ]
      - [ 0., 1.42892849e+00, 9.14792895e-01, -1.68631685e+00,
          -1.58526468e+00 ]
      - [ 0., 1.45758018e-01, 2.24291701e-02, -3.12595695e-01,
          -4.26271081e-01 ]
      - [ 0., -8.80891383e-01, -5.34656167e-01, 1.01580465e+00,
          1.13440716e+00 ]
      - [ 0., 1.35199916e+00, 8.60671103e-01, -1.54317927e+00,
          -1.52395010e+00 ]
      - [ 0., -8.74270737e-01, -5.34723639e-01, 1.05479217e+00,
          1.24866152e+00 ]
      - [ 0., -5.78190479e-03, -7.65984356e-02, -2.36329716e-02,
          -1.91182315e-01 ]
      - [ 0., -3.50291699e-01, -2.76721627e-01, 4.46663350e-01,
          2.49982968e-01 ]
      - [ 0., 1.47465718e+00, 9.60458159e-01, -1.67965341e+00,
          -1.60799587e+00 ]
      - [ 0., 9.46433544e-01, 5.43026328e-01, -1.16801596e+00,
          -1.21648037e+00 ]
      - [ 0., -9.78122354e-02, -1.26880318e-01, 1.38274893e-01,
          -4.46257181e-02 ]
      - [ 0., 5.95192015e-01, 3.03482056e-01, -7.80873775e-01,
          -8.72820079e-01 ]
      - [ 0., -8.56179416e-01, -5.21573663e-01, 9.61824298e-01,
          1.14457643e+00 ]
      - [ 0., 1.15521915e-01, 8.67452752e-03, -3.26059073e-01,
          -3.83799583e-01 ]
      - [ 0., -8.94153774e-01, -5.48302591e-01, 1.08415139e+00,
          1.15564299e+00 ]
      - [ 0., -5.75532734e-01, -3.84171903e-01, 6.02165997e-01,
          5.71211100e-01 ]
      - [ 0., -6.46034718e-01, -4.22011703e-01, 7.18901753e-01,
          7.02214777e-01 ]
      - [ 0., -2.15642422e-01, -1.95461437e-01, 2.39698768e-01,
          5.37765734e-02 ]
      - [ 0., 8.34649861e-01, 4.89613295e-01, -1.20495200e+00,
          -1.18178535e+00 ]
      - [ 0., -1.97866991e-01, -1.83535039e-01, 1.52459562e-01,
          8.30878988e-02 ]
      - [ 0., 1.87942982e-01, 5.09485193e-02, -4.51800227e-01,
          -3.90678763e-01 ]
      - [ 0., 5.85864298e-02, -3.48987654e-02, -2.45324150e-01,
          -3.05137545e-01 ]
      - [ 0., 7.42371678e-01, 4.03172791e-01, -8.78916800e-01,
          -1.02805042e+00 ]
      - [ 0., -3.19545746e-01, -2.54318833e-01, 3.11213255e-01,
          2.13194266e-01 ]
      - [ 0., -8.69105279e-01, -5.26761591e-01, 1.04618084e+00,
          1.16252220e+00 ]
      - [ 0., -6.85256183e-01, -4.36255097e-01, 7.21711934e-01,
          7.65622914e-01 ]
      - [ 0., 8.59855860e-02, -1.57703310e-02, -2.28614315e-01,
          -3.05137545e-01 ]
      - [ 0., -1.07716344e-01, -1.38579115e-01, 9.73653868e-02,
          -7.09460899e-02 ]
      - [ 0., 2.49146875e-02, -5.42435236e-02, -1.02911294e-01,
          -2.27971017e-01 ]
      - [ 0., -9.61605728e-01, -5.72326779e-01, 1.10869384e+00,
          1.29532039e+00 ]
      - [ 0., -1.56704515e-01, -1.57483205e-01, 9.18122157e-02,
          7.02268034e-02 ]
      - [ 0., -4.81400102e-01, -3.36732477e-01, 5.04317760e-01,
          4.18971717e-01 ]
      - [ 0., 1.24095869e+00, 7.72535682e-01, -1.40326619e+00,
          -1.36871982e+00 ]
      - [ 0., 2.81088173e-01, 1.07726648e-01, -4.83835012e-01,
          -5.26767015e-01 ]
      - [ 0., 1.70627370e-01, 2.51855738e-02, -2.48633713e-01,
          -4.27766562e-01 ]
      - [ 0., 1.81354415e+00, 1.24162471e+00, -1.92014849e+00,
          -1.80689406e+00 ]
      - [ 0., -1.19180071e+00, -6.76318824e-01, 1.53038144e+00,
          1.82172775e+00 ]
      - [ 0., -4.57920879e-01, -3.24711174e-01, 4.83719438e-01,
          4.26449090e-01 ]
      - [ 0., -1.11274803e+00, -6.44213080e-01, 1.52297270e+00,
          1.65692639e+00 ]
      - [ 0., -1.12829852e+00, -6.49019599e-01, 1.38465345e+00,
          1.62641871e+00 ]
      - [ 0., -1.60741329e-01, -1.69467747e-01, 1.18189350e-01,
          -1.25692633e-03 ]
      - [ 0., 6.31167471e-01, 3.41358811e-01, -9.48441565e-01,
          -9.67633247e-01 ]
      - [ 0., -1.81125328e-01, -1.76718429e-01, 2.08060250e-01,
          5.70666194e-02 ]
      - [ 0., -6.65950835e-01, -4.35114264e-01, 7.98208594e-01,
          7.59940147e-01 ]
      - [ 0., -2.12028295e-01, -1.95018753e-01, 1.93710998e-01,
          6.24503307e-02 ]
      - [ 0., 1.35012710e+00, 8.43372524e-01, -1.57041728e+00,
          -1.51737010e+00 ]
      - [ 0., -1.26818991e+00, -7.10430324e-01, 1.61448455e+00,
          1.92431736e+00 ]
      - [ 0., -6.89648032e-01, -4.35683727e-01, 6.27815306e-01,
          8.31124783e-01 ]
      - [ 0., -6.62146866e-01, -4.33163375e-01, 8.53756964e-01,
          7.83568621e-01 ]
      - [ 0., -7.20445871e-01, -4.57608044e-01, 8.33913863e-01,
          8.36209357e-01 ]
      - [ 0., -5.64663112e-01, -3.93792361e-01, 7.10987389e-01,
          5.67621946e-01 ]
      - [ 0., -1.50314927e-01, -1.52897090e-01, 7.45039135e-02,
          3.10453456e-02 ]
      - [ 0., 7.67822981e-01, 4.39740151e-01, -1.09801435e+00,
          -1.05377257e+00 ]
      - [ 0., -1.09200716e+00, -6.34082735e-01, 1.29352582e+00,
          1.59591103e+00 ]
      - [ 0., -2.86352038e-01, -2.37844422e-01, 3.19711983e-01,
          2.01828659e-01 ]
      - [ 0., 7.00021446e-01, 3.84000003e-01, -8.50026608e-01,
          -9.13497031e-01 ]
      - [ 0., -7.62534618e-01, -4.86835152e-01, 9.86057162e-01,
          1.00968456e+00 ]
      - [ 0., -8.58356118e-01, -5.24396241e-01, 1.01747847e+00,
          1.13350987e+00 ]
      - [ 0., -2.28202030e-01, -1.95767149e-01, 1.59185410e-01,
          1.22867547e-01 ]
      - [ 0., 8.15449655e-01, 4.62721795e-01, -1.02106106e+00,
          -1.06005359e+00 ]
      - [ 0., 7.17341721e-01, 4.06248033e-01, -1.08600533e+00,
          -1.03134048e+00 ]
      - [ 0., -1.04688406e+00, -6.14006221e-01, 1.29103255e+00,
          1.51096797e+00 ]
      - [ 0., -6.30560458e-01, -4.20422703e-01, 8.00933480e-01,
          6.90550089e-01 ]
      - [ 0., 2.56355166e+00, 1.90699458e+00, -2.60257363e+00,
          -2.20289612e+00 ]
      - [ 0., -1.07073271e+00, -6.30889475e-01, 1.33205569e+00,
          1.47956300e+00 ]
      - [ 0., 2.89465475e+00, 2.23940945e+00, -2.83867288e+00,
          -2.34586358e+00 ]
      - [ 0., 7.48918653e-01, 4.10264522e-01, -9.58386600e-01,
          -1.03403234e+00 ]
      - [ 0., 1.89697683e-01, 5.49620688e-02, -3.86393100e-01,
          -4.12213624e-01 ]
      - [ 0., 1.63066769e+00, 1.06839859e+00, -1.79004717e+00,
          -1.69951892e+00 ]
      - [ 0., -2.26696745e-01, -2.06403121e-01, 3.16260993e-01,
          6.57403767e-02 ]
      - [ 0., -5.36115706e-01, -3.74662548e-01, 6.41572058e-01,
          6.09196186e-01 ]
      - [ 0., -1.08397841e+00, -6.31153762e-01, 1.39310646e+00,
          1.64645803e+00 ]
      - [ 0., 1.71142295e-01, 4.55564149e-02, -3.83176237e-01,
          -4.46011364e-01 ]
      - [ 0., 3.77245784e-01, 1.62671894e-01, -6.54517114e-01,
          -6.58069789e-01 ]
      - [ 0., -7.32903004e-01, -4.66340005e-01, 8.77741218e-01,
          9.09188569e-01 ]
      - [ 0., -6.57255109e-03, -6.78987652e-02, -1.15983844e-01,
          -1.91182315e-01 ]
      - [ 0., -3.47186595e-01, -2.71605492e-01, 3.62951696e-01,
          2.38617361e-01 ]
      - [ 0., 1.47865921e-01, 2.03645192e-02, -2.59111673e-01,
          -3.67349356e-01 ]
      - [ 0., 1.54482260e-01, 2.49040611e-02, -2.87463695e-01,
          -3.93370628e-01 ]
      - [ 0., -4.90027547e-01, -3.44381660e-01, 5.68606973e-01,
          5.08999348e-01 ]
      - [ 0., -2.34527558e-01, -1.98615238e-01, 1.50230318e-01,
          1.67133614e-01 ]
      - [ 0., 8.91134262e-01, 5.11687577e-01, -1.03271580e+00,
          -1.11060071e+00 ]
      - [ 0., -4.70065206e-01, -3.30955774e-01, 4.94078189e-01,
          4.14186180e-01 ]
      - [ 0., -4.44054604e-01, -3.16756219e-01, 4.19488192e-01,
          4.36917424e-01 ]
      - [ 0., -8.08578730e-01, -5.04322827e-01, 9.38701689e-01,
          1.04587507e+00 ]
      - [ 0., -4.79524136e-01, -3.41061115e-01, 6.01554096e-01,
          5.31132400e-01 ]
      - [ 0., -8.13438967e-02, -1.20762587e-01, 1.25135249e-02,
