%YAML:1.0
---
opencv_ml_rtrees:
   format: 3
   is_classifier: 1
   var_all: 5
   var_count: 4
   ord_var_count: 4
   cat_var_count: 1
   training_params:
      use_surrogates: 0
      max_categories: 10
      regression_accuracy: 0.
      max_depth: 5
      min_sample_count: 10
      cross_validation_folds: 0
      nactive_vars: 0
   global_var_idx: 1
   var_idx: [ 0, 1, 2, 3 ]
   var_type: [ 0, 0, 0, 0, 1 ]
   cat_ofs: [ 0, 0, 0, 0, 0, 0, 0, 0 ]
   class_labels: [ 0, 1, 2, 3 ]
   missing_subst: [ 0., 0., 0., 0., 0. ]
   oob_error: 4.5439963336388633e-01
   ntrees: 50
   trees:
      -
         nodes:
            -
               depth: 0
               value: 0.
               norm_class_idx: 0
               splits:
                  - { var:2, quality:4.3885991210937500e+03,
                      le:-5.2330899238586426e-01 }
            -
               depth: 1
               value: 0.
               norm_class_idx: 0
               splits:
                  - { var:3, quality:2.1871062011718750e+03,
                      le:-4.4592255353927612e-01 }
            -
               depth: 2
               value: 1.
               norm_class_idx: 1
               splits:
                  - { var:3, quality:7.3684951782226562e+01,
                      le:-8.8951832056045532e-01 }
            -
               depth: 3
               value: 1.
               norm_class_idx: 1
               splits:
                  - { var:1, quality:4.7929824829101562e+01,
                      le:1.3609130382537842e+00 }
            -
               depth: 4
               value: 1.
               norm_class_idx: 1
               splits:
                  - { var:1, quality:4.4769695281982422e+01,
                      le:3.5958576202392578e-01 }
            -
               depth: 5
               value: 0.
               norm_class_idx: 0
            -
               depth: 5
               value: 1.
               norm_class_idx: 1
            -
               depth: 4
               value: 3.
               norm_class_idx: 3
               splits:
                  - { var:3, quality:8.8888893127441406e+00,
                      le:-1.1739308834075928e+00 }
            -
               depth: 5
               value: 3.
               norm_class_idx: 3
            -
               depth: 5
               value: 1.
               norm_class_idx: 1
            -
               depth: 3
               value: 3.
               norm_class_idx: 3
               splits:
                  - { var:2, quality:4.0194881439208984e+01,
                      le:-6.3609004020690918e-01 }
            -
               depth: 4
               value: 1.
               norm_class_idx: 1
               splits:
                  - { var:2, quality:2.6319749832153320e+01,
                      le:-6.5541291236877441e-01 }
            -
               depth: 5
               value: 1.
               norm_class_idx: 1
            -
               depth: 5
               value: 0.
               norm_class_idx: 0
            -
               depth: 4
               value: 3.
               norm_class_idx: 3
               splits:
                  - { var:2, quality:2.4650405883789062e+01,
                      le:-5.3759264945983887e-01 }
            -
               depth: 5
               value: 3.
               norm_class_idx: 3
            -
               depth: 5
               value: 0.
               norm_class_idx: 0
            -
               depth: 2
               value: 0.
               norm_class_idx: 0
               splits:
                  - { var:1, quality:2.1905576171875000e+03,
                      le:1.5281784534454346e-01 }
            -
               depth: 3
               value: 0.
               norm_class_idx: 0
               splits:
                  - { var:3, quality:1.6128379821777344e+02,
                      le:1.6474615335464478e+00 }
            -
               depth: 4
               value: 0.
               norm_class_idx: 0
               splits:
                  - { var:1, quality:1.4266615295410156e+02,
                      le:-2.2885724902153015e-01 }
            -
               depth: 5
               value: 2.
               norm_class_idx: 2
            -
               depth: 5
               value: 0.
               norm_class_idx: 0
            -
               depth: 4
               value: 1.
               norm_class_idx: 1
               splits:
                  - { var:1, quality:4.9720085144042969e+01,
                      le:-2.5654515624046326e-01 }
            -
               depth: 5
               value: 0.
               norm_class_idx: 0
            -
               depth: 5
               value: 1.
               norm_class_idx: 1
            -
               depth: 3
               value: 0.
               norm_class_idx: 0
               splits:
                  - { var:0, quality:2.1278774414062500e+03,
                      le:3.1578952074050903e-01 }
            -
               depth: 4
               value: 3.
               norm_class_idx: 3
               splits:
                  - { var:0, quality:6.5708061218261719e+01,
                      le:-1.0882809162139893e+00 }
            -
               depth: 5
               value: 1.
               norm_class_idx: 1
            -
               depth: 5
               value: 3.
               norm_class_idx: 3
            -
               depth: 4
               value: 0.
               norm_class_idx: 0
               splits:
                  - { var:3, quality:2.1183005371093750e+03,
                      le:1.6528532505035400e+00 }
            -
               depth: 5
               value: 0.
               norm_class_idx: 0
            -
               depth: 5
               value: 0.
               norm_class_idx: 0
            -
               depth: 1
               value: 0.
               norm_class_idx: 0
               splits:
                  - { var:1, quality:2.3650471191406250e+03,
                      le:2.5780779123306274e-01 }
            -
               depth: 2
               value: 0.
               norm_class_idx: 0
               splits:
                  - { var:3, quality:1.8976303710937500e+03,
                      le:1.0686457157135010e+00 }
            -
               depth: 3
               value: 0.
               norm_class_idx: 0
               splits:
                  - { var:3, quality:1.8664637451171875e+03,
                      le:-2.5854916572570801e+00 }
            -
               depth: 4
               value: 1.
               norm_class_idx: 1
               splits:
                  - { var:0, quality:6.4652175903320312e+01,
                      le:3.3676359057426453e-01 }
            -
               depth: 5
               value: 1.
               norm_class_idx: 1
            -
               depth: 5
               value: 0.
               norm_class_idx: 0
            -
               depth: 4
               value: 0.
               norm_class_idx: 0
               splits:
                  - { var:0, quality:1.8478260498046875e+03,
                      le:3.4369522333145142e-01 }
            -
               depth: 5
               value: 3.
               norm_class_idx: 3
            -
               depth: 5
               value: 0.
               norm_class_idx: 0
            -
               depth: 3
               value: 1.
               norm_class_idx: 1
               splits:
                  - { var:1, quality:8.6069557189941406e+01,
                      le:-2.3892399668693542e-01 }
            -
               depth: 4
               value: 1.
               norm_class_idx: 1
               splits:
                  - { var:3, quality:7.1233085632324219e+01,
                      le:1.6326552629470825e+00 }
            -
               depth: 5
               value: 1.
               norm_class_idx: 1
            -
               depth: 5
               value: 1.
               norm_class_idx: 1
            -
               depth: 4
               value: 1.
               norm_class_idx: 1
               splits:
                  - { var:2, quality:2.3363636016845703e+01,
                      le:-3.8844296336174011e-01 }
            -
               depth: 5
               value: 1.
               norm_class_idx: 1
            -
               depth: 5
               value: 1.
               norm_class_idx: 1
            -
               depth: 2
               value: 3.
               norm_class_idx: 3
               splits:
                  - { var:3, quality:5.4561883544921875e+02,
                      le:-5.9444206953048706e-01 }
            -
               depth: 3
               value: 3.
               norm_class_idx: 3
               splits:
                  - { var:2, quality:2.3340888977050781e+02,
                      le:5.2457010746002197e-01 }
            -
               depth: 4
               value: 3.
               norm_class_idx: 3
               splits:
                  - { var:2, quality:2.2651550292968750e+02,
                      le:-2.3444579541683197e-01 }
            -
               depth: 5
               value: 3.
               norm_class_idx: 3
            -
               depth: 5
               value: 3.
               norm_class_idx: 3
            -
               depth: 4
               value: 1.
               norm_class_idx: 1
               splits:
                  - { var:0, quality:2.3729230880737305e+01,
                      le:4.6571176499128342e-03 }
            -
               depth: 5
               value: 1.
               norm_class_idx: 1
            -
               depth: 5
               value: 3.
               norm_class_idx: 3
            -
               depth: 3
               value: 3.
               norm_class_idx: 3
               splits:
                  - { var:1, quality:3.3820944213867188e+02,
                      le:1.4707760810852051e+00 }
            -
               depth: 4
               value: 3.
               norm_class_idx: 3
               splits:
                  - { var:0, quality:3.1854574584960938e+02,
                      le:2.4313515424728394e-01 }
            -
               depth: 5
               value: 3.
               norm_class_idx: 3
            -
               depth: 5
               value: 3.
               norm_class_idx: 3
            -
               depth: 4
               value: 0.
               norm_class_idx: 0
               splits:
                  - { var:0, quality:3.2714286804199219e+01,
                      le:-1.7305901646614075e-01 }
            -
               depth: 5
               value: 1.
               norm_class_idx: 1
            -
               depth: 5
               value: 0.
               norm_class_idx: 0
      -
         nodes:
            -
               depth: 0
               value: 0.
               norm_class_idx: 0
               splits:
                  - { var:3, quality:4.3809467773437500e+03,
                      le:6.0213379561901093e-02 }
            -
               depth: 1
               value: 0.
               norm_class_idx: 0
               splits:
                  - { var:1, quality:1.8913542480468750e+03,
                      le:3.2112609595060349e-02 }
            -
               depth: 2
               value: 0.
               norm_class_idx: 0
               splits:
                  - { var:2, quality:1.2713530273437500e+03,
                      le:2.4887094497680664e+00 }
            -
               depth: 3
               value: 0.
               norm_class_idx: 0
               splits:
                  - { var:2, quality:1.1754099121093750e+03,
                      le:-3.8218191266059875e-01 }
            -
               depth: 4
               value: 0.
               norm_class_idx: 0
               splits:
                  - { var:3, quality:3.5783115386962891e+01,
                      le:-2.2146165370941162e-01 }
            -
               depth: 5
               value: 2.
               norm_class_idx: 2
            -
               depth: 5
               value: 0.
               norm_class_idx: 0
            -
               depth: 4
               value: 0.
               norm_class_idx: 0
               splits:
                  - { var:3, quality:1.1666791992187500e+03,
                      le:-2.4586439132690430e+00 }
            -
               depth: 5
               value: 1.
               norm_class_idx: 1
            -
               depth: 5
               value: 0.
               norm_class_idx: 0
            -
               depth: 3
               value: 3.
               norm_class_idx: 3
               splits:
                  - { var:0, quality:1.1724075317382812e+02,
                      le:2.4644444882869720e-01 }
            -
               depth: 4
               value: 3.
               norm_class_idx: 3
               splits:
                  - { var:3, quality:8.4561866760253906e+01,
                      le:-2.3153009414672852e+00 }
            -
               depth: 5
               value: 1.
               norm_class_idx: 1
            -
               depth: 5
               value: 3.
               norm_class_idx: 3
            -
               depth: 4
               value: 0.
               norm_class_idx: 0
               splits:
                  - { var:1, quality:4.9371120452880859e+01,
                      le:-2.8914244174957275e+00 }
            -
               depth: 5
               value: 3.
               norm_class_idx: 3
            -
               depth: 5
               value: 0.
               norm_class_idx: 0
            -
               depth: 2
               value: 3.
               norm_class_idx: 3
               splits:
                  - { var:0, quality:7.0940100097656250e+02,
                      le:-5.0266134738922119e-01 }
            -
               depth: 3
               value: 1.
               norm_class_idx: 1
               splits:
                  - { var:2, quality:1.1656460571289062e+02,
                      le:7.6929755508899689e-02 }
            -
               depth: 4
               value: 1.
               norm_class_idx: 1
               splits:
                  - { var:1, quality:8.4007499694824219e+01,
                      le:1.8339581489562988e+00 }
            -
               depth: 5
               value: 1.
               norm_class_idx: 1
            -
               depth: 5
               value: 2.
               norm_class_idx: 2
            -
               depth: 4
               value: 1.
               norm_class_idx: 1
               splits:
                  - { var:0, quality:3.9565216064453125e+01,
                      le:-5.4846239089965820e-01 }
            -
               depth: 5
               value: 1.
               norm_class_idx: 1
            -
               depth: 5
               value: 3.
               norm_class_idx: 3
            -
               depth: 3
               value: 3.
               norm_class_idx: 3
               splits:
                  - { var:0, quality:6.3065490722656250e+02,
                      le:2.7993702888488770e-01 }
            -
               depth: 4
               value: 3.
               norm_class_idx: 3
               splits:
                  - { var:1, quality:1.8683276367187500e+02,
                      le:1.5015330910682678e-01 }
            -
               depth: 5
               value: 0.
               norm_class_idx: 0
            -
               depth: 5
               value: 3.
               norm_class_idx: 3
            -
               depth: 4
               value: 3.
               norm_class_idx: 3
               splits:
                  - { var:1, quality:4.6000921630859375e+02,
                      le:9.7364240884780884e-01 }
            -
               depth: 5
               value: 3.
               norm_class_idx: 3
            -
               depth: 5
               value: 0.
               norm_class_idx: 0
            -
               depth: 1
               value: 0.
               norm_class_idx: 0
               splits:
                  - { var:1, quality:2.7280637207031250e+03,
                      le:1.6859254240989685e-01 }
            -
               depth: 2
               value: 0.
               norm_class_idx: 0
               splits:
                  - { var:3, quality:6.4549945068359375e+02,
                      le:1.5370137691497803e+00 }
            -
               depth: 3
               value: 0.
               norm_class_idx: 0
               splits:
                  - { var:2, quality:5.9356744384765625e+02,
                      le:-2.3411139845848083e-01 }
            -
               depth: 4
               value: 0.
               norm_class_idx: 0
               splits:
                  - { var:3, quality:2.9859432983398438e+02,
                      le:3.7020021677017212e-01 }
            -
               depth: 5
               value: 0.
               norm_class_idx: 0
            -
               depth: 5
               value: 0.
               norm_class_idx: 0
            -
               depth: 4
               value: 0.
               norm_class_idx: 0
               splits:
                  - { var:0, quality:3.2956326293945312e+02,
                      le:2.5933158397674561e-01 }
            -
               depth: 5
               value: 0.
               norm_class_idx: 0
            -
               depth: 5
               value: 0.
               norm_class_idx: 0
            -
               depth: 3
               value: 1.
               norm_class_idx: 1
               splits:
                  - { var:3, quality:8.2890754699707031e+01,
                      le:1.7408430576324463e+00 }
            -
               depth: 4
               value: 2.
               norm_class_idx: 2
               splits:
                  - { var:2, quality:2.7381395339965820e+01,
                      le:-7.5528103113174438e-01 }
            -
               depth: 5
               value: 2.
               norm_class_idx: 2
            -
               depth: 5
               value: 1.
               norm_class_idx: 1
            -
               depth: 4
               value: 1.
               norm_class_idx: 1
               splits:
                  - { var:2, quality:6.6044090270996094e+01,
                      le:-7.3949551582336426e-01 }
            -
               depth: 5
               value: 1.
               norm_class_idx: 1
            -
               depth: 5
               value: 1.
               norm_class_idx: 1
            -
               depth: 2
               value: 0.
               norm_class_idx: 0
               splits:
                  - { var:0, quality:2.1948029785156250e+03,
                      le:3.3660709857940674e-01 }
            -
               depth: 3
               value: 3.
               norm_class_idx: 3
               splits:
                  - { var:0, quality:8.8696693420410156e+01,
                      le:-4.2041782289743423e-02 }
            -
               depth: 4
               value: 3.
               norm_class_idx: 3
               splits:
                  - { var:2, quality:3.1978021621704102e+01,
                      le:-7.2774720191955566e-01 }
            -
               depth: 5
               value: 0.
               norm_class_idx: 0
            -
               depth: 5
               value: 3.
               norm_class_idx: 3
            -
               depth: 4
               value: 3.
               norm_class_idx: 3
               splits:
                  - { var:3, quality:6.8252334594726562e+01,
                      le:2.0289347171783447e+00 }
            -
               depth: 5
               value: 3.
               norm_class_idx: 3
            -
               depth: 5
               value: 1.
               norm_class_idx: 1
            -
               depth: 3
               value: 0.
               norm_class_idx: 0
               splits:
                  - { var:3, quality:2.1535454101562500e+03,
                      le:1.6501982212066650e+00 }
            -
               depth: 4
               value: 0.
               norm_class_idx: 0
               splits:
                  - { var:1, quality:2.1059147949218750e+03,
                      le:6.8307089805603027e-01 }
            -
               depth: 5
               value: 0.
               norm_class_idx: 0
            -
               depth: 5
               value: 0.
               norm_class_idx: 0
            -
               depth: 4
               value: 0.
               norm_class_idx: 0
               splits:
                  - { var:3, quality:9.2515037536621094e+01,
                      le:2.4485735893249512e+00 }
            -
               depth: 5
               value: 0.
               norm_class_idx: 0
            -
               depth: 5
               value: 1.
               norm_class_idx: 1
      -
         nodes:
            -
               depth: 0
               value: 0.
               norm_class_idx: 0
               splits:
                  - { var:3, quality:4.2366186523437500e+03,
                      le:-9.2153266072273254e-02 }
            -
               depth: 1
               value: 0.
               norm_class_idx: 0
               splits:
                  - { var:1, quality:1.6986130371093750e+03,
                      le:1.9775676727294922e-01 }
            -
               depth: 2
               value: 0.
               norm_class_idx: 0
               splits:
                  - { var:0, quality:1.2754267578125000e+03,
                      le:-3.6079313755035400e+00 }
            -
               depth: 3
               value: 1.
               norm_class_idx: 1
               splits:
                  - { var:3, quality:5.8893104553222656e+01,
                      le:-8.7278425693511963e-01 }
            -
               depth: 4
               value: 1.
               norm_class_idx: 1
               splits:
                  - { var:1, quality:5.1376625061035156e+01,
                      le:-1.8212289810180664e+00 }
            -
               depth: 5
               value: 0.
               norm_class_idx: 0
            -
               depth: 5
               value: 1.
               norm_class_idx: 1
            -
               depth: 4
               value: 0.
               norm_class_idx: 0
               splits:
                  - { var:0, quality:14., le:-7.7816028594970703e+00 }
            -
               depth: 5
               value: 1.
               norm_class_idx: 1
            -
               depth: 5
               value: 0.
               norm_class_idx: 0
            -
               depth: 3
               value: 0.
               norm_class_idx: 0
               splits:
                  - { var:3, quality:1.2463608398437500e+03,
                      le:-3.2209262847900391e+00 }
            -
               depth: 4
               value: 1.
               norm_class_idx: 1
               splits:
                  - { var:3, quality:2.4333333969116211e+01,
                      le:-3.3689918518066406e+00 }
            -
               depth: 5
               value: 1.
               norm_class_idx: 1
            -
               depth: 5
               value: 1.
               norm_class_idx: 1
            -
               depth: 4
               value: 0.
               norm_class_idx: 0
               splits:
                  - { var:3, quality:1.2365828857421875e+03,
                      le:-1.6380382776260376e+00 }
            -
               depth: 5
               value: 0.
               norm_class_idx: 0
            -
               depth: 5
               value: 0.
               norm_class_idx: 0
            -
               depth: 2
               value: 3.
               norm_class_idx: 3
               splits:
                  - { var:0, quality:4.9858572387695312e+02,
                      le:-8.9315533638000488e-01 }
            -
               depth: 3
               value: 1.
               norm_class_idx: 1
               splits:
                  - { var:1, quality:7.5007804870605469e+01,
                      le:1.7645038366317749e+00 }
            -
               depth: 4
               value: 1.
               norm_class_idx: 1
               splits:
                  - { var:2, quality:7.3583335876464844e+01,
                      le:-7.1542608737945557e-01 }
            -
               depth: 5
               value: 2.
               norm_class_idx: 2
            -
               depth: 5
               value: 1.
               norm_class_idx: 1
            -
               depth: 4
               value: 2.
               norm_class_idx: 2
               splits:
                  - { var:2, quality:1.0600000381469727e+01,
                      le:-6.5194737911224365e-01 }
            -
               depth: 5
               value: 2.
               norm_class_idx: 2
            -
               depth: 5
               value: 1.
               norm_class_idx: 1
            -
               depth: 3
               value: 3.
               norm_class_idx: 3
               splits:
                  - { var:2, quality:4.6027593994140625e+02,
                      le:-1.5968440473079681e-01 }
            -
               depth: 4
               value: 3.
               norm_class_idx: 3
               splits:
                  - { var:3, quality:2.6935861206054688e+02,
                      le:-8.8336956501007080e-01 }
            -
               depth: 5
               value: 1.
               norm_class_idx: 1
            -
               depth: 5
               value: 0.
               norm_class_idx: 0
            -
               depth: 4
               value: 3.
               norm_class_idx: 3
               splits:
                  - { var:2, quality:2.3479971313476562e+02,
                      le:8.5235393047332764e-01 }
            -
               depth: 5
               value: 3.
               norm_class_idx: 3
            -
               depth: 5
               value: 1.
               norm_class_idx: 1
            -
               depth: 1
               value: 0.
               norm_class_idx: 0
               splits:
                  - { var:1, quality:2.8133789062500000e+03,
                      le:1.6027747094631195e-01 }
            -
               depth: 2
               value: 0.
               norm_class_idx: 0
               splits:
                  - { var:3, quality:7.5693286132812500e+02,
                      le:1.1254923343658447e+00 }
            -
               depth: 3
               value: 0.
               norm_class_idx: 0
               splits:
                  - { var:0, quality:6.3277276611328125e+02,
                      le:2.8491026163101196e-01 }
            -
               depth: 4
               value: 0.
               norm_class_idx: 0
               splits:
                  - { var:1, quality:1.8785269165039062e+02,
                      le:6.6554255783557892e-02 }
            -
               depth: 5
               value: 0.
               norm_class_idx: 0
            -
               depth: 5
               value: 3.
               norm_class_idx: 3
            -
               depth: 4
               value: 0.
               norm_class_idx: 0
               splits:
                  - { var:1, quality:4.7053961181640625e+02,
                      le:-4.5864439010620117e-01 }
            -
               depth: 5
               value: 0.
               norm_class_idx: 0
            -
               depth: 5
               value: 0.
               norm_class_idx: 0
            -
               depth: 3
               value: 1.
               norm_class_idx: 1
               splits:
                  - { var:2, quality:1.5647564697265625e+02,
                      le:-2.7010411024093628e-01 }
            -
               depth: 4
               value: 1.
               norm_class_idx: 1
               splits:
                  - { var:3, quality:1.1392811584472656e+02,
                      le:2.3044822216033936e+00 }
            -
               depth: 5
               value: 2.
               norm_class_idx: 2
            -
               depth: 5
               value: 1.
               norm_class_idx: 1
            -
               depth: 4
               value: 1.
               norm_class_idx: 1
               splits:
                  - { var:1, quality:6.6731185913085938e+01,
                      le:-6.4960628747940063e-01 }
            -
               depth: 5
               value: 1.
               norm_class_idx: 1
            -
               depth: 5
               value: 1.
               norm_class_idx: 1
            -
               depth: 2
               value: 0.
               norm_class_idx: 0
               splits:
                  - { var:2, quality:2.2256560058593750e+03,
                      le:-4.4524043798446655e-01 }
            -
               depth: 3
               value: 0.
               norm_class_idx: 0
               splits:
                  - { var:3, quality:2.1117958984375000e+03,
                      le:2.1402454376220703e+00 }
            -
               depth: 4
               value: 0.
               norm_class_idx: 0
               splits:
                  - { var:2, quality:2.1217016601562500e+03,
                      le:-1.0208933353424072e+00 }
            -
               depth: 5
               value: 3.
               norm_class_idx: 3
            -
               depth: 5
               value: 0.
               norm_class_idx: 0
            -
               depth: 4
               value: 1.
               norm_class_idx: 1
               splits:
                  - { var:1, quality:4.8111110687255859e+01,
                      le:1.2119647264480591e+00 }
            -
               depth: 5
               value: 1.
               norm_class_idx: 1
            -
               depth: 5
               value: 3.
               norm_class_idx: 3
            -
               depth: 3
               value: 3.
               norm_class_idx: 3
               splits:
                  - { var:0, quality:1.8298974609375000e+02,
                      le:-1.4206550121307373e+00 }
            -
               depth: 4
               value: 1.
               norm_class_idx: 1
            -
               depth: 4
               value: 3.
               norm_class_idx: 3
               splits:
                  - { var:3, quality:1.8365774536132812e+02,
                      le:2.4505108594894409e-02 }
            -
               depth: 5
               value: 0.
               norm_class_idx: 0
            -
               depth: 5
               value: 3.
               norm_class_idx: 3
      -
         nodes:
            -
               depth: 0
               value: 0.
               norm_class_idx: 0
               splits:
                  - { var:2, quality:4.3828183593750000e+03,
                      le:-5.4613661766052246e-01 }
            -
               depth: 1
               value: 0.
               norm_class_idx: 0
               splits:
                  - { var:1, quality:2.1497683105468750e+03,
                      le:1.1383767426013947e-01 }
            -
               depth: 2
               value: 2.
               norm_class_idx: 2
               splits:
                  - { var:3, quality:1.2183532714843750e+02,
                      le:1.8006318807601929e+00 }
            -
               depth: 3
               value: 0.
               norm_class_idx: 0
               splits:
                  - { var:2, quality:9.6662620544433594e+01,
                      le:-6.5505433082580566e-01 }
            -
               depth: 4
               value: 2.
               norm_class_idx: 2
               splits:
                  - { var:1, quality:6.2035472869873047e+01,
                      le:-1.5619954466819763e-01 }
            -
               depth: 5
               value: 2.
               norm_class_idx: 2
            -
               depth: 5
               value: 2.
               norm_class_idx: 2
            -
               depth: 4
               value: 0.
               norm_class_idx: 0
               splits:
                  - { var:2, quality:4.9861812591552734e+01,
                      le:-5.5952000617980957e-01 }
            -
               depth: 5
               value: 0.
               norm_class_idx: 0
            -
               depth: 5
               value: 0.
               norm_class_idx: 0
            -
               depth: 3
               value: 1.
               norm_class_idx: 1
               splits:
                  - { var:2, quality:4.0008659362792969e+01,
                      le:-7.5638437271118164e-01 }
            -
               depth: 4
               value: 1.
               norm_class_idx: 1
               splits:
                  - { var:2, quality:1.9842105865478516e+01,
                      le:-7.7551031112670898e-01 }
            -
               depth: 5
               value: 1.
               norm_class_idx: 1
            -
               depth: 5
               value: 2.
               norm_class_idx: 2
            -
               depth: 4
               value: 1.
               norm_class_idx: 1
               splits:
                  - { var:0, quality:2.5750000000000000e+01,
                      le:9.7945779561996460e-02 }
            -
               depth: 5
               value: 0.
               norm_class_idx: 0
            -
               depth: 5
               value: 1.
               norm_class_idx: 1
            -
               depth: 2
               value: 0.
               norm_class_idx: 0
               splits:
                  - { var:0, quality:2.1297788085937500e+03,
                      le:3.4706217050552368e-01 }
            -
               depth: 3
               value: 1.
               norm_class_idx: 1
               splits:
                  - { var:0, quality:8.8225234985351562e+01,
                      le:-6.0262423753738403e-01 }
            -
               depth: 4
               value: 1.
               norm_class_idx: 1
               splits:
                  - { var:2, quality:4.6944099426269531e+01,
                      le:-9.4096207618713379e-01 }
            -
               depth: 5
               value: 0.
               norm_class_idx: 0
            -
               depth: 5
               value: 1.
               norm_class_idx: 1
            -
               depth: 4
               value: 3.
               norm_class_idx: 3
               splits:
                  - { var:1, quality:5.1610183715820312e+01,
                      le:4.5084699988365173e-01 }
            -
               depth: 5
               value: 1.
               norm_class_idx: 1
            -
               depth: 5
               value: 3.
               norm_class_idx: 3
            -
               depth: 3
               value: 0.
               norm_class_idx: 0
               splits:
                  - { var:2, quality:2.1209775390625000e+03,
                      le:-1.0424857139587402e+00 }
            -
               depth: 4
               value: 3.
               norm_class_idx: 3
               splits:
                  - { var:1, quality:9.3155532836914062e+01,
                      le:6.8045246601104736e-01 }
            -
               depth: 5
               value: 1.
               norm_class_idx: 1
            -
               depth: 5
               value: 3.
               norm_class_idx: 3
            -
               depth: 4
               value: 0.
               norm_class_idx: 0
               splits:
                  - { var:2, quality:2.0465924072265625e+03,
                      le:-6.6135525703430176e-01 }
            -
               depth: 5
               value: 0.
               norm_class_idx: 0
            -
               depth: 5
               value: 0.
               norm_class_idx: 0
            -
               depth: 1
               value: 0.
               norm_class_idx: 0
               splits:
                  - { var:3, quality:2.3662673339843750e+03,
                      le:1.1651141643524170e+00 }
            -
               depth: 2
               value: 0.
               norm_class_idx: 0
               splits:
                  - { var:3, quality:2.3344323730468750e+03,
                      le:-2.7875351905822754e+00 }
            -
               depth: 3
               value: 1.
               norm_class_idx: 1
               splits:
                  - { var:0, quality:5.2571430206298828e+01,
                      le:3.2791268825531006e-01 }
            -
               depth: 4
               value: 1.
               norm_class_idx: 1
            -
               depth: 4
               value: 1.
               norm_class_idx: 1
            -
               depth: 3
               value: 0.
               norm_class_idx: 0
               splits:
                  - { var:3, quality:2.3173952636718750e+03,
                      le:-8.1510674953460693e-01 }
            -
               depth: 4
               value: 0.
               norm_class_idx: 0
               splits:
                  - { var:1, quality:7.9890521240234375e+02,
                      le:-1.7318341135978699e-01 }
            -
               depth: 5
               value: 0.
               norm_class_idx: 0
            -
               depth: 5
               value: 3.
               norm_class_idx: 3
            -
               depth: 4
               value: 0.
               norm_class_idx: 0
               splits:
                  - { var:0, quality:1.6177740478515625e+03,
                      le:3.3914002776145935e-01 }
            -
               depth: 5
               value: 3.
               norm_class_idx: 3
            -
               depth: 5
               value: 0.
               norm_class_idx: 0
            -
               depth: 2
               value: 1.
               norm_class_idx: 1
               splits:
                  - { var:0, quality:8.1617485046386719e+01,
                      le:2.0660921931266785e-01 }
            -
               depth: 3
               value: 0.
               norm_class_idx: 0
               splits:
                  - { var:0, quality:1.0250000000000000e+01,
                      le:-5.8300010859966278e-02 }
            -
               depth: 4
               value: 2.
               norm_class_idx: 2
            -
               depth: 4
               value: 0.
               norm_class_idx: 0
            -
               depth: 3
               value: 1.
               norm_class_idx: 1
               splits:
                  - { var:3, quality:8.1225006103515625e+01,
                      le:1.7527997493743896e+00 }
            -
               depth: 4
               value: 1.
               norm_class_idx: 1
               splits:
                  - { var:2, quality:5.6281688690185547e+01,
                      le:-2.4834665656089783e-01 }
            -
               depth: 5
               value: 1.
               norm_class_idx: 1
            -
               depth: 5
               value: 1.
               norm_class_idx: 1
            -
               depth: 4
               value: 1.
               norm_class_idx: 1
               splits:
                  - { var:1, quality:3.3820514678955078e+01,
                      le:1.8138680458068848e+00 }
            -
               depth: 5
               value: 1.
               norm_class_idx: 1
            -
               depth: 5
               value: 0.
               norm_class_idx: 0
      -
         nodes:
            -
               depth: 0
               value: 0.
               norm_class_idx: 0
               splits:
                  - { var:1, quality:4.2753769531250000e+03,
                      le:5.9457135200500488e-01 }
            -
               depth: 1
               value: 0.
               norm_class_idx: 0
               splits:
                  - { var:3, quality:2.6224323730468750e+03,
                      le:1.6692190170288086e+00 }
            -
               depth: 2
               value: 0.
               norm_class_idx: 0
               splits:
                  - { var:2, quality:2.6006408691406250e+03,
                      le:-5.4630136489868164e-01 }
            -
               depth: 3
               value: 0.
               norm_class_idx: 0
               splits:
                  - { var:0, quality:5.7298114013671875e+02,
                      le:3.3366432785987854e-01 }
            -
               depth: 4
               value: 1.
               norm_class_idx: 1
               splits:
                  - { var:3, quality:5.0856437683105469e+01,
                      le:-2.3131261765956879e-01 }
            -
               depth: 5
               value: 1.
               norm_class_idx: 1
            -
               depth: 5
               value: 3.
               norm_class_idx: 3
            -
               depth: 4
               value: 0.
               norm_class_idx: 0
               splits:
                  - { var:2, quality:5.4891583251953125e+02,
                      le:-8.5092604160308838e-01 }
            -
               depth: 5
               value: 0.
               norm_class_idx: 0
            -
               depth: 5
               value: 0.
               norm_class_idx: 0
            -
               depth: 3
               value: 0.
               norm_class_idx: 0
               splits:
                  - { var:1, quality:2.1074863281250000e+03,
                      le:2.0561560988426208e-01 }
            -
               depth: 4
               value: 0.
               norm_class_idx: 0
               splits:
                  - { var:3, quality:1.8335180664062500e+03,
                      le:6.4638280868530273e-01 }
            -
               depth: 5
               value: 0.
               norm_class_idx: 0
            -
               depth: 5
               value: 1.
               norm_class_idx: 1
            -
               depth: 4
               value: 3.
               norm_class_idx: 3
               splits:
                  - { var:0, quality:3.4536666870117188e+02,
                      le:-9.2747986316680908e-01 }
            -
               depth: 5
               value: 1.
               norm_class_idx: 1
            -
               depth: 5
               value: 3.
               norm_class_idx: 3
            -
               depth: 2
               value: 1.
               norm_class_idx: 1
               splits:
                  - { var:2, quality:9.6102973937988281e+01,
                      le:-1.2053279876708984e+00 }
            -
               depth: 3
               value: 3.
               norm_class_idx: 3
               splits:
                  - { var:2, quality:10., le:-1.2742118835449219e+00 }
            -
               depth: 4
               value: 3.
               norm_class_idx: 3
            -
               depth: 4
               value: 3.
               norm_class_idx: 3
            -
               depth: 3
               value: 1.
               norm_class_idx: 1
               splits:
                  - { var:1, quality:9.1355987548828125e+01,
                      le:-2.5654515624046326e-01 }
            -
               depth: 4
               value: 1.
               norm_class_idx: 1
               splits:
                  - { var:2, quality:2.9985662460327148e+01,
                      le:-5.2284836769104004e-01 }
            -
               depth: 5
               value: 2.
               norm_class_idx: 2
            -
               depth: 5
               value: 1.
               norm_class_idx: 1
            -
               depth: 4
               value: 1.
               norm_class_idx: 1
               splits:
                  - { var:3, quality:7.9450729370117188e+01,
                      le:2.0284800529479980e+00 }
            -
               depth: 5
               value: 1.
               norm_class_idx: 1
            -
               depth: 5
               value: 1.
               norm_class_idx: 1
            -
               depth: 1
               value: 0.
               norm_class_idx: 0
               splits:
                  - { var:3, quality:1.9132097167968750e+03,
                      le:-1.7224842309951782e-01 }
            -
               depth: 2
               value: 3.
               norm_class_idx: 3
               splits:
                  - { var:3, quality:2.4783265686035156e+02,
                      le:-9.9588108062744141e-01 }
            -
               depth: 3
               value: 1.
               norm_class_idx: 1
               splits:
                  - { var:2, quality:1.2072818756103516e+02,
                      le:-2.0694847404956818e-01 }
            -
               depth: 4
               value: 1.
               norm_class_idx: 1
               splits:
                  - { var:3, quality:6.4461944580078125e+01,
                      le:-1.1671111583709717e+00 }
            -
               depth: 5
               value: 1.
               norm_class_idx: 1
            -
               depth: 5
               value: 3.
               norm_class_idx: 3
            -
               depth: 4
               value: 3.
               norm_class_idx: 3
               splits:
                  - { var:3, quality:6.8038757324218750e+01,
                      le:-2.7255938053131104e+00 }
            -
               depth: 5
               value: 1.
               norm_class_idx: 1
            -
               depth: 5
               value: 3.
               norm_class_idx: 3
            -
               depth: 3
               value: 3.
               norm_class_idx: 3
               splits:
                  - { var:1, quality:1.4895075988769531e+02,
                      le:1.3141975402832031e+00 }
            -
               depth: 4
               value: 3.
               norm_class_idx: 3
               splits:
                  - { var:0, quality:1.3263673400878906e+02,
                      le:-3.5883936285972595e-01 }
            -
               depth: 5
               value: 1.
               norm_class_idx: 1
            -
               depth: 5
               value: 3.
               norm_class_idx: 3
            -
               depth: 4
               value: 0.
               norm_class_idx: 0
               splits:
                  - { var:2, quality:3.6195827484130859e+01,
                      le:-8.9809989929199219e-01 }
            -
               depth: 5
               value: 3.
               norm_class_idx: 3
            -
               depth: 5
               value: 0.
               norm_class_idx: 0
            -
               depth: 2
               value: 0.
               norm_class_idx: 0
               splits:
                  - { var:2, quality:1.7528742675781250e+03,
                      le:-5.3362202644348145e-01 }
            -
               depth: 3
               value: 0.
               norm_class_idx: 0
               splits:
                  - { var:2, quality:1.7064545898437500e+03,
                      le:-1.0424857139587402e+00 }
            -
               depth: 4
               value: 3.
               norm_class_idx: 3
               splits:
                  - { var:3, quality:9.1476921081542969e+01,
                      le:2.4778623580932617e+00 }
            -
               depth: 5
               value: 3.
               norm_class_idx: 3
            -
               depth: 5
               value: 1.
               norm_class_idx: 1
            -
               depth: 4
               value: 0.
               norm_class_idx: 0
               splits:
                  - { var:3, quality:1.6424937744140625e+03,
                      le:1.1987755298614502e+00 }
            -
               depth: 5
               value: 0.
               norm_class_idx: 0
            -
               depth: 5
               value: 0.
               norm_class_idx: 0
            -
               depth: 3
               value: 3.
               norm_class_idx: 3
               splits:
                  - { var:0, quality:1.1946640014648438e+02,
                      le:-1.0467321872711182e+00 }
            -
               depth: 4
               value: 1.
               norm_class_idx: 1
            -
               depth: 4
               value: 3.
               norm_class_idx: 3
               splits:
                  - { var:0, quality:1.1874311828613281e+02,
                      le:2.4807748198509216e-01 }
            -
               depth: 5
               value: 3.
               norm_class_idx: 3
            -
               depth: 5
               value: 3.
               norm_class_idx: 3
      -
         nodes:
            -
               depth: 0
               value: 0.
               norm_class_idx: 0
               splits:
                  - { var:2, quality:4.3836762695312500e+03,
                      le:-5.3963732719421387e-01 }
            -
               depth: 1
               value: 0.
               norm_class_idx: 0
               splits:
                  - { var:3, quality:2.1554753417968750e+03,
                      le:1.8047661781311035e+00 }
            -
               depth: 2
               value: 0.
               norm_class_idx: 0
               splits:
                  - { var:3, quality:2.1474553222656250e+03,
                      le:-5.9948551654815674e-01 }
            -
               depth: 3
               value: 1.
               norm_class_idx: 1
               splits:
                  - { var:1, quality:5.6868133544921875e+01,
                      le:1.2524471282958984e+00 }
            -
               depth: 4
               value: 1.
               norm_class_idx: 1
               splits:
                  - { var:2, quality:5.1369266510009766e+01,
                      le:-8.8790684938430786e-01 }
            -
               depth: 5
               value: 3.
               norm_class_idx: 3
            -
               depth: 5
               value: 1.
               norm_class_idx: 1
            -
               depth: 4
               value: 3.
               norm_class_idx: 3
               splits:
                  - { var:0, quality:1.4399999618530273e+01,
                      le:-5.9678399562835693e-01 }
            -
               depth: 5
               value: 1.
               norm_class_idx: 1
            -
               depth: 5
               value: 3.
               norm_class_idx: 3
            -
               depth: 3
               value: 0.
               norm_class_idx: 0
               splits:
                  - { var:0, quality:2.1679809570312500e+03,
                      le:3.4830600023269653e-01 }
            -
               depth: 4
               value: 3.
               norm_class_idx: 3
               splits:
                  - { var:2, quality:7.0414924621582031e+01,
                      le:-8.1529819965362549e-01 }
            -
               depth: 5
               value: 1.
               norm_class_idx: 1
            -
               depth: 5
               value: 3.
               norm_class_idx: 3
            -
               depth: 4
               value: 0.
               norm_class_idx: 0
               splits:
                  - { var:2, quality:2.1421862792968750e+03,
                      le:-9.6802341938018799e-01 }
            -
               depth: 5
               value: 0.
               norm_class_idx: 0
            -
               depth: 5
               value: 0.
               norm_class_idx: 0
            -
               depth: 2
               value: 1.
               norm_class_idx: 1
               splits:
                  - { var:1, quality:1.1086603546142578e+02,
                      le:7.8679960966110229e-01 }
            -
               depth: 3
               value: 1.
               norm_class_idx: 1
               splits:
                  - { var:3, quality:9.1453269958496094e+01,
                      le:2.3044822216033936e+00 }
            -
               depth: 4
               value: 1.
               norm_class_idx: 1
               splits:
                  - { var:3, quality:4.0987922668457031e+01,
                      le:1.8459043502807617e+00 }
            -
               depth: 5
               value: 1.
               norm_class_idx: 1
            -
               depth: 5
               value: 1.
               norm_class_idx: 1
            -
               depth: 4
               value: 1.
               norm_class_idx: 1
               splits:
                  - { var:2, quality:5.5285713195800781e+01,
                      le:-1.3177483081817627e+00 }
            -
               depth: 5
               value: 1.
               norm_class_idx: 1
            -
               depth: 5
               value: 1.
               norm_class_idx: 1
            -
               depth: 3
               value: 3.
               norm_class_idx: 3
               splits:
                  - { var:3, quality:3.9534481048583984e+01,
                      le:2.4485735893249512e+00 }
            -
               depth: 4
               value: 3.
               norm_class_idx: 3
               splits:
                  - { var:1, quality:3.3742633819580078e+01,
                      le:1.1081877946853638e+00 }
            -
               depth: 5
               value: 0.
               norm_class_idx: 0
            -
               depth: 5
               value: 3.
               norm_class_idx: 3
            -
               depth: 4
               value: 1.
               norm_class_idx: 1
               splits:
                  - { var:2, quality:1.7647058486938477e+01,
                      le:-1.2282474040985107e+00 }
            -
               depth: 5
               value: 3.
               norm_class_idx: 3
            -
               depth: 5
               value: 1.
               norm_class_idx: 1
            -
               depth: 1
               value: 0.
               norm_class_idx: 0
               splits:
                  - { var:3, quality:2.3832099609375000e+03,
                      le:1.0590975284576416e+00 }
            -
               depth: 2
               value: 0.
               norm_class_idx: 0
               splits:
                  - { var:3, quality:2.3297202148437500e+03,
                      le:-1.7321804761886597e+00 }
            -
               depth: 3
               value: 1.
               norm_class_idx: 1
               splits:
                  - { var:3, quality:1.9310417175292969e+02,
                      le:-2.7768468856811523e+00 }
            -
               depth: 4
               value: 1.
               norm_class_idx: 1
               splits:
                  - { var:0, quality:4.3173912048339844e+01,
                      le:3.2791268825531006e-01 }
            -
               depth: 5
               value: 1.
               norm_class_idx: 1
            -
               depth: 5
               value: 0.
               norm_class_idx: 0
            -
               depth: 4
               value: 1.
               norm_class_idx: 1
               splits:
                  - { var:0, quality:1.6062207031250000e+02,
                      le:-1.5445038080215454e+00 }
            -
               depth: 5
               value: 1.
               norm_class_idx: 1
            -
               depth: 5
               value: 1.
               norm_class_idx: 1
            -
               depth: 3
               value: 0.
               norm_class_idx: 0
               splits:
                  - { var:0, quality:2.1715925292968750e+03,
                      le:3.4931713342666626e-01 }
            -
               depth: 4
               value: 0.
               norm_class_idx: 0
               splits:
                  - { var:0, quality:9.0550244140625000e+02,
                      le:-8.4732550382614136e-01 }
            -
               depth: 5
               value: 0.
               norm_class_idx: 0
            -
               depth: 5
               value: 3.
               norm_class_idx: 3
            -
               depth: 4
               value: 0.
               norm_class_idx: 0
               splits:
                  - { var:2, quality:1.3137830810546875e+03,
                      le:-2.8313779830932617e-01 }
            -
               depth: 5
               value: 0.
               norm_class_idx: 0
            -
               depth: 5
               value: 0.
               norm_class_idx: 0
            -
               depth: 2
               value: 1.
               norm_class_idx: 1
               splits:
                  - { var:3, quality:1.0425013732910156e+02,
                      le:1.6383843421936035e+00 }
            -
               depth: 3
               value: 1.
               norm_class_idx: 1
               splits:
                  - { var:2, quality:8.0232261657714844e+01,
                      le:1.9625525921583176e-02 }
            -
               depth: 4
               value: 1.
               norm_class_idx: 1
               splits:
                  - { var:0, quality:5.6584716796875000e+01,
                      le:2.0814339816570282e-01 }
            -
               depth: 5
               value: 3.
               norm_class_idx: 3
            -
               depth: 5
               value: 1.
               norm_class_idx: 1
            -
               depth: 4
               value: 1.
               norm_class_idx: 1
               splits:
                  - { var:0, quality:2.8545454025268555e+01,
                      le:3.3915650844573975e-01 }
            -
               depth: 5
               value: 0.
               norm_class_idx: 0
            -
               depth: 5
               value: 1.
               norm_class_idx: 1
            -
               depth: 3
               value: 1.
               norm_class_idx: 1
               splits:
                  - { var:0, quality:3.4244899749755859e+01,
                      le:3.3533236384391785e-01 }
            -
               depth: 4
               value: 2.
               norm_class_idx: 2
            -
               depth: 4
               value: 1.
               norm_class_idx: 1
               splits:
                  - { var:3, quality:3.3682926177978516e+01,
                      le:2.1687297821044922e+00 }
            -
               depth: 5
               value: 1.
               norm_class_idx: 1
            -
               depth: 5
               value: 1.
               norm_class_idx: 1
      -
         nodes:
            -
               depth: 0
               value: 0.
               norm_class_idx: 0
               splits:
                  - { var:2, quality:4.4302587890625000e+03,
                      le:-5.0176250934600830e-01 }
            -
               depth: 1
               value: 0.
               norm_class_idx: 0
               splits:
                  - { var:1, quality:2.2548317871093750e+03,
                      le:1.6964828968048096e-01 }
            -
               depth: 2
               value: 0.
               norm_class_idx: 0
               splits:
                  - { var:1, quality:1.7932308959960938e+02,
                      le:-1.3938575983047485e-01 }
            -
               depth: 3
               value: 2.
               norm_class_idx: 2
               splits:
                  - { var:3, quality:5.0473930358886719e+01,
                      le:1.5688874721527100e+00 }
            -
               depth: 4
               value: 2.
               norm_class_idx: 2
               splits:
                  - { var:2, quality:3.5244899749755859e+01,
                      le:-5.1469635963439941e-01 }
            -
               depth: 5
               value: 2.
               norm_class_idx: 2
            -
               depth: 5
               value: 0.
               norm_class_idx: 0
            -
               depth: 4
               value: 1.
               norm_class_idx: 1
               splits:
                  - { var:3, quality:2.2139999389648438e+01,
                      le:1.9764239788055420e+00 }
            -
               depth: 5
               value: 2.
               norm_class_idx: 2
            -
               depth: 5
               value: 1.
               norm_class_idx: 1
            -
               depth: 3
               value: 0.
               norm_class_idx: 0
               splits:
                  - { var:0, quality:1.4166902160644531e+02,
                      le:-5.8271276950836182e-01 }
            -
               depth: 4
               value: 2.
               norm_class_idx: 2
               splits:
                  - { var:0, quality:7., le:-2.4087970256805420e+00 }
            -
               depth: 5
               value: 1.
               norm_class_idx: 1
            -
               depth: 5
               value: 2.
               norm_class_idx: 2
            -
               depth: 4
               value: 0.
               norm_class_idx: 0
               splits:
                  - { var:3, quality:1.5754528808593750e+02,
                      le:1.6314699649810791e+00 }
            -
               depth: 5
               value: 0.
               norm_class_idx: 0
            -
               depth: 5
               value: 1.
               norm_class_idx: 1
            -
               depth: 2
               value: 0.
               norm_class_idx: 0
               splits:
                  - { var:3, quality:2.1953002929687500e+03,
                      le:-4.8857945203781128e-01 }
            -
               depth: 3
               value: 1.
               norm_class_idx: 1
               splits:
                  - { var:0, quality:7.6320968627929688e+01,
                      le:-3.5277059674263000e-01 }
            -
               depth: 4
               value: 1.
               norm_class_idx: 1
               splits:
                  - { var:0, quality:2.1516128540039062e+01,
                      le:-1.0419896841049194e+00 }
            -
               depth: 5
               value: 2.
               norm_class_idx: 2
            -
               depth: 5
               value: 1.
               norm_class_idx: 1
            -
               depth: 4
               value: 3.
               norm_class_idx: 3
               splits:
                  - { var:1, quality:6.8427131652832031e+01,
                      le:1.1963644027709961e+00 }
            -
               depth: 5
               value: 1.
               norm_class_idx: 1
            -
               depth: 5
               value: 3.
               norm_class_idx: 3
            -
               depth: 3
               value: 0.
               norm_class_idx: 0
               splits:
                  - { var:0, quality:2.2031789550781250e+03,
                      le:3.4830600023269653e-01 }
            -
               depth: 4
               value: 3.
               norm_class_idx: 3
               splits:
                  - { var:2, quality:6.5807106018066406e+01,
                      le:-8.1563794612884521e-01 }
            -
               depth: 5
               value: 1.
               norm_class_idx: 1
            -
               depth: 5
               value: 3.
               norm_class_idx: 3
            -
               depth: 4
               value: 0.
               norm_class_idx: 0
               splits:
                  - { var:2, quality:2.2074885253906250e+03,
                      le:-1.0261666774749756e+00 }
            -
               depth: 5
               value: 3.
               norm_class_idx: 3
            -
               depth: 5
               value: 0.
               norm_class_idx: 0
            -
               depth: 1
               value: 0.
               norm_class_idx: 0
               splits:
                  - { var:3, quality:2.2901101074218750e+03,
                      le:1.1554877758026123e+00 }
            -
               depth: 2
               value: 0.
               norm_class_idx: 0
               splits:
                  - { var:3, quality:2.2654426269531250e+03,
                      le:-1.6356754302978516e+00 }
            -
               depth: 3
               value: 1.
               norm_class_idx: 1
               splits:
                  - { var:0, quality:2.4386952209472656e+02,
                      le:-1.5178254842758179e+00 }
            -
               depth: 4
               value: 1.
               norm_class_idx: 1
               splits:
                  - { var:1, quality:8.0327125549316406e+01,
                      le:-2.1377425193786621e+00 }
            -
               depth: 5
               value: 0.
               norm_class_idx: 0
            -
               depth: 5
               value: 1.
               norm_class_idx: 1
            -
               depth: 4
               value: 1.
               norm_class_idx: 1
               splits:
                  - { var:2, quality:1.8207751464843750e+02,
                      le:3.7213641405105591e-01 }
            -
               depth: 5
               value: 1.
               norm_class_idx: 1
            -
               depth: 5
               value: 0.
               norm_class_idx: 0
            -
               depth: 3
               value: 0.
               norm_class_idx: 0
               splits:
                  - { var:1, quality:2.1252502441406250e+03,
                      le:1.2377768754959106e-01 }
            -
               depth: 4
               value: 0.
               norm_class_idx: 0
               splits:
                  - { var:1, quality:1.5700482177734375e+03,
                      le:-1.3384250402450562e+00 }
            -
               depth: 5
               value: 0.
               norm_class_idx: 0
            -
               depth: 5
               value: 0.
               norm_class_idx: 0
            -
               depth: 4
               value: 3.
               norm_class_idx: 3
               splits:
                  - { var:3, quality:5.9435607910156250e+02,
                      le:-1.0675096511840820e+00 }
            -
               depth: 5
               value: 3.
               norm_class_idx: 3
            -
               depth: 5
               value: 3.
               norm_class_idx: 3
            -
               depth: 2
               value: 1.
               norm_class_idx: 1
               splits:
                  - { var:1, quality:8.2038459777832031e+01,
                      le:1.5828366279602051e+00 }
            -
               depth: 3
               value: 1.
               norm_class_idx: 1
               splits:
                  - { var:2, quality:7.9107688903808594e+01,
                      le:5.3844448179006577e-02 }
            -
               depth: 4
               value: 1.
               norm_class_idx: 1
               splits:
                  - { var:1, quality:6.5538902282714844e+01,
                      le:-3.3391380310058594e-01 }
            -
               depth: 5
               value: 1.
               norm_class_idx: 1
            -
               depth: 5
               value: 1.
               norm_class_idx: 1
            -
               depth: 4
               value: 1.
               norm_class_idx: 1
               splits:
                  - { var:0, quality:2.2239999771118164e+01,
                      le:-1.4951492846012115e-01 }
            -
               depth: 5
               value: 3.
               norm_class_idx: 3
            -
               depth: 5
               value: 1.
               norm_class_idx: 1
            -
               depth: 3
               value: 3.
               norm_class_idx: 3
      -
         nodes:
            -
               depth: 0
               value: 0.
               norm_class_idx: 0
               splits:
                  - { var:1, quality:4.2403828125000000e+03,
                      le:5.9693795442581177e-01 }
            -
               depth: 1
               value: 0.
               norm_class_idx: 0
               splits:
                  - { var:2, quality:2.6178894042968750e+03,
                      le:-4.8048347234725952e-01 }
            -
               depth: 2
               value: 0.
               norm_class_idx: 0
               splits:
                  - { var:2, quality:6.3823016357421875e+02,
                      le:-8.5976564884185791e-01 }
            -
               depth: 3
               value: 3.
               norm_class_idx: 3
               splits:
                  - { var:1, quality:6.6333335876464844e+01,
                      le:-2.1441540122032166e-01 }
            -
               depth: 4
               value: 2.
               norm_class_idx: 2
            -
               depth: 4
               value: 3.
               norm_class_idx: 3
               splits:
                  - { var:3, quality:7.8161613464355469e+01,
                      le:2.3434004783630371e+00 }
            -
               depth: 5
               value: 3.
               norm_class_idx: 3
            -
               depth: 5
               value: 1.
               norm_class_idx: 1
            -
               depth: 3
               value: 0.
               norm_class_idx: 0
               splits:
                  - { var:1, quality:6.3404943847656250e+02,
                      le:-4.2583610862493515e-02 }
            -
               depth: 4
               value: 2.
               norm_class_idx: 2
               splits:
                  - { var:3, quality:1.0217900085449219e+02,
                      le:1.8006318807601929e+00 }
            -
               depth: 5
               value: 2.
               norm_class_idx: 2
            -
               depth: 5
               value: 1.
               norm_class_idx: 1
            -
               depth: 4
               value: 0.
               norm_class_idx: 0
               splits:
                  - { var:3, quality:5.8011688232421875e+02,
                      le:-9.1908052563667297e-02 }
            -
               depth: 5
               value: 1.
               norm_class_idx: 1
            -
               depth: 5
               value: 0.
               norm_class_idx: 0
            -
               depth: 2
               value: 0.
               norm_class_idx: 0
               splits:
                  - { var:0, quality:2.0242900390625000e+03,
                      le:3.4875494241714478e-01 }
            -
               depth: 3
               value: 0.
               norm_class_idx: 0
               splits:
                  - { var:3, quality:8.7685260009765625e+02,
                      le:-1.4001657962799072e+00 }
            -
               depth: 4
               value: 1.
               norm_class_idx: 1
               splits:
                  - { var:1, quality:1.8370596313476562e+02,
                      le:-1.3633217811584473e+00 }
            -
               depth: 5
               value: 3.
               norm_class_idx: 3
            -
               depth: 5
               value: 1.
               norm_class_idx: 1
            -
               depth: 4
               value: 0.
               norm_class_idx: 0
               splits:
                  - { var:0, quality:7.3502496337890625e+02,
                      le:-8.4746140241622925e-01 }
            -
               depth: 5
               value: 0.
               norm_class_idx: 0
            -
               depth: 5
               value: 3.
               norm_class_idx: 3
            -
               depth: 3
               value: 0.
               norm_class_idx: 0
               splits:
                  - { var:1, quality:1.2455317382812500e+03,
                      le:-1.4346458017826080e-01 }
            -
               depth: 4
               value: 0.
               norm_class_idx: 0
               splits:
                  - { var:2, quality:8.4303417968750000e+02,
                      le:1.3703611493110657e-01 }
            -
               depth: 5
               value: 0.
               norm_class_idx: 0
            -
               depth: 5
               value: 0.
               norm_class_idx: 0
            -
               depth: 4
               value: 3.
               norm_class_idx: 3
               splits:
                  - { var:3, quality:4.3391622924804688e+02,
                      le:-8.8984632492065430e-01 }
            -
               depth: 5
               value: 3.
               norm_class_idx: 3
            -
               depth: 5
               value: 3.
               norm_class_idx: 3
            -
               depth: 1
               value: 0.
               norm_class_idx: 0
               splits:
                  - { var:3, quality:1.8595085449218750e+03,
                      le:-2.5735092163085938e-01 }
            -
               depth: 2
               value: 3.
               norm_class_idx: 3
               splits:
                  - { var:1, quality:2.1034432983398438e+02,
                      le:1.9896938800811768e+00 }
            -
               depth: 3
               value: 3.
               norm_class_idx: 3
               splits:
                  - { var:0, quality:2.2421221923828125e+02,
                      le:-3.5883936285972595e-01 }
            -
               depth: 4
               value: 1.
               norm_class_idx: 1
               splits:
                  - { var:0, quality:4.8263736724853516e+01,
                      le:-4.6949827671051025e-01 }
            -
               depth: 5
               value: 1.
               norm_class_idx: 1
            -
               depth: 5
               value: 1.
               norm_class_idx: 1
            -
               depth: 4
               value: 3.
               norm_class_idx: 3
               splits:
                  - { var:2, quality:1.9093913269042969e+02,
                      le:-5.3055560588836670e-01 }
            -
               depth: 5
               value: 1.
               norm_class_idx: 1
            -
               depth: 5
               value: 3.
               norm_class_idx: 3
            -
               depth: 3
               value: 0.
               norm_class_idx: 0
               splits:
                  - { var:0, quality:1.9159999847412109e+01,
                      le:-9.4769406318664551e-01 }
            -
               depth: 4
               value: 1.
               norm_class_idx: 1
            -
               depth: 4
               value: 0.
               norm_class_idx: 0
               splits:
                  - { var:2, quality:1.4882352828979492e+01,
                      le:6.0092163085937500e-01 }
            -
               depth: 5
               value: 0.
               norm_class_idx: 0
            -
               depth: 5
               value: 0.
               norm_class_idx: 0
            -
               depth: 2
               value: 0.
               norm_class_idx: 0
               splits:
                  - { var:2, quality:1.7140218505859375e+03,
                      le:-5.3362202644348145e-01 }
            -
               depth: 3
               value: 0.
               norm_class_idx: 0
               splits:
                  - { var:3, quality:1.6496837158203125e+03,
                      le:1.7756588459014893e+00 }
            -
               depth: 4
               value: 0.
               norm_class_idx: 0
               splits:
                  - { var:3, quality:1.6229353027343750e+03,
                      le:1.1729049682617188e+00 }
            -
               depth: 5
               value: 0.
               norm_class_idx: 0
            -
               depth: 5
               value: 0.
               norm_class_idx: 0
            -
               depth: 4
               value: 3.
               norm_class_idx: 3
               splits:
                  - { var:1, quality:4.6307434082031250e+01,
                      le:1.2014050483703613e+00 }
            -
               depth: 5
               value: 1.
               norm_class_idx: 1
            -
               depth: 5
               value: 3.
               norm_class_idx: 3
            -
               depth: 3
               value: 3.
               norm_class_idx: 3
               splits:
                  - { var:1, quality:1.1408550262451172e+02,
                      le:1.4721379280090332e+00 }
            -
               depth: 4
               value: 3.
               norm_class_idx: 3
               splits:
                  - { var:3, quality:9.6286231994628906e+01,
                      le:6.6377186775207520e-01 }
            -
               depth: 5
               value: 3.
               norm_class_idx: 3
            -
               depth: 5
               value: 3.
               norm_class_idx: 3
            -
               depth: 4
               value: 0.
               norm_class_idx: 0
               splits:
                  - { var:2, quality:2.4294872283935547e+01,
                      le:2.4156212806701660e-01 }
            -
               depth: 5
               value: 0.
               norm_class_idx: 0
            -
               depth: 5
               value: 3.
               norm_class_idx: 3
      -
         nodes:
            -
               depth: 0
               value: 0.
               norm_class_idx: 0
               splits:
                  - { var:2, quality:4.4178950195312500e+03,
                      le:-5.6844854354858398e-01 }
            -
               depth: 1
               value: 0.
               norm_class_idx: 0
               splits:
                  - { var:0, quality:2.1236733398437500e+03,
                      le:3.4706217050552368e-01 }
            -
               depth: 2
               value: 1.
               norm_class_idx: 1
               splits:
                  - { var:0, quality:8.4440086364746094e+01,
                      le:-8.9152544736862183e-02 }
            -
               depth: 3
               value: 1.
               norm_class_idx: 1
               splits:
                  - { var:1, quality:5.0119247436523438e+01,
                      le:5.2995570003986359e-02 }
            -
               depth: 4
               value: 2.
               norm_class_idx: 2
               splits:
                  - { var:1, quality:11., le:-2.7412265539169312e-01 }
            -
               depth: 5
               value: 2.
               norm_class_idx: 2
            -
               depth: 5
               value: 2.
               norm_class_idx: 2
            -
               depth: 4
               value: 1.
               norm_class_idx: 1
               splits:
                  - { var:3, quality:4.9203903198242188e+01,
                      le:-2.3127081990242004e-01 }
            -
               depth: 5
               value: 1.
               norm_class_idx: 1
            -
               depth: 5
               value: 0.
               norm_class_idx: 0
            -
               depth: 3
               value: 3.
               norm_class_idx: 3
               splits:
                  - { var:1, quality:4.5215538024902344e+01,
                      le:9.8331880569458008e-01 }
            -
               depth: 4
               value: 3.
               norm_class_idx: 3
               splits:
                  - { var:3, quality:2.4139533996582031e+01,
                      le:-2.1201393008232117e-01 }
            -
               depth: 5
               value: 1.
               norm_class_idx: 1
            -
               depth: 5
               value: 3.
               norm_class_idx: 3
            -
               depth: 4
               value: 3.
               norm_class_idx: 3
               splits:
                  - { var:1, quality:25., le:1.2302737236022949e+00 }
            -
               depth: 5
               value: 3.
               norm_class_idx: 3
            -
               depth: 5
               value: 3.
               norm_class_idx: 3
            -
               depth: 2
               value: 0.
               norm_class_idx: 0
               splits:
                  - { var:1, quality:2.1326938476562500e+03,
                      le:1.1982335895299911e-01 }
            -
               depth: 3
               value: 0.
               norm_class_idx: 0
               splits:
                  - { var:1, quality:9.3985260009765625e+01,
                      le:-1.9232341647148132e-01 }
            -
               depth: 4
               value: 2.
               norm_class_idx: 2
               splits:
                  - { var:3, quality:3.6222759246826172e+01,
                      le:2.0182709693908691e+00 }
            -
               depth: 5
               value: 2.
               norm_class_idx: 2
            -
               depth: 5
               value: 1.
               norm_class_idx: 1
            -
               depth: 4
               value: 0.
               norm_class_idx: 0
               splits:
                  - { var:1, quality:7.0794761657714844e+01,
                      le:-1.7928200960159302e-01 }
            -
               depth: 5
               value: 1.
               norm_class_idx: 1
            -
               depth: 5
               value: 0.
               norm_class_idx: 0
            -
               depth: 3
               value: 0.
               norm_class_idx: 0
               splits:
                  - { var:2, quality:2.1079240722656250e+03,
                      le:-9.6192842721939087e-01 }
            -
               depth: 4
               value: 0.
               norm_class_idx: 0
               splits:
                  - { var:2, quality:1.8160391235351562e+02,
                      le:-1.1011431217193604e+00 }
            -
               depth: 5
               value: 3.
               norm_class_idx: 3
            -
               depth: 5
               value: 0.
               norm_class_idx: 0
            -
               depth: 4
               value: 0.
               norm_class_idx: 0
               splits:
                  - { var:1, quality:1.9530576171875000e+03,
                      le:5.8281344175338745e-01 }
            -
               depth: 5
               value: 0.
               norm_class_idx: 0
            -
               depth: 5
               value: 0.
               norm_class_idx: 0
            -
               depth: 1
               value: 0.
               norm_class_idx: 0
               splits:
                  - { var:1, quality:2.4648601074218750e+03,
                      le:1.1613454669713974e-01 }
            -
               depth: 2
               value: 0.
               norm_class_idx: 0
               splits:
                  - { var:3, quality:1.8288116455078125e+03,
                      le:1.0612094402313232e+00 }
            -
               depth: 3
               value: 0.
               norm_class_idx: 0
               splits:
                  - { var:3, quality:1.7805909423828125e+03,
                      le:-1.7687540054321289e+00 }
            -
               depth: 4
               value: 1.
               norm_class_idx: 1
               splits:
                  - { var:0, quality:1.5369161987304688e+02,
                      le:6.5948262810707092e-02 }
            -
               depth: 5
               value: 1.
               norm_class_idx: 1
            -
               depth: 5
               value: 0.
               norm_class_idx: 0
            -
               depth: 4
               value: 0.
               norm_class_idx: 0
               splits:
                  - { var:2, quality:1.6650582275390625e+03,
                      le:2.7747535705566406e-01 }
            -
               depth: 5
               value: 0.
               norm_class_idx: 0
            -
               depth: 5
               value: 0.
               norm_class_idx: 0
            -
               depth: 3
               value: 1.
               norm_class_idx: 1
               splits:
                  - { var:2, quality:9.7273811340332031e+01,
                      le:4.4744648039340973e-02 }
            -
               depth: 4
               value: 1.
               norm_class_idx: 1
               splits:
                  - { var:1, quality:8.7278541564941406e+01,
                      le:-4.3346995115280151e-01 }
            -
               depth: 5
               value: 1.
               norm_class_idx: 1
            -
               depth: 5
               value: 1.
               norm_class_idx: 1
            -
               depth: 4
               value: 1.
               norm_class_idx: 1
               splits:
                  - { var:1, quality:2.3250000000000000e+01,
                      le:-1.4025710821151733e+00 }
            -
               depth: 5
               value: 1.
               norm_class_idx: 1
            -
               depth: 5
               value: 1.
               norm_class_idx: 1
            -
               depth: 2
               value: 3.
               norm_class_idx: 3
               splits:
                  - { var:0, quality:7.4597778320312500e+02,
                      le:-1.2022799253463745e+00 }
            -
               depth: 3
               value: 1.
               norm_class_idx: 1
               splits:
                  - { var:2, quality:6.2565967559814453e+01,
                      le:-3.3106321096420288e-01 }
            -
               depth: 4
               value: 1.
               norm_class_idx: 1
               splits:
                  - { var:1, quality:1.6517240524291992e+01,
                      le:1.6090179681777954e+00 }
            -
               depth: 5
               value: 1.
               norm_class_idx: 1
            -
               depth: 5
               value: 2.
               norm_class_idx: 2
            -
               depth: 4
               value: 1.
               norm_class_idx: 1
               splits:
                  - { var:0, quality:5.1731502532958984e+01,
                      le:-1.9756114482879639e+00 }
            -
               depth: 5
               value: 1.
               norm_class_idx: 1
            -
               depth: 5
               value: 1.
               norm_class_idx: 1
            -
               depth: 3
               value: 3.
               norm_class_idx: 3
               splits:
                  - { var:3, quality:7.3380407714843750e+02,
                      le:-7.0440447330474854e-01 }
            -
               depth: 4
               value: 3.
               norm_class_idx: 3
               splits:
                  - { var:3, quality:2.1404858398437500e+02,
                      le:-1.2000627517700195e+00 }
            -
               depth: 5
               value: 3.
               norm_class_idx: 3
            -
               depth: 5
               value: 3.
               norm_class_idx: 3
            -
               depth: 4
               value: 3.
               norm_class_idx: 3
               splits:
                  - { var:2, quality:5.5064776611328125e+02,
                      le:-2.2147572040557861e-01 }
            -
               depth: 5
               value: 3.
               norm_class_idx: 3
            -
               depth: 5
               value: 3.
               norm_class_idx: 3
      -
         nodes:
            -
               depth: 0
               value: 0.
               norm_class_idx: 0
               splits:
                  - { var:2, quality:4.4486992187500000e+03,
                      le:-5.2479255199432373e-01 }
            -
               depth: 1
               value: 0.
               norm_class_idx: 0
               splits:
                  - { var:1, quality:2.2387060546875000e+03,
                      le:5.1864400506019592e-02 }
            -
               depth: 2
               value: 0.
               norm_class_idx: 0
               splits:
                  - { var:2, quality:1.0847832489013672e+02,
                      le:-7.2045302391052246e-01 }
            -
               depth: 3
               value: 2.
               norm_class_idx: 2
               splits:
                  - { var:2, quality:4.3501277923583984e+01,
                      le:-8.5547685623168945e-01 }
            -
               depth: 4
               value: 2.
               norm_class_idx: 2
               splits:
                  - { var:2, quality:1.2238095283508301e+01,
                      le:-8.9014220237731934e-01 }
            -
               depth: 5
               value: 2.
               norm_class_idx: 2
            -
               depth: 5
               value: 3.
               norm_class_idx: 3
            -
               depth: 4
               value: 2.
               norm_class_idx: 2
               splits:
                  - { var:1, quality:3.7194770812988281e+01,
                      le:-4.9753886461257935e-01 }
            -
               depth: 5
               value: 1.
               norm_class_idx: 1
            -
               depth: 5
               value: 2.
               norm_class_idx: 2
            -
               depth: 3
               value: 0.
               norm_class_idx: 0
               splits:
                  - { var:1, quality:7.6705871582031250e+01,
                      le:-8.6847439408302307e-02 }
            -
               depth: 4
               value: 0.
               norm_class_idx: 0
               splits:
                  - { var:2, quality:4.5360832214355469e+01,
                      le:-5.7945013046264648e-01 }
            -
               depth: 5
               value: 2.
               norm_class_idx: 2
            -
               depth: 5
               value: 0.
               norm_class_idx: 0
            -
               depth: 4
               value: 0.
               norm_class_idx: 0
               splits:
                  - { var:0, quality:4.0160491943359375e+01,
                      le:-6.4131541252136230e+00 }
            -
               depth: 5
               value: 1.
               norm_class_idx: 1
            -
               depth: 5
               value: 0.
               norm_class_idx: 0
            -
               depth: 2
               value: 0.
               norm_class_idx: 0
               splits:
                  - { var:2, quality:2.2089023437500000e+03,
                      le:-1.0794556140899658e+00 }
            -
               depth: 3
               value: 3.
               norm_class_idx: 3
               splits:
                  - { var:0, quality:7.9873046875000000e+01,
                      le:-3.4071281552314758e-03 }
            -
               depth: 4
               value: 1.
               norm_class_idx: 1
               splits:
                  - { var:0, quality:1.1333333015441895e+01,
                      le:-1.2701609134674072e+00 }
            -
               depth: 5
               value: 2.
               norm_class_idx: 2
            -
               depth: 5
               value: 1.
               norm_class_idx: 1
            -
               depth: 4
               value: 3.
               norm_class_idx: 3
               splits:
                  - { var:3, quality:8.8626213073730469e+01,
                      le:2.4485735893249512e+00 }
            -
               depth: 5
               value: 3.
               norm_class_idx: 3
            -
               depth: 5
               value: 1.
               norm_class_idx: 1
            -
               depth: 3
               value: 0.
               norm_class_idx: 0
               splits:
                  - { var:0, quality:2.2501691894531250e+03,
                      le:3.4830600023269653e-01 }
            -
               depth: 4
               value: 1.
               norm_class_idx: 1
               splits:
                  - { var:0, quality:9.7247444152832031e+01,
                      le:-9.7755599021911621e-01 }
            -
               depth: 5
               value: 1.
               norm_class_idx: 1
            -
               depth: 5
               value: 3.
               norm_class_idx: 3
            -
               depth: 4
               value: 0.
               norm_class_idx: 0
               splits:
                  - { var:3, quality:2.2329687500000000e+03,
                      le:-6.4474427700042725e-01 }
            -
               depth: 5
               value: 1.
               norm_class_idx: 1
            -
               depth: 5
               value: 0.
               norm_class_idx: 0
            -
               depth: 1
               value: 0.
               norm_class_idx: 0
               splits:
                  - { var:1, quality:2.3627966308593750e+03,
                      le:1.9919192790985107e-01 }
            -
               depth: 2
               value: 0.
               norm_class_idx: 0
               splits:
                  - { var:3, quality:1.8897686767578125e+03,
                      le:1.0612094402313232e+00 }
            -
               depth: 3
               value: 0.
               norm_class_idx: 0
               splits:
                  - { var:2, quality:1.8024318847656250e+03,
                      le:2.9092553257942200e-01 }
            -
               depth: 4
               value: 0.
               norm_class_idx: 0
               splits:
                  - { var:3, quality:8.2044958496093750e+02,
                      le:-1.4949738979339600e+00 }
            -
               depth: 5
               value: 1.
               norm_class_idx: 1
            -
               depth: 5
               value: 0.
               norm_class_idx: 0
            -
               depth: 4
               value: 0.
               norm_class_idx: 0
               splits:
                  - { var:0, quality:1.0216909790039062e+03,
                      le:-3.2026782035827637e+00 }
            -
               depth: 5
               value: 0.
               norm_class_idx: 0
            -
               depth: 5
               value: 0.
               norm_class_idx: 0
            -
               depth: 3
               value: 1.
               norm_class_idx: 1
               splits:
                  - { var:1, quality:1.1410952758789062e+02,
                      le:-4.2521017789840698e-01 }
            -
               depth: 4
               value: 1.
               norm_class_idx: 1
               splits:
                  - { var:0, quality:6.5571426391601562e+01,
                      le:2.0660921931266785e-01 }
            -
               depth: 5
               value: 2.
               norm_class_idx: 2
            -
               depth: 5
               value: 1.
               norm_class_idx: 1
            -
               depth: 4
               value: 1.
               norm_class_idx: 1
               splits:
                  - { var:3, quality:5.7541667938232422e+01,
                      le:1.3595752716064453e+00 }
            -
               depth: 5
               value: 1.
               norm_class_idx: 1
            -
               depth: 5
               value: 1.
               norm_class_idx: 1
            -
               depth: 2
               value: 3.
               norm_class_idx: 3
               splits:
                  - { var:3, quality:6.0819317626953125e+02,
                      le:-8.3395445346832275e-01 }
            -
               depth: 3
               value: 3.
               norm_class_idx: 3
               splits:
                  - { var:0, quality:2.2938505554199219e+02,
                      le:-3.5246169567108154e-01 }
            -
               depth: 4
               value: 1.
               norm_class_idx: 1
               splits:
                  - { var:1, quality:7.6430992126464844e+01,
                      le:2.1942383050918579e-01 }
            -
               depth: 5
               value: 3.
               norm_class_idx: 3
            -
               depth: 5
               value: 1.
               norm_class_idx: 1
            -
               depth: 4
               value: 3.
               norm_class_idx: 3
               splits:
                  - { var:1, quality:1.6378610229492188e+02,
                      le:1.9148920774459839e+00 }
            -
               depth: 5
               value: 3.
               norm_class_idx: 3
            -
               depth: 5
               value: 1.
               norm_class_idx: 1
            -
               depth: 3
               value: 3.
               norm_class_idx: 3
               splits:
                  - { var:0, quality:4.2970001220703125e+02,
                      le:-8.4259110689163208e-01 }
            -
               depth: 4
               value: 1.
               norm_class_idx: 1
               splits:
                  - { var:2, quality:2.6846153259277344e+01,
                      le:-2.8364193439483643e-01 }
            -
               depth: 5
               value: 0.
               norm_class_idx: 0
            -
               depth: 5
               value: 1.
               norm_class_idx: 1
            -
               depth: 4
               value: 3.
               norm_class_idx: 3
               splits:
                  - { var:0, quality:4.2249951171875000e+02,
                      le:2.8857582807540894e-01 }
            -
               depth: 5
               value: 3.
               norm_class_idx: 3
            -
               depth: 5
               value: 3.
               norm_class_idx: 3
      -
         nodes:
            -
               depth: 0
               value: 0.
               norm_class_idx: 0
               splits:
                  - { var:1, quality:4.2307846679687500e+03,
                      le:6.0418581962585449e-01 }
            -
               depth: 1
               value: 0.
               norm_class_idx: 0
               splits:
                  - { var:3, quality:2.6554045410156250e+03,
                      le:1.6803510189056396e+00 }
            -
               depth: 2
               value: 0.
               norm_class_idx: 0
               splits:
                  - { var:2, quality:2.6390766601562500e+03,
                      le:-5.0618851184844971e-01 }
            -
               depth: 3
               value: 0.
               norm_class_idx: 0
               splits:
                  - { var:1, quality:6.5019982910156250e+02,
                      le:-1.4366638660430908e-01 }
            -
               depth: 4
               value: 2.
               norm_class_idx: 2
               splits:
                  - { var:2, quality:5.3320125579833984e+01,
                      le:-6.4931845664978027e-01 }
            -
               depth: 5
               value: 2.
               norm_class_idx: 2
            -
               depth: 5
               value: 0.
               norm_class_idx: 0
            -
               depth: 4
               value: 0.
               norm_class_idx: 0
               splits:
                  - { var:0, quality:6.4424005126953125e+02,
                      le:3.0893409252166748e-01 }
            -
               depth: 5
               value: 1.
               norm_class_idx: 1
            -
               depth: 5
               value: 0.
