%YAML:1.0
---
opencv_ml_svm:
   format: 3
   svmType: C_SVC
   kernel:
      type: RBF
      gamma: 5.0625000000000009e-01
   C: 2.5000000000000000e+00
   term_criteria: { iterations:100 }
   var_count: 4
   class_count: 4
   class_labels: !!opencv-matrix
      rows: 4
      cols: 1
      dt: i
      data: [ 0, 1, 2, 3 ]
   sv_total: 847
   support_vectors:
      - [ 3.50449741e-01, 7.00462580e-01, -1.18337303e-01,
          1.00323074e-01 ]
      - [ -1.88016665e+00, -2.46825290e+00, 2.35844874e+00,
          -6.31477654e-01 ]
      - [ 3.50449741e-01, 1.53019175e-01, -6.12760901e-01,
          7.52341688e-01 ]
      - [ -1.03786492e+00, 2.11680099e-01, -6.64073288e-01,
          9.07813013e-01 ]
      - [ 3.50449741e-01, -5.30486703e-01, -2.30741948e-01,
          4.01703447e-01 ]
      - [ -2.46303296e+00, -1.64299417e+00, 2.19922090e+00,
          -1.38557351e+00 ]
      - [ 3.50449741e-01, -4.72873122e-01, 6.96218535e-02,
          5.39736636e-02 ]
      - [ -9.72502530e-01, -9.80293274e-01, 5.46153188e-01,
          -5.82343280e-01 ]
      - [ -1.21635330e+00, 9.60653841e-01, -8.43374968e-01,
          -1.15188789e+00 ]
      - [ 3.50449741e-01, -1.36517215e+00, 9.17676628e-01,
          -2.14007050e-01 ]
      - [ -2.04121280e+00, -1.44909441e+00, 8.25563490e-01,
          -1.28674313e-01 ]
      - [ 3.50449741e-01, -3.91234547e-01, 1.14370942e+00,
          -2.38038826e+00 ]
      - [ 3.50449741e-01, -1.06823869e-01, 2.64281094e-01,
          -1.47366726e+00 ]
      - [ 3.50449741e-01, -5.97720683e-01, 4.78243589e-01,
          -1.58747280e+00 ]
      - [ 3.50449741e-01, -3.69278729e-01, -1.70592844e-01,
          2.96652853e-01 ]
      - [ 3.50449741e-01, -6.59936845e-01, 1.23765767e+00,
          -1.27188909e+00 ]
      - [ -2.99613810e+00, -1.51764023e+00, 9.68628824e-01,
          -9.19667840e-01 ]
      - [ -9.48247969e-01, 2.12048352e-01, -4.43170786e-01,
          -4.55821939e-02 ]
      - [ 3.50449741e-01, -2.62055635e+00, 3.03724408e+00,
          -6.25093222e-01 ]
      - [ 3.50449741e-01, 6.09466791e-01, -4.38121371e-02,
          -3.41713950e-02 ]
      - [ -2.08020353e+00, -1.31112158e+00, 8.63541842e-01,
          -4.66276199e-01 ]
      - [ 3.50449741e-01, 1.24025285e+00, -1.01791024e+00,
          -1.01964080e+00 ]
      - [ -2.72596526e+00, 2.26607546e-01, -8.94236490e-02,
          -1.93560004e+00 ]
      - [ -5.41875735e-02, -4.40920502e-01, -3.89312565e-01,
          6.47538453e-02 ]
      - [ 3.50449741e-01, -2.09497905e+00, 1.69063020e+00,
          -2.13241935e-01 ]
      - [ -2.04563618e+00, 1.75645903e-01, -1.92157045e-01,
          -1.65329623e+00 ]
      - [ -1.52824354e+00, -5.49390502e-02, -5.21461368e-02,
          -1.75343943e+00 ]
      - [ -5.29294372e-01, 9.98933241e-03, -6.65124834e-01,
          -7.31999576e-01 ]
      - [ 3.50449741e-01, 2.15540662e-01, -5.87116897e-01,
          1.68783680e-01 ]
      - [ -2.27073073e+00, -1.89080095e+00, 2.50732899e+00,
          -1.45153522e+00 ]
      - [ 3.50449741e-01, -4.04079229e-01, -2.05627114e-01,
          3.94065350e-01 ]
      - [ -2.88767433e+00, 2.43232384e-01, -6.99158072e-01,
          -1.16597235e+00 ]
      - [ 3.50449741e-01, -1.24511576e+00, 1.40972090e+00,
          -1.10536098e+00 ]
      - [ 3.50449741e-01, 1.58216059e+00, -3.58844735e-02,
          -2.04041648e+00 ]
      - [ -2.92583323e+00, 1.83775556e+00, -7.19005942e-01,
          -1.17157304e+00 ]
      - [ -1.11531544e+00, -1.73962206e-01, -7.36337185e-01,
          5.64722419e-01 ]
      - [ 3.50449741e-01, 4.84817684e-01, -8.06478560e-01,
          -4.85686004e-01 ]
      - [ -2.54802060e+00, -5.18261731e-01, 1.04508758e+00,
          -1.86706305e+00 ]
      - [ 3.50449741e-01, -1.30956590e+00, 6.13133729e-01,
          1.70141041e-01 ]
      - [ -6.21398926e-01, 4.63253707e-01, -1.93244010e-01,
          -1.68123806e+00 ]
      - [ -8.48252177e-01, 4.90306646e-01, -6.58529282e-01,
          3.28971714e-01 ]
      - [ 3.50449741e-01, 2.84867257e-01, -1.07925653e+00,
          6.71846509e-01 ]
      - [ 3.50449741e-01, 2.90915668e-01, -1.71482012e-01,
          -2.05370933e-02 ]
      - [ -1.93149596e-01, -7.96713769e-01, 4.56854105e-01,
          -5.31492494e-02 ]
      - [ 3.50449741e-01, -1.45901215e+00, 1.49543130e+00,
          -4.84389037e-01 ]
      - [ 3.50449741e-01, 9.79080856e-01, -9.90390956e-01,
          7.80774295e-01 ]
      - [ 6.14383854e-02, -2.13449880e-01, 1.76268184e+00,
          -1.77212441e+00 ]
      - [ 3.50449741e-01, 9.99335170e-01, -5.31818271e-01,
          -8.20845962e-01 ]
      - [ 3.50449741e-01, -4.94278371e-02, -2.69601315e-01,
          2.04228684e-01 ]
      - [ -1.30482936e+00, -2.88427949e+00, 4.62938643e+00,
          -1.49509954e+00 ]
      - [ -1.77150118e+00, 5.61870456e-01, -5.45261979e-01,
          -1.37559605e+00 ]
      - [ -1.91863048e+00, -2.48130989e+00, 2.26375675e+00,
          -2.99233407e-01 ]
      - [ -2.83498907e+00, -9.83514190e-01, 4.19497192e-01,
          -7.84007132e-01 ]
      - [ 3.50449741e-01, 1.66600549e+00, -5.86723089e-01,
          1.08977798e-02 ]
      - [ 3.50449741e-01, 1.52381048e-01, -4.90732044e-01,
          2.31072947e-01 ]
      - [ 3.50449741e-01, -1.05326235e+00, 1.56419528e+00,
          -1.33393669e+00 ]
      - [ -2.84460187e+00, 2.11739168e-01, -5.66818535e-01,
          -1.51312053e-01 ]
      - [ -8.55476201e-01, 9.20741200e-01, -6.53025389e-01,
          -1.20138098e-03 ]
      - [ -3.11524010e+00, 5.26568890e-01, -8.98254633e-01,
          -1.05536389e+00 ]
      - [ -2.27183461e+00, -1.16111648e+00, 8.98380280e-01,
          -4.51941371e-01 ]
      - [ 3.50449741e-01, -6.02481902e-01, -1.53834835e-01,
          4.45316494e-01 ]
      - [ 2.25935817e-01, -1.70599937e+00, 1.70140970e+00,
          -4.47129667e-01 ]
      - [ 2.11916059e-01, -1.45232952e+00, 8.92696381e-01,
          -7.89369643e-01 ]
      - [ -2.93519902e+00, -5.76767564e-01, -2.97123134e-01,
          3.11804444e-01 ]
      - [ 3.50449741e-01, -1.73889279e+00, 1.07423997e+00,
          -3.95050719e-02 ]
      - [ 3.18184525e-01, -1.86293292e+00, 1.48489165e+00,
          -3.26971561e-01 ]
      - [ 3.50449741e-01, 2.59467453e-01, -2.88205355e-01,
          -1.86353195e+00 ]
      - [ 3.50449741e-01, 1.45558268e-01, -8.22191179e-01,
          6.50411487e-01 ]
      - [ -1.69716024e+00, -1.33931112e+00, 1.33545697e+00,
          -3.87278914e-01 ]
      - [ -1.92463124e+00, -8.52100432e-01, 1.15733349e+00,
          -1.49831843e+00 ]
      - [ -3.21716249e-01, -2.20099449e-01, 1.69423580e-01,
          -1.73214114e+00 ]
      - [ 3.50449741e-01, -2.31663609e+00, 1.69660819e+00,
          2.60507703e-01 ]
      - [ 3.50449741e-01, -9.70503807e-01, 6.41579449e-01,
          -4.30889651e-02 ]
      - [ -1.89025319e+00, 7.24727392e-01, -4.18411791e-02,
          -2.26856828e+00 ]
      - [ 3.50449741e-01, 8.45923647e-02, 2.18587130e-01, 2.74700433e-01 ]
      - [ -3.06523180e+00, -8.60308170e-01, 1.53956622e-01,
          5.10505080e-01 ]
      - [ 3.50449741e-01, -2.38929415e+00, 2.12867665e+00,
          -2.21399724e-01 ]
      - [ -6.40403938e+00, -1.84446061e+00, 1.45043397e+00,
          -4.88685220e-01 ]
      - [ -1.80241966e+00, -1.32665193e+00, 9.63743508e-01,
          -1.14464593e+00 ]
      - [ -1.29467285e+00, -1.83375132e+00, 1.15544415e+00,
          -2.01914340e-01 ]
      - [ -2.55085826e+00, -4.45334196e-01, -2.82507688e-01,
          3.79217684e-01 ]
      - [ -9.04294133e-01, -1.31502986e+00, 1.20191264e+00,
          -8.17127168e-01 ]
      - [ 3.50449741e-01, 1.14828002e+00, -4.03630167e-01,
          -1.72360730e+00 ]
      - [ -1.53998983e+00, -1.24690795e+00, 1.20114088e+00,
          -5.72293639e-01 ]
      - [ 3.50449741e-01, -9.53695059e-01, 1.00159109e+00,
          -1.88054991e+00 ]
      - [ 3.50449741e-01, -3.39096516e-01, -2.40816683e-01,
          2.84178734e-01 ]
      - [ -2.22932220e+00, 1.17053473e+00, -5.46086073e-01,
          1.64102286e-01 ]
      - [ 3.50449741e-01, -1.14624321e+00, 1.24812412e+00,
          -9.79207456e-01 ]
      - [ -2.24702811e+00, -1.39851391e+00, 1.23829782e+00,
          -9.11604285e-01 ]
      - [ -5.90908825e-01, -2.57889271e+00, 3.83841205e+00,
          -1.02301693e+00 ]
      - [ -1.97553730e+00, 5.93256354e-01, -4.48508799e-01,
          -6.04130030e-01 ]
      - [ -1.73488677e+00, -2.03789878e+00, 1.91962528e+00,
          -5.81575513e-01 ]
      - [ -8.35678041e-01, -1.66900134e+00, 1.10069454e+00,
          -2.96543002e-01 ]
      - [ 3.39053541e-01, -1.97030091e+00, 1.71376228e+00,
          -1.31368890e-01 ]
      - [ 3.50449741e-01, -8.40669498e-03, -5.03096044e-01,
          2.49515921e-01 ]
      - [ -2.20410705e-01, -2.34033322e+00, 3.38711643e+00,
          -1.00654638e+00 ]
      - [ -2.81725836e+00, 8.40516150e-01, -7.74887085e-01,
          -5.05061209e-01 ]
      - [ -1.21712756e+00, -3.41766536e-01, -4.04019132e-02,
          1.61178671e-02 ]
      - [ -2.29822254e+00, -1.39846101e-01, -4.53159451e-01,
          -5.44369340e-01 ]
      - [ -4.96777922e-01, 1.36461723e+00, -4.02760834e-01,
          -3.40968251e-01 ]
      - [ -3.13498068e+00, -2.18253708e+00, 2.22478580e+00,
          -5.71662605e-01 ]
      - [ 3.50449741e-01, -1.80128288e+00, 1.38965452e+00,
          2.40402326e-01 ]
      - [ -8.59936655e-01, -8.81036699e-01, 8.34613502e-01,
          -1.64399576e+00 ]
      - [ 3.50449741e-01, 2.68844461e+00, -1.45912871e-01,
          -3.77693474e-02 ]
      - [ -1.12357736e+00, -8.46833348e-01, 6.36559308e-01,
          -5.78823164e-02 ]
      - [ 3.50449741e-01, -1.72823787e+00, 1.74042368e+00,
          -3.52964848e-01 ]
      - [ 3.50449741e-01, 4.21560019e-01, 9.20407295e-01,
          -1.84492409e+00 ]
      - [ 3.50449741e-01, -1.80247068e+00, 1.26819468e+00,
          2.90554076e-01 ]
      - [ -2.56754684e+00, -2.62074566e+00, 4.22772598e+00,
          -1.54336894e+00 ]
      - [ -2.83246422e+00, -9.59003508e-01, 2.05565229e-01,
          -3.21626842e-01 ]
      - [ 3.50449741e-01, -1.34247422e+00, 8.59045446e-01,
          -3.64570528e-01 ]
      - [ 3.50449741e-01, 6.81185275e-02, -7.10784078e-01,
          -4.12123054e-01 ]
      - [ -2.33018279e+00, -1.14370584e+00, 6.14056230e-01,
          -8.33519876e-01 ]
      - [ -3.48532629e+00, -9.11165774e-01, 8.88799787e-01,
          -9.67402697e-01 ]
      - [ 3.50449741e-01, 1.15085435e+00, -1.30373740e+00,
          7.37993181e-01 ]
      - [ -1.27952039e+00, -2.59354138e+00, 2.14926720e+00,
          -7.58086294e-02 ]
      - [ 3.50449741e-01, 7.11886585e-01, 2.27161020e-01,
          -2.12415767e+00 ]
      - [ -1.19710696e+00, 6.60958052e-01, -3.83435100e-01,
          -1.03078687e+00 ]
      - [ -4.09055561e-01, 2.16386080e-01, -2.80147612e-01,
          -1.80855107e+00 ]
      - [ -1.68480432e+00, -1.76391566e+00, 2.11349773e+00,
          -6.03789687e-01 ]
      - [ 1.39535531e-01, -1.04206450e-01, -2.77256906e-01,
          -1.94065297e+00 ]
      - [ 3.50449741e-01, -1.36755216e+00, 6.85914874e-01,
          7.87632823e-01 ]
      - [ 3.50449741e-01, -1.91347039e+00, 1.51684904e+00,
          1.21709824e-01 ]
      - [ -8.39528918e-01, -1.25030065e+00, 8.29764962e-01,
          1.37570292e-01 ]
      - [ -3.12805724e+00, -7.46111274e-01, 4.85807776e-01,
          -9.27323043e-01 ]
      - [ -1.90104935e-02, 5.43238759e-01, 2.66899467e-01,
          -1.67871249e+00 ]
      - [ -4.40286684e+00, -1.61186993e+00, 1.35815620e+00,
          -7.36850798e-01 ]
      - [ -1.84454477e+00, -1.41053128e+00, 1.37253702e+00,
          -4.28448886e-01 ]
      - [ 3.50449741e-01, 1.03773057e+00, -6.08798563e-01,
          -1.82272935e+00 ]
      - [ 3.50449741e-01, 2.77952075e+00, 9.59025443e-01,
          -1.63648570e+00 ]
      - [ 3.50449741e-01, -2.12285113e+00, 2.06774640e+00,
          8.28720033e-02 ]
      - [ 3.50449741e-01, -6.71209574e-01, 1.22037983e+00,
          -1.75121331e+00 ]
      - [ -6.56683087e-01, 3.53928506e-01, -9.39228833e-01,
          6.75653040e-01 ]
      - [ 3.50449741e-01, 4.74317491e-01, 2.98186123e-01,
          -1.95061898e+00 ]
      - [ 3.50449741e-01, -1.17262459e+00, 1.76323593e-01,
          1.74134791e+00 ]
      - [ -3.00159526e+00, -1.19385469e+00, 8.76709819e-01,
          -1.65648997e+00 ]
      - [ 3.50449741e-01, -1.67752731e+00, 1.24615848e+00,
          1.17241159e-01 ]
      - [ -6.60048008e-01, -9.79868531e-01, 3.02112460e-01,
          -6.38127998e-02 ]
      - [ -2.80669832e+00, 7.45548531e-02, -8.59036088e-01,
          5.17971516e-01 ]
      - [ 3.50449741e-01, -6.63486779e-01, 3.01197141e-01,
          4.32599671e-02 ]
      - [ 3.50449741e-01, 6.22552931e-01, -1.15238774e+00,
          1.10474718e+00 ]
      - [ 3.50449741e-01, -2.32556534e+00, 1.78280437e+00,
          6.61487639e-01 ]
      - [ 3.50449741e-01, -1.56760895e+00, 1.03174961e+00,
          -5.58774054e-01 ]
      - [ -2.83766198e+00, 6.37127221e-01, -6.02520585e-01,
          -3.86975765e-01 ]
      - [ 3.50449741e-01, -1.39160466e+00, 1.26268959e+00,
          -7.84319401e-01 ]
      - [ 3.50449741e-01, -4.02800947e-01, 2.91672736e-01,
          6.90477565e-02 ]
      - [ -7.96477079e-01, -1.26626742e+00, 6.47981584e-01,
          3.36773932e-01 ]
      - [ -1.48708212e+00, -1.26522076e+00, 5.25145233e-01,
          -6.10975325e-01 ]
      - [ 3.50449741e-01, 2.11050287e-01, -5.29131174e-01,
          -1.37023196e-01 ]
      - [ 3.50449741e-01, -4.78235453e-01, -1.60721749e-01,
          3.47511947e-01 ]
      - [ 3.50449741e-01, -5.07587314e-01, 3.38606983e-01,
          -1.44457483e+00 ]
      - [ -3.61308980e+00, -8.49914014e-01, 7.66360089e-02,
          5.36887825e-01 ]
      - [ 3.50449741e-01, 5.78259885e-01, -1.05263913e+00,
          7.63802230e-01 ]
      - [ -1.67480850e+00, 7.33053207e-01, -7.64703751e-01,
          -1.13391030e+00 ]
      - [ -7.64722586e-01, -2.15296507e+00, 1.39926684e+00,
          -1.40282273e-01 ]
      - [ 3.50449741e-01, -1.67801332e+00, 1.54452968e+00,
          -6.52202249e-01 ]
      - [ -2.58635664e+00, -1.11109090e+00, 1.22805886e-01,
          -3.26763362e-01 ]
      - [ -7.93878257e-01, 7.83702791e-01, -6.94879174e-01,
          1.07925497e-02 ]
      - [ -1.28927326e+00, -2.41575956e+00, 3.30226183e+00,
          -1.20488000e+00 ]
      - [ 3.50449741e-01, -6.47568822e-01, -2.08352916e-02,
          -2.01142747e-02 ]
      - [ -5.38400650e-01, -1.00795484e+00, 1.22429967e+00,
          -1.82482445e+00 ]
      - [ -1.10615563e+00, -1.25768626e+00, 1.09107745e+00,
          -3.66964608e-01 ]
      - [ -2.31866717e+00, -9.18304622e-01, 6.43634498e-01,
          -4.17550206e-01 ]
      - [ -2.20393515e+00, -6.64015353e-01, 1.21388949e-01,
          -1.81483403e-01 ]
      - [ 3.50449741e-01, -1.09525275e+00, 3.77384424e-01,
          9.96572375e-01 ]
      - [ -2.90542454e-01, 5.29833138e-01, -3.68212223e-01,
          -1.04796171e+00 ]
      - [ 3.50449741e-01, -5.92971742e-01, 1.20086432e-03,
          1.69941977e-01 ]
      - [ -7.44409561e-01, -5.45719922e-01, 6.79244101e-01,
          -7.75699615e-01 ]
      - [ -1.88763785e+00, -6.40785217e-01, -1.18964307e-01,
          1.37634873e-01 ]
      - [ -7.24236608e-01, -1.32896769e+00, 1.02940440e+00,
          -1.71803355e+00 ]
      - [ -2.57943630e-01, -1.43113542e+00, 7.10806787e-01,
          3.89405608e-01 ]
      - [ -7.26835430e-01, 9.80275795e-02, -4.56611872e-01,
          -3.53497475e-01 ]
      - [ 3.50449741e-01, 4.12922829e-01, -1.22247534e-02,
          7.64932483e-02 ]
      - [ 3.50449741e-01, -8.43981802e-01, 2.10017756e-01,
          9.08976257e-01 ]
      - [ -1.37168264e+00, -9.76029873e-01, 7.12505877e-01,
          -1.26217902e+00 ]
      - [ 1.57365009e-01, -6.86934054e-01, 1.33263803e+00,
          -1.44032800e+00 ]
      - [ -2.56858063e+00, 1.13592958e+00, -2.13649645e-01,
          -2.12298250e+00 ]
      - [ 3.50449741e-01, -2.51373768e+00, 2.09661555e+00,
          6.61807135e-02 ]
      - [ -2.53717613e+00, -8.29325765e-02, -1.28751785e-01,
          -1.18256295e+00 ]
      - [ -1.98635280e+00, -1.59219956e+00, 3.27289081e+00,
          -1.70198774e+00 ]
      - [ 3.50449741e-01, -1.12271881e+00, 1.93930662e+00,
          -1.45276034e+00 ]
      - [ -3.12914872e+00, -2.72654891e-01, -3.34067158e-02,
          -2.19324040e+00 ]
      - [ 3.50449741e-01, 2.82741475e+00, 3.55232835e-01,
          -5.33550799e-01 ]
      - [ -2.04785204e+00, -1.98364019e+00, 9.68366265e-01,
          -3.98108847e-02 ]
      - [ -5.16143620e-01, 6.19458377e-01, -2.93119222e-01,
          -1.65867698e+00 ]
      - [ -2.95135212e+00, -1.93726099e+00, 2.19766593e+00,
          -1.24750459e+00 ]
      - [ -2.62384820e+00, -2.36975813e+00, 3.17607617e+00,
          -1.72167635e+00 ]
      - [ 3.50449741e-01, -1.99090558e-04, -3.40471298e-01,
          1.98868796e-01 ]
      - [ 3.50449741e-01, 3.96901309e-01, -3.99492741e-01,
          -4.29271370e-01 ]
      - [ -6.44454896e-01, 5.90887547e-01, -8.17148447e-01,
          4.70833063e-01 ]
      - [ -1.54838359e+00, -4.26342249e-01, 1.59538674e+00,
          -2.15663719e+00 ]
      - [ -2.14247704e+00, -1.21366966e+00, 1.35356390e+00,
          -1.27797723e+00 ]
      - [ 3.50449741e-01, -1.19727790e+00, 4.77226317e-01,
          7.30020046e-01 ]
      - [ 3.50449741e-01, -7.51453161e-01, 3.85185964e-02,
          9.05921161e-01 ]
      - [ -7.39648461e-01, -4.53324825e-01, 7.41587460e-01,
          -1.74178433e+00 ]
      - [ 3.50449741e-01, 7.05342233e-01, -1.09321225e+00,
          7.54219115e-01 ]
      - [ 3.50449741e-01, -3.95917565e-01, -1.87288046e-01,
          -5.21014392e-01 ]
      - [ -3.68405366e+00, -1.03987885e+00, 7.24622965e-01,
          -1.06123781e+00 ]
      - [ 3.50449741e-01, -2.62227327e-01, 1.96767494e-01,
          -1.49897981e+00 ]
      - [ 3.50449741e-01, 8.79590273e-01, -8.02266598e-01,
          6.16144538e-01 ]
      - [ -1.73944187e+00, -6.55838370e-01, 4.48203534e-01,
          -1.74244535e+00 ]
      - [ 3.50449741e-01, 4.24153566e-01, -3.61343533e-01,
          3.37011404e-02 ]
      - [ -3.80425525e+00, -4.22116548e-01, -2.65554070e-01,
          -6.49053678e-02 ]
      - [ -2.06291098e-02, -1.16087604e+00, 6.17893696e-01,
          2.49537621e-02 ]
      - [ -1.29419088e+00, -2.82177234e+00, 3.11764121e+00,
          -1.02939606e+00 ]
      - [ -3.28985691e+00, -2.39236027e-01, 7.26048648e-02,
          -2.29527211e+00 ]
      - [ -2.39080384e-01, 2.27188304e-01, -3.35328788e-01,
          -6.72732353e-01 ]
      - [ -2.07243586e+00, -2.04262471e+00, 2.58738780e+00,
          -1.12497175e+00 ]
      - [ 3.50449741e-01, -2.24578905e+00, 1.64649642e+00,
          1.13770090e-01 ]
      - [ -2.32712269e+00, -2.49513626e+00, 3.39263678e+00,
          -1.09389591e+00 ]
      - [ -7.47045457e-01, -2.71013355e+00, 3.42629504e+00,
          -1.21714103e+00 ]
      - [ 3.50449741e-01, 9.97887731e-01, -6.27586395e-02,
          -1.27255881e+00 ]
      - [ 3.50449741e-01, -3.36468101e-01, -2.54634798e-01,
          -9.20675695e-01 ]
      - [ -3.25872445e+00, -8.27145219e-01, -3.20459276e-01,
          8.06333363e-01 ]
      - [ 3.50449741e-01, -1.17768180e+00, 6.11665249e-01,
          -1.79095790e-01 ]
      - [ -2.36432105e-01, 1.72896143e-02, -4.04511750e-01,
          -3.04690540e-01 ]
      - [ -4.75192249e-01, -8.12183142e-01, 1.16780293e+00,
          -1.44353878e+00 ]
      - [ -1.15705347e+00, -9.28374529e-01, 5.17419636e-01,
          -6.62604421e-02 ]
      - [ -3.91177583e+00, -1.01148570e+00, 2.97011673e-01,
          -7.44596422e-01 ]
      - [ 3.50449741e-01, 6.74008578e-02, 1.37429810e+00,
          -2.57535267e+00 ]
      - [ -2.15716410e+00, -5.83564758e-01, -6.85202658e-01,
          4.60837334e-01 ]
      - [ 3.50449741e-01, -2.68933058e+00, 3.15941095e+00,
          -9.66067016e-01 ]
      - [ -1.13699996e+00, 2.10446954e-01, -6.32589638e-01,
          -1.25602329e+00 ]
      - [ -1.23923942e-01, -9.67319489e-01, 6.66581631e-01,
          1.89662930e-02 ]
      - [ -1.71120465e+00, -1.03922629e+00, 5.68330526e-01,
          -5.88092566e-01 ]
      - [ -2.59443736e+00, -1.16424906e+00, 5.49855828e-01,
          -5.49185574e-01 ]
      - [ 3.50449741e-01, 8.76744807e-01, 1.38577491e-01,
          -1.62897944e+00 ]
      - [ -3.97296935e-01, -9.39427912e-02, -3.15415949e-01,
          1.16794360e+00 ]
      - [ 3.50449741e-01, 5.22444367e-01, -7.20919808e-03,
          -3.96555066e-02 ]
      - [ -2.20533943e+00, -6.59782067e-02, -6.97779000e-01,
          4.87867385e-01 ]
      - [ -1.98897636e+00, -1.24482419e-02, -1.06639302e+00,
          9.15172279e-01 ]
      - [ 3.50449741e-01, 2.71545619e-01, 4.61574435e-01,
          -2.08234596e+00 ]
      - [ -2.64504266e+00, -1.80312526e+00, 2.24958944e+00,
          -1.42364550e+00 ]
      - [ 3.50449741e-01, -2.20943856e+00, 2.01987052e+00,
          -3.45470369e-01 ]
      - [ 3.50449741e-01, 2.88786113e-01, -5.36068261e-01,
          5.53365946e-01 ]
      - [ -1.66006804e+00, -1.03968568e-01, -5.07840276e-01,
          -3.60289156e-01 ]
      - [ -2.21401334e+00, -1.14025450e+00, 2.49151319e-01,
          1.66090250e-01 ]
      - [ 3.50449741e-01, -1.06023622e+00, 3.16259146e-01,
          8.33723545e-01 ]
      - [ 3.50449741e-01, 1.57272613e+00, -1.01216805e+00,
          1.58690608e+00 ]
      - [ -3.68137151e-01, 4.76410240e-01, 1.13765419e-01,
          -2.13568091e+00 ]
      - [ -3.37074548e-01, 9.88876045e-01, -5.29293001e-01,
          -9.20220971e-01 ]
      - [ -1.31035650e+00, 5.83731532e-01, -6.49636209e-01,
          -1.75297177e+00 ]
      - [ 3.50449741e-01, -1.72359526e+00, 1.61455631e+00,
          -5.05006492e-01 ]
      - [ 3.50449741e-01, -4.85127032e-01, 1.16970897e-01,
          -3.11166886e-02 ]
      - [ 3.50449741e-01, 2.57944465e+00, -1.77097812e-01,
          -1.92401856e-01 ]
      - [ 3.50449741e-01, 8.64656419e-02, -1.74993768e-01,
          -1.58164835e+00 ]
      - [ -9.94985998e-01, -2.37053704e+00, 2.53987980e+00,
          -9.79338527e-01 ]
      - [ 1.62756279e-01, -7.67862141e-01, 1.48792005e+00,
          -1.43383646e+00 ]
      - [ -1.36201531e-01, 3.87501210e-01, -7.29675770e-01,
          -2.31842950e-01 ]
      - [ -5.89978039e-01, -1.31567097e+00, 1.02344191e+00,
          -3.92144948e-01 ]
      - [ 3.50449741e-01, -2.17266154e+00, 1.89575052e+00,
          1.31191909e-01 ]
      - [ 3.50449741e-01, -1.52361691e+00, 9.26164389e-01,
          5.93898118e-01 ]
      - [ -2.94538426e+00, 7.17182606e-02, -6.28783405e-01,
          -3.34549211e-02 ]
      - [ 3.50449741e-01, 7.71301806e-01, -8.29434097e-01,
          3.48913759e-01 ]
      - [ -7.80178756e-02, 1.31529355e+00, -2.03307092e-01,
          -3.55534047e-01 ]
      - [ -2.02902985e+00, -1.61381805e+00, 1.28023541e+00,
          -2.27193072e-01 ]
      - [ -3.27692461e+00, -2.38990569e+00, 2.18566370e+00,
          -3.78208637e-01 ]
      - [ -1.53942966e+00, -8.42677712e-01, 2.55344212e-01,
          -8.89553070e-01 ]
      - [ 3.50449741e-01, -5.84331267e-02, -7.04177618e-01,
          6.22608006e-01 ]
      - [ -7.93400466e-01, -7.94421554e-01, 1.29506862e+00,
          -1.00859547e+00 ]
      - [ -1.15189278e+00, 2.04316545e-02, -8.19182277e-01,
          5.85570157e-01 ]
      - [ -1.06165814e+00, -1.73765779e+00, 1.60461736e+00,
          -3.82375300e-01 ]
      - [ -1.90596059e-01, -4.73600090e-01, -1.95286106e-02,
          3.75886798e-01 ]
      - [ -6.45312500e+00, -1.61738348e+00, 1.49075842e+00,
          -9.68308389e-01 ]
      - [ -3.84845209e+00, -4.70260054e-01, 3.49811874e-02,
          -6.44038379e-01 ]
      - [ -2.13078856e+00, -9.35253620e-01, 4.16505754e-01,
          -4.33977842e-01 ]
      - [ 3.50449741e-01, -1.19412649e+00, 4.21375543e-01,
          8.09477329e-01 ]
      - [ 2.10178003e-01, 7.13524640e-01, -2.19252959e-01,
          -1.58991444e+00 ]
      - [ -3.18927944e-01, -1.01087236e+00, 2.83131570e-01,
          -9.72902775e-01 ]
      - [ -1.71649706e+00, -1.11972797e+00, 1.42617512e+00,
          -8.03587079e-01 ]
      - [ -1.64605641e+00, -6.34135664e-01, 1.48276114e+00,
          -2.37547445e+00 ]
      - [ -9.06711757e-01, 2.32535645e-01, -4.74721879e-01,
          -1.44241393e+00 ]
      - [ 3.50449741e-01, 4.69877012e-03, -3.96593750e-01,
          -8.63994777e-01 ]
      - [ -1.91699529e+00, -1.41005564e+00, 6.01007402e-01,
          4.36673224e-01 ]
      - [ -4.17684555e+00, -1.81823862e+00, 1.20204723e+00,
          -5.34804404e-01 ]
      - [ 3.50449741e-01, -1.35866356e+00, 9.34800863e-01,
          -6.70408964e-01 ]
      - [ -2.77502608e+00, 1.25702345e+00, -6.39359355e-01,
          -9.40008342e-01 ]
      - [ 3.50449741e-01, -1.34916329e+00, 7.76069462e-01,
          -7.91131973e-01 ]
      - [ 3.50449741e-01, -1.58534050e+00, 1.14139819e+00,
          -7.54378617e-01 ]
      - [ 3.50449741e-01, 5.52132308e-01, -6.54914975e-01,
          3.87414992e-01 ]
      - [ 3.50449741e-01, 1.46263409e+00, -1.06259871e+00,
          1.53573704e+00 ]
      - [ -1.78045511e+00, -2.22024965e+00, 2.62777686e+00,
          -1.22693729e+00 ]
      - [ -2.02194166e+00, -2.16342878e+00, 3.33875155e+00,
          -1.41221607e+00 ]
      - [ -2.31834602e+00, -2.11417842e+00, 2.30010295e+00,
          -6.92419469e-01 ]
      - [ -3.07248878e+00, 4.89620388e-01, -1.35471925e-01,
          -2.14600468e+00 ]
      - [ 3.50449741e-01, -4.26734298e-01, 3.59701574e-01,
          -1.44402361e+00 ]
      - [ 3.50449741e-01, 4.98479158e-01, -6.19160473e-01,
          5.11182845e-01 ]
      - [ 3.50449741e-01, -7.38285720e-01, -3.12163252e-02,
          3.17989081e-01 ]
      - [ 1.71108827e-01, -1.82805192e+00, 1.01873171e+00,
          -6.59809947e-01 ]
      - [ 3.50449741e-01, -1.48609078e+00, 8.25531185e-01,
          1.05599415e+00 ]
      - [ 1.60334542e-01, -1.95815825e+00, 1.89758539e+00,
          -1.73295602e-01 ]
      - [ -1.33968238e-02, -7.73695260e-02, 2.54499972e-01,
          -1.82274675e+00 ]
      - [ 3.50449741e-01, -1.40067589e+00, 1.35903597e+00,
          -3.74739081e-01 ]
      - [ -9.24417675e-01, -1.10846090e+00, 4.84519213e-01,
          -8.81843567e-01 ]
      - [ 1.88444078e-01, 6.43002987e-02, 1.05721962e+00,
          -1.66023111e+00 ]
      - [ 3.50449741e-01, -1.61731625e+00, 1.56374335e+00,
          9.64907333e-02 ]
      - [ 3.50449741e-01, 1.81935914e-02, -7.00599670e-01,
          5.86363316e-01 ]
      - [ 3.50449741e-01, -1.74130797e+00, 1.10325670e+00,
          3.30713898e-01 ]
      - [ -7.46794224e-01, -7.25980520e-01, 5.63529253e-01,
          -5.37154078e-01 ]
      - [ -9.59763646e-01, 2.75465280e-01, 4.93867137e-02,
          -1.86783350e+00 ]
      - [ -2.21456528e+00, -1.28775501e+00, 8.71991694e-01,
          6.86359555e-02 ]
      - [ -2.02292919e-01, 6.10126495e-01, -9.17963803e-01,
          -8.05238411e-02 ]
      - [ 3.50449741e-01, 9.45627168e-02, 4.62260962e-01,
          -1.44163024e+00 ]
      - [ 3.50449741e-01, -1.80001402e+00, 1.75541461e+00,
          -1.41602397e-01 ]
      - [ -2.09033537e+00, -2.42581534e+00, 3.09430289e+00,
          -1.41846597e+00 ]
      - [ -2.09232068e+00, 9.52487767e-01, -1.46437079e-01,
          -8.81867111e-01 ]
      - [ 3.50449741e-01, 2.62864256e+00, -6.12816095e-01,
          6.54180050e-01 ]
      - [ 3.50449741e-01, 2.66138494e-01, -5.13656974e-01,
          3.25484335e-01 ]
      - [ 3.50449741e-01, 4.83860075e-02, -4.43597317e-01,
          3.45171809e-01 ]
      - [ 3.50449741e-01, 9.31687132e-02, -4.57516581e-01,
          1.71544358e-01 ]
      - [ -2.09985757e+00, -4.27104563e-01, 8.19263160e-02,
          -1.39359522e+00 ]
      - [ 3.50449741e-01, 2.90335536e-01, -3.09788525e-01,
          9.36966315e-02 ]
      - [ 3.50449741e-01, 8.05257618e-01, -1.04951039e-02,
          -1.35131329e-01 ]
      - [ -3.09953165e+00, -4.07271177e-01, -1.04358703e-01,
          -8.27595070e-02 ]
      - [ 3.50449741e-01, -5.76278806e-01, -3.77257168e-02,
          -3.89188260e-01 ]
      - [ -2.92963481e+00, -1.35838187e+00, 1.30881929e+00,
          -1.06202495e+00 ]
      - [ 3.50449741e-01, 1.00178689e-01, 6.72451854e-02,
          -1.96896398e+00 ]
      - [ 3.50449741e-01, -1.62962532e+00, 1.08851492e+00,
          -6.01582527e-01 ]
      - [ 3.50449741e-01, -2.02034712e+00, 1.80051494e+00,
          -1.94171399e-01 ]
      - [ 3.50449741e-01, 1.46357930e+00, -9.78590608e-01,
          -7.10197240e-02 ]
      - [ -1.28596199e+00, -1.60168898e+00, 1.23354304e+00,
          -1.37123716e+00 ]
      - [ -2.72216773e+00, 4.42666650e-01, -5.28966412e-02,
          -5.43114185e-01 ]
      - [ -1.18407571e+00, -2.34762645e+00, 2.78538871e+00,
          -6.64122105e-01 ]
      - [ 3.50449741e-01, 2.85525292e-01, -5.23054183e-01,
          1.17884316e-01 ]
      - [ 3.50449741e-01, -1.40584874e+00, 9.44295406e-01,
          -4.81853634e-01 ]
      - [ -1.44463158e+00, -2.50319932e-02, -3.29818815e-01,
          -1.67892563e+00 ]
      - [ -2.91717601e+00, -1.03316307e+00, 8.10242832e-01,
          -1.41743577e+00 ]
      - [ 3.50449741e-01, -6.00449264e-01, 2.78707653e-01,
          9.59687606e-02 ]
      - [ -2.44039297e+00, -1.07051671e+00, 4.55434412e-01,
          -2.63073444e-01 ]
      - [ 3.50449741e-01, -1.29761147e+00, 1.47851479e+00,
          -1.07695353e+00 ]
      - [ 1.65165678e-01, -2.43261427e-01, 3.31382126e-01,
          1.39571548e-01 ]
      - [ -8.65179658e-01, 1.01348996e+00, -4.61679310e-01,
          -1.07342434e+00 ]
      - [ 3.50449741e-01, -4.94291842e-01, 6.47494018e-01,
          -7.60703027e-01 ]
      - [ -2.73916125e+00, -1.98638809e+00, 1.41847587e+00,
          -9.55831185e-02 ]
      - [ 3.50449741e-01, 6.33663654e-01, -2.53674567e-01,
          -1.45276296e+00 ]
      - [ -4.09718663e-01, -8.59989643e-01, -3.13538760e-01,
          2.73843408e-01 ]
      - [ 3.50449741e-01, 1.76746562e-01, 2.12778021e-02, 1.96683660e-01 ]
      - [ -2.07295084e+00, 1.90022051e-01, 5.06356120e-01,
          -2.36349607e+00 ]
      - [ -1.73494852e+00, 1.39029190e-01, 6.62326962e-02,
          -1.52975333e+00 ]
      - [ -3.78378987e+00, -1.11162078e+00, 3.45182754e-02,
          -7.15537786e-01 ]
      - [ 3.50449741e-01, -6.79278597e-02, 1.21525848e+00,
          -2.14021015e+00 ]
      - [ -2.18691683e+00, -1.65795434e+00, 9.15677190e-01,
          2.89364249e-01 ]
      - [ 3.50449741e-01, -5.20236909e-01, 6.10219359e-01,
          -6.51321709e-01 ]
      - [ -8.33684623e-01, -1.89341021e+00, 1.97282195e+00,
          -3.53145301e-01 ]
      - [ -2.36782193e-01, 1.50160742e+00, -2.11192265e-01,
          -3.27958494e-01 ]
      - [ 3.50449741e-01, -5.97434282e-01, 5.14478125e-02,
          -1.37431949e-01 ]
      - [ 3.06854218e-01, 7.57485390e-01, 2.58459717e-01,
          -1.82167554e+00 ]
      - [ 3.50449741e-01, 3.25568408e-01, -4.82118428e-01,
          7.32645467e-02 ]
      - [ 3.50449741e-01, -1.82117832e+00, 2.15572476e+00,
          -3.36405784e-01 ]
      - [ 3.50449741e-01, 9.38946545e-01, 7.27015585e-02,
          -1.68455374e+00 ]
      - [ -1.23057067e+00, -3.06357408e+00, 3.69798422e+00,
          -6.03361130e-01 ]
      - [ -7.74191260e-01, 1.21599126e+00, -6.43719077e-01,
          -7.52654314e-01 ]
      - [ -8.06155801e-01, -1.87283111e+00, 1.54700625e+00,
          2.23093331e-01 ]
      - [ 3.50449741e-01, -5.91667056e-01, 9.06569958e-01,
          -1.91724443e+00 ]
      - [ -1.08550489e+00, 1.12969780e+00, -4.29289430e-01,
          -1.01511931e+00 ]
      - [ -5.83993673e-01, 7.84887791e-01, -3.13489944e-01,
          -7.00530887e-01 ]
      - [ 3.50449741e-01, 3.02884042e-01, -4.98453140e-01,
          6.25601590e-01 ]
      - [ 3.50449741e-01, -1.44423270e+00, 9.82602894e-01,
          3.15901190e-01 ]
      - [ -2.14863038e+00, 2.08709016e-01, 1.22074676e+00,
          -1.34357691e+00 ]
      - [ -5.89673221e-01, 4.21426803e-01, 4.29190785e-01,
          -1.06962347e+00 ]
      - [ 3.50449741e-01, 1.08906126e+00, -9.32472825e-01,
          -6.31990135e-01 ]
      - [ 3.50449741e-01, 2.30781093e-01, -6.45064890e-01,
          -1.06939971e-01 ]
      - [ -9.91460502e-01, 5.84302485e-01, -4.68742490e-01,
          -8.80745292e-01 ]
      - [ 3.50449741e-01, 9.73763406e-01, -6.28374577e-01,
          -1.38147259e+00 ]
      - [ 3.50449741e-01, -1.51280773e+00, 6.77121282e-01,
          1.20165515e+00 ]
      - [ -1.36729634e+00, 7.93908119e-01, -1.08753717e+00,
          9.33898628e-01 ]
      - [ -8.71913612e-01, -2.67905784e+00, 3.93442845e+00,
          -1.30256307e+00 ]
      - [ 3.50449741e-01, 2.70894587e-01, -8.17157209e-01,
          9.20188367e-01 ]
      - [ -8.55961218e-02, 1.07525373e+00, -1.36325687e-01,
          -2.06329435e-01 ]
      - [ -9.38458025e-01, -7.22277522e-01, 6.87023178e-02,
          -6.12018883e-01 ]
      - [ -3.14832067e+00, -1.99197543e+00, 1.36319327e+00,
          -2.66944140e-01 ]
      - [ -1.25472641e+00, -2.05718160e+00, 1.50487661e+00,
          -4.00091141e-01 ]
      - [ 3.50449741e-01, -1.03390443e+00, 1.10011637e+00,
          -1.68109369e+00 ]
      - [ -7.46913671e-01, -1.63695008e-01, -5.22976041e-01,
          -4.59690034e-01 ]
      - [ 3.50449741e-01, 2.52103090e-01, -4.95935768e-01,
          3.91179711e-01 ]
      - [ 3.50449741e-01, 2.54889727e-01, -2.75154740e-01,
          1.96617559e-01 ]
      - [ 3.50449741e-01, -5.39207995e-01, 6.05719462e-02,
          -1.26232529e+00 ]
      - [ -1.22710288e+00, -2.10998897e-02, -1.02713108e-01,
          -6.10788047e-01 ]
      - [ 1.57636851e-01, 8.21217835e-01, -7.42148876e-01,
          -9.90266860e-01 ]
      - [ 3.50449741e-01, 1.46038011e-01, -8.82145464e-01,
          7.44688392e-01 ]
      - [ -1.88170707e+00, -1.60922289e+00, 2.53198671e+00,
          -1.09808958e+00 ]
      - [ -8.18009198e-01, -2.69188499e+00, 3.47773314e+00,
          -1.27791226e+00 ]
      - [ 3.50449741e-01, -1.89287865e+00, 2.30117655e+00,
          -6.67449594e-01 ]
      - [ 1.68629423e-01, -4.44060028e-01, 7.20779598e-01,
          -2.49478197e+00 ]
      - [ 3.50449741e-01, -9.97830555e-02, -2.59280473e-01,
          1.50541678e-01 ]
      - [ 3.50449741e-01, 1.16903543e-01, -7.39037454e-01,
          7.55902767e-01 ]
      - [ 1.67187914e-01, -1.82965887e+00, 1.77354145e+00,
          -2.78833985e-01 ]
      - [ -1.45247746e+00, -8.87026712e-02, -7.63045728e-01,
          -1.38631269e-01 ]
      - [ -8.50945711e-01, -7.90696800e-01, 4.93481100e-01,
          -8.23888481e-01 ]
      - [ -3.00040078e+00, -1.22190070e+00, 1.44321167e+00,
          -1.73407483e+00 ]
      - [ 3.50449741e-01, -2.07207942e+00, 1.94895744e+00,
          -5.48255980e-01 ]
      - [ -7.25188017e-01, -5.96036553e-01, 9.26423967e-01,
          -1.91823781e+00 ]
      - [ -3.60184103e-01, -1.33820629e+00, 3.15508723e-01,
          1.24425665e-01 ]
      - [ 3.50449741e-01, -1.36201715e+00, 8.08351040e-01,
          6.61780119e-01 ]
      - [ 3.50449741e-01, -7.65196919e-01, 3.61522555e-01,
          -6.98937252e-02 ]
      - [ -1.07306671e+00, -5.52480340e-01, -2.99468994e-01,
          5.86450696e-01 ]
      - [ 3.50449741e-01, 2.60403693e-01, -8.51707458e-01,
          9.55474198e-01 ]
      - [ -9.90433916e-02, -4.02744263e-01, 1.14016309e-01,
          -8.47114682e-01 ]
      - [ -1.82435536e+00, -1.21008253e+00, 1.48244619e+00,
          -1.05005836e+00 ]
      - [ 3.50449741e-01, -1.67304611e+00, 1.48888552e+00,
          1.19786426e-01 ]
      - [ 1.47735700e-01, -1.13890886e-01, 4.52067107e-01,
          -2.06223369e+00 ]
      - [ -4.86857939e+00, -9.08309817e-01, 1.84268817e-01,
          -3.35177213e-01 ]
      - [ 3.50449741e-01, 3.66457254e-02, -9.08197820e-01,
          7.02094197e-01 ]
      - [ -4.46337253e-01, -1.77781534e+00, 1.90988851e+00,
          -4.28978086e-01 ]
      - [ -2.54728746e+00, -2.32341170e+00, 3.84281182e+00,
          -1.56160569e+00 ]
      - [ -3.14545417e+00, -1.67835903e+00, 1.83814681e+00,
          -7.08890021e-01 ]
      - [ 3.50449741e-01, -1.73459506e+00, 8.85220766e-01,
          6.78774953e-01 ]
      - [ 3.50449741e-01, -9.66869473e-01, -1.25606447e-01,
          6.89343512e-01 ]
      - [ -3.50941926e-01, -2.61450744e+00, 3.54964733e+00,
          -9.74630177e-01 ]
      - [ -3.77115726e-01, -1.31859350e+00, 1.26467037e+00,
          -8.24173808e-01 ]
      - [ 3.50449741e-01, 1.22149730e+00, -9.81342673e-01,
          2.69935846e-01 ]
      - [ -2.42259216e+00, -7.79237628e-01, 3.21190447e-01,
          -6.35051668e-01 ]
      - [ -3.64920592e+00, -6.16701305e-01, -6.40382543e-02,
          5.89592397e-01 ]
      - [ 3.50449741e-01, 7.48101056e-01, -1.04777277e+00,
          3.41389626e-01 ]
      - [ -8.71983647e-01, -6.07950449e-01, 5.29500581e-02,
          -1.17549956e-01 ]
      - [ 3.50449741e-01, 6.81226611e-01, -5.09340703e-01,
          -5.82139604e-02 ]
      - [ 3.07300035e-02, -1.62953222e+00, 1.16327393e+00,
          -9.14132833e-01 ]
      - [ -2.30167702e-01, -4.88745600e-01, 1.61574125e-01,
          -1.18636382e+00 ]
      - [ -1.95515430e+00, -1.31565285e+00, 1.39489222e+00,
          -1.29370248e+00 ]
      - [ 3.50449741e-01, -6.23810649e-01, 2.25423500e-01,
          8.04175623e-03 ]
      - [ 3.50449741e-01, -1.78807116e+00, 1.72733963e+00,
          -4.93892401e-01 ]
      - [ -1.49089599e+00, 7.14849710e-01, -4.36606586e-01,
          -6.62057042e-01 ]
      - [ 3.50449741e-01, -9.02517676e-01, -2.31055006e-01,
          8.29328954e-01 ]
      - [ 3.50449741e-01, -1.72376513e+00, 1.24372089e+00,
          7.76544571e-01 ]
      - [ -2.69528556e+00, 2.79885888e-01, -1.93914756e-01,
          -1.59181535e+00 ]
      - [ 3.50449741e-01, -1.81688476e+00, 1.40802944e+00,
          3.61187682e-02 ]
      - [ -1.59160018e+00, 1.32258415e+00, -8.20304930e-01,
          -9.88802731e-01 ]
      - [ 1.29519075e-01, 6.78539157e-01, 1.65048987e-01,
          -1.52173376e+00 ]
      - [ -8.21781814e-01, -1.13078773e+00, 1.31913602e+00,
          -1.57627559e+00 ]
      - [ -2.69056153e+00, -1.63203275e+00, 1.43846321e+00,
          -3.41428310e-01 ]
      - [ 3.50449741e-01, -9.20069993e-01, 6.17826581e-02,
          6.47986293e-01 ]
      - [ -8.63374695e-02, -1.43227428e-01, -5.63468516e-01,
          -1.18701406e-01 ]
      - [ -2.08466724e-01, 2.49511823e-02, -2.81008482e-01,
          -6.13272488e-01 ]
      - [ 1.63258746e-01, 9.04377282e-01, -8.98783922e-01,
          5.44666469e-01 ]
      - [ -3.61638880e+00, -9.52289045e-01, 2.39572898e-02,
          2.31662542e-01 ]
      - [ -1.42745280e+00, 3.39381278e-01, -2.85823822e-01,
          -5.29056311e-01 ]
      - [ 3.50449741e-01, 1.67353868e+00, -8.69942605e-01,
          3.93136144e-01 ]
      - [ -5.90253949e-01, -7.25260317e-01, -1.19563729e-01,
          2.50684470e-01 ]
      - [ 3.50449741e-01, -2.98399419e-01, 2.09919233e-02,
          7.71994665e-02 ]
      - [ 3.50449741e-01, -1.16415191e+00, -2.50286683e-02,
          5.86551011e-01 ]
      - [ 3.50449741e-01, 2.32661635e-01, -6.22624159e-02,
          -1.48865438e+00 ]
      - [ -4.16890097e+00, -4.51082587e-01, -4.52668592e-02,
          -6.44445240e-01 ]
      - [ 3.50449741e-01, -2.12643012e-01, -5.01449585e-01,
          2.16691032e-01 ]
      - [ 3.50449741e-01, -4.46225613e-01, 2.65906692e-01,
          3.48415747e-02 ]
      - [ 3.50449741e-01, -6.75675035e-01, 1.88943654e-01,
          4.21696365e-01 ]
      - [ -2.93761659e+00, -9.46726382e-01, 3.35491389e-01,
          -7.10932732e-01 ]
      - [ 3.50449741e-01, -1.45044291e+00, 1.61422014e+00,
          -7.42311001e-01 ]
      - [ 3.50449741e-01, 5.71702480e-01, -5.86382866e-01,
          -1.64828885e+00 ]
      - [ 3.50449741e-01, -1.22888851e+00, 1.33200431e+00,
          -8.66006672e-01 ]
      - [ 3.50449741e-01, -1.85117412e+00, 1.32570028e+00,
          5.80440104e-01 ]
      - [ 3.50449741e-01, -2.20497417e+00, 1.68303668e+00,
          7.25772858e-01 ]
      - [ -1.96586680e+00, 4.01063323e-01, -1.07040137e-01,
          -1.69591057e+00 ]
      - [ 3.50449741e-01, -1.50622821e+00, 1.02633142e+00,
          2.71451622e-01 ]
      - [ -1.17147279e+00, -1.98555493e+00, 1.96543527e+00,
          -7.34193087e-01 ]
      - [ -1.32074368e+00, 1.10120809e+00, -1.16251135e+00,
          1.12511313e+00 ]
      - [ 3.50449741e-01, -2.14010954e+00, 1.88134134e+00,
          2.46593043e-01 ]
      - [ -9.50113714e-01, 1.31219149e+00, -7.40915179e-01,
          7.71568775e-01 ]
      - [ 3.50449741e-01, 6.84878170e-01, -8.92365932e-01,
          8.65676939e-01 ]
      - [ 3.50449741e-01, 6.42334938e-01, 6.87486231e-02,
          -1.25546300e+00 ]
      - [ -1.49788105e+00, 5.13830602e-01, -6.49497688e-01,
          -5.93277335e-01 ]
      - [ -1.83396727e-01, 5.00102103e-01, -4.45218712e-01,
          -7.34006166e-01 ]
      - [ 3.50449741e-01, -1.46307230e+00, 1.39571512e+00,
          -1.01934183e+00 ]
      - [ 3.50449741e-01, -2.19745708e+00, 1.81472564e+00,
          2.45317016e-02 ]
      - [ -2.30416560e+00, -2.47243071e+00, 2.82702446e+00,
          -8.84871662e-01 ]
      - [ 3.50449741e-01, 1.53158593e+00, -9.28047061e-01,
          3.31266284e-01 ]
      - [ -4.00011092e-01, -1.44174230e+00, 4.41322237e-01,
          2.64416784e-01 ]
      - [ -3.03068495e+00, -1.97220826e+00, 2.17830014e+00,
          -8.37121606e-01 ]
      - [ 3.50449741e-01, -8.32423449e-01, -1.16446994e-01,
          1.62301016e+00 ]
      - [ 3.50449741e-01, 1.48915005e+00, -1.27353108e+00,
          2.06885651e-01 ]
      - [ -3.52919793e+00, -4.91338879e-01, -1.80732131e-01,
          -8.86115432e-01 ]
      - [ 3.50449741e-01, -9.69196439e-01, 1.18969071e+00,
          -1.67153907e+00 ]
      - [ -3.20108843e+00, 2.68975556e-01, -1.27415776e-01,
          -1.40766191e+00 ]
      - [ -2.10409164e+00, -2.22115564e+00, 2.88702917e+00,
          -1.89669871e+00 ]
      - [ 3.50449741e-01, -3.23919713e-01, -2.12464944e-01,
          -3.02468926e-01 ]
      - [ -2.06572270e+00, -1.14105856e+00, 1.08422577e+00,
          -7.40260720e-01 ]
      - [ 3.50449741e-01, 8.96682024e-01, -3.42937082e-01,
          -1.74964774e+00 ]
      - [ 3.50449741e-01, -2.15597415e+00, 2.09623790e+00,
          -2.47178406e-01 ]
      - [ 3.50449741e-01, 1.10906947e+00, -9.36839640e-01,
          -1.09258071e-01 ]
      - [ -2.83267982e-02, -1.22076368e+00, 6.98800087e-01,
          -7.03313574e-02 ]
      - [ -2.74129462e+00, -8.66668165e-01, 8.33617210e-01,
          -1.44996846e+00 ]
      - [ 3.50449741e-01, -1.67471635e+00, 1.49103343e+00,
          1.17490366e-01 ]
      - [ -2.53531598e-02, -1.30534971e+00, 9.74227250e-01,
          -1.62070185e-01 ]
      - [ -1.35198748e+00, -1.00777447e+00, 4.25543398e-01,
          -2.08976135e-01 ]
      - [ 3.50449741e-01, 3.01864481e+00, -1.69491119e-04,
          5.11821806e-01 ]
      - [ 3.50449741e-01, -2.10027122e+00, 2.49100208e+00,
          -7.77645051e-01 ]
      - [ 3.50449741e-01, -1.60445070e+00, 1.20278192e+00,
          -3.75747323e-01 ]
      - [ -1.14022481e+00, -1.79290438e+00, 2.16719103e+00,
          -9.47110057e-01 ]
      - [ -5.15015221e+00, -1.03000891e+00, 9.00495648e-01,
          -8.50935221e-01 ]
      - [ -1.93682230e+00, -1.94061685e+00, 3.37191606e+00,
          -1.87973809e+00 ]
      - [ -2.52116299e+00, -1.18295658e+00, 2.05834818e+00,
          -1.19640279e+00 ]
      - [ -8.84158254e-01, 1.84651911e-01, -4.04687136e-01,
          -1.00828516e+00 ]
      - [ 3.50449741e-01, 4.02748108e-01, -2.17397690e-01,
          -1.74297190e+00 ]
      - [ -4.51996237e-01, -8.64448369e-01, 3.00411582e-01,
          -6.92599893e-01 ]
      - [ -1.98970950e+00, 1.02465153e-01, -7.67544270e-01,
          4.34869498e-01 ]
      - [ 3.50449741e-01, -4.17234480e-01, -1.47838652e-01,
          -3.90248924e-01 ]
      - [ -3.75480622e-01, 5.73777616e-01, -4.64488775e-01,
          -5.93821704e-01 ]
      - [ 3.50449741e-01, -1.79400110e+00, 1.34639561e+00,
          -5.53212464e-01 ]
      - [ -2.93894000e-02, -1.72006428e-01, 1.39602697e+00,
          -1.70482326e+00 ]
      - [ -2.14212704e+00, -9.78025734e-01, 1.17815387e+00,
          -1.19142735e+00 ]
      - [ 3.50449741e-01, 8.20414960e-01, 4.14039791e-01,
          -1.55997062e+00 ]
      - [ -2.75717187e+00, -1.23856246e+00, 1.30419123e+00,
          -8.36326122e-01 ]
      - [ -2.64210606e+00, -1.30450904e+00, 2.27829361e+00,
          -1.12666953e+00 ]
      - [ -1.08023715e+00, -1.43050086e+00, 1.07134545e+00,
          -2.62581468e-01 ]
      - [ -9.48029697e-01, -9.43094671e-01, 1.22244203e+00,
          -1.67888343e+00 ]
      - [ 3.50449741e-01, 3.10684174e-01, -3.51802200e-01,
          1.48172677e-01 ]
      - [ -3.21160227e-01, 2.34712213e-02, -5.81633508e-01,
          -7.09541202e-01 ]
      - [ -2.52404094e-01, 5.33444345e-01, -5.82763195e-01,
          -3.06189954e-01 ]
      - [ -2.11986184e+00, -8.42335969e-02, 5.22678435e-01,
          -2.06498337e+00 ]
      - [ 3.50449741e-01, -8.19063485e-01, 1.14391625e+00,
          -1.43751907e+00 ]
      - [ -2.02357268e+00, -8.21247339e-01, 6.71062112e-01,
          -1.17908204e+00 ]
      - [ -2.34133196e+00, -1.26407373e+00, 2.48180225e-01,
          2.05921486e-01 ]
      - [ -1.28808713e+00, -6.48421288e-01, 5.84111214e-02,
          -5.53395927e-01 ]
      - [ 3.50449741e-01, -1.68104124e+00, 1.12153006e+00,
          6.85167015e-01 ]
      - [ 3.50449741e-01, -3.21433455e-01, -2.67488450e-01,
          -1.20996988e+00 ]
      - [ -2.01667809e+00, -7.59046495e-01, 9.58939195e-02,
          -4.01983768e-01 ]
      - [ 3.50449741e-01, -1.60044646e+00, 1.06398642e+00,
          1.19714633e-01 ]
      - [ 3.50449741e-01, 1.13942921e-01, -3.35285813e-01,
          -8.57926369e-01 ]
      - [ -2.13278604e+00, -8.81713808e-01, 5.09118497e-01,
          -1.08328140e+00 ]
      - [ -6.57477975e-01, -1.57385433e+00, 1.00569701e+00,
          -6.81895316e-02 ]
      - [ 3.50449741e-01, 4.11372960e-01, 4.24666077e-01,
          -1.92621517e+00 ]
      - [ 3.50449741e-01, -9.88155901e-01, 1.20089006e+00,
          -1.54225063e+00 ]
      - [ 3.50449741e-01, 4.55892563e-01, -2.37620607e-01,
          1.21048808e-01 ]
      - [ -2.49294233e+00, 2.73521215e-01, -5.12161732e-01,
          -1.82098103e+00 ]
      - [ -2.94797897e+00, -1.78927708e+00, 1.39433455e+00,
          -2.60724574e-01 ]
      - [ 3.50449741e-01, 3.43383640e-01, -2.16190889e-01,
          -1.39205251e-02 ]
      - [ 1.99721847e-02, -5.66042006e-01, 1.35340124e-01,
          9.77166370e-02 ]
      - [ -5.37078559e-01, -1.93367445e+00, 1.50068402e+00,
          3.13652992e-01 ]
      - [ 3.50449741e-01, 3.30181748e-01, -5.05443454e-01,
          -4.62394059e-02 ]
      - [ 3.50449741e-01, -3.47352952e-01, -3.92167658e-01,
          -8.05119574e-01 ]
      - [ 3.50449741e-01, -1.40934765e+00, 9.49683130e-01,
          -3.82542074e-01 ]
      - [ -2.38867545e+00, -1.70172358e+00, 2.14893985e+00,
          -8.36375535e-01 ]
      - [ 3.50449741e-01, -1.97603142e+00, 1.88778174e+00,
          8.97317007e-02 ]
      - [ 3.50449741e-01, -1.97028303e+00, 9.87638414e-01,
          4.47079957e-01 ]
      - [ 3.50449741e-01, 2.06399322e+00, -2.19218865e-01,
          -2.38979316e+00 ]
      - [ 3.50449741e-01, 2.11175308e-01, -5.34736574e-01,
          4.99974519e-01 ]
      - [ -1.17230058e+00, -1.20663476e+00, 1.02590168e+00,
          -2.85678118e-01 ]
      - [ -1.02059555e+00, -1.20078361e+00, 8.48628223e-01,
          8.79606456e-02 ]
      - [ -1.51091242e+00, 9.57228482e-01, -5.14068782e-01,
          1.81325421e-01 ]
      - [ -1.21957815e+00, 6.94456518e-01, -1.13260889e+00,
          1.21369016e+00 ]
      - [ -2.88127940e-02, -8.31134856e-01, 4.42296378e-02,
          3.22651863e-01 ]
      - [ -2.16493177e+00, 7.04194486e-01, -3.57518643e-01,
          -1.02703083e+00 ]
      - [ -2.20254707e+00, -1.77738774e+00, 1.65185893e+00,
          -3.55499506e-01 ]
      - [ -1.27755582e+00, -1.41411340e+00, 1.63284516e+00,
          -4.92555946e-01 ]
      - [ -5.26512766e+00, -1.64188790e+00, 1.24293244e+00,
          -8.45604956e-01 ]
      - [ -2.15946123e-01, 2.19960865e-02, -3.80074888e-01,
          -2.74062932e-01 ]
      - [ -2.64047414e-01, -1.86831021e+00, 1.19537508e+00,
          -8.03061306e-01 ]
      - [ -1.62649310e+00, 1.22375154e+00, -8.59894693e-01,
          -6.40335202e-01 ]
      - [ -1.02364743e+00, -1.47656858e+00, 1.00811672e+00,
          -1.30262423e+00 ]
      - [ 3.50449741e-01, -1.10393417e+00, 1.33323681e+00,
          -1.26272190e+00 ]
      - [ -2.06890631e+00, 9.96151865e-01, -6.57302916e-01,
          -7.97164261e-01 ]
      - [ -3.97667587e-01, -1.41389561e+00, 3.40947628e-01,
          1.98297828e-01 ]
      - [ 3.50449741e-01, 1.01735935e-01, -7.11716950e-01,
          6.38014138e-01 ]
      - [ -2.53813577e+00, -1.77769446e+00, 1.92857945e+00,
          -9.96408939e-01 ]
      - [ 3.50449741e-01, -1.65968931e+00, 1.25314164e+00,
          2.62206584e-01 ]
      - [ -2.66047096e+00, -1.27160621e+00, 1.11743295e+00,
          -7.10945606e-01 ]
      - [ -5.97090840e-01, -2.59951973e+00, 3.52999473e+00,
          -1.17605579e+00 ]
      - [ 3.50449741e-01, -5.77073753e-01, 1.03300321e+00,
          -1.32832158e+00 ]
      - [ 3.50449741e-01, 1.23736322e+00, -8.69031489e-01,
          6.36073276e-02 ]
      - [ -3.42078656e-01, 2.61205435e-01, 1.07494736e+00,
          -2.28802943e+00 ]
      - [ -9.12803173e-01, -8.95531595e-01, -2.46861037e-02,
          -5.71336329e-01 ]
      - [ -6.09994471e-01, 1.86674923e-01, 4.98406768e-01,
          -2.26432467e+00 ]
      - [ -3.07642221e+00, -1.68343568e+00, 1.84119821e+00,
          -5.65592349e-01 ]
      - [ 3.50449741e-01, 3.15296412e-01, -2.13827491e-01,
          -6.56514764e-02 ]
      - [ 3.50449741e-01, -3.53122771e-01, -6.50766850e-01,
          7.26601407e-02 ]
      - [ 3.50449741e-01, -3.70690584e-01, -7.22723156e-02,
          2.72043496e-01 ]
      - [ -5.75113630e+00, -1.52722716e+00, 7.12770164e-01,
          -2.83370286e-01 ]
      - [ -1.24587965e+00, -2.75330853e+00, 3.47824931e+00,
          -9.51238692e-01 ]
      - [ 3.50449741e-01, 3.95785600e-01, -1.15973912e-01,
          -1.95622885e+00 ]
      - [ -2.09450769e+00, -8.70531619e-01, 1.01897824e+00,
          -1.28043175e+00 ]
      - [ -1.95564854e+00, 7.11723685e-01, -5.77106714e-01,
          -1.37200952e+00 ]
      - [ -9.48009133e-01, -8.05552490e-03, -6.18413270e-01,
          -1.00507200e+00 ]
      - [ -3.15577960e+00, -1.18304729e+00, 3.66384923e-01,
          -6.18135870e-01 ]
      - [ -1.96312696e-01, 8.56812119e-01, -1.24659634e+00,
          9.09644842e-01 ]
      - [ 3.50449741e-01, -1.39108038e+00, 1.13298309e+00,
          5.35633825e-02 ]
      - [ -2.56213814e-01, -7.34162629e-01, 2.05931157e-01,
          -4.76639979e-02 ]
      - [ -2.65743566e+00, 1.88694549e+00, -4.98223513e-01,
          -7.88863659e-01 ]
      - [ 3.50449741e-01, 1.84418455e-01, -5.16239285e-01,
          4.84952092e-01 ]
      - [ 3.50449741e-01, -7.57286906e-01, 9.81145352e-02,
          3.44053417e-01 ]
      - [ -1.02326858e+00, -2.28571796e+00, 1.67190206e+00,
          -6.54558361e-01 ]
      - [ -1.59371710e+00, -2.62019348e+00, 3.42491889e+00,
          -1.59092641e+00 ]
      - [ -7.55315661e-01, -1.47165692e+00, 1.08285868e+00,
          -5.43265343e-02 ]
      - [ -5.77878046e+00, -5.67464530e-01, -5.66313118e-02,
          -2.31210798e-01 ]
      - [ 3.50449741e-01, -1.51158595e+00, 9.50138569e-01,
          7.87354767e-01 ]
      - [ -2.83054924e+00, -7.21960664e-01, 2.16697380e-01,
          -8.14857259e-02 ]
      - [ -1.64085054e+00, -2.62046695e-01, -6.59946680e-01,
          1.32232547e+00 ]
      - [ 2.65631020e-01, -1.11305416e+00, 1.60933781e+00,
          -1.22864532e+00 ]
      - [ 3.50449741e-01, -1.36591458e+00, 1.04780734e+00,
          -1.21888697e-01 ]
      - [ -6.66341245e-01, -9.38897789e-01, 5.53588569e-01,
          -6.31538808e-01 ]
      - [ 3.50449741e-01, -6.52829587e-01, -2.12729260e-01,
          4.07622159e-01 ]
      - [ -1.74666595e+00, -2.80707669e+00, 3.26338816e+00,
          -9.47246790e-01 ]
      - [ -5.27535737e-01, -2.71656990e+00, 3.18958712e+00,
          -6.92808867e-01 ]
      - [ -8.42539668e-01, -6.05521798e-01, 1.38133556e-01,
          4.37489986e-01 ]
      - [ -2.42543006e+00, -1.45060754e+00, 5.31884074e-01,
          3.85849833e-01 ]
      - [ 3.50449741e-01, -1.54441118e+00, 1.08994412e+00,
          -4.96211648e-01 ]
      - [ -8.57774377e-01, -2.11401179e-01, -4.49191421e-01,
          9.82009992e-02 ]
      - [ 3.50449741e-01, -2.23732114e+00, 3.03119755e+00,
          -1.06382871e+00 ]
      - [ 3.50449741e-01, -1.99401414e+00, 1.70633042e+00,
          -5.35297155e-01 ]
      - [ 3.50449741e-01, 1.45968103e+00, -8.39419007e-01,
          2.65182644e-01 ]
      - [ 3.50449741e-01, -7.11941183e-01, 3.40385973e-01,
          -1.45707440e+00 ]
      - [ 3.50449741e-01, -6.62891984e-01, -6.86412752e-02,
          2.16961503e-01 ]
      - [ 3.50449741e-01, -5.52400388e-02, -4.78399277e-01,
          -3.76113534e-01 ]
      - [ -2.61742735e+00, 1.26866674e+00, -7.69640267e-01,
          -5.83672881e-01 ]
      - [ 3.50449741e-01, -8.65118325e-01, -1.85149163e-01,
          9.08761203e-01 ]
      - [ 3.43390435e-01, -1.42083275e+00, 1.01152873e+00,
          -4.05057847e-01 ]
      - [ -1.98535609e+00, 2.79485643e-01, -2.99114436e-01,
          -2.06785464e+00 ]
      - [ 3.50449741e-01, 1.10796106e+00, -4.48250562e-01,
          -1.89147139e+00 ]
      - [ 3.50449741e-01, -4.22422076e-03, 1.66996792e-01,
          -1.45670021e+00 ]
      - [ 3.50449741e-01, -1.77023864e+00, 1.40008926e+00,
          -6.04721189e-01 ]
      - [ 3.50449741e-01, 5.11040568e-01, 1.63201451e-01,
          -1.40460265e+00 ]
      - [ 3.50449741e-01, -1.53993917e+00, 2.55902320e-01,
          1.45254540e+00 ]
      - [ 3.50449741e-01, -1.60751700e+00, 1.58124065e+00,
          -8.53769600e-01 ]
      - [ 3.50449741e-01, 4.20417309e-01, -5.54386675e-01,
          6.98819578e-01 ]
      - [ -1.74995255e+00, -3.47789407e-01, 2.14574009e-01,
          -2.48181319e+00 ]
      - [ -2.30604362e+00, -3.96318644e-01, -3.74029636e-01,
          5.07915795e-01 ]
      - [ -1.45346594e+00, -6.87071979e-01, -3.29425409e-02,
          -8.56716037e-01 ]
      - [ -9.46982577e-02, 1.80105567e+00, -6.69302106e-01,
          -1.11157866e-02 ]
      - [ 3.50449741e-01, 1.18734539e+00, -8.77605796e-01,
          8.78118396e-01 ]
      - [ -6.82608783e-02, 2.18889769e-02, -3.59682471e-01,
          -8.96179914e-01 ]
      - [ 3.50449741e-01, -1.48139226e+00, 9.60667193e-01,
          -7.11333096e-01 ]
      - [ 3.50449741e-01, -6.21578217e-01, 1.00089550e-01,
          5.32581329e-01 ]
      - [ -5.34182024e+00, -1.04572308e+00, 2.06624359e-01,
          -5.34208775e-01 ]
      - [ -1.40674338e-01, 9.74130213e-01, -7.52344906e-01,
          6.61486089e-01 ]
      - [ -2.21960235e+00, 6.99200153e-01, -4.76347715e-01,
          -1.00820231e+00 ]
      - [ -7.76332915e-01, -1.33629695e-01, 7.64169022e-02,
          -1.69528830e+00 ]
      - [ -1.86304975e+00, 3.97680700e-01, -5.72351158e-01,
          -1.63634586e+00 ]
      - [ -5.01543164e-01, 2.06867620e-01, 6.02419376e-01,
          -1.10186827e+00 ]
      - [ -1.62834644e+00, -1.05660987e+00, 5.78702867e-01,
          -6.15873635e-01 ]
      - [ 3.50449741e-01, -1.30055618e+00, 5.91726899e-01,
          7.91104317e-01 ]
      - [ 3.50449741e-01, 5.72148204e-01, -4.26774174e-01,
          -6.01107590e-02 ]
      - [ -2.29849434e+00, -1.94544959e+00, 1.38796413e+00,
          -3.84887516e-01 ]
      - [ -3.30876136e+00, -3.81350428e-01, -7.18730211e-01,
          -2.07902953e-01 ]
      - [ 3.50449741e-01, 3.05668384e-01, -6.01376355e-01,
          7.00310230e-01 ]
      - [ -2.08234525e+00, 3.42728756e-02, -8.44622850e-01,
          8.40788782e-01 ]
      - [ 3.50449741e-01, -1.78730881e+00, 1.24000049e+00,
          4.84144449e-01 ]
      - [ -2.99870396e+00, -7.17131853e-01, 1.50547996e-01,
          -1.16166854e+00 ]
      - [ 3.50449741e-01, -6.83286488e-01, 1.95936561e-02,
          -2.57347703e-01 ]
      - [ -2.08590388e+00, 2.57955343e-01, -7.84840524e-01,
          -1.00908436e-01 ]
      - [ 3.50449741e-01, -5.04714370e-01, -6.38507605e-02,
          2.44084239e-01 ]
      - [ -1.32719338e+00, -4.18293893e-01, -3.02568048e-01,
          5.50140679e-01 ]
      - [ 3.50449741e-01, 6.88891113e-01, -6.79510713e-01,
          -1.08109391e+00 ]
      - [ -8.72844398e-01, 7.61175632e-01, -7.70566046e-01,
          1.06601572e+00 ]
      - [ 3.50449741e-01, -5.32365024e-01, -2.10875168e-01,
          -2.64841080e-01 ]
      - [ 3.50449741e-01, -2.22882605e+00, 2.99890709e+00,
          -1.08394730e+00 ]
      - [ -2.76925182e+00, -4.18578804e-01, 2.38521919e-02,
          -1.32905138e+00 ]
      - [ 5.91031313e-02, 2.86757916e-01, 1.04578745e+00,
          -2.53397679e+00 ]
      - [ 3.50449741e-01, 1.06952143e+00, -5.65474510e-01,
          -9.69724238e-01 ]
      - [ -1.77782321e+00, -1.49735260e+00, 8.05441678e-01,
          -1.41063333e-01 ]
      - [ -9.51369882e-01, -1.82054639e-01, -3.24564457e-01,
          1.27589405e-01 ]
      - [ 3.50449741e-01, -6.32408857e-01, -8.49871486e-02,
          -2.12699831e-01 ]
      - [ 3.50449741e-01, 4.38822240e-01, -8.73806894e-01,
          4.76652235e-01 ]
      - [ 3.50449741e-01, -1.38344216e+00, 1.23202443e+00,
          -9.42561626e-01 ]
      - [ 3.50449741e-01, 3.24008614e-01, -2.71254808e-01,
          -1.36260068e+00 ]
      - [ -2.95938754e+00, 8.57017577e-01, 3.85942236e-02,
          -2.25643015e+00 ]
      - [ -2.84647989e+00, -7.35226512e-01, 9.29775417e-01,
          -1.88891625e+00 ]
      - [ -2.22814846e+00, -9.55495894e-01, 9.91071403e-01,
          -8.81805956e-01 ]
      - [ -6.45122170e-01, 1.75523832e-01, -4.67927486e-01,
          -1.37647665e+00 ]
      - [ -1.27922797e+00, -2.88768299e-02, 1.15479922e+00,
          -2.01842427e+00 ]
      - [ 3.50449741e-01, 9.88081172e-02, -6.34814382e-01,
          5.24357498e-01 ]
      - [ 3.50449741e-01, -2.22638988e+00, 1.72286248e+00,
          -1.27137274e-01 ]
      - [ 2.65989333e-01, -2.10883212e+00, 2.03402781e+00,
          -6.40718937e-01 ]
      - [ 3.50449741e-01, -2.13233161e+00, 2.65920687e+00,
          -8.05673838e-01 ]
      - [ -2.29045892e+00, -6.52031898e-01, 7.67006755e-01,
          -1.37442517e+00 ]
      - [ 3.50449741e-01, 2.60785127e+00, 1.41941130e-01,
          -1.64095664e+00 ]
      - [ 3.50449741e-01, 4.61500674e-01, -8.99513900e-01,
          7.99847841e-01 ]
      - [ -1.88200772e+00, -8.49240899e-01, 2.09538594e-01,
          -1.81310549e-01 ]
      - [ 3.50449741e-01, -6.31943524e-01, 6.13286316e-01,
          -9.66042697e-01 ]
      - [ 3.50449741e-01, -1.63622463e+00, 1.38913298e+00,
          -3.81362885e-01 ]
      - [ 1.27163216e-01, -2.21712327e+00, 2.34095311e+00,
          -6.92644775e-01 ]
      - [ 3.50449741e-01, -1.67252386e+00, 1.40363443e+00,
          -4.82119560e-01 ]
      - [ -5.03779531e-01, 8.37442651e-02, -6.69538677e-01,
          -5.55900574e-01 ]
      - [ 1.54753819e-01, -2.48204684e+00, 2.27238321e+00,
          -7.32243836e-01 ]
      - [ 3.50449741e-01, -3.66515130e-01, 2.89038479e-01,
          3.80997866e-01 ]
      - [ 3.50449741e-01, -7.71812201e-01, 3.55168104e-01,
          -1.23454608e-01 ]
      - [ -3.27881813e-01, 1.03291404e+00, -9.45937037e-01,
          4.65231180e-01 ]
      - [ -1.21649325e+00, 5.73136568e-01, -7.44705498e-01,
          -1.80982292e+00 ]
      - [ -4.60530901e+00, -5.03773570e-01, -1.11368604e-01,
          -3.85046691e-01 ]
      - [ 3.50449741e-01, 1.00541306e+00, -1.05354578e-04,
          -1.69725156e+00 ]
      - [ -1.18925273e+00, -2.43304276e+00, 2.77068830e+00,
          -1.18120515e+00 ]
      - [ -3.65482783e+00, -6.59359097e-01, 1.65575638e-01,
          -9.22281504e-01 ]
      - [ -6.62947476e-01, -4.05278772e-01, 2.09258854e-01,
          -1.36605692e+00 ]
      - [ 7.97291473e-02, -1.61577153e+00, 1.77878535e+00,
          -7.77671278e-01 ]
      - [ -2.27925634e+00, -1.00050437e+00, 7.33566046e-01,
          -2.94232130e-01 ]
      - [ -1.66521215e+00, -1.10146415e+00, 4.38146263e-01,
          -5.76236904e-01 ]
      - [ 3.20610374e-01, -1.99230957e+00, 1.46865058e+00,
          1.70767099e-01 ]
      - [ -1.48893130e+00, -2.47878122e+00, 2.37072659e+00,
          -3.30651551e-01 ]
      - [ -4.03524250e-01, -1.96050704e+00, 2.04386854e+00,
          -2.07630947e-01 ]
      - [ 1.63913608e-01, -6.13333523e-01, 1.47535586e+00,
          -1.97308958e+00 ]
      - [ 3.50449741e-01, -8.96588385e-01, 1.11249876e+00,
          -1.49775696e+00 ]
      - [ 3.50449741e-01, 8.04448605e-01, -1.89507790e-02,
          -1.15401757e+00 ]
      - [ 3.50449741e-01, 5.34803331e-01, 1.65959060e-01,
          -1.38707900e+00 ]
      - [ -2.72994375e+00, -5.14164925e-01, -2.24372402e-01,
          2.68029541e-01 ]
      - [ 3.50449741e-01, -1.37713754e+00, 9.00388241e-01,
          -4.62440819e-01 ]
      - [ 3.50449741e-01, -2.17016160e-01, -7.11652875e-01,
          4.00781840e-01 ]
      - [ -1.45897663e+00, 4.93707597e-01, -7.99048483e-01,
          2.71516949e-01 ]
      - [ 3.50449741e-01, -2.76566792e+00, 2.63332486e+00,
          -6.08815610e-01 ]
      - [ -7.80348599e-01, 4.39164132e-01, -3.43450904e-01,
          -2.11718962e-01 ]
      - [ -5.90562534e+00, -8.93164814e-01, 1.76467896e-02,
          -8.24756920e-01 ]
      - [ 3.50449741e-01, 1.06037533e+00, -1.11089361e+00,
          1.76546264e+00 ]
      - [ 3.50449741e-01, -2.43752503e+00, 2.09461975e+00,
          -2.99750060e-01 ]
      - [ 3.50449741e-01, -8.20663810e-01, 1.29964232e+00,
          -1.75383830e+00 ]
      - [ -8.59248877e-01, -2.01369429e+00, 1.69376779e+00,
          1.24659715e-02 ]
      - [ -6.45595789e-01, -1.38516998e+00, 1.12114394e+00,
          -6.42277598e-01 ]
      - [ -1.04545140e+00, 1.49166256e-01, -5.10119617e-01,
          -3.92912328e-01 ]
      - [ -6.64166629e-01, -2.44414473e+00, 2.77801538e+00,
          -4.99110609e-01 ]
      - [ -1.51113474e+00, -2.24757743e+00, 2.13581538e+00,
          -6.74118578e-01 ]
      - [ -1.60045516e+00, -2.16055965e+00, 3.00862765e+00,
          -1.31473017e+00 ]
      - [ -1.87077630e+00, -3.00240129e-01, 9.56562519e-01,
          -1.00603497e+00 ]
      - [ 3.50449741e-01, 2.41531450e-02, -8.26106191e-01,
          4.77380872e-01 ]
      - [ -4.76683283e+00, -2.44714379e+00, 3.16392708e+00,
          -1.54090464e+00 ]
      - [ -7.80999303e-01, 7.17794776e-01, -3.38245839e-01,
          -4.87797439e-01 ]
      - [ 3.50449741e-01, -1.74508289e-01, 3.58168930e-01,
          -1.96773040e+00 ]
      - [ 3.50449741e-01, -8.56369555e-01, 1.45091724e+00,
          -1.40940213e+00 ]
      - [ -4.78250837e+00, -1.55541325e+00, 1.58751094e+00,
          -1.48140979e+00 ]
      - [ -6.40917063e-01, 1.98219681e+00, -3.76873642e-01,
          -1.44732022e+00 ]
      - [ 3.50449741e-01, 8.43951762e-01, -6.58735335e-01,
          -1.72310159e-01 ]
      - [ 1.92637816e-02, 1.26316762e+00, -6.60179198e-01,
          -1.11464107e+00 ]
      - [ 3.50449741e-01, -3.61441910e-01, -1.16023138e-01,
          2.68445164e-01 ]
      - [ -1.29672801e+00, -8.53839457e-01, 2.47552842e-01,
          -5.29729843e-01 ]
      - [ -8.58762860e-01, -2.01550484e+00, 1.92546415e+00,
          -1.93878114e-01 ]
      - [ 3.50449741e-01, -2.31581166e-01, 3.09477031e-01,
          -1.42377532e+00 ]
      - [ -1.19929397e+00, 7.66893446e-01, -1.16470671e+00,
          1.26759291e+00 ]
      - [ -2.87894702e+00, -1.62767947e+00, 1.99651945e+00,
          -1.06726861e+00 ]
      - [ -1.25756726e-01, 6.75925910e-02, -9.84072462e-02,
          -9.76343811e-01 ]
      - [ -2.07511202e-01, 5.09873331e-01, -5.36587775e-01,
          -4.79708791e-01 ]
      - [ 3.50449741e-01, -1.62550938e+00, 1.27430952e+00,
          3.22464943e-01 ]
      - [ -1.44120491e+00, -6.60738468e-01, 8.77852380e-01,
          -1.73237789e+00 ]
      - [ 3.50449741e-01, 6.79853618e-01, -1.25692582e+00,
          8.21500897e-01 ]
      - [ 1.12064384e-01, -1.88160300e-01, -4.89993691e-01,
          -8.21836710e-01 ]
      - [ 3.50449741e-01, -3.58168423e-01, 6.78662300e-01,
          -1.69099629e+00 ]
      - [ 3.50449741e-01, -1.45658255e+00, 9.32083070e-01,
          -3.71240288e-01 ]
      - [ 3.50449741e-01, -1.01356351e+00, 8.08967412e-01,
          -1.92864001e+00 ]
      - [ -2.47012925e+00, -2.36027911e-01, -5.15842021e-01,
          3.54971498e-01 ]
      - [ 3.50449741e-01, 8.79404485e-01, -1.34624410e+00,
          6.42877519e-01 ]
      - [ -1.61229622e+00, -1.53965056e-01, 3.33385915e-03,
          -1.28672794e-01 ]
      - [ -2.85204738e-01, 1.03755093e+00, -8.45842719e-01,
          3.09205204e-01 ]
      - [ -1.02186406e+00, 6.24600232e-01, -1.22010745e-01,
          -9.77737308e-01 ]
      - [ 3.50449741e-01, -1.58663285e+00, 1.81845152e+00,
          -7.03544199e-01 ]
      - [ 3.50449741e-01, -9.87534046e-01, 1.01753843e+00,
          -1.82482517e+00 ]
      - [ -2.15752557e-01, 8.56309980e-02, 9.66924250e-01,
          -1.47374129e+00 ]
      - [ -3.75682443e-01, -4.63127226e-01, 5.45618981e-02,
          1.36902437e-01 ]
      - [ 1.17809854e-01, -1.84530914e+00, 1.64129245e+00,
          -3.98579180e-01 ]
      - [ -2.33494401e+00, -1.09301245e+00, 9.27003384e-01,
          -6.10772848e-01 ]
      - [ 3.50449741e-01, -2.12364554e+00, 2.23255897e+00,
          -6.21212602e-01 ]
      - [ 3.50449741e-01, -2.06142783e+00, 1.88666189e+00,
          1.20154545e-01 ]
      - [ -9.85985845e-02, 5.96145988e-01, -8.45367372e-01,
          -6.08314574e-01 ]
      - [ 3.50449741e-01, 9.61832285e-01, -8.17341149e-01,
          -2.44989082e-01 ]
      - [ -1.66908360e+00, 1.41612720e+00, -6.55925930e-01,
          -1.07195413e+00 ]
      - [ -1.96767080e+00, -1.36259854e+00, 6.01803541e-01,
          4.59031343e-01 ]
      - [ -2.73742616e-01, -9.36778426e-01, 1.36262071e+00,
          -1.26020932e+00 ]
      - [ 2.80803978e-01, -6.07099414e-01, 1.53237665e+00,
          -1.62837803e+00 ]
      - [ -2.81697011e+00, -1.49981499e+00, 9.15875256e-01,
          -2.20765695e-01 ]
      - [ -2.79625344e+00, -1.06883848e+00, 1.12538970e+00,
          -1.16900384e+00 ]
      - [ 3.50449741e-01, -5.22800505e-01, -6.25372007e-02,
          1.47560284e-01 ]
      - [ 3.50449741e-01, 1.02518988e+00, -1.28952205e+00,
          1.66156459e+00 ]
      - [ 3.50449741e-01, 3.18039989e+00, 7.40162492e-01,
          -5.59991241e-01 ]
      - [ 3.50449741e-01, 1.13404489e+00, -4.80893970e-01,
          -8.22754145e-01 ]
      - [ -1.58236623e+00, -4.36911345e-01, 6.45118415e-01,
          -1.66223776e+00 ]
      - [ -1.28178573e+00, 7.06233740e-01, -4.66095626e-01,
          -1.78363585e+00 ]
      - [ -2.67412829e+00, 9.85646069e-01, -6.82948530e-01,
          1.42267644e-01 ]
      - [ 3.50449741e-01, -2.92876148e+00, 3.24153018e+00,
          -3.26895177e-01 ]
      - [ 3.50449741e-01, 7.28817880e-01, -3.34491909e-01,
          -1.67105770e+00 ]
      - [ -1.94608104e+00, -6.90152884e-01, -9.58887488e-02,
          -9.89385128e-01 ]
      - [ -2.39766645e+00, -4.60834093e-02, 2.04505220e-01,
          -1.56324828e+00 ]
      - [ 3.50449741e-01, -4.62180898e-02, -5.54650366e-01,
          3.82539451e-01 ]
      - [ -2.63759106e-01, -2.11074203e-01, 1.88269734e+00,
          -1.91182184e+00 ]
      - [ 3.50449741e-01, 2.63072997e-01, -7.30937958e-01,
          1.03333366e+00 ]
      - [ 3.50449741e-01, -5.38544990e-02, -2.68999785e-01,
          2.61229485e-01 ]
      - [ 3.50449741e-01, -1.74500358e+00, 1.26116109e+00,
          -3.78158867e-01 ]
      - [ 3.50449741e-01, -8.42804372e-01, 9.83118732e-03,
          1.14133680e+00 ]
      - [ 3.50449741e-01, -4.18575078e-01, -2.25175396e-01,
          -2.95432597e-01 ]
      - [ -8.90925109e-01, -2.55700684e+00, 2.88520312e+00,
          -6.16025984e-01 ]
      - [ 3.50449741e-01, -1.11957979e+00, 3.03619206e-01,
          9.14751351e-01 ]
      - [ -2.24356338e-01, -7.57511556e-02, -1.84470832e-01,
          -1.79554737e+00 ]
      - [ -1.58024096e+00, -3.07524860e-01, -1.01513112e+00,
          1.16594315e+00 ]
      - [ 3.50449741e-01, -8.31550285e-02, -1.42403588e-01,
          2.75941163e-01 ]
      - [ 3.50449741e-01, 7.03742087e-01, -1.66502729e-01,
          -1.57894206e+00 ]
      - [ -2.27870011e+00, -2.64846444e-01, -2.35821992e-01,
          -1.44472146e+00 ]
      - [ -1.78967249e+00, -1.28803563e+00, 5.50996661e-01,
          -1.15006363e+00 ]
      - [ -1.46760511e+00, -2.92818755e-01, -6.26359224e-01,
          6.42583489e-01 ]
      - [ 3.50449741e-01, 1.70348823e+00, -9.85033214e-01,
          1.22432411e+00 ]
      - [ 3.50449741e-01, 8.51224005e-01, 2.02639073e-01,
          -1.50416493e+00 ]
      - [ -1.16496527e+00, -3.19950819e+00, 4.66332006e+00,
          -1.76990092e+00 ]
      - [ 9.59111825e-02, 1.29757123e-02, -4.08102661e-01,
          -1.86593664e+00 ]
      - [ -3.07494670e-01, 5.93388259e-01, -1.16763795e-02,
          -1.90354061e+00 ]
      - [ -2.49418616e+00, -1.31028175e+00, 5.11588454e-01,
          -7.92682290e-01 ]
      - [ 3.50449741e-01, -2.21573234e+00, 2.20644927e+00,
          1.40208667e-02 ]
      - [ 3.50449741e-01, 1.75772771e-01, -7.06084073e-01,
          7.44901896e-01 ]
      - [ 3.50449741e-01, -8.60790789e-01, -5.18030562e-02,
          1.31804252e+00 ]
      - [ -9.36773539e-01, -3.92168880e-01, -2.87681043e-01,
          -7.14261711e-01 ]
      - [ -1.76332569e+00, -1.79438376e+00, 2.79111576e+00,
          -1.52342772e+00 ]
      - [ -1.41636956e+00, -1.35994661e+00, 8.74001026e-01,
          1.00463256e-01 ]
      - [ -1.13097847e+00, -1.23884082e+00, 1.17414343e+00,
          -8.08506310e-01 ]
      - [ -4.24747467e-01, -1.35335827e+00, 6.59808099e-01,
          4.64453161e-01 ]
      - [ -1.24249309e-01, 6.21288478e-01, 4.48946029e-01,
          -2.10980153e+00 ]
      - [ 3.50449741e-01, -5.27580202e-01, 1.19629100e-01,
          -1.22475481e+00 ]
      - [ 3.50449741e-01, -1.03197861e+00, 1.29157341e+00,
          -1.59695792e+00 ]
      - [ 3.50449741e-01, -1.64703357e+00, 1.50137424e+00,
          -6.12364173e-01 ]
      - [ 3.50449741e-01, -6.04967654e-01, 2.92023361e-01,
          8.61360282e-02 ]
      - [ -2.21219277e+00, -2.60391831e-01, -4.54951704e-01,
          8.26031506e-01 ]
      - [ 3.50449741e-01, -3.77709597e-01, 1.03082025e+00,
          -2.03766847e+00 ]
      - [ 3.50449741e-01, -1.23092914e+00, 6.33657753e-01,
          -1.54408917e-01 ]
      - [ 3.50449741e-01, 2.51575857e-01, -6.04023896e-02,
          -1.51931202e+00 ]
      - [ 3.50449741e-01, -1.75047731e+00, 1.36089134e+00,
          1.69214472e-01 ]
      - [ -2.03109336e+00, -1.13981116e+00, 7.87254393e-01,
          -1.01632886e-01 ]
      - [ -7.84059465e-01, -1.10379100e+00, 1.11499441e+00,
          -7.18209147e-01 ]
      - [ -1.70154655e+00, 6.34678841e-01, -9.97510195e-01,
          7.30699301e-01 ]
      - [ -5.48179531e+00, -7.75211155e-01, 1.31253302e-01,
          -1.84867471e-01 ]
      - [ 3.50449741e-01, -1.72023904e+00, 1.31150389e+00,
          -3.88906389e-01 ]
      - [ 3.27863276e-01, -1.03098106e+00, 3.88822928e-02,
          1.35602176e+00 ]
      - [ -9.66958821e-01, 2.95594275e-01, -2.36763936e-02,
          -1.81377077e+00 ]
      - [ -3.14809418e+00, -1.02835548e+00, 8.59652936e-01,
          -5.63567519e-01 ]
      - [ -2.28961873e+00, -8.09180558e-01, -8.42672680e-03,
          3.96593928e-01 ]
      - [ -3.02897167e+00, -1.38453758e+00, 1.47876942e+00,
          -1.24235857e+00 ]
      - [ -7.77420223e-01, -3.84182483e-02, 5.19145243e-02,
          -2.64819384e+00 ]
      - [ 3.50449741e-01, -1.41326356e+00, 8.92521739e-01,
          -3.26634586e-01 ]
      - [ -6.21192694e+00, -5.01633108e-01, -3.16978186e-01,
          2.34804243e-01 ]
      - [ 3.50449741e-01, -2.56872058e+00, 2.53679156e+00,
          -5.83688080e-01 ]
      - [ -9.46570709e-02, 1.63468927e-01, 7.29823649e-01,
          -2.55593109e+00 ]
      - [ 3.50449741e-01, -1.66000307e+00, 1.58211243e+00,
          -8.75873983e-01 ]
      - [ 3.50449741e-01, -2.13775039e+00, 2.16856909e+00,
          3.18696834e-02 ]
      - [ 3.50449741e-01, -1.43812668e+00, 1.05421662e+00,
          1.79562345e-01 ]
      - [ 3.50449741e-01, -1.21257520e+00, 1.55058992e+00,
          -1.06479239e+00 ]
      - [ 3.50449741e-01, -2.02536315e-01, -3.18814516e-01,
          -2.03715026e-01 ]
      - [ 3.50449741e-01, -2.33095542e-01, -2.95519888e-01,
          -9.24003869e-02 ]
      - [ 3.32105428e-01, -2.16221452e+00, 1.82061875e+00,
          6.29147887e-02 ]
      - [ -2.39664507e+00, 7.36959130e-02, -6.91923738e-01,
          2.32252553e-02 ]
      - [ 3.50449741e-01, -9.45055306e-01, 9.38828588e-02,
          6.42173171e-01 ]
      - [ -9.86435771e-01, -1.92589843e+00, 1.64129806e+00,
          -1.06671350e-02 ]
      - [ 3.50449741e-01, 3.91246140e-01, -2.49847442e-01,
          -7.16738924e-02 ]
      - [ -6.14636183e-01, 9.45262760e-02, 2.47584935e-02,
          -2.38073421e+00 ]
      - [ 3.50449741e-01, -4.67388093e-01, 1.21455896e+00,
          -1.01936960e+00 ]
      - [ 3.50449741e-01, -1.72501552e+00, 1.82108402e+00,
          -5.64054191e-01 ]
      - [ 3.50449741e-01, 9.09341872e-01, 1.10883676e-01,
          -1.48295105e+00 ]
      - [ -1.22699571e+00, 1.62057233e+00, -9.77613866e-01,
          5.62504649e-01 ]
      - [ 3.50449741e-01, 8.18650723e-02, 1.47246858e-02, 3.57992798e-02 ]
      - [ -2.84479952e+00, 4.36067939e-01, 3.47344518e-01,
          -1.59566069e+00 ]
      - [ -3.57880235e+00, -1.06482768e+00, 5.92151999e-01,
          -1.12234259e+00 ]
      - [ -3.45219207e+00, -1.07684290e+00, 8.23046386e-01,
          -1.34135985e+00 ]
      - [ 3.50449741e-01, 3.52465123e-01, -2.99852878e-01,
          -4.01675608e-03 ]
      - [ -7.59701967e-01, 5.59347942e-02, 9.14278507e-01,
          -1.40132678e+00 ]
      - [ 3.50449741e-01, 2.50008631e+00, -4.53256041e-01,
          1.25998035e-01 ]
      - [ -3.58152485e+00, -6.23655319e-01, 4.75497365e-01,
          -9.26744819e-01 ]
      - [ -2.75467205e+00, -7.27276266e-01, 1.46874741e-01,
          -2.54373122e-02 ]
      - [ -1.17878735e+00, -2.42882633e+00, 1.93178248e+00,
          5.52303456e-02 ]
      - [ -5.21374798e+00, -9.04085159e-01, 5.78737259e-01,
          -6.60728574e-01 ]
      - [ 3.50449741e-01, 6.90342426e-01, -7.49263048e-01,
          3.04687560e-01 ]
      - [ 3.50449741e-01, 9.77157727e-02, -5.38914025e-01,
          2.58582413e-01 ]
   decision_functions:
      -
         sv_count: 173
         rho: 1.9270458637555712e-01
         alpha: [ 1.2974658792211469e+00, 2.0227792633840287e+00,
             4.9336434638676385e-01, 2.0741556165577606e+00,
             4.9657205285468731e-01, 4.9687680393042788e-01,
             1.3242181547960303e+00, 2.0565799044069246e+00,
             2.5000000000000000e+00, 2.0314434381669084e+00,
             2.0389167343637387e+00, 2.0120070697724755e+00,
             4.0914016011248133e-01, 2.0269458104859397e+00,
             2.1134059115038499e+00, 2.0365615307075973e+00,
             2.1149355529996523e+00, 1.3360434235262575e+00,
             1.5568528290171288e+00, 1.6127508130923487e+00,
             1.9833165318752810e+00, 2.0772062691774025e+00,
             1.1360068335847771e+00, 2.0711577982142990e+00,
             2.5000000000000000e+00, 2.0033369431650327e+00,
             1.9985066032188428e+00, 4.0553165651677681e-01,
             4.9249839227137082e-01, 2.5000000000000000e+00,
             1.9636782769234369e+00, 2.0626565875612002e+00,
             2.0649591975422279e+00, 7.7215339207029943e-01,
             2.5000000000000000e+00, 2.1859773579119919e+00,
             2.2092554442041421e+00, 2.0119700053917668e+00,
             1.3639931664152229e+00, 2.1593963416454476e+00,
             2.0034279471453127e+00, 2.0431358534495270e+00,
             1.2327671763542545e+00, 2.5000000000000000e+00,
             2.0175389788494731e+00, 1.9849096663037606e+00,
             2.0254803217689532e+00, 2.0075016077286292e+00,
             1.9989782665773577e+00, 1.6553759446014167e+00,
             1.2948980831008461e+00, 2.0225722118387033e+00,
             1.9072663661716351e+00, 1.9966439312316491e+00,
             2.5000000000000000e+00, 1.2672328236457455e+00,
             1.3375305223093250e+00, 2.0908598398875187e+00,
             2.0153246684201576e+00, 2.0121871269614449e+00,
             2.1033545445618427e+00, 2.0066356536132361e+00,
             1.9756481741823697e+00, 2.5000000000000000e+00,
             2.2033293140473380e+00, 4.6108326563626134e-01,
             2.0002134332235117e+00, 1.9964060160520003e+00,
             2.1092125996838220e+00, 2.0133039411517726e+00,
             2.0737808128132977e+00, 1.5337019957280171e+00,
             2.1369030667681366e+00, 2.3239973640066971e+00,
             2.0095532612450517e+00, 2.0509241614290907e+00,
             2.0145704889015690e+00, 1.6332814799273496e+00,
             1.9972154689489061e+00, 2.0944683434832232e+00,
             2.0031231960695721e+00, 2.1224977655936028e+00,
             1.9956722768495221e+00, 2.3129096697194145e+00,
             2.0575201557220510e+00, 2.0418692500177089e+00,
             1.9995715957726519e+00, 2.0717408230996681e+00,
             1.9604014766182325e+00, -1.2974658792211469e+00,
             -2.5000000000000000e+00, -1.5949038815587000e+00,
             -1.9756481741823697e+00, -2.0120070697724755e+00,
             -1.3375305223093250e+00, -1.9972154689489061e+00,
             -2.1092125996838220e+00, -1.2404208790482576e+00,
             -2.0119700053917668e+00, -1.5643810701876613e+00,
             -2.0095532612450517e+00, -2.5000000000000000e+00,
             -1.2948980831008461e+00, -1.9849096663037606e+00,
             -2.0227792633840287e+00, -1.5337019957280171e+00,
             -2.0145704889015690e+00, -2.0175389788494731e+00,
             -1.9966439312316491e+00, -3.8973898730666034e-01,
             -2.5000000000000000e+00, -9.3561892981233874e-01,
             -2.1102610126933397e+00, -2.1033545445618427e+00,
             -1.6553759446014167e+00, -4.8522931532639957e-01,
             -2.5000000000000000e+00, -2.5000000000000000e+00,
             -1.9956722768495221e+00, -2.0626565875612002e+00,
             -2.5000000000000000e+00, -2.0575201557220510e+00,
             -2.0741556165577606e+00, -1.9604014766182325e+00,
             -2.0772062691774025e+00, -2.0314434381669084e+00,
             -2.0153246684201576e+00, -2.5000000000000000e+00,
             -2.0347836144206499e+00, -2.0121871269614449e+00,
             -2.3129096697194145e+00, -2.0133039411517726e+00,
             -2.0737808128132977e+00, -1.3360434235262575e+00,
             -2.0254803217689532e+00, -1.2595791209517424e+00,
             -1.9636782769234369e+00, -1.7743318946450997e+00,
             -2.4997830363890672e+00, -2.5000000000000000e+00,
             -2.0649591975422279e+00, -2.5000000000000000e+00,
             -2.0365615307075973e+00, -2.1369030667681366e+00,
             -1.6127508130923487e+00, -2.1134059115038499e+00,
             -2.0565799044069246e+00, -2.0002134332235117e+00,
             -2.0711577982142990e+00, -2.5000000000000000e+00,
             -2.0269458104859397e+00, -2.5000000000000000e+00,
             -2.5000000000000000e+00, -2.1224977655936028e+00,
             -2.0149876482845333e+00, -1.4068379619442870e+00,
             -1.6281291882730484e+00, -1.9985066032188428e+00,
             -1.9989782665773577e+00, -2.2033293140473380e+00,
             -2.0033369431650327e+00, -2.2092554442041421e+00,
             -2.5000000000000000e+00, -2.0225722118387033e+00,
             -2.0509241614290907e+00, -1.3242181547960303e+00,
             -2.3239973640066971e+00, -2.0431358534495270e+00,
             -2.5000000000000000e+00, -8.7187081172695158e-01,
             -2.0717408230996681e+00, -1.5568528290171288e+00,
             -1.9833165318752810e+00 ]
         index: [ 443, 444, 436, 435, 464, 459, 458, 407, 406, 425, 423,
             415, 528, 474, 509, 508, 506, 505, 513, 495, 397, 295, 301,
             300, 299, 310, 303, 272, 290, 289, 287, 285, 372, 347, 346,
             384, 332, 318, 325, 756, 745, 771, 768, 711, 710, 819, 817,
             824, 821, 813, 838, 828, 782, 793, 801, 808, 598, 617, 608,
             602, 614, 557, 568, 567, 686, 633, 627, 653, 641, 55, 196,
             61, 159, 101, 42, 211, 173, 175, 192, 70, 117, 112, 130, 11,
             12, 28, 231, 32, 27, 107, 531, 669, 120, 105, 449, 519, 560,
             665, 562, 121, 462, 524, 658, 597, 116, 628, 133, 498, 577,
             166, 150, 619, 648, 548, 599, 164, 585, 480, 477, 512, 517,
             582, 329, 326, 309, 323, 787, 785, 761, 349, 212, 362, 219,
             37, 769, 342, 829, 15, 266, 20, 26, 237, 248, 809, 247, 727,
             688, 66, 417, 399, 400, 689, 723, 722, 193, 706, 719, 714,
             421, 200, 749, 364, 699, 386, 422, 439, 438, 440, 737, 198,
             377, 383, 59 ]
      -
         sv_count: 166
         rho: -3.2111893768416855e-01
         alpha: [ 2.5000000000000000e+00, 3.7421040747251100e-01,
             2.5000000000000000e+00, 2.0301044260913423e+00,
             1.2341616054388640e+00, 1.3564027034131056e+00,
             2.0308207658046511e+00, 9.6854770930828504e-01,
             1.8894614926203697e+00, 5.5215760079988185e-01,
             2.5000000000000000e+00, 1.6159775276828783e+00,
             1.3331588328857560e+00, 1.6116145355825511e+00,
             1.8940550983584297e+00, 2.0120694610508134e+00,
             2.1771448829644311e+00, 2.5000000000000000e+00,
             2.0473998585214033e+00, 1.0268420732280585e+00,
             1.5665134776706702e+00, 2.0493770656596513e+00,
             1.9974156519040567e+00, 9.0784940549198057e-01,
             4.9887486429307426e-01, 1.9375513224096763e+00,
             5.0258434809594332e-01, 1.7663375725267869e+00,
             2.5000000000000000e+00, 2.0035114912453875e+00,
             2.0080474253574896e+00, 2.0511048170827944e+00,
             2.1032733988787533e+00, 1.4731579267719415e+00,
             1.9972633146054257e+00, 4.5076810480956775e-01,
             2.0142188801853322e+00, 4.3988267188243269e-01,
             1.1667271729560151e+00, 1.3028390781038675e+00,
             1.4132562895999057e+00, 1.9991969161351719e+00,
             1.3332728270439849e+00, 4.8578111981466776e-01,
             2.1126964866721574e+00, 1.9891407126617688e+00,
             9.8060588544161287e-01, 1.6932572489772764e+00,
             2.0492318951904323e+00, 2.1257895925274890e+00,
             8.5983425376974143e-01, 1.0441682813830950e+00,
             2.5000000000000000e+00, 5.0080308386482808e-01,
             1.8055293911152259e+00, 1.6401657462302586e+00,
             2.0011251357069257e+00, 2.0607008654083772e+00,
             1.9975184631842207e+00, 1.9407753150252176e+00,
             2.5000000000000000e+00, 2.0999908975568662e+00,
             1.2427552216573614e+00, 2.0043569243294406e+00,
             2.5000000000000000e+00, 1.9932751211123845e+00,
             1.0548677606453418e+00, 2.0974321738734441e+00,
             8.0674275102272364e-01, 1.6356065914754188e+00,
             2.0601173281175673e+00, 2.0735388984243754e+00,
             2.0260927276587117e+00, 2.5000000000000000e+00,
             2.0482230634702305e+00, 2.0347223327809845e+00,
             1.5193941145583871e+00, 1.1971609218961325e+00,
             1.5314522906917150e+00, 1.9567761792316511e+00,
             1.5238558591876048e+00, 2.0469799257593828e+00,
             2.0116037788266645e+00, 1.5921505945080194e+00,
             4.3191108829297553e-01, 1.4558317186169050e+00,
             1.9535137534029419e+00, 2.0680889117070245e+00,
             2.5000000000000000e+00, 2.0843170578234971e+00,
             -2.5000000000000000e+00, -2.5000000000000000e+00,
             -2.5000000000000000e+00, -2.0301044260913423e+00,
             -2.0473998585214033e+00, -2.5000000000000000e+00,
             -4.8091394314514124e-01, -1.3331588328857560e+00,
             -1.8913430814783461e+00, -1.5344304114284912e+00,
             -1.7663375725267869e+00, -1.9924254484206703e+00,
             -1.2341616054388640e+00, -2.5000000000000000e+00,
             -1.6159775276828783e+00, -2.1032733988787533e+00,
             -2.0080474253574896e+00, -2.5000000000000000e+00,
             -2.5000000000000000e+00, -2.5000000000000000e+00,
             -1.6116145355825511e+00, -1.5665134776706702e+00,
             -2.5000000000000000e+00, -2.0469799257593828e+00,
             -2.0219132081215596e+00, -2.5000000000000000e+00,
             -1.3564027034131056e+00, -1.9891407126617688e+00,
             -1.9972633146054257e+00, -1.9932751211123845e+00,
             -2.0260927276587117e+00, -2.5000000000000000e+00,
             -1.9000261800051397e+00, -2.0493770656596513e+00,
             -1.8055293911152259e+00, -2.5000000000000000e+00,
             -1.8894614926203697e+00, -2.0308207658046511e+00,
             -2.5000000000000000e+00, -1.8940550983584297e+00,
             -2.0035114912453875e+00, -2.5000000000000000e+00,
             -2.1771448829644311e+00, -2.5000000000000000e+00,
             -2.5000000000000000e+00, -2.0482230634702305e+00,
             -2.0116037788266645e+00, -2.0974321738734441e+00,
             -2.0190860568548588e+00, -2.5000000000000000e+00,
             -9.6556958857150876e-01, -2.5000000000000000e+00,
             -2.0843170578234971e+00, -1.6356065914754188e+00,
             -2.5000000000000000e+00, -2.5000000000000000e+00,
             -2.0347223327809845e+00, -2.5000000000000000e+00,
             -2.5000000000000000e+00, -2.0120694610508134e+00,
             -1.9535137534029419e+00, -1.9975184631842207e+00,
             -1.5238558591876048e+00, -2.0607008654083772e+00,
             -1.9567761792316511e+00, -1.9375513224096763e+00,
             -5.5215760079988185e-01, -1.2427552216573614e+00,
             -2.5000000000000000e+00, -5.9997381999486032e-01,
             -1.6862353850965328e+00, -5.0757455157932974e-01,
             -2.5000000000000000e+00, -2.5000000000000000e+00,
             -2.0511048170827944e+00, -2.0999908975568662e+00 ]
         index: [ 443, 442, 447, 468, 432, 431, 529, 490, 506, 496, 495,
             310, 306, 311, 272, 265, 268, 278, 280, 360, 357, 354, 392,
             396, 395, 378, 375, 387, 324, 318, 754, 763, 717, 715, 734,
             820, 831, 835, 833, 782, 774, 775, 805, 796, 795, 800, 596,
             606, 553, 544, 551, 576, 583, 567, 662, 692, 695, 687, 621,
             651, 649, 645, 640, 53, 156, 195, 103, 36, 41, 97, 98, 84,
             168, 82, 170, 67, 65, 64, 165, 187, 244, 9, 2, 258, 12, 234,
             33, 231, 229, 137, 846, 840, 673, 842, 691, 664, 38, 62,
             636, 779, 47, 744, 615, 766, 94, 707, 21, 709, 24, 647, 713,
             655, 72, 726, 792, 786, 730, 605, 607, 110, 639, 109, 319,
             374, 157, 136, 533, 433, 316, 454, 534, 215, 385, 182, 460,
             491, 420, 493, 214, 492, 238, 520, 363, 302, 356, 514, 242,
             516, 452, 245, 201, 142, 206, 296, 178, 220, 483, 129, 550,
             410, 563, 188, 475, 470, 257, 414 ]
      -
         sv_count: 157
         rho: 7.3132063847347311e-03
         alpha: [ 2.5000000000000000e+00, 2.5000000000000000e+00,
             2.5000000000000000e+00, 2.5000000000000000e+00,
             2.0977680987503375e+00, 2.0425316288104636e+00,
             1.9491540775362135e+00, 5.2795984324904044e-01,
             2.0832981230426504e+00, 1.3674943729915783e+00,
             1.5664680510170608e+00, 1.3175675819347414e+00,
             2.5000000000000000e+00, 1.7300329383766275e+00,
             1.9901107631969639e+00, 1.8071390006137027e+00,
             2.5000000000000000e+00, 2.0818032897406460e+00,
             2.5000000000000000e+00, 1.5349613862557796e+00,
             1.9984171415223679e+00, 1.2805607799197649e+00,
             2.0005072394515100e+00, 1.4380283693947675e+00,
             1.5113329549087755e+00, 1.3429555370473347e+00,
             1.9586392714278080e+00, 2.5000000000000000e+00,
             1.4768735468504564e+00, 1.9827975827297597e+00,
             4.2790339953225098e-01, 1.9353909521729953e+00,
             2.5000000000000000e+00, 1.6755251007609653e+00,
             5.4136072857219197e-01, 1.0001021727993595e+00,
             6.9286099938629730e-01, 1.6125015135110368e+00,
             2.0152926769476864e+00, 2.0720966004677490e+00,
             1.9835419773347394e+00, 2.5000000000000000e+00,
             1.9640696696386446e+00, 2.5000000000000000e+00,
             1.6919090009972884e+00, 1.9720401567509596e+00,
             2.0008781690050053e+00, 1.9981498861966176e+00,
             1.9001358752764508e+00, 2.5000000000000000e+00,
             2.5000000000000000e+00, 1.9327382694166266e+00,
             5.1720241727024030e-01, 1.9481452485708035e+00,
             2.0365060317576065e+00, 1.9754419027138002e+00,
             2.5000000000000000e+00, 2.0203571893724965e+00,
             1.4575391521658831e+00, 2.5000000000000000e+00,
             5.0988923680303611e-01, 1.9557091420894670e+00,
             1.9852679424452389e+00, 2.0265047608461164e+00,
             1.0619716306052325e+00, 1.3781512033231547e+00,
             2.0333551718758911e+00, 2.0442864246851480e+00,
             1.9919067667959620e+00, 2.0588017321337184e+00,
             1.5983989457866425e+00, 2.5000000000000000e+00,
             1.9517775549701271e+00, 2.5000000000000000e+00,
             1.6815677631401111e+00, 1.6450052990633506e+00,
             1.9571733829922777e+00, 2.0232784158675869e+00,
             -1.0001021727993595e+00, -1.5113329549087755e+00,
             -1.9943822600907852e+00, -2.5000000000000000e+00,
             -2.5000000000000000e+00, -1.6815677631401111e+00,
             -2.0232784158675869e+00, -2.0203571893724965e+00,
             -1.3674943729915783e+00, -2.5000000000000000e+00,
             -1.0049291573728230e+00, -5.0561773990921477e-01,
             -2.0661801163442775e+00, -2.5000000000000000e+00,
             -1.9981498861966176e+00, -2.5000000000000000e+00,
             -1.5776415965610389e+00, -1.7300329383766275e+00,
             -2.5000000000000000e+00, -1.9517775549701271e+00,
             -2.5000000000000000e+00, -1.9852679424452389e+00,
             -9.5790213789323619e-01, -1.7593760252657364e+00,
             -1.4483019743764454e+00, -1.9835419773347394e+00,
             -1.5420978621067638e+00, -1.9557091420894670e+00,
             -2.5000000000000000e+00, -2.5000000000000000e+00,
             -1.6755251007609653e+00, -1.9481452485708035e+00,
             -2.5000000000000000e+00, -5.1350534548910187e-01,
             -2.5000000000000000e+00, -1.9754419027138002e+00,
             -1.5349613862557796e+00, -1.5664680510170608e+00,
             -2.0265047608461164e+00, -2.5000000000000000e+00,
             -2.5000000000000000e+00, -2.5000000000000000e+00,
             -2.0355566080267451e+00, -1.9891445208849987e+00,
             -1.0516980256235546e+00, -2.5000000000000000e+00,
             -1.3175675819347414e+00, -4.3381988365572255e-01,
             -2.5000000000000000e+00, -2.0005072394515100e+00,
             -2.0008781690050053e+00, -4.6444339197325490e-01,
             -2.5000000000000000e+00, -1.9327382694166266e+00,
             -2.0365060317576065e+00, -2.0818032897406460e+00,
             -2.0152926769476864e+00, -1.9353909521729953e+00,
             -2.0832981230426504e+00, -1.5344383956064256e+00,
             -1.9864946545108981e+00, -1.6125015135110368e+00,
             -2.2626728828178111e-01, -1.9571733829922777e+00,
             -1.5983989457866425e+00, -1.9169348920684812e+00,
             -1.3429555370473347e+00, -5.8306510793151878e-01,
             -1.9877290259654576e+00, -1.6919090009972884e+00,
             -2.0588017321337184e+00, -1.4575391521658831e+00,
             -2.0977680987503375e+00, -2.5000000000000000e+00,
             -1.2805607799197649e+00, -2.5000000000000000e+00,
             -1.4950708426271770e+00, -1.9491540775362135e+00,
             -1.9001358752764508e+00 ]
         index: [ 443, 445, 408, 405, 412, 401, 398, 403, 429, 535, 481,
             488, 474, 502, 283, 282, 290, 278, 370, 366, 389, 380, 327,
             318, 750, 770, 712, 718, 717, 705, 729, 815, 844, 784, 781,
             790, 789, 803, 587, 593, 555, 552, 580, 565, 675, 672, 659,
             667, 696, 626, 642, 203, 207, 197, 210, 218, 100, 43, 79,
             83, 162, 191, 186, 185, 249, 255, 113, 126, 123, 261, 124,
             264, 263, 1, 233, 29, 108, 139, 339, 343, 390, 394, 404,
             721, 52, 51, 49, 381, 382, 742, 202, 281, 256, 837, 5, 836,
             841, 269, 274, 827, 7, 333, 223, 317, 298, 806, 232, 797,
             151, 518, 620, 511, 523, 145, 147, 158, 92, 487, 161, 93,
             500, 95, 574, 543, 542, 579, 581, 571, 561, 135, 536, 530,
             603, 590, 595, 179, 685, 681, 682, 441, 708, 68, 419, 418,
             416, 704, 89, 88, 472, 466, 654, 478, 476, 646, 670, 77,
             463 ]
      -
         sv_count: 159
         rho: -1.3243666863623171e-01
         alpha: [ 1.0317319442777220e+00, 2.5000000000000000e+00,
             2.0316449808500217e+00, 1.8175935948521764e+00,
             1.0235061798123943e+00, 1.9845635166753601e+00,
             2.0091314086266703e+00, 7.6347013690823884e-01,
             1.9094030776059274e+00, 6.8240640514782358e-01,
             2.5000000000000000e+00, 2.0843797721174075e+00,
             2.0376480131812174e+00, 1.3151945954376283e+00,
             4.3314760579128109e-01, 1.4338960165726338e+00,
             2.0581673620947503e+00, 2.5000000000000000e+00,
             2.5000000000000000e+00, 5.9629685052723280e-01,
             1.5858141023898373e+00, 2.0602831575327309e+00,
             2.0065850191857124e+00, 2.4360612724590833e+00,
             1.2052651734778363e+00, 2.3639856530561625e+00,
             1.6856597462712763e+00, 1.9955323430598209e+00,
             1.9645696634975196e+00, 2.5000000000000000e+00,
             5.0344599476414609e-01, 2.5000000000000000e+00,
             1.3283068657627952e+00, 5.9372993357281789e-01,
             2.0331061536866231e+00, 2.5000000000000000e+00,
             1.4804295772498348e+00, 1.9965540052358539e+00,
             1.6813141259939410e+00, 1.2947348265221637e+00,
             1.9955781952636427e+00, 1.3132737813809241e+00,
             1.9037031494727672e+00, 2.0668523942087189e+00,
             2.5000000000000000e+00, 8.1868587400605897e-01,
             2.5000000000000000e+00, 1.9350314281574534e+00,
             1.2757372905785680e+00, 1.4222014858128154e+00,
             2.0324359734786062e+00, 2.5000000000000000e+00,
             2.5000000000000000e+00, 2.0010030158018970e+00,
             2.0083133726174167e+00, 1.9783335154133586e+00,
             1.9047614002624136e+00, 1.3110669148915044e+00,
             1.5994993409957194e+00, 1.6319480551005625e+00,
             1.2872552523822072e+00, 1.1526900240929356e+00,
             2.2113042711279638e+00, 1.9062700664271821e+00,
             2.0198300588443652e+00, 2.0951068995454349e+00,
             2.0274508694325752e+00, 1.5129584382934682e+00,
             1.9690991559037092e+00, 1.9358186823332879e+00,
             1.9288893512933432e+00, 2.3213151773950074e+00,
             2.5000000000000000e+00, 1.2550380194198982e+00,
             1.3473099759070644e+00, 2.5000000000000000e+00,
             1.1716931342372048e+00, 2.5000000000000000e+00,
             2.0369983753230763e+00, 1.9812394990500255e+00,
             -1.0317319442777220e+00, -1.1373447138183082e+00,
             -2.0376480131812174e+00, -2.5000000000000000e+00,
             -2.5000000000000000e+00, -1.9690991559037092e+00,
             -2.0083133726174167e+00, -1.4338960165726338e+00,
             -2.0010030158018970e+00, -1.9535855541035518e+00,
             -2.0274508694325752e+00, -2.0331061536866231e+00,
             -1.6505954891469337e+00, -2.0065850191857124e+00,
             -1.5994993409957194e+00, -1.3072192318767855e+00,
             -1.6856597462712763e+00, -2.0091314086266703e+00,
             -2.5000000000000000e+00, -2.5000000000000000e+00,
             -1.5858141023898373e+00, -2.0602831575327309e+00,
             -2.0316449808500217e+00, -5.1651652933605408e-01,
             -1.3110669148915044e+00, -2.0198300588443652e+00,
             -2.0680327117085175e+00, -5.1509907336825878e-01,
             -1.9703585261358252e+00, -2.5000000000000000e+00,
             -1.3626552861816918e+00, -4.6350508912240729e-01,
             -1.9783335154133586e+00, -4.3196728829148245e-01,
             -1.9812394990500255e+00, -1.9750763001682410e+00,
             -2.5000000000000000e+00, -2.5000000000000000e+00,
             -2.0369983753230763e+00, -8.4940451085306634e-01,
             -2.0258008644463361e+00, -1.9849009266317412e+00,
             -2.5000000000000000e+00, -2.5000000000000000e+00,
             -2.5000000000000000e+00, -1.9834834706639459e+00,
             -2.5000000000000000e+00, -1.9845635166753601e+00,
             -2.5000000000000000e+00, -5.2492369983175902e-01,
             -1.9684972459376893e+00, -2.5000000000000000e+00,
             -4.7419913555366389e-01, -1.8448360693018031e+00,
             -1.7858848408925267e+00, -1.3132737813809241e+00,
             -2.5000000000000000e+00, -2.5000000000000000e+00,
             -1.9350314281574534e+00, -2.5000000000000000e+00,
             -1.9483654251735703e+00, -2.5000000000000000e+00,
             -2.5000000000000000e+00, -1.9047614002624136e+00,
             -1.9094030776059274e+00, -1.5906392426052558e+00,
             -2.0060803962733691e+00, -1.9955781952636427e+00,
             -1.4804295772498348e+00, -1.9358186823332879e+00,
             -1.1927807681232145e+00, -2.0364949108775927e+00,
             -1.9288893512933432e+00, -4.9391960372663091e-01,
             -1.0235061798123943e+00, -2.5000000000000000e+00,
             -1.2872552523822072e+00, -1.4222014858128154e+00,
             -1.2550380194198982e+00 ]
         index: [ 107, 143, 531, 102, 669, 138, 119, 140, 87, 167, 450,
             611, 660, 572, 457, 144, 657, 462, 658, 461, 591, 115, 134,
             160, 486, 114, 629, 152, 153, 618, 616, 515, 547, 163, 512,
             777, 335, 308, 788, 322, 785, 321, 44, 48, 208, 222, 276,
             275, 845, 260, 259, 4, 802, 307, 25, 297, 697, 393, 176,
             731, 720, 430, 413, 434, 716, 367, 365, 199, 57, 746, 371,
             674, 50, 736, 439, 63, 701, 379, 739, 740, 846, 578, 570,
             78, 122, 81, 14, 690, 683, 684, 826, 663, 631, 62, 60, 609,
             773, 96, 45, 753, 622, 56, 766, 35, 765, 624, 94, 23, 650,
             24, 700, 588, 726, 786, 732, 34, 91, 251, 455, 286, 374,
             253, 157, 136, 141, 433, 454, 292, 250, 215, 540, 216, 279,
             420, 388, 169, 213, 426, 493, 448, 242, 241, 452, 246, 313,
             532, 451, 437, 177, 503, 467, 262, 402, 471, 257, 484, 183,
             277, 414 ]
      -
         sv_count: 163
         rho: -1.8663370554196682e-01
         alpha: [ 1.0000380292095326e+00, 1.5480312527863318e+00,
             1.5265140172829683e+00, 6.3567283828407506e-01,
             1.4675015290340743e+00, 2.0230725173371953e+00,
             1.6760528413715536e+00, 2.0846398855969732e+00,
             1.2751199775159370e+00, 1.9633405087370075e+00,
             1.8643271617159249e+00, 4.9783312206039776e-01,
             1.4829049456403276e+00, 5.3665949126299251e-01,
             1.5768382217354415e+00, 2.2236579713376261e+00,
             2.5000000000000000e+00, 2.5000000000000000e+00,
             2.0028188509212641e+00, 1.9958753515851013e+00,
             2.0200646004275327e+00, 1.9640786147479898e+00,
             2.5000000000000000e+00, 2.0868097258509102e+00,
             1.9909020957439711e+00, 1.9828382856933409e+00,
             1.3140899673635960e+00, 2.5000000000000000e+00,
             2.5000000000000000e+00, 1.2248800224840630e+00,
             1.9984328255255421e+00, 2.0366804313183100e+00,
             2.5000000000000000e+00, 5.1876132935731856e-01,
