%YAML:1.0
---
opencv_ml_svm:
   format: 3
   svmType: C_SVC
   kernel:
      type: RBF
      gamma: 5.0625000000000009e-01
   C: 1.2500000000000000e+01
   term_criteria: { iterations:10000 }
   var_count: 13
   class_count: 4
   class_labels: !!opencv-matrix
      rows: 4
      cols: 1
      dt: i
      data: [ 0, 1, 2, 3 ]
   sv_total: 7740
   support_vectors:
      - [ -1.13737464e-01, 2.55457371e-01, -7.00432718e-01,
          -3.63179028e-01, -2.13677973e-01, -6.15681887e-01,
          -4.12702411e-01, 6.30152598e-02, 4.30921495e-01,
          -3.12439978e-01, 5.78244925e-01, 8.81663680e-01,
          -7.37591803e-01 ]
      - [ -1.54834762e-01, 6.05804145e-01, -4.23303783e-01,
          2.56915569e-01, -2.37459987e-01, 1.41783249e+00,
          2.10136697e-01, 4.94738013e-01, 2.85930991e-01,
          -2.66465485e-01, 1.61846951e-01, -4.16456133e-01,
          6.24878526e-01 ]
      - [ -1.11770011e-01, 4.68541652e-01, 4.88839597e-01,
          1.23075998e+00, 2.41743624e-02, -8.57850492e-01,
          1.25980115e+00, 5.95987141e-01, 4.36811626e-01,
          -4.86109644e-01, 7.81731009e-01, 9.81859863e-02,
          2.88156718e-01 ]
      - [ -1.35392949e-01, 7.56472886e-01, -3.65576595e-02,
          8.18917096e-01, -4.53513503e-01, -1.31919813e+00,
          7.91981757e-01, 8.39867890e-01, 1.04033148e+00,
          -6.26949906e-01, 1.06570089e+00, 4.79082882e-01,
          4.10241932e-02 ]
      - [ -1.59949079e-01, 7.82016337e-01, -3.32088303e-03,
          8.98180842e-01, -8.80204141e-01, -1.90586597e-01,
          8.73597562e-01, 1.08789718e+00, 1.29380322e+00,
          -6.66730762e-01, 1.08165061e+00, 7.85172164e-01,
          -1.98794305e-01 ]
      - [ -1.31568164e-01, -5.64768672e-01, -1.48717687e-01,
          -8.85083377e-01, 3.48435372e-01, 6.62528038e-01,
          -8.82270098e-01, -7.48809397e-01, -4.88226801e-01,
          1.23049609e-01, -2.59685069e-01, 3.72236699e-01,
          -1.74953416e-01 ]
      - [ -5.01705743e-02, 5.14464855e-01, -2.07684803e+00,
          -8.56539607e-01, -3.74553174e-01, -1.26515412e+00,
          -9.64182496e-01, -6.04299784e-01, 2.88972825e-01,
          -5.06374955e-01, 9.87096965e-01, 2.22998500e+00,
          -3.55775166e+00 ]
      - [ 1.25910165e-02, 7.07755744e-01, -6.15392983e-01,
          2.05172464e-01, -2.08962038e-01, -1.65518641e-01,
          1.44518867e-01, 9.22878459e-02, 4.24822390e-01,
          -5.95067918e-01, 1.01926517e+00, 1.11401653e+00,
          -1.16307342e+00 ]
      - [ -1.07326031e-01, 1.19465017e+00, 5.59604615e-02,
          1.49414086e+00, -3.67767543e-01, -8.25010717e-01,
          1.46429789e+00, 9.93096411e-01, 1.03062975e+00,
          -7.21304059e-01, 1.32977760e+00, 4.95249212e-01,
          2.00886820e-02 ]
      - [ -1.34390190e-01, -1.37699413e+00, 1.50032103e+00,
          -6.40587866e-01, 7.01233983e-01, -2.22500950e-01,
          -5.37837386e-01, -5.89620233e-01, -9.69704807e-01,
          9.17242706e-01, -1.42374146e+00, -1.09284592e+00,
          8.36764574e-01 ]
      - [ -1.58120289e-01, 7.12005377e-01, 6.08069859e-02,
          9.03507650e-01, -7.11993933e-01, -4.19067144e-01,
          8.86543393e-01, 1.14414990e+00, 1.15714252e+00,
          -6.28045619e-01, 9.56392169e-01, 1.72737807e-01,
          3.57258469e-01 ]
      - [ -1.03687510e-01, 5.48849106e-01, 5.62184095e-01,
          1.49935508e+00, -4.23706323e-02, 1.10399373e-01,
          1.53701675e+00, 9.02498662e-01, 6.34386957e-01,
          -5.06522000e-01, 8.28028202e-01, -1.96632281e-01,
          5.73300600e-01 ]
      - [ -1.20825090e-01, 6.42570138e-01, 3.55899304e-01,
          1.26538062e+00, -3.65421265e-01, 1.41071334e-01,
          1.27850759e+00, 1.17571855e+00, 9.40199792e-01,
          -6.30186617e-01, 9.70538259e-01, -7.61281475e-02,
          5.40141761e-01 ]
      - [ -1.62230194e-01, 7.80044496e-01, -6.11173868e-01,
          2.48942852e-01, -9.65979874e-01, 2.46992543e-01,
          1.83535993e-01, 5.24852276e-01, 1.06202257e+00,
          -7.13169992e-01, 1.14915299e+00, 1.22603273e+00,
          -9.60590541e-01 ]
      - [ -1.61179930e-01, 7.14303181e-02, -1.18587315e+00,
          -8.18046749e-01, -8.12825978e-01, -8.13682973e-01,
          -8.77173424e-01, -4.34589610e-02, 7.34402299e-01,
          -5.54841995e-01, 6.57913089e-01, 1.45348704e+00,
          -1.32635951e+00 ]
      - [ -1.43616781e-01, -8.54486048e-01, 1.23265572e-01,
          -1.05107415e+00, 4.40562852e-02, 7.02739894e-01,
          -1.02861488e+00, -9.23690856e-01, -7.25993693e-01,
          2.71292806e-01, -6.17445767e-01, 4.71711516e-01,
          -4.25180405e-01 ]
      - [ -1.50343433e-01, 1.66809827e-01, 6.85472906e-01,
          1.12109590e+00, -3.06387901e-01, 3.39074016e-01,
          1.17459238e+00, 7.45284915e-01, 5.45444250e-01,
          -3.90691787e-01, 4.69852209e-01, -2.26089656e-01,
          5.99652350e-01 ]
      - [ -1.59894079e-01, 5.70320427e-01, -2.74092466e-01,
          3.31887424e-01, -9.51191306e-01, -8.47812235e-01,
          2.93537378e-01, 9.79305267e-01, 1.35811925e+00,
          -7.32439458e-01, 1.07467556e+00, 8.46720457e-01,
          -2.94892460e-01 ]
      - [ -1.50833175e-01, -7.43601263e-01, 1.03209960e+00,
          7.41188452e-02, -9.95224491e-02, -7.09602833e-01,
          1.56150877e-01, 5.95620930e-01, -8.37674662e-02,
          4.58673000e-01, -9.21197951e-01, -1.60206342e+00,
          1.10357165e+00 ]
      - [ -4.90287244e-02, 2.24765986e-01, 3.08583528e-01,
          6.00103199e-01, 1.10993303e-01, -2.18453363e-01,
          6.14647090e-01, 2.56600171e-01, 2.20229685e-01,
          -4.83125389e-01, 6.25942111e-01, 2.73179531e-01,
          6.89019263e-02 ]
      - [ -1.45857781e-01, -4.93605852e-01, 3.82298768e-01,
          -3.47633868e-01, -2.83771276e-01, 1.27476349e-01,
          -3.18258643e-01, 8.46348926e-02, 7.19883665e-02,
          -1.62468553e-01, -1.73365012e-01, 1.31149366e-01,
          2.14853153e-01 ]
      - [ 7.98515752e-02, 5.49691975e-01, 4.35989648e-01, 1.29353535e+00,
          1.31454158e+00, 6.83536172e-01, 1.31810260e+00,
          -6.15951538e-01, -1.31806648e+00, 4.36434954e-01,
          -6.00940228e-01, -1.25998104e+00, 8.20556641e-01 ]
      - [ -1.34131819e-01, -8.38248074e-01, -1.10481270e-02,
          -1.11224568e+00, 7.40601659e-01, 1.41769993e+00,
          -1.09534121e+00, -1.73122025e+00, -1.75199199e+00,
          1.19115734e+00, -1.51957142e+00, -4.10543829e-01,
          1.86126754e-01 ]
      - [ -1.53951705e-01, -4.91615474e-01, 3.50670278e-01,
          -3.77473980e-01, -8.74847919e-02, 1.43473792e+00,
          -3.50191534e-01, 1.03670985e-01, 4.64305207e-02,
          -7.93361887e-02, -2.01897308e-01, -1.66015074e-01,
          4.05089378e-01 ]
      - [ -1.53964311e-01, 6.05136216e-01, 3.26865166e-01,
          1.16632438e+00, -4.06891465e-01, 4.72321510e-01,
          1.17708516e+00, 9.21139836e-01, 8.32835853e-01,
          -4.72152799e-01, 7.61719048e-01, -1.26752377e-01,
          5.20721495e-01 ]
      - [ -1.48119837e-01, -1.28617620e+00, 1.08211267e+00,
          -9.96194065e-01, -1.34749323e-01, -7.07346320e-01,
          -9.25362945e-01, -3.76337022e-01, -4.74716634e-01,
          2.10958749e-01, -1.07764351e+00, -3.60018522e-01,
          4.31796223e-01 ]
      - [ -1.55339152e-01, -1.93004623e-01, 1.18164308e-01,
          -1.97528258e-01, -3.88504565e-01, 1.87382793e+00,
          -1.89935088e-01, 2.42221773e-01, 3.13393295e-01,
          -3.39443058e-01, 2.16367915e-01, 1.52613372e-01,
          2.06108108e-01 ]
      - [ -1.55595511e-01, -7.83511922e-02, -7.19057843e-02,
          -2.21414328e-01, -4.48521316e-01, 5.31679749e-01,
          -2.27256685e-01, 4.19592023e-01, 5.05491793e-01,
          -3.80500525e-01, 3.98606181e-01, 2.70109266e-01,
          3.47631723e-02 ]
      - [ -1.48811862e-01, -1.31095469e+00, 3.83101821e-01,
          -1.55572081e+00, 7.11507350e-02, 1.88588822e+00,
          -1.51767159e+00, -1.21959794e+00, -8.22313666e-01,
          3.09701741e-01, -1.21437311e+00, 5.39409220e-01,
          -4.96490598e-01 ]
      - [ -5.85789382e-02, 5.46571016e-01, 3.52822334e-01,
          1.11873794e+00, 1.27250761e-01, -6.30052090e-01,
          1.13258350e+00, 6.83468521e-01, 5.70948064e-01,
          -5.07330358e-01, 7.62232602e-01, -1.42611995e-01,
          5.04510403e-01 ]
      - [ 4.44573879e-01, -1.77940592e-01, 6.20991230e-01,
          4.44115013e-01, 1.43929255e+00, -5.19204557e-01,
          4.90689993e-01, -7.64595330e-01, -1.13836122e+00,
          4.41595346e-01, -8.49840999e-01, -1.18931639e+00,
          8.09199572e-01 ]
      - [ -1.31868690e-01, 1.99118003e-01, 8.41969311e-01,
          1.50341463e+00, -4.91109878e-01, 4.80926670e-02,
          1.57771122e+00, 1.26474011e+00, 9.81346428e-01,
          -5.39288342e-01, 6.37293518e-01, -3.31116319e-01,
          7.05505073e-01 ]
      - [ -1.61065787e-01, -7.98236907e-01, 3.48650426e-01,
          -8.33464026e-01, -6.47633076e-01, -1.08418679e+00,
          -8.03103745e-01, 2.07181033e-02, 3.71047050e-01,
          -3.20880041e-02, -2.54832357e-01, 4.18929189e-01,
          5.31344721e-03 ]
      - [ -1.48757979e-01, -6.98368073e-01, 9.15044367e-01,
          -4.42055538e-02, 6.93367198e-02, 1.16784096e+00,
          2.56438777e-02, 1.65737122e-01, -1.40553311e-01,
          1.12585276e-01, -4.80408579e-01, -7.33513474e-01,
          7.72187829e-01 ]
      - [ -1.32330969e-01, -1.66295278e+00, -9.24842775e-01,
          -2.30195546e+00, 5.63430190e-01, -5.74892938e-01,
          -2.27445030e+00, -3.28178835e+00, -2.39732361e+00,
          2.05513906e+00, -2.26274252e+00, 1.41103053e+00,
          -2.82889247e+00 ]
      - [ -1.55376092e-01, -3.51069629e-01, -5.87285221e-01,
          -9.09346223e-01, -4.36955959e-01, 1.53326631e+00,
          -9.30294871e-01, -2.35102028e-01, 8.92580822e-02,
          -2.63224602e-01, 1.13345325e-01, 5.64670801e-01,
          -2.94159651e-01 ]
      - [ -1.32953852e-01, -9.02901828e-01, 2.01514199e-01,
          -1.08279681e+00, 8.35617259e-02, -1.87610626e+00,
          -1.05730617e+00, -6.89219713e-01, -4.85570461e-01,
          2.90685911e-02, -6.74420476e-01, 3.61470461e-01,
          -1.46326631e-01 ]
      - [ -1.57309011e-01, 1.16694760e+00, -3.71389556e+00,
          -9.93443191e-01, -8.73096526e-01, 2.81351119e-01,
          -1.17760777e+00, -7.00790465e-01, 6.99915826e-01,
          -6.11328125e-01, 1.26151156e+00, 2.57179356e+00,
          -4.28235626e+00 ]
      - [ -1.56561315e-01, -6.60373092e-01, 5.81278563e-01,
          -3.98571998e-01, -2.17933849e-01, 3.42339456e-01,
          -3.55068982e-01, 3.88633192e-01, -1.56522959e-01,
          2.10238889e-01, -8.01615238e-01, -1.33643520e+00,
          1.01338100e+00 ]
      - [ -1.60923883e-01, -4.78083163e-01, -5.06653905e-01,
          -9.99240577e-01, -7.97033787e-01, -4.76835072e-01,
          -1.01265836e+00, -3.64634804e-02, 5.08746088e-01,
          -3.15313458e-01, 1.31771326e-01, 9.33429599e-01,
          -6.28480494e-01 ]
      - [ -1.51589602e-01, -6.32116020e-01, 8.35651159e-01,
          -2.18025483e-02, -2.59532750e-01, -8.00436497e-01,
          4.25712243e-02, 9.39189717e-02, 6.39857054e-02,
          -5.25883026e-02, -1.39858872e-01, -2.16003999e-01,
          4.36436236e-01 ]
      - [ -1.61220387e-01, -1.41730994e-01, -1.33062959e-01,
          -3.62306565e-01, -7.92280138e-01, 8.34787071e-01,
          -3.70459974e-01, 4.91369247e-01, 7.00061738e-01,
          -4.71486241e-01, 4.19101477e-01, 4.92569447e-01,
          -3.84059399e-02 ]
      - [ -1.60062030e-01, -5.19643664e-01, -3.52243781e-01,
          -9.64144707e-01, -6.92060411e-01, 3.71627182e-01,
          -9.71021593e-01, -4.96779643e-02, 3.43067169e-01,
          -2.58895814e-01, 1.45113682e-02, 5.92982292e-01,
          -2.38505021e-01 ]
      - [ -1.44108310e-01, 1.79567122e+00, -1.98228347e+00,
          1.26975730e-01, -5.35958588e-01, 6.75537586e-01,
          -5.17825559e-02, 1.98926315e-01, 8.30840111e-01,
          -7.08315790e-01, 1.55592763e+00, 1.69213498e+00,
          -2.05926514e+00 ]
      - [ -1.57492846e-01, 1.90342581e+00, -2.64813185e+00,
          -1.62258953e-01, -4.51868862e-01, 1.07764411e+00,
          -3.70503902e-01, 2.60295212e-01, 5.68295836e-01,
          -4.50389981e-01, 8.23504329e-01, 5.69884479e-01,
          -2.58377254e-01 ]
      - [ -1.18934289e-01, 6.87186062e-01, -1.34669459e+00,
          -3.55232745e-01, -8.11151862e-01, 4.81600203e-02,
          -4.49161619e-01, -1.09160364e-01, 8.49402666e-01,
          -7.41981566e-01, 1.15814841e+00, 2.00428510e+00,
          -2.59944725e+00 ]
      - [ -1.53992400e-01, -1.11000574e+00, 6.04038179e-01,
          -1.10194290e+00, -2.01748922e-01, 9.63895798e-01,
          -1.05611956e+00, -5.80177903e-01, -6.34458601e-01,
          3.14915180e-01, -1.18484282e+00, -4.42058682e-01,
          4.98944640e-01 ]
      - [ 2.86162078e-01, 5.14966212e-02, 8.14135373e-01, 1.17512751e+00,
          6.45257056e-01, -8.60302508e-01, 1.24403322e+00,
          2.81904668e-01, 1.36585295e-01, -3.73097658e-01,
          5.15381157e-01, -7.37298653e-02, 3.80392879e-01 ]
      - [ -3.67351025e-02, -9.13120247e-03, 7.90808052e-02,
          1.13802431e-02, -1.09314859e-01, 4.53827977e-02,
          1.30492309e-02, -1.01498075e-01, 2.05121517e-01,
          -4.36474919e-01, 5.08320570e-01, 7.65612960e-01,
          -5.92695415e-01 ]
      - [ -1.38757557e-01, 1.18180728e+00, -1.80024549e-01,
          1.17707980e+00, 6.56349421e-01, 9.56001580e-01, 1.12853599e+00,
          6.66335821e-01, 1.11742340e-01, -5.46327196e-02,
          2.02399582e-01, -1.07514417e+00, 9.48840857e-01 ]
      - [ -1.61601439e-01, -4.66306746e-01, -5.96124053e-01,
          -1.04215097e+00, -9.17955995e-01, -4.30360794e-01,
          -1.05950546e+00, -3.84022444e-01, 4.18067724e-01,
          -3.09500694e-01, 2.09171548e-01, 1.61360252e+00,
          -1.84793293e+00 ]
      - [ -1.63739011e-01, 4.55566704e-01, -5.40350258e-01,
          -4.19041067e-02, -1.04851389e+00, 1.30860358e-01,
          -9.19394866e-02, 7.05615878e-01, 1.23191953e+00,
          -6.22850955e-01, 8.47531319e-01, 1.05984426e+00,
          -5.91160476e-01 ]
      - [ -1.52128190e-01, -6.81831002e-01, -1.30553949e+00,
          -1.48886406e+00, -3.08590055e-01, 1.84392238e+00,
          -1.51203024e+00, -1.14951539e+00, -8.59526277e-01,
          1.75094396e-01, -8.81186783e-01, 2.55224288e-01,
          -2.10241541e-01 ]
      - [ -1.45921394e-01, -1.94552153e-01, -1.23100495e+00,
          -1.06788123e+00, -1.22619964e-01, -5.57283819e-01,
          -1.11512923e+00, -1.09632659e+00, -4.91012156e-01,
          1.37312561e-01, -3.20259146e-02, 1.11913681e+00,
          -1.31381607e+00 ]
      - [ -1.65617973e-01, 1.62538052e+00, -4.19413567e+00,
          -9.01349366e-01, -1.51514804e+00, -1.00295670e-01,
          -1.12737954e+00, -1.13444954e-01, 1.61698151e+00,
          -9.36011910e-01, 1.80759978e+00, 3.08949637e+00,
          -5.93521976e+00 ]
      - [ 1.30541930e-02, -8.57060492e-01, 1.41218674e+00,
          6.05875790e-01, 6.68896496e-01, -8.97689879e-01,
          7.33314157e-01, 2.05326259e-01, -3.16046476e-01,
          5.06144017e-02, -5.68229377e-01, -1.05993974e+00,
          9.17651296e-01 ]
      - [ -1.61956683e-01, -7.80567586e-01, 5.41265965e-01,
          -6.39275372e-01, -7.55304217e-01, -4.91777688e-01,
          -5.98481238e-01, 2.90858954e-01, 4.76206332e-01,
          -1.01197951e-01, -3.80353451e-01, 2.03390315e-01,
          1.48175746e-01 ]
      - [ -1.34533778e-01, 3.37188423e-01, 1.25479567e+00,
          3.09981012e+00, 6.19612150e-02, 5.26829243e-01, 3.26062942e+00,
          1.10029781e+00, 3.72455269e-01, -2.81368792e-01,
          3.76209676e-01, -1.24891067e+00, 1.01815093e+00 ]
      - [ -1.57388270e-01, -1.74730018e-01, 1.05139472e-01,
          -1.76924527e-01, -6.21270537e-01, 2.56284446e-01,
          -1.69930190e-01, 4.18892652e-01, 6.05568588e-01,
          -3.85362774e-01, 3.70825380e-01, 4.78091210e-01,
          -5.19942269e-02 ]
      - [ -1.48302540e-01, -5.52665055e-01, 3.33434969e-01,
          -4.81245428e-01, 3.52020413e-01, 3.87432933e-01,
          -4.54170555e-01, -7.10363507e-01, -8.45796943e-01,
          5.33907473e-01, -8.63921821e-01, -3.48656029e-01,
          4.00068611e-01 ]
      - [ -1.56867519e-01, -1.09051108e+00, 5.05168140e-01,
          -1.15497231e+00, -3.06710899e-01, -1.36339140e+00,
          -1.11452794e+00, -4.25917029e-01, -2.11987928e-01,
          4.77881849e-01, -7.79968441e-01, 2.57568538e-01,
          -4.07239161e-02 ]
      - [ -1.63039938e-01, -2.79457122e-01, 2.47095227e-01,
          -1.95553660e-01, -8.89892817e-01, 1.69025645e-01,
          -1.78843066e-01, 7.46428967e-01, 9.67475891e-01,
          -5.02047837e-01, 3.93235147e-01, 4.09479320e-01,
          1.70384124e-01 ]
      - [ -1.16509117e-01, -1.80535957e-01, 8.09064984e-01,
          7.48585165e-01, -3.75183880e-01, -2.83292323e-01,
          8.14671159e-01, 9.74356830e-01, 7.93439925e-01,
          -5.17333448e-01, 4.33528751e-01, -6.66716322e-02,
          5.01838446e-01 ]
      - [ -1.61111206e-01, 5.70468642e-02, -1.30418885e+00,
          -8.85640264e-01, -7.84038901e-01, -3.78525585e-01,
          -9.47542369e-01, -4.54310030e-02, 6.24801755e-01,
          -4.03369069e-01, 5.21696806e-01, 1.38865113e+00,
          -1.37748933e+00 ]
      - [ -1.44383386e-01, -5.54685295e-03, 1.07818842e+00,
          1.71915197e+00, -1.50123462e-01, 4.98540670e-01,
          1.82837093e+00, 1.13688684e+00, 6.05339348e-01,
          -4.21520442e-01, 3.63638341e-01, -9.30563867e-01,
          9.40667510e-01 ]
      - [ -1.59085304e-01, -2.71405280e-01, -9.46057677e-01,
          -1.02202022e+00, -6.23656213e-01, 1.52614713e+00,
          -1.05837584e+00, -5.75654507e-01, 3.15972567e-01,
          -3.58908176e-01, 2.47175917e-01, 1.89153826e+00,
          -2.36694193e+00 ]
      - [ 9.79332998e-02, -7.39127457e-01, -1.16859066e+00,
          -1.51642275e+00, 5.77595532e-01, -2.38811922e+00,
          -1.53537059e+00, -1.97567952e+00, -1.10433698e+00,
          3.89761627e-01, -3.44787717e-01, 1.75207675e+00,
          -2.85436749e+00 ]
      - [ -1.34221971e-01, -9.05703187e-01, 1.19921303e+00,
          1.37678673e-02, 1.36110723e-01, -4.05070372e-02,
          1.08847573e-01, 1.93931803e-01, -1.05826639e-01,
          -1.47671103e-02, -5.45114219e-01, -5.81454217e-01,
          6.86421394e-01 ]
      - [ -9.83801112e-02, 1.45880675e+00, -2.01076436e+00,
          -8.82065669e-02, 8.17384839e-01, 2.02056336e+00,
          -2.45523274e-01, -6.27910018e-01, -9.33135152e-01,
          1.74339950e-01, -3.09859931e-01, -5.65018713e-01,
          4.94300485e-01 ]
      - [ -1.58161491e-01, 1.52707353e-01, -1.10787678e+00,
          -7.02146828e-01, -5.78200758e-01, 7.35425413e-01,
          -7.62403429e-01, 1.57917757e-02, 3.48245353e-01,
          -3.40835243e-01, 2.94787377e-01, 7.34767616e-01,
          -4.97720301e-01 ]
      - [ -1.46473929e-01, -1.40991974e+00, -1.15709342e-01,
          -1.87467253e+00, 2.17436329e-01, 1.07222116e+00,
          -1.84648550e+00, -1.62010252e+00, -1.46264279e+00,
          9.00355697e-01, -1.75292206e+00, -1.90901935e-01,
          4.85908836e-02 ]
      - [ -1.60811678e-01, 5.59843004e-01, -1.03134251e+00,
          -2.99062490e-01, -6.65342391e-01, 1.43232810e+00,
          -3.76195669e-01, 2.59558052e-01, 7.57397830e-01,
          -5.38801193e-01, 8.22779238e-01, 1.17882657e+00,
          -9.27682102e-01 ]
      - [ -1.58137217e-01, 1.37592494e-01, -1.07640016e+00,
          -7.00641334e-01, -7.17452049e-01, 1.40351379e+00,
          -7.59230614e-01, -1.21441737e-01, 4.69882935e-01,
          -4.89270389e-01, 6.12493157e-01, 1.07958698e+00,
          -8.77946794e-01 ]
      - [ -1.23490430e-01, -1.78652883e+00, 1.99494445e+00,
          -1.16837430e+00, 1.34942651e+00, 1.63822126e+00,
          -1.05637836e+00, -5.34261584e-01, -2.45794106e+00,
          3.30061197e+00, -4.28698874e+00, -4.94232559e+00,
          1.48619533e+00 ]
      - [ -1.42003775e-01, -1.38725257e+00, 1.81174111e+00,
          7.58834928e-02, 2.09522247e-01, -7.08224416e-01,
          2.24978521e-01, 7.05194235e-01, -3.38529408e-01,
          6.24447405e-01, -1.50084019e+00, -2.24307632e+00,
          1.26911867e+00 ]
      - [ -1.54911026e-01, -7.41627038e-01, 8.54602873e-01,
          -2.02187270e-01, -3.79886538e-01, -5.57194352e-01,
          -1.37821794e-01, 6.15176737e-01, 2.82350570e-01,
          -6.58981800e-02, -3.58513087e-01, -6.40632391e-01,
          7.33198702e-01 ]
      - [ -1.58995345e-01, 4.46871035e-02, 9.15631711e-01,
          1.38395262e+00, -4.48603094e-01, 4.13287520e-01,
          1.46676338e+00, 1.20686471e+00, 8.62763226e-01,
          -3.59160662e-01, 3.64774615e-01, -6.63799286e-01,
          8.71689081e-01 ]
      - [ -2.26837285e-02, -1.45733070e+00, 8.59638214e-01,
          -1.52842665e+00, 9.52918649e-01, -3.20987105e+00,
          -1.47342682e+00, -1.34814084e+00, -1.73007011e+00,
          9.47555184e-01, -2.22685456e+00, -1.07437348e+00,
          6.46786690e-01 ]
      - [ -1.54193684e-01, -1.01088417e+00, 4.26556230e-01,
          -1.09113133e+00, -1.13369107e-01, 1.76462367e-01,
          -1.05493510e+00, -2.17687756e-01, -3.71986300e-01,
          4.55963105e-01, -1.07259941e+00, -5.11652291e-01,
          5.22944868e-01 ]
      - [ -1.49191111e-01, -9.81171668e-01, 5.04675210e-01,
          -9.71788168e-01, 1.75128207e-01, -1.00401378e+00,
          -9.31140721e-01, -5.88351965e-01, -5.73314071e-01,
          3.30311030e-01, -8.77548397e-01, -2.61550725e-01,
          3.51761997e-01 ]
      - [ -1.56167597e-01, 1.74115515e+00, -1.28298020e+00,
          5.59859991e-01, -5.29575527e-01, 7.78772593e-01,
          4.14128572e-01, 6.36672080e-01, 1.01899695e+00,
          -6.98601902e-01, 1.30502081e+00, 8.89282823e-01,
          -4.41109061e-01 ]
      - [ -1.55841351e-01, 6.72205567e-01, -6.38736963e-01,
          9.15907621e-02, -2.70757347e-01, 8.66749227e-01,
          2.74572186e-02, 6.06086887e-02, -1.53364325e-02,
          -1.30682781e-01, 2.39647448e-01, 1.02884695e-01,
          1.08572818e-01 ]
      - [ -1.61898732e-01, -2.02016786e-01, 5.71126938e-01,
          3.15149456e-01, -8.75666678e-01, -1.24864429e-01,
          3.56078804e-01, 1.03889310e+00, 1.06407571e+00,
          -5.26611388e-01, 4.25971448e-01, 2.47773081e-01,
          2.97752231e-01 ]
      - [ 1.57172859e-01, 1.09833825e+00, -4.56294686e-01,
          7.61198103e-01, 3.07244986e-01, 1.26538143e-01, 6.95054948e-01,
          -5.65716438e-03, 1.97673261e-01, -5.41482866e-01,
          1.09487772e+00, 8.39835942e-01, -7.49365747e-01 ]
      - [ -1.06731215e-02, -1.15001202e+00, 1.57105815e+00,
          1.87006459e-01, 5.83293676e-01, -9.06118453e-01,
          3.18446577e-01, 1.06858253e-01, -4.47798431e-01,
          2.62628376e-01, -8.87899220e-01, -1.33004904e+00,
          9.93547440e-01 ]
      - [ -1.56284377e-01, -1.05170882e+00, -3.30450982e-01,
          -1.54703426e+00, -5.68131566e-01, 1.15586412e+00,
          -1.53540242e+00, -9.15663958e-01, -3.22009206e-01,
          -3.73203009e-02, -6.02887630e-01, 9.65746939e-01,
          -8.98554087e-01 ]
      - [ -1.51359186e-01, -1.02876306e-01, -6.29169270e-02,
          -2.55136043e-01, -1.71301842e-01, 1.37141967e+00,
          -2.60558397e-01, 2.57048100e-01, 2.31097668e-01,
          -2.16694131e-01, 1.62893072e-01, -1.98918909e-01,
          4.67278570e-01 ]
      - [ -1.55182511e-01, -9.39059079e-01, -3.67722005e-01,
          -1.42523241e+00, -4.38814193e-01, 1.14992309e+00,
          -1.41762090e+00, -1.11158085e+00, -3.31912249e-01,
          -6.00555129e-02, -4.06432539e-01, 1.38805163e+00,
          -1.57738125e+00 ]
      - [ -1.62211210e-01, -1.01762629e+00, 1.26405525e+00,
          -1.31317481e-01, -7.59516954e-01, -7.59287715e-01,
          -3.37644294e-02, 6.72114134e-01, 5.45427263e-01,
          -1.11859977e-01, -5.76979816e-01, -3.44663829e-01,
          5.97575665e-01 ]
      - [ -1.06441259e-01, -1.37340462e+00, 1.53029108e+00,
          -5.74946404e-01, 1.15210152e+00, -8.95781517e-01,
          -4.68421131e-01, -7.95700371e-01, -1.58759105e+00,
          1.35932946e+00, -1.88303852e+00, -1.75825357e+00,
          1.01278782e+00 ]
      - [ 3.99066001e-01, 8.94168377e-01, -1.62698850e-01,
          8.51156175e-01, 6.39017165e-01, -9.54989016e-01,
          8.11935306e-01, -1.13240123e-01, 1.15465984e-01,
          -3.64720017e-01, 1.01976860e+00, 7.62328327e-01,
          -6.59335852e-01 ]
      - [ -1.55137241e-01, -1.02009904e+00, 3.92507702e-01,
          -1.11703825e+00, -4.20343161e-01, -1.20799303e+00,
          -1.08152080e+00, -6.64242208e-01, -2.26173386e-01,
          2.25891903e-01, -5.34300804e-01, 7.18134880e-01,
          -5.13288140e-01 ]
      - [ -1.50001198e-01, 4.97994525e-03, 8.79010379e-01,
          1.22618043e+00, -4.13119614e-01, 7.30300367e-01,
          1.30315101e+00, 1.14991927e+00, 6.94786966e-01,
          -3.84894133e-01, 3.78567427e-01, -6.18694484e-01,
          8.34508657e-01 ]
      - [ -1.20346628e-01, 4.71235752e-01, -5.39663397e-02,
          4.84082669e-01, -6.11261308e-01, -4.92917925e-01,
          4.65657234e-01, 5.62922537e-01, 8.33404422e-01,
          -5.91004431e-01, 8.90732050e-01, 7.01796949e-01,
          -3.81487370e-01 ]
      - [ -1.57270804e-01, 4.17769969e-01, 5.61559379e-01,
          1.29558408e+00, -4.92661238e-01, -9.69636589e-02,
          1.33400309e+00, 9.46762025e-01, 8.81863117e-01,
          -4.63741809e-01, 6.87549591e-01, -1.09514423e-01,
          5.46525061e-01 ]
      - [ -1.53064698e-01, 8.98954272e-01, -1.09476745e+00,
          -8.99735373e-03, -5.46624184e-01, 8.68329942e-01,
          -1.03073575e-01, 4.46122050e-01, 5.86066902e-01,
          -4.91068155e-01, 7.64456630e-01, 3.57391179e-01,
          2.14442257e-02 ]
      - [ -8.21371749e-02, 9.83604372e-01, -5.77942133e-01,
          4.70883489e-01, 1.84769168e-01, -1.04487014e+00,
          3.98328245e-01, 3.45089704e-01, 4.03014213e-01,
          -3.99153560e-01, 7.66581476e-01, -1.34670228e-01,
          4.44309682e-01 ]
      - [ -1.63532794e-01, 3.78572017e-01, 2.88605571e-01,
          7.71719933e-01, -8.92299831e-01, -2.54244715e-01,
          7.81110525e-01, 1.18581462e+00, 1.31146395e+00,
          -5.90558052e-01, 7.76160359e-01, 2.71344960e-01,
          3.38648051e-01 ]
      - [ 1.65250152e-01, 4.03667063e-01, 4.24403340e-01, 1.02020490e+00,
          1.27977002e+00, -1.70814788e+00, 1.04268813e+00,
          -4.51758146e-01, -7.20681429e-01, -8.20996016e-02,
          4.03605551e-01, -2.70595580e-01, 3.30931783e-01 ]
      - [ -1.50572479e-01, -1.38458812e+00, 9.97178614e-01,
          -1.26577151e+00, 2.21080661e-01, -8.09823990e-01,
          -1.20173979e+00, -6.00943983e-01, -9.13908780e-01,
          1.09196091e+00, -1.68291402e+00, -1.04029191e+00,
          7.75670469e-01 ]
      - [ -1.55950755e-01, -1.34446669e+00, -9.89115059e-01,
          -2.02351427e+00, -5.52824318e-01, -9.01806831e-01,
          -2.01154160e+00, -2.02304578e+00, -8.16148996e-01,
          4.70781177e-01, -1.12998867e+00, 2.07716084e+00,
          -3.90601015e+00 ]
      - [ -1.56696200e-01, 7.29496062e-01, -9.57201242e-01,
          -8.39339271e-02, -3.00600410e-01, 3.54882516e-02,
          -1.65119037e-01, 3.25502783e-01, 4.91488427e-01,
          -4.07508016e-01, 6.24182045e-01, 4.24020022e-01,
          -6.91305250e-02 ]
      - [ -1.49590358e-01, 1.42930582e-01, -5.91687500e-01,
          -3.97171259e-01, -7.43973196e-01, -7.46079445e-01,
          -4.37137961e-01, 5.19757032e-01, 7.93574989e-01,
          -4.58354801e-01, 5.34703553e-01, 6.30875945e-01,
          -2.56170213e-01 ]
      - [ 1.48093033e+01, 2.57627296e+00, -1.25649416e+00,
          1.25362241e+00, 9.15989876e+00, -3.22251868e+00,
          1.06486595e+00, -7.83540201e+00, -7.03228569e+00,
          1.06711149e+01, -2.82310247e+00, -1.25130177e+00,
          -7.79833555e-01 ]
      - [ -1.57995224e-01, -3.35713863e-01, 6.01057112e-01,
          1.57169119e-01, -5.09837568e-01, 2.52548486e-01,
          2.02021807e-01, 7.75195122e-01, 4.95358437e-01,
          -2.85224229e-01, 1.29492700e-01, -3.91799003e-01,
          6.07060909e-01 ]
      - [ -1.56003773e-01, -3.62182140e-01, -9.48488176e-01,
          -1.08154404e+00, -3.27929258e-01, 6.25940263e-01,
          -1.11221886e+00, -7.19546974e-01, -2.71111369e-01,
          3.39243561e-02, -1.47220969e-01, 7.76510239e-01,
          -7.18092382e-01 ]
      - [ -1.44551605e-01, -5.11298478e-01, 1.79781228e-01,
          -5.70464194e-01, -3.02962661e-01, -1.61263883e+00,
          -5.53330421e-01, 1.76592633e-01, 3.08814675e-01,
          -1.09053373e-01, -2.05386784e-02, 3.49721938e-01,
          2.23416071e-02 ]
      - [ -1.56156078e-01, -6.34604216e-01, -2.50149295e-02,
          -8.86559367e-01, -2.71079928e-01, 6.01464212e-01,
          -8.76575232e-01, -3.77450496e-01, -2.81411558e-01,
          1.78739145e-01, -4.38727587e-01, 2.17903703e-01,
          1.95821188e-03 ]
      - [ -1.15151405e-01, -1.20077884e+00, 3.22325081e-01,
          -1.43181133e+00, 1.35101557e+00, -1.35306084e+00,
          -1.39739192e+00, -1.94652319e+00, -1.91632712e+00,
          1.81358945e+00, -1.54179931e+00, 2.75660120e-02,
          -2.63553947e-01 ]
      - [ -1.38846770e-01, -2.16565356e-01, 1.15419471e+00,
          1.46065390e+00, -1.17577016e-01, 4.03323591e-01,
          1.57548690e+00, 1.08520114e+00, 5.12264490e-01,
          -2.90796816e-01, 1.61996007e-01, -1.02818596e+00,
          9.84323561e-01 ]
      - [ -1.50984421e-01, -8.61615062e-01, -2.18489021e-01,
          -1.26257980e+00, -9.89471599e-02, 8.44542801e-01,
          -1.25274515e+00, -7.34751821e-01, -5.65175712e-01,
          2.87306696e-01, -8.89421940e-01, 1.69106752e-01,
          -5.39533347e-02 ]
      - [ -1.58909783e-01, 2.16366619e-01, -2.55594075e-01,
          -4.17763852e-02, -7.93526888e-01, 1.21486998e+00,
          -6.69225231e-02, 5.24952412e-01, 7.94724584e-01,
          -5.48840523e-01, 6.89609468e-01, 7.13059425e-01,
          -4.17748779e-01 ]
      - [ -1.51118338e-01, -1.32156944e+00, -1.08370759e-01,
          -1.77274060e+00, 2.09975839e-01, 6.89215481e-01,
          -1.74730194e+00, -1.17856848e+00, -1.08635819e+00,
          8.86568546e-01, -1.71971440e+00, -3.51611167e-01,
          3.10356557e-01 ]
      - [ -3.24106142e-02, -3.92923236e-01, 1.21749282e+00,
          1.23245680e+00, -6.56853914e-02, 8.08480978e-02,
          1.35121334e+00, 8.69646192e-01, 5.91603756e-01,
          -4.74265903e-01, 2.67513245e-01, -3.85104865e-01,
          6.90584838e-01 ]
      - [ -1.26050726e-01, -1.04613192e-01, 4.28957641e-01,
          2.81960368e-01, 4.87610638e-01, 1.26057684e+00, 3.10660571e-01,
          -5.29502690e-01, -7.77698338e-01, 1.73804253e-01,
          -4.11794513e-01, -3.98093641e-01, 3.78930837e-01 ]
      - [ -1.38814449e-01, -1.56008124e-01, -5.25253564e-02,
          -3.09372365e-01, -4.01705533e-01, 1.42240465e-01,
          -3.12695503e-01, 2.29325742e-01, 4.52775508e-01,
          -4.68447477e-01, 4.33726937e-01, 7.68250942e-01,
          -4.41141456e-01 ]
      - [ -1.60111532e-01, -1.06675792e+00, 2.71351516e-01,
          -1.26760399e+00, -6.37092292e-01, -1.00662060e-01,
          -1.23674810e+00, -2.11873323e-01, 2.49696784e-02,
          -1.00278137e-02, -6.26415610e-01, 2.28707582e-01,
          9.18747783e-02 ]
      - [ -1.52749911e-01, -7.12369084e-01, 1.13734078e+00,
          3.24480087e-01, -1.35278285e-01, 4.36195254e-01,
          4.19085026e-01, 8.53687823e-01, 2.73730844e-01, 1.83158964e-02,
          -4.87936556e-01, -1.11018562e+00, 9.67936277e-01 ]
      - [ 8.40958953e-01, -8.02949369e-01, 6.57125890e-01,
          -5.50596178e-01, 1.76239502e+00, -2.60967469e+00,
          -5.01869857e-01, -1.44014299e+00, -1.30903780e+00,
          7.40092814e-01, -6.17754042e-01, -6.75654178e-03,
          -2.01405719e-01 ]
      - [ -1.55693099e-01, 6.11012697e-01, -3.31154875e-02,
          6.51336610e-01, -3.63610238e-01, 2.62878060e-01,
          6.28941417e-01, 8.89203012e-01, 5.98340750e-01,
          -3.29714298e-01, 6.67089283e-01, -2.87041187e-01,
          5.39974153e-01 ]
      - [ -1.60856381e-01, -3.27529371e-01, 8.10962260e-01,
          4.77478027e-01, -8.80131006e-01, -1.65538006e-02,
          5.41721344e-01, 1.07763135e+00, 1.06292379e+00,
          -4.71500158e-01, 2.93105543e-01, 1.38773695e-01,
          3.81311953e-01 ]
      - [ -9.41671133e-02, 6.98378444e-01, 2.36709446e-01,
          1.14305639e+00, -4.22275811e-02, -8.48157883e-01,
          1.14264786e+00, 7.43673861e-01, 6.34138405e-01,
          -6.04607046e-01, 9.94596660e-01, 2.41793305e-01,
          1.81800395e-01 ]
      - [ -9.08358395e-02, -2.03452334e-01, 3.86973023e-01,
          8.67717117e-02, 4.36524719e-01, -1.38350344e+00,
          1.13418013e-01, 3.54354121e-02, -3.06514621e-01,
          1.59863293e-01, -2.87824243e-01, -6.95009291e-01,
          6.58347249e-01 ]
      - [ -1.46074876e-01, 7.39573240e-02, 4.08794552e-01,
          5.26393831e-01, -2.57790327e-01, -4.65708405e-01,
          5.51966429e-01, 8.79745364e-01, 5.28582036e-01,
          -2.26381809e-01, 1.55211776e-01, -6.10788465e-01,
          7.61377692e-01 ]
      - [ -1.48029551e-01, -7.69298673e-02, 9.53938544e-01,
          1.24355471e+00, -1.78067282e-01, -2.24835183e-02,
          1.33014345e+00, 8.88285816e-01, 5.73353827e-01,
          -2.43178755e-01, 1.68144971e-01, -6.72145069e-01,
          8.39169204e-01 ]
      - [ -1.33355618e-01, -1.04860210e+00, 3.54196250e-01,
          -1.18934309e+00, 6.30937696e-01, 1.82800496e+00,
          -1.15543008e+00, -9.23155546e-01, -9.95865226e-01,
          4.07240659e-01, -9.51975644e-01, -4.62674797e-01,
          4.54229981e-01 ]
      - [ -1.55106962e-01, 4.09373343e-01, -5.65781415e-01,
          -1.00743778e-01, -2.74004698e-01, 1.26705658e+00,
          -1.49692580e-01, 3.15616071e-01, 4.81918752e-01,
          -3.45724136e-01, 5.58783770e-01, 3.76669884e-01,
          3.75198722e-02 ]
      - [ -4.26526889e-02, 1.59756780e+00, -1.25114524e+00,
          4.79412436e-01, -7.02774525e-01, -5.38805902e-01,
          3.43532801e-01, 6.60181105e-01, 1.11463559e+00,
          -8.05829465e-01, 1.62707007e+00, 1.38470757e+00,
          -1.32991517e+00 ]
      - [ -1.39743432e-01, -3.17487299e-01, 5.06868541e-01,
          5.21286689e-02, 2.04416931e-01, 1.46744454e+00, 8.84474143e-02,
          1.89986169e-01, 5.74308336e-02, -1.26386046e-01,
          2.07119565e-02, -2.56990552e-01, 4.97284681e-01 ]
      - [ -1.61776260e-01, 3.19019444e-02, -4.59209859e-01,
          -4.24184203e-01, -7.59668827e-01, -7.28087544e-01,
          -4.54308987e-01, 4.53310311e-01, 7.30859637e-01,
          -3.80346745e-01, 3.10943753e-01, 4.31151479e-01,
          3.27985175e-02 ]
      - [ 1.48794632e+01, 1.86436498e+00, -6.40342295e-01,
          1.27703941e+00, 9.44407082e+00, -3.24585104e+00,
          1.16381419e+00, -7.97412491e+00, -7.43843269e+00,
          1.18648558e+01, -3.15811324e+00, -1.54022932e+00,
          -6.82962656e-01 ]
      - [ -7.03121573e-02, -1.22457504e+00, 1.10495377e+00,
          -8.30844402e-01, 3.10693145e-01, -6.64830983e-01,
          -7.55971670e-01, -6.72680855e-01, -9.44704354e-01,
          4.79370326e-01, -1.17944741e+00, -8.33251297e-01,
          6.83076262e-01 ]
      - [ -1.10869728e-01, -1.53507099e-01, 3.84370357e-01,
          1.77146390e-01, 8.57190490e-01, 8.57278854e-02, 2.04308718e-01,
          7.14662075e-02, -8.94538641e-01, 7.77118981e-01,
          -1.01727045e+00, -1.83192444e+00, 1.09312272e+00 ]
      - [ -1.54318795e-01, -9.49653149e-01, 5.26021719e-01,
          -9.07442212e-01, -2.27821916e-01, 1.24287236e+00,
          -8.66006911e-01, -5.91357565e-03, -3.93196046e-01,
          3.52327287e-01, -1.08199596e+00, -9.89084780e-01,
          8.19903076e-01 ]
      - [ -7.58143067e-02, 3.80633622e-01, 3.21749249e-03,
          4.51871723e-01, -3.47492129e-01, -1.94930017e-01,
          4.40834999e-01, 3.02682221e-01, 2.91844159e-01,
          -4.81271863e-01, 7.11947680e-01, 4.21361566e-01,
          -1.51697963e-01 ]
      - [ -1.36775792e-01, -5.41199073e-02, -3.74005258e-01,
          -4.62976038e-01, -2.85513848e-01, -4.05992955e-01,
          -4.86604422e-01, -8.31724703e-02, 2.97808170e-01,
          -3.57331932e-01, 3.55223656e-01, 8.88907731e-01,
          -6.45130575e-01 ]
      - [ -1.58821553e-01, -4.14552897e-01, -2.46433184e-01,
          -7.69811273e-01, -5.61539948e-01, -1.22619435e-01,
          -7.75338531e-01, -1.57984979e-02, 2.81823218e-01,
          -2.80588388e-01, 6.80543184e-02, 6.00839496e-01,
          -2.14765370e-01 ]
      - [ -1.60616413e-01, 8.26657116e-01, 5.48162423e-02,
          1.04121339e+00, -8.62904251e-01, -2.47330040e-01,
          1.02102566e+00, 1.24090970e+00, 1.33286345e+00,
          -6.97245896e-01, 1.13912022e+00, 3.61511201e-01,
          2.39868611e-01 ]
      - [ -5.63727617e-02, 8.97675276e-01, 8.52317214e-02,
          1.16979516e+00, 2.41184700e-02, -1.36007202e+00,
          1.15034592e+00, 6.48067892e-01, 7.03288198e-01,
          -6.36975348e-01, 1.12863612e+00, 3.96483511e-01,
          4.83935960e-02 ]
      - [ -1.22022919e-01, 3.47715676e-01, 8.65905881e-01,
          1.83058882e+00, 1.15347825e-01, -9.38557148e-01,
          1.91010439e+00, 7.58969963e-01, 4.24434751e-01,
          -3.16097289e-01, 4.99726057e-01, -4.16733086e-01,
          6.74298942e-01 ]
      - [ -8.49257410e-02, -7.04576433e-01, 8.22160780e-01,
          -1.54835060e-01, 6.03830099e-01, 3.42802137e-01,
          -9.13310945e-02, -6.03386581e-01, -8.93674016e-01,
          2.92208612e-01, -5.23681283e-01, -5.41913569e-01,
          5.06612360e-01 ]
      - [ -1.54460549e-01, -9.57338572e-01, 9.69120920e-01,
          -4.58677858e-01, -1.55091524e-01, 3.85257930e-01,
          -3.88083428e-01, 3.20588052e-01, -1.30204171e-01,
          2.39117295e-01, -8.76158893e-01, -1.11214054e+00,
          9.36791003e-01 ]
      - [ -1.51014313e-01, -1.48852909e+00, 1.31203735e+00,
          -1.21228755e+00, 1.27740845e-01, -1.11483231e-01,
          -1.13406408e+00, -5.35525084e-01, -9.86919761e-01,
          6.72912717e-01, -1.82168841e+00, -1.32471764e+00,
          9.10634518e-01 ]
      - [ -1.52474925e-01, 2.48886123e-02, -9.34851095e-02,
          -9.46856886e-02, -5.34156896e-02, 1.51757097e+00,
          -1.03258230e-01, -1.32940486e-01, -3.06090742e-01,
          -1.30100027e-02, -6.37992471e-02, -2.08402261e-01,
          2.15197295e-01 ]
      - [ -9.77615342e-02, -4.69615310e-01, 7.50760674e-01,
          1.40215591e-01, -1.08900480e-01, -1.42172658e+00,
          1.97925091e-01, 5.39886057e-01, 1.52218595e-01,
          -1.34786293e-01, -1.26879722e-01, -5.81994295e-01,
          6.42199516e-01 ]
      - [ -1.27259642e-01, -1.36485112e+00, 9.47872460e-01,
          -1.27330863e+00, 3.25457960e-01, 2.10225001e-01,
          -1.21180618e+00, -1.17620516e+00, -1.12530553e+00,
          6.98461950e-01, -1.36135268e+00, 4.41690907e-04,
          2.70508174e-02 ]
      - [ -1.49136633e-01, -6.95689082e-01, 1.19615686e+00,
          4.84504223e-01, -2.42244765e-01, -8.84639472e-02,
          5.87486863e-01, 1.07188094e+00, 3.96396995e-01,
          -1.64751783e-01, -2.69207269e-01, -1.21088290e+00,
          1.03550959e+00 ]
      - [ -1.57208890e-01, 1.58768207e-01, -9.87218142e-01,
          -6.01506054e-01, -3.50747824e-01, 1.36020625e+00,
          -6.56033099e-01, -1.88158408e-01, 5.56907766e-02,
          -2.37496793e-01, 2.14485958e-01, 4.38538164e-01,
          -1.45141408e-01 ]
      - [ -1.48147494e-01, -1.42191076e+00, 1.70003688e+00,
          -3.58725816e-01, 3.53237718e-01, 1.26262879e+00,
          -2.33490899e-01, 2.51787633e-01, -8.53185058e-01,
          7.71698773e-01, -1.77715433e+00, -2.48555899e+00,
          1.27157176e+00 ]
      - [ -1.51028350e-01, -4.15666521e-01, -9.90838587e-01,
          -1.15836596e+00, -8.36172551e-02, 2.20593643e+00,
          -1.18833220e+00, -5.68968594e-01, -3.14094990e-01,
          -9.67488438e-02, -1.49998680e-01, 1.46979168e-01,
          4.18710895e-02 ]
      - [ -1.33739531e-01, 6.89211726e-01, -6.67185962e-01,
          8.95968676e-02, -6.05954349e-01, -1.50376332e+00,
          2.35683732e-02, 5.57396829e-01, 9.23578560e-01,
          -6.86705649e-01, 1.06621611e+00, 1.07426739e+00,
          -7.93021202e-01 ]
      - [ -1.51100069e-01, 4.92276281e-01, -9.89771724e-01,
          -3.28686535e-01, -5.81460834e-01, -7.43619800e-01,
          -4.00663644e-01, 4.14496243e-01, 4.94096518e-01,
          -3.83908361e-01, 4.93013889e-01, 3.23442698e-01,
          -2.91230660e-02 ]
      - [ -1.41772345e-01, -7.27822661e-01, 5.19335389e-01,
          -5.68223178e-01, 3.26882094e-01, 1.80379903e+00,
          -5.28425336e-01, -7.62691379e-01, -8.54311049e-01,
          2.71567106e-01, -7.52162516e-01, -2.63717294e-01,
          2.55273789e-01 ]
      - [ -1.47616580e-01, 5.71021065e-03, 2.05037609e-01,
          1.90982684e-01, 4.03055847e-01, 7.69086063e-01, 2.02457905e-01,
          -1.80980146e-01, -5.64956665e-01, 3.66666257e-01,
          -3.46175104e-01, -6.14582956e-01, 5.39681792e-01 ]
      - [ -1.57057136e-01, 6.13711238e-01, 1.08748518e-01,
          8.45103443e-01, -5.77183127e-01, 5.49319573e-02,
          8.34672689e-01, 9.11924779e-01, 8.44667435e-01,
          -5.53190410e-01, 8.34460020e-01, -2.03609001e-02,
          4.64832932e-01 ]
      - [ -1.39451295e-01, 1.32904053e+00, -1.17485142e+00,
          3.10717344e-01, -3.84382159e-01, 1.22144234e+00,
          1.92108750e-01, 3.61886173e-01, 5.04150987e-01,
          -4.36650872e-01, 8.96660447e-01, 6.12719774e-01,
          -3.70420575e-01 ]
      - [ 1.69232357e+00, 5.49798131e-01, 1.06548047e+00, 2.88498616e+00,
          2.98108530e+00, 8.48001838e-02, 3.01011419e+00,
          -2.16046619e+00, -2.53638411e+00, 1.14237368e+00,
          -4.95246679e-01, -1.01015055e+00, 3.59592110e-01 ]
      - [ -1.54633179e-01, -2.71168590e-01, -1.78014398e+00,
          -1.30957365e+00, -7.41441488e-01, 4.18749079e-02,
          -1.36412585e+00, -8.34968388e-01, 2.40043804e-01,
          -4.60835487e-01, 3.95043761e-01, 1.86304998e+00,
          -2.52674317e+00 ]
      - [ -1.62138879e-01, 6.73663855e-01, -1.08635187e+00,
          -2.32925460e-01, -1.00156808e+00, 9.20185268e-01,
          -3.17718536e-01, 4.81358647e-01, 9.56212759e-01,
          -6.24371409e-01, 8.91213536e-01, 9.80521441e-01,
          -6.07710361e-01 ]
      - [ -1.49072647e-01, 9.88910437e-01, -8.49869773e-02,
          1.04740536e+00, -1.22121647e-01, 6.31325185e-01,
          1.01073170e+00, 8.91859770e-01, 6.19195521e-01,
          -4.28682625e-01, 8.09982777e-01, -1.61299303e-01,
          4.98744369e-01 ]
      - [ -1.47273421e-01, -1.22338521e+00, -7.85628855e-01,
          -1.84197152e+00, -7.42751062e-02, 1.36495614e+00,
          -1.83112085e+00, -1.64558423e+00, -1.33055377e+00,
          5.22650301e-01, -1.38608861e+00, 2.36889809e-01,
          -3.65424573e-01 ]
      - [ -1.41016385e-02, 2.02208579e-01, -3.81659657e-01,
          -1.82388321e-01, 4.54061806e-01, -1.15271115e+00,
          -2.14947760e-01, -1.23875380e-01, -9.96406525e-02,
          -2.21467599e-01, 3.55539709e-01, 1.24944888e-01,
          1.41586317e-02 ]
      - [ -1.55618921e-01, 3.85200888e-01, -8.48324597e-01,
          -3.32724065e-01, -3.92762065e-01, 1.28515530e+00,
          -3.93818527e-01, 9.87768248e-02, -1.25433534e-01,
          -1.98648572e-01, 2.06785694e-01, -1.75387695e-01,
          2.97448218e-01 ]
      - [ -1.45176992e-01, 7.50679255e-01, 1.47016207e-02,
          8.89794886e-01, -6.04080439e-01, -6.63050413e-02,
          8.67941260e-01, 1.19563770e+00, 1.17197347e+00,
          -6.73058927e-01, 1.07152939e+00, 3.42660010e-01,
          2.27909207e-01 ]
      - [ -9.09912735e-02, -7.89755762e-01, 1.23997593e+00,
          3.62571061e-01, -9.31917578e-02, -2.95992374e-01,
          4.67632800e-01, 7.49998987e-01, 2.82883674e-01,
          -1.69895485e-01, -3.25877726e-01, -9.95020866e-01,
          9.17761207e-01 ]
      - [ -1.55768856e-01, -5.46773911e-01, 3.96770462e-02,
          -7.35864937e-01, -1.50471730e-02, -1.38067052e-01,
          -7.25493610e-01, -7.90886655e-02, 2.84312596e-03,
          1.45990774e-01, -2.06725746e-01, -1.22518241e-01,
          3.87580693e-01 ]
      - [ -1.46454930e-01, 9.45734978e-03, 3.35201412e-01,
          3.18099737e-01, -2.00170591e-01, 1.40374994e+00,
          3.37218344e-01, 5.36612093e-01, 4.53761727e-01,
          -4.17506635e-01, 4.41963732e-01, -2.16982275e-01,
          4.89141345e-01 ]
      - [ -1.58376545e-01, 5.63422024e-01, -8.40166092e-01,
          -1.63201228e-01, -4.07975554e-01, 1.09382844e+00,
          -2.32120901e-01, 3.42377961e-01, 4.32488114e-01,
          -3.80697846e-01, 4.99108344e-01, 3.02456975e-01,
          7.31460527e-02 ]
      - [ -1.16481289e-01, -8.98755193e-02, -2.21235919e+00,
          -1.32203174e+00, -7.25916922e-01, -1.35571826e+00,
          -1.39622903e+00, -9.52959180e-01, 2.85236955e-01,
          -4.59262073e-01, 6.64497316e-01, 2.53255987e+00,
          -4.39698553e+00 ]
      - [ -1.62331939e-01, 8.68330598e-01, -5.53515851e-01,
          3.72338742e-01, -9.71136153e-01, -1.19818974e+00,
          3.05546552e-01, 9.72093880e-01, 1.42241263e+00,
          -7.55928755e-01, 1.20549560e+00, 1.04799497e+00,
          -5.23938894e-01 ]
      - [ -1.51295513e-01, -5.73191464e-01, -8.27962935e-01,
          -1.24281025e+00, -6.28469214e-02, 7.04430759e-01,
          -1.26172745e+00, -8.54879141e-01, -6.43377364e-01,
          2.24442571e-01, -5.49209654e-01, -7.05218017e-02,
          1.79349020e-01 ]
      - [ -1.59170225e-01, 3.97229940e-01, 7.94251040e-02,
          5.26083052e-01, -8.60561848e-01, -4.35941398e-01,
          5.18009782e-01, 1.11078477e+00, 1.23722613e+00,
          -6.69471443e-01, 8.90731990e-01, 3.73833150e-01,
          2.19502777e-01 ]
      - [ -1.44046262e-01, -1.19031823e+00, 7.71778941e-01,
          -1.10067904e+00, 1.71141937e-01, -6.63190961e-01,
          -1.04642189e+00, -4.50399369e-01, -6.35190010e-01,
          4.87663388e-01, -1.03444755e+00, -5.13690352e-01,
          5.39935470e-01 ]
      - [ -1.58110812e-01, 9.12291586e-01, -1.70623437e-01,
          8.75016868e-01, -7.78686345e-01, 1.29130387e+00,
          8.35418761e-01, 5.21052241e-01, 8.87964249e-01,
          -7.04496920e-01, 1.17953908e+00, 9.49660361e-01,
          -5.90653658e-01 ]
      - [ -1.25374496e-01, -1.20640218e+00, 1.23272324e+00,
          -6.26638114e-01, 1.32086849e+00, 6.73160076e-01,
          -5.40750802e-01, -4.44297493e-01, -1.27381766e+00,
          1.23021400e+00, -1.57966411e+00, -2.06399059e+00,
          1.15534186e+00 ]
      - [ -1.52633205e-01, -1.06728840e+00, 1.14141154e+00,
          -4.39647675e-01, -3.00321817e-01, 5.09051085e-01,
          -3.56413811e-01, 2.00831354e-01, -9.89210829e-02,
          -6.90707192e-03, -7.22535908e-01, -7.22934246e-01,
          7.46876299e-01 ]
      - [ 2.76904926e-02, 4.65333343e-01, 7.62291968e-01, 1.79778624e+00,
          7.98970044e-01, -1.07933140e+00, 1.86299443e+00,
          4.04899389e-01, -1.13932848e-01, -2.89996117e-01,
          6.25576675e-01, -4.85480696e-01, 6.11818671e-01 ]
      - [ -1.15744872e-02, -6.82005286e-02, 1.31722462e+00,
          2.37159371e+00, 1.65751815e+00, 1.04268909e+00, 2.52856112e+00,
          3.70111704e-01, -6.80644333e-01, 4.54061002e-01,
          -5.46577692e-01, -2.19742703e+00, 1.19675434e+00 ]
      - [ -5.73189072e-02, 1.85411930e+00, -1.52752161e+00,
          4.64013457e-01, -6.41786814e-01, -3.67460340e-01,
          3.00474644e-01, 5.64271688e-01, 1.13724554e+00,
          -8.49555731e-01, 1.72541702e+00, 1.63190770e+00,
          -1.69889593e+00 ]
      - [ -1.44392490e-01, -5.46586931e-01, 2.82746822e-01,
          -5.28651655e-01, -3.64893585e-01, -5.51528335e-01,
          -5.05204856e-01, 3.01381975e-01, 2.90199399e-01,
          -1.42783061e-01, -1.80394754e-01, 1.33535331e-02,
          2.49774829e-01 ]
      - [ -1.25286236e-01, 9.58094597e-02, -4.05823648e-01,
          -2.67920643e-01, -5.55627942e-01, -1.46292504e-02,
          -2.94817865e-01, 1.11006469e-01, 4.09524262e-01,
          -4.83193636e-01, 6.48628414e-01, 8.39541733e-01,
          -6.83823526e-01 ]
      - [ -1.56960204e-01, -3.89373034e-01, 5.45918345e-01,
          -3.29898205e-04, -2.63078332e-01, 8.13129961e-01,
          4.01511453e-02, 7.11587906e-01, 2.48508245e-01, 6.23066276e-02,
          -5.13933778e-01, -1.08172238e+00, 9.73577023e-01 ]
      - [ -1.47055492e-01, -1.12559271e+00, -3.70557576e-01,
          -1.63041079e+00, 3.49490017e-01, 1.86073756e+00,
          -1.61636269e+00, -1.11590803e+00, -1.19558716e+00,
          7.82288909e-01, -1.72482884e+00, -6.19599998e-01,
          4.69288945e-01 ]
      - [ -1.63474590e-01, 6.98653519e-01, -5.07682502e-01,
          2.43320331e-01, -9.69464362e-01, 1.59560233e-01,
          1.86024293e-01, 9.46837366e-01, 1.22282743e+00,
          -6.20015204e-01, 9.76226568e-01, 6.25899136e-01,
          -3.62586826e-02 ]
      - [ -1.61903650e-01, 5.17475009e-02, -7.94218123e-01,
          -6.14741683e-01, -8.25443149e-01, 5.93533456e-01,
          -6.58973038e-01, -2.46423766e-01, 5.20826817e-01,
          -4.62832272e-01, 5.89676499e-01, 1.65378475e+00,
          -2.03417277e+00 ]
      - [ -1.28037259e-01, 7.20263064e-01, 5.64486952e-03,
          8.29206944e-01, 5.09611964e-01, 1.75918150e+00, 8.06688309e-01,
          2.47128829e-01, -6.63915515e-01, 1.48083091e-01,
          -4.49691772e-01, -1.55565596e+00, 1.04579413e+00 ]
      - [ -9.15018171e-02, 2.64854014e-01, -4.22018826e-01,
          -1.48732677e-01, -2.03218535e-01, -1.63936949e+00,
          -1.85681507e-01, 2.60402262e-01, 5.48837960e-01,
          -5.58851063e-01, 7.66231179e-01, 9.93544877e-01,
          -8.17790985e-01 ]
      - [ -1.34192392e-01, -7.87763417e-01, 5.58150411e-01,
          -6.32195652e-01, 2.20721308e-03, -1.19956471e-01,
          -5.90205610e-01, -6.44632503e-02, -8.96366090e-02,
          3.00471224e-02, -3.52638841e-01, -1.15988823e-02,
          2.54656911e-01 ]
      - [ -1.30132496e-01, -1.60449004e+00, 6.90927923e-01,
          -1.86950576e+00, 8.57291698e-01, 1.45109224e+00,
          -1.82075334e+00, -2.11596727e+00, -2.14632797e+00,
          1.35989451e+00, -2.41248870e+00, -7.48098850e-01,
          4.11776841e-01 ]
      - [ -1.48951888e-01, -1.17186344e+00, 1.38002145e+00,
          -2.88604170e-01, -1.06791668e-01, -5.43278635e-01,
          -1.84947386e-01, 5.25853813e-01, -3.27209175e-01,
          7.12481141e-01, -1.35827637e+00, -1.88521409e+00,
          1.16531789e+00 ]
      - [ -8.93771648e-02, 3.87728482e-01, -5.86922467e-01,
          -1.12282939e-01, -6.15970016e-01, -5.89294016e-01,
          -1.59709513e-01, -6.17471449e-02, 4.23118711e-01,
          -5.66912353e-01, 9.01917338e-01, 1.29437184e+00,
          -1.49244046e+00 ]
      - [ 2.02681482e-01, -1.04824109e-02, 1.05954599e+00,
          1.64497936e+00, 5.81801951e-01, -4.93990630e-01,
          1.75002444e+00, 5.85209668e-01, 2.09699392e-01,
          -3.67529660e-01, 4.37552214e-01, -5.46943784e-01,
          7.06931829e-01 ]
      - [ 9.37007070e-02, 1.11642396e+00, -1.07333589e+00,
          1.85812175e-01, -1.77834377e-01, -1.00191700e+00,
          8.14261660e-02, 1.16352856e-01, 6.26562834e-01,
          -6.69463396e-01, 1.35004044e+00, 1.39271784e+00,
          -1.43612134e+00 ]
      - [ -1.55812547e-01, -5.06395847e-02, -1.87914982e-01,
          -2.85015643e-01, -1.97033823e-01, 6.79839313e-01,
          -2.97759801e-01, 2.74166197e-01, 3.04945022e-01,
          -2.69461662e-01, 2.21089378e-01, 2.78383940e-01,
          6.54388815e-02 ]
      - [ -1.61694512e-01, -2.12885156e-01, -7.31928051e-01,
          -8.54725480e-01, -8.07665288e-01, 1.11717850e-01,
          -8.86596084e-01, 2.38037318e-01, 5.31622171e-01,
          -2.84239024e-01, 1.84080988e-01, 4.44080621e-01,
          -6.74115419e-02 ]
      - [ 1.62012875e-01, 7.03594685e-01, -6.56601191e-01,
          1.77765518e-01, 1.35506237e+00, 4.12434340e-02, 1.15812764e-01,
          -1.08103228e+00, -1.35184085e+00, 5.90423048e-01,
          -4.57158357e-01, -2.20277950e-01, -1.07477671e-02 ]
      - [ -1.35807216e-01, 7.54136741e-01, -6.99675024e-01,
          1.29468575e-01, 3.01967328e-03, -5.35658360e-01,
          5.92064001e-02, 3.31838697e-01, 4.28532898e-01,
          -3.52533251e-01, 6.24792457e-01, 4.51954044e-02,
          3.00159514e-01 ]
      - [ -1.59956053e-01, -9.50246513e-01, 5.21288693e-01,
          -9.19695497e-01, -6.00127280e-01, 4.78872359e-02,
          -8.78972828e-01, 1.27464220e-01, 2.21532881e-01,
          -1.08731464e-01, -4.66918737e-01, 6.39444292e-02,
          2.72905320e-01 ]
      - [ -1.55962676e-01, -9.79817927e-01, -7.86075413e-01,
          -1.61417139e+00, -3.80931884e-01, 5.51430881e-01,
          -1.61426020e+00, -9.11105394e-01, -5.76451242e-01,
          3.24346364e-01, -1.09705532e+00, 2.81089664e-01,
          -2.37599000e-01 ]
      - [ 3.36876321e+00, -5.37781715e-01, 6.73903108e-01,
          -9.66400430e-02, 4.84548807e+00, -2.94968653e+00,
          -4.68081236e-02, -3.43731546e+00, -3.47697067e+00,
          3.64093971e+00, -1.61016870e+00, -1.27895474e+00,
          5.08210182e-01 ]
      - [ -1.48261607e-01, -9.47705209e-01, 9.72342491e-01,
          -4.32321131e-01, 7.27555007e-02, 1.77004683e+00,
          -3.61063093e-01, 1.04190171e-01, -1.98519707e-01,
          -1.51222339e-02, -6.09121978e-01, -8.78620863e-01,
          8.12428415e-01 ]
      - [ -1.64360076e-01, 1.32555795e+00, -1.28404725e+00,
          1.90322816e-01, -1.14510918e+00, -1.99837968e-01,
          6.44681230e-02, 8.20662677e-01, 1.47135043e+00,
          -7.64182210e-01, 1.37201667e+00, 1.36250818e+00,
          -9.52808022e-01 ]
      - [ 7.81968050e-03, 5.86092055e-01, 1.73719734e-01, 9.63813603e-01,
          3.61879617e-01, 7.21522391e-01, 9.63757694e-01,
          -2.22211704e-01, -3.80604535e-01, -2.54692078e-01,
          5.46641111e-01, 2.54118204e-01, -1.54331788e-01 ]
      - [ -1.49777293e-01, -5.18012583e-01, 9.87751365e-01,
          4.61582571e-01, -2.88840383e-01, 6.78437769e-01,
          5.44635057e-01, 7.78061450e-01, 3.02435368e-01,
          -2.92245507e-01, 3.84389947e-04, -7.78238297e-01,
          7.99894214e-01 ]
      - [ -1.38584301e-01, 1.24881303e+00, -6.67680621e-01,
          6.51609778e-01, -5.24376512e-01, -6.92170322e-01,
          5.62889099e-01, 8.38395536e-01, 9.86285448e-01,
          -6.63780868e-01, 1.17737246e+00, 5.48931062e-01,
          -1.02282707e-02 ]
      - [ -1.57115445e-01, 2.90203899e-01, 5.85543394e-01,
          1.13294685e+00, -4.98506695e-01, 1.87020630e-01,
          1.17435718e+00, 1.15353298e+00, 9.52059448e-01,
          -4.76116031e-01, 6.28922939e-01, -2.00515330e-01,
          5.88250399e-01 ]
      - [ 1.23714423e+00, 8.71343613e-01, -6.09679818e-01,
          3.25447500e-01, 1.85780525e+00, -1.89127421e+00,
          2.55378604e-01, -1.32458961e+00, -9.08837318e-01,
          3.89223844e-01, 6.58129990e-01, 7.92631984e-01,
          -9.04223979e-01 ]
      - [ -2.50959359e-02, 1.52306706e-01, -2.23742515e-01,
          -6.63973838e-02, 1.19689834e+00, 1.95409849e-01,
          -8.64360482e-02, -5.64522207e-01, -1.29678905e+00,
          8.10110688e-01, -1.11573052e+00, -1.47854066e+00,
          9.05840039e-01 ]
      - [ -3.50591503e-02, 5.41204333e-01, 1.83558598e-01,
          8.48773539e-01, 8.96402359e-01, -9.31716442e-01,
          8.46116781e-01, 1.81251302e-01, -1.67820990e-01,
          -6.05592057e-02, 2.51908034e-01, -5.27110875e-01,
          5.88950694e-01 ]
      - [ -1.11274473e-01, -4.81181413e-01, -3.14427316e-01,
          -8.87426734e-01, 1.82778329e-01, -6.57965302e-01,
          -8.93456161e-01, -5.12653828e-01, -5.23911655e-01,
          3.15685987e-01, -3.94336015e-01, 7.10577145e-02,
          7.63227493e-02 ]
      - [ 9.59615875e-03, 5.98507702e-01, 6.61199987e-01, 1.78472173e+00,
          1.00183523e+00, 4.09563407e-02, 1.83525181e+00, 6.20925725e-01,
          -5.56638479e-01, 2.72432357e-01, -3.16642433e-01,
          -2.21589851e+00, 1.22283947e+00 ]
      - [ -9.77593958e-02, -5.52441597e-01, 1.56397939e+00,
          1.98965633e+00, 4.12801176e-01, 6.41773760e-01, 2.17285705e+00,
          9.35965061e-01, -3.43829133e-02, -8.01200867e-02,
          -2.50245929e-01, -1.72573280e+00, 1.16802478e+00 ]
      - [ -1.44998744e-01, -3.11397910e-01, -3.40431273e-01,
          -7.02192783e-01, 2.85386980e-01, 1.02365518e+00,
          -7.14176953e-01, -8.12623501e-01, -9.59898472e-01,
          3.69509906e-01, -6.36479735e-01, -1.65317073e-01,
          1.75435349e-01 ]
      - [ -1.58097208e-01, -2.62399375e-01, 4.47643489e-01,
          6.11407533e-02, -3.93814832e-01, 8.71157050e-02,
          9.22988728e-02, 6.66209817e-01, 2.42100015e-01,
          -7.27998093e-02, -2.16090456e-01, -8.44650328e-01,
          8.52929175e-01 ]
      - [ -1.54476941e-01, -2.04427585e-01, -9.88094568e-01,
          -9.68544662e-01, -2.00216964e-01, 4.48393643e-01,
          -1.00848782e+00, -7.79630780e-01, -3.05899322e-01,
          1.09460898e-01, -1.13418289e-01, 1.00142562e+00,
          -1.09384644e+00 ]
      - [ -1.58392549e-01, -1.00289905e+00, 3.59382600e-01,
          -1.11692715e+00, -2.39524662e-01, -1.25920498e+00,
          -1.08319175e+00, -2.56302088e-01, -1.00669205e-01,
          2.90734887e-01, -7.65987217e-01, 1.47562310e-01,
          1.44948095e-01 ]
      - [ -1.46432325e-01, -1.24105260e-01, -6.51739120e-01,
          -6.87561154e-01, 1.60398006e-01, 1.24283063e+00,
          -7.18102515e-01, -1.25213170e+00, -8.35836351e-01,
          1.44891798e-01, -5.08882582e-01, 8.59055042e-01,
          -9.23858285e-01 ]
      - [ -1.01132646e-01, 7.83552229e-01, -1.18159793e-01,
          7.51754045e-01, -9.34160426e-02, -1.34977031e+00,
          7.17757523e-01, 5.84648371e-01, 6.12441897e-01,
          -5.71990013e-01, 9.22051132e-01, 2.71922141e-01,
          1.66192472e-01 ]
      - [ -1.08477265e-01, 8.34687293e-01, -2.27677727e+00,
          -6.56997800e-01, 1.66814119e-01, 1.23292792e+00,
          -7.85339534e-01, -7.39085734e-01, -8.41797829e-01,
          2.23509684e-01, -3.56561631e-01, -1.77178934e-01,
          -3.35895307e-02 ]
      - [ -1.52662024e-01, -1.12998402e+00, -8.82687390e-01,
          -1.79960978e+00, -1.28887102e-01, 3.20610613e-01,
          -1.79579747e+00, -1.21730709e+00, -5.46531558e-01,
          1.95635095e-01, -8.54955554e-01, 1.05890119e+00,
          -1.02268052e+00 ]
      - [ -1.52967155e-01, -8.80683184e-01, 2.34406441e-01,
          -1.02889669e+00, -3.61553997e-01, -8.07236493e-01,
          -1.00231087e+00, -3.59635115e-01, -7.02459365e-02,
          5.36214262e-02, -3.82591724e-01, 6.12062812e-01,
          -3.30288529e-01 ]
      - [ -2.30875053e-02, -3.43394548e-01, 2.23406013e-02,
          -4.71173078e-01, -2.28158589e-02, -1.11166716e+00,
          -4.65229660e-01, -3.95967752e-01, -6.06878102e-03,
          -2.41667658e-01, 2.72433877e-01, 9.87819195e-01,
          -1.00602937e+00 ]
      - [ -1.53955266e-01, 2.57242471e-01, 4.92948145e-01,
          9.09190774e-01, -6.22251809e-01, 2.80604124e-01,
          9.39889312e-01, 1.23950303e+00, 1.11415672e+00,
          -5.42387724e-01, 7.05821931e-01, -7.68022090e-02,
          5.39775729e-01 ]
      - [ -1.58242077e-01, 5.94126284e-01, -2.28874087e+00,
          -8.74154210e-01, -7.33229518e-01, 1.51325858e+00,
          -9.91196454e-01, -3.54216605e-01, 3.10773671e-01,
          -4.67209846e-01, 5.81520259e-01, 1.37285101e+00,
          -1.53359008e+00 ]
      - [ 6.18538558e-01, 1.77690223e-01, 7.73881793e-01, 1.31253314e+00,
          1.23544443e+00, -1.13327086e+00, 1.37699592e+00,
          -7.20032603e-02, -1.96885079e-01, -1.68144941e-01,
          4.44642276e-01, -1.11192085e-01, 3.34627181e-01 ]
      - [ -1.20305657e-01, -1.42970753e+00, 1.77570522e+00,
          -1.94388598e-01, 7.56445169e-01, -9.61595476e-01,
          -5.79573736e-02, 3.92144442e-01, -6.60928726e-01,
          8.10864925e-01, -1.68807125e+00, -2.27098250e+00,
          1.22806251e+00 ]
      - [ -1.48320869e-01, -1.03050911e+00, 1.10095632e+00,
          -4.25936997e-01, -7.84643367e-02, 1.93278503e+00,
          -3.45662415e-01, 4.28136140e-02, -2.88743198e-01,
          1.41364291e-01, -7.86801040e-01, -8.96488070e-01,
          8.26270521e-01 ]
      - [ 7.77598858e+00, 3.66197658e+00, -3.36719334e-01,
          3.69137383e+00, 6.72533751e+00, -1.61909497e+00,
          3.54373837e+00, -4.83988237e+00, -4.94003534e+00,
          5.43689871e+00, -1.32615983e+00, -1.26471448e+00,
          5.55047812e-03 ]
      - [ -1.46056190e-01, 8.32735300e-01, -1.64341617e+00,
          -4.17125493e-01, -4.50806558e-01, 1.28542328e+00,
          -5.30105412e-01, -7.36244261e-01, 1.46560624e-01,
          -5.04690945e-01, 9.13907528e-01, 1.80380023e+00,
          -2.43512154e+00 ]
      - [ -1.57430187e-01, 1.43875241e-01, 5.20943940e-01,
          7.93854773e-01, -6.10682189e-01, -2.12674811e-01,
          8.29056859e-01, 1.11451375e+00, 9.70997632e-01,
          -4.72142428e-01, 5.72262466e-01, -1.38683662e-01,
          5.33168614e-01 ]
      - [ -1.50657520e-01, -1.09169686e+00, 1.10100436e+00,
          -5.47466815e-01, 2.57750750e-01, 1.17207579e-01,
          -4.68507677e-01, 2.19111349e-02, -6.24376595e-01,
          6.49059355e-01, -1.34375012e+00, -1.37794626e+00,
          9.79248106e-01 ]
      - [ -8.65366086e-02, -1.24774301e+00, 1.42082524e+00,
          -4.22601968e-01, 3.01813394e-01, -5.39132178e-01,
          -3.19520354e-01, 5.12347221e-02, -4.45659101e-01,
          3.19942653e-01, -1.08673990e+00, -1.12953329e+00,
          8.87613237e-01 ]
      - [ -1.47929356e-01, -8.81243885e-01, 3.71907443e-01,
          -9.40294921e-01, 3.73340935e-01, 1.92958426e+00,
          -9.08051550e-01, -2.61381060e-01, -5.01846611e-01,
          2.72929490e-01, -8.10276628e-01, -8.70157301e-01,
          7.90408194e-01 ]
      - [ -1.52983725e-01, -1.38026297e+00, -2.55294681e+00,
          -2.24908042e+00, -4.80410844e-01, 1.65658593e+00,
          -2.24763894e+00, -2.65883780e+00, -1.10856283e+00,
          3.55534814e-02, -1.11404836e+00, 2.70563507e+00,
          -5.69860506e+00 ]
      - [ -1.41427591e-01, 1.58864045e+00, -5.21523774e-01,
          1.19185543e+00, 1.30582467e-01, 8.51876080e-01, 1.10192728e+00,
          6.30371749e-01, 3.06865096e-01, -2.24152103e-01,
          4.05519336e-01, -5.81440389e-01, 7.36897051e-01 ]
      - [ -1.61748335e-01, 1.35573018e+00, -1.29939818e+00,
          2.11781740e-01, -8.74429882e-01, -5.85842431e-01,
          8.41446817e-02, 7.62194097e-01, 1.33940244e+00,
          -7.45387495e-01, 1.35025001e+00, 1.13702095e+00,
          -7.86903799e-01 ]
      - [ -1.05214216e-01, -5.68346605e-02, 8.25648963e-01,
          1.00025749e+00, 3.03827852e-01, -4.35247183e-01,
          1.06938076e+00, 8.09656858e-01, 1.83463067e-01,
          -1.52596146e-01, -7.87189603e-02, -1.14398539e+00,
          9.81169283e-01 ]
      - [ -1.48150846e-01, -5.92221320e-01, 5.78391135e-01,
          -2.95457095e-01, 8.91077444e-02, 1.62458956e+00,
          -2.52526730e-01, 8.11709613e-02, 1.23171136e-02,
          -1.22774869e-01, -2.29404464e-01, -1.30884960e-01,
          4.23795104e-01 ]
      - [ 1.28451273e-01, 1.50046885e+00, -1.74350822e+00,
          2.81884037e-02, 4.85367894e-01, -1.06148171e+00,
          -1.26106337e-01, -4.37698066e-01, -7.51667395e-02,
          -3.26773018e-01, 9.88542199e-01, 9.88592923e-01,
          -1.17445564e+00 ]
      - [ -1.60922840e-01, -1.97957397e-01, 5.22575676e-01,
          2.52779424e-01, -6.75553203e-01, 5.96530676e-01,
          2.89345026e-01, 9.79477942e-01, 8.29444349e-01,
          -3.51301938e-01, 1.63784832e-01, -4.04563963e-01,
          7.36298919e-01 ]
      - [ -1.60851225e-01, 8.41880858e-01, -4.71246928e-01,
          4.20084298e-01, -8.90062451e-01, -9.70284760e-01,
          3.59060645e-01, 9.45177436e-01, 1.35803628e+00,
          -7.15960801e-01, 1.17128813e+00, 9.68390763e-01,
          -4.18338239e-01 ]
      - [ -1.08812816e-01, -7.89273381e-01, 1.44150949e+00,
          8.75971258e-01, 1.11027861e+00, 1.41430438e+00, 1.01342714e+00,
          1.21807694e-01, -6.30915642e-01, 3.53136957e-01,
          -6.63141429e-01, -1.58597803e+00, 1.05274260e+00 ]
      - [ -1.47792369e-01, 5.02786875e-01, -3.76986289e+00,
          -1.28240550e+00, -5.34546793e-01, 1.58429003e+00,
          -1.41574621e+00, -2.00504136e+00, -7.32701182e-01,
          -1.53731629e-01, 2.55687356e-01, 2.33654809e+00,
          -4.81748867e+00 ]
      - [ -1.23189203e-01, 9.73454416e-01, -1.62256539e+00,
          -2.71312952e-01, -6.67817414e-01, -4.25974876e-02,
          -3.89715612e-01, 1.60814375e-01, 8.96624446e-01,
          -6.96772158e-01, 1.25780284e+00, 1.73371136e+00,
          -2.12356973e+00 ]
      - [ -1.54681295e-01, 2.81391644e+00, -2.64248514e+00,
          4.10935223e-01, -5.49535453e-01, 2.35564321e-01,
          1.44205764e-01, 7.68011987e-01, 8.91317904e-01,
          -5.15416145e-01, 1.04726136e+00, 2.48902425e-01,
          7.15176165e-02 ]
      - [ -1.57973021e-01, -1.20394146e+00, 1.22489274e+00,
          -6.39525294e-01, -4.23462421e-01, 7.31796622e-01,
          -5.54708302e-01, 2.21572235e-01, -1.15209498e-01,
          1.68909132e-01, -1.23634613e+00, -9.61035073e-01,
          8.65456462e-01 ]
      - [ -1.56650037e-01, -1.11934161e+00, 9.54879820e-01,
          -7.80604959e-01, -2.60531604e-01, 7.20371366e-01,
          -7.13503480e-01, 1.78805083e-01, -3.38147700e-01,
          2.55306214e-01, -1.13711953e+00, -1.23277640e+00,
          9.48264599e-01 ]
      - [ -1.48622215e-01, -4.08430248e-01, 4.10314918e-01,
          -1.92103431e-01, 1.46241874e-01, 7.11044669e-01,
          -1.61759242e-01, -1.96966231e-01, -2.36017436e-01,
          3.89886298e-03, -1.51102170e-01, 1.87844798e-01,
          -7.52143934e-02 ]
      - [ 1.56611729e+00, -1.11274436e-01, 1.28253627e+00,
          2.09947586e+00, 2.47837877e+00, -1.25178111e+00,
          2.24372697e+00, -9.39619601e-01, -1.28067338e+00,
          6.42906606e-01, -1.59872428e-01, -8.58641624e-01,
          6.77652299e-01 ]
      - [ -1.42983004e-01, 5.14280140e-01, 1.26116022e-01,
          7.55715907e-01, 3.37370157e-01, 6.93421066e-02, 7.49978960e-01,
          6.07350647e-01, 2.21084312e-01, -1.93732440e-01,
          3.75194043e-01, -5.48652768e-01, 6.61762953e-01 ]
      - [ 1.08715868e+01, 2.64634132e+00, -3.42141390e-01,
          2.54234385e+00, 7.86604500e+00, -2.65792751e+00,
          2.42774010e+00, -6.18632030e+00, -5.96020985e+00,
          7.76053953e+00, -2.14279914e+00, -1.50743103e+00,
          -7.87553936e-02 ]
      - [ -1.44816965e-01, -1.33826566e+00, 7.15207458e-01,
          -1.39936209e+00, 4.10391301e-01, 1.29836953e+00,
          -1.34859097e+00, -7.13681757e-01, -1.22864723e+00,
          9.68363166e-01, -1.79017758e+00, -1.49330688e+00,
          9.44901645e-01 ]
      - [ -1.29835933e-01, -7.42010474e-01, 2.17577860e-01,
          -8.49451840e-01, -1.99563682e-01, -1.00354373e+00,
          -8.25950444e-01, -1.62747040e-01, -6.60484210e-02,
          -4.48221341e-03, -2.64935881e-01, 2.33904764e-01,
          9.03986916e-02 ]
      - [ 2.16133699e-01, 4.38108414e-01, -9.13990736e-02,
          3.67282510e-01, 1.50617933e+00, -1.77311838e+00,
          3.44921708e-01, -5.54539800e-01, -8.96883667e-01,
          1.72845751e-01, -1.22643653e-02, -3.99027467e-01,
          4.31942940e-01 ]
      - [ 8.56168568e-01, 2.94922829e+00, -5.78376710e-01,
          2.51477695e+00, 1.89397478e+00, -5.08141756e-01,
          2.36692524e+00, -4.57533628e-01, -8.32264006e-01,
          2.07547948e-01, 6.86277986e-01, -4.82494771e-01,
          4.41209346e-01 ]
      - [ -1.60637587e-01, -3.13142687e-01, 6.15085125e-01,
          1.94036826e-01, -5.79407930e-01, -3.42601538e-01,
          2.38871574e-01, 1.01340508e+00, 5.84715486e-01,
          -1.83720097e-01, -1.43991746e-02, -6.38890564e-01,
          7.31814981e-01 ]
      - [ -1.56030566e-01, -1.42244473e-01, -3.06998845e-02,
          -2.87278950e-01, -4.76266712e-01, -1.18240499e+00,
          -2.90637583e-01, 4.10277426e-01, 4.69955474e-01,
          -2.60377616e-01, 1.73511580e-01, 3.15746605e-01,
          1.44694194e-01 ]
      - [ -1.53651252e-01, -5.67951083e-01, 1.01855314e+00,
          4.03277010e-01, 6.79916330e-03, 1.23745203e+00, 4.87839431e-01,
          6.51076913e-01, 2.86091268e-01, -1.32765427e-01,
          -2.16445476e-01, -6.99001551e-01, 7.97122300e-01 ]
      - [ -1.60774767e-01, -6.19494498e-01, 1.12298632e+00,
          4.94299561e-01, -6.05105400e-01, -4.20902902e-03,
          5.89975595e-01, 1.12798929e+00, 7.90551782e-01,
          -2.30533019e-01, -1.06459498e-01, -5.93337834e-01,
          8.27863157e-01 ]
      - [ 7.76820755e+00, 1.15312970e+00, -2.06487283e-01,
          1.05715990e+00, 7.07650995e+00, -3.28290606e+00,
          1.00402081e+00, -5.48007250e+00, -5.53338432e+00,
          5.92104578e+00, -2.25679946e+00, -1.66680658e+00,
          1.68613479e-01 ]
      - [ -1.54838100e-01, -6.27470791e-01, -8.55413377e-01,
          -1.31382179e+00, -4.16524172e-01, 2.28286171e+00,
          -1.33158052e+00, -7.93175578e-01, -1.45943239e-01,
          -2.51875401e-01, -1.68963566e-01, 1.12005556e+00,
          -1.05917740e+00 ]
      - [ -1.00078546e-01, -2.63570040e-01, 1.75793007e-01,
          -2.10399091e-01, 8.93534482e-01, 6.00732148e-01,
          -1.96279198e-01, -6.56211972e-01, -1.09410405e+00,
          4.92119342e-01, -9.05235052e-01, -8.22605550e-01,
          6.16132319e-01 ]
      - [ 4.94814999e-02, -3.87916863e-01, 1.00159073e+00,
          7.45076180e-01, 9.35110092e-01, -2.69251138e-01,
          8.32511783e-01, 1.28298536e-01, -7.05397427e-01,
          3.83085757e-01, -9.59738433e-01, -1.72409856e+00,
          1.09357762e+00 ]
      - [ -1.09414063e-01, 1.09863412e+00, 3.39639783e-02,
          1.39107144e+00, 2.70848244e-01, 1.62128234e+00, 1.36470246e+00,
          1.85789496e-01, -2.80925959e-01, -3.02011102e-01,
          6.70735180e-01, -5.89622617e-01, 6.09026670e-01 ]
      - [ -1.56218320e-01, 2.54665047e-01, -4.13259953e-01,
          -1.45526633e-01, -5.68859041e-01, -4.06900495e-01,
          -1.81213021e-01, 5.86217642e-01, 5.97408950e-01,
          -2.94260055e-01, 3.87498170e-01, 3.26961726e-02,
          2.93379694e-01 ]
      - [ -1.17040411e-01, 6.28363431e-01, 2.12424174e-01,
          1.00914848e+00, -2.39802182e-01, -1.12203455e+00,
          1.00756049e+00, 8.21577907e-01, 7.69170225e-01,
          -5.61443269e-01, 8.83475661e-01, 2.32775569e-01,
          2.31039628e-01 ]
      - [ -1.07454315e-01, 1.29094565e+00, 1.26936764e-01,
          1.76254797e+00, 3.33707154e-01, 3.97771504e-03, 1.73965061e+00,
          2.43430972e-01, 2.64337301e-01, -4.47188079e-01,
          1.06584764e+00, 6.37287021e-01, -3.19942951e-01 ]
      - [ -1.55723199e-01, -1.30848598e+00, 1.18458283e+00,
          -9.22221363e-01, -2.40500998e-02, -4.00707215e-01,
          -8.44394863e-01, 3.40771191e-02, -2.44205385e-01,
          4.65325683e-01, -1.20151401e+00, -7.41597712e-01,
          7.50175595e-01 ]
      - [ -9.92795303e-02, -1.92690641e-01, 7.30498806e-02,
          -2.37808332e-01, -9.28027462e-03, -1.05777895e+00,
          -2.32793331e-01, 1.05308637e-01, -1.62745878e-01,
          4.94435020e-02, -2.55481958e-01, -6.71168983e-01,
          6.26339138e-01 ]
      - [ 1.61949560e-01, 6.23250663e-01, -5.41922927e-01,
          1.66297495e-01, 1.65055171e-01, -6.54718459e-01,
          1.11977272e-01, -3.30753922e-01, 9.46029797e-02,
          -5.06031215e-01, 9.46714640e-01, 1.13731706e+00,
          -1.27091312e+00 ]
      - [ -1.53637230e-01, -7.85356343e-01, -1.03089678e+00,
          -1.51752210e+00, -1.15929529e-01, 8.01813543e-01,
          -1.53173077e+00, -1.01696813e+00, -6.36505306e-01,
          3.23598474e-01, -7.38884747e-01, 6.26275778e-01,
          -6.87154949e-01 ]
      - [ 1.42702296e-01, 8.94663811e-01, -3.44973832e-01,
          6.32220924e-01, 4.40619111e-01, -1.11027874e-01,
          5.79112887e-01, -1.72141075e-01, 8.16369355e-02,
          -4.14716482e-01, 9.67638254e-01, 8.85426462e-01,
          -8.92769039e-01 ]
      - [ -1.55719101e-01, -1.31344414e+00, -2.25370511e-01,
          -1.80026543e+00, -4.04927582e-01, -9.82146338e-02,
          -1.77741134e+00, -1.21539235e+00, -5.85591495e-01,
          3.49577755e-01, -1.09126270e+00, 9.75154102e-01,
          -9.48710620e-01 ]
      - [ -1.53452814e-01, 1.02863538e+00, -7.34538198e-01,
          3.58352125e-01, -5.25855899e-01, -6.46446526e-01,
          2.74001420e-01, 7.85701215e-01, 7.21782923e-01,
          -2.90437192e-01, 4.93894994e-01, -1.04062289e-01,
          4.21304226e-01 ]
      - [ -1.50548533e-01, 1.48783994e+00, -1.10647213e+00,
          5.04596591e-01, -2.63952225e-01, 1.18082714e+00,
          3.81722182e-01, 5.24143994e-01, 6.19334042e-01,
          -5.38000822e-01, 1.04124546e+00, 3.15769285e-01,
          1.11880250e-01 ]
      - [ -1.28800929e-01, -1.69479549e+00, 1.23569379e-02,
          -2.20206952e+00, 1.00012136e+00, 4.99625564e-01,
          -2.16493988e+00, -2.82201648e+00, -2.23076963e+00,
          1.68203747e+00, -2.55266452e+00, 4.22688633e-01,
          -7.05007792e-01 ]
      - [ -1.57357648e-01, -2.58820981e-01, -2.37358212e-02,
          -4.24306959e-01, -5.74538887e-01, -2.04148006e+00,
          -4.24198985e-01, 1.35663807e-01, 4.73084748e-01,
          -1.46862492e-01, 2.58660913e-01, 7.18679070e-01,
          -5.07935762e-01 ]
      - [ -1.56838104e-01, -1.33320129e+00, 1.38965571e+00,
          -7.07490802e-01, -1.46852106e-01, -5.15910447e-01,
          -6.13523543e-01, 2.41027951e-01, -2.23698646e-01,
          3.81724209e-01, -1.32460690e+00, -1.20788395e+00,
          9.47352648e-01 ]
      - [ -1.50484860e-01, -1.04555738e+00, 5.83921850e-01,
          -1.01917732e+00, -1.24407224e-01, -1.66904163e+00,
          -9.74827349e-01, -4.16144937e-01, -1.98042333e-01,
          2.80423373e-01, -6.03965223e-01, 3.55571359e-01,
          -8.03539604e-02 ]
      - [ -1.53747007e-01, -8.55898201e-01, -4.44124281e-01,
          -1.36186993e+00, -2.84765691e-01, 1.38462865e+00,
          -1.35890448e+00, -8.80522966e-01, -4.08781677e-01,
          1.36558609e-02, -4.72922713e-01, 8.63714397e-01,
          -8.47009182e-01 ]
      - [ -1.46072552e-01, -1.02102864e+00, -6.94761455e-01,
          -1.63728964e+00, 1.65081695e-01, -1.03262699e+00,
          -1.63455284e+00, -1.70647573e+00, -1.12034643e+00,
          7.87160158e-01, -8.34283650e-01, 1.27202499e+00,
          -1.95167637e+00 ]
      - [ -1.49401665e-01, 8.73320401e-01, -9.32913244e-01,
          6.48425072e-02, -4.41922337e-01, -8.36963117e-01,
          -2.19010003e-02, 5.30511022e-01, 7.23475218e-01,
          -5.10626793e-01, 8.54132891e-01, 2.92565048e-01,
          1.05478153e-01 ]
      - [ 6.81683958e-01, 7.44809628e-01, -1.69706926e-01,
          6.31124437e-01, 2.07799482e+00, -2.41944313e+00,
          5.93534648e-01, -1.40406656e+00, -1.40524209e+00,
          2.89817244e-01, 3.61519277e-01, -1.73145130e-01,
          3.31469625e-02 ]
      - [ -1.46037534e-01, -4.50599670e-01, 6.08319044e-01,
          -9.13924258e-03, -1.71436757e-01, 4.55557615e-01,
          3.71537805e-02, 6.56314313e-01, 1.05766810e-01,
          -5.11679649e-02, -3.73454422e-01, -1.06407642e+00,
          9.52999413e-01 ]
      - [ -6.00445867e-02, -4.97648895e-01, 1.50528038e+00,
          1.90946245e+00, 1.06152248e+00, 7.55177498e-01, 2.08189583e+00,
          4.76363778e-01, -3.37454081e-01, 1.03653520e-01,
          -4.01829958e-01, -1.73454750e+00, 1.14508069e+00 ]
      - [ -1.57131121e-01, -9.64292943e-01, -1.33453906e+00,
          -1.76679158e+00, -5.79162538e-01, -1.52760839e+00,
          -1.77814019e+00, -1.66278553e+00, -4.51539636e-01,
          1.25026703e-01, -4.16581154e-01, 2.13524723e+00,
          -3.56793499e+00 ]
      - [ -6.82802200e-02, 4.31064695e-01, 1.82926580e-01,
          6.85114741e-01, -6.57253712e-02, -1.89789867e+00,
          6.83572114e-01, 4.90703017e-01, 5.60863912e-01,
          -5.86099565e-01, 8.69311213e-01, 6.12264752e-01,
          -3.08707774e-01 ]
      - [ -1.61191419e-01, -2.58742839e-01, -7.03394234e-01,
          -8.88029277e-01, -8.85802031e-01, 1.21518946e+00,
          -9.17234421e-01, -2.94007480e-01, 6.20837927e-01,
          -5.41264653e-01, 4.21463341e-01, 1.75365090e+00,
          -2.03787303e+00 ]
      - [ -1.24824122e-01, -1.49732542e+00, 1.84173417e+00,
          -2.67454863e-01, 7.12158442e-01, -4.54126954e-01,
          -1.28607586e-01, 1.47430226e-01, -9.49894547e-01,
          9.68285799e-01, -1.88851368e+00, -2.46820998e+00,
          1.26597679e+00 ]
      - [ -1.57168627e-01, -7.75923207e-02, -1.22026794e-01,
          -2.62855798e-01, -7.07526445e-01, 8.75393152e-01,
          -2.71395981e-01, 3.54141384e-01, 5.25259495e-01,
          -4.47541505e-01, 3.65793258e-01, 4.78513062e-01,
          -1.00047819e-01 ]
      - [ -1.44102216e-01, 1.17885375e+00, -6.70153916e-01,
          5.80289185e-01, -7.03147888e-01, -9.97502685e-01,
          4.94338363e-01, 8.35360467e-01, 1.27097058e+00,
          -6.93574488e-01, 1.28088021e+00, 9.34878349e-01,
          -5.33324897e-01 ]
      - [ -1.22310698e-01, -1.29060102e+00, -1.86049938e-01,
          -1.75982690e+00, 9.09651101e-01, -9.95309234e-01,
          -1.73679340e+00, -2.09681153e+00, -1.71442413e+00,
          1.42698991e+00, -1.35170484e+00, 6.31169140e-01,
          -9.28691626e-01 ]
      - [ -1.51177719e-01, -5.71223021e-01, 1.24952972e+00,
          8.99559677e-01, -1.23272754e-01, 1.05426836e+00,
          1.01582515e+00, 8.18726897e-01, 2.43174836e-01,
          -9.30962861e-02, -3.39078695e-01, -1.20930159e+00,
          1.01639044e+00 ]
      - [ -1.26945823e-01, -1.05383801e+00, 1.43594515e+00,
          1.29087627e-01, 6.37942016e-01, 3.74401063e-01, 2.46863693e-01,
          -4.43246961e-02, -5.23487806e-01, 3.88330579e-01,
          -8.59887838e-01, -1.14745796e+00, 8.94197762e-01 ]
      - [ -1.55398682e-01, -1.10883221e-01, -2.12343745e-02,
          -2.29197130e-01, -4.05889124e-01, 1.95646656e+00,
          -2.32147411e-01, 3.42236072e-01, 3.85269314e-01,
          -4.05132860e-01, 3.27024072e-01, 1.02218896e-01,
          2.14813575e-01 ]
      - [ -1.56286910e-01, -1.27236891e+00, 1.04056060e+00,
          -1.00671649e+00, -3.43921363e-01, -6.37102783e-01,
          -9.37986493e-01, -1.48389162e-02, -2.47251526e-01,
          4.06806320e-01, -1.16921198e+00, -6.90094411e-01,
          7.15613425e-01 ]
      - [ -1.58831209e-01, -6.18552864e-01, 4.10104394e-01,
          -5.13811648e-01, -5.69853187e-01, 1.86402214e+00,
          -4.81941313e-01, 9.11697894e-02, 1.03081644e-01,
          -1.83766887e-01, -3.30449998e-01, -8.32008347e-02,
          3.51650536e-01 ]
      - [ -1.49862885e-01, 5.49914837e-01, -3.45585316e-01,
          2.50792176e-01, -4.11967933e-01, 1.39451969e+00,
          2.09439859e-01, 4.84422177e-01, 6.76027775e-01,
          -5.59075415e-01, 8.71113658e-01, 5.56763887e-01,
          -1.92830011e-01 ]
      - [ -1.38385102e-01, 2.19101414e-01, 3.58105302e-01,
          6.56874239e-01, -3.91744852e-01, -7.00958908e-01,
          6.75594985e-01, 8.44838500e-01, 8.90300095e-01,
          -5.26069105e-01, 7.32303381e-01, 3.52493286e-01,
          1.27417535e-01 ]
      - [ 3.45037484e+00, 1.11260898e-02, 9.38737035e-01, 1.36764944e+00,
          4.85759211e+00, -2.20826864e+00, 1.45292091e+00,
          -2.79666996e+00, -3.29490328e+00, 2.84150887e+00,
          -1.62700033e+00, -2.73278594e+00, 1.09565747e+00 ]
      - [ -1.45553693e-01, -9.38455641e-01, -1.25153697e+00,
          -1.71535850e+00, -5.15893251e-02, 1.74410629e+00,
          -1.72614443e+00, -1.33065653e+00, -9.63387668e-01,
          2.93433934e-01, -9.24790204e-01, 4.71734256e-01,
          -5.66116631e-01 ]
      - [ -1.56495944e-01, 9.34206367e-01, -3.65668535e+00,
          -1.10281384e+00, -8.51511478e-01, 2.48190284e+00,
          -1.26968074e+00, -1.37359190e+00, 2.41133198e-01,
          -6.19564474e-01, 9.95030165e-01, 2.62873530e+00,
          -4.68122149e+00 ]
      - [ 1.49985533e-02, 2.00773191e+00, -1.44929504e+00,
          6.30563140e-01, 4.79608893e-01, -8.56075466e-01,
          4.61570978e-01, 1.26569821e-02, 1.71139479e-01,
          -3.18148404e-01, 9.95626390e-01, -1.12678684e-01,
          3.41747403e-01 ]
      - [ 6.50579780e-02, 4.12695497e-01, -2.86134273e-01,
          1.85245454e-01, 6.59061819e-02, 1.05606839e-01, 1.54024214e-01,
          -5.75712860e-01, -6.79638386e-02, -4.46299553e-01,
          7.50645578e-01, 1.28758276e+00, -1.52550912e+00 ]
      - [ -1.43259972e-01, -3.00691456e-01, 3.96196634e-01,
          -4.91761826e-02, -3.12699787e-02, -7.65272260e-01,
          -2.10064910e-02, 4.28945571e-01, 2.01050758e-01,
          -5.57699092e-02, -5.44151291e-02, -4.18830186e-01,
          6.25703514e-01 ]
      - [ -1.59885064e-01, -9.32745993e-01, -5.34439743e-01,
          -1.49007797e+00, -7.40801215e-01, -1.25165772e+00,
          -1.48722100e+00, -7.43813813e-01, 1.18749188e-02,
          -1.70792609e-01, -4.18020993e-01, 1.16041720e+00,
          -1.01519644e+00 ]
      - [ -1.61905244e-01, 9.07463551e-01, -1.61556447e+00,
          -3.49331170e-01, -9.65515971e-01, 1.42322826e+00,
          -4.65799958e-01, 2.41530538e-01, 9.42881167e-01,
          -6.73246741e-01, 1.11598194e+00, 1.47302663e+00,
          -1.74291945e+00 ]
      - [ -1.61930382e-01, 8.94057035e-01, -9.67001975e-01,
          4.23942879e-02, -9.08369124e-01, 8.56304407e-01,
          -4.79248241e-02, 3.80698979e-01, 8.09196293e-01,
          -5.90247750e-01, 9.93465245e-01, 1.24937010e+00,
          -1.22076142e+00 ]
      - [ -1.05773687e-01, 1.53924853e-01, 7.31046557e-01,
          1.18650317e+00, -4.55733657e-01, 8.23356882e-02,
          1.24547350e+00, 1.05132794e+00, 9.41703439e-01,
          -6.28003299e-01, 7.57948518e-01, -9.06660571e-05,
          4.93739486e-01 ]
      - [ -3.94264935e-03, 4.83764976e-01, -2.73211241e-01,
          2.76919901e-01, 2.35315431e-02, 1.23761892e-01, 2.44099542e-01,
          1.18202046e-01, 1.30041838e-01, -4.27863955e-01,
          6.53151155e-01, 4.82615620e-01, -2.06131890e-01 ]
      - [ -8.47703591e-02, -1.70457649e+00, 7.78825641e-01,
          -2.01701117e+00, 1.23431098e+00, -2.70171022e+00,
          -1.96716940e+00, -2.46945047e+00, -2.26503682e+00,
          2.46471620e+00, -2.36024213e+00, -5.23059396e-04,
          -3.90768856e-01 ]
      - [ -1.13209181e-01, 5.49126089e-01, -1.44925022e+00,
          -5.15100002e-01, -6.53822243e-01, 2.89647251e-01,
          -6.04770958e-01, -3.40357214e-01, 3.62901628e-01,
          -5.75750291e-01, 9.36458826e-01, 1.77026248e+00,
          -2.29629326e+00 ]
      - [ -1.62384838e-01, 5.79530716e-01, -1.41542149e+00,
          -5.16285062e-01, -8.57919633e-01, 7.61056602e-01,
          -6.09193563e-01, 3.38265061e-01, 7.81890452e-01,
          -4.98198211e-01, 6.01823032e-01, 9.61562335e-01,
          -5.76413870e-01 ]
      - [ -1.60127446e-01, -4.72607575e-02, -6.47252381e-01,
          -6.36200190e-01, -8.88142347e-01, -1.00521898e+00,
          -6.71488941e-01, 3.86339992e-01, 8.31844330e-01,
          -4.59273696e-01, 5.45799971e-01, 1.01624548e+00,
          -6.67687356e-01 ]
      - [ -1.23789825e-01, 3.91545981e-01, -9.72078681e-01,
          -3.80961388e-01, -8.11683774e-01, -3.40694994e-01,
          -4.45764214e-01, 2.68983871e-01, 8.31506133e-01,
          -6.30789340e-01, 9.13612545e-01, 1.38316596e+00,
          -1.42974520e+00 ]
      - [ -1.55364260e-01, -9.15587366e-01, -1.48588076e-01,
          -1.30527949e+00, -4.69339728e-01, 1.55211174e+00,
          -1.29252911e+00, -9.58874881e-01, -2.65409082e-01,
          -9.28151533e-02, -4.20015365e-01, 1.36534619e+00,
          -1.57802522e+00 ]
      - [ -1.43157765e-01, -4.92621958e-01, 1.61472589e-01,
          -5.48742890e-01, 3.32397133e-01, 2.01634216e+00,
          -5.32179117e-01, -3.60090405e-01, -4.50676739e-01,
          4.90369275e-03, -2.72192061e-01, -2.59767562e-01,
          3.91369522e-01 ]
      - [ 3.59859288e-01, 9.65549946e-01, 1.85868725e-01, 1.42825830e+00,
          7.30433106e-01, -7.58726895e-01, 1.41808248e+00,
          1.39586180e-01, 8.06388780e-02, -4.30838168e-01,
          9.95740950e-01, 3.18525314e-01, 1.01748900e-02 ]
      - [ 1.79500654e-02, -5.84134817e-01, 1.26717556e+00,
          9.09697056e-01, 2.20544934e-01, -1.55643523e+00,
          1.02794623e+00, 6.50901914e-01, 3.05985928e-01,
          -3.59793693e-01, 2.95042880e-02, -4.42092150e-01,
          6.72636449e-01 ]
      - [ -1.40933365e-01, -5.52646555e-02, 6.25308216e-01,
          6.44624591e-01, -5.38922369e-01, -2.56536484e-01,
          6.91110253e-01, 1.03993893e+00, 8.48573446e-01,
          -4.80043888e-01, 4.74915296e-01, -1.44265398e-01,
          5.63839614e-01 ]
      - [ -1.61487266e-01, 5.79609811e-01, -1.55097997e+00,
          -5.71037889e-01, -8.08759749e-01, -1.14353859e+00,
          -6.67414725e-01, 1.80309296e-01, 7.73065984e-01,
          -4.89250690e-01, 6.72097683e-01, 1.13695502e+00,
          -1.04511619e+00 ]
      - [ -1.49047464e-01, 6.95040166e-01, -3.20856762e+00,
          -1.04614675e+00, -1.93396211e-01, 8.26145351e-01,
          -1.18455493e+00, -9.94804978e-01, -2.70785660e-01,
          -8.43801349e-02, 2.77569294e-01, 1.25677836e+00,
          -1.68660343e+00 ]
      - [ -1.51411965e-01, -6.52253866e-01, 8.17729294e-01,
          -7.75757432e-02, -3.19450736e-01, 3.85846615e-01,
          -1.46318609e-02, 4.32793796e-01, 2.31106013e-01,
          -1.76394656e-01, -1.40715271e-01, -3.26610535e-01,
          5.82011878e-01 ]
      - [ 3.83811682e-01, -1.28891364e-01, 1.56503034e+00,
          3.29174185e+00, 2.27769232e+00, 8.49565983e-01, 3.51317096e+00,
          -4.00312662e-01, -1.29222465e+00, 3.36179376e-01,
          -2.37756729e-01, -1.99656761e+00, 1.13544190e+00 ]
      - [ -1.17568366e-01, -3.76605153e-01, 7.32182503e-01,
          2.67833620e-01, -4.06295471e-02, 1.29929647e-01,
          3.23933214e-01, 1.46285087e-01, 1.87263340e-01,
          -3.76162231e-01, 1.39982015e-01, -1.54239476e-01,
          4.38274801e-01 ]
      - [ -1.40445322e-01, -3.35540473e-01, 2.61666954e-01,
          -2.45629087e-01, 4.55029428e-01, 1.79358864e+00,
          -2.26249322e-01, -6.78479299e-02, -3.74918342e-01,
          9.67377052e-02, -2.22338915e-01, -7.44476497e-01,
          7.42688894e-01 ]
      - [ -1.40398175e-01, -1.02048326e+00, 1.00638485e+00,
          -5.37920117e-01, 4.08003092e-01, -4.99316901e-01,
          -4.65765178e-01, 4.64798324e-02, -5.62110484e-01,
          6.11854792e-01, -1.03736794e+00, -1.36491299e+00,
          9.51850951e-01 ]
      - [ -1.42548934e-01, -1.05642939e+00, -4.74001408e-01,
          -1.59580946e+00, 6.27547681e-01, 1.80541372e+00,
          -1.58676898e+00, -1.20955992e+00, -1.18643236e+00,
          7.16194093e-01, -1.38833427e+00, -4.71772611e-01,
          3.09862494e-01 ]
      - [ -1.49817407e-01, -1.00519538e+00, 2.05428943e-01,
          -1.21388996e+00, -3.87717374e-02, 6.98749721e-01,
          -1.18604338e+00, -8.69350195e-01, -7.49621749e-01,
          2.04007700e-01, -9.92028117e-01, -8.20915680e-03,
          1.15573302e-01 ]
      - [ -1.56458780e-01, -1.02981102e+00, 1.02643359e+00,
          -5.25148630e-01, -4.08880502e-01, -4.98653710e-01,
          -4.51216370e-01, 2.67115414e-01, 1.44160673e-01,
          -7.29840547e-02, -5.72433949e-01, -2.23687664e-01,
          4.96812135e-01 ]
      - [ -1.33954659e-01, -7.22705543e-01, -3.05453449e-01,
          -1.08370376e+00, 3.49349946e-01, 6.28122270e-01,
          -1.07701409e+00, -1.72958851e+00, -1.34289980e+00,
          6.44033790e-01, -9.38888371e-01, 3.38913500e-01,
          -4.82494026e-01 ]
      - [ -1.22082017e-01, 9.75886464e-01, -5.23936749e-03,
          1.13994908e+00, -3.01795632e-01, -1.47163308e+00,
          1.11047840e+00, 7.96259284e-01, 8.74973476e-01,
          -6.73454165e-01, 1.19403493e+00, 5.54447055e-01,
          -3.74369249e-02 ]
      - [ 8.11790526e-02, 2.62643933e+00, -1.89934015e+00,
          8.18563759e-01, 8.22911203e-01, 7.89473727e-02, 5.97095430e-01,
          -2.77430862e-01, -6.44339383e-01, -3.14555131e-02,
          5.55793107e-01, 6.60176426e-02, -2.41372138e-01 ]
      - [ -1.56941965e-01, -7.86158860e-01, -2.45311096e-01,
          -1.20169246e+00, -5.93951941e-01, -9.19417858e-01,
          -1.19585872e+00, -3.48945439e-01, 2.03826666e-01,
          -1.68606386e-01, -1.78845361e-01, 9.02338982e-01,
          -6.03823185e-01 ]
      - [ -1.51614979e-01, 2.77040303e-01, 1.91706419e-01,
          5.20583332e-01, 1.08119883e-01, 8.93797994e-01, 5.24664402e-01,
          7.66224861e-02, -2.84285396e-01, 1.86333612e-01,
          -1.52633637e-01, -5.67139268e-01, 5.80975294e-01 ]
      - [ -1.55591860e-01, -9.25467432e-01, 2.59444714e-02,
          -1.21872270e+00, -3.87699127e-01, -8.26962352e-01,
          -1.19947457e+00, -3.70347172e-01, -1.88163012e-01,
          5.47309555e-02, -6.42453671e-01, 1.96440294e-01,
          3.35555747e-02 ]
      - [ -1.54133230e-01, -5.35376668e-01, 5.06993055e-01,
          -2.82732725e-01, -1.14293434e-01, -1.11852670e+00,
          -2.44911119e-01, 1.54890031e-01, 3.43443044e-02,
          -1.47514408e-02, -4.87234086e-01, -5.88557065e-01,
          7.15930820e-01 ]
      - [ -1.44668579e-01, -1.23821235e+00, 1.14074671e+00,
          -8.14500213e-01, 5.76258242e-01, 1.59179258e+00,
          -7.37176001e-01, -4.14803773e-01, -1.14266133e+00,
          7.35521495e-01, -1.57840180e+00, -1.76292491e+00,
          1.04466748e+00 ]
      - [ -1.40426114e-01, -2.25879341e-01, 1.27840245e+00,
          1.80041087e+00, -2.10159019e-01, 1.02865629e-01,
          1.93768370e+00, 1.09522521e+00, 6.93991601e-01,
          -3.49114597e-01, 2.36276940e-01, -5.97752035e-01,
          8.27732980e-01 ]
      - [ 4.14147407e-01, 2.95191586e-01, -6.84484363e-01,
          -3.23654234e-01, 9.36393619e-01, -2.30660200e+00,
          -3.74812931e-01, -8.90160978e-01, -3.80381823e-01,
          2.45491397e-02, 5.07125854e-01, 1.17612374e+00,
          -1.52067077e+00 ]
      - [ -1.58331364e-01, -7.75665820e-01, -1.68492451e-01,
          -1.15058517e+00, -4.53070313e-01, -1.34235609e+00,
          -1.14261329e+00, -5.33926666e-01, -2.32641753e-02,
          1.53360739e-01, -2.67462373e-01, 8.96428049e-01,
          -8.71269405e-01 ]
      - [ -1.40616655e-01, -4.60687816e-01, -2.88364619e-01,
          -8.55966508e-01, 3.31833176e-02, -8.81985068e-01,
          -8.62139523e-01, -4.11305070e-01, -1.85784981e-01,
          -1.06890321e-01, -1.31451085e-01, 5.19771636e-01,
          -3.40350866e-01 ]
      - [ -1.58960745e-01, -1.25831366e+00, 1.44295144e+00,
          -4.06232923e-01, -3.79723787e-01, -3.66886407e-01,
          -3.01017314e-01, 4.59105372e-01, 1.80792008e-02,
          2.62473017e-01, -1.11294806e+00, -9.97670412e-01,
          9.19575512e-01 ]
      - [ 1.13913462e-01, 2.42873847e-01, 3.03037129e-02, 3.18318844e-01,
          1.73037732e+00, 3.88004124e-01, 3.13171744e-01,
          -1.29044604e+00, -1.65008020e+00, 3.82076174e-01,
          -9.74074081e-02, -1.70093123e-02, -2.63187796e-01 ]
      - [ -1.52113795e-01, -6.37931168e-01, 6.84167266e-01,
          -2.32483923e-01, -3.02070290e-01, 1.25960633e-01,
          -1.80819318e-01, 4.11748409e-01, 6.68325722e-02,
          -6.14511594e-02, -3.91267300e-01, -6.71461165e-01,
          7.41193295e-01 ]
      - [ -1.59089774e-01, 3.55434537e-01, -1.34037030e+00,
          -6.29938602e-01, -7.98973083e-01, 5.28739505e-02,
          -7.06719339e-01, 9.13469121e-02, 6.64450467e-01,
          -5.37734747e-01, 8.76667202e-01, 1.24955606e+00,
          -1.06639075e+00 ]
      - [ -1.63039595e-01, 6.82227552e-01, -5.47894001e-01,
          1.85473248e-01, -8.53102505e-01, 8.27336684e-03,
          1.26230150e-01, 8.68156254e-01, 1.11059773e+00,
          -6.11596167e-01, 8.73465240e-01, 5.31222463e-01,
          3.83110270e-02 ]
      - [ -1.51520655e-01, -6.23901725e-01, 2.60782361e-01,
          -6.53467476e-01, -7.58425519e-02, -6.05045021e-01,
          -6.29866302e-01, 1.53680649e-02, -1.35309115e-01,
          -2.13199481e-02, -3.26774776e-01, -4.62763488e-01,
          5.56142211e-01 ]
      - [ 5.87243021e-01, 9.72139955e-01, 2.44053811e-01, 1.52978170e+00,
          1.01846862e+00, -1.04031587e+00, 1.52533615e+00,
          -7.73627833e-02, -5.92596494e-02, -3.49488348e-01,
          9.78151321e-01, 5.12000382e-01, -1.98599324e-01 ]
      - [ 7.50101581e-02, 1.94619882e+00, -1.49608672e+00,
          5.58787644e-01, -1.52884409e-01, -8.64424586e-01,
          3.91660154e-01, 1.88215971e-01, 8.27495754e-01,
          -7.62136221e-01, 1.69831860e+00, 1.61090982e+00,
          -1.88562214e+00 ]
      - [ -1.17781334e-01, 3.36560667e-01, 5.29552460e-01,
          1.10365927e+00, -2.10745111e-01, -2.56221712e-01,
          1.13839674e+00, 9.07661259e-01, 7.91434050e-01,
          -5.35998642e-01, 7.04950213e-01, -3.22566517e-02,
          4.84101087e-01 ]
      - [ -1.56564161e-01, 2.63244808e-01, -1.25074494e+00,
          -6.95300102e-01, -4.70518500e-01, 2.07626081e+00,
          -7.66621947e-01, -5.41946650e-01, 2.36743805e-03,
          -3.36183071e-01, 2.10577115e-01, 9.95565832e-01,
          -9.37627435e-01 ]
      - [ -9.18939710e-02, 1.80748379e+00, -5.64376891e-01,
          1.33308232e+00, 1.23685353e-01, -5.20236075e-01,
          1.22931540e+00, 7.16397703e-01, 6.40889406e-01,
          -5.18227339e-01, 1.17200255e+00, 6.83818981e-02,
          3.65180075e-01 ]
      - [ -1.41095489e-01, 1.25686789e+00, -1.86798060e+00,
          -2.32790038e-01, -3.76215309e-01, -2.01706409e+00,
          -3.78238410e-01, 1.14840917e-01, 6.36506021e-01,
          -6.08162403e-01, 1.18391716e+00, 1.20898771e+00,
          -1.13283205e+00 ]
      - [ -1.60060391e-01, -9.25681710e-01, 9.61254537e-01,
          -4.12086159e-01, -4.93915319e-01, -1.00630321e-01,
          -3.41840237e-01, 5.33336759e-01, 2.31752962e-01,
          -3.45990993e-02, -6.85390174e-01, -6.98228002e-01,
          7.77395904e-01 ]
      - [ -9.19091552e-02, -1.08179402e+00, 6.91768408e-01,
          -9.76738989e-01, 1.65509522e-01, -7.01429784e-01,
          -9.25937891e-01, -8.95664752e-01, -8.33079696e-01,
          1.30514652e-01, -8.66326571e-01, -4.76104468e-02,
          1.71501234e-01 ]
      - [ -1.05927274e-01, 2.28680447e-01, 4.04309601e-01,
          7.31234848e-01, -3.59764606e-01, -3.32702994e-01,
          7.53658414e-01, 9.21621680e-01, 8.06858361e-01,
          -5.59449732e-01, 7.11404920e-01, 2.05671281e-01,
          2.69214779e-01 ]
      - [ -1.51952609e-01, -4.97421831e-01, 6.10023379e-01,
          -1.04221113e-01, -9.94282961e-02, 3.74267012e-01,
          -5.90664484e-02, 3.42686415e-01, 2.07990453e-01,
          -8.95761400e-02, -6.50803372e-02, -2.08774984e-01,
          4.89990652e-01 ]
      - [ -1.35751337e-01, -7.22599998e-02, -2.00203180e+00,
          -1.19381344e+00, 1.63032204e-01, 5.09777427e-01,
          -1.26174033e+00, -1.80608690e+00, -1.04250801e+00,
          1.90049782e-01, -3.20793331e-01, 1.68118179e+00,
          -3.46505284e+00 ]
      - [ -1.48952231e-01, 4.52377684e-02, 3.94284762e-02,
          1.35950660e-02, 6.53353453e-01, -1.22767711e+00,
          9.74865630e-03, -6.59880042e-02, -2.55560577e-01,
          4.99418199e-01, -5.17816544e-01, -6.52539432e-01,
          7.07175791e-01 ]
      - [ -1.47332087e-01, -2.14281872e-01, 5.20067990e-01,
          2.39598647e-01, 2.22551987e-01, 1.19928813e+00, 2.77029335e-01,
          7.60735646e-02, -8.07367936e-02, -7.29823261e-02,
          2.46497951e-02, -2.51739770e-01, 4.91009384e-01 ]
      - [ -1.58172399e-01, 1.99774635e+00, -2.45458841e+00,
          -9.71152168e-03, -9.06649053e-01, 9.07430649e-01,
          -2.18127266e-01, 5.35254121e-01, 9.96954441e-01,
          -6.65990233e-01, 1.14407265e+00, 9.11197782e-01,
          -5.30801773e-01 ]
      - [ -1.62161872e-01, 1.20297956e+00, -9.70834672e-01,
          3.39759320e-01, -8.29091191e-01, -2.15057582e-01,
          2.36098662e-01, 9.45154548e-01, 1.20028687e+00,
          -6.32666528e-01, 1.08932257e+00, 5.40692925e-01,
          -1.32874614e-02 ]
      - [ -1.51219472e-01, 1.55669010e+00, -2.70628238e+00,
          -3.86279821e-01, -5.15436709e-01, 1.65620971e+00,
          -5.72614968e-01, -9.62935835e-02, 2.81423748e-01,
          -4.46722329e-01, 7.21340895e-01, 8.95544469e-01,
          -8.31719279e-01 ]
      - [ -1.53046250e-01, -1.22203565e+00, 1.03340518e+00,
          -9.07900333e-01, 7.68401800e-03, 1.03452814e+00,
          -8.38161290e-01, -4.28181499e-01, -6.61693215e-01,
          3.45960468e-01, -1.11971486e+00, -6.21614397e-01,
          6.23351276e-01 ]
      - [ -1.60277098e-01, -1.09907889e+00, 1.22260976e+00,
          -3.96906227e-01, -7.36732900e-01, -1.39672989e-02,
          -3.07664543e-01, 5.31855345e-01, 2.23796532e-01,
          1.68252494e-02, -7.93767333e-01, -8.43890131e-01,
          8.38845372e-01 ]
      - [ 4.02812064e-02, 2.95544326e-01, 7.70394862e-01, 1.51710629e+00,
          7.87705004e-01, -1.21050262e+00, 1.58223808e+00,
          3.46433640e-01, -2.40831194e-03, -2.43222937e-01,
          4.92974907e-01, -4.01011199e-01, 5.33114433e-01 ]
      - [ -1.08352937e-01, 3.41473490e-01, -1.12168416e-01,
          2.33200148e-01, -5.34933448e-01, -1.07921708e+00,
          2.12417796e-01, 4.48011041e-01, 7.49084055e-01,
          -5.88161647e-01, 8.48143101e-01, 7.27364957e-01,
          -3.73082995e-01 ]
      - [ -1.54586434e-01, 2.70796269e-01, -4.25982147e-01,
          -1.30040392e-01, -3.82342815e-01, 1.47719073e+00,
          -1.66426063e-01, -5.56720532e-02, 2.12002173e-01,
          -3.32478195e-01, 4.01061684e-01, 5.51302135e-01,
          -2.34861434e-01 ]
      - [ -1.56329691e-01, -1.09468794e+00, 4.98709083e-01,
          -1.16567636e+00, -2.53450155e-01, -3.38442862e-01,
          -1.12547398e+00, -3.71004254e-01, -2.96104372e-01,
          1.60641834e-01, -8.67588222e-01, -2.20536336e-01,
          4.36343610e-01 ]
      - [ 9.50366974e-01, 6.41784012e-01, 7.14890242e-01, 2.00181580e+00,
          2.56567454e+00, 4.14409846e-01, 2.06156349e+00,
          -1.88082480e+00, -1.84062517e+00, 8.09731007e-01,
          -2.74992704e-01, -2.59169430e-01, -2.18302608e-02 ]
      - [ -6.61682859e-02, 5.76184392e-02, 7.86608815e-01,
          1.15197015e+00, 1.69673979e+00, 1.82045186e+00, 1.21877575e+00,
          -2.48239905e-01, -8.89154017e-01, 5.46120644e-01,
          -3.79384160e-01, -1.56195223e+00, 1.01557100e+00 ]
      - [ -1.48062214e-01, -4.56933349e-01, -9.46462393e-01,
          -1.17877281e+00, -9.75006074e-02, 1.51680446e+00,
          -1.20573604e+00, -7.93121636e-01, -3.07701647e-01,
          -1.39208183e-01, -8.08785781e-02, 9.35037851e-01,
          -9.06306028e-01 ]
      - [ -1.58882707e-01, -1.07544529e+00, 1.07031488e+00,
          -5.74239612e-01, -7.00943291e-01, -7.88976669e-01,
          -4.98662889e-01, 4.41036493e-01, 3.77258919e-02,
          2.30055302e-01, -7.96149433e-01, -9.43693101e-01,
          8.60795498e-01 ]
      - [ 3.36169511e-01, 2.28173032e-01, -1.13222949e-01,
          1.08044066e-01, 1.60895157e+00, -2.12891269e+00,
          9.11377668e-02, -8.91750991e-01, -1.04955184e+00,
          9.49853435e-02, -6.26062453e-02, -7.83476889e-01,
          6.11348271e-01 ]
      - [ -1.59953833e-01, -1.03513706e+00, 1.22440445e+00,
          -2.48767957e-01, -5.13745070e-01, -3.53436619e-01,
          -1.56815767e-01, 6.92526281e-01, 3.46459866e-01,
          3.50308418e-02, -6.79222584e-01, -8.22704375e-01,
          8.54582608e-01 ]
