%YAML:1.0
---
opencv_ml_svm:
   format: 3
   svmType: C_SVC
   kernel:
      type: RBF
      gamma: 5.0625000000000009e-01
   C: 1.0000000000000001e-01
   term_criteria: { iterations:100 }
   var_count: 256
   class_count: 2
   class_labels: !!opencv-matrix
      rows: 2
      cols: 1
      dt: i
      data: [ 0, 1 ]
   sv_total: 200
   support_vectors:
      - [ 2.21106395e-01, -2.29190961e-01, -3.64754736e-01,
          -3.07563484e-01, -1.04592033e-01, 1.28061563e-01,
          4.25920099e-01, 5.64723969e-01, 3.98940593e-01, 1.55910447e-01,
          1.75633937e-01, 6.47232682e-02, 4.81928289e-02, 4.16884013e-02,
          -1.07820787e-01, -1.72905296e-01, -1.51017055e-01,
          -2.44896159e-01, -1.53557971e-01, -1.66433722e-01,
          -1.12670220e-01, -8.58176053e-02, -1.03377894e-01,
          -5.38872462e-03, -6.84738085e-02, 1.21675968e-01,
          6.65981993e-02, 2.43159458e-01, 2.27847740e-01, 3.06008995e-01,
          6.43514752e-01, 3.67025077e-01, 4.14142460e-01, 2.02845838e-02,
          1.77188337e-01, 2.75996774e-01, 1.49946868e-01, 1.86013043e-01,
          8.54947120e-02, 2.36760825e-01, 4.01256233e-02, 2.38277584e-01,
          3.27095002e-01, 1.98718697e-01, 2.24167898e-01, 3.75862092e-01,
          2.76186377e-01, 4.81803268e-01, 7.44211972e-01, 6.54464483e-01,
          8.61993551e-01, 5.71721494e-01, 9.00792480e-01, 1.09893489e+00,
          6.38029993e-01, 7.58788168e-01, 7.53329217e-01, 9.03185010e-01,
          8.22773516e-01, 9.64696825e-01, 7.71863401e-01, 8.26860189e-01,
          8.11678350e-01, 8.17604482e-01, 1.24239290e+00, 1.07926762e+00,
          8.70540261e-01, 8.66576552e-01, 1.01756859e+00, 1.06359756e+00,
          9.37315762e-01, 1.02450740e+00, 1.31128812e+00, 8.77542615e-01,
          7.79870510e-01, 8.49694610e-01, 7.60394931e-01, 8.97895813e-01,
          5.91852725e-01, 9.29256558e-01, 7.28672206e-01, 9.29918349e-01,
          1.09451330e+00, 9.75568891e-01, 8.55595589e-01, 1.04836643e+00,
          9.48153794e-01, 8.88782561e-01, 7.27590084e-01, 8.65105331e-01,
          7.75984406e-01, 7.79674530e-01, 6.68222129e-01, 7.86791265e-01,
          9.62234020e-01, 8.01465213e-01, 1.00045836e+00, 8.20370793e-01,
          6.35626078e-01, 9.18216944e-01, 8.83482695e-01, 7.01983809e-01,
          7.30268836e-01, 8.64561677e-01, 1.23731673e+00, 9.68062520e-01,
          1.08408666e+00, 8.67175281e-01, 1.04496861e+00, 9.31106448e-01,
          9.77755249e-01, 1.08556676e+00, 1.13324332e+00, 1.20267570e+00,
          9.45424855e-01, 1.14597547e+00, 1.25333142e+00, 1.22675407e+00,
          7.65490830e-01, 5.01066446e-01, 5.73637009e-01, 6.71353579e-01,
          2.83697158e-01, 1.96033359e-01, 2.30187714e-01,
          -2.04570424e-02, 4.20370966e-01, 1.80941433e-01,
          1.88124344e-01, 1.23814307e-01, 1.58550873e-01, 8.47852901e-02,
          3.77841070e-02, -1.70266718e-01, -3.26623291e-01,
          -2.58565187e-01, -6.53952003e-01, -4.36246932e-01,
          -3.17845821e-01, -3.54918480e-01, -5.85857391e-01,
          -6.83972657e-01, -5.73493004e-01, -7.13572979e-01,
          -4.37274933e-01, -4.56297964e-01, -4.63282377e-01,
          -5.11038303e-01, -5.42347491e-01, -4.01811659e-01,
          -4.76512671e-01, -8.06011558e-01, -5.15246630e-01,
          -5.66780686e-01, -5.18527746e-01, -4.01637048e-01,
          -2.35692054e-01, -3.01979154e-01, -6.35823309e-01,
          -5.60448289e-01, -5.98525703e-01, -6.28165245e-01,
          -5.88992059e-01, -5.54771781e-01, -6.16251767e-01,
          -5.82220197e-01, -5.61371922e-01, -4.24862772e-01,
          -6.06328487e-01, -4.15639669e-01, -4.51882422e-01,
          -4.72135752e-01, -2.78483242e-01, -4.38499838e-01,
          -4.14135516e-01, -3.79764497e-01, -2.88558096e-01,
          -3.92006844e-01, -3.53478044e-01, -1.13843367e-01,
          1.09276287e-01, 1.85580626e-02, -1.46109283e-01,
          -2.98656560e-02, 3.60023826e-01, 2.43583843e-01,
          1.79288313e-01, -9.04463530e-02, -2.98783600e-01,
          -3.48775268e-01, -1.49636731e-01, -3.38182390e-01,
          -1.56719565e-01, -1.51647583e-01, 2.46827230e-01,
          4.93733972e-01, 9.04851615e-01, 7.99703777e-01, 1.06426671e-01,
          -2.21054375e-01, -1.57677114e-01, -2.44239494e-01,
          -1.90019667e-01, -3.79539758e-01, -2.98113406e-01,
          -2.80815959e-01, -4.91753340e-01, -7.51624107e-01,
          -9.01162505e-01, -9.37367201e-01, -8.43242109e-01,
          -9.48776245e-01, -9.27117169e-01, -9.87720966e-01,
          -9.87437606e-01, -1.02341247e+00, -9.93867218e-01,
          -9.67005789e-01, -9.76221085e-01, -9.84621763e-01,
          -9.09084499e-01, -8.99123251e-01, -8.89203548e-01,
          -8.47341180e-01, -8.50826979e-01, -8.62023234e-01,
          -8.54110897e-01, -8.29545081e-01, -7.97915697e-01,
          -8.00833642e-01, -7.72370577e-01, -7.45989442e-01,
          -7.10912406e-01, -6.92871034e-01, -6.73021555e-01,
          -6.54103935e-01, -6.35968685e-01, -5.99216044e-01,
          -5.73034167e-01, -5.39543092e-01, -5.12272537e-01,
          -4.73323345e-01, -4.36369687e-01, -4.06959832e-01,
          -3.71330529e-01, -3.43711436e-01, -3.20266098e-01,
          -2.92571783e-01, -2.58918434e-01, -2.26977900e-01,
          -1.99365959e-01, -1.75057635e-01, -1.50788859e-01,
          -1.23637490e-01, -1.16132967e-01, -8.42116699e-02 ]
      - [ -5.63878000e-01, -2.83608437e-01, -3.83744061e-01,
          -1.15942776e-01, 2.84628898e-01, 7.71009028e-01,
          3.75734299e-01, 2.20657811e-01, -2.09788173e-01,
          -3.46324801e-01, -4.37175155e-01, -4.43138331e-01,
          -3.85397881e-01, -4.39026922e-01, -4.43939805e-01,
          -3.87262046e-01, -3.91518325e-01, -4.07013535e-01,
          -4.07839358e-01, -3.56561542e-01, -3.41386586e-01,
          -3.69080037e-01, -3.47102791e-01, -4.04045671e-01,
          -5.02317607e-01, -5.90459526e-01, -5.00198483e-01,
          -5.30586064e-01, -6.12995207e-01, -7.09890485e-01,
          -6.97338760e-01, -6.58969402e-01, -7.07000732e-01,
          -5.31839132e-01, -6.89452171e-01, -8.63095462e-01,
          -8.26620758e-01, -8.67572010e-01, -7.85689712e-01,
          -8.68198216e-01, -8.53286505e-01, -8.95617962e-01,
          -9.28315282e-01, -9.10731435e-01, -9.33220267e-01,
          -8.48808885e-01, -8.96086872e-01, -8.34271014e-01,
          -7.84132361e-01, -7.10528851e-01, -6.29673004e-01,
          -7.92385876e-01, -5.99245489e-01, -5.53138852e-01,
          -6.32953644e-01, -5.18371403e-01, -3.19043785e-01,
          -1.27840295e-01, -1.32286862e-01, -9.62241516e-02,
          1.25689343e-01, 1.96655855e-01, 1.66119903e-01, 3.50390851e-01,
          3.72672677e-01, 2.71971732e-01, 4.42510694e-01, 4.38291520e-01,
          2.31071532e-01, 6.24569118e-01, 4.00941253e-01, 6.19323909e-01,
          4.31549877e-01, 6.75972521e-01, 2.72943467e-01, 5.19430697e-01,
          4.80993956e-01, 8.34609449e-01, 8.74603391e-01, 5.38636446e-01,
          7.91093528e-01, 9.76552188e-01, 7.72216797e-01, 9.07099366e-01,
          9.08874154e-01, 1.13958263e+00, 8.95069003e-01, 6.44749522e-01,
          9.40257132e-01, 8.72672975e-01, 6.77931786e-01, 8.77205908e-01,
          8.11198413e-01, 7.64332056e-01, 4.68421698e-01, 5.63458145e-01,
          5.63914835e-01, 6.66170239e-01, 5.10491908e-01, 4.29855466e-01,
          1.96846500e-01, 1.31100610e-01, 6.10155910e-02,
          -5.91987977e-03, 7.55269527e-02, 7.53964484e-02,
          -2.10061073e-01, -1.67311095e-02, -1.90697759e-01,
          -1.64924502e-01, 2.09942460e-01, -1.17740974e-01,
          -1.19660072e-01, -1.90426081e-01, -2.70523578e-01,
          -1.78092197e-01, -3.44331354e-01, -1.79392099e-01,
          -2.33663842e-01, -3.11064035e-01, -2.43791535e-01,
          -3.81807387e-01, -4.18137580e-01, -4.54187393e-01,
          -1.65301114e-01, -1.13799267e-01, -2.46937737e-01,
          -1.46577269e-01, -2.40106702e-01, -3.35836947e-01,
          -1.47085339e-01, -1.31324023e-01, -9.34102461e-02,
          -1.76862434e-01, -5.95781505e-02, 4.44298387e-02,
          5.34209833e-02, 1.07415617e-01, 5.26473485e-02, 9.06019658e-02,
          1.01493411e-01, -1.26657069e-01, 2.88679272e-01,
          1.63805872e-01, -3.83288087e-03, 2.45828629e-02,
          3.39368656e-02, 7.05174431e-02, 1.47493258e-01,
          -1.56580925e-01, 4.05519933e-01, 3.92940082e-02,
          2.18128990e-02, 8.52373242e-02, 2.55840302e-01, 4.09429431e-01,
          2.62347758e-01, 2.02453762e-01, 3.69462043e-01, 2.29250833e-01,
          2.04060227e-01, -1.67884137e-02, -2.16260273e-03,
          -1.85647577e-01, -8.21272582e-02, -1.79690629e-01,
          -3.40984046e-01, -1.82724684e-01, -1.07701309e-01,
          -5.99404760e-02, 1.49009496e-01, -5.36629707e-02,
          -1.88585609e-01, 5.87258004e-02, 3.81336324e-02,
          2.50539392e-01, 1.71829849e-01, 8.78016651e-02, 1.36183217e-01,
          8.54970813e-02, 3.19424987e-01, 3.63210917e-01, 2.95263112e-01,
          5.41770220e-01, 2.91921496e-01, 3.63956839e-01, 1.84444860e-01,
          4.88709837e-01, 6.91950679e-01, 1.04726434e+00, 1.04527557e+00,
          1.80868948e+00, 2.13489985e+00, 2.50144792e+00, 2.13272858e+00,
          1.68970478e+00, 9.43463922e-01, 4.26217765e-01, 5.89445055e-01,
          4.53267276e-01, 5.76326191e-01, 8.01538885e-01, 9.91715908e-01,
          7.74371207e-01, 7.62725830e-01, 6.53549194e-01, 6.07754171e-01,
          5.71438074e-01, 5.36716938e-01, 6.12304032e-01, 4.68763411e-01,
          5.20473957e-01, 3.23234230e-01, 3.34261686e-01, 2.53277123e-01,
          1.90959409e-01, 9.43964645e-02, -3.69292706e-01,
          -2.20960632e-01, -2.78003216e-01, -3.04280728e-01,
          -4.62237269e-01, -4.07272220e-01, -3.47959667e-01,
          -3.88806194e-01, -4.80642736e-01, -4.79187816e-01,
          -3.34540755e-01, -3.51232111e-01, -4.99700278e-01,
          -4.42702264e-01, -5.13592243e-01, -5.68543851e-01,
          -5.39639235e-01, -4.10379946e-01, -4.15724516e-01,
          -4.00607467e-01, -3.50403398e-01, -3.98071736e-01,
          -5.22905469e-01, -5.12272537e-01, -4.73323345e-01,
          -4.23978895e-01, -4.00465131e-01, -3.71330529e-01,
          -3.29729378e-01, -3.20266098e-01, -2.84718454e-01,
          -2.51040488e-01, -2.19217762e-01, -1.99365959e-01,
          -1.75057635e-01, -1.50788859e-01, -1.23637490e-01,
          -1.16132967e-01, -8.42116699e-02 ]
      - [ -5.63878000e-01, -2.81096876e-01, -4.21722680e-01,
          -4.71278280e-01, -3.87479395e-01, -3.56784105e-01,
          -2.74499178e-01, -2.51791239e-01, -1.71185866e-01,
          -4.03654054e-02, 1.93243384e-01, 2.58368343e-01,
          2.51791954e-01, 2.54464030e-01, -1.50367498e-01,
          -2.97232211e-01, -4.25875634e-01, -4.80703235e-01,
          -4.68866885e-01, -4.96655732e-01, -4.01802212e-01,
          -4.81316119e-01, -4.94471341e-01, -6.57039523e-01,
          -6.39701486e-01, -7.29187250e-01, -8.01880598e-01,
          -8.27365160e-01, -8.30625117e-01, -8.61194611e-01,
          -9.83845949e-01, -8.59707415e-01, -9.15841162e-01,
          -8.13109756e-01, -8.86914551e-01, -9.06906724e-01,
          -6.11990511e-01, -6.65368855e-01, -6.81977272e-01,
          -7.13297427e-01, -8.43134105e-01, -6.96688950e-01,
          -1.01658630e+00, -1.01685274e+00, -1.02808809e+00,
          -1.03436506e+00, -1.02041888e+00, -1.02990365e+00,
          -1.06360102e+00, -1.05177724e+00, -1.04868042e+00,
          -1.05855322e+00, -1.08574426e+00, -1.06838953e+00,
          -1.12994087e+00, -1.09145582e+00, -1.05438530e+00,
          -1.09442651e+00, -9.99187768e-01, -1.07615876e+00,
          -1.17473602e+00, -1.01527560e+00, -8.66773605e-01,
          -1.02708387e+00, -8.91642749e-01, -7.85585940e-01,
          -8.65806103e-01, -5.96057296e-01, -5.95966637e-01,
          -3.99830729e-01, -4.03620481e-01, -2.31561467e-01,
          -5.12756288e-01, -2.75438160e-01, -1.53518945e-01,
          -1.16931498e-01, 2.59694699e-02, 3.97575786e-03,
          -2.86279134e-02, 3.35514009e-01, 2.05893889e-01,
          2.14866146e-01, 8.92550722e-02, 1.38718620e-01, 1.93419710e-01,
          1.97014928e-01, 2.35300466e-01, 2.10065648e-01, 1.04779363e-01,
          1.46180272e-01, 4.21486408e-01, 2.54505396e-01, 2.09193140e-01,
          3.00175041e-01, 2.51443595e-01, 4.89080906e-01, 3.64140719e-01,
          4.31197912e-01, 4.95770246e-01, 7.40630984e-01, 5.06940246e-01,
          6.87345803e-01, 7.23072588e-01, 8.07009161e-01, 8.45301807e-01,
          6.84676468e-01, 5.70647597e-01, 5.26140511e-01, 6.30816698e-01,
          6.20784461e-01, 4.99445647e-01, -2.00103987e-02,
          -3.15161124e-02, 2.43275419e-01, 2.70640284e-01,
          7.31411502e-02, 5.37167024e-03, -1.38034865e-01,
          2.93667793e-01, 1.67884707e-01, -1.33391586e-03,
          -9.95877832e-02, 1.74674287e-01, 6.05707020e-02,
          1.69858918e-01, 1.99563906e-01, 1.07359141e-02, 1.28538445e-01,
          2.27054447e-01, 1.75605997e-01, -1.79599822e-01,
          -8.54826570e-02, 1.49299309e-01, 1.26541004e-01,
          3.38876471e-02, -9.02346149e-02, -5.43691851e-02,
          -1.94619134e-01, -7.96716437e-02, -1.78020656e-01,
          -2.19270289e-01, -8.77745822e-02, -6.89625740e-02,
          -1.18208759e-01, -2.48821869e-01, -2.22184926e-01,
          4.68516499e-02, -1.01305850e-01, 3.36360484e-02,
          2.65760899e-01, 2.81484097e-01, 7.39376843e-02, 2.83457279e-01,
          2.15640932e-01, 5.41133821e-01, 3.82617325e-01, 7.07263291e-01,
          6.02069438e-01, 6.07895076e-01, 3.69358748e-01, 3.36771280e-01,
          1.76606297e-01, 3.06695014e-01, 2.20389053e-01, 4.33788449e-01,
          5.17226219e-01, 8.14563096e-01, 9.09849524e-01, 9.89278495e-01,
          8.78872097e-01, 8.53901923e-01, 8.90728295e-01, 9.12660360e-01,
          1.13139236e+00, 1.03643501e+00, 1.00690401e+00, 1.21176493e+00,
          1.26306295e+00, 1.04017317e+00, 1.39467895e+00, 1.13307762e+00,
          8.80190194e-01, 7.95130670e-01, 6.26457036e-01, 5.69569468e-01,
          4.94797081e-01, 3.08202058e-01, 4.52832907e-01, 4.18993294e-01,
          4.12242740e-01, 2.70332456e-01, 1.92280129e-01, 2.38387242e-01,
          4.66263741e-01, 2.95432925e-01, 3.58158320e-01, 5.13902307e-01,
          5.02830267e-01, 5.99105418e-01, 7.29787648e-01, 7.99929857e-01,
          9.95201588e-01, 6.67222917e-01, 1.15739202e+00, 8.78453791e-01,
          7.20631778e-01, 1.71742558e-01, -5.74823469e-02,
          -2.81642713e-02, -6.91779107e-02, 1.33783281e-01,
          -6.90977722e-02, -4.34101596e-02, -1.04825415e-01,
          -9.71537530e-02, -1.39803350e-01, -1.51645765e-01,
          -3.04317679e-02, 2.63897926e-01, 9.16846469e-02,
          3.09827715e-01, 5.83077259e-02, 2.16943532e-01,
          -1.79985881e-01, 9.79996100e-03, 2.40763769e-01,
          1.42635837e-01, -8.93516839e-02, -1.16135478e-01,
          6.96300268e-02, 3.10825378e-01, 2.07313299e-01, 9.58425701e-02,
          1.49903998e-01, 2.41360366e-01, 3.49076122e-01, 2.23611429e-01,
          4.78971988e-01, 5.25889769e-02, -1.01419136e-01,
          -5.79344034e-02, 1.46072939e-01, 1.76975548e-01,
          3.13950092e-01, 6.70098066e-02, 1.38669714e-01,
          -3.20266098e-01, -2.92571783e-01, -2.58918434e-01,
          -2.26977900e-01, -1.99365959e-01, -1.75057635e-01,
          -1.50788859e-01, -1.23637490e-01, -1.16132967e-01,
          -8.42116699e-02 ]
      - [ 3.08259875e-01, -7.93335512e-02, -1.28970847e-01,
          -2.14543730e-01, -1.30673841e-01, -1.14361264e-01,
          -2.02493459e-01, -1.90167442e-01, -2.51359910e-01,
          -1.87572286e-01, -2.11774111e-01, -2.53146946e-01,
          -1.93109825e-01, -2.34131858e-01, -1.63131505e-01,
          -1.42895341e-01, -1.25249058e-01, -2.38270238e-02,
          -6.20166771e-02, -8.63799006e-02, -1.29931837e-01,
          -6.44393042e-02, -7.50377849e-02, -2.83881649e-02,
          -1.40781119e-01, -2.29767516e-01, -2.35083908e-01,
          -2.76203990e-01, -2.66765743e-01, 1.42080775e-02,
          -1.47245005e-01, -3.35558087e-01, -3.11303139e-01,
          -5.31839132e-01, -2.39676714e-01, -3.15454990e-01,
          -3.54434222e-01, -3.67385179e-01, -3.70839983e-01,
          -3.93169105e-01, -3.65970790e-01, -4.67920512e-01,
          -3.79073262e-01, -2.83650905e-01, -4.11446899e-01,
          -3.84918362e-01, -2.12260827e-01, -2.82942593e-01,
          -3.56195956e-01, -2.27787316e-01, -2.86086887e-01,
          -1.18649922e-01, -3.31671119e-01, -4.30460095e-01,
          -3.72239053e-01, -3.71006846e-01, -3.80322248e-01,
          -5.06419897e-01, -5.65737307e-01, -3.47281784e-01,
          -3.67018402e-01, -2.39639476e-01, -3.18048924e-01,
          -4.87371534e-01, -4.32623804e-01, -5.75688958e-01,
          -4.70080674e-01, -3.13227564e-01, -3.68936539e-01,
          -1.80316478e-01, -3.22351635e-01, -5.63811958e-01,
          -4.40117329e-01, -5.81824660e-01, -5.88027835e-01,
          -5.43858051e-01, -1.81585550e-01, 7.51729310e-02,
          1.12747423e-01, -1.56667307e-01, -4.77798656e-03,
          -1.27115354e-01, -1.25609279e-01, 1.53934076e-01,
          1.93419710e-01, 4.09852803e-01, 5.46225846e-01, 4.76976782e-01,
          4.46565717e-01, 6.38076365e-01, 5.94964147e-01, 3.44534397e-01,
          5.25245905e-01, 2.70229429e-01, 5.13313711e-01, 3.70077342e-01,
          7.04496622e-01, 5.11969626e-01, 6.06182754e-01, 5.55645525e-01,
          4.40491587e-01, 5.77560544e-01, 7.01483786e-01, 6.48739815e-01,
          2.32332945e-01, 2.38343433e-01, 2.82277733e-01, 2.61664599e-01,
          3.25294793e-01, -3.28725837e-02, 3.92455339e-01,
          2.54856855e-01, 5.66278510e-02, 4.07556295e-01, 2.77321309e-01,
          2.49683499e-01, 2.04222411e-01, -9.66776237e-02,
          4.18562114e-01, 1.33178279e-01, 3.10397297e-01, 5.26802063e-01,
          4.19975728e-01, 2.63764679e-01, 3.70954931e-01, 4.32919443e-01,
          7.01990649e-02, -1.55697819e-02, 3.24039683e-02,
          -2.50868052e-02, 1.06527686e-01, -2.62299359e-01,
          -2.24604607e-01, 1.44136483e-02, -4.13412958e-01,
          -2.31632292e-01, -2.36265093e-01, -3.95975620e-01,
          -5.82483828e-01, -4.92505670e-01, -4.81118202e-01,
          -4.57158178e-01, -6.43744111e-01, -2.49815583e-01,
          -7.92141110e-02, -2.72803962e-01, -1.33955345e-01,
          4.40830924e-02, 4.70310114e-02, 1.63581431e-01, 1.09212101e-01,
          3.99588197e-01, 2.00832754e-01, 2.70547718e-01,
          -2.26441562e-01, -1.46921948e-01, -8.96003768e-02,
          -2.62672693e-01, -4.94068600e-02, -7.64391571e-02,
          -2.69907832e-01, -2.92654913e-02, 1.76974803e-01,
          1.03499718e-01, 2.71254797e-02, 6.66334406e-02, 4.48880810e-03,
          1.42094672e-01, 3.08799028e-01, 1.20824680e-01,
          -6.47693574e-02, -7.06280842e-02, -6.49763718e-02,
          -1.47985980e-01, -1.54908076e-01, -1.25439661e-02,
          -2.39811152e-01, -5.23671098e-02, -7.90524930e-02,
          -1.46168843e-01, -1.65533558e-01, -2.45316774e-01,
          -1.24838330e-01, -3.05097729e-01, -1.95272088e-01,
          -3.37974280e-02, -6.82260543e-02, 1.45316347e-01,
          -3.59357186e-02, -1.97579637e-01, -1.74634889e-01,
          -3.08156192e-01, -5.02438009e-01, -3.23289603e-01,
          -1.80902958e-01, -3.00351918e-01, -3.64526957e-01,
          -3.87790293e-01, -3.08969140e-01, -4.34508711e-01,
          -5.27109265e-01, -2.58764178e-01, -2.67510533e-01,
          -9.34861898e-02, -1.05233535e-01, 1.14726275e-02,
          2.04917356e-01, 6.83246136e-01, 9.70881879e-01, 1.34046280e+00,
          1.52953386e+00, 1.71833396e+00, 2.01073861e+00, 1.76011431e+00,
          2.08593607e+00, 1.47620893e+00, 1.46182346e+00, 1.19323277e+00,
          9.95847821e-01, 7.09390938e-01, 5.51749229e-01, 4.34773296e-01,
          1.02197990e-01, -1.43667236e-01, -1.62325427e-01,
          -2.64680266e-01, -3.51165295e-01, -3.80802840e-01,
          -3.51232111e-01, -4.15006518e-01, -3.72059047e-01,
          -5.51534653e-01, -5.59052646e-01, -6.11466646e-01,
          -6.29247963e-01, -6.29272759e-01, -5.69453537e-01,
          -4.95544106e-01, -5.04109561e-01, -5.17359614e-01,
          -4.94797975e-01, -4.31228459e-01, -3.99197251e-01,
          -3.09539557e-01, -2.71707743e-01, -2.24863917e-01,
          -2.30494022e-01, -1.98331848e-01, -1.64383382e-01,
          -1.80417016e-01, -8.14004987e-02, -8.55121911e-02,
          -1.00342706e-01, -1.23637490e-01, -1.16132967e-01,
          -8.42116699e-02 ]
      - [ 6.70745969e-01, -1.49657696e-01, -2.61896014e-01,
          -3.72677326e-01, -3.29296887e-01, -3.56784105e-01,
          -3.37776929e-01, -3.26253325e-01, -2.95901030e-01,
          -3.49211216e-01, -3.35040301e-01, -3.77372056e-01,
          -3.25072229e-01, -3.32639098e-01, -2.90771633e-01,
          -2.80083656e-01, -2.71267682e-01, -2.59634107e-01,
          -2.24756762e-01, -2.46487543e-01, -2.46447712e-01,
          -2.56843984e-01, -2.22406328e-01, -2.43049607e-01,
          -1.40781119e-01, -2.48264551e-01, -1.89374492e-01,
          -3.18600982e-01, -1.28273964e-01, -3.10015142e-01,
          -2.50387579e-01, -3.57862294e-01, -4.76177156e-01,
          -3.65160286e-01, -3.60348165e-01, -4.03077453e-01,
          -2.47119084e-01, -3.56742918e-01, -3.60468745e-01,
          -2.17614874e-01, -3.55818391e-01, -4.87813413e-01,
          -3.10418010e-01, -4.76598769e-01, -2.59658307e-01,
          -2.82862455e-01, -8.79288092e-02, -3.80758941e-01,
          -3.73662740e-01, -4.27542448e-01, -3.27987641e-01,
          -2.93322206e-01, -1.93829805e-01, -2.17816964e-01,
          -1.03377126e-01, -3.38259161e-01, -3.80322248e-01,
          -2.96992868e-01, -3.74725252e-01, -2.25802287e-01,
          -3.10478151e-01, -4.90105331e-01, -2.77701527e-01,
          -4.04707575e-03, -3.80285308e-02, -2.50887754e-03,
          4.67852280e-02, -1.51610553e-01, -2.47313291e-01,
          6.67714281e-03, -1.35299526e-02, -2.07250461e-01,
          -2.22200543e-01, 1.11576371e-01, 6.37354925e-02,
          3.18050265e-01, 3.37301999e-01, 3.75783235e-01, 2.06997648e-01,
          2.18327984e-01, 2.52709866e-01, 1.21598460e-01, 1.35297433e-01,
          2.37619102e-01, 2.99976766e-01, 5.54278493e-01, 5.08308113e-01,
          6.21871412e-01, 2.56684422e-01, 1.08342111e-01,
          -8.43671616e-03, 1.64476424e-01, -8.42844173e-02,
          -1.41522780e-01, -4.03545909e-02, -3.89973633e-02,
          -1.01998888e-01, -1.12175561e-01, -7.83747733e-02,
          9.68817249e-02, -2.31378198e-01, 1.38419628e-01,
          1.06416894e-02, -4.18901928e-02, 1.53929949e-01,
          6.12271465e-02, 1.62709743e-01, -1.00249819e-01,
          -4.13314924e-02, -6.58855662e-02, -1.80257484e-01,
          1.26585469e-01, -3.61258790e-05, 3.95671390e-02,
          6.35281876e-02, 1.88572690e-01, 4.65132035e-02, 1.65251553e-01,
          -4.69089998e-03, 4.24712300e-01, 2.13414267e-01,
          6.09402955e-01, 2.63255358e-01, 1.89260229e-01, 6.59192562e-01,
          2.92906135e-01, 1.73429307e-02, 1.71820875e-02,
          -3.24795246e-02, 2.07975805e-01, -2.35302728e-02,
          1.89565554e-01, 9.68215689e-02, 8.69666487e-02,
          -2.66538143e-01, -1.97966173e-01, -4.76322994e-02,
          -2.14754775e-01, -6.64397404e-02, -1.12502940e-01,
          1.21132009e-01, 8.71965885e-02, -4.98031899e-02,
          3.07946682e-01, 3.91918570e-01, 2.84005404e-01, 3.63263875e-01,
          1.63037673e-01, 5.22552311e-01, 4.56495941e-01, 2.74593204e-01,
          1.84797436e-01, 1.87061995e-01, 7.15106279e-02,
          -3.62458974e-02, 7.42779970e-02, -1.62646219e-01,
          -9.88957807e-02, -1.71861779e-02, -2.54908241e-02,
          -2.19351232e-01, -6.66967258e-02, -1.44237101e-01,
          -6.16292477e-01, -1.18544839e-01, -2.87832886e-01,
          -3.72061916e-02, 1.06659837e-01, 9.62272938e-03,
          2.25785092e-01, 3.85899574e-01, 1.78193569e-01, 2.83376932e-01,
          1.53701484e-01, 3.91124189e-01, 9.70740989e-02, 2.90989071e-01,
          2.65708178e-01, 5.00889346e-02, 8.01095068e-02, 1.90102711e-01,
          2.07040086e-01, 1.88908324e-01, 1.24777434e-02,
          -8.00219923e-02, -7.62938382e-03, 1.22566275e-01,
          5.30613773e-02, 7.02143833e-02, -4.63840105e-02,
          -7.96418637e-02, 7.71797746e-02, 8.52833614e-02,
          -9.42989439e-03, -1.06185267e-03, 1.11216985e-01,
          -3.63226160e-02, 2.34686449e-01, 1.49898320e-01,
          8.45734254e-02, 7.56484419e-02, 1.33402705e-01, 5.69824427e-02,
          2.28745807e-02, 1.11756310e-01, 2.27095351e-01, 9.11751986e-02,
          -3.88476662e-02, -4.82207164e-03, 2.41757762e-02,
          1.61698297e-01, 1.64859265e-01, 9.29063484e-02, 2.91769385e-01,
          1.86979398e-01, 2.47661591e-01, 2.88391292e-01, 5.42834699e-02,
          1.61331683e-01, 1.19762205e-01, -2.04881821e-02,
          8.15463439e-02, 1.49913784e-02, 4.24658731e-02, 2.09103033e-01,
          7.07507655e-02, 1.83785930e-01, 2.48361558e-01, 1.56576619e-01,
          2.10786298e-01, -1.22453012e-01, -1.72110692e-01,
          -3.69227946e-01, -4.10349846e-01, -3.03377807e-01,
          -3.75994623e-01, -3.69908184e-01, -3.55587006e-01,
          -3.39750946e-01, -3.78712773e-01, -3.37527096e-01,
          -3.53052229e-01, -3.68220240e-01, -3.74486417e-01,
          -3.24839890e-01, -3.01765263e-01, -2.75380045e-01,
          -2.37598494e-01, -2.43162587e-01, -1.95937321e-01,
          -1.84620276e-01, -1.75057635e-01, -1.39578596e-01,
          -1.23637490e-01, -1.16132967e-01, -8.42116699e-02 ]
      - [ -4.88184154e-01, -1.80633813e-01, -3.20446372e-01,
          -3.95002067e-01, -4.25598979e-01, -4.17916805e-01,
          -4.18510616e-01, -4.34094936e-01, -4.59218502e-01,
          -4.06939417e-01, -4.82959718e-01, -4.86982495e-01,
          -4.64575320e-01, -4.78429794e-01, -4.94995862e-01,
          -4.51569080e-01, -4.55938309e-01, -4.85615879e-01,
          -4.89209384e-01, -4.51625466e-01, -4.01802212e-01,
          -4.75971550e-01, -4.88803327e-01, -6.34040058e-01,
          -6.03547812e-01, -6.36702120e-01, -7.10461736e-01,
          -8.16765904e-01, -8.50409687e-01, -9.15231824e-01,
          -9.60925341e-01, -9.37772214e-01, -1.00377393e+00,
          -9.27701473e-01, -1.01855612e+00, -1.01643479e+00,
          -1.01978803e+00, -1.03784847e+00, -1.06571329e+00,
          -1.00244558e+00, -1.05633473e+00, -1.04481471e+00,
          -1.09504938e+00, -1.09403181e+00, -1.03757489e+00,
          -1.09930980e+00, -1.05594230e+00, -1.10104287e+00,
          -1.00246727e+00, -1.03513098e+00, -1.08220112e+00,
          -1.11677730e+00, -1.11817753e+00, -1.08474672e+00,
          -1.20326686e+00, -1.13239038e+00, -1.03906572e+00,
          -1.15081072e+00, -1.07265401e+00, -1.14904654e+00,
          -1.08588707e+00, -1.02335513e+00, -1.00395477e+00,
          -9.62640584e-01, -1.01243722e+00, -9.06680286e-01,
          -9.06186283e-01, -5.87976456e-01, -7.90563822e-01,
          -5.46173573e-01, -5.49904466e-01, -6.04330301e-01,
          -3.59407425e-01, -4.93133813e-01, -5.47795534e-01,
          -2.29704544e-01, 2.59694699e-02, -2.64991343e-01,
          -3.03524405e-01, -1.41042501e-01, -3.24687123e-01,
          -1.42659962e-01, -1.40956745e-01, -5.90823591e-02,
          -1.64307490e-01, -4.62283604e-02, -2.34879404e-01,
          -2.16992199e-01, -2.52197504e-01, 7.05039501e-02,
          5.94458804e-02, -3.05863824e-02, -3.16089578e-02,
          -1.19063571e-01, -1.37620643e-01, -6.87482506e-02,
          -1.38994098e-01, -5.34324832e-02, -7.83747733e-02,
          -1.62097856e-01, -9.84808803e-02, 2.86343899e-02,
          1.06416894e-02, -5.91987977e-03, 2.82225758e-01,
          5.50068080e-01, 7.67583132e-01, 7.00137854e-01, 5.28976083e-01,
          3.03859830e-01, 3.86161774e-01, 1.75450757e-01, 2.39211768e-01,
          1.57849357e-01, 3.64174783e-01, 2.76843846e-01, 1.63080871e-01,
          2.96216160e-01, 2.10404903e-01, 2.85886586e-01, 2.96542585e-01,
          -6.51707575e-02, 3.51836443e-01, 1.96033359e-01,
          2.97219723e-01, 1.26223594e-01, 1.95732385e-01, 2.79197037e-01,
          1.68659300e-01, 2.07975805e-01, 4.05660987e-01, 2.15760633e-01,
          3.78889441e-01, 2.45264098e-01, 9.39728022e-02, 3.00292283e-01,
          4.17212814e-01, 4.89992976e-01, 3.17285329e-01, 4.50949371e-01,
          1.01493411e-01, 3.91776055e-01, 4.61113721e-01, 3.26747656e-01,
          1.72056645e-01, 2.01749474e-01, 4.66582179e-01, 8.96590948e-01,
          5.02459884e-01, 9.46957409e-01, 6.32918954e-01, 7.32167423e-01,
          5.58872461e-01, 1.15591955e+00, 1.51928294e+00, 8.11611176e-01,
          8.26792836e-01, 6.21722698e-01, 5.88562667e-01, 9.36158955e-01,
          3.36771280e-01, 6.94405019e-01, 5.04363894e-01, 6.20273650e-01,
          8.40451419e-01, 8.47660959e-01, 6.35870218e-01, 7.56298542e-01,
          1.13006735e+00, 1.21124673e+00, 1.27568185e+00, 1.45057702e+00,
          1.45766473e+00, 1.24312842e+00, 1.47767317e+00, 1.18777382e+00,
          1.11427104e+00, 7.83254445e-01, 5.77416420e-01, 4.46464926e-01,
          3.57143998e-01, 7.07863748e-01, 4.17571127e-01, 4.41204637e-01,
          3.65262449e-01, 5.05264282e-01, 2.30853811e-01, 1.19689964e-01,
          3.38117003e-01, 3.01365942e-01, 4.55318868e-01, 5.02550662e-01,
          3.71735781e-01, 3.19141984e-01, 1.98221520e-01, 4.74366009e-01,
          5.62167645e-01, 6.08172476e-01, 5.16992331e-01, 4.82374698e-01,
          5.42299569e-01, 4.91678625e-01, 7.30184257e-01, 6.67707145e-01,
          9.12207723e-01, 1.01292038e+00, 1.06746209e+00, 1.26092112e+00,
          1.48907864e+00, 1.64852989e+00, 1.44578886e+00, 1.36739838e+00,
          1.60178900e+00, 1.12745118e+00, 7.31567919e-01, 7.06004262e-01,
          7.99402058e-01, 7.69656599e-01, 7.53418565e-01, 3.49062264e-01,
          3.33089411e-01, 3.83648336e-01, 2.12353721e-01, 4.19271916e-01,
          2.63458431e-01, 1.62649691e-01, -2.73437351e-01,
          -5.98234653e-01, -5.76924860e-01, -6.59677386e-01,
          -6.68760538e-01, -6.46390676e-01, -6.34982526e-01,
          -6.40197575e-01, -6.24384224e-01, -6.34238958e-01,
          -6.35968685e-01, -6.04399621e-01, -5.73034167e-01,
          -5.45088947e-01, -5.12272537e-01, -4.73323345e-01,
          -4.36369687e-01, -4.06959832e-01, -3.71330529e-01,
          -3.43711436e-01, -3.20266098e-01, -2.92571783e-01,
          -2.58918434e-01, -2.26977900e-01, -1.99365959e-01,
          -1.75057635e-01, -1.50788859e-01, -1.23637490e-01,
          -1.16132967e-01, -8.42116699e-02 ]
      - [ 6.01385057e-01, -8.10079351e-02, -1.13146424e-01,
          9.05611143e-02, -2.81145841e-01, -2.76679158e-01,
          -2.63589203e-01, -2.92873770e-01, -3.13717484e-01,
          -2.82823801e-01, -3.20952743e-01, -3.11605811e-01,
          -2.30813369e-01, -3.16877931e-01, -2.56734282e-01,
          -3.10093611e-01, -2.54089028e-01, -2.64546752e-01,
          -2.90869921e-01, -2.31477454e-01, -2.16239899e-01,
          1.65377393e-01, 1.51683047e-01, -2.35383123e-01,
          -2.56472796e-01, -1.37282401e-01, -2.62509555e-01,
          -1.49012938e-01, -3.06334823e-01, -4.72126752e-01,
          -2.96228737e-01, -3.24405968e-01, -4.65185553e-01,
          -3.75577718e-01, -5.13930023e-01, -2.93549359e-01,
          -5.69064438e-01, -4.31238830e-01, -5.88636100e-01,
          -5.58396637e-01, -7.11152732e-01, -5.67385018e-01,
          -5.85039020e-01, -5.73072672e-01, -5.53748727e-01,
          -5.42641163e-01, -7.18469739e-01, -6.74207926e-01,
          -5.48330665e-01, -3.77603650e-01, -4.78830308e-01,
          -4.92947668e-01, -3.72212708e-01, -3.73210043e-01,
          -4.94449019e-01, -3.46446067e-01, -3.49683017e-01,
          -4.33925927e-01, -2.42486134e-01, -3.31084520e-01,
          -1.48934647e-01, -2.07321316e-01, -5.98255545e-02,
          -4.43241149e-02, -1.50770038e-01, 7.01477528e-02,
          -3.39750685e-02, 1.92560302e-03, -2.02831998e-02,
          -9.08847451e-02, 1.00246452e-01, -3.70733850e-02,
          -1.81845576e-01, 1.27701968e-01, -1.29379570e-01,
          2.53608525e-01, 1.00036990e-02, 2.72942871e-01, 2.54122764e-01,
          6.08948052e-01, 3.61947119e-01, 5.80164552e-01, 6.62338957e-02,
          7.39729285e-01, 7.41427362e-01, 5.01069009e-01, 6.59979045e-01,
          4.61724728e-01, 5.60494483e-01, 3.50506335e-01, 4.81826484e-01,
          5.39597213e-01, 1.64042741e-01, 5.24767160e-01, 4.68421698e-01,
          4.07265961e-01, 5.78712940e-01, 5.11969626e-01, 4.81048584e-01,
          2.15272382e-01, 4.77407515e-01, 1.67695686e-01, 2.26529837e-01,
          1.37961373e-01, 2.82225758e-01, 2.24174127e-01, 7.83087984e-02,
          1.50306314e-01, -7.38461362e-03, 3.97559740e-02,
          -1.48789734e-01, -6.88756853e-02, 1.88518651e-02,
          -7.87150860e-02, -1.43583909e-01, -3.41054350e-01,
          -1.24909848e-01, -7.59989992e-02, -2.47540995e-01,
          -6.81190193e-02, -4.65467066e-01, -5.33242285e-01,
          -2.47789338e-01, -4.00002331e-01, -3.79803538e-01,
          -3.93825918e-01, -3.79078060e-01, -3.10336620e-01,
          -3.17966878e-01, -5.49477696e-01, -3.68183851e-01,
          -3.53982121e-01, -3.55798960e-01, -3.94521445e-01,
          -2.73214251e-01, -3.66296738e-01, -3.23844612e-01,
          -5.03365755e-01, -5.82483828e-01, -4.53195035e-01,
          -2.91278481e-01, -3.53471547e-01, -2.09464729e-01,
          -1.24475755e-01, -1.23186491e-01, -1.08292095e-01,
          -3.47049296e-01, -3.19389254e-01, -2.74448156e-01,
          -3.67751837e-01, -3.04240674e-01, -2.30926633e-01,
          -4.73934382e-01, -3.74606967e-01, -3.69088322e-01,
          -1.53624982e-01, -1.69286743e-01, -2.95428097e-01,
          -2.16954425e-01, -1.33756027e-01, -3.20464432e-01,
          -2.35137284e-01, -1.38059944e-01, -2.77928650e-01,
          -1.42823234e-01, -2.75817096e-01, 2.23580934e-02,
          -2.12253720e-01, -1.37032315e-01, 1.26655817e-01,
          2.18977463e-02, 1.32953271e-01, 1.82242110e-01, 7.01208353e-01,
          4.73856330e-01, 3.82081062e-01, 6.70132101e-01, 5.62219024e-01,
          6.95796072e-01, 5.70379257e-01, 6.05011702e-01, 4.22448128e-01,
          5.50514638e-01, 3.98861259e-01, 6.58626318e-01, 5.26198745e-01,
          2.36010358e-01, 2.42696583e-01, 3.53281319e-01, 2.86246389e-01,
          1.75339416e-01, 3.47415388e-01, 2.48264924e-01, 2.60293305e-01,
          2.66269505e-01, 5.90573728e-01, 4.12545085e-01, 4.16641206e-01,
          5.41143239e-01, 3.61093819e-01, 3.77027303e-01, 2.88332850e-01,
          2.79768646e-01, 4.44682360e-01, 2.70882189e-01, 3.03761214e-01,
          2.61788428e-01, 3.01235229e-01, 3.96663755e-01, 5.32953382e-01,
          6.03685975e-01, 5.90661049e-01, 4.17245597e-01, 2.49277070e-01,
          7.03154624e-01, 9.32812989e-01, 1.10695481e+00, 1.06615996e+00,
          7.76729107e-01, 8.35739970e-01, 5.33139884e-01, 2.34921202e-01,
          -1.91550598e-01, -4.25136805e-01, -4.25043106e-01,
          -4.76047784e-01, -4.88332301e-01, -6.39870524e-01,
          -6.89771235e-01, -7.20845103e-01, -7.11146474e-01,
          -6.79590285e-01, -6.44473732e-01, -5.34850717e-01,
          -5.22245824e-01, -5.29947996e-01, -5.69453537e-01,
          -5.26645660e-01, -5.14713347e-01, -5.11813700e-01,
          -4.59848881e-01, -4.37242001e-01, -3.93001854e-01,
          -3.87475759e-01, -3.71330529e-01, -3.43711436e-01,
          -3.20266098e-01, -2.92571783e-01, -2.58918434e-01,
          -2.26977900e-01, -1.99365959e-01, -1.75057635e-01,
          -1.50788859e-01, -1.23637490e-01, -1.16132967e-01,
          -8.42116699e-02 ]
      - [ -2.36675516e-01, 4.70824726e-02, -7.12279277e-03,
          -1.28965542e-01, -1.26661256e-01, -4.69044819e-02,
          -1.92061644e-02, 4.60570790e-02, -8.50730166e-02,
          -1.03866413e-01, -2.01208428e-01, -2.53146946e-01,
          -2.04420894e-01, -2.42012441e-01, -2.48224929e-01,
          -2.80083656e-01, -2.41205022e-01, -2.54721463e-01,
          -2.80698657e-01, -2.66501009e-01, -9.10932049e-02,
          -2.40810260e-01, -3.47102791e-01, -2.58382559e-01,
          -3.43241543e-01, -3.86992246e-01, -2.25942016e-01,
          -4.98788297e-01, -4.25042063e-01, -4.07282114e-01,
          -1.81625858e-01, -4.35927093e-01, -3.88244361e-01,
          -1.35976851e-01, -1.19005255e-01, 2.40821335e-02,
          1.39215365e-01, 2.49866679e-01, 5.72943151e-01, 5.25909007e-01,
          4.36069638e-01, 2.97956288e-01, 6.89987004e-01, 7.48620033e-01,
          4.89797980e-01, 6.26362979e-01, 8.71203840e-01, 1.50442863e+00,
          1.21581531e+00, 8.54219615e-01, 7.44671464e-01, 1.15396237e+00,
          1.07917535e+00, 1.22161365e+00, 1.28981650e+00, 1.25000346e+00,
          1.02142251e+00, 1.28176463e+00, 1.00643897e+00, 1.45871353e+00,
          1.00610149e+00, 1.15004194e+00, 9.81137455e-01, 1.16398704e+00,
          1.39539921e+00, 9.90465105e-01, 1.36317813e+00, 1.34334671e+00,
          1.43108773e+00, 1.60018802e+00, 1.33553314e+00, 1.31623948e+00,
          1.46463692e+00, 1.39356196e+00, 9.40799713e-01, 1.22023463e+00,
          1.19147074e+00, 1.11939812e+00, 1.08666646e+00, 1.05425501e+00,
          1.07198930e+00, 8.28878343e-01, 7.87564218e-01, 7.01690614e-01,
          9.92597520e-01, 5.92285275e-01, 5.84143579e-01, 8.43026340e-01,
          8.18733096e-01, 7.06185043e-01, 7.98611939e-01, 4.94582713e-01,
          3.74744594e-01, 4.27443892e-01, 7.00363874e-01, 5.85771322e-01,
          4.60328281e-01, 3.06368858e-01, 5.47296107e-01, 4.22456056e-01,
          3.81426126e-01, 3.79947126e-01, 4.56810534e-01, 5.26440740e-01,
          7.38388598e-01, 5.42983413e-01, 8.44950676e-01, 7.69736767e-01,
          4.88239825e-01, 4.55719531e-01, 3.37231308e-02, 2.05991566e-01,
          1.88518651e-02, 2.95845300e-01, 2.10510969e-01, 4.87336665e-01,
          3.34503919e-01, 1.44572943e-01, 1.41019151e-01, 3.41416866e-01,
          1.44140661e-01, -3.76371406e-02, -1.11510746e-01,
          6.38563978e-03, -1.58597916e-01, 1.92896605e-01,
          1.42876253e-01, 1.71820875e-02, 8.43107626e-02, 2.59767503e-01,
          4.83695745e-01, 2.48504460e-01, 1.15452362e-02, 3.24412823e-01,
          4.27779227e-01, 3.47424865e-01, 5.85634947e-01, 4.02738482e-01,
          2.84205586e-01, 4.64052916e-01, 5.46634853e-01, 9.62052464e-01,
          9.20938969e-01, 5.21024406e-01, 4.10763860e-01, 2.96660155e-01,
          2.59945601e-01, 1.43211916e-01, -1.00313611e-01,
          1.70393392e-01, 7.47577026e-02, 2.05583632e-01, 2.90342659e-01,
          4.28404719e-01, 1.81120574e-01, 2.35150695e-01,
          -4.97571938e-02, -9.88957807e-02, -1.13848232e-01,
          -3.82279083e-02, 2.07925774e-02, -1.04127958e-01,
          -1.45169068e-02, 1.15803860e-01, 4.53342684e-02,
          5.46176322e-02, -3.46940488e-01, -1.70913070e-01,
          -1.01835109e-01, -4.24470752e-02, -5.89915514e-02,
          -1.72418758e-01, -9.30693820e-02, -1.36812374e-01,
          -2.15578333e-01, -2.09856480e-01, -9.89865959e-02,
          -2.35664740e-01, -1.54385000e-01, -4.58648473e-01,
          -5.69665670e-01, -4.12257999e-01, -6.83201015e-01,
          -6.12087369e-01, -6.30079269e-01, -4.42018926e-01,
          -4.60123807e-01, -3.56960714e-01, -3.08893114e-01,
          -3.58854979e-01, -1.99633047e-01, -3.73212934e-01,
          -2.25863248e-01, -2.10496277e-01, -3.50858457e-02,
          -4.99070762e-03, 1.19427303e-02, -3.34573723e-02,
          6.77851960e-02, -1.04624733e-01, -2.15705391e-02,
          -1.90982252e-01, 3.70747736e-03, -1.66211665e-01,
          -1.38987511e-01, -2.52066255e-01, -3.16400856e-01,
          -4.16199893e-01, -5.46361089e-01, -3.53906661e-01,
          -4.24516946e-01, -4.66824740e-01, -6.02777898e-01,
          -6.85553491e-01, -8.16957712e-01, -9.76160586e-01,
          -9.65477765e-01, -9.24648166e-01, -9.85545278e-01,
          -9.61223781e-01, -9.36998487e-01, -9.31657255e-01,
          -9.44281399e-01, -8.97279322e-01, -8.50826979e-01,
          -8.75808060e-01, -8.63255382e-01, -8.34171295e-01,
          -8.35531175e-01, -8.10244083e-01, -7.81789660e-01,
          -7.55475044e-01, -7.29894876e-01, -7.07236528e-01,
          -6.82749033e-01, -6.59070194e-01, -6.35968685e-01,
          -6.04399621e-01, -5.73034167e-01, -5.45088947e-01,
          -5.12272537e-01, -4.73323345e-01, -4.36369687e-01,
          -4.06959832e-01, -3.71330529e-01, -3.43711436e-01,
          -3.20266098e-01, -2.92571783e-01, -2.58918434e-01,
          -2.26977900e-01, -1.99365959e-01, -1.75057635e-01,
          -1.50788859e-01, -1.23637490e-01, -1.16132967e-01,
          -8.42116699e-02 ]
      - [ -3.97411853e-01, -2.10772723e-01, -3.42600554e-01,
          -3.80118906e-01, -3.67416471e-01, -3.04083467e-01,
          -3.13775033e-01, -3.21117997e-01, -3.07778656e-01,
          -2.59732515e-01, -3.70259225e-01, -3.18913192e-01,
          -2.91139036e-01, -2.81415343e-01, -2.78007627e-01,
          -3.10093611e-01, -2.62678355e-01, -2.89109975e-01,
          -3.01041156e-01, -2.71504372e-01, -2.11924493e-01,
          -1.87364519e-01, -3.13094676e-01, -3.19714397e-01,
          -2.63703525e-01, -3.86992246e-01, -3.90495896e-01,
          -3.92795771e-01, -2.27196664e-01, -4.39704448e-01,
          -6.28577054e-01, -4.91687685e-01, -2.45353550e-01,
          -4.06830013e-01, -4.70049500e-01, -6.65944874e-01,
          -5.04675388e-01, -6.76011086e-01, -4.64181185e-01,
          -6.30683661e-01, -6.80695534e-01, -5.47492146e-01,
          -5.65423250e-01, -5.44130504e-01, -5.72722316e-01,
          -4.22029585e-01, -4.69805717e-01, -5.23037255e-01,
          -4.34796512e-01, -2.44433567e-01, -2.52566278e-01,
          -4.34723586e-01, -3.80321026e-01, -4.71353024e-01,
          -5.67775011e-01, -5.92053711e-01, -5.18198788e-01,
          -5.14474750e-01, -5.43697476e-01, -6.55029893e-01,
          -5.68947792e-01, -7.24412084e-01, -7.78009295e-01,
          -8.49864841e-01, -8.99695754e-01, -6.96783364e-01,
          -8.73882174e-01, -7.73836017e-01, -8.95970702e-01,
          -7.57557631e-01, -8.18091691e-01, -8.71751428e-01,
          -8.19454014e-01, -7.26955116e-01, -8.45514596e-01,
          -7.37183273e-01, -8.12233508e-01, -7.23817587e-01,
          -6.41254365e-01, -7.42597461e-01, -6.52398944e-01,
          -7.10038364e-01, -6.70443892e-01, -8.57894003e-01,
          -3.92644018e-01, -3.65485162e-01, -4.77552891e-01,
          -5.52537620e-01, -6.09174371e-01, -4.51662689e-01,
          -6.26922607e-01, -4.43219244e-01, -5.05688071e-01,
          -5.08356571e-01, -4.44382817e-01, -5.07573843e-01,
          -2.79575884e-01, -9.01469067e-02, -1.59343943e-01,
          -2.13893771e-01, -1.05864063e-01, -6.65128157e-02,
          -1.69265106e-01, -1.78577378e-01, 1.61057487e-01,
          -2.53471616e-03, 1.41609505e-01, -3.06508951e-02,
          -6.16996214e-02, -1.96673907e-02, 8.54894333e-03,
          7.77201802e-02, -3.78121100e-02, -3.15279543e-01,
          1.83786824e-01, 1.20303370e-02, 6.02270439e-02, 1.44572943e-01,
          2.30633970e-02, -7.50603080e-02, 4.00453001e-01,
          3.68483752e-01, 3.38208586e-01, 2.23125890e-01, 1.89968511e-01,
          1.26223594e-01, 4.73227084e-01, 6.26366854e-01, 4.99565125e-01,
          3.30981076e-01, 3.66643608e-01, 4.64613795e-01, 5.29762924e-01,
          4.16752994e-01, 5.74654043e-01, 5.49421549e-01, 5.78898072e-01,
          6.44366264e-01, 7.14242339e-01, 7.45779097e-01, 3.37156534e-01,
          5.08423507e-01, 5.18591881e-01, 9.97315764e-01, 8.63051236e-01,
          9.48380232e-01, 9.12142277e-01, 1.00893700e+00, 1.40662003e+00,
          1.21943605e+00, 1.07393527e+00, 1.09939039e+00, 1.13724422e+00,
          9.50019121e-01, 5.88682711e-01, 6.03817284e-01, 7.60387540e-01,
          7.98601747e-01, 8.39884043e-01, 6.30468965e-01, 7.22265303e-01,
          3.20092708e-01, 2.88163543e-01, 2.88061827e-01, 4.09510076e-01,
          4.63155091e-01, 2.84440935e-01, 4.37384993e-01, 1.79742590e-01,
          5.05679548e-01, 4.03232992e-01, 3.19569528e-01, 3.22707146e-01,
          3.66000086e-01, 2.97361076e-01, 4.80737329e-01, 6.86381102e-01,
          4.38223600e-01, 5.55892885e-01, 5.00340700e-01, 4.81077850e-01,
          7.34789729e-01, 6.40916228e-01, 5.68234861e-01, 7.26728678e-01,
          4.42460984e-01, 5.04150927e-01, 5.80964804e-01, 6.56567335e-01,
          9.86786127e-01, 9.50282514e-01, 6.77703381e-01, 8.45863938e-01,
          8.53684306e-01, 9.56470490e-01, 9.63406742e-01, 1.12687218e+00,
          8.28433514e-01, 1.04348230e+00, 1.08877909e+00, 1.15477920e+00,
          1.17918110e+00, 1.19512939e+00, 1.23011756e+00, 1.20152760e+00,
          1.47770715e+00, 1.41816700e+00, 1.10252643e+00, 1.17629325e+00,
          1.00905716e+00, 1.04567361e+00, 1.15215790e+00, 9.06104803e-01,
          9.99974370e-01, 6.55799091e-01, 2.90188223e-01, 7.07385615e-02,
          7.31090754e-02, -1.18394405e-01, -2.26527691e-01,
          -2.71714360e-01, -2.57737428e-01, -2.51218289e-01,
          -4.93234277e-01, -7.14938462e-01, -8.80403042e-01,
          -8.67827594e-01, -8.43423724e-01, -8.30829263e-01,
          -8.00833642e-01, -7.25275099e-01, -7.17532635e-01,
          -7.25149274e-01, -6.97659552e-01, -6.68157816e-01,
          -6.59070194e-01, -6.25735581e-01, -6.04399621e-01,
          -5.67732275e-01, -5.33997178e-01, -5.06447673e-01,
          -4.73323345e-01, -4.36369687e-01, -4.06959832e-01,
          -3.71330529e-01, -3.43711436e-01, -3.20266098e-01,
          -2.92571783e-01, -2.58918434e-01, -2.26977900e-01,
          -1.99365959e-01, -1.75057635e-01, -1.50788859e-01,
          -1.23637490e-01, -1.16132967e-01, -8.42116699e-02 ]
      - [ 7.94087708e-01, 1.75172880e-01, 1.17496157e+00,
          -1.08501188e-01, -3.59391302e-01, -3.04083467e-01,
          -2.50497282e-01, -2.87738442e-01, -2.45421082e-01,
          -1.64481014e-01, 6.22914135e-01, -1.76419646e-01,
          -1.89339474e-01, -1.00162022e-01, -4.40007150e-02,
          -6.57269061e-02, -3.93557474e-02, 7.36213115e-04,
          1.51579678e-01, 1.13754645e-01, -6.95161894e-02,
          4.77967560e-02, -2.40255985e-02, 6.36095926e-02,
          3.27564105e-02, 1.86415553e-01, 2.86003351e-01, 1.90163180e-01,
          2.67416835e-01, 5.74378408e-02, 3.61195803e-02, 4.11633551e-01,
          4.14142460e-01, 3.84894609e-01, 5.17262459e-01, 2.32185528e-01,
          3.64577115e-01, 8.77760828e-01, 7.07769275e-01, 6.91136539e-01,
          1.11628115e+00, 1.05388665e+00, 1.00383961e+00, 9.31920528e-01,
          1.03054488e+00, 1.04386449e+00, 9.15608168e-01, 1.01534688e+00,
          7.87878931e-01, 7.87634611e-01, 1.02121639e+00, 1.08742058e+00,
          9.98092234e-01, 8.69934559e-01, 7.11355984e-01, 8.81591976e-01,
          7.07370341e-01, 1.07233763e+00, 1.16071796e+00, 1.19145858e+00,
          1.24033964e+00, 1.14196241e+00, 1.29584718e+00, 7.69272029e-01,
          1.00080395e+00, 8.37078869e-01, 1.03206086e+00, 6.24151051e-01,
          8.95945370e-01, 5.18877029e-01, 7.09762931e-01, 7.40878940e-01,
          5.84898710e-01, 7.16286540e-01, 8.92520964e-01, 8.33584189e-01,
          8.80138218e-01, 1.29343569e+00, 7.72499025e-01, 1.02300537e+00,
          5.57013690e-01, 8.21106076e-01, 8.56627762e-01, 4.58243281e-01,
          9.77375090e-01, 6.07487977e-01, 7.58565128e-01, 9.95547056e-01,
          8.87090385e-01, 1.09213436e+00, 9.64547217e-01, 1.12478566e+00,
          9.54174638e-01, 9.14060116e-01, 6.77917838e-01, 7.12212563e-01,
          7.93285131e-01, 5.11969626e-01, 7.01873600e-01, 8.44222784e-01,
          1.03114641e+00, 1.03865850e+00, 1.16924143e+00, 1.11635387e+00,
          1.08051074e+00, 1.27978718e+00, 1.25288856e+00, 6.86218023e-01,
          7.32657373e-01, 7.79246747e-01, 5.18326283e-01, 5.72481215e-01,
          1.44771814e-01, -3.92876789e-02, 2.34419722e-02,
          -5.58705665e-02, 1.08225502e-01, 1.72144428e-01,
          3.56114954e-01, -5.64744603e-03, 1.30285934e-01,
          9.31475535e-02, -1.04696818e-01, -4.77994233e-02,
          -1.11275055e-02, -8.04627538e-02, 3.80728841e-01,
          6.00165367e-01, 3.17891330e-01, 4.47512388e-01, 2.69100130e-01,
          4.05674875e-01, 4.44486618e-01, 4.36540186e-01, 4.61159885e-01,
          7.11018860e-01, 4.03739035e-01, 7.38332629e-01, 3.83444846e-01,
          1.82326764e-01, 9.49472114e-02, -1.39617890e-01,
          -2.03078270e-01, -1.24475755e-01, -2.73948938e-01,
          -2.79131323e-01, -3.01847547e-01, -3.52199674e-02,
          2.27863058e-01, 4.90555763e-01, 5.15774012e-01, 1.91726163e-01,
          7.65433788e-01, 1.53870806e-01, -2.94368595e-01,
          -2.34061331e-01, -3.48581076e-01, -5.24715781e-01,
          -7.38929510e-01, -8.97980988e-01, -1.04721546e+00,
          -1.04614735e+00, -1.03374696e+00, -1.08384979e+00,
          -1.04719317e+00, -9.66726065e-01, -9.66409028e-01,
          -7.91022778e-01, -7.35384941e-01, -5.32262325e-01,
          -6.07883215e-01, -5.39996207e-01, -4.69515711e-01,
          -4.32913035e-01, -3.42434317e-01, -4.89382565e-01,
          -2.99390763e-01, -3.48877966e-01, -1.97432131e-01,
          -4.58648473e-01, -3.37963253e-01, -4.82265592e-01,
          -4.50722314e-02, -2.20410943e-01, -1.58601597e-01,
          -2.32674569e-01, -1.45574287e-01, -4.94441427e-02,
          5.50500825e-02, -3.38695556e-01, -4.24616545e-01,
          -4.93317634e-01, -1.27086550e-01, 5.79057097e-01,
          7.66908228e-01, 3.58158320e-01, 1.71218365e-01,
          -6.08051300e-01, -1.01417601e+00, -1.24951613e+00,
          -1.43610680e+00, -1.44978964e+00, -1.42503023e+00,
          -1.40739322e+00, -1.38788462e+00, -1.36372113e+00,
          -1.33534098e+00, -1.29668844e+00, -1.27930617e+00,
          -1.25943744e+00, -1.23870480e+00, -1.22016644e+00,
          -1.19975019e+00, -1.18129694e+00, -1.16265309e+00,
          -1.13681686e+00, -1.11215675e+00, -1.08466578e+00,
          -1.05547678e+00, -1.03609729e+00, -1.01143587e+00,
          -9.92077708e-01, -9.62640643e-01, -9.29058135e-01,
          -9.05182362e-01, -8.94187868e-01, -8.67827594e-01,
          -8.48049939e-01, -8.35531175e-01, -8.10244083e-01,
          -7.81789660e-01, -7.55475044e-01, -7.29894876e-01,
          -7.07236528e-01, -6.82749033e-01, -6.59070194e-01,
          -6.35968685e-01, -6.04399621e-01, -5.73034167e-01,
          -5.45088947e-01, -5.12272537e-01, -4.73323345e-01,
          -4.36369687e-01, -4.06959832e-01, -3.71330529e-01,
          -3.43711436e-01, -3.20266098e-01, -2.92571783e-01,
          -2.58918434e-01, -2.26977900e-01, -1.99365959e-01,
          -1.75057635e-01, -1.50788859e-01, -1.23637490e-01,
          -1.16132967e-01, -8.42116699e-02 ]
      - [ 1.93190801e+00, -1.30402282e-01, -2.41324246e-01,
          -2.81517953e-01, -3.31303179e-01, -3.35703850e-01,
          -2.57043242e-01, -3.18550348e-01, -3.10748070e-01,
          -2.71278173e-01, -2.68124372e-01, -3.00644785e-01,
          -3.36383283e-01, -3.36579382e-01, -2.86516964e-01,
          -2.02915236e-01, -2.41205022e-01, -1.81031749e-01,
          -2.04414248e-01, -1.86447173e-01, -2.89601743e-01,
          -1.28574193e-01, -2.56414473e-01, -2.20050156e-01,
          -2.49242067e-01, -1.83524951e-01, -1.52806967e-01,
          -1.06615916e-01, -1.48058504e-01, -2.99207717e-01,
          -2.38927305e-01, -2.90949613e-01, -1.02462746e-01,
          -1.67229146e-01, -2.02740561e-02, 3.50349434e-02,
          -1.18340939e-01, -2.29035631e-01, -3.29355001e-01,
          -3.31208795e-01, -3.35513562e-01, -5.01695313e-02,
          1.60360828e-01, 9.25973803e-02, -3.51501862e-03,
          -1.62250906e-01, -2.56665111e-01, -1.58449084e-01,
          -2.07728222e-01, 5.26033621e-03, -8.49632993e-02,
          -2.26780385e-01, -1.20854989e-01, -1.76924050e-01,
          -4.12975729e-01, -1.00838460e-01, -1.65847659e-01,
          -2.48663560e-01, -3.82071882e-01, -3.47281784e-01,
          -3.18555355e-01, -2.07321316e-01, -2.77701527e-01,
          -2.77930915e-01, -2.15193748e-01, -4.06156838e-01,
          -2.11647719e-01, -1.35448843e-01, -2.47313291e-01,
          -3.26659322e-01, -4.84889358e-01, -2.63976157e-01,
          -1.49561599e-01, -3.35540771e-02, -1.61565408e-01,
          -1.65262803e-01, -2.29482874e-01, -1.54240191e-01,
          -1.93565801e-01, 6.98923543e-02, 1.08273374e-02,
          1.27861686e-02, 1.89013526e-01, -7.42978156e-02,
          1.78197280e-01, 6.01905771e-02, 1.29130810e-01, 1.10927217e-01,
          3.64220887e-02, -1.27400076e-02, 1.41908163e-02,
          9.69546810e-02, 2.54343539e-01, 5.31237125e-02, 1.61659524e-01,
          3.10575575e-01, 7.56289959e-01, 6.07427120e-01, 3.26471090e-01,
          5.33447325e-01, 4.18342054e-01, 5.92198610e-01, 5.14380693e-01,
          6.05575442e-01, 5.10307193e-01, 4.86306220e-01, 3.59645277e-01,
          2.82544285e-01, 3.52452308e-01, 7.93715492e-02,
          -4.03815135e-03, 2.05991566e-01, 1.25558684e-02,
          2.64246687e-02, -3.66873443e-02, 8.67213309e-02,
          -1.51990959e-02, 3.65144879e-01, 5.77562675e-02,
          1.05413131e-01, 1.64922744e-01, 3.61600339e-01, 6.17579699e-01,
          4.33093011e-01, 5.59045002e-02, 1.26223594e-01, 1.09841168e-01,
          4.08134004e-03, 7.78224170e-02, -2.50868052e-02,
          6.52771115e-01, 3.53284746e-01, 4.57606047e-01, 2.65051275e-01,
          1.20677315e-01, 2.59892970e-01, 2.15106234e-01, 3.55755299e-01,
          2.24662036e-01, 5.42894192e-03, 2.94852331e-02, 1.45520315e-01,
          4.59937304e-02, 1.51271895e-01, 2.53719658e-01, 1.89094722e-01,
          1.50169939e-01, 4.07555431e-01, 7.50266731e-01, 4.70119864e-01,
          9.63681221e-01, 8.01454782e-01, 8.41172993e-01, 5.51944971e-01,
          7.31329441e-01, 7.37877846e-01, 8.46714437e-01, 8.44459295e-01,
          8.97881269e-01, 5.60414970e-01, 1.00664616e+00, 1.17477250e+00,
          1.21473634e+00, 1.32160962e+00, 1.02253938e+00, 8.89716268e-01,
          8.26475918e-01, 1.02205992e+00, 9.42348838e-01, 1.04797494e+00,
          8.30790699e-01, 5.40116012e-01, 7.27246463e-01, 6.45340323e-01,
          5.67619443e-01, 5.08141816e-01, 3.18070740e-01, 3.41183692e-01,
          3.35276246e-01, 3.54876071e-01, 4.70300972e-01, 4.22448128e-01,
          3.43122780e-01, 2.61245221e-01, 3.96694303e-01, 4.00592119e-01,
          8.13138783e-02, 2.74349954e-02, 3.48310135e-02,
          -6.15035743e-02, -3.04625332e-01, -5.53369999e-01,
          -7.74073958e-01, -6.56765580e-01, -8.37079942e-01,
          -7.89392650e-01, -7.16863990e-01, -8.18735719e-01,
          -7.38855541e-01, -7.15880334e-01, -8.38209987e-01,
          -7.18713045e-01, -7.90573776e-01, -8.54679525e-01,
          -1.01659095e+00, -1.01872480e+00, -1.08416045e+00,
          -1.01250958e+00, -1.02254200e+00, -1.08673310e+00,
          -1.15030730e+00, -1.13594186e+00, -1.17154670e+00,
          -1.16241145e+00, -1.12476861e+00, -1.12736642e+00,
          -1.10742521e+00, -1.07525301e+00, -1.04615259e+00,
          -1.03141773e+00, -9.97478902e-01, -9.87429976e-01,
          -9.39691544e-01, -9.24518287e-01, -9.05182362e-01,
          -8.89592946e-01, -8.67827594e-01, -8.48049939e-01,
          -8.30829263e-01, -8.10244083e-01, -7.81789660e-01,
          -7.55475044e-01, -7.29894876e-01, -7.07236528e-01,
          -6.82749033e-01, -6.59070194e-01, -6.35968685e-01,
          -5.99216044e-01, -5.73034167e-01, -5.45088947e-01,
          -5.12272537e-01, -4.73323345e-01, -4.36369687e-01,
          -4.06959832e-01, -3.71330529e-01, -3.43711436e-01,
          -3.20266098e-01, -2.92571783e-01, -2.58918434e-01,
          -2.26977900e-01, -1.99365959e-01, -1.75057635e-01,
          -1.50788859e-01, -1.23637490e-01, -1.16132967e-01,
          -8.42116699e-02 ]
      - [ 1.22261739e+00, -1.34588242e-01, -2.93544859e-01,
          -3.78258526e-01, -3.31303179e-01, -3.35703850e-01,
          -3.57414842e-01, -3.57065201e-01, -3.67166847e-01,
          -3.29006344e-01, -3.77303004e-01, -3.59103680e-01,
          -3.51464689e-01, -3.52340549e-01, -3.54591697e-01,
          -3.48677844e-01, -3.70045006e-01, -3.67712349e-01,
          -3.41726184e-01, -3.51558179e-01, -2.55078524e-01,
          -2.72877693e-01, -3.13094676e-01, -4.04045671e-01,
          -3.43241543e-01, -4.51731831e-01, -4.54489052e-01,
          -5.51784575e-01, -4.74503398e-01, -4.93741661e-01,
          -3.19149315e-01, -5.25144041e-01, -5.86093128e-01,
          -4.17247444e-01, -5.24900198e-01, -5.12605548e-01,
          -5.69064438e-01, -2.92889267e-01, -5.16037405e-01,
          -4.86109585e-01, -3.55818391e-01, -3.98295373e-01,
          -5.16383767e-01, -4.76598769e-01, -4.30420488e-01,
          -2.64306813e-01, -2.03379959e-01, -3.98543715e-01,
          -2.86328793e-01, -1.44556016e-01, -7.65831545e-02,
          -2.18462661e-01, -1.12746671e-01, -1.93281218e-01,
          -3.31502408e-01, -1.07823350e-02, -2.80744761e-01,
          -4.33925927e-01, -2.05753043e-01, -1.04322784e-01,
          -2.21629232e-01, -2.63878107e-01, -3.01909953e-01,
          -1.32933602e-01, -1.26611143e-01, -2.20478773e-01,
          -2.68179923e-01, -2.23169476e-02, -1.01365373e-01,
          -2.37227574e-01, -5.41643836e-02, -3.70733850e-02,
          1.18582500e-02, 5.51367514e-02, 7.17819557e-02,
          -2.02688873e-02, -1.17722467e-01, -2.17526555e-01,
          1.44164160e-01, 3.08303442e-02, 2.76117831e-01,
          -4.16199751e-02, 4.32127118e-02, 1.38718620e-01,
          -1.33862630e-01, 2.50224382e-01, 1.67048544e-01,
          -5.68455085e-02, -8.51019472e-02, -3.75986367e-01,
          2.55551159e-01, -2.85668522e-01, -2.04685465e-01,
          -6.76751696e-03, -1.79085769e-02, 1.30666923e-02,
          -5.02055958e-02, -1.12175561e-01, 9.09243971e-02,
          -5.85060269e-02, -1.35396808e-01, -1.47021979e-01,
          -2.05246463e-01, 1.16379179e-01, -7.41514862e-02,
          -7.33812302e-02, -6.93928450e-02, -1.35049284e-01,
          8.08772743e-02, -6.46219822e-03, -1.80257484e-01,
          -3.07093978e-01, -4.09275949e-01, -4.07276809e-01,
          -4.57592577e-01, -2.86733627e-01, -5.15754402e-01,
          -6.27428830e-01, -6.56916857e-01, -4.77654904e-01,
          -4.93176520e-01, -4.64408249e-01, -4.45393294e-01,
          -3.39044154e-01, -3.52990746e-01, -1.27133861e-01,
          -5.04611373e-01, -3.16886991e-01, -3.95827085e-01,
          -4.65316176e-01, -2.25120112e-01, -1.77165404e-01,
          -3.88597548e-01, -2.88989812e-01, -3.26623291e-01,
          -4.67295080e-01, -4.78792965e-01, -3.69128108e-01,
          -1.06135443e-01, -5.12160957e-01, -2.71639884e-01,
          -1.72019958e-01, -2.15851188e-01, -4.19024378e-01,
          -3.93302560e-01, -4.68952715e-01, -1.59784913e-01,
          -1.80608898e-01, -2.27565795e-01, -2.72384346e-01,
          -6.99507743e-02, -2.44784102e-01, -3.36226791e-01,
          -1.34389803e-01, -9.73802134e-02, -2.67576486e-01,
          -2.95456827e-01, -3.54387790e-01, -1.58957183e-01,
          3.18260491e-02, -4.97412503e-01, -3.59908074e-01,
          -4.03677493e-01, -2.34864146e-01, -4.22024667e-01,
          -1.91706434e-01, -3.82679045e-01, 4.16959599e-02,
          3.30875367e-02, 1.49980351e-01, 2.24120989e-01, 1.49918377e-01,
          1.99097916e-01, 1.31354272e-01, 2.25659862e-01, 8.61122906e-02,
          4.72542830e-02, 1.14757195e-01, 2.92229116e-01, 2.08461285e-02,
          1.09276287e-01, 1.53188080e-01, 5.59648275e-02, 1.81851342e-01,
          1.95121784e-02, 1.65079713e-01, 1.48349017e-01, 3.75953764e-01,
          1.81419253e-01, 2.96326101e-01, 5.00315547e-01, 4.27485198e-01,
          6.08799875e-01, 6.91850424e-01, 9.46749330e-01, 6.97097421e-01,
          8.85545492e-01, 9.91235137e-01, 1.06280303e+00, 1.25857222e+00,
          1.03325546e+00, 9.03211832e-01, 3.23357254e-01, 6.38616979e-01,
          5.31270027e-01, 7.30215013e-01, 7.83106625e-01, 6.73928797e-01,
          6.67433262e-01, 5.46956420e-01, 6.54863477e-01, 6.84243858e-01,
          7.55686581e-01, 9.90531623e-01, 8.35750103e-01, 9.61164117e-01,
          1.24417067e+00, 7.13179767e-01, 6.64838672e-01, 4.56692904e-01,
          2.35390335e-01, -9.04194117e-02, -1.59421846e-01,
          -9.82689112e-02, -1.80443883e-01, -3.88743818e-01,
          -3.37448597e-01, -4.27064925e-01, -4.35866892e-01,
          -4.90289837e-01, -5.65150499e-01, -6.17933869e-01,
          -6.11254454e-01, -6.44986093e-01, -6.24384224e-01,
          -6.24306500e-01, -6.30852163e-01, -5.78481615e-01,
          -5.41222811e-01, -5.06267846e-01, -5.00622809e-01,
          -4.49269116e-01, -4.30174291e-01, -4.06959832e-01,
          -3.71330529e-01, -3.29729378e-01, -3.20266098e-01,
          -2.92571783e-01, -2.58918434e-01, -2.26977900e-01,
          -1.99365959e-01, -1.75057635e-01, -1.50788859e-01,
          -1.23637490e-01, -1.16132967e-01, -8.42116699e-02 ]
      - [ -4.21537399e-01, -2.05749571e-01, -3.39435667e-01,
          -3.78258526e-01, -2.12931871e-01, -3.33595812e-01,
          -4.14146632e-01, -3.93012404e-01, -4.77034956e-01,
          -4.24257874e-01, -4.65350270e-01, -4.54099357e-01,
          -4.23101425e-01, -4.70549226e-01, -4.99250531e-01,
          -4.85866159e-01, -4.64527637e-01, -5.00353813e-01,
          -4.94295001e-01, -4.66635555e-01, -3.97486836e-01,
          -4.70626950e-01, -5.11475384e-01, -5.72708249e-01,
          -5.38471282e-01, -7.38435745e-01, -7.10461736e-01,
          -7.84968138e-01, -7.51486957e-01, -8.39579761e-01,
          -9.15084183e-01, -8.15099001e-01, -8.49891543e-01,
          -8.44362020e-01, -8.75944436e-01, -8.41189861e-01,
          -8.26620758e-01, -8.88856590e-01, -8.16803455e-01,
          -8.99178386e-01, -8.32981706e-01, -8.35939229e-01,
          -7.41965294e-01, -7.66020536e-01, -7.05537319e-01,
          -7.56030798e-01, -7.62874007e-01, -7.72024274e-01,
          -8.19065928e-01, -6.18974447e-01, -7.72135556e-01,
          -6.09395862e-01, -7.04653561e-01, -6.59460425e-01,
          -5.67775011e-01, -5.75679839e-01, -4.87559557e-01,
          -6.03078485e-01, -6.17163658e-01, -3.63479048e-01,
          -4.72021699e-01, -5.14343977e-01, -3.82604778e-01,
          -3.98762047e-01, -5.45365274e-01, -3.65792036e-01,
          -5.50840974e-01, -6.04138136e-01, -5.06776214e-01,
          -5.46173573e-01, -5.98665774e-01, -6.69159651e-01,
          -6.90318108e-01, -6.38264239e-01, -5.71934938e-01,
          -7.29128063e-01, -3.25277507e-01, -5.33958435e-01,
          -5.15587389e-01, -3.36352527e-01, -3.48095119e-01,
          -4.30235296e-01, -2.56062657e-01, -3.25352907e-01,
          -3.08920622e-01, -2.81870276e-01, -1.05959117e-01,
          -1.02601707e-01, -3.28150034e-01, -2.01930821e-01,
          6.64830534e-03, 1.44281117e-02, -4.66590896e-02,
          2.92688638e-01, 2.81371593e-01, 3.32888752e-01, 4.15934026e-01,
          3.72454822e-01, 4.88409430e-01, 7.48030365e-01, 6.98903024e-01,
          9.28873301e-01, 2.81718755e+00, 7.42262602e-01, 5.38817346e-01,
          4.43798333e-01, 3.73712093e-01, 7.34937310e-01, 4.06767309e-01,
          5.21745503e-01, 5.43500483e-01, 5.17507792e-01, 7.99555540e-01,
          5.58694661e-01, 2.17191994e-01, 2.56473601e-01, 2.79648542e-01,
          4.47859347e-01, 4.46316421e-01, 2.99769133e-01, 3.31179380e-01,
          3.61600339e-01, 6.78905070e-01, 6.83698952e-01, 8.53585362e-01,
          1.03297663e+00, 9.02683198e-01, 8.68730724e-01, 1.25221360e+00,
          8.16528201e-01, 8.08840632e-01, 7.65857041e-01, 8.05271089e-01,
          9.04836833e-01, 9.28488851e-01, 7.78351068e-01, 5.78898072e-01,
          7.11485147e-01, 6.34850919e-01, 1.03405702e+00, 8.93583357e-01,
          6.50992572e-01, 8.63460779e-01, 9.28378880e-01, 7.68824697e-01,
          9.16743338e-01, 1.33187282e+00, 1.18076026e+00, 8.30636501e-01,
          1.13088048e+00, 1.50116980e+00, 1.93776727e+00, 1.24052501e+00,
          7.64708757e-01, 1.10492814e+00, 1.17357469e+00, 1.03928983e+00,
          1.13925779e+00, 8.84992957e-01, 8.59736443e-01, 9.94006991e-01,
          1.00009346e+00, 5.53781092e-01, 9.58637476e-01, 9.49704170e-01,
          1.37635648e+00, 1.02303803e+00, 9.57095981e-01, 1.11246872e+00,
          1.08879292e+00, 9.81013715e-01, 1.15086007e+00, 1.24977648e+00,
          8.52052093e-01, 1.08055890e+00, 7.27377951e-01, 8.16372991e-01,
          1.00428975e+00, 8.67984653e-01, 7.69719720e-01, 5.94234824e-01,
          3.41670096e-01, 4.44159836e-01, 3.03588599e-01, 3.44307899e-01,
          3.79657686e-01, 3.49454433e-01, 3.29826266e-01, 4.29102808e-01,
          1.14891328e-01, 4.53489609e-02, -2.29074936e-02,
          -3.93783659e-01, -4.65507299e-01, -3.85046899e-01,
          -4.45611537e-01, -1.61812514e-01, -2.39353523e-01,
          -5.77995852e-02, 1.66561380e-02, 1.24257937e-01,
          2.83491284e-01, 1.82905078e-01, 1.34386986e-01,
          -3.51155370e-01, -2.52066255e-01, -3.54314893e-01,
          -1.97242439e-01, -6.55117929e-02, 5.68495691e-02,
          -7.55793080e-02, -2.46905118e-01, -1.56223819e-01,
          -2.74794608e-01, -5.92693314e-02, -1.72879636e-01,
          -2.86246501e-02, -2.19335570e-03, 3.54549438e-02,
          -4.40235548e-02, 2.35390335e-01, 8.15463439e-02,
          -8.59846994e-02, 1.06023520e-01, 8.68034214e-02,
          6.42152503e-03, -1.95709392e-01, -4.08560097e-01,
          -5.01693964e-01, -5.04405499e-01, -4.66250002e-01,
          -5.94219863e-01, -6.49219394e-01, -7.02448010e-01,
          -6.82749033e-01, -6.59070194e-01, -6.35968685e-01,
          -6.04399621e-01, -5.73034167e-01, -5.45088947e-01,
          -5.12272537e-01, -4.73323345e-01, -4.36369687e-01,
          -4.06959832e-01, -3.71330529e-01, -3.43711436e-01,
          -3.20266098e-01, -2.92571783e-01, -2.58918434e-01,
          -2.26977900e-01, -1.99365959e-01, -1.75057635e-01,
          -1.50788859e-01, -1.23637490e-01, -1.16132967e-01,
          -8.42116699e-02 ]
      - [ 1.40717769e+00, -9.27286223e-02, -1.17893755e-01,
          -2.10822940e-01, -2.69108087e-01, -2.36626685e-01,
          -2.17767388e-01, -2.62061864e-01, -2.15727001e-01,
          -1.32730514e-01, -2.54036814e-01, -2.27571175e-01,
          -2.79827982e-01, -2.10490122e-01, -2.18442231e-01,
          -2.50073731e-01, -1.76785052e-01, -1.56468511e-01,
          -1.58643603e-01, -9.63866264e-02, -7.38315880e-02,
          -1.23229623e-01, -7.50377849e-02, 6.36095926e-02,
          -1.40781119e-01, -1.46530911e-01, 1.03165723e-01,
          4.17736359e-02, 9.92482379e-02, 2.08742008e-01,
          -1.35784715e-01, 9.93743613e-02, 1.50344059e-01,
          -2.13851333e-02, 1.11367539e-01, 4.62194532e-01,
          5.47012806e-01, 2.28582129e-01, 4.17374492e-01, 2.88394421e-01,
          6.28965437e-01, 5.36671162e-01, 3.66326571e-01, 7.19677866e-01,
          5.18258333e-01, 8.39752614e-01, 6.93586707e-01, 5.79619586e-01,
          4.73476678e-01, 4.21416849e-01, 5.60308218e-01, 6.46581054e-01,
          6.89976335e-01, 8.69934559e-01, 6.70619369e-01, 5.04993677e-01,
          4.69916344e-01, 1.01595342e+00, 5.14215529e-01, 6.56948745e-01,
          5.53779662e-01, 6.00633025e-01, 4.08204317e-01, 8.25659871e-01,
          6.94791257e-01, 6.51400805e-01, 4.26358640e-01, 3.17078769e-01,
          2.79720843e-01, 3.88794541e-01, 6.04113400e-01, 4.24835801e-01,
          5.44543743e-01, 5.46967685e-01, 7.31591761e-01, 7.77197659e-01,
          8.96103978e-01, 1.11939812e+00, 8.11769903e-01, 9.05819356e-01,
          9.86160040e-01, 7.20066071e-01, 6.03394806e-01, 7.70160198e-01,
          5.58758140e-01, 5.92285275e-01, 5.31058788e-01, 5.68489194e-01,
          5.98470747e-01, 4.94291365e-01, 7.38271892e-01, 7.72172093e-01,
          4.72570449e-01, 5.69685578e-01, 6.33025825e-01, 4.74205464e-01,
          6.82299495e-01, 8.35056543e-01, 7.75481939e-01, 5.03849626e-01,
          7.94884443e-01, 5.92198610e-01, 8.16624105e-01, 7.92621076e-01,
          5.31689823e-01, 6.56337857e-01, 5.28447151e-01, 4.77421254e-01,
          3.99977952e-01, 5.21745503e-01, 4.42803711e-01, 4.01452720e-01,
          3.39947730e-01, 2.56417871e-01, -7.00925216e-02,
          -8.30309242e-02, -1.86622143e-01, -5.53203821e-02,
          -2.12848127e-01, -2.20827311e-01, -4.86249149e-01,
          -5.33242285e-01, -6.08927608e-01, -7.18339562e-01,
          -6.34525180e-01, -6.27181470e-01, -5.90502620e-01,
          -6.57506466e-01, -5.83989203e-01, -6.27165198e-01,
          -8.62404108e-01, -7.46908128e-01, -7.95300066e-01,
          -4.40691531e-01, -5.80316186e-01, -4.67295080e-01,
          -5.39424956e-01, -2.68449843e-01, -2.31838480e-01,
          -4.20436174e-01, -4.68025804e-01, -8.26541781e-01,
          -4.01058555e-01, -6.32102072e-01, -4.81247336e-01,
          -6.01827681e-01, -4.89111930e-01, -6.49818659e-01,
          -6.56204700e-01, -5.72110772e-01, -4.90294456e-01,
          -4.66503590e-01, -6.25412703e-01, -2.57930070e-01,
          -1.85685351e-01, -3.21200699e-01, -2.35692054e-01,
          -3.47836703e-01, -1.39624774e-01, -1.14650406e-01,
          -2.25670815e-01, -2.60091424e-01, -2.92488754e-01,
          -2.59472430e-01, -3.49189520e-01, -3.59927744e-01,
          -3.82679045e-01, -4.13051158e-01, -4.94870663e-01,
          -4.33133066e-01, -4.46104616e-01, -2.62899369e-01,
          -5.14464498e-01, -3.88218582e-01, -2.59702146e-01,
          -3.24955463e-01, -4.18550014e-01, -2.51838058e-01,
          -5.90237319e-01, -3.13183814e-01, -3.16409558e-01,
          -4.98421192e-01, -2.89688259e-01, -3.73905778e-01,
          -2.94806272e-01, -3.21645916e-01, -3.93088669e-01,
          -3.15958500e-01, -6.32398188e-01, -4.04213667e-01,
          -2.69627929e-01, -3.83221656e-01, -3.83905977e-01,
          -2.98769325e-01, -2.68393219e-01, -2.90667951e-01,
          -2.14904398e-01, -2.92024642e-01, -2.46176764e-01,
          -3.03525358e-01, -8.96238312e-02, 1.72135234e-01,
          2.31336862e-01, 1.14993520e-01, 8.28243345e-02, 1.83970809e-01,
          2.19135121e-01, 1.23976981e-02, -2.28907183e-01,
          -3.25900555e-01, -3.36119413e-01, -2.70300835e-01,
          -2.31432915e-01, -1.94531381e-01, -1.20831512e-01,
          -1.06727079e-01, -1.61108926e-01, -3.36347908e-01,
          -3.65485787e-01, -2.31207281e-01, -2.11233988e-01,
          -3.64635080e-01, -4.53170449e-01, -6.38508916e-01,
          -6.60583079e-01, -6.13896191e-01, -6.48360431e-01,
          -6.07487082e-01, -6.47453845e-01, -6.22035682e-01,
          -6.54631913e-01, -6.08448267e-01, -6.16000056e-01,
          -5.97101152e-01, -5.95201790e-01, -5.94509065e-01,
          -6.05269372e-01, -5.47380030e-01, -5.20015240e-01,
          -5.17359614e-01, -4.54024047e-01, -4.55282688e-01,
          -3.99197251e-01, -3.93970460e-01, -3.58047485e-01,
          -3.29729378e-01, -3.05304080e-01, -2.84718454e-01,
          -2.51040488e-01, -2.11457610e-01, -1.91993117e-01,
          -1.62265420e-01, -1.39578596e-01, -1.23637490e-01,
          -1.05831265e-01, -8.42116699e-02 ]
      - [ -2.17676669e-01, -1.32913858e-01, -2.53983796e-01,
          -3.03842694e-01, -3.47353548e-01, -3.25163722e-01,
          -3.44322890e-01, -3.54497552e-01, -3.70136231e-01,
          -3.66529673e-01, -4.19565678e-01, -3.73718381e-01,
          -3.62775773e-01, -4.15385187e-01, -4.14157093e-01,
          -3.57252091e-01, -3.78634334e-01, -3.87362927e-01,
          -3.62068683e-01, -4.36615378e-01, -3.50017399e-01,
          -3.74424607e-01, -3.24430704e-01, -4.80710477e-01,
          -4.37241048e-01, -5.71962476e-01, -5.45907855e-01,
          -6.47177875e-01, -6.03102922e-01, -6.45045817e-01,
          -7.66100466e-01, -7.03577816e-01, -7.39975572e-01,
          -6.98518038e-01, -7.88183331e-01, -7.31661737e-01,
          -8.58815312e-01, -7.61149287e-01, -8.37545931e-01,
          -8.16564620e-01, -7.72067249e-01, -7.36474752e-01,
          -7.91004777e-01, -8.43199670e-01, -8.85786295e-01,
          -8.48808885e-01, -7.98397481e-01, -8.16486239e-01,
          -8.71466339e-01, -7.43821383e-01, -8.47556889e-01,
          -8.42292249e-01, -7.77628362e-01, -8.39389265e-01,
          -7.55163610e-01, -8.37661326e-01, -7.09693968e-01,
          -6.83627367e-01, -6.90629840e-01, -5.90240777e-01,
          -7.06259787e-01, -7.40571141e-01, -8.42565179e-01,
          -7.61255383e-01, -8.83589804e-01, -7.37148166e-01,
          -6.55829370e-01, -8.06159437e-01, -8.63537788e-01,
          -7.00646520e-01, -7.12442160e-01, -6.85366988e-01,
          -6.98389113e-01, -5.49573421e-01, -4.59284455e-01,
          -5.92189312e-01, -4.92918104e-01, -6.36798799e-01,
          -5.39149940e-01, -5.16037762e-01, -4.57332373e-01,
          -3.91373783e-01, -5.39990544e-01, -2.72098809e-01,
          -4.76367414e-01, -2.66667575e-01, -2.72797137e-01,
          -3.61886829e-01, -4.49674070e-01, -2.47336611e-01,
          -1.89456984e-01, -1.43122613e-01, -2.87461191e-01,
          -1.34036377e-01, -2.94456747e-03, 1.32070243e-01,
          -1.90787390e-01, -9.01469067e-02, 7.62027353e-02,
          3.02869715e-02, 2.70332582e-02, 2.13153753e-02,
          -1.11694925e-01, -2.50517994e-01, -4.30528730e-01,
          -1.44227743e-01, -1.04559906e-01, -1.48969069e-01,
          -2.65380889e-01, -1.25308931e-01, -1.29909098e-01,
          -1.66606262e-01, -1.13364078e-01, -5.24301454e-02,
          -9.68166664e-02, -2.73153454e-01, -1.59194455e-01,
          6.87513351e-02, -2.61418134e-01, -3.66594315e-01,
          -9.13896039e-02, -9.95877832e-02, -6.38132468e-02,
          6.73438385e-02, -3.12771529e-01, -1.37897413e-02,
          6.35920465e-02, -2.21201554e-02, 1.62170947e-01,
          1.69132039e-01, 2.10574046e-01, 4.05674875e-01, 3.39531124e-01,
          7.53135085e-01, 4.67835993e-01, 4.34956759e-01, 4.50897217e-01,
          6.10806882e-01, 6.15003049e-01, 3.85431677e-01, 5.40088654e-01,
          7.74120450e-01, 6.33548200e-01, 3.76883596e-01, 4.61018026e-01,
          7.14267194e-01, 5.37613511e-01, 5.00075698e-01, 5.15854836e-01,
          7.35786498e-01, 8.12081814e-01, 7.39096165e-01, 7.17236161e-01,
          7.57845402e-01, 5.88682711e-01, 9.12156582e-01, 8.93198192e-01,
          9.36174393e-01, 1.35541499e+00, 1.36921978e+00, 1.27206826e+00,
          1.12486422e+00, 1.16531920e+00, 7.61771262e-01, 6.52293921e-01,
          5.95328987e-01, 4.51220959e-01, 4.43290800e-01, 5.19982338e-01,
          4.94017273e-01, 9.40569043e-01, 6.30596578e-01, 7.44102299e-01,
          6.22993112e-01, 7.05506384e-01, 9.02766883e-01, 1.34717321e+00,
          9.55769837e-01, 9.11031783e-01, 7.32006669e-01, 8.31325710e-01,
          9.87894177e-01, 8.00448418e-01, 5.52356064e-01, 3.75739753e-01,
          4.63395417e-01, 3.64924103e-01, 2.83698797e-01, 3.93719465e-01,
          2.91286230e-01, 5.95308602e-01, 4.32489574e-01, 3.47041607e-01,
          5.88865221e-01, 9.71052170e-01, 1.39434361e+00, 1.04482114e+00,
          1.02475309e+00, 1.58446300e+00, 1.44777048e+00, 2.21932697e+00,
          1.35831904e+00, 1.66007447e+00, 1.20587575e+00, 1.35100949e+00,
          1.37229156e+00, 1.42764556e+00, 9.06862259e-01, 1.30234110e+00,
          7.00990021e-01, 8.27006042e-01, 9.60313201e-01, 6.28771245e-01,
          5.79772711e-01, 6.74741328e-01, 1.62608311e-01, 5.65438159e-02,
          -1.05734199e-01, -1.32380709e-01, -2.06255894e-02,
          -7.16638863e-02, -1.83373868e-01, -5.26607573e-01,
          -6.74827576e-01, -3.38980407e-01, -8.34453583e-01,
          -8.49538684e-01, -8.48049939e-01, -8.35531175e-01,
          -8.10244083e-01, -7.81789660e-01, -7.55475044e-01,
          -7.29894876e-01, -7.07236528e-01, -6.82749033e-01,
          -6.59070194e-01, -6.35968685e-01, -6.04399621e-01,
          -5.73034167e-01, -5.45088947e-01, -5.12272537e-01,
          -4.73323345e-01, -4.36369687e-01, -4.06959832e-01,
          -3.71330529e-01, -3.43711436e-01, -3.20266098e-01,
          -2.92571783e-01, -2.58918434e-01, -2.26977900e-01,
          -1.99365959e-01, -1.75057635e-01, -1.50788859e-01,
          -1.23637490e-01, -1.16132967e-01, -8.42116699e-02 ]
      - [ 1.11043370e+00, -1.23704739e-01, -2.66643316e-01,
          -3.28027844e-01, -3.11240256e-01, -3.37811857e-01,
          -3.13775033e-01, -3.33956301e-01, -2.33543441e-01,
          -2.68391758e-01, -3.03343266e-01, -2.64107972e-01,
          -2.49665141e-01, -2.38072142e-01, -1.33348808e-01,
          -1.68618158e-01, -9.08917338e-02, -1.56468511e-01,
          -6.71023056e-02, -1.51423633e-01, -4.79391739e-02,
          2.10738853e-02, 3.26546133e-02, 2.09272712e-01, 2.55256798e-02,
          8.46819133e-02, 1.21449485e-01, 2.21960947e-01, 1.78386390e-01,
          1.76319689e-01, -2.11818516e-02, 1.32830694e-01,
          -1.02462746e-01, -3.18025611e-02, 1.26363412e-02,
          8.97989944e-02, 3.53845596e-01, -5.54788345e-03,
          2.32672561e-02, 1.74800500e-01, 3.34545523e-01, 9.50918067e-03,
          2.87863433e-01, 4.43604216e-02, 4.39189225e-02, 2.27417126e-01,
          -6.12862371e-02, 9.94303375e-02, 6.30070567e-02,
          -3.06279399e-03, 2.67002970e-01, 1.55835092e-01,
          1.54827669e-01, 3.95576745e-01, 2.46958122e-01, 2.75759876e-01,
          2.63101548e-01, 3.47397923e-01, 2.79123753e-01, 2.27721199e-01,
          5.69934011e-01, 6.73348904e-01, 4.16273803e-01, 4.39000338e-01,
          4.37096387e-01, 4.57649797e-01, 1.84077740e-01, 4.22129810e-01,
          2.87829071e-01, 3.48143756e-01, 4.49702561e-01, 2.22244054e-01,
          4.39620852e-01, 2.80895233e-01, 3.77547473e-01, 2.61663735e-01,
          1.85627177e-01, 4.39069599e-01, 5.83998561e-01, 5.85510850e-01,
          7.98896194e-01, 5.72392225e-01, 4.95962620e-01, 3.06088686e-01,
          6.42481506e-01, 4.17454153e-01, 3.41470122e-01, 6.75253630e-01,
          4.46565717e-01, 3.12668175e-01, 2.70636201e-01, 3.37031990e-01,
          1.56517684e-01, 3.37607056e-01, 1.01803496e-01,
          -1.80875161e-03, 7.55781084e-02, -3.14038284e-02,
          1.86615244e-01, 3.78059566e-01, 1.67313769e-01, 1.96971744e-01,
          3.20081353e-01, 1.09185122e-01, 1.32547319e-01, 4.36713666e-01,
          8.53422061e-02, 5.98277077e-02, 2.57401049e-01, 1.98218286e-01,
          1.59594074e-01, 2.36532360e-01, 4.02907699e-01, 2.76131600e-01,
          5.91329992e-01, 3.92275393e-01, 4.92213130e-01, 5.37466705e-01,
          4.67132151e-01, 3.55299443e-01, 3.38106751e-01, 1.75748408e-01,
          1.95116073e-01, 2.70537823e-01, 8.98209680e-03, 5.28832749e-02,
          -2.47811899e-03, -1.33476511e-01, -7.78979659e-02,
          -1.41618118e-01, -2.64137506e-01, -5.92875890e-02,
          -1.78686574e-01, 8.69666487e-02, 2.05353908e-02,
          -1.61691662e-02, -3.41585279e-02, -1.20788410e-01,
          8.57270956e-02, -1.97675973e-01, 1.86593994e-01,
          1.26079068e-01, 1.35404184e-01, -4.30048592e-02,
          2.60001421e-01, 1.25820935e-01, 3.39368656e-02, 1.56429097e-01,
          3.08232844e-01, 2.79384822e-01, 2.74593204e-01, 3.23372126e-01,
          6.13955498e-01, 3.04864436e-01, 5.34341097e-01, 4.63053674e-01,
          9.99446630e-01, 4.71047908e-01, 6.01450980e-01, 5.34940839e-01,
          1.05720270e+00, 6.32019639e-01, 7.08209872e-01, 3.92647028e-01,
          6.28015578e-01, 6.61415935e-01, 3.20179522e-01, 3.90138566e-01,
          5.06861433e-02, 2.08291695e-01, 1.02787040e-01, 3.76119882e-01,
          2.44046733e-01, 4.60975766e-01, 3.91124189e-01, 4.86218244e-01,
          6.21385157e-01, 5.89174569e-01, 6.47368014e-01, 5.38053751e-01,
          4.48747277e-01, 3.57825696e-01, 2.04861537e-01, 2.98295677e-01,
          2.50012368e-01, 3.48256022e-01, 1.38035923e-01, 3.45202118e-01,
          4.44267124e-01, 4.57601428e-01, 4.70317751e-01, 3.97459030e-01,
          1.98876560e-01, 1.67116195e-01, 1.39894679e-01,
          -3.00351918e-01, -2.58343190e-01, -3.15966040e-01,
          -4.97346312e-01, -5.65492034e-01, -9.45150912e-01,
          -9.84999180e-01, -9.69771385e-01, -9.75888669e-01,
          -9.53904927e-01, -1.01393318e+00, -1.05572486e+00,
          -1.09170699e+00, -1.11124229e+00, -1.15674841e+00,
          -1.12704468e+00, -1.10318792e+00, -1.11513996e+00,
          -1.10103369e+00, -1.10582650e+00, -1.10846567e+00,
          -1.08849883e+00, -1.07525301e+00, -1.05081475e+00,
          -1.01269937e+00, -1.00678360e+00, -9.78134513e-01,
          -9.62640643e-01, -9.29058135e-01, -9.05182362e-01,
          -8.94187868e-01, -8.67827594e-01, -8.48049939e-01,
          -8.35531175e-01, -8.10244083e-01, -7.81789660e-01,
          -7.55475044e-01, -7.29894876e-01, -7.07236528e-01,
          -6.82749033e-01, -6.59070194e-01, -6.35968685e-01,
          -6.04399621e-01, -5.73034167e-01, -5.45088947e-01,
          -5.12272537e-01, -4.73323345e-01, -4.36369687e-01,
          -4.06959832e-01, -3.71330529e-01, -3.43711436e-01,
          -3.20266098e-01, -2.92571783e-01, -2.58918434e-01,
          -2.26977900e-01, -1.99365959e-01, -1.75057635e-01,
          -1.50788859e-01, -1.23637490e-01, -1.16132967e-01,
          -8.42116699e-02 ]
      - [ 1.02448654e+00, -7.43103996e-02, -3.71891968e-02,
          -1.28965542e-01, -1.36692733e-01, -1.03821144e-01,
          -9.99398530e-02, -1.46517262e-01, -1.86032906e-01,
          -1.93345115e-01, -1.30770609e-01, -2.49493256e-01,
          -1.66717350e-01, -1.59266353e-01, -7.37834126e-02,
          5.43128774e-02, -1.51017055e-01, -9.75167379e-02,
          3.96958739e-02, -1.01389997e-01, -2.20467541e-02,
          1.97444841e-01, -1.35351438e-03, -2.83881649e-02,
          -9.01660025e-02, 4.76878658e-02, 1.85442656e-01,
          2.32560202e-01, 1.38817310e-01, 1.42080775e-02,
          -1.12864144e-01, -9.02115777e-02, 1.84448529e-02,
          -5.50275145e-04, 2.64949411e-01, 8.97989944e-02,
          2.11687256e-02, -1.11970618e-01, -1.53043881e-01,
          6.12065792e-02, -1.06364302e-02, -9.99017954e-02,
          1.30937144e-01, 1.98718697e-01, 3.47496152e-01, 8.82499740e-02,
          1.25211775e-01, 1.70569494e-01, 5.42736612e-02, 1.30107298e-01,
          -1.26864046e-01, 6.43400922e-02, 2.44019106e-01,
          5.20762689e-02, 1.24748148e-01, 3.00320655e-01, 1.63524047e-01,
          2.52025258e-02, -4.77334906e-05, -1.52378138e-02,
          -2.37783581e-01, -2.15400860e-01, -9.21034738e-02,
          -3.74595821e-01, -2.99755652e-02, -2.85062462e-01,
          -3.16636115e-01, -2.00095654e-01, -2.87854373e-01,
          -3.02268833e-01, -1.35433242e-01, -2.23457798e-01,
          -2.06058547e-01, -3.39940578e-01, -3.22494626e-01,
          -4.79416281e-01, -4.13089246e-01, -4.07385707e-01,
          -2.48545110e-01, -2.19166517e-01, -2.93476462e-01,
          -4.61324543e-01, -3.32799911e-01, -3.25352907e-01,
          -3.39365482e-01, -1.22241884e-01, -3.33465517e-01,
          -2.01740131e-01, -3.95304337e-02, -2.92742401e-01,
          -3.62934738e-01, -3.23180586e-01, -4.30437446e-01,
          -3.43655676e-01, -4.21936810e-01, -4.40634370e-01,
          -4.71950978e-01, -3.76519412e-01, -5.20024776e-01,
          -3.32284451e-01, -4.82406467e-01, -4.17825550e-01,
          -4.13938344e-01, -3.36846739e-01, -4.16273624e-01,
          -3.42597991e-01, -2.17094496e-01, -3.02086711e-01,
          -1.97487131e-01, -1.31911531e-01, -2.05431670e-01,
          -2.58228689e-01, -2.51876026e-01, -7.21438527e-02,
          -1.23540804e-01, -1.37351647e-01, -1.18052922e-01,
          -2.62106568e-01, -2.19786704e-01, -1.25887319e-02,
          -9.83169675e-02, -1.01035209e-02, -2.00091824e-01,
          -1.49396420e-01, -1.58597916e-01, -1.00464657e-01,
          2.39499472e-02, -1.53127640e-01, -4.08803791e-01,
          -2.51675457e-01, -3.16160679e-01, -4.98054981e-01,
          -1.65567145e-01, -2.75798351e-01, -3.46651673e-01,
          -4.26895738e-01, -4.11424130e-01, -4.96653885e-01,
          -3.24461788e-01, -2.89400756e-01, -5.72764993e-01,
          -6.06207669e-01, -5.73493004e-01, -2.62349576e-01,
          -1.67158872e-01, -3.80369395e-01, -3.85793656e-01,
          -3.45823616e-01, -3.21330547e-01, -3.88187736e-01,
          -3.59367728e-01, -4.87289786e-01, -3.49997550e-01,
          -5.25600612e-01, -4.43808049e-01, -3.21200699e-01,
          -1.16162501e-01, -4.65756088e-01, -3.07172328e-01,
          -3.82279083e-02, -2.06712097e-01, 1.01743832e-01,
          -9.48198885e-02, -1.73343450e-01, 2.69909352e-01,
          1.20704576e-01, 4.02273796e-02, 2.18870163e-01, 3.55728656e-01,
          3.54070038e-01, 4.55233276e-01, 5.34460962e-01, 6.54204667e-01,
          7.29142368e-01, 7.49630213e-01, 7.54782498e-01, 7.13462710e-01,
          8.15601051e-01, 9.75602508e-01, 7.32006669e-01, 7.39722431e-01,
          5.51692903e-01, 8.05766165e-01, 4.99426812e-01, 8.05308282e-01,
          8.03579986e-01, 7.82604575e-01, 5.91215372e-01, 5.65581501e-01,
          7.14634001e-01, 8.15292418e-01, 6.97720826e-01, 6.33494079e-01,
          9.90997970e-01, 5.96788287e-01, 3.67842317e-01, 1.85697973e-01,
          2.25109890e-01, 3.18954766e-01, 3.17432702e-01, 1.53423637e-01,
          2.20466740e-02, 2.41023228e-01, 3.67108524e-01, 7.19327867e-01,
          8.21255744e-01, 1.42290628e+00, 1.24694514e+00, 7.70138919e-01,
          3.69584411e-01, 9.65632647e-02, 2.06971526e-01, 4.21946168e-01,
          1.64292485e-01, -4.03271206e-02, -1.25627801e-01,
          -1.65840507e-01, -2.70458281e-01, -2.44271144e-01,
          -4.27750200e-01, -5.64811587e-01, -7.78282404e-01,
          -7.88227439e-01, -8.56420815e-01, -8.05530787e-01,
          -8.43643486e-01, -8.49538684e-01, -8.48049939e-01,
          -8.35531175e-01, -8.10244083e-01, -7.81789660e-01,
          -7.55475044e-01, -7.29894876e-01, -7.07236528e-01,
          -6.82749033e-01, -6.59070194e-01, -6.35968685e-01,
          -6.04399621e-01, -5.73034167e-01, -5.45088947e-01,
          -5.12272537e-01, -4.73323345e-01, -4.36369687e-01,
          -4.06959832e-01, -3.71330529e-01, -3.43711436e-01,
          -3.20266098e-01, -2.92571783e-01, -2.58918434e-01,
          -2.26977900e-01, -1.99365959e-01, -1.75057635e-01,
          -1.50788859e-01, -1.23637490e-01, -1.16132967e-01,
          -8.42116699e-02 ]
      - [ -1.41175110e-02, -1.70587495e-01, -2.77720422e-01,
          -3.42911005e-01, -3.15252841e-01, -2.76679158e-01,
          -2.57043242e-01, -2.33817622e-01, -1.83063507e-01,
          -2.88197678e-02, -1.80700868e-02, -1.04298384e-03,
          -6.11474365e-02, -5.28785437e-02, -9.96334758e-03,
          1.14415251e-02, -1.78824198e-02, 8.42512175e-02,
          7.52952695e-02, 5.04016995e-01, 1.24676950e-01, 1.54688239e-01,
          3.27391714e-01, 4.69933033e-01, 3.21985602e-01, 5.65604568e-01,
          6.24252975e-01, 1.23948932e+00, 1.28632057e+00, 7.38306642e-01,
          6.54975057e-01, 8.46565962e-01, 8.09840083e-01, 8.12009215e-01,
          5.94053388e-01, 5.82675457e-01, 4.61160719e-01, 6.64915323e-01,
          5.83314359e-01, 5.56889176e-01, 6.18813038e-01, 4.67045993e-01,
          3.85942340e-01, 4.59198296e-01, 1.95707530e-01, 2.27417126e-01,
          2.67305493e-01, 2.59493440e-01, 3.25008929e-01, 3.13216150e-01,
          3.42424303e-01, 2.30694652e-01, 4.38618630e-01, 3.30148071e-01,
          2.14368790e-01, 2.34825283e-01, 1.94163278e-01, 6.54769540e-02,
          2.86470383e-01, 5.76498881e-02, 2.06461102e-01, 3.90564889e-01,
          2.71023154e-01, 2.13448927e-01, 4.85414177e-01, 3.84993166e-01,
          3.13294202e-01, 3.17078769e-01, 4.82426286e-01, 4.37575489e-01,
          1.49007767e-01, 2.95177102e-01, 3.10484976e-01, 4.01837260e-01,
          2.24664703e-01, 2.29442865e-01, 1.61678523e-01, 2.09656477e-01,
          2.22706020e-01, 5.42675480e-02, 4.20379862e-02, 2.22638443e-01,
          -1.33283004e-01, -1.04728736e-01, 1.24918759e-01,
          1.05798692e-01, -4.52907458e-02, 6.51710182e-02,
          -1.53459221e-01, -1.27400076e-02, 1.72583550e-01,
          3.29529554e-01, 2.84443796e-01, 1.20501347e-01, 4.53457713e-01,
          2.36198351e-01, 3.86337847e-01, 5.33998311e-01, 3.33831906e-01,
          5.55645525e-01, 3.66659760e-01, 7.01983809e-01, 1.61763385e-01,
          5.40828884e-01, 3.74883831e-01, 4.72136915e-01, 2.26010442e-01,
          1.36386529e-01, 2.57401049e-01, 5.29611669e-02, 1.53300539e-01,
          1.99883401e-01, 2.95875758e-01, 4.66697395e-01, 3.04045469e-01,
          2.49683499e-01, 3.61931622e-01, 1.58358693e-01, 1.54896304e-01,
          1.12354420e-01, -6.36801645e-02, 1.41331390e-01,
          1.61046430e-01, -1.96808353e-01, 1.76562116e-01,
          -2.27143392e-01, -2.27116689e-01, 1.67840689e-01,
          -7.78979659e-02, 3.31788473e-02, -6.25476614e-02,
          -5.92875890e-02, -2.11485162e-01, -3.83521691e-02,
          -1.12987183e-01, -2.98964500e-01, -3.17107707e-01,
          -1.74483478e-01, -3.37693691e-01, -2.56641895e-01,
          -3.76379043e-01, -3.08108658e-01, -2.98875183e-01,
          -2.68616557e-01, -1.98567718e-01, -5.76730631e-02,
          -4.18080628e-01, -2.00434670e-01, -8.69186446e-02,
          -5.24427056e-01, -3.45585972e-01, -3.07142705e-01,
          -3.98195207e-01, -2.85383463e-01, -9.05875117e-02,
          2.82071888e-01, -8.29598457e-02, -2.95428097e-01,
          -2.23398551e-01, -2.86601037e-01, -2.19351232e-01,
          -1.67884137e-02, -3.30483653e-02, 1.09651789e-01,
          3.31950746e-02, 3.73036534e-01, 2.48702377e-01, 1.83435321e-01,
          1.79742590e-01, -5.41093424e-02, -6.47693574e-02,
          -8.19381624e-02, 1.93026531e-02, -3.62498835e-02,
          -3.90830524e-02, -2.42741898e-01, -2.77725458e-01,
          -3.11140239e-01, -2.88907319e-01, -2.48532861e-01,
          -5.77649884e-02, 7.77952671e-02, -9.82496291e-02,
          -1.56895846e-01, -2.68613070e-01, 3.43022406e-01,
          -1.50730848e-01, 1.04314134e-01, -4.09904867e-02,
          1.95528999e-01, 9.53452885e-02, 8.71884972e-02, 1.84060067e-01,
          2.94621706e-01, 2.41966665e-01, 3.33948404e-01, 3.01534802e-01,
          4.40582603e-01, 4.88011211e-01, 1.04511797e+00, 7.75625110e-01,
          1.09687448e+00, 1.22903168e+00, 1.08466661e+00, 1.04722369e+00,
          1.13271081e+00, 9.06327307e-01, 5.76096714e-01, 3.96663755e-01,
          6.72983885e-01, 1.02241111e+00, 8.24618101e-01, 7.13381469e-01,
          2.06784770e-01, -1.35038167e-01, -5.69794953e-01,
          -8.85040879e-01, -9.90537763e-01, -1.01818001e+00,
          -1.01737893e+00, -9.97478902e-01, -9.82782245e-01,
          -9.53461051e-01, -9.15438652e-01, -8.96123111e-01,
          -8.62023234e-01, -8.40394199e-01, -8.20292711e-01,
          -8.16723466e-01, -7.91423202e-01, -7.67661035e-01,
          -7.31761038e-01, -7.06166804e-01, -6.83294058e-01,
          -6.34111702e-01, -6.24306500e-01, -6.00152850e-01,
          -5.73298037e-01, -4.35184985e-01, -4.50809121e-01,
          -5.12272537e-01, -4.73323345e-01, -4.36369687e-01,
          -4.06959832e-01, -3.64689022e-01, -3.43711436e-01,
          -3.20266098e-01, -2.92571783e-01, -2.58918434e-01,
          -2.26977900e-01, -1.99365959e-01, -1.75057635e-01,
          -1.50788859e-01, -1.23637490e-01, -1.16132967e-01,
          -8.42116699e-02 ]
      - [ 6.65016115e-01, 4.38566925e-03, -1.98598310e-01,
          -3.37329835e-01, -2.04906702e-01, -1.71277925e-01,
          -2.00311467e-01, -3.44226927e-01, -2.89962202e-01,
          -2.85710216e-01, -3.35040301e-01, -2.60454297e-01,
          -2.49665141e-01, -2.02609539e-01, -1.80150196e-01,
          -8.28754529e-02, -1.85374379e-01, -2.54721463e-01,
          -1.84071735e-01, -1.51423633e-01, -2.33501509e-01,
          -2.30121106e-01, -2.39410400e-01, -2.04717204e-01,
          -2.27549881e-01, -1.83524951e-01, -1.56787392e-02,
          5.23728877e-02, 1.09140508e-01, -1.15481213e-01,
          -1.24324434e-01, -1.34820029e-01, -1.57420754e-01,
          -1.46394283e-01, -3.05497497e-01, -2.38785312e-01,
          -3.97360265e-01, -3.88669729e-01, -3.50097507e-01,
          -4.44802701e-01, -6.29933476e-01, -5.77331483e-01,
          -5.16383767e-01, -5.15188336e-01, -6.86563790e-01,
          -5.79752386e-01, -5.58614314e-01, -5.58606803e-01,
          -4.69730109e-01, -5.85681915e-01, -5.96152425e-01,
          -5.01265407e-01, -4.37079191e-01, -4.63174433e-01,
          -4.53712374e-01, -4.44689125e-01, -3.26703608e-01,
          -3.21157545e-01, -2.35139504e-01, -3.79676312e-01,
          -2.37783581e-01, -1.58844054e-01, -2.45423600e-01,
          -7.65457451e-02, -1.38696367e-02, 1.10512555e-01,
          4.67852280e-02, 9.08149555e-02, -1.25690028e-01,
          1.28629506e-01, -3.79106104e-02, 2.30347723e-01,
          1.32923141e-01, 1.19639173e-01, 3.15496512e-02, 1.56945899e-01,
          2.17558727e-01, 2.17567280e-01, 4.50477391e-01, 2.49577597e-01,
          3.15131158e-01, 2.30410755e-01, 4.19225335e-01, 4.88674194e-01,
          3.15199196e-01, 2.95832515e-01, 4.85557497e-01, 3.39708209e-01,
          1.80731893e-01, 3.27803433e-01, 2.32923627e-01, 5.19401915e-02,
          2.31768340e-01, 4.72362310e-01, 3.18781614e-01, 6.60148501e-01,
          4.75126356e-01, 1.30139634e-01, 6.50347769e-01, 8.88619304e-01,
          5.36472976e-01, 2.92118967e-01, 4.92791891e-01, 3.46589178e-01,
          4.31904197e-01, 3.30443889e-01, 3.73712093e-01, 1.71185985e-01,
          4.40714180e-01, 1.38794914e-01, 8.40715095e-02, 3.28154773e-01,
          4.59571660e-01, 2.10419238e-01, 3.90898913e-01, 1.20303370e-02,
          -6.31975457e-02, -5.53203821e-02, -4.55698222e-01,
          1.40119568e-01, -1.88372657e-01, -3.26740146e-01,
          -2.20533624e-01, -1.42623290e-01, -3.66397142e-01,
          -3.47154826e-01, -4.98004377e-01, -5.59250832e-01,
          -6.61849380e-01, -4.78264093e-01, -7.38849044e-01,
          -7.73103178e-01, -7.10023701e-01, -6.45159066e-01,
          -5.13554871e-01, -7.09691107e-01, -7.28057742e-01,
          -5.57060838e-01, -6.35411441e-01, -6.56299949e-01,
          -4.54933435e-01, -3.40510726e-01, -2.73329347e-01,
          -4.30048592e-02, -3.83288087e-03, -5.76730631e-02,
          -1.53327525e-01, -1.40957370e-01, -1.27103537e-01,
          3.41540910e-02, -1.93986610e-01, -2.10140422e-01,
          1.87061995e-01, -1.13799758e-01, -1.58677902e-02,
          -1.28613766e-02, -1.75927281e-01, -2.68339310e-02,
          7.94758722e-02, -8.28076974e-02, -4.24031653e-02,
          2.06428207e-02, 1.02848984e-01, 1.65020421e-01, 1.30308628e-01,
          -8.35641623e-02, 9.38352346e-02, -1.94536299e-01,
          1.54889319e-02, 6.25133365e-02, -1.45658657e-01,
          8.20579305e-02, 1.93026531e-02, 4.19653878e-02,
          -1.70211419e-02, 2.01211259e-01, 1.17666557e-01,
          1.03974983e-01, 3.89085174e-01, 2.41736889e-01, 2.54763842e-01,
          2.01654881e-01, 6.12825677e-02, 8.65786895e-02, 1.87148675e-01,
          2.54051059e-01, 4.26802695e-01, 2.88824081e-01, 3.93719465e-01,
          6.03757203e-01, 3.45326930e-01, 6.07642293e-01, 5.19900858e-01,
          6.13385499e-01, 5.91927707e-01, 2.85528511e-01, 2.67749071e-01,
          2.58627862e-01, 1.78879425e-01, 3.27135175e-01, 3.28417808e-01,
          3.56114775e-01, 4.39593554e-01, 3.08928132e-01, 5.74667990e-01,
          7.78131187e-01, 9.01588082e-01, 7.43808806e-01, 1.05491376e+00,
          9.53044951e-01, 9.38666105e-01, 1.10068738e+00, 1.57828617e+00,
          1.94896901e+00, 1.26194978e+00, 8.33584189e-01, 3.83022934e-01,
          1.15466699e-01, -1.55691221e-01, -4.46468562e-01,
          -6.71815336e-01, -6.52793884e-01, -7.05610633e-01,
          -7.74703860e-01, -7.78353095e-01, -8.06883872e-01,
          -7.94671893e-01, -8.15666497e-01, -8.30829263e-01,
          -7.86718011e-01, -7.67661035e-01, -7.08047092e-01,
          -7.01421142e-01, -6.83294058e-01, -6.48702860e-01,
          -6.49137676e-01, -6.35968685e-01, -6.04399621e-01,
          -5.73034167e-01, -5.45088947e-01, -5.12272537e-01,
          -4.73323345e-01, -4.36369687e-01, -4.06959832e-01,
          -3.71330529e-01, -3.43711436e-01, -3.20266098e-01,
          -2.92571783e-01, -2.58918434e-01, -2.26977900e-01,
          -1.99365959e-01, -1.75057635e-01, -1.50788859e-01,
          -1.23637490e-01, -1.16132967e-01, -8.42116699e-02 ]
      - [ 6.08924270e-01, 7.63842016e-02, -2.50818908e-01,
          -3.37329835e-01, -3.49359840e-01, -3.01975459e-01,
          -3.22503000e-01, -2.74900168e-01, -3.19656283e-01,
          -2.94369429e-01, -3.35040301e-01, -3.18913192e-01,
          -3.21301877e-01, -3.28698814e-01, -3.20554346e-01,
          -2.62935132e-01, -2.79857010e-01, -2.69459397e-01,
          -3.11212420e-01, -2.66501009e-01, -1.73085868e-01,
          -1.60641640e-01, -1.99734256e-01, -2.12383687e-01,
          -2.27549881e-01, -3.13004136e-01, -1.43665090e-01,
          -3.50398749e-01, -1.57950774e-01, -1.47903532e-01,
          7.05004409e-02, -2.01732710e-01, 5.14196530e-02,
          -5.26374206e-02, 8.94272700e-02, 4.18383300e-01,
          4.18234676e-01, 2.07297593e-01, 2.51434594e-01, 5.15582263e-01,
          3.44697952e-01, 4.57099527e-01, 3.56518686e-01, 5.55672228e-01,
          6.89020514e-01, 7.93363571e-01, 9.15608168e-01, 6.41866386e-01,
          8.49012733e-01, 9.12481546e-01, 9.87695813e-01, 9.46019232e-01,
          1.22512496e+00, 1.22161365e+00, 1.20834327e+00, 1.17632115e+00,
          1.03674209e+00, 8.87075245e-01, 7.27267444e-01, 8.83710504e-01,
          7.71863401e-01, 1.09348512e+00, 6.50288761e-01, 1.09954369e+00,
          9.36380208e-01, 9.42027330e-01, 9.67452645e-01, 7.04959571e-01,
          6.93239927e-01, 6.40829444e-01, 6.20367169e-01, 5.86909235e-01,
          5.92969716e-01, 5.22779286e-01, 3.93640399e-01, 2.45553300e-01,
          4.65028167e-01, 1.78013295e-01, 8.13306794e-02, 7.77047575e-02,
          1.98091224e-01, 9.82815400e-02, 1.04602531e-01,
          -1.65590584e-01, -2.70864546e-01, -1.14640534e-01,
          2.27716923e-01, -5.68455085e-02, -1.53459221e-01,
          8.56392086e-02, -2.19627023e-01, -2.33151600e-01,
          -6.17092215e-02, -6.66587427e-02, -3.47116768e-01,
          1.76696584e-01, -1.83388337e-01, -2.03228951e-03,
          -1.81426436e-01, -2.65689701e-01, -2.53527761e-01,
          -2.56807208e-01, -1.47676289e-01, -9.22486261e-02,
          -1.45426929e-01, -5.92119284e-02, -3.43695909e-01,
          -3.02086711e-01, -1.16014630e-01, -9.88985449e-02,
          -1.80257484e-01, -2.58228689e-01, -4.53347921e-01,
          -3.08708310e-01, 5.01661152e-02, -9.66111049e-02,
          1.90855134e-02, -1.72499225e-01, -2.68356711e-01,
          -2.41651177e-01, -2.23009452e-01, -2.16605663e-01,
          -2.75045067e-01, -2.23900884e-01, -2.18926728e-01,
          -2.00474188e-01, -1.34618461e-01, 7.61354566e-02,
          2.01101050e-01, 1.95027888e-01, 1.71556666e-01, 2.74699539e-01,
          2.34575644e-01, 3.31008554e-01, 2.94256657e-01, 8.48291740e-02,
          4.66840975e-02, 7.38562047e-02, -6.64397404e-02,
          2.50842553e-02, 5.56700267e-02, 4.18336950e-02, 2.04478856e-02,
          -1.30742744e-01, -6.03688024e-02, -2.22184926e-01,
          -1.72699705e-01, -1.80608898e-01, -1.80683404e-01,
          -1.08897172e-01, 5.84890367e-03, -1.40853077e-01,
          2.18128990e-02, -2.45762412e-02, 2.15084091e-01,
          -7.98916668e-02, -1.36084095e-01, 4.18639302e-01,
          -1.13848232e-01, -1.84704363e-01, -3.58381867e-01,
          -2.60091424e-01, -2.43071541e-01, -9.95185971e-02,
          -1.12475246e-01, 2.82917976e-01, 6.40530959e-02,
          -1.53195664e-01, 1.26946777e-01, -1.12420686e-01,
          4.89900112e-01, 3.13914478e-01, -5.37391677e-02,
          1.03420243e-01, 5.04076760e-03, -8.92766118e-02,
          -2.01896846e-01, -2.57229179e-01, -1.75908566e-01,
          -4.10160244e-01, -3.00244272e-01, -2.61472374e-01,
          -3.16276968e-01, -2.78633118e-01, -5.35783708e-01,
          -4.52486128e-01, -2.53861815e-01, -4.13338751e-01,
          -4.15043235e-01, -3.79014403e-01, -3.74620199e-01,
          -5.68383098e-01, -7.88890421e-01, -7.20518291e-01,
          -7.44729102e-01, -7.89392650e-01, -6.39639437e-01,
          -7.51699746e-01, -7.82327175e-01, -7.74095118e-01,
          -6.97242498e-01, -6.70297384e-01, -6.01689816e-01,
          -5.88019431e-01, -4.57239300e-01, -3.47898573e-01,
          -3.54314893e-01, -5.23349285e-01, -4.71666068e-01,
          -4.70598757e-01, -5.31524479e-01, -3.77921075e-01,
