%YAML:1.0
---
opencv_ml_svm:
   format: 3
   svmType: C_SVC
   kernel:
      type: RBF
      gamma: 2.0000000000000001e-01
   C: 1.
   term_criteria: { iterations:100 }
   var_count: 4
   class_count: 4
   class_labels: !!opencv-matrix
      rows: 4
      cols: 1
      dt: i
      data: [ 0, 1, 2, 3 ]
   sv_total: 7
   support_vectors:
      - [ 5.58141232e-01, 5.60898125e-01, -6.57097757e-01,
          3.02410126e-01 ]
      - [ 5.58141232e-01, 4.33100253e-01, 1.87787795e+00,
          -1.21299899e+00 ]
      - [ -5.15475094e-01, 8.46920550e-01, -2.65754163e-01,
          6.13335073e-01 ]
      - [ 5.58141232e-01, 5.01451015e-01, 7.68185630e-02,
          -3.91189665e-01 ]
      - [ -2.27523112e+00, -2.11472917e+00, 6.60249352e-01,
          -1.14465570e+00 ]
      - [ 5.58141232e-01, -8.31838846e-01, -1.05185837e-01,
          -6.26361221e-02 ]
      - [ 5.58141232e-01, 6.04197860e-01, -1.58690810e+00,
          1.89573526e+00 ]
   decision_functions:
      -
         sv_count: 2
         rho: 0.
         alpha: [ 1., -1. ]
         index: [ 0, 5 ]
      -
         sv_count: 2
         rho: 0.
         alpha: [ 1., -1. ]
         index: [ 0, 6 ]
      -
         sv_count: 4
         rho: 9.7412305828625900e-01
         alpha: [ 1., -4.0282565622984473e-01, -5.9121573784519521e-01,
             -5.9586059249599086e-03 ]
         index: [ 0, 2, 3, 4 ]
      -
         sv_count: 2
         rho: 0.
         alpha: [ 1., -1. ]
         index: [ 5, 6 ]
      -
         sv_count: 5
         rho: 8.8310758863910843e-01
         alpha: [ 1., -1.1450879374408163e-02, -5.1378073042344014e-02,
             -7.5334051521721812e-01, -1.8383053236602984e-01 ]
         index: [ 5, 1, 2, 3, 4 ]
      -
         sv_count: 4
         rho: 7.4696370122586941e-01
         alpha: [ 1., -1.6009415403046084e-01, -6.1684800432096420e-01,
             -2.2305784164857503e-01 ]
         index: [ 6, 1, 2, 4 ]
