%YAML:1.0
---
opencv_ml_svm:
   format: 3
   svmType: C_SVC
   kernel:
      type: RBF
      gamma: 2.2500000000000003e-03
   C: 1.2500000000000000e+01
   term_criteria: { iterations:10000 }
   var_count: 5
   class_count: 2
   class_labels: !!opencv-matrix
      rows: 2
      cols: 1
      dt: i
      data: [ 0, 1 ]
   sv_total: 4118
   support_vectors:
      - [ 0., -1.43560365e-01, -1.44278929e-01, 3.18133384e-02,
          9.67333280e-03 ]
      - [ 0., 8.05795729e-01, 4.32422876e-01, -1.01137114e+00,
          -1.06889248e+00 ]
      - [ 0., -2.62529962e-02, -7.69416317e-02, -1.56132370e-01,
          -1.12802267e-01 ]
      - [ 0., -6.94459558e-01, -4.32846814e-01, 7.72904992e-01,
          8.46289754e-01 ]
      - [ 0., -4.55081403e-01, -3.26912880e-01, 6.38676584e-01,
          4.49144602e-01 ]
      - [ 0., -2.20192596e-01, -1.85136288e-01, 1.80483237e-01,
          1.84681356e-01 ]
      - [ 0., -2.86592305e-01, -2.26212218e-01, 3.03237498e-01,
          2.25206375e-01 ]
      - [ 0., 9.36528519e-02, -1.83768999e-02, -1.17281593e-01,
          -3.20830673e-01 ]
      - [ 0., 7.55237460e-01, 4.08257246e-01, -1.03214478e+00,
          -1.06979299e+00 ]
      - [ 0., 4.77109581e-01, 2.23917589e-01, -6.69069111e-01,
          -6.85255647e-01 ]
      - [ 0., 4.63309228e-01, 2.30627149e-01, -7.58153677e-01,
          -7.43191361e-01 ]
      - [ 0., 1.86539754e-01, 3.57010290e-02, -2.24407807e-01,
          -4.09985721e-01 ]
      - [ 0., 1.12680423e+00, 6.62035763e-01, -1.25074685e+00,
          -1.35346806e+00 ]
      - [ 0., -8.64673615e-01, -5.21796227e-01, 1.28312552e+00,
          1.19450474e+00 ]
      - [ 0., -1.73940137e-01, -1.73381299e-01, 2.67524958e-01,
          1.20748151e-02 ]
      - [ 0., -6.58211410e-01, -4.13523555e-01, 7.92887986e-01,
          8.31880867e-01 ]
      - [ 0., -8.67389515e-02, -1.18143037e-01, 3.81510556e-02,
          -1.51826352e-01 ]
      - [ 0., 5.63134849e-01, 2.76603192e-01, -8.38836014e-01,
          -8.58462512e-01 ]
      - [ 0., 6.76142752e-01, 3.46787125e-01, -8.02169800e-01,
          -9.59625006e-01 ]
      - [ 0., -3.41196328e-01, -2.50881493e-01, 4.29848760e-01,
          3.01153243e-01 ]
      - [ 0., 6.75126433e-01, 3.47237617e-01, -9.05744553e-01,
          -9.63527381e-01 ]
      - [ 0., -4.35247451e-01, -3.04776192e-01, 4.20555890e-01,
          4.21827734e-01 ]
      - [ 0., 5.79866886e-01, 2.95968384e-01, -8.06342542e-01,
          -8.97786796e-01 ]
      - [ 0., -5.92425585e-01, -3.84799898e-01, 7.37478971e-01,
          6.88092113e-01 ]
      - [ 0., 5.19173741e-01, 2.52350897e-01, -7.39678741e-01,
          -8.13434720e-01 ]
      - [ 0., -3.02989930e-01, -2.34856233e-01, 2.49189287e-01,
          2.22204521e-01 ]
      - [ 0., 4.07670997e-02, -4.09562588e-02, -2.74937809e-01,
          -2.74602145e-01 ]
      - [ 0., 1.30293500e+00, 7.92399585e-01, -1.49105453e+00,
          -1.46123457e+00 ]
      - [ 0., 2.52216220e-01, 7.76333511e-02, -3.72139186e-01,
          -4.85032022e-01 ]
      - [ 0., 2.67474437e+00, 1.95742583e+00, -2.64726758e+00,
          -2.25672555e+00 ]
      - [ 0., 1.46927285e+00, 9.28901792e-01, -1.72168207e+00,
          -1.60412276e+00 ]
      - [ 0., 8.07601154e-01, 4.41073656e-01, -1.13196576e+00,
          -1.11331987e+00 ]
      - [ 0., -9.07396019e-01, -5.29200733e-01, 1.19475651e+00,
          1.33379066e+00 ]
      - [ 0., -8.18722725e-01, -4.89047378e-01, 9.05182004e-01,
          1.08343613e+00 ]
      - [ 0., -3.32013488e-01, -2.53906727e-01, 4.26657498e-01,
          2.20403403e-01 ]
      - [ 0., -1.27649568e-02, -6.50628433e-02, -1.48643866e-01,
          -1.47623762e-01 ]
      - [ 0., -6.92380607e-01, -4.31546688e-01, 8.56101155e-01,
          8.82612169e-01 ]
      - [ 0., -1.13105404e+00, -6.25469685e-01, 1.43066370e+00,
          1.66489506e+00 ]
      - [ 0., 1.03946698e+00, 5.98497927e-01, -1.20899320e+00,
          -1.31534457e+00 ]
      - [ 0., 1.08340800e-01, 1.34917768e-02, -3.74265105e-01,
          -4.31899220e-01 ]
      - [ 0., -1.12489522e-01, -1.36012614e-01, 3.86599675e-02,
          -9.20894817e-02 ]
      - [ 0., 6.85149670e+00, 7.07793140e+00, -4.71998787e+00,
          -3.27015114e+00 ]
      - [ 0., -6.98235869e-01, -4.34669644e-01, 9.84439313e-01,
          9.27940130e-01 ]
      - [ 0., -8.88970137e-01, -5.21732986e-01, 1.12297237e+00,
          1.19060230e+00 ]
      - [ 0., 1.20671189e+00, 7.20165968e-01, -1.36640179e+00,
          -1.43571889e+00 ]
      - [ 0., 6.19732320e-01, 3.06288540e-01, -6.89803779e-01,
          -9.19700325e-01 ]
      - [ 0., -9.17028487e-01, -5.35506308e-01, 1.20229268e+00,
          1.35840583e+00 ]
      - [ 0., 8.42004001e-01, 4.66345370e-01, -1.07487082e+00,
          -1.09801042e+00 ]
      - [ 0., -2.10503787e-01, -1.87312007e-01, 2.48567551e-01,
          1.03331141e-01 ]
      - [ 0., -5.21098256e-01, -3.44141692e-01, 4.88790542e-01,
          6.04940772e-01 ]
      - [ 0., -8.40732679e-02, -1.25698909e-01, 2.27278858e-01,
          -9.77930054e-02 ]
      - [ 0., -4.61164385e-01, -3.21347773e-01, 5.18123507e-01,
          4.95072961e-01 ]
      - [ 0., -2.67998934e-01, -2.13824525e-01, 2.21204996e-01,
          1.43555969e-01 ]
      - [ 0., 1.79468691e+00, 1.18102801e+00, -1.92166066e+00,
          -1.80824876e+00 ]
      - [ 0., 1.66851401e+00, 1.09553909e+00, -1.90457726e+00,
          -1.73320246e+00 ]
      - [ 0., -7.00713843e-02, -1.06498949e-01, 2.94896718e-02,
          -1.26610786e-01 ]
      - [ 0., 3.29180688e-01, 1.12827525e-01, -3.68832797e-01,
          -6.46831930e-01 ]
      - [ 0., -2.90231228e-01, -2.30006456e-01, 2.16694191e-01,
          1.85281724e-01 ]
      - [ 0., 4.54357982e-01, 1.92069367e-01, -4.84627455e-01,
          -7.08069682e-01 ]
      - [ 0., -2.93996520e-02, -8.42794180e-02, -1.36661291e-01,
          -1.20907269e-01 ]
      - [ 0., 3.19820821e-01, 1.12650327e-01, -4.63033020e-01,
          -5.47170401e-01 ]
      - [ 0., 8.66725087e-01, 4.78232533e-01, -1.14650273e+00,
          -1.11422038e+00 ]
      - [ 0., -2.41414502e-01, -2.19053686e-01, 3.61599714e-01,
          8.08172449e-02 ]
      - [ 0., 6.65636778e-01, 3.48368913e-01, -9.31616187e-01,
          -8.80976439e-01 ]
      - [ 0., -5.29863834e-01, -3.59468430e-01, 7.42419899e-01,
          5.90231717e-01 ]
      - [ 0., 2.86851004e-02, -5.73092364e-02, -6.28386438e-02,
          -1.92051187e-01 ]
      - [ 0., -3.99142236e-01, -2.94426054e-01, 5.60155034e-01,
          3.06856781e-01 ]
      - [ 0., -2.59123206e-01, -2.09879905e-01, 2.97258556e-01,
          1.82880253e-01 ]
      - [ 0., -1.29749787e+00, -6.95774496e-01, 1.85205603e+00,
          2.17190790e+00 ]
      - [ 0., 6.75533175e-01, 3.44841987e-01, -8.49014997e-01,
          -9.51519966e-01 ]
      - [ 0., -3.28264534e-01, -2.51064301e-01, 4.03069168e-01,
          2.79239714e-01 ]
      - [ 0., 1.87441975e-01, 3.78065780e-02, -3.23454827e-01,
          -4.13287759e-01 ]
      - [ 0., 7.79011622e-02, -3.49165983e-02, -5.36567532e-02,
          -3.50248843e-01 ]
      - [ 0., -3.52720112e-01, -2.60512233e-01, 3.49018067e-01,
          2.90646762e-01 ]
      - [ 0., 9.69110727e-02, -8.57771188e-03, -2.04484642e-01,
          -3.57153088e-01 ]
      - [ 0., -4.88876551e-01, -3.31905335e-01, 6.31267905e-01,
          5.61113715e-01 ]
      - [ 0., -4.29879934e-01, -3.04599434e-01, 5.63263178e-01,
          4.41639960e-01 ]
      - [ 0., 1.47862267e+00, 9.33960974e-01, -1.70603538e+00,
          -1.58701229e+00 ]
      - [ 0., 2.20039845e+00, 1.53222704e+00, -2.39288068e+00,
          -2.09132361e+00 ]
      - [ 0., 7.02764392e-01, 3.76602441e-01, -1.04137266e+00,
          -1.05358303e+00 ]
      - [ 0., 6.31794408e-02, -2.89048571e-02, -1.35436490e-01,
          -3.01919013e-01 ]
      - [ 0., -3.58422846e-01, -2.57033885e-01, 2.33574569e-01,
          3.17663431e-01 ]
      - [ 0., -7.52806067e-01, -4.60351437e-01, 1.02148879e+00,
          1.00748920e+00 ]
      - [ 0., -5.69312871e-01, -3.62009406e-01, 4.44745719e-01,
          5.98336697e-01 ]
      - [ 0., -8.41770172e-01, -4.99723852e-01, 1.11107254e+00,
          1.17679369e+00 ]
      - [ 0., 2.03267097e-01, 5.08033447e-02, -4.03817147e-01,
          -4.31899220e-01 ]
      - [ 0., 5.12126327e-01, 2.54696876e-01, -7.74928808e-01,
          -7.90920854e-01 ]
      - [ 0., 4.14024770e-01, 1.72739610e-01, -4.49801177e-01,
          -6.88557684e-01 ]
      - [ 0., -1.00387633e+00, -5.70157647e-01, 1.22035098e+00,
          1.47157574e+00 ]
      - [ 0., -1.51457772e-01, -1.62989885e-01, 2.04301178e-01,
          4.59957533e-02 ]
      - [ 0., 2.51656532e-01, 8.32570791e-02, -3.48772109e-01,
          -4.67321098e-01 ]
      - [ 0., 6.15837634e-01, 2.99765438e-01, -7.36357570e-01,
          -9.33809042e-01 ]
      - [ 0., -9.90785956e-01, -5.64376533e-01, 1.16881168e+00,
          1.39712977e+00 ]
      - [ 0., 1.70309708e-01, 3.29501890e-02, -2.95573860e-01,
          -4.00980145e-01 ]
      - [ 0., -1.39841890e+00, -7.34141111e-01, 1.92229211e+00,
          2.40184999e+00 ]
      - [ 0., -3.75410140e-01, -2.70186931e-01, 4.07362014e-01,
          3.10759187e-01 ]
      - [ 0., -1.68841422e-01, -1.62290603e-01, 1.26204133e-01,
          3.66900079e-02 ]
      - [ 0., 7.71966428e-02, -1.33748148e-02, -2.50244945e-01,
          -2.87209928e-01 ]
      - [ 0., 9.85304937e-02, -1.60798356e-02, -7.40126744e-02,
          -3.32537889e-01 ]
      - [ 0., 5.61036579e-02, -3.03577799e-02, -2.37181515e-01,
          -2.93213636e-01 ]
      - [ 0., 1.79333925e+00, 1.18684518e+00, -2.12858796e+00,
          -1.86678493e+00 ]
      - [ 0., -1.77944869e-01, -1.69669271e-01, 4.49216589e-02,
          -3.23526077e-02 ]
      - [ 0., 1.23411071e+00, 7.53271163e-01, -1.56694019e+00,
          -1.39969659e+00 ]
      - [ 0., -2.23322332e-01, -1.98246673e-01, 3.11737418e-01,
          9.79278088e-02 ]
      - [ 0., -3.51494670e-01, -2.61480927e-01, 3.75489503e-01,
          3.48282337e-01 ]
      - [ 0., -7.61635602e-01, -4.62548375e-01, 9.91316378e-01,
          1.05762017e+00 ]
      - [ 0., 1.24437749e-01, 6.96102343e-03, -2.95221508e-01,
          -3.75464410e-01 ]
      - [ 0., 1.78444967e-01, 2.43165735e-02, -2.17963114e-01,
          -4.31599051e-01 ]
      - [ 0., -3.26192826e-01, -2.45331660e-01, 2.67407417e-01,
          3.02353978e-01 ]
      - [ 0., -1.25233078e+00, -6.76408410e-01, 1.58819675e+00,
          2.06564236e+00 ]
      - [ 0., -6.82052195e-01, -4.19084042e-01, 7.00419068e-01,
          8.82011771e-01 ]
      - [ 0., 1.47244656e+00, 9.30810392e-01, -1.63687348e+00,
          -1.62513578e+00 ]
      - [ 0., -1.37661010e-01, -1.53649673e-01, 1.94048554e-01,
          -2.27466784e-02 ]
      - [ 0., -5.52391410e-01, -3.61533046e-01, 6.06419325e-01,
          6.12145185e-01 ]
      - [ 0., 9.95088667e-02, -1.73211340e-02, -8.98670927e-02,
          -3.13926399e-01 ]
      - [ 0., -5.73788166e-01, -3.74367654e-01, 7.32152283e-01,
          7.09705412e-01 ]
      - [ 0., -1.57127345e+00, -7.96450436e-01, 2.18126321e+00,
          2.85392904e+00 ]
      - [ 0., 2.47918200e+00, 1.77680123e+00, -2.45271921e+00,
          -2.17927790e+00 ]
      - [ 0., -4.22315925e-01, -3.04859608e-01, 5.19525170e-01,
          4.23328668e-01 ]
      - [ 0., 5.78275025e-01, 2.93486267e-01, -7.94591546e-01,
          -8.10733080e-01 ]
      - [ 0., -6.61393404e-01, -4.19404268e-01, 6.95186496e-01,
          7.64939547e-01 ]
      - [ 0., 7.11120844e-01, 3.56380135e-01, -8.22848797e-01,
          -1.01485908e+00 ]
      - [ 0., 1.56285062e-01, 3.38690318e-02, -3.57768446e-01,
          -3.97978306e-01 ]
      - [ 0., -1.01020679e-01, -1.16343297e-01, 5.36768734e-02,
          -4.70616892e-02 ]
      - [ 0., 1.54237592e+00, 9.25951898e-01, -1.48574364e+00,
          -1.66085780e+00 ]
      - [ 0., 1.01151097e+00, 5.81002414e-01, -1.26802742e+00,
          -1.24540138e+00 ]
      - [ 0., -8.25303197e-02, -1.18971884e-01, 3.16021889e-02,
          -1.35316163e-01 ]
      - [ 0., -4.57919389e-01, -3.28809172e-01, 6.86192095e-01,
          4.71358299e-01 ]
      - [ 0., 1.55117023e+00, 9.69732106e-01, -1.87191641e+00,
          -1.70378435e+00 ]
      - [ 0., 1.07108843e+00, 6.33609235e-01, -1.34298921e+00,
          -1.32675159e+00 ]
      - [ 0., -3.42111498e-01, -2.48383731e-01, 2.64988065e-01,
          2.17701733e-01 ]
      - [ 0., 6.34577990e-01, 3.25626791e-01, -8.20885122e-01,
          -8.71670663e-01 ]
      - [ 0., 1.20574474e+00, 7.21685886e-01, -1.30028343e+00,
          -1.42581272e+00 ]
      - [ 0., 2.57829642e+00, 1.84512866e+00, -2.65746975e+00,
          -2.25462437e+00 ]
      - [ 0., 3.00642818e-01, 1.04409970e-01, -3.96163076e-01,
          -5.42667627e-01 ]
      - [ 0., -2.92495817e-01, -2.25105852e-01, 2.26283610e-01,
          2.48921007e-01 ]
      - [ 0., -4.77341115e-01, -3.26747864e-01, 5.04620016e-01,
          4.94172394e-01 ]
      - [ 0., -7.15662464e-02, -1.05760701e-01, -4.23541153e-03,
          -1.07699119e-01 ]
      - [ 0., -1.27098367e-01, -1.42507732e-01, 5.72867952e-02,
          3.66900079e-02 ]
      - [ 0., 8.22956979e-01, 4.55321074e-01, -1.18415856e+00,
          -1.16014874e+00 ]
      - [ 0., -7.14402348e-02, -1.10667109e-01, 1.37075386e-03,
          -1.45822644e-01 ]
      - [ 0., 1.63906023e-01, 2.39538979e-02, -2.36610889e-01,
          -3.92574966e-01 ]
      - [ 0., 9.55457866e-01, 5.63561738e-01, -1.37521708e+00,
          -1.27451932e+00 ]
      - [ 0., 1.83489561e+00, 1.21608531e+00, -2.02496433e+00,
          -1.84997451e+00 ]
      - [ 0., -5.60371280e-01, -3.56650025e-01, 4.46380854e-01,
          6.25053167e-01 ]
      - [ 0., 4.89077657e-01, 2.36501992e-01, -7.62988091e-01,
          -7.85517514e-01 ]
      - [ 0., -4.12305295e-01, -2.91519403e-01, 4.74446386e-01,
          4.51546073e-01 ]
      - [ 0., -4.48989481e-01, -3.00287724e-01, 3.02987576e-01,
          4.62052554e-01 ]
      - [ 0., -1.64074242e-01, -1.60177231e-01, 2.08635792e-01,
          2.67838947e-02 ]
      - [ 0., 5.45282602e-01, 2.72403330e-01, -7.46076703e-01,
          -7.89419889e-01 ]
      - [ 0., -7.09441483e-01, -4.34117645e-01, 7.86584795e-01,
          8.38785112e-01 ]
      - [ 0., 2.79662371e+00, 2.07228661e+00, -2.84967089e+00,
          -2.36509252e+00 ]
      - [ 0., -3.55975330e-01, -2.61752009e-01, 3.38119417e-01,
          3.02654177e-01 ]
      - [ 0., -8.28936845e-02, -1.22108623e-01, 9.15854499e-02,
          -1.13402635e-01 ]
      - [ 0., -5.52292228e-01, -3.61047387e-01, 6.38347089e-01,
          6.82388544e-01 ]
      - [ 0., -5.05044222e-01, -3.51075262e-01, 7.28702188e-01,
          5.10082185e-01 ]
      - [ 0., 3.79334241e-02, -4.10040766e-02, -2.70302862e-01,
          -2.46384725e-01 ]
      - [ 0., 1.84048161e-01, 4.45370115e-02, -3.82071793e-01,
          -4.54413116e-01 ]
      - [ 0., 6.58840001e-01, 3.35619181e-01, -7.76616454e-01,
          -9.26604569e-01 ]
      - [ 0., -5.11740208e-01, -3.34850609e-01, 4.03265119e-01,
          5.26892602e-01 ]
      - [ 0., -4.41461772e-01, -2.87040979e-01, 1.88648611e-01,
          3.36274922e-01 ]
      - [ 0., -9.64518428e-01, -5.66494763e-01, 1.37461007e+00,
          1.33709264e+00 ]
      - [ 0., 2.80058718e+00, 2.04973125e+00, -2.64162374e+00,
          -2.31976461e+00 ]
      - [ 0., 8.27983260e-01, 4.47841644e-01, -1.08298028e+00,
          -1.09290719e+00 ]
      - [ 0., -1.51205555e-01, -1.60452858e-01, 1.39168516e-01,
          -3.29529792e-02 ]
      - [ 0., -6.20916009e-01, -3.96341771e-01, 8.56179476e-01,
          7.89854884e-01 ]
      - [ 0., -1.26413718e-01, -1.38123944e-01, 9.25689042e-02,
          -1.17605232e-01 ]
      - [ 0., 7.09331870e-01, 3.64503086e-01, -7.98910737e-01,
          -1.00225127e+00 ]
      - [ 0., 3.10432106e-01, 1.25291571e-01, -5.06431043e-01,
          -5.79290211e-01 ]
      - [ 0., -4.35503572e-01, -3.04928482e-01, 5.56942701e-01,
          4.77662206e-01 ]
      - [ 0., 1.44399631e+00, 8.89851928e-01, -1.59481001e+00,
          -1.56810057e+00 ]
      - [ 0., -4.58934844e-01, -3.20667565e-01, 4.83528882e-01,
          4.41339791e-01 ]
      - [ 0., -5.50781310e-01, -3.67636383e-01, 6.78564012e-01,
          5.27793169e-01 ]
      - [ 0., 9.49785829e-01, 5.49443901e-01, -1.21094811e+00,
          -1.19226861e+00 ]
      - [ 0., -8.96582603e-01, -5.27540505e-01, 1.22547793e+00,
          1.24163377e+00 ]
      - [ 0., -7.08578765e-01, -4.26551849e-01, 6.85266078e-01,
          8.51392865e-01 ]
      - [ 0., -6.61393404e-01, -4.19404268e-01, 6.95186496e-01,
          7.64939547e-01 ]
      - [ 0., -1.18138230e+00, -6.49231136e-01, 1.48530924e+00,
          1.89453673e+00 ]
      - [ 0., -7.94725597e-01, -4.80211854e-01, 9.86157894e-01,
          1.07383025e+00 ]
      - [ 0., 1.43057692e+00, 9.13379371e-01, -1.86996305e+00,
          -1.62243414e+00 ]
      - [ 0., 2.89265752e+00, 2.15247154e+00, -2.66294551e+00,
          -2.37289739e+00 ]
      - [ 0., 6.47729635e-01, 3.25900495e-01, -7.69265592e-01,
          -9.38011646e-01 ]
      - [ 0., -8.27744484e-01, -4.94810402e-01, 1.00244486e+00,
          1.12666285e+00 ]
      - [ 0., 6.48632348e-01, 3.29675615e-01, -8.05172741e-01,
          -9.34709609e-01 ]
      - [ 0., 4.89184171e-01, 2.49707118e-01, -9.53461289e-01,
          -7.97224760e-01 ]
      - [ 0., 5.76937310e-02, -3.62134948e-02, -1.51024431e-01,
          -2.56891221e-01 ]
      - [ 0., -3.44301671e-01, -2.61938602e-01, 4.35809642e-01,
          3.26068640e-01 ]
      - [ 0., -3.20575923e-01, -2.48473361e-01, 1.80543184e-01,
          1.70872837e-01 ]
      - [ 0., -2.22174689e-01, -1.82388738e-01, 1.69071853e-02,
          1.03331141e-01 ]
      - [ 0., 3.38284165e-01, 1.34365350e-01, -4.65341300e-01,
          -6.12610757e-01 ]
      - [ 0., -1.17596477e-01, -1.32694125e-01, 3.70332897e-02,
          -4.07577977e-02 ]
      - [ 0., 1.06722581e+00, 6.08428597e-01, -1.11869490e+00,
          -1.28562617e+00 ]
      - [ 0., 4.32421006e-02, -4.00449075e-02, -2.42003098e-01,
          -2.25371748e-01 ]
      - [ 0., 7.29871690e-01, 3.74063551e-01, -8.66300404e-01,
          -9.77636099e-01 ]
      - [ 0., -2.68512249e-01, -2.14752540e-01, 2.82331079e-01,
          2.00891361e-01 ]
      - [ 0., -2.15544581e-01, -1.81465492e-01, 3.15772481e-02,
          9.25244763e-02 ]
      - [ 0., -1.38462746e+00, -7.27114379e-01, 1.86960530e+00,
          2.43006730e+00 ]
      - [ 0., -2.14236289e-01, -1.88186035e-01, 2.39977196e-01,
          5.98042756e-02 ]
      - [ 0., -7.47999609e-01, -4.66817349e-01, 1.00900471e+00,
          9.04825866e-01 ]
      - [ 0., 2.07903743e+00, 1.40317345e+00, -2.23571849e+00,
          -1.99016106e+00 ]
      - [ 0., -1.06689644e+00, -5.96095681e-01, 1.48168254e+00,
          1.64838481e+00 ]
      - [ 0., -1.53123170e-01, -1.44438267e-01, -5.83331734e-02,
          1.62774082e-02 ]
      - [ 0., 5.79264760e-01, 2.81777322e-01, -7.57114053e-01,
          -8.66267323e-01 ]
      - [ 0., -1.53882325e+00, -7.83388853e-01, 2.20534897e+00,
          2.62969065e+00 ]
      - [ 0., 5.58699906e-01, 2.65051723e-01, -6.69504941e-01,
          -8.16736758e-01 ]
      - [ 0., 9.19401455e+00, 1.10971127e+01, -5.44816303e+00,
          -3.52290726e+00 ]
      - [ 0., -1.17190051e+00, -6.42445266e-01, 1.55420172e+00,
          1.89633787e+00 ]
      - [ 0., 1.41196057e-01, 2.25690305e-02, -2.77002841e-01,
          -3.73363107e-01 ]
      - [ 0., 1.06573927e+00, 6.22551501e-01, -1.22342503e+00,
          -1.24600172e+00 ]
      - [ 0., 1.73283234e-01, 3.43351252e-02, -4.24991101e-01,
          -4.30698484e-01 ]
      - [ 0., -8.57486308e-01, -5.07080972e-01, 1.11144722e+00,
          1.14887655e+00 ]
      - [ 0., -1.78494394e-01, -1.69233084e-01, 1.01637922e-01,
          7.12113157e-02 ]
      - [ 0., -7.20493078e-01, -4.51490402e-01, 9.15270030e-01,
          9.33043301e-01 ]
      - [ 0., 2.80984014e-01, 9.98827145e-02, -4.76663172e-01,
          -5.22255003e-01 ]
      - [ 0., 1.02525342e+00, 6.00325704e-01, -1.31455791e+00,
          -1.26101100e+00 ]
      - [ 0., 7.10928857e-01, 3.72767389e-01, -8.69872153e-01,
          -9.91444647e-01 ]
      - [ 0., 2.69386721e+00, 1.94230020e+00, -2.60758972e+00,
          -2.31646252e+00 ]
      - [ 0., -6.10617362e-02, -9.34713036e-02, -7.68810660e-02,
          -1.62933215e-01 ]
      - [ 0., -6.91510504e-03, -6.82903603e-02, -1.57581866e-01,
          -2.16366187e-01 ]
      - [ 0., 1.27879784e-01, 1.32514611e-02, -3.04684877e-01,
          -3.49048078e-01 ]
      - [ 0., 3.48495603e+00, 2.73432755e+00, -3.04148936e+00,
          -2.57402158e+00 ]
      - [ 0., 2.30838346e+00, 1.62089074e+00, -2.46733832e+00,
          -2.12884665e+00 ]
      - [ 0., -9.03229058e-01, -5.23085415e-01, 9.90155280e-01,
          1.23773134e+00 ]
      - [ 0., 1.19792902e+00, 7.35425174e-01, -1.63641667e+00,
          -1.47354221e+00 ]
      - [ 0., 6.74784899e-01, 3.53044719e-01, -9.24196124e-01,
          -9.15797949e-01 ]
      - [ 0., 2.70837516e-01, 9.44633856e-02, -4.63794649e-01,
          -4.93437231e-01 ]
      - [ 0., 7.31264114e-01, 3.89559984e-01, -1.00356400e+00,
          -9.94746685e-01 ]
      - [ 0., -3.90038133e-01, -2.84023702e-01, 4.87365991e-01,
          3.26368809e-01 ]
      - [ 0., -7.41571128e-01, -4.61979866e-01, 1.02070022e+00,
          9.23437357e-01 ]
      - [ 0., 7.64230490e-01, 4.12098467e-01, -9.61152792e-01,
          -1.02776706e+00 ]
      - [ 0., -7.76219368e-02, -1.11113027e-01, 9.60997865e-02,
          -9.59918872e-02 ]
      - [ 0., 2.14994043e-01, 5.08342646e-02, -2.94523925e-01,
          -5.09647250e-01 ]
      - [ 0., -5.59598029e-01, -3.56998175e-01, 3.96823943e-01,
          5.97736299e-01 ]
      - [ 0., 3.80772501e-01, 1.46680072e-01, -5.53334296e-01,
          -6.84655249e-01 ]
      - [ 0., 2.20231128e+00, 1.51505256e+00, -2.15997624e+00,
          -2.02378178e+00 ]
      - [ 0., -4.27022845e-01, -2.81838536e-01, 2.43398726e-01,
          4.44941998e-01 ]
      - [ 0., 9.79879439e-01, 5.61949730e-01, -1.22715306e+00,
          -1.23189306e+00 ]
      - [ 0., 6.52955294e-01, 3.43657494e-01, -1.01694977e+00,
          -1.02056265e+00 ]
      - [ 0., -7.04486817e-02, -1.02271505e-01, -3.05415560e-02,
          -8.00820664e-02 ]
      - [ 0., 1.42369568e-01, 1.41191445e-02, -2.63780504e-01,
          -3.83569390e-01 ]
      - [ 0., 4.65853453e-01, 2.15591580e-01, -6.12278402e-01,
          -7.50395834e-01 ]
      - [ 0., 4.93395448e-01, 2.39214361e-01, -7.97526062e-01,
          -7.97224760e-01 ]
      - [ 0., 1.16067611e-01, -4.74160677e-03, -1.45189092e-01,
          -3.31637353e-01 ]
      - [ 0., 6.80860281e-01, 3.42051357e-01, -7.64309525e-01,
          -9.65628684e-01 ]
      - [ 0., 2.78429657e-01, 7.54546821e-02, -3.94698888e-01,
          -5.44168532e-01 ]
      - [ 0., -1.28388417e+00, -6.90596819e-01, 1.85918677e+00,
          2.13438487e+00 ]
      - [ 0., 8.99805784e-01, 5.02050281e-01, -1.09983826e+00,
          -1.11482072e+00 ]
      - [ 0., 1.31912410e+00, 7.82092512e-01, -1.45175815e+00,
          -1.56449831e+00 ]
      - [ 0., 5.36963165e-01, 2.54284143e-01, -7.93408513e-01,
          -8.43153059e-01 ]
      - [ 0., -6.38121605e-01, -4.06388134e-01, 7.43539870e-01,
          6.99799299e-01 ]
      - [ 0., 7.61551678e-01, 4.02107060e-01, -9.40604687e-01,
          -1.00255144e+00 ]
      - [ 0., 1.41023552e+00, 8.73713374e-01, -1.51637495e+00,
          -1.55729389e+00 ]
      - [ 0., 1.56042855e-02, -5.59045933e-02, -1.95811987e-01,
          -2.05259338e-01 ]
      - [ 0., -1.74834877e-01, -1.64465353e-01, 1.91082433e-01,
          6.37066886e-02 ]
      - [ 0., -1.46097988e-01, -1.44391790e-01, -1.41342478e-02,
          -7.13704387e-03 ]
      - [ 0., 3.95479500e-01, 1.60703152e-01, -4.55495030e-01,
          -6.60640419e-01 ]
      - [ 0., -9.58498538e-01, -5.59029102e-01, 1.30742800e+00,
          1.38542247e+00 ]
      - [ 0., 1.60414910e+00, 1.02289939e+00, -1.84104526e+00,
          -1.73530376e+00 ]
      - [ 0., -2.28563160e-01, -1.92779019e-01, 1.85217932e-01,
          1.24043927e-01 ]
      - [ 0., 1.11727273e+00, 6.55687213e-01, -1.35048425e+00,
          -1.32975340e+00 ]
      - [ 0., -4.53123242e-01, -3.18015933e-01, 4.99040931e-01,
          3.63591790e-01 ]
      - [ 0., 4.75969642e-01, 2.14944497e-01, -6.19355500e-01,
          -7.69007325e-01 ]
      - [ 0., -5.20324528e-01, -3.42978746e-01, 5.35054743e-01,
          5.85728884e-01 ]
      - [ 0., 9.45065558e-01, 5.28453052e-01, -1.12481332e+00,
          -1.19406974e+00 ]
      - [ 0., 7.29871690e-01, 3.74063551e-01, -8.66300404e-01,
          -9.77636099e-01 ]
      - [ 0., 7.12330282e-01, 3.78261626e-01, -9.65732872e-01,
          -1.01125681e+00 ]
      - [ 0., 1.79982233e+00, 1.19282365e+00, -2.02829146e+00,
          -1.82686031e+00 ]
      - [ 0., -1.83897987e-01, -1.76475883e-01, 2.43180022e-01,
          6.82094619e-02 ]
      - [ 0., -5.55383880e-03, -6.61128610e-02, -1.18628822e-01,
          -1.94452673e-01 ]
      - [ 0., -1.35950935e+00, -7.15982020e-01, 1.79777300e+00,
          2.31089377e+00 ]
      - [ 0., 4.93741006e-01, 2.22737983e-01, -5.74562728e-01,
          -7.60001779e-01 ]
      - [ 0., -3.68030131e-01, -2.73109078e-01, 5.77435791e-01,
          3.54886413e-01 ]
      - [ 0., 4.73781079e-01, 2.25393325e-01, -7.82104373e-01,
          -8.05629909e-01 ]
      - [ 0., 5.98064899e-01, 2.92846978e-01, -7.22695827e-01,
          -8.75272930e-01 ]
      - [ 0., -9.62089717e-01, -5.55627048e-01, 1.30983186e+00,
          1.45476532e+00 ]
      - [ 0., 1.97702423e-01, 4.28180806e-02, -2.51147032e-01,
          -4.30698484e-01 ]
      - [ 0., 9.21119377e-02, -2.02484429e-02, -2.24575967e-01,
          -3.52049947e-01 ]
      - [ 0., 6.53069735e-01, 3.38312656e-01, -9.25115764e-01,
          -9.68030155e-01 ]
      - [ 0., 2.27700567e+00, 1.60790968e+00, -2.45089269e+00,
          -2.11023521e+00 ]
      - [ 0., 3.08588535e-01, 1.19824067e-01, -5.38569510e-01,
          -5.30059814e-01 ]
      - [ 0., -6.17826656e-02, -1.04287714e-01, 9.17052627e-02,
          -8.66861492e-02 ]
      - [ 0., 7.00887680e-01, 3.65973324e-01, -1.01247418e+00,
          -1.03166950e+00 ]
      - [ 0., 2.85642505e-01, 1.01160161e-01, -4.25628155e-01,
          -6.06607080e-01 ]
      - [ 0., -1.38637137e+00, -7.29391694e-01, 1.90348864e+00,
          2.39524579e+00 ]
      - [ 0., 3.91936153e-01, 1.69421360e-01, -7.34368324e-01,
          -7.21878231e-01 ]
      - [ 0., -6.63639665e-01, -4.21897322e-01, 8.60823512e-01,
          8.11168075e-01 ]
      - [ 0., -3.47541273e-01, -2.62376189e-01, 4.32986051e-01,
          3.14061224e-01 ]
      - [ 0., -9.29656804e-01, -5.35090864e-01, 1.08726084e+00,
          1.38302100e+00 ]
      - [ 0., 1.44243717e-01, 1.50996242e-02, -1.92543283e-01,
          -3.32838088e-01 ]
      - [ 0., -3.57131749e-01, -2.58634895e-01, 2.63490349e-01,
          2.34512120e-01 ]
      - [ 0., 1.61201131e+00, 1.02125418e+00, -1.62201750e+00,
          -1.68577325e+00 ]
      - [ 0., 2.71763182e+00, 1.98697877e+00, -2.74377990e+00,
          -2.33957672e+00 ]
      - [ 0., -3.18416357e-01, -2.41598859e-01, 3.01201940e-01,
          2.10497290e-01 ]
      - [ 0., -7.39486217e-01, -4.58528161e-01, 1.03144228e+00,
          1.00538790e+00 ]
      - [ 0., 2.67398566e-01, 8.54732841e-02, -4.24405694e-01,
          -5.42967796e-01 ]
      - [ 0., 1.36520609e-01, -5.82334178e-04, -1.12897255e-01,
          -3.85970891e-01 ]
      - [ 0., -4.17611748e-01, -3.03324014e-01, 5.08767188e-01,
          4.09820318e-01 ]
      - [ 0., 1.23733079e+00, 7.53442347e-01, -1.43020511e+00,
          -1.43031549e+00 ]
      - [ 0., 2.15932345e+00, 1.46260583e+00, -2.17699671e+00,
          -2.06310606e+00 ]
      - [ 0., -1.18927164e-02, -7.95988292e-02, 3.21532637e-02,
          -2.01056749e-01 ]
      - [ 0., -4.20469195e-01, -2.92004853e-01, 3.37049544e-01,
          3.74998838e-01 ]
      - [ 0., -2.21345916e-01, -1.90726236e-01, 2.14624301e-01,
          1.37552261e-01 ]
      - [ 0., -6.61393404e-01, -4.19404268e-01, 6.95186496e-01,
          7.64939547e-01 ]
      - [ 0., 1.70507386e-01, 3.14947702e-02, -2.20304847e-01,
          -3.95576805e-01 ]
      - [ 0., -5.72132528e-01, -3.71960461e-01, 5.56601167e-01,
          5.97436130e-01 ]
      - [ 0., -2.17114210e-01, -1.83717817e-01, 1.52978107e-01,
          1.24344110e-01 ]
      - [ 0., 1.73667654e-01, 3.60631682e-02, -2.75939286e-01,
          -3.99779409e-01 ]
      - [ 0., 6.66648373e-02, -3.12323533e-02, -1.54959172e-01,
          -2.64395833e-01 ]
      - [ 0., -5.88213205e-01, -3.73675734e-01, 4.59426314e-01,
          6.36760414e-01 ]
      - [ 0., 1.52567402e-01, 7.03033898e-03, -2.90912241e-01,
          -4.34600890e-01 ]
      - [ 0., 5.01483977e-01, 2.42202640e-01, -7.85828590e-01,
          -8.13734949e-01 ]
      - [ 0., 7.99680203e-02, -1.11882258e-02, -2.62072265e-01,
          -2.99217343e-01 ]
      - [ 0., -3.24731320e-01, -2.50170618e-01, 4.33882028e-01,
          2.38414526e-01 ]
      - [ 0., 1.41772950e+00, 8.91777337e-01, -1.75958657e+00,
          -1.54258478e+00 ]
      - [ 0., -1.36677876e-01, -1.51718870e-01, 2.38772139e-01,
          -3.08516826e-02 ]
      - [ 0., 8.73976722e-02, -2.19354536e-02, -9.71089974e-02,
          -2.81206220e-01 ]
      - [ 0., 6.30292892e-01, 3.24940681e-01, -8.13525081e-01,
          -8.49456966e-01 ]
      - [ 0., -4.23850939e-02, -9.03830752e-02, -1.06068388e-01,
          -1.43721357e-01 ]
      - [ 0., 2.67639685e+00, 1.96076119e+00, -2.57454419e+00,
          -2.27293563e+00 ]
      - [ 0., 6.19672775e-01, 3.16339761e-01, -9.14044619e-01,
          -9.53921437e-01 ]
      - [ 0., 4.44553196e-01, 2.08549693e-01, -6.21890604e-01,
          -6.52235210e-01 ]
      - [ 0., 1.11216536e+01, 1.48802614e+01, -5.80491447e+00,
          -3.62917280e+00 ]
      - [ 0., 2.98628900e-02, -5.14167473e-02, -6.59757927e-02,
          -1.81844890e-01 ]
      - [ 0., -9.07560349e-01, -5.31923473e-01, 1.13698637e+00,
          1.23352873e+00 ]
      - [ 0., 8.52005005e-01, 4.66671079e-01, -1.03441823e+00,
          -1.10851693e+00 ]
      - [ 0., -6.01874888e-01, -3.79669100e-01, 5.36230981e-01,
          7.49930263e-01 ]
      - [ 0., 3.03325057e-01, 1.12839431e-01, -5.01720786e-01,
          -5.60078323e-01 ]
      - [ 0., 1.16286516e-01, 6.94504101e-03, -2.73934513e-01,
          -3.45445871e-01 ]
      - [ 0., 5.95698655e-01, 2.97520757e-01, -8.42445314e-01,
          -8.88481081e-01 ]
      - [ 0., 5.73264956e-01, 2.83901870e-01, -7.40687549e-01,
          -8.53959739e-01 ]
      - [ 0., 1.70168066e+00, 1.11171401e+00, -1.83703375e+00,
          -1.72930002e+00 ]
      - [ 0., 6.93375647e-01, 3.56319696e-01, -8.74636948e-01,
          -9.72833157e-01 ]
      - [ 0., -4.37825888e-01, -2.96315163e-01, 2.70464659e-01,
          3.98113102e-01 ]
      - [ 0., -5.67091405e-01, -3.68571699e-01, 7.17557251e-01,
          5.96835792e-01 ]
      - [ 0., 4.83069420e-01, 2.18321964e-01, -5.92314601e-01,
          -7.93322325e-01 ]
      - [ 0., 2.29801178e-01, 6.37755692e-02, -3.01298112e-01,
          -4.47809041e-01 ]
      - [ 0., -2.82633632e-01, -2.25429848e-01, 3.75579476e-01,
          2.31210083e-01 ]
      - [ 0., 2.36886597e+00, 1.66002941e+00, -2.45469332e+00,
          -2.15766454e+00 ]
      - [ 0., 9.12060022e-01, 5.12842894e-01, -1.17128730e+00,
          -1.16675282e+00 ]
      - [ 0., 7.32943296e-01, 3.97212595e-01, -9.30538535e-01,
          -9.61125910e-01 ]
      - [ 0., 6.46459103e-01, 3.24481547e-01, -8.38421226e-01,
          -9.20000494e-01 ]
      - [ 0., 2.26011825e+00, 1.56419408e+00, -2.40643311e+00,
          -2.10363102e+00 ]
      - [ 0., -7.25467443e-01, -4.48989123e-01, 9.83629286e-01,
          9.42349017e-01 ]
      - [ 0., -5.92236638e-01, -3.86079043e-01, 7.72236407e-01,
          7.81449735e-01 ]
      - [ 0., -6.63989961e-01, -4.27955955e-01, 9.24999237e-01,
          8.11468244e-01 ]
      - [ 0., -7.48243213e-01, -4.60547894e-01, 1.00433648e+00,
          1.02970290e+00 ]
      - [ 0., -9.13927108e-02, -1.21765316e-01, 6.53806105e-02,
          -1.00194484e-01 ]
      - [ 0., -4.73979294e-01, -3.25577170e-01, 5.32211840e-01,
          4.75861102e-01 ]
      - [ 0., -7.07217634e-01, -4.26935732e-01, 6.43924475e-01,
          8.34582508e-01 ]
      - [ 0., 7.21745044e-02, -3.01498063e-02, -1.03116632e-01,
          -2.60793626e-01 ]
      - [ 0., 2.41345778e-01, 7.40064457e-02, -4.11750525e-01,
          -5.03643513e-01 ]
      - [ 0., -4.34286267e-01, -3.07314605e-01, 3.23423713e-01,
          4.19426262e-01 ]
      - [ 0., 1.09597301e+00, 6.41969681e-01, -1.26749408e+00,
          -1.31834638e+00 ]
      - [ 0., 1.23791896e-01, 3.42483423e-03, -1.42741323e-01,
          -3.37641060e-01 ]
      - [ 0., 3.60119611e-01, 1.37056217e-01, -3.42993617e-01,
          -6.74148738e-01 ]
      - [ 0., 2.04552248e-01, 3.70060690e-02, -1.90299630e-01,
          -4.51411277e-01 ]
      - [ 0., 5.29545307e-01, 2.50043213e-01, -6.40586495e-01,
          -7.70508230e-01 ]
      - [ 0., 2.62078953e+00, 1.89655554e+00, -2.51067662e+00,
          -2.21770144e+00 ]
      - [ 0., 1.15772831e+00, 6.92320168e-01, -1.37857497e+00,
          -1.41560638e+00 ]
      - [ 0., 1.36751878e+00, 8.55868816e-01, -1.60818362e+00,
          -1.55609310e+00 ]
      - [ 0., 5.29984951e-01, 2.60215849e-01, -8.73719215e-01,
          -8.36548984e-01 ]
      - [ 0., 1.00025512e-01, -8.83560907e-03, -1.60648197e-01,
          -3.12425494e-01 ]
      - [ 0., 1.01456010e+00, 6.07999802e-01, -1.40482283e+00,
          -1.26071084e+00 ]
      - [ 0., 2.98856592e+00, 2.21161532e+00, -2.63501072e+00,
          -2.47466016e+00 ]
      - [ 0., -2.74867445e-01, -2.16625795e-01, 1.79918304e-01,
          2.27307662e-01 ]
      - [ 0., 1.82375431e-01, 3.86274494e-02, -2.58335173e-01,
          -3.86571258e-01 ]
      - [ 0., 2.96076298e-01, 1.02651909e-01, -3.86338621e-01,
          -5.36363721e-01 ]
      - [ 0., -7.33249545e-01, -4.54884619e-01, 1.03438902e+00,
          9.81973469e-01 ]
      - [ 0., -4.82971191e-01, -3.35643232e-01, 6.48566604e-01,
          4.68356460e-01 ]
      - [ 0., 1.29291058e-01, -9.39635851e-04, -1.72391623e-01,
          -3.47847342e-01 ]
      - [ 0., -2.00945903e-02, -7.38179088e-02, -6.91519827e-02,
          -1.74340248e-01 ]
      - [ 0., 3.97127271e-01, 1.65814698e-01, -5.43611407e-01,
          -6.07207417e-01 ]
      - [ 0., -4.48965400e-01, -3.11818630e-01, 5.20512402e-01,
          4.53047007e-01 ]
      - [ 0., 7.80009449e-01, 4.05164212e-01, -9.02553976e-01,
          -1.05718517e+00 ]
      - [ 0., 9.27338982e+00, 1.11115656e+01, -5.56312609e+00,
          -3.53161263e+00 ]
      - [ 0., -3.74097437e-01, -2.69114166e-01, 3.71459723e-01,
          3.80402178e-01 ]
      - [ 0., -2.86772400e-01, -2.24385262e-01, 1.98441669e-01,
          1.33049488e-01 ]
      - [ 0., 1.02318382e+00, 5.80028892e-01, -1.12875354e+00,
          -1.28412533e+00 ]
      - [ 0., 1.36547580e-01, 1.12219034e-02, -2.85205245e-01,
          -3.61355692e-01 ]
      - [ 0., 8.19358885e-01, 4.45678324e-01, -1.00337660e+00,
          -1.08420193e+00 ]
      - [ 0., -2.03421324e-01, -1.80015311e-01, 7.21139088e-02,
          8.47196579e-02 ]
      - [ 0., -4.82081920e-02, -1.01186797e-01, 8.72193426e-02,
          -1.26310602e-01 ]
      - [ 0., 2.07657337e-01, 4.96290252e-02, -2.89685220e-01,
          -4.55914050e-01 ]
      - [ 0., 5.23124576e-01, 2.44572923e-01, -6.69970214e-01,
          -7.75011003e-01 ]
      - [ 0., -2.99001336e-01, -2.35027552e-01, 3.05882037e-01,
          2.24606007e-01 ]
      - [ 0., -5.45134306e-01, -3.61316502e-01, 5.80896556e-01,
          5.48505962e-01 ]
      - [ 0., 1.95696160e-01, 3.66936922e-02, -2.00299099e-01,
          -4.24994975e-01 ]
      - [ 0., 2.45003867e+00, 1.72460008e+00, -2.50503302e+00,
          -2.17387438e+00 ]
      - [ 0., -7.57643878e-01, -4.55872327e-01, 7.78736532e-01,
          1.06302357e+00 ]
      - [ 0., -7.63879359e-01, -4.70206976e-01, 1.05902088e+00,
          1.01499391e+00 ]
      - [ 0., -4.99387234e-02, -1.01537310e-01, 8.59058276e-02,
          -6.53729886e-02 ]
      - [ 0., 1.31828129e+00, 8.01959515e-01, -1.48324430e+00,
          -1.48915184e+00 ]
      - [ 0., 2.51900411e+00, 1.84688723e+00, -2.77037311e+00,
          -2.26843286e+00 ]
      - [ 0., -7.88198531e-01, -4.73680556e-01, 7.77355492e-01,
          9.22837019e-01 ]
      - [ 0., 6.10538602e-01, 3.00105602e-01, -7.23804891e-01,
          -8.71970892e-01 ]
      - [ 0., -1.01392460e+00, -5.81960082e-01, 1.44378710e+00,
          1.55772889e+00 ]
      - [ 0., 5.70949018e-01, 2.73272842e-01, -6.66399062e-01,
          -8.59663248e-01 ]
      - [ 0., -4.54436928e-01, -3.10833991e-01, 5.09953320e-01,
          4.12521988e-01 ]
      - [ 0., 5.96449494e-01, 3.00799131e-01, -9.84774232e-01,
          -9.37411249e-01 ]
      - [ 0., 1.97130546e-01, 5.42942397e-02, -3.56729478e-01,
          -4.20492202e-01 ]
      - [ 0., -1.32898018e-01, -1.42599806e-01, 8.77101421e-02,
          -3.17522362e-02 ]
      - [ 0., -5.27069032e-01, -3.50617647e-01, 5.83638787e-01,
          6.23852432e-01 ]
      - [ 0., 6.44651294e-01, 3.20881933e-01, -7.90634751e-01,
          -9.07692909e-01 ]
      - [ 0., 8.12920511e-01, 4.57672626e-01, -1.14844501e+00,
          -1.14003634e+00 ]
      - [ 0., 2.35478565e-01, 6.76085874e-02, -3.15043211e-01,
          -5.21054268e-01 ]
      - [ 0., 1.71104610e-01, 2.35321391e-02, -1.91742644e-01,
          -4.40604597e-01 ]
      - [ 0., 5.26546538e-01, 2.39858463e-01, -5.44988394e-01,
          -7.94523060e-01 ]
      - [ 0., 2.27675986e+00, 1.57608390e+00, -2.30473590e+00,
          -2.10963488e+00 ]
      - [ 0., 7.53342748e-01, 4.10773069e-01, -1.01661432e+00,
          -1.02026236e+00 ]
      - [ 0., 9.57565755e-03, -7.16445521e-02, -1.18257925e-02,
          -2.46985093e-01 ]
      - [ 0., 2.41270959e-01, 7.36233667e-02, -3.38510513e-01,
          -4.89234626e-01 ]
      - [ 0., 1.36562824e+00, 8.39965999e-01, -1.49726260e+00,
          -1.54048347e+00 ]
      - [ 0., -1.27640039e-01, -1.50956199e-01, 1.88786015e-01,
          -8.48850384e-02 ]
      - [ 0., -4.85656084e-03, -5.64920045e-02, -2.90225595e-01,
          -2.64095664e-01 ]
      - [ 0., 8.35607290e-01, 4.43752527e-01, -1.02045190e+00,
          -1.11752248e+00 ]
      - [ 0., -1.48503673e+00, -7.65814722e-01, 2.00341916e+00,
          2.58346200e+00 ]
      - [ 0., -5.88792026e-01, -3.77775043e-01, 7.22122133e-01,
          7.33720243e-01 ]
      - [ 0., -1.32713890e+00, -7.12457895e-01, 1.85269284e+00,
          2.18421555e+00 ]
      - [ 0., -2.39042178e-01, -2.10463986e-01, 3.55118185e-01,
          1.22843191e-01 ]
      - [ 0., -5.00451505e-01, -3.46956789e-01, 7.13497698e-01,
          4.53647375e-01 ]
      - [ 0., -3.44578713e-01, -2.53586560e-01, 3.41059208e-01,
          3.34173620e-01 ]
      - [ 0., 1.30509698e+00, 7.84333885e-01, -1.46630681e+00,
          -1.46873927e+00 ]
      - [ 0., -7.21495509e-01, -4.45798129e-01, 9.55044329e-01,
          9.39347208e-01 ]
      - [ 0., 1.06377594e-01, -2.10544541e-02, -8.39597583e-02,
          -3.31937522e-01 ]
      - [ 0., 4.33837809e-02, -4.36831117e-02, -1.38913438e-01,
          -2.56891221e-01 ]
      - [ 0., -5.48736095e-01, -3.70163232e-01, 7.42400944e-01,
          6.50568902e-01 ]
      - [ 0., -1.09134829e+00, -6.10244274e-01, 1.44148350e+00,
          1.71952879e+00 ]
      - [ 0., -2.26047039e-01, -1.91757143e-01, 1.16055936e-01,
          6.46072403e-02 ]
      - [ 0., 1.70740759e+00, 1.12127256e+00, -1.84153557e+00,
          -1.73680472e+00 ]
      - [ 0., 7.69105852e-01, 4.14761126e-01, -1.05261409e+00,
          -1.06679118e+00 ]
      - [ 0., -3.79152924e-01, -2.79212952e-01, 4.25300241e-01,
          3.13160658e-01 ]
      - [ 0., 8.48315418e-01, 4.63175327e-01, -9.13275361e-01,
          -1.09741008e+00 ]
      - [ 0., -4.57254887e-01, -3.17947775e-01, 5.98709524e-01,
          4.68656659e-01 ]
      - [ 0., 6.31512880e-01, 3.14398885e-01, -7.14461803e-01,
          -9.03190136e-01 ]
      - [ 0., -1.20697641e+00, -6.55548632e-01, 1.63150489e+00,
          1.98669362e+00 ]
      - [ 0., 7.11603165e-01, 3.77871543e-01, -8.75104249e-01,
          -9.44915891e-01 ]
      - [ 0., 9.02797639e-01, 5.05217433e-01, -1.13430321e+00,
          -1.15114319e+00 ]
      - [ 0., -2.95589715e-01, -2.23086163e-01, 1.50062114e-01,
          2.55224913e-01 ]
      - [ 0., 1.29034042e+00, 7.95905948e-01, -1.65559256e+00,
          -1.53868246e+00 ]
      - [ 0., -6.18815660e-01, -3.96236807e-01, 7.77473330e-01,
          7.33720243e-01 ]
      - [ 0., 6.26546741e-01, 3.16680849e-01, -7.55746722e-01,
          -9.02289569e-01 ]
      - [ 0., 7.82261133e-01, 4.46256399e-01, -1.19984496e+00,
          -1.09380782e+00 ]
      - [ 0., 5.97026758e-03, -6.69311956e-02, -4.80224751e-02,
          -1.24809675e-01 ]
      - [ 0., -1.60200417e-01, -1.61405250e-01, 2.59313196e-01,
          3.96918617e-02 ]
      - [ 0., -6.48908257e-01, -4.03585404e-01, 6.44782960e-01,
          8.18972886e-01 ]
      - [ 0., -6.74561560e-02, -9.94551405e-02, -2.79717855e-02,
          -7.61796609e-02 ]
      - [ 0., -5.98015726e-01, -3.88374656e-01, 7.43772686e-01,
          6.64077282e-01 ]
      - [ 0., 1.20101750e+00, 7.26816118e-01, -1.40383136e+00,
          -1.36577570e+00 ]
      - [ 0., 1.77759659e+00, 1.18142724e+00, -2.14080429e+00,
          -1.87098753e+00 ]
      - [ 0., -2.09174126e-01, -1.90040603e-01, 3.05813819e-01,
          9.55263227e-02 ]
      - [ 0., 1.00275910e+00, 5.70565164e-01, -1.14728379e+00,
          -1.21778429e+00 ]
      - [ 0., 2.05255175e+00, 1.39477301e+00, -2.23515153e+00,
          -1.98085535e+00 ]
      - [ 0., -1.13250482e+00, -6.30366504e-01, 1.64785898e+00,
          1.81378698e+00 ]
      - [ 0., 1.19344592e+00, 7.17580914e-01, -1.65711415e+00,
          -1.43481827e+00 ]
      - [ 0., 7.81229079e-01, 4.16976035e-01, -9.66490626e-01,
          -1.01876152e+00 ]
      - [ 0., -1.48294365e+00, -7.61648059e-01, 1.97141182e+00,
          2.58226132e+00 ]
      - [ 0., 2.23424390e-01, 6.79041669e-02, -3.98731381e-01,
          -4.93137032e-01 ]
      - [ 0., -1.42384589e+00, -7.48225808e-01, 2.05140448e+00,
          2.43757200e+00 ]
      - [ 0., 1.70582330e+00, 1.11096931e+00, -2.02640915e+00,
          -1.82325804e+00 ]
      - [ 0., 1.27168608e+00, 7.81521261e-01, -1.48990107e+00,
          -1.44622529e+00 ]
      - [ 0., -4.86746192e-01, -3.27452987e-01, 5.62965810e-01,
          5.37699282e-01 ]
      - [ 0., 5.25085092e-01, 2.49451771e-01, -6.51682198e-01,
          -8.40151250e-01 ]
      - [ 0., 1.71232540e-02, -5.75459413e-02, -1.97932199e-01,
          -2.04658970e-01 ]
      - [ 0., 4.66355607e-02, -4.92273010e-02, -3.80734876e-02,
          -2.50887513e-01 ]
      - [ 0., -6.90503955e-01, -4.31050241e-01, 8.76703620e-01,
          9.36045170e-01 ]
      - [ 0., -3.28687072e-01, -2.47469947e-01, 3.80296618e-01,
          3.25468272e-01 ]
      - [ 0., 4.06532139e-02, -4.50124890e-02, -2.73019612e-01,
          -3.03419918e-01 ]
      - [ 0., -1.12026310e+00, -6.17766500e-01, 1.28793371e+00,
          1.70211804e+00 ]
      - [ 0., 3.55658770e-01, 1.50294691e-01, -5.95360637e-01,
          -5.93398929e-01 ]
      - [ 0., -4.62153137e-01, -3.24348807e-01, 6.25498652e-01,
          4.80363876e-01 ]
      - [ 0., -8.79208565e-01, -5.21735430e-01, 1.14946592e+00,
          1.19000185e+00 ]
      - [ 0., -4.76510584e-01, -3.26100409e-01, 4.05095458e-01,
          4.64153856e-01 ]
      - [ 0., -1.24906301e-02, -7.19710812e-02, -1.32146195e-01,
          -2.52088249e-01 ]
      - [ 0., 2.10766971e-01, 6.20976016e-02, -3.95105571e-01,
          -4.62818325e-01 ]
      - [ 0., 1.53125525e+00, 9.78562593e-01, -1.79667413e+00,
          -1.64434767e+00 ]
      - [ 0., 2.02863359e+00, 1.38311279e+00, -2.26853299e+00,
          -1.99376333e+00 ]
      - [ 0., 2.00696975e-01, 4.20071520e-02, -1.74113184e-01,
          -4.39403862e-01 ]
      - [ 0., -8.45458567e-01, -5.01528084e-01, 9.40503597e-01,
          1.11255407e+00 ]
      - [ 0., -5.46750903e-01, -3.55014712e-01, 5.88811994e-01,
          6.16648018e-01 ]
      - [ 0., -8.55782986e-01, -5.09092391e-01, 1.12188900e+00,
          1.13867021e+00 ]
      - [ 0., 2.40616536e+00, 1.71902227e+00, -2.44756079e+00,
          -2.16606975e+00 ]
      - [ 0., 1.99632478e+00, 1.33090901e+00, -2.10890460e+00,
          -1.94273186e+00 ]
      - [ 0., -2.72226669e-02, -9.38925445e-02, 7.64180347e-02,
          -1.58430427e-01 ]
      - [ 0., -2.56261565e-02, -8.34830552e-02, -2.95110047e-02,
          -1.38318017e-01 ]
      - [ 0., -8.54696274e-01, -5.09612679e-01, 1.19481945e+00,
          1.25304079e+00 ]
      - [ 0., 6.34017512e-02, -3.90790924e-02, -7.55897686e-02,
          -2.82106757e-01 ]
      - [ 0., -1.48725474e+00, -7.64137387e-01, 1.97938013e+00,
          2.69813275e+00 ]
      - [ 0., 8.65288556e-01, 4.78709459e-01, -9.99249816e-01,
          -1.11572134e+00 ]
      - [ 0., -5.76984644e-01, -3.72125387e-01, 6.77068174e-01,
          6.89593017e-01 ]
      - [ 0., -6.42143846e-01, -4.10360008e-01, 7.08933830e-01,
          7.22913563e-01 ]
      - [ 0., 1.45953727e+00, 9.03610110e-01, -1.58517373e+00,
          -1.57620561e+00 ]
      - [ 0., 1.02263701e+00, 5.89246213e-01, -1.33311880e+00,
          -1.26911604e+00 ]
      - [ 0., -1.17319167e+00, -6.50919795e-01, 1.68583453e+00,
          1.83840215e+00 ]
      - [ 0., -6.66191459e-01, -4.22212511e-01, 8.14937592e-01,
          8.09366941e-01 ]
      - [ 0., 1.12014413e+00, 6.50609255e-01, -1.42547214e+00,
          -1.39309251e+00 ]
      - [ 0., -7.82160461e-01, -4.82574701e-01, 1.08339775e+00,
          9.61260736e-01 ]
      - [ 0., 4.11511928e-01, 1.82618499e-01, -6.81815028e-01,
          -6.98163569e-01 ]
      - [ 0., 9.92330551e-01, 5.72013736e-01, -1.21374917e+00,
          -1.21118021e+00 ]
      - [ 0., 2.80231208e-01, 9.57923308e-02, -3.88133675e-01,
          -5.30960381e-01 ]
      - [ 0., 1.24391711e+00, 7.48378396e-01, -1.38004398e+00,
          -1.46933961e+00 ]
      - [ 0., 1.05594583e-01, -1.89169496e-02, -1.35933325e-01,
          -3.49948645e-01 ]
      - [ 0., -1.19552624e+00, -6.54674292e-01, 1.51667392e+00,
          1.87742627e+00 ]
      - [ 0., 1.55142725e+00, 9.86859143e-01, -1.67620933e+00,
          -1.65575469e+00 ]
      - [ 0., 5.59600413e-01, 2.72765756e-01, -7.41777062e-01,
          -7.87318647e-01 ]
      - [ 0., -1.39635015e+00, -7.28375435e-01, 1.82285762e+00,
          2.41866040e+00 ]
      - [ 0., 2.80460536e-01, 9.06015709e-02, -3.03103447e-01,
          -5.45969665e-01 ]
      - [ 0., -1.56124011e-01, -1.51587144e-01, 9.93220508e-02,
          -3.32531631e-02 ]
      - [ 0., 1.84876341e-02, -5.62978946e-02, -1.61110342e-01,
          -2.82707155e-01 ]
      - [ 0., 1.48690712e+00, 9.42622781e-01, -1.70952833e+00,
          -1.59511721e+00 ]
      - [ 0., 2.71785069e+00, 1.98811471e+00, -2.60422468e+00,
          -2.28344202e+00 ]
      - [ 0., -2.92070448e-01, -2.33576417e-01, 3.93206805e-01,
          1.99690625e-01 ]
      - [ 0., 6.86556458e-01, 3.60500902e-01, -9.32340205e-01,
          -9.86641645e-01 ]
      - [ 0., -1.18129559e-01, -1.34378165e-01, 4.94659096e-02,
          -1.55422324e-02 ]
      - [ 0., 1.30908000e+00, 7.95923293e-01, -1.51384842e+00,
          -1.49995852e+00 ]
      - [ 0., -7.61756837e-01, -4.56477553e-01, 8.76602948e-01,
          1.02640092e+00 ]
      - [ 0., 3.31311792e-01, 1.27378255e-01, -4.95188981e-01,
          -5.78689814e-01 ]
      - [ 0., 4.69062358e-01, 2.19148099e-01, -7.10989058e-01,
          -7.57900476e-01 ]
      - [ 0., -3.81257355e-01, -2.78015435e-01, 3.30353200e-01,
          3.27869743e-01 ]
      - [ 0., -2.41321445e-01, -1.96341664e-01, 1.30810976e-01,
          9.79278088e-02 ]
      - [ 0., -2.53204077e-01, -2.05975592e-01, 2.33840302e-01,
          1.74775243e-01 ]
      - [ 0., 2.59657770e-01, 7.79795498e-02, -3.64585668e-01,
          -4.79328513e-01 ]
      - [ 0., -1.15149450e+00, -6.41202807e-01, 1.54798508e+00,
          1.69851577e+00 ]
      - [ 0., 5.58082461e-01, 2.79170990e-01, -8.73220742e-01,
          -8.60263646e-01 ]
      - [ 0., 2.59369552e-01, 7.68232644e-02, -2.98936695e-01,
          -5.39665759e-01 ]
      - [ 0., -5.33425156e-03, -8.47561508e-02, 1.01495624e-01,
          -2.37679347e-01 ]
      - [ 0., 3.93781692e-01, 1.56531677e-01, -4.69820440e-01,
          -6.72647834e-01 ]
      - [ 0., 2.72001922e-01, 9.47227702e-02, -3.79829347e-01,
          -5.81391513e-01 ]
      - [ 0., 1.69954523e-01, 1.91160366e-02, -1.86460063e-01,
          -4.57414985e-01 ]
      - [ 0., 5.43771863e-01, 2.53247947e-01, -6.41437173e-01,
          -8.51858437e-01 ]
      - [ 0., 8.17547083e-01, 4.61716682e-01, -1.16226149e+00,
          -1.13703454e+00 ]
      - [ 0., 1.78847861e+00, 1.19492757e+00, -2.16522956e+00,
          -1.87999308e+00 ]
      - [ 0., -4.99889731e-01, -3.37202311e-01, 6.42887771e-01,
          5.75822771e-01 ]
      - [ 0., -6.61660552e-01, -4.13113028e-01, 7.29036331e-01,
          7.54433036e-01 ]
      - [ 0., 9.78146255e-01, 5.56728721e-01, -1.18072999e+00,
          -1.23039210e+00 ]
      - [ 0., 1.02254212e+00, 5.94494283e-01, -1.30905569e+00,
          -1.24630189e+00 ]
      - [ 0., -1.40532538e-01, -1.48769215e-01, 1.60654560e-01,
          2.94855610e-02 ]
      - [ 0., 1.55900151e-01, 1.23243164e-02, -2.37981260e-01,
          -3.72162372e-01 ]
      - [ 0., 2.59158194e-01, 7.91630149e-02, -3.12972486e-01,
          -5.24956703e-01 ]
      - [ 0., -6.91856802e-01, -4.33481008e-01, 8.45111847e-01,
          8.42987716e-01 ]
      - [ 0., 1.02768704e-01, -8.60026851e-03, -1.72843039e-01,
          -3.26834381e-01 ]
      - [ 0., 1.75606000e+00, 1.16409421e+00, -2.16749835e+00,
          -1.86198199e+00 ]
      - [ 0., 9.73318815e-02, -1.28774270e-02, -1.32410347e-01,
          -3.30736786e-01 ]
      - [ 0., -1.59814730e-02, -6.88244626e-02, -2.35117599e-01,
          -2.10362494e-01 ]
      - [ 0., -4.46743339e-01, -3.02333593e-01, 4.12149161e-01,
          4.73759800e-01 ]
      - [ 0., 1.56613266e+00, 1.03835487e+00, -2.05186939e+00,
          -1.74731123e+00 ]
      - [ 0., 6.09041631e-01, 3.00251633e-01, -7.67080247e-01,
          -8.85779381e-01 ]
      - [ 0., 3.10543895e-01, 1.19214207e-01, -4.65525419e-01,
          -5.92198193e-01 ]
      - [ 0., -1.30422378e+00, -6.96326435e-01, 1.83408689e+00,
          2.21033168e+00 ]
      - [ 0., 8.65200520e-01, 4.83040899e-01, -1.15991771e+00,
          -1.13433278e+00 ]
      - [ 0., -1.42491713e-01, -1.36001691e-01, -6.19760379e-02,
          -3.20524238e-02 ]
      - [ 0., -1.05812824e+00, -5.96880734e-01, 1.53072631e+00,
          1.61956704e+00 ]
      - [ 0., -8.94610107e-01, -5.31748116e-01, 1.09542120e+00,
          1.14287281e+00 ]
      - [ 0., 3.68370235e-01, 1.57675833e-01, -5.71406364e-01,
          -6.20715797e-01 ]
      - [ 0., 1.77521408e-01, 2.69621518e-02, -2.55276173e-01,
          -4.02781248e-01 ]
      - [ 0., -2.54299700e-01, -2.10706845e-01, 2.05547825e-01,
          1.76576361e-01 ]
      - [ 0., -3.50585431e-02, -1.02932826e-01, 1.33121699e-01,
          -1.59931362e-01 ]
      - [ 0., -2.86654621e-01, -2.27305502e-01, 2.57268429e-01,
          2.02692479e-01 ]
      - [ 0., -7.24865317e-01, -4.43196177e-01, 8.42511237e-01,
          9.11129773e-01 ]
      - [ 0., -7.28527129e-01, -4.46528345e-01, 8.50286365e-01,
          9.15632546e-01 ]
      - [ 0., -1.60431349e+00, -8.07180047e-01, 2.22364759e+00,
          2.96739912e+00 ]
      - [ 0., -3.34468223e-02, -8.19042549e-02, -1.27214745e-01,
          -1.56028956e-01 ]
      - [ 0., 9.88754109e-02, -4.51714406e-03, -3.83887887e-01,
          -3.48747909e-01 ]
      - [ 0., -7.66838575e-03, -7.63249621e-02, -8.19793344e-02,
          -1.71038210e-01 ]
      - [ 0., 3.91469270e-01, 1.82914302e-01, -7.31661975e-01,
          -7.11071551e-01 ]
      - [ 0., 3.85072708e+00, 3.14225197e+00, -3.37519479e+00,
          -2.71600914e+00 ]
      - [ 0., -6.40307367e-01, -4.11648959e-01, 6.84706271e-01,
          7.35521376e-01 ]
      - [ 0., 4.54884738e-01, 2.06000432e-01, -6.56535506e-01,
          -7.66305625e-01 ]
      - [ 0., -3.57614279e-01, -2.68223017e-01, 4.43133026e-01,
          3.26368809e-01 ]
      - [ 0., 7.37271249e-01, 3.87230396e-01, -9.61335957e-01,
          -1.04037488e+00 ]
      - [ 0., 2.51457524e+00, 1.78064048e+00, -2.44095063e+00,
          -2.21499991e+00 ]
      - [ 0., 1.24729300e+00, 7.55716622e-01, -1.43082333e+00,
          -1.42671335e+00 ]
      - [ 0., -4.04841781e-01, -2.97495753e-01, 4.99774665e-01,
          2.90946960e-01 ]
      - [ 0., 6.17540061e-01, 3.12778503e-01, -8.08993757e-01,
          -8.81877005e-01 ]
      - [ 0., 1.16256273e+00, 6.92349970e-01, -1.41977465e+00,
          -1.42971516e+00 ]
      - [ 0., -1.33409691e+00, -7.12621152e-01, 1.91554606e+00,
          2.21903706e+00 ]
      - [ 0., 1.32711089e+00, 8.18795621e-01, -1.59532070e+00,
          -1.54198444e+00 ]
      - [ 0., -9.19243157e-01, -5.29607654e-01, 1.05108368e+00,
          1.33439100e+00 ]
      - [ 0., 4.78801616e-02, -2.91909985e-02, -2.17226341e-01,
          -2.31675640e-01 ]
      - [ 0., -4.11018372e-01, -3.00332367e-01, 5.73023081e-01,
          3.90008092e-01 ]
      - [ 0., 1.10207939e+00, 6.46470606e-01, -1.35565364e+00,
          -1.32194865e+00 ]
      - [ 0., -1.84536502e-01, -1.71794429e-01, 1.45693302e-01,
          8.68209526e-02 ]
      - [ 0., 2.60834289e+00, 1.87395954e+00, -2.44093561e+00,
          -2.26813269e+00 ]
      - [ 0., -1.84614316e-01, -1.70880064e-01, 1.22752547e-01,
          5.80031648e-02 ]
      - [ 0., -6.85528219e-01, -4.20922875e-01, 6.75359249e-01,
          7.47528791e-01 ]
      - [ 0., 2.32525945e-01, 6.60200939e-02, -3.56923968e-01,
          -4.93737400e-01 ]
      - [ 0., -2.62394607e-01, -2.09046885e-01, 6.81402385e-02,
          1.45657271e-01 ]
      - [ 0., 3.01434882e-02, -5.25159910e-02, -8.79779086e-02,
          -2.12163597e-01 ]
      - [ 0., 5.06965816e-01, 2.30151340e-01, -5.45837641e-01,
          -8.04429173e-01 ]
      - [ 0., -4.90054309e-01, -3.40041816e-01, 7.42861450e-01,
          5.33196509e-01 ]
      - [ 0., 1.20613539e+00, 7.05833495e-01, -1.32485509e+00,
          -1.39789546e+00 ]
      - [ 0., 1.99180329e+00, 1.32187104e+00, -1.99633396e+00,
          -1.94333220e+00 ]
      - [ 0., 3.31843114e+00, 2.58982205e+00, -3.09656501e+00,
          -2.53529763e+00 ]
      - [ 0., -2.45485216e-01, -1.99542314e-01, 1.45687431e-01,
          7.60142803e-02 ]
      - [ 0., 8.95131111e-01, 4.96279895e-01, -1.11943853e+00,
          -1.12832916e+00 ]
      - [ 0., -1.01328516e+00, -5.73745430e-01, 1.23876762e+00,
          1.39833045e+00 ]
      - [ 0., -3.13681662e-01, -2.40935639e-01, 3.70501548e-01,
          2.39315078e-01 ]
      - [ 0., 1.33666968e+00, 8.30998480e-01, -1.65781832e+00,
          -1.53027725e+00 ]
      - [ 0., 4.47293580e-01, 1.99281260e-01, -4.87802297e-01,
          -7.24579871e-01 ]
      - [ 0., -1.31492448e+00, -7.03164220e-01, 1.81814313e+00,
          2.19922495e+00 ]
      - [ 0., 4.44975287e-01, 2.00727969e-01, -6.65814877e-01,
          -6.88257456e-01 ]
      - [ 0., -1.02555156e+00, -5.92748880e-01, 1.49269187e+00,
          1.49168813e+00 ]
      - [ 0., -6.96427464e-01, -4.34817165e-01, 9.64932859e-01,
          9.59459603e-01 ]
      - [ 0., -3.35836738e-01, -2.56294101e-01, 3.43346000e-01,
          2.45618969e-01 ]
      - [ 0., 1.34324121e+00, 8.30773950e-01, -1.67371571e+00,
          -1.53357923e+00 ]
      - [ 0., 2.60465294e-01, 8.55790749e-02, -4.25185412e-01,
          -5.45069098e-01 ]
      - [ 0., -5.99288404e-01, -3.85807425e-01, 5.93208790e-01,
          6.36760414e-01 ]
      - [ 0., 9.76470053e-01, 5.57763994e-01, -1.29683721e+00,
          -1.29523218e+00 ]
      - [ 0., -7.50101924e-01, -4.57864970e-01, 8.21982801e-01,
          9.36345339e-01 ]
      - [ 0., -1.36313307e+00, -7.20790863e-01, 1.84943914e+00,
          2.33370781e+00 ]
      - [ 0., -2.56176472e-01, -2.13255718e-01, 3.41992319e-01,
          1.68771535e-01 ]
      - [ 0., -2.69601226e-01, -1.99673638e-01, 7.10683838e-02,
          1.31548554e-01 ]
      - [ 0., 1.31628383e-02, -6.03450350e-02, 4.19917665e-02,
          -1.66235253e-01 ]
      - [ 0., 4.92485583e-01, 2.33395517e-01, -6.58336461e-01,
          -7.40789890e-01 ]
      - [ 0., 6.82644784e-01, 3.43899578e-01, -8.16174746e-01,
          -9.67429817e-01 ]
      - [ 0., -1.07898688e+00, -6.08309567e-01, 1.40227437e+00,
          1.54482090e+00 ]
      - [ 0., -8.55120420e-01, -5.09190023e-01, 1.17969441e+00,
          1.18760037e+00 ]
      - [ 0., 2.44163498e-02, -5.73345870e-02, -7.16975480e-02,
          -2.40981385e-01 ]
      - [ 0., 1.35646272e+00, 8.40952814e-01, -1.62249303e+00,
          -1.56389797e+00 ]
      - [ 0., -3.13888460e-01, -2.41589352e-01, 2.80102611e-01,
          2.44118050e-01 ]
      - [ 0., -5.56679368e-01, -3.59275252e-01, 6.24953151e-01,
          6.68580055e-01 ]
      - [ 0., 1.23232484e+00, 7.19866693e-01, -1.34609497e+00,
          -1.46903944e+00 ]
      - [ 0., -8.72610152e-01, -5.17381489e-01, 1.12513888e+00,
          1.27675545e+00 ]
      - [ 0., -1.04444706e+00, -5.95076442e-01, 1.48506069e+00,
          1.63607728e+00 ]
      - [ 0., 2.36244276e-01, 7.26159438e-02, -3.30866665e-01,
          -4.65219796e-01 ]
      - [ 0., -6.72859073e-01, -4.15348917e-01, 7.19369709e-01,
          7.65840113e-01 ]
      - [ 0., 1.83896208e+00, 1.23148382e+00, -2.21560454e+00,
          -1.89980531e+00 ]
      - [ 0., 4.18638021e-01, 1.80711105e-01, -5.73179007e-01,
          -6.95762098e-01 ]
      - [ 0., -1.15580253e-01, -1.43248394e-01, 1.52126089e-01,
          -5.42661361e-02 ]
      - [ 0., 1.92518651e+00, 1.29249144e+00, -2.09002829e+00,
          -1.85928035e+00 ]
      - [ 0., -5.19039072e-02, -1.04417183e-01, 1.63367778e-01,
          -1.28712088e-01 ]
      - [ 0., -8.15454721e-01, -4.90128994e-01, 1.07378519e+00,
          1.16208470e+00 ]
      - [ 0., 2.58537978e-01, 7.68695101e-02, -3.07564050e-01,
          -5.29459476e-01 ]
      - [ 0., -3.32815140e-01, -2.48387530e-01, 2.96707898e-01,
          2.92147696e-01 ]
      - [ 0., 1.55837849e-01, 2.16090865e-02, -2.15771347e-01,
          -3.59554589e-01 ]
      - [ 0., 8.03322613e-01, 4.30592120e-01, -9.76907730e-01,
          -1.07789803e+00 ]
      - [ 0., -1.19629294e-01, -1.41584292e-01, 1.72483861e-01,
          -1.01995595e-01 ]
      - [ 0., -8.60434547e-02, -1.22272715e-01, 6.79833591e-02,
          -8.60857740e-02 ]
      - [ 0., -1.70024578e-02, -7.88164586e-02, 3.81716155e-02,
          -2.06159890e-01 ]
      - [ 0., -1.98874295e-01, -1.91146985e-01, 3.30946237e-01,
          5.07987179e-02 ]
      - [ 0., -3.77750546e-01, -2.82502264e-01, 5.05884945e-01,
          3.31471980e-01 ]
      - [ 0., -3.24381262e-01, -2.36055940e-01, 1.42439201e-01,
          2.64230460e-01 ]
      - [ 0., 1.44371343e+00, 8.71129513e-01, -1.64582622e+00,
          -1.61312830e+00 ]
      - [ 0., 1.44445136e-01, 1.26298806e-02, -1.90369993e-01,
          -3.41243267e-01 ]
      - [ 0., -1.01518512e+00, -5.83261430e-01, 1.43483329e+00,
          1.53971779e+00 ]
      - [ 0., 1.54016459e+00, 9.59495068e-01, -1.61817992e+00,
          -1.62963855e+00 ]
      - [ 0., 1.70818269e-01, 1.41453762e-02, -1.06703497e-01,
          -4.43606466e-01 ]
      - [ 0., -4.81910557e-01, -3.30558777e-01, 6.96463287e-01,
          5.09782016e-01 ]
      - [ 0., 3.48691869e+00, 2.76791096e+00, -3.24021769e+00,
          -2.60854268e+00 ]
      - [ 0., 9.51176882e-01, 5.19541323e-01, -9.89376545e-01,
          -1.23669600e+00 ]
      - [ 0., 1.70718074e-01, 2.81147677e-02, -2.87281156e-01,
          -4.03681815e-01 ]
      - [ 0., 7.03694963e+00, 7.34564924e+00, -4.97506332e+00,
          -3.32778668e+00 ]
      - [ 0., 3.41294140e-01, 1.42845497e-01, -4.47600633e-01,
          -5.72385967e-01 ]
      - [ 0., -4.48182076e-01, -3.14681888e-01, 5.82794607e-01,
          4.78862941e-01 ]
      - [ 0., -3.80459070e-01, -2.65298486e-01, 1.87886402e-01,
          3.10458988e-01 ]
      - [ 0., -5.43060243e-01, -3.71930718e-01, 7.44717121e-01,
          5.47605395e-01 ]
      - [ 0., 1.12523830e+00, 6.69641554e-01, -1.40586197e+00,
          -1.37838352e+00 ]
      - [ 0., 1.89768660e+00, 1.25038922e+00, -2.06021881e+00,
          -1.86078119e+00 ]
      - [ 0., 1.66423345e+00, 1.04888129e+00, -1.87782228e+00,
          -1.78543472e+00 ]
      - [ 0., -4.67088819e-01, -3.20073009e-01, 6.06408894e-01,
          5.28993905e-01 ]
      - [ 0., -4.25133444e-02, -9.03781056e-02, -3.60056385e-02,
          -9.83933732e-02 ]
      - [ 0., 7.52396464e-01, 3.85622382e-01, -8.73403549e-01,
          -1.00465274e+00 ]
      - [ 0., -4.25123334e-01, -2.89880008e-01, 3.02749813e-01,
          4.09219950e-01 ]
      - [ 0., 7.26786330e-02, -2.79828310e-02, -1.66197598e-01,
          -2.61694163e-01 ]
      - [ 0., 1.75508723e-01, 3.35336402e-02, -2.61197776e-01,
          -3.66759032e-01 ]
      - [ 0., -1.09621167e-01, -1.28703043e-01, 6.05862141e-02,
          -4.64613177e-02 ]
      - [ 0., 8.32690001e-01, 4.83754188e-01, -1.33798552e+00,
          -1.19467008e+00 ]
      - [ 0., 4.50235516e-01, 2.08975807e-01, -7.56298065e-01,
          -7.80114174e-01 ]
      - [ 0., -9.90128875e-01, -5.63567579e-01, 1.28847790e+00,
          1.42234528e+00 ]
      - [ 0., -8.17760348e-01, -4.95684475e-01, 1.13563728e+00,
          1.10985243e+00 ]
      - [ 0., -1.63924322e-01, -1.57259375e-01, 1.04465060e-01,
          2.85850056e-02 ]
      - [ 0., 2.37715185e-01, 6.66779727e-02, -3.96012813e-01,
          -4.89534795e-01 ]
      - [ 0., 1.45407283e+00, 8.93162906e-01, -1.56590283e+00,
          -1.58130872e+00 ]
      - [ 0., 2.31642842e-01, 6.09868243e-02, -2.45618463e-01,
          -5.03643513e-01 ]
      - [ 0., -6.69610739e-01, -4.20396745e-01, 8.24856102e-01,
          8.01862299e-01 ]
      - [ 0., -1.37537956e+00, -7.26042449e-01, 1.93188107e+00,
          2.37513351e+00 ]
      - [ 0., -2.60887116e-01, -2.13129476e-01, 2.60377496e-01,
          1.81979686e-01 ]
      - [ 0., -2.41457731e-01, -2.09101498e-01, 3.41999233e-01,
          1.38152644e-01 ]
      - [ 0., 5.25146675e+00, 4.82068205e+00, -4.08961487e+00,
          -3.02339888e+00 ]
      - [ 0., 5.42245984e-01, 2.50711113e-01, -5.87086678e-01,
          -8.23941231e-01 ]
      - [ 0., -3.64994735e-01, -2.75650471e-01, 5.24199903e-01,
          3.53385478e-01 ]
      - [ 0., 4.70572203e-01, 2.17333734e-01, -6.78981483e-01,
          -7.69307494e-01 ]
      - [ 0., 5.48377514e-01, 2.64964640e-01, -7.70228863e-01,
          -8.29944909e-01 ]
      - [ 0., -3.34411502e-01, -2.55290985e-01, 4.50432777e-01,
          2.72035271e-01 ]
      - [ 0., -3.94149214e-01, -2.91089833e-01, 4.56098020e-01,
          3.68394762e-01 ]
      - [ 0., 5.07055640e-01, 2.40789309e-01, -7.54706204e-01,
          -7.47393966e-01 ]
      - [ 0., 6.72006488e-01, 3.43275815e-01, -8.15991163e-01,
          -9.48818326e-01 ]
      - [ 0., -6.72859073e-01, -4.15348917e-01, 7.19369709e-01,
          7.65840113e-01 ]
      - [ 0., 3.58040482e-02, -4.68392149e-02, -1.49344027e-01,
          -2.31975824e-01 ]
      - [ 0., -1.85214102e-01, -1.68835178e-01, 1.08947106e-01,
          2.40822267e-02 ]
      - [ 0., -4.66706425e-01, -3.17131877e-01, 4.72280830e-01,
          4.58150148e-01 ]
      - [ 0., 2.35411018e-01, 7.67871439e-02, -4.66353178e-01,
          -4.59516287e-01 ]
      - [ 0., 5.59508145e-01, 2.76810527e-01, -7.59560287e-01,
          -8.48856628e-01 ]
      - [ 0., 1.54002339e-01, 3.24812084e-02, -4.07003820e-01,
          -4.20492202e-01 ]
      - [ 0., 8.72176647e-01, 4.88648593e-01, -1.20058513e+00,
          -1.16645265e+00 ]
      - [ 0., -4.86926794e-01, -3.24042290e-01, 5.08624494e-01,
          5.61413884e-01 ]
      - [ 0., -1.30777642e-01, -1.44686967e-01, 1.41148970e-01,
          2.04800032e-02 ]
      - [ 0., -3.14411432e-01, -2.41829470e-01, 3.79960090e-01,
          2.87044555e-01 ]
      - [ 0., 1.40899253e+00, 8.79354715e-01, -1.66617930e+00,
          -1.51736927e+00 ]
      - [ 0., -1.20787930e+00, -6.56159401e-01, 1.58556795e+00,
          1.91615009e+00 ]
      - [ 0., 6.13287449e-01, 3.08493584e-01, -7.46855021e-01,
          -8.76173437e-01 ]
      - [ 0., -1.10847366e+00, -6.17069423e-01, 1.38255072e+00,
          1.62977338e+00 ]
      - [ 0., 1.75807703e+00, 1.16332698e+00, -2.10327244e+00,
          -1.84577191e+00 ]
      - [ 0., 4.19678539e-01, 1.88734263e-01, -6.18146718e-01,
          -6.43529892e-01 ]
      - [ 0., -4.96751755e-01, -3.41927081e-01, 5.52366316e-01,
          4.95973498e-01 ]
      - [ 0., -1.35689422e-01, -1.31791592e-01, -8.58826414e-02,
          -1.13333820e-03 ]
      - [ 0., -6.51212573e-01, -4.14087981e-01, 7.77163148e-01,
          8.11768413e-01 ]
      - [ 0., 1.35551959e-01, 9.22043994e-03, -1.70505941e-01,
          -3.34339023e-01 ]
      - [ 0., 2.10261226e-01, 5.55352382e-02, -2.27268830e-01,
          -4.03381616e-01 ]
      - [ 0., -2.69153833e-01, -2.18543053e-01, 3.32210362e-01,
          1.53762266e-01 ]
      - [ 0., 4.24320132e-01, 1.86635315e-01, -6.02673948e-01,
          -6.71747267e-01 ]
      - [ 0., 2.28106618e-01, 6.74629807e-02, -4.10354197e-01,
          -4.65519994e-01 ]
      - [ 0., -1.26875103e+00, -6.85133934e-01, 1.75914907e+00,
          2.14188957e+00 ]
      - [ 0., -9.65908825e-01, -5.60392320e-01, 1.40339053e+00,
          1.42144477e+00 ]
      - [ 0., 4.43087101e-01, 2.05083162e-01, -6.50800228e-01,
          -6.96662664e-01 ]
      - [ 0., -2.78539151e-01, -2.30341464e-01, 4.03176785e-01,
          1.55863568e-01 ]
      - [ 0., 7.32093379e-02, -2.46216170e-02, -2.54652411e-01,
          -2.71600276e-01 ]
      - [ 0., -1.34623241e+00, -7.15221703e-01, 1.88527560e+00,
          2.34301353e+00 ]
      - [ 0., -3.20083737e-01, -2.52902240e-01, 4.46680635e-01,
          3.02954376e-01 ]
      - [ 0., 1.07169616e+00, 5.93576908e-01, -1.10915291e+00,
          -1.32194865e+00 ]
      - [ 0., 7.89237767e-02, -2.22043656e-02, -1.62898913e-01,
          -3.04920852e-01 ]
      - [ 0., -1.85502879e-02, -7.84386322e-02, -4.94849533e-02,
          -1.31113574e-01 ]
      - [ 0., -4.56236959e-01, -3.12230796e-01, 4.98164237e-01,
          5.04378676e-01 ]
      - [ 0., -7.32495859e-02, -1.14926316e-01, 3.73710543e-02,
          -4.43600193e-02 ]
      - [ 0., 1.68922353e+00, 1.07788670e+00, -1.86554098e+00,
          -1.73320246e+00 ]
      - [ 0., -3.97872955e-01, -2.84787863e-01, 5.38041413e-01,
          3.90308291e-01 ]
      - [ 0., 1.06129742e+00, 6.16174161e-01, -1.43318284e+00,
          -1.38738906e+00 ]
      - [ 0., -9.87972975e-01, -5.64943910e-01, 1.21623981e+00,
          1.48418343e+00 ]
      - [ 0., -7.75078475e-01, -4.67736781e-01, 9.56978619e-01,
          1.07503092e+00 ]
      - [ 0., -4.70811278e-01, -3.30385983e-01, 5.39315879e-01,
          4.63553488e-01 ]
      - [ 0., -4.07155365e-01, -2.87629575e-01, 2.48800933e-01,
          3.56987715e-01 ]
      - [ 0., -1.16053736e+00, -6.42238140e-01, 1.59736753e+00,
          1.74384379e+00 ]
      - [ 0., -4.05351460e-01, -2.99657077e-01, 6.01308584e-01,
          3.76499772e-01 ]
      - [ 0., 4.11381304e-01, 1.76682636e-01, -6.35015607e-01,
          -6.90959156e-01 ]
      - [ 0., -6.86522499e-02, -1.11786783e-01, 3.82636115e-02,
          -1.02896154e-01 ]
      - [ 0., 1.13755488e+00, 6.68722868e-01, -1.21627569e+00,
          -1.31714571e+00 ]
      - [ 0., -9.11720693e-02, -1.17856927e-01, 1.08096078e-02,
          -1.30813390e-01 ]
      - [ 0., 3.06181997e-01, 1.16794005e-01, -5.30426502e-01,
          -5.84993720e-01 ]
      - [ 0., 3.81825328e-01, 1.54440716e-01, -5.27481019e-01,
          -6.40227854e-01 ]
      - [ 0., -5.78773081e-01, -3.71297687e-01, 5.36533594e-01,
          5.98036528e-01 ]
      - [ 0., 1.36725858e-01, -1.19426064e-02, 2.95219682e-02,
          -3.53851050e-01 ]
      - [ 0., 1.23163462e+00, 7.23409832e-01, -1.32794106e+00,
          -1.44202280e+00 ]
      - [ 0., -2.44575702e-02, -7.87724331e-02, -7.50853419e-02,
          -1.23008564e-01 ]
      - [ 0., 1.37444925e+00, 8.61658633e-01, -1.66212285e+00,
          -1.50806355e+00 ]
      - [ 0., 1.17244148e+00, 6.93751335e-01, -1.49950302e+00,
          -1.42971516e+00 ]
      - [ 0., 1.81393707e+00, 1.20101440e+00, -2.00756812e+00,
          -1.84697270e+00 ]
      - [ 0., 6.50633574e-01, 3.32953393e-01, -8.22440624e-01,
          -9.14897382e-01 ]
      - [ 0., 2.14415386e-01, 5.31462841e-02, -3.69027674e-01,
          -5.18652797e-01 ]
      - [ 0., -1.13703060e+00, -6.34826362e-01, 1.68355489e+00,
          1.79637623e+00 ]
      - [ 0., 5.96030712e-01, 2.80048966e-01, -6.55013680e-01,
          -9.00488496e-01 ]
      - [ 0., 1.93949327e-01, 5.27176857e-02, -4.35091376e-01,
          -4.45407569e-01 ]
      - [ 0., 1.08137153e-01, -1.82427734e-03, -2.07502946e-01,
          -3.57453287e-01 ]
      - [ 0., 4.34163332e-01, 1.99658170e-01, -7.02074409e-01,
          -6.97863400e-01 ]
      - [ 0., -5.17349482e-01, -3.41174155e-01, 4.90281880e-01,
          4.66555357e-01 ]
      - [ 0., 1.03458064e-02, -5.34606054e-02, -1.55244693e-01,
          -3.06121588e-01 ]
      - [ 0., 1.65416467e+00, 1.06646073e+00, -1.72309625e+00,
          -1.71218956e+00 ]
      - [ 0., 2.76542842e-01, 9.33094025e-02, -3.56203139e-01,
          -5.24956703e-01 ]
      - [ 0., 7.91467786e-01, 4.28006560e-01, -9.90057111e-01,
          -1.06949282e+00 ]
      - [ 0., -3.07810098e-01, -2.27157757e-01, 1.58844039e-01,
          1.93686917e-01 ]
      - [ 0., 4.86234993e-01, 2.42089346e-01, -7.23284125e-01,
          -7.51896739e-01 ]
      - [ 0., 1.79760844e-01, 2.71472018e-02, -2.34460622e-01,
          -4.02180880e-01 ]
      - [ 0., 1.23847711e+00, 7.46977091e-01, -1.40800977e+00,
          -1.41860831e+00 ]
      - [ 0., -6.19732082e-01, -3.83651882e-01, 5.22539675e-01,
          7.02200830e-01 ]
      - [ 0., -3.90134305e-01, -2.79070348e-01, 3.39823723e-01,
          3.16462696e-01 ]
      - [ 0., 5.44570498e-02, -3.76339555e-02, -2.31729060e-01,
          -2.84508258e-01 ]
      - [ 0., -1.06181666e-01, -1.30538166e-01, 9.29037780e-02,
          -1.02295779e-01 ]
      - [ 0., -5.77871919e-01, -3.77834857e-01, 6.48006678e-01,
          6.14246488e-01 ]
      - [ 0., 1.21866157e-02, -6.81503117e-02, -7.37807155e-02,
          -1.90850437e-01 ]
      - [ 0., -4.76300001e-01, -3.33188117e-01, 6.41025484e-01,
          4.41639960e-01 ]
      - [ 0., 5.50384283e-01, 2.62184769e-01, -5.75217485e-01,
          -8.44053626e-01 ]
      - [ 0., 6.96337521e-01, 3.65720361e-01, -9.54661727e-01,
          -1.02566576e+00 ]
      - [ 0., 3.29933673e-01, 1.18616737e-01, -3.66768956e-01,
          -6.12910986e-01 ]
      - [ 0., 6.28424942e-01, 3.17632407e-01, -7.25172758e-01,
          -8.82477343e-01 ]
      - [ 0., 2.84703326e+00, 2.12142968e+00, -2.84230161e+00,
          -2.35698748e+00 ]
      - [ 0., 1.54271554e-02, -5.31310141e-02, -9.21075419e-02,
          -1.70137659e-01 ]
      - [ 0., 5.97266108e-02, -3.67517285e-02, -1.17230006e-01,
          -2.60793626e-01 ]
      - [ 0., -1.60195958e-02, -8.34627524e-02, 5.69063658e-03,
          -1.43721357e-01 ]
      - [ 0., -2.43553206e-01, -2.12229937e-01, 3.19694936e-01,
          1.60666540e-01 ]
      - [ 0., -7.67752647e-01, -4.77935761e-01, 9.87030804e-01,
          9.03024733e-01 ]
      - [ 0., -4.77011293e-01, -3.23563904e-01, 6.71419978e-01,
          4.91470724e-01 ]
      - [ 0., -8.49632919e-02, -1.14895269e-01, 7.68940896e-02,
          -7.43785501e-02 ]
      - [ 0., -5.52166879e-01, -3.70873541e-01, 7.66277730e-01,
          5.69819093e-01 ]
      - [ 0., -8.39568198e-01, -4.94954169e-01, 8.48041117e-01,
          1.12246025e+00 ]
      - [ 0., -7.51734316e-01, -4.69984531e-01, 1.03701198e+00,
          8.91617715e-01 ]
      - [ 0., 6.34422600e-01, 3.10507774e-01, -6.84450626e-01,
          -9.13696647e-01 ]
      - [ 0., 6.18767798e-01, 2.94524819e-01, -7.94709027e-01,
          -9.26004231e-01 ]
      - [ 0., -1.52788723e+00, -7.84096062e-01, 2.18764067e+00,
          2.72394872e+00 ]
      - [ 0., -3.54261696e-01, -2.68190891e-01, 4.72449571e-01,
          2.97851205e-01 ]
      - [ 0., -1.24243401e-01, -1.46589920e-01, 8.83302540e-02,
          -4.19585370e-02 ]
      - [ 0., -1.42354274e+00, -7.44138241e-01, 1.94141853e+00,
          2.45138049e+00 ]
      - [ 0., 1.87430573e+00, 1.26360714e+00, -2.11363840e+00,
          -1.87458980e+00 ]
      - [ 0., -1.20031035e+00, -6.54811621e-01, 1.56473005e+00,
          1.98339164e+00 ]
      - [ 0., -5.49990296e-01, -3.57191324e-01, 5.01018226e-01,
          4.98374999e-01 ]
      - [ 0., -7.71919489e-01, -4.70251143e-01, 1.04697812e+00,
          1.10835147e+00 ]
      - [ 0., 1.77041399e+00, 1.13948786e+00, -1.86130452e+00,
          -1.78453422e+00 ]
      - [ 0., -4.38091271e-02, -8.60722661e-02, -7.93171301e-02,
          -1.38618201e-01 ]
      - [ 0., 5.05700290e-01, 2.41288602e-01, -8.19399476e-01,
          -8.08631778e-01 ]
      - [ 0., 1.19423711e+00, 7.11534679e-01, -1.38059545e+00,
          -1.38738906e+00 ]
      - [ 0., -1.04190493e+00, -5.92463315e-01, 1.26477706e+00,
          1.54692221e+00 ]
      - [ 0., -1.05333555e+00, -5.98638237e-01, 1.47474670e+00,
          1.63097405e+00 ]
      - [ 0., -2.75107771e-01, -2.30233237e-01, 3.78313184e-01,
          1.57964870e-01 ]
      - [ 0., 4.55508798e-01, 2.05540448e-01, -5.10206163e-01,
          -7.06568778e-01 ]
      - [ 0., -9.72146034e-01, -5.56617737e-01, 1.08219349e+00,
          1.29056394e+00 ]
      - [ 0., -4.40381587e-01, -3.15774053e-01, 6.34951591e-01,
          4.16124225e-01 ]
      - [ 0., -1.19892430e+00, -6.52691841e-01, 1.54135537e+00,
          1.89723849e+00 ]
      - [ 0., -4.52855408e-01, -3.04433137e-01, 3.32968086e-01,
          4.80363876e-01 ]
      - [ 0., -5.92067063e-01, -3.71217310e-01, 4.60945696e-01,
          6.37660980e-01 ]
      - [ 0., 1.84810269e+00, 1.24130464e+00, -2.05622172e+00,
          -1.86048102e+00 ]
      - [ 0., -6.73382044e-01, -4.12223637e-01, 5.64460039e-01,
          7.89554715e-01 ]
      - [ 0., 1.62032232e-01, 1.99670438e-02, -2.79668123e-01,
          -3.97077739e-01 ]
      - [ 0., -3.57027203e-01, -2.57013738e-01, 2.44853362e-01,
          2.69033432e-01 ]
      - [ 0., 1.43694782e+00, 8.94981623e-01, -1.68962204e+00,
          -1.60532355e+00 ]
      - [ 0., 6.25139058e-01, 3.10722619e-01, -7.29829848e-01,
          -9.10994947e-01 ]
      - [ 0., -3.72281104e-01, -2.72554964e-01, 4.19473350e-01,
          2.55224913e-01 ]
      - [ 0., -4.54701781e-02, -8.79511833e-02, -4.11073118e-02,
          -1.00194484e-01 ]
      - [ 0., 1.21831346e+00, 7.13433504e-01, -1.25628233e+00,
          -1.42731369e+00 ]
      - [ 0., -9.94277179e-01, -5.75160801e-01, 1.26489997e+00,
          1.43315196e+00 ]
      - [ 0., 1.83910573e+00, 1.24389124e+00, -2.17079258e+00,
          -1.90670955e+00 ]
      - [ 0., -4.03345197e-01, -2.93962330e-01, 5.34249902e-01,
          4.15523857e-01 ]
      - [ 0., -9.59829867e-01, -5.61242282e-01, 1.42510235e+00,
          1.40223289e+00 ]
      - [ 0., -5.36665022e-01, -3.57279569e-01, 5.37408233e-01,
          5.35597980e-01 ]
      - [ 0., 1.14887285e+00, 6.75425351e-01, -1.35072279e+00,
          -1.37478125e+00 ]
      - [ 0., -2.70582712e-03, -6.37596026e-02, -2.02629596e-01,
          -2.06460074e-01 ]
      - [ 0., 1.32389739e-01, 3.61021259e-03, -1.41075611e-01,
          -3.52049947e-01 ]
      - [ 0., -7.17005491e-01, -4.36252385e-01, 6.65036976e-01,
          7.86552846e-01 ]
      - [ 0., 1.66720521e+00, 1.08599675e+00, -1.82053399e+00,
          -1.68006968e+00 ]
      - [ 0., -2.83024758e-01, -2.23035946e-01, 2.43666098e-01,
          2.11397842e-01 ]
      - [ 0., 1.90730870e-01, 3.94747704e-02, -3.15166682e-01,
          -4.46908504e-01 ]
      - [ 0., -2.51757950e-02, -9.33564454e-02, -2.22882368e-02,
          -1.12802267e-01 ]
      - [ 0., 4.86294776e-01, 2.24714637e-01, -5.98836064e-01,
          -7.37187684e-01 ]
      - [ 0., -1.20128252e-01, -1.45313144e-01, 1.96675330e-01,
          -4.85626161e-02 ]
      - [ 0., -8.16325307e-01, -4.88700956e-01, 9.54320371e-01,
          1.08763874e+00 ]
      - [ 0., 6.66227043e-01, 3.51700604e-01, -1.04742694e+00,
          -1.01876152e+00 ]
      - [ 0., 1.21360444e-01, 1.41966809e-02, -4.07765448e-01,
          -3.95877004e-01 ]
      - [ 0., 4.09193605e-01, 1.75032482e-01, -5.78572571e-01,
          -7.28182137e-01 ]
      - [ 0., -1.77384287e-01, -1.65282220e-01, 1.95559397e-01,
          6.43070564e-02 ]
      - [ 0., 2.30233714e-01, 7.39977136e-02, -3.37585986e-01,
          -4.46308136e-01 ]
      - [ 0., 6.59798861e-01, 3.42352599e-01, -8.82237613e-01,
          -9.29306269e-01 ]
      - [ 0., -7.75083423e-01, -4.68168080e-01, 7.43195653e-01,
          9.25238490e-01 ]
      - [ 0., 4.96181659e-02, -3.71772647e-02, -1.87770993e-01,
          -2.70699739e-01 ]
      - [ 0., 2.06163979e+00, 1.40146101e+00, -2.06991363e+00,
          -1.95774102e+00 ]
      - [ 0., -1.74094319e-01, -1.68248221e-01, 1.87844083e-01,
          6.67085350e-02 ]
      - [ 0., 2.19406024e-01, 5.73947355e-02, -2.44196922e-01,
          -4.78728145e-01 ]
      - [ 0., 6.49380386e-01, 3.39079976e-01, -8.65628183e-01,
          -9.01088834e-01 ]
      - [ 0., -5.96934021e-01, -3.88265371e-01, 6.30072117e-01,
          6.94696188e-01 ]
      - [ 0., -1.40505433e-01, -1.51216149e-01, 2.48881727e-02,
          8.47259164e-03 ]
      - [ 0., 2.09021494e-01, 5.68133555e-02, -3.18271101e-01,
          -4.29497749e-01 ]
      - [ 0., -6.77637905e-02, -1.14372514e-01, 1.27236634e-01,
          -1.44922093e-01 ]
      - [ 0., 4.83009785e-01, 2.32354566e-01, -6.82321489e-01,
          -7.00865269e-01 ]
      - [ 0., -9.73476291e-01, -5.57619095e-01, 1.19420266e+00,
          1.42294574e+00 ]
      - [ 0., 8.34289014e-01, 4.50084150e-01, -1.07715285e+00,
          -1.10791647e+00 ]
      - [ 0., -1.24290526e-01, -1.29916966e-01, -1.55504569e-02,
          -1.73433442e-02 ]
      - [ 0., 1.23949254e+00, 7.45545864e-01, -1.44861674e+00,
          -1.40780163e+00 ]
      - [ 0., -3.65712911e-01, -2.61076421e-01, 2.27940708e-01,
          2.75937676e-01 ]
      - [ 0., 5.73355377e-01, 2.93161064e-01, -8.48866284e-01,
          -8.23340833e-01 ]
      - [ 0., -1.03901672e+00, -5.85162699e-01, 1.19000757e+00,
          1.57634032e+00 ]
      - [ 0., 7.53005445e-01, 3.94537985e-01, -9.10080791e-01,
          -1.00165093e+00 ]
      - [ 0., -1.44507897e+00, -7.53721595e-01, 1.98940969e+00,
          2.47929764e+00 ]
      - [ 0., -1.26299655e+00, -6.85543656e-01, 1.71194243e+00,
          1.92995870e+00 ]
      - [ 0., 1.28253794e+00, 7.70328879e-01, -1.40709817e+00,
          -1.48014629e+00 ]
      - [ 0., -7.84570634e-01, -4.71448213e-01, 8.96710098e-01,
          1.01469374e+00 ]
      - [ 0., 1.02448034e+00, 5.89679658e-01, -1.21181047e+00,
          -1.24119878e+00 ]
      - [ 0., 5.71421623e-01, 2.76479006e-01, -6.88805342e-01,
          -8.61164212e-01 ]
      - [ 0., 4.68927711e-01, 2.22633690e-01, -7.01260865e-01,
          -7.44091928e-01 ]
      - [ 0., 4.81845401e-02, -4.63528223e-02, 3.18242610e-02,
          -2.20868975e-01 ]
      - [ 0., -1.03853375e-01, -1.25542611e-01, -2.55454984e-02,
          -1.76435299e-02 ]
      - [ 0., -1.54201671e-01, -1.57095373e-01, 8.18077400e-02,
          3.42885256e-02 ]
      - [ 0., 6.29775643e-01, 3.22051466e-01, -8.63597751e-01,
          -9.07392740e-01 ]
      - [ 0., 7.72609562e-02, -2.44060680e-02, -8.40072185e-02,
          -2.75202513e-01 ]
      - [ 0., -8.07387054e-01, -4.83615935e-01, 9.65808094e-01,
          1.12816370e+00 ]
      - [ 0., -1.90482423e-01, -1.87675357e-01, 3.05242717e-01,
          6.07048310e-02 ]
      - [ 0., 1.61595917e+00, 1.02047956e+00, -1.75895071e+00,
          -1.66716170e+00 ]
      - [ 0., -6.32661462e-01, -4.01008755e-01, 8.71370733e-01,
          8.07265639e-01 ]
      - [ 0., -1.35154736e+00, -7.15420246e-01, 1.82070649e+00,
          2.30188823e+00 ]
      - [ 0., -4.47264314e-01, -3.01700592e-01, 3.89053911e-01,
          4.85767215e-01 ]
      - [ 0., -6.48067772e-01, -4.16653752e-01, 9.15200770e-01,
          7.82350302e-01 ]
      - [ 0., 1.26382422e+00, 7.66111076e-01, -1.39080930e+00,
          -1.45463049e+00 ]
      - [ 0., -4.41762805e-01, -3.02775234e-01, 3.55067313e-01,
          4.32634413e-01 ]
      - [ 0., -2.96032161e-01, -2.29293495e-01, 3.67627293e-01,
          2.45318785e-01 ]
      - [ 0., 3.04447055e-01, 1.14561707e-01, -4.62875247e-01,
          -5.73586702e-01 ]
      - [ 0., -7.73427486e-01, -4.67915803e-01, 8.69817793e-01,
          1.00658870e+00 ]
      - [ 0., -3.97449136e-01, -2.85959989e-01, 4.17098641e-01,
          3.83404016e-01 ]
      - [ 0., 4.46224481e-01, 1.99891657e-01, -6.18178070e-01,
          -6.66043758e-01 ]
      - [ 0., -4.20840234e-01, -2.89603680e-01, 2.67490506e-01,
          4.00214404e-01 ]
      - [ 0., 1.85108483e-01, 2.43681390e-02, -1.96487069e-01,
          -4.25595343e-01 ]
      - [ 0., -8.08933914e-01, -4.87526625e-01, 9.69073772e-01,
          1.07232928e+00 ]
      - [ 0., -1.30804873e+00, -6.93740427e-01, 1.60942757e+00,
          2.12327790e+00 ]
      - [ 0., 2.39414716e+00, 1.68502247e+00, -2.41727042e+00,
          -2.13965344e+00 ]
      - [ 0., -3.30588758e-01, -2.38111913e-01, 8.78937766e-02,
          2.38414526e-01 ]
      - [ 0., 1.38648495e-01, 1.84678435e-02, -3.79125059e-01,
          -4.20192003e-01 ]
      - [ 0., 3.76930684e-01, 1.64121389e-01, -5.75935125e-01,
          -6.40828192e-01 ]
      - [ 0., -1.73348840e-02, -8.32815394e-02, 1.67468842e-02,
          -1.60531729e-01 ]
      - [ 0., -5.47781348e-01, -3.56773168e-01, 5.57604849e-01,
          6.17248356e-01 ]
      - [ 0., 4.91317183e-01, 2.24230990e-01, -6.22080684e-01,
          -7.32985079e-01 ]
      - [ 0., -2.72762686e-01, -2.18489751e-01, 2.76210636e-01,
          1.98489875e-01 ]
      - [ 0., 2.64232665e-01, 9.40552056e-02, -4.25990045e-01,
          -5.44168532e-01 ]
      - [ 0., 6.41310573e-01, 3.27131301e-01, -8.16559911e-01,
          -9.13696647e-01 ]
      - [ 0., -4.43144053e-01, -3.02690983e-01, 5.96377373e-01,
          4.82765347e-01 ]
      - [ 0., -3.28101188e-01, -2.48533621e-01, 2.91472137e-01,
          2.77438611e-01 ]
      - [ 0., 8.94984818e+00, 1.05227242e+01, -5.47741270e+00,
          -3.51720357e+00 ]
      - [ 0., -3.79462034e-01, -2.80788779e-01, 4.90375251e-01,
          3.32072347e-01 ]
      - [ 0., -8.96606088e-01, -5.29066861e-01, 1.14588678e+00,
          1.24073327e+00 ]
      - [ 0., 2.58605504e+00, 1.84896505e+00, -2.66691113e+00,
          -2.25372386e+00 ]
      - [ 0., 4.76519763e-01, 2.23660216e-01, -7.26337135e-01,
          -7.21878231e-01 ]
      - [ 0., 3.27923477e-01, 1.33025512e-01, -5.58080912e-01,
          -5.87395191e-01 ]
      - [ 0., 2.13276278e-02, -5.23316674e-02, -1.40290931e-01,
          -1.80644140e-01 ]
      - [ 0., -2.91061383e-02, -6.72802702e-02, -3.35057229e-01,
          -2.13964716e-01 ]
      - [ 0., -4.83936608e-01, -3.31604481e-01, 6.37244225e-01,
          5.27492940e-01 ]
      - [ 0., 2.31091022e+00, 1.61389792e+00, -2.64043260e+00,
          -2.28104067e+00 ]
      - [ 0., 1.99028224e-01, 5.27394116e-02, -3.20850462e-01,
          -4.21692938e-01 ]
      - [ 0., -5.16731814e-02, -9.27809477e-02, -1.45655304e-01,
          -1.24509491e-01 ]
      - [ 0., -2.05365255e-01, -1.76334992e-01, 1.84455395e-01,
          1.04531884e-01 ]
      - [ 0., -7.75478065e-01, -4.74671274e-01, 1.12719846e+00,
          1.03810811e+00 ]
      - [ 0., 6.90596282e-01, 3.50203186e-01, -7.76503146e-01,
          -9.74033892e-01 ]
      - [ 0., -3.28100383e-01, -2.39533797e-01, 1.70741126e-01,
          2.39615262e-01 ]
      - [ 0., 4.32806700e-01, 1.95590004e-01, -5.48930228e-01,
          -7.42591023e-01 ]
      - [ 0., 1.28767699e-01, -5.40903443e-03, -1.86305121e-01,
          -3.62556428e-01 ]
      - [ 0., -1.36634028e+00, -7.18465269e-01, 1.81773555e+00,
          2.32770419e+00 ]
      - [ 0., 3.32123280e-01, 1.37957588e-01, -6.43812776e-01,
          -6.79251909e-01 ]
      - [ 0., 1.63486791e+00, 1.04622436e+00, -1.80004597e+00,
          -1.71098876e+00 ]
      - [ 0., 1.78906548e+00, 1.16295195e+00, -2.08256555e+00,
          -1.82806098e+00 ]
      - [ 0., 8.18979025e-01, 4.54585224e-01, -1.05413413e+00,
          -1.04908025e+00 ]
      - [ 0., -2.15607837e-01, -1.84438154e-01, 9.88692567e-02,
          1.42655417e-01 ]
      - [ 0., 1.62809014e+00, 1.06876314e+00, -2.01448894e+00,
          -1.75001287e+00 ]
      - [ 0., -5.25262475e-01, -3.55634362e-01, 7.20089197e-01,
          5.02277374e-01 ]
      - [ 0., 1.71667790e+00, 1.11804700e+00, -1.98256290e+00,
          -1.75541615e+00 ]
      - [ 0., 6.45138979e-01, 3.32711130e-01, -7.89190412e-01,
          -9.34409440e-01 ]
      - [ 0., -4.05978084e-01, -2.88536400e-01, 4.64771062e-01,
          3.68694931e-01 ]
      - [ 0., -9.93899047e-01, -5.68214059e-01, 1.35706389e+00,
          1.48328292e+00 ]
      - [ 0., -1.41282022e+00, -7.37247407e-01, 1.83436346e+00,
          2.32590294e+00 ]
      - [ 0., -1.26222622e+00, -6.80700660e-01, 1.64233530e+00,
          2.10376596e+00 ]
      - [ 0., -1.53419182e-01, -1.56573981e-01, 1.21137157e-01,
          4.23935279e-02 ]
      - [ 0., -1.77063525e-01, -1.64994478e-01, 1.26612827e-01,
          -4.73556155e-03 ]
      - [ 0., 2.05943540e-01, 5.85345291e-02, -3.82534027e-01,
          -5.12649059e-01 ]
      - [ 0., -1.04211235e+00, -5.90391636e-01, 1.41976607e+00,
          1.61566460e+00 ]
      - [ 0., -9.94732797e-01, -5.71328938e-01, 1.37522554e+00,
          1.49529040e+00 ]
      - [ 0., 5.72779000e-01, 2.81773448e-01, -7.47757375e-01,
          -8.26042533e-01 ]
      - [ 0., 8.42505395e-01, 4.71877724e-01, -1.11185658e+00,
          -1.06228840e+00 ]
      - [ 0., 8.77724290e-01, 4.80385035e-01, -1.01109791e+00,
          -1.13583374e+00 ]
      - [ 0., -8.11889589e-01, -4.88314420e-01, 9.78818238e-01,
          1.12726319e+00 ]
      - [ 0., 5.56962633e+00, 5.34917641e+00, -5.35061407e+00,
          -3.34339643e+00 ]
      - [ 0., 6.43590569e-01, 3.27267587e-01, -8.76255810e-01,
          -9.14296985e-01 ]
      - [ 0., 2.78755236e+00, 2.06200075e+00, -2.67433381e+00,
          -2.33027101e+00 ]
      - [ 0., -3.18520516e-01, -2.42161602e-01, 3.23173881e-01,
          2.65731394e-01 ]
      - [ 0., 1.53726995e+00, 9.72485185e-01, -1.64974177e+00,
          -1.62243414e+00 ]
      - [ 0., 7.27560699e-01, 3.77156585e-01, -8.75779927e-01,
          -1.00735450e+00 ]
      - [ 0., 3.14904547e+00, 2.39354467e+00, -2.99016666e+00,
          -2.48156452e+00 ]
      - [ 0., 3.61265868e-01, 1.51114106e-01, -5.00138998e-01,
          -6.61240816e-01 ]
      - [ 0., -1.36056423e+00, -7.17390478e-01, 1.84789348e+00,
          2.32620335e+00 ]
      - [ 0., -1.04551828e+00, -5.87578773e-01, 1.26454806e+00,
          1.59855413e+00 ]
      - [ 0., 4.30811457e-02, -4.81623523e-02, -1.62489444e-01,
          -2.62294531e-01 ]
      - [ 0., 6.50404751e-01, 3.27457309e-01, -7.18136907e-01,
          -9.23902929e-01 ]
      - [ 0., 1.56437397e-01, 2.04981230e-02, -1.35028899e-01,
          -3.85370523e-01 ]
      - [ 0., -7.68099606e-01, -4.64809328e-01, 7.94824660e-01,
          9.54356432e-01 ]
      - [ 0., -7.94988032e-03, -7.32530132e-02, 2.51727048e-02,
          -1.54528022e-01 ]
      - [ 0., -8.55678201e-01, -5.06083786e-01, 1.07402003e+00,
          1.15968323e+00 ]
      - [ 0., 1.40613723e+00, 8.88476431e-01, -1.60799503e+00,
          -1.52127171e+00 ]
      - [ 0., -2.94476062e-01, -2.22730204e-01, 1.16548881e-01,
          2.28508413e-01 ]
      - [ 0., 7.62214124e-01, 4.08958673e-01, -1.06753814e+00,
          -1.08540261e+00 ]
      - [ 0., 3.01176310e-01, 1.12756848e-01, -5.09001493e-01,
          -5.57076514e-01 ]
      - [ 0., 2.26677275e+00, 1.57258081e+00, -2.64696121e+00,
          -2.16697025e+00 ]
      - [ 0., -4.66194928e-01, -3.18273365e-01, 4.27563727e-01,
          4.04717177e-01 ]
      - [ 0., 1.12801895e-01, -2.71455501e-03, -2.33965054e-01,
          -3.08823258e-01 ]
      - [ 0., -5.44622242e-01, -3.62298667e-01, 6.61487579e-01,
          5.75822771e-01 ]
      - [ 0., 8.50810409e-01, 4.87514496e-01, -1.31952870e+00,
          -1.20907891e+00 ]
      - [ 0., 3.15204680e-01, 1.10281214e-01, -3.27035159e-01,
          -5.76588571e-01 ]
      - [ 0., 1.49377361e-01, 2.55053565e-02, -3.34992647e-01,
          -3.83569390e-01 ]
      - [ 0., -6.61539614e-01, -4.22899514e-01, 9.05290186e-01,
          7.98860490e-01 ]
      - [ 0., -1.22315243e-01, -1.37307376e-01, 1.64915636e-01,
          -1.40413055e-02 ]
      - [ 0., 8.44346225e-01, 4.62579280e-01, -1.03328729e+00,
          -1.13043046e+00 ]
      - [ 0., -4.27236855e-01, -3.04907352e-01, 5.72550416e-01,
          3.75299007e-01 ]
      - [ 0., -1.22948460e-01, -1.29801154e-01, -6.11149035e-02,
          -1.46416761e-02 ]
      - [ 0., -3.12488794e-01, -2.49429017e-01, 3.74078751e-01,
          2.10797474e-01 ]
      - [ 0., -3.22205812e-01, -2.47964695e-01, 4.22720373e-01,
          2.66031563e-01 ]
      - [ 0., 1.73625374e+00, 1.13737249e+00, -1.96401834e+00,
          -1.77823031e+00 ]
      - [ 0., 1.25800624e-01, 1.71506517e-02, -3.18940252e-01,
          -3.67359400e-01 ]
      - [ 0., 3.75865161e-01, 1.58995807e-01, -4.98650193e-01,
          -6.42028928e-01 ]
      - [ 0., 7.72587359e-01, 4.07721549e-01, -9.24650669e-01,
          -1.09620929e+00 ]
      - [ 0., 5.30679971e-02, -4.71845157e-02, -8.25166926e-02,
          -2.67697871e-01 ]
      - [ 0., 2.07796478e+00, 1.41531134e+00, -2.11591625e+00,
          -1.98986089e+00 ]
      - [ 0., -7.48142898e-01, -4.61481810e-01, 9.67064977e-01,
          9.85875905e-01 ]
      - [ 0., -3.70321035e-01, -2.64765918e-01, 3.44012469e-01,
          3.59989583e-01 ]
      - [ 0., 2.07293555e-01, 6.79891258e-02, -5.41173875e-01,
          -5.12348890e-01 ]
      - [ 0., 2.41909489e-01, 7.21113160e-02, -4.04222667e-01,
          -4.89234626e-01 ]
      - [ 0., 1.71312895e-02, -6.28300235e-02, -2.70389896e-02,
          -2.12763965e-01 ]
      - [ 0., -6.79851025e-02, -1.04470015e-01, -7.16488957e-02,
          -9.62920785e-02 ]
      - [ 0., 2.28106618e-01, 6.74629807e-02, -4.10354197e-01,
          -4.65519994e-01 ]
      - [ 0., 2.27377176e-01, 5.76764867e-02, -3.70901316e-01,
          -4.67321098e-01 ]
      - [ 0., 2.17034835e-02, -4.64589223e-02, -1.75598219e-01,
          -2.10662678e-01 ]
      - [ 0., -1.11251315e-02, -6.76461011e-02, -7.30011240e-02,
          -1.54528022e-01 ]
      - [ 0., -9.66736674e-01, -5.49569070e-01, 1.15869725e+00,
          1.38662326e+00 ]
      - [ 0., 1.87129676e-01, 4.40778472e-02, -3.36054087e-01,
          -3.69760871e-01 ]
      - [ 0., 3.05734426e-01, 1.20036624e-01, -5.37529528e-01,
          -5.53174078e-01 ]
      - [ 0., -5.28785408e-01, -3.52996469e-01, 6.08492732e-01,
          5.22689998e-01 ]
      - [ 0., -2.17156142e-01, -1.95857137e-01, 3.14742953e-01,
          1.10535592e-01 ]
      - [ 0., 9.87004876e-01, 5.60108185e-01, -1.10327470e+00,
          -1.23849714e+00 ]
      - [ 0., -7.69541739e-03, -6.79685175e-02, -1.39528334e-01,
          -1.80644140e-01 ]
      - [ 0., -1.18821561e+00, -6.59655392e-01, 1.72334325e+00,
          1.85641325e+00 ]
      - [ 0., 1.56242698e-01, 2.58817822e-02, -3.72510552e-01,
          -3.97678107e-01 ]
      - [ 0., -2.34323218e-01, -1.81736007e-01, -4.79653254e-02,
          5.29000163e-02 ]
      - [ 0., 3.13702762e-01, 1.17411152e-01, -3.55988950e-01,
          -5.72385967e-01 ]
      - [ 0., 8.26617956e-01, 4.44269538e-01, -1.01254869e+00,
          -1.11422038e+00 ]
      - [ 0., 1.95829773e+00, 1.31073141e+00, -2.01296949e+00,
          -1.91961753e+00 ]
      - [ 0., -2.16195714e-02, -9.23618525e-02, 6.51014745e-02,
          -2.18767673e-01 ]
      - [ 0., 1.71522051e-01, 3.50779891e-02, -3.16341281e-01,
          -4.05482918e-01 ]
      - [ 0., 2.03326583e-01, 4.37155701e-02, -3.11245054e-01,
          -4.36101824e-01 ]
      - [ 0., -4.69040796e-02, -8.36441442e-02, -1.32198140e-01,
          -1.07098743e-01 ]
      - [ 0., 5.17248273e-01, 2.43413761e-01, -6.57265663e-01,
          -7.74110436e-01 ]
      - [ 0., -1.39413834e+00, -7.28761256e-01, 1.94235075e+00,
          2.44387579e+00 ]
      - [ 0., -7.29961991e-01, -4.51669991e-01, 1.03738046e+00,
          9.37245905e-01 ]
      - [ 0., 3.61556560e-01, 1.56234071e-01, -4.97520298e-01,
          -6.52535439e-01 ]
      - [ 0., -2.75405467e-01, -2.17231140e-01, 2.92476684e-01,
          2.37213790e-01 ]
      - [ 0., 2.48978958e-01, 8.79286528e-02, -5.02358913e-01,
          -4.86532956e-01 ]
      - [ 0., 1.33995306e+00, 8.34765375e-01, -1.63625038e+00,
          -1.52667499e+00 ]
      - [ 0., 1.30055332e+00, 7.97002137e-01, -1.63863170e+00,
          -1.55699372e+00 ]
      - [ 0., 1.89143825e+00, 1.24588215e+00, -2.11087608e+00,
          -1.90310740e+00 ]
      - [ 0., 1.98567200e+00, 1.32727766e+00, -2.00543642e+00,
          -1.90911102e+00 ]
      - [ 0., -6.59488738e-01, -4.14431959e-01, 8.70695770e-01,
          8.24376225e-01 ]
      - [ 0., 1.74905226e-01, 2.24748943e-02, -1.86281681e-01,
          -4.17790532e-01 ]
      - [ 0., 8.02686870e-01, 4.36964750e-01, -1.02403307e+00,
          -1.06649089e+00 ]
      - [ 0., 1.10181302e-01, -1.57476496e-02, -9.88016874e-02,
          -3.39442164e-01 ]
      - [ 0., 9.65195000e-01, 5.37293196e-01, -1.06833386e+00,
          -1.23429453e+00 ]
      - [ 0., 7.30758607e-01, 3.85643721e-01, -9.10514355e-01,
          -9.95347023e-01 ]
      - [ 0., 3.09017509e-01, 1.09174654e-01, -5.16576111e-01,
          -5.30660212e-01 ]
      - [ 0., 7.16002107e-01, 3.77112269e-01, -1.01662374e+00,
          -1.03347051e+00 ]
      - [ 0., -5.19418418e-01, -3.50875914e-01, 7.22018003e-01,
          5.82426846e-01 ]
      - [ 0., -3.47552240e-01, -2.59412110e-01, 4.07377064e-01,
          3.29070479e-01 ]
      - [ 0., 5.21417558e-01, 2.50981182e-01, -6.40217304e-01,
          -7.68406928e-01 ]
      - [ 0., 2.93319559e+00, 2.19898844e+00, -2.79478121e+00,
          -2.37770033e+00 ]
      - [ 0., -9.44818556e-01, -5.50067782e-01, 1.30600858e+00,
          1.29656768e+00 ]
      - [ 0., -2.92777419e-01, -2.32718959e-01, 3.61582726e-01,
          2.22804889e-01 ]
      - [ 0., 7.23120272e-01, 3.89647037e-01, -1.02331603e+00,
          -9.66229081e-01 ]
      - [ 0., 1.29257846e+00, 8.07166934e-01, -1.64790142e+00,
          -1.50205982e+00 ]
      - [ 0., 8.46482664e-02, -3.05085666e-02, -7.50285015e-02,
          -3.05821419e-01 ]
      - [ 0., -4.85764623e-01, -3.36012304e-01, 6.47287011e-01,
          5.15185356e-01 ]
      - [ 0., 1.63098723e-01, 4.13017124e-02, -4.63674039e-01,
          -4.46308136e-01 ]
      - [ 0., 4.48055655e-01, 1.97801232e-01, -4.63794261e-01,
          -6.86456382e-01 ]
      - [ 0., -8.10977340e-01, -4.79700953e-01, 7.54703641e-01,
          1.03270483e+00 ]
      - [ 0., -1.19852376e+00, -6.55487061e-01, 1.56521237e+00,
          1.97168446e+00 ]
      - [ 0., 2.32872162e-02, -6.28666803e-02, -1.06238164e-01,
          -2.79405117e-01 ]
      - [ 0., -4.44712162e-01, -2.99751967e-01, 3.24977636e-01,
          4.48544234e-01 ]
      - [ 0., 1.35365516e-01, 2.12849397e-02, -3.76946390e-01,
          -3.82368654e-01 ]
      - [ 0., -7.89071441e-01, -4.75425899e-01, 1.03023732e+00,
          1.06452441e+00 ]
      - [ 0., 3.37976128e-01, 1.32227525e-01, -5.50171852e-01,
          -5.96400797e-01 ]
      - [ 0., -3.96687955e-01, -2.85454810e-01, 4.53164428e-01,
          3.72897536e-01 ]
      - [ 0., -3.71135741e-01, -2.69986510e-01, 4.49379325e-01,
          3.34173620e-01 ]
      - [ 0., 8.40038717e-01, 4.59797621e-01, -1.05115390e+00,
          -1.12022412e+00 ]
      - [ 0., 1.68291759e+00, 1.05386353e+00, -1.71810913e+00,
          -1.79023767e+00 ]
      - [ 0., -1.11146653e+00, -6.18553638e-01, 1.49500120e+00,
          1.78677022e+00 ]
      - [ 0., -3.18390071e-01, -2.40542769e-01, 2.91900635e-01,
          2.68733233e-01 ]
      - [ 0., 1.36430502e-01, 5.10898093e-03, -1.49113148e-01,
          -3.82668853e-01 ]
      - [ 0., -9.74638939e-01, -5.60600519e-01, 1.23662770e+00,
          1.34579802e+00 ]
      - [ 0., -1.10838449e+00, -6.20374024e-01, 1.57045650e+00,
          1.75765228e+00 ]
      - [ 0., -3.78473669e-01, -2.74033397e-01, 4.20833319e-01,
          3.75599205e-01 ]
      - [ 0., -1.42233253e+00, -7.42286742e-01, 1.95465314e+00,
          2.49971032e+00 ]
      - [ 0., 1.19780183e+00, 7.00979531e-01, -1.30857480e+00,
          -1.43331742e+00 ]
      - [ 0., 1.11939061e+00, 6.45116150e-01, -1.22277892e+00,
          -1.35466886e+00 ]
      - [ 0., -4.72425878e-01, -3.22714210e-01, 5.44934630e-01,
          4.85467017e-01 ]
      - [ 0., -1.86927393e-01, -1.73387468e-01, 1.46767542e-01,
          8.32187310e-02 ]
      - [ 0., 1.14948070e+00, 6.86411738e-01, -1.41319919e+00,
          -1.34386218e+00 ]
      - [ 0., 7.16217875e-01, 3.82586032e-01, -9.89819407e-01,
          -9.70131457e-01 ]
      - [ 0., 9.35724974e-02, -1.55873019e-02, -2.37690911e-01,
          -3.02819550e-01 ]
      - [ 0., -4.70560730e-01, -3.29435289e-01, 5.87139726e-01,
          4.03516442e-01 ]
      - [ 0., 7.65025258e-01, 4.05993938e-01, -9.31525588e-01,
          -1.02806723e+00 ]
      - [ 0., 3.57986867e-01, 1.49624527e-01, -5.28838754e-01,
          -6.01203740e-01 ]
      - [ 0., -8.71359646e-01, -5.17464399e-01, 1.16847205e+00,
          1.21851945e+00 ]
      - [ 0., -1.24769199e+00, -6.72467947e-01, 1.54653132e+00,
          2.01220942e+00 ]
      - [ 0., -1.47211209e-01, -1.61649093e-01, 2.03267604e-01,
          6.16053864e-02 ]
      - [ 0., -3.62339437e-01, -2.61924654e-01, 3.57168257e-01,
          3.01153243e-01 ]
      - [ 0., -5.77872753e-01, -3.85545760e-01, 7.20225990e-01,
          5.68918526e-01 ]
      - [ 0., 1.59136549e-01, 3.31303291e-02, -3.62217635e-01,
          -4.03681815e-01 ]
      - [ 0., -3.76915812e-01, -2.70931512e-01, 2.34013736e-01,
          2.96050102e-01 ]
      - [ 0., -6.09736800e-01, -3.95009637e-01, 8.15308928e-01,
          6.86891377e-01 ]
      - [ 0., -5.00704288e-01, -3.43302935e-01, 6.66715920e-01,
          5.11282980e-01 ]
      - [ 0., 9.18094754e-01, 5.27323782e-01, -1.18931627e+00,
          -1.26551378e+00 ]
      - [ 0., -1.40685570e+00, -7.36775696e-01, 1.91881216e+00,
          2.46488881e+00 ]
      - [ 0., 1.12905252e+00, 6.72072768e-01, -1.47331381e+00,
          -1.40029705e+00 ]
      - [ 0., -8.30263138e-01, -4.98338312e-01, 1.12305641e+00,
          1.18489873e+00 ]
      - [ 0., -1.39135170e+00, -7.30189681e-01, 1.91673398e+00,
          2.45768428e+00 ]
      - [ 0., 6.24365985e-01, 3.12378854e-01, -7.43970752e-01,
          -8.40151250e-01 ]
      - [ 0., 4.10085499e-01, 1.64163187e-01, -4.75133657e-01,
          -6.51634872e-01 ]
      - [ 0., 1.53272474e+00, 9.73829687e-01, -1.70184231e+00,
          -1.65065157e+00 ]
      - [ 0., -1.97720066e-01, -1.77749619e-01, 1.52541593e-01,
          7.75152072e-02 ]
      - [ 0., 2.03756616e-01, 5.77083081e-02, -4.30706412e-01,
          -4.67921466e-01 ]
      - [ 0., -1.61289610e-02, -8.27920362e-02, -3.89722027e-02,
          -1.66535437e-01 ]
      - [ 0., 2.02256262e-01, 4.11378555e-02, -1.46752030e-01,
          -4.74525541e-01 ]
      - [ 0., -3.92984807e-01, -2.63865530e-01, 2.13940427e-01,
          3.10158819e-01 ]
      - [ 0., -7.58701324e-01, -4.56078917e-01, 7.15779483e-01,
          8.90416980e-01 ]
      - [ 0., 1.83514699e-01, 4.13436666e-02, -3.23862404e-01,
          -3.99179041e-01 ]
      - [ 0., 1.61673222e-02, -5.17685302e-02, -1.65770918e-01,
          -2.05859706e-01 ]
      - [ 0., 2.27080297e+00, 1.56462348e+00, -2.60783529e+00,
          -2.14805865e+00 ]
      - [ 0., 7.30130494e-01, 3.90058070e-01, -9.03877258e-01,
          -9.42814589e-01 ]
      - [ 0., -7.66841322e-02, -1.00927599e-01, -1.10897228e-01,
          -7.34779909e-02 ]
      - [ 0., -6.14914417e-01, -3.87169808e-01, 5.81268191e-01,
