%YAML:1.0
---
opencv_ml_svm:
   format: 3
   svmType: C_SVC
   kernel:
      type: RBF
      gamma: 2.0000000000000001e-01
   C: 1.
   term_criteria: { iterations:100 }
   var_count: 4
   class_count: 2
   class_labels: !!opencv-matrix
      rows: 2
      cols: 1
      dt: i
      data: [ 0, 1 ]
   sv_total: 7
   support_vectors:
      - [ 6.08096600e-01, 8.68649781e-01, 1.31361306e+00,
          -1.15465450e+00 ]
      - [ 6.08096600e-01, -1.81307399e+00, 1.42238212e+00,
          -3.18064272e-01 ]
      - [ 6.08096600e-01, 9.63153422e-01, -7.35726953e-01,
          4.09345329e-01 ]
      - [ 6.08096600e-01, 9.95172620e-01, -1.48740971e+00,
          2.05375957e+00 ]
      - [ -2.03445148e+00, -1.01541293e+00, 3.29250544e-01,
          -1.08411980e+00 ]
      - [ -1.00603163e+00, 6.82555363e-02, -5.52561879e-01,
          6.11395910e-02 ]
      - [ 6.08096600e-01, -6.67443722e-02, -2.89547086e-01,
          3.25940922e-02 ]
   decision_functions:
      -
         sv_count: 7
         rho: -7.4746822383976408e-01
         alpha: [ 5.4813882391940061e-01, 6.9514018017901635e-01,
             7.9401870578846706e-02, 2.9940061177733585e-01,
             3.7791851354540018e-01, -1., -1. ]
         index: [ 0, 2, 3, 4, 5, 1, 6 ]
