%YAML:1.0
---
opencv_ml_svm:
   format: 3
   svmType: C_SVC
   kernel:
      type: RBF
      gamma: 5.0625000000000009e-01
   C: 2.5000000000000000e+00
   term_criteria: { iterations:10000 }
   var_count: 1
   class_count: 4
   class_labels: !!opencv-matrix
      rows: 4
      cols: 1
      dt: i
      data: [ 0, 1, 2, 3 ]
   sv_total: 9827
   support_vectors:
      - [ 8.63248289e-01 ]
      - [ 9.10830975e-01 ]
      - [ -1.98457587e+00 ]
      - [ 3.67496103e-01 ]
      - [ -2.28256249e+00 ]
      - [ -7.33745813e-01 ]
      - [ 1.56033468e+00 ]
      - [ -5.71667314e-01 ]
      - [ 5.20652890e-01 ]
      - [ 1.11127305e+00 ]
      - [ 1.08837390e+00 ]
      - [ -1.75498939e+00 ]
      - [ -1.53521681e+00 ]
      - [ 1.62070525e+00 ]
      - [ 5.58294617e-02 ]
      - [ 1.38487351e+00 ]
      - [ 1.06259044e-02 ]
      - [ 9.38488424e-01 ]
      - [ -2.20761967e+00 ]
      - [ -6.77538753e-01 ]
      - [ -1.77788854e+00 ]
      - [ 1.43560052e-01 ]
      - [ -9.85934079e-01 ]
      - [ -2.49591947e-01 ]
      - [ -1.04422295e+00 ]
      - [ -1.09121084e+00 ]
      - [ 1.74085152e+00 ]
      - [ 9.75959778e-01 ]
      - [ 8.71872604e-01 ]
      - [ -1.02965069e+00 ]
      - [ 2.32480198e-01 ]
      - [ -7.74488509e-01 ]
      - [ -1.26429284e+00 ]
      - [ 1.02889550e+00 ]
      - [ -1.30337819e-01 ]
      - [ 5.82085960e-02 ]
      - [ 2.32136035e+00 ]
      - [ 3.94261360e-01 ]
      - [ 4.60282356e-01 ]
      - [ 1.05090249e+00 ]
      - [ -1.88881564e+00 ]
      - [ -1.34131730e+00 ]
      - [ -1.40228260e+00 ]
      - [ -1.37373304e+00 ]
      - [ 7.21987128e-01 ]
      - [ 6.47512153e-02 ]
      - [ 3.00582945e-01 ]
      - [ -1.00301243e-01 ]
      - [ -1.94472539e+00 ]
      - [ -1.74220157e+00 ]
      - [ 4.73664969e-01 ]
      - [ -2.79925913e-01 ]
      - [ -5.09809792e-01 ]
      - [ 4.49278831e-01 ]
      - [ 1.14190435e+00 ]
      - [ -6.80810094e-01 ]
      - [ -2.41859749e-01 ]
      - [ -5.04754126e-01 ]
      - [ 4.44817960e-01 ]
      - [ 3.61250877e-01 ]
      - [ -1.30295384e+00 ]
      - [ 6.32642582e-02 ]
      - [ 7.69569814e-01 ]
      - [ -2.00806975e+00 ]
      - [ -2.47212812e-01 ]
      - [ -3.87879133e-01 ]
      - [ -3.73604327e-01 ]
      - [ 2.22916889e+00 ]
      - [ -8.24450314e-01 ]
      - [ 4.92400646e-01 ]
      - [ -1.54205680e+00 ]
      - [ 1.69891930e+00 ]
      - [ -4.65795785e-01 ]
      - [ -1.14741790e+00 ]
      - [ -3.94124359e-01 ]
      - [ -1.10709958e-01 ]
      - [ 1.95170236e+00 ]
      - [ -8.18629563e-02 ]
      - [ -1.21118672e-01 ]
      - [ -2.98958987e-01 ]
      - [ -1.80643809e+00 ]
      - [ 1.61700949e-01 ]
      - [ -9.05043542e-01 ]
      - [ 5.30764222e-01 ]
      - [ 2.58650690e-01 ]
      - [ 9.17670965e-01 ]
      - [ -2.61190236e-01 ]
      - [ 1.88763604e-01 ]
      - [ 1.05774248e+00 ]
      - [ -1.73757032e-01 ]
      - [ 1.49520588e+00 ]
      - [ -2.16955352e+00 ]
      - [ 4.35896218e-01 ]
      - [ -5.46388984e-01 ]
      - [ -3.12044233e-01 ]
      - [ -4.08399165e-01 ]
      - [ 6.94329739e-01 ]
      - [ 7.47562826e-01 ]
      - [ 4.28461432e-01 ]
      - [ -5.83265543e-01 ]
      - [ 1.08421040e+00 ]
      - [ -1.77640152e+00 ]
      - [ 1.56955385e+00 ]
      - [ -1.60718560e+00 ]
      - [ 6.28903508e-01 ]
      - [ 1.87200129e+00 ]
      - [ -2.41859749e-01 ]
      - [ -8.13446820e-01 ]
      - [ -1.95169240e-01 ]
      - [ -5.12315966e-02 ]
      - [ -4.82152343e-01 ]
      - [ 1.43262655e-01 ]
      - [ 7.65406370e-01 ]
      - [ 4.61471915e-01 ]
      - [ 7.58863747e-01 ]
      - [ -6.91218793e-01 ]
      - [ -1.72168148e+00 ]
      - [ -1.07366467e+00 ]
      - [ -1.37177825e-01 ]
      - [ 1.86554845e-02 ]
      - [ 2.54487187e-01 ]
      - [ -1.20226495e-01 ]
      - [ 6.74277395e-02 ]
      - [ 8.54029119e-01 ]
      - [ -6.32632613e-01 ]
      - [ 1.05922949e+00 ]
      - [ -4.94048029e-01 ]
      - [ -3.49812984e-01 ]
      - [ 2.72798464e-02 ]
      - [ -6.02893412e-01 ]
      - [ -1.12273431e+00 ]
      - [ 2.95824677e-01 ]
      - [ -1.65132657e-01 ]
      - [ -3.78362596e-01 ]
      - [ -1.40449136e-01 ]
      - [ -7.03709245e-01 ]
      - [ -1.18994486e+00 ]
      - [ 6.40799165e-01 ]
      - [ -6.37390852e-01 ]
      - [ -1.58666563e+00 ]
      - [ -1.63050920e-01 ]
      - [ 1.12614262e+00 ]
      - [ -1.28302848e+00 ]
      - [ -1.65952659e+00 ]
      - [ 1.86979249e-01 ]
      - [ -1.46694377e-01 ]
      - [ 5.51879048e-01 ]
      - [ -4.46167946e-01 ]
      - [ -1.29284251e+00 ]
      - [ -4.91371483e-01 ]
      - [ 5.17084181e-01 ]
      - [ 2.74930716e+00 ]
      - [ 1.62338173e+00 ]
      - [ -1.11602135e-01 ]
      - [ -1.69194233e+00 ]
      - [ -1.65179443e+00 ]
      - [ 2.41699353e-01 ]
      - [ -2.28774518e-01 ]
      - [ -1.17180395e+00 ]
      - [ -7.74785876e-01 ]
      - [ 1.31022823e+00 ]
      - [ -1.44718885e+00 ]
      - [ 6.83326185e-01 ]
      - [ 1.30474806e-01 ]
      - [ -2.43644103e-01 ]
      - [ -4.93155837e-01 ]
      - [ -2.54944980e-01 ]
      - [ -8.95229578e-01 ]
      - [ 1.35275519e+00 ]
      - [ -1.97327495e+00 ]
      - [ -1.68569708e+00 ]
      - [ 4.59687561e-01 ]
      - [ 7.46373296e-01 ]
      - [ 1.00311209e-02 ]
      - [ -9.75228012e-01 ]
      - [ 8.19829047e-01 ]
      - [ -2.57621527e-01 ]
      - [ -1.88941050e+00 ]
      - [ 1.87973356e+00 ]
      - [ 3.11586440e-01 ]
      - [ 1.01462066e+00 ]
      - [ -1.10412568e-01 ]
      - [ 6.65355697e-02 ]
      - [ -1.84837043e+00 ]
      - [ 1.04733384e+00 ]
      - [ -9.41622734e-01 ]
      - [ -1.04719687e+00 ]
      - [ -3.65872145e-01 ]
      - [ -7.90250301e-01 ]
      - [ -2.42977142e+00 ]
      - [ -9.93071496e-01 ]
      - [ 7.43101954e-01 ]
      - [ 2.33669773e-01 ]
      - [ -1.18102312e+00 ]
      - [ -1.82678774e-01 ]
      - [ 2.00956672e-01 ]
      - [ -1.52659249e+00 ]
      - [ -2.42454544e-01 ]
      - [ 6.65780067e-01 ]
      - [ -2.52268463e-01 ]
      - [ -5.19623697e-01 ]
      - [ 6.84218407e-01 ]
      - [ 1.16272187e+00 ]
      - [ 5.38793802e-01 ]
      - [ 3.02537642e-02 ]
      - [ 3.99911791e-01 ]
      - [ 3.58230162e+00 ]
      - [ -4.94048029e-01 ]
      - [ 4.24297929e-01 ]
      - [ 1.12465572e+00 ]
      - [ -5.13378501e-01 ]
      - [ 7.15444505e-01 ]
      - [ -1.71008325e+00 ]
      - [ -3.39701653e-01 ]
      - [ -1.80049026e+00 ]
      - [ 1.57193303e+00 ]
      - [ -5.43415070e-01 ]
      - [ -9.96937573e-01 ]
      - [ 8.23397756e-01 ]
      - [ 1.74144638e+00 ]
      - [ -8.41401696e-01 ]
      - [ -9.25563574e-01 ]
      - [ 9.45923209e-01 ]
      - [ 5.70019901e-01 ]
      - [ 1.68077838e+00 ]
      - [ -1.45700276e+00 ]
      - [ -1.23871720e+00 ]
      - [ -1.04392552e+00 ]
      - [ 6.50018334e-01 ]
      - [ -5.11594117e-01 ]
      - [ -6.56721354e-01 ]
      - [ 2.73817658e-01 ]
      - [ 3.14857751e-01 ]
      - [ -6.34119570e-01 ]
      - [ -9.96937573e-01 ]
      - [ 9.47877914e-02 ]
      - [ -1.73863280e+00 ]
      - [ -1.48181334e-01 ]
      - [ -6.59695268e-01 ]
      - [ 4.33814466e-01 ]
      - [ 9.30756211e-01 ]
      - [ 2.89282054e-01 ]
      - [ -1.14652574e+00 ]
      - [ -3.66169542e-01 ]
      - [ -6.53747439e-01 ]
      - [ 1.34026480e+00 ]
      - [ 1.29238462e+00 ]
      - [ 2.49771380e+00 ]
      - [ 1.60880959e+00 ]
      - [ 4.69501495e-01 ]
      - [ -1.42233491e-01 ]
      - [ 1.07171988e+00 ]
      - [ -2.88847655e-01 ]
      - [ -1.66619629e-01 ]
      - [ -1.70086408e+00 ]
      - [ -1.48852623e+00 ]
      - [ -1.02043152e+00 ]
      - [ 2.24433589e+00 ]
      - [ -9.44001853e-01 ]
      - [ 7.69867241e-01 ]
      - [ -1.75915289e+00 ]
      - [ 2.22963661e-01 ]
      - [ -4.73655015e-02 ]
      - [ -1.00407505e+00 ]
      - [ 4.47197109e-01 ]
      - [ -1.71692324e+00 ]
      - [ 9.11128342e-01 ]
      - [ -9.26753104e-01 ]
      - [ -5.73064573e-03 ]
      - [ 1.14755487e+00 ]
      - [ 1.22041583e+00 ]
      - [ -1.02382988e-01 ]
      - [ 2.28189696e-02 ]
      - [ -1.87602782e+00 ]
      - [ 2.95229882e-01 ]
      - [ -4.76204515e-01 ]
      - [ 2.08986253e-01 ]
      - [ 5.78941703e-01 ]
      - [ 2.68167228e-01 ]
      - [ 5.58124244e-01 ]
      - [ -8.82739127e-01 ]
      - [ 1.68196797e+00 ]
      - [ 1.01045728e+00 ]
      - [ 2.08986253e-01 ]
      - [ -4.40220088e-01 ]
      - [ 7.16336727e-01 ]
      - [ -5.02077579e-01 ]
      - [ -1.38070002e-01 ]
      - [ -8.89281750e-01 ]
      - [ -9.37586278e-02 ]
      - [ 1.69862187e+00 ]
      - [ 1.98874936e-01 ]
      - [ -2.13012755e-01 ]
      - [ -1.31395733e+00 ]
      - [ -3.48997331e+00 ]
      - [ -1.47276449e+00 ]
      - [ 6.77973151e-01 ]
      - [ 2.99563725e-02 ]
      - [ 1.01105201e+00 ]
      - [ -2.92713761e-01 ]
      - [ 1.87276646e-01 ]
      - [ 2.13727474e+00 ]
      - [ 8.67411733e-01 ]
      - [ 1.00153542e+00 ]
      - [ -8.20584238e-01 ]
      - [ 6.32472217e-01 ]
      - [ 1.87871426e-01 ]
      - [ 1.87616479e+00 ]
      - [ -2.10038826e-01 ]
      - [ 6.78567946e-01 ]
      - [ -1.28540766e+00 ]
      - [ 3.94856155e-01 ]
      - [ -5.57095110e-01 ]
      - [ 6.09275639e-01 ]
      - [ -9.09504414e-01 ]
      - [ 3.67198706e-01 ]
      - [ 1.95603624e-01 ]
      - [ -2.00777245e+00 ]
      - [ 8.84957850e-01 ]
      - [ 9.66740608e-01 ]
      - [ -9.74038422e-01 ]
      - [ 8.84155370e-03 ]
      - [ -1.16288221e+00 ]
      - [ -1.23068762e+00 ]
      - [ 1.40288740e-01 ]
      - [ 1.70325309e-01 ]
      - [ -2.04685777e-01 ]
      - [ -4.31893140e-01 ]
      - [ 1.24824367e-01 ]
      - [ -1.38592613e+00 ]
      - [ 1.46368241e+00 ]
      - [ -8.80062580e-01 ]
      - [ 1.29922473e+00 ]
      - [ 7.49347210e-01 ]
      - [ -1.76123464e+00 ]
      - [ -6.40959561e-01 ]
      - [ -1.91132780e-02 ]
      - [ 1.35305262e+00 ]
      - [ 1.38933444e+00 ]
      - [ 1.82055259e+00 ]
      - [ 1.59037125e+00 ]
      - [ 3.65414351e-01 ]
      - [ -1.51588631e+00 ]
      - [ -1.22860587e+00 ]
      - [ -4.48249668e-01 ]
      - [ -6.52855277e-01 ]
      - [ 1.39557958e+00 ]
      - [ -1.10280907e+00 ]
      - [ -8.49728644e-01 ]
      - [ 1.61832607e+00 ]
      - [ -1.16050315e+00 ]
      - [ 2.52108067e-01 ]
      - [ -1.63514042e+00 ]
      - [ -1.27958685e-01 ]
      - [ -7.45938897e-01 ]
      - [ 1.81031421e-01 ]
      - [ 1.14814961e+00 ]
      - [ -1.93384886e-01 ]
      - [ -7.13523209e-01 ]
      - [ 1.76553512e+00 ]
      - [ 9.65551078e-01 ]
      - [ -7.21552789e-01 ]
      - [ 2.98501194e-01 ]
      - [ 3.24833059e+00 ]
      - [ 1.03751993e+00 ]
      - [ 1.18281744e-01 ]
      - [ 4.35301423e-01 ]
      - [ -4.10183519e-01 ]
      - [ -7.84005046e-01 ]
      - [ 6.65482700e-01 ]
      - [ -3.47433865e-01 ]
      - [ 5.03404140e-01 ]
      - [ 1.52970338e+00 ]
      - [ -2.14797094e-01 ]
      - [ 1.63187906e-01 ]
      - [ -2.01117069e-01 ]
      - [ -8.09283376e-01 ]
      - [ 1.61594701e+00 ]
      - [ 6.12546980e-01 ]
      - [ -1.64941525e+00 ]
      - [ 1.48152590e+00 ]
      - [ 6.23720810e-02 ]
      - [ -6.93724975e-02 ]
      - [ 2.48836756e-01 ]
      - [ -5.87429047e-01 ]
      - [ 2.82144636e-01 ]
      - [ -1.52213156e+00 ]
      - [ 1.71824980e+00 ]
      - [ -9.09801781e-01 ]
      - [ 5.26005924e-01 ]
      - [ -9.36269641e-01 ]
      - [ -3.01635504e-01 ]
      - [ 3.52923900e-01 ]
      - [ 3.22292536e-01 ]
      - [ 1.20316708e+00 ]
      - [ 6.93437517e-01 ]
      - [ -9.24968779e-01 ]
      - [ 3.65116954e-01 ]
      - [ 2.16404009e+00 ]
      - [ -3.74496520e-01 ]
      - [ 1.64330697e+00 ]
      - [ -9.89205420e-01 ]
      - [ 1.95378411e+00 ]
      - [ 2.73520291e-01 ]
      - [ 6.08680844e-01 ]
      - [ -1.08033434e-01 ]
      - [ 3.11289042e-01 ]
      - [ 8.73359561e-01 ]
      - [ 1.25996900e+00 ]
      - [ -6.87352717e-01 ]
      - [ -2.30932760e+00 ]
      - [ 1.11739121e-01 ]
      - [ -1.82963467e+00 ]
      - [ 3.33296031e-01 ]
      - [ 2.74709851e-01 ]
      - [ 8.67582113e-02 ]
      - [ -2.62082398e-01 ]
      - [ 1.04971290e+00 ]
      - [ -9.95748043e-01 ]
      - [ 1.12554789e+00 ]
      - [ 1.74488798e-01 ]
      - [ -7.84897208e-01 ]
      - [ 5.98866940e-01 ]
      - [ -1.34310174e+00 ]
      - [ -1.09223001e-01 ]
      - [ -8.36473033e-02 ]
      - [ -6.26982152e-01 ]
      - [ -1.03321946e+00 ]
      - [ 1.00064325e+00 ]
      - [ 5.78941703e-01 ]
      - [ 7.69272447e-01 ]
      - [ 3.11459396e-02 ]
      - [ 8.40349078e-01 ]
      - [ -5.46983778e-01 ]
      - [ -1.20421970e+00 ]
      - [ -5.19921124e-01 ]
      - [ -5.56797683e-01 ]
      - [ 4.20431852e-01 ]
      - [ -8.56866062e-01 ]
      - [ 4.79018033e-01 ]
      - [ -1.87305391e+00 ]
      - [ 1.38427877e+00 ]
      - [ -4.33677495e-01 ]
      - [ 6.93140149e-01 ]
      - [ -7.53373682e-01 ]
      - [ 5.45038998e-01 ]
      - [ -8.67869556e-01 ]
      - [ 4.80207592e-01 ]
      - [ 4.57011044e-01 ]
      - [ -1.51469672e+00 ]
      - [ 1.52970338e+00 ]
      - [ 7.58268952e-01 ]
      - [ -1.59779608e-01 ]
      - [ -3.08772922e-01 ]
      - [ -1.61861360e-01 ]
      - [ -4.31893140e-01 ]
      - [ 5.61395586e-01 ]
      - [ 5.96487820e-01 ]
      - [ -3.78957391e-01 ]
      - [ 3.07422936e-01 ]
      - [ -9.40433145e-01 ]
      - [ -1.32793474e+00 ]
      - [ -5.91889918e-01 ]
      - [ -1.62324476e+00 ]
      - [ 2.21578622e+00 ]
      - [ -9.98127162e-01 ]
      - [ 5.55150330e-01 ]
      - [ 5.00430226e-01 ]
      - [ 1.72300804e+00 ]
      - [ 9.06370103e-01 ]
      - [ 2.19097570e-01 ]
      - [ 5.96955568e-02 ]
      - [ 2.08166265e+00 ]
      - [ -8.25639904e-01 ]
      - [ 1.32480037e+00 ]
      - [ -7.78354585e-01 ]
      - [ -1.02637935e+00 ]
      - [ -9.39838350e-01 ]
      - [ -9.57979262e-01 ]
      - [ 1.15974796e+00 ]
      - [ -1.42339742e+00 ]
      - [ -6.51963055e-01 ]
      - [ -4.97446358e-02 ]
      - [ -7.92926788e-01 ]
      - [ -1.97327495e+00 ]
      - [ -1.40576167e-02 ]
      - [ -7.23337114e-01 ]
      - [ -2.36804098e-01 ]
      - [ 8.07933390e-01 ]
      - [ -1.31722856e+00 ]
      - [ 1.70622706e-01 ]
      - [ 9.38956141e-02 ]
      - [ -2.79628515e-01 ]
      - [ 6.12249553e-01 ]
      - [ -2.55837172e-01 ]
      - [ -3.90555680e-01 ]
      - [ -1.64367519e-02 ]
      - [ -8.41401696e-01 ]
      - [ 6.71303496e-02 ]
      - [ 1.23885417e+00 ]
      - [ -4.33082700e-01 ]
      - [ -1.49685323e+00 ]
      - [ -1.11827350e+00 ]
      - [ -2.70706773e-01 ]
      - [ 4.30416130e-02 ]
      - [ 2.22666278e-01 ]
      - [ -6.91218793e-01 ]
      - [ -2.05280557e-01 ]
      - [ -1.35529470e+00 ]
      - [ -1.82083994e-01 ]
      - [ 1.32717955e+00 ]
      - [ -7.13225782e-01 ]
      - [ -1.58250213e+00 ]
      - [ 1.72360277e+00 ]
      - [ -2.48954725e+00 ]
      - [ 7.93063819e-01 ]
      - [ -9.74335790e-01 ]
      - [ 1.28095672e-01 ]
      - [ -6.87650084e-01 ]
      - [ -5.76425552e-01 ]
      - [ -1.24050152e+00 ]
      - [ 1.17669928e+00 ]
      - [ 3.83257866e-01 ]
      - [ 3.27348202e-01 ]
      - [ -2.20077968e+00 ]
      - [ -2.37207747e+00 ]
      - [ -1.95007837e+00 ]
      - [ 1.14904177e+00 ]
      - [ 5.49797297e-01 ]
      - [ -1.57476985e+00 ]
      - [ 4.91508484e-01 ]
      - [ 7.77599394e-01 ]
      - [ 4.37977970e-01 ]
      - [ 2.29965067e+00 ]
      - [ -7.76272833e-01 ]
      - [ -1.68807614e+00 ]
      - [ 4.35004026e-01 ]
      - [ -8.09283376e-01 ]
      - [ 6.38717413e-01 ]
      - [ 2.29208902e-01 ]
      - [ 2.28911504e-01 ]
      - [ -2.67095613e+00 ]
      - [ -1.10548556e+00 ]
      - [ 3.87123942e-01 ]
      - [ 8.55686441e-02 ]
      - [ -1.66755617e+00 ]
      - [ 1.33448735e-01 ]
      - [ 2.98501194e-01 ]
      - [ 4.11807477e-01 ]
      - [ -5.16054988e-01 ]
      - [ 6.18494809e-01 ]
      - [ 1.84302732e-01 ]
      - [ 3.09207290e-01 ]
      - [ -7.83707678e-01 ]
      - [ -1.66963792e+00 ]
      - [ -9.58871424e-01 ]
      - [ 5.84294736e-01 ]
      - [ -2.00479841e+00 ]
      - [ 3.05043817e-01 ]
      - [ 1.71812266e-01 ]
      - [ -4.94048029e-01 ]
      - [ -1.19758742e-02 ]
      - [ 4.26677078e-01 ]
      - [ -3.00148547e-01 ]
      - [ -1.41328621e+00 ]
      - [ -2.58216292e-01 ]
      - [ -1.07247508e+00 ]
      - [ -4.40814883e-01 ]
      - [ 2.57928874e-02 ]
      - [ 1.75661325e+00 ]
      - [ 1.41775697e-01 ]
      - [ 1.30474806e-01 ]
      - [ 1.29565597e+00 ]
      - [ 2.93993545e+00 ]
      - [ -5.19921124e-01 ]
      - [ 1.82174206e+00 ]
      - [ 1.06088683e-01 ]
      - [ 1.03114761e-01 ]
      - [ 1.55408943e+00 ]
      - [ -7.28987575e-01 ]
      - [ 2.21774101e-01 ]
      - [ -1.25282153e-01 ]
      - [ 2.68167228e-01 ]
      - [ -3.82483649e+00 ]
      - [ 7.26745427e-01 ]
      - [ -9.43109691e-01 ]
      - [ 9.15164798e-02 ]
      - [ -9.24968779e-01 ]
      - [ -1.35988265e-01 ]
      - [ 4.02588338e-01 ]
      - [ -1.64703608e+00 ]
      - [ -7.76994675e-02 ]
      - [ 1.65103924e+00 ]
      - [ 1.76821160e+00 ]
      - [ 6.62381724e-02 ]
      - [ 8.56705666e-01 ]
      - [ 1.07766771e+00 ]
      - [ -3.65872145e-01 ]
      - [ -3.63790393e-01 ]
      - [ -2.18323350e+00 ]
      - [ 1.56568778e+00 ]
      - [ 1.20049059e+00 ]
      - [ -7.14712739e-01 ]
      - [ -1.48776114e-01 ]
      - [ 1.60078001e+00 ]
      - [ -1.40449136e-01 ]
      - [ -1.84866774e+00 ]
      - [ 1.22933757e+00 ]
      - [ -1.99141586e+00 ]
      - [ 1.31439161e+00 ]
      - [ -8.39022517e-01 ]
      - [ -1.04600728e+00 ]
      - [ 6.97006226e-01 ]
      - [ -3.47731233e-01 ]
      - [ 8.28921199e-02 ]
      - [ 3.03556859e-01 ]
      - [ -1.71662581e+00 ]
      - [ -9.91287172e-01 ]
      - [ -2.03198820e-01 ]
      - [ -5.35088122e-01 ]
      - [ 3.30024719e-01 ]
      - [ -3.00148547e-01 ]
      - [ -9.20507908e-01 ]
      - [ -1.63008475e+00 ]
      - [ -4.67707179e-02 ]
      - [ 3.68685663e-01 ]
      - [ -3.49562359e+00 ]
      - [ -4.22079206e-01 ]
      - [ 1.11441731e-01 ]
      - [ 5.66748619e-01 ]
      - [ 1.00897026e+00 ]
      - [ -1.19470310e+00 ]
      - [ 2.74709851e-01 ]
      - [ 7.16336727e-01 ]
      - [ 1.03454590e+00 ]
      - [ 1.01997375e+00 ]
      - [ 3.92774403e-01 ]
      - [ 8.26966465e-01 ]
      - [ 2.07499295e-01 ]
      - [ -2.86171138e-01 ]
      - [ 1.51542854e+00 ]
      - [ -1.77491462e+00 ]
      - [ 5.43254673e-01 ]
      - [ 5.75670362e-01 ]
      - [ -9.15749609e-01 ]
      - [ -2.63378215e+00 ]
      - [ 2.12746096e+00 ]
      - [ 6.96114063e-01 ]
      - [ 4.11510080e-01 ]
      - [ -2.01282811e+00 ]
      - [ 3.05341214e-01 ]
      - [ -9.19020951e-01 ]
      - [ -8.59245181e-01 ]
      - [ -1.81298077e+00 ]
      - [ -5.30159473e-02 ]
      - [ -4.59253192e-01 ]
      - [ -9.05638278e-01 ]
      - [ 1.12703478e+00 ]
      - [ -1.29343724e+00 ]
      - [ 7.79086351e-01 ]
      - [ -4.26540077e-01 ]
      - [ 7.16931462e-01 ]
      - [ 1.06666422e+00 ]
      - [ 1.14220178e+00 ]
      - [ 9.02801394e-01 ]
      - [ -2.05773425e+00 ]
      - [ -4.20889646e-01 ]
      - [ -1.90410972e-01 ]
      - [ -1.25150502e+00 ]
      - [ 1.67946175e-01 ]
      - [ 8.34401250e-01 ]
      - [ -1.31425464e+00 ]
      - [ -3.70333016e-01 ]
      - [ 7.25555837e-01 ]
      - [ 3.82068306e-01 ]
      - [ 4.24297929e-01 ]
      - [ -6.42149150e-01 ]
      - [ -5.16054988e-01 ]
      - [ -1.09520391e-01 ]
      - [ 2.82442033e-01 ]
      - [ 1.36375868e+00 ]
      - [ 1.65966356e+00 ]
      - [ 3.15452516e-01 ]
      - [ -1.52361846e+00 ]
      - [ 8.29643011e-01 ]
      - [ 8.40646505e-01 ]
      - [ -6.97166622e-01 ]
      - [ 1.48318321e-01 ]
      - [ -1.34012771e+00 ]
      - [ -1.84093559e+00 ]
      - [ -4.13454831e-01 ]
      - [ 1.27097249e+00 ]
      - [ -2.33490348e+00 ]
      - [ -6.39770031e-01 ]
      - [ 2.10664344e+00 ]
      - [ 1.43037450e+00 ]
      - [ 7.30781853e-02 ]
      - [ 2.08391473e-01 ]
      - [ -2.18174672e+00 ]
      - [ 8.37842897e-02 ]
      - [ 9.62279737e-01 ]
      - [ -1.07693601e+00 ]
      - [ -1.74368846e+00 ]
      - [ -6.43636107e-01 ]
      - [ 1.60583568e+00 ]
      - [ -1.23723018e+00 ]
      - [ 2.61327207e-01 ]
      - [ -3.12044233e-01 ]
      - [ 3.80581319e-01 ]
      - [ -1.26756418e+00 ]
      - [ 2.00361893e-01 ]
      - [ -2.93308526e-01 ]
      - [ -2.04685777e-01 ]
      - [ 9.20644879e-01 ]
      - [ -5.37467241e-01 ]
      - [ 2.75304615e-01 ]
      - [ -1.13683879e-01 ]
      - [ -1.01716030e+00 ]
      - [ 5.77157319e-01 ]
      - [ 2.16047144e+00 ]
      - [ 1.68880796e+00 ]
      - [ 1.61029649e+00 ]
      - [ -2.12417960e-01 ]
      - [ 1.04971290e+00 ]
      - [ 3.18855500e+00 ]
      - [ 4.48089272e-01 ]
      - [ 1.15605220e-01 ]
      - [ 1.54070687e+00 ]
      - [ -4.25350517e-01 ]
      - [ 5.28555438e-02 ]
      - [ -5.13378501e-01 ]
      - [ 1.33024305e-02 ]
      - [ -1.10429609e+00 ]
      - [ 1.94116667e-01 ]
      - [ 4.73962367e-01 ]
      - [ 1.22547150e+00 ]
      - [ 4.56416249e-01 ]
      - [ 1.50472248e+00 ]
      - [ 1.97014058e+00 ]
      - [ -1.53283763e+00 ]
      - [ -9.64521885e-01 ]
      - [ -6.41851783e-01 ]
      - [ -7.29411989e-02 ]
      - [ -1.37772620e-01 ]
      - [ 1.32331347e+00 ]
      - [ 1.19305575e+00 ]
      - [ 7.69442841e-02 ]
      - [ 1.13922787e+00 ]
      - [ 3.52626503e-01 ]
      - [ -8.52702558e-01 ]
      - [ -1.70978582e+00 ]
      - [ 1.74739420e+00 ]
      - [ 4.83478904e-01 ]
      - [ 9.14102256e-01 ]
      - [ 8.78415227e-01 ]
      - [ -6.56126559e-01 ]
      - [ -3.84013057e-01 ]
      - [ -6.99672773e-02 ]
      - [ 4.68311936e-01 ]
      - [ -1.22682142e+00 ]
      - [ -1.06057942e+00 ]
      - [ 2.34515166e+00 ]
      - [ -1.59201860e+00 ]
      - [ -3.95016551e-01 ]
      - [ -2.29369298e-01 ]
      - [ -3.45946878e-01 ]
      - [ 1.67351395e-01 ]
      - [ -1.15366304e+00 ]
      - [ -1.27024066e+00 ]
      - [ 2.29893345e-03 ]
      - [ 6.15520895e-01 ]
      - [ -1.99528193e+00 ]
      - [ 8.23992550e-01 ]
      - [ 5.97379982e-01 ]
      - [ -1.01597071e+00 ]
      - [ -1.44570184e+00 ]
      - [ 2.29506284e-01 ]
      - [ 7.96632469e-01 ]
      - [ 7.29421973e-01 ]
      - [ 5.07567644e-01 ]
      - [ 3.93666565e-01 ]
      - [ -2.04983175e-01 ]
      - [ 1.55171037e+00 ]
      - [ -4.15833980e-01 ]
      - [ 7.45183706e-01 ]
      - [ 5.04764095e-02 ]
      - [ -1.08942640e+00 ]
      - [ 5.97677350e-01 ]
      - [ -7.53203332e-02 ]
      - [ -1.56555080e+00 ]
      - [ -5.84157765e-01 ]
      - [ -2.32640609e-01 ]
      - [ 7.39533246e-01 ]
      - [ 4.61471915e-01 ]
      - [ -5.99622130e-01 ]
      - [ 1.81906557e+00 ]
      - [ 1.20958269e-01 ]
      - [ 2.53637457e+00 ]
      - [ -8.91066134e-01 ]
      - [ 1.26026630e+00 ]
      - [ 1.69135749e-01 ]
      - [ 2.39022821e-01 ]
      - [ 1.00034595e+00 ]
      - [ 1.67648792e-01 ]
      - [ -6.80512667e-01 ]
      - [ 1.46831363e-01 ]
      - [ 5.48012912e-01 ]
      - [ -1.28680496e-02 ]
      - [ -1.48584974e+00 ]
      - [ 3.94261360e-01 ]
      - [ -9.49481949e-02 ]
      - [ 2.86010742e-01 ]
      - [ -1.38443911e+00 ]
      - [ -1.10935175e+00 ]
      - [ -7.56347597e-01 ]
      - [ 8.24677013e-03 ]
      - [ 1.35424221e+00 ]
      - [ 2.70546347e-01 ]
      - [ 3.35250758e-02 ]
      - [ -1.14593089e+00 ]
      - [ 5.73164225e-02 ]
      - [ -2.31153652e-01 ]
      - [ 4.04075295e-01 ]
      - [ 5.25708556e-01 ]
      - [ -1.46396980e-01 ]
      - [ -1.64537877e-01 ]
      - [ 3.65116954e-01 ]
      - [ 2.19199491e+00 ]
      - [ 2.24046969e+00 ]
      - [ -7.72704184e-01 ]
      - [ 9.43633728e-03 ]
      - [ 5.15002429e-01 ]
      - [ -1.39990354e+00 ]
      - [ 2.03633204e-01 ]
      - [ 8.84065688e-01 ]
      - [ 3.93666565e-01 ]
      - [ -9.61377621e-02 ]
      - [ -1.91005751e-01 ]
      - [ -3.90853047e-01 ]
      - [ -4.31595743e-01 ]
      - [ -3.23642492e-01 ]
      - [ -5.54715931e-01 ]
      - [ 6.41691327e-01 ]
      - [ 2.17147493e+00 ]
      - [ -7.43857145e-01 ]
      - [ -2.08254471e-01 ]
      - [ 3.02537642e-02 ]
      - [ -9.76247191e-02 ]
      - [ -1.65132657e-01 ]
      - [ -4.52710569e-01 ]
      - [ 9.92613733e-01 ]
      - [ 7.11875856e-01 ]
      - [ 2.72925496e-01 ]
      - [ -1.79246068e+00 ]
      - [ 6.30985260e-01 ]
      - [ -3.87879133e-01 ]
      - [ -2.59108484e-01 ]
      - [ 3.65711749e-01 ]
      - [ -7.29284942e-01 ]
      - [ 4.06751812e-01 ]
      - [ -1.18756580e+00 ]
      - [ -2.75868678e+00 ]
      - [ -1.80614078e+00 ]
      - [ -1.38962179e-01 ]
      - [ -9.74038422e-01 ]
      - [ 1.17104876e+00 ]
      - [ 1.57223034e+00 ]
      - [ 3.25266451e-01 ]
      - [ -1.27351201e+00 ]
      - [ 1.03424859e+00 ]
      - [ 4.58200604e-01 ]
      - [ 5.98569512e-01 ]
      - [ -4.52837572e-02 ]
      - [ 2.04776001e+00 ]
      - [ -1.15961087e+00 ]
      - [ -4.60740149e-01 ]
      - [ 4.71285850e-01 ]
      - [ -9.08017457e-01 ]
      - [ 1.79841846e-01 ]
      - [ -7.85492003e-01 ]
      - [ 7.86223769e-01 ]
      - [ -1.52183414e+00 ]
      - [ 5.13812900e-01 ]
      - [ -1.83260858e+00 ]
      - [ 1.55973995e+00 ]
      - [ 8.73529986e-02 ]
      - [ 1.38546836e+00 ]
      - [ 3.45786482e-01 ]
      - [ 8.65924776e-01 ]
      - [ -1.84760526e-01 ]
      - [ 1.20316708e+00 ]
      - [ 2.59840250e-01 ]
      - [ -9.61250603e-01 ]
      - [ -2.29071900e-01 ]
      - [ -9.59673990e-03 ]
      - [ 9.51276243e-01 ]
      - [ 1.64377481e-01 ]
      - [ -1.32139206e+00 ]
      - [ 2.33890653e+00 ]
      - [ 5.80428660e-01 ]
      - [ 2.99690753e-01 ]
      - [ 2.24450633e-01 ]
      - [ 1.08212864e+00 ]
      - [ 9.53952789e-01 ]
      - [ -1.83558249e+00 ]
      - [ 3.28835160e-01 ]
      - [ 6.57155752e-01 ]
      - [ -6.39472604e-01 ]
      - [ -1.27202499e+00 ]
      - [ -7.08764911e-01 ]
      - [ 8.31724703e-01 ]
      - [ -1.40151754e-01 ]
      - [ 6.25632226e-01 ]
      - [ 8.08230758e-01 ]
      - [ -5.88618636e-01 ]
      - [ 5.82212985e-01 ]
      - [ -1.13433266e+00 ]
      - [ 8.80199611e-01 ]
      - [ -1.73209023e+00 ]
      - [ -1.75379980e+00 ]
      - [ 4.47791874e-01 ]
      - [ 1.34043515e-01 ]
      - [ -1.12035525e+00 ]
      - [ -7.57537186e-01 ]
      - [ 8.76333535e-01 ]
      - [ 1.18353927e+00 ]
      - [ 1.54814160e+00 ]
      - [ -2.40032959e+00 ]
      - [ 7.85926402e-01 ]
      - [ 6.44538254e-02 ]
      - [ -1.32436597e+00 ]
      - [ -8.21476400e-01 ]
      - [ -7.73596346e-01 ]
      - [ 8.36483002e-01 ]
      - [ -6.64750934e-01 ]
      - [ -1.25579551e-01 ]
      - [ 3.70470017e-01 ]
      - [ -1.52471839e-02 ]
      - [ -1.64227784e+00 ]
      - [ 3.29727322e-01 ]
      - [ -4.93750632e-01 ]
      - [ -6.07056916e-01 ]
      - [ -2.41562366e-01 ]
      - [ 1.00311209e-02 ]
      - [ -8.30398202e-01 ]
      - [ 6.59534872e-01 ]
      - [ -8.89281750e-01 ]
      - [ 9.23916221e-01 ]
      - [ -5.12188911e-01 ]
      - [ -1.81000686e+00 ]
      - [ 9.02503967e-01 ]
      - [ -8.74114752e-01 ]
      - [ 2.90174216e-01 ]
      - [ 3.73911671e-02 ]
      - [ -9.55897510e-01 ]
      - [ -9.88142863e-02 ]
      - [ 1.06874597e+00 ]
      - [ -1.89595306e+00 ]
      - [ 8.15368176e-01 ]
      - [ -2.61487603e-01 ]
      - [ 1.17092177e-01 ]
      - [ 1.30474806e-01 ]
      - [ 3.67793500e-01 ]
      - [ 4.93292838e-01 ]
      - [ -8.07201624e-01 ]
      - [ 8.84155370e-03 ]
      - [ 3.50247353e-01 ]
      - [ -7.68072903e-02 ]
      - [ -1.66322231e-01 ]
      - [ 5.19463301e-01 ]
      - [ 2.23095322e+00 ]
      - [ -4.15833980e-01 ]
      - [ 2.46143198e+00 ]
      - [ -1.26471728e-01 ]
      - [ -5.16054988e-01 ]
      - [ -2.99362636e+00 ]
      - [ 5.96487820e-01 ]
      - [ 1.10562265e+00 ]
      - [ -1.42233491e-01 ]
      - [ -3.05799007e-01 ]
      - [ -1.66024834e-01 ]
      - [ -1.49923241e+00 ]
      - [ -8.01551163e-01 ]
      - [ -5.92187345e-01 ]
      - [ 3.48850060e-03 ]
      - [ 1.26918805e+00 ]
      - [ 2.81720217e-02 ]
      - [ 5.43552041e-01 ]
      - [ 1.18621576e+00 ]
      - [ 8.42728257e-01 ]
      - [ -1.81060159e+00 ]
      - [ -7.35232770e-01 ]
      - [ -7.75678098e-01 ]
      - [ -6.43168390e-02 ]
      - [ 2.38130644e-01 ]
      - [ 1.82620299e+00 ]
      - [ 2.60435045e-01 ]
      - [ -2.47807592e-01 ]
      - [ 2.10753560e+00 ]
      - [ -9.47273135e-01 ]
      - [ -1.33923554e+00 ]
      - [ 1.14547312e+00 ]
      - [ 7.18121052e-01 ]
      - [ 1.63438523e+00 ]
      - [ 2.40968585e+00 ]
      - [ -4.78881031e-01 ]
      - [ 1.61327040e+00 ]
      - [ -1.01299679e+00 ]
      - [ -3.12638998e-01 ]
      - [ 1.25716537e-01 ]
      - [ -2.18055701e+00 ]
      - [ -2.89442450e-01 ]
      - [ 3.35250758e-02 ]
      - [ 1.13417220e+00 ]
      - [ 5.91007732e-02 ]
      - [ -1.34726512e+00 ]
      - [ 5.69425166e-01 ]
      - [ 6.31282628e-01 ]
      - [ -1.86145568e+00 ]
      - [ 6.11654758e-01 ]
      - [ -8.21603462e-02 ]
      - [ 6.69051409e-01 ]
      - [ -2.07659692e-01 ]
      - [ -2.71301538e-01 ]
      - [ 4.71285850e-01 ]
      - [ -1.15633965e+00 ]
      - [ 7.71948993e-01 ]
      - [ 9.38190997e-01 ]
      - [ -7.15902328e-01 ]
      - [ -1.12749267e+00 ]
      - [ 3.63927394e-01 ]
      - [ -1.48168623e+00 ]
      - [ 1.12762964e+00 ]
      - [ 5.65559030e-01 ]
      - [ -6.95084870e-01 ]
      - [ 4.48386669e-01 ]
      - [ -7.13820577e-01 ]
      - [ -7.53373682e-01 ]
      - [ -5.19326329e-01 ]
      - [ -1.98784721e+00 ]
      - [ 2.22963661e-01 ]
      - [ -5.39251566e-01 ]
      - [ 2.53595024e-01 ]
      - [ -7.28690147e-01 ]
      - [ -1.93682283e-01 ]
      - [ -4.09588754e-01 ]
      - [ 1.35827869e-01 ]
      - [ 5.12028515e-01 ]
      - [ 9.46220577e-01 ]
      - [ 1.80300641e+00 ]
      - [ 1.00140847e-01 ]
      - [ -3.99477422e-01 ]
      - [ -1.74101198e+00 ]
      - [ -3.68846059e-01 ]
      - [ -1.62562394e+00 ]
      - [ 1.31796038e+00 ]
      - [ -1.44094360e+00 ]
      - [ 1.18234968e+00 ]
      - [ -5.56500316e-01 ]
      - [ -3.84013057e-01 ]
      - [ 1.18621576e+00 ]
      - [ 3.96045715e-01 ]
      - [ -2.39480615e-01 ]
      - [ 2.25342795e-01 ]
      - [ -6.00811660e-01 ]
      - [ -2.98024368e+00 ]
      - [ -1.43142700e+00 ]
      - [ 1.27203494e-01 ]
      - [ 6.21468723e-01 ]
      - [ -6.83189213e-01 ]
      - [ -1.00598641e-01 ]
      - [ -3.58437359e-01 ]
      - [ -3.25724244e-01 ]
      - [ 6.05877303e-02 ]
      - [ 5.06972849e-01 ]
      - [ 4.31732714e-01 ]
      - [ 1.08867133e+00 ]
      - [ -2.12791872e+00 ]
      - [ -6.37220517e-02 ]
      - [ 6.88679278e-01 ]
      - [ -8.36048603e-01 ]
      - [ -3.87284368e-01 ]
      - [ 6.31282628e-01 ]
      - [ 7.82655060e-01 ]
      - [ 2.50621110e-01 ]
      - [ -3.51894736e-01 ]
      - [ -5.53526402e-01 ]
      - [ 1.17848361e+00 ]
      - [ 1.20524883e+00 ]
      - [ 1.70027927e-01 ]
      - [ -7.33448446e-01 ]
      - [ 6.86002731e-01 ]
      - [ 4.83776301e-01 ]
      - [ -2.43941501e-01 ]
      - [ -1.88851833e+00 ]
      - [ 5.65559030e-01 ]
      - [ -7.93819010e-01 ]
      - [ 1.25372374e+00 ]
      - [ -5.58284640e-01 ]
      - [ 2.35156730e-01 ]
      - [ 2.32182816e-01 ]
      - [ -2.00054534e-02 ]
      - [ 2.81549871e-01 ]
      - [ -6.04380369e-01 ]
      - [ -5.92187345e-01 ]
      - [ -1.08764207e+00 ]
      - [ 1.27203494e-01 ]
      - [ 1.50501978e+00 ]
      - [ 1.41580224e+00 ]
      - [ 4.21026617e-01 ]
      - [ -5.07430673e-01 ]
      - [ -1.29908764e+00 ]
      - [ -2.92416364e-01 ]
      - [ 1.32361078e+00 ]
      - [ -6.53747439e-01 ]
      - [ 8.69493484e-01 ]
      - [ -5.16352415e-01 ]
      - [ 2.72925496e-01 ]
      - [ -8.74709547e-01 ]
      - [ -6.13302171e-01 ]
      - [ 1.57639384e+00 ]
      - [ 5.65559030e-01 ]
      - [ -7.70027637e-01 ]
      - [ 1.07142258e+00 ]
      - [ 1.17967319e+00 ]
      - [ 2.18366790e+00 ]
      - [ 1.31366983e-01 ]
      - [ -2.01877594e+00 ]
      - [ 8.79477784e-02 ]
      - [ -1.28392076e+00 ]
      - [ 1.19632709e+00 ]
      - [ 5.73164225e-02 ]
      - [ 8.30832541e-01 ]
      - [ -2.93028188e+00 ]
      - [ 3.03854257e-01 ]
      - [ -2.29666695e-01 ]
      - [ 2.09878430e-01 ]
      - [ 3.15749913e-01 ]
      - [ 6.65355697e-02 ]
      - [ -6.70996130e-01 ]
      - [ -2.10472226e+00 ]
      - [ 5.81618190e-01 ]
      - [ -1.88613915e+00 ]
      - [ -1.11007355e-01 ]
      - [ -4.72338408e-01 ]
      - [ 3.76715243e-01 ]
      - [ 2.19989747e-01 ]
      - [ -1.13938832e+00 ]
      - [ 1.79081333e+00 ]
      - [ -2.82899827e-01 ]
      - [ -3.03717256e-01 ]
      - [ 1.30695689e+00 ]
      - [ -9.82068002e-01 ]
      - [ 1.50697455e-01 ]
      - [ 2.00659275e-01 ]
      - [ 4.34111863e-01 ]
      - [ 1.08956349e+00 ]
      - [ -1.58419684e-02 ]
      - [ -2.19852760e-01 ]
      - [ 4.84965861e-01 ]
      - [ -1.20838320e+00 ]
      - [ 1.01224160e+00 ]
      - [ 7.37154126e-01 ]
      - [ 1.70308280e+00 ]
      - [ -1.73757032e-01 ]
      - [ 1.26502466e+00 ]
      - [ -2.28179738e-01 ]
      - [ 2.93615889e-02 ]
      - [ 2.09891129e+00 ]
      - [ -6.99248374e-01 ]
      - [ -5.69585562e-01 ]
      - [ 3.26158643e-01 ]
      - [ 1.01610768e+00 ]
      - [ 3.88781279e-02 ]
      - [ -6.56423986e-01 ]
      - [ 3.71659577e-01 ]
      - [ 1.59483218e+00 ]
      - [ -4.83044535e-01 ]
      - [ -4.70256686e-01 ]
      - [ 1.68434703e+00 ]
      - [ -1.31693125e+00 ]
      - [ -5.99027336e-01 ]
      - [ 1.05119991e+00 ]
      - [ -2.88252890e-01 ]
      - [ -2.80775642e+00 ]
      - [ -2.06767514e-01 ]
      - [ -1.14278659e-01 ]
      - [ 8.63248289e-01 ]
      - [ -1.77402246e+00 ]
      - [ 2.95527279e-01 ]
      - [ 1.75958717e+00 ]
      - [ 8.55516076e-01 ]
      - [ -3.38809490e-01 ]
      - [ -3.04609418e-01 ]
      - [ 3.84744823e-01 ]
      - [ -9.83852327e-01 ]
      - [ 1.82471609e+00 ]
      - [ -9.70299393e-02 ]
      - [ -3.94629501e-03 ]
      - [ -3.70927811e-01 ]
      - [ -1.60540128e+00 ]
      - [ 1.65567040e-01 ]
      - [ -1.10836988e-02 ]
      - [ -3.60816479e-01 ]
      - [ 3.00880313e-01 ]
      - [ -7.67648518e-01 ]
      - [ -5.15162826e-01 ]
      - [ -1.05046809e+00 ]
      - [ 1.08765207e-01 ]
      - [ 4.26677078e-01 ]
      - [ -9.27347898e-01 ]
      - [ -2.64164150e-01 ]
      - [ 5.84294736e-01 ]
      - [ -4.55684483e-01 ]
      - [ -1.15961087e+00 ]
      - [ -1.50263071e-01 ]
      - [ 6.87192321e-01 ]
      - [ -2.07022476e+00 ]
      - [ 1.05625558e+00 ]
      - [ -5.07133245e-01 ]
      - [ 7.62135029e-01 ]
      - [ -1.58874738e+00 ]
      - [ 7.19905376e-01 ]
      - [ 6.70240998e-01 ]
      - [ 5.70317328e-01 ]
      - [ -9.63629723e-01 ]
      - [ 8.04662049e-01 ]
      - [ 7.81338513e-02 ]
      - [ 8.26074302e-01 ]
      - [ -2.98193842e-02 ]
      - [ 4.53442335e-01 ]
      - [ 8.98637891e-01 ]
      - [ 5.90837359e-01 ]
      - [ 3.29727322e-01 ]
      - [ -3.80444348e-01 ]
      - [ 4.94185001e-01 ]
      - [ -1.01775503e+00 ]
      - [ -3.82823467e-01 ]
      - [ -1.84463128e-01 ]
      - [ 5.03998935e-01 ]
      - [ -8.92977491e-02 ]
      - [ 3.00582945e-01 ]
      - [ 3.30619514e-01 ]
      - [ 1.51126504e+00 ]
      - [ -8.92850459e-01 ]
      - [ 2.52405465e-01 ]
      - [ 2.21774101e-01 ]
      - [ -4.70681079e-02 ]
      - [ -6.31740451e-01 ]
      - [ 4.29353595e-01 ]
      - [ 3.70470017e-01 ]
      - [ 3.17236871e-01 ]
      - [ 1.20970976e+00 ]
      - [ -1.78502595e+00 ]
      - [ 2.92553365e-01 ]
      - [ 3.72551769e-01 ]
      - [ -9.03556585e-01 ]
      - [ -2.19257981e-01 ]
      - [ -5.35088122e-01 ]
      - [ -9.75525379e-01 ]
      - [ -9.51436639e-01 ]
      - [ -1.11202824e+00 ]
      - [ -6.70698762e-01 ]
      - [ -1.50964105e+00 ]
      - [ 2.83036828e-01 ]
      - [ 2.21774101e-01 ]
      - [ -5.07728040e-01 ]
      - [ 9.13804889e-01 ]
      - [ -2.28477120e-01 ]
      - [ 1.06980853e-01 ]
      - [ 9.08451796e-01 ]
      - [ 2.48241976e-01 ]
      - [ 2.94040322e-01 ]
      - [ -1.72287107e+00 ]
      - [ -1.01626801e+00 ]
      - [ -5.00420295e-02 ]
      - [ -1.69075274e+00 ]
      - [ -6.84676170e-01 ]
      - [ 8.02155882e-02 ]
      - [ -1.06771684e+00 ]
      - [ -3.41188610e-01 ]
      - [ -5.44604659e-01 ]
      - [ 1.68940270e+00 ]
      - [ -9.13794935e-02 ]
      - [ 4.04075295e-01 ]
      - [ -7.44451940e-01 ]
      - [ 2.85118550e-01 ]
      - [ -4.19105291e-01 ]
      - [ -5.90700388e-01 ]
      - [ -1.21254671e+00 ]
      - [ -1.30265641e+00 ]
      - [ 1.92523444e+00 ]
      - [ 4.51955378e-01 ]
      - [ 1.49507880e-01 ]
      - [ -1.57090378e+00 ]
      - [ -1.87335134e+00 ]
      - [ -4.93155837e-01 ]
      - [ -8.39446932e-02 ]
      - [ 2.95527279e-01 ]
      - [ 4.08238769e-01 ]
      - [ -1.79110080e-01 ]
      - [ 8.97745728e-01 ]
      - [ -1.62443435e+00 ]
      - [ -3.84437479e-02 ]
      - [ 7.95740306e-01 ]
      - [ -1.61462045e+00 ]
      - [ -5.34493327e-01 ]
      - [ 7.02359259e-01 ]
      - [ 6.39014840e-01 ]
      - [ -3.68251294e-01 ]
      - [ -1.56138730e+00 ]
      - [ 4.58200604e-01 ]
      - [ 4.57011044e-01 ]
      - [ -3.98287863e-01 ]
      - [ -3.20668578e-01 ]
      - [ -3.24959084e-02 ]
      - [ -1.63050920e-01 ]
      - [ -7.05493629e-01 ]
      - [ -1.20749104e+00 ]
      - [ -5.96945584e-01 ]
      - [ 7.69569814e-01 ]
      - [ -3.70927811e-01 ]
      - [ -6.56423986e-01 ]
      - [ -7.68243313e-01 ]
      - [ 5.42362511e-01 ]
      - [ -2.32657647e+00 ]
      - [ -1.22236061e+00 ]
      - [ -7.61105895e-01 ]
      - [ 1.31825781e+00 ]
      - [ -5.46388984e-01 ]
      - [ -5.07728040e-01 ]
      - [ 1.08807647e+00 ]
      - [ 1.14713043e-01 ]
      - [ 4.31732714e-01 ]
      - [ -1.22732660e-02 ]
      - [ 1.23944890e+00 ]
      - [ 9.85178888e-01 ]
      - [ 1.22279501e+00 ]
      - [ -2.05280557e-01 ]
      - [ 2.06309721e-01 ]
      - [ -5.77020347e-01 ]
      - [ -2.01414466e-01 ]
      - [ -2.59108484e-01 ]
      - [ -3.30231905e+00 ]
      - [ 4.66230184e-01 ]
      - [ 7.05630600e-01 ]
      - [ 3.30322117e-01 ]
      - [ -4.45870548e-01 ]
      - [ -1.41328621e+00 ]
      - [ 5.09649396e-01 ]
      - [ -3.28995556e-01 ]
      - [ -3.18884224e-01 ]
      - [ 7.41317630e-01 ]
      - [ -1.80597037e-01 ]
      - [ 2.40760398e+00 ]
      - [ -9.99316752e-01 ]
      - [ -2.72491127e-01 ]
      - [ 1.59245300e+00 ]
      - [ -8.84523511e-01 ]
      - [ 1.16569579e+00 ]
      - [ -1.29743040e-01 ]
      - [ -1.46919584e+00 ]
      - [ -7.65269339e-01 ]
      - [ 2.06012338e-01 ]
      - [ -3.08772922e-01 ]
      - [ 2.25028372e+00 ]
      - [ 7.18418419e-01 ]
      - [ 2.91363776e-01 ]
      - [ -6.10455237e-02 ]
      - [ -9.30619240e-01 ]
      - [ 7.89495111e-01 ]
      - [ -1.61563963e-01 ]
      - [ 9.99751091e-01 ]
      - [ 1.19573236e+00 ]
      - [ 4.76044118e-01 ]
      - [ 6.02903403e-02 ]
      - [ 4.46899712e-01 ]
      - [ -2.12910819e+00 ]
      - [ 1.46533966e-01 ]
      - [ 4.93590236e-01 ]
      - [ 1.97982758e-01 ]
      - [ -8.06904197e-01 ]
      - [ 8.74846518e-01 ]
      - [ 4.90913689e-01 ]
      - [ -1.20511186e+00 ]
      - [ 8.87337029e-01 ]
      - [ -1.28302848e+00 ]
      - [ -1.33906528e-01 ]
      - [ -5.20515919e-01 ]
      - [ 1.39991343e-01 ]
      - [ -1.37177825e-01 ]
      - [ 5.37306845e-01 ]
      - [ -9.05340910e-01 ]
      - [ 7.56187201e-01 ]
      - [ -6.76646590e-01 ]
      - [ -1.33983040e+00 ]
      - [ 5.14110267e-01 ]
      - [ -8.33499134e-02 ]
      - [ -7.39396274e-01 ]
      - [ 9.98264134e-01 ]
      - [ -4.50628817e-01 ]
      - [ 2.95824677e-01 ]
      - [ -1.44094360e+00 ]
      - [ -1.46524003e-02 ]
      - [ -2.15884757e+00 ]
      - [ 1.20733058e+00 ]
      - [ 3.47868234e-01 ]
      - [ -6.59695268e-01 ]
      - [ 2.01802063e+00 ]
      - [ -2.68327624e-01 ]
      - [ 5.45633793e-01 ]
      - [ 1.68838352e-01 ]
      - [ -1.22265804e+00 ]
      - [ 7.57971585e-01 ]
      - [ -1.74904156e+00 ]
      - [ -1.87734440e-01 ]
      - [ 5.04296362e-01 ]
      - [ -1.26667202e+00 ]
      - [ -1.47586539e-01 ]
      - [ 2.09445047e+00 ]
      - [ -2.73085892e-01 ]
      - [ -1.56792986e+00 ]
      - [ 3.41028214e-01 ]
      - [ 2.90424824e+00 ]
      - [ 7.39533246e-01 ]
      - [ 1.28970814e+00 ]
      - [ -1.03530109e+00 ]
      - [ 4.21621412e-01 ]
      - [ -1.45967925e+00 ]
      - [ -1.55424988e+00 ]
      - [ 6.81839228e-01 ]
      - [ 6.91058397e-01 ]
      - [ 1.13523476e-01 ]
      - [ 2.09117913e+00 ]
      - [ -1.54129162e-01 ]
      - [ -8.64895642e-01 ]
      - [ -3.64385188e-01 ]
      - [ -8.98798287e-01 ]
      - [ 6.97601020e-01 ]
      - [ 4.43925798e-01 ]
      - [ -7.26013660e-01 ]
      - [ -1.94799662e+00 ]
      - [ 8.28156054e-01 ]
      - [ -7.26608455e-01 ]
      - [ 9.23916221e-01 ]
      - [ -1.73833537e+00 ]
      - [ -1.24288058e+00 ]
      - [ -2.05684209e+00 ]
      - [ 8.09420347e-01 ]
      - [ 6.66969657e-01 ]
      - [ -2.00985408e+00 ]
      - [ -1.97548375e-01 ]
      - [ -3.50705177e-01 ]
      - [ -1.21416062e-01 ]
      - [ 1.71854711e+00 ]
      - [ 9.20347512e-01 ]
      - [ 2.57163733e-01 ]
      - [ 1.51929462e+00 ]
      - [ -2.40372792e-01 ]
      - [ -5.84455132e-01 ]
      - [ -1.11007355e-01 ]
      - [ -1.27589118e+00 ]
      - [ -1.23455369e+00 ]
      - [ -1.62158743e-01 ]
      - [ 4.19539660e-01 ]
      - [ 2.87668053e-02 ]
      - [ -1.26696932e+00 ]
      - [ -7.63187647e-01 ]
      - [ -3.34943384e-01 ]
      - [ 5.96955568e-02 ]
      - [ 6.13736510e-01 ]
      - [ 5.36117256e-01 ]
      - [ 5.05188525e-01 ]
      - [ 1.64776790e+00 ]
      - [ 6.23253047e-01 ]
      - [ -1.23366153e+00 ]
      - [ 9.18265760e-01 ]
      - [ 1.21863151e+00 ]
      - [ -6.83486640e-01 ]
      - [ -3.82526100e-01 ]
      - [ -9.89205420e-01 ]
      - [ 2.20091677e+00 ]
      - [ 8.31129968e-01 ]
      - [ 9.53357995e-01 ]
      - [ 6.77080989e-01 ]
      - [ -6.10455237e-02 ]
      - [ 9.41759706e-01 ]
      - [ 1.31230986e+00 ]
      - [ 4.89426732e-01 ]
      - [ 4.36363965e-02 ]
      - [ 3.22589934e-01 ]
      - [ -1.17252581e-01 ]
      - [ -2.54350215e-01 ]
      - [ -2.29793712e-02 ]
      - [ -6.98356211e-01 ]
      - [ 5.36117256e-01 ]
      - [ -1.22444236e+00 ]
      - [ 1.35840571e+00 ]
      - [ -1.94740188e+00 ]
      - [ 1.35751343e+00 ]
      - [ -2.67138064e-01 ]
      - [ 1.09253740e+00 ]
      - [ -2.09877419e+00 ]
      - [ -8.54316577e-02 ]
      - [ -1.40228260e+00 ]
      - [ 5.30764222e-01 ]
      - [ 5.46525955e-01 ]
      - [ 1.08391297e+00 ]
      - [ -8.23558152e-01 ]
      - [ 8.18936884e-01 ]
      - [ -9.19913113e-01 ]
      - [ -6.58505678e-01 ]
      - [ 6.97898388e-01 ]
      - [ -5.94269037e-01 ]
      - [ 2.17313215e-01 ]
      - [ 2.86308140e-01 ]
      - [ 1.12168181e+00 ]
      - [ -1.81357551e+00 ]
      - [ 7.77599394e-01 ]
      - [ 4.81397152e-01 ]
      - [ -7.29582369e-01 ]
      - [ 1.67423582e+00 ]
      - [ -7.09359705e-01 ]
      - [ 1.45641789e-01 ]
      - [ 1.48212063e+00 ]
      - [ -1.33120596e+00 ]
      - [ 1.64972261e-01 ]
      - [ 8.30237746e-01 ]
      - [ -2.00063491e+00 ]
      - [ -1.90113574e-01 ]
      - [ -1.75647628e+00 ]
      - [ -4.12265271e-01 ]
      - [ 1.13446963e+00 ]
      - [ 8.67411733e-01 ]
      - [ -3.73009562e-01 ]
      - [ -4.62821871e-01 ]
      - [ 6.62508786e-01 ]
      - [ -1.86842263e-01 ]
      - [ -1.27363905e-01 ]
      - [ -1.12196922e-01 ]
      - [ 8.68303955e-01 ]
      - [ -3.68548661e-01 ]
      - [ -1.23901451e+00 ]
      - [ -1.95169240e-01 ]
      - [ -1.74220157e+00 ]
      - [ -1.80614078e+00 ]
      - [ 7.32693255e-01 ]
      - [ 1.06458259e+00 ]
      - [ 2.64598519e-01 ]
      - [ -8.86010468e-01 ]
      - [ -2.13310137e-01 ]
      - [ -1.23990667e+00 ]
      - [ -1.79900336e+00 ]
      - [ -1.38652086e+00 ]
      - [ -1.66071618e+00 ]
      - [ 1.04006939e-01 ]
      - [ -7.85194635e-01 ]
      - [ -6.50476098e-01 ]
      - [ 9.72093701e-01 ]
      - [ -7.43262351e-01 ]
      - [ 2.01254070e-01 ]
      - [ 8.82451683e-02 ]
      - [ -5.16352415e-01 ]
      - [ 1.75839770e+00 ]
      - [ 7.82060325e-01 ]
      - [ -1.09626651e+00 ]
      - [ 1.03335643e+00 ]
      - [ 6.22658253e-01 ]
      - [ -1.67023265e+00 ]
      - [ -5.87726474e-01 ]
      - [ 2.47349799e-01 ]
      - [ 1.05417383e+00 ]
      - [ -3.97990465e-01 ]
      - [ -7.17686653e-01 ]
      - [ 2.53934860e+00 ]
      - [ 7.27042794e-01 ]
      - [ -6.23116076e-01 ]
      - [ -8.79170418e-01 ]
      - [ -1.05356909e-01 ]
      - [ -7.34638035e-01 ]
      - [ -3.55166048e-01 ]
      - [ 1.63676441e+00 ]
      - [ 1.76273152e-01 ]
      - [ -7.11441457e-01 ]
      - [ 2.77683765e-01 ]
      - [ 4.42438841e-01 ]
      - [ 1.34591520e+00 ]
      - [ 8.06149006e-01 ]
      - [ -9.69577551e-01 ]
      - [ -2.19156051e+00 ]
      - [ 1.06279814e+00 ]
      - [ -4.59550560e-01 ]
      - [ 6.55966163e-01 ]
      - [ 7.24663675e-01 ]
      - [ 1.51887015e-01 ]
      - [ -8.98500919e-01 ]
      - [ -3.81463543e-02 ]
      - [ 3.29302922e-02 ]
      - [ 1.01699984e+00 ]
      - [ -1.97250977e-01 ]
      - [ 9.73372906e-03 ]
      - [ 3.35377783e-01 ]
      - [ -8.41104269e-01 ]
      - [ 7.71354198e-01 ]
      - [ 4.80207592e-01 ]
      - [ 2.38410997e+00 ]
      - [ 1.31664380e-01 ]
      - [ -3.35835576e-01 ]
      - [ 1.15142095e+00 ]
      - [ 1.41775697e-01 ]
      - [ -2.54647613e-01 ]
      - [ -1.72614241e+00 ]
      - [ -8.58650386e-01 ]
      - [ 1.28346288e+00 ]
      - [ -6.72907531e-02 ]
      - [ -7.45046735e-01 ]
      - [ 4.59092766e-01 ]
      - [ -1.94591486e+00 ]
      - [ -4.63416666e-01 ]
      - [ 8.89716148e-01 ]
      - [ -2.25847363e+00 ]
      - [ 5.54555535e-01 ]
      - [ 9.30034369e-02 ]
      - [ 4.05264854e-01 ]
      - [ -6.49116188e-02 ]
      - [ -1.41536784e+00 ]
      - [ -7.08467543e-01 ]
      - [ -4.80962783e-01 ]
      - [ -2.27584943e-01 ]
      - [ 2.09283650e-01 ]
      - [ 4.04075295e-01 ]
      - [ -2.23845877e-02 ]
      - [ -1.18578136e+00 ]
      - [ 1.54992604e+00 ]
      - [ -2.08539176e+00 ]
      - [ -1.51618373e+00 ]
      - [ 6.56263530e-01 ]
      - [ 4.14483994e-01 ]
      - [ -2.35453129e+00 ]
      - [ 6.47936583e-01 ]
      - [ 1.83410555e-01 ]
      - [ 5.51581621e-01 ]
      - [ -2.95219924e-02 ]
      - [ 7.93063819e-01 ]
      - [ 8.11974285e-04 ]
      - [ -8.46754730e-01 ]
      - [ -2.39914012e+00 ]
      - [ -2.07064912e-01 ]
      - [ -1.16407180e+00 ]
      - [ -6.28469110e-01 ]
      - [ 2.04398353e-02 ]
      - [ -3.54571253e-01 ]
      - [ 3.24671686e-01 ]
      - [ -7.87573755e-01 ]
      - [ -6.37220517e-02 ]
      - [ -7.89358079e-01 ]
      - [ -5.69288135e-01 ]
      - [ 1.45238149e+00 ]
      - [ 5.70614696e-01 ]
      - [ 4.30543154e-01 ]
      - [ 3.99019629e-01 ]
      - [ 1.46963024e+00 ]
      - [ -1.53224289e+00 ]
      - [ -4.16428745e-01 ]
      - [ 1.40985441e+00 ]
      - [ -1.18280745e+00 ]
      - [ 9.34324920e-01 ]
      - [ -5.65124691e-01 ]
      - [ -1.15782654e+00 ]
      - [ 8.48081291e-01 ]
      - [ -4.61929709e-01 ]
      - [ 3.01785207e+00 ]
      - [ 2.41384935e+00 ]
      - [ 8.62653494e-01 ]
      - [ -2.16194405e-03 ]
      - [ -7.26608455e-01 ]
      - [ -2.41689384e-02 ]
      - [ 1.02651632e+00 ]
      - [ -3.54571253e-01 ]
      - [ -2.50186712e-01 ]
      - [ -6.84378803e-01 ]
      - [ 9.28079665e-01 ]
      - [ -1.88673389e+00 ]
      - [ -7.59321511e-01 ]
      - [ -1.04154634e+00 ]
      - [ -8.97608757e-01 ]
      - [ -1.13433266e+00 ]
      - [ -1.77623123e-01 ]
      - [ -5.47281146e-01 ]
      - [ -1.03173244e+00 ]
      - [ 1.29476380e+00 ]
      - [ -2.51376301e-01 ]
      - [ 2.75007248e-01 ]
      - [ 7.47562826e-01 ]
      - [ 1.48913100e-01 ]
      - [ 6.02903403e-02 ]
      - [ 8.87337029e-01 ]
      - [ 1.60808772e-01 ]
      - [ 4.91211087e-01 ]
      - [ 6.23720810e-02 ]
      - [ 1.86159265e+00 ]
      - [ 4.36490983e-01 ]
      - [ -3.54868650e-01 ]
      - [ 9.13894549e-03 ]
      - [ -4.05127853e-01 ]
      - [ 1.91928661e+00 ]
      - [ -1.90160358e+00 ]
      - [ -1.67350399e+00 ]
      - [ 3.70767415e-01 ]
      - [ -1.47900975e+00 ]
      - [ -6.32929981e-01 ]
      - [ -1.30932599e-01 ]
      - [ -7.73001552e-01 ]
      - [ -4.03046131e-01 ]
      - [ 2.09283650e-01 ]
      - [ -1.29135549e+00 ]
      - [ 1.21268368e+00 ]
      - [ -1.61640477e+00 ]
      - [ 1.41431534e+00 ]
      - [ 1.32271862e+00 ]
      - [ -1.70473015e+00 ]
      - [ 7.74625480e-01 ]
      - [ 2.17313215e-01 ]
      - [ -1.38800788e+00 ]
      - [ 1.46041107e+00 ]
      - [ -4.03938293e-01 ]
      - [ 5.22734642e-01 ]
      - [ 1.77029335e+00 ]
      - [ 5.01917183e-01 ]
      - [ -9.18128788e-01 ]
      - [ -8.77386093e-01 ]
      - [ -2.73680687e-01 ]
      - [ -4.72635806e-01 ]
      - [ -3.51299942e-01 ]
      - [ -7.22147524e-01 ]
      - [ -4.16428745e-01 ]
      - [ 4.04967457e-01 ]
      - [ 1.01627804e-01 ]
      - [ -4.97616738e-01 ]
      - [ -1.05356909e-01 ]
      - [ -8.30525234e-02 ]
      - [ -6.06462121e-01 ]
      - [ 8.16260338e-01 ]
      - [ -1.10161948e+00 ]
      - [ 1.55052078e+00 ]
      - [ 8.62950861e-01 ]
      - [ -1.02977775e-01 ]
      - [ 1.12435830e+00 ]
      - [ 7.25258470e-01 ]
      - [ 8.76630902e-01 ]
      - [ -8.04822505e-01 ]
      - [ -1.18994486e+00 ]
      - [ -1.17120922e+00 ]
      - [ 1.75363934e+00 ]
      - [ -2.95687675e-01 ]
      - [ 1.36422649e-01 ]
      - [ -1.13403523e+00 ]
      - [ 1.01033017e-01 ]
      - [ -4.00072217e-01 ]
      - [ 3.48463029e-01 ]
      - [ -5.91889918e-01 ]
      - [ 6.46746993e-01 ]
      - [ -1.51112807e+00 ]
      - [ 6.51207924e-01 ]
      - [ 1.59619212e-01 ]
      - [ -9.23779190e-01 ]
      - [ 4.47791874e-01 ]
      - [ -2.07064912e-01 ]
      - [ 7.16039300e-01 ]
      - [ 5.70614696e-01 ]
      - [ -4.49863672e-02 ]
      - [ -3.23956943e+00 ]
      - [ -1.97386968e+00 ]
      - [ 7.96632469e-01 ]
      - [ 1.34638295e-01 ]
      - [ -6.60290062e-01 ]
      - [ -3.19011249e-02 ]
      - [ -1.62753522e-01 ]
      - [ 6.23720810e-02 ]
      - [ -7.16794491e-01 ]
      - [ 9.62279737e-01 ]
      - [ -5.28248072e-01 ]
      - [ 1.27500892e-01 ]
      - [ 1.35233074e-01 ]
      - [ -9.88907993e-01 ]
      - [ 4.85858053e-01 ]
      - [ -1.24347544e+00 ]
      - [ 2.23558456e-01 ]
      - [ 1.21179152e+00 ]
      - [ -1.01490811e-01 ]
      - [ -1.64049351e+00 ]
      - [ 5.18571138e-01 ]
      - [ 9.20347512e-01 ]
      - [ -8.79467845e-01 ]
      - [ 7.66893327e-01 ]
      - [ 8.23695123e-01 ]
      - [ -1.22903027e-01 ]
      - [ 2.13162446e+00 ]
      - [ 2.29875851e+00 ]
      - [ 3.29302922e-02 ]
      - [ 1.17686965e-01 ]
      - [ -9.39838350e-01 ]
      - [ -1.51826549e+00 ]
      - [ -6.63561344e-01 ]
      - [ -2.81608343e+00 ]
      - [ 5.17976344e-01 ]
      - [ -8.59542549e-01 ]
      - [ -9.48165357e-01 ]
      - [ 5.03701568e-01 ]
      - [ -1.97149062e+00 ]
      - [ 1.98263109e+00 ]
      - [ 1.90114570e+00 ]
      - [ 1.64674863e-01 ]
      - [ 6.36933088e-01 ]
      - [ -1.16436923e+00 ]
      - [ 2.21905756e+00 ]
      - [ -1.87840700e+00 ]
      - [ 1.09521389e+00 ]
      - [ 7.87115932e-01 ]
      - [ 1.05476856e+00 ]
      - [ -8.10770333e-01 ]
      - [ 8.72170031e-01 ]
      - [ -3.01932901e-01 ]
      - [ 6.87787116e-01 ]
      - [ 5.51879048e-01 ]
      - [ -2.47110891e+00 ]
      - [ -4.19997454e-01 ]
      - [ -1.87275648e+00 ]
      - [ 3.07720333e-01 ]
      - [ -1.88031837e-01 ]
      - [ -4.88694966e-01 ]
      - [ -9.48760092e-01 ]
      - [ -4.04830486e-01 ]
      - [ -1.22605629e-01 ]
      - [ 1.88746572e+00 ]
      - [ 6.28606141e-01 ]
      - [ -5.80291629e-01 ]
      - [ 3.72254372e-01 ]
      - [ 8.11502099e-01 ]
      - [ -1.04095161e+00 ]
      - [ -3.02812386e+00 ]
      - [ 3.05511560e-02 ]
      - [ 1.65906882e+00 ]
      - [ 8.82451683e-02 ]
      - [ -1.28553465e-01 ]
      - [ -3.10259879e-01 ]
      - [ -9.68090594e-01 ]
      - [ -2.05208373e+00 ]
      - [ -3.90385315e-02 ]
      - [ -4.62821871e-01 ]
      - [ -6.78133547e-01 ]
      - [ -5.86536884e-01 ]
      - [ -2.28774518e-01 ]
      - [ 6.94329739e-01 ]
      - [ -5.00293255e-01 ]
      - [ 2.37111449e-02 ]
      - [ 2.91958570e-01 ]
      - [ 1.93266928e+00 ]
      - [ -1.67885709e+00 ]
      - [ -7.31366694e-01 ]
      - [ -1.54146206e+00 ]
      - [ -1.67511791e-01 ]
      - [ -3.21858168e-01 ]
      - [ 1.79705858e+00 ]
      - [ -2.98193842e-02 ]
      - [ 1.80687249e+00 ]
      - [ -1.09448206e+00 ]
      - [ 1.24526970e-01 ]
      - [ 8.20126474e-01 ]
      - [ 2.09980345e+00 ]
      - [ 3.19110882e-03 ]
      - [ 1.01610768e+00 ]
      - [ 7.66468868e-02 ]
      - [ 2.70546347e-01 ]
      - [ -2.27929115e+00 ]
      - [ -5.09342030e-02 ]
      - [ -3.41056967e+00 ]
      - [ 9.81907606e-01 ]
      - [ 1.94116667e-01 ]
      - [ -1.74993372e+00 ]
      - [ 1.44762325e+00 ]
      - [ -1.09031868e+00 ]
      - [ 4.03480500e-01 ]
      - [ 3.77904803e-01 ]
      - [ 4.36363965e-02 ]
      - [ -8.22963357e-01 ]
      - [ -3.42080802e-01 ]
      - [ -4.16428745e-01 ]
      - [ 2.41890478e+00 ]
      - [ 9.08749223e-01 ]
      - [ 1.72895586e+00 ]
      - [ -1.52421331e+00 ]
      - [ 4.51360583e-01 ]
      - [ 6.18197381e-01 ]
      - [ 6.25037432e-01 ]
      - [ -1.15009439e+00 ]
      - [ -6.25197828e-01 ]
      - [ -6.96571827e-01 ]
      - [ -4.15833980e-01 ]
      - [ 6.12546980e-01 ]
      - [ -1.95169240e-01 ]
      - [ 1.46100581e+00 ]
      - [ -1.90041399e+00 ]
      - [ -2.13178492e+00 ]
      - [ -1.64703608e+00 ]
      - [ -1.52807939e+00 ]
      - [ -7.83410251e-01 ]
      - [ 3.40136051e-01 ]
      - [ -2.63866752e-01 ]
      - [ 6.73809648e-01 ]
      - [ 7.86521196e-01 ]
      - [ 4.48981464e-01 ]
      - [ 5.26898086e-01 ]
      - [ -1.50012457e+00 ]
      - [ -1.06236374e+00 ]
      - [ -1.42726362e+00 ]
      - [ 1.36197436e+00 ]
      - [ 4.55524087e-01 ]
      - [ 4.88534570e-01 ]
      - [ -1.11500216e+00 ]
      - [ 8.55813444e-01 ]
      - [ -8.59542549e-01 ]
      - [ -1.00199330e+00 ]
      - [ -9.01899263e-02 ]
      - [ -5.36575079e-01 ]
      - [ -6.14789128e-01 ]
      - [ 3.45786482e-01 ]
      - [ -1.95169240e-01 ]
      - [ -4.73825365e-01 ]
      - [ -1.19440579e+00 ]
      - [ -9.19020951e-01 ]
      - [ 9.84286726e-01 ]
      - [ -5.89510798e-01 ]
      - [ -1.33120596e+00 ]
      - [ -1.12196922e-01 ]
      - [ 1.48020923e-01 ]
      - [ 9.35514450e-01 ]
      - [ -9.54410553e-01 ]
      - [ -7.23931909e-01 ]
      - [ 5.98866940e-01 ]
      - [ 4.99240667e-01 ]
      - [ -2.77474594e+00 ]
      - [ -3.37917328e-01 ]
      - [ -7.01032758e-01 ]
      - [ 2.99690753e-01 ]
      - [ -3.29666853e+00 ]
      - [ 5.43425009e-02 ]
      - [ -1.57417512e+00 ]
      - [ -7.15307534e-01 ]
      - [ 1.56598520e+00 ]
      - [ 1.00302243e+00 ]
      - [ 7.99011648e-01 ]
      - [ -3.90385315e-02 ]
      - [ 5.28682470e-01 ]
      - [ -8.73520017e-01 ]
      - [ -1.11529958e+00 ]
      - [ 4.89724129e-01 ]
      - [ 7.22284555e-01 ]
      - [ -1.77342761e+00 ]
      - [ 7.93063819e-01 ]
      - [ 1.99469715e-01 ]
      - [ 2.07372271e-02 ]
      - [ 3.49652588e-01 ]
      - [ -1.89221397e-01 ]
      - [ 4.77531075e-01 ]
      - [ 7.05333233e-01 ]
      - [ 8.91500473e-01 ]
      - [ -3.18871546e+00 ]
      - [ -5.90700388e-01 ]
      - [ 2.13744521e-01 ]
      - [ 4.26974446e-01 ]
      - [ 3.96937877e-01 ]
      - [ 1.15915310e+00 ]
      - [ -1.00526452e+00 ]
      - [ 9.20942307e-01 ]
      - [ 5.34927666e-01 ]
      - [ 2.56271541e-01 ]
      - [ 1.43857434e-01 ]
      - [ 2.17355657e+00 ]
      - [ -1.33609131e-01 ]
      - [ -1.40287745e+00 ]
      - [ 7.54402876e-01 ]
      - [ 1.18876532e-01 ]
      - [ -1.40495920e+00 ]
      - [ -3.11449438e-01 ]
      - [ 1.24824367e-01 ]
      - [ 1.80508816e+00 ]
      - [ -1.30771208e+00 ]
      - [ 6.95519269e-01 ]
      - [ 6.83028817e-01 ]
      - [ 5.01917183e-01 ]
      - [ 5.84294736e-01 ]
      - [ -6.92021335e-03 ]
      - [ -2.63866752e-01 ]
      - [ 6.55371368e-01 ]
      - [ -1.15871871e+00 ]
      - [ 8.54921281e-01 ]
      - [ -6.09733462e-01 ]
      - [ 1.36435354e+00 ]
      - [ 7.71948993e-01 ]
      - [ 1.01402593e+00 ]
      - [ 5.59908628e-01 ]
      - [ 2.79468119e-01 ]
      - [ 3.90395254e-01 ]
      - [ -1.24377286e+00 ]
      - [ 1.25312901e+00 ]
      - [ 2.76791573e-01 ]
      - [ -3.07243514e+00 ]
      - [ 1.80865693e+00 ]
      - [ 1.02027118e+00 ]
      - [ 2.60732442e-01 ]
      - [ -1.44612625e-01 ]
      - [ 1.57240078e-01 ]
      - [ 8.87337029e-01 ]
      - [ 2.89579421e-01 ]
      - [ 1.82709515e+00 ]
      - [ -2.15408921e+00 ]
      - [ -1.13641441e+00 ]
      - [ 8.97745728e-01 ]
      - [ 4.90021527e-01 ]
      - [ 7.16039300e-01 ]
      - [ -9.46508050e-02 ]
      - [ 2.26532370e-01 ]
      - [ -7.28690147e-01 ]
      - [ 1.73103762e+00 ]
      - [ 2.40509778e-01 ]
      - [ -1.82874250e+00 ]
      - [ 2.72798464e-02 ]
      - [ 1.33520913e+00 ]
      - [ -3.95611316e-01 ]
      - [ 3.40730816e-01 ]
      - [ -4.64903623e-01 ]
      - [ -9.88610625e-01 ]
      - [ -1.42339742e+00 ]
      - [ 5.91007732e-02 ]
      - [ 4.95077193e-01 ]
      - [ -1.38711572e+00 ]
      - [ -1.07901776e+00 ]
      - [ 3.00285548e-01 ]
      - [ -4.06020045e-01 ]
      - [ 1.35827869e-01 ]
      - [ -4.75609720e-01 ]
      - [ -3.99774820e-01 ]
      - [ -3.43567759e-01 ]
      - [ 7.19310641e-01 ]
      - [ -5.55310726e-01 ]
      - [ -7.07872748e-01 ]
      - [ -1.20332754e+00 ]
      - [ -1.45492101e+00 ]
      - [ -1.10489082e+00 ]
      - [ -8.15231204e-01 ]
      - [ -1.15574479e+00 ]
      - [ -1.86383474e+00 ]
      - [ 5.74480832e-01 ]
      - [ 2.84821153e-01 ]
      - [ -9.60655808e-01 ]
      - [ -2.37101480e-01 ]
      - [ -1.84837043e+00 ]
      - [ -1.08020735e+00 ]
      - [ 9.59773585e-02 ]
      - [ -1.94948363e+00 ]
      - [ 9.08749223e-01 ]
      - [ 2.52405465e-01 ]
      - [ -1.92492709e-01 ]
      - [ 4.00803983e-01 ]
      - [ 5.01917183e-01 ]
      - [ -9.62737560e-01 ]
      - [ -5.86239517e-01 ]
      - [ 8.62058699e-01 ]
      - [ -9.34485316e-01 ]
      - [ 8.23695123e-01 ]
      - [ 2.25937590e-01 ]
      - [ -3.51894736e-01 ]
      - [ -1.82381392e-01 ]
      - [ -8.83928716e-01 ]
      - [ -1.20540929e+00 ]
      - [ -8.46754730e-01 ]
      - [ 1.28019166e+00 ]
      - [ -1.44183576e+00 ]
      - [ -1.36778522e+00 ]
      - [ 4.11510080e-01 ]
      - [ 9.82799768e-01 ]
      - [ 9.95587647e-01 ]
      - [ -2.76285028e+00 ]
      - [ -4.00369585e-01 ]
      - [ 1.49805278e-01 ]
      - [ 3.06233376e-01 ]
      - [ -1.48703933e+00 ]
      - [ 5.53663373e-01 ]
      - [ -8.18205118e-01 ]
      - [ 3.05935979e-01 ]
      - [ 1.34935692e-01 ]
      - [ -1.22355020e+00 ]
      - [ -6.86757922e-01 ]
      - [ -2.04388380e-01 ]
      - [ -2.09044743e+00 ]
      - [ -4.72338408e-01 ]
      - [ 3.10099483e-01 ]
      - [ -6.78133547e-01 ]
      - [ 1.07278250e-01 ]
      - [ 1.07855999e+00 ]
      - [ -1.78205204e+00 ]
      - [ -5.53228974e-01 ]
      - [ -1.09864557e+00 ]
      - [ 1.10889387e+00 ]
      - [ -2.12791872e+00 ]
      - [ 1.37387002e+00 ]
      - [ 1.07290947e+00 ]
      - [ -4.27432239e-01 ]
      - [ 8.38267326e-01 ]
      - [ 2.22292376e+00 ]
      - [ -1.98636019e+00 ]
      - [ 4.42736238e-01 ]
      - [ 3.21995139e-01 ]
      - [ -3.00445944e-01 ]
      - [ 7.10091472e-01 ]
      - [ -1.66101348e+00 ]
      - [ -2.62506809e-02 ]
      - [ -9.94558454e-01 ]
      - [ -8.15825999e-01 ]
      - [ -1.33507216e+00 ]
      - [ -1.49120283e+00 ]
      - [ -1.07158291e+00 ]
      - [ -4.72041041e-01 ]
      - [ -4.25945282e-01 ]
      - [ -1.81089902e+00 ]
      - [ -3.94719154e-01 ]
      - [ -1.53610897e+00 ]
      - [ -5.80886424e-01 ]
      - [ 2.50455379e+00 ]
      - [ 1.77980983e+00 ]
      - [ 1.30874121e+00 ]
      - [ -8.35156441e-01 ]
      - [ 5.31656384e-01 ]
      - [ 2.77981162e-01 ]
      - [ 6.80225268e-02 ]
      - [ 1.27156723e+00 ]
      - [ -5.44009864e-01 ]
      - [ -1.53551424e+00 ]
      - [ -1.29343724e+00 ]
      - [ 2.28953934e+00 ]
      - [ -2.78141558e-01 ]
      - [ 6.56433925e-02 ]
      - [ -4.79602851e-02 ]
      - [ 5.75670362e-01 ]
      - [ -2.39557123e+00 ]
      - [ 2.71438539e-01 ]
      - [ 5.58294617e-02 ]
      - [ -2.13951707e+00 ]
      - [ -1.44867575e+00 ]
      - [ 2.73817658e-01 ]
      - [ -6.62669182e-01 ]
      - [ 3.22887331e-01 ]
      - [ 1.01627804e-01 ]
      - [ 5.25411129e-01 ]
      - [ 1.32836902e+00 ]
      - [ -1.20065105e+00 ]
      - [ -9.17831361e-01 ]
      - [ -2.20871959e-02 ]
      - [ 2.13013744e+00 ]
      - [ -2.18663186e-01 ]
      - [ 2.72033304e-01 ]
      - [ -9.89205420e-01 ]
      - [ 2.56271541e-01 ]
      - [ -2.23557448e+00 ]
      - [ 2.14500713e+00 ]
      - [ 4.73664969e-01 ]
      - [ 7.75220275e-01 ]
      - [ 2.28316724e-01 ]
      - [ -1.32882690e+00 ]
      - [ 1.05209208e+00 ]
      - [ -9.24671412e-01 ]
      - [ 1.86010563e+00 ]
      - [ -1.66619629e-01 ]
      - [ -1.00823843e+00 ]
      - [ -1.05730808e+00 ]
      - [ 5.49202502e-01 ]
      - [ 2.28121257e+00 ]
      - [ 7.11875856e-01 ]
      - [ -1.07366467e+00 ]
      - [ -9.02961791e-01 ]
      - [ -3.84607822e-01 ]
      - [ -5.13586216e-03 ]
      - [ 8.65627408e-01 ]
      - [ -6.78728342e-01 ]
      - [ -9.00582671e-01 ]
      - [ 6.53460026e-02 ]
      - [ 2.19972706e+00 ]
      - [ 8.04662049e-01 ]
      - [ -9.84447122e-01 ]
      - [ -8.63408685e-01 ]
      - [ 7.18121052e-01 ]
      - [ 1.57537460e-01 ]
      - [ 2.61327207e-01 ]
      - [ 5.28087676e-01 ]
      - [ 5.89052975e-01 ]
      - [ -5.20813286e-01 ]
      - [ 8.79902184e-01 ]
      - [ -2.06002370e-02 ]
      - [ 1.67512798e+00 ]
      - [ 1.54338336e+00 ]
      - [ 7.29124546e-01 ]
      - [ -9.72848833e-01 ]
      - [ 9.07262266e-01 ]
      - [ -7.26438090e-02 ]
      - [ 1.17907834e+00 ]
      - [ 9.50851813e-02 ]
      - [ 1.19186628e+00 ]
      - [ -1.06979859e+00 ]
      - [ -1.86948526e+00 ]
      - [ -9.20805275e-01 ]
      - [ -4.99698460e-01 ]
      - [ 2.72925496e-01 ]
      - [ -2.92246006e-02 ]
      - [ 7.69272447e-01 ]
      - [ 4.76936281e-01 ]
      - [ 2.59245455e-01 ]
      - [ -1.65447092e+00 ]
      - [ -1.84450424e+00 ]
      - [ 3.51139545e-01 ]
      - [ 2.95229882e-01 ]
      - [ 4.04075295e-01 ]
      - [ 3.09207290e-01 ]
      - [ -3.08178127e-01 ]
      - [ 1.63587224e+00 ]
      - [ 3.38224657e-02 ]
      - [ 1.77633092e-02 ]
      - [ -4.63416666e-01 ]
      - [ 6.05706930e-01 ]
      - [ 1.63782701e-01 ]
      - [ -1.13581955e+00 ]
      - [ -1.43083227e+00 ]
      - [ 1.56347901e-01 ]
      - [ 1.03484333e+00 ]
      - [ -2.23141098e+00 ]
      - [ -1.55395246e+00 ]
      - [ 5.60205996e-01 ]
      - [ -3.52489501e-01 ]
      - [ -8.55973899e-01 ]
      - [ 2.34137531e-02 ]
      - [ 1.13506436e+00 ]
      - [ 6.39907002e-01 ]
      - [ -1.83320343e+00 ]
      - [ -4.50034022e-01 ]
      - [ -4.70554054e-01 ]
      - [ -1.09061599e+00 ]
      - [ -3.48623425e-01 ]
      - [ -1.60450912e+00 ]
      - [ -8.69186148e-02 ]
      - [ 6.41096592e-01 ]
      - [ 6.68329597e-02 ]
      - [ -1.56210914e-01 ]
      - [ 2.04398353e-02 ]
      - [ 4.61471915e-01 ]
      - [ 1.52732420e+00 ]
      - [ 8.05851638e-01 ]
      - [ 2.29803681e-01 ]
      - [ 3.66051579e+00 ]
      - [ 8.12691629e-01 ]
      - [ -1.02489245e+00 ]
      - [ 4.05562252e-01 ]
      - [ 5.25581501e-02 ]
      - [ 1.14415653e-01 ]
      - [ -1.03572555e-01 ]
      - [ 2.12210774e+00 ]
      - [ 1.18281744e-01 ]
      - [ -8.18799913e-01 ]
      - [ -1.05654299e-01 ]
      - [ -1.60748303e+00 ]
      - [ -1.18102312e+00 ]
      - [ -1.59618211e+00 ]
      - [ -5.41928113e-01 ]
      - [ -2.35019743e-01 ]
      - [ 1.69433132e-01 ]
      - [ 1.63408792e+00 ]
      - [ 3.89800489e-01 ]
      - [ 9.29864049e-01 ]
      - [ 9.85773683e-01 ]
      - [ 8.36780369e-01 ]
      - [ 1.17194092e+00 ]
      - [ 5.73164225e-02 ]
      - [ -8.52702558e-01 ]
      - [ 1.09657384e-01 ]
      - [ 8.38267326e-01 ]
      - [ -7.37017155e-01 ]
      - [ 6.30985260e-01 ]
      - [ -1.08853424e+00 ]
      - [ 5.19760728e-01 ]
      - [ -1.16050315e+00 ]
      - [ 1.11246264e+00 ]
      - [ 2.81847239e-01 ]
      - [ 1.36720031e-01 ]
      - [ -5.11296749e-01 ]
      - [ 8.48676085e-01 ]
      - [ 2.90514064e+00 ]
      - [ -1.52956641e+00 ]
      - [ -6.13302171e-01 ]
      - [ -1.93164015e+00 ]
      - [ 5.86971283e-01 ]
      - [ -6.71293557e-01 ]
      - [ 8.22973326e-02 ]
      - [ -5.28545499e-01 ]
      - [ -2.06516910e+00 ]
      - [ -1.11410999e+00 ]
      - [ -1.06266117e+00 ]
      - [ -1.02935326e+00 ]
      - [ 1.15112352e+00 ]
      - [ 2.14679146e+00 ]
      - [ 6.57155752e-01 ]
      - [ 2.96589807e-02 ]
      - [ -1.08925611e-01 ]
      - [ 1.00748324e+00 ]
      - [ 4.30543154e-01 ]
      - [ 9.83097196e-01 ]
      - [ 1.04733384e+00 ]
      - [ 1.57537460e-01 ]
      - [ 1.46189797e+00 ]
      - [ -5.94269037e-01 ]
      - [ 5.67938209e-01 ]
      - [ -1.48912108e+00 ]
      - [ -1.47586539e-01 ]
      - [ 2.40509778e-01 ]
      - [ 1.34115696e+00 ]
      - [ -6.86163127e-01 ]
      - [ -8.30992937e-01 ]
      - [ 4.40951884e-01 ]
      - [ 2.37111449e-02 ]
      - [ -8.49431276e-01 ]
      - [ 4.95077193e-01 ]
      - [ -2.94795513e-01 ]
      - [ -1.14474130e+00 ]
      - [ 1.85534739e+00 ]
      - [ -8.66977394e-01 ]
      - [ 7.41912425e-01 ]
      - [ -1.24984771e-01 ]
      - [ 5.75075567e-01 ]
      - [ -1.06414819e+00 ]
      - [ 8.80496979e-01 ]
      - [ 1.07380164e+00 ]
      - [ 1.53565121e+00 ]
      - [ -1.73803806e+00 ]
      - [ -1.66458225e+00 ]
      - [ 4.12572622e-02 ]
      - [ 1.98828149e+00 ]
      - [ 1.60196960e+00 ]
      - [ -1.41150177e+00 ]
      - [ 4.48386669e-01 ]
      - [ 3.68685663e-01 ]
      - [ -2.03793600e-01 ]
      - [ -9.50544477e-01 ]
      - [ -1.56508297e-01 ]
      - [ 7.26745427e-01 ]
      - [ -3.99180025e-01 ]
      - [ -2.31153652e-01 ]
      - [ -6.52557850e-01 ]
      - [ 3.57682168e-01 ]
      - [ 3.62737834e-01 ]
      - [ -1.57209337e+00 ]
      - [ -1.43796968e+00 ]
      - [ -1.90041399e+00 ]
      - [ 6.52992249e-01 ]
      - [ -1.14176738e+00 ]
      - [ 4.84371066e-01 ]
      - [ -1.07812560e+00 ]
      - [ -1.89119482e+00 ]
      - [ 4.18520458e-02 ]
      - [ 2.72330701e-01 ]
      - [ 4.18520458e-02 ]
      - [ 1.65550005e+00 ]
      - [ 5.83105147e-01 ]
      - [ 1.35245776e+00 ]
      - [ 3.19318622e-01 ]
      - [ 6.84218407e-01 ]
      - [ 5.04296362e-01 ]
      - [ 5.82212985e-01 ]
      - [ -2.92713761e-01 ]
      - [ -1.78978419e+00 ]
      - [ 8.54416192e-03 ]
      - [ -8.63706052e-01 ]
      - [ 4.16863143e-01 ]
      - [ 5.70614696e-01 ]
      - [ -1.30040422e-01 ]
      - [ -1.90963316e+00 ]
      - [ -6.22223914e-01 ]
      - [ 1.65668964e+00 ]
      - [ 1.39082134e+00 ]
      - [ -1.36927211e+00 ]
      - [ 1.02116334e+00 ]
      - [ 2.09283650e-01 ]
      - [ -2.77546763e-01 ]
      - [ 8.26966465e-01 ]
      - [ -6.56721354e-01 ]
      - [ 5.55150330e-01 ]
      - [ 4.45710152e-01 ]
      - [ 1.70308280e+00 ]
      - [ -1.86889040e+00 ]
      - [ 1.83580928e-02 ]
      - [ 2.33074993e-01 ]
      - [ -1.98737934e-01 ]
      - [ -7.64079809e-01 ]
      - [ -1.36391914e+00 ]
      - [ 1.80607010e-02 ]
      - [ -2.20940399e+00 ]
      - [ -2.19257981e-01 ]
      - [ -1.16955191e-01 ]
      - [ -6.43338740e-01 ]
      - [ 1.37612209e-01 ]
      - [ -1.06682467e+00 ]
      - [ -9.02961791e-01 ]
      - [ 3.07720333e-01 ]
      - [ 1.31201255e+00 ]
      - [ -5.16352415e-01 ]
      - [ 4.38572735e-01 ]
      - [ -4.63416666e-01 ]
      - [ -1.39259577e-01 ]
      - [ -3.12936395e-01 ]
      - [ 5.57024358e-03 ]
      - [ 1.89528763e-02 ]
      - [ -1.43559051e+00 ]
      - [ -4.27729636e-01 ]
      - [ -1.18935013e+00 ]
      - [ 5.53663373e-01 ]
      - [ 2.25342795e-01 ]
      - [ 1.64972261e-01 ]
      - [ -7.34340608e-01 ]
      - [ 1.03285126e-02 ]
      - [ 1.26175332e+00 ]
      - [ -9.03853953e-01 ]
      - [ 3.86231780e-01 ]
      - [ 9.95460600e-02 ]
      - [ -6.66832685e-01 ]
      - [ -1.35988265e-01 ]
      - [ -8.56271267e-01 ]
      - [ -1.08466816e+00 ]
      - [ 3.57087374e-01 ]
      - [ 1.70159578e+00 ]
      - [ -7.82942474e-02 ]
      - [ -8.45565140e-01 ]
      - [ -1.07872033e+00 ]
      - [ -1.59261346e+00 ]
      - [ 1.08765207e-01 ]
      - [ -9.60953176e-01 ]
      - [ 6.88084483e-01 ]
      - [ -2.25800589e-01 ]
      - [ 5.96955568e-02 ]
      - [ 9.94695425e-01 ]
      - [ 1.55081820e+00 ]
      - [ 4.27442230e-02 ]
      - [ 3.94558758e-01 ]
      - [ -1.76569545e+00 ]
      - [ 1.33966994e+00 ]
      - [ -1.03869945e-01 ]
      - [ 1.42502141e+00 ]
      - [ 1.17759144e+00 ]
      - [ -1.37492263e+00 ]
      - [ -1.97952020e+00 ]
      - [ -4.73825365e-01 ]
      - [ -4.88694966e-01 ]
      - [ -1.24139369e+00 ]
      - [ -5.47875941e-01 ]
      - [ -2.24611029e-01 ]
      - [ 5.67045987e-01 ]
      - [ 2.59840250e-01 ]
      - [ 1.96924841e+00 ]
      - [ 4.18052703e-01 ]
      - [ 8.37969959e-01 ]
      - [ 5.89350402e-01 ]
      - [ 4.64148432e-01 ]
      - [ -1.55445756e-02 ]
      - [ -9.12775695e-01 ]
      - [ -3.56058210e-01 ]
      - [ 4.69077080e-02 ]
      - [ 2.77981162e-01 ]
      - [ -1.09477949e+00 ]
      - [ 3.11586440e-01 ]
      - [ -6.59695268e-01 ]
      - [ 6.18494809e-01 ]
      - [ 3.13965559e-01 ]
      - [ -1.03976202e+00 ]
      - [ -2.23051882e+00 ]
      - [ 6.85705364e-01 ]
      - [ 2.32433438e+00 ]
      - [ -3.70333016e-01 ]
      - [ 3.35377783e-01 ]
      - [ 6.99682772e-01 ]
      - [ -1.53729856e+00 ]
      - [ 1.45059717e+00 ]
      - [ -1.20392227e+00 ]
      - [ -1.55008638e+00 ]
      - [ 2.17190638e-04 ]
      - [ -1.81786612e-01 ]
      - [ -9.66008842e-01 ]
      - [ -5.66909015e-01 ]
      - [ 1.24361241e+00 ]
      - [ -8.82441759e-01 ]
      - [ 2.45102310e+00 ]
      - [ 6.22955680e-01 ]
      - [ 6.32642582e-02 ]
      - [ -2.10888553e+00 ]
      - [ -8.06012034e-01 ]
      - [ -3.46839070e-01 ]
      - [ -5.65846488e-02 ]
      - [ 3.26753408e-01 ]
      - [ 2.74246716e+00 ]
      - [ -5.38359404e-01 ]
      - [ 2.74115056e-01 ]
      - [ 8.82876098e-01 ]
      - [ -1.23752761e+00 ]
      - [ 2.23481941e+00 ]
      - [ 4.18350101e-01 ]
      - [ 5.16192019e-01 ]
      - [ -1.79110080e-01 ]
      - [ -1.02548718e+00 ]
      - [ 5.25411129e-01 ]
      - [ -1.71080500e-01 ]
      - [ 2.95527279e-01 ]
      - [ -9.99019325e-01 ]
      - [ -6.89137042e-01 ]
      - [ -6.72907531e-02 ]
      - [ -1.91617572e+00 ]
      - [ 5.37477173e-02 ]
      - [ 2.86902905e-01 ]
      - [ -2.08003855e+00 ]
      - [ 6.84515774e-01 ]
      - [ 6.66077495e-01 ]
      - [ 1.39974308e+00 ]
      - [ -3.88473928e-01 ]
      - [ 3.48463029e-01 ]
      - [ 3.86231780e-01 ]
      - [ -6.46015227e-01 ]
      - [ -2.91821569e-01 ]
      - [ -7.20490217e-02 ]
      - [ 1.02711117e+00 ]
      - [ -1.60077006e-01 ]
      - [ -2.91524202e-01 ]
      - [ -7.23039746e-01 ]
      - [ 9.71796274e-01 ]
      - [ 4.37383175e-01 ]
      - [ 7.00872302e-01 ]
      - [ 2.20881924e-01 ]
      - [ 5.87863445e-01 ]
      - [ 1.36125252e-01 ]
      - [ -1.12630308e+00 ]
      - [ 5.51284254e-01 ]
      - [ -9.16641831e-01 ]
      - [ -1.19631715e-01 ]
      - [ -7.79544175e-01 ]
      - [ 9.90829349e-01 ]
      - [ -7.23464116e-02 ]
      - [ -9.68387961e-01 ]
      - [ -6.24603033e-01 ]
      - [ -5.21237701e-02 ]
      - [ -2.52863258e-01 ]
      - [ 3.00880313e-01 ]
      - [ 5.70912123e-01 ]
      - [ -4.73655015e-02 ]
      - [ -6.15086496e-01 ]
      - [ -2.13310137e-01 ]
      - [ -1.00942802e+00 ]
      - [ -1.64168310e+00 ]
      - [ 6.82434022e-01 ]
      - [ -7.71217227e-01 ]
      - [ 2.87200302e-01 ]
      - [ 4.61471915e-01 ]
      - [ 4.71583247e-01 ]
      - [ 2.17610613e-01 ]
      - [ -1.23157978e+00 ]
      - [ 3.03556859e-01 ]
      - [ 9.77149308e-01 ]
      - [ -4.27729636e-01 ]
      - [ -3.95908713e-01 ]
      - [ 5.83699942e-01 ]
      - [ -1.81191817e-01 ]
      - [ 4.56416249e-01 ]
      - [ 1.23677242e+00 ]
      - [ 2.22322106e+00 ]
      - [ -1.95007837e+00 ]
      - [ 1.01997375e+00 ]
      - [ 2.81847239e-01 ]
      - [ -8.58055592e-01 ]
      - [ -3.96800905e-01 ]
      - [ -6.24008238e-01 ]
      - [ 6.35743499e-01 ]
      - [ -4.14941788e-01 ]
      - [ 2.09878430e-01 ]
      - [ 8.97150934e-01 ]
      - [ 9.58413661e-01 ]
      - [ -1.08258641e+00 ]
      - [ -1.00003853e-01 ]
      - [ 6.74277395e-02 ]
      - [ 3.74633491e-01 ]
      - [ 9.13804889e-01 ]
      - [ 8.16855133e-01 ]
      - [ -1.83570951e-01 ]
      - [ 1.07558608e+00 ]
      - [ 6.07788682e-01 ]
      - [ -7.52778888e-01 ]
      - [ -2.94200718e-01 ]
      - [ -2.99851149e-01 ]
      - [ 3.64224792e-01 ]
      - [ 7.89792478e-01 ]
      - [ 3.23355086e-02 ]
      - [ -3.12044233e-01 ]
      - [ -4.06614840e-01 ]
      - [ -4.78286266e-01 ]
      - [ -2.66245872e-01 ]
      - [ 1.71081495e+00 ]
      - [ -4.61929709e-01 ]
      - [ -2.36209303e-01 ]
      - [ 1.44851542e+00 ]
      - [ 3.21995139e-01 ]
      - [ 4.30245757e-01 ]
      - [ -9.48462725e-01 ]
      - [ -1.90130615e+00 ]
      - [ -1.03202987e+00 ]
      - [ -1.00896031e-01 ]
      - [ 1.13506436e+00 ]
      - [ -7.06980586e-01 ]
      - [ 3.23355086e-02 ]
      - [ 2.15826258e-01 ]
      - [ -7.85789430e-01 ]
      - [ -4.75907117e-01 ]
      - [ -3.45352113e-01 ]
      - [ 4.95671958e-01 ]
      - [ -8.40806901e-01 ]
      - [ 1.17729402e+00 ]
      - [ -5.38359404e-01 ]
      - [ -1.20511186e+00 ]
      - [ -2.87658095e-01 ]
      - [ 1.13523476e-01 ]
      - [ 3.59169126e-01 ]
      - [ -1.04452026e+00 ]
      - [ -9.64819252e-01 ]
      - [ -1.96061417e-01 ]
      - [ -1.82190251e+00 ]
      - [ 7.95442939e-01 ]
      - [ -7.44749308e-01 ]
      - [ -1.72435796e+00 ]
      - [ -6.44230902e-01 ]
      - [ -3.58394909e+00 ]
      - [ -1.66619629e-01 ]
      - [ -1.77342761e+00 ]
      - [ 1.74947596e+00 ]
      - [ 3.16344708e-01 ]
      - [ -7.25716233e-01 ]
      - [ -1.44315243e-01 ]
      - [ 2.31163613e-02 ]
      - [ -1.60064304e+00 ]
      - [ 5.65261662e-01 ]
      - [ -1.06325603e+00 ]
      - [ 8.04662049e-01 ]
      - [ 8.98637891e-01 ]
      - [ -6.61479592e-01 ]
      - [ -2.01580191e+00 ]
      - [ -7.23337114e-01 ]
      - [ -7.20957994e-01 ]
      - [ 2.35751510e-01 ]
      - [ -2.36493993e+00 ]
      - [ -6.03488207e-01 ]
      - [ 1.46635890e+00 ]
      - [ 2.90471613e-01 ]
      - [ 5.72101653e-01 ]
      - [ -9.33593154e-01 ]
      - [ 5.06378055e-01 ]
      - [ 3.76885608e-02 ]
      - [ 6.24740005e-01 ]
      - [ 1.98280141e-01 ]
      - [ 4.73070204e-01 ]
      - [ -1.49506891e+00 ]
      - [ -8.27721655e-01 ]
      - [ -1.05820036e+00 ]
      - [ -3.78957391e-01 ]
      - [ -5.80291629e-01 ]
      - [ -1.25864244e+00 ]
      - [ 1.01491809e+00 ]
      - [ -5.52634239e-01 ]
      - [ -1.29908764e+00 ]
      - [ 3.48165631e-01 ]
      - [ -8.99393082e-01 ]
      - [ -1.41341314e-01 ]
      - [ 1.13565922e+00 ]
      - [ 4.68311936e-01 ]
      - [ -1.29700589e+00 ]
      - [ 3.14857751e-01 ]
      - [ 1.09015822e+00 ]
      - [ 1.76867932e-01 ]
      - [ 8.50757837e-01 ]
      - [ 2.33372375e-01 ]
      - [ -2.27584943e-01 ]
      - [ 8.65032613e-01 ]
      - [ 8.31724703e-01 ]
      - [ 4.71880615e-01 ]
      - [ -2.00522289e-01 ]
      - [ 1.67648792e-01 ]
      - [ -5.63935101e-01 ]
      - [ -9.41027939e-01 ]
      - [ 5.42659879e-01 ]
      - [ 1.37476218e+00 ]
      - [ -5.61258554e-01 ]
      - [ -1.23039019e+00 ]
      - [ -8.14041615e-01 ]
      - [ -2.32938007e-01 ]
      - [ -1.64406216e+00 ]
      - [ -2.03198820e-01 ]
      - [ -1.10994649e+00 ]
      - [ -1.08556032e+00 ]
      - [ 4.96266752e-01 ]
      - [ 2.26158452e+00 ]
      - [ -3.78659993e-01 ]
      - [ -1.14873447e-01 ]
      - [ -8.53297353e-01 ]
      - [ -1.37432778e+00 ]
      - [ 9.45625782e-01 ]
      - [ -1.12494312e-01 ]
      - [ 7.06225395e-01 ]
      - [ 1.26145589e+00 ]
      - [ -6.29658699e-01 ]
      - [ -3.02825093e-01 ]
      - [ 9.24510956e-01 ]
      - [ -6.85865760e-01 ]
      - [ -2.58513689e-01 ]
      - [ -3.80146950e-01 ]
      - [ 9.53357995e-01 ]
      - [ 7.57971585e-01 ]
      - [ -9.63332295e-01 ]
      - [ -1.45504802e-01 ]
      - [ -6.07354283e-01 ]
      - [ 8.37077796e-01 ]
      - [ 4.30245757e-01 ]
      - [ 7.11578429e-01 ]
      - [ -3.15612912e-01 ]
      - [ -9.26455736e-01 ]
      - [ 1.37314826e-01 ]
      - [ -1.72465539e+00 ]
      - [ -5.23787200e-01 ]
      - [ -1.02727151e+00 ]
      - [ -1.16823530e+00 ]
      - [ 4.31435347e-01 ]
      - [ -2.98066795e-01 ]
      - [ -1.52837682e+00 ]
      - [ -1.19856930e+00 ]
      - [ 6.44962668e-01 ]
      - [ 1.06398773e+00 ]
      - [ -9.16939199e-01 ]
      - [ 3.66901308e-01 ]
      - [ -2.78009892e+00 ]
      - [ 1.45641789e-01 ]
      - [ 5.28087676e-01 ]
      - [ 1.06398773e+00 ]
      - [ -1.85699475e+00 ]
      - [ -1.91005751e-01 ]
      - [ -3.32861662e-01 ]
      - [ 5.22734642e-01 ]
      - [ 8.32914293e-01 ]
      - [ -1.83736694e+00 ]
      - [ -1.34934688e+00 ]
      - [ -8.05417240e-01 ]
      - [ -1.50560468e-01 ]
      - [ 4.77828473e-01 ]
      - [ -2.20256400e+00 ]
      - [ 3.71064782e-01 ]
      - [ -1.19500053e+00 ]
      - [ 7.10388839e-01 ]
      - [ -1.59796643e+00 ]
      - [ 7.05035806e-01 ]
      - [ -1.83706951e+00 ]
      - [ 1.20822275e+00 ]
      - [ 9.29864049e-01 ]
      - [ -1.08288383e+00 ]
      - [ -2.13743520e+00 ]
      - [ -7.71811962e-01 ]
      - [ 1.47230673e+00 ]
      - [ 6.56433925e-02 ]
      - [ 1.00569892e+00 ]
      - [ -1.15247357e+00 ]
      - [ -6.92408383e-01 ]
      - [ -2.40670189e-01 ]
      - [ 3.55897814e-01 ]
      - [ 1.41180918e-01 ]
      - [ 9.12912726e-01 ]
      - [ -1.78515300e-01 ]
      - [ -2.13012755e-01 ]
      - [ -1.61432302e+00 ]
      - [ 3.76417845e-01 ]
      - [ 2.17015833e-01 ]
      - [ -7.71217227e-01 ]
      - [ -1.80733037e+00 ]
      - [ 8.59084785e-01 ]
      - [ 2.19097570e-01 ]
      - [ -2.29369298e-01 ]
      - [ -1.39692962e+00 ]
      - [ 1.69433132e-01 ]
      - [ -1.51677847e+00 ]
      - [ -1.34203911e-01 ]
      - [ 1.20019317e+00 ]
      - [ 2.72330701e-01 ]
      - [ 5.30169427e-01 ]
      - [ -4.28324431e-01 ]
      - [ -2.59703279e-01 ]
      - [ 9.80420649e-01 ]
      - [ 3.32701236e-01 ]
      - [ -2.03929591e+00 ]
      - [ 9.10533547e-01 ]
      - [ 7.32098460e-01 ]
      - [ -1.48776114e-01 ]
      - [ -1.61789167e+00 ]
      - [ 8.29048216e-01 ]
      - [ -4.17320937e-01 ]
      - [ -5.86536884e-01 ]
      - [ -5.47578573e-01 ]
      - [ 2.45862842e-01 ]
      - [ 3.04151624e-01 ]
      - [ 1.31201255e+00 ]
      - [ -2.29267383e+00 ]
      - [ -1.43767226e+00 ]
      - [ -3.37619931e-01 ]
      - [ 2.29803681e-01 ]
      - [ -2.17473626e-01 ]
      - [ -7.58726716e-01 ]
      - [ 3.00880313e-01 ]
      - [ 1.36821961e+00 ]
      - [ -2.48104990e-01 ]
      - [ -1.04719687e+00 ]
      - [ 1.50697455e-01 ]
      - [ -1.45207405e-01 ]
      - [ -8.63238275e-02 ]
      - [ 3.01041722e+00 ]
      - [ 9.81610239e-01 ]
      - [ 8.21316004e-01 ]
      - [ -4.64011461e-01 ]
      - [ 9.70309317e-01 ]
      - [ -3.38512093e-01 ]
      - [ -3.01167760e-02 ]
      - [ -6.00514293e-01 ]
      - [ -5.65124691e-01 ]
      - [ 3.37162137e-01 ]
      - [ 2.25342795e-01 ]
      - [ -2.15200734e+00 ]
      - [ -6.60884857e-01 ]
      - [ -8.51512969e-01 ]
      - [ 1.08331823e+00 ]
      - [ 3.40730816e-01 ]
      - [ -1.22682142e+00 ]
      - [ -4.08101797e-01 ]
      - [ -3.58437359e-01 ]
      - [ 2.54954956e-02 ]
      - [ -9.84447122e-01 ]
      - [ 1.17669928e+00 ]
      - [ -1.66917011e-01 ]
      - [ 1.80538559e+00 ]
      - [ -1.20821282e-01 ]
      - [ 2.90641971e-02 ]
      - [ -2.46320635e-01 ]
      - [ 1.07261217e+00 ]
      - [ -1.72316837e+00 ]
      - [ 1.17907834e+00 ]
      - [ -1.24793625e+00 ]
      - [ -7.08170116e-01 ]
      - [ 8.02155882e-02 ]
      - [ -9.01474833e-01 ]
      - [ -1.08258641e+00 ]
      - [ 1.47647023e+00 ]
      - [ 7.79681146e-01 ]
      - [ -1.05671334e+00 ]
      - [ 2.77683765e-01 ]
      - [ -1.12719524e+00 ]
      - [ 3.50842148e-01 ]
      - [ -2.23124072e-01 ]
      - [ -4.26242679e-01 ]
      - [ 4.50468421e-01 ]
      - [ 6.08851239e-02 ]
      - [ -1.80002257e-01 ]
      - [ 9.23916221e-01 ]
      - [ 1.30368555e+00 ]
      - [ -1.54056990e+00 ]
      - [ 5.22734642e-01 ]
      - [ 1.30606472e+00 ]
      - [ -4.88100171e-01 ]
      - [ 6.75296605e-01 ]
      - [ -7.45046735e-01 ]
      - [ -3.86986971e-01 ]
      - [ 2.62516767e-01 ]
      - [ -7.15604901e-01 ]
      - [ -1.12570822e+00 ]
      - [ -4.82152343e-01 ]
      - [ 9.37001467e-01 ]
      - [ 1.30177423e-01 ]
      - [ -2.67138064e-01 ]
      - [ -3.92042637e-01 ]
      - [ 1.16093743e+00 ]
      - [ 1.00302243e+00 ]
      - [ 2.13149741e-01 ]
      - [ -9.39838350e-01 ]
      - [ 6.13439143e-01 ]
      - [ -9.93071496e-01 ]
      - [ -8.15528572e-01 ]
      - [ -9.33295727e-01 ]
      - [ 9.98434499e-02 ]
      - [ -1.24258327e+00 ]
      - [ -3.58734727e-01 ]
      - [ 1.69433132e-01 ]
      - [ -1.10667515e+00 ]
      - [ -7.99766839e-01 ]
      - [ 7.54573196e-02 ]
      - [ -2.72788495e-01 ]
      - [ 4.44520563e-01 ]
      - [ 1.26906112e-01 ]
      - [ -1.39455044e+00 ]
      - [ -4.06317443e-01 ]
      - [ 1.14190435e+00 ]
      - [ -8.80954802e-01 ]
      - [ -3.04141678e-02 ]
      - [ 3.50842148e-01 ]
      - [ 2.13149741e-01 ]
      - [ 1.51304936e+00 ]
      - [ 7.82655060e-01 ]
      - [ 5.71506858e-01 ]
      - [ -1.29284251e+00 ]
      - [ -1.59766912e+00 ]
      - [ -1.72567457e-01 ]
      - [ 1.91779971e+00 ]
      - [ 7.83844650e-01 ]
      - [ -1.03797770e+00 ]
      - [ -1.55318737e-01 ]
      - [ -6.66237891e-01 ]
      - [ -8.40509474e-01 ]
      - [ 3.20580363e+00 ]
      - [ -6.16276085e-01 ]
      - [ 5.30169427e-01 ]
      - [ -1.87721741e+00 ]
      - [ 9.41759706e-01 ]
      - [ 3.66306514e-01 ]
      - [ -2.59405881e-01 ]
      - [ 4.10320520e-01 ]
      - [ 1.08170420e-01 ]
      - [ -9.49652314e-01 ]
      - [ 8.55686441e-02 ]
      - [ -1.16784824e-02 ]
      - [ -1.00526452e+00 ]
      - [ -1.09448206e+00 ]
      - [ 2.12257564e-01 ]
      - [ 1.84999430e+00 ]
      - [ -2.46618018e-01 ]
      - [ -1.33311734e-01 ]
      - [ 5.94406068e-01 ]
      - [ 2.66850628e-02 ]
      - [ -2.01414466e-01 ]
      - [ -1.19036928e-01 ]
      - [ -9.35972273e-01 ]
      - [ 8.96853566e-01 ]
      - [ 1.37743878e+00 ]
      - [ 1.48913100e-01 ]
      - [ -1.96256888e+00 ]
      - [ -5.35088122e-01 ]
      - [ 4.49278831e-01 ]
      - [ 4.98645902e-01 ]
      - [ -1.92866623e+00 ]
      - [ -1.51053333e+00 ]
      - [ -1.18905270e+00 ]
      - [ 5.30764222e-01 ]
      - [ 3.49949986e-01 ]
      - [ -1.07336724e+00 ]
      - [ -1.93253231e+00 ]
      - [ -7.42964983e-01 ]
      - [ -3.05204213e-01 ]
      - [ 1.52197111e+00 ]
      - [ 3.33933258e+00 ]
      - [ 9.00295228e-02 ]
      - [ 3.57682168e-01 ]
      - [ 1.78546035e+00 ]
      - [ -2.09669256e+00 ]
      - [ 1.06666422e+00 ]
      - [ -1.19143188e+00 ]
      - [ -8.61921728e-01 ]
      - [ -1.52939603e-01 ]
      - [ -7.29582369e-01 ]
      - [ -2.48402372e-01 ]
      - [ -3.69738251e-01 ]
      - [ -3.23047727e-01 ]
      - [ -5.24679363e-01 ]
      - [ -2.59108484e-01 ]
      - [ -4.53602731e-01 ]
      - [ 8.49270821e-01 ]
      - [ -5.06538451e-01 ]
      - [ -8.94040048e-01 ]
      - [ -5.24679363e-01 ]
      - [ 6.82136655e-01 ]
      - [ -3.79849553e-01 ]
      - [ 2.59632524e-03 ]
      - [ 2.07660699e+00 ]
      - [ 4.97456312e-01 ]
      - [ -6.29956067e-01 ]
      - [ 1.02949035e+00 ]
      - [ -1.68718398e+00 ]
      - [ 6.17602646e-01 ]
      - [ -8.36473033e-02 ]
      - [ -1.17745447e+00 ]
      - [ 4.93887633e-01 ]
      - [ -1.48703933e+00 ]
      - [ 8.84660482e-01 ]
      - [ 4.28758800e-01 ]
      - [ 1.00361717e+00 ]
      - [ -2.98193842e-02 ]
      - [ 1.41907358e+00 ]
      - [ -9.84744549e-01 ]
      - [ -3.45054716e-01 ]
      - [ 4.47494507e-01 ]
      - [ 1.36584044e+00 ]
      - [ 9.16778803e-01 ]
      - [ -1.01240194e+00 ]
      - [ -7.63187647e-01 ]
      - [ -1.54235423e+00 ]
      - [ -2.30962515e+00 ]
      - [ 6.61913991e-01 ]
      - [ 6.09275639e-01 ]
      - [ 1.05119991e+00 ]
      - [ 1.22636366e+00 ]
      - [ 1.02519982e-01 ]
      - [ -3.49859762e+00 ]
      - [ -8.57163429e-01 ]
      - [ -7.52481520e-01 ]
      - [ -7.14415371e-01 ]
      - [ -5.61258554e-01 ]
      - [ -4.88694966e-01 ]
      - [ -1.53283763e+00 ]
      - [ -1.76004505e+00 ]
      - [ -3.73604327e-01 ]
      - [ -4.28621829e-01 ]
      - [ 1.30160379e+00 ]
      - [ 9.15164798e-02 ]
      - [ -7.75678098e-01 ]
      - [ -1.93401921e+00 ]
      - [ 6.18792176e-01 ]
      - [ 1.71140981e+00 ]
      - [ -1.37730169e+00 ]
      - [ 5.58719039e-01 ]
      - [ -5.76722920e-01 ]
      - [ -2.27274847e+00 ]
      - [ -8.08093786e-01 ]
      - [ -1.28124416e+00 ]
      - [ 2.17015833e-01 ]
      - [ -1.41328621e+00 ]
      - [ 9.73580658e-01 ]
      - [ 2.13320106e-02 ]
      - [ -6.19250000e-01 ]
      - [ 5.72101653e-01 ]
      - [ -4.08399165e-01 ]
      - [ 7.02954054e-01 ]
      - [ -1.44540441e+00 ]
      - [ 2.79765517e-01 ]
      - [ -1.20392227e+00 ]
      - [ -2.18501782e+00 ]
      - [ -6.74984825e-04 ]
      - [ 7.12938383e-02 ]
      - [ 2.04657030e+00 ]
      - [ 1.27798289e-01 ]
      - [ 9.68695357e-02 ]
      - [ 2.47349799e-01 ]
      - [ -8.36048603e-01 ]
      - [ 1.12792695e+00 ]
      - [ 7.54700243e-01 ]
      - [ -2.62379795e-01 ]
      - [ 1.28405774e+00 ]
      - [ -3.11152041e-01 ]
      - [ 8.88229191e-01 ]
      - [ -1.51856291e+00 ]
      - [ 4.23108369e-01 ]
      - [ -3.98882627e-01 ]
      - [ 4.01398748e-01 ]
      - [ -9.31213975e-01 ]
      - [ 9.83564928e-02 ]
      - [ 2.22666278e-01 ]
      - [ 9.32837963e-01 ]
      - [ -4.99995857e-01 ]
      - [ -8.42591226e-01 ]
      - [ 1.73133504e+00 ]
      - [ 1.49104238e+00 ]
      - [ 9.00422215e-01 ]
      - [ -4.15239185e-01 ]
      - [ 1.23171675e+00 ]
      - [ -1.55318737e-01 ]
      - [ -6.66237891e-01 ]
      - [ 1.56050503e-01 ]
      - [ 5.40875554e-01 ]
      - [ -4.49736625e-01 ]
      - [ 5.20950258e-01 ]
      - [ -1.51648116e+00 ]
      - [ 5.41767716e-01 ]
      - [ 1.09657384e-01 ]
      - [ -5.48173308e-01 ]
      - [ -1.26161635e+00 ]
      - [ -2.96282470e-01 ]
      - [ -1.15485263e+00 ]
      - [ 4.69798893e-01 ]
      - [ 6.52397454e-01 ]
      - [ -1.55365515e+00 ]
      - [ -7.04006672e-01 ]
      - [ 9.20644879e-01 ]
      - [ 2.55379379e-01 ]
      - [ 8.67709160e-01 ]
      - [ 4.10915285e-01 ]
      - [ 4.02290940e-01 ]
      - [ 3.66901308e-01 ]
      - [ -1.79870594e+00 ]
      - [ 6.09275639e-01 ]
      - [ 5.10711931e-02 ]
      - [ -8.92977491e-02 ]
      - [ -4.86910611e-01 ]
      - [ -7.02646747e-02 ]
      - [ -4.61037517e-01 ]
      - [ -1.20094836e+00 ]
      - [ -1.10102475e+00 ]
      - [ 6.50018334e-01 ]
      - [ 1.20465410e+00 ]
      - [ -1.10786474e+00 ]
      - [ -1.07782817e+00 ]
      - [ 1.55455723e-01 ]
      - [ -5.05051494e-01 ]
      - [ -3.55463445e-01 ]
      - [ 5.88033795e-02 ]
      - [ -1.56465864e+00 ]
      - [ -1.64525175e+00 ]
      - [ 3.29302922e-02 ]
      - [ -2.23845877e-02 ]
      - [ 4.16863143e-01 ]
      - [ 1.96793184e-01 ]
      - [ -1.37581480e+00 ]
      - [ -3.17992061e-01 ]
      - [ 3.10694247e-01 ]
      - [ -8.60137343e-01 ]
      - [ 1.72776628e+00 ]
      - [ -3.26616436e-01 ]
      - [ 1.63141131e+00 ]
      - [ -4.65201020e-01 ]
      - [ 1.09062597e-01 ]
      - [ -2.49591947e-01 ]
      - [ 9.18138698e-02 ]
      - [ 7.34477580e-01 ]
      - [ -9.68685389e-01 ]
      - [ -2.84386784e-01 ]
      - [ 1.08450782e+00 ]
      - [ -7.05620646e-02 ]
      - [ 8.73529986e-02 ]
      - [ 8.91797900e-01 ]
      - [ -1.74309373e+00 ]
      - [ -8.14339042e-01 ]
      - [ -1.17448056e+00 ]
      - [ 6.43178344e-01 ]
      - [ 3.95153522e-01 ]
      - [ 1.00331986e+00 ]
      - [ 7.75517702e-01 ]
      - [ -1.86591649e+00 ]
      - [ 3.60358685e-01 ]
      - [ 9.36109245e-01 ]
      - [ -1.27261984e+00 ]
      - [ 2.61029810e-01 ]
      - [ -3.26319039e-01 ]
      - [ -1.30040422e-01 ]
      - [ 4.15673584e-01 ]
      - [ 8.67411733e-01 ]
      - [ 5.24221599e-01 ]
      - [ 2.16285062e+00 ]
      - [ 1.07945216e+00 ]
      - [ -1.17388570e+00 ]
      - [ 7.46075869e-01 ]
      - [ -1.74695981e+00 ]
      - [ 1.06980853e-01 ]
      - [ -1.10399866e+00 ]
      - [ -1.83647478e+00 ]
      - [ 5.28385043e-01 ]
      - [ -3.21985185e-02 ]
      - [ 6.16115630e-01 ]
      - [ -6.40662193e-01 ]
      - [ 5.27492881e-01 ]
      - [ 8.91203105e-01 ]
      - [ 1.76867932e-01 ]
      - [ -7.26438090e-02 ]
      - [ -1.15544748e+00 ]
      - [ -9.35080111e-01 ]
      - [ -9.32106197e-01 ]
      - [ 9.58711028e-01 ]
      - [ 3.46083879e-01 ]
      - [ -3.63493025e-01 ]
      - [ 1.82220981e-01 ]
      - [ 6.63400948e-01 ]
      - [ 9.20942307e-01 ]
      - [ 1.23337403e-01 ]
      - [ -9.49354887e-01 ]
      - [ -6.37093484e-01 ]
      - [ -8.33074689e-01 ]
      - [ 7.50834167e-01 ]
      - [ 2.17015833e-01 ]
      - [ 6.42583549e-01 ]
      - [ 2.51215905e-01 ]
      - [ -1.60480654e+00 ]
      - [ -9.28664505e-02 ]
      - [ 2.51215905e-01 ]
      - [ 5.92026949e-01 ]
      - [ 1.49282670e+00 ]
      - [ -5.95458627e-01 ]
      - [ 4.74854529e-01 ]
      - [ 1.46487188e+00 ]
      - [ -3.90385315e-02 ]
      - [ 1.04019642e+00 ]
      - [ 3.61548245e-01 ]
      - [ -1.66024834e-01 ]
      - [ 7.95442939e-01 ]
      - [ -1.28362334e+00 ]
      - [ 3.52626503e-01 ]
      - [ 6.44665301e-01 ]
      - [ -9.34612304e-02 ]
      - [ 5.05485892e-01 ]
      - [ -5.76722920e-01 ]
      - [ -4.91966277e-01 ]
      - [ -8.30100775e-01 ]
      - [ 4.84668463e-01 ]
      - [ -5.03394194e-02 ]
      - [ -1.88881564e+00 ]
      - [ -3.71225208e-01 ]
      - [ 9.30161417e-01 ]
      - [ -4.91074115e-01 ]
      - [ -1.95543146e+00 ]
      - [ -7.59321511e-01 ]
      - [ -1.41388094e+00 ]
      - [ -7.26905823e-01 ]
      - [ -1.41685486e+00 ]
      - [ -8.21603462e-02 ]
      - [ -1.25834501e+00 ]
      - [ 6.99385345e-01 ]
      - [ 3.49652588e-01 ]
      - [ -3.74199122e-01 ]
      - [ -1.23871720e+00 ]
      - [ -1.30057466e+00 ]
      - [ 3.09207290e-01 ]
      - [ -1.12791702e-01 ]
      - [ 1.05922949e+00 ]
      - [ 1.38398135e+00 ]
      - [ -1.25507367e+00 ]
      - [ 2.04398353e-02 ]
      - [ 6.03327811e-01 ]
      - [ -5.54121196e-01 ]
      - [ -1.18442148e-01 ]
      - [ 1.18056536e+00 ]
      - [ -2.26990163e-01 ]
      - [ 1.25716537e-01 ]
      - [ -1.28451550e+00 ]
      - [ -5.67206383e-01 ]
      - [ -7.59024143e-01 ]
      - [ 5.23032010e-01 ]
      - [ -2.44663302e-02 ]
      - [ 6.93437517e-01 ]
      - [ 7.38938510e-01 ]
      - [ -3.78957391e-01 ]
      - [ -1.20630145e+00 ]
      - [ -1.73090065e+00 ]
      - [ 1.67036963e+00 ]
      - [ 3.90692651e-01 ]
      - [ 2.92850733e-01 ]
      - [ 6.87192321e-01 ]
      - [ 1.85194910e-01 ]
      - [ 4.90913689e-01 ]
      - [ -8.84820879e-01 ]
      - [ -1.42577660e+00 ]
      - [ -3.54698300e-02 ]
      - [ -1.45938194e+00 ]
      - [ -1.01180720e+00 ]
      - [ 1.60808772e-01 ]
      - [ -1.71377897e-01 ]
      - [ 4.29056197e-01 ]
      - [ -7.58429348e-01 ]
      - [ -1.74368846e+00 ]
      - [ 5.34927666e-01 ]
      - [ -1.51452646e-01 ]
      - [ -1.98576546e+00 ]
      - [ 3.53816062e-01 ]
      - [ 1.39439011e+00 ]
      - [ -8.80954802e-01 ]
      - [ 3.16642106e-01 ]
      - [ 2.95527279e-01 ]
      - [ 1.47893904e-02 ]
      - [ 4.79315430e-01 ]
      - [ -3.87411378e-02 ]
      - [ 1.86010563e+00 ]
      - [ 1.33877778e+00 ]
      - [ -4.42004442e-01 ]
      - [ -8.90003592e-02 ]
      - [ 3.13668162e-01 ]
      - [ -1.53016114e+00 ]
      - [ -9.68387961e-01 ]
      - [ 1.75810027e+00 ]
      - [ -1.02977775e-01 ]
      - [ -2.07052207e+00 ]
      - [ -1.45254183e+00 ]
      - [ -1.27945983e+00 ]
      - [ -4.61334914e-01 ]
      - [ -1.61015952e+00 ]
      - [ -9.25266147e-01 ]
      - [ 9.33730125e-01 ]
      - [ 6.44538254e-02 ]
      - [ -8.83036554e-01 ]
      - [ -7.76570261e-01 ]
      - [ 7.12470591e-01 ]
      - [ 9.02801394e-01 ]
      - [ 9.47707534e-01 ]
      - [ -6.70996130e-01 ]
      - [ -1.36035037e+00 ]
      - [ 4.25487489e-01 ]
      - [ -1.27066508e-01 ]
      - [ -1.57447255e+00 ]
      - [ 6.28308713e-01 ]
      - [ 7.46075869e-01 ]
      - [ -1.62146044e+00 ]
      - [ -1.45207405e-01 ]
      - [ -2.16878846e-01 ]
      - [ 6.02435648e-01 ]
      - [ 9.69417155e-01 ]
      - [ -5.10107160e-01 ]
      - [ -2.08152556e+00 ]
      - [ 9.70011950e-01 ]
      - [ -1.92492709e-01 ]
      - [ -8.43186021e-01 ]
      - [ -3.37577486e+00 ]
      - [ 7.50536740e-01 ]
      - [ -2.08551869e-01 ]
      - [ 4.73367572e-01 ]
      - [ -2.64461547e-01 ]
      - [ -8.52107763e-01 ]
      - [ -4.39922720e-01 ]
      - [ 3.76885608e-02 ]
      - [ -1.23544586e+00 ]
      - [ 2.40212396e-01 ]
      - [ 3.47146429e-02 ]
      - [ -4.99995857e-01 ]
      - [ 8.01093400e-01 ]
      - [ -4.08993959e-01 ]
      - [ 4.58200604e-01 ]
      - [ -2.53755420e-01 ]
      - [ -2.20744938e-01 ]
      - [ -7.92331994e-01 ]
      - [ 1.12465572e+00 ]
      - [ 5.23924172e-01 ]
      - [ 8.93582225e-01 ]
      - [ -9.16641831e-01 ]
      - [ -5.73154271e-01 ]
      - [ -1.42310011e+00 ]
      - [ 5.50689459e-01 ]
      - [ 1.44494665e+00 ]
      - [ -7.05493629e-01 ]
      - [ 9.88450229e-01 ]
      - [ 6.69348776e-01 ]
      - [ 1.48318321e-01 ]
      - [ 8.01985562e-01 ]
      - [ -3.84013057e-01 ]
      - [ 7.23771513e-01 ]
      - [ -1.39425302e+00 ]
      - [ 1.90845355e-01 ]
      - [ 1.43870139e+00 ]
      - [ -4.78286266e-01 ]
      - [ 1.86554845e-02 ]
      - [ -1.56716036e-03 ]
      - [ 1.13226086e-01 ]
      - [ -1.64614391e+00 ]
      - [ 4.21494395e-02 ]
      - [ -3.80741745e-01 ]
      - [ -3.54698300e-02 ]
      - [ -2.73680687e-01 ]
      - [ -1.85461557e+00 ]
      - [ 4.21494395e-02 ]
      - [ 1.80607010e-02 ]
      - [ 5.90837359e-01 ]
      - [ 3.59169126e-01 ]
      - [ 8.62950861e-01 ]
      - [ 7.97524691e-01 ]
      - [ 6.73214912e-01 ]
      - [ 9.41164911e-01 ]
      - [ -4.75312322e-01 ]
      - [ 9.86071110e-01 ]
      - [ 1.53968766e-01 ]
      - [ 1.49507880e-01 ]
      - [ 2.79468119e-01 ]
      - [ -2.36850858e+00 ]
      - [ 8.34868997e-02 ]
      - [ 5.70019901e-01 ]
      - [ 3.25563848e-01 ]
      - [ 2.08701563e+00 ]
      - [ -5.06538451e-01 ]
      - [ 5.09351969e-01 ]
      - [ 8.50460410e-01 ]
      - [ -2.52863258e-01 ]
      - [ -1.02935326e+00 ]
      - [ -8.55379105e-01 ]
      - [ 4.66103144e-02 ]
      - [ 1.21850446e-01 ]
      - [ 4.50171024e-01 ]
      - [ -2.85873741e-01 ]
      - [ 5.70317328e-01 ]
      - [ 7.87413359e-01 ]
      - [ 5.79536438e-01 ]
      - [ 1.51037288e+00 ]
      - [ -1.51856291e+00 ]
      - [ 1.28435504e+00 ]
      - [ -3.48432279e+00 ]
      - [ 5.43552041e-01 ]
      - [ -6.83189213e-01 ]
      - [ -1.72270074e-01 ]
      - [ -1.50726199e+00 ]
      - [ 3.68090868e-01 ]
      - [ -3.62898231e-01 ]
      - [ -1.07782817e+00 ]
      - [ 4.46602315e-01 ]
      - [ -2.90037245e-01 ]
      - [ 6.18494809e-01 ]
      - [ -7.28095412e-01 ]
      - [ 4.85263258e-01 ]
      - [ 1.37314826e-01 ]
      - [ -2.72193730e-01 ]
      - [ -7.66161561e-01 ]
      - [ -7.08170116e-01 ]
      - [ -7.01032758e-01 ]
      - [ 8.06149006e-01 ]
      - [ -2.89145052e-01 ]
      - [ 1.89638746e+00 ]
      - [ 1.68711320e-02 ]
      - [ -3.53679091e-01 ]
      - [ 9.68695357e-02 ]
      - [ 4.26677078e-01 ]
      - [ -3.63195628e-01 ]
      - [ 2.99988151e-01 ]
      - [ 6.66672289e-01 ]
      - [ -5.90402961e-01 ]
      - [ 1.08629215e+00 ]
      - [ 1.17075145e+00 ]
      - [ -3.69567871e-02 ]
      - [ -2.26471901e+00 ]
      - [ -3.05799007e-01 ]
      - [ 1.05566072e+00 ]
      - [ 1.82220981e-01 ]
      - [ 3.46678674e-01 ]
      - [ -5.55905521e-01 ]
      - [ -4.27729636e-01 ]
      - [ 6.04219973e-01 ]
      - [ -1.62770569e+00 ]
      - [ -1.19886661e+00 ]
      - [ 1.86384469e-01 ]
      - [ -5.16947210e-01 ]
      - [ -2.00717759e+00 ]
      - [ -1.56436121e+00 ]
      - [ 3.54708254e-01 ]
      - [ -4.79773223e-01 ]
      - [ 1.40896225e+00 ]
      - [ 2.60031390e+00 ]
      - [ 7.52321124e-01 ]
      - [ 1.28346288e+00 ]
      - [ 3.27645600e-01 ]
      - [ -6.12409949e-01 ]
      - [ -9.99316752e-01 ]
      - [ -6.49116188e-02 ]
      - [ 8.90013516e-01 ]
      - [ -7.43262351e-01 ]
      - [ 1.37565434e+00 ]
      - [ -1.33906528e-01 ]
      - [ -1.17477787e+00 ]
      - [ 3.64989936e-02 ]
      - [ -3.14125955e-01 ]
      - [ -3.10854644e-01 ]
      - [ -1.26250851e+00 ]
      - [ -7.93521583e-01 ]
      - [ 1.61475742e+00 ]
      - [ 2.10010076e+00 ]
      - [ -5.38656771e-01 ]
      - [ 2.67572433e-01 ]
      - [ 1.45208406e+00 ]
      - [ 9.12317932e-01 ]
      - [ 1.71685237e-02 ]
      - [ -1.18786311e+00 ]
      - [ 1.80607010e-02 ]
      - [ 5.34927666e-01 ]
      - [ -5.26463747e-01 ]
      - [ -3.70630413e-01 ]
      - [ -1.64614391e+00 ]
      - [ -7.31961489e-01 ]
      - [ 1.06259044e-02 ]
      - [ 3.49949986e-01 ]
      - [ -4.62524474e-01 ]
      - [ -1.14652574e+00 ]
      - [ 3.46976072e-01 ]
      - [ 2.29803681e-01 ]
      - [ -8.38725150e-01 ]
      - [ 6.57155752e-01 ]
      - [ 2.88670230e+00 ]
      - [ -1.12494312e-01 ]
      - [ 2.20881924e-01 ]
      - [ -4.94472459e-02 ]
      - [ 1.28138113e+00 ]
      - [ 4.90318924e-01 ]
      - [ 6.91355765e-01 ]
      - [ -4.77691472e-01 ]
      - [ 4.61174518e-01 ]
      - [ -9.21994865e-01 ]
      - [ 5.80428660e-01 ]
      - [ -1.82874250e+00 ]
      - [ 6.55371368e-01 ]
      - [ -4.21484411e-01 ]
      - [ -4.21781808e-01 ]
      - [ 1.67351395e-01 ]
      - [ -2.09146649e-01 ]
      - [ 2.59245455e-01 ]
      - [ 4.41249281e-01 ]
      - [ -5.53950816e-02 ]
      - [ -4.40220088e-01 ]
      - [ -8.95951390e-02 ]
      - [ 4.64445829e-01 ]
      - [ 4.08328418e-03 ]
      - [ -8.06012034e-01 ]
      - [ -1.50964105e+00 ]
      - [ -6.90029263e-01 ]
      - [ 7.28529751e-01 ]
      - [ -5.62745512e-01 ]
      - [ -1.58590049e-01 ]
      - [ -1.28867900e+00 ]
      - [ 5.18571138e-01 ]
      - [ 5.97082555e-01 ]
      - [ -4.04830486e-01 ]
      - [ -1.16360404e-01 ]
      - [ -6.62966549e-01 ]
      - [ -1.44315243e-01 ]
      - [ 9.59603190e-01 ]
      - [ 4.80207592e-01 ]
      - [ 5.41767716e-01 ]
      - [ -1.77848327e+00 ]
      - [ 4.26082283e-01 ]
      - [ -1.79407477e-01 ]
      - [ -9.35674906e-01 ]
      - [ 1.20405924e+00 ]
      - [ 1.98280141e-01 ]
      - [ -1.02162111e+00 ]
      - [ -1.00913072e+00 ]
      - [ 1.73876977e+00 ]
      - [ -7.29411989e-02 ]
      - [ -8.04525077e-01 ]
      - [ -9.03259158e-01 ]
      - [ 1.53841740e-02 ]
      - [ 2.46160224e-01 ]
      - [ -4.73825365e-01 ]
      - [ 1.75975755e-01 ]
      - [ 7.32693255e-01 ]
      - [ 2.48836756e-01 ]
      - [ -4.23566163e-01 ]
      - [ 2.59245455e-01 ]
      - [ 1.59334517e+00 ]
      - [ -7.42964983e-01 ]
      - [ 1.14101219e+00 ]
      - [ 6.01840854e-01 ]
      - [ -1.32287908e+00 ]
      - [ -1.02846110e+00 ]
      - [ 3.13965559e-01 ]
      - [ 8.33509088e-01 ]
      - [ 9.64361489e-01 ]
      - [ 1.38546836e+00 ]
      - [ -4.02280986e-02 ]
      - [ -6.05867326e-01 ]
      - [ -5.68693340e-01 ]
      - [ 1.94711447e-01 ]
      - [ -1.43261659e+00 ]
      - [ 9.12317932e-01 ]
      - [ -5.51742017e-01 ]
      - [ -1.04630458e+00 ]
      - [ 4.30840552e-01 ]
      - [ -4.58955795e-01 ]
      - [ -1.13938832e+00 ]
      - [ -1.70315355e-02 ]
      - [ 1.17937577e+00 ]
      - [ 7.56781995e-01 ]
      - [ 9.42354500e-01 ]
      - [ 2.97311634e-01 ]
      - [ -4.31893140e-01 ]
      - [ 4.86155421e-01 ]
      - [ -6.90921426e-01 ]
      - [ 7.51428962e-01 ]
      - [ -4.32785302e-01 ]
      - [ -1.05106294e+00 ]
      - [ -8.54784310e-01 ]
      - [ 1.27900207e+00 ]
      - [ -1.52939603e-01 ]
      - [ -7.91737258e-01 ]
      - [ 4.44817960e-01 ]
      - [ -1.14563346e+00 ]
      - [ -1.06546476e-01 ]
      - [ -2.35317141e-01 ]
      - [ -1.37772620e-01 ]
      - [ -2.06368208e+00 ]
      - [ -6.64453566e-01 ]
      - [ -5.24976790e-01 ]
      - [ 7.41912425e-01 ]
      - [ 4.27271843e-01 ]
      - [ 2.35793948e+00 ]
      - [ 9.11128342e-01 ]
      - [ -1.82381392e-01 ]
      - [ 1.05493896e-01 ]
      - [ -1.86234784e+00 ]
      - [ 1.03114761e-01 ]
      - [ 3.74336094e-01 ]
      - [ 1.65936613e+00 ]
      - [ 2.43139529e+00 ]
      - [ 4.64445829e-01 ]
      - [ 4.92103279e-01 ]
      - [ -1.34280431e+00 ]
      - [ 4.79910195e-01 ]
      - [ -1.30860424e+00 ]
      - [ -2.88550258e-01 ]
      - [ -5.08025408e-01 ]
      - [ -2.56558973e-02 ]
      - [ 5.91432154e-01 ]
      - [ 1.64806533e+00 ]
      - [ -7.53076315e-01 ]
      - [ -2.54944980e-01 ]
      - [ -4.79773223e-01 ]
      - [ -8.94932210e-01 ]
      - [ -4.35461819e-01 ]
      - [ -1.12196922e-01 ]
      - [ -6.08543873e-01 ]
      - [ 1.45641789e-01 ]
