%YAML:1.0
---
opencv_ml_rtrees:
   format: 3
   is_classifier: 1
   var_all: 257
   var_count: 256
   ord_var_count: 256
   cat_var_count: 1
   training_params:
      use_surrogates: 0
      max_categories: 10
      regression_accuracy: 0.
      max_depth: 5
      min_sample_count: 10
      cross_validation_folds: 0
      nactive_vars: 0
   global_var_idx: 1
   var_idx: [ 0, 1, 2, 3, 4, 5, 6, 7, 8, 9, 10, 11, 12, 13, 14, 15, 16,
       17, 18, 19, 20, 21, 22, 23, 24, 25, 26, 27, 28, 29, 30, 31, 32,
       33, 34, 35, 36, 37, 38, 39, 40, 41, 42, 43, 44, 45, 46, 47, 48,
       49, 50, 51, 52, 53, 54, 55, 56, 57, 58, 59, 60, 61, 62, 63, 64,
       65, 66, 67, 68, 69, 70, 71, 72, 73, 74, 75, 76, 77, 78, 79, 80,
       81, 82, 83, 84, 85, 86, 87, 88, 89, 90, 91, 92, 93, 94, 95, 96,
       97, 98, 99, 100, 101, 102, 103, 104, 105, 106, 107, 108, 109, 110,
       111, 112, 113, 114, 115, 116, 117, 118, 119, 120, 121, 122, 123,
       124, 125, 126, 127, 128, 129, 130, 131, 132, 133, 134, 135, 136,
       137, 138, 139, 140, 141, 142, 143, 144, 145, 146, 147, 148, 149,
       150, 151, 152, 153, 154, 155, 156, 157, 158, 159, 160, 161, 162,
       163, 164, 165, 166, 167, 168, 169, 170, 171, 172, 173, 174, 175,
       176, 177, 178, 179, 180, 181, 182, 183, 184, 185, 186, 187, 188,
       189, 190, 191, 192, 193, 194, 195, 196, 197, 198, 199, 200, 201,
       202, 203, 204, 205, 206, 207, 208, 209, 210, 211, 212, 213, 214,
       215, 216, 217, 218, 219, 220, 221, 222, 223, 224, 225, 226, 227,
       228, 229, 230, 231, 232, 233, 234, 235, 236, 237, 238, 239, 240,
       241, 242, 243, 244, 245, 246, 247, 248, 249, 250, 251, 252, 253,
       254, 255 ]
   var_type: [ 0, 0, 0, 0, 0, 0, 0, 0, 0, 0, 0, 0, 0, 0, 0, 0, 0, 0, 0,
       0, 0, 0, 0, 0, 0, 0, 0, 0, 0, 0, 0, 0, 0, 0, 0, 0, 0, 0, 0, 0, 0,
       0, 0, 0, 0, 0, 0, 0, 0, 0, 0, 0, 0, 0, 0, 0, 0, 0, 0, 0, 0, 0, 0,
       0, 0, 0, 0, 0, 0, 0, 0, 0, 0, 0, 0, 0, 0, 0, 0, 0, 0, 0, 0, 0, 0,
       0, 0, 0, 0, 0, 0, 0, 0, 0, 0, 0, 0, 0, 0, 0, 0, 0, 0, 0, 0, 0, 0,
       0, 0, 0, 0, 0, 0, 0, 0, 0, 0, 0, 0, 0, 0, 0, 0, 0, 0, 0, 0, 0, 0,
       0, 0, 0, 0, 0, 0, 0, 0, 0, 0, 0, 0, 0, 0, 0, 0, 0, 0, 0, 0, 0, 0,
       0, 0, 0, 0, 0, 0, 0, 0, 0, 0, 0, 0, 0, 0, 0, 0, 0, 0, 0, 0, 0, 0,
       0, 0, 0, 0, 0, 0, 0, 0, 0, 0, 0, 0, 0, 0, 0, 0, 0, 0, 0, 0, 0, 0,
       0, 0, 0, 0, 0, 0, 0, 0, 0, 0, 0, 0, 0, 0, 0, 0, 0, 0, 0, 0, 0, 0,
       0, 0, 0, 0, 0, 0, 0, 0, 0, 0, 0, 0, 0, 0, 0, 0, 0, 0, 0, 0, 0, 0,
       0, 0, 0, 0, 0, 0, 0, 0, 0, 0, 0, 0, 0, 0, 0, 0, 0, 1 ]
   cat_ofs: [ 0, 0, 0, 0, 0, 0, 0, 0, 0, 0, 0, 0, 0, 0, 0, 0, 0, 0, 0, 0,
       0, 0, 0, 0, 0, 0, 0, 0, 0, 0, 0, 0, 0, 0, 0, 0, 0, 0, 0, 0, 0, 0,
       0, 0, 0, 0, 0, 0, 0, 0, 0, 0, 0, 0, 0, 0, 0, 0, 0, 0, 0, 0, 0, 0,
       0, 0, 0, 0, 0, 0, 0, 0, 0, 0, 0, 0, 0, 0, 0, 0, 0, 0, 0, 0, 0, 0,
       0, 0, 0, 0, 0, 0, 0, 0, 0, 0, 0, 0, 0, 0, 0, 0, 0, 0, 0, 0, 0, 0,
       0, 0, 0, 0, 0, 0, 0, 0, 0, 0, 0, 0, 0, 0, 0, 0, 0, 0, 0, 0, 0, 0,
       0, 0, 0, 0, 0, 0, 0, 0, 0, 0, 0, 0, 0, 0, 0, 0, 0, 0, 0, 0, 0, 0,
       0, 0, 0, 0, 0, 0, 0, 0, 0, 0, 0, 0, 0, 0, 0, 0, 0, 0, 0, 0, 0, 0,
       0, 0, 0, 0, 0, 0, 0, 0, 0, 0, 0, 0, 0, 0, 0, 0, 0, 0, 0, 0, 0, 0,
       0, 0, 0, 0, 0, 0, 0, 0, 0, 0, 0, 0, 0, 0, 0, 0, 0, 0, 0, 0, 0, 0,
       0, 0, 0, 0, 0, 0, 0, 0, 0, 0, 0, 0, 0, 0, 0, 0, 0, 0, 0, 0, 0, 0,
       0, 0, 0, 0, 0, 0, 0, 0, 0, 0, 0, 0, 0, 0, 0, 0, 0, 0, 0, 0, 0, 0,
       0, 0, 0, 0, 0, 0, 0, 0, 0, 0, 0, 0, 0, 0, 0, 0, 0, 0, 0, 0, 0, 0,
       0, 0, 0, 0, 0, 0, 0, 0, 0, 0, 0, 0, 0, 0, 0, 0, 0, 0, 0, 0, 0, 0,
       0, 0, 0, 0, 0, 0, 0, 0, 0, 0, 0, 0, 0, 0, 0, 0, 0, 0, 0, 0, 0, 0,
       0, 0, 0, 0, 0, 0, 0, 0, 0, 0, 0, 0, 0, 0, 0, 0, 0, 0, 0, 0, 0, 0,
       0, 0, 0, 0, 0, 0, 0, 0, 0, 0, 0, 0, 0, 0, 0, 0, 0, 0, 0, 0, 0, 0,
       0, 0, 0, 0, 0, 0, 0, 0, 0, 0, 0, 0, 0, 0, 0, 0, 0, 0, 0, 0, 0, 0,
       0, 0, 0, 0, 0, 0, 0, 0, 0, 0, 0, 0, 0, 0, 0, 0, 0, 0, 0, 0, 0, 0,
       0, 0, 0, 0, 0, 0, 0, 0, 0, 0, 0, 0, 0, 0, 0, 0, 0, 0, 0, 0, 0, 0,
       0, 0, 0, 0, 0, 0, 0, 0, 0, 0, 0, 0, 0, 0, 0, 0, 0, 0, 0, 0, 0, 0,
       0, 0, 0, 0, 0, 0, 0, 0, 0, 0, 0, 0, 0, 0, 0, 0, 0, 0, 0, 0, 0, 0,
       0, 0, 0, 0, 0, 0, 0, 0, 0, 0, 0, 0, 0, 0, 0, 0, 0, 0, 0, 0, 0, 0,
       0, 0, 0, 0, 0, 0, 0, 0 ]
   class_labels: [ 0, 1, 2, 3 ]
   missing_subst: [ 0., 0., 0., 0., 0., 0., 0., 0., 0., 0., 0., 0., 0.,
       0., 0., 0., 0., 0., 0., 0., 0., 0., 0., 0., 0., 0., 0., 0., 0.,
       0., 0., 0., 0., 0., 0., 0., 0., 0., 0., 0., 0., 0., 0., 0., 0.,
       0., 0., 0., 0., 0., 0., 0., 0., 0., 0., 0., 0., 0., 0., 0., 0.,
       0., 0., 0., 0., 0., 0., 0., 0., 0., 0., 0., 0., 0., 0., 0., 0.,
       0., 0., 0., 0., 0., 0., 0., 0., 0., 0., 0., 0., 0., 0., 0., 0.,
       0., 0., 0., 0., 0., 0., 0., 0., 0., 0., 0., 0., 0., 0., 0., 0.,
       0., 0., 0., 0., 0., 0., 0., 0., 0., 0., 0., 0., 0., 0., 0., 0.,
       0., 0., 0., 0., 0., 0., 0., 0., 0., 0., 0., 0., 0., 0., 0., 0.,
       0., 0., 0., 0., 0., 0., 0., 0., 0., 0., 0., 0., 0., 0., 0., 0.,
       0., 0., 0., 0., 0., 0., 0., 0., 0., 0., 0., 0., 0., 0., 0., 0.,
       0., 0., 0., 0., 0., 0., 0., 0., 0., 0., 0., 0., 0., 0., 0., 0.,
       0., 0., 0., 0., 0., 0., 0., 0., 0., 0., 0., 0., 0., 0., 0., 0.,
       0., 0., 0., 0., 0., 0., 0., 0., 0., 0., 0., 0., 0., 0., 0., 0.,
       0., 0., 0., 0., 0., 0., 0., 0., 0., 0., 0., 0., 0., 0., 0., 0.,
       0., 0., 0., 0., 0., 0., 0., 0., 0., 0., 0., 0., 0., 0., 0., 0.,
       0., 0., 0., 0. ]
   oob_error: 3.0656264341441031e-01
   ntrees: 50
   trees:
      -
         nodes:
            -
               depth: 0
               value: 0.
               norm_class_idx: 0
               splits:
                  - { var:225, quality:4.6045043945312500e+03,
                      le:-8.5751986503601074e-01 }
            -
               depth: 1
               value: 3.
               norm_class_idx: 3
               splits:
                  - { var:11, quality:1.1682009277343750e+03,
                      le:-4.3364331126213074e-01 }
            -
               depth: 2
               value: 1.
               norm_class_idx: 1
               splits:
                  - { var:2, quality:2.7619131469726562e+02,
                      le:-4.5144081115722656e-01 }
            -
               depth: 3
               value: 1.
               norm_class_idx: 1
               splits:
                  - { var:35, quality:2.1279077148437500e+02,
                      le:-9.7758162021636963e-01 }
            -
               depth: 4
               value: 1.
               norm_class_idx: 1
               splits:
                  - { var:0, quality:1.2706854248046875e+02,
                      le:-5.5563139915466309e-01 }
            -
               depth: 5
               value: 1.
               norm_class_idx: 1
            -
               depth: 5
               value: 1.
               norm_class_idx: 1
            -
               depth: 4
               value: 1.
               norm_class_idx: 1
               splits:
                  - { var:155, quality:1.0407745361328125e+02,
                      le:1.0247223377227783e+00 }
            -
               depth: 5
               value: 1.
               norm_class_idx: 1
            -
               depth: 5
               value: 1.
               norm_class_idx: 1
            -
               depth: 3
               value: 0.
               norm_class_idx: 0
               splits:
                  - { var:119, quality:9.0061569213867188e+01,
                      le:2.5649684667587280e-01 }
            -
               depth: 4
               value: 1.
               norm_class_idx: 1
               splits:
                  - { var:202, quality:3.9757575988769531e+01,
                      le:2.3604235649108887e+00 }
            -
               depth: 5
               value: 1.
               norm_class_idx: 1
            -
               depth: 5
               value: 0.
               norm_class_idx: 0
            -
               depth: 4
               value: 0.
               norm_class_idx: 0
               splits:
                  - { var:4, quality:6.7647056579589844e+01,
                      le:-4.2834889888763428e-01 }
            -
               depth: 5
               value: 1.
               norm_class_idx: 1
            -
               depth: 5
               value: 0.
               norm_class_idx: 0
            -
               depth: 2
               value: 3.
               norm_class_idx: 3
               splits:
                  - { var:182, quality:1.0738657226562500e+03,
                      le:5.9547209739685059e-01 }
            -
               depth: 3
               value: 3.
               norm_class_idx: 3
               splits:
                  - { var:181, quality:9.6817315673828125e+02,
                      le:-1.4460637569427490e+00 }
            -
               depth: 4
               value: 0.
               norm_class_idx: 0
               splits:
                  - { var:40, quality:2.3945516967773438e+02,
                      le:-3.1520688533782959e-01 }
            -
               depth: 5
               value: 0.
               norm_class_idx: 0
            -
               depth: 5
               value: 1.
               norm_class_idx: 1
            -
               depth: 4
               value: 3.
               norm_class_idx: 3
               splits:
                  - { var:109, quality:8.9507348632812500e+02,
                      le:6.3888418674468994e-01 }
            -
               depth: 5
               value: 3.
               norm_class_idx: 3
            -
               depth: 5
               value: 3.
               norm_class_idx: 3
            -
               depth: 3
               value: 2.
               norm_class_idx: 2
               splits:
                  - { var:12, quality:2.3643876647949219e+02,
                      le:-1.4239540696144104e-01 }
            -
               depth: 4
               value: 1.
               norm_class_idx: 1
               splits:
                  - { var:12, quality:1.1692567443847656e+02,
                      le:-3.0905956029891968e-01 }
            -
               depth: 5
               value: 1.
               norm_class_idx: 1
            -
               depth: 5
               value: 2.
               norm_class_idx: 2
            -
               depth: 4
               value: 2.
               norm_class_idx: 2
               splits:
                  - { var:147, quality:1.4166181945800781e+02,
                      le:7.1762704849243164e-01 }
            -
               depth: 5
               value: 2.
               norm_class_idx: 2
            -
               depth: 5
               value: 3.
               norm_class_idx: 3
            -
               depth: 1
               value: 0.
               norm_class_idx: 0
               splits:
                  - { var:58, quality:3.8978562011718750e+03,
                      le:9.1451987624168396e-02 }
            -
               depth: 2
               value: 0.
               norm_class_idx: 0
               splits:
                  - { var:254, quality:1.8482814941406250e+03,
                      le:2.8226725757122040e-02 }
            -
               depth: 3
               value: 0.
               norm_class_idx: 0
               splits:
                  - { var:138, quality:1.6767465820312500e+03,
                      le:6.5692329406738281e-01 }
            -
               depth: 4
               value: 0.
               norm_class_idx: 0
               splits:
                  - { var:119, quality:1.4839602050781250e+03,
                      le:-1.1323540210723877e+00 }
            -
               depth: 5
               value: 3.
               norm_class_idx: 3
            -
               depth: 5
               value: 0.
               norm_class_idx: 0
            -
               depth: 4
               value: 3.
               norm_class_idx: 3
               splits:
                  - { var:39, quality:2.8311755371093750e+02,
                      le:-1.0175330638885498e+00 }
            -
               depth: 5
               value: 1.
               norm_class_idx: 1
            -
               depth: 5
               value: 3.
               norm_class_idx: 3
            -
               depth: 3
               value: 1.
               norm_class_idx: 1
               splits:
                  - { var:44, quality:2.9812908935546875e+02,
                      le:4.2551064491271973e-01 }
            -
               depth: 4
               value: 1.
               norm_class_idx: 1
               splits:
                  - { var:211, quality:2.9916717529296875e+02,
                      le:-9.2557686567306519e-01 }
            -
               depth: 5
               value: 0.
               norm_class_idx: 0
            -
               depth: 5
               value: 1.
               norm_class_idx: 1
            -
               depth: 4
               value: 3.
               norm_class_idx: 3
            -
               depth: 2
               value: 0.
               norm_class_idx: 0
               splits:
                  - { var:240, quality:2.3974846191406250e+03,
                      le:-5.1248228549957275e-01 }
            -
               depth: 3
               value: 0.
               norm_class_idx: 0
               splits:
                  - { var:207, quality:1.3349333190917969e+02,
                      le:7.8171354532241821e-01 }
            -
               depth: 4
               value: 0.
               norm_class_idx: 0
               splits:
                  - { var:92, quality:1.2555548858642578e+02,
                      le:9.5960479974746704e-01 }
            -
               depth: 5
               value: 0.
               norm_class_idx: 0
            -
               depth: 5
               value: 3.
               norm_class_idx: 3
            -
               depth: 4
               value: 1.
               norm_class_idx: 1
               splits:
                  - { var:184, quality:3.6614379882812500e+01,
                      le:-1.5059436857700348e-01 }
            -
               depth: 5
               value: 0.
               norm_class_idx: 0
            -
               depth: 5
               value: 1.
               norm_class_idx: 1
            -
               depth: 3
               value: 0.
               norm_class_idx: 0
               splits:
                  - { var:94, quality:2.3435649414062500e+03,
                      le:9.3646752834320068e-01 }
            -
               depth: 4
               value: 0.
               norm_class_idx: 0
               splits:
                  - { var:151, quality:2.3564389648437500e+03,
                      le:-9.6561229228973389e-01 }
            -
               depth: 5
               value: 0.
               norm_class_idx: 0
            -
               depth: 5
               value: 0.
               norm_class_idx: 0
            -
               depth: 4
               value: 3.
               norm_class_idx: 3
               splits:
                  - { var:12, quality:4.4691822052001953e+01,
                      le:-3.6646610498428345e-01 }
            -
               depth: 5
               value: 1.
               norm_class_idx: 1
            -
               depth: 5
               value: 3.
               norm_class_idx: 3
      -
         nodes:
            -
               depth: 0
               value: 0.
               norm_class_idx: 0
               splits:
                  - { var:224, quality:4.5704941406250000e+03,
                      le:-8.7404823303222656e-01 }
            -
               depth: 1
               value: 3.
               norm_class_idx: 3
               splits:
                  - { var:12, quality:1.1008671875000000e+03,
                      le:-4.2387261986732483e-01 }
            -
               depth: 2
               value: 1.
               norm_class_idx: 1
               splits:
                  - { var:50, quality:2.5237356567382812e+02,
                      le:-1.1414422988891602e+00 }
            -
               depth: 3
               value: 1.
               norm_class_idx: 1
               splits:
                  - { var:199, quality:8.1162788391113281e+01,
                      le:3.4408950805664062e+00 }
            -
               depth: 4
               value: 1.
               norm_class_idx: 1
               splits:
                  - { var:103, quality:8.2094116210937500e+01,
                      le:-1.6956599950790405e+00 }
            -
               depth: 5
               value: 0.
               norm_class_idx: 0
            -
               depth: 5
               value: 1.
               norm_class_idx: 1
            -
               depth: 4
               value: 2.
               norm_class_idx: 2
            -
               depth: 3
               value: 1.
               norm_class_idx: 1
               splits:
                  - { var:9, quality:2.0249571228027344e+02,
                      le:-4.4633495807647705e-01 }
            -
               depth: 4
               value: 1.
               norm_class_idx: 1
               splits:
                  - { var:21, quality:1.3759925842285156e+02,
                      le:-3.1978458166122437e-01 }
            -
               depth: 5
               value: 1.
               norm_class_idx: 1
            -
               depth: 5
               value: 1.
               norm_class_idx: 1
            -
               depth: 4
               value: 0.
               norm_class_idx: 0
               splits:
                  - { var:195, quality:9.1615898132324219e+01,
                      le:-1.5147650241851807e+00 }
            -
               depth: 5
               value: 0.
               norm_class_idx: 0
            -
               depth: 5
               value: 1.
               norm_class_idx: 1
            -
               depth: 2
               value: 3.
               norm_class_idx: 3
               splits:
                  - { var:106, quality:9.8957116699218750e+02,
                      le:3.3270022273063660e-01 }
            -
               depth: 3
               value: 2.
               norm_class_idx: 2
               splits:
                  - { var:177, quality:2.9347375488281250e+02,
                      le:7.3630422353744507e-01 }
            -
               depth: 4
               value: 3.
               norm_class_idx: 3
               splits:
                  - { var:0, quality:1.7664248657226562e+02,
                      le:-5.2292317152023315e-01 }
            -
               depth: 5
               value: 3.
               norm_class_idx: 3
            -
               depth: 5
               value: 1.
               norm_class_idx: 1
            -
               depth: 4
               value: 2.
               norm_class_idx: 2
               splits:
                  - { var:69, quality:1.6760336303710938e+02,
                      le:-1.0955283641815186e+00 }
            -
               depth: 5
               value: 1.
               norm_class_idx: 1
            -
               depth: 5
               value: 2.
               norm_class_idx: 2
            -
               depth: 3
               value: 3.
               norm_class_idx: 3
               splits:
                  - { var:183, quality:8.2444110107421875e+02,
                      le:-1.6200801134109497e+00 }
            -
               depth: 4
               value: 0.
               norm_class_idx: 0
               splits:
                  - { var:43, quality:1.9665199279785156e+02,
                      le:-3.2647883892059326e-01 }
            -
               depth: 5
               value: 0.
               norm_class_idx: 0
            -
               depth: 5
               value: 1.
               norm_class_idx: 1
            -
               depth: 4
               value: 3.
               norm_class_idx: 3
               splits:
                  - { var:167, quality:7.5747430419921875e+02,
                      le:7.4704527854919434e-01 }
            -
               depth: 5
               value: 3.
               norm_class_idx: 3
            -
               depth: 5
               value: 0.
               norm_class_idx: 0
            -
               depth: 1
               value: 0.
               norm_class_idx: 0
               splits:
                  - { var:251, quality:4.0689592285156250e+03,
                      le:4.5288068056106567e-01 }
            -
               depth: 2
               value: 0.
               norm_class_idx: 0
               splits:
                  - { var:69, quality:3.9499001464843750e+03,
                      le:1.8200556933879852e-01 }
            -
               depth: 3
               value: 0.
               norm_class_idx: 0
               splits:
                  - { var:144, quality:1.7220882568359375e+03,
                      le:6.5724337100982666e-01 }
            -
               depth: 4
               value: 0.
               norm_class_idx: 0
               splits:
                  - { var:3, quality:1.5579332275390625e+03,
                      le:-2.7646139264106750e-01 }
            -
               depth: 5
               value: 0.
               norm_class_idx: 0
            -
               depth: 5
               value: 3.
               norm_class_idx: 3
            -
               depth: 4
               value: 3.
               norm_class_idx: 3
               splits:
                  - { var:61, quality:3.2629324340820312e+02,
                      le:-1.2202953100204468e+00 }
            -
               depth: 5
               value: 1.
               norm_class_idx: 1
            -
               depth: 5
               value: 3.
               norm_class_idx: 3
            -
               depth: 3
               value: 0.
               norm_class_idx: 0
               splits:
                  - { var:106, quality:2.4750837402343750e+03,
                      le:5.3890275955200195e-01 }
            -
               depth: 4
               value: 0.
               norm_class_idx: 0
               splits:
                  - { var:33, quality:2.4070644531250000e+03,
                      le:-7.4207091331481934e-01 }
            -
               depth: 5
               value: 1.
               norm_class_idx: 1
            -
               depth: 5
               value: 0.
               norm_class_idx: 0
            -
               depth: 4
               value: 3.
               norm_class_idx: 3
               splits:
                  - { var:153, quality:1.3273040771484375e+02,
                      le:-2.9385673999786377e-01 }
            -
               depth: 5
               value: 3.
               norm_class_idx: 3
            -
               depth: 5
               value: 0.
               norm_class_idx: 0
            -
               depth: 2
               value: 1.
               norm_class_idx: 1
               splits:
                  - { var:253, quality:4.3228985595703125e+02,
                      le:3.3210593461990356e-01 }
            -
               depth: 3
               value: 1.
               norm_class_idx: 1
               splits:
                  - { var:243, quality:7.0399452209472656e+01,
                      le:1.8249397277832031e+00 }
            -
               depth: 4
               value: 0.
               norm_class_idx: 0
               splits:
                  - { var:188, quality:3.3043659210205078e+01,
                      le:-3.8289093971252441e-01 }
            -
               depth: 5
               value: 3.
               norm_class_idx: 3
            -
               depth: 5
               value: 0.
               norm_class_idx: 0
            -
               depth: 4
               value: 1.
               norm_class_idx: 1
               splits:
                  - { var:69, quality:5.4163478851318359e+01,
                      le:-9.7268849611282349e-01 }
            -
               depth: 5
               value: 0.
               norm_class_idx: 0
            -
               depth: 5
               value: 1.
               norm_class_idx: 1
            -
               depth: 3
               value: 1.
               norm_class_idx: 1
               splits:
                  - { var:110, quality:3.9679290771484375e+02,
                      le:-1.5592207908630371e+00 }
            -
               depth: 4
               value: 3.
               norm_class_idx: 3
            -
               depth: 4
               value: 1.
               norm_class_idx: 1
               splits:
                  - { var:8, quality:3.9762051391601562e+02,
                      le:1.2162652015686035e+00 }
            -
               depth: 5
               value: 1.
               norm_class_idx: 1
            -
               depth: 5
               value: 3.
               norm_class_idx: 3
      -
         nodes:
            -
               depth: 0
               value: 0.
               norm_class_idx: 0
               splits:
                  - { var:236, quality:4.6310541992187500e+03,
                      le:-6.2202882766723633e-01 }
            -
               depth: 1
               value: 3.
               norm_class_idx: 3
               splits:
                  - { var:17, quality:1.5786541748046875e+03,
                      le:-3.5973006486892700e-01 }
            -
               depth: 2
               value: 1.
               norm_class_idx: 1
               splits:
                  - { var:4, quality:5.2231506347656250e+02,
                      le:-4.8016184568405151e-01 }
            -
               depth: 3
               value: 1.
               norm_class_idx: 1
               splits:
                  - { var:9, quality:2.2987670898437500e+02,
                      le:-4.6100825071334839e-01 }
            -
               depth: 4
               value: 1.
               norm_class_idx: 1
               splits:
                  - { var:32, quality:2.3383720397949219e+02,
                      le:2.2960962355136871e-01 }
            -
               depth: 5
               value: 1.
               norm_class_idx: 1
            -
               depth: 5
               value: 1.
               norm_class_idx: 1
            -
               depth: 4
               value: 0.
               norm_class_idx: 0
               splits:
                  - { var:27, quality:1.2956521987915039e+01,
                      le:6.4831197261810303e-02 }
            -
               depth: 5
               value: 0.
               norm_class_idx: 0
            -
               depth: 5
               value: 1.
               norm_class_idx: 1
            -
               depth: 3
               value: 1.
               norm_class_idx: 1
               splits:
                  - { var:183, quality:3.4147955322265625e+02,
                      le:-1.8486100435256958e+00 }
            -
               depth: 4
               value: 0.
               norm_class_idx: 0
               splits:
                  - { var:27, quality:8.8457626342773438e+01,
                      le:-2.3947548866271973e-01 }
            -
               depth: 5
               value: 0.
               norm_class_idx: 0
            -
               depth: 5
               value: 1.
               norm_class_idx: 1
            -
               depth: 4
               value: 1.
               norm_class_idx: 1
               splits:
                  - { var:97, quality:2.8013323974609375e+02,
                      le:1.6772660017013550e+00 }
            -
               depth: 5
               value: 1.
               norm_class_idx: 1
            -
               depth: 5
               value: 3.
               norm_class_idx: 3
            -
               depth: 2
               value: 3.
               norm_class_idx: 3
               splits:
                  - { var:189, quality:1.2661202392578125e+03,
                      le:5.8361953496932983e-01 }
            -
               depth: 3
               value: 3.
               norm_class_idx: 3
               splits:
                  - { var:189, quality:1.1076717529296875e+03,
                      le:-1.3879026174545288e+00 }
            -
               depth: 4
               value: 1.
               norm_class_idx: 1
               splits:
                  - { var:62, quality:2.0796725463867188e+02,
                      le:7.2762179374694824e-01 }
            -
               depth: 5
               value: 0.
               norm_class_idx: 0
            -
               depth: 5
               value: 1.
               norm_class_idx: 1
            -
               depth: 4
               value: 3.
               norm_class_idx: 3
               splits:
                  - { var:116, quality:1.0176741333007812e+03,
                      le:6.9283008575439453e-01 }
            -
               depth: 5
               value: 3.
               norm_class_idx: 3
            -
               depth: 5
               value: 3.
               norm_class_idx: 3
            -
               depth: 3
               value: 2.
               norm_class_idx: 2
               splits:
                  - { var:62, quality:2.6273614501953125e+02,
                      le:-1.0653122663497925e+00 }
            -
               depth: 4
               value: 0.
               norm_class_idx: 0
               splits:
                  - { var:125, quality:6.5566612243652344e+01,
                      le:-9.4949856400489807e-02 }
            -
               depth: 5
               value: 0.
               norm_class_idx: 0
            -
               depth: 5
               value: 1.
               norm_class_idx: 1
            -
               depth: 4
               value: 2.
               norm_class_idx: 2
               splits:
                  - { var:110, quality:2.5027993774414062e+02,
                      le:3.1602489948272705e-01 }
            -
               depth: 5
               value: 2.
               norm_class_idx: 2
            -
               depth: 5
               value: 3.
               norm_class_idx: 3
            -
               depth: 1
               value: 0.
               norm_class_idx: 0
               splits:
                  - { var:254, quality:3.6941181640625000e+03,
                      le:2.5478523969650269e-01 }
            -
               depth: 2
               value: 0.
               norm_class_idx: 0
               splits:
                  - { var:100, quality:3.5134348144531250e+03,
                      le:-8.9509046077728271e-01 }
            -
               depth: 3
               value: 3.
               norm_class_idx: 3
               splits:
                  - { var:168, quality:3.7882672119140625e+02,
                      le:7.7169859409332275e-01 }
            -
               depth: 4
               value: 0.
               norm_class_idx: 0
               splits:
                  - { var:6, quality:2.6716619873046875e+02,
                      le:-4.2329320311546326e-01 }
            -
               depth: 5
               value: 0.
               norm_class_idx: 0
            -
               depth: 5
               value: 3.
               norm_class_idx: 3
            -
               depth: 4
               value: 3.
               norm_class_idx: 3
               splits:
                  - { var:132, quality:1.7750756835937500e+02,
                      le:5.3894495964050293e-01 }
            -
               depth: 5
               value: 3.
               norm_class_idx: 3
            -
               depth: 5
               value: 1.
               norm_class_idx: 1
            -
               depth: 3
               value: 0.
               norm_class_idx: 0
               splits:
                  - { var:0, quality:3.3288522949218750e+03,
                      le:-5.4752939939498901e-01 }
            -
               depth: 4
               value: 0.
               norm_class_idx: 0
               splits:
                  - { var:207, quality:5.9847229003906250e+02,
                      le:5.2082240581512451e-01 }
            -
               depth: 5
               value: 3.
               norm_class_idx: 3
            -
               depth: 5
               value: 0.
               norm_class_idx: 0
            -
               depth: 4
               value: 0.
               norm_class_idx: 0
               splits:
                  - { var:63, quality:2.8810444335937500e+03,
                      le:3.2207882404327393e-01 }
            -
               depth: 5
               value: 0.
               norm_class_idx: 0
            -
               depth: 5
               value: 0.
               norm_class_idx: 0
            -
               depth: 2
               value: 1.
               norm_class_idx: 1
               splits:
                  - { var:236, quality:3.3090689086914062e+02,
                      le:2.4969763755798340e+00 }
            -
               depth: 3
               value: 1.
               norm_class_idx: 1
               splits:
                  - { var:13, quality:3.3327090454101562e+02,
                      le:8.7594419717788696e-01 }
            -
               depth: 4
               value: 1.
               norm_class_idx: 1
               splits:
                  - { var:35, quality:3.3177685546875000e+02,
                      le:-6.5789759159088135e-01 }
            -
               depth: 5
               value: 1.
               norm_class_idx: 1
            -
               depth: 5
               value: 1.
               norm_class_idx: 1
            -
               depth: 4
               value: 3.
               norm_class_idx: 3
            -
               depth: 3
               value: 0.
               norm_class_idx: 0
      -
         nodes:
            -
               depth: 0
               value: 0.
               norm_class_idx: 0
               splits:
                  - { var:240, quality:4.6103017578125000e+03,
                      le:-5.0098371505737305e-01 }
            -
               depth: 1
               value: 3.
               norm_class_idx: 3
               splits:
                  - { var:26, quality:1.6633703613281250e+03,
                      le:-4.9307793378829956e-01 }
            -
               depth: 2
               value: 1.
               norm_class_idx: 1
               splits:
                  - { var:12, quality:5.0087234497070312e+02,
                      le:-4.8683464527130127e-01 }
            -
               depth: 3
               value: 1.
               norm_class_idx: 1
               splits:
                  - { var:229, quality:2.3035374450683594e+02,
                      le:1.9595556259155273e+00 }
            -
               depth: 4
               value: 1.
               norm_class_idx: 1
               splits:
                  - { var:28, quality:2.2834843444824219e+02,
                      le:-4.7962170839309692e-01 }
            -
               depth: 5
               value: 1.
               norm_class_idx: 1
            -
               depth: 5
               value: 0.
               norm_class_idx: 0
            -
               depth: 4
               value: 0.
               norm_class_idx: 0
            -
               depth: 3
               value: 0.
               norm_class_idx: 0
               splits:
                  - { var:133, quality:3.1657339477539062e+02,
                      le:2.2603573799133301e+00 }
            -
               depth: 4
               value: 1.
               norm_class_idx: 1
               splits:
                  - { var:104, quality:2.5891656494140625e+02,
                      le:-5.8538985252380371e-01 }
            -
               depth: 5
               value: 3.
               norm_class_idx: 3
            -
               depth: 5
               value: 1.
               norm_class_idx: 1
            -
               depth: 4
               value: 0.
               norm_class_idx: 0
               splits:
                  - { var:184, quality:9.1109436035156250e+01,
                      le:-2.4334760010242462e-01 }
            -
               depth: 5
               value: 0.
               norm_class_idx: 0
            -
               depth: 5
               value: 3.
               norm_class_idx: 3
            -
               depth: 2
               value: 3.
               norm_class_idx: 3
               splits:
                  - { var:109, quality:1.3943254394531250e+03,
                      le:6.2529641389846802e-01 }
            -
               depth: 3
               value: 3.
               norm_class_idx: 3
               splits:
                  - { var:183, quality:7.3291040039062500e+02,
                      le:2.5599136948585510e-01 }
            -
               depth: 4
               value: 3.
               norm_class_idx: 3
               splits:
                  - { var:12, quality:4.8465026855468750e+02,
                      le:-6.8322464823722839e-02 }
            -
               depth: 5
               value: 0.
               norm_class_idx: 0
            -
               depth: 5
               value: 3.
               norm_class_idx: 3
            -
               depth: 4
               value: 2.
               norm_class_idx: 2
               splits:
                  - { var:14, quality:3.3262017822265625e+02,
                      le:-2.0023399591445923e-01 }
            -
               depth: 5
               value: 1.
               norm_class_idx: 1
            -
               depth: 5
               value: 2.
               norm_class_idx: 2
            -
               depth: 3
               value: 3.
               norm_class_idx: 3
               splits:
                  - { var:180, quality:8.3117687988281250e+02,
                      le:-1.3740900754928589e+00 }
            -
               depth: 4
               value: 0.
               norm_class_idx: 0
               splits:
                  - { var:46, quality:1.6210458374023438e+02,
                      le:-3.5270327329635620e-01 }
            -
               depth: 5
               value: 0.
               norm_class_idx: 0
            -
               depth: 5
               value: 1.
               norm_class_idx: 1
            -
               depth: 4
               value: 3.
               norm_class_idx: 3
               splits:
                  - { var:103, quality:7.5833001708984375e+02,
                      le:1.1371281147003174e+00 }
            -
               depth: 5
               value: 3.
               norm_class_idx: 3
            -
               depth: 5
               value: 3.
               norm_class_idx: 3
            -
               depth: 1
               value: 0.
               norm_class_idx: 0
               splits:
                  - { var:250, quality:3.5248627929687500e+03,
                      le:5.0906777381896973e-01 }
            -
               depth: 2
               value: 0.
               norm_class_idx: 0
               splits:
                  - { var:74, quality:3.2959182128906250e+03,
                      le:-2.5319596752524376e-03 }
            -
               depth: 3
               value: 0.
               norm_class_idx: 0
               splits:
                  - { var:4, quality:1.2615683593750000e+03,
                      le:-2.9682365059852600e-01 }
            -
               depth: 4
               value: 0.
               norm_class_idx: 0
               splits:
                  - { var:152, quality:1.0164298095703125e+03,
                      le:7.9056382179260254e-01 }
            -
               depth: 5
               value: 0.
               norm_class_idx: 0
            -
               depth: 5
               value: 3.
               norm_class_idx: 3
            -
               depth: 4
               value: 3.
               norm_class_idx: 3
               splits:
                  - { var:64, quality:3.6064593505859375e+02,
                      le:1.1160054802894592e-01 }
            -
               depth: 5
               value: 3.
               norm_class_idx: 3
            -
               depth: 5
               value: 0.
               norm_class_idx: 0
            -
               depth: 3
               value: 0.
               norm_class_idx: 0
               splits:
                  - { var:107, quality:2.2245007324218750e+03,
                      le:4.5190629363059998e-01 }
            -
               depth: 4
               value: 0.
               norm_class_idx: 0
               splits:
                  - { var:158, quality:2.1641669921875000e+03,
                      le:-8.0321514606475830e-01 }
            -
               depth: 5
               value: 0.
               norm_class_idx: 0
            -
               depth: 5
               value: 0.
               norm_class_idx: 0
            -
               depth: 4
               value: 3.
               norm_class_idx: 3
               splits:
                  - { var:22, quality:1.0094239044189453e+02,
                      le:-4.0754923224449158e-01 }
            -
               depth: 5
               value: 1.
               norm_class_idx: 1
            -
               depth: 5
               value: 3.
               norm_class_idx: 3
            -
               depth: 2
               value: 1.
               norm_class_idx: 1
               splits:
                  - { var:227, quality:4.1516339111328125e+02,
                      le:1.1755261421203613e+00 }
            -
               depth: 3
               value: 1.
               norm_class_idx: 1
               splits:
                  - { var:36, quality:3.8362997436523438e+02,
                      le:1.4765052124857903e-02 }
            -
               depth: 4
               value: 1.
               norm_class_idx: 1
               splits:
                  - { var:235, quality:3.5274649047851562e+02,
                      le:2.7092950344085693e+00 }
            -
               depth: 5
               value: 1.
               norm_class_idx: 1
            -
               depth: 5
               value: 0.
               norm_class_idx: 0
            -
               depth: 4
               value: 1.
               norm_class_idx: 1
               splits:
                  - { var:237, quality:4.2239761352539062e+01,
                      le:1.4930729866027832e+00 }
            -
               depth: 5
               value: 1.
               norm_class_idx: 1
            -
               depth: 5
               value: 0.
               norm_class_idx: 0
            -
               depth: 3
               value: 0.
               norm_class_idx: 0
               splits:
                  - { var:135, quality:6.0033332824707031e+01,
                      le:-1.1933460235595703e+00 }
            -
               depth: 4
               value: 1.
               norm_class_idx: 1
               splits:
                  - { var:251, quality:3.2693965911865234e+01,
                      le:2.8472898006439209e+00 }
            -
               depth: 5
               value: 0.
               norm_class_idx: 0
            -
               depth: 5
               value: 1.
               norm_class_idx: 1
            -
               depth: 4
               value: 0.
               norm_class_idx: 0
               splits:
                  - { var:231, quality:4.2408432006835938e+01,
                      le:2.8997616767883301e+00 }
            -
               depth: 5
               value: 0.
               norm_class_idx: 0
            -
               depth: 5
               value: 3.
               norm_class_idx: 3
      -
         nodes:
            -
               depth: 0
               value: 0.
               norm_class_idx: 0
               splits:
                  - { var:238, quality:4.5867265625000000e+03,
                      le:-5.6414294242858887e-01 }
            -
               depth: 1
               value: 3.
               norm_class_idx: 3
               splits:
                  - { var:17, quality:1.5722880859375000e+03,
                      le:-3.3930385112762451e-01 }
            -
               depth: 2
               value: 1.
               norm_class_idx: 1
               splits:
                  - { var:3, quality:5.2882873535156250e+02,
                      le:-4.8246505856513977e-01 }
            -
               depth: 3
               value: 1.
               norm_class_idx: 1
               splits:
                  - { var:222, quality:2.6463647460937500e+02,
                      le:-5.9546589851379395e-01 }
            -
               depth: 4
               value: 1.
               norm_class_idx: 1
               splits:
                  - { var:13, quality:2.4848103332519531e+02,
                      le:-2.6803505420684814e-01 }
            -
               depth: 5
               value: 1.
               norm_class_idx: 1
            -
               depth: 5
               value: 0.
               norm_class_idx: 0
            -
               depth: 4
               value: 0.
               norm_class_idx: 0
               splits:
                  - { var:19, quality:4.7970706939697266e+01,
                      le:-4.9761044979095459e-01 }
            -
               depth: 5
               value: 1.
               norm_class_idx: 1
            -
               depth: 5
               value: 0.
               norm_class_idx: 0
            -
               depth: 3
               value: 0.
               norm_class_idx: 0
               splits:
                  - { var:208, quality:3.2366027832031250e+02,
                      le:-2.2843340039253235e-01 }
            -
               depth: 4
               value: 0.
               norm_class_idx: 0
               splits:
                  - { var:179, quality:1.9528244018554688e+02,
                      le:-1.9019987583160400e+00 }
            -
               depth: 5
               value: 0.
               norm_class_idx: 0
            -
               depth: 5
               value: 0.
               norm_class_idx: 0
            -
               depth: 4
               value: 1.
               norm_class_idx: 1
               splits:
                  - { var:117, quality:1.7389878845214844e+02,
                      le:-1.0304596424102783e+00 }
            -
               depth: 5
               value: 3.
               norm_class_idx: 3
            -
               depth: 5
               value: 1.
               norm_class_idx: 1
            -
               depth: 2
               value: 3.
               norm_class_idx: 3
               splits:
                  - { var:189, quality:1.2382845458984375e+03,
                      le:7.4195420742034912e-01 }
            -
               depth: 3
               value: 3.
               norm_class_idx: 3
               splits:
                  - { var:52, quality:1.1248588867187500e+03,
                      le:1.4029157161712646e+00 }
            -
               depth: 4
               value: 3.
               norm_class_idx: 3
               splits:
                  - { var:149, quality:1.0963629150390625e+03,
                      le:-8.1097841262817383e-02 }
            -
               depth: 5
               value: 3.
               norm_class_idx: 3
            -
               depth: 5
               value: 3.
               norm_class_idx: 3
            -
               depth: 4
               value: 1.
               norm_class_idx: 1
               splits:
                  - { var:186, quality:1.1223676300048828e+02,
                      le:-8.7480974197387695e-01 }
            -
               depth: 5
               value: 1.
               norm_class_idx: 1
            -
               depth: 5
               value: 0.
               norm_class_idx: 0
            -
               depth: 3
               value: 2.
               norm_class_idx: 2
               splits:
                  - { var:73, quality:2.1572558593750000e+02,
                      le:-1.2162905931472778e+00 }
            -
               depth: 4
               value: 3.
               norm_class_idx: 3
               splits:
                  - { var:226, quality:5.7129268646240234e+01,
                      le:-8.6340057849884033e-01 }
            -
               depth: 5
               value: 1.
               norm_class_idx: 1
            -
               depth: 5
               value: 0.
               norm_class_idx: 0
            -
               depth: 4
               value: 2.
               norm_class_idx: 2
               splits:
                  - { var:21, quality:1.9861312866210938e+02,
                      le:-1.6713429987430573e-01 }
            -
               depth: 5
               value: 1.
               norm_class_idx: 1
            -
               depth: 5
               value: 2.
               norm_class_idx: 2
            -
               depth: 1
               value: 0.
               norm_class_idx: 0
               splits:
                  - { var:43, quality:3.4353554687500000e+03,
                      le:3.0273247975856066e-03 }
            -
               depth: 2
               value: 0.
               norm_class_idx: 0
               splits:
                  - { var:150, quality:1.4700035400390625e+03,
                      le:4.5018792152404785e-01 }
            -
               depth: 3
               value: 0.
               norm_class_idx: 0
               splits:
                  - { var:106, quality:1.2161656494140625e+03,
                      le:-9.3295657634735107e-01 }
            -
               depth: 4
               value: 3.
               norm_class_idx: 3
               splits:
                  - { var:252, quality:3.1148501586914062e+02,
                      le:9.5975208282470703e-01 }
            -
               depth: 5
               value: 3.
               norm_class_idx: 3
            -
               depth: 5
               value: 1.
               norm_class_idx: 1
            -
               depth: 4
               value: 0.
               norm_class_idx: 0
               splits:
                  - { var:253, quality:1.1457590332031250e+03,
                      le:3.3884206414222717e-01 }
            -
               depth: 5
               value: 0.
               norm_class_idx: 0
            -
               depth: 5
               value: 1.
               norm_class_idx: 1
            -
               depth: 3
               value: 3.
               norm_class_idx: 3
               splits:
                  - { var:244, quality:4.1095343017578125e+02,
                      le:-1.1018982529640198e-01 }
            -
               depth: 4
               value: 3.
               norm_class_idx: 3
               splits:
                  - { var:0, quality:3.6809606933593750e+02,
                      le:-5.1692163944244385e-01 }
            -
               depth: 5
               value: 3.
               norm_class_idx: 3
            -
               depth: 5
               value: 0.
               norm_class_idx: 0
            -
               depth: 4
               value: 1.
               norm_class_idx: 1
               splits:
                  - { var:38, quality:1.1471406555175781e+02,
                      le:-9.2181706428527832e-01 }
            -
               depth: 5
               value: 1.
               norm_class_idx: 1
            -
               depth: 5
               value: 1.
               norm_class_idx: 1
            -
               depth: 2
               value: 0.
               norm_class_idx: 0
               splits:
                  - { var:156, quality:2.1180659179687500e+03,
                      le:-8.4929114580154419e-01 }
            -
               depth: 3
               value: 0.
               norm_class_idx: 0
               splits:
                  - { var:252, quality:2.8261050415039062e+02,
                      le:3.2379487156867981e-01 }
            -
               depth: 4
               value: 0.
               norm_class_idx: 0
               splits:
                  - { var:68, quality:2.7086666870117188e+02,
                      le:1.1526416987180710e-01 }
            -
               depth: 5
               value: 3.
               norm_class_idx: 3
            -
               depth: 5
               value: 0.
               norm_class_idx: 0
            -
               depth: 4
               value: 1.
               norm_class_idx: 1
               splits:
                  - { var:192, quality:29., le:1.0753687471151352e-01 }
            -
               depth: 5
               value: 1.
               norm_class_idx: 1
            -
               depth: 5
               value: 0.
               norm_class_idx: 0
            -
               depth: 3
               value: 0.
               norm_class_idx: 0
               splits:
                  - { var:70, quality:1.9086341552734375e+03,
                      le:-3.7911236286163330e-03 }
            -
               depth: 4
               value: 0.
               norm_class_idx: 0
               splits:
                  - { var:38, quality:1.4056071472167969e+02,
                      le:6.1020433902740479e-01 }
            -
               depth: 5
               value: 3.
               norm_class_idx: 3
            -
               depth: 5
               value: 0.
               norm_class_idx: 0
            -
               depth: 4
               value: 0.
               norm_class_idx: 0
               splits:
                  - { var:114, quality:1.8051785888671875e+03,
                      le:-1.4767220616340637e-01 }
            -
               depth: 5
               value: 0.
               norm_class_idx: 0
            -
               depth: 5
               value: 0.
               norm_class_idx: 0
      -
         nodes:
            -
               depth: 0
               value: 0.
               norm_class_idx: 0
               splits:
                  - { var:224, quality:4.5120263671875000e+03,
                      le:-8.7404823303222656e-01 }
            -
               depth: 1
               value: 3.
               norm_class_idx: 3
               splits:
                  - { var:179, quality:1.1471295166015625e+03,
                      le:5.5645805597305298e-01 }
            -
               depth: 2
               value: 3.
               norm_class_idx: 3
               splits:
                  - { var:186, quality:1.0102595214843750e+03,
                      le:-1.5186200141906738e+00 }
            -
               depth: 3
               value: 0.
               norm_class_idx: 0
               splits:
                  - { var:47, quality:2.9719735717773438e+02,
                      le:-2.7837786078453064e-01 }
            -
               depth: 4
               value: 0.
               norm_class_idx: 0
               splits:
                  - { var:33, quality:2.2127507019042969e+02,
                      le:-8.8863766193389893e-01 }
            -
               depth: 5
               value: 1.
               norm_class_idx: 1
            -
               depth: 5
               value: 0.
               norm_class_idx: 0
            -
               depth: 4
               value: 1.
               norm_class_idx: 1
               splits:
                  - { var:100, quality:1.3216378784179688e+02,
                      le:1.8103003501892090e+00 }
            -
               depth: 5
               value: 1.
               norm_class_idx: 1
            -
               depth: 5
               value: 3.
               norm_class_idx: 3
            -
               depth: 3
               value: 3.
               norm_class_idx: 3
               splits:
                  - { var:100, quality:9.0087469482421875e+02,
                      le:1.1612982749938965e+00 }
            -
               depth: 4
               value: 3.
               norm_class_idx: 3
               splits:
                  - { var:201, quality:4.3109414672851562e+02,
                      le:4.8589748144149780e-01 }
            -
               depth: 5
               value: 3.
               norm_class_idx: 3
            -
               depth: 5
               value: 1.
               norm_class_idx: 1
            -
               depth: 4
               value: 3.
               norm_class_idx: 3
               splits:
                  - { var:43, quality:5.4146667480468750e+02,
                      le:-8.6745905876159668e-01 }
            -
               depth: 5
               value: 1.
               norm_class_idx: 1
            -
               depth: 5
               value: 3.
               norm_class_idx: 3
            -
               depth: 2
               value: 1.
               norm_class_idx: 1
               splits:
                  - { var:26, quality:3.4706045532226562e+02,
                      le:-2.8643327951431274e-01 }
            -
               depth: 3
               value: 1.
               norm_class_idx: 1
               splits:
                  - { var:33, quality:1.9273034667968750e+02,
                      le:-9.9332821369171143e-01 }
            -
               depth: 4
               value: 1.
               norm_class_idx: 1
               splits:
                  - { var:181, quality:6.8447364807128906e+01,
                      le:6.5072894096374512e+00 }
            -
               depth: 5
               value: 1.
               norm_class_idx: 1
            -
               depth: 5
               value: 2.
               norm_class_idx: 2
            -
               depth: 4
               value: 1.
               norm_class_idx: 1
               splits:
                  - { var:9, quality:1.4153692626953125e+02,
                      le:-1.3966242969036102e-01 }
            -
               depth: 5
               value: 1.
               norm_class_idx: 1
            -
               depth: 5
               value: 3.
               norm_class_idx: 3
            -
               depth: 3
               value: 2.
               norm_class_idx: 2
               splits:
                  - { var:124, quality:1.9633609008789062e+02,
                      le:4.3735206127166748e-01 }
            -
               depth: 4
               value: 2.
               norm_class_idx: 2
               splits:
                  - { var:159, quality:1.6760234069824219e+02,
                      le:2.2701318264007568e+00 }
            -
               depth: 5
               value: 2.
               norm_class_idx: 2
            -
               depth: 5
               value: 3.
               norm_class_idx: 3
            -
               depth: 4
               value: 1.
               norm_class_idx: 1
               splits:
                  - { var:63, quality:6.7730003356933594e+01,
                      le:-9.0595102310180664e-01 }
            -
               depth: 5
               value: 1.
               norm_class_idx: 1
            -
               depth: 5
               value: 2.
               norm_class_idx: 2
            -
               depth: 1
               value: 0.
               norm_class_idx: 0
               splits:
                  - { var:250, quality:3.9154199218750000e+03,
                      le:6.1036449670791626e-01 }
            -
               depth: 2
               value: 0.
               norm_class_idx: 0
               splits:
                  - { var:58, quality:3.8015976562500000e+03,
                      le:3.0404686927795410e-01 }
            -
               depth: 3
               value: 0.
               norm_class_idx: 0
               splits:
                  - { var:4, quality:1.9005134277343750e+03,
                      le:-2.8486680984497070e-01 }
            -
               depth: 4
               value: 0.
               norm_class_idx: 0
               splits:
                  - { var:143, quality:1.4614737548828125e+03,
                      le:6.8201410770416260e-01 }
            -
               depth: 5
               value: 0.
               norm_class_idx: 0
            -
               depth: 5
               value: 3.
               norm_class_idx: 3
            -
               depth: 4
               value: 3.
               norm_class_idx: 3
               splits:
                  - { var:71, quality:5.7645825195312500e+02,
                      le:-1.1667077243328094e-01 }
            -
               depth: 5
               value: 3.
               norm_class_idx: 3
            -
               depth: 5
               value: 0.
               norm_class_idx: 0
            -
               depth: 3
               value: 0.
               norm_class_idx: 0
               splits:
                  - { var:113, quality:2.0887636718750000e+03,
                      le:-1.8645542860031128e-01 }
            -
               depth: 4
               value: 0.
               norm_class_idx: 0
               splits:
                  - { var:154, quality:1.7512426757812500e+03,
                      le:-1.3846538066864014e+00 }
            -
               depth: 5
               value: 3.
               norm_class_idx: 3
            -
               depth: 5
               value: 0.
               norm_class_idx: 0
            -
               depth: 4
               value: 0.
               norm_class_idx: 0
               splits:
                  - { var:94, quality:3.8971539306640625e+02,
                      le:6.5605628490447998e-01 }
            -
               depth: 5
               value: 0.
               norm_class_idx: 0
            -
               depth: 5
               value: 3.
               norm_class_idx: 3
            -
               depth: 2
               value: 1.
               norm_class_idx: 1
               splits:
                  - { var:50, quality:4.0452215576171875e+02,
                      le:4.7495102882385254e-01 }
            -
               depth: 3
               value: 1.
               norm_class_idx: 1
               splits:
                  - { var:229, quality:4.1235848999023438e+02,
                      le:1.0707511901855469e+00 }
            -
               depth: 4
               value: 1.
               norm_class_idx: 1
               splits:
                  - { var:255, quality:3.8160000610351562e+02,
                      le:-7.5901977717876434e-02 }
            -
               depth: 5
               value: 1.
               norm_class_idx: 1
            -
               depth: 5
               value: 1.
               norm_class_idx: 1
            -
               depth: 4
               value: 1.
               norm_class_idx: 1
               splits:
                  - { var:232, quality:4.7099861145019531e+01,
                      le:2.6381669044494629e+00 }
            -
               depth: 5
               value: 1.
               norm_class_idx: 1
            -
               depth: 5
               value: 0.
               norm_class_idx: 0
            -
               depth: 3
               value: 0.
               norm_class_idx: 0
               splits:
                  - { var:150, quality:3.2897727966308594e+01,
                      le:-9.5220768451690674e-01 }
            -
               depth: 4
               value: 3.
               norm_class_idx: 3
               splits:
                  - { var:17, quality:16., le:-9.6742674708366394e-02 }
            -
               depth: 5
               value: 1.
               norm_class_idx: 1
            -
               depth: 5
               value: 3.
               norm_class_idx: 3
            -
               depth: 4
               value: 0.
               norm_class_idx: 0
               splits:
                  - { var:189, quality:3.0666666030883789e+01,
                      le:-8.4139263629913330e-01 }
            -
               depth: 5
               value: 1.
               norm_class_idx: 1
            -
               depth: 5
               value: 0.
               norm_class_idx: 0
      -
         nodes:
            -
               depth: 0
               value: 0.
               norm_class_idx: 0
               splits:
                  - { var:232, quality:4.5962695312500000e+03,
                      le:-7.1566861867904663e-01 }
            -
               depth: 1
               value: 3.
               norm_class_idx: 3
               splits:
                  - { var:10, quality:1.3347193603515625e+03,
                      le:-2.8754818439483643e-01 }
            -
               depth: 2
               value: 1.
               norm_class_idx: 1
               splits:
                  - { var:24, quality:5.5656158447265625e+02,
                      le:-6.8784028291702271e-01 }
            -
               depth: 3
               value: 1.
               norm_class_idx: 1
               splits:
                  - { var:50, quality:1.2534693908691406e+02,
                      le:2.7328372001647949e+00 }
            -
               depth: 4
               value: 1.
               norm_class_idx: 1
               splits:
                  - { var:242, quality:1.2668055725097656e+02,
                      le:-4.1194146871566772e-01 }
            -
               depth: 5
               value: 1.
               norm_class_idx: 1
            -
               depth: 5
               value: 3.
               norm_class_idx: 3
            -
               depth: 4
               value: 1.
               norm_class_idx: 1
            -
               depth: 3
               value: 0.
               norm_class_idx: 0
               splits:
                  - { var:102, quality:4.8849792480468750e+02,
                      le:1.3817647099494934e-01 }
            -
               depth: 4
               value: 1.
               norm_class_idx: 1
               splits:
                  - { var:25, quality:2.3145564270019531e+02,
                      le:-2.8755167126655579e-01 }
            -
               depth: 5
               value: 1.
               norm_class_idx: 1
            -
               depth: 5
               value: 0.
               norm_class_idx: 0
            -
               depth: 4
               value: 0.
               norm_class_idx: 0
               splits:
                  - { var:173, quality:3.1566238403320312e+02,
                      le:-1.9863110780715942e+00 }
            -
               depth: 5
               value: 0.
               norm_class_idx: 0
            -
               depth: 5
               value: 3.
               norm_class_idx: 3
            -
               depth: 2
               value: 3.
               norm_class_idx: 3
               splits:
                  - { var:180, quality:9.5465136718750000e+02,
                      le:3.2259938120841980e-01 }
            -
               depth: 3
               value: 3.
               norm_class_idx: 3
               splits:
                  - { var:50, quality:8.0259625244140625e+02,
                      le:1.0278166532516479e+00 }
            -
               depth: 4
               value: 3.
               norm_class_idx: 3
               splits:
                  - { var:143, quality:7.8055010986328125e+02,
                      le:1.9693633913993835e-01 }
            -
               depth: 5
               value: 3.
               norm_class_idx: 3
            -
               depth: 5
               value: 3.
               norm_class_idx: 3
            -
               depth: 4
               value: 1.
               norm_class_idx: 1
               splits:
                  - { var:186, quality:1.0454166412353516e+02,
                      le:-9.3215316534042358e-01 }
            -
               depth: 5
               value: 1.
               norm_class_idx: 1
            -
               depth: 5
               value: 3.
               norm_class_idx: 3
            -
               depth: 3
               value: 2.
               norm_class_idx: 2
               splits:
                  - { var:28, quality:2.4298242187500000e+02,
                      le:-3.4639218449592590e-01 }
            -
               depth: 4
               value: 3.
               norm_class_idx: 3
               splits:
                  - { var:62, quality:6.9876014709472656e+01,
                      le:-1.0183358192443848e+00 }
            -
               depth: 5
               value: 3.
               norm_class_idx: 3
            -
               depth: 5
               value: 1.
               norm_class_idx: 1
            -
               depth: 4
               value: 2.
               norm_class_idx: 2
               splits:
                  - { var:114, quality:2.3588475036621094e+02,
                      le:1.8700125813484192e-01 }
            -
               depth: 5
               value: 2.
               norm_class_idx: 2
            -
               depth: 5
               value: 3.
               norm_class_idx: 3
            -
               depth: 1
               value: 0.
               norm_class_idx: 0
               splits:
                  - { var:55, quality:3.7547160644531250e+03,
                      le:1.0652722418308258e-01 }
            -
               depth: 2
               value: 0.
               norm_class_idx: 0
               splits:
                  - { var:244, quality:1.5795618896484375e+03,
                      le:4.3661773204803467e-02 }
            -
               depth: 3
               value: 0.
               norm_class_idx: 0
               splits:
                  - { var:141, quality:1.1931700439453125e+03,
                      le:4.6387839317321777e-01 }
            -
               depth: 4
               value: 0.
               norm_class_idx: 0
               splits:
                  - { var:177, quality:9.7502423095703125e+02,
                      le:-4.7059988975524902e-01 }
            -
               depth: 5
               value: 3.
               norm_class_idx: 3
            -
               depth: 5
               value: 0.
               norm_class_idx: 0
            -
               depth: 4
               value: 3.
               norm_class_idx: 3
               splits:
                  - { var:49, quality:2.8886123657226562e+02,
                      le:-1.1285347938537598e+00 }
            -
               depth: 5
               value: 1.
               norm_class_idx: 1
            -
               depth: 5
               value: 3.
               norm_class_idx: 3
            -
               depth: 3
               value: 1.
               norm_class_idx: 1
               splits:
                  - { var:252, quality:7.2182000732421875e+02,
                      le:6.1260116100311279e-01 }
            -
               depth: 4
               value: 0.
               norm_class_idx: 0
               splits:
                  - { var:3, quality:4.0043869018554688e+02,
                      le:-3.6339873075485229e-01 }
            -
               depth: 5
               value: 0.
               norm_class_idx: 0
            -
               depth: 5
               value: 1.
               norm_class_idx: 1
            -
               depth: 4
               value: 1.
               norm_class_idx: 1
               splits:
                  - { var:171, quality:3.6988607788085938e+02,
                      le:-1.4135335683822632e+00 }
            -
               depth: 5
               value: 0.
               norm_class_idx: 0
            -
               depth: 5
               value: 1.
               norm_class_idx: 1
            -
               depth: 2
               value: 0.
               norm_class_idx: 0
               splits:
                  - { var:157, quality:2.3693017578125000e+03,
                      le:-8.7784361839294434e-01 }
            -
               depth: 3
               value: 0.
               norm_class_idx: 0
               splits:
                  - { var:248, quality:2.6760916137695312e+02,
                      le:7.5261056423187256e-01 }
            -
               depth: 4
               value: 0.
               norm_class_idx: 0
               splits:
                  - { var:117, quality:2.5333012390136719e+02,
                      le:1.7092245817184448e-01 }
            -
               depth: 5
               value: 0.
               norm_class_idx: 0
            -
               depth: 5
               value: 3.
               norm_class_idx: 3
            -
               depth: 4
               value: 1.
               norm_class_idx: 1
               splits:
                  - { var:195, quality:3.0621391296386719e+01,
                      le:-6.7664372920989990e-01 }
            -
               depth: 5
               value: 1.
               norm_class_idx: 1
            -
               depth: 5
               value: 0.
               norm_class_idx: 0
            -
               depth: 3
               value: 0.
               norm_class_idx: 0
               splits:
                  - { var:253, quality:2.1533471679687500e+03,
                      le:1.5472081303596497e-01 }
            -
               depth: 4
               value: 0.
               norm_class_idx: 0
               splits:
                  - { var:0, quality:2.1633962402343750e+03,
                      le:-5.5278074741363525e-01 }
            -
               depth: 5
               value: 0.
               norm_class_idx: 0
            -
               depth: 5
               value: 0.
               norm_class_idx: 0
            -
               depth: 4
               value: 1.
               norm_class_idx: 1
      -
         nodes:
            -
               depth: 0
               value: 0.
               norm_class_idx: 0
               splits:
                  - { var:240, quality:4.6259458007812500e+03,
                      le:-5.0673300027847290e-01 }
            -
               depth: 1
               value: 3.
               norm_class_idx: 3
               splits:
                  - { var:22, quality:1.5883050537109375e+03,
                      le:-2.9391849040985107e-01 }
            -
               depth: 2
               value: 1.
               norm_class_idx: 1
               splits:
                  - { var:34, quality:6.2008624267578125e+02,
                      le:-1.0506999492645264e+00 }
            -
               depth: 3
               value: 1.
               norm_class_idx: 1
               splits:
                  - { var:16, quality:1.5507240295410156e+02,
                      le:-4.8011180758476257e-01 }
            -
               depth: 4
               value: 1.
               norm_class_idx: 1
               splits:
                  - { var:181, quality:1.5380000305175781e+02,
                      le:7.1593351364135742e+00 }
            -
               depth: 5
               value: 1.
               norm_class_idx: 1
            -
               depth: 5
               value: 2.
               norm_class_idx: 2
            -
               depth: 4
               value: 0.
               norm_class_idx: 0
               splits:
                  - { var:215, quality:1.0090909004211426e+01,
                      le:5.3190261125564575e-01 }
            -
               depth: 5
               value: 1.
               norm_class_idx: 1
            -
               depth: 5
               value: 0.
               norm_class_idx: 0
            -
               depth: 3
               value: 1.
               norm_class_idx: 1
               splits:
                  - { var:177, quality:5.1856030273437500e+02,
                      le:-1.9450981616973877e+00 }
            -
               depth: 4
               value: 0.
               norm_class_idx: 0
               splits:
                  - { var:17, quality:1.5175685119628906e+02,
                      le:-4.8228731751441956e-01 }
            -
               depth: 5
               value: 1.
               norm_class_idx: 1
            -
               depth: 5
               value: 0.
               norm_class_idx: 0
            -
               depth: 4
               value: 1.
               norm_class_idx: 1
               splits:
                  - { var:98, quality:4.3082897949218750e+02,
                      le:1.0567674636840820e+00 }
            -
               depth: 5
               value: 1.
               norm_class_idx: 1
            -
               depth: 5
               value: 3.
               norm_class_idx: 3
            -
               depth: 2
               value: 3.
               norm_class_idx: 3
               splits:
                  - { var:108, quality:1.1748333740234375e+03,
                      le:3.0116823315620422e-01 }
            -
               depth: 3
               value: 0.
               norm_class_idx: 0
               splits:
                  - { var:183, quality:4.8603277587890625e+02,
                      le:8.2200157642364502e-01 }
            -
               depth: 4
               value: 0.
               norm_class_idx: 0
               splits:
                  - { var:60, quality:3.5428961181640625e+02,
                      le:-2.5858014822006226e-01 }
            -
               depth: 5
               value: 3.
               norm_class_idx: 3
            -
               depth: 5
               value: 0.
               norm_class_idx: 0
            -
               depth: 4
               value: 2.
               norm_class_idx: 2
               splits:
                  - { var:70, quality:1.8911822509765625e+02,
                      le:-1.1972007751464844e+00 }
            -
               depth: 5
               value: 1.
               norm_class_idx: 1
            -
               depth: 5
               value: 2.
               norm_class_idx: 2
            -
               depth: 3
               value: 3.
               norm_class_idx: 3
               splits:
                  - { var:57, quality:8.5226733398437500e+02,
                      le:1.4597973823547363e+00 }
            -
               depth: 4
               value: 3.
               norm_class_idx: 3
               splits:
                  - { var:150, quality:8.1950042724609375e+02,
                      le:1.0276448726654053e+00 }
            -
               depth: 5
               value: 3.
               norm_class_idx: 3
            -
               depth: 5
               value: 0.
               norm_class_idx: 0
            -
               depth: 4
               value: 1.
               norm_class_idx: 1
               splits:
                  - { var:6, quality:9.5323074340820312e+01,
                      le:1.1434397101402283e-01 }
            -
               depth: 5
               value: 1.
               norm_class_idx: 1
            -
               depth: 5
               value: 1.
               norm_class_idx: 1
            -
               depth: 1
               value: 0.
               norm_class_idx: 0
               splits:
                  - { var:38, quality:3.4364201660156250e+03,
                      le:-1.4017346501350403e-01 }
            -
               depth: 2
               value: 0.
               norm_class_idx: 0
               splits:
                  - { var:131, quality:1.3745644531250000e+03,
                      le:4.5870625972747803e-01 }
            -
               depth: 3
               value: 0.
               norm_class_idx: 0
               splits:
                  - { var:251, quality:1.4393964843750000e+03,
                      le:5.4460835456848145e-01 }
            -
               depth: 4
               value: 0.
               norm_class_idx: 0
               splits:
                  - { var:97, quality:1.2677968750000000e+03,
                      le:-1.0675458908081055e+00 }
            -
               depth: 5
               value: 3.
               norm_class_idx: 3
            -
               depth: 5
               value: 0.
               norm_class_idx: 0
            -
               depth: 4
               value: 1.
               norm_class_idx: 1
               splits:
                  - { var:229, quality:2.8118252563476562e+02,
                      le:1.7850953340530396e+00 }
            -
               depth: 5
               value: 1.
               norm_class_idx: 1
            -
               depth: 5
               value: 0.
               norm_class_idx: 0
            -
               depth: 3
               value: 3.
               norm_class_idx: 3
               splits:
                  - { var:245, quality:2.6943823242187500e+02,
                      le:-1.2334556877613068e-01 }
            -
               depth: 4
               value: 3.
               norm_class_idx: 3
               splits:
                  - { var:188, quality:2.0143711853027344e+02,
                      le:2.6840060949325562e-01 }
            -
               depth: 5
               value: 3.
               norm_class_idx: 3
            -
               depth: 5
               value: 0.
               norm_class_idx: 0
            -
               depth: 4
               value: 1.
               norm_class_idx: 1
               splits:
                  - { var:207, quality:1.0042208099365234e+02,
                      le:9.4477057456970215e-01 }
            -
               depth: 5
               value: 1.
               norm_class_idx: 1
            -
               depth: 5
               value: 0.
               norm_class_idx: 0
            -
               depth: 2
               value: 0.
               norm_class_idx: 0
               splits:
                  - { var:71, quality:2.2303662109375000e+03,
                      le:2.1706055849790573e-02 }
            -
               depth: 3
               value: 0.
               norm_class_idx: 0
               splits:
                  - { var:255, quality:2.6973089599609375e+02,
                      le:2.1655803918838501e-01 }
            -
               depth: 4
               value: 0.
               norm_class_idx: 0
               splits:
                  - { var:12, quality:2.8749649047851562e+02,
                      le:-1.2758082151412964e-01 }
            -
               depth: 5
               value: 0.
               norm_class_idx: 0
            -
               depth: 5
               value: 3.
               norm_class_idx: 3
            -
               depth: 4
               value: 1.
               norm_class_idx: 1
            -
               depth: 3
               value: 0.
               norm_class_idx: 0
               splits:
                  - { var:159, quality:2.0371748046875000e+03,
                      le:-8.0846321582794189e-01 }
            -
               depth: 4
               value: 0.
               norm_class_idx: 0
               splits:
                  - { var:100, quality:2.3434536743164062e+02,
                      le:2.3519411683082581e-01 }
            -
               depth: 5
               value: 0.
               norm_class_idx: 0
            -
               depth: 5
               value: 3.
               norm_class_idx: 3
            -
               depth: 4
               value: 0.
               norm_class_idx: 0
               splits:
                  - { var:104, quality:1.8406031494140625e+03,
                      le:7.1640777587890625e-01 }
            -
               depth: 5
               value: 0.
               norm_class_idx: 0
            -
               depth: 5
               value: 3.
               norm_class_idx: 3
      -
         nodes:
            -
               depth: 0
               value: 0.
               norm_class_idx: 0
               splits:
                  - { var:238, quality:4.6132177734375000e+03,
                      le:-5.6944549083709717e-01 }
            -
               depth: 1
               value: 3.
               norm_class_idx: 3
               splits:
                  - { var:23, quality:1.5034185791015625e+03,
                      le:-3.1130629777908325e-01 }
            -
               depth: 2
               value: 1.
               norm_class_idx: 1
               splits:
                  - { var:5, quality:6.1520544433593750e+02,
                      le:-4.7046124935150146e-01 }
            -
               depth: 3
               value: 1.
               norm_class_idx: 1
               splits:
                  - { var:235, quality:2.1465068054199219e+02,
                      le:-3.2005137205123901e-01 }
            -
               depth: 4
               value: 1.
               norm_class_idx: 1
               splits:
                  - { var:9, quality:2.2647834777832031e+02,
                      le:-4.6394294500350952e-01 }
            -
               depth: 5
               value: 1.
               norm_class_idx: 1
            -
               depth: 5
               value: 0.
               norm_class_idx: 0
            -
               depth: 4
               value: 0.
               norm_class_idx: 0
            -
               depth: 3
               value: 0.
               norm_class_idx: 0
               splits:
                  - { var:125, quality:4.6135324096679688e+02,
                      le:1.8497929573059082e+00 }
            -
               depth: 4
               value: 1.
               norm_class_idx: 1
               splits:
                  - { var:0, quality:3.6220245361328125e+02,
                      le:-5.4347836971282959e-01 }
            -
               depth: 5
               value: 3.
               norm_class_idx: 3
            -
               depth: 5
               value: 1.
               norm_class_idx: 1
            -
               depth: 4
               value: 0.
               norm_class_idx: 0
               splits:
                  - { var:161, quality:1.6021633911132812e+02,
                      le:-1.0051105022430420e+00 }
            -
               depth: 5
               value: 0.
               norm_class_idx: 0
            -
               depth: 5
               value: 3.
               norm_class_idx: 3
            -
               depth: 2
               value: 3.
               norm_class_idx: 3
               splits:
                  - { var:174, quality:1.0910766601562500e+03,
                      le:1.6190546751022339e-01 }
            -
               depth: 3
               value: 3.
               norm_class_idx: 3
               splits:
                  - { var:186, quality:8.8182946777343750e+02,
                      le:-1.6202743053436279e+00 }
            -
               depth: 4
               value: 1.
               norm_class_idx: 1
               splits:
                  - { var:42, quality:1.4714408874511719e+02,
                      le:-1.2531171739101410e-01 }
            -
               depth: 5
               value: 0.
               norm_class_idx: 0
            -
               depth: 5
               value: 1.
               norm_class_idx: 1
            -
               depth: 4
               value: 3.
               norm_class_idx: 3
               splits:
                  - { var:43, quality:8.2349346923828125e+02,
                      le:1.1735118627548218e+00 }
            -
               depth: 5
               value: 3.
               norm_class_idx: 3
            -
               depth: 5
               value: 0.
               norm_class_idx: 0
            -
               depth: 3
               value: 2.
               norm_class_idx: 2
               splits:
                  - { var:117, quality:3.3629016113281250e+02,
                      le:8.4862518310546875e-01 }
            -
               depth: 4
               value: 2.
               norm_class_idx: 2
               splits:
                  - { var:3, quality:2.9589944458007812e+02,
                      le:-2.5378209352493286e-01 }
            -
               depth: 5
               value: 0.
               norm_class_idx: 0
            -
               depth: 5
               value: 2.
               norm_class_idx: 2
            -
               depth: 4
               value: 3.
               norm_class_idx: 3
               splits:
                  - { var:61, quality:1.0332436370849609e+02,
                      le:-9.9690657854080200e-01 }
            -
               depth: 5
               value: 1.
               norm_class_idx: 1
            -
               depth: 5
               value: 3.
               norm_class_idx: 3
            -
               depth: 1
               value: 0.
               norm_class_idx: 0
               splits:
                  - { var:255, quality:3.5910610351562500e+03,
                      le:2.4111574888229370e-01 }
            -
               depth: 2
               value: 0.
               norm_class_idx: 0
               splits:
                  - { var:55, quality:3.5880256347656250e+03,
                      le:2.4440062046051025e-01 }
            -
               depth: 3
               value: 0.
               norm_class_idx: 0
               splits:
                  - { var:249, quality:1.5908627929687500e+03,
                      le:1.6294916868209839e+00 }
            -
               depth: 4
               value: 0.
               norm_class_idx: 0
               splits:
                  - { var:6, quality:1.5482874755859375e+03,
                      le:-2.7741354703903198e-01 }
            -
               depth: 5
               value: 0.
               norm_class_idx: 0
            -
               depth: 5
               value: 3.
               norm_class_idx: 3
            -
               depth: 4
               value: 1.
               norm_class_idx: 1
               splits:
                  - { var:250, quality:1.7885067749023438e+02,
                      le:2.4590299129486084e+00 }
            -
               depth: 5
               value: 1.
               norm_class_idx: 1
            -
               depth: 5
               value: 1.
               norm_class_idx: 1
            -
               depth: 3
               value: 0.
               norm_class_idx: 0
               splits:
                  - { var:168, quality:2.1910876464843750e+03,
                      le:-5.6703042984008789e-01 }
            -
               depth: 4
               value: 0.
               norm_class_idx: 0
               splits:
                  - { var:145, quality:6.4575518798828125e+02,
                      le:-9.4685041904449463e-01 }
            -
               depth: 5
               value: 3.
               norm_class_idx: 3
            -
               depth: 5
               value: 0.
               norm_class_idx: 0
            -
               depth: 4
               value: 0.
               norm_class_idx: 0
               splits:
                  - { var:67, quality:1.5899741210937500e+03,
                      le:3.9859846234321594e-01 }
            -
               depth: 5
               value: 0.
               norm_class_idx: 0
            -
               depth: 5
               value: 0.
               norm_class_idx: 0
            -
               depth: 2
               value: 1.
               norm_class_idx: 1
               splits:
                  - { var:233, quality:2.5375000000000000e+02,
                      le:-4.3593671917915344e-01 }
            -
               depth: 3
               value: 1.
               norm_class_idx: 1
               splits:
                  - { var:252, quality:1.7613445281982422e+01,
                      le:3.4988604485988617e-02 }
            -
               depth: 4
               value: 1.
               norm_class_idx: 1
               splits:
                  - { var:181, quality:1.5666666984558105e+01,
                      le:7.0059019327163696e-01 }
            -
               depth: 5
               value: 1.
               norm_class_idx: 1
            -
               depth: 5
               value: 0.
               norm_class_idx: 0
            -
               depth: 4
               value: 0.
               norm_class_idx: 0
            -
               depth: 3
               value: 1.
               norm_class_idx: 1
               splits:
                  - { var:239, quality:2.4259524536132812e+02,
                      le:1.7314332723617554e-01 }
            -
               depth: 4
               value: 1.
               norm_class_idx: 1
               splits:
                  - { var:8, quality:2.1333333969116211e+01,
                      le:-2.0530906319618225e-01 }
            -
               depth: 5
               value: 1.
               norm_class_idx: 1
            -
               depth: 5
               value: 3.
               norm_class_idx: 3
            -
               depth: 4
               value: 1.
               norm_class_idx: 1
               splits:
                  - { var:224, quality:2.2326666259765625e+02,
                      le:9.8857367038726807e-01 }
            -
               depth: 5
               value: 1.
               norm_class_idx: 1
            -
               depth: 5
               value: 1.
               norm_class_idx: 1
      -
         nodes:
            -
               depth: 0
               value: 0.
               norm_class_idx: 0
               splits:
                  - { var:224, quality:4.5532978515625000e+03,
                      le:-8.7404823303222656e-01 }
            -
               depth: 1
               value: 3.
               norm_class_idx: 3
               splits:
                  - { var:169, quality:1.0829451904296875e+03,
                      le:4.1462785005569458e-01 }
            -
               depth: 2
               value: 3.
               norm_class_idx: 3
               splits:
                  - { var:190, quality:8.9975036621093750e+02,
                      le:-1.5527951717376709e+00 }
            -
               depth: 3
               value: 0.
               norm_class_idx: 0
               splits:
                  - { var:60, quality:2.7262011718750000e+02,
                      le:3.5008081793785095e-01 }
            -
               depth: 4
               value: 0.
               norm_class_idx: 0
               splits:
                  - { var:15, quality:2.1431932067871094e+02,
                      le:-5.0337255001068115e-01 }
            -
               depth: 5
               value: 1.
               norm_class_idx: 1
            -
               depth: 5
               value: 0.
               norm_class_idx: 0
            -
               depth: 4
               value: 1.
               norm_class_idx: 1
               splits:
                  - { var:54, quality:1.2295185089111328e+02,
                      le:6.3162887096405029e-01 }
            -
               depth: 5
               value: 3.
               norm_class_idx: 3
            -
               depth: 5
               value: 1.
               norm_class_idx: 1
            -
               depth: 3
               value: 3.
               norm_class_idx: 3
               splits:
                  - { var:199, quality:7.6800610351562500e+02,
                      le:9.6937394142150879e-01 }
            -
               depth: 4
               value: 3.
               norm_class_idx: 3
               splits:
                  - { var:107, quality:7.6848815917968750e+02,
                      le:2.6691484451293945e-01 }
            -
               depth: 5
               value: 3.
               norm_class_idx: 3
            -
               depth: 5
               value: 3.
               norm_class_idx: 3
            -
               depth: 4
               value: 1.
               norm_class_idx: 1
               splits:
                  - { var:114, quality:6.1193290710449219e+01,
                      le:-2.6579225063323975e-01 }
            -
               depth: 5
               value: 2.
               norm_class_idx: 2
            -
               depth: 5
               value: 1.
               norm_class_idx: 1
            -
               depth: 2
               value: 1.
               norm_class_idx: 1
               splits:
                  - { var:9, quality:3.8657604980468750e+02,
                      le:-3.8470697402954102e-01 }
            -
               depth: 3
               value: 1.
               norm_class_idx: 1
               splits:
                  - { var:141, quality:2.0585920715332031e+02,
                      le:2.8299546241760254e-01 }
            -
               depth: 4
               value: 1.
               norm_class_idx: 1
               splits:
                  - { var:110, quality:4.6275230407714844e+01,
                      le:-6.8239939212799072e-01 }
            -
               depth: 5
               value: 3.
               norm_class_idx: 3
            -
               depth: 5
               value: 1.
               norm_class_idx: 1
            -
               depth: 4
               value: 1.
               norm_class_idx: 1
               splits:
                  - { var:58, quality:1.7864068603515625e+02,
                      le:-1.0594925880432129e+00 }
            -
               depth: 5
               value: 1.
               norm_class_idx: 1
            -
               depth: 5
               value: 1.
               norm_class_idx: 1
            -
               depth: 3
               value: 2.
               norm_class_idx: 2
               splits:
                  - { var:5, quality:2.2632507324218750e+02,
                      le:1.1782798916101456e-01 }
            -
               depth: 4
               value: 2.
               norm_class_idx: 2
               splits:
                  - { var:11, quality:2.1111215209960938e+02,
                      le:-1.7221191525459290e-01 }
            -
               depth: 5
               value: 1.
               norm_class_idx: 1
            -
               depth: 5
               value: 2.
               norm_class_idx: 2
            -
               depth: 4
               value: 3.
               norm_class_idx: 3
               splits:
                  - { var:136, quality:5.8893115997314453e+01,
                      le:2.1018356084823608e-01 }
            -
               depth: 5
               value: 2.
               norm_class_idx: 2
            -
               depth: 5
               value: 3.
               norm_class_idx: 3
            -
               depth: 1
               value: 0.
               norm_class_idx: 0
               splits:
                  - { var:64, quality:3.9672883300781250e+03,
                      le:1.4402431249618530e-01 }
            -
               depth: 2
               value: 0.
               norm_class_idx: 0
               splits:
                  - { var:245, quality:1.7442769775390625e+03,
                      le:5.1656472682952881e-01 }
            -
               depth: 3
               value: 0.
               norm_class_idx: 0
               splits:
                  - { var:5, quality:1.5238463134765625e+03,
                      le:-2.7259182929992676e-01 }
            -
               depth: 4
               value: 0.
               norm_class_idx: 0
               splits:
                  - { var:107, quality:1.1155909423828125e+03,
                      le:-9.9244999885559082e-01 }
            -
               depth: 5
