%YAML:1.0
---
opencv_ml_rtrees:
   format: 3
   is_classifier: 1
   var_all: 2
   var_count: 1
   ord_var_count: 1
   cat_var_count: 1
   training_params:
      use_surrogates: 0
      max_categories: 10
      regression_accuracy: 0.
      max_depth: 5
      min_sample_count: 10
      cross_validation_folds: 0
      nactive_vars: 0
   global_var_idx: 1
   var_idx: [ 0 ]
   var_type: [ 0, 1 ]
   cat_ofs: [ 0, 0 ]
   class_labels: [ 0, 1, 2, 3 ]
   missing_subst: [ 0., 0. ]
   oob_error: 4.6678882272102612e-01
   ntrees: 50
   trees:
      -
         nodes:
            -
               depth: 0
               value: 0.
               norm_class_idx: 0
               splits:
                  - { var:0, quality:4.5765478515625000e+03,
                      le:-2.7002891898155212e-01 }
            -
               depth: 1
               value: 3.
               norm_class_idx: 3
               splits:
                  - { var:0, quality:1.3961320800781250e+03,
                      le:-8.3786833286285400e-01 }
            -
               depth: 2
               value: 3.
               norm_class_idx: 3
               splits:
                  - { var:0, quality:8.8284960937500000e+02,
                      le:-1.6399638652801514e+00 }
            -
               depth: 3
               value: 3.
               norm_class_idx: 3
               splits:
                  - { var:0, quality:3.2475796508789062e+02,
                      le:-3.2942676544189453e+00 }
            -
               depth: 4
               value: 1.
               norm_class_idx: 1
               splits:
                  - { var:0, quality:1.0888889312744141e+01,
                      le:-3.6793093681335449e+00 }
            -
               depth: 5
               value: 1.
               norm_class_idx: 1
            -
               depth: 5
               value: 1.
               norm_class_idx: 1
            -
               depth: 4
               value: 3.
               norm_class_idx: 3
               splits:
                  - { var:0, quality:3.2074667358398438e+02,
                      le:-2.3283720016479492e+00 }
            -
               depth: 5
               value: 3.
               norm_class_idx: 3
            -
               depth: 5
               value: 3.
               norm_class_idx: 3
            -
               depth: 3
               value: 3.
               norm_class_idx: 3
               splits:
                  - { var:0, quality:5.7366528320312500e+02,
                      le:-1.6193206310272217e+00 }
            -
               depth: 4
               value: 0.
               norm_class_idx: 0
               splits:
                  - { var:0, quality:1.4058823585510254e+01,
                      le:-1.6318861246109009e+00 }
            -
               depth: 5
               value: 0.
               norm_class_idx: 0
            -
               depth: 5
               value: 0.
               norm_class_idx: 0
            -
               depth: 4
               value: 3.
               norm_class_idx: 3
               splits:
                  - { var:0, quality:5.6514691162109375e+02,
                      le:-8.7556469440460205e-01 }
            -
               depth: 5
               value: 3.
               norm_class_idx: 3
            -
               depth: 5
               value: 3.
               norm_class_idx: 3
            -
               depth: 2
               value: 3.
               norm_class_idx: 3
               splits:
                  - { var:0, quality:5.2894104003906250e+02,
                      le:-8.3652204275131226e-01 }
            -
               depth: 3
               value: 1.
               norm_class_idx: 1
            -
               depth: 3
               value: 3.
               norm_class_idx: 3
               splits:
                  - { var:0, quality:5.2802972412109375e+02,
                      le:-5.2567636966705322e-01 }
            -
               depth: 4
               value: 3.
               norm_class_idx: 3
               splits:
                  - { var:0, quality:2.8512887573242188e+02,
                      le:-8.2694840431213379e-01 }
            -
               depth: 5
               value: 0.
               norm_class_idx: 0
            -
               depth: 5
               value: 3.
               norm_class_idx: 3
            -
               depth: 4
               value: 0.
               norm_class_idx: 0
               splits:
                  - { var:0, quality:2.5036682128906250e+02,
                      le:-2.7242234349250793e-01 }
            -
               depth: 5
               value: 0.
               norm_class_idx: 0
            -
               depth: 5
               value: 1.
               norm_class_idx: 1
            -
               depth: 1
               value: 0.
               norm_class_idx: 0
               splits:
                  - { var:0, quality:3.2334970703125000e+03,
                      le:1.9874343648552895e-02 }
            -
               depth: 2
               value: 0.
               norm_class_idx: 0
               splits:
                  - { var:0, quality:4.4881936645507812e+02,
                      le:1.2394899502396584e-02 }
            -
               depth: 3
               value: 0.
               norm_class_idx: 0
               splits:
                  - { var:0, quality:4.3809490966796875e+02,
                      le:1.1497365310788155e-02 }
            -
               depth: 4
               value: 0.
               norm_class_idx: 0
               splits:
                  - { var:0, quality:4.3210162353515625e+02,
                      le:-6.8233512341976166e-02 }
            -
               depth: 5
               value: 0.
               norm_class_idx: 0
            -
               depth: 5
               value: 0.
               norm_class_idx: 0
            -
               depth: 4
               value: 0.
               norm_class_idx: 0
            -
               depth: 3
               value: 3.
               norm_class_idx: 3
               splits:
                  - { var:0, quality:1.6769523620605469e+01,
                      le:1.7331331968307495e-02 }
            -
               depth: 4
               value: 1.
               norm_class_idx: 1
               splits:
                  - { var:0, quality:9.0555553436279297e+00,
                      le:1.4339555054903030e-02 }
            -
               depth: 5
               value: 3.
               norm_class_idx: 3
            -
               depth: 5
               value: 1.
               norm_class_idx: 1
            -
               depth: 4
               value: 3.
               norm_class_idx: 3
               splits:
                  - { var:0, quality:1.1652173995971680e+01,
                      le:1.9575165584683418e-02 }
            -
               depth: 5
               value: 3.
               norm_class_idx: 3
            -
               depth: 5
               value: 1.
               norm_class_idx: 1
            -
               depth: 2
               value: 0.
               norm_class_idx: 0
               splits:
                  - { var:0, quality:2.7945488281250000e+03,
                      le:1.5913056135177612e+00 }
            -
               depth: 3
               value: 0.
               norm_class_idx: 0
               splits:
                  - { var:0, quality:2.4978896484375000e+03,
                      le:7.2533553838729858e-01 }
            -
               depth: 4
               value: 0.
               norm_class_idx: 0
               splits:
                  - { var:0, quality:1.8240101318359375e+03,
                      le:6.3528299331665039e-01 }
            -
               depth: 5
               value: 0.
               norm_class_idx: 0
            -
               depth: 5
               value: 0.
               norm_class_idx: 0
            -
               depth: 4
               value: 0.
               norm_class_idx: 0
               splits:
                  - { var:0, quality:6.8599432373046875e+02,
                      le:1.3051421642303467e+00 }
            -
               depth: 5
               value: 0.
               norm_class_idx: 0
            -
               depth: 5
               value: 0.
               norm_class_idx: 0
            -
               depth: 3
               value: 0.
               norm_class_idx: 0
               splits:
                  - { var:0, quality:3.1180380249023438e+02,
                      le:3.0493483543395996e+00 }
            -
               depth: 4
               value: 0.
               norm_class_idx: 0
               splits:
                  - { var:0, quality:3.0749102783203125e+02,
                      le:1.6720836162567139e+00 }
            -
               depth: 5
               value: 0.
               norm_class_idx: 0
            -
               depth: 5
               value: 0.
               norm_class_idx: 0
            -
               depth: 4
               value: 1.
               norm_class_idx: 1
               splits:
                  - { var:0, quality:8.6363639831542969e+00,
                      le:3.9763507843017578e+00 }
            -
               depth: 5
               value: 1.
               norm_class_idx: 1
            -
               depth: 5
               value: 0.
               norm_class_idx: 0
      -
         nodes:
            -
               depth: 0
               value: 0.
               norm_class_idx: 0
               splits:
                  - { var:0, quality:4.5447314453125000e+03,
                      le:-2.6883220672607422e-01 }
            -
               depth: 1
               value: 3.
               norm_class_idx: 3
               splits:
                  - { var:0, quality:1.3635601806640625e+03,
                      le:-8.3652204275131226e-01 }
            -
               depth: 2
               value: 3.
               norm_class_idx: 3
               splits:
                  - { var:0, quality:8.6062542724609375e+02,
                      le:-1.8297922611236572e+00 }
            -
               depth: 3
               value: 3.
               norm_class_idx: 3
               splits:
                  - { var:0, quality:2.4786611938476562e+02,
                      le:-3.2893309593200684e+00 }
            -
               depth: 4
               value: 1.
               norm_class_idx: 1
               splits:
                  - { var:0, quality:1.1142857551574707e+01,
                      le:-3.5071325302124023e+00 }
            -
               depth: 5
               value: 1.
               norm_class_idx: 1
            -
               depth: 5
               value: 1.
               norm_class_idx: 1
            -
               depth: 4
               value: 3.
               norm_class_idx: 3
               splits:
                  - { var:0, quality:2.4223051452636719e+02,
                      le:-2.3041386604309082e+00 }
            -
               depth: 5
               value: 3.
               norm_class_idx: 3
            -
               depth: 5
               value: 3.
               norm_class_idx: 3
            -
               depth: 3
               value: 3.
               norm_class_idx: 3
               splits:
                  - { var:0, quality:6.2864361572265625e+02,
                      le:-1.8134870529174805e+00 }
            -
               depth: 4
               value: 0.
               norm_class_idx: 0
               splits:
                  - { var:0, quality:1.1166666984558105e+01,
                      le:-1.8158805370330811e+00 }
            -
               depth: 5
               value: 0.
               norm_class_idx: 0
            -
               depth: 5
               value: 0.
               norm_class_idx: 0
            -
               depth: 4
               value: 3.
               norm_class_idx: 3
               splits:
                  - { var:0, quality:6.2395794677734375e+02,
                      le:-8.4340310096740723e-01 }
            -
               depth: 5
               value: 3.
               norm_class_idx: 3
            -
               depth: 5
               value: 1.
               norm_class_idx: 1
            -
               depth: 2
               value: 3.
               norm_class_idx: 3
               splits:
                  - { var:0, quality:5.2119519042968750e+02,
                      le:-6.8079996109008789e-01 }
            -
               depth: 3
               value: 3.
               norm_class_idx: 3
               splits:
                  - { var:0, quality:1.3829057312011719e+02,
                      le:-7.6142841577529907e-01 }
            -
               depth: 4
               value: 0.
               norm_class_idx: 0
               splits:
                  - { var:0, quality:6.9424530029296875e+01,
                      le:-7.6456975936889648e-01 }
            -
               depth: 5
               value: 3.
               norm_class_idx: 3
            -
               depth: 5
               value: 0.
               norm_class_idx: 0
            -
               depth: 4
               value: 3.
               norm_class_idx: 3
               splits:
                  - { var:0, quality:7.7498321533203125e+01,
                      le:-6.8468934297561646e-01 }
            -
               depth: 5
               value: 3.
               norm_class_idx: 3
            -
               depth: 5
               value: 3.
               norm_class_idx: 3
            -
               depth: 3
               value: 0.
               norm_class_idx: 0
               splits:
                  - { var:0, quality:3.9044613647460938e+02,
                      le:-5.9523516893386841e-01 }
            -
               depth: 4
               value: 0.
               norm_class_idx: 0
               splits:
                  - { var:0, quality:7.4810134887695312e+01,
                      le:-6.0645431280136108e-01 }
            -
               depth: 5
               value: 0.
               norm_class_idx: 0
            -
               depth: 5
               value: 1.
               norm_class_idx: 1
            -
               depth: 4
               value: 0.
               norm_class_idx: 0
               splits:
                  - { var:0, quality:3.2359912109375000e+02,
                      le:-2.7331990003585815e-01 }
            -
               depth: 5
               value: 0.
               norm_class_idx: 0
            -
               depth: 5
               value: 3.
               norm_class_idx: 3
            -
               depth: 1
               value: 0.
               norm_class_idx: 0
               splits:
                  - { var:0, quality:3.2487758789062500e+03,
                      le:7.0734560489654541e-02 }
            -
               depth: 2
               value: 0.
               norm_class_idx: 0
               splits:
                  - { var:0, quality:5.0223901367187500e+02,
                      le:6.9537848234176636e-02 }
            -
               depth: 3
               value: 0.
               norm_class_idx: 0
               splits:
                  - { var:0, quality:5.0181643676757812e+02,
                      le:-2.5521963834762573e-01 }
            -
               depth: 4
               value: 0.
               norm_class_idx: 0
               splits:
                  - { var:0, quality:3.3630409240722656e+01,
                      le:-2.5806182622909546e-01 }
            -
               depth: 5
               value: 0.
               norm_class_idx: 0
            -
               depth: 5
               value: 0.
               norm_class_idx: 0
            -
               depth: 4
               value: 0.
               norm_class_idx: 0
               splits:
                  - { var:0, quality:4.7290264892578125e+02,
                      le:-2.3846566677093506e-01 }
            -
               depth: 5
               value: 0.
               norm_class_idx: 0
            -
               depth: 5
               value: 0.
               norm_class_idx: 0
            -
               depth: 3
               value: 1.
               norm_class_idx: 1
            -
               depth: 2
               value: 0.
               norm_class_idx: 0
               splits:
                  - { var:0, quality:2.7615273437500000e+03,
                      le:3.0403733253479004e+00 }
            -
               depth: 3
               value: 0.
               norm_class_idx: 0
               splits:
                  - { var:0, quality:2.7609907226562500e+03,
                      le:1.7392489910125732e+00 }
            -
               depth: 4
               value: 0.
               norm_class_idx: 0
               splits:
                  - { var:0, quality:2.4964616699218750e+03,
                      le:7.2024953365325928e-01 }
            -
               depth: 5
               value: 0.
               norm_class_idx: 0
            -
               depth: 5
               value: 0.
               norm_class_idx: 0
            -
               depth: 4
               value: 0.
               norm_class_idx: 0
               splits:
                  - { var:0, quality:2.7711312866210938e+02,
                      le:3.0052199363708496e+00 }
            -
               depth: 5
               value: 0.
               norm_class_idx: 0
            -
               depth: 5
               value: 3.
               norm_class_idx: 3
            -
               depth: 3
               value: 1.
               norm_class_idx: 1
               splits:
                  - { var:0, quality:1.0933333396911621e+01,
                      le:3.9763507843017578e+00 }
            -
               depth: 4
               value: 1.
               norm_class_idx: 1
               splits:
                  - { var:0, quality:1.0272727012634277e+01,
                      le:3.1232454776763916e+00 }
            -
               depth: 5
               value: 1.
               norm_class_idx: 1
            -
               depth: 5
               value: 1.
               norm_class_idx: 1
            -
               depth: 4
               value: 0.
               norm_class_idx: 0
      -
         nodes:
            -
               depth: 0
               value: 0.
               norm_class_idx: 0
               splits:
                  - { var:0, quality:4.5578374023437500e+03,
                      le:-2.7631163597106934e-01 }
            -
               depth: 1
               value: 3.
               norm_class_idx: 3
               splits:
                  - { var:0, quality:1.3808725585937500e+03,
                      le:-1.2679363489151001e+00 }
            -
               depth: 2
               value: 3.
               norm_class_idx: 3
               splits:
                  - { var:0, quality:5.5818664550781250e+02,
                      le:-2.3041386604309082e+00 }
            -
               depth: 3
               value: 3.
               norm_class_idx: 3
               splits:
                  - { var:0, quality:9.4784439086914062e+01,
                      le:-3.1249327659606934e+00 }
            -
               depth: 4
               value: 1.
               norm_class_idx: 1
               splits:
                  - { var:0, quality:1.3769230842590332e+01,
                      le:-3.5122184753417969e+00 }
            -
               depth: 5
               value: 1.
               norm_class_idx: 1
            -
               depth: 5
               value: 1.
               norm_class_idx: 1
            -
               depth: 4
               value: 3.
               norm_class_idx: 3
               splits:
                  - { var:0, quality:8.4624404907226562e+01,
                      le:-2.3687610626220703e+00 }
            -
               depth: 5
               value: 3.
               norm_class_idx: 3
            -
               depth: 5
               value: 3.
               norm_class_idx: 3
            -
               depth: 3
               value: 3.
               norm_class_idx: 3
               splits:
                  - { var:0, quality:4.7768313598632812e+02,
                      le:-1.3392902612686157e+00 }
            -
               depth: 4
               value: 3.
               norm_class_idx: 3
               splits:
                  - { var:0, quality:4.1340887451171875e+02,
                      le:-1.4399635791778564e+00 }
            -
               depth: 5
               value: 3.
               norm_class_idx: 3
            -
               depth: 5
               value: 3.
               norm_class_idx: 3
            -
               depth: 4
               value: 3.
               norm_class_idx: 3
               splits:
                  - { var:0, quality:7.3430953979492188e+01,
                      le:-1.3315117359161377e+00 }
            -
               depth: 5
               value: 3.
               norm_class_idx: 3
            -
               depth: 5
               value: 3.
               norm_class_idx: 3
            -
               depth: 2
               value: 3.
               norm_class_idx: 3
               splits:
                  - { var:0, quality:8.4350720214843750e+02,
                      le:-7.8611057996749878e-01 }
            -
               depth: 3
               value: 3.
               norm_class_idx: 3
               splits:
                  - { var:0, quality:3.7440609741210938e+02,
                      le:-1.0773601531982422e+00 }
            -
               depth: 4
               value: 3.
               norm_class_idx: 3
               splits:
                  - { var:0, quality:1.2714118957519531e+02,
                      le:-1.0885794162750244e+00 }
            -
               depth: 5
               value: 3.
               norm_class_idx: 3
            -
               depth: 5
               value: 0.
               norm_class_idx: 0
            -
               depth: 4
               value: 3.
               norm_class_idx: 3
               splits:
                  - { var:0, quality:2.5476499938964844e+02,
                      le:-1.0721244812011719e+00 }
            -
               depth: 5
               value: 3.
               norm_class_idx: 3
            -
               depth: 5
               value: 3.
               norm_class_idx: 3
            -
               depth: 3
               value: 3.
               norm_class_idx: 3
               splits:
                  - { var:0, quality:4.7985037231445312e+02,
                      le:-3.9358931779861450e-01 }
            -
               depth: 4
               value: 3.
               norm_class_idx: 3
               splits:
                  - { var:0, quality:3.5844812011718750e+02,
                      le:-3.9388853311538696e-01 }
            -
               depth: 5
               value: 3.
               norm_class_idx: 3
            -
               depth: 5
               value: 1.
               norm_class_idx: 1
            -
               depth: 4
               value: 0.
               norm_class_idx: 0
               splits:
                  - { var:0, quality:1.3324427795410156e+02,
                      le:-3.8790494203567505e-01 }
            -
               depth: 5
               value: 0.
               norm_class_idx: 0
            -
               depth: 5
               value: 0.
               norm_class_idx: 0
            -
               depth: 1
               value: 0.
               norm_class_idx: 0
               splits:
                  - { var:0, quality:3.2455888671875000e+03,
                      le:9.4668790698051453e-02 }
            -
               depth: 2
               value: 0.
               norm_class_idx: 0
               splits:
                  - { var:0, quality:6.0808605957031250e+02,
                      le:9.3920841813087463e-02 }
            -
               depth: 3
               value: 0.
               norm_class_idx: 0
               splits:
                  - { var:0, quality:5.9838739013671875e+02,
                      le:-2.3427718877792358e-01 }
            -
               depth: 4
               value: 0.
               norm_class_idx: 0
               splits:
                  - { var:0, quality:6.0533332824707031e+01,
                      le:-2.3831607401371002e-01 }
            -
               depth: 5
               value: 0.
               norm_class_idx: 0
            -
               depth: 5
               value: 1.
               norm_class_idx: 1
            -
               depth: 4
               value: 0.
               norm_class_idx: 0
               splits:
                  - { var:0, quality:5.4626806640625000e+02,
                      le:-2.2784486413002014e-01 }
            -
               depth: 5
               value: 0.
               norm_class_idx: 0
            -
               depth: 5
               value: 0.
               norm_class_idx: 0
            -
               depth: 3
               value: 3.
               norm_class_idx: 3
               splits:
                  - { var:0, quality:1.2166666984558105e+01,
                      le:9.4369605183601379e-02 }
            -
               depth: 4
               value: 3.
               norm_class_idx: 3
            -
               depth: 4
               value: 3.
               norm_class_idx: 3
            -
               depth: 2
               value: 0.
               norm_class_idx: 0
               splits:
                  - { var:0, quality:2.6557143554687500e+03,
                      le:1.3820307254791260e+00 }
            -
               depth: 3
               value: 0.
               norm_class_idx: 0
               splits:
                  - { var:0, quality:2.2290529785156250e+03,
                      le:6.9212681055068970e-01 }
            -
               depth: 4
               value: 0.
               norm_class_idx: 0
               splits:
                  - { var:0, quality:1.5812037353515625e+03,
                      le:6.5009236335754395e-01 }
            -
               depth: 5
               value: 0.
               norm_class_idx: 0
            -
               depth: 5
               value: 0.
               norm_class_idx: 0
            -
               depth: 4
               value: 0.
               norm_class_idx: 0
               splits:
                  - { var:0, quality:6.5550195312500000e+02,
                      le:6.9362270832061768e-01 }
            -
               depth: 5
               value: 3.
               norm_class_idx: 3
            -
               depth: 5
               value: 0.
               norm_class_idx: 0
            -
               depth: 3
               value: 0.
               norm_class_idx: 0
               splits:
                  - { var:0, quality:4.4762417602539062e+02,
                      le:3.0272092819213867e+00 }
            -
               depth: 4
               value: 0.
               norm_class_idx: 0
               splits:
                  - { var:0, quality:4.4480389404296875e+02,
                      le:2.2074623107910156e+00 }
            -
               depth: 5
               value: 0.
               norm_class_idx: 0
            -
               depth: 5
               value: 0.
               norm_class_idx: 0
            -
               depth: 4
               value: 1.
               norm_class_idx: 1
               splits:
                  - { var:0, quality:7.3636364936828613e+00,
                      le:3.1389522552490234e+00 }
            -
               depth: 5
               value: 1.
               norm_class_idx: 1
            -
               depth: 5
               value: 0.
               norm_class_idx: 0
      -
         nodes:
            -
               depth: 0
               value: 0.
               norm_class_idx: 0
               splits:
                  - { var:0, quality:4.5335273437500000e+03,
                      le:-2.4026072025299072e-01 }
            -
               depth: 1
               value: 3.
               norm_class_idx: 3
               splits:
                  - { var:0, quality:1.4079720458984375e+03,
                      le:-8.0750179290771484e-01 }
            -
               depth: 2
               value: 3.
               norm_class_idx: 3
               splits:
                  - { var:0, quality:8.7509722900390625e+02,
                      le:-2.3238844871520996e+00 }
            -
               depth: 3
               value: 3.
               norm_class_idx: 3
               splits:
                  - { var:0, quality:8.3789474487304688e+01,
                      le:-3.4727268218994141e+00 }
            -
               depth: 4
               value: 1.
               norm_class_idx: 1
            -
               depth: 4
               value: 3.
               norm_class_idx: 3
               splits:
                  - { var:0, quality:7.7385971069335938e+01,
                      le:-2.5883574485778809e+00 }
            -
               depth: 5
               value: 3.
               norm_class_idx: 3
            -
               depth: 5
               value: 3.
               norm_class_idx: 3
            -
               depth: 3
               value: 3.
               norm_class_idx: 3
               splits:
                  - { var:0, quality:8.0332049560546875e+02,
                      le:-2.3186488151550293e+00 }
            -
               depth: 4
               value: 0.
               norm_class_idx: 0
            -
               depth: 4
               value: 3.
               norm_class_idx: 3
               splits:
                  - { var:0, quality:8.0254302978515625e+02,
                      le:-2.0604581832885742e+00 }
            -
               depth: 5
               value: 3.
               norm_class_idx: 3
            -
               depth: 5
               value: 3.
               norm_class_idx: 3
            -
               depth: 2
               value: 3.
               norm_class_idx: 3
               splits:
                  - { var:0, quality:5.4770550537109375e+02,
                      le:-2.4684263765811920e-01 }
            -
               depth: 3
               value: 3.
               norm_class_idx: 3
               splits:
                  - { var:0, quality:5.3832330322265625e+02,
                      le:-2.6269906759262085e-01 }
            -
               depth: 4
               value: 3.
               norm_class_idx: 3
               splits:
                  - { var:0, quality:5.2071301269531250e+02,
                      le:-8.0391168594360352e-01 }
            -
               depth: 5
               value: 0.
               norm_class_idx: 0
            -
               depth: 5
               value: 3.
               norm_class_idx: 3
            -
               depth: 4
               value: 0.
               norm_class_idx: 0
               splits:
                  - { var:0, quality:2.4052265167236328e+01,
                      le:-2.5836098194122314e-01 }
            -
               depth: 5
               value: 0.
               norm_class_idx: 0
            -
               depth: 5
               value: 1.
               norm_class_idx: 1
            -
               depth: 3
               value: 3.
               norm_class_idx: 3
               splits:
                  - { var:0, quality:1.7666666030883789e+01,
                      le:-2.4085909128189087e-01 }
            -
               depth: 4
               value: 3.
               norm_class_idx: 3
               splits:
                  - { var:0, quality:1.6700000762939453e+01,
                      le:-2.4385085701942444e-01 }
            -
               depth: 5
               value: 3.
               norm_class_idx: 3
            -
               depth: 5
               value: 3.
               norm_class_idx: 3
            -
               depth: 4
               value: 1.
               norm_class_idx: 1
            -
               depth: 1
               value: 0.
               norm_class_idx: 0
               splits:
                  - { var:0, quality:3.1691252441406250e+03,
                      le:1.9126400351524353e-02 }
            -
               depth: 2
               value: 0.
               norm_class_idx: 0
               splits:
                  - { var:0, quality:4.0301486206054688e+02,
                      le:-1.9897419214248657e-01 }
            -
               depth: 3
               value: 0.
               norm_class_idx: 0
               splits:
                  - { var:0, quality:6.6739128112792969e+01,
                      le:-2.2141253948211670e-01 }
            -
               depth: 4
               value: 0.
               norm_class_idx: 0
               splits:
                  - { var:0, quality:3.5583538055419922e+01,
                      le:-2.2769525647163391e-01 }
            -
               depth: 5
               value: 0.
               norm_class_idx: 0
            -
               depth: 5
               value: 3.
               norm_class_idx: 3
            -
               depth: 4
               value: 0.
               norm_class_idx: 0
               splits:
                  - { var:0, quality:3.7320835113525391e+01,
                      le:-2.1153965592384338e-01 }
            -
               depth: 5
               value: 0.
               norm_class_idx: 0
            -
               depth: 5
               value: 0.
               norm_class_idx: 0
            -
               depth: 3
               value: 0.
               norm_class_idx: 0
               splits:
                  - { var:0, quality:3.4547561645507812e+02,
                      le:-1.7907887697219849e-01 }
            -
               depth: 4
               value: 3.
               norm_class_idx: 3
               splits:
                  - { var:0, quality:3.0699073791503906e+01,
                      le:-1.9658076763153076e-01 }
            -
               depth: 5
               value: 2.
               norm_class_idx: 2
            -
               depth: 5
               value: 3.
               norm_class_idx: 3
            -
               depth: 4
               value: 0.
               norm_class_idx: 0
               splits:
                  - { var:0, quality:3.2440625000000000e+02,
                      le:-6.8233512341976166e-02 }
            -
               depth: 5
               value: 0.
               norm_class_idx: 0
            -
               depth: 5
               value: 0.
               norm_class_idx: 0
            -
               depth: 2
               value: 0.
               norm_class_idx: 0
               splits:
                  - { var:0, quality:2.7829860839843750e+03,
                      le:1.6117992401123047e+00 }
            -
               depth: 3
               value: 0.
               norm_class_idx: 0
               splits:
                  - { var:0, quality:2.4909921875000000e+03,
                      le:7.9324889183044434e-01 }
            -
               depth: 4
               value: 0.
               norm_class_idx: 0
               splits:
                  - { var:0, quality:1.8955535888671875e+03,
                      le:2.4336013197898865e-01 }
            -
               depth: 5
               value: 0.
               norm_class_idx: 0
            -
               depth: 5
               value: 0.
               norm_class_idx: 0
            -
               depth: 4
               value: 0.
               norm_class_idx: 0
               splits:
                  - { var:0, quality:6.1014892578125000e+02,
                      le:1.3009536266326904e+00 }
            -
               depth: 5
               value: 0.
               norm_class_idx: 0
            -
               depth: 5
               value: 0.
               norm_class_idx: 0
            -
               depth: 3
               value: 0.
               norm_class_idx: 0
               splits:
                  - { var:0, quality:3.1468197631835938e+02,
                      le:3.0403733253479004e+00 }
            -
               depth: 4
               value: 0.
               norm_class_idx: 0
               splits:
                  - { var:0, quality:3.1068038940429688e+02,
                      le:2.6463561058044434e+00 }
            -
               depth: 5
               value: 0.
               norm_class_idx: 0
            -
               depth: 5
               value: 0.
               norm_class_idx: 0
            -
               depth: 4
               value: 1.
               norm_class_idx: 1
               splits:
                  - { var:0, quality:9.6000003814697266e+00,
                      le:3.9763507843017578e+00 }
            -
               depth: 5
               value: 1.
               norm_class_idx: 1
            -
               depth: 5
               value: 0.
               norm_class_idx: 0
      -
         nodes:
            -
               depth: 0
               value: 0.
               norm_class_idx: 0
               splits:
                  - { var:0, quality:4.4639633789062500e+03,
                      le:-2.3427718877792358e-01 }
            -
               depth: 1
               value: 3.
               norm_class_idx: 3
               splits:
                  - { var:0, quality:1.3787441406250000e+03,
                      le:-8.0989521741867065e-01 }
            -
               depth: 2
               value: 3.
               norm_class_idx: 3
               splits:
                  - { var:0, quality:8.4364593505859375e+02,
                      le:-2.0221633911132812e+00 }
            -
               depth: 3
               value: 3.
               norm_class_idx: 3
               splits:
                  - { var:0, quality:1.4549862670898438e+02,
                      le:-3.2420608997344971e+00 }
            -
               depth: 4
               value: 1.
               norm_class_idx: 1
               splits:
                  - { var:0, quality:14., le:-3.5122184753417969e+00 }
            -
               depth: 5
               value: 1.
               norm_class_idx: 1
            -
               depth: 5
               value: 1.
               norm_class_idx: 1
            -
               depth: 4
               value: 3.
               norm_class_idx: 3
               splits:
                  - { var:0, quality:1.3521856689453125e+02,
                      le:-2.2894787788391113e+00 }
            -
               depth: 5
               value: 3.
               norm_class_idx: 3
            -
               depth: 5
               value: 3.
               norm_class_idx: 3
            -
               depth: 3
               value: 3.
               norm_class_idx: 3
               splits:
                  - { var:0, quality:7.1241424560546875e+02,
                      le:-1.5433294773101807e+00 }
            -
               depth: 4
               value: 3.
               norm_class_idx: 3
               splits:
                  - { var:0, quality:2.1000196838378906e+02,
                      le:-2.0072045326232910e+00 }
            -
               depth: 5
               value: 1.
               norm_class_idx: 1
            -
               depth: 5
               value: 3.
               norm_class_idx: 3
            -
               depth: 4
               value: 3.
               norm_class_idx: 3
               splits:
                  - { var:0, quality:5.0990063476562500e+02,
                      le:-8.1333577632904053e-01 }
            -
               depth: 5
               value: 3.
               norm_class_idx: 3
            -
               depth: 5
               value: 3.
               norm_class_idx: 3
            -
               depth: 2
               value: 0.
               norm_class_idx: 0
               splits:
                  - { var:0, quality:5.4700097656250000e+02,
                      le:-2.3831607401371002e-01 }
            -
               depth: 3
               value: 0.
               norm_class_idx: 0
               splits:
                  - { var:0, quality:5.4331530761718750e+02,
                      le:-2.4684263765811920e-01 }
            -
               depth: 4
               value: 0.
               norm_class_idx: 0
               splits:
                  - { var:0, quality:5.3378802490234375e+02,
                      le:-2.4759058654308319e-01 }
            -
               depth: 5
               value: 0.
               norm_class_idx: 0
            -
               depth: 5
               value: 0.
               norm_class_idx: 0
            -
               depth: 4
               value: 3.
               norm_class_idx: 3
               splits:
                  - { var:0, quality:1.7186603546142578e+01,
                      le:-2.4235497415065765e-01 }
            -
               depth: 5
               value: 3.
               norm_class_idx: 3
            -
               depth: 5
               value: 0.
               norm_class_idx: 0
            -
               depth: 3
               value: 1.
               norm_class_idx: 1
               splits:
                  - { var:0, quality:9.6181821823120117e+00,
                      le:-2.3682019114494324e-01 }
            -
               depth: 4
               value: 1.
               norm_class_idx: 1
            -
               depth: 4
               value: 1.
               norm_class_idx: 1
               splits:
                  - { var:0, quality:4.4166665077209473e+00,
                      le:-2.3592266440391541e-01 }
            -
               depth: 5
               value: 0.
               norm_class_idx: 0
            -
               depth: 5
               value: 1.
               norm_class_idx: 1
            -
               depth: 1
               value: 0.
               norm_class_idx: 0
               splits:
                  - { var:0, quality:3.1338562011718750e+03,
                      le:7.0734560489654541e-02 }
            -
               depth: 2
               value: 0.
               norm_class_idx: 0
               splits:
                  - { var:0, quality:5.1261804199218750e+02,
                      le:6.9537848234176636e-02 }
            -
               depth: 3
               value: 0.
               norm_class_idx: 0
               splits:
                  - { var:0, quality:5.0974038696289062e+02,
                      le:-1.9897419214248657e-01 }
            -
               depth: 4
               value: 0.
               norm_class_idx: 0
               splits:
                  - { var:0, quality:6.7948898315429688e+01,
                      le:-2.0630405843257904e-01 }
            -
               depth: 5
               value: 0.
               norm_class_idx: 0
            -
               depth: 5
               value: 0.
               norm_class_idx: 0
            -
               depth: 4
               value: 0.
               norm_class_idx: 0
               splits:
                  - { var:0, quality:4.4906118774414062e+02,
                      le:-1.7189860343933105e-01 }
            -
               depth: 5
               value: 0.
               norm_class_idx: 0
            -
               depth: 5
               value: 0.
               norm_class_idx: 0
            -
               depth: 3
               value: 1.
               norm_class_idx: 1
               splits:
                  - { var:0, quality:9.5000000000000000e+00,
                      le:6.9986619055271149e-02 }
            -
               depth: 4
               value: 2.
               norm_class_idx: 2
            -
               depth: 4
               value: 1.
               norm_class_idx: 1
            -
               depth: 2
               value: 0.
               norm_class_idx: 0
               splits:
                  - { var:0, quality:2.6363850097656250e+03,
                      le:1.7049932479858398e+00 }
            -
               depth: 3
               value: 0.
               norm_class_idx: 0
               splits:
                  - { var:0, quality:2.3878840332031250e+03,
                      le:7.7619576454162598e-01 }
            -
               depth: 4
               value: 0.
               norm_class_idx: 0
               splits:
                  - { var:0, quality:1.7313767089843750e+03,
                      le:7.7260565757751465e-01 }
            -
               depth: 5
               value: 0.
               norm_class_idx: 0
            -
               depth: 5
               value: 0.
               norm_class_idx: 0
            -
               depth: 4
               value: 0.
               norm_class_idx: 0
               splits:
                  - { var:0, quality:6.6620959472656250e+02,
                      le:7.7888834476470947e-01 }
            -
               depth: 5
               value: 3.
               norm_class_idx: 3
            -
               depth: 5
               value: 0.
               norm_class_idx: 0
            -
               depth: 3
               value: 0.
               norm_class_idx: 0
               splits:
                  - { var:0, quality:2.6171566772460938e+02,
                      le:2.7238430976867676e+00 }
            -
               depth: 4
               value: 0.
               norm_class_idx: 0
               splits:
                  - { var:0, quality:2.5180340576171875e+02,
                      le:1.8281048536300659e+00 }
            -
               depth: 5
               value: 0.
               norm_class_idx: 0
            -
               depth: 5
               value: 0.
               norm_class_idx: 0
            -
               depth: 4
               value: 0.
               norm_class_idx: 0
               splits:
                  - { var:0, quality:1.3846154212951660e+01,
                      le:3.5812864303588867e+00 }
            -
               depth: 5
               value: 0.
               norm_class_idx: 0
            -
               depth: 5
               value: 0.
               norm_class_idx: 0
      -
         nodes:
            -
               depth: 0
               value: 0.
               norm_class_idx: 0
               splits:
                  - { var:0, quality:4.5482060546875000e+03,
                      le:-2.3412758111953735e-01 }
            -
               depth: 1
               value: 3.
               norm_class_idx: 3
               splits:
                  - { var:0, quality:1.3950225830078125e+03,
                      le:-8.3622288703918457e-01 }
            -
               depth: 2
               value: 3.
               norm_class_idx: 3
               splits:
                  - { var:0, quality:8.6110308837890625e+02,
                      le:-2.3041386604309082e+00 }
            -
               depth: 3
               value: 3.
               norm_class_idx: 3
               splits:
                  - { var:0, quality:9.9956855773925781e+01,
                      le:-3.2884335517883301e+00 }
            -
               depth: 4
               value: 1.
               norm_class_idx: 1
               splits:
                  - { var:0, quality:10., le:-3.3717546463012695e+00 }
            -
               depth: 5
               value: 1.
               norm_class_idx: 1
            -
               depth: 5
               value: 1.
               norm_class_idx: 1
            -
               depth: 4
               value: 3.
               norm_class_idx: 3
               splits:
                  - { var:0, quality:9.2282516479492188e+01,
                      le:-2.7268767356872559e+00 }
            -
               depth: 5
               value: 3.
               norm_class_idx: 3
            -
               depth: 5
               value: 3.
               norm_class_idx: 3
            -
               depth: 3
               value: 3.
               norm_class_idx: 3
               splits:
                  - { var:0, quality:7.7233660888671875e+02,
                      le:-1.6635990142822266e+00 }
            -
               depth: 4
               value: 3.
               norm_class_idx: 3
               splits:
                  - { var:0, quality:2.2355996704101562e+02,
                      le:-2.2930691242218018e+00 }
            -
               depth: 5
               value: 0.
               norm_class_idx: 0
            -
               depth: 5
               value: 3.
               norm_class_idx: 3
            -
               depth: 4
               value: 3.
               norm_class_idx: 3
               splits:
                  - { var:0, quality:5.5852008056640625e+02,
                      le:-1.6155810356140137e+00 }
            -
               depth: 5
               value: 0.
               norm_class_idx: 0
            -
               depth: 5
               value: 3.
               norm_class_idx: 3
            -
               depth: 2
               value: 0.
               norm_class_idx: 0
               splits:
                  - { var:0, quality:5.5488452148437500e+02,
                      le:-2.3711937665939331e-01 }
            -
               depth: 3
               value: 0.
               norm_class_idx: 0
               splits:
                  - { var:0, quality:5.4835809326171875e+02,
                      le:-4.5372408628463745e-01 }
            -
               depth: 4
               value: 0.
               norm_class_idx: 0
               splits:
                  - { var:0, quality:3.1663711547851562e+02,
                      le:-7.8012704849243164e-01 }
            -
               depth: 5
               value: 0.
               norm_class_idx: 0
            -
               depth: 5
               value: 3.
               norm_class_idx: 3
            -
               depth: 4
               value: 0.
               norm_class_idx: 0
               splits:
                  - { var:0, quality:2.3712081909179688e+02,
                      le:-2.6015606522560120e-01 }
            -
               depth: 5
               value: 0.
               norm_class_idx: 0
            -
               depth: 5
               value: 3.
               norm_class_idx: 3
            -
               depth: 3
               value: 1.
               norm_class_idx: 1
               splits:
                  - { var:0, quality:1.2636363983154297e+01,
                      le:-2.3667061328887939e-01 }
            -
               depth: 4
               value: 1.
               norm_class_idx: 1
            -
               depth: 4
               value: 1.
               norm_class_idx: 1
               splits:
                  - { var:0, quality:5.9166665077209473e+00,
                      le:-2.3562347888946533e-01 }
            -
               depth: 5
               value: 3.
               norm_class_idx: 3
            -
               depth: 5
               value: 1.
               norm_class_idx: 1
            -
               depth: 1
               value: 0.
               norm_class_idx: 0
               splits:
                  - { var:0, quality:3.2167202148437500e+03,
                      le:8.5394278168678284e-02 }
            -
               depth: 2
               value: 0.
               norm_class_idx: 0
               splits:
                  - { var:0, quality:5.6522015380859375e+02,
                      le:-2.2874239087104797e-01 }
            -
               depth: 3
               value: 0.
               norm_class_idx: 0
            -
               depth: 3
               value: 0.
               norm_class_idx: 0
               splits:
                  - { var:0, quality:5.4541400146484375e+02,
                      le:-1.9897419214248657e-01 }
            -
               depth: 4
               value: 0.
               norm_class_idx: 0
               splits:
                  - { var:0, quality:5.7863578796386719e+01,
                      le:-2.2455389797687531e-01 }
            -
               depth: 5
               value: 3.
               norm_class_idx: 3
            -
               depth: 5
               value: 0.
               norm_class_idx: 0
            -
               depth: 4
               value: 0.
               norm_class_idx: 0
               splits:
                  - { var:0, quality:4.9723971557617188e+02,
                      le:-1.7937806248664856e-01 }
            -
               depth: 5
               value: 3.
               norm_class_idx: 3
            -
               depth: 5
               value: 0.
               norm_class_idx: 0
            -
               depth: 2
               value: 0.
               norm_class_idx: 0
               splits:
                  - { var:0, quality:2.6639904785156250e+03,
                      le:1.4319934844970703e+00 }
            -
               depth: 3
               value: 0.
               norm_class_idx: 0
               splits:
                  - { var:0, quality:2.2731032714843750e+03,
                      le:7.6392948627471924e-01 }
            -
               depth: 4
               value: 0.
               norm_class_idx: 0
               splits:
                  - { var:0, quality:1.6901997070312500e+03,
                      le:6.3094496726989746e-01 }
            -
               depth: 5
               value: 0.
               norm_class_idx: 0
            -
               depth: 5
               value: 0.
               norm_class_idx: 0
            -
               depth: 4
               value: 0.
               norm_class_idx: 0
               splits:
                  - { var:0, quality:5.9373089599609375e+02,
                      le:7.7170813083648682e-01 }
            -
               depth: 5
               value: 1.
               norm_class_idx: 1
            -
               depth: 5
               value: 0.
               norm_class_idx: 0
            -
               depth: 3
               value: 0.
               norm_class_idx: 0
               splits:
                  - { var:0, quality:4.0167694091796875e+02,
                      le:2.6249647140502930e+00 }
            -
               depth: 4
               value: 0.
               norm_class_idx: 0
               splits:
                  - { var:0, quality:3.9029998779296875e+02,
                      le:2.2716360092163086e+00 }
            -
               depth: 5
               value: 0.
               norm_class_idx: 0
            -
               depth: 5
               value: 0.
               norm_class_idx: 0
            -
               depth: 4
               value: 0.
               norm_class_idx: 0
               splits:
                  - { var:0, quality:1.7722221374511719e+01,
                      le:2.6322946548461914e+00 }
            -
               depth: 5
               value: 1.
               norm_class_idx: 1
            -
               depth: 5
               value: 0.
               norm_class_idx: 0
      -
         nodes:
            -
               depth: 0
               value: 0.
               norm_class_idx: 0
               splits:
                  - { var:0, quality:4.5856962890625000e+03,
                      le:-2.3427718877792358e-01 }
            -
               depth: 1
               value: 3.
               norm_class_idx: 3
               splits:
                  - { var:0, quality:1.4008488769531250e+03,
                      le:-9.6471971273422241e-01 }
            -
               depth: 2
               value: 3.
               norm_class_idx: 3
               splits:
                  - { var:0, quality:7.6208142089843750e+02,
                      le:-3.6793093681335449e+00 }
            -
               depth: 3
               value: 1.
               norm_class_idx: 1
            -
               depth: 3
               value: 3.
               norm_class_idx: 3
               splits:
                  - { var:0, quality:7.6252209472656250e+02,
                      le:-2.3261282444000244e+00 }
            -
               depth: 4
               value: 3.
               norm_class_idx: 3
               splits:
                  - { var:0, quality:8.3099433898925781e+01,
                      le:-3.2420608997344971e+00 }
            -
               depth: 5
               value: 1.
               norm_class_idx: 1
            -
               depth: 5
               value: 3.
               norm_class_idx: 3
            -
               depth: 4
               value: 3.
               norm_class_idx: 3
               splits:
                  - { var:0, quality:6.9030871582031250e+02,
                      le:-2.1310644149780273e+00 }
            -
               depth: 5
               value: 1.
               norm_class_idx: 1
            -
               depth: 5
               value: 3.
               norm_class_idx: 3
            -
               depth: 2
               value: 3.
               norm_class_idx: 3
               splits:
                  - { var:0, quality:6.5223651123046875e+02,
                      le:-3.3061242103576660e-01 }
            -
               depth: 3
               value: 3.
               norm_class_idx: 3
               splits:
                  - { var:0, quality:5.5474475097656250e+02,
                      le:-4.0525728464126587e-01 }
            -
               depth: 4
               value: 3.
               norm_class_idx: 3
               splits:
                  - { var:0, quality:4.7208114624023438e+02,
                      le:-4.0735152363777161e-01 }
            -
               depth: 5
               value: 3.
               norm_class_idx: 3
            -
               depth: 5
               value: 3.
               norm_class_idx: 3
            -
               depth: 4
               value: 0.
               norm_class_idx: 0
               splits:
                  - { var:0, quality:8.8454887390136719e+01,
                      le:-3.8266932964324951e-01 }
            -
               depth: 5
               value: 0.
               norm_class_idx: 0
            -
               depth: 5
               value: 0.
               norm_class_idx: 0
            -
               depth: 3
               value: 3.
               norm_class_idx: 3
               splits:
                  - { var:0, quality:1.0569273376464844e+02,
                      le:-3.3016365766525269e-01 }
            -
               depth: 4
               value: 2.
               norm_class_idx: 2
            -
               depth: 4
               value: 3.
               norm_class_idx: 3
               splits:
                  - { var:0, quality:1.0531007385253906e+02,
                      le:-3.1759816408157349e-01 }
            -
               depth: 5
               value: 3.
               norm_class_idx: 3
            -
               depth: 5
               value: 3.
               norm_class_idx: 3
            -
               depth: 1
               value: 0.
               norm_class_idx: 0
               splits:
                  - { var:0, quality:3.2381215820312500e+03,
                      le:9.5267146825790405e-02 }
            -
               depth: 2
               value: 0.
               norm_class_idx: 0
               splits:
                  - { var:0, quality:5.6049664306640625e+02,
                      le:-1.9912378489971161e-01 }
            -
               depth: 3
               value: 0.
               norm_class_idx: 0
               splits:
                  - { var:0, quality:7.7856582641601562e+01,
                      le:-2.0630405843257904e-01 }
            -
               depth: 4
               value: 0.
               norm_class_idx: 0
               splits:
                  - { var:0, quality:5.8749694824218750e+01,
                      le:-2.2709691524505615e-01 }
            -
               depth: 5
               value: 0.
               norm_class_idx: 0
            -
               depth: 5
               value: 0.
               norm_class_idx: 0
            -
               depth: 4
               value: 0.
               norm_class_idx: 0
               splits:
                  - { var:0, quality:2.4666666030883789e+01,
                      le:-2.0032049715518951e-01 }
            -
               depth: 5
               value: 0.
               norm_class_idx: 0
            -
               depth: 5
               value: 0.
               norm_class_idx: 0
            -
               depth: 3
               value: 0.
               norm_class_idx: 0
               splits:
                  - { var:0, quality:4.8989584350585938e+02,
                      le:9.2724129557609558e-02 }
            -
               depth: 4
               value: 0.
               norm_class_idx: 0
               splits:
                  - { var:0, quality:4.8459729003906250e+02,
                      le:8.4047973155975342e-02 }
            -
               depth: 5
               value: 0.
               norm_class_idx: 0
            -
               depth: 5
               value: 0.
               norm_class_idx: 0
            -
               depth: 4
               value: 3.
               norm_class_idx: 3
               splits:
                  - { var:0, quality:1.3788888931274414e+01,
                      le:9.3322485685348511e-02 }
            -
               depth: 5
               value: 2.
               norm_class_idx: 2
            -
               depth: 5
               value: 3.
               norm_class_idx: 3
            -
               depth: 2
               value: 0.
               norm_class_idx: 0
               splits:
                  - { var:0, quality:2.6951032714843750e+03,
                      le:1.6520386934280396e+00 }
            -
               depth: 3
               value: 0.
               norm_class_idx: 0
               splits:
                  - { var:0, quality:2.4071782226562500e+03,
                      le:7.5435578823089600e-01 }
            -
               depth: 4
               value: 0.
               norm_class_idx: 0
               splits:
                  - { var:0, quality:1.7242025146484375e+03,
                      le:7.4089276790618896e-01 }
            -
               depth: 5
               value: 0.
               norm_class_idx: 0
            -
               depth: 5
               value: 0.
               norm_class_idx: 0
            -
               depth: 4
               value: 0.
               norm_class_idx: 0
               splits:
                  - { var:0, quality:6.9260577392578125e+02,
                      le:1.6402211189270020e+00 }
            -
               depth: 5
               value: 0.
               norm_class_idx: 0
            -
               depth: 5
               value: 1.
               norm_class_idx: 1
            -
               depth: 3
               value: 0.
               norm_class_idx: 0
               splits:
                  - { var:0, quality:3.1226168823242188e+02,
                      le:3.0361847877502441e+00 }
            -
               depth: 4
               value: 0.
               norm_class_idx: 0
               splits:
                  - { var:0, quality:3.0752203369140625e+02,
                      le:2.5431396961212158e+00 }
            -
               depth: 5
               value: 0.
               norm_class_idx: 0
            -
               depth: 5
               value: 0.
               norm_class_idx: 0
            -
               depth: 4
               value: 1.
               norm_class_idx: 1
               splits:
                  - { var:0, quality:7.5999999046325684e+00,
                      le:3.9150192737579346e+00 }
            -
               depth: 5
               value: 1.
               norm_class_idx: 1
            -
               depth: 5
               value: 0.
               norm_class_idx: 0
      -
         nodes:
            -
               depth: 0
               value: 0.
               norm_class_idx: 0
               splits:
                  - { var:0, quality:4.5590927734375000e+03,
                      le:-2.3607224225997925e-01 }
            -
               depth: 1
               value: 3.
               norm_class_idx: 3
               splits:
                  - { var:0, quality:1.4395416259765625e+03,
                      le:-8.3637249469757080e-01 }
            -
               depth: 2
               value: 3.
               norm_class_idx: 3
               splits:
                  - { var:0, quality:8.8565777587890625e+02,
                      le:-2.2401146888732910e+00 }
            -
               depth: 3
               value: 3.
               norm_class_idx: 3
               splits:
                  - { var:0, quality:1.0961498260498047e+02,
                      le:-3.2420608997344971e+00 }
            -
               depth: 4
               value: 1.
               norm_class_idx: 1
               splits:
                  - { var:0, quality:1.8333333969116211e+01,
                      le:-3.6793093681335449e+00 }
            -
               depth: 5
               value: 1.
               norm_class_idx: 1
            -
               depth: 5
               value: 1.
               norm_class_idx: 1
            -
               depth: 4
               value: 3.
               norm_class_idx: 3
               splits:
                  - { var:0, quality:9.6796264648437500e+01,
                      le:-2.3280730247497559e+00 }
            -
               depth: 5
               value: 3.
               norm_class_idx: 3
            -
               depth: 5
               value: 3.
               norm_class_idx: 3
            -
               depth: 3
               value: 3.
               norm_class_idx: 3
               splits:
                  - { var:0, quality:7.9747198486328125e+02,
                      le:-8.7152588367462158e-01 }
            -
               depth: 4
               value: 3.
               norm_class_idx: 3
               splits:
                  - { var:0, quality:7.6101788330078125e+02,
                      le:-1.6615047454833984e+00 }
            -
               depth: 5
               value: 3.
               norm_class_idx: 3
            -
               depth: 5
               value: 3.
               norm_class_idx: 3
            -
               depth: 4
               value: 1.
               norm_class_idx: 1
               splits:
                  - { var:0, quality:4.2253593444824219e+01,
                      le:-8.6793565750122070e-01 }
            -
               depth: 5
               value: 1.
               norm_class_idx: 1
            -
               depth: 5
               value: 1.
               norm_class_idx: 1
            -
               depth: 2
               value: 3.
               norm_class_idx: 3
               splits:
                  - { var:0, quality:5.6908496093750000e+02,
                      le:-8.3233356475830078e-01 }
            -
               depth: 3
               value: 2.
               norm_class_idx: 2
            -
               depth: 3
               value: 3.
               norm_class_idx: 3
               splits:
                  - { var:0, quality:5.7010864257812500e+02,
                      le:-6.4908719062805176e-01 }
            -
               depth: 4
               value: 3.
               norm_class_idx: 3
               splits:
                  - { var:0, quality:1.9406797790527344e+02,
                      le:-6.4998471736907959e-01 }
            -
               depth: 5
               value: 3.
               norm_class_idx: 3
            -
               depth: 5
               value: 3.
               norm_class_idx: 3
            -
               depth: 4
               value: 3.
               norm_class_idx: 3
               splits:
                  - { var:0, quality:3.8161083984375000e+02,
                      le:-6.4130854606628418e-01 }
            -
               depth: 5
               value: 1.
               norm_class_idx: 1
            -
               depth: 5
               value: 3.
               norm_class_idx: 3
            -
               depth: 1
               value: 0.
               norm_class_idx: 0
               splits:
                  - { var:0, quality:3.1661140136718750e+03,
                      le:2.1968588232994080e-02 }
            -
               depth: 2
               value: 0.
               norm_class_idx: 0
               splits:
                  - { var:0, quality:3.9478161621093750e+02,
                      le:2.1220643073320389e-02 }
            -
               depth: 3
               value: 0.
               norm_class_idx: 0
               splits:
                  - { var:0, quality:3.9449325561523438e+02,
                      le:-2.2874239087104797e-01 }
            -
               depth: 4
               value: 0.
               norm_class_idx: 0
               splits:
                  - { var:0, quality:1.6924369812011719e+01,
                      le:-2.2993910312652588e-01 }
            -
               depth: 5
               value: 0.
               norm_class_idx: 0
            -
               depth: 5
               value: 0.
               norm_class_idx: 0
            -
               depth: 4
               value: 0.
               norm_class_idx: 0
               splits:
                  - { var:0, quality:3.8093161010742188e+02,
                      le:-2.2455389797687531e-01 }
            -
               depth: 5
               value: 3.
               norm_class_idx: 3
            -
               depth: 5
               value: 0.
               norm_class_idx: 0
            -
               depth: 3
               value: 1.
               norm_class_idx: 1
            -
               depth: 2
               value: 0.
               norm_class_idx: 0
               splits:
                  - { var:0, quality:2.7866035156250000e+03,
                      le:7.5704836845397949e-01 }
            -
               depth: 3
               value: 0.
               norm_class_idx: 0
               splits:
                  - { var:0, quality:1.8899080810546875e+03,
                      le:2.8285160660743713e-01 }
            -
               depth: 4
               value: 0.
               norm_class_idx: 0
               splits:
                  - { var:0, quality:6.1204455566406250e+02,
                      le:2.8225326538085938e-01 }
            -
               depth: 5
               value: 0.
               norm_class_idx: 0
            -
               depth: 5
               value: 2.
               norm_class_idx: 2
            -
               depth: 4
               value: 0.
               norm_class_idx: 0
               splits:
                  - { var:0, quality:1.2837517089843750e+03,
                      le:7.4807304143905640e-01 }
            -
               depth: 5
               value: 0.
               norm_class_idx: 0
            -
               depth: 5
               value: 0.
               norm_class_idx: 0
            -
               depth: 3
               value: 0.
               norm_class_idx: 0
               splits:
                  - { var:0, quality:9.1672326660156250e+02,
                      le:1.6117992401123047e+00 }
            -
               depth: 4
               value: 0.
               norm_class_idx: 0
               splits:
                  - { var:0, quality:6.2124523925781250e+02,
                      le:7.6333111524581909e-01 }
            -
               depth: 5
               value: 3.
               norm_class_idx: 3
            -
               depth: 5
               value: 0.
               norm_class_idx: 0
            -
               depth: 4
               value: 0.
               norm_class_idx: 0
               splits:
                  - { var:0, quality:3.1133981323242188e+02,
                      le:3.0403733253479004e+00 }
            -
               depth: 5
               value: 0.
               norm_class_idx: 0
            -
               depth: 5
               value: 1.
               norm_class_idx: 1
      -
         nodes:
            -
               depth: 0
               value: 0.
               norm_class_idx: 0
               splits:
                  - { var:0, quality:4.5200009765625000e+03,
                      le:-2.6883220672607422e-01 }
            -
               depth: 1
               value: 3.
               norm_class_idx: 3
               splits:
                  - { var:0, quality:1.4184517822265625e+03,
                      le:-7.6741194725036621e-01 }
            -
               depth: 2
               value: 3.
               norm_class_idx: 3
               splits:
                  - { var:0, quality:9.6210614013671875e+02,
                      le:-3.4999520778656006e+00 }
            -
               depth: 3
               value: 1.
               norm_class_idx: 1
            -
               depth: 3
               value: 3.
               norm_class_idx: 3
               splits:
                  - { var:0, quality:9.6286340332031250e+02,
                      le:-2.3024930953979492e+00 }
            -
               depth: 4
               value: 3.
               norm_class_idx: 3
               splits:
                  - { var:0, quality:8.7709091186523438e+01,
                      le:-2.6181256771087646e+00 }
            -
               depth: 5
               value: 3.
               norm_class_idx: 3
            -
               depth: 5
               value: 3.
               norm_class_idx: 3
            -
               depth: 4
               value: 3.
               norm_class_idx: 3
               splits:
                  - { var:0, quality:8.8249542236328125e+02,
                      le:-2.2930691242218018e+00 }
            -
               depth: 5
               value: 0.
               norm_class_idx: 0
            -
               depth: 5
               value: 3.
               norm_class_idx: 3
            -
               depth: 2
               value: 3.
               norm_class_idx: 3
               splits:
                  - { var:0, quality:4.7109078979492188e+02,
                      le:-3.9987206459045410e-01 }
            -
               depth: 3
               value: 3.
               norm_class_idx: 3
               splits:
                  - { var:0, quality:3.5324160766601562e+02,
                      le:-4.2410546541213989e-01 }
            -
               depth: 4
               value: 3.
               norm_class_idx: 3
               splits:
                  - { var:0, quality:3.2767813110351562e+02,
                      le:-4.5387366414070129e-01 }
            -
               depth: 5
               value: 3.
               norm_class_idx: 3
            -
               depth: 5
               value: 0.
               norm_class_idx: 0
            -
               depth: 4
               value: 1.
               norm_class_idx: 1
               splits:
                  - { var:0, quality:3.4311111450195312e+01,
                      le:-4.0675318241119385e-01 }
            -
               depth: 5
               value: 1.
               norm_class_idx: 1
            -
               depth: 5
               value: 3.
               norm_class_idx: 3
            -
               depth: 3
               value: 0.
               norm_class_idx: 0
               splits:
                  - { var:0, quality:1.2843400573730469e+02,
                      le:-3.3061242103576660e-01 }
            -
               depth: 4
               value: 0.
               norm_class_idx: 0
               splits:
                  - { var:0, quality:7.8272682189941406e+01,
                      le:-3.6456909775733948e-01 }
            -
               depth: 5
               value: 0.
               norm_class_idx: 0
            -
               depth: 5
               value: 1.
               norm_class_idx: 1
            -
               depth: 4
               value: 3.
               norm_class_idx: 3
               splits:
                  - { var:0, quality:5.8934928894042969e+01,
                      le:-3.2866775989532471e-01 }
            -
               depth: 5
               value: 2.
               norm_class_idx: 2
            -
               depth: 5
               value: 3.
               norm_class_idx: 3
            -
               depth: 1
               value: 0.
               norm_class_idx: 0
               splits:
                  - { var:0, quality:3.1525073242187500e+03,
                      le:1.9874343648552895e-02 }
            -
               depth: 2
               value: 0.
               norm_class_idx: 0
               splits:
                  - { var:0, quality:4.1794638061523438e+02,
                      le:1.3741198927164078e-02 }
            -
               depth: 3
               value: 0.
               norm_class_idx: 0
               splits:
                  - { var:0, quality:4.1288037109375000e+02,
                      le:-2.5596755743026733e-01 }
            -
               depth: 4
               value: 0.
               norm_class_idx: 0
               splits:
                  - { var:0, quality:2.6628570556640625e+01,
                      le:-2.5910893082618713e-01 }
            -
               depth: 5
               value: 0.
               norm_class_idx: 0
            -
               depth: 5
               value: 0.
               norm_class_idx: 0
            -
               depth: 4
               value: 0.
               norm_class_idx: 0
               splits:
                  - { var:0, quality:3.9325115966796875e+02,
                      le:-2.3427718877792358e-01 }
            -
               depth: 5
               value: 3.
               norm_class_idx: 3
            -
               depth: 5
               value: 0.
               norm_class_idx: 0
            -
               depth: 3
               value: 2.
               norm_class_idx: 2
               splits:
                  - { var:0, quality:1.1294117927551270e+01,
                      le:1.7181742936372757e-02 }
            -
               depth: 4
               value: 2.
               norm_class_idx: 2
               splits:
                  - { var:0, quality:6.8333334922790527e+00,
                      le:1.6583388671278954e-02 }
            -
               depth: 5
               value: 2.
               norm_class_idx: 2
            -
               depth: 5
               value: 1.
               norm_class_idx: 1
            -
               depth: 4
               value: 0.
               norm_class_idx: 0
               splits:
                  - { var:0, quality:9.0384616851806641e+00,
                      le:1.8677633255720139e-02 }
            -
               depth: 5
               value: 3.
               norm_class_idx: 3
            -
               depth: 5
               value: 2.
               norm_class_idx: 2
            -
               depth: 2
               value: 0.
               norm_class_idx: 0
               splits:
                  - { var:0, quality:2.7466567382812500e+03,
                      le:1.6518890857696533e+00 }
            -
               depth: 3
               value: 0.
               norm_class_idx: 0
               splits:
                  - { var:0, quality:2.4606633300781250e+03,
                      le:7.2518599033355713e-01 }
            -
               depth: 4
               value: 0.
               norm_class_idx: 0
               splits:
                  - { var:0, quality:1.7580102539062500e+03,
                      le:2.4455684423446655e-01 }
            -
               depth: 5
               value: 0.
               norm_class_idx: 0
            -
               depth: 5
               value: 0.
               norm_class_idx: 0
            -
               depth: 4
               value: 0.
               norm_class_idx: 0
               splits:
                  - { var:0, quality:7.1756756591796875e+02,
                      le:1.6402211189270020e+00 }
            -
               depth: 5
               value: 0.
               norm_class_idx: 0
            -
               depth: 5
               value: 1.
               norm_class_idx: 1
            -
               depth: 3
               value: 0.
               norm_class_idx: 0
               splits:
                  - { var:0, quality:3.0217480468750000e+02,
                      le:3.0361847877502441e+00 }
            -
               depth: 4
               value: 0.
               norm_class_idx: 0
               splits:
                  - { var:0, quality:2.9869851684570312e+02,
                      le:2.2702896595001221e+00 }
            -
               depth: 5
               value: 0.
               norm_class_idx: 0
            -
               depth: 5
               value: 0.
               norm_class_idx: 0
            -
               depth: 4
               value: 1.
               norm_class_idx: 1
               splits:
                  - { var:0, quality:8.5454549789428711e+00,
                      le:3.1501715183258057e+00 }
            -
               depth: 5
               value: 1.
               norm_class_idx: 1
            -
               depth: 5
               value: 0.
               norm_class_idx: 0
      -
         nodes:
            -
               depth: 0
               value: 0.
               norm_class_idx: 0
               splits:
                  - { var:0, quality:4.4930961914062500e+03,
                      le:-2.3427718877792358e-01 }
            -
               depth: 1
               value: 3.
               norm_class_idx: 3
               splits:
                  - { var:0, quality:1.4249273681640625e+03,
                      le:-8.7765896320343018e-01 }
            -
               depth: 2
               value: 3.
               norm_class_idx: 3
               splits:
                  - { var:0, quality:8.8651660156250000e+02,
                      le:-3.2420608997344971e+00 }
            -
               depth: 3
               value: 1.
               norm_class_idx: 1
               splits:
                  - { var:0, quality:1.6500000000000000e+01,
                      le:-3.6269531250000000e+00 }
            -
               depth: 4
               value: 1.
               norm_class_idx: 1
            -
               depth: 4
               value: 1.
               norm_class_idx: 1
               splits:
                  - { var:0, quality:8.8888893127441406e+00,
                      le:-3.3929963111877441e+00 }
            -
               depth: 5
               value: 3.
               norm_class_idx: 3
            -
               depth: 5
               value: 1.
               norm_class_idx: 1
            -
               depth: 3
               value: 3.
               norm_class_idx: 3
               splits:
                  - { var:0, quality:8.8391778564453125e+02,
                      le:-2.3280730247497559e+00 }
            -
               depth: 4
               value: 3.
               norm_class_idx: 3
               splits:
                  - { var:0, quality:8.1696578979492188e+01,
                      le:-2.3662180900573730e+00 }
            -
               depth: 5
               value: 3.
               norm_class_idx: 3
            -
               depth: 5
               value: 3.
               norm_class_idx: 3
            -
               depth: 4
               value: 3.
               norm_class_idx: 3
               splits:
                  - { var:0, quality:8.0682385253906250e+02,
                      le:-8.8214665651321411e-01 }
            -
               depth: 5
               value: 3.
               norm_class_idx: 3
            -
               depth: 5
               value: 3.
               norm_class_idx: 3
            -
               depth: 2
               value: 0.
               norm_class_idx: 0
               splits:
                  - { var:0, quality:5.5722790527343750e+02,
                      le:-8.3502614498138428e-01 }
            -
               depth: 3
               value: 1.
               norm_class_idx: 1
               splits:
                  - { var:0, quality:3.8378150939941406e+01,
                      le:-8.4938669204711914e-01 }
            -
               depth: 4
               value: 1.
               norm_class_idx: 1
               splits:
                  - { var:0, quality:2.5611940383911133e+01,
                      le:-8.4998500347137451e-01 }
            -
               depth: 5
               value: 1.
               norm_class_idx: 1
            -
               depth: 5
               value: 0.
               norm_class_idx: 0
            -
               depth: 4
               value: 3.
               norm_class_idx: 3
               splits:
                  - { var:0, quality:1.6709676742553711e+01,
                      le:-8.4893792867660522e-01 }
            -
               depth: 5
               value: 3.
               norm_class_idx: 3
            -
               depth: 5
               value: 1.
               norm_class_idx: 1
            -
               depth: 3
               value: 0.
               norm_class_idx: 0
               splits:
                  - { var:0, quality:5.2470489501953125e+02,
                      le:-8.3278232812881470e-01 }
            -
               depth: 4
               value: 2.
               norm_class_idx: 2
            -
               depth: 4
               value: 0.
               norm_class_idx: 0
               splits:
                  - { var:0, quality:5.2450744628906250e+02,
                      le:-2.5237745046615601e-01 }
            -
               depth: 5
               value: 0.
               norm_class_idx: 0
            -
               depth: 5
               value: 3.
               norm_class_idx: 3
            -
               depth: 1
               value: 0.
               norm_class_idx: 0
               splits:
                  - { var:0, quality:3.1256877441406250e+03,
                      le:-1.7056742217391729e-04 }
            -
               depth: 2
               value: 0.
               norm_class_idx: 0
               splits:
                  - { var:0, quality:3.7842681884765625e+02,
                      le:-5.2565895020961761e-03 }
            -
               depth: 3
               value: 0.
               norm_class_idx: 0
               splits:
                  - { var:0, quality:3.6559463500976562e+02,
                      le:-1.9897419214248657e-01 }
            -
               depth: 4
               value: 0.
               norm_class_idx: 0
               splits:
                  - { var:0, quality:5.8192306518554688e+01,
                      le:-2.0630405843257904e-01 }
            -
               depth: 5
               value: 0.
               norm_class_idx: 0
            -
               depth: 5
               value: 0.
               norm_class_idx: 0
            -
               depth: 4
               value: 0.
               norm_class_idx: 0
               splits:
                  - { var:0, quality:3.1491525268554688e+02,
                      le:-1.8790462613105774e-01 }
            -
               depth: 5
               value: 3.
               norm_class_idx: 3
            -
               depth: 5
               value: 0.
               norm_class_idx: 0
            -
               depth: 3
               value: 3.
               norm_class_idx: 3
               splits:
                  - { var:0, quality:1.7700000762939453e+01,
                      le:-1.8160452600568533e-03 }
            -
               depth: 4
               value: 3.
               norm_class_idx: 3
               splits:
                  - { var:0, quality:1.4166666984558105e+01,
                      le:-4.0598781779408455e-03 }
            -
               depth: 5
               value: 0.
               norm_class_idx: 0
            -
               depth: 5
               value: 3.
               norm_class_idx: 3
            -
               depth: 4
               value: 0.
               norm_class_idx: 0
            -
               depth: 2
               value: 0.
               norm_class_idx: 0
               splits:
                  - { var:0, quality:2.7588732910156250e+03,
                      le:7.9205214977264404e-01 }
            -
               depth: 3
               value: 0.
               norm_class_idx: 0
               splits:
                  - { var:0, quality:1.9212847900390625e+03,
                      le:6.4485669136047363e-01 }
            -
               depth: 4
               value: 0.
               norm_class_idx: 0
               splits:
                  - { var:0, quality:1.6220036621093750e+03,
                      le:2.4395850300788879e-01 }
            -
               depth: 5
               value: 0.
               norm_class_idx: 0
            -
               depth: 5
               value: 0.
               norm_class_idx: 0
            -
               depth: 4
               value: 0.
               norm_class_idx: 0
               splits:
                  - { var:0, quality:3.0407955932617188e+02,
                      le:6.5682387351989746e-01 }
            -
               depth: 5
               value: 0.
               norm_class_idx: 0
            -
               depth: 5
               value: 0.
               norm_class_idx: 0
            -
               depth: 3
               value: 0.
               norm_class_idx: 0
               splits:
                  - { var:0, quality:8.5202734375000000e+02,
                      le:1.6509915590286255e+00 }
            -
               depth: 4
               value: 0.
               norm_class_idx: 0
               splits:
                  - { var:0, quality:6.1033105468750000e+02,
                      le:1.6390244960784912e+00 }
            -
               depth: 5
               value: 0.
               norm_class_idx: 0
            -
               depth: 5
               value: 2.
               norm_class_idx: 2
            -
               depth: 4
               value: 0.
               norm_class_idx: 0
               splits:
                  - { var:0, quality:2.5575593566894531e+02,
                      le:2.7238430976867676e+00 }
            -
               depth: 5
               value: 0.
               norm_class_idx: 0
            -
               depth: 5
               value: 1.
               norm_class_idx: 1
      -
         nodes:
            -
               depth: 0
               value: 0.
               norm_class_idx: 0
               splits:
                  - { var:0, quality:4.5618476562500000e+03,
                      le:-2.6883220672607422e-01 }
            -
               depth: 1
               value: 3.
               norm_class_idx: 3
               splits:
                  - { var:0, quality:1.3736015625000000e+03,
                      le:-8.0884814262390137e-01 }
            -
               depth: 2
               value: 3.
               norm_class_idx: 3
               splits:
                  - { var:0, quality:8.9216784667968750e+02,
                      le:-2.2510347366333008e+00 }
            -
               depth: 3
               value: 3.
               norm_class_idx: 3
               splits:
                  - { var:0, quality:1.0881091308593750e+02,
                      le:-3.1249327659606934e+00 }
            -
               depth: 4
               value: 1.
               norm_class_idx: 1
               splits:
                  - { var:0, quality:1.3434782981872559e+01,
                      le:-3.6960632801055908e+00 }
            -
               depth: 5
               value: 1.
               norm_class_idx: 1
            -
               depth: 5
               value: 1.
               norm_class_idx: 1
            -
               depth: 4
               value: 3.
               norm_class_idx: 3
               splits:
                  - { var:0, quality:9.9002525329589844e+01,
                      le:-2.4275493621826172e+00 }
            -
               depth: 5
               value: 3.
               norm_class_idx: 3
            -
               depth: 5
               value: 3.
               norm_class_idx: 3
            -
               depth: 3
               value: 3.
               norm_class_idx: 3
               splits:
                  - { var:0, quality:7.9461633300781250e+02,
                      le:-2.1585886478424072e+00 }
            -
               depth: 4
               value: 1.
               norm_class_idx: 1
               splits:
                  - { var:0, quality:1.6105262756347656e+01,
                      le:-2.2452006340026855e+00 }
            -
               depth: 5
               value: 1.
               norm_class_idx: 1
            -
               depth: 5
               value: 1.
               norm_class_idx: 1
            -
               depth: 4
               value: 3.
               norm_class_idx: 3
               splits:
                  - { var:0, quality:7.8323498535156250e+02,
                      le:-1.4273982048034668e+00 }
            -
               depth: 5
               value: 3.
               norm_class_idx: 3
            -
               depth: 5
               value: 3.
               norm_class_idx: 3
            -
               depth: 2
               value: 3.
               norm_class_idx: 3
               splits:
                  - { var:0, quality:4.9675598144531250e+02,
                      le:-3.6292362213134766e-01 }
            -
               depth: 3
               value: 3.
               norm_class_idx: 3
               splits:
                  - { var:0, quality:4.1320288085937500e+02,
                      le:-3.9284139871597290e-01 }
            -
               depth: 4
               value: 3.
               norm_class_idx: 3
               splits:
                  - { var:0, quality:3.6825039672851562e+02,
                      le:-4.0735152363777161e-01 }
            -
               depth: 5
               value: 3.
               norm_class_idx: 3
            -
               depth: 5
               value: 3.
               norm_class_idx: 3
            -
               depth: 4
               value: 0.
               norm_class_idx: 0
               splits:
                  - { var:0, quality:5.1333332061767578e+01,
                      le:-3.8790494203567505e-01 }
            -
               depth: 5
               value: 0.
               norm_class_idx: 0
            -
               depth: 5
               value: 3.
               norm_class_idx: 3
            -
               depth: 3
               value: 0.
               norm_class_idx: 0
               splits:
                  - { var:0, quality:9.2926879882812500e+01,
                      le:-3.5963267087936401e-01 }
            -
               depth: 4
               value: 1.
               norm_class_idx: 1
               splits:
                  - { var:0, quality:9.2500000000000000e+00,
                      le:-3.6038058996200562e-01 }
            -
               depth: 5
               value: 1.
               norm_class_idx: 1
            -
               depth: 5
               value: 1.
               norm_class_idx: 1
            -
               depth: 4
               value: 0.
               norm_class_idx: 0
               splits:
                  - { var:0, quality:8.6330116271972656e+01,
                      le:-2.7242234349250793e-01 }
            -
               depth: 5
               value: 0.
               norm_class_idx: 0
            -
               depth: 5
               value: 1.
               norm_class_idx: 1
            -
               depth: 1
               value: 0.
               norm_class_idx: 0
               splits:
                  - { var:0, quality:3.2380625000000000e+03,
                      le:7.2696589631959796e-04 }
            -
               depth: 2
               value: 0.
               norm_class_idx: 0
               splits:
                  - { var:0, quality:4.1546643066406250e+02,
                      le:-2.5750268250703812e-02 }
            -
               depth: 3
               value: 0.
               norm_class_idx: 0
               splits:
                  - { var:0, quality:3.7785607910156250e+02,
                      le:-3.1434644013643265e-02 }
            -
               depth: 4
               value: 0.
               norm_class_idx: 0
               splits:
                  - { var:0, quality:3.6143801879882812e+02,
                      le:-2.6449412107467651e-01 }
            -
               depth: 5
               value: 0.
               norm_class_idx: 0
            -
               depth: 5
               value: 0.
               norm_class_idx: 0
            -
               depth: 4
               value: 0.
               norm_class_idx: 0
               splits:
                  - { var:0, quality:1.9153846740722656e+01,
                      le:-2.7246156707406044e-02 }
            -
               depth: 5
               value: 0.
               norm_class_idx: 0
            -
               depth: 5
               value: 0.
               norm_class_idx: 0
            -
               depth: 3
               value: 3.
               norm_class_idx: 3
               splits:
                  - { var:0, quality:4.3556438446044922e+01,
                      le:-1.5428634360432625e-02 }
            -
               depth: 4
               value: 3.
               norm_class_idx: 3
               splits:
                  - { var:0, quality:1.8460605621337891e+01,
                      le:-2.2758489474654198e-02 }
            -
               depth: 5
               value: 0.
               norm_class_idx: 0
            -
               depth: 5
               value: 3.
               norm_class_idx: 3
            -
               depth: 4
               value: 0.
               norm_class_idx: 0
               splits:
                  - { var:0, quality:2.9951219558715820e+01,
                      le:-8.0987783148884773e-03 }
            -
               depth: 5
               value: 0.
               norm_class_idx: 0
            -
               depth: 5
               value: 3.
               norm_class_idx: 3
            -
               depth: 2
               value: 0.
               norm_class_idx: 0
               splits:
                  - { var:0, quality:2.8385280761718750e+03,
                      le:1.7063393592834473e+00 }
            -
               depth: 3
               value: 0.
               norm_class_idx: 0
               splits:
                  - { var:0, quality:2.5777355957031250e+03,
                      le:7.5315904617309570e-01 }
            -
               depth: 4
               value: 0.
               norm_class_idx: 0
               splits:
                  - { var:0, quality:1.8486728515625000e+03,
                      le:6.0386931896209717e-01 }
            -
               depth: 5
               value: 0.
               norm_class_idx: 0
            -
               depth: 5
               value: 0.
               norm_class_idx: 0
            -
               depth: 4
               value: 0.
