%YAML:1.0
---
opencv_ml_svm:
   format: 3
   svmType: C_SVC
   kernel:
      type: RBF
      gamma: 2.0000000000000001e-01
   C: 1.
   term_criteria: { iterations:100 }
   var_count: 4
   class_count: 3
   class_labels: !!opencv-matrix
      rows: 3
      cols: 1
      dt: i
      data: [ 0, 1, 3 ]
   sv_total: 7
   support_vectors:
      - [ 5.58141232e-01, 7.18634069e-01, -4.47697222e-01,
          -9.91882607e-02 ]
      - [ 5.58141232e-01, -1.82479370e+00, 1.53360343e+00,
          -1.16870657e-01 ]
      - [ 5.58141232e-01, -1.99161127e-01, -6.33998513e-01,
          4.19041246e-01 ]
      - [ -2.27523112e+00, -1.08226275e+00, 1.49507567e-01,
          -1.28763485e+00 ]
      - [ 5.58141232e-01, 6.71583533e-01, 1.39588273e+00,
          -1.39543319e+00 ]
      - [ 5.58141232e-01, 7.59555578e-01, -1.19894028e+00,
          9.94830906e-01 ]
      - [ -5.15475094e-01, 9.56444502e-01, -7.98357666e-01,
          1.48525476e+00 ]
   decision_functions:
      -
         sv_count: 3
         rho: 7.7959958650171768e-01
         alpha: [ 1., -6.2688949245629233e-02, -9.3731105075437071e-01 ]
         index: [ 5, 1, 2 ]
      -
         sv_count: 3
         rho: 9.8321366310119629e-01
         alpha: [ 1., -4.7726670552110961e-01, -5.2273329447889039e-01 ]
         index: [ 5, 0, 6 ]
      -
         sv_count: 6
         rho: 6.8631886579833812e-01
         alpha: [ 1., 1., -9.1298840120027025e-01,
             -3.8236361029554339e-01, -3.3350662629042399e-01,
             -3.7114136221376265e-01 ]
         index: [ 1, 2, 0, 3, 4, 6 ]
