%YAML:1.0
---
opencv_ml_rtrees:
   format: 3
   is_classifier: 1
   var_all: 5
   var_count: 4
   ord_var_count: 4
   cat_var_count: 1
   training_params:
      use_surrogates: 0
      max_categories: 10
      regression_accuracy: 0.
      max_depth: 5
      min_sample_count: 10
      cross_validation_folds: 0
      nactive_vars: 0
   global_var_idx: 1
   var_idx: [ 0, 1, 2, 3 ]
   var_type: [ 0, 0, 0, 0, 1 ]
   cat_ofs: [ 0, 0, 0, 0, 0, 0, 0, 0 ]
   class_labels: [ 0, 1 ]
   missing_subst: [ 0., 0., 0., 0., 0. ]
   oob_error: 1.5291936978683968e-01
   ntrees: 50
   trees:
      -
         nodes:
            -
               depth: 0
               value: 0.
               norm_class_idx: 0
               splits:
                  - { var:2, quality:8.5336728515625000e+03,
                      le:-4.9895542860031128e-01 }
            -
               depth: 1
               value: 0.
               norm_class_idx: 0
               splits:
                  - { var:1, quality:3.8772504882812500e+03,
                      le:1.4361836016178131e-01 }
            -
               depth: 2
               value: 0.
               norm_class_idx: 0
               splits:
                  - { var:0, quality:3.2387149047851562e+02,
                      le:-7.0290422439575195e+00 }
            -
               depth: 3
               value: 1.
               norm_class_idx: 1
            -
               depth: 3
               value: 0.
               norm_class_idx: 0
               splits:
                  - { var:2, quality:3.1928735351562500e+02,
                      le:-5.8364313840866089e-01 }
            -
               depth: 4
               value: 0.
               norm_class_idx: 0
               splits:
                  - { var:3, quality:2.3801658630371094e+02,
                      le:1.7830879688262939e+00 }
            -
               depth: 5
               value: 0.
               norm_class_idx: 0
            -
               depth: 5
               value: 1.
               norm_class_idx: 1
            -
               depth: 4
               value: 0.
               norm_class_idx: 0
               splits:
                  - { var:3, quality:1.2334247589111328e+02,
                      le:1.4677987098693848e+00 }
            -
               depth: 5
               value: 0.
               norm_class_idx: 0
            -
               depth: 5
               value: 1.
               norm_class_idx: 1
            -
               depth: 2
               value: 0.
               norm_class_idx: 0
               splits:
                  - { var:3, quality:3.6051862792968750e+03,
                      le:-6.1024850606918335e-01 }
            -
               depth: 3
               value: 0.
               norm_class_idx: 0
               splits:
                  - { var:3, quality:7.3619049072265625e+01,
                      le:-1.1284902095794678e+00 }
            -
               depth: 4
               value: 1.
               norm_class_idx: 1
               splits:
                  - { var:2, quality:3.3500000000000000e+01,
                      le:-5.4852330684661865e-01 }
            -
               depth: 5
               value: 1.
               norm_class_idx: 1
            -
               depth: 5
               value: 0.
               norm_class_idx: 0
            -
               depth: 4
               value: 0.
               norm_class_idx: 0
               splits:
                  - { var:2, quality:4.7125000000000000e+01,
                      le:-5.3896313905715942e-01 }
            -
               depth: 5
               value: 0.
               norm_class_idx: 0
            -
               depth: 5
               value: 0.
               norm_class_idx: 0
            -
               depth: 3
               value: 0.
               norm_class_idx: 0
               splits:
                  - { var:3, quality:3.5832038574218750e+03,
                      le:2.3700635433197021e+00 }
            -
               depth: 4
               value: 0.
               norm_class_idx: 0
               splits:
                  - { var:3, quality:3.5604978027343750e+03,
                      le:1.7462260723114014e+00 }
            -
               depth: 5
               value: 0.
               norm_class_idx: 0
            -
               depth: 5
               value: 0.
               norm_class_idx: 0
            -
               depth: 4
               value: 1.
               norm_class_idx: 1
               splits:
                  - { var:2, quality:3.5927536010742188e+01,
                      le:-1.2705259323120117e+00 }
            -
               depth: 5
               value: 0.
               norm_class_idx: 0
            -
               depth: 5
               value: 1.
               norm_class_idx: 1
            -
               depth: 1
               value: 0.
               norm_class_idx: 0
               splits:
                  - { var:3, quality:4.7541093750000000e+03,
                      le:-1.8104627132415771e+00 }
            -
               depth: 2
               value: 0.
               norm_class_idx: 0
               splits:
                  - { var:3, quality:2.5224037170410156e+02,
                      le:-2.8445513248443604e+00 }
            -
               depth: 3
               value: 1.
               norm_class_idx: 1
               splits:
                  - { var:0, quality:5.1040817260742188e+01,
                      le:2.2984826564788818e-01 }
            -
               depth: 4
               value: 1.
               norm_class_idx: 1
               splits:
                  - { var:0, quality:4.7200000762939453e+01,
                      le:-1.5470008552074432e-01 }
            -
               depth: 5
               value: 1.
               norm_class_idx: 1
            -
               depth: 5
               value: 1.
               norm_class_idx: 1
            -
               depth: 4
               value: 0.
               norm_class_idx: 0
            -
               depth: 3
               value: 0.
               norm_class_idx: 0
               splits:
                  - { var:0, quality:2.2282490539550781e+02,
                      le:-2.2121790051460266e-01 }
            -
               depth: 4
               value: 1.
               norm_class_idx: 1
               splits:
                  - { var:1, quality:1.1096556854248047e+02,
                      le:-1.7595195770263672e+00 }
            -
               depth: 5
               value: 0.
               norm_class_idx: 0
            -
               depth: 5
               value: 1.
               norm_class_idx: 1
            -
               depth: 4
               value: 0.
               norm_class_idx: 0
               splits:
                  - { var:3, quality:1.3145936584472656e+02,
                      le:-1.8578820228576660e+00 }
            -
               depth: 5
               value: 0.
               norm_class_idx: 0
            -
               depth: 5
               value: 1.
               norm_class_idx: 1
            -
               depth: 2
               value: 0.
               norm_class_idx: 0
               splits:
                  - { var:3, quality:4.5781376953125000e+03,
                      le:1.1396324634552002e+00 }
            -
               depth: 3
               value: 0.
               norm_class_idx: 0
               splits:
                  - { var:3, quality:4.4996938476562500e+03,
                      le:-1.1188060045242310e+00 }
            -
               depth: 4
               value: 0.
               norm_class_idx: 0
               splits:
                  - { var:2, quality:6.8684271240234375e+02,
                      le:-1.0442881286144257e-01 }
            -
               depth: 5
               value: 1.
               norm_class_idx: 1
            -
               depth: 5
               value: 0.
               norm_class_idx: 0
            -
               depth: 4
               value: 0.
               norm_class_idx: 0
               splits:
                  - { var:3, quality:3.8519294433593750e+03,
                      le:6.9177222251892090e-01 }
            -
               depth: 5
               value: 0.
               norm_class_idx: 0
            -
               depth: 5
               value: 0.
               norm_class_idx: 0
            -
               depth: 3
               value: 1.
               norm_class_idx: 1
               splits:
                  - { var:3, quality:1.0466812896728516e+02,
                      le:1.7607097625732422e+00 }
            -
               depth: 4
               value: 1.
               norm_class_idx: 1
               splits:
                  - { var:0, quality:7.4378784179687500e+01,
                      le:-5.1376527547836304e-01 }
            -
               depth: 5
               value: 0.
               norm_class_idx: 0
            -
               depth: 5
               value: 1.
               norm_class_idx: 1
            -
               depth: 4
               value: 1.
               norm_class_idx: 1
               splits:
                  - { var:1, quality:4.3086956024169922e+01,
                      le:1.5751073360443115e+00 }
            -
               depth: 5
               value: 1.
               norm_class_idx: 1
            -
               depth: 5
               value: 0.
               norm_class_idx: 0
      -
         nodes:
            -
               depth: 0
               value: 0.
               norm_class_idx: 0
               splits:
                  - { var:3, quality:8.6389365234375000e+03,
                      le:-1.1262025833129883e+00 }
            -
               depth: 1
               value: 0.
               norm_class_idx: 0
               splits:
                  - { var:3, quality:9.6432336425781250e+02,
                      le:-2.7798168659210205e+00 }
            -
               depth: 2
               value: 1.
               norm_class_idx: 1
               splits:
                  - { var:3, quality:5.6161289215087891e+01,
                      le:-3.4229903221130371e+00 }
            -
               depth: 3
               value: 1.
               norm_class_idx: 1
            -
               depth: 3
               value: 1.
               norm_class_idx: 1
               splits:
                  - { var:2, quality:2.6799999237060547e+01,
                      le:2.1234002113342285e+00 }
            -
               depth: 4
               value: 1.
               norm_class_idx: 1
            -
               depth: 4
               value: 0.
               norm_class_idx: 0
            -
               depth: 2
               value: 0.
               norm_class_idx: 0
               splits:
                  - { var:2, quality:9.4931634521484375e+02,
                      le:-1.3388589024543762e-01 }
            -
               depth: 3
               value: 1.
               norm_class_idx: 1
               splits:
                  - { var:0, quality:1.2418158721923828e+02,
                      le:-1.2882428169250488e+00 }
            -
               depth: 4
               value: 1.
               norm_class_idx: 1
               splits:
                  - { var:3, quality:4.5626880645751953e+01,
                      le:-1.3880597352981567e+00 }
            -
               depth: 5
               value: 1.
               norm_class_idx: 1
            -
               depth: 5
               value: 1.
               norm_class_idx: 1
            -
               depth: 4
               value: 1.
               norm_class_idx: 1
               splits:
                  - { var:1, quality:8.2050636291503906e+01,
                      le:-3.4872788190841675e-01 }
            -
               depth: 5
               value: 1.
               norm_class_idx: 1
            -
               depth: 5
               value: 1.
               norm_class_idx: 1
            -
               depth: 3
               value: 0.
               norm_class_idx: 0
               splits:
                  - { var:0, quality:8.5563458251953125e+02,
                      le:-8.5615003108978271e-01 }
            -
               depth: 4
               value: 0.
               norm_class_idx: 0
               splits:
                  - { var:1, quality:1.8793280029296875e+02,
                      le:-1.0869739055633545e+00 }
            -
               depth: 5
               value: 0.
               norm_class_idx: 0
            -
               depth: 5
               value: 1.
               norm_class_idx: 1
            -
               depth: 4
               value: 0.
               norm_class_idx: 0
               splits:
                  - { var:2, quality:6.8429614257812500e+02,
                      le:3.7375898361206055e+00 }
            -
               depth: 5
               value: 0.
               norm_class_idx: 0
            -
               depth: 5
               value: 0.
               norm_class_idx: 0
            -
               depth: 1
               value: 0.
               norm_class_idx: 0
               splits:
                  - { var:3, quality:7.8163891601562500e+03,
                      le:1.7691926956176758e+00 }
            -
               depth: 2
               value: 0.
               norm_class_idx: 0
               splits:
                  - { var:1, quality:7.7328012695312500e+03,
                      le:1.9197183847427368e-01 }
            -
               depth: 3
               value: 0.
               norm_class_idx: 0
               splits:
                  - { var:0, quality:3.3744594726562500e+03,
                      le:2.4941280484199524e-01 }
            -
               depth: 4
               value: 0.
               norm_class_idx: 0
               splits:
                  - { var:2, quality:1.1641330566406250e+03,
                      le:-3.8248813152313232e-01 }
            -
               depth: 5
               value: 0.
               norm_class_idx: 0
            -
               depth: 5
               value: 0.
               norm_class_idx: 0
            -
               depth: 4
               value: 0.
               norm_class_idx: 0
               splits:
                  - { var:1, quality:2.2398415527343750e+03,
                      le:-6.0816423501819372e-04 }
            -
               depth: 5
               value: 0.
               norm_class_idx: 0
            -
               depth: 5
               value: 0.
               norm_class_idx: 0
            -
               depth: 3
               value: 0.
               norm_class_idx: 0
               splits:
                  - { var:0, quality:4.4509116210937500e+03,
                      le:-7.1107119321823120e-01 }
            -
               depth: 4
               value: 1.
               norm_class_idx: 1
               splits:
                  - { var:3, quality:8.8740737915039062e+01,
                      le:-1.2942236661911011e-01 }
            -
               depth: 5
               value: 1.
               norm_class_idx: 1
            -
               depth: 5
               value: 0.
               norm_class_idx: 0
            -
               depth: 4
               value: 0.
               norm_class_idx: 0
               splits:
                  - { var:3, quality:4.3792646484375000e+03,
                      le:-5.2159648388624191e-02 }
            -
               depth: 5
               value: 0.
               norm_class_idx: 0
            -
               depth: 5
               value: 0.
               norm_class_idx: 0
            -
               depth: 2
               value: 1.
               norm_class_idx: 1
               splits:
                  - { var:2, quality:1.8134167480468750e+02,
                      le:-7.1510303020477295e-01 }
            -
               depth: 3
               value: 0.
               norm_class_idx: 0
               splits:
                  - { var:1, quality:1.3278440856933594e+02,
                      le:1.7082157135009766e+00 }
            -
               depth: 4
               value: 0.
               norm_class_idx: 0
               splits:
                  - { var:3, quality:1.2206613922119141e+02,
                      le:2.1617145538330078e+00 }
            -
               depth: 5
               value: 0.
               norm_class_idx: 0
            -
               depth: 5
               value: 1.
               norm_class_idx: 1
            -
               depth: 4
               value: 0.
               norm_class_idx: 0
               splits:
                  - { var:2, quality:3.2888889312744141e+01,
                      le:-9.1052067279815674e-01 }
            -
               depth: 5
               value: 0.
               norm_class_idx: 0
            -
               depth: 5
               value: 0.
               norm_class_idx: 0
            -
               depth: 3
               value: 1.
               norm_class_idx: 1
               splits:
                  - { var:0, quality:6.3955554962158203e+01,
                      le:3.3446514606475830e-01 }
            -
               depth: 4
               value: 0.
               norm_class_idx: 0
            -
               depth: 4
               value: 1.
               norm_class_idx: 1
               splits:
                  - { var:1, quality:6.5076919555664062e+01,
                      le:1.5370571613311768e+00 }
            -
               depth: 5
               value: 1.
               norm_class_idx: 1
            -
               depth: 5
               value: 0.
               norm_class_idx: 0
      -
         nodes:
            -
               depth: 0
               value: 0.
               norm_class_idx: 0
               splits:
                  - { var:2, quality:8.4985224609375000e+03,
                      le:-4.0660333633422852e-01 }
            -
               depth: 1
               value: 0.
               norm_class_idx: 0
               splits:
                  - { var:0, quality:4.2137470703125000e+03,
                      le:-3.4930729866027832e-01 }
            -
               depth: 2
               value: 0.
               norm_class_idx: 0
               splits:
                  - { var:1, quality:1.3837544250488281e+02,
                      le:4.7869212925434113e-02 }
            -
               depth: 3
               value: 0.
               norm_class_idx: 0
               splits:
                  - { var:3, quality:4.4444442749023438e+01,
                      le:-4.8999398946762085e-01 }
            -
               depth: 4
               value: 0.
               norm_class_idx: 0
            -
               depth: 4
               value: 0.
               norm_class_idx: 0
               splits:
                  - { var:2, quality:3.1336032867431641e+01,
                      le:-4.8518779873847961e-01 }
            -
               depth: 5
               value: 0.
               norm_class_idx: 0
            -
               depth: 5
               value: 0.
               norm_class_idx: 0
            -
               depth: 3
               value: 0.
               norm_class_idx: 0
               splits:
                  - { var:1, quality:9.9043952941894531e+01,
                      le:1.9147452116012573e+00 }
            -
               depth: 4
               value: 1.
               norm_class_idx: 1
               splits:
                  - { var:0, quality:1.0687013244628906e+02,
                      le:-4.7099828720092773e+00 }
            -
               depth: 5
               value: 1.
               norm_class_idx: 1
            -
               depth: 5
               value: 0.
               norm_class_idx: 0
            -
               depth: 4
               value: 0.
               norm_class_idx: 0
            -
               depth: 2
               value: 0.
               norm_class_idx: 0
               splits:
                  - { var:1, quality:4.1116997070312500e+03,
                      le:1.8311735987663269e-01 }
            -
               depth: 3
               value: 0.
               norm_class_idx: 0
               splits:
                  - { var:2, quality:5.1295758056640625e+02,
                      le:-5.8990252017974854e-01 }
            -
               depth: 4
               value: 0.
               norm_class_idx: 0
               splits:
                  - { var:3, quality:2.1908843994140625e+02,
                      le:1.7539314031600952e+00 }
            -
               depth: 5
               value: 0.
               norm_class_idx: 0
            -
               depth: 5
               value: 1.
               norm_class_idx: 1
            -
               depth: 4
               value: 0.
               norm_class_idx: 0
               splits:
                  - { var:1, quality:3.2350350952148438e+02,
                      le:1.8088988959789276e-01 }
            -
               depth: 5
               value: 0.
               norm_class_idx: 0
            -
               depth: 5
               value: 1.
               norm_class_idx: 1
            -
               depth: 3
               value: 0.
               norm_class_idx: 0
               splits:
                  - { var:3, quality:3.6522326660156250e+03,
                      le:2.1303577423095703e+00 }
            -
               depth: 4
               value: 0.
               norm_class_idx: 0
               splits:
                  - { var:3, quality:3.6322724609375000e+03,
                      le:-1.1375067234039307e+00 }
            -
               depth: 5
               value: 1.
               norm_class_idx: 1
            -
               depth: 5
               value: 0.
               norm_class_idx: 0
            -
               depth: 4
               value: 1.
               norm_class_idx: 1
               splits:
                  - { var:1, quality:6.5466827392578125e+01,
                      le:1.2299684286117554e+00 }
            -
               depth: 5
               value: 1.
               norm_class_idx: 1
            -
               depth: 5
               value: 0.
               norm_class_idx: 0
            -
               depth: 1
               value: 0.
               norm_class_idx: 0
               splits:
                  - { var:0, quality:4.3593603515625000e+03,
                      le:-3.1307651996612549e+00 }
            -
               depth: 2
               value: 0.
               norm_class_idx: 0
               splits:
                  - { var:3, quality:1.4726771545410156e+02,
                      le:-1.7718276977539062e+00 }
            -
               depth: 3
               value: 1.
               norm_class_idx: 1
               splits:
                  - { var:1, quality:5.9509803771972656e+01,
                      le:-2.4382570385932922e-01 }
            -
               depth: 4
               value: 1.
               norm_class_idx: 1
               splits:
                  - { var:2, quality:3.8303642272949219e+01,
                      le:4.3033474683761597e-01 }
            -
               depth: 5
               value: 1.
               norm_class_idx: 1
            -
               depth: 5
               value: 1.
               norm_class_idx: 1
            -
               depth: 4
               value: 1.
               norm_class_idx: 1
            -
               depth: 3
               value: 0.
               norm_class_idx: 0
               splits:
                  - { var:1, quality:1.0023789978027344e+02,
                      le:-1.7910864949226379e-01 }
            -
               depth: 4
               value: 0.
               norm_class_idx: 0
               splits:
                  - { var:0, quality:9.2231636047363281e+01,
                      le:-7.2882142066955566e+00 }
            -
               depth: 5
               value: 1.
               norm_class_idx: 1
            -
               depth: 5
               value: 0.
               norm_class_idx: 0
            -
               depth: 4
               value: 1.
               norm_class_idx: 1
               splits:
                  - { var:0, quality:1.4500000000000000e+01,
                      le:-5.8652467727661133e+00 }
            -
               depth: 5
               value: 0.
               norm_class_idx: 0
            -
               depth: 5
               value: 1.
               norm_class_idx: 1
            -
               depth: 2
               value: 0.
               norm_class_idx: 0
               splits:
                  - { var:1, quality:4.2578002929687500e+03,
                      le:-1.3985913991928101e+00 }
            -
               depth: 3
               value: 0.
               norm_class_idx: 0
               splits:
                  - { var:0, quality:6.8039398193359375e+02,
                      le:2.3367175459861755e-01 }
            -
               depth: 4
               value: 0.
               norm_class_idx: 0
               splits:
                  - { var:3, quality:3.6314218139648438e+02,
                      le:-3.7150781154632568e+00 }
            -
               depth: 5
               value: 1.
               norm_class_idx: 1
            -
               depth: 5
               value: 0.
               norm_class_idx: 0
            -
               depth: 4
               value: 0.
               norm_class_idx: 0
               splits:
                  - { var:2, quality:3.3385952758789062e+02,
                      le:3.0391049385070801e+00 }
            -
               depth: 5
               value: 0.
               norm_class_idx: 0
            -
               depth: 5
               value: 0.
               norm_class_idx: 0
            -
               depth: 3
               value: 0.
               norm_class_idx: 0
               splits:
                  - { var:2, quality:3.6153901367187500e+03,
                      le:1.1885340213775635e+00 }
            -
               depth: 4
               value: 0.
               norm_class_idx: 0
               splits:
                  - { var:3, quality:3.4719079589843750e+03,
                      le:9.1853898763656616e-01 }
            -
               depth: 5
               value: 0.
               norm_class_idx: 0
            -
               depth: 5
               value: 1.
               norm_class_idx: 1
            -
               depth: 4
               value: 0.
               norm_class_idx: 0
               splits:
                  - { var:1, quality:1.9744197082519531e+02,
                      le:-9.5059359073638916e-01 }
            -
               depth: 5
               value: 0.
               norm_class_idx: 0
            -
               depth: 5
               value: 1.
               norm_class_idx: 1
      -
         nodes:
            -
               depth: 0
               value: 0.
               norm_class_idx: 0
               splits:
                  - { var:2, quality:8.6188320312500000e+03,
                      le:-4.8704141378402710e-01 }
            -
               depth: 1
               value: 0.
               norm_class_idx: 0
               splits:
                  - { var:0, quality:3.8538776855468750e+03,
                      le:-6.1479145288467407e-01 }
            -
               depth: 2
               value: 0.
               norm_class_idx: 0
               splits:
                  - { var:0, quality:7.5015876770019531e+01,
                      le:-5.0820617675781250e+00 }
            -
               depth: 3
               value: 1.
               norm_class_idx: 1
            -
               depth: 3
               value: 0.
               norm_class_idx: 0
               splits:
                  - { var:2, quality:6.7300849914550781e+01,
                      le:-5.1668411493301392e-01 }
            -
               depth: 4
               value: 0.
               norm_class_idx: 0
               splits:
                  - { var:1, quality:6.4524826049804688e+01,
                      le:1.2264325618743896e+00 }
            -
               depth: 5
               value: 0.
               norm_class_idx: 0
            -
               depth: 5
               value: 0.
               norm_class_idx: 0
            -
               depth: 4
               value: 1.
               norm_class_idx: 1
            -
               depth: 2
               value: 0.
               norm_class_idx: 0
               splits:
                  - { var:2, quality:3.8004841308593750e+03,
                      le:-1.0123152732849121e+00 }
            -
               depth: 3
               value: 0.
               norm_class_idx: 0
               splits:
                  - { var:2, quality:1.4638871765136719e+02,
                      le:-1.0304148197174072e+00 }
            -
               depth: 4
               value: 0.
               norm_class_idx: 0
               splits:
                  - { var:3, quality:1.4901426696777344e+02,
                      le:2.5884540081024170e+00 }
            -
               depth: 5
               value: 0.
               norm_class_idx: 0
            -
               depth: 5
               value: 1.
               norm_class_idx: 1
            -
               depth: 4
               value: 1.
               norm_class_idx: 1
               splits:
                  - { var:3, quality:2.5272727966308594e+01,
                      le:1.9099984169006348e+00 }
            -
               depth: 5
               value: 0.
               norm_class_idx: 0
            -
               depth: 5
               value: 1.
               norm_class_idx: 1
            -
               depth: 3
               value: 0.
               norm_class_idx: 0
               splits:
                  - { var:3, quality:3.7209821777343750e+03,
                      le:1.7663543224334717e+00 }
            -
               depth: 4
               value: 0.
               norm_class_idx: 0
               splits:
                  - { var:0, quality:3.6527128906250000e+03,
                      le:3.4618902206420898e-01 }
            -
               depth: 5
               value: 0.
               norm_class_idx: 0
            -
               depth: 5
               value: 0.
               norm_class_idx: 0
            -
               depth: 4
               value: 1.
               norm_class_idx: 1
               splits:
                  - { var:1, quality:8.2001739501953125e+01,
                      le:1.6131753921508789e+00 }
            -
               depth: 5
               value: 1.
               norm_class_idx: 1
            -
               depth: 5
               value: 0.
               norm_class_idx: 0
            -
               depth: 1
               value: 0.
               norm_class_idx: 0
               splits:
                  - { var:3, quality:4.8742705078125000e+03,
                      le:-2.0628271102905273e+00 }
            -
               depth: 2
               value: 1.
               norm_class_idx: 1
               splits:
                  - { var:0, quality:1.4768255615234375e+02,
                      le:1.4797875285148621e-01 }
            -
               depth: 3
               value: 1.
               norm_class_idx: 1
               splits:
                  - { var:1, quality:1.1358759307861328e+02,
                      le:-1.6720523834228516e+00 }
            -
               depth: 4
               value: 0.
               norm_class_idx: 0
               splits:
                  - { var:3, quality:2.2399999618530273e+01,
                      le:-3.4243080615997314e+00 }
            -
               depth: 5
               value: 1.
               norm_class_idx: 1
            -
               depth: 5
               value: 0.
               norm_class_idx: 0
            -
               depth: 4
               value: 1.
               norm_class_idx: 1
               splits:
                  - { var:3, quality:1.0368641662597656e+02,
                      le:-2.5366849899291992e+00 }
            -
               depth: 5
               value: 1.
               norm_class_idx: 1
            -
               depth: 5
               value: 1.
               norm_class_idx: 1
            -
               depth: 3
               value: 0.
               norm_class_idx: 0
               splits:
                  - { var:2, quality:4.5529411315917969e+01,
                      le:-4.7798031568527222e-01 }
            -
               depth: 4
               value: 1.
               norm_class_idx: 1
            -
               depth: 4
               value: 0.
               norm_class_idx: 0
               splits:
                  - { var:1, quality:4.5474998474121094e+01,
                      le:2.6933732628822327e-01 }
            -
               depth: 5
               value: 0.
               norm_class_idx: 0
            -
               depth: 5
               value: 0.
               norm_class_idx: 0
            -
               depth: 2
               value: 0.
               norm_class_idx: 0
               splits:
                  - { var:0, quality:4.7617836914062500e+03,
                      le:-2.6367855072021484e+00 }
            -
               depth: 3
               value: 0.
               norm_class_idx: 0
               splits:
                  - { var:3, quality:1.5933801269531250e+02,
                      le:-1.1297423839569092e+00 }
            -
               depth: 4
               value: 1.
               norm_class_idx: 1
               splits:
                  - { var:2, quality:6.0043727874755859e+01,
                      le:2.0604798793792725e+00 }
            -
               depth: 5
               value: 1.
               norm_class_idx: 1
            -
               depth: 5
               value: 0.
               norm_class_idx: 0
            -
               depth: 4
               value: 0.
               norm_class_idx: 0
               splits:
                  - { var:1, quality:1.1728450775146484e+02,
                      le:-6.8886190652847290e-02 }
            -
               depth: 5
               value: 0.
               norm_class_idx: 0
            -
               depth: 5
               value: 1.
               norm_class_idx: 1
            -
               depth: 3
               value: 0.
               norm_class_idx: 0
               splits:
                  - { var:0, quality:4.6390004882812500e+03,
                      le:2.4499601125717163e-01 }
            -
               depth: 4
               value: 0.
               norm_class_idx: 0
               splits:
                  - { var:0, quality:1.5555903320312500e+03,
                      le:-1.3414257764816284e-01 }
            -
               depth: 5
               value: 0.
               norm_class_idx: 0
            -
               depth: 5
               value: 0.
               norm_class_idx: 0
            -
               depth: 4
               value: 0.
               norm_class_idx: 0
               splits:
                  - { var:3, quality:3.1476164550781250e+03,
                      le:1.0833648443222046e+00 }
            -
               depth: 5
               value: 0.
               norm_class_idx: 0
            -
               depth: 5
               value: 1.
               norm_class_idx: 1
      -
         nodes:
            -
               depth: 0
               value: 0.
               norm_class_idx: 0
               splits:
                  - { var:2, quality:8.5303720703125000e+03,
                      le:-5.2901303768157959e-01 }
            -
               depth: 1
               value: 0.
               norm_class_idx: 0
               splits:
                  - { var:3, quality:3.7438139648437500e+03,
                      le:1.7663543224334717e+00 }
            -
               depth: 2
               value: 0.
               norm_class_idx: 0
               splits:
                  - { var:3, quality:3.6696413574218750e+03,
                      le:-4.6844133734703064e-01 }
            -
               depth: 3
               value: 0.
               norm_class_idx: 0
               splits:
                  - { var:3, quality:8.8834945678710938e+01,
                      le:-6.6696488857269287e-01 }
            -
               depth: 4
               value: 1.
               norm_class_idx: 1
               splits:
                  - { var:2, quality:5.9890777587890625e+01,
                      le:-5.3896313905715942e-01 }
            -
               depth: 5
               value: 1.
               norm_class_idx: 1
            -
               depth: 5
               value: 0.
               norm_class_idx: 0
            -
               depth: 4
               value: 0.
               norm_class_idx: 0
               splits:
                  - { var:0, quality:3.7788887023925781e+01,
                      le:1.8823677301406860e-01 }
            -
               depth: 5
               value: 1.
               norm_class_idx: 1
            -
               depth: 5
               value: 0.
               norm_class_idx: 0
            -
               depth: 3
               value: 0.
               norm_class_idx: 0
               splits:
                  - { var:1, quality:3.5913037109375000e+03,
                      le:6.8748998641967773e-01 }
            -
               depth: 4
               value: 0.
               norm_class_idx: 0
               splits:
                  - { var:0, quality:1.3550417480468750e+03,
                      le:-2.6185970306396484e+00 }
            -
               depth: 5
               value: 1.
               norm_class_idx: 1
            -
               depth: 5
               value: 0.
               norm_class_idx: 0
            -
               depth: 4
               value: 0.
               norm_class_idx: 0
               splits:
                  - { var:0, quality:2.2585803222656250e+03,
                      le:-4.3661212921142578e+00 }
            -
               depth: 5
               value: 1.
               norm_class_idx: 1
            -
               depth: 5
               value: 0.
               norm_class_idx: 0
            -
               depth: 2
               value: 1.
               norm_class_idx: 1
               splits:
                  - { var:2, quality:1.4553491210937500e+02,
                      le:-8.9641398191452026e-01 }
            -
               depth: 3
               value: 0.
               norm_class_idx: 0
               splits:
                  - { var:2, quality:8.7885353088378906e+01,
                      le:-9.2680108547210693e-01 }
            -
               depth: 4
               value: 0.
               norm_class_idx: 0
               splits:
                  - { var:3, quality:9.5050544738769531e+01,
                      le:2.1965656280517578e+00 }
            -
               depth: 5
               value: 0.
               norm_class_idx: 0
            -
               depth: 5
               value: 1.
               norm_class_idx: 1
            -
               depth: 4
               value: 0.
               norm_class_idx: 0
            -
               depth: 3
               value: 1.
               norm_class_idx: 1
               splits:
                  - { var:1, quality:7.1510635375976562e+01,
                      le:2.4451880455017090e+00 }
            -
               depth: 4
               value: 1.
               norm_class_idx: 1
               splits:
                  - { var:2, quality:6.5160087585449219e+01,
                      le:-7.1823585033416748e-01 }
            -
               depth: 5
               value: 1.
               norm_class_idx: 1
            -
               depth: 5
               value: 1.
               norm_class_idx: 1
            -
               depth: 4
               value: 0.
               norm_class_idx: 0
            -
               depth: 1
               value: 0.
               norm_class_idx: 0
               splits:
                  - { var:1, quality:4.9153696289062500e+03,
                      le:1.3468873500823975e+00 }
            -
               depth: 2
               value: 0.
               norm_class_idx: 0
               splits:
                  - { var:3, quality:4.9109638671875000e+03,
                      le:-1.6534515619277954e+00 }
            -
               depth: 3
               value: 0.
               norm_class_idx: 0
               splits:
                  - { var:2, quality:3.2346771240234375e+02,
                      le:3.3736002445220947e-01 }
            -
               depth: 4
               value: 1.
               norm_class_idx: 1
               splits:
                  - { var:3, quality:8.6162040710449219e+01,
                      le:-2.2867860794067383e+00 }
            -
               depth: 5
               value: 1.
               norm_class_idx: 1
            -
               depth: 5
               value: 1.
               norm_class_idx: 1
            -
               depth: 4
               value: 0.
               norm_class_idx: 0
               splits:
                  - { var:1, quality:2.4912419128417969e+02,
                      le:-2.1938052177429199e+00 }
            -
               depth: 5
               value: 0.
               norm_class_idx: 0
            -
               depth: 5
               value: 0.
               norm_class_idx: 0
            -
               depth: 3
               value: 0.
               norm_class_idx: 0
               splits:
                  - { var:1, quality:4.6133159179687500e+03,
                      le:2.6403880119323730e-01 }
            -
               depth: 4
               value: 0.
               norm_class_idx: 0
               splits:
                  - { var:3, quality:3.7233903808593750e+03,
                      le:1.2000668048858643e+00 }
            -
               depth: 5
               value: 0.
               norm_class_idx: 0
            -
               depth: 5
               value: 1.
               norm_class_idx: 1
            -
               depth: 4
               value: 0.
               norm_class_idx: 0
               splits:
                  - { var:0, quality:9.7433502197265625e+02,
                      le:-1.0710036754608154e+00 }
            -
               depth: 5
               value: 1.
               norm_class_idx: 1
            -
               depth: 5
               value: 0.
               norm_class_idx: 0
            -
               depth: 2
               value: 0.
               norm_class_idx: 0
               splits:
                  - { var:3, quality:9.4504066467285156e+01,
                      le:2.7808225154876709e-01 }
            -
               depth: 3
               value: 0.
               norm_class_idx: 0
               splits:
                  - { var:1, quality:6.4871147155761719e+01,
                      le:2.5500130653381348e+00 }
            -
               depth: 4
               value: 1.
               norm_class_idx: 1
               splits:
                  - { var:3, quality:5.8173912048339844e+01,
                      le:-1.9559476375579834e+00 }
            -
               depth: 5
               value: 0.
               norm_class_idx: 0
            -
               depth: 5
               value: 1.
               norm_class_idx: 1
            -
               depth: 4
               value: 0.
               norm_class_idx: 0
               splits:
                  - { var:1, quality:1.7444444656372070e+01,
                      le:5.2153968811035156e+00 }
            -
               depth: 5
               value: 0.
               norm_class_idx: 0
            -
               depth: 5
               value: 1.
               norm_class_idx: 1
            -
               depth: 3
               value: 0.
               norm_class_idx: 0
      -
         nodes:
            -
               depth: 0
               value: 0.
               norm_class_idx: 0
               splits:
                  - { var:2, quality:8.5789326171875000e+03,
                      le:-4.8581761121749878e-01 }
            -
               depth: 1
               value: 0.
               norm_class_idx: 0
               splits:
                  - { var:1, quality:3.8376435546875000e+03,
                      le:1.4361836016178131e-01 }
            -
               depth: 2
               value: 0.
               norm_class_idx: 0
               splits:
                  - { var:3, quality:3.9732031250000000e+02,
                      le:1.7539314031600952e+00 }
            -
               depth: 3
               value: 0.
               norm_class_idx: 0
               splits:
                  - { var:3, quality:3.4701443481445312e+02,
                      le:-6.2401378154754639e-01 }
            -
               depth: 4
               value: 1.
               norm_class_idx: 1
               splits:
                  - { var:2, quality:1.1500000000000000e+01,
                      le:-6.5031898021697998e-01 }
            -
               depth: 5
               value: 0.
               norm_class_idx: 0
            -
               depth: 5
               value: 1.
               norm_class_idx: 1
            -
               depth: 4
               value: 0.
               norm_class_idx: 0
               splits:
                  - { var:1, quality:3.4226699829101562e+02,
                      le:1.4000146090984344e-01 }
            -
               depth: 5
               value: 0.
               norm_class_idx: 0
            -
               depth: 5
               value: 1.
               norm_class_idx: 1
            -
               depth: 3
               value: 1.
               norm_class_idx: 1
               splits:
                  - { var:1, quality:6.7360466003417969e+01,
                      le:-2.5807380676269531e-01 }
            -
               depth: 4
               value: 0.
               norm_class_idx: 0
               splits:
                  - { var:3, quality:28., le:2.4647145271301270e+00 }
            -
               depth: 5
               value: 0.
               norm_class_idx: 0
            -
               depth: 5
               value: 1.
               norm_class_idx: 1
            -
               depth: 4
               value: 1.
               norm_class_idx: 1
               splits:
                  - { var:1, quality:4.6030769348144531e+01,
                      le:1.2931960821151733e-01 }
            -
               depth: 5
               value: 1.
               norm_class_idx: 1
            -
               depth: 5
               value: 0.
               norm_class_idx: 0
            -
               depth: 2
               value: 0.
               norm_class_idx: 0
               splits:
                  - { var:3, quality:3.5266457519531250e+03,
                      le:2.3832545280456543e+00 }
            -
               depth: 3
               value: 0.
               norm_class_idx: 0
               splits:
                  - { var:3, quality:3.5433774414062500e+03,
                      le:-4.4582006335258484e-01 }
            -
               depth: 4
               value: 0.
               norm_class_idx: 0
               splits:
                  - { var:0, quality:9.5976745605468750e+01,
                      le:-5.6769332885742188e+00 }
            -
               depth: 5
               value: 1.
               norm_class_idx: 1
            -
               depth: 5
               value: 0.
               norm_class_idx: 0
            -
               depth: 4
               value: 0.
               norm_class_idx: 0
               splits:
                  - { var:3, quality:3.4644775390625000e+03,
                      le:1.7643325328826904e+00 }
            -
               depth: 5
               value: 0.
               norm_class_idx: 0
            -
               depth: 5
               value: 0.
               norm_class_idx: 0
            -
               depth: 3
               value: 1.
               norm_class_idx: 1
               splits:
                  - { var:2, quality:3.9620319366455078e+01,
                      le:-1.1755728721618652e+00 }
            -
               depth: 4
               value: 0.
               norm_class_idx: 0
               splits:
                  - { var:3, quality:1.8571428298950195e+01,
                      le:3.0469067096710205e+00 }
            -
               depth: 5
               value: 0.
               norm_class_idx: 0
            -
               depth: 5
               value: 1.
               norm_class_idx: 1
            -
               depth: 4
               value: 1.
               norm_class_idx: 1
               splits:
                  - { var:1, quality:34., le:1.7973419427871704e+00 }
            -
               depth: 5
               value: 1.
               norm_class_idx: 1
            -
               depth: 5
               value: 0.
               norm_class_idx: 0
            -
               depth: 1
               value: 0.
               norm_class_idx: 0
               splits:
                  - { var:3, quality:4.8057626953125000e+03,
                      le:-1.6343909502029419e+00 }
            -
               depth: 2
               value: 0.
               norm_class_idx: 0
               splits:
                  - { var:0, quality:3.7224264526367188e+02,
                      le:-1.5067923069000244e+00 }
            -
               depth: 3
               value: 1.
               norm_class_idx: 1
               splits:
                  - { var:3, quality:8.4715805053710938e+01,
                      le:-1.7372262477874756e+00 }
            -
               depth: 4
               value: 1.
               norm_class_idx: 1
               splits:
                  - { var:2, quality:7.6952377319335938e+01,
                      le:3.1320221424102783e+00 }
            -
               depth: 5
               value: 1.
               norm_class_idx: 1
            -
               depth: 5
               value: 0.
               norm_class_idx: 0
            -
               depth: 4
               value: 0.
               norm_class_idx: 0
               splits:
                  - { var:2, quality:1.7142856597900391e+01,
                      le:7.8841589391231537e-02 }
            -
               depth: 5
               value: 1.
               norm_class_idx: 1
            -
               depth: 5
               value: 0.
               norm_class_idx: 0
            -
               depth: 3
               value: 0.
               norm_class_idx: 0
               splits:
                  - { var:2, quality:3.0059814453125000e+02,
                      le:3.7375898361206055e+00 }
            -
               depth: 4
               value: 0.
               norm_class_idx: 0
               splits:
                  - { var:1, quality:2.7081494140625000e+02,
                      le:9.4891941547393799e-01 }
            -
               depth: 5
               value: 0.
               norm_class_idx: 0
            -
               depth: 5
               value: 0.
               norm_class_idx: 0
            -
               depth: 4
               value: 0.
               norm_class_idx: 0
               splits:
                  - { var:3, quality:3.8052631378173828e+01,
                      le:-2.5873389244079590e+00 }
            -
               depth: 5
               value: 1.
               norm_class_idx: 1
            -
               depth: 5
               value: 0.
               norm_class_idx: 0
            -
               depth: 2
               value: 0.
               norm_class_idx: 0
               splits:
                  - { var:3, quality:4.4969506835937500e+03,
                      le:1.0882914066314697e+00 }
            -
               depth: 3
               value: 0.
               norm_class_idx: 0
               splits:
                  - { var:0, quality:4.3933095703125000e+03,
                      le:2.2549325227737427e-01 }
            -
               depth: 4
               value: 0.
               norm_class_idx: 0
               splits:
                  - { var:1, quality:1.5912420654296875e+03,
                      le:9.2555850744247437e-01 }
            -
               depth: 5
               value: 0.
               norm_class_idx: 0
            -
               depth: 5
               value: 1.
               norm_class_idx: 1
            -
               depth: 4
               value: 0.
               norm_class_idx: 0
               splits:
                  - { var:1, quality:2.8393317871093750e+03,
                      le:1.1935331672430038e-01 }
            -
               depth: 5
               value: 0.
               norm_class_idx: 0
            -
               depth: 5
               value: 0.
               norm_class_idx: 0
            -
               depth: 3
               value: 0.
               norm_class_idx: 0
               splits:
                  - { var:0, quality:1.2713429260253906e+02,
                      le:3.3829069137573242e-01 }
            -
               depth: 4
               value: 0.
               norm_class_idx: 0
               splits:
                  - { var:1, quality:29., le:-2.2891640663146973e-01 }
            -
               depth: 5
               value: 0.
               norm_class_idx: 0
            -
               depth: 5
               value: 1.
               norm_class_idx: 1
            -
               depth: 4
               value: 1.
               norm_class_idx: 1
               splits:
                  - { var:2, quality:1.0623169708251953e+02,
                      le:5.7915762066841125e-02 }
            -
               depth: 5
               value: 0.
               norm_class_idx: 0
            -
               depth: 5
               value: 1.
               norm_class_idx: 1
      -
         nodes:
            -
               depth: 0
               value: 0.
               norm_class_idx: 0
               splits:
                  - { var:3, quality:8.7088154296875000e+03,
                      le:-8.9597868919372559e-01 }
            -
               depth: 1
               value: 0.
               norm_class_idx: 0
               splits:
                  - { var:3, quality:1.2904534912109375e+03,
                      le:-2.6646385192871094e+00 }
            -
               depth: 2
               value: 1.
               norm_class_idx: 1
               splits:
                  - { var:0, quality:4.7163265228271484e+01,
                      le:2.3870247602462769e-01 }
            -
               depth: 3
               value: 1.
               norm_class_idx: 1
               splits:
                  - { var:1, quality:4.7041667938232422e+01,
                      le:-2.2784700393676758e+00 }
            -
               depth: 4
               value: 0.
               norm_class_idx: 0
            -
               depth: 4
               value: 1.
               norm_class_idx: 1
               splits:
                  - { var:1, quality:4.6333332061767578e+01,
                      le:-1.6869161128997803e+00 }
            -
               depth: 5
               value: 1.
               norm_class_idx: 1
            -
               depth: 5
               value: 1.
               norm_class_idx: 1
            -
               depth: 3
               value: 0.
               norm_class_idx: 0
            -
               depth: 2
               value: 0.
               norm_class_idx: 0
               splits:
                  - { var:2, quality:1.2846624755859375e+03,
                      le:-1.1172168701887131e-01 }
            -
               depth: 3
               value: 0.
               norm_class_idx: 0
               splits:
                  - { var:1, quality:2.0091682434082031e+02,
                      le:-1.1376244574785233e-01 }
            -
               depth: 4
               value: 0.
               norm_class_idx: 0
               splits:
                  - { var:3, quality:3.4636363983154297e+01,
                      le:-1.4889926910400391e+00 }
            -
               depth: 5
               value: 1.
               norm_class_idx: 1
            -
               depth: 5
               value: 0.
               norm_class_idx: 0
            -
               depth: 4
               value: 1.
               norm_class_idx: 1
               splits:
                  - { var:1, quality:1.8197624206542969e+02,
                      le:1.7440405488014221e-01 }
            -
               depth: 5
               value: 1.
               norm_class_idx: 1
            -
               depth: 5
               value: 0.
               norm_class_idx: 0
            -
               depth: 3
               value: 0.
               norm_class_idx: 0
               splits:
                  - { var:1, quality:1.0986174316406250e+03,
                      le:-1.7200338840484619e+00 }
            -
               depth: 4
               value: 0.
               norm_class_idx: 0
               splits:
                  - { var:0, quality:2.6301187133789062e+02,
                      le:-9.3976235389709473e-01 }
            -
               depth: 5
               value: 0.
               norm_class_idx: 0
            -
               depth: 5
               value: 0.
               norm_class_idx: 0
            -
               depth: 4
               value: 0.
               norm_class_idx: 0
               splits:
                  - { var:0, quality:8.5897448730468750e+02,
                      le:-7.0860528945922852e-01 }
            -
               depth: 5
               value: 0.
               norm_class_idx: 0
            -
               depth: 5
               value: 0.
               norm_class_idx: 0
            -
               depth: 1
               value: 0.
               norm_class_idx: 0
               splits:
                  - { var:3, quality:7.5382788085937500e+03,
                      le:1.7663543224334717e+00 }
            -
               depth: 2
               value: 0.
               norm_class_idx: 0
               splits:
                  - { var:2, quality:7.4566293945312500e+03,
                      le:-4.1000074148178101e-01 }
            -
               depth: 3
               value: 0.
               norm_class_idx: 0
               splits:
                  - { var:0, quality:4.1743100585937500e+03,
                      le:-3.6180639266967773e+00 }
            -
               depth: 4
               value: 1.
               norm_class_idx: 1
               splits:
                  - { var:0, quality:2.0285715103149414e+01,
                      le:-7.2456035614013672e+00 }
            -
               depth: 5
               value: 1.
               norm_class_idx: 1
            -
               depth: 5
               value: 1.
               norm_class_idx: 1
            -
               depth: 4
               value: 0.
               norm_class_idx: 0
               splits:
                  - { var:0, quality:4.1661625976562500e+03,
                      le:1.8093378841876984e-01 }
            -
               depth: 5
               value: 0.
               norm_class_idx: 0
            -
               depth: 5
               value: 0.
               norm_class_idx: 0
            -
               depth: 3
               value: 0.
               norm_class_idx: 0
               splits:
                  - { var:0, quality:3.3368950195312500e+03,
                      le:3.4394559264183044e-01 }
            -
               depth: 4
               value: 0.
               norm_class_idx: 0
               splits:
                  - { var:0, quality:1.2580844726562500e+03,
                      le:-2.1021666526794434e+00 }
            -
               depth: 5
               value: 0.
               norm_class_idx: 0
            -
               depth: 5
               value: 0.
               norm_class_idx: 0
            -
               depth: 4
               value: 0.
               norm_class_idx: 0
               splits:
                  - { var:3, quality:2.1116867675781250e+03,
                      le:6.9182592630386353e-01 }
            -
               depth: 5
               value: 0.
               norm_class_idx: 0
            -
               depth: 5
               value: 0.
               norm_class_idx: 0
            -
               depth: 2
               value: 0.
               norm_class_idx: 0
               splits:
                  - { var:1, quality:1.7670346069335938e+02,
                      le:6.2017273902893066e-01 }
            -
               depth: 3
               value: 1.
               norm_class_idx: 1
               splits:
                  - { var:2, quality:9.9974479675292969e+01,
                      le:-7.1712678670883179e-01 }
            -
               depth: 4
               value: 1.
               norm_class_idx: 1
               splits:
                  - { var:3, quality:6.5626663208007812e+01,
                      le:2.5025453567504883e+00 }
            -
               depth: 5
               value: 0.
               norm_class_idx: 0
            -
               depth: 5
               value: 1.
               norm_class_idx: 1
            -
               depth: 4
               value: 1.
               norm_class_idx: 1
               splits:
                  - { var:0, quality:5.0521125793457031e+01,
                      le:1.7563322186470032e-01 }
            -
               depth: 5
               value: 0.
               norm_class_idx: 0
            -
               depth: 5
               value: 1.
               norm_class_idx: 1
            -
               depth: 3
               value: 0.
               norm_class_idx: 0
               splits:
                  - { var:1, quality:8.6129188537597656e+01,
                      le:1.7121500968933105e+00 }
            -
               depth: 4
               value: 0.
               norm_class_idx: 0
               splits:
                  - { var:2, quality:5.3870174407958984e+01,
                      le:-9.4946706295013428e-01 }
            -
               depth: 5
               value: 0.
               norm_class_idx: 0
            -
               depth: 5
               value: 1.
               norm_class_idx: 1
            -
               depth: 4
               value: 0.
               norm_class_idx: 0
               splits:
                  - { var:2, quality:3.7719299316406250e+01,
                      le:-1.2899355888366699e+00 }
            -
               depth: 5
               value: 0.
               norm_class_idx: 0
            -
               depth: 5
               value: 0.
               norm_class_idx: 0
      -
         nodes:
            -
               depth: 0
               value: 0.
               norm_class_idx: 0
               splits:
                  - { var:3, quality:8.5468710937500000e+03,
                      le:-8.7436735630035400e-01 }
            -
               depth: 1
               value: 0.
               norm_class_idx: 0
               splits:
                  - { var:0, quality:1.3408049316406250e+03,
                      le:-7.2813475131988525e-01 }
            -
               depth: 2
               value: 0.
               norm_class_idx: 0
               splits:
                  - { var:1, quality:3.4971292114257812e+02,
                      le:-9.5294827222824097e-01 }
            -
               depth: 3
               value: 0.
               norm_class_idx: 0
               splits:
                  - { var:2, quality:1.7057931518554688e+02,
                      le:4.9122285842895508e+00 }
            -
               depth: 4
               value: 0.
               norm_class_idx: 0
               splits:
                  - { var:3, quality:1.6763217163085938e+02,
                      le:-2.5323383808135986e+00 }
            -
               depth: 5
               value: 1.
               norm_class_idx: 1
            -
               depth: 5
               value: 0.
               norm_class_idx: 0
            -
               depth: 4
               value: 1.
               norm_class_idx: 1
            -
               depth: 3
               value: 1.
               norm_class_idx: 1
               splits:
                  - { var:2, quality:1.9631472778320312e+02,
                      le:1.2147899866104126e+00 }
            -
               depth: 4
               value: 1.
               norm_class_idx: 1
               splits:
                  - { var:0, quality:1.6836083984375000e+02,
                      le:-7.7040964365005493e-01 }
            -
               depth: 5
               value: 1.
               norm_class_idx: 1
            -
               depth: 5
               value: 1.
               norm_class_idx: 1
            -
               depth: 4
               value: 1.
               norm_class_idx: 1
               splits:
                  - { var:3, quality:3.3058822631835938e+01,
                      le:-1.0310156345367432e+00 }
            -
               depth: 5
               value: 1.
               norm_class_idx: 1
            -
               depth: 5
               value: 0.
               norm_class_idx: 0
            -
               depth: 2
               value: 0.
               norm_class_idx: 0
               splits:
                  - { var:3, quality:1.0357650146484375e+03,
                      le:-3.4229903221130371e+00 }
            -
               depth: 3
               value: 1.
               norm_class_idx: 1
            -
               depth: 3
               value: 0.
               norm_class_idx: 0
               splits:
                  - { var:2, quality:1.0507697753906250e+03,
                      le:-1.4598938822746277e-01 }
            -
               depth: 4
               value: 0.
               norm_class_idx: 0
               splits:
                  - { var:1, quality:1.5032679748535156e+02,
                      le:5.9314608573913574e-01 }
            -
               depth: 5
               value: 1.
               norm_class_idx: 1
            -
               depth: 5
               value: 0.
               norm_class_idx: 0
            -
               depth: 4
               value: 0.
               norm_class_idx: 0
               splits:
                  - { var:2, quality:9.1193792724609375e+02,
                      le:2.6928305625915527e+00 }
            -
               depth: 5
               value: 0.
               norm_class_idx: 0
            -
               depth: 5
               value: 0.
               norm_class_idx: 0
            -
               depth: 1
               value: 0.
               norm_class_idx: 0
               splits:
                  - { var:1, quality:7.3283959960937500e+03,
                      le:1.4553982019424438e-01 }
            -
               depth: 2
               value: 0.
               norm_class_idx: 0
               splits:
                  - { var:3, quality:3.0013916015625000e+03,
                      le:1.7764639854431152e+00 }
            -
               depth: 3
               value: 0.
               norm_class_idx: 0
               splits:
                  - { var:0, quality:2.9552290039062500e+03,
                      le:2.4452629685401917e-01 }
            -
               depth: 4
               value: 0.
               norm_class_idx: 0
               splits:
                  - { var:1, quality:9.6831811523437500e+02,
                      le:-2.2391602396965027e-01 }
            -
               depth: 5
               value: 0.
               norm_class_idx: 0
            -
               depth: 5
               value: 0.
               norm_class_idx: 0
            -
               depth: 4
               value: 0.
               norm_class_idx: 0
               splits:
                  - { var:3, quality:2.0156888427734375e+03,
                      le:6.5869593620300293e-01 }
            -
               depth: 5
               value: 0.
               norm_class_idx: 0
            -
               depth: 5
               value: 0.
               norm_class_idx: 0
            -
               depth: 3
               value: 1.
               norm_class_idx: 1
               splits:
                  - { var:1, quality:6.8229537963867188e+01,
                      le:-4.3992680311203003e-01 }
            -
               depth: 4
               value: 0.
               norm_class_idx: 0
               splits:
                  - { var:1, quality:1.8260869979858398e+01,
                      le:-1.0013228654861450e+00 }
            -
               depth: 5
               value: 1.
               norm_class_idx: 1
            -
               depth: 5
               value: 0.
               norm_class_idx: 0
            -
               depth: 4
               value: 1.
               norm_class_idx: 1
               splits:
                  - { var:1, quality:5.7255813598632812e+01,
                      le:1.2931960821151733e-01 }
            -
               depth: 5
               value: 1.
               norm_class_idx: 1
            -
               depth: 5
               value: 0.
               norm_class_idx: 0
            -
               depth: 2
               value: 0.
               norm_class_idx: 0
               splits:
                  - { var:3, quality:4.4396230468750000e+03,
                      le:2.1060273647308350e+00 }
            -
               depth: 3
               value: 0.
               norm_class_idx: 0
               splits:
                  - { var:2, quality:4.3876582031250000e+03,
                      le:-4.0340605378150940e-01 }
            -
               depth: 4
               value: 0.
               norm_class_idx: 0
               splits:
                  - { var:0, quality:3.7471582031250000e+03,
                      le:-3.7677698135375977e+00 }
            -
               depth: 5
               value: 1.
               norm_class_idx: 1
            -
               depth: 5
               value: 0.
               norm_class_idx: 0
            -
               depth: 4
               value: 0.
               norm_class_idx: 0
               splits:
                  - { var:0, quality:6.8603063964843750e+02,
                      le:-9.8910319805145264e-01 }
            -
               depth: 5
               value: 1.
               norm_class_idx: 1
            -
               depth: 5
               value: 0.
               norm_class_idx: 0
            -
               depth: 3
               value: 1.
               norm_class_idx: 1
               splits:
                  - { var:1, quality:6.8655258178710938e+01,
                      le:1.1346369981765747e+00 }
            -
               depth: 4
               value: 1.
               norm_class_idx: 1
               splits:
                  - { var:3, quality:5.0761905670166016e+01,
                      le:2.3773066997528076e+00 }
            -
               depth: 5
               value: 0.
               norm_class_idx: 0
            -
               depth: 5
               value: 1.
               norm_class_idx: 1
            -
               depth: 4
               value: 0.
               norm_class_idx: 0
               splits:
                  - { var:3, quality:3.0263158798217773e+01,
                      le:2.2202949523925781e+00 }
            -
               depth: 5
               value: 1.
               norm_class_idx: 1
            -
               depth: 5
               value: 0.
               norm_class_idx: 0
      -
         nodes:
            -
               depth: 0
               value: 0.
               norm_class_idx: 0
               splits:
                  - { var:2, quality:8.6080966796875000e+03,
                      le:-4.8207256197929382e-01 }
            -
               depth: 1
               value: 0.
               norm_class_idx: 0
               splits:
                  - { var:0, quality:3.8893815917968750e+03,
                      le:-7.0776683092117310e-01 }
            -
               depth: 2
               value: 0.
               norm_class_idx: 0
               splits:
                  - { var:1, quality:8.2357139587402344e+01,
                      le:-2.5100314617156982e-01 }
            -
               depth: 3
               value: 0.
               norm_class_idx: 0
            -
               depth: 3
               value: 0.
               norm_class_idx: 0
               splits:
                  - { var:3, quality:8.0490623474121094e+01,
                      le:-1.3097238540649414e-01 }
            -
               depth: 4
               value: 1.
               norm_class_idx: 1
               splits:
                  - { var:1, quality:4.6666667938232422e+01,
                      le:1.0794237852096558e+00 }
            -
               depth: 5
               value: 1.
               norm_class_idx: 1
            -
               depth: 5
               value: 0.
               norm_class_idx: 0
            -
               depth: 4
               value: 0.
               norm_class_idx: 0
               splits:
                  - { var:0, quality:4.5172412872314453e+01,
                      le:-7.3001766204833984e-01 }
            -
               depth: 5
               value: 0.
               norm_class_idx: 0
            -
               depth: 5
               value: 1.
               norm_class_idx: 1
            -
               depth: 2
               value: 0.
               norm_class_idx: 0
               splits:
                  - { var:1, quality:3.8331037597656250e+03,
                      le:4.6368625760078430e-01 }
            -
               depth: 3
               value: 0.
               norm_class_idx: 0
               splits:
                  - { var:1, quality:9.2098962402343750e+02,
                      le:-1.8110018968582153e-01 }
            -
               depth: 4
               value: 0.
               norm_class_idx: 0
               splits:
                  - { var:3, quality:9.7019935607910156e+01,
                      le:1.7965072393417358e+00 }
            -
               depth: 5
               value: 0.
               norm_class_idx: 0
            -
               depth: 5
               value: 1.
               norm_class_idx: 1
            -
               depth: 4
               value: 0.
               norm_class_idx: 0
               splits:
                  - { var:2, quality:8.7342980957031250e+02,
                      le:-9.5821583271026611e-01 }
            -
               depth: 5
               value: 1.
               norm_class_idx: 1
            -
               depth: 5
               value: 0.
               norm_class_idx: 0
            -
               depth: 3
               value: 0.
               norm_class_idx: 0
               splits:
                  - { var:0, quality:2.9224687500000000e+03,
                      le:3.4744361042976379e-01 }
            -
               depth: 4
               value: 0.
               norm_class_idx: 0
               splits:
                  - { var:0, quality:8.4617469787597656e+01,
                      le:1.7989139258861542e-01 }
            -
               depth: 5
               value: 0.
               norm_class_idx: 0
            -
               depth: 5
               value: 0.
               norm_class_idx: 0
            -
               depth: 4
               value: 0.
               norm_class_idx: 0
               splits:
                  - { var:1, quality:2.8422597656250000e+03,
                      le:2.4134051799774170e+00 }
            -
               depth: 5
               value: 0.
               norm_class_idx: 0
            -
               depth: 5
               value: 0.
               norm_class_idx: 0
            -
               depth: 1
               value: 0.
               norm_class_idx: 0
               splits:
                  - { var:0, quality:4.7869897460937500e+03,
                      le:-2.6100583076477051e+00 }
            -
               depth: 2
               value: 0.
               norm_class_idx: 0
               splits:
                  - { var:1, quality:1.9462593078613281e+02,
                      le:-1.7910864949226379e-01 }
            -
               depth: 3
               value: 0.
               norm_class_idx: 0
               splits:
                  - { var:2, quality:1.5146971130371094e+02,
                      le:7.9824924468994141e-01 }
            -
               depth: 4
               value: 0.
               norm_class_idx: 0
               splits:
                  - { var:1, quality:1.0058865356445312e+02,
                      le:-1.3916964530944824e+00 }
            -
               depth: 5
               value: 1.
               norm_class_idx: 1
            -
               depth: 5
               value: 0.
               norm_class_idx: 0
            -
               depth: 4
               value: 0.
               norm_class_idx: 0
               splits:
                  - { var:1, quality:5.8194805145263672e+01,
                      le:-1.4260886907577515e+00 }
            -
               depth: 5
               value: 0.
               norm_class_idx: 0
            -
               depth: 5
               value: 1.
               norm_class_idx: 1
            -
               depth: 3
               value: 1.
               norm_class_idx: 1
               splits:
                  - { var:2, quality:5.5142856597900391e+01,
                      le:2.4190878868103027e-01 }
            -
               depth: 4
               value: 1.
               norm_class_idx: 1
            -
               depth: 4
               value: 1.
               norm_class_idx: 1
            -
               depth: 2
               value: 0.
               norm_class_idx: 0
               splits:
                  - { var:3, quality:4.6626977539062500e+03,
                      le:1.0198640823364258e+00 }
            -
               depth: 3
               value: 0.
               norm_class_idx: 0
               splits:
                  - { var:0, quality:4.5452280273437500e+03,
                      le:-7.9682397842407227e-01 }
            -
               depth: 4
               value: 0.
               norm_class_idx: 0
               splits:
                  - { var:2, quality:4.5391641235351562e+02,
                      le:1.8789463043212891e+00 }
            -
               depth: 5
               value: 0.
               norm_class_idx: 0
            -
               depth: 5
               value: 0.
               norm_class_idx: 0
            -
               depth: 4
               value: 0.
               norm_class_idx: 0
               splits:
                  - { var:3, quality:4.1133901367187500e+03,
                      le:-8.9226603507995605e-01 }
            -
               depth: 5
               value: 0.
               norm_class_idx: 0
            -
               depth: 5
               value: 0.
               norm_class_idx: 0
            -
               depth: 3
               value: 0.
               norm_class_idx: 0
               splits:
                  - { var:1, quality:1.2956358337402344e+02,
                      le:-5.8260881900787354e-01 }
            -
               depth: 4
               value: 0.
               norm_class_idx: 0
               splits:
                  - { var:2, quality:6.0496982574462891e+01,
                      le:5.1971331238746643e-02 }
            -
               depth: 5
               value: 0.
               norm_class_idx: 0
            -
               depth: 5
               value: 1.
               norm_class_idx: 1
            -
               depth: 4
               value: 1.
               norm_class_idx: 1
               splits:
                  - { var:1, quality:8.0485290527343750e+01,
                      le:1.9743288755416870e+00 }
            -
               depth: 5
               value: 1.
               norm_class_idx: 1
            -
               depth: 5
               value: 0.
               norm_class_idx: 0
      -
         nodes:
            -
               depth: 0
               value: 0.
               norm_class_idx: 0
               splits:
                  - { var:3, quality:8.6324013671875000e+03,
                      le:-8.8794946670532227e-01 }
            -
               depth: 1
               value: 0.
               norm_class_idx: 0
               splits:
                  - { var:2, quality:1.2625612792968750e+03,
                      le:-1.4275762438774109e-01 }
            -
               depth: 2
               value: 1.
               norm_class_idx: 1
               splits:
                  - { var:3, quality:2.0002394104003906e+02,
                      le:-1.2637937068939209e+00 }
            -
               depth: 3
               value: 1.
               norm_class_idx: 1
               splits:
                  - { var:2, quality:1.0451548004150391e+02,
                      le:-2.0158728957176208e-01 }
            -
               depth: 4
               value: 1.
               norm_class_idx: 1
               splits:
                  - { var:3, quality:8.2803787231445312e+01,
                      le:-1.9665894508361816e+00 }
            -
               depth: 5
               value: 0.
               norm_class_idx: 0
            -
               depth: 5
               value: 1.
               norm_class_idx: 1
            -
               depth: 4
               value: 1.
               norm_class_idx: 1
               splits:
                  - { var:1, quality:34., le:5.7358527183532715e-01 }
            -
               depth: 5
               value: 1.
               norm_class_idx: 1
            -
               depth: 5
               value: 0.
               norm_class_idx: 0
            -
               depth: 3
               value: 0.
               norm_class_idx: 0
               splits:
                  - { var:0, quality:1.0938489532470703e+02,
                      le:-9.1905856132507324e-01 }
            -
               depth: 4
               value: 1.
               norm_class_idx: 1
               splits:
                  - { var:1, quality:2.4142856597900391e+01,
                      le:-2.1824657917022705e-01 }
            -
               depth: 5
               value: 0.
               norm_class_idx: 0
            -
               depth: 5
               value: 1.
               norm_class_idx: 1
            -
               depth: 4
               value: 0.
               norm_class_idx: 0
               splits:
                  - { var:1, quality:9.3782051086425781e+01,
                      le:-4.6103876829147339e-01 }
            -
               depth: 5
               value: 1.
               norm_class_idx: 1
            -
               depth: 5
               value: 0.
               norm_class_idx: 0
            -
               depth: 2
               value: 0.
               norm_class_idx: 0
               splits:
                  - { var:3, quality:1.1013464355468750e+03,
                      le:-2.8099880218505859e+00 }
            -
               depth: 3
               value: 1.
               norm_class_idx: 1
               splits:
                  - { var:2, quality:3.5900001525878906e+01,
                      le:1.3143843412399292e+00 }
            -
               depth: 4
               value: 1.
               norm_class_idx: 1
            -
               depth: 4
               value: 1.
               norm_class_idx: 1
               splits:
                  - { var:0, quality:1.4181818008422852e+01,
                      le:-2.3278522491455078e-01 }
            -
               depth: 5
               value: 1.
               norm_class_idx: 1
            -
               depth: 5
               value: 0.
               norm_class_idx: 0
            -
               depth: 3
               value: 0.
               norm_class_idx: 0
               splits:
                  - { var:0, quality:1.0800753173828125e+03,
                      le:-2.1281113624572754e+00 }
            -
               depth: 4
               value: 0.
               norm_class_idx: 0
               splits:
                  - { var:2, quality:1.0687440490722656e+02,
                      le:1.8718798160552979e+00 }
            -
               depth: 5
               value: 0.
               norm_class_idx: 0
            -
               depth: 5
               value: 0.
               norm_class_idx: 0
            -
               depth: 4
               value: 0.
               norm_class_idx: 0
               splits:
                  - { var:2, quality:9.8452685546875000e+02,
                      le:2.7088435366749763e-02 }
            -
               depth: 5
               value: 0.
               norm_class_idx: 0
            -
               depth: 5
               value: 0.
               norm_class_idx: 0
            -
               depth: 1
               value: 0.
               norm_class_idx: 0
               splits:
                  - { var:3, quality:7.4958666992187500e+03,
                      le:1.7472779750823975e+00 }
            -
               depth: 2
               value: 0.
               norm_class_idx: 0
               splits:
                  - { var:1, quality:7.3862490234375000e+03,
                      le:6.8598546087741852e-02 }
            -
               depth: 3
               value: 0.
               norm_class_idx: 0
               splits:
                  - { var:0, quality:2.9280190429687500e+03,
                      le:1.6429868340492249e-01 }
            -
               depth: 4
               value: 0.
               norm_class_idx: 0
               splits:
                  - { var:1, quality:9.4065631103515625e+02,
                      le:-3.5808777809143066e-01 }
            -
               depth: 5
               value: 0.
               norm_class_idx: 0
            -
               depth: 5
               value: 0.
               norm_class_idx: 0
            -
               depth: 4
               value: 0.
               norm_class_idx: 0
               splits:
                  - { var:3, quality:2.0014814453125000e+03,
                      le:6.9176006317138672e-01 }
            -
               depth: 5
               value: 0.
               norm_class_idx: 0
            -
               depth: 5
               value: 0.
               norm_class_idx: 0
            -
               depth: 3
               value: 0.
               norm_class_idx: 0
               splits:
                  - { var:0, quality:4.5241245117187500e+03,
                      le:-4.1056573390960693e-01 }
            -
               depth: 4
               value: 0.
               norm_class_idx: 0
               splits:
                  - { var:2, quality:1.0770680999755859e+02,
                      le:-2.7268809080123901e-01 }
            -
               depth: 5
               value: 0.
               norm_class_idx: 0
            -
               depth: 5
               value: 1.
               norm_class_idx: 1
            -
               depth: 4
               value: 0.
               norm_class_idx: 0
               splits:
                  - { var:2, quality:4.4331503906250000e+03,
                      le:-2.6728034019470215e-01 }
            -
               depth: 5
               value: 0.
               norm_class_idx: 0
            -
               depth: 5
               value: 0.
               norm_class_idx: 0
            -
               depth: 2
               value: 0.
               norm_class_idx: 0
               splits:
                  - { var:2, quality:1.9474359130859375e+02,
                      le:-7.8518748283386230e-01 }
            -
               depth: 3
               value: 0.
               norm_class_idx: 0
               splits:
                  - { var:1, quality:1.3677050781250000e+02,
                      le:6.1980581283569336e-01 }
            -
               depth: 4
               value: 1.
               norm_class_idx: 1
               splits:
                  - { var:2, quality:5.5750000000000000e+01,
                      le:-9.4603157043457031e-01 }
            -
               depth: 5
               value: 1.
               norm_class_idx: 1
            -
               depth: 5
               value: 0.
               norm_class_idx: 0
            -
               depth: 4
               value: 0.
               norm_class_idx: 0
               splits:
                  - { var:1, quality:8.7890754699707031e+01,
                      le:7.5120031833648682e-01 }
            -
               depth: 5
               value: 0.
               norm_class_idx: 0
            -
               depth: 5
               value: 0.
               norm_class_idx: 0
            -
               depth: 3
               value: 1.
               norm_class_idx: 1
               splits:
                  - { var:0, quality:6.7885711669921875e+01,
                      le:1.7563322186470032e-01 }
            -
               depth: 4
               value: 0.
               norm_class_idx: 0
            -
               depth: 4
               value: 1.
               norm_class_idx: 1
               splits:
                  - { var:3, quality:6.6826194763183594e+01,
                      le:1.8056950569152832e+00 }
            -
               depth: 5
               value: 1.
               norm_class_idx: 1
            -
               depth: 5
               value: 1.
               norm_class_idx: 1
      -
         nodes:
            -
               depth: 0
               value: 0.
               norm_class_idx: 0
               splits:
                  - { var:2, quality:8.5742412109375000e+03,
                      le:-5.1812857389450073e-01 }
            -
               depth: 1
               value: 0.
               norm_class_idx: 0
               splits:
                  - { var:0, quality:3.6685402832031250e+03,
                      le:2.3744374513626099e-01 }
            -
               depth: 2
               value: 0.
               norm_class_idx: 0
               splits:
                  - { var:3, quality:1.6551922607421875e+02,
                      le:-2.2534832358360291e-01 }
            -
               depth: 3
               value: 0.
               norm_class_idx: 0
               splits:
                  - { var:0, quality:6.6938774108886719e+01,
                      le:-5.7378559112548828e+00 }
            -
               depth: 4
               value: 1.
               norm_class_idx: 1
            -
               depth: 4
               value: 0.
               norm_class_idx: 0
               splits:
                  - { var:1, quality:5.7757575988769531e+01,
                      le:1.2512464523315430e+00 }
            -
               depth: 5
               value: 0.
               norm_class_idx: 0
            -
               depth: 5
               value: 0.
               norm_class_idx: 0
            -
               depth: 3
               value: 0.
               norm_class_idx: 0
               splits:
                  - { var:0, quality:1.1357894897460938e+02,
                      le:1.5211126208305359e-01 }
            -
               depth: 4
               value: 0.
               norm_class_idx: 0
               splits:
                  - { var:2, quality:1.0956969451904297e+02,
                      le:-9.4672274589538574e-01 }
            -
               depth: 5
               value: 1.
               norm_class_idx: 1
            -
               depth: 5
               value: 0.
               norm_class_idx: 0
            -
               depth: 4
               value: 1.
               norm_class_idx: 1
               splits:
                  - { var:3, quality:1.2846154212951660e+01,
                      le:1.3002374172210693e+00 }
            -
               depth: 5
               value: 0.
               norm_class_idx: 0
            -
               depth: 5
               value: 1.
               norm_class_idx: 1
            -
               depth: 2
               value: 0.
               norm_class_idx: 0
               splits:
                  - { var:3, quality:3.5946311035156250e+03,
                      le:1.7663543224334717e+00 }
            -
               depth: 3
               value: 0.
               norm_class_idx: 0
               splits:
                  - { var:3, quality:3.4842714843750000e+03,
                      le:-6.5441864728927612e-01 }
            -
               depth: 4
               value: 1.
               norm_class_idx: 1
               splits:
                  - { var:3, quality:4.0769229888916016e+01,
                      le:-6.9938319921493530e-01 }
            -
               depth: 5
               value: 0.
               norm_class_idx: 0
            -
               depth: 5
               value: 1.
               norm_class_idx: 1
            -
               depth: 4
               value: 0.
               norm_class_idx: 0
               splits:
                  - { var:1, quality:3.4495178222656250e+03,
                      le:6.8747520446777344e-01 }
            -
               depth: 5
               value: 0.
               norm_class_idx: 0
            -
               depth: 5
               value: 0.
               norm_class_idx: 0
            -
               depth: 3
               value: 0.
               norm_class_idx: 0
               splits:
                  - { var:3, quality:1.6200685119628906e+02,
                      le:2.0992088317871094e+00 }
            -
               depth: 4
               value: 0.
               norm_class_idx: 0
               splits:
                  - { var:1, quality:1.0345945739746094e+02,
                      le:5.8380520343780518e-01 }
            -
               depth: 5
               value: 1.
               norm_class_idx: 1
            -
               depth: 5
               value: 0.
               norm_class_idx: 0
            -
               depth: 4
               value: 1.
               norm_class_idx: 1
               splits:
                  - { var:1, quality:9.4727615356445312e+01,
                      le:1.0795397758483887e+00 }
            -
               depth: 5
               value: 1.
               norm_class_idx: 1
            -
               depth: 5
               value: 0.
               norm_class_idx: 0
            -
               depth: 1
               value: 0.
               norm_class_idx: 0
               splits:
                  - { var:3, quality:5.0241289062500000e+03,
                      le:-1.6443920135498047e+00 }
            -
               depth: 2
               value: 0.
               norm_class_idx: 0
               splits:
                  - { var:3, quality:3.4920233154296875e+02,
                      le:-2.5873389244079590e+00 }
            -
               depth: 3
               value: 1.
               norm_class_idx: 1
               splits:
                  - { var:0, quality:5.9722942352294922e+01,
                      le:2.5582376122474670e-01 }
            -
               depth: 4
               value: 1.
               norm_class_idx: 1
               splits:
                  - { var:0, quality:5.6921459197998047e+01,
                      le:-8.4877288341522217e-01 }
            -
               depth: 5
               value: 1.
               norm_class_idx: 1
            -
               depth: 5
               value: 1.
               norm_class_idx: 1
            -
               depth: 4
               value: 0.
               norm_class_idx: 0
            -
               depth: 3
               value: 0.
               norm_class_idx: 0
               splits:
                  - { var:2, quality:3.0666445922851562e+02,
                      le:3.9093056321144104e-01 }
            -
               depth: 4
               value: 1.
               norm_class_idx: 1
               splits:
                  - { var:0, quality:1.1507630920410156e+02,
                      le:-3.6701777577400208e-01 }
            -
               depth: 5
               value: 1.
               norm_class_idx: 1
            -
               depth: 5
               value: 0.
               norm_class_idx: 0
            -
               depth: 4
               value: 0.
               norm_class_idx: 0
               splits:
                  - { var:0, quality:2.2201676940917969e+02,
                      le:-1.5242719650268555e+00 }
            -
               depth: 5
               value: 1.
               norm_class_idx: 1
            -
               depth: 5
               value: 0.
               norm_class_idx: 0
            -
               depth: 2
               value: 0.
               norm_class_idx: 0
               splits:
                  - { var:0, quality:4.7022607421875000e+03,
                      le:-1.1414664983749390e+00 }
            -
               depth: 3
               value: 0.
               norm_class_idx: 0
               splits:
                  - { var:1, quality:4.5819281005859375e+02,
                      le:-3.9004608988761902e-02 }
            -
               depth: 4
               value: 0.
               norm_class_idx: 0
               splits:
                  - { var:1, quality:4.0414099121093750e+02,
                      le:-7.9176056385040283e-01 }
            -
               depth: 5
               value: 0.
               norm_class_idx: 0
            -
               depth: 5
               value: 0.
               norm_class_idx: 0
            -
               depth: 4
               value: 1.
               norm_class_idx: 1
               splits:
                  - { var:2, quality:6.4583335876464844e+01,
                      le:2.5361847877502441e-01 }
            -
               depth: 5
               value: 1.
               norm_class_idx: 1
            -
               depth: 5
               value: 1.
               norm_class_idx: 1
            -
               depth: 3
               value: 0.
               norm_class_idx: 0
               splits:
                  - { var:0, quality:4.3060600585937500e+03,
                      le:2.2717839479446411e-01 }
            -
               depth: 4
               value: 0.
               norm_class_idx: 0
               splits:
                  - { var:2, quality:1.2213508300781250e+03,
                      le:-3.8356482982635498e-01 }
            -
               depth: 5
               value: 0.
               norm_class_idx: 0
            -
               depth: 5
               value: 0.
               norm_class_idx: 0
            -
               depth: 4
               value: 0.
               norm_class_idx: 0
               splits:
                  - { var:1, quality:3.1114924316406250e+03,
                      le:1.1935331672430038e-01 }
            -
               depth: 5
               value: 0.
               norm_class_idx: 0
            -
               depth: 5
               value: 0.
