%YAML:1.0
---
opencv_ml_svm:
   format: 3
   svmType: C_SVC
   kernel:
      type: RBF
      gamma: 5.0625000000000009e-01
   C: 5.0000000000000000e-01
   term_criteria: { iterations:100 }
   var_count: 2
   class_count: 3
   class_labels: !!opencv-matrix
      rows: 3
      cols: 1
      dt: i
      data: [ 0, 1, 2 ]
   sv_total: 10
   support_vectors:
      - [ 2., 3. ]
      - [ 8., 9. ]
      - [ 2., 3. ]
      - [ 6., 7. ]
      - [ 8., 9. ]
      - [ 0., 1. ]
      - [ 2., 3. ]
      - [ 4., 5. ]
      - [ 8., 9. ]
      - [ 10., 11. ]
   decision_functions:
      -
         sv_count: 7
         rho: 6.3482829420332987e-01
         alpha: [ 5.0000000000000000e-01, 5.0000000000000000e-01,
             5.0000000000000000e-01, -3.8505994775565783e-01,
             -3.9130522623774128e-01, -3.5846315323727096e-01,
             -3.6517167276932994e-01 ]
         index: [ 8, 1, 4, 3, 9, 7, 5 ]
      -
         sv_count: 4
         rho: 0.
         alpha: [ 5.0000000000000000e-01, 5.0000000000000000e-01,
             -5.0000000000000000e-01, -5.0000000000000000e-01 ]
         index: [ 8, 1, 2, 6 ]
      -
         sv_count: 7
         rho: -6.3482829420332976e-01
         alpha: [ 3.5846315323727074e-01, 3.6517167276932977e-01,
             3.8505994775565816e-01, 3.9130522623774133e-01,
             -5.0000000000000000e-01, -5.0000000000000000e-01,
             -5.0000000000000000e-01 ]
         index: [ 3, 9, 7, 5, 2, 6, 0 ]
