%YAML:1.0
---
opencv_ml_svm:
   format: 3
   svmType: C_SVC
   kernel:
      type: RBF
      gamma: 3.3750000000000002e-02
   C: 2.5000000000000000e+00
   term_criteria: { iterations:10000 }
   var_count: 42
   class_count: 2
   class_labels: !!opencv-matrix
      rows: 2
      cols: 1
      dt: i
      data: [ 0, 1 ]
   sv_total: 4364
   support_vectors:
      - [ 4.53707576e-01, 5.65084994e-01, 9.26119864e-01,
          -7.08820581e-01, -9.41702306e-01, -5.01270652e-01,
          -1.79992750e-01, -1.08520913e+00, -1.43536079e+00,
          -1.37788844e+00, -1.16392398e+00, -7.80203521e-01,
          -1.69425130e-01, -1.29863501e-01, -2.94319957e-01,
          -1.83504015e-01, -9.81020853e-02, -1.01137012e-01,
          1.06862888e-01, -7.18798861e-03, 1.00068063e-01,
          1.92523375e-02, -1.63150206e-01, -5.03126323e-01,
          -1.30169764e-01, 7.21910596e-02, 3.27430367e-01,
          7.65304387e-01, 1.41414773e+00, 1.52048171e+00, 2.23503590e+00,
          2.35493875e+00, 1.09704757e+00, 2.07767472e-01,
          -2.23911375e-01, -1.94089577e-01, -5.63052893e-01,
          -1.36050487e+00, -1.76799417e+00, -1.28188932e+00,
          1.24679518e+00, -7.09242523e-01 ]
      - [ -1.81815684e+00, -2.25516939e+00, -2.58205581e+00,
          -1.35149658e+00, -1.04305637e+00, -1.73352385e+00,
          -1.83087814e+00, -1.32723618e+00, -5.99236608e-01,
          -3.40217561e-01, 6.48552239e-01, 1.80036724e+00,
          2.32705021e+00, 2.70380616e+00, 2.66369772e+00, 2.24389791e+00,
          2.29718494e+00, 2.43278146e+00, 2.30212641e+00, 2.53979301e+00,
          4.08127499e+00, 4.10421610e+00, 2.21320438e+00, 1.00395989e+00,
          6.32441819e-01, -3.01662199e-02, -5.73820412e-01,
          -1.16601825e+00, -1.63984859e+00, -1.62172341e+00,
          -2.29777741e+00, -2.01596403e+00, -2.02315664e+00,
          -1.70505631e+00, -1.95057404e+00, -1.86870813e+00,
          -1.95235121e+00, -1.87871325e+00, -1.61064875e+00,
          -1.71018720e+00, -6.69912815e-01, -2.14419198e+00 ]
      - [ -6.98398948e-01, -5.53781688e-01, -1.43347168e+00,
          -8.94482553e-01, 1.97222733e+00, 1.57158923e+00,
          4.40339953e-01, 6.39233649e-01, 6.93839192e-01, 9.32891309e-01,
          8.70332062e-01, 1.05727100e+00, 1.39757490e+00, 1.33849263e+00,
          1.14118862e+00, 7.64974236e-01, 6.52780056e-01, 3.99390101e-01,
          6.85222328e-01, 6.48997843e-01, -1.83465376e-01,
          4.04719234e-01, 8.85516882e-01, 1.10084403e+00, 7.65234888e-01,
          1.10063803e+00, 2.07157755e+00, 2.39781857e+00, 2.43529820e+00,
          1.92688668e+00, 1.76027739e+00, 4.83267576e-01,
          -2.90984422e-01, -1.25690901e+00, -1.17811966e+00,
          -1.22118890e+00, -1.38944590e+00, -9.68969524e-01,
          -8.63257647e-01, -1.32947803e+00, 6.61493778e-01,
          -1.31506670e+00 ]
      - [ -9.14885461e-01, -4.01047528e-01, -1.41314402e-01,
          -3.66060019e-01, -7.72778809e-01, -5.58584750e-01,
          -5.60196638e-01, -1.02470243e+00, -7.74239302e-01,
          -5.93095362e-01, -4.75641876e-01, -6.51850522e-01,
          -1.63466960e-01, 3.08067262e-01, 1.40682653e-01,
          4.13204618e-02, 3.13672006e-01, 5.16701162e-01, 3.12625378e-01,
          2.15446487e-01, 1.24864936e+00, 6.58413112e-01, 1.39299679e+00,
          1.55835235e+00, 1.92622566e+00, 2.31917715e+00, 2.14289951e+00,
          1.10784090e+00, 1.23450089e+00, 1.92230910e-01,
          -3.11137550e-03, -1.44292802e-01, -6.35124624e-01,
          -6.99457526e-01, -9.05488729e-01, -1.33283019e+00,
          -1.12595832e+00, -1.55627251e+00, -1.27628958e+00,
          -1.49943745e+00, 4.43083972e-01, -9.96232450e-01 ]
      - [ -1.36776531e+00, -1.12919879e+00, -1.72061765e+00,
          4.47996259e-01, -1.81546748e-01, 5.78144848e-01,
          8.10538471e-01, 8.40922832e-01, 7.91062951e-01, 5.14334977e-01,
          1.29859650e+00, 1.31397700e+00, 9.98377144e-01, 9.16018248e-01,
          1.01503789e+00, 8.52796316e-01, 8.81543458e-01, 8.92096460e-01,
          1.00915921e+00, 1.43940353e+00, 1.02380919e+00, 1.44658828e+00,
          1.72819579e+00, 1.69560492e+00, 1.82757938e+00, 2.23631644e+00,
          1.46858239e+00, 1.93867397e+00, 1.75453126e+00, 1.49074471e+00,
          1.52289808e+00, 1.37506390e+00, 4.43181247e-01, 5.79401791e-01,
          -4.73823071e-01, -4.95520920e-01, -1.34153903e+00,
          -1.25686312e+00, -9.22262192e-01, -1.03714776e+00,
          -5.34369290e-01, -1.36820579e+00 ]
      - [ -3.55006486e-01, 1.53057873e-01, -5.03368139e-01,
          7.05066681e-01, 6.96855187e-01, -2.33804867e-01,
          -1.19960546e-01, 3.97206575e-01, 6.45227313e-01,
          1.13344955e+00, 1.66754782e-01, -1.24927685e-01,
          -4.25626665e-01, -1.02118146e+00, -8.68523359e-01,
          -9.56338167e-01, -7.73626864e-01, -5.64515650e-01,
          -2.62953490e-01, 3.80558193e-01, 5.43427646e-01,
          7.88954616e-01, 1.23944199e+00, 8.47868860e-01, 6.36235893e-01,
          9.34916735e-01, 2.01322317e+00, 1.15885687e+00, 1.91526794e+00,
          2.24408102e+00, 4.21319628e+00, 2.06868315e+00, 8.67620766e-01,
          1.31254524e-01, -4.39744204e-01, -1.09838355e+00,
          -3.35495412e-01, -9.34422314e-01, -1.95484197e+00,
          -1.56062293e+00, 2.21654701e+00, -1.89510274e+00 ]
      - [ -1.75345969e+00, -1.04395187e+00, -4.09733534e-01,
          -1.72996140e+00, -1.62584221e+00, -6.35003567e-01,
          2.01145764e-02, 6.44193739e-02, 2.17442855e-01, 1.21938393e-01,
          5.41486144e-01, 2.36915704e-02, -7.89075315e-01,
          -1.08815908e+00, -1.04252446e+00, -1.03713453e+00,
          -5.52937508e-01, 1.11978047e-01, 4.64166701e-01,
          1.04846168e+00, 1.49606395e+00, 2.94535255e+00, 1.54467905e+00,
          1.78979778e+00, 9.35968816e-01, 2.92357254e+00, 2.33093023e+00,
          5.22556639e+00, 3.37135291e+00, 5.01953030e+00, 2.81152844e+00,
          3.63207936e+00, 2.02622604e+00, 3.18084216e+00, 2.64552385e-01,
          9.22322810e-01, -1.78467727e+00, -1.91326058e+00,
          -1.47297144e+00, -1.26149428e+00, 1.86320984e+00,
          -2.68027115e+00 ]
      - [ -7.87979543e-01, -9.33841169e-01, 8.32485259e-01,
          3.69446963e-01, -1.22423537e-01, -3.48433077e-01,
          5.20382881e-01, 2.66108572e-01, 6.64672077e-01, 1.75256407e+00,
          2.52985668e+00, 2.28675747e+00, 1.68952549e+00, 9.31474626e-01,
          3.40783864e-01, -3.94758359e-02, -1.14250086e-01,
          -2.49731004e-01, -4.74277169e-01, 3.42209667e-01,
          4.95015867e-02, -6.79021537e-01, -9.44032669e-01,
          -8.71824205e-01, -6.57547891e-01, -2.30006620e-01,
          5.51099963e-02, -7.36025631e-01, -6.08473942e-02,
          3.31003368e-01, 3.58609378e-01, 1.74992308e-01,
          -4.05697823e-01, 2.19503082e-02, 5.37183344e-01,
          8.44173908e-01, 7.18455017e-01, 4.70498443e-01, 2.08658531e-01,
          -1.94148749e-01, 6.66427687e-02, 4.89656590e-02 ]
      - [ 4.98497903e-01, 1.08011878e+00, 7.82546818e-01,
          -1.23271309e-01, 4.68808562e-01, 8.74267697e-01,
          1.47089267e+00, 5.98399782e+00, 2.18136239e+00,
          -1.10757089e+00, -1.55395055e+00, -1.50978899e+00,
          -1.30147839e+00, -8.61465514e-01, -1.00337422e+00,
          -8.79054785e-01, -8.54366899e-01, -8.53882849e-01,
          -8.32971275e-01, -3.17171872e-01, -3.82119387e-01,
          -5.64489841e-01, -8.35420668e-01, -5.70406973e-01,
          2.49238983e-01, 8.42307746e-01, 1.91270187e-01,
          -3.06033075e-01, -1.08199787e+00, -6.50316238e-01,
          -1.61364213e-01, 5.38316727e-01, 2.59639829e-01,
          3.49862963e-01, 1.62315786e-01, 2.41311252e-01,
          -4.43285823e-01, 2.40183577e-01, 3.56169939e-01,
          9.81970787e-01, -3.35058808e-01, 7.10859299e-01 ]
      - [ -1.01441944e+00, -1.46663487e+00, -7.46818006e-01,
          1.04782724e+00, 2.77461362e+00, 2.29756784e+00, 1.99117172e+00,
          8.10669482e-01, 7.32728720e-01, 4.88175184e-01, 6.56199872e-01,
          1.05051553e+00, 9.20920849e-01, 1.23545015e+00, 1.59794140e+00,
          1.44647348e+00, 1.42788422e+00, 1.20883632e+00, 5.82341075e-01,
          4.32754785e-01, 3.51997465e-01, 6.79349005e-01, 1.30498374e+00,
          1.93243277e+00, 1.09532046e+00, 2.08034348e+00, 1.81222486e+00,
          3.35254788e+00, 9.03572500e-01, 1.20328748e+00, 3.24698061e-01,
          1.50718188e+00, -9.59716737e-02, 1.26801836e+00,
          3.44069749e-01, 1.48052895e+00, 1.07642837e-01,
          -7.96233356e-01, -1.14844632e+00, -9.82760668e-01,
          -3.16267550e-01, -1.30725217e+00 ]
      - [ 1.25744498e+00, 2.80928344e-01, 7.13881433e-01, 2.12348387e-01,
          -1.05531186e-01, -3.38880718e-01, -9.60411310e-01,
          -1.05495572e+00, -1.00757635e+00, -6.62854731e-01,
          -1.16205648e-01, 5.70880651e-01, 5.09806812e-01,
          1.99872613e-01, -1.07268833e-01, -5.38305163e-01,
          -5.85233510e-01, -8.67569149e-01, -1.09712577e+00,
          -1.31742918e+00, -1.61196828e+00, -1.23197567e+00,
          -8.22312355e-01, -7.13041902e-01, -2.51580566e-01,
          -4.83462751e-01, 4.11720008e-01, 6.41408205e-01,
          6.10464513e-01, -2.83560395e-01, -1.38756663e-01,
          -3.97518903e-01, 2.71111161e-01, 6.56719953e-02,
          -4.21574190e-02, -9.36124623e-02, 5.97359985e-02,
          2.05636337e-01, 7.79035926e-01, 1.04995453e+00,
          -5.23895502e-01, 1.42882252e+00 ]
      - [ -1.18611574e+00, -4.15255338e-01, -6.53183460e-01,
          1.06210887e+00, 1.04314828e+00, -1.18903983e+00,
          -1.16051865e+00, -1.16588485e+00, -1.09507763e+00,
          -8.11093450e-01, -1.03391516e+00, -4.62698728e-01,
          -5.62198125e-02, -1.14407130e-01, 2.01583013e-01,
          3.22351068e-01, 7.87346780e-01, 1.29290915e+00, 1.72515714e+00,
          1.50757861e+00, 1.32088721e+00, 1.98230100e+00, 2.21507692e+00,
          2.13965702e+00, 1.25087810e+00, 4.91368502e-01, 5.41396379e-01,
          7.72592366e-01, 9.88668382e-01, 9.65391815e-01, 5.39469779e-01,
          2.85090625e-01, 2.36697152e-01, -3.71544868e-01,
          -7.35094368e-01, -6.18326247e-01, -1.31758559e+00,
          -1.59081972e+00, -1.64998507e+00, -1.24109912e+00,
          -6.77306056e-01, -1.08238804e+00 ]
      - [ -1.66065036e-03, -1.31098732e-01, -7.53060341e-01,
          -5.37440300e-01, -5.78516841e-01, -3.32055204e-02,
          6.50452614e-01, 7.90500522e-01, 1.25773692e+00, 1.19448900e+00,
          1.09975946e+00, 1.40855289e+00, 9.56669927e-01, 1.10664690e+00,
          1.04983807e+00, 4.62866366e-01, 9.02912840e-02, 2.44930565e-01,
          1.33278340e-01, -3.77890378e-01, -1.00336456e+00,
          -6.10056221e-01, 2.09501132e-01, -3.03975642e-01,
          9.74754915e-02, 3.20773035e-01, 1.84786364e-01, 7.58016348e-01,
          2.79536098e-01, 9.15830195e-01, 6.63811266e-01, 1.86002135e-01,
          -1.30385697e-01, -5.45626432e-02, -6.48766607e-02,
          2.41311252e-01, 1.19619548e-01, -6.35012984e-01,
          -8.53423536e-01, -7.78809309e-01, -2.14609936e-01,
          2.00177491e-01 ]
      - [ 5.05947210e-02, 1.00552773e+00, 5.64066112e-01,
          -4.87454385e-01, -9.16363776e-01, -7.87841141e-01,
          -9.70416665e-01, -4.59972590e-01, -7.15905070e-01,
          -7.41334021e-01, -5.82708001e-01, -1.72215641e-01,
          -3.30295861e-01, -6.55380428e-01, -6.90172315e-01,
          -5.69921076e-01, -5.55628836e-01, -6.32947087e-01,
          -2.39318624e-01, -6.84678555e-01, -1.30947232e+00,
          -1.02877426e+00, -1.01144695e+00, -4.76214051e-01,
          -3.08491856e-01, -3.99145335e-02, -8.10501948e-02,
          6.34120226e-01, 4.40272748e-01, 5.58986723e-01, 8.89886796e-01,
          8.79621506e-01, 1.26911759e+00, 1.36639214e+00, 1.96394652e-01,
          -4.39700305e-01, -8.38517249e-01, -5.31371236e-01,
          1.29985780e-01, 5.94463170e-01, -3.63707751e-01,
          1.14398158e+00 ]
      - [ 2.87736130e+00, 2.88032264e-01, 1.45831659e-01, 5.12263834e-01,
          -6.37640059e-01, 5.11278450e-01, 1.30080140e+00,
          2.40815319e-02, -5.99236608e-01, -1.04653132e+00,
          -8.42725635e-01, -2.80302376e-01, -2.58797765e-01,
          -4.80208129e-01, -7.77172863e-01, -5.94511271e-01,
          -7.03652203e-01, -7.24840701e-01, -7.13406563e-01,
          -7.60310352e-01, -3.83022338e-01, -7.82469571e-01,
          -6.44413471e-01, -5.35421014e-01, -2.17433766e-01,
          3.11024725e-01, 8.46135855e-01, 7.36152351e-01, 2.00981879e+00,
          2.29364252e+00, 4.69925880e+00, 4.47983646e+00, 2.63420701e+00,
          2.36106062e+00, 1.96849573e+00, 1.46936488e+00, 1.52089465e+00,
          7.58392036e-01, 8.38040471e-01, 4.51697230e-01,
          -4.46574122e-01, 3.29508543e-01 ]
      - [ -1.24334776e+00, -2.44342327e+00, -1.99527907e+00,
          -4.51750159e-01, 1.37254906e+00, 1.30412352e+00,
          -2.80046403e-01, -1.02470243e+00, -3.75621974e-01,
          -3.14057797e-01, -7.73897469e-01, -2.33014420e-01,
          3.48936081e-01, 4.31718320e-01, 9.01937187e-01, 1.26380360e+00,
          1.40635359e+00, 1.42586172e+00, 1.30807102e+00, 1.12728918e+00,
          1.12709679e-01, 1.49215460e+00, 2.38735795e+00, 2.98739314e+00,
          2.04004836e+00, 3.77167559e+00, 2.14938331e+00, 4.91218185e+00,
          1.91526794e+00, 4.54373884e+00, 3.10542655e+00, 5.11840630e+00,
          2.02622604e+00, 3.92411089e+00, 7.87095010e-01, 2.30667400e+00,
          -1.47548693e-04, -2.43477672e-01, -7.64916718e-01,
          -4.45688784e-01, -4.33322750e-02, -2.01114917e+00 ]
      - [ -9.82070923e-01, -7.59795249e-01, -7.46818006e-01,
          -9.01779439e-03, 4.60362375e-01, 1.14173353e+00,
          1.17073166e+00, 8.61091733e-01, -2.00619236e-01,
          -5.05896091e-01, -7.66249895e-01, -7.53181815e-01,
          -7.05660880e-01, -9.54203784e-01, -6.11871839e-01,
          -1.72965378e-01, -3.64544123e-01, -5.46918988e-01,
          -4.21446234e-01, 6.66008936e-03, -2.38546714e-01,
          4.21960562e-01, 7.46725127e-02, -5.11200011e-01,
          1.50592715e-01, 1.45303413e-01, 1.45883456e-01,
          -2.25864962e-01, -2.02673852e-01, -3.62858951e-01,
          -5.96302450e-02, -6.72239810e-02, 7.29964733e-01,
          1.10198865e-02, -9.50927198e-01, -1.09838355e+00,
          -8.98400784e-01, -1.03806400e+00, -1.20745087e+00,
          -1.17311525e+00, 3.02426291e+00, -1.42818248e+00 ]
      - [ -2.13170484e-01, 5.15357554e-01, 3.26858521e-01,
          -4.16045934e-01, -2.06885263e-01, -1.08396399e+00,
          -5.50191283e-01, 7.50162721e-01, 1.26745927e+00,
          1.15088940e+00, 6.15562033e-03, 3.27685505e-01, 2.41688937e-01,
          8.07823598e-01, 1.48484075e+00, 9.26566839e-01, 3.70189995e-01,
          -2.87952032e-02, -2.86588371e-01, -2.35148653e-01,
          2.18357489e-01, -1.14983737e-01, -4.70259845e-01,
          -8.55676830e-01, -1.08627975e+00, -9.17262673e-01,
          -1.48155499e+00, -1.72719502e+00, -1.28055489e+00,
          -4.42157507e-01, -3.70226987e-02, 1.19943149e-01,
          3.05525184e-01, 1.55220938e+00, 2.54783654e+00, 1.94942212e+00,
          7.66361892e-01, 5.62624395e-01, 1.02488828e+00, 1.03635776e+00,
          -4.57664043e-01, 2.61131108e-01 ]
      - [ -1.70120430e+00, -1.53057003e+00, -1.63322544e+00,
          -6.73116326e-01, -8.86388421e-02, -5.39480090e-01,
          -9.90427375e-01, -7.62506425e-01, -2.58953482e-01,
          -6.11800030e-02, 9.02789906e-02, 5.43858945e-01,
          1.30224407e+00, 7.56302297e-01, 2.23333150e-01,
          -6.05049908e-01, -3.40322137e-01, -1.42262690e-03,
          -7.38744512e-02, 3.92275780e-01, 8.64885986e-01,
          1.09067786e+00, 1.55195162e-01, -4.68140393e-01,
          -1.13180888e+00, -2.54377395e-01, -8.65592241e-01,
          -5.97553492e-01, -7.32159317e-01, 4.79688168e-01,
          1.31943023e+00, 2.22282076e+00, 2.59979296e+00, 3.56340694e+00,
          9.80208576e-01, -1.49433076e-01, -1.61700332e+00,
          -1.84416604e+00, -2.07285118e+00, -2.04330778e+00,
          4.92680025e+00, -3.13898611e+00 ]
      - [ 9.04083326e-02, -5.28918028e-01, 4.59547676e-02,
          4.90841329e-01, 1.25430262e+00, 5.39935470e-01, 2.70248711e-01,
          8.51007283e-01, 8.20230067e-01, 6.36413872e-01, 3.27353954e-01,
          2.06087932e-01, -8.55441298e-03, -6.80379868e-02,
          -1.46419063e-01, -3.76712561e-01, -3.72618139e-01,
          -1.36330321e-01, -1.10021912e-01, -2.58583874e-01,
          -8.66112769e-01, -3.28037322e-01, 3.96763116e-01,
          5.35686731e-01, 5.22413313e-01, 5.30361772e-01, 5.73815465e-01,
          1.09326482e+00, 6.19919598e-01, 1.21319973e+00, 1.10465848e+00,
          1.08933315e-01, 3.62881869e-01, -3.05962324e-01,
          -1.21674776e-01, -3.77918445e-02, -9.59612280e-02,
          -4.73792553e-01, 3.16448510e-02, 4.72092360e-01,
          -4.82308298e-01, 3.44160855e-01 ]
      - [ -7.65584409e-01, -4.54326898e-01, -4.65914279e-01,
          2.26630077e-01, 6.54624343e-01, 8.64715397e-01, 6.80468738e-01,
          -2.68367827e-01, 3.14666599e-01, 4.88175184e-01,
          1.36742473e+00, 1.74632382e+00, 2.27938485e+00, 2.10615945e+00,
          1.64144158e+00, 1.58347595e+00, 1.19104683e+00, 9.27289784e-01,
          5.65657675e-01, 2.03728884e-01, 9.77078825e-03, 4.73684549e-01,
          1.15517414e+00, 9.77047682e-01, 1.02323282e+00, 9.05671775e-01,
          9.23941672e-01, 5.75816095e-01, 1.28254548e-01,
          -8.98124158e-01, -1.21261525e+00, -7.93872833e-01,
          -7.03952610e-01, -8.63413811e-01, -4.05665338e-01,
          4.31101352e-01, 5.38804412e-01, 4.01403993e-01,
          -1.84705198e-01, -1.94148749e-01, -5.79653144e-01,
          -6.25235975e-01 ]
      - [ 6.67705774e-01, 8.63449395e-01, 7.20123768e-01, 8.69306087e-01,
          2.29318190e+00, 1.02710533e+00, 2.10216537e-01, 4.57713336e-01,
          -3.27010095e-01, -5.23335934e-01, -4.60346699e-01,
          -6.24828815e-01, -3.95835787e-01, -2.38058165e-01,
          -3.20420116e-01, -6.01537049e-01, -5.61011493e-01,
          -8.24555099e-01, -8.07946086e-01, -1.23221028e+00,
          -1.88556898e+00, -1.45734453e+00, -9.36542153e-01,
          -3.87403607e-01, -6.94643632e-02, 1.69674188e-01,
          8.26684415e-01, 8.74624550e-01, 1.53706408e+00, 1.66916645e+00,
          2.07678294e+00, 1.58425069e+00, 7.07022071e-01, 9.72896993e-01,
          1.10516441e+00, 9.66979265e-01, 5.26827693e-01, 3.89888227e-01,
          3.75838101e-01, 4.38100457e-01, -4.93090153e-01,
          1.14417696e+00 ]
      - [ -1.25827789e+00, 1.45953953e-01, -1.60201383e+00,
          -1.38720083e+00, -1.51604199e+00, -6.82765305e-01,
          2.00211167e-01, 3.91261093e-03, 7.16072470e-02, 8.19532275e-01,
          1.69627059e+00, 1.44908535e+00, 8.91130030e-01, 1.24575436e+00,
          8.10586691e-01, 8.00103068e-01, 8.51938784e-01, 1.41022027e+00,
          1.64034963e+00, 1.06550539e+00, 8.40505719e-01, 1.64240050e+00,
          2.11208272e+00, 1.66869259e+00, 1.69099224e+00, 1.31510091e+00,
          8.78554940e-01, 7.28864312e-01, 7.05015481e-01, 3.31003368e-01,
          4.15128261e-01, -3.97518903e-01, -8.45003352e-02,
          1.10198865e-02, -1.21674776e-01, -4.17372048e-01,
          -7.78633714e-01, -1.89022899e+00, -1.74832606e+00,
          -1.56062293e+00, -4.37948614e-01, -1.24532163e+00 ]
      - [ -7.03375638e-01, 4.12350774e-01, -8.34210336e-01,
          4.55137104e-01, 9.41794217e-01, 5.78144848e-01, 5.10377526e-01,
          1.45095065e-01, 4.02167976e-01, 1.21938393e-01,
          -5.50250113e-02, 3.54707181e-01, 3.72768790e-01,
          7.97519326e-01, 1.19338894e+00, 9.68721449e-01, 6.20484054e-01,
          7.16129899e-01, 1.07172215e+00, 6.04257882e-01, 3.44773680e-01,
          5.48807502e-01, 6.77656054e-01, 9.50135410e-01, 8.48704815e-01,
          7.93566167e-01, 9.95263696e-01, 7.79880404e-01, 9.41392899e-01,
          5.09425104e-01, 1.89052776e-01, 2.52061129e-01, 4.66123939e-01,
          2.51489162e-01, -2.46630624e-01, 3.86444867e-01,
          1.18291611e-02, -8.88359308e-01, -1.26645541e+00,
          -9.28373635e-01, -2.19538793e-01, -8.21772277e-01 ]
      - [ -7.97932982e-01, -9.48049009e-01, -6.71910346e-01,
          1.19517408e-01, 5.19485593e-01, -4.43956554e-01,
          -7.40293264e-01, 2.40815319e-02, -1.61729738e-01,
          -1.83258936e-01, 4.34420049e-01, 4.62793916e-01,
          7.66008317e-01, 7.45998085e-01, 9.19337332e-01, 7.79025793e-01,
          7.44285405e-01, 7.53278434e-01, 1.36924362e+00, 1.71529984e+00,
          5.57875216e-01, 2.56936401e-01, 8.29338253e-01, 7.80588210e-01,
          7.46264458e-01, 1.08601558e+00, 1.18977821e+00, 1.07868874e+00,
          1.66943538e+00, 1.16363811e+00, 7.31633961e-01,
          -5.40646732e-01, -3.36869776e-01, -6.44805431e-01,
          -6.55577004e-01, -5.51341534e-01, -5.51076174e-01,
          -3.58635098e-01, -8.23921263e-01, -1.07113957e+00,
          -2.82381684e-01, -8.80186141e-01 ]
      - [ -8.52676690e-01, 6.89403474e-01, 1.53786576e+00,
          2.71164393e+00, 7.05301404e-01, -1.47833720e-01,
          -5.30180573e-01, -1.15580034e+00, -1.41591609e+00,
          -1.43020797e+00, -1.36276102e+00, -1.00988781e+00,
          -1.12869132e+00, -4.23534751e-01, 1.14582494e-01,
          5.08533835e-01, 7.52359390e-01, 8.11933935e-01, 6.26830280e-01,
          8.57784271e-01, 4.48615521e-01, 5.72206438e-01, 5.35336971e-01,
          4.44185048e-01, 7.19705820e-01, 4.18256164e-01,
          -2.91796457e-02, 2.25991651e-01, 2.42484827e-02,
          1.52581632e-01, -4.66566116e-01, -1.00253470e-01,
          2.59639829e-01, 5.46610534e-01, 1.16877295e-01, 1.07341759e-01,
          -3.60776782e-02, -3.58635098e-01, -1.74871102e-01,
          -1.66955248e-01, -5.79653144e-01, -2.74948061e-01 ]
      - [ -2.25612238e-01, 1.48859394e+00, 1.41926193e+00,
          1.66193986e+00, 1.16984093e+00, 1.23725700e+00, 4.01253067e-02,
          -8.53266537e-01, -8.81185412e-01, -1.14245057e+00,
          -1.10274339e+00, -1.34765887e+00, -1.14060760e+00,
          -9.18138921e-01, -7.90222943e-01, -1.94042668e-01,
          -1.94990098e-01, -1.28509596e-01, -6.13618642e-02,
          4.52961586e-03, -9.16679204e-01, -7.72617340e-01,
          -6.20287322e-02, 2.07357213e-01, 1.24034099e-01,
          4.29461263e-02, 7.45614544e-02, 2.18703642e-01, 3.92997265e-01,
          7.37408459e-01, 9.35101867e-01, 1.28698528e+00, 1.87709856e+00,
          1.50848758e+00, 7.14388043e-02, -5.73669791e-01,
          -6.70843303e-01, -9.22906578e-01, -7.35414445e-01,
          -6.08849883e-01, 2.56767450e-03, 3.14465523e-01 ]
      - [ -3.17681223e-01, 1.74369618e-01, 7.76304483e-01,
          1.74763000e+00, 1.34721053e+00, 5.27656302e-02,
          -4.20121521e-01, -1.47354305e-01, 1.88275740e-01,
          2.61457175e-01, -2.15624169e-01, 1.01807285e-02,
          4.38308716e-01, 7.87215054e-01, 1.18903887e+00, 5.05020976e-01,
          5.72040021e-01, 6.41832948e-01, 5.21168470e-01, 3.86171900e-02,
          -7.45114386e-01, -6.16213858e-01, -8.63727927e-02,
          1.02399416e-01, 4.42737460e-01, 7.74069548e-01, 1.54638827e+00,
          1.93138599e+00, 1.97199857e+00, 1.14381349e+00, 1.68115091e+00,
          1.59526050e+00, 2.27859545e+00, 2.69990349e+00, 1.19604146e+00,
          2.07818881e-01, 8.36894214e-02, 1.82604849e-01, 8.08153152e-02,
          -6.49640143e-01, -3.34442675e-01, -2.92921573e-01 ]
      - [ 2.32228599e-02, -3.69079918e-01, 1.08217752e+00,
          6.26517355e-01, 3.80537473e-02, -6.73212945e-01,
          -1.08047569e+00, -1.48858762e+00, -1.54230690e+00,
          -1.12501073e+00, -5.36822498e-01, -4.82964993e-01,
          -5.02616391e-02, 2.66850263e-01, 2.62483388e-01,
          2.34529004e-01, -1.78842098e-01, -1.24599218e-01,
          3.59895140e-01, 9.52590346e-01, 6.82485461e-01,
          -8.66586939e-02, -4.21571732e-01, -2.17856407e-01,
          -1.64316550e-01, -4.68840271e-01, -9.36914265e-01,
          -1.18059421e+00, -9.77991819e-01, -1.08645821e+00,
          -8.05679321e-01, -5.40646732e-01, -4.74525839e-01,
          -6.54930621e-02, -2.23911375e-01, -2.61074305e-01,
          -4.80543897e-02, 8.27486515e-01, -3.81387055e-01,
          -5.88454723e-01, -1.09563746e-01, 5.75616807e-02 ]
      - [ -6.38694242e-02, 1.13986343e-01, -1.64682884e-02,
          7.66723379e-02, -2.32223779e-01, -6.92317665e-01,
          -8.90373707e-01, -1.12554693e+00, -7.25627482e-01,
          -8.89572740e-01, -5.13879776e-01, 1.31778300e-01,
          7.66008317e-01, 9.36626732e-01, 5.93085349e-01, 4.20711786e-01,
          7.68346190e-02, -2.67327666e-01, -6.46672785e-01,
          -1.15870893e+00, -1.63815439e+00, -1.28862572e+00,
          -3.89737189e-01, -3.55108917e-01, -1.49140194e-01,
          -2.93370664e-01, -5.80304205e-01, -9.69241977e-01,
          -6.28153205e-01, -8.28737974e-01, -1.11088121e+00,
          -1.24527586e+00, -6.69538617e-01, -8.08761716e-01,
          -5.53340435e-01, -5.73669791e-01, -1.31891355e-01,
          2.28667825e-01, 7.98704147e-01, 1.15193021e+00,
          -2.99940705e-01, 1.25729275e+00 ]
      - [ -1.45985007e-01, -2.23449633e-01, 1.40677738e+00,
          -5.94567060e-01, -7.72778809e-01, -9.05196220e-02,
          -1.42065811e+00, -1.50875652e+00, -1.42563844e+00,
          -1.13373065e+00, -6.28593445e-01, -1.04661427e-01,
          -3.83452885e-02, -4.74294759e-02, 4.93321083e-02,
          6.94235191e-02, 4.50930029e-01, 8.23665023e-01, 3.82139742e-01,
          1.28097072e-01, -2.35837787e-01, 4.36738849e-01,
          1.40423250e+00, 1.79248893e+00, 2.68883729e+00, 1.18837285e+00,
          5.54364026e-01, 3.20735782e-01, 5.53733945e-01, 3.21091056e-01,
          -1.38756663e-01, -5.07617235e-01, -7.49837995e-01,
          -8.85274708e-01, -9.16848361e-01, -4.28536177e-01,
          -1.79798201e-01, -1.51351720e-01, -5.68619855e-02,
          -7.92406082e-01, -6.41263843e-01, -7.41137415e-02 ]
      - [ 3.96475494e-01, 9.87767935e-01, 3.76796961e-01, 9.09540281e-02,
          -4.51824278e-01, -4.27578688e-02, 6.20436549e-01,
          -7.12084115e-01, -8.03406477e-01, -1.00293171e+00,
          -1.06450546e+00, -1.14499629e+00, -1.09294224e+00,
          -9.59355950e-01, -9.99024153e-01, -4.25892919e-01,
          1.44117966e-01, -1.31537309e-02, -8.63870308e-02,
          -6.09046757e-01, -1.20653343e+00, -9.94291604e-01,
          -9.04707611e-01, -8.34147036e-01, -8.66222739e-01,
          -3.37238073e-01, -2.10726559e-01, 5.24800062e-01,
          7.23925710e-01, 8.66268575e-01, 9.46405649e-01, 9.56690311e-01,
          2.48168483e-01, 2.18697891e-01, -2.69349873e-01,
          8.21845651e-01, 2.29938078e+00, 1.43782091e+00, 6.61026835e-01,
          3.83713454e-01, -5.51004171e-01, 1.07189226e+00 ]
      - [ -9.62179899e-02, 7.10715234e-01, 1.25696206e+00,
          9.69277918e-01, -7.72778809e-01, -1.22724926e+00,
          -1.10048640e+00, -1.19613814e+00, -1.11452246e+00,
          -1.30812907e+00, -1.22510457e+00, -8.41002285e-01,
          -9.02280629e-01, -5.05968750e-01, -1.33368984e-01,
          -1.90529779e-01, -4.15679485e-01, -6.01664126e-01,
          -1.46169379e-01, 4.40211445e-01, -9.67799947e-02,
          3.15675735e-02, 1.17742762e-01, -4.57375467e-01,
          -2.32610121e-01, -6.78429008e-01, -7.55367339e-01,
          -8.08905780e-01, -7.22704172e-01, -7.09790111e-01,
          -6.58730268e-01, -3.97518903e-01, -3.82755131e-01,
          -1.96658120e-01, 2.19113901e-01, 3.52952480e-01,
          -1.21242581e-02, -4.77100238e-02, -8.23921263e-01,
          -7.85607696e-01, 1.84811532e+00, -7.71172941e-01 ]
      - [ 8.69262159e-01, 1.02328753e+00, 5.21970727e-02,
          -7.65947342e-01, -8.15009713e-01, -4.15299505e-01,
          1.03844402e-04, -9.69319940e-02, -7.45072186e-01,
          -7.76213765e-01, -9.34496641e-01, -1.09770834e+00,
          -1.04527688e+00, -8.66617620e-01, -9.85974073e-01,
          -1.27601051e+00, -1.18270957e+00, -1.28011298e+00,
          -1.39047635e+00, -1.55497694e+00, -1.46568668e+00,
          -1.32310843e+00, -8.87854040e-01, -1.11403453e+00,
          -1.20769060e+00, -1.70687604e+00, -1.57232845e+00,
          -1.50855470e+00, -1.11981833e+00, -1.01707196e+00,
          -9.18717086e-01, -3.97518903e-01, -1.00220740e+00,
          -5.57362020e-01, -6.32857800e-01, 1.07341759e-01,
          -4.79215950e-01, 1.13510385e-01, 8.57708693e-01,
          1.94734061e+00, -6.11993670e-02, 1.88148117e+00 ]
      - [ -1.45985007e-01, -9.20272022e-02, 1.93737328e+00,
          7.05066681e-01, 8.15101624e-01, 1.31367588e+00, 2.51145077e+00,
          4.60242653e+00, 4.56334400e+00, 9.24171388e-01,
          -6.74478948e-01, -1.09095287e+00, -1.06910956e+00,
          -1.09331119e+00, -1.19042528e+00, -6.47204518e-01,
          -9.27194133e-02, -1.81299552e-01, -1.68413982e-01,
          -2.33018175e-01, -1.61911827e-04, 6.85132816e-02,
          -5.26656322e-02, 2.04665974e-01, 5.30001462e-01,
          6.52215660e-01, 6.12718403e-01, 4.88359988e-01, 1.41414773e+00,
          1.29249835e+00, 1.65854335e+00, 2.48705673e+00, 3.76986957e+00,
          2.74362516e+00, 1.16196251e+00, 1.36888778e+00, 1.35322070e+00,
          1.56449413e+00, 8.57708693e-01, -3.77704978e-01,
          -5.29132426e-01, -1.62809059e-01 ]
      - [ -1.41008303e-01, 1.09795686e-02, 1.65022731e+00,
          1.55482721e+00, 1.98067343e+00, 1.18949533e+00,
          -1.79992750e-01, -1.47354305e-01, -2.78398246e-01,
          -3.31497639e-01, -4.60346699e-01, -5.09986699e-01,
          -4.79250222e-01, 4.26566184e-01, 3.10333669e-01,
          2.73170710e-01, 2.92141318e-01, 6.12505138e-01, 4.98923868e-01,
          2.68668693e-04, -1.28035303e-02, -2.92323142e-01,
          -5.91980100e-01, -4.97743845e-01, -5.24754882e-01,
          -9.61130083e-01, -1.22868609e+00, -1.04212213e+00,
          -1.02526736e+00, -9.17948842e-01, -5.00477433e-01,
          2.08546687e-02, 6.03779972e-01, 9.72896993e-01, 1.02564704e+00,
          7.10204422e-01, 1.22147679e+00, 1.24205327e+00,
          -1.74871102e-01, -1.53358489e-01, 4.47088659e-01,
          -3.39418232e-01 ]
      - [ 2.55885243e+00, 1.05880713e+00, 2.08718872e+00, 2.14037633e+00,
          2.58035183e+00, 1.69576979e+00, 1.06067264e+00, 1.24926135e-01,
          -4.82568085e-01, -9.50612187e-01, -1.30158043e+00,
          -1.32739258e+00, -1.09294224e+00, -9.49051678e-01,
          -1.08167470e+00, -1.48327053e+00, -1.81517303e+00,
          -1.81387818e+00, -2.00915408e+00, -2.14937901e+00,
          -2.63232732e+00, -2.30955887e+00, -2.35224271e+00,
          -2.35738063e+00, -2.49009228e+00, -2.18941736e+00,
          -2.31148386e+00, -1.89481926e+00, -1.64930367e+00,
          -5.55770695e-02, 4.21037190e-02, 1.00072968e+00,
          2.02622604e+00, 2.45943427e+00, 4.35401630e+00, 3.27795291e+00,
          4.75460625e+00, 4.53555584e+00, 4.08329105e+00, 3.18464541e+00,
          -2.56197125e-01, 2.12470961e+00 ]
      - [ 2.52151161e-01, -8.84752497e-02, -4.76798154e-02,
          5.19404709e-01, 8.40440154e-01, 1.54293227e+00, 3.40286285e-01,
          -3.38959038e-01, -3.85344356e-01, -4.53576565e-01,
          -3.53280604e-01, 3.07419240e-01, 3.54894251e-01,
          6.07651882e-02, 6.23821840e-02, -5.80459774e-01,
          -7.22491562e-01, -1.06308758e+00, -1.39325702e+00,
          -1.31955969e+00, -6.18698239e-01, -1.06325698e+00,
          -1.25676012e+00, -8.74515414e-01, -7.14459240e-01,
          -8.29527855e-01, -5.93271852e-01, -5.68401456e-01,
          -5.90332866e-01, -5.31368375e-01, -3.30920815e-01,
          -6.28725350e-01, -4.97468531e-01, -2.18518972e-01,
          2.07754269e-01, 7.10204422e-01, -1.47548693e-04,
          2.63215065e-01, 5.62685907e-01, 2.40947485e-01,
          -5.42378724e-01, 1.50892174e+00 ]
      - [ -1.77834320e+00, -2.21964979e+00, -3.00029039e+00,
          -2.37977815e+00, -1.14441037e+00, -5.20375371e-01,
          -2.30019569e-01, 7.45038316e-02, 8.59119594e-01,
          1.16832924e+00, 1.66568029e+00, 1.99627447e+00, 2.88711858e+00,
          4.04335928e+00, 4.12965631e+00, 4.43944931e+00, 4.33990765e+00,
          3.55701232e+00, 2.94443893e+00, 3.11395574e+00, 1.92046106e+00,
          2.32097006e+00, 2.19822335e+00, 1.88937306e+00, 1.37228882e+00,
          4.37752783e-01, -4.18208748e-01, -8.30769777e-01,
          -6.75428689e-01, -9.47685778e-01, -3.08313280e-01,
          -9.25990820e-01, -5.31882524e-01, -1.03830063e+00,
          -7.35094368e-01, -9.86742377e-01, -1.60502660e+00,
          -1.57930398e+00, -1.89583743e+00, -1.75777590e+00,
          -5.13421714e-01, -2.64334750e+00 ]
      - [ 5.08451283e-01, -6.78100228e-01, 1.39589354e-01,
          5.33686399e-01, 4.01239157e-01, 3.96650225e-01, 1.70195073e-01,
          -8.68475363e-02, -3.85344356e-01, -1.30939394e-01,
          2.27935418e-01, 4.96571034e-01, 2.65521646e-01, 5.04609309e-02,
          2.79883474e-01, 2.27503240e-01, 1.46809295e-01, 1.76499113e-01,
          -3.35561186e-02, 2.21837908e-01, 1.66888043e-01,
          3.89940947e-01, 1.83284461e-01, 5.03391981e-01, 4.12384748e-01,
          5.49858391e-01, 1.32915825e-01, 9.62080657e-01, 5.44278860e-01,
          1.33214760e+00, 1.97504902e+00, 7.91542828e-01,
          -3.59812468e-01, -3.49684030e-01, 3.28107225e-03,
          1.07341759e-01, 5.26827693e-01, 2.51699328e-01,
          -4.30557519e-01, -1.39761731e-01, -5.05412281e-01,
          -1.31941527e-01 ]
      - [ -6.28725111e-01, -8.55698109e-01, -2.05145979e+00,
          -1.49431348e+00, 5.49460910e-02, 1.15128589e+00,
          4.80361402e-01, 7.29993761e-01, 9.85510409e-01, 1.78744376e+00,
          1.35212958e+00, 1.65850341e+00, 2.06489038e+00, 1.45699155e+00,
          1.36303997e+00, 1.50267959e+00, 1.60551226e+00, 1.54317272e+00,
          1.15652966e+00, 5.48865616e-01, -5.07283844e-02,
          1.20520961e+00, 1.93980181e+00, 2.75594759e+00, 2.41945696e+00,
          2.03160191e+00, 2.00673938e+00, 1.27546501e+00, 1.70725584e+00,
          1.72864032e+00, 2.23503590e+00, 1.00072968e+00, 2.25225806e-01,
          3.28807309e-02, -2.35270992e-01, -1.16536832e+00,
          -1.43735278e+00, -1.11867416e+00, -6.86243951e-01,
          -6.63236916e-01, -5.67947149e-01, -1.34456670e+00 ]
      - [ -1.18860412e+00, -1.63357687e+00, -1.60825622e+00,
          -8.94482553e-01, -5.44732153e-01, -2.81566620e-01,
          -1.79992750e-01, -4.59972590e-01, 1.39663860e-01,
          1.39378235e-01, 7.25028038e-01, 1.65850341e+00, 3.25056720e+00,
          3.98153377e+00, 3.69900393e+00, 2.26848793e+00, 1.55975962e+00,
          1.55490386e+00, 1.78632975e+00, 2.36189842e+00, 2.20580053e+00,
          2.65348148e+00, 1.31996465e+00, 1.72789955e+00, 2.08178329e+00,
          1.20299530e+00, 1.59177494e+00, 1.85121787e+00, 1.87744761e+00,
          2.12055549e-01, -3.30920815e-01, -9.81039941e-01,
          -4.63054508e-01, -7.86900878e-01, -5.41980803e-01,
          -1.31050193e+00, -9.10377502e-01, -1.22231591e+00,
          -1.06977355e+00, -1.15951860e+00, -1.29279152e-01,
          -2.49408913e+00 ]
      - [ 7.24937856e-01, 6.39676094e-01, 1.23823512e+00, 2.69475132e-01,
          1.13605618e+00, 8.83820057e-01, 6.10431194e-01,
          -4.90225971e-01, -1.08535528e+00, -1.46508765e+00,
          -1.64572144e+00, -1.40170217e+00, -1.15848219e+00,
          -6.91445351e-01, -6.77122235e-01, -9.10670698e-01,
          -6.30986154e-01, -7.22885549e-01, -6.64746523e-01,
          -4.91870701e-01, -9.17582214e-01, -1.16916800e+00,
          -9.96465981e-01, -8.28764617e-01, -5.09578526e-01,
          -7.02799797e-01, -3.53370577e-01, -1.60272881e-01,
          5.44278860e-01, 1.36188459e+00, 1.53420186e+00, 4.61247921e-01,
          6.49665356e-01, 3.82654220e-01, 1.96394652e-01,
          -4.73192662e-01, -8.02587092e-01, -8.22572559e-02,
          -1.15866549e-01, 1.19951892e+00, -4.80151922e-01,
          1.21763384e+00 ]
      - [ 3.86522114e-01, 1.38850048e-01, -5.78275800e-01,
          5.52498065e-02, 1.05623126e-01, -2.91118979e-01,
          2.70248711e-01, 8.51007283e-01, 4.11890358e-01,
          -3.48937482e-01, -8.42725635e-01, -6.51850522e-01,
          -4.97124761e-01, -2.22601786e-01, -1.07268833e-01,
          3.07818148e-02, 2.97524005e-01, 1.86275035e-01, 1.88889831e-01,
          3.11317801e-01, 4.67926711e-02, -3.84687424e-01,
          -6.72502756e-01, -7.42645383e-01, -4.64049459e-01,
          -4.00602102e-01, -2.95016199e-01, 2.92153805e-02,
          4.31586765e-02, -1.44787937e-01, 5.39469779e-01,
          -3.53479594e-01, -8.07194650e-01, -1.11481357e+00,
          -7.01015532e-01, -3.83879662e-01, -1.21242581e-02,
          7.00813293e-01, 5.82354069e-01, 9.81815308e-02,
          -5.95979989e-01, 5.30538261e-01 ]
      - [ -3.05239469e-01, -5.00502348e-01, -7.84271836e-01,
          -7.30243087e-01, -7.30547965e-01, 3.96650225e-01,
          6.80468738e-01, -8.68475363e-02, -9.78409171e-01,
          -1.15989041e+00, -7.20364392e-01, -2.19503582e-01,
          3.78726959e-01, 1.28697133e+00, 1.71104205e+00, 1.78722310e+00,
          1.68894362e+00, 9.09693122e-01, 3.30699116e-01, 4.26363379e-01,
          4.32362020e-01, 6.90432727e-01, 4.94139344e-01, 4.87244666e-01,
          1.77151322e-01, 1.69674188e-01, -1.97758928e-01,
          -7.36025631e-01, -1.15763867e+00, -9.27861154e-01,
          -4.66566116e-01, 3.40139776e-01, -3.02455783e-01,
          -4.37127411e-01, 3.66788983e-01, -4.29947348e-03,
          -1.44932938e+00, -1.47566223e+00, -1.16811454e+00,
          1.86560452e-01, -4.92474049e-01, -2.62444764e-01 ]
      - [ -3.92331749e-01, -5.89301288e-01, -3.51952054e-02,
          -4.51750159e-01, -9.24809933e-01, -4.24851865e-01,
          -2.10008845e-01, 6.44193739e-02, -2.39508733e-01,
          -3.66377324e-01, -2.30919331e-01, 5.50614417e-01,
          6.70677543e-01, 5.29608727e-01, 7.62736380e-01, 7.15793908e-01,
          9.48826790e-01, 9.74214196e-01, 7.21369803e-01, 3.26231122e-01,
          4.44100678e-01, 7.47082829e-01, 1.05030739e+00, 1.48838055e+00,
          1.63787496e+00, 4.23130304e-01, 5.54364026e-01,
          -5.82407378e-02, -5.13922945e-02, -3.03385049e-01,
          2.56875426e-01, -6.50745034e-01, -2.45099083e-01,
          -9.07135546e-01, 9.41580534e-02, -2.66277213e-02,
          -4.55262512e-01, -8.65327835e-01, -1.33529413e+00,
          -1.30228448e+00, 4.06425625e-01, -1.01791787e+00 ]
      - [ -4.42098767e-01, 3.58432718e-02, -7.71787226e-01,
          -5.08876920e-01, -7.47440338e-01, 7.59639502e-01,
          2.00117707e+00, 1.86953783e+00, 1.03412235e+00, 7.14893222e-01,
          -1.46795958e-01, -3.68122846e-01, 5.10273352e-02,
          5.70825756e-01, 6.49635673e-01, 4.03147370e-01, 6.60692826e-02,
          -1.98896214e-01, -4.96521741e-01, -7.02787578e-01,
          -1.31127834e+00, -5.55869222e-01, 2.84405917e-01,
          7.69823313e-01, 7.57646680e-01, 8.86175156e-01, 4.31171477e-01,
          6.85136259e-01, 3.55176896e-01, 1.82318583e-01,
          -2.97009498e-01, -7.82338083e-02, -4.74525839e-01,
          -8.85274708e-01, -8.94129097e-01, -7.63459861e-01,
          -1.43868059e-01, -4.85308290e-01, 1.39819875e-01,
          -1.19366586e-01, -5.89818895e-01, 7.27660656e-01 ]
      - [ 1.05588853e+00, 1.32520390e+00, 8.63696814e-01,
          -3.08933258e-01, -1.00082552e+00, -9.50231135e-01,
          -1.23055613e+00, -9.74280059e-01, -9.88131583e-01,
          -8.45973134e-01, -1.17921913e+00, -1.18552876e+00,
          -1.40872550e+00, -1.51578557e+00, -1.28177583e+00,
          -1.45516753e+00, -1.28767169e+00, -1.01029754e+00,
          -1.08461320e+00, -7.81615078e-01, -9.70857620e-01,
          -9.17937160e-01, -4.40297931e-01, 5.39573543e-02,
          2.11298108e-01, 1.79422498e-01, -3.24437139e-03,
          6.56554326e-02, -9.86677781e-02, -1.54700264e-01,
          -2.17883080e-01, -4.19538558e-01, -1.15133488e+00,
          -6.33875012e-01, -3.14788342e-01, 3.64116609e-01,
          -1.21242581e-02, -2.31961921e-01, -1.94539294e-01,
          -4.79680657e-01, 3.55904877e-01, 9.66981709e-01 ]
      - [ -1.34537017e+00, -1.52410477e-01, -1.02147949e+00,
          -3.73200864e-01, -5.10947466e-01, 2.41085812e-02,
          2.00211167e-01, -5.65941520e-02, -2.20063984e-01,
          4.35855657e-01, 5.49133718e-01, 3.27685505e-01, 1.04008436e+00,
          1.67853296e+00, 2.14604473e+00, 1.41837037e+00, 1.09415877e+00,
          1.02700412e+00, 1.30111957e+00, 1.47455633e+00, 1.79765677e+00,
          1.51185894e+00, 8.04994226e-01, 9.82430160e-01, 1.45575881e+00,
          1.83176148e+00, 1.74738669e+00, 1.68359363e+00, 1.95308828e+00,
          1.91697443e+00, 2.05417538e+00, 7.69523203e-01,
          -4.20096284e-03, -4.37127411e-01, -8.71409833e-01,
          -6.40654504e-01, -7.42703557e-01, -3.47119361e-01,
          -5.78068912e-01, -5.20470917e-01, -5.82117558e-01,
          -1.48229837e+00 ]
      - [ -1.63403466e-01, 8.27929854e-01, 2.14961171e+00,
          6.83644116e-01, 3.59008312e-01, 2.05603227e-01, 9.40608263e-01,
          9.92189765e-01, -1.52007371e-01, -6.89014494e-01,
          -8.19782913e-01, -1.30037093e+00, -1.18231487e+00,
          -1.26333141e+00, -1.34267628e+00, -7.10436404e-01,
          -8.57058227e-01, -5.03904939e-01, -4.84009176e-01,
          1.24901369e-01, -1.31995931e-01, -1.42077252e-01,
          2.84405917e-01, 5.24921834e-01, 8.79057527e-01, 2.67157316e-01,
          8.26684415e-01, 5.46664059e-01, 6.67195082e-01, 4.89600480e-01,
          1.19508862e+00, 9.23660815e-01, 1.26911759e+00, 1.84733069e+00,
          1.59362817e+00, 6.54383838e-01, 5.50781131e-01, 2.51699328e-01,
          -4.60059822e-01, -8.39994729e-01, -3.66480231e-01,
          2.38664225e-01 ]
      - [ -1.34537017e+00, -7.95314848e-01, -2.89417124e+00,
          -2.28694725e+00, -1.28799534e+00, -5.10823011e-01,
          -1.17052400e+00, -1.43816531e+00, -4.63123351e-01,
          -2.18138635e-01, 2.89116055e-01, -5.73734790e-02,
          1.22525439e-01, 2.72002399e-01, 1.97232991e-01,
          -1.13727758e-02, 4.48238701e-01, 9.35110509e-01,
          1.53746843e+00, 1.79732311e+00, 1.35158825e+00, 2.64116621e+00,
          2.92667246e+00, 2.44107437e+00, 1.85034394e+00, 1.44182897e+00,
          7.81297684e-01, -7.22466782e-03, -1.55398369e-01,
          3.89684364e-03, -9.52628374e-01, -1.32234466e+00,
          -9.79264736e-01, -1.25690901e+00, -1.57570648e+00,
          -1.34399426e+00, -1.25770211e+00, -1.68294561e+00,
          -1.53197598e+00, -1.06434119e+00, -3.17191690e-01,
          -1.21855676e+00 ]
      - [ -9.12570301e-03, -6.53236508e-01, -1.37729084e+00,
          -1.03729939e+00, -1.44847262e+00, -1.63800037e+00,
          -1.06046498e+00, -7.72590876e-01, -4.53400970e-01,
          -1.57099158e-01, 5.96886761e-02, -1.99237317e-01,
          4.56183225e-01, 5.14152348e-01, 6.88785911e-01, 1.27082932e+00,
          1.30946553e+00, 1.33201289e+00, 1.04808736e+00, 9.14241791e-01,
          7.77297616e-01, 7.66787171e-01, 8.63045454e-01, 2.23504558e-01,
          -4.45079029e-01, -5.90694189e-01, -9.69333351e-01,
          -8.89073849e-01, -7.13249087e-01, -9.77422714e-01,
          -6.24818921e-01, -2.10351780e-01, -5.54825246e-01,
          -1.22411776e+00, -4.17024970e-01, -8.63936961e-01,
          -9.10377502e-01, -7.27138937e-01, 1.49653971e-01,
          3.01977433e-02, -6.20624244e-01, -2.28842124e-01 ]
      - [ 3.31762619e-02, -6.28372788e-01, 7.26366043e-01,
          1.46913707e+00, 2.17493534e+00, 3.52026868e+00, 4.10230398e+00,
          3.57381177e+00, 3.07582092e+00, 1.63048518e+00, 8.26314092e-02,
          -7.46426404e-01, -6.34162784e-01, -7.22358108e-01,
          -4.07420635e-01, -2.39710137e-01, -2.19212100e-01,
          -1.34375140e-01, -8.08258802e-02, -8.81459787e-02,
          -1.26578093e-01, -1.27298981e-01, 4.51069087e-01,
          -6.98390156e-02, 6.33286983e-02, -3.56734693e-01,
          -4.50627863e-01, -2.62305021e-01, 3.83542180e-01,
          1.09425199e+00, -5.96302450e-02, 1.41962811e-01,
          -1.64799705e-01, -9.82843265e-02, 3.73599380e-02,
          -1.15940712e-01, -7.20078051e-02, 1.59573361e-01,
          6.80694997e-01, 1.19272053e+00, -4.44417745e-01,
          -7.07372747e-05 ]
      - [ -1.17865062e+00, -9.62256849e-01, -1.07766020e+00,
          -2.01820597e-01, 1.21207178e+00, 1.79129326e+00,
          9.70624328e-01, 8.40922832e-01, -4.50612493e-02,
          -1.22219466e-01, -2.44346969e-02, 2.39865035e-01,
          8.55380952e-01, 1.06027782e+00, 1.03243804e+00, 7.05255270e-01,
          7.71198750e-01, 1.02309382e+00, 1.03279412e+00, 2.07748032e+00,
          1.96651268e+00, 2.72121525e+00, 2.38923049e+00, 2.92011237e+00,
          2.86715937e+00, 2.50439501e+00, 1.63067794e+00, 1.89494586e+00,
          1.05485404e+00, 2.41792500e-01, -4.83264700e-02,
          3.18645015e-02, -2.71436404e-02, -1.96658120e-01,
          -3.60226840e-01, -7.41131604e-01, -1.14991164e+00,
          -1.36050487e+00, -1.59098053e+00, -1.55382454e+00,
          -7.20741570e-01, -1.85036445e+00 ]
      - [ -4.89393175e-02, 1.16536582e+00, -4.90883499e-01,
          -1.02301776e+00, -1.49914968e+00, -6.73212945e-01,
          -7.30287850e-01, -2.28029981e-01, 5.18836439e-01,
          -3.66377324e-01, -4.14461225e-01, -2.12748155e-01,
          -3.30295861e-01, -3.30796450e-01, -3.29120159e-01,
          -7.42052317e-01, -5.98690152e-01, -7.65899599e-01,
          -8.00994635e-01, -2.83084303e-01, -3.53778489e-02,
          -4.42569017e-01, -4.12208617e-01, -1.07516170e-01,
          2.68209428e-01, 4.81620193e-01, -2.43145660e-01,
          -6.70433581e-01, -1.46020174e+00, -1.12610757e+00,
          -1.07696986e+00, -9.37000632e-01, -9.79264736e-01,
          -4.04336125e-01, 1.05517671e-01, -8.24483410e-02,
          3.95083874e-01, -1.16804488e-01, -3.12548399e-01,
          6.28455102e-01, -4.73682791e-01, 9.44710195e-01 ]
      - [ -3.10216159e-01, 2.38304853e-01, 1.52538121e+00,
          1.04068637e+00, -5.36285996e-01, -1.30366802e+00,
          -1.02044344e+00, -1.04487133e+00, -9.00630176e-01,
          -8.72132897e-01, -3.68575752e-01, 1.58799991e-01,
          -8.60106871e-02, 3.49284291e-01, 1.40682653e-01,
          4.83462289e-02, -3.18791449e-01, -5.46918988e-01,
          -5.28498352e-01, -5.40871620e-01, -8.85978162e-01,
          -3.46510172e-01, 5.93388200e-01, 1.18158078e+00,
          1.63408089e+00, 2.76759958e+00, 3.29701924e+00, 3.25051570e+00,
          3.16334081e+00, 2.51171350e+00, 3.24107170e+00, 2.31089950e+00,
          1.76238525e+00, 7.65218973e-01, -4.73823071e-01,
          -1.49433076e-01, -4.55262512e-01, 1.82604849e-01,
          2.87331283e-01, -1.26149428e+00, -6.27093375e-01,
          1.93730474e-01 ]
      - [ 4.83567774e-01, 8.20825934e-01, -1.64682884e-02,
          -4.44609314e-01, -9.24809933e-01, -1.01709759e+00,
          -6.70255661e-01, -9.13773298e-01, -8.61740708e-01,
          -8.37253213e-01, -9.80382085e-01, -1.15850711e+00,
          -8.90364289e-01, -3.97774100e-01, -3.24770123e-01,
          1.08065233e-01, 9.02912840e-02, 4.55017909e-02,
          -3.35248441e-01, -6.69765234e-01, -1.26251781e+00,
          -1.40315747e+00, -1.33353758e+00, -1.00100303e+00,
          -9.61074889e-01, -8.53898644e-01, -4.63595480e-01,
          -4.22641218e-01, -5.14692068e-01, 3.90477270e-01,
          1.55141458e-01, 3.62159431e-01, 9.36448812e-01, 5.68471372e-01,
          4.80385214e-01, 7.43696809e-01, 1.07642837e-01,
          -8.30780625e-01, -7.45248497e-01, -3.02922815e-01,
          5.84480464e-01, 7.37038136e-01 ]
      - [ -4.96842504e-01, -1.41754612e-01, -3.78522009e-01,
          -2.32994836e-02, 2.15423375e-01, -4.63061273e-01,
          -4.80153710e-01, -1.97776601e-01, 1.32729979e-02,
          2.52737254e-01, 5.41486144e-01, 5.84391475e-01, 1.13541520e+00,
          8.74801219e-01, 6.23535573e-01, 5.99868774e-01, 6.60854042e-01,
          4.65866357e-01, 7.07154199e-02, 9.93356854e-02, 6.84640184e-02,
          -1.74096867e-01, 2.20736846e-01, 1.26770008e+00,
          1.53543460e+00, 1.42233241e+00, 6.25686049e-01, 1.31247520e-01,
          1.75530046e-01, 2.91354090e-01, 3.02090526e-01,
          -2.31846552e-02, -1.53328374e-01, -5.13640344e-01,
          -6.55577004e-01, -9.36124623e-02, -2.87588596e-01,
          -3.93182337e-01, -5.28898478e-01, -4.32092011e-01,
          -5.75340390e-01, -6.51269928e-02 ]
      - [ 2.59616196e-01, 2.48960733e-01, 2.89404690e-01, 6.55080736e-01,
          4.09685344e-01, 1.05576241e+00, 1.13071024e+00, 2.45939672e-01,
          -4.53400970e-01, -8.11093450e-01, -5.75060368e-01,
          -8.07225168e-01, -9.26113367e-01, -8.87226164e-01,
          -1.01207423e+00, -1.00551856e+00, -5.28715491e-01,
          -1.42195880e-01, 9.71308723e-02, 4.82043214e-02,
          1.43410757e-01, -1.77791446e-01, -3.11087161e-01,
          -4.57375467e-01, -1.14993408e-01, 1.69674188e-01,
          4.86261770e-02, -2.62305021e-01, -3.06679934e-01,
          -3.33122015e-01, -6.02211416e-01, -4.85597551e-01,
          -7.95723319e-01, -9.94578898e-01, -4.62463439e-01,
          -1.15940712e-01, 7.66361892e-01, 1.20750606e+00,
          2.57829010e-01, 1.18576668e-01, 1.22400425e-01, 1.63449034e-01 ]
      - [ 6.25403821e-01, 1.20798934e+00, -4.15975839e-01,
          -4.80313540e-01, -7.98117340e-01, -2.72014260e-01,
          8.90581429e-01, 6.08980238e-01, -7.45072186e-01,
          -8.89572740e-01, -1.31687558e+00, -1.19228423e+00,
          -1.37297642e+00, -1.34061337e+00, -1.36877644e+00,
          -1.24790740e+00, -1.23653626e+00, -7.75675476e-01,
          -1.05958807e+00, -1.15870893e+00, -8.63403857e-01,
          -1.14700055e+00, -1.19121850e+00, -9.76781964e-01,
          -1.03316259e+00, -1.11710310e+00, -1.55936086e+00,
          -1.88753116e+00, -2.02750754e+00, -2.13716412e+00,
          -1.78910768e+00, -1.80677724e+00, -8.30137372e-01,
          -8.63413811e-01, -3.94305706e-01, 4.03570198e-02,
          2.15433225e-01, 7.35360563e-01, 2.13614082e+00, 2.13089681e+00,
          -4.33327824e-01, 1.86116326e+00 ]
      - [ -3.69936585e-01, 2.19543362e+00, 1.90616179e+00,
          5.33686399e-01, -1.25421071e+00, -1.82904732e+00,
          -1.83087814e+00, -2.09365511e+00, -1.87286758e+00,
          -1.43020797e+00, -1.23275220e+00, -1.20579505e+00,
          -9.73778725e-01, -8.20248485e-01, -3.50870281e-01,
          1.04552351e-01, -1.06176086e-01, -4.96084183e-01,
          -9.33071911e-01, -1.05218518e+00, -8.70627642e-01,
          -6.72863960e-01, -1.14462085e-01, -2.40881816e-02,
          -1.90875158e-01, -2.88496494e-01, -2.04242751e-01,
          -2.62305021e-01, -2.12128952e-01, -4.71894473e-01,
          -3.30920815e-01, -1.17921686e+00, -1.62165976e+00,
          -1.51923919e+00, -1.50754869e+00, -1.23235309e+00,
          -1.19781852e+00, -1.00351679e+00, -1.24678731e+00,
          -1.02355099e+00, 3.43767047e+00, -1.03628206e+00 ]
      - [ -4.89393175e-02, -4.50774938e-01, 1.08377822e-01,
          1.04782724e+00, 1.91310406e+00, 4.63516682e-01, 2.10216537e-01,
          -6.17185002e-03, 1.59108609e-01, -3.40217561e-01,
          2.66173303e-01, 3.07419240e-01, -5.62198125e-02,
          2.30785370e-01, 8.41323137e-02, -2.54243053e-02,
          -6.59673149e-03, -2.32134342e-01, -4.08933669e-01,
          -1.27559736e-01, 1.73208848e-01, 7.86491573e-01,
          7.09272698e-02, 6.74134791e-02, 4.05641757e-02, 1.84296653e-01,
          5.67331672e-01, 2.69719720e-01, 7.99566448e-01, 4.69775826e-01,
          6.18596196e-01, -2.10351780e-01, 1.33455098e-01,
          2.62419581e-01, 1.16196251e+00, 7.99517453e-01, 3.71130466e-01,
          3.78372490e-01, 8.18372309e-01, 4.04108584e-01,
          -4.38872784e-01, -2.11700629e-02 ]
      - [ -5.06795883e-01, -6.35476708e-01, -8.34210336e-01,
          -7.51665652e-01, -7.05209434e-01, 8.14226791e-02,
          9.10592139e-01, 4.47628886e-01, 1.21884739e+00, 2.89487410e+00,
          3.75346947e+00, 2.59750700e+00, 1.38565850e+00, 1.08603847e+00,
          4.97384787e-01, -7.85989314e-03, -2.48816773e-01,
          2.64482409e-01, 1.28999722e+00, 1.37868500e+00, 1.00213778e+00,
          1.18057907e+00, 5.91515541e-01, -1.29045978e-01,
          -6.95488811e-01, -1.13659966e+00, -1.49452269e+00,
          -1.36279452e+00, -1.68712413e+00, -1.71093440e+00,
          -1.81171525e+00, -1.59759045e+00, -1.48400366e+00,
          -1.11481357e+00, -8.94129097e-01, -9.64414120e-01,
          5.86711228e-01, 2.60091114e+00, 1.12322915e+00, 6.76043749e-01,
          -5.98444402e-01, -5.05477726e-01 ]
      - [ -1.75845221e-01, 3.62623364e-01, -7.53060341e-01,
          1.36916518e+00, 1.34721053e+00, 1.87726450e+00, 1.06067264e+00,
          4.98051167e-01, 1.97998106e-01, -6.19255126e-01,
          -2.46214494e-01, -1.92481890e-01, -2.40923241e-01,
          -9.37986150e-02, -4.20184396e-02, -1.06220603e-01,
          -2.19212100e-01, -4.96084183e-01, -5.88280678e-01,
          -8.58312130e-01, -1.49277580e+00, -1.30463552e+00,
          -1.20619941e+00, -6.96894526e-01, -6.49959743e-01,
          2.96402246e-01, 3.85784745e-01, 7.43440330e-01, 8.75207245e-01,
          1.19337511e+00, 4.71647143e-01, 4.72257733e-01, 1.83121324e+00,
          2.71083403e+00, 1.63906670e+00, 1.96654752e-01, 9.57989216e-01,
          7.46876299e-01, -8.63642693e-02, -1.05769835e-01,
          -5.21739125e-01, 1.06095183e+00 ]
      - [ -3.84866685e-01, 8.59897435e-01, -4.03491229e-01,
          -4.01764244e-01, -1.81546748e-01, -1.95595473e-01,
          -9.70416665e-01, -7.52421916e-01, -4.92290467e-01,
          -6.10535204e-01, -6.59183741e-01, -1.01664329e+00,
          -1.03931868e+00, -6.81141078e-01, -2.86820554e-03,
          -1.83985401e-02, -1.76150769e-01, 1.39350623e-01,
          -1.05851054e-01, -5.40584065e-02, -5.38333654e-01,
          -1.64618474e-02, 6.66420341e-01, 6.16423488e-01,
          2.03709930e-01, -5.17581820e-01, -6.38658583e-01,
          -2.11288944e-01, -1.45943269e-01, 5.68899035e-01,
          3.58609378e-01, 1.41962811e-01, -3.02455783e-01,
          -7.64234886e-02, -8.82769465e-01, -9.75578249e-01,
          -8.38517249e-01, -7.96233356e-01, -7.84584880e-01,
          -7.10825562e-01, -2.74064243e-01, 5.01624346e-01 ]
      - [ -5.41632831e-01, -9.97776389e-01, -1.35856402e+00,
          -1.77994728e+00, -1.07684100e+00, -1.33232510e+00,
          -8.30341518e-01, -6.41492844e-01, -4.63123351e-01,
          6.96188509e-02, 6.71495020e-01, 1.16535771e+00, 8.73255491e-01,
          8.07823598e-01, 4.75634664e-01, 8.66847873e-01, 1.01611018e+00,
          1.11694264e+00, 8.64569426e-01, 7.71500051e-01, 3.14072609e-01,
          8.89939547e-01, 9.41695452e-01, 1.21387553e+00, 9.20792460e-01,
          7.15579689e-01, 4.18203831e-01, -3.42473119e-01,
          -5.90332866e-01, -1.12610757e+00, -4.32654798e-01,
          -1.06911862e+00, -1.04809284e+00, -1.37714362e+00,
          -1.08724272e+00, -1.46679962e+00, -1.62898004e+00,
          -1.62536693e+00, -8.33755374e-01, -4.18495268e-01,
          7.41895735e-01, -1.06597745e+00 ]
      - [ 1.27984011e+00, 3.66175324e-01, 5.57823837e-01, 6.19376540e-01,
          7.47532248e-01, -2.14700162e-01, -5.10169804e-01,
          6.44193739e-02, -6.17175130e-03, -7.86198527e-02,
          -3.15042704e-01, -4.08655375e-01, 2.71946359e-02,
          2.05024734e-01, -7.68186450e-02, -2.67813206e-01,
          -5.07184803e-01, -8.73434722e-01, -9.56706822e-01,
          -1.31849444e+00, -1.88286006e+00, -1.43148255e+00,
          -1.29046726e+00, -6.94203317e-01, -7.86546886e-01,
          -3.01662199e-02, 3.66333276e-01, 5.83104134e-01,
          7.05015481e-01, 6.77934527e-01, 7.42937684e-01, 1.48516214e+00,
          1.26911759e+00, 1.36639214e+00, 1.50275123e+00, 1.96058631e+00,
          1.35322070e+00, 1.29963195e+00, 1.00522006e+00, 3.01977433e-02,
          -4.95862633e-01, 1.28327620e+00 ]
      - [ -1.27071965e+00, -4.96950388e-01, 9.58932117e-02,
          2.91158772e+00, 3.18002987e+00, 1.49517047e+00, 1.14071560e+00,
          5.18220127e-01, 1.20219119e-01, -1.48379236e-01,
          -1.23853222e-01, -3.71072181e-02, 1.04650915e-01,
          5.86282134e-01, 1.28908956e+00, 1.56239855e+00, 1.78583157e+00,
          1.90879214e+00, 1.16348112e+00, 6.04257882e-01, 4.04369861e-01,
          3.86246383e-01, -2.45763361e-02, -3.90094846e-01,
          -8.13105524e-01, -4.83462751e-01, -4.96014595e-01,
          -4.44505244e-01, -3.06679934e-01, 7.17583835e-01,
          -4.10047233e-01, 5.38841635e-02, -2.33627737e-01,
          5.47415726e-02, 1.16877295e-01, 2.97131866e-01, 1.07642837e-01,
          -3.35603625e-01, 1.21173608e+00, 1.45770177e-01,
          -4.49346602e-01, -6.26994252e-01 ]
      - [ -1.05920982e+00, -1.29969287e+00, -4.97125804e-01,
          -9.65890944e-01, -8.74132872e-01, 4.32132818e-02,
          1.45088196e+00, 1.59725738e+00, 1.19940269e+00, 1.00265074e+00,
          2.09394479e+00, 1.90169859e+00, 6.34928465e-01,
          -3.71252224e-02, 1.40682653e-01, 2.20477477e-01,
          1.00534475e+00, 1.40044427e+00, 1.37480474e+00, 9.87743139e-01,
          5.79546571e-01, 6.27624989e-01, 8.12484682e-01, 1.75062507e-01,
          8.98873135e-02, -4.34721202e-01, -5.80304205e-01,
          -8.59921813e-01, -1.15763867e+00, -1.52260029e+00,
          -9.63932157e-01, -1.11315787e+00, -6.81009948e-01,
          -6.33875012e-01, -3.82946104e-01, -1.51145613e+00,
          -1.59305000e+00, -1.30292606e+00, -1.24678731e+00,
          -1.09153473e+00, 9.12870392e-02, -7.00060427e-01 ]
      - [ -1.19109237e+00, -1.22865367e+00, -1.22123325e+00,
          -9.08764184e-01, -9.24809933e-01, -3.48433077e-01,
          4.20329213e-01, -1.97776601e-01, 8.78564298e-01,
          6.88733459e-01, 4.80305523e-01, -3.33011290e-03,
          -6.21779859e-02, 5.03848076e-01, 1.69364190e+00,
          1.96989298e+00, 2.33217239e+00, 2.25290465e+00, 2.13946271e+00,
          1.79093158e+00, 1.71368027e+00, 1.87392688e+00, 2.02781487e+00,
          1.80594516e+00, 1.59614003e+00, 6.52215660e-01, 7.61846244e-01,
          2.84295738e-01, 4.78093147e-01, 4.00389612e-01, 5.28165996e-01,
          5.38841635e-02, -3.02455783e-01, -5.13640344e-01,
          -4.62463439e-01, -8.97429347e-01, -1.49723625e+00,
          -1.91326058e+00, -1.73849189e+00, -1.37706661e+00,
          -6.53894007e-01, -1.61690426e+00 ]
      - [ 1.50128752e-01, 1.17957366e+00, 3.45585436e-01, 1.64765811e+00,
          1.20362556e+00, 4.92173731e-01, 3.90313119e-01, 5.38389027e-01,
          1.88275740e-01, 3.47391590e-02, 1.97345093e-01, 6.24924004e-01,
          1.40399963e-01, 1.27742842e-01, -5.03121197e-01,
          -5.87485492e-01, -4.64123487e-01, -5.97753763e-01,
          -4.72886860e-01, -5.55784941e-01, -8.57083023e-01,
          -8.56360972e-01, -1.06013513e+00, -1.01176786e+00,
          -6.68930173e-01, -3.46986383e-01, -6.15987368e-02,
          5.83674200e-02, 1.25341117e+00, 8.66268575e-01, 8.33367884e-01,
          -1.44292802e-01, 3.62881869e-01, 9.18244898e-01,
          1.57090902e+00, 1.91592979e+00, 1.35322070e+00, 7.00813293e-01,
          5.43017685e-01, 7.23632395e-01, -2.88234681e-01,
          6.24703765e-01 ]
      - [ 6.72682464e-01, 2.77376384e-01, -2.03737453e-01,
          -9.37327564e-01, -1.21197975e+00, -1.24635398e+00,
          -1.16051865e+00, -1.02470243e+00, -9.88131583e-01,
          -1.02909148e+00, -7.96840191e-01, -1.22606122e+00,
          -1.25977111e+00, -9.74812329e-01, -1.30787599e+00,
          -8.43925953e-01, -1.01584697e+00, -8.73434722e-01,
          -6.42501891e-01, -5.29154003e-01, -8.22770059e-01,
          -4.63504910e-01, -4.89203930e-02, -3.28196645e-01,
          -9.07957673e-01, -1.01961994e+00, -1.17681551e+00,
          -1.23161030e+00, -1.67766905e+00, -1.53251255e+00,
          -1.14479256e+00, -1.28931522e+00, -1.64460242e+00,
          -1.80343008e+00, -2.03009129e+00, -2.04733419e+00,
          -1.71281707e+00, -1.49869370e+00, -6.56741679e-01,
          5.73912598e-02, -5.08800864e-01, 1.75351763e+00 ]
      - [ 6.50287330e-01, 1.43531466e+00, -9.09117997e-01,
          -1.20153880e+00, -1.33867240e+00, -1.59023857e+00,
          -6.60250306e-01, -9.44026709e-01, -5.02012849e-01,
          -5.14616013e-01, -6.43888593e-01, -6.58605933e-01,
          -6.87786341e-01, -7.42966592e-01, -4.90071118e-01,
          -3.83738309e-01, -2.64964789e-01, -3.06431323e-01,
          -3.31077576e-01, -5.62176347e-01, -1.25709999e+00,
          -1.16177881e+00, -6.70630157e-01, -3.25505435e-01,
          2.64415324e-01, 4.18256164e-01, 5.60847819e-01,
          -7.22466782e-03, -7.88889885e-01, -5.31368375e-01,
          -2.06579313e-01, -1.77322283e-01, -3.71283799e-01,
          -7.64234886e-02, 5.59902549e-01, 6.86465017e-03,
          -1.07937939e-01, -2.66509145e-01, -6.66960776e-02,
          3.22528034e-01, -3.35366845e-01, 1.12190545e+00 ]
      - [ -6.93422198e-01, -1.12209499e+00, -1.83922148e+00,
          -1.62284863e+00, -9.83933151e-01, -8.16498220e-01,
          -9.30395186e-01, -4.39803660e-01, -1.90896869e-01,
          -4.62296486e-01, 8.55036914e-01, 1.16535771e+00,
          1.23074603e+00, 1.42092669e+00, 1.51529086e+00, 1.17598152e+00,
          1.02149284e+00, 4.24807489e-01, 4.80850130e-01,
          -1.12646423e-01, -2.10554555e-01, -4.72499393e-02,
          2.13246375e-01, 4.58836779e-02, 2.83385783e-01,
          -2.78748184e-01, -4.24692571e-01, -6.99585617e-01,
          -3.25590104e-01, -5.61105311e-01, -1.23522270e+00,
          -1.37739384e+00, -1.09397817e+00, -7.97831297e-01,
          -8.82769465e-01, -1.22118890e+00, -1.35351574e+00,
          -1.09564269e+00, -8.63257647e-01, -1.44505048e+00,
          3.46477938e+00, -2.05764580e+00 ]
      - [ -6.98398948e-01, -9.40945089e-01, 3.89281571e-01,
          1.26205254e+00, 1.11071765e+00, 1.34233284e+00, 1.04066193e+00,
          1.38548374e+00, 1.86052418e+00, 1.25552845e+00, 2.12640256e-01,
          -1.65460214e-01, -2.17090532e-01, -1.71080515e-01,
          -1.50769085e-01, 6.59587801e-01, 6.68928087e-01,
          8.54947984e-01, 1.01472044e+00, 1.20505142e+00, 6.69843853e-01,
          5.85753202e-01, 6.79528713e-01, 7.59058416e-01, 8.44910741e-01,
          7.74069548e-01, 7.74813831e-01, 4.15479898e-01, 3.83542180e-01,
          2.37214807e-02, -3.70226987e-02, 1.86002135e-01,
          8.33206773e-01, 8.08940649e-01, 8.66612375e-01, 2.18982995e-01,
          -2.51658440e-01, 1.71089113e-01, 5.23349524e-01,
          2.74939388e-01, -5.22663295e-01, -8.37401390e-01 ]
      - [ -2.13168907e+00, -2.69561219e+00, -3.04398656e+00,
          -2.81536961e+00, -2.89276814e+00, -2.47860718e+00,
          -1.98095858e+00, -1.66002333e+00, -1.67842019e+00,
          -1.70052564e+00, -1.67631173e+00, -9.28822756e-01,
          -8.42698932e-01, 3.50045525e-02, -2.55169719e-01,
          -3.59148145e-01, -6.65973544e-01, -5.68426013e-01,
          -5.39620638e-01, -6.71895742e-01, -6.03347719e-01,
          3.67687750e+00, 1.04281688e+00, 7.83967257e+00, 2.22216439e+00,
          1.05954943e+01, 2.75237846e+00, 1.48748913e+01, 3.98593426e+00,
          1.19383287e+01, 4.75577736e+00, 1.27372093e+01, 3.50602865e+00,
          1.13130760e+01, 8.55252743e-01, 8.84885025e+00,
          -1.12595832e+00, -1.30292606e+00, -1.09927583e+00,
          -1.37026823e+00, -5.90126991e-01, -1.55302024e+00 ]
      - [ -1.33292842e+00, -1.98522067e+00, -2.62575197e+00,
          -1.78708816e+00, -1.59205759e+00, -1.92457080e+00,
          -1.69080305e+00, -1.29698277e+00, -1.28952515e+00,
          -1.26452947e+00, -1.64572144e+00, -1.94889128e+00,
          -1.73642516e+00, -2.03615046e+00, -2.03868032e+00,
          -2.17179561e+00, -2.14351583e+00, -2.24010825e+00,
          -2.27191854e+00, -2.44977593e+00, -2.27204132e+00,
          -2.58911467e+00, -2.41029382e+00, -2.18783355e+00,
          -2.01203704e+00, -2.24790740e+00, -2.03267956e+00,
          -2.00413942e+00, -1.85731590e+00, -1.72084665e+00,
          -2.42211890e+00, -2.61049485e+00, -2.56230950e+00,
          -2.71065497e+00, -2.64351106e+00, -2.41575027e+00,
          -2.09607172e+00, -1.74052441e+00, -2.11218739e+00,
          -1.81896126e+00, 1.15527201e+01, -3.08076763e+00 ]
      - [ -1.50961712e-01, -1.01198423e+00, -4.59671974e-01,
          -4.30327624e-01, -4.64079790e-02, 2.72469670e-01,
          2.90259451e-01, 6.08980238e-01, 4.11890358e-01, 5.84094346e-01,
          2.50878155e-01, 5.16837299e-01, 5.45555830e-01, 6.17194891e-01,
          6.36585593e-01, 5.22585392e-01, 6.42014742e-01, 4.24807489e-01,
          2.31988728e-01, 6.20523989e-02, -3.64059925e-01,
          -1.32225066e-01, 7.67541826e-01, 1.27577376e+00,
          1.36090660e+00, 1.23224020e+00, 1.06010187e+00, 7.29434416e-02,
          -7.97575861e-02, 5.34584373e-02, -5.96302450e-02,
          -1.22273132e-01, -2.33627737e-01, -1.15853524e+00,
          -1.12132156e+00, -1.43330729e+00, -2.16793203e+00,
          -2.10902810e+00, -1.56147826e+00, -1.22070396e+00,
          1.24032605e+00, -1.00580525e+00 ]
      - [ -1.16124794e-01, 1.53121746e+00, 1.70640802e+00,
          1.04068637e+00, 3.67454469e-01, 4.32132818e-02,
          -1.79992750e-01, -4.19634730e-01, -1.90896869e-01,
          -2.63003074e-02, -5.44470072e-01, -6.11317992e-01,
          -6.93744540e-01, -5.05968750e-01, -4.03070599e-01,
          -4.18867141e-01, -6.12146854e-01, -5.27367115e-01,
          -5.11814892e-01, -2.47931495e-01, -1.03045380e+00,
          -9.58577454e-01, -5.82617044e-01, -6.37687564e-01,
          -2.62962818e-01, -1.91013381e-01, 4.86261770e-02,
          -8.01047683e-02, 8.75207245e-01, 8.36531639e-01,
          6.29899979e-01, 1.63929987e+00, 1.91151261e+00, 1.53034854e+00,
          1.37779534e+00, 1.43587244e+00, 1.29333711e+00, 4.82014179e-01,
          -3.32216591e-01, -5.13672531e-01, 2.61024445e-01,
          3.26382726e-01 ]
      - [ -9.97001052e-01, -8.02418768e-01, -1.95782530e+00,
          -1.67997539e+00, -1.49914968e+00, -1.23680162e+00,
          -1.19053471e+00, -7.32253015e-01, -5.47836237e-02,
          3.57376337e-01, 6.10314369e-01, 1.98276365e+00, 2.23767757e+00,
          2.14222431e+00, 2.01119375e+00, 2.41251612e+00, 2.26488900e+00,
          2.28809786e+00, 1.39009798e+00, 1.85378063e+00, 2.84871697e+00,
          1.94535530e+00, 1.18139076e+00, 1.18965447e+00, 2.98562109e-01,
          -2.04179063e-02, -5.93271852e-01, -9.83817995e-01,
          -1.16709375e+00, -1.26487994e+00, -1.25783026e+00,
          -8.48921955e-01, -7.84251988e-01, -7.86900878e-01,
          -9.62286830e-01, -9.08593476e-01, -1.26967883e+00,
          -9.92000997e-01, -1.24678731e+00, -1.23430073e+00,
          -1.75487161e-01, -1.81031477e+00 ]
      - [ 7.67239809e-01, 1.34296370e+00, 1.08217752e+00, 1.14065814e+00,
          4.26905509e-03, 5.27656302e-02, 3.60297024e-01, 8.30838382e-01,
          2.95221865e-01, 1.13218471e-01, -3.22690278e-01,
          -3.20834905e-01, -3.06463152e-01, 5.04609309e-02,
          4.93321083e-02, -5.70402481e-02, -3.64544123e-01,
          -5.89933038e-01, -7.34260857e-01, -1.04685903e+00,
          -1.42414987e+00, -9.43799138e-01, -4.27189589e-01,
          -3.76638710e-01, -5.74077964e-01, -2.25132465e-01,
          -7.16464400e-01, -7.14161634e-01, -8.92126858e-02,
          2.37214807e-02, 1.66445240e-01, -1.21748233e-02,
          8.44678104e-01, 6.88706040e-01, 5.48542976e-01,
          -2.27581948e-01, -1.55844778e-01, 7.58392036e-01,
          1.64443612e+00, 4.31302100e-01, -1.68093875e-01,
          8.02094400e-01 ]
      - [ -2.85332650e-01, 2.59616613e-01, 2.08254710e-01,
          -1.08728528e+00, -1.04305637e+00, -1.00754523e+00,
          -1.25056696e+00, -1.53900981e+00, -1.04646575e+00,
          -9.33172345e-01, -8.88611138e-01, -1.00988781e+00,
          -9.61862385e-01, -7.53270864e-01, -3.72620434e-01,
          -8.34128063e-04, 2.22166643e-01, 1.41305804e-01,
          6.15707994e-01, 1.28387892e+00, 1.45216703e-01, 5.75901031e-01,
          8.61172795e-01, 1.10891771e+00, 4.12384748e-01, 3.80719677e-02,
          3.14462751e-01, 1.89551592e-01, 6.48284912e-01, 1.41144609e+00,
          1.38725281e+00, 1.62829006e+00, 1.81974185e+00, 6.12193048e-01,
          3.32710117e-01, 1.80287734e-02, -4.43285823e-01,
          -1.85898945e-01, -7.74750769e-01, -3.09721202e-01,
          -5.64250469e-01, -1.31160066e-01 ]
      - [ -2.35565647e-01, 1.28258038e+00, -1.12135637e+00,
          -1.60856700e+00, -1.65118074e+00, -1.77173316e+00,
          -1.32060444e+00, -9.33942199e-01, -8.90907824e-01,
          -1.17733026e+00, -7.05069244e-01, -6.31584227e-01,
          -3.12421322e-01, -2.38058165e-01, 3.92984152e-01,
          1.04552351e-01, -1.51928753e-01, -6.07529700e-01,
          -5.53523540e-01, -8.33811700e-01, -5.73549569e-01,
          -5.18923461e-01, -1.03226364e-01, 1.02399416e-01,
          3.55473429e-01, 3.45143825e-01, -1.65339842e-01,
          -2.18006875e-02, -3.16135019e-01, -4.61982161e-01,
          -1.06566608e+00, -5.62666357e-01, -1.28899086e+00,
          -1.14760482e+00, -1.05316377e+00, -8.86265218e-01,
          -1.20979524e+00, -1.51020944e+00, -1.17794859e+00,
          -3.70906591e-01, 2.88749248e-01, 7.23753333e-01 ]
      - [ 1.07811047e-02, -4.54326898e-01, 2.51950860e-01,
          2.62334287e-01, 1.60904181e+00, 1.09397173e+00,
          -3.99176180e-02, -6.41492844e-01, -1.22840241e-01,
          2.44017318e-01, 1.13221727e-01, 6.92478240e-01, 8.85171831e-01,
          9.88148034e-01, 1.29343951e+00, 6.77152216e-01, 5.72040021e-01,
          -1.70640983e-02, -1.83707133e-01, -8.37007403e-01,
          -1.34649420e+00, -8.12026083e-01, -3.29813361e-01,
          -1.69414356e-01, -3.46432745e-01, -6.44309938e-01,
          -6.90529168e-01, -7.43313670e-01, -5.71422637e-01,
          3.36338021e-02, 8.10760379e-01, 3.40139776e-01, 5.69365978e-01,
          5.90332210e-01, 1.08244514e+00, 4.19937223e-01, 6.46594763e-01,
          5.97171605e-01, 6.21690452e-01, 2.47745872e-01,
          -5.92591405e-01, 7.45829523e-01 ]
      - [ -9.54699099e-01, -1.23220563e+00, -3.72279704e-01,
          3.05179358e-01, -3.25131685e-01, -5.87241828e-01,
          4.40339953e-01, -5.50732732e-01, -1.12424481e+00,
          -1.31684899e+00, -1.30922794e+00, -7.12649286e-01,
          2.47647107e-01, 1.46729577e+00, 1.60664141e+00, 1.94530284e+00,
          1.59205556e+00, 1.98113394e+00, 1.66398454e+00, 1.60771096e+00,
          2.25817299e+00, 1.93057704e+00, 1.93605661e+00, 1.38073146e+00,
          7.15911746e-01, 2.23289907e-01, -5.60852766e-01,
          -7.43313670e-01, -1.28055489e+00, -1.08645821e+00,
          -1.07696986e+00, -1.24527586e+00, -1.23163426e+00,
          -8.08761716e-01, 3.55429381e-01, 1.13444114e+00,
          1.62868500e+00, 2.28667825e-01, -4.50225711e-01,
          -8.67188275e-01, -6.03373289e-01, -1.43443418e+00 ]
      - [ 1.84718406e+00, 9.48696375e-01, -4.14375104e-02,
          2.19489232e-01, 2.05668902e+00, 1.27546644e+00, 2.60243356e-01,
          6.44193739e-02, -1.71452120e-01, -1.13499545e-01,
          1.38031999e-02, -5.06180599e-02, -3.83452885e-02,
          -2.89579451e-01, -5.77071667e-01, -7.24487901e-01,
          -1.01046431e+00, -1.47563136e+00, -1.45721018e+00,
          -1.68067491e+00, -1.80520439e+00, -1.91300821e+00,
          -1.79045677e+00, -1.66035330e+00, -1.68195152e+00,
          -1.30719519e+00, -1.30000806e+00, -4.66369301e-01,
          -4.39051270e-01, -1.44787937e-01, 2.68179208e-01,
          9.79234874e-02, 5.80837309e-01, 9.40105736e-01, 1.15060294e+00,
          1.73730385e+00, 1.53287125e+00, 2.39362764e+00, 2.49016809e+00,
          2.30085635e+00, -3.63399714e-01, 1.70741177e+00 ]
      - [ -8.50188315e-01, -1.36007607e+00, -1.26492941e+00,
          -1.07300365e+00, -1.27110302e+00, -1.00754523e+00,
          -7.40293264e-01, -6.21323943e-01, 6.18848689e-02,
          1.15088940e+00, 2.00982141e+00, 2.33404541e+00, 1.71931636e+00,
          1.31273198e+00, 9.45437491e-01, 5.15559614e-01, 9.29987431e-01,
          8.82320583e-01, 1.16209090e+00, 8.27957630e-01, 6.44560635e-01,
          5.52502096e-01, 4.28597659e-01, 7.21381247e-01, 8.67675245e-01,
          1.89170808e-01, 2.82043636e-01, -2.84169048e-01,
          -5.71422637e-01, -2.93472737e-01, -1.72667980e-01,
          -2.32371449e-01, -5.08939862e-01, -6.77596688e-01,
          -3.26147974e-01, -5.17849147e-01, -1.16188836e+00,
          -1.63688266e+00, -1.14844632e+00, -8.67188275e-01,
          3.47895473e-01, -9.50321853e-01 ]
      - [ 1.40176928e+00, 1.06591105e+00, 1.33811200e+00, 8.90728652e-01,
          2.66100407e-01, 2.34260276e-01, -4.90159094e-01,
          -6.31408393e-01, -3.36732477e-01, -1.74539015e-01,
          -1.20216191e+00, -1.18552876e+00, -1.07506776e+00,
          -5.67794263e-01, -8.55473280e-01, -1.10739207e+00,
          -1.15848756e+00, -1.11783266e+00, -1.19583619e+00,
          -1.32595110e+00, -1.81604004e+00, -1.78616130e+00,
          -1.71180677e+00, -1.80298817e+00, -1.63262844e+00,
          -1.40467834e+00, -1.76035917e+00, -9.83817995e-01,
          -1.00635707e+00, -6.00754619e-01, -2.74401963e-01,
          -5.84686041e-01, 1.21983767e-01, 3.71723801e-01,
          8.32533538e-01, 4.75757837e-01, 9.69965935e-01, 8.27486515e-01,
          9.95386004e-01, 7.91616142e-01, 3.76544446e-01, 1.52611387e+00 ]
      - [ 1.99399686e+00, 6.92955434e-01, 1.83285490e-01, 1.76644161e-01,
          8.15101624e-01, 5.20830750e-01, 3.40286285e-01, 5.18220127e-01,
          2.17442855e-01, -5.24600782e-02, -5.13879776e-01,
          -3.95144522e-01, -5.03082931e-01, -5.98707020e-01,
          -8.85923505e-01, -1.00903141e+00, -1.08851290e+00,
          -1.44630361e+00, -1.30983973e+00, -8.10376525e-01,
          -3.56836140e-01, -6.83947682e-01, -1.14814818e+00,
          -9.57943380e-01, -7.97929168e-01, -1.71516746e-01,
          -2.26958264e-02, -2.47728989e-01, 2.51170814e-01,
          9.25742507e-01, 1.40986037e+00, 9.34670627e-01, 7.18493402e-01,
          1.01661873e+00, 2.35472298e+00, 2.51879239e+00, 3.43716812e+00,
          2.92335176e+00, 1.48709059e+00, 6.14858329e-01,
          -4.52427119e-01, 8.46246660e-01 ]
      - [ -8.35258245e-01, -1.11854303e+00, -6.34456515e-01,
          6.12235665e-01, -1.26232896e-02, -4.43956554e-01,
          -5.20175159e-01, -1.17100917e-01, 2.07720488e-01,
          5.31774819e-01, 1.22976828e+00, 1.40179741e+00, 1.54057109e+00,
          1.61155534e+00, 1.29778957e+00, 8.98463786e-01, 8.27716768e-01,
          6.57474399e-01, 1.29555845e+00, 1.70677793e+00, 2.26449370e+00,
          2.12638927e+00, 9.51058567e-01, 1.15855537e-01,
          -8.08466226e-02, -6.19939148e-01, -1.27407277e+00,
          -1.79278708e+00, -1.69657922e+00, -1.76049590e+00,
          -9.63932157e-01, -9.25990820e-01, -8.30137372e-01,
          -8.63413811e-01, -9.62286830e-01, -1.38865077e+00,
          -7.30726838e-01, 2.51699328e-01, 4.44676757e-01,
          2.33993642e-02, -6.23704791e-01, -1.02924895e+00 ]
      - [ -2.03217074e-01, -3.51958796e-02, 9.63573694e-01,
          -1.30412146e-01, 1.13605618e+00, 1.96050882e-01,
          8.80576074e-01, 1.82920003e+00, 1.03412235e+00, 8.80571723e-01,
          8.55036914e-01, 9.22162533e-01, 5.51514030e-01,
          -5.25816046e-02, -3.20420116e-01, -2.46735901e-01,
          -1.38472095e-01, -4.23742384e-01, -5.77158391e-01,
          -5.48328280e-01, -5.42848527e-01, -8.57592463e-01,
          1.66212972e-02, -2.17856407e-01, -2.17433766e-01,
          8.82703066e-03, 9.36909318e-01, 6.70560241e-01, 8.46841931e-01,
          6.68022215e-01, 6.97722614e-01, 7.59038255e-02, 6.72608018e-01,
          9.18244898e-01, 4.87195626e-02, -8.52772892e-01,
          -5.15146077e-01, 2.97762275e-01, 1.39819875e-01,
          7.30430782e-01, -5.35909593e-01, 5.59256732e-01 ]
      - [ 2.23536682e+00, -1.03321774e-02, -2.22464368e-01,
          1.83785006e-01, 1.43167222e+00, 4.44411993e-01,
          -2.90051758e-01, -5.40648282e-01, -1.22840241e-01,
          -1.83258936e-01, -3.45633030e-01, -7.12649286e-01,
          -9.49946046e-01, -1.16028893e+00, -1.21217549e+00,
          -9.91466999e-01, -7.68244207e-01, -4.98039365e-01,
          -4.46471423e-01, -7.27288008e-01, -6.78294420e-01,
          -3.80992830e-01, -8.16694498e-01, -4.27771986e-01,
          -2.62962818e-01, -5.22455990e-01, -8.52624595e-01,
          -7.72465706e-01, -3.53955418e-01, 4.49951202e-01,
          8.44671667e-01, 8.90631318e-01, 9.70862806e-01, 1.27894878e+00,
          3.66788983e-01, 5.42742610e-01, 1.71252191e+00, 5.85655868e-01,
          1.69322163e-01, 3.63318294e-01, 6.91066921e-01, 1.50555000e-01 ]
      - [ -2.03217074e-01, -1.02264011e+00, -5.97002685e-01,
          1.27633429e+00, 1.67661119e+00, 1.50472283e+00, 8.90581429e-01,
          3.97206575e-01, 6.93839192e-01, 8.19532275e-01, 1.03093123e+00,
          1.53690588e+00, 2.19597030e+00, 2.21435428e+00, 1.44569051e+00,
          1.02844048e+00, 5.74731350e-01, 4.65866357e-01, 7.62765706e-02,
          -1.48864478e-01, -8.13740313e-01, -1.27298981e-01,
          5.84025085e-01, 1.09007919e+00, 9.85291958e-01, 1.31510091e+00,
          7.03491867e-01, 7.28864312e-01, 1.04539895e+00, 1.11407661e+00,
          1.97504902e+00, 1.90353572e+00, 2.47360826e+00, 1.69430482e+00,
          2.53647685e+00, 1.60333431e+00, 1.18291611e-02, 1.94120601e-01,
          -3.71552974e-01, -6.63236916e-01, 2.73962677e-01,
          -9.85878110e-01 ]
      - [ -2.87821025e-01, -8.05970669e-01, -1.17753708e+00,
          -1.31579232e+00, -6.96763277e-01, -6.73212945e-01,
          -8.50352287e-01, -1.62563100e-02, -5.02012849e-01,
          -5.23335934e-01, 3.12058777e-01, 9.08651710e-01,
          9.09004509e-01, 7.25389540e-01, 5.71335256e-01, 3.15325290e-01,
          4.53621358e-01, 3.05541277e-01, 6.76220842e-03, 4.28493828e-01,
          9.89496171e-01, 1.00693429e+00, 1.98265418e-01,
          -1.18281074e-01, -2.25021943e-01, -6.00442529e-01,
          -6.97012961e-01, -1.07856214e+00, -9.21261251e-01,
          -8.48562598e-01, 4.71647143e-01, 3.40139776e-01,
          4.43181247e-01, 1.53115362e-01, -5.30621171e-01,
          -6.40654504e-01, -5.87006330e-01, -4.16213840e-01,
          -5.78068912e-01, -1.03714776e+00, -3.01789045e-01,
          -8.87660533e-02 ]
      - [ -7.95444608e-01, -1.08657539e+00, -1.63946772e+00,
          -5.30299425e-01, -6.54532433e-01, -1.01709759e+00,
          -8.60357642e-01, -2.63407715e-02, 7.42451072e-01,
          1.32528782e+00, 2.05570674e+00, 2.17191529e+00, 1.91593611e+00,
          1.61155534e+00, 1.12378860e+00, 9.01976705e-01, 7.28137434e-01,
          1.17168784e+00, 1.45405114e+00, 1.30411839e+00, 8.54953289e-01,
          8.97328675e-01, 6.32713199e-01, 2.45034367e-01,
          -5.05784392e-01, -8.68521094e-01, -6.38658583e-01,
          -1.12229013e+00, -9.96902049e-01, -6.50316238e-01,
          -5.00477433e-01, -9.70030129e-01, -1.42664695e+00,
          -1.36621320e+00, -1.23491776e+00, -9.86742377e-01,
          -6.94796741e-01, -8.99875045e-01, -1.21728504e+00,
          -1.02355099e+00, 2.32991576e-01, -9.78649676e-01 ]
      - [ -1.07662821e+00, -1.04395187e+00, -9.15360272e-01,
          1.12376563e-01, 1.14069298e-01, 2.34260276e-01, 4.70356047e-01,
          7.80416071e-01, 1.39385021e+00, 2.77279520e+00, 3.07283497e+00,
          2.50293112e+00, 1.82060528e+00, 1.40547025e+00, 7.32286215e-01,
          9.82773006e-01, 1.09415877e+00, 1.42586172e+00, 1.09257650e+00,
          7.62978196e-01, 5.36203861e-01, 3.27133238e-01, 3.16240460e-01,
          3.90360534e-01, 1.88533589e-01, -4.10350412e-01,
          -7.35915899e-01, -1.39923453e+00, -1.30892026e+00,
          -1.90918076e+00, -2.01518321e+00, -1.92788541e+00,
          -1.20869148e+00, -1.13667440e+00, -6.55577004e-01,
          -1.09838355e+00, -3.35495412e-01, 3.66856754e-01,
          -1.15866549e-01, 1.25375047e-01, -4.33019757e-01,
          -5.06259203e-01 ]
      - [ -7.48165965e-01, -1.21089387e+00, -5.34579635e-01,
          -5.23158610e-01, -7.72778809e-01, -1.69531441e+00,
          -1.66078687e+00, -1.58943212e+00, -4.82568085e-01,
          1.14216948e+00, 2.65221810e+00, 2.90825629e+00, 1.18308055e+00,
          3.23523641e-01, 4.40834463e-01, 7.33358324e-01, 1.00803614e+00,
          7.49368012e-01, 9.38254595e-01, 1.81010592e+00, 2.87129140e+00,
          1.63747442e+00, 8.53682339e-01, 4.52258706e-01, 4.23767000e-01,
          5.26944362e-02, -6.77561522e-01, -5.97553492e-01,
          -4.67416584e-01, -3.03385049e-01, -1.95275530e-01,
          -7.38823652e-01, -6.69538617e-01, -6.12014115e-01,
          3.66788983e-01, 6.32055581e-01, 3.95083874e-01, 3.43825251e-01,
          -9.02594030e-01, -6.83632016e-01, -2.23543480e-01,
          -1.40532494e+00 ]
      - [ 1.30221948e-01, -9.23185289e-01, -2.03737453e-01,
          2.12348387e-01, 3.59008312e-01, 8.93372416e-01, 2.05120397e+00,
          1.71827090e+00, 1.59801996e+00, 2.91231394e+00, 3.08813000e+00,
          3.32033682e+00, 1.93976879e+00, 1.49820852e+00, 9.45437491e-01,
          7.26332545e-01, 6.09718740e-01, 1.08761489e+00, 9.34083760e-01,
          2.60186434e-01, -6.86421156e-01, 6.93710148e-03,
          1.70176119e-01, 5.39573543e-02, -2.62962818e-01,
          -4.34721202e-01, -1.13469288e-01, -2.62305021e-01,
          5.33828838e-03, 2.51704812e-01, 7.76849031e-01, 1.09981811e+00,
          1.01674819e+00, 1.42104423e+00, -3.07977945e-02,
          1.05629230e+00, 2.65868211e+00, 1.00022268e+00, 2.18107589e-02,
          4.37945016e-02, -4.44109678e-01, -5.78153193e-01 ]
      - [ -1.85798615e-01, 8.81209195e-01, 7.76304483e-01,
          -4.47220169e-02, 5.49460910e-02, 5.01726091e-01,
          -1.29965916e-01, -1.12554693e+00, -1.41591609e+00,
          -1.07269120e+00, -8.88611138e-01, -1.15175164e+00,
          -9.91653264e-01, -6.86293185e-01, -7.38022625e-01,
          -3.83738309e-01, -2.75730103e-01, -3.27938348e-01,
          -5.45181811e-01, -4.75892156e-01, -6.33145809e-01,
          -6.83947682e-01, -7.51152813e-01, -6.21540248e-01,
          -5.13372600e-01, -4.78588611e-01, -9.75817144e-01,
          -1.15144217e+00, -9.02351022e-01, 4.35461178e-02,
          2.90786743e-01, 1.40809333e+00, -7.30289966e-02,
          -4.58988249e-01, -3.37507606e-01, -1.27104834e-01,
          -8.26540530e-01, -2.54993409e-01, -1.15866549e-01,
          2.68141001e-01, 4.84671175e-01, 5.79183877e-01 ]
      - [ -8.67606759e-01, 8.45689595e-01, 1.16332746e+00,
          -7.87369847e-01, -1.47762045e-01, -1.00071967e-01,
          -8.90373707e-01, -9.84364510e-01, -9.10352588e-01,
          -7.58773923e-01, -7.66249895e-01, -5.50519228e-01,
          -2.76672274e-01, -3.41100693e-01, -1.02918804e-01,
          -2.15119958e-01, -1.54620096e-01, 1.68678388e-01,
          3.45679522e-02, 6.91607296e-01, 4.93764162e-01,
          -2.78776377e-01, -8.01713526e-01, -7.04968214e-01,
          -6.57547891e-01, -8.05157065e-01, -7.48883486e-01,
          -8.81785870e-01, -2.31039137e-01, 4.00389612e-01,
          1.07074714e+00, 1.34203434e+00, 1.70502853e+00, 1.82546985e+00,
          8.32533538e-01, -1.15420425e+00, -1.53316641e+00,
          -1.45263076e+00, -1.15828037e+00, 1.45770177e-01,
          2.07423151e-01, 4.09557298e-02 ]
      - [ -8.65118444e-01, 2.38304853e-01, -1.17753708e+00,
          -1.56572187e+00, -1.49914968e+00, -7.11422384e-01,
          -9.20389831e-01, -6.41492844e-01, -4.82568085e-01,
          -2.79178083e-01, -1.54443547e-01, -1.31683111e-01,
          1.70190841e-01, 6.84172511e-01, 1.65449166e+00, 2.20876908e+00,
          2.03074288e+00, 1.32614732e+00, 1.32336414e+00, 1.35524976e+00,
          6.96933031e-01, 6.89201176e-01, 6.27095342e-01, 5.59907734e-01,
          5.56560099e-01, 4.91368502e-01, 6.45137489e-01, 9.25640583e-01,
          1.31014168e+00, 4.79688168e-01, 1.69245470e+00, 8.68611634e-01,
          -4.20096284e-03, -5.13640344e-01, -3.60226840e-01,
          -1.02023470e+00, -1.48525953e+00, -1.41808355e+00,
          -8.53423536e-01, -8.53591502e-01, -5.81193447e-01,
          -7.53590167e-01 ]
      - [ 8.41890335e-01, 7.28475034e-01, 9.51089084e-01,
          -6.87398016e-01, -2.32223779e-01, -1.01709759e+00,
          -1.15051329e+00, -1.15580034e+00, -1.22146857e+00,
          -1.02037156e+00, -1.10274339e+00, -7.80203521e-01,
          -6.87786341e-01, -8.66617620e-01, -5.20521283e-01,
          -6.47204518e-01, -5.36789477e-01, -5.44963777e-01,
          -4.49251980e-01, -1.82952046e-01, -7.54144132e-01,
          3.64936702e-02, 4.09871459e-01, 4.76479739e-01, 5.56560099e-01,
          7.74069548e-01, 9.04490232e-01, 5.83104134e-01, 7.99566448e-01,
          5.88723660e-01, 2.45571658e-01, 3.62159431e-01,
          -1.76271051e-01, -4.36322205e-02, -5.98778903e-01,
          6.26852661e-02, 1.91479802e-01, -2.08930433e-01,
          -2.53543854e-01, -1.05769835e-01, -5.46999514e-01,
          6.63971961e-01 ]
      - [ 2.07360834e-01, 1.17538296e-01, 5.51581502e-01, 6.19376540e-01,
          1.69350362e+00, 2.02054977e+00, 1.71102142e+00, 1.35523033e+00,
          6.93839192e-01, 5.14334977e-01, 3.96182150e-01,
          -5.09986699e-01, -6.57995462e-01, -6.60532594e-01,
          -4.16120678e-01, -2.46735901e-01, -2.08446771e-01,
          -2.29296517e-02, -4.72886860e-01, -5.74959159e-01,
          -8.40829492e-01, -8.85917544e-01, -1.02268267e+00,
          -8.96045208e-01, -2.43992388e-01, -1.06695946e-02,
          -8.10501948e-02, -4.36647162e-02, 4.40272748e-01,
          1.17355049e+00, 2.84543967e+00, 3.68712831e+00, 3.40278673e+00,
          1.71616566e+00, 9.68849003e-01, 1.26841056e+00,
          -4.19332385e-01, -4.73792553e-01, -3.22382510e-01,
          4.17705327e-01, -5.14037788e-01, 6.22164011e-01 ]
      - [ -5.21726012e-01, -1.37428391e+00, -6.15729630e-01,
          -3.51778328e-01, -3.75808716e-01, -5.68137109e-01,
          -5.80207407e-01, -2.28029981e-01, -1.52007371e-01,
          -9.60596949e-02, 3.96182150e-01, 6.72211945e-01,
          5.69388568e-01, 1.08088624e+00, 6.75735831e-01, 9.54669893e-01,
          8.38482082e-01, 2.42975384e-01, 2.48359423e-02,
          -2.34083414e-01, 8.65234733e-02, -1.03900023e-01,
          2.76915431e-01, 5.81437528e-01, 1.28123081e+00, 9.20294285e-01,
          1.25461638e+00, 8.30896437e-01, 1.13049483e+00, 4.10301924e-01,
          7.60150403e-02, -5.07617235e-01, -5.54825246e-01,
          -7.32248783e-01, 1.16877295e-01, -2.66277213e-02,
          -8.26540530e-01, -9.22906578e-01, -9.81266737e-01,
          -1.06434119e+00, 2.96142519e-01, -3.79272521e-01 ]
      - [ 3.31605156e-03, -6.36115447e-02, -9.40329492e-01,
          -3.51778328e-01, -4.18039590e-01, -8.16498220e-01,
          -9.99498144e-02, 2.25770742e-01, -6.86737955e-01,
          -7.50053942e-01, -3.99166077e-01, -6.18073404e-01,
          -2.64755934e-01, -1.55624136e-01, 2.32033208e-01,
          5.75278580e-01, 4.93991375e-01, 6.80936575e-01, 3.44601989e-01,
          -1.48864478e-01, -4.94990975e-01, -2.38509886e-02,
          -3.58120538e-02, 9.70169604e-02, -2.77293976e-02,
          1.55051723e-01, 3.40398014e-01, 1.60399556e-01,
          -2.78314620e-01, -1.44787937e-01, -1.83971763e-01,
          -7.82863021e-01, -6.58067286e-01, -4.58988249e-01,
          -2.46630624e-01, 2.30147123e-01, 6.10664666e-01,
          7.58392036e-01, 3.46335828e-01, 1.66165322e-01,
          -3.27357471e-01, 2.78713882e-01 ]
      - [ -4.49563831e-01, -6.81652188e-01, -1.72525927e-01,
          2.19489232e-01, 5.49460910e-02, -1.47833720e-01,
          -3.80100071e-01, -2.58283377e-01, -2.49231115e-01,
          -4.44856644e-01, -2.46214494e-01, -1.38438523e-01,
          -2.64289379e-02, 2.97763020e-01, 9.88937736e-01,
          1.44296062e+00, 1.50324154e+00, 1.03482497e+00, 9.47986603e-01,
          1.02289593e+00, 8.40505719e-01, 7.65555680e-01, 4.81031001e-01,
          5.00700772e-01, 6.02089107e-01, 1.06651890e+00, 9.95263696e-01,
          3.71751845e-01, -1.35719059e-02, 3.40915680e-01,
          6.07292414e-01, 5.93365908e-01, 7.18493402e-01, 4.48236763e-01,
          2.53192753e-01, 5.98563194e-01, -2.63635159e-01,
          -3.24087888e-01, -6.56741679e-01, -8.60389888e-01,
          -5.93823612e-01, -6.98692858e-01 ]
      - [ -1.08160496e+00, -1.36007607e+00, -1.14008331e+00,
          2.55193442e-01, 2.49208063e-01, 2.91574389e-01, 4.00318474e-01,
          2.35855207e-01, 8.88286710e-01, 6.88733459e-01, 8.93274784e-01,
          7.39766181e-01, 5.69388568e-01, 4.88391727e-01, 3.62533987e-01,
          4.69892144e-01, 2.94832647e-01, 5.46028912e-01, 1.85445392e+00,
          2.66762137e+00, 1.12313616e+00, 1.49092305e+00, 1.56340528e+00,
          1.26770008e+00, 9.01822031e-01, 1.14450550e+00, 4.63590562e-01,
          -2.18006875e-02, 4.40272748e-01, 6.77934527e-01,
          6.07292414e-01, -7.05794156e-01, -1.56430304e+00,
          -1.22411776e+00, -1.25763702e+00, -1.45563555e+00,
          -1.71281707e+00, -1.83265030e+00, -1.85650098e+00,
          -1.56742132e+00, -2.83305824e-01, -1.26309979e+00 ]
      - [ -2.28100583e-01, -9.40945089e-01, -1.32735240e+00,
          -4.58891004e-01, -1.64654404e-01, 3.77545536e-01,
          -9.10384476e-01, -1.00453341e+00, -6.86737955e-01,
          2.78897017e-01, 9.46807861e-01, 1.63148177e+00, 1.89210343e+00,
          2.37922215e+00, 2.78984857e+00, 2.21579480e+00, 1.76430094e+00,
          1.69763231e+00, 2.00877571e+00, 1.63753760e+00, 8.42311621e-01,
          7.17526257e-01, 1.43606710e+00, 1.12237382e+00, 1.33814204e+00,
          6.27844870e-01, 6.84040368e-01, 9.48074684e-02,
          -1.35719059e-02, -1.59277935e-02, -1.61364213e-01,
          -8.48921955e-01, -7.38366663e-01, -5.57362020e-01,
          -9.89555269e-02, -4.62028533e-01, -9.46307600e-01,
          -4.73792553e-01, -6.86243951e-01, -5.47664464e-01,
          -6.62519515e-01, -1.30861962e+00 ]
      - [ -1.12390697e+00, -1.31034863e+00, -5.59548855e-01,
          -5.16017735e-01, 3.25223625e-01, 3.96650225e-01,
          -6.20228827e-01, -3.49043518e-01, 6.84116840e-01,
          1.47352660e+00, 1.39801502e+00, 1.13833606e+00, 1.39161670e+00,
          1.00360441e+00, 1.26733935e+00, 1.62563050e+00, 1.25294745e+00,
          1.60378349e+00, 1.18433547e+00, 9.35546517e-01, 1.29289508e+00,
          1.85422254e+00, 2.52780437e+00, 1.84631348e+00, 1.72134495e+00,
          1.56855702e+00, 1.22219729e+00, 8.30896437e-01, 6.01009429e-01,
          4.35461178e-02, 6.97722614e-01, -1.16499269e-03,
          -3.59812468e-01, -3.93405706e-01, -1.12132156e+00,
          -9.97906446e-01, -9.94214475e-01, -1.06109548e+00,
          -9.81266737e-01, -9.96357441e-01, -5.76264560e-01,
          -1.45025861e+00 ]
      - [ -2.38053992e-01, -9.90672469e-01, -6.96879566e-01,
          1.48080781e-01, -5.10947466e-01, 2.91574389e-01,
          6.40447259e-01, 1.03252757e+00, 1.37440538e+00, 1.11600971e+00,
          6.56199872e-01, 9.55939651e-01, 1.19499695e+00, 1.29727566e+00,
          8.54086936e-01, 5.47175527e-01, 4.80534703e-01, 3.30958664e-01,
          3.23747694e-01, 3.34753007e-01, 8.19737315e-01, 1.07836270e+00,
          1.08588719e+00, 5.89511216e-01, 8.18352103e-01, 4.32878613e-01,
          7.94265330e-01, 1.31247520e-01, 6.76650167e-01, 2.61617124e-01,
          5.34074940e-02, 1.74992308e-01, 5.80837309e-01, 5.13819277e-01,
          8.09814274e-01, 4.64593709e-01, -4.67239231e-01,
          -8.22572559e-02, 1.10317595e-01, -1.60156861e-01,
          -4.65365350e-01, -7.13931262e-01 ]
      - [ 3.04406524e-01, 3.69727284e-01, 8.88666034e-01,
          -9.01623368e-01, -1.32178009e+00, -1.42784858e+00,
          -1.20054007e+00, -1.10537803e+00, -8.52018297e-01,
          -9.24452424e-01, -8.80963564e-01, -6.58605933e-01,
          -6.28204584e-01, -4.75055993e-01, -6.94522321e-01,
          -5.80459774e-01, -7.09034860e-01, -3.39669466e-01,
          6.76220842e-03, -4.55365106e-02, -6.30436897e-01,
          -5.53406179e-01, -3.50412190e-01, -1.47884548e-01,
          -2.62962818e-01, -2.00761691e-01, -5.86788058e-01,
          -4.88233328e-01, 3.26811582e-01, 8.76180887e-01,
          3.58609378e-01, -5.84686041e-01, -7.38366663e-01,
          -6.55735850e-01, -5.35170399e-02, 6.26852661e-02,
          6.82524920e-01, 5.16561449e-01, 8.47874582e-01, 9.47978854e-01,
          -6.10766530e-01, 9.83001530e-01 ]
      - [ 8.21983516e-01, 7.10715234e-01, 8.20000648e-01,
          -2.08961442e-01, -5.10947466e-01, -9.50231135e-01,
          -1.06046498e+00, -7.62506425e-01, -1.90896869e-01,
          -1.03781140e+00, -1.34746587e+00, -1.16526246e+00,
          -1.18827307e+00, -1.22211444e+00, -8.11973035e-01,
          -8.40413034e-01, -8.11305523e-01, -6.62274837e-01,
          -5.49352646e-01, -4.60978836e-01, -8.46247375e-01,
          -7.14735746e-01, -7.19318271e-01, -7.39954174e-01,
          -7.94135094e-01, -7.66163826e-01, -8.00754070e-01,
          -7.28167593e-02, 3.37035805e-02, 3.60740334e-01,
          8.10760379e-01, 4.50238079e-01, 2.82582521e-01, 2.29628325e-01,
          6.16700709e-01, 3.08295995e-01, 2.75316775e-01, 9.65675414e-01,
          2.04763389e+00, 1.14513183e+00, -4.66905624e-01,
          1.16351795e+00 ]
      - [ -8.45211625e-01, -1.59514397e-01, -1.23996019e+00,
          -9.44468439e-01, -3.67362529e-01, -5.39480090e-01,
          -5.10169804e-01, -9.23857749e-01, -3.95066738e-01,
          -2.53018320e-01, -2.38566905e-01, 3.04469913e-02,
          3.31061572e-01, 2.72002399e-01, 5.40885031e-01, 2.55606294e-01,
          1.06439292e-01, 1.22636613e-02, 2.51452744e-01, 3.73101532e-01,
          6.02120876e-01, 1.03156471e+00, 1.76190293e+00, 2.12350965e+00,
          2.01728368e+00, 1.72940421e+00, 1.26110029e+00, 1.07868874e+00,
          5.72644114e-01, 3.90477270e-01, -2.85705715e-01,
          -1.88332126e-01, -8.30137372e-01, -9.18065965e-01,
          -1.42803133e+00, -1.52262032e+00, -1.47328281e+00,
          -1.10715842e+00, -1.33529413e+00, -1.26149428e+00,
          9.00235116e-01, -1.23320913e+00 ]
      - [ 2.77034670e-01, 7.88858294e-01, 1.83285490e-01,
          -7.01679707e-01, -1.02616405e+00, -8.06945860e-01,
          -1.02044344e+00, -1.17596924e+00, -8.71463060e-01,
          -9.94211853e-01, -1.15627646e+00, -7.86958933e-01,
          -6.22246444e-01, -4.95664507e-01, -4.50920880e-01,
          -5.48843801e-01, -4.93728161e-01, -5.54739714e-01,
          -5.03473163e-01, -3.72564197e-01, -5.32012820e-01,
          -9.89365518e-01, -6.14451587e-01, -3.71256262e-01,
          -2.17433766e-01, 4.78202812e-02, 9.72326566e-03,
          6.19544208e-01, 8.18476677e-01, 6.38285279e-01,
          -1.72667980e-01, -1.21748233e-02, -5.89239240e-01,
          -9.50857222e-01, 2.87271619e-01, 2.63639480e-01,
          -1.07937939e-01, 1.59573361e-01, -7.55082607e-01,
          6.01261556e-01, -2.35865623e-01, 9.36700284e-01 ]
      - [ 6.92589283e-01, 7.21371114e-01, 4.89158452e-01, 1.40486944e+00,
          6.46178186e-01, -7.87841141e-01, -8.20336163e-01,
          -1.27681386e+00, -1.51313972e+00, -1.70052564e+00,
          -1.46217954e+00, -1.50303352e+00, -1.20614755e+00,
          -1.34576547e+00, -1.12952495e+00, -9.10670698e-01,
          -9.45872247e-01, -1.01811838e+00, -7.12016284e-01,
          -1.33951157e-01, -4.48939353e-01, -1.43308789e-01,
          -4.19699103e-01, -4.17007089e-01, -6.27195239e-01,
          -6.73554838e-01, -1.33242714e+00, -1.23889828e+00,
          -7.41614401e-01, 7.07671463e-01, 6.18596196e-01,
          4.39228237e-01, 4.20238584e-01, 5.35680115e-01, 4.91744846e-01,
          2.91928966e-02, 2.63340056e-01, 7.12329090e-01,
          -3.71552974e-01, -4.59285527e-01, -3.31978261e-01,
          1.02891207e+00 ]
      - [ 5.80440229e-03, -9.91311222e-02, -2.97372043e-01,
          1.47627783e+00, 1.28808725e+00, 2.15155587e-01,
          -3.80100071e-01, -8.63350987e-01, -6.86737955e-01,
          -4.53576565e-01, -5.90355575e-01, -4.82964993e-01,
          -3.12421322e-01, 1.48351341e-01, 3.75584066e-01,
          2.20477477e-01, 2.81376004e-01, -1.42195880e-01,
          -3.24126154e-01, -6.83613300e-01, -3.89343143e-01,
          -3.76066744e-01, -4.66514587e-01, -2.01709062e-01,
          -2.06051514e-01, -9.21281753e-04, -2.17210382e-01,
          -4.29929227e-01, -5.13922945e-02, 5.34584373e-02,
          -3.98743480e-01, 9.79234874e-02, 3.97295892e-01,
          2.07767472e-01, -1.33034393e-01, 5.15211448e-02,
          5.97359985e-02, 3.78372490e-01, 3.95506293e-01, 6.35253429e-01,
          -2.73756176e-01, 5.29170692e-01 ]
      - [ 9.78733897e-02, -4.43671018e-01, 2.72278506e-02,
          4.55137104e-01, 1.90084860e-01, 3.77545536e-01, 3.90313119e-01,
          7.40078211e-01, 1.30634880e+00, 1.65664494e+00, 1.86451733e+00,
          2.08409500e+00, 1.59419465e+00, 1.17362463e+00, 3.62533987e-01,
          4.94482309e-01, 3.27128679e-01, 3.23137909e-01, 5.28119922e-01,
          7.94935286e-01, 5.03696859e-01, 3.35753918e-01, 6.66420341e-01,
          9.33988094e-01, 1.40264153e+00, 1.24686277e+00, 1.77332187e+00,
          7.72592366e-01, 9.60303128e-01, 1.04469037e+00, 1.89592266e+00,
          2.10171270e+00, 1.28058898e+00, 7.87079811e-01, 1.37779534e+00,
          9.55815136e-01, -2.03751609e-01, -3.81666601e-01,
          -8.23921263e-01, -1.66955248e-01, -5.98444402e-01,
          -8.90735805e-01 ]
      - [ -5.91399848e-01, -3.90391648e-01, 2.16209626e+00,
          1.35488355e+00, 2.69015193e+00, 2.54592896e+00, 1.43087113e+00,
          2.42418313e+00, 2.33692050e+00, 1.71768439e+00, 8.24446559e-01,
          7.09795132e-02, -7.53326297e-01, -8.51161242e-01,
          -7.98922956e-01, -7.56103873e-01, -4.23753470e-01,
          6.30984455e-02, 5.46193659e-01, 4.35950488e-01, 7.22216249e-01,
          6.11615181e-01, 4.39833373e-01, -1.23663522e-01,
          -8.47252309e-01, -1.09760642e+00, -8.33173156e-01,
          -6.85009599e-01, -5.33602238e-01, -2.24086493e-01,
          5.73381126e-01, 2.08546687e-02, 4.20238584e-01, 8.08940649e-01,
          1.32099724e+00, 1.26841056e+00, 2.09577656e+00, 1.34569502e+00,
          1.30024290e+00, 9.81815308e-02, -5.62402189e-01,
          -2.81395078e-01 ]
      - [ -4.04773504e-01, 7.32026994e-01, 4.64189231e-01,
          -7.15961397e-01, -6.37640059e-01, -2.36531701e-02,
          -9.90152173e-03, -4.80141491e-01, -1.14368951e+00,
          -7.41334021e-01, -1.37805617e+00, -8.47757697e-01,
          -8.42698932e-01, -8.20248485e-01, -8.81573439e-01,
          -6.54230297e-01, -6.55208170e-01, -6.64229989e-01,
          -8.70509028e-01, -2.84149557e-01, 5.57875216e-01,
          1.59646034e-01, -5.97597957e-01, -5.16582429e-01,
          -3.61609101e-01, -1.55437505e-02, 1.32915825e-01,
          7.36152351e-01, 1.37709647e-01, 1.82318583e-01, 4.37735796e-01,
          5.27306914e-01, 4.31709915e-01, -2.18518972e-01,
          -7.23734736e-01, -1.06489122e+00, -1.03014457e+00,
          -4.96824026e-01, 4.05340403e-01, 1.19951892e+00,
          -3.08258146e-01, 6.75498426e-01 ]
      - [ -9.57187414e-01, -1.27838111e+00, -7.53060341e-01,
          1.26658246e-01, 6.71516716e-01, 1.17994297e+00, 1.05066729e+00,
          1.46615934e+00, 2.30775332e+00, 2.64199638e+00, 3.11872029e+00,
          3.58379841e+00, 3.32802343e+00, 2.51317763e+00, 1.88069308e+00,
          6.91203713e-01, 3.89029354e-01, 6.75071061e-01, 8.70130539e-01,
          1.48201299e+00, 1.53850365e+00, 2.24461555e+00, 1.68699813e+00,
          1.60948563e+00, 1.13326132e+00, 9.05671775e-01, 1.15087533e+00,
          1.04224873e+00, 1.43305802e+00, 2.08548379e+00, 1.21769619e+00,
          1.20991647e+00, 6.61136687e-01, -3.38753611e-01,
          -5.64700067e-01, -4.29947348e-03, -1.67821482e-01,
          -1.16804488e-01, 2.14257278e-03, -4.86479044e-01,
          -5.84582031e-01, -1.88728821e+00 ]
      - [ -5.96376538e-01, -1.19668603e+00, -5.22095025e-01,
          2.76615977e-01, -1.81546748e-01, -1.12217343e+00,
          -8.30341518e-01, -1.15580034e+00, -1.33813703e+00,
          -7.58773923e-01, 3.12058777e-01, 6.72211945e-01,
          7.66008317e-01, 5.60521483e-01, 3.66883993e-01,
          -1.13246366e-01, -3.45704794e-01, -1.96941033e-01,
