%YAML:1.0
---
opencv_ml_svm:
   format: 3
   svmType: C_SVC
   kernel:
      type: RBF
      gamma: 5.0625000000000009e-01
   C: 2.5000000000000000e+00
   term_criteria: { iterations:10000 }
   var_count: 4
   class_count: 4
   class_labels: !!opencv-matrix
      rows: 4
      cols: 1
      dt: i
      data: [ 0, 1, 2, 3 ]
   sv_total: 9141
   support_vectors:
      - [ 3.36825877e-01, -1.31942615e-01, -1.72931790e-01,
          2.43592724e-01 ]
      - [ 3.36825877e-01, -1.16216218e+00, 8.21999967e-01,
          3.44446450e-01 ]
      - [ 3.36825877e-01, -6.91799700e-01, -1.73126534e-01,
          6.20734513e-01 ]
      - [ -5.05839765e-01, -1.14347541e+00, 2.39899564e+00,
          -1.55654812e+00 ]
      - [ 3.36825877e-01, -1.90465260e+00, 1.70156014e+00,
          -6.37619555e-01 ]
      - [ 3.36825877e-01, 2.34703764e-01, -6.50062382e-01,
          3.13973010e-01 ]
      - [ 3.36825877e-01, -1.83146763e+00, 2.99804544e+00,
          -1.13209486e+00 ]
      - [ 3.36825877e-01, -4.02092487e-01, -1.27042577e-01,
          3.71409953e-01 ]
      - [ 3.36825877e-01, 5.12575328e-01, -2.45566830e-01,
          -1.01705742e+00 ]
      - [ 2.02231169e-01, -2.78930157e-01, 2.07713649e-01,
          -4.08095643e-02 ]
      - [ 3.36825877e-01, 2.32647479e-01, -5.01293123e-01,
          4.88091230e-01 ]
      - [ 3.36825877e-01, -5.33154011e-01, -5.47291860e-02,
          1.48123175e-01 ]
      - [ 3.36825877e-01, 1.47688370e-02, -2.36485917e-02,
          -3.30596417e-01 ]
      - [ 3.36825877e-01, -1.41939148e-01, -2.28510812e-01,
          3.16489667e-01 ]
      - [ 3.36825877e-01, 6.16371489e+00, 4.50693464e+00,
          -9.78466868e-02 ]
      - [ 3.36825877e-01, -4.47177142e-01, -4.93834078e-01,
          1.35512006e+00 ]
      - [ 3.36825877e-01, -6.96705043e-01, 1.40130386e-01,
          2.86917627e-01 ]
      - [ 3.36825877e-01, -2.04072855e-02, -5.29791057e-01,
          1.64569783e+00 ]
      - [ 3.36825877e-01, -7.54615724e-01, -2.14687258e-01,
          1.13785923e+00 ]
      - [ 3.36825877e-01, -1.01952350e+00, 3.70860934e-01,
          4.02352720e-01 ]
      - [ 3.36825877e-01, 1.37609136e+00, -7.41616607e-01,
          -1.96718919e+00 ]
      - [ 3.36825877e-01, 1.19536614e+00, -5.70641875e-01,
          -2.54923075e-01 ]
      - [ 3.36825877e-01, -1.18736076e+00, 9.97207880e-01,
          1.95692018e-01 ]
      - [ 3.36825877e-01, -4.00653332e-01, -1.28368050e-01,
          3.01508099e-01 ]
      - [ 3.36825877e-01, 4.85178351e-01, 1.20784543e-01,
          -3.18570077e-01 ]
      - [ 3.36825877e-01, 3.11608791e-01, -6.14503205e-01,
          -8.92771780e-01 ]
      - [ 3.10654521e-01, -1.75574148e+00, 2.56248116e+00,
          -1.07625723e+00 ]
      - [ 3.36825877e-01, -1.94449461e+00, 1.80981100e+00,
          -1.31905627e+00 ]
      - [ 3.36825877e-01, 9.30534899e-01, 1.11964419e-01,
          -1.68039131e+00 ]
      - [ 1.37482211e-01, 5.40451229e-01, -8.42984140e-01,
          1.57937503e+00 ]
      - [ 3.36825877e-01, -8.61326575e-01, 3.50424945e-01,
          -2.36909956e-01 ]
      - [ 3.36825877e-01, -5.30785881e-02, 1.13726184e-01,
          -6.81821942e-01 ]
      - [ 3.36825877e-01, -4.70983863e-01, -6.01235807e-01,
          1.82609558e+00 ]
      - [ -1.36517596e+00, -2.89344132e-01, 5.82363069e-01,
          -8.15904617e-01 ]
      - [ 3.36825877e-01, 1.83383465e-01, -1.57216370e-01,
          -8.78698409e-01 ]
      - [ 3.36825877e-01, 5.93558908e-01, -9.87308621e-01,
          6.91408634e-01 ]
      - [ 3.36825877e-01, -8.01620424e-01, 5.01930833e-01,
          -7.72656351e-02 ]
      - [ 3.36825877e-01, 4.78286088e-01, -8.33972633e-01,
          1.72104764e+00 ]
      - [ 3.36825877e-01, 5.11572063e-01, -7.26641297e-01,
          9.41578522e-02 ]
      - [ -4.99346584e-01, 2.61451211e-03, -1.38885424e-01,
          -6.68900251e-01 ]
      - [ 3.36825877e-01, -2.13562918e+00, 2.78631639e+00,
          -7.58038640e-01 ]
      - [ 3.36825877e-01, 2.60256648e-01, -7.19888508e-01,
          1.35429609e+00 ]
      - [ 3.36825877e-01, 1.06220555e+00, -9.76759315e-01,
          9.16416228e-01 ]
      - [ 3.36825877e-01, 8.89764950e-02, -1.97572544e-01,
          -2.93956578e-01 ]
      - [ 2.63059527e-01, 7.88016438e-01, -3.24429482e-01,
          9.76260602e-02 ]
      - [ 3.36825877e-01, 3.44433524e-02, -2.19298705e-01,
          -1.11155286e-01 ]
      - [ 3.36825877e-01, 1.85262918e-01, -1.81977600e-01,
          3.62519696e-02 ]
      - [ -5.21361053e-01, -3.43615443e-01, 1.09062336e-01,
          2.71527600e-02 ]
      - [ 3.36825877e-01, -1.21246123e+00, 1.71511483e+00,
          -1.25211644e+00 ]
      - [ -1.19550002e+00, 7.69535184e-01, -9.10914481e-01,
          -1.51551127e+00 ]
      - [ 3.36825877e-01, 5.08143544e-01, -8.82564783e-01,
          1.00036633e+00 ]
      - [ 3.36825877e-01, 1.05778766e+00, -9.41463649e-01,
          7.80079246e-01 ]
      - [ 3.36825877e-01, 1.49334073e-01, -4.01857287e-01,
          -5.99742591e-01 ]
      - [ -1.57137263e+00, -1.29835856e+00, 5.66668689e-01,
          -1.14963222e+00 ]
      - [ 3.36825877e-01, -2.62073129e-01, 2.91793525e-01,
          -8.56795251e-01 ]
      - [ 3.36825877e-01, 1.69194758e-01, -8.44040632e-01,
          1.48928893e+00 ]
      - [ -1.67443722e-01, -6.05990708e-01, -1.06420338e-01,
          7.42216766e-01 ]
      - [ 3.36825877e-01, -1.93421912e+00, 1.58971107e+00,
          5.97840771e-02 ]
      - [ 3.36825877e-01, 7.74425149e-01, -5.37266672e-01,
          3.31920803e-01 ]
      - [ 1.43824995e-01, -7.77547956e-01, 9.00646508e-01,
          -8.73823047e-01 ]
      - [ 3.36825877e-01, 7.21770883e-01, -1.01395428e+00,
          1.50429940e+00 ]
      - [ 3.36825877e-01, 8.31116438e-01, -5.21161795e-01,
          -6.45140290e-01 ]
      - [ 3.36825877e-01, -4.97848809e-01, -8.38802218e-01,
          1.89003003e+00 ]
      - [ 9.89797860e-02, -1.03269577e+00, 2.80940175e+00,
          -2.11693883e+00 ]
      - [ 3.36825877e-01, -9.15063262e-01, 1.30671358e+00,
          -1.53649819e+00 ]
      - [ 3.36825877e-01, -7.47836113e-01, 5.57770729e-01,
          1.97008073e-01 ]
      - [ 3.36825877e-01, -3.60924214e-01, 2.00288445e-01,
          -1.46461511e+00 ]
      - [ 8.33134949e-02, 8.01682532e-01, -6.25897586e-01,
          8.07345808e-02 ]
      - [ -1.04671061e+00, -1.42247319e+00, 1.20563459e+00,
          -7.58352637e-01 ]
      - [ -8.45669746e-01, -3.86243194e-01, 2.81228155e-01,
          -1.50028479e+00 ]
      - [ 3.36825877e-01, -3.99921000e-01, -2.96332210e-01,
          1.06379128e+00 ]
      - [ 3.36825877e-01, 1.17008650e+00, -4.09188360e-01,
          -3.17797750e-01 ]
      - [ -1.51277316e+00, 7.16564119e-01, -7.46768951e-01,
          -1.35965407e+00 ]
      - [ 3.36825877e-01, 1.12144995e+00, -8.06767166e-01,
          1.07823133e+00 ]
      - [ 3.36825877e-01, 1.02193999e+00, -6.50877774e-01,
          -3.02585721e-01 ]
      - [ 3.36825877e-01, 1.09082413e+00, -5.95178068e-01,
          5.68915606e-01 ]
      - [ 3.36825877e-01, 1.79376447e+00, -8.44952703e-01,
          1.31686413e+00 ]
      - [ 3.36825877e-01, 4.23678488e-01, -7.52213672e-02,
          -7.81888545e-01 ]
      - [ 3.36825877e-01, 4.52661842e-01, -6.28695548e-01,
          7.61299849e-01 ]
      - [ 3.36825877e-01, -2.54864454e-01, -5.42586327e-01,
          1.11342907e+00 ]
      - [ -3.00053835e+00, -5.74530840e-01, 4.96792853e-01,
          -9.43183422e-01 ]
      - [ 3.36825877e-01, -8.68083298e-01, 1.46744323e+00,
          -1.41045880e+00 ]
      - [ 3.36825877e-01, 1.00688040e+00, -9.85470295e-01,
          1.02284324e+00 ]
      - [ 3.36825877e-01, 3.08071637e+00, -4.83179539e-01,
          8.34924340e-01 ]
      - [ 3.36825877e-01, 8.67698371e-01, -6.86589122e-01,
          1.11941695e+00 ]
      - [ 3.36825877e-01, 8.64323080e-01, -4.18865412e-01,
          -1.29639626e-01 ]
      - [ 3.36825877e-01, -1.29478884e+00, 1.91355646e+00,
          -1.45994592e+00 ]
      - [ 3.36825877e-01, -9.61781263e-01, -5.99624068e-02,
          2.00679040e+00 ]
      - [ 3.36825877e-01, 1.44166863e+00, -4.11353827e-01,
          -7.77424313e-03 ]
      - [ 3.36825877e-01, -5.86781561e-01, 3.12493354e-01,
          -4.48280126e-01 ]
      - [ 3.36825877e-01, -2.16581964e+00, 2.11285329e+00,
          -2.49113247e-01 ]
      - [ 3.36825877e-01, -5.51782668e-01, -1.66266710e-01,
          1.06412685e+00 ]
      - [ 3.36825877e-01, 5.19948125e-01, -5.39710760e-01,
          6.48159012e-02 ]
      - [ 3.36825877e-01, -5.25822818e-01, 3.73034269e-01,
          -3.07043821e-01 ]
      - [ 3.36825877e-01, 4.16676223e-01, -8.56674433e-01,
          2.94202596e-01 ]
      - [ -1.18582201e+00, -1.69343376e+00, 1.91638291e+00,
          -1.26617384e+00 ]
      - [ 3.36825877e-01, 1.37621999e+00, -5.72589040e-01,
          3.71329457e-01 ]
      - [ -4.01814967e-01, -1.71632558e-01, -4.05456424e-01,
          -8.34388509e-02 ]
      - [ 3.36825877e-01, 1.05910254e+00, -4.84115303e-01,
          2.14291021e-01 ]
      - [ 3.36825877e-01, 2.83698082e+00, -5.02041399e-01,
          1.41275668e+00 ]
      - [ 3.36825877e-01, 5.54049075e-01, -5.04493952e-01,
          5.81350148e-01 ]
      - [ 3.36825877e-01, 7.84908235e-02, -3.98041159e-01,
          -5.74959397e-01 ]
      - [ 3.36825877e-01, 2.64759332e-01, -6.46178186e-01,
          4.13390696e-01 ]
      - [ 3.36825877e-01, -3.24945360e-01, -4.72230822e-01,
          4.13854688e-01 ]
      - [ 3.36825877e-01, 2.99179722e-02, -1.77933976e-01,
          3.06354642e-01 ]
      - [ 3.36825877e-01, -6.53418601e-02, 2.67909139e-01,
          -1.60431814e+00 ]
      - [ 3.36825877e-01, 6.01962090e-01, -4.46902394e-01,
          1.19449504e-01 ]
      - [ -1.38159418e+00, -1.15788348e-01, -4.54581112e-01,
          -1.10841477e+00 ]
      - [ 3.36825877e-01, 2.67575728e-03, -7.25740671e-01,
          1.34589326e+00 ]
      - [ -2.66693950e-01, -1.60327697e+00, 1.58003581e+00,
          -5.93378782e-01 ]
      - [ 3.36825877e-01, -1.95144093e+00, 1.84314668e+00,
          8.56092125e-02 ]
      - [ 1.30226418e-01, 5.56765139e-01, -1.53619528e-01,
          -5.59160598e-02 ]
      - [ 3.36825877e-01, -5.49536109e-01, 1.46048414e-02,
          6.67527691e-02 ]
      - [ 3.36825877e-01, -8.46543759e-02, -4.37944103e-03,
          1.50503531e-01 ]
      - [ 3.36825877e-01, 1.24294186e+00, -6.65309906e-01,
          8.58077109e-01 ]
      - [ -8.67720032e+00, 1.31865275e+00, -4.10138965e-01,
          -1.74698555e+00 ]
      - [ 3.36825877e-01, 4.50044304e-01, -8.70064318e-01,
          1.67025399e+00 ]
      - [ 3.36825877e-01, 3.08418125e-01, -5.44690847e-01,
          1.47247955e-01 ]
      - [ -2.72768199e-01, -8.40660572e-01, 3.84165049e-01,
          -1.76013157e-01 ]
      - [ 3.36825877e-01, -6.84055805e-01, 6.31125152e-01,
          -4.90801960e-01 ]
      - [ 1.98750973e-01, 7.26090968e-02, -2.82088041e-01,
          -1.31593958e-01 ]
      - [ -9.77863729e-01, -2.69646096e+00, 3.07285357e+00,
          -6.20651364e-01 ]
      - [ 3.36825877e-01, 4.12201762e-01, -5.32257617e-01,
          5.43369174e-01 ]
      - [ 2.15341017e-01, -1.99062836e+00, 3.44506383e+00,
          -1.39122450e+00 ]
      - [ 3.36825877e-01, -7.91263223e-01, 6.97201908e-01,
          -1.13980401e+00 ]
      - [ 3.36825877e-01, -1.92664340e-01, 5.90598524e-01,
          -1.59600043e+00 ]
      - [ 3.36825877e-01, -2.22783399e+00, 3.00258017e+00,
          -1.39615917e+00 ]
      - [ 3.36825877e-01, 6.36728406e-01, -8.98067534e-01,
          1.36450028e+00 ]
      - [ 3.36825877e-01, 8.47104073e-01, -8.43796611e-01,
          6.62567139e-01 ]
      - [ 3.36825877e-01, 3.54159445e-01, -1.74444035e-01,
          -8.87180984e-01 ]
      - [ 3.36825877e-01, -4.30959284e-01, -4.89234895e-01,
          1.34254730e+00 ]
      - [ -1.84802186e+00, -2.33640361e+00, 2.63338995e+00,
          -9.64255095e-01 ]
      - [ 3.36825877e-01, -4.83802855e-01, -4.95105028e-01,
          1.08671165e+00 ]
      - [ 3.36825877e-01, 1.09779489e+00, -1.21775496e+00,
          1.13757741e+00 ]
      - [ 3.32072824e-01, 3.06589603e-01, -7.56811738e-01,
          1.63822985e+00 ]
      - [ 1.96930304e-01, -2.97362804e-01, 3.57127488e-02,
          -2.39279315e-01 ]
      - [ 3.36825877e-01, -2.03809762e+00, 4.28726053e+00,
          -2.58544588e+00 ]
      - [ 3.36825877e-01, 3.31310987e-01, -5.37403107e-01,
          7.29769289e-01 ]
      - [ -6.26664042e-01, -7.47966290e-01, 6.48052812e-01,
          -6.56059086e-01 ]
      - [ 1.53041080e-01, 2.57321894e-01, 4.43128534e-02,
          -6.00469768e-01 ]
      - [ 3.36825877e-01, 2.29874754e+00, -1.16489089e+00,
          2.42261171e+00 ]
      - [ 3.36825877e-01, -2.12525535e+00, 2.58282137e+00,
          -8.15050304e-01 ]
      - [ 3.36825877e-01, -1.97592700e+00, 9.96860802e-01,
          4.45309311e-01 ]
      - [ 3.36825877e-01, 4.06505197e-01, -4.59583491e-01,
          4.81986374e-01 ]
      - [ -1.68872327e-01, 9.59105045e-02, -2.09255531e-01,
          -7.85663910e-03 ]
      - [ 3.36825877e-01, 1.00943875e+00, -6.61508262e-01,
          -2.98874006e-02 ]
      - [ 3.36825877e-01, 6.13155603e-01, -5.62083244e-01,
          3.06268811e-01 ]
      - [ -2.73530841e-01, -1.04117501e+00, 9.95362163e-01,
          -1.25784850e+00 ]
      - [ 3.36825877e-01, 3.29591870e-01, -3.15228999e-01,
          -9.72980186e-02 ]
      - [ 3.36825877e-01, -1.13660002e+00, 1.95492995e+00,
          -1.45112383e+00 ]
      - [ 3.36825877e-01, -9.13603485e-01, 9.71110314e-02,
          -2.90071070e-01 ]
      - [ 3.36825877e-01, 3.09656356e-02, -8.08083713e-01,
          1.65506363e+00 ]
      - [ 3.36825877e-01, -9.20398712e-01, 9.47323382e-01,
          -4.91246581e-01 ]
      - [ 3.36825877e-01, 1.34423465e-01, 3.07283793e-02,
          -7.38625526e-01 ]
      - [ -9.96951163e-01, -3.31676632e-01, -1.93362042e-01,
          1.25093028e-01 ]
      - [ 3.36825877e-01, 1.90429628e-01, -9.71220195e-01,
          1.04161501e+00 ]
      - [ 3.36825877e-01, -1.52327931e+00, 6.87885642e-01,
          1.19921088e+00 ]
      - [ -8.91164839e-01, -1.11319816e+00, 1.61213589e+00,
          -1.68874931e+00 ]
      - [ 3.36825877e-01, 1.86948836e-01, -2.24702626e-01,
          5.32997966e-01 ]
      - [ -1.61615336e+00, -1.77506125e+00, 2.85842800e+00,
          -1.26957560e+00 ]
      - [ -5.94901800e-01, 1.09171546e+00, -4.23625112e-01,
          1.71425566e-01 ]
      - [ 4.34898809e-02, 7.92318463e-01, -5.49799979e-01,
          -8.44270349e-01 ]
      - [ 3.36825877e-01, -1.48410845e+00, 1.74926436e+00,
          -4.94449764e-01 ]
      - [ 3.36825877e-01, 1.86807722e-01, -7.74122417e-01,
          7.35356271e-01 ]
      - [ 3.36825877e-01, -3.16499293e-01, 5.27969114e-02,
          -2.40820527e-01 ]
      - [ 3.36825877e-01, 2.24983168e+00, -6.54269695e-01,
          8.37905765e-01 ]
      - [ 3.36825877e-01, 3.32122564e+00, -4.96600429e-03,
          7.44896710e-01 ]
      - [ 2.15512872e-01, -7.79124022e-01, 1.58299172e+00,
          -1.33844388e+00 ]
      - [ 3.36825877e-01, 5.36083400e-01, -8.84221196e-01,
          1.09040534e+00 ]
      - [ 3.36825877e-01, -1.00310898e+00, 1.59674072e+00,
          -9.98637974e-01 ]
      - [ 3.36825877e-01, -6.01411939e-01, -4.55335453e-02,
          -4.46930289e-01 ]
      - [ 3.36825877e-01, -1.84837425e+00, 1.29766691e+00,
          -1.06840694e+00 ]
      - [ 3.36825877e-01, 8.98510873e-01, -6.46582544e-01,
          -1.72539636e-01 ]
      - [ 3.36825877e-01, 5.53365648e-01, -8.90360832e-01,
          4.59536046e-01 ]
      - [ 3.36825877e-01, 3.59515399e-01, -3.71092677e-01,
          -1.41541421e-01 ]
      - [ -3.86954308e-01, 2.62018037e-03, -4.00010347e-01,
          -1.86709142e+00 ]
      - [ 3.36825877e-01, -2.81273216e-01, -4.28127348e-01,
          5.62900491e-02 ]
      - [ 3.36825877e-01, -4.04967442e-02, -5.03115475e-01,
          -5.78087389e-01 ]
      - [ 3.36825877e-01, 1.73786891e+00, -6.78862989e-01,
          5.51974773e-01 ]
      - [ 3.36825877e-01, -2.02946126e-01, -1.57359809e-01,
          -1.21423222e-01 ]
      - [ 3.36825877e-01, -5.49519658e-01, -1.72598138e-02,
          1.83238894e-01 ]
      - [ 3.36825877e-01, 9.00792301e-01, -8.10667574e-01,
          1.02815151e+00 ]
      - [ 3.36825877e-01, -1.39364946e+00, 1.24543798e+00,
          -9.44093943e-01 ]
      - [ 3.36825877e-01, 5.87491751e-01, -6.10590339e-01,
          -5.41605115e-01 ]
      - [ -1.77976048e+00, -8.59999001e-01, 2.20486075e-01,
          -1.83098793e-01 ]
      - [ 3.36825877e-01, 2.69547790e-01, -2.20305622e-01,
          -9.96962190e-02 ]
      - [ 3.36825877e-01, 2.94377416e-01, -1.24119639e-01,
          -1.75745821e+00 ]
      - [ 3.36825877e-01, 8.83440077e-01, -6.11390948e-01,
          5.12086213e-01 ]
      - [ 3.36825877e-01, 5.14563203e-01, -5.63532054e-01,
          4.68959510e-01 ]
      - [ 3.36825877e-01, 4.59146708e-01, -5.20491719e-01,
          6.80918992e-01 ]
      - [ 3.36825877e-01, 1.16630960e+00, -7.88855195e-01,
          1.58396494e+00 ]
      - [ 3.36825877e-01, 6.88959658e-02, -7.82462731e-02,
          -9.91619170e-01 ]
      - [ 3.36825877e-01, 7.02876449e-01, -5.58540761e-01,
          8.41099799e-01 ]
      - [ 3.36825877e-01, -2.30064437e-01, -3.02870512e-01,
          2.20148325e-01 ]
      - [ 3.36825877e-01, 1.41996360e+00, -7.83165455e-01,
          -1.63303733e-01 ]
      - [ 3.36825877e-01, 1.35349095e+00, -8.04583907e-01,
          -2.84060001e-01 ]
      - [ 3.36825877e-01, 1.87663639e+00, -7.75068879e-01,
          9.48126793e-01 ]
      - [ 3.36825877e-01, -3.44399482e-01, -2.39184991e-01,
          2.53291875e-01 ]
      - [ 3.36825877e-01, 1.18964303e+00, -8.96179497e-01,
          -3.64839844e-02 ]
      - [ 3.36825877e-01, 1.03041220e+00, -2.91773796e-01,
          -8.14131439e-01 ]
      - [ 3.36825877e-01, -1.29912049e-01, -8.65897715e-01,
          1.76423740e+00 ]
      - [ 3.36825877e-01, -2.33518347e-01, -1.48455665e-01,
          2.21085429e-01 ]
      - [ 2.93070912e-01, -1.31136668e+00, 1.62164414e+00,
          -8.52265418e-01 ]
      - [ -5.42338908e-01, -1.46557748e-01, -4.19462234e-01,
          -1.22927226e-01 ]
      - [ 3.36825877e-01, 3.87749821e-02, -7.23007500e-01,
          1.05016828e+00 ]
      - [ 3.36825877e-01, 1.09259665e+00, -1.06578815e+00,
          1.53730929e+00 ]
      - [ 3.36825877e-01, -2.96906662e+00, 4.33228636e+00,
          -1.08215857e+00 ]
      - [ 3.36825877e-01, -9.66638565e-01, 4.72927153e-01,
          5.28926790e-01 ]
      - [ 9.53492001e-02, -1.49306262e+00, 1.09949529e+00,
          1.42685831e-01 ]
      - [ 3.36825877e-01, 2.67632818e+00, -1.36785313e-01,
          -3.91430482e-02 ]
      - [ 3.36825877e-01, -4.63959754e-01, -5.07632308e-02,
          8.92396644e-03 ]
      - [ -2.54389703e-01, -7.33213902e-01, 4.76158917e-01,
          -9.65826631e-01 ]
      - [ 2.18407676e-01, 2.76443839e-01, -3.23495954e-01,
          -3.74527335e-01 ]
      - [ 3.36825877e-01, 5.94547987e-01, -7.47771680e-01,
          8.41018558e-01 ]
      - [ 3.36825877e-01, -2.00793076e+00, 1.92093134e+00,
          -9.71845329e-01 ]
      - [ 3.36825877e-01, -1.05353487e+00, 6.95085287e-01,
          3.90837073e-01 ]
      - [ 3.36825877e-01, -1.94522989e+00, 1.49126363e+00,
          -9.40051615e-01 ]
      - [ 3.36825877e-01, 1.13305569e+00, -1.36459899e+00,
          2.33681989e+00 ]
      - [ 3.36825877e-01, -4.03145641e-01, 6.17254794e-01,
          -6.35676563e-01 ]
      - [ 3.36825877e-01, -6.66872203e-01, 6.92552388e-01,
          -1.03913784e+00 ]
      - [ 3.36825877e-01, 1.28238773e+00, -1.05168366e+00,
          1.81993759e+00 ]
      - [ 3.36825877e-01, 2.04652691e+00, -3.91995847e-01,
          -8.17582831e-02 ]
      - [ 3.36825877e-01, -5.68910316e-02, -5.43904006e-01,
          1.00963414e+00 ]
      - [ -1.43741703e+00, -7.49505520e-01, 5.49311578e-01,
          6.52294010e-02 ]
      - [ 3.36825877e-01, 1.05977321e+00, -9.01560903e-01,
          3.30149114e-01 ]
      - [ -2.98265934e+00, 1.16585124e+00, -8.04772079e-01,
          -8.72430950e-02 ]
      - [ 3.36825877e-01, 3.37104529e-01, -6.26910269e-01,
          8.59391630e-01 ]
      - [ 3.36825877e-01, 6.56724572e-01, -8.67054880e-01,
          1.17044151e+00 ]
      - [ 3.36825877e-01, 3.59954506e-01, -3.50911349e-01,
          -6.24766588e-01 ]
      - [ 3.36825877e-01, -2.65369594e-01, -5.78559518e-01,
          5.88067114e-01 ]
      - [ -8.69118154e-01, -1.02055836e+00, 1.29206121e-01,
          7.41595566e-01 ]
      - [ 3.36825877e-01, 1.04136908e+00, -7.67998159e-01,
          1.47106624e+00 ]
      - [ 1.14313081e-01, 1.74490118e+00, -2.15430692e-01,
          -1.62903380e+00 ]
      - [ 3.36825877e-01, 2.05733292e-02, 1.06603789e+00,
          -1.33148849e+00 ]
      - [ 3.36825877e-01, 3.56279343e-01, -1.91879258e-01,
          -1.35885179e+00 ]
      - [ 3.36825877e-01, -3.39011461e-01, -1.83385849e-01,
          2.86185563e-01 ]
      - [ -8.61443460e-01, 3.23880464e-02, -4.21642095e-01,
          -1.56786931e+00 ]
      - [ 3.36825877e-01, 7.54286349e-02, -1.31748199e-01,
          -3.80289964e-02 ]
      - [ 3.36825877e-01, 2.02118373e+00, -7.04343617e-01,
          8.28168631e-01 ]
      - [ 3.36825877e-01, -2.61640215e+00, 2.64847779e+00,
          1.48099631e-01 ]
      - [ 3.36825877e-01, 1.18542159e+00, -9.09938931e-01,
          8.00984144e-01 ]
      - [ 3.36825877e-01, -1.37547779e+00, 1.04631948e+00,
          -9.73448813e-01 ]
      - [ 3.36825877e-01, 7.44689345e-01, 4.21726942e-01,
          -7.97531545e-01 ]
      - [ 3.36825877e-01, 7.52537489e-01, -6.42930090e-01,
          6.22973204e-01 ]
      - [ 3.36825877e-01, 2.15813369e-01, -7.43781090e-01,
          5.43725371e-01 ]
      - [ 3.36825877e-01, -9.16716099e-01, 3.12794566e-01,
          -1.62865177e-01 ]
      - [ 3.36825877e-01, 1.05633342e+00, 3.46734941e-01,
          -1.02347279e+00 ]
      - [ 3.36825877e-01, -1.30021620e+00, 6.26366913e-01,
          4.02004927e-01 ]
      - [ 3.36825877e-01, -2.99712956e-01, -1.25063300e-01,
          2.33223021e-01 ]
      - [ 3.36825877e-01, -2.55759787e-02, 4.23736751e-01,
          -1.18910694e+00 ]
      - [ 3.69644985e-02, -5.13210177e-01, -1.06800459e-01,
          -6.14882529e-01 ]
      - [ 3.36825877e-01, 8.90393019e-01, -3.04714650e-01,
          2.69164205e-01 ]
      - [ 3.36825877e-01, 7.21556842e-02, -4.73087490e-01,
          8.06203950e-03 ]
      - [ 3.08533102e-01, -8.40432644e-01, 4.97530967e-01,
          -3.83910924e-01 ]
      - [ -2.93901831e-01, 1.77051461e+00, 1.07114887e+00,
          -1.25988936e+00 ]
      - [ -2.82972908e+00, -2.12324190e+00, 2.31719875e+00,
          -6.93459809e-01 ]
      - [ 3.36825877e-01, 9.78023827e-01, -7.99401343e-01,
          8.85459781e-01 ]
      - [ 3.36825877e-01, -1.45054162e+00, 6.08300388e-01,
          -2.28625596e-01 ]
      - [ 3.36825877e-01, -1.56429768e+00, 1.38515151e+00,
          -5.35053313e-01 ]
      - [ 3.36825877e-01, 2.49448434e-01, -1.97321326e-01,
          2.92503804e-01 ]
      - [ 3.36825877e-01, 1.55733883e-01, -1.82320863e-01,
          2.97960907e-01 ]
      - [ 3.36825877e-01, -6.20961487e-01, -2.02041119e-01,
          1.07573056e+00 ]
      - [ 3.36825877e-01, -3.01163292e+00, 3.29925013e+00,
          -5.42817891e-01 ]
      - [ -2.43136406e+00, -1.04670668e+00, 2.93302238e-01,
          8.84987563e-02 ]
      - [ 3.15171272e-01, -6.24806046e-01, 1.33375823e+00,
          -1.38664913e+00 ]
      - [ 1.86242655e-01, -3.62996459e-01, -4.92130578e-01,
          -4.60258245e-01 ]
      - [ 3.36825877e-01, 2.94528931e-01, -5.02696991e-01,
          3.74380738e-01 ]
      - [ 3.36825877e-01, -1.48639947e-01, 1.10929079e-01,
          -2.12104227e-02 ]
      - [ 3.36825877e-01, 1.01450372e+00, -1.28545678e+00,
          1.65922892e+00 ]
      - [ 3.36825877e-01, -1.04289722e+00, 6.78603292e-01,
          -1.72487199e+00 ]
      - [ 1.37009591e-01, -2.54456139e+00, 4.24964333e+00,
          -2.30702734e+00 ]
      - [ 3.36825877e-01, 1.15364456e+00, -5.07560074e-01,
          -9.66756523e-01 ]
      - [ 1.24753691e-01, 2.40937337e-01, -3.72166425e-01,
          6.41294658e-01 ]
      - [ 2.07011089e-01, -9.77875888e-01, 1.99795559e-01,
          3.88377368e-01 ]
      - [ 3.36825877e-01, -1.62723088e+00, 1.57915318e+00,
          9.42117721e-02 ]
      - [ 3.36825877e-01, -1.93749428e-01, -4.15707141e-01,
          6.68145001e-01 ]
      - [ 3.36825877e-01, -7.15038121e-01, 8.42511207e-02,
          2.41584852e-01 ]
      - [ 3.36825877e-01, -2.92622113e+00, 4.37338686e+00,
          -7.63371170e-01 ]
      - [ -4.40273237e+00, -1.55661309e+00, 2.62342787e+00,
          -2.38176322e+00 ]
      - [ 3.36825877e-01, -5.89260638e-01, -3.20270389e-01,
          -1.11917727e-01 ]
      - [ -3.38677227e-01, 2.02594221e-01, -4.33683217e-01,
          9.64616146e-03 ]
      - [ 2.84708768e-01, -1.25713265e+00, 1.03760397e+00,
          -3.97083610e-01 ]
      - [ 3.36825877e-01, 1.18910082e-01, -6.77231133e-01,
          1.41844407e-01 ]
      - [ 3.36825877e-01, 7.42648840e-01, -1.00740671e+00,
          1.03092945e+00 ]
      - [ 3.36825877e-01, -1.07048810e+00, 9.93278801e-01,
          -6.64722383e-01 ]
      - [ 3.36825877e-01, -9.02243912e-01, 5.14231026e-01,
          5.79458475e-01 ]
      - [ 3.36825877e-01, -1.28720653e+00, 1.67178488e+00,
          -2.58269334e+00 ]
      - [ 3.36825877e-01, 3.44335377e-01, -8.14028382e-01,
          1.22387268e-01 ]
      - [ 3.36825877e-01, -1.97979879e+00, 1.72870386e+00,
          -1.32640421e-01 ]
      - [ 3.36825877e-01, 2.21963501e+00, -1.21269393e+00,
          6.44578412e-02 ]
      - [ 3.36825877e-01, -2.63441861e-01, 1.05475947e-01,
          -4.12067324e-02 ]
      - [ 3.36825877e-01, 4.95593548e-02, -7.24050462e-01,
          2.82847971e-01 ]
      - [ 3.36825877e-01, -1.87719434e-01, -7.76441038e-01,
          9.26640153e-01 ]
      - [ 3.36825877e-01, 8.00439477e-01, -8.97102714e-01,
          1.05845869e+00 ]
      - [ 3.36825877e-01, 6.76790237e-01, -5.85340798e-01,
          3.78469378e-01 ]
      - [ 3.36825877e-01, 8.65659475e-01, -7.33557761e-01,
          4.18636017e-02 ]
      - [ 3.36825877e-01, 3.78541172e-01, -6.36407256e-01,
          1.42042899e+00 ]
      - [ 3.36825877e-01, -1.19954443e+00, 9.66766059e-01,
          -5.37506998e-01 ]
      - [ 3.36825877e-01, 1.53401822e-01, -8.18733275e-02,
          -3.11067909e-01 ]
      - [ 3.36825877e-01, 7.83681512e-01, -6.56481564e-01,
          -4.16682750e-01 ]
      - [ -4.64345843e-01, 2.01558277e-01, -6.58821464e-01,
          9.07182634e-01 ]
      - [ 3.36825877e-01, -1.30972612e+00, 1.49422193e+00,
          -1.07845688e+00 ]
      - [ -4.27250534e-01, 2.25232780e-01, -1.47404537e-01,
          -5.86662233e-01 ]
      - [ 3.36825877e-01, -1.23685765e+00, 1.21958017e+00,
          -3.34735185e-01 ]
      - [ 3.36825877e-01, 7.57252395e-01, -7.25051820e-01,
          7.69263029e-01 ]
      - [ 3.36825877e-01, -9.19960618e-01, 2.20582080e+00,
          -2.25896716e+00 ]
      - [ 3.36825877e-01, -5.70606947e-01, 1.16583770e-02,
          1.66887730e-01 ]
      - [ 3.16825449e-01, -1.39326423e-01, -2.16075361e-01,
          1.77012131e-01 ]
      - [ 3.36825877e-01, 2.97145277e-01, -4.12956834e-01,
          -9.54359546e-02 ]
      - [ -3.01050216e-01, -1.13055360e+00, 5.81508696e-01,
          -8.42367291e-01 ]
      - [ 3.36825877e-01, -1.86315611e-01, -2.64754504e-01,
          2.61442572e-01 ]
      - [ 3.36825877e-01, -2.46577799e-01, -1.40076682e-01,
          -5.73483109e-01 ]
      - [ 3.36825877e-01, 9.46130008e-02, 3.56641054e-01,
          -6.83900774e-01 ]
      - [ 3.36825877e-01, -7.14730144e-01, 8.32403481e-01,
          -8.90689433e-01 ]
      - [ -2.17994094e+00, -5.31036794e-01, 1.05912936e+00,
          -1.86882401e+00 ]
      - [ -2.10288763e+00, -1.12792909e+00, 1.43722165e+00,
          -8.05313170e-01 ]
      - [ 2.16909260e-01, -1.14834714e+00, 1.19774139e+00,
          -4.29822743e-01 ]
      - [ 3.36825877e-01, 4.27342534e-01, -8.67402613e-01,
          4.73701239e-01 ]
      - [ -2.69830847e+00, -2.22975817e-02, -1.06128871e+00,
          9.14706826e-01 ]
      - [ -6.28774703e-01, -1.10608876e+00, 1.77033412e+00,
          -2.06198740e+00 ]
      - [ 3.36825877e-01, 2.97109246e-01, -1.82644963e-01,
          -6.31584525e-01 ]
      - [ 3.36825877e-01, 9.30125475e-01, -3.46421003e-01,
          -8.72366905e-01 ]
      - [ 3.36825877e-01, -1.10647887e-01, -2.92628974e-01,
          -4.18063343e-01 ]
      - [ 3.36825877e-01, -6.13737702e-01, 6.66175067e-01,
          -2.76150763e-01 ]
      - [ 3.36825877e-01, 2.42168859e-01, -1.00891978e-01,
          1.33861139e-01 ]
      - [ -7.21827149e-01, -7.81185865e-01, 6.62076592e-01,
          -3.24732274e-01 ]
      - [ 3.36825877e-01, 6.34229541e-01, -2.83317924e-01,
          2.03448594e-01 ]
      - [ -2.49880385e+00, -2.22722673e+00, 2.64340281e+00,
          -1.22816169e+00 ]
      - [ 3.36825877e-01, 2.04882789e+00, -8.62085745e-02,
          -1.19760878e-01 ]
      - [ 3.36825877e-01, -2.45942760e+00, 2.28834152e+00,
          -2.58190423e-01 ]
      - [ 3.36825877e-01, 1.63135433e+00, -7.57369161e-01,
          4.41004246e-01 ]
      - [ 3.36825877e-01, -9.41999853e-02, -7.76954532e-01,
          9.25488114e-01 ]
      - [ 3.36825877e-01, -1.18294299e+00, 1.12864137e+00,
          -6.57885075e-01 ]
      - [ 3.36825877e-01, 9.49299186e-02, -5.09320796e-01,
          8.66211116e-01 ]
      - [ -2.36580521e-01, -7.39752591e-01, 5.34845054e-01,
          -8.42426121e-01 ]
      - [ -2.76371926e-01, -3.70399922e-01, 1.07756960e+00,
          -9.48559642e-01 ]
      - [ 3.36825877e-01, 5.38626254e-01, -2.31941804e-01,
          8.91616285e-01 ]
      - [ 3.36825877e-01, 5.76496780e-01, -4.93283123e-01,
          4.80235294e-02 ]
      - [ 3.36825877e-01, 1.07881856e+00, -9.72050667e-01,
          1.43593538e+00 ]
      - [ -4.10876460e-02, -1.05690062e+00, 1.62697268e+00,
          -1.26926267e+00 ]
      - [ 3.36825877e-01, -4.34789002e-01, -1.56896502e-01,
          8.34747374e-01 ]
      - [ -1.01362824e-01, -4.29066062e-01, 3.48421663e-01,
          -4.16371018e-01 ]
      - [ 3.36825877e-01, -1.78162441e-01, -3.90994519e-01,
          7.55138040e-01 ]
      - [ 3.36825877e-01, 1.50176990e+00, -7.84879863e-01,
          7.49811590e-01 ]
      - [ 3.36825877e-01, -9.79713559e-01, 5.08004785e-01,
          -3.00605178e-01 ]
      - [ 3.36825877e-01, 6.61460310e-02, 2.45649755e-01,
          -2.26230428e-01 ]
      - [ 3.26035023e-02, 6.37344122e-01, -8.94572854e-01,
          1.10132344e-01 ]
      - [ 9.38603841e-03, 4.74417210e-01, -3.47311050e-01,
          -7.34499693e-01 ]
      - [ 3.36825877e-01, -1.33645189e+00, 1.98711678e-01,
          9.44752753e-01 ]
      - [ 3.36825877e-01, -6.78537786e-01, 1.87033340e-01,
          1.40780583e-02 ]
      - [ -1.65401673e+00, -1.51865184e+00, 1.66009688e+00,
          -1.59399211e+00 ]
      - [ 3.36825877e-01, 4.23038185e-01, -4.74795520e-01,
          2.93863922e-01 ]
      - [ 3.36825877e-01, -4.32372838e-02, -1.90610319e-01,
          -2.54842579e-01 ]
      - [ 3.36825877e-01, -3.81675303e-01, 9.63842124e-02,
          -1.41142321e+00 ]
      - [ -1.23310018e+00, 3.23411644e-01, -8.04315209e-01,
          -1.59321225e+00 ]
      - [ -2.41513395e+00, -7.42463350e-01, 4.38390911e-01,
          -5.26547968e-01 ]
      - [ -3.66470516e-01, -2.43406743e-01, -2.85667717e-01,
          -2.47351423e-01 ]
      - [ -4.17771280e-01, -1.18026745e+00, 2.16967940e+00,
          -1.79555380e+00 ]
      - [ -1.31484735e+00, -1.88590181e+00, 2.31293845e+00,
          -1.59102774e+00 ]
      - [ 3.36825877e-01, 6.99578702e-01, -3.58905494e-01,
          -2.46241927e-01 ]
      - [ 3.36825877e-01, -2.56504357e-01, -3.93729091e-01,
          3.14895660e-01 ]
      - [ -3.71261150e-01, -3.09330523e-01, 3.60722274e-01,
          -9.20954108e-01 ]
      - [ 3.36825877e-01, 2.16034010e-01, -2.55419344e-01,
          -5.96626759e-01 ]
      - [ 2.19444215e-01, 1.82294875e-01, 2.16692358e-01,
          -1.78247643e+00 ]
      - [ 3.36825877e-01, -1.16245151e+00, 7.64114261e-01,
          -7.60434568e-01 ]
      - [ -1.42326534e+00, 1.82692242e+00, -7.11305261e-01,
          -1.16796887e+00 ]
      - [ 3.36825877e-01, 6.72579348e-01, -8.35453808e-01,
          -5.02237082e-01 ]
      - [ 3.36825877e-01, -1.82495999e+00, 1.36284149e+00,
          5.26703238e-01 ]
      - [ 3.36825877e-01, 5.33978790e-02, -4.63769063e-02,
          -5.45866132e-01 ]
      - [ 3.36825877e-01, 1.00277174e+00, -9.61593628e-01,
          1.73545742e+00 ]
      - [ 3.36825877e-01, 3.41130823e-01, -3.06088179e-01,
          -3.54089051e-01 ]
      - [ 3.36825877e-01, 4.95137483e-01, -3.80264759e-01,
          2.21793205e-01 ]
      - [ 3.36825877e-01, 1.04074061e+00, -1.03229833e+00,
          1.35161686e+00 ]
      - [ 3.36825877e-01, 3.83902264e+00, 2.48225033e-01, 1.21453714e+00 ]
      - [ 3.36825877e-01, -1.45646143e+00, 1.62345600e+00,
          -7.42796183e-01 ]
      - [ -3.50712276e+00, -1.99502873e+00, 1.43336475e+00,
          -9.79381949e-02 ]
      - [ -2.65823793e+00, -4.82423365e-01, 4.60602976e-02,
          -6.45568252e-01 ]
      - [ 3.36825877e-01, 5.19315958e-01, -6.25650108e-01,
          7.43674040e-01 ]
      - [ 1.44147232e-01, 8.24811041e-01, -3.76191139e-01,
          2.38330036e-01 ]
      - [ 3.36825877e-01, 9.85353370e-04, -3.44007552e-01,
          3.92504752e-01 ]
      - [ 3.36825877e-01, -1.59951389e+00, 1.01283705e+00,
          6.78057551e-01 ]
      - [ 3.36825877e-01, 1.37964904e+00, -5.49489856e-01,
          -1.52297771e+00 ]
      - [ -3.20284128e+00, -6.45825565e-01, 4.48409021e-01,
          -9.25742924e-01 ]
      - [ 3.36825877e-01, 3.14451724e-01, -6.44705594e-01,
          9.51999724e-01 ]
      - [ 3.36825877e-01, 5.19306540e-01, -6.26943529e-01,
          7.94039428e-01 ]
      - [ 3.36825877e-01, -7.18378842e-01, 3.77089769e-01,
          1.91746518e-01 ]
      - [ 3.36825877e-01, -1.47214329e+00, 5.78752398e-01,
          7.94389486e-01 ]
      - [ 3.36825877e-01, -4.93981421e-01, 7.57840216e-01,
          -1.25033104e+00 ]
      - [ 3.36825877e-01, 6.19752049e-01, -9.43401814e-01,
          2.09340215e+00 ]
      - [ -9.14661527e-01, -1.36878550e+00, 1.10675967e+00,
          -7.47078836e-01 ]
      - [ 3.36825877e-01, 9.74744633e-02, 3.49761188e-01,
          -5.73367655e-01 ]
      - [ 2.96137571e-01, -3.00192833e-01, -4.13162336e-02,
          4.82179374e-02 ]
      - [ 2.91175067e-01, 4.10546511e-01, -3.79549205e-01,
          -5.86424112e-01 ]
      - [ 3.36825877e-01, -9.65470135e-01, 3.91268522e-01,
          4.26245183e-01 ]
      - [ 3.36825877e-01, 1.04034603e+00, -8.76352549e-01,
          -5.42488277e-01 ]
      - [ 1.54109851e-01, -4.83873188e-01, -1.21461665e-02,
          3.74339730e-01 ]
      - [ -2.26729512e+00, -3.02093196e+00, 3.66456223e+00,
          -6.27953053e-01 ]
      - [ 3.36825877e-01, 4.83244628e-01, -6.53547704e-01,
          -6.81313515e-01 ]
      - [ 3.36825877e-01, 2.69645929e-01, -6.57117248e-01,
          6.38281345e-01 ]
      - [ 3.36825877e-01, 1.38004482e+00, -9.18973446e-01,
          1.27639461e+00 ]
      - [ 3.36825877e-01, -4.90399867e-01, -2.42034569e-01,
          2.53510565e-01 ]
      - [ 3.36825877e-01, -8.89365613e-01, 2.12420806e-01,
          2.29978085e-01 ]
      - [ -1.84388220e-01, -1.22703624e+00, 1.50220060e+00,
          -1.04560685e+00 ]
      - [ 3.36825877e-01, 1.63176417e+00, -1.19561028e+00,
          1.50646973e+00 ]
      - [ 3.36825877e-01, 7.90122986e-01, -3.66889685e-01,
          3.07125419e-01 ]
      - [ 3.36825877e-01, -1.13170013e-01, -3.43596280e-01,
          6.54738426e-01 ]
      - [ 3.36825877e-01, 8.88317406e-01, -5.57448387e-01,
          -1.62025738e+00 ]
      - [ -1.25856793e+00, -6.84292495e-01, 1.27447236e+00,
          -1.59869206e+00 ]
      - [ 3.36825877e-01, -6.01896167e-01, 6.95843518e-01,
          -2.94601321e-01 ]
      - [ 3.36825877e-01, 3.18592161e-01, -6.53758526e-01,
          1.18142104e+00 ]
      - [ -8.86513829e-01, 5.70636332e-01, -4.58610624e-01,
          -8.76504123e-01 ]
      - [ 3.36825877e-01, -3.29311550e-01, -5.80871522e-01,
          -4.91019040e-02 ]
      - [ 2.15136930e-01, -9.48618293e-01, 2.63864428e-01,
          4.56098944e-01 ]
      - [ 3.36825877e-01, 7.16105819e-01, -2.18734935e-01,
          -4.66160744e-01 ]
      - [ -4.68642282e+00, -8.56139958e-01, 8.34215954e-02,
          5.35483539e-01 ]
      - [ 3.36825877e-01, 5.05940020e-01, -5.40916741e-01,
          8.74743044e-01 ]
      - [ 3.36825877e-01, -3.61860275e-01, 5.89949131e-01,
          -1.81286716e+00 ]
      - [ 3.36825877e-01, -7.30862141e-01, -6.05892539e-02,
          -1.45773566e+00 ]
      - [ 3.36825877e-01, 2.19150066e+00, -1.07284439e+00,
          1.54608035e+00 ]
      - [ 3.36825877e-01, -9.33680356e-01, 6.75220728e-01,
          -1.51912260e+00 ]
      - [ 3.36825877e-01, 1.35799021e-01, -6.78477407e-01,
          -4.40438762e-02 ]
      - [ 3.36825877e-01, 4.16891456e-01, -5.66434383e-01,
          -1.20750770e-01 ]
      - [ -3.38479653e-02, -1.67779601e+00, 3.47400022e+00,
          -2.20439005e+00 ]
      - [ -1.62963378e+00, 4.24809664e-01, -1.01222301e+00,
          7.22529888e-01 ]
      - [ 3.04397702e-01, -9.89175379e-01, 9.82418478e-01,
          -8.27331066e-01 ]
      - [ 3.36825877e-01, 5.70629478e-01, -7.29989886e-01,
          1.33102405e+00 ]
      - [ -5.18643439e-01, -5.35511553e-01, 2.02000618e-01,
          1.78855971e-01 ]
      - [ 3.36825877e-01, 4.94746625e-01, -5.71353912e-01,
          4.41443920e-01 ]
      - [ 3.36825877e-01, -1.82925785e+00, 2.16969776e+00,
          -3.38321865e-01 ]
      - [ -5.18208444e-01, -6.35947108e-01, 1.05636132e+00,
          -8.09197903e-01 ]
      - [ 3.36825877e-01, 3.77357483e-01, -9.82860148e-01,
          6.55478120e-01 ]
      - [ 3.36825877e-01, -3.97817135e-01, 7.11969256e-01,
          -8.58590841e-01 ]
      - [ 3.36825877e-01, 8.68341446e-01, -6.26727223e-01,
          -1.19633806e+00 ]
      - [ 3.36825877e-01, -2.38761649e-01, -7.65064418e-01,
          1.70488667e+00 ]
      - [ 3.36825877e-01, 1.68981031e-01, -8.67584169e-01,
          1.41230106e+00 ]
      - [ 3.36825877e-01, -9.36031938e-01, -6.88799890e-03,
          1.17591298e+00 ]
      - [ -3.88286233e-01, 5.76555908e-01, 3.43991935e-01,
          -3.21971476e-01 ]
      - [ 3.36825877e-01, -5.75748980e-01, 2.78325170e-01,
          -3.44048560e-01 ]
      - [ 3.36825877e-01, 6.37340426e-01, -7.51363337e-01,
          1.46311238e-01 ]
      - [ 3.36825877e-01, 8.53665173e-01, -6.30336583e-01,
          8.32025647e-01 ]
      - [ 3.34613144e-01, 4.91706669e-01, -3.59358102e-01,
          -4.91371512e-01 ]
      - [ 3.36825877e-01, -3.42042536e-01, -5.84022760e-01,
          1.44272900e+00 ]
      - [ 3.36825877e-01, -8.70187208e-02, -2.25952148e-01,
          -1.06285644e+00 ]
      - [ 3.36825877e-01, -5.95143318e-01, 3.93395364e-01,
          -1.18927054e-01 ]
      - [ 3.36825877e-01, 3.98927599e-01, -9.65264738e-01,
          9.99391258e-01 ]
      - [ 3.36825877e-01, 1.82992041e-01, 1.57689713e-02,
          -2.71169841e-01 ]
      - [ 3.36825877e-01, -1.45372331e-01, 9.62009430e-02,
          2.41654709e-01 ]
      - [ 3.36825877e-01, -1.86814427e+00, 1.73159158e+00,
          2.51805801e-02 ]
      - [ -1.35905874e+00, -2.52256775e+00, 3.61796975e+00,
          -1.31434226e+00 ]
      - [ 3.36825877e-01, -1.02212775e+00, 5.75362802e-01,
          -7.02328563e-01 ]
      - [ -6.00938439e-01, -1.41600370e+00, 1.10182738e+00,
          -7.38741696e-01 ]
      - [ 3.36825877e-01, -5.45044303e-01, -4.76894230e-01,
          4.98094887e-01 ]
      - [ 3.36825877e-01, 1.39877319e+00, -8.52164447e-01,
          8.01214278e-01 ]
      - [ 3.36825877e-01, -1.34794548e-01, -2.44626388e-01,
          1.09285069e+00 ]
      - [ 3.36825877e-01, -4.77268398e-01, -1.75159261e-01,
          3.21740955e-01 ]
      - [ 3.36825877e-01, 1.79481179e-01, -5.65169454e-01,
          -3.54625553e-01 ]
      - [ 3.36825877e-01, 8.66624951e-01, -6.48710370e-01,
          3.52398217e-01 ]
      - [ 3.36825877e-01, -6.51886582e-01, -2.69909322e-01,
          3.44442666e-01 ]
      - [ -2.06787610e+00, -2.94708252e-01, 6.56430304e-01,
          -2.61110711e+00 ]
      - [ 3.36825877e-01, 1.23448753e+00, -1.08664490e-01,
          -8.68994355e-01 ]
      - [ 3.36825877e-01, -1.05882609e+00, 6.29358888e-01,
          1.96454078e-01 ]
      - [ 3.36825877e-01, -1.98168635e-01, -5.92639983e-01,
          1.42820454e+00 ]
      - [ 3.36825877e-01, 1.05665195e+00, -2.13826850e-01,
          -3.59547287e-01 ]
      - [ 3.36825877e-01, 1.64113820e+00, -1.01937556e+00,
          1.47919798e+00 ]
      - [ 3.36825877e-01, 3.88940930e-01, -9.02787566e-01,
          1.39029193e+00 ]
      - [ 3.36825877e-01, -1.89536679e+00, 2.82785630e+00,
          -1.51720405e+00 ]
      - [ 3.36825877e-01, 1.90159965e+00, -5.93075991e-01,
          9.49817240e-01 ]
      - [ 3.36825877e-01, 2.52396371e-02, -9.03282583e-01,
          6.99264705e-01 ]
      - [ 3.36825877e-01, 8.99143279e-01, -1.39699554e+00,
          2.07898545e+00 ]
      - [ -9.95797589e-02, 1.20790131e-01, -1.03192009e-01,
          -3.89824420e-01 ]
      - [ -4.14905357e+00, 5.66986680e-01, 4.71286505e-01,
          -2.28684950e+00 ]
      - [ 3.36825877e-01, -8.53068471e-01, 6.59003079e-01,
          -4.59343910e-01 ]
      - [ 3.36825877e-01, -1.96590647e-01, 6.17340193e-05,
          1.93337485e-01 ]
      - [ 3.36825877e-01, -8.25929224e-01, 9.54787374e-01,
          -3.61495525e-01 ]
      - [ 3.36825877e-01, -3.41808987e+00, 3.39275980e+00,
          2.94909719e-02 ]
      - [ 3.36825877e-01, 4.00078869e+00, 4.96608943e-01, 1.73268020e+00 ]
      - [ 3.36825877e-01, -1.82692438e-01, -6.37353003e-01,
          1.63686597e+00 ]
      - [ -3.38097185e-01, 6.94157556e-02, -8.47044885e-02,
          -9.77783918e-01 ]
      - [ 3.36825877e-01, -6.81697905e-01, 3.32011342e-01,
          -2.73433626e-01 ]
      - [ -9.99443173e-01, 3.36186349e-01, -2.44977891e-01,
          1.91607177e-01 ]
      - [ -1.79225278e+00, -2.48063946e+00, 2.84357929e+00,
          -8.86100352e-01 ]
      - [ 3.36825877e-01, 2.27128863e-02, -4.76175606e-01,
          -1.18448623e-01 ]
      - [ 3.36825877e-01, -4.80767548e-01, 1.40743062e-01,
          2.15897173e-01 ]
      - [ 3.36825877e-01, -7.62340724e-01, 4.30806100e-01,
          2.22484261e-01 ]
      - [ 3.36825877e-01, 3.18550438e-01, -2.69777417e-01,
          -3.31558846e-02 ]
      - [ 3.36825877e-01, 3.50000381e-01, -6.05732799e-01,
          6.87304080e-01 ]
      - [ 3.36825877e-01, -1.86196268e-01, -5.08674681e-01,
          3.66334826e-01 ]
      - [ 3.36825877e-01, 8.79405215e-02, -1.50806814e-01,
          -1.70267105e-01 ]
      - [ 3.36825877e-01, -4.43106681e-01, -3.89367044e-01,
          8.76430452e-01 ]
      - [ 3.36825877e-01, 2.12523177e-01, 5.54140449e-01,
          -6.73447192e-01 ]
      - [ 3.36825877e-01, -2.88547724e-02, -3.99062306e-01,
          -1.25372338e+00 ]
      - [ -8.46224055e-02, 5.91153562e-01, -6.69755399e-01,
          -2.05087036e-01 ]
      - [ -3.73071074e-01, -8.18705022e-01, 5.79413176e-01,
          -3.69970888e-01 ]
      - [ -6.48479760e-01, -9.13629115e-01, 2.11032122e-01,
          -1.36817765e+00 ]
      - [ 3.36825877e-01, -1.70844242e-01, 8.64594579e-02,
          -1.05641365e+00 ]
      - [ 3.36825877e-01, 1.93634415e+00, -5.50459087e-01,
          -8.44935596e-01 ]
      - [ 3.36825877e-01, -4.93170172e-01, 2.94819564e-01,
          -5.60418248e-01 ]
      - [ 3.36825877e-01, 1.00036943e+00, -9.39833403e-01,
          1.41893446e+00 ]
      - [ 3.36825877e-01, 1.96147084e-01, -5.38741648e-01,
          6.90302193e-01 ]
      - [ 3.36825877e-01, 8.16919923e-01, -5.59004843e-01,
          4.87425238e-01 ]
      - [ 3.36825877e-01, -1.08691618e-01, -1.40164599e-01,
          -1.49450257e-01 ]
      - [ -8.45014513e-01, -9.54379201e-01, 8.95706177e-01,
          -5.37873030e-01 ]
      - [ 3.36825877e-01, -2.18577361e+00, 2.10724449e+00,
          -1.04239225e+00 ]
      - [ 3.36825877e-01, -1.58084416e+00, 9.20564771e-01,
          -6.61668062e-01 ]
      - [ 3.36825877e-01, -8.23435113e-02, -1.85847402e-01,
          4.34064776e-01 ]
      - [ 3.36825877e-01, 1.87669843e-01, -8.08537424e-01,
          1.31550491e+00 ]
      - [ 3.36825877e-01, 3.39978129e-01, -7.75511503e-01,
          7.00422823e-01 ]
      - [ 3.36825877e-01, -8.59801710e-01, 3.57714117e-01,
          -1.27880692e+00 ]
      - [ -6.11690426e+00, -1.89909995e+00, 3.63619804e+00,
          -2.47626042e+00 ]
      - [ 3.36825877e-01, -3.60573202e-01, -3.29363912e-01,
          5.20924926e-01 ]
      - [ -1.13113236e+00, -2.32351422e+00, 4.49555016e+00,
          -1.93291748e+00 ]
      - [ 3.36825877e-01, 7.07569420e-01, -7.28300989e-01,
          5.11008620e-01 ]
      - [ 1.65168092e-01, -5.20241380e-01, 3.64553660e-01,
          -1.01943398e+00 ]
      - [ 1.24526992e-02, 6.61670983e-01, -6.16796792e-01,
          5.21426555e-03 ]
      - [ -5.13337195e-01, 1.37288880e+00, 2.77245820e-01,
          -1.83892775e+00 ]
      - [ 3.36825877e-01, 3.24013472e+00, 8.51348579e-01,
          -5.64444244e-01 ]
      - [ 3.36825877e-01, -5.37607431e-01, 4.76237595e-01,
          -2.36626327e-01 ]
      - [ 3.36825877e-01, 1.51152158e+00, -9.69615102e-01,
          6.44913971e-01 ]
      - [ 3.36825877e-01, 1.25835347e+00, -1.10988110e-01,
          -2.22943616e+00 ]
      - [ -1.57780671e+00, -9.72074196e-02, -7.56127298e-01,
          -1.41011357e-01 ]
      - [ 3.36825877e-01, -1.47790313e+00, 1.27997136e+00,
          -4.57216442e-01 ]
      - [ 9.13265571e-02, -7.86953628e-01, 2.92740494e-01,
          2.56829172e-01 ]
      - [ 3.36825877e-01, 2.90668130e-01, -3.44256043e-01,
          -3.45807701e-01 ]
      - [ 3.36825877e-01, -4.46900576e-01, 2.69093156e-01,
          -1.10278416e+00 ]
      - [ 3.36825877e-01, 1.60337281e+00, -3.91918659e-01,
          5.18217012e-02 ]
      - [ 3.36825877e-01, 2.96336681e-01, -6.30567014e-01,
          9.69744027e-01 ]
      - [ 1.72916856e-02, -7.54653096e-01, 2.39135280e-01,
          3.34442794e-01 ]
      - [ 3.36825877e-01, 7.33873010e-01, -7.08229542e-01,
          -7.90806234e-01 ]
      - [ -1.19678891e+00, -4.60705310e-01, 1.49583012e-01,
          -1.38855636e+00 ]
      - [ 3.36825877e-01, 1.14760029e+00, -1.07125545e+00,
          9.93642569e-01 ]
      - [ 3.36825877e-01, -8.17844808e-01, 1.69934899e-01,
          -5.25685959e-02 ]
      - [ 3.36825877e-01, -7.49290645e-01, 6.61231637e-01,
          -1.05831516e+00 ]
      - [ 3.36825877e-01, -3.27950180e-01, -1.14769660e-01,
          1.88014805e-01 ]
      - [ 1.16155230e-01, 6.18265152e-01, 2.00788751e-01,
          -1.02202046e+00 ]
      - [ -1.61159909e+00, -1.30255973e+00, 1.13713324e+00,
          -5.31359553e-01 ]
      - [ 3.36825877e-01, -1.78046668e+00, 2.01350760e+00,
          -5.77233434e-01 ]
      - [ 3.36825877e-01, 3.52591097e-01, -2.72344798e-01,
          -1.18262732e+00 ]
      - [ 3.36825877e-01, 1.70737648e+00, -1.01962054e+00,
          1.05408525e+00 ]
      - [ 3.36825877e-01, -6.93151057e-01, 7.55968034e-01,
          -2.04898700e-01 ]
      - [ 3.36825877e-01, 7.64186859e-01, -6.76034808e-01,
          1.00526226e+00 ]
      - [ 3.36825877e-01, -7.52567828e-01, 8.03154588e-01,
          -1.21695554e+00 ]
      - [ 3.36825877e-01, -4.55332100e-02, -3.92475694e-01,
          3.51053709e-03 ]
      - [ 3.36825877e-01, -2.37496805e+00, 2.21284437e+00,
          -5.44673502e-01 ]
      - [ 3.36825877e-01, -1.56563258e+00, 1.42492557e+00,
          -1.10589147e-01 ]
      - [ 3.36825877e-01, 4.80404884e-01, 1.53280854e-01,
          -5.30440331e-01 ]
      - [ 3.36825877e-01, 5.83198130e-01, -4.49521869e-01,
          4.73717958e-01 ]
      - [ 3.36825877e-01, -2.14627910e+00, 2.18413496e+00,
          2.91351900e-02 ]
      - [ 3.36825877e-01, 7.00006485e-02, -7.16743767e-01,
          1.84036934e+00 ]
      - [ 3.36825877e-01, -1.50876355e+00, 1.66448903e+00,
          -1.84569389e-01 ]
      - [ 3.36825877e-01, 4.39737707e-01, -8.22162271e-01,
          4.84654933e-01 ]
      - [ 3.36825877e-01, -6.04335248e-01, -5.39843559e-01,
          1.47921085e+00 ]
      - [ 3.36825877e-01, -7.57375240e-01, 3.08540970e-01,
          -5.76602340e-01 ]
      - [ 3.36825877e-01, -1.84630841e-01, -3.06963503e-01,
          -2.43250251e-01 ]
      - [ 3.36825877e-01, -1.25942397e+00, 1.23344429e-01,
          4.96085495e-01 ]
      - [ 3.36825877e-01, 9.71620083e-01, -7.88731217e-01,
          1.09145713e+00 ]
      - [ -2.13821077e+00, -2.57354355e+00, 3.58191872e+00,
          -1.41618884e+00 ]
      - [ 3.36825877e-01, 8.66258085e-01, -1.01456547e+00,
          1.72459638e+00 ]
      - [ 3.36825877e-01, 6.38086259e-01, -8.31179559e-01,
          6.59635842e-01 ]
      - [ 3.34441304e-01, -8.00534308e-01, 1.47089005e-01,
          -1.64710149e-01 ]
      - [ 2.03385875e-01, -2.01319203e-01, -4.79144931e-01,
          -8.24201167e-01 ]
      - [ 3.36825877e-01, 2.00332880e-01, -1.86478674e-01,
          -1.34423494e-01 ]
      - [ -1.11360776e+00, -2.39552331e+00, 3.13479495e+00,
          -1.45376730e+00 ]
      - [ 3.36825877e-01, 9.15897548e-01, -6.52917683e-01,
          3.26109827e-01 ]
      - [ 3.36825877e-01, 3.26606721e-01, -6.46048784e-01,
          1.79826558e+00 ]
      - [ 3.36825877e-01, -1.94361761e-01, -3.69334549e-01,
          -4.57143545e-01 ]
      - [ -1.40459681e+00, 6.87195778e-01, -4.69401330e-01,
          -1.00945878e+00 ]
      - [ -8.46062973e-02, 1.07645579e-01, -9.20612812e-02,
          -2.77211666e-01 ]
      - [ -2.37799674e-01, -2.21550211e-01, 1.76981914e+00,
          -1.77409947e+00 ]
      - [ 3.36825877e-01, 2.71146083e+00, -2.39300549e-01,
          4.33533192e-01 ]
      - [ 3.36825877e-01, -4.61188078e-01, -1.22780658e-01,
          -2.82889366e-01 ]
      - [ 3.36825877e-01, 8.50938380e-01, -8.29013288e-01,
          4.18202281e-01 ]
      - [ 3.36825877e-01, -1.34791210e-01, -3.27032804e-01,
          5.46376467e-01 ]
      - [ 3.36825877e-01, -1.43543184e+00, 1.86530197e+00,
          -8.34875762e-01 ]
      - [ -2.93967989e-03, -5.89041591e-01, 4.05505657e-01,
          -4.29328382e-01 ]
      - [ 3.36825877e-01, 1.21517964e-01, -9.48433876e-01,
          1.46334612e+00 ]
      - [ 1.40172929e-01, -3.72705869e-02, 4.94324565e-02,
          -2.49470826e-02 ]
      - [ 3.36825877e-01, 8.46987292e-02, -6.28455698e-01,
          9.34420228e-01 ]
      - [ 3.36825877e-01, -6.08132966e-02, -9.06662717e-02,
          -7.18856156e-02 ]
      - [ 3.36825877e-01, 1.31335163e+00, -1.38876259e+00,
          1.89414907e+00 ]
      - [ -4.16428596e-01, -4.80482914e-03, -1.49098203e-01,
          -1.07883239e+00 ]
      - [ 2.67447382e-01, -4.20563877e-01, 8.96578014e-01,
          -2.03834367e+00 ]
      - [ 3.36825877e-01, 1.01299846e+00, -6.68885350e-01,
          -2.37879351e-01 ]
      - [ 3.36825877e-01, 8.43225062e-01, -5.89116454e-01,
          8.25250268e-01 ]
      - [ 3.36825877e-01, 1.07181752e+00, -9.47989941e-01,
          7.63823390e-01 ]
      - [ 3.36825877e-01, -1.95565924e-01, -3.33098620e-01,
          -1.00805715e-01 ]
      - [ 3.36825877e-01, -5.63339829e-01, -3.91959757e-01,
          4.75545079e-01 ]
      - [ 3.36825877e-01, 6.63987696e-01, -6.58298314e-01,
          2.50189692e-01 ]
      - [ -2.65351266e-01, -2.07111090e-01, -6.18293285e-01,
          -2.14726940e-01 ]
      - [ 3.36825877e-01, 4.61287349e-02, -9.40452158e-01,
          1.24596751e+00 ]
      - [ 3.36825877e-01, -1.74869418e-01, 1.56307042e-01,
          -2.05620900e-01 ]
      - [ 3.36825877e-01, 2.02523708e-01, 1.29073262e-01,
          -1.41381228e+00 ]
      - [ 3.36825877e-01, -5.65268099e-01, 9.40732598e-01,
          -7.44359076e-01 ]
      - [ 3.36825877e-01, -7.62037277e-01, 4.77596223e-02,
          9.02683139e-01 ]
      - [ 3.36825877e-01, 6.95060417e-02, -7.16566503e-01,
          1.83892500e+00 ]
      - [ -1.08828075e-01, 1.02278936e+00, 1.01354823e-01,
          -4.52263206e-01 ]
      - [ -5.00834286e-01, 8.90119821e-02, -3.55682343e-01,
          -7.94889569e-01 ]
      - [ 3.36825877e-01, -4.41996872e-01, 1.79548144e-01,
          7.99787045e-03 ]
      - [ 3.36825877e-01, 1.34336400e+00, -9.27877426e-01,
          1.19629107e-01 ]
      - [ 3.36825877e-01, 9.08841908e-01, -7.92580426e-01,
          8.76222372e-01 ]
      - [ 3.36825877e-01, 6.13458991e-01, -7.58370697e-01,
          4.98298407e-01 ]
      - [ 3.36825877e-01, -5.38248241e-01, 2.88922843e-02,
          4.44196790e-01 ]
      - [ 3.36825877e-01, 5.13558328e-01, -9.00025845e-01,
          1.75484204e+00 ]
      - [ 3.36825877e-01, 6.56289995e-01, -8.08768332e-01,
          1.82411349e+00 ]
      - [ 3.36825877e-01, 3.82187515e-01, -3.67925078e-01,
          7.06211850e-02 ]
      - [ -1.47872940e-01, -2.16638851e+00, 2.36820817e+00,
          -1.29187369e+00 ]
      - [ 3.36825877e-01, -4.05725598e-01, -1.33003369e-01,
          -2.36666575e-01 ]
      - [ -4.03506756e-01, -3.07965547e-01, -8.97674039e-02,
          1.83121562e-01 ]
      - [ 3.36825877e-01, 1.21775198e+00, -8.41316342e-01,
          1.27503002e+00 ]
      - [ -4.62176514e+00, -3.53556573e-02, 3.24520580e-02,
          -3.00302386e+00 ]
      - [ 3.36825877e-01, -1.06556809e+00, 7.93994725e-01,
          -3.49510968e-01 ]
      - [ 3.36825877e-01, -8.24999154e-01, 1.40455782e+00,
          -1.61966193e+00 ]
      - [ -1.97739750e-01, -4.90284532e-01, 3.99422139e-01,
          -7.09387600e-01 ]
      - [ 3.36825877e-01, 1.18713117e+00, -9.11928535e-01,
          4.08484161e-01 ]
      - [ -8.96186411e-01, -1.05692053e+00, 1.43302083e+00,
          -1.36575854e+00 ]
      - [ 3.36825877e-01, -2.55883193e+00, 2.96092033e+00,
          -1.21732998e+00 ]
      - [ 3.36825877e-01, -1.55516833e-01, -5.77081501e-01,
          1.50721705e+00 ]
      - [ -2.54412150e+00, -5.69734752e-01, 1.20836273e-01,
          -1.12753808e+00 ]
      - [ -7.23170233e+00, -5.06440222e-01, 1.02923840e-01,
          -9.76695299e-01 ]
      - [ 3.36825877e-01, 1.13743258e+00, -1.14715374e+00,
          1.05420291e+00 ]
      - [ 3.36825877e-01, 8.05915296e-01, -3.16134006e-01,
          -1.79395759e+00 ]
      - [ -1.63485527e-01, 4.96962249e-01, -3.42854559e-01,
          -4.09880370e-01 ]
      - [ 3.36825877e-01, 5.79470217e-01, -5.22013426e-01,
          6.71250939e-01 ]
      - [ -5.23101151e-01, 5.63517213e-02, -1.32841289e-01,
          -2.07859147e-02 ]
      - [ 3.36825877e-01, 8.51987779e-01, -9.04133022e-01,
          1.78336906e+00 ]
      - [ 3.36825877e-01, 2.32651353e+00, -4.67906684e-01,
          -1.88833964e+00 ]
      - [ 3.36825877e-01, 2.14175358e-01, -1.83878571e-01,
          -2.83084154e-01 ]
      - [ 3.36825877e-01, 1.30806005e+00, -1.02705789e+00,
          1.36464298e+00 ]
      - [ 6.74790062e-04, 9.09681559e-01, -4.23691779e-01,
          -2.24593148e-01 ]
      - [ 3.36825877e-01, 2.03023583e-01, -4.28663433e-01,
          5.84762931e-01 ]
      - [ 3.36825877e-01, -7.13411331e-01, -2.34717399e-01,
          1.40769601e+00 ]
      - [ 3.36825877e-01, -9.87462163e-01, 9.00454640e-01,
          -4.58097368e-01 ]
      - [ 1.32045951e-02, -7.82426357e-01, 1.26722455e+00,
          -2.15098071e+00 ]
      - [ 3.36825877e-01, 6.85574561e-02, -3.78672361e-01,
          -5.04401028e-01 ]
      - [ 3.36825877e-01, -1.59980142e+00, 1.83931088e+00,
          -7.05566645e-01 ]
      - [ 3.36825877e-01, 5.67326620e-02, -5.84063470e-01,
          1.11354983e+00 ]
      - [ 3.36825877e-01, 5.35048246e-01, -5.21298051e-01,
          7.48970926e-01 ]
      - [ 3.36825877e-01, -7.74361014e-01, 6.77045882e-01,
          -2.36822635e-01 ]
      - [ 3.36825877e-01, 1.01595652e+00, -1.13015616e+00,
          1.17529559e+00 ]
      - [ 3.36825877e-01, 8.14377189e-01, -7.36606121e-01,
          -1.22401334e-01 ]
      - [ 3.36825877e-01, 3.18306983e-01, -4.75997984e-01,
          7.72716925e-02 ]
      - [ 3.36825877e-01, -1.23572238e-01, -4.10201341e-01,
          -1.51606524e+00 ]
      - [ 3.36825877e-01, 1.37770250e-01, -5.36298752e-01,
          8.37342262e-01 ]
      - [ 3.36825877e-01, -3.19156162e-02, -3.16344053e-01,
          -6.79043215e-03 ]
      - [ 3.36825877e-01, 1.09401166e+00, 5.59553914e-02,
          -9.10239995e-01 ]
      - [ 3.36825877e-01, -1.35746109e+00, 2.02100778e+00,
          -9.33269024e-01 ]
      - [ 3.36825877e-01, 4.21683580e-01, -3.01542968e-01,
          -1.66086924e+00 ]
      - [ 3.36825877e-01, -3.39645892e-01, -2.97269851e-01,
          7.35039592e-01 ]
      - [ 3.36825877e-01, 9.27406132e-01, -4.74511564e-01,
          -3.80714595e-01 ]
      - [ 3.36825877e-01, 2.36183548e+00, -6.45197451e-01,
          1.27905643e+00 ]
      - [ 3.36825877e-01, -6.35961592e-01, 1.82823583e-01,
          -1.12659144e+00 ]
      - [ 3.36825877e-01, 1.10341132e+00, -9.24146354e-01,
          6.52322769e-01 ]
      - [ 3.36825877e-01, -8.49190831e-01, 1.23272502e+00,
          -1.41717720e+00 ]
      - [ -4.30510551e-01, -1.19098628e+00, 7.20208287e-01,
          -3.03675473e-01 ]
      - [ 3.36825877e-01, 5.57599626e-02, 4.20811288e-02,
          -5.64638674e-01 ]
      - [ 3.36825877e-01, -1.11084652e+00, 4.50849175e-01,
          7.47607768e-01 ]
      - [ -1.86149806e-01, -9.96680677e-01, 6.26978517e-01,
          1.26359453e-02 ]
      - [ 3.36825877e-01, -9.66823280e-01, 1.28581738e+00,
          -6.16648138e-01 ]
      - [ -1.00460552e-01, -1.05205357e+00, 1.01530075e+00,
          -4.17652518e-01 ]
      - [ 1.65934954e-02, -1.32178867e+00, 5.78699768e-01,
          9.85087872e-01 ]
      - [ 3.36825877e-01, -1.34953117e+00, 5.56939483e-01,
          3.71781290e-01 ]
      - [ 5.26630059e-02, 4.35335338e-01, -1.49218723e-01,
          -4.56310838e-01 ]
      - [ 3.36825877e-01, -6.79238558e-01, 7.61320055e-01,
          -6.53239012e-01 ]
      - [ 3.36825877e-01, 1.33316755e-01, -4.78149772e-01,
          -6.51513278e-01 ]
      - [ 3.36825877e-01, -4.93439026e-02, -8.04646671e-01,
          4.68001902e-01 ]
      - [ 3.36825877e-01, -1.78648029e-02, -3.12283993e-01,
          3.34772378e-01 ]
      - [ 3.36825877e-01, 1.25410187e+00, -6.57661498e-01,
          7.58143008e-01 ]
      - [ 3.36825877e-01, 1.69051206e+00, -9.80860651e-01,
          1.22372901e+00 ]
      - [ 3.36825877e-01, 1.23484886e+00, -9.26123798e-01,
          9.28038955e-01 ]
      - [ 3.36825877e-01, 2.54517466e-01, -2.28365883e-01,
          -1.54952276e+00 ]
      - [ 3.36825877e-01, 1.92000017e-01, -6.74608111e-01,
          1.21940649e+00 ]
      - [ 3.36825877e-01, -1.17921567e+00, 7.69609451e-01,
          -1.38466060e+00 ]
      - [ 2.16109022e-01, -4.63953018e-01, -1.57647505e-02,
          2.15726674e-01 ]
      - [ 3.36825877e-01, 1.18293965e+00, -5.79043746e-01,
          3.26897323e-01 ]
      - [ 3.36825877e-01, -8.03596526e-02, -5.24512529e-01,
          -7.06422925e-01 ]
      - [ 6.94625080e-02, -6.86942279e-01, 6.83928907e-01,
          -1.19442093e+00 ]
      - [ 3.36825877e-01, -1.37898040e+00, 1.51263082e+00,
          -1.51750398e+00 ]
      - [ 3.36825877e-01, -6.23910129e-01, 3.39756668e-01,
          -6.74704373e-01 ]
      - [ -1.23187566e+00, -2.02851582e+00, 2.16080928e+00,
          -8.63122225e-01 ]
      - [ 3.36825877e-01, -1.81319773e+00, 2.72081161e+00,
          -1.22682750e+00 ]
      - [ 3.36825877e-01, 9.32360828e-01, -7.10386395e-01,
          1.06603754e+00 ]
      - [ 3.36825877e-01, -1.26216066e+00, 4.58063602e-01,
          6.07039332e-01 ]
      - [ 3.36825877e-01, -6.79880023e-01, 1.23582172e+00,
          -1.75250566e+00 ]
      - [ 3.36825877e-01, -6.85823038e-02, -4.40186143e-01,
          1.57251227e+00 ]
      - [ 3.36825877e-01, 2.71944475e+00, -6.80155933e-01,
          8.59571636e-01 ]
      - [ -1.17570901e+00, -2.30220556e-01, -1.09513462e-01,
          -8.29250038e-01 ]
      - [ 3.36825877e-01, -1.28667638e-01, -7.70422101e-01,
          2.07749796e+00 ]
      - [ 3.36825877e-01, -5.84202230e-01, 6.77564859e-01,
          -6.92511320e-01 ]
      - [ 3.36825877e-01, 6.50074184e-01, -5.55580974e-01,
          9.18408155e-01 ]
      - [ 3.36825877e-01, -1.23602402e+00, 1.10810804e+00,
          -5.17922282e-01 ]
      - [ 3.36825877e-01, -3.61650527e-01, 1.27309942e+00,
          -1.14872289e+00 ]
      - [ -1.44972771e-01, -1.12498856e+00, 7.91945815e-01,
          -2.70781755e-01 ]
      - [ -3.08698058e-01, 4.82924372e-01, -3.50928664e-01,
          2.71632284e-01 ]
      - [ 3.36825877e-01, 8.54991019e-01, -1.11693001e+00,
          2.56754971e+00 ]
      - [ 2.55417049e-01, -1.26524282e+00, 1.38727391e+00,
          -9.12328720e-01 ]
      - [ -5.20217061e-01, -1.33652449e+00, 1.03975308e+00,
          -1.71899533e+00 ]
      - [ 3.36825877e-01, -2.86099404e-01, -7.84843117e-02,
          -2.12546676e-01 ]
      - [ 3.36825877e-01, 1.54130054e+00, -9.27746832e-01,
          1.53568792e+00 ]
      - [ -1.55575466e+00, -8.52883697e-01, 2.63565838e-01,
          -8.90780568e-01 ]
      - [ 3.36825877e-01, 3.41684781e-02, -3.82247806e-01,
          7.45977342e-01 ]
      - [ 3.36825877e-01, 7.91168660e-02, 1.74571481e-02,
          -6.87462032e-01 ]
      - [ 3.36825877e-01, 5.34453750e-01, -8.41157794e-01,
          9.04223979e-01 ]
      - [ 3.36825877e-01, -1.53105247e+00, 5.38796127e-01,
          5.43846972e-02 ]
      - [ -7.63085857e-02, -2.02231094e-01, 3.27928752e-01,
          -9.65222538e-01 ]
      - [ 3.36825877e-01, 5.69492877e-01, -6.91764414e-01,
          4.85772759e-01 ]
      - [ -4.84706104e-01, -6.90778494e-01, 6.14366114e-01,
          -1.45181254e-01 ]
      - [ 3.36825877e-01, -2.21417814e-01, -6.74395025e-01,
          8.74471188e-01 ]
      - [ 3.36825877e-01, -2.38094044e+00, 3.35230637e+00,
          -1.07316339e+00 ]
      - [ 3.36825877e-01, -2.29195729e-01, -2.41507813e-01,
          2.45930180e-01 ]
      - [ -2.16342616e+00, -2.31223643e-01, -4.68146652e-01,
          7.02097297e-01 ]
      - [ -4.21025902e-01, -6.06436074e-01, 1.27406120e+00,
          -1.15728712e+00 ]
      - [ 3.36825877e-01, -1.91622704e-01, -3.59962493e-01,
          7.09683001e-01 ]
      - [ -3.12274933e-01, -7.28785098e-01, 5.45207918e-01,
          -3.33364069e-01 ]
      - [ 3.36825877e-01, 1.32663418e-02, -8.19841444e-01,
          4.74948943e-01 ]
      - [ 3.36825877e-01, -2.36803308e-01, -1.61912501e-01,
          -2.96049006e-02 ]
      - [ 3.36825877e-01, -1.20098841e+00, 1.48924112e+00,
          -5.80445707e-01 ]
      - [ 3.36825877e-01, -1.90438843e+00, 1.76713812e+00,
          -9.89238381e-01 ]
      - [ 3.36825877e-01, 1.48516154e+00, -1.01320159e+00,
          1.94491386e+00 ]
      - [ 2.98994780e-01, 7.43749321e-01, -1.77872732e-01,
          -5.22861063e-01 ]
      - [ 3.36825877e-01, -5.79696298e-01, -1.29056901e-01,
          -3.48293632e-01 ]
      - [ -3.49885851e-01, -1.43000722e-01, -2.96301305e-01,
          -3.32034349e-01 ]
      - [ 3.36825877e-01, 5.48854936e-03, -7.74233401e-01,
          1.11493200e-01 ]
      - [ 3.36825877e-01, 1.42956853e-01, -3.27312589e-01,
          1.67298183e-01 ]
      - [ -2.69857287e-01, -1.11462331e+00, 6.07728601e-01,
          1.56372607e-01 ]
      - [ -1.67862511e+01, 2.60346442e-01, -5.95859110e-01,
          -8.55792463e-01 ]
      - [ 3.36825877e-01, -1.81544042e+00, 2.75349593e+00,
          -1.75903845e+00 ]
      - [ 3.36825877e-01, -1.07421589e+00, 1.42093197e-01,
          1.14855385e+00 ]
      - [ 2.75395989e-01, -9.96495843e-01, -5.24970055e-01,
          1.94062090e+00 ]
      - [ 3.36825877e-01, -4.43779558e-01, 5.47938526e-01,
          -2.41035819e-01 ]
      - [ -1.44780934e+00, -8.96334052e-01, 4.60967690e-01,
          -4.38751101e-01 ]
      - [ -3.84398997e-02, -1.67109036e+00, 1.80548429e+00,
          -5.15285194e-01 ]
      - [ 3.36825877e-01, 5.53925633e-01, -1.78564668e-01,
          -2.52001643e-01 ]
      - [ 3.36825877e-01, 7.10809588e-01, -7.97777891e-01,
          1.30438638e+00 ]
      - [ 3.36825877e-01, -5.66252708e-01, -1.62637398e-01,
          -1.70260929e-02 ]
      - [ 9.28948000e-02, 6.24942780e-01, -4.80393916e-01,
          -1.35300994e-01 ]
      - [ 3.36825877e-01, 9.38469470e-01, -9.68713999e-01,
          1.37311947e+00 ]
      - [ 3.36825877e-01, 1.33192703e-01, 4.87977356e-01,
          -1.22602129e+00 ]
      - [ 3.36825877e-01, 4.69119281e-01, -4.58362401e-01,
          2.74464101e-01 ]
      - [ 3.36825877e-01, 1.33877325e+00, -7.64700770e-01,
          -9.56923366e-01 ]
      - [ 3.36825877e-01, 1.54814100e+00, -6.06416762e-01,
          8.11637104e-01 ]
      - [ -2.31995988e+00, -5.95055997e-01, -2.32990503e-01,
          4.84433919e-01 ]
      - [ 3.36825877e-01, 4.99536753e-01, 9.50096548e-02,
          -6.10222399e-01 ]
      - [ 3.36825877e-01, -1.59992158e+00, 1.41893315e+00,
          3.71770650e-01 ]
      - [ 3.36825877e-01, -4.29641157e-01, 3.98155674e-03,
          -6.94645286e-01 ]
      - [ 3.36825877e-01, 1.76174641e-01, 1.66197255e-01,
          -4.23808247e-01 ]
      - [ 3.36825877e-01, 1.42648351e+00, -9.30839181e-01,
          7.49142528e-01 ]
      - [ -2.72473935e-02, -1.57235885e+00, 2.54298973e+00,
          -1.40492606e+00 ]
      - [ 3.36825877e-01, 1.09058417e-01, -5.22615075e-01,
          9.11708653e-01 ]
      - [ -1.61858521e+01, -3.81678909e-01, -3.97579372e-01,
          -8.93567622e-01 ]
      - [ 3.36825877e-01, -2.20737839e+00, 1.82961774e+00,
          2.29297001e-02 ]
      - [ -8.27532947e-01, -8.64570975e-01, 6.49472654e-01,
          -1.09627032e+00 ]
      - [ 3.36825877e-01, -6.63179338e-01, 2.08719005e-03,
          -4.91882205e-01 ]
      - [ 3.36825877e-01, -6.37746394e-01, -2.53500760e-01,
          1.25226068e+00 ]
      - [ 3.36825877e-01, -3.65549415e-01, -2.00089514e-01,
          -1.53505349e+00 ]
      - [ -9.55575407e-01, -1.48128760e+00, 2.21342993e+00,
          -6.99528992e-01 ]
      - [ -9.67106283e-01, -8.52170050e-01, 1.20801449e+00,
          -1.68060744e+00 ]
      - [ -1.38884997e+00, -5.53430319e-01, 1.04328813e-02,
          1.85706586e-01 ]
      - [ 3.36825877e-01, 2.39808828e-01, -1.10797799e+00,
          1.47560823e+00 ]
      - [ -4.43852469e-02, -6.36168242e-01, -5.84682673e-02,
          -1.04999053e+00 ]
      - [ 3.36825877e-01, -2.13774681e+00, 2.25571537e+00,
          -6.25220299e-01 ]
      - [ -1.64313030e+00, -4.41292554e-01, 9.94729161e-01,
          -2.57368684e+00 ]
      - [ 3.36825877e-01, -5.24257496e-02, -6.12073421e-01,
          1.19546628e+00 ]
      - [ 3.36825877e-01, 3.19126606e-01, -2.30783328e-01,
          -1.16064596e+00 ]
      - [ -2.19279838e+00, -7.80267715e-01, 1.27667964e+00,
          -1.47798896e+00 ]
      - [ 3.36825877e-01, 4.09565687e-01, -5.58129609e-01,
          -4.54240710e-01 ]
      - [ 3.36825877e-01, -9.46282029e-01, 6.57772183e-01,
          -4.83112216e-01 ]
      - [ 3.36825877e-01, 5.16936600e-01, -7.66191244e-01,
          9.57664132e-01 ]
      - [ 3.36825877e-01, 6.51842117e-01, -5.36646664e-01,
          -3.69891137e-01 ]
      - [ 3.36825877e-01, 7.32981205e-01, -5.87668121e-01,
          -1.64710909e-01 ]
      - [ 3.36825877e-01, 5.15171111e-01, 1.54293785e-02,
          -7.38938391e-01 ]
      - [ -4.62143868e-01, 1.74188271e-01, 5.11696041e-01,
          -2.26649857e+00 ]
      - [ 3.36825877e-01, -3.05784225e-01, -5.39903522e-01,
          -4.52050954e-01 ]
      - [ 3.36825877e-01, -7.31269836e-01, 4.27589297e-01,
          5.25260389e-01 ]
      - [ 3.36825877e-01, 1.79395109e-01, -1.03403464e-01,
          -6.44164756e-02 ]
      - [ 3.36825877e-01, -1.27177881e-02, 3.21539313e-01,
          -1.43160212e+00 ]
      - [ 1.11074559e-01, -4.03195739e-01, 1.85245186e-01,
          3.62698793e-01 ]
      - [ 1.41972110e-01, -6.46879673e-01, 1.13456048e-01,
          2.48396724e-01 ]
      - [ 3.36825877e-01, -1.60731113e+00, 1.92350054e+00,
          -9.80477870e-01 ]
      - [ 3.36825877e-01, -6.82453394e-01, 5.70303559e-01,
          -3.27611208e-01 ]
      - [ -7.71312654e-01, -2.42931217e-01, 1.15279520e+00,
          -1.11332965e+00 ]
      - [ 3.36825877e-01, 1.13813210e+00, -7.85438418e-01,
          7.69808233e-01 ]
      - [ 3.36825877e-01, 4.30993348e-01, -3.76643538e-01,
          -1.86188817e-01 ]
      - [ 3.36825877e-01, -1.52776802e+00, 2.68888712e+00,
          -3.34517145e+00 ]
      - [ 3.36825877e-01, 3.54972929e-01, -4.43507075e-01,
          5.54104924e-01 ]
      - [ 3.36825877e-01, -1.22144318e+00, 1.01207662e+00,
          -5.65445900e-01 ]
      - [ 2.62286156e-01, -4.52332377e-01, 6.59245133e-01,
          -6.47036910e-01 ]
      - [ 3.36825877e-01, 9.78933275e-01, -1.14973044e+00,
          1.44403589e+00 ]
      - [ 3.36825877e-01, 8.85343924e-03, -9.67418551e-01,
          1.64552546e+00 ]
      - [ 3.36825877e-01, 5.29992938e-01, -1.02558613e+00,
          7.74360895e-01 ]
      - [ -8.86492312e-01, 5.02497911e-01, -6.39572144e-01,
          -5.95639944e-01 ]
      - [ 3.36825877e-01, 2.37620449e+00, -2.07699567e-01,
          7.50485286e-02 ]
      - [ 3.36825877e-01, 8.54573548e-01, -3.69010627e-01,
          4.57490176e-01 ]
      - [ 3.36825877e-01, -3.67195547e-01, -2.03475773e-01,
          -9.53948379e-01 ]
      - [ 3.36825877e-01, -7.21172631e-01, 6.83966935e-01,
          -9.07325804e-01 ]
      - [ 3.36825877e-01, -1.72129548e+00, 2.30120230e+00,
          -8.31339538e-01 ]
      - [ 3.36825877e-01, -1.66908875e-01, 6.26736786e-04,
          3.38084161e-01 ]
      - [ 3.36825877e-01, 9.01555359e-01, -6.53005600e-01,
          9.04045522e-01 ]
      - [ -1.29413903e-01, -4.27549034e-01, 5.54938428e-02,
          -9.36848819e-01 ]
      - [ 3.36825877e-01, 1.10598993e+00, -1.11404085e+00,
          2.03009582e+00 ]
      - [ 3.36825877e-01, -5.90684414e-01, 1.04894125e+00,
          -1.32966244e+00 ]
      - [ 3.36825877e-01, -2.05715418e+00, 3.52974272e+00,
          -1.38955688e+00 ]
      - [ 3.36825877e-01, 2.07889482e-01, -5.65529346e-01,
          8.19173455e-01 ]
      - [ 2.60003626e-01, -9.00877655e-01, 6.43600583e-01,
          -6.60637140e-01 ]
      - [ 3.36825877e-01, -2.90084511e-01, -4.18107152e-01,
          6.12668097e-01 ]
      - [ 3.36825877e-01, -1.39221978e+00, 1.34453249e+00,
          -7.10677862e-01 ]
      - [ -7.95276642e-01, -2.26706743e+00, 2.30555558e+00,
          -6.12266362e-01 ]
      - [ 3.36825877e-01, 1.84428418e+00, -8.69249284e-01,
          1.19862986e+00 ]
      - [ -2.45601010e+00, -1.07951820e+00, 2.60307014e-01,
          5.41429639e-01 ]
      - [ -2.67209530e-01, -4.69170541e-01, 4.23331439e-01,
          -1.34889102e+00 ]
      - [ 1.23647332e-01, 3.99708718e-01, -3.74643803e-01,
          2.84098715e-01 ]
      - [ 3.36825877e-01, 7.54362121e-02, -1.56425461e-01,
          -1.71064481e-01 ]
      - [ 3.36825877e-01, -6.19624376e-01, 1.06795363e-01,
          9.15145755e-01 ]
      - [ 3.36825877e-01, 2.44829684e-01, -6.24771953e-01,
          9.90650475e-01 ]
      - [ 3.36825877e-01, 7.91833162e-01, -4.30982351e-01,
          1.68771818e-01 ]
      - [ 3.36825877e-01, 6.15048945e-01, -5.33730865e-01,
          7.94492006e-01 ]
      - [ 3.36825877e-01, -3.92809242e-01, -4.69071567e-02,
          5.48464172e-02 ]
      - [ 3.36825877e-01, 2.30691075e+00, -5.53905249e-01,
          2.13197857e-01 ]
      - [ -6.80773675e-01, -1.38485754e+00, 1.61172950e+00,
          -8.57338607e-01 ]
      - [ 3.36825877e-01, -8.70782733e-01, 1.46830648e-01,
          8.70309651e-01 ]
      - [ 3.36825877e-01, 9.67096984e-01, -9.85939562e-01,
          7.80819654e-01 ]
      - [ -4.52613497e+00, -5.37007511e-01, -5.30681551e-01,
          -1.40791023e+00 ]
      - [ 3.36825877e-01, 2.86955148e-01, -1.87958702e-01,
          1.29036635e-01 ]
      - [ 3.36825877e-01, -7.10711777e-01, 1.72138795e-01,
          8.04486573e-01 ]
      - [ 3.36825877e-01, 1.49119437e+00, -9.57542777e-01,
          8.88801932e-01 ]
      - [ 3.36825877e-01, -1.48205781e+00, 1.19210267e+00,
          -2.74699539e-01 ]
      - [ -8.31293538e-02, 4.26242828e-01, 4.65572357e-01,
          -1.49195111e+00 ]
      - [ -1.26454666e-01, 1.56980172e-01, -3.21118057e-01,
          1.30971983e-01 ]
      - [ 3.36825877e-01, 6.24371432e-02, -2.00183257e-01,
          -3.86246502e-01 ]
      - [ -4.75017399e-01, -6.45963371e-01, -1.98477488e-02,
          4.44529414e-01 ]
      - [ -2.86420894e+00, -2.37574124e+00, 3.19254470e+00,
          -1.72297692e+00 ]
      - [ 3.36825877e-01, -3.88550699e-01, -3.69886547e-01,
          1.49880958e+00 ]
      - [ 3.36825877e-01, 1.07502401e+00, -8.93327892e-01,
          1.29353905e+00 ]
      - [ 3.36825877e-01, -5.32452822e-01, -3.16252291e-01,
          -4.85735565e-01 ]
      - [ 3.36825877e-01, 7.51035213e-01, -7.09548295e-01,
          8.97750795e-01 ]
      - [ 3.36825877e-01, 1.14030921e+00, -5.28183222e-01,
          4.05320495e-01 ]
      - [ 3.36825877e-01, -1.98724651e+00, 2.58063912e+00,
          -7.71777391e-01 ]
      - [ -1.90982234e+00, -1.46433544e+00, 1.26987469e+00,
          -6.18972659e-01 ]
      - [ 3.36825877e-01, -1.48584926e+00, 1.35006642e+00,
          -4.46848162e-02 ]
      - [ 3.36825877e-01, 3.61576438e-01, -7.77133942e-01,
          8.38459373e-01 ]
      - [ 3.36825877e-01, 6.60759151e-01, -8.16757023e-01,
          4.88162607e-01 ]
      - [ 2.32258663e-01, -9.25976694e-01, 1.10554850e+00,
          -1.65789282e+00 ]
      - [ 3.36825877e-01, -6.05584741e-01, 6.03868663e-02,
          1.63124114e-01 ]
      - [ -2.96316385e+00, 3.93449068e-02, 2.82217085e-01,
          -2.66994983e-01 ]
      - [ 3.36825877e-01, 5.51188327e-02, 5.18365856e-03,
          -9.67248619e-01 ]
      - [ 3.36825877e-01, 9.69546735e-01, -7.24134088e-01,
          5.51481903e-01 ]
      - [ 3.36825877e-01, 8.95862579e-02, -7.79818237e-01,
          1.64367783e+00 ]
      - [ -9.99818993e+00, 1.27855539e-01, -4.57592666e-01,
          -1.42338610e+00 ]
      - [ 3.36825877e-01, 8.52433681e-01, 1.46288291e-01,
          -1.63073027e+00 ]
      - [ 3.36825877e-01, 6.47869468e-01, -5.73654115e-01,
          3.02108899e-02 ]
      - [ 3.36825877e-01, -4.65648711e-01, 1.47908375e-01,
          4.06694263e-01 ]
      - [ 3.36825877e-01, -7.17663646e-01, -1.60607815e-01,
          6.64540112e-01 ]
      - [ 3.36825877e-01, -5.62693961e-02, -3.22593600e-02,
          -3.11316609e-01 ]
      - [ 3.36825877e-01, 8.17889810e-01, -9.01606500e-01,
          9.94365513e-01 ]
      - [ -1.60146463e+00, -1.73933983e-01, -4.68516320e-01,
          -3.75337243e-01 ]
      - [ 3.36825877e-01, -5.43121517e-01, 3.92728411e-02,
          -2.98806518e-01 ]
      - [ -3.17414701e-01, -5.59578061e-01, 1.47642538e-01,
          2.98260123e-01 ]
      - [ 3.36825877e-01, -7.92682707e-01, 5.17256260e-01,
          -1.99125320e-01 ]
      - [ -5.44610739e-01, -3.27718973e-01, -4.33712184e-01,
          -2.57395715e-01 ]
      - [ 2.96169788e-01, 3.25319201e-01, 3.17087844e-02,
          -1.43645322e+00 ]
      - [ 3.36825877e-01, 4.25410241e-01, -7.27831900e-01,
          1.80322006e-01 ]
      - [ 3.36825877e-01, 8.01272631e-01, -8.44404876e-01,
          1.02641773e+00 ]
      - [ 3.36825877e-01, -8.43099952e-01, 7.77135134e-01,
          -8.36217642e-01 ]
      - [ 3.36825877e-01, 2.27015591e+00, -1.61347184e-02,
          -6.65485561e-01 ]
      - [ -2.54336429e+00, -1.61840439e+00, 2.54852223e+00,
          -1.09991360e+00 ]
      - [ -1.60757214e-01, -9.90446031e-01, 1.37361288e+00,
          -9.76590872e-01 ]
      - [ 3.36825877e-01, 4.27217245e-01, -8.85295093e-01,
          1.15962982e+00 ]
      - [ 3.36825877e-01, 3.18049878e-01, -7.46955991e-01,
          1.15756345e+00 ]
      - [ 3.36825877e-01, 6.94755733e-01, -9.92555618e-01,
          1.02736855e+00 ]
      - [ 3.36825877e-01, 2.41822410e+00, 2.79481053e-01,
          -5.24048388e-01 ]
      - [ 3.36825877e-01, 6.31024897e-01, -5.41149557e-01,
          5.79447933e-02 ]
      - [ 3.36825877e-01, -1.10488582e+00, 9.57061231e-01,
          -9.57511067e-02 ]
      - [ 3.36825877e-01, -3.92960817e-01, -1.56779498e-01,
          3.96616161e-01 ]
      - [ -2.69726658e+00, -1.50559795e+00, 6.89099848e-01,
          4.49432135e-01 ]
      - [ -8.78699481e-01, 7.47179389e-01, -7.66277313e-01,
          1.06868255e+00 ]
      - [ 3.36825877e-01, -3.01740199e-01, 2.37487212e-01,
          -6.83108747e-01 ]
      - [ 3.36825877e-01, -1.07677841e+00, 5.90596855e-01,
          3.56854409e-01 ]
      - [ -4.74705905e-01, 4.83982742e-01, -4.30662841e-01,
          2.42788509e-01 ]
      - [ 3.36825877e-01, -8.68427813e-01, -7.79495388e-02,
          1.55696344e+00 ]
      - [ 3.36825877e-01, 1.29009283e+00, -7.50333428e-01,
          4.37749416e-01 ]
      - [ -2.59164143e+00, -9.15302753e-01, 9.39578354e-01,
          -1.44323862e+00 ]
      - [ 3.36825877e-01, 2.26079643e-01, -9.61398840e-01,
          1.86254478e+00 ]
      - [ 3.36825877e-01, -8.51350605e-01, 3.56792241e-01,
          4.66221839e-01 ]
      - [ 3.36825877e-01, -1.46623487e-02, -1.58702418e-01,
          -1.98924728e-02 ]
      - [ 3.36825877e-01, 8.18489075e-01, -6.36835694e-01,
          9.41282988e-01 ]
      - [ 3.36825877e-01, 7.50678957e-01, -3.17930579e-01,
          -1.29747581e+00 ]
      - [ 3.36825877e-01, 8.41942951e-02, -1.99849814e-01,
          1.73281550e-01 ]
      - [ 3.36825877e-01, -5.91452003e-01, 4.32673454e-01,
          -1.06136870e+00 ]
      - [ 3.36825877e-01, -9.53003466e-01, 1.01042211e-01,
          6.40081882e-01 ]
      - [ 3.36825877e-01, 3.55168915e+00, -2.02426642e-01,
          2.26117563e+00 ]
      - [ 3.36825877e-01, 3.06429684e-01, -3.95848453e-01,
          -4.84412201e-02 ]
      - [ 3.36825877e-01, 2.12459788e-01, -5.41309178e-01,
          6.74754083e-01 ]
      - [ 3.36825877e-01, -3.26968074e-01, 2.51391619e-01,
          -5.24640322e-01 ]
      - [ 3.36825877e-01, 1.08722615e+00, -8.42454731e-01,
          1.35559845e+00 ]
      - [ -6.48093045e-01, 3.58197689e-01, -3.03217739e-01,
          -5.94738759e-02 ]
      - [ 3.36825877e-01, 1.17354262e+00, -3.91349077e-01,
          6.63589299e-01 ]
      - [ 3.36825877e-01, -2.88949579e-01, -2.76279509e-01,
          4.80325550e-01 ]
      - [ 3.36825877e-01, -1.88810721e-01, -7.64867961e-01,
          2.05626178e+00 ]
      - [ 3.36825877e-01, -4.94552217e-02, -5.31800270e-01,
          7.19552994e-01 ]
      - [ 3.36825877e-01, -3.74251962e-01, -1.47096351e-01,
          -2.91543573e-01 ]
      - [ 3.36825877e-01, 9.11953211e-01, -6.19277537e-01,
          4.05378968e-01 ]
      - [ 2.15883449e-01, -9.33444679e-01, 6.49267495e-01,
          -1.21074654e-01 ]
      - [ 3.36825877e-01, -2.45917559e-01, -4.17230666e-01,
          1.17511868e+00 ]
      - [ 3.36825877e-01, 3.53473485e-01, -3.21661264e-01,
          -5.05388260e-01 ]
      - [ 2.16624603e-01, -1.02792323e+00, 6.44314647e-01,
          -7.26347715e-02 ]
      - [ 3.36825877e-01, -2.46077478e-01, 2.78860867e-01,
          -2.57422298e-01 ]
      - [ 3.36825877e-01, 9.85975266e-02, -5.47904134e-01,
          9.58362818e-01 ]
      - [ 3.36825877e-01, 3.89791653e-02, 1.96550451e-02,
          -1.21038663e+00 ]
      - [ 3.76788005e-02, -4.76533413e-01, 1.24545217e-01,
          -3.18702608e-01 ]
      - [ 3.36825877e-01, -1.19283962e+00, 5.29011905e-01,
          -8.91719580e-01 ]
      - [ 3.36825877e-01, 3.15758824e-01, -4.59203750e-01,
          2.16319770e-01 ]
      - [ -4.17697206e-02, -6.28175318e-01, 9.54654533e-03,
          4.87934023e-01 ]
      - [ -7.49974906e-01, -1.27103853e+00, 5.11771441e-01,
          5.25833726e-01 ]
      - [ 1.48717687e-01, 7.63281733e-02, 2.35710844e-01,
          -6.84302509e-01 ]
      - [ -3.71287894e+00, 4.76835668e-01, -1.25816584e-01,
          -2.14425540e+00 ]
      - [ 3.36825877e-01, 2.83719003e-01, -8.81212175e-01,
          1.34153497e+00 ]
      - [ 3.36825877e-01, -3.88566762e-01, -2.47239247e-01,
          3.51440579e-01 ]
      - [ 3.36825877e-01, 1.17883253e+00, -6.05065465e-01,
          9.16079044e-01 ]
      - [ 3.36825877e-01, 1.28927544e-01, -1.27868700e+00,
          2.09398532e+00 ]
      - [ 3.36825877e-01, -1.14337809e-01, 3.75777818e-02,
          -9.81451452e-01 ]
      - [ 3.36825877e-01, -2.26568691e-02, -3.44781607e-01,
          -4.14625138e-01 ]
      - [ 3.36825877e-01, -3.20101053e-01, 7.64800847e-01,
          -4.28169131e-01 ]
      - [ 1.51139855e-01, -6.61821902e-01, 2.83601433e-01,
          -7.75921792e-02 ]
      - [ 3.36825877e-01, -5.94064534e-01, 9.13836956e-02,
          5.08434236e-01 ]
      - [ 3.36825877e-01, -1.09462929e+00, 1.86497426e+00,
          -1.81739211e+00 ]
      - [ 3.36825877e-01, -1.96324572e-01, 1.69019729e-01,
          -1.89038968e+00 ]
      - [ 2.19390512e-01, 6.61598325e-01, -6.85460269e-01,
          5.60966909e-01 ]
      - [ 3.36825877e-01, 1.32123125e+00, -8.95297050e-01,
          5.88499188e-01 ]
      - [ 3.36825877e-01, -5.52078128e-01, 6.04542971e-01,
          -1.24716365e+00 ]
      - [ 3.36825877e-01, 6.49707794e-01, -5.28436720e-01,
          2.46984228e-01 ]
      - [ 3.36825877e-01, 1.27946645e-01, -3.73543859e-01,
          3.97803128e-01 ]
      - [ -4.48126376e-01, -1.84979069e+00, 1.39967537e+00,
          -1.98195040e-01 ]
      - [ 3.36825877e-01, -1.59584713e+00, 1.30142975e+00,
          -3.89980882e-01 ]
      - [ 3.36825877e-01, -9.58738446e-01, 1.49062052e-01,
          1.18247354e+00 ]
      - [ 3.36825877e-01, -3.51714581e-01, -4.62533057e-01,
          1.04466558e+00 ]
      - [ 3.36825877e-01, 3.28259736e-01, -8.17337096e-01,
          1.46592581e+00 ]
      - [ 5.71475290e-02, 4.78666663e-01, -6.83147073e-01,
          1.32643819e-01 ]
      - [ -5.45788035e-02, 6.90516412e-01, -5.19480705e-01,
          -8.00959527e-01 ]
      - [ 3.36825877e-01, 1.81308895e-01, -8.49035561e-01,
          1.13113689e+00 ]
      - [ 3.36825877e-01, -4.99354511e-01, -9.84438881e-02,
          8.73264492e-01 ]
      - [ -8.70331943e-01, -2.36044669e+00, 2.80579209e+00,
          -6.63266182e-01 ]
      - [ 3.36825877e-01, 7.33908653e-01, -6.22446597e-01,
          3.72249097e-01 ]
      - [ 3.36825877e-01, 8.49606395e-01, -6.80645287e-01,
          8.91746938e-01 ]
      - [ -2.09989619e+00, -1.39839542e+00, 8.86254668e-01,
          1.61311142e-02 ]
      - [ 3.36825877e-01, 1.33777365e-01, -6.50605500e-01,
          1.25069404e+00 ]
      - [ -3.93591285e+00, 6.29200876e-01, -5.95617712e-01,
          -3.84249628e-01 ]
      - [ -4.89001465e+00, -2.28123569e+00, 2.37596893e+00,
          -1.17876160e+00 ]
      - [ 3.36825877e-01, 4.22440439e-01, -2.83674538e-01,
          3.46783906e-01 ]
      - [ 3.36825877e-01, -1.49419487e+00, 1.08219016e+00,
          2.80451268e-01 ]
      - [ 3.36825877e-01, 9.09222007e-01, -8.25730920e-01,
          1.36858130e+00 ]
      - [ -1.82890929e-02, -3.29840705e-02, -4.33285147e-01,
          5.31037927e-01 ]
      - [ 3.36825877e-01, 8.89588594e-01, -4.55454499e-01,
          8.23730007e-02 ]
      - [ 3.36825877e-01, -8.51981223e-01, 8.87187064e-01,
          -1.04051125e+00 ]
      - [ 3.36825877e-01, -5.49563825e-01, -4.15790081e-02,
          3.32350641e-01 ]
      - [ -3.05310655e+00, -9.63500202e-01, 4.24744934e-01,
          3.24527234e-01 ]
      - [ 3.36825877e-01, -8.95715773e-01, 1.65579364e-01,
          8.35704982e-01 ]
      - [ 3.36825877e-01, -4.15251916e-03, -4.20073599e-01,
          5.21588683e-01 ]
      - [ 3.36825877e-01, 6.84969425e-01, -6.17341816e-01,
          4.93164062e-01 ]
      - [ 3.36825877e-01, 6.98990226e-01, -6.67539060e-01,
          8.68316948e-01 ]
      - [ 3.36825877e-01, -9.41106379e-01, -3.29173744e-01,
          2.06106043e+00 ]
      - [ 3.36825877e-01, -1.45724094e+00, 1.40745425e+00,
          -1.70560586e+00 ]
      - [ 3.36825877e-01, -1.11662734e+00, 1.35841894e+00,
          -1.26351786e+00 ]
      - [ 3.36825877e-01, 7.94011712e-01, -4.77398217e-01,
          4.63686943e-01 ]
      - [ 3.36825877e-01, -1.10562551e+00, 1.41580653e+00,
          -1.07557416e+00 ]
      - [ 3.36825877e-01, 9.44844484e-02, -2.39721939e-01,
          -3.25444609e-01 ]
      - [ 3.36825877e-01, 1.44657004e+00, -8.17481697e-01,
          1.12625396e+00 ]
      - [ 3.36825877e-01, 3.32306772e-01, -1.06634619e-02,
          -3.42998296e-01 ]
      - [ 3.36825877e-01, 1.14537142e-01, -6.87209547e-01,
          4.83584166e-01 ]
      - [ 3.36825877e-01, 2.34701538e+00, -6.66958570e-01,
          3.33867937e-01 ]
      - [ 3.36825877e-01, 2.60043710e-01, -6.63636625e-01,
          1.27558589e+00 ]
      - [ 3.12131464e-01, -7.16055989e-01, -4.23432924e-02,
          4.00366873e-01 ]
      - [ 3.36825877e-01, -2.70896912e-01, -1.51111064e-02,
          -1.38152504e+00 ]
      - [ 3.36825877e-01, 8.66475642e-01, -6.21791780e-01,
          4.54221696e-01 ]
      - [ 3.36825877e-01, 7.06879318e-01, -5.65997124e-01,
          1.03071141e+00 ]
      - [ 3.36825877e-01, -1.06701255e-01, -1.47498354e-01,
          -1.01737940e+00 ]
      - [ 3.36825877e-01, -6.80389777e-02, -6.95500493e-01,
          5.35171390e-01 ]
      - [ 3.36825877e-01, -1.59346327e-01, -5.59445210e-02,
          -1.79383025e-01 ]
      - [ 3.36825877e-01, -1.91272259e+00, 1.51629734e+00,
          -1.55546331e+00 ]
      - [ 3.36825877e-01, 5.73209703e-01, -8.76509070e-01,
          1.10144639e+00 ]
      - [ 3.36825877e-01, 1.53771281e+00, -8.30105722e-01,
          9.20862556e-01 ]
      - [ 3.36825877e-01, -5.43137908e-01, -3.20451349e-01,
          -1.27590358e-01 ]
      - [ 3.36825877e-01, 1.68457711e+00, -1.07312799e+00,
          1.51948595e+00 ]
      - [ 3.36825877e-01, 9.05942678e-01, -2.83452362e-01,
          -4.10667092e-01 ]
      - [ 3.36825877e-01, -2.10723102e-01, -5.40607810e-01,
          1.18481171e+00 ]
      - [ -2.03550720e+00, -1.77673674e+00, 1.00453401e+00,
          3.76739472e-01 ]
      - [ -1.45457275e-02, -1.15141773e+00, 5.18287301e-01,
          4.04207945e-01 ]
      - [ 2.82544374e-01, 4.45614100e-01, -4.19341236e-01,
          6.14527881e-01 ]
      - [ 3.36825877e-01, 9.95907664e-01, -6.09614253e-01,
          9.04107749e-01 ]
      - [ 4.34254296e-02, -1.43671322e+00, 8.79331768e-01,
          -6.20529115e-01 ]
      - [ 3.36825877e-01, 6.68133497e-01, -1.71086445e-01,
          9.86622721e-02 ]
      - [ 5.13203368e-02, -3.24393451e-01, -7.03646615e-02,
          -6.50659680e-01 ]
      - [ 3.36825877e-01, 1.48600626e+00, -9.41381633e-01,
          1.58287060e+00 ]
      - [ -6.38985872e+00, 7.78988242e-01, -8.63734543e-01,
          -6.74044073e-01 ]
      - [ 3.36825877e-01, 1.94367990e-01, -2.15468287e-01,
          -8.76354933e-01 ]
      - [ 3.36825877e-01, 4.87322882e-02, -6.96394086e-01,
          1.44709635e+00 ]
      - [ 3.36825877e-01, 1.22444010e+00, -6.76593840e-01,
          -4.36160386e-01 ]
      - [ 3.36825877e-01, 5.48578858e-01, -5.46815276e-01,
          1.72630742e-01 ]
      - [ 3.36825877e-01, 6.58839464e-01, -6.62466168e-01,
          -5.36576331e-01 ]
      - [ 3.36825877e-01, 1.25378799e+00, -1.31332755e+00,
          2.44574165e+00 ]
      - [ 3.36825877e-01, 3.61955971e-01, 5.06376684e-01,
          -1.91790938e+00 ]
      - [ 3.36825877e-01, 5.46326041e-01, 5.23230731e-01,
          -1.25800753e+00 ]
      - [ -8.15851688e-01, 1.09216213e+00, -8.27327788e-01,
          6.17782652e-01 ]
      - [ 3.36825877e-01, 1.98105291e-01, -2.59721696e-01,
          -3.63495685e-02 ]
      - [ 3.36825877e-01, 3.22649121e-01, -9.12965536e-01,
          2.20220160e+00 ]
      - [ -2.13900134e-01, -2.78760493e-02, 7.51954854e-01,
          -2.23566127e+00 ]
      - [ 2.04281639e-02, -5.90756059e-01, 4.61667001e-01,
          -4.27546054e-01 ]
      - [ 3.36825877e-01, -6.05057716e-01, 5.60916178e-02,
          -1.38459370e-01 ]
      - [ 3.36825877e-01, 1.51254499e+00, -1.11703491e+00,
          1.10965633e+00 ]
      - [ 2.07011089e-01, -9.42007899e-01, 9.77811497e-03,
          8.00100982e-01 ]
      - [ 3.36825877e-01, 1.02886903e+00, -6.85001850e-01,
          2.22590581e-01 ]
      - [ 3.36825877e-01, -3.23548824e-01, 8.90120208e-01,
          -1.47607410e+00 ]
      - [ 1.19705252e-01, 1.65222399e-02, -1.37893438e-01,
          -6.88806176e-01 ]
      - [ -1.03199601e-01, -9.29631352e-01, 8.81238163e-01,
          -4.42629755e-01 ]
      - [ 3.36825877e-01, 1.05745935e+00, -9.47647095e-01,
          4.37354535e-01 ]
      - [ 3.36825877e-01, -1.62497199e+00, 7.82171667e-01,
          -2.99151186e-02 ]
      - [ 3.36825877e-01, 9.27438140e-01, 1.40399709e-01,
          -3.68802547e-01 ]
      - [ 3.36825877e-01, 9.84091282e-01, -9.83451188e-01,
          1.77376413e+00 ]
      - [ 3.36825877e-01, -1.37191673e-03, 3.98452543e-02,
          -1.72187269e-01 ]
      - [ 3.36825877e-01, 3.37437689e-01, -4.45464849e-01,
          2.66567051e-01 ]
      - [ 3.36825877e-01, -1.34454846e+00, 1.23267448e+00,
          -2.08755994e+00 ]
      - [ -2.50366426e+00, -4.61476862e-01, -4.18364674e-01,
          -4.85308409e-01 ]
      - [ -1.08942902e+00, -1.99199462e+00, 1.81077075e+00,
          -4.10989106e-01 ]
      - [ 3.36825877e-01, 4.28846216e+00, 1.35778189e+00, 2.64824957e-01 ]
      - [ -7.28449225e-01, -1.22658622e+00, 1.61455286e+00,
          -1.31332159e+00 ]
      - [ 3.36825877e-01, -1.56824857e-01, -4.94080871e-01,
          9.98759449e-01 ]
      - [ 3.36825877e-01, 7.21847236e-01, -8.15405130e-01,
          8.31388533e-01 ]
      - [ 3.36825877e-01, 1.13917899e+00, -7.23610759e-01,
          1.31030059e+00 ]
      - [ 3.36825877e-01, -5.78856766e-01, 5.29789150e-01,
          -7.04594553e-02 ]
      - [ 3.36825877e-01, 7.02069163e-01, -6.41625822e-01,
          7.58225799e-01 ]
      - [ -2.16206193e+00, 9.49548841e-01, -4.23658967e-01,
          -1.02621126e+00 ]
      - [ 3.36825877e-01, -1.35319662e+00, 1.26774800e+00,
          -3.98400038e-01 ]
      - [ 3.36825877e-01, -1.08502710e+00, 2.73666143e-01,
          -1.19731642e-01 ]
      - [ -5.48923373e-01, -1.31029141e+00, 5.50962210e-01,
          8.80981565e-01 ]
      - [ 3.36825877e-01, -5.00144482e-01, 7.77887702e-01,
          -1.35636663e+00 ]
      - [ 1.81885883e-02, -6.30591393e-01, 3.10870647e-01,
          -5.91922224e-01 ]
      - [ -6.36194706e+00, -9.41467047e-01, 1.56025386e+00,
          -2.02497077e+00 ]
      - [ 3.36825877e-01, 5.79164147e-01, -9.13579643e-01,
          8.85543346e-01 ]
      - [ 3.36825877e-01, 7.66915232e-02, -8.19929659e-01,
          1.46926343e+00 ]
      - [ 3.36825877e-01, -3.70943516e-01, 6.36392593e-01,
          -2.72236019e-01 ]
      - [ 3.36825877e-01, 7.95479655e-01, -9.34523284e-01,
          5.34412742e-01 ]
      - [ 3.36825877e-01, -1.26695740e+00, 2.38778591e+00,
          -2.76821899e+00 ]
      - [ -3.01280499e+00, -5.51541805e-01, 3.70845556e-01,
          -2.23951387e+00 ]
      - [ 3.36825877e-01, 1.54103696e+00, -1.26965332e+00,
          2.36505175e+00 ]
      - [ -8.73672485e-01, 4.07928675e-01, -7.90557265e-01,
          -2.26518631e-01 ]
      - [ 2.37339333e-01, -5.85582852e-01, 2.05849633e-01,
          3.52046609e-01 ]
      - [ 1.85281292e-01, -1.48505554e-01, 4.34936076e-01,
          -1.52572453e+00 ]
      - [ 3.36825877e-01, 6.19571567e-01, -1.82927325e-01,
          -1.36408222e+00 ]
      - [ 3.36825877e-01, 5.53682685e-01, -7.05304623e-01,
          8.86810780e-01 ]
      - [ 3.36825877e-01, 1.30868292e+00, -7.04880416e-01,
          -3.42913628e-01 ]
      - [ 3.36825877e-01, -9.49088514e-01, 3.56301427e-01,
          -3.30596030e-01 ]
      - [ 3.36825877e-01, -1.10347345e-01, -2.33523414e-01,
          -1.70598581e-01 ]
      - [ -5.45319617e-01, -8.90288711e-01, 3.94155890e-01,
          -1.10421062e+00 ]
      - [ 3.36825877e-01, -1.68295825e+00, 1.50277758e+00,
          1.17072940e-01 ]
      - [ 3.36825877e-01, 4.90579754e-01, -9.40873623e-01,
          1.60308683e+00 ]
      - [ 3.36825877e-01, 5.47162533e-01, -8.69318962e-01,
          6.84758544e-01 ]
      - [ -1.21778834e+00, -4.07869965e-01, 1.89430654e+00,
          -2.11191678e+00 ]
      - [ 3.36825877e-01, 2.28605771e+00, -6.52468204e-01,
          1.98730022e-01 ]
      - [ -1.62842000e+00, -7.73561954e-01, 9.78054404e-01,
          -1.87937629e+00 ]
      - [ 3.36825877e-01, 1.81631148e-01, -6.57956421e-01,
          1.63246286e+00 ]
      - [ 3.36825877e-01, -1.71252799e+00, 2.47950983e+00,
          -8.35502625e-01 ]
      - [ 9.64072272e-02, -9.94867504e-01, 3.38960022e-01,
          -2.15478376e-01 ]
      - [ 3.36825877e-01, 2.12122977e-01, -4.51311648e-01,
          2.80920595e-01 ]
      - [ 3.36825877e-01, -1.40734136e+00, 7.76651740e-01,
          9.07828867e-01 ]
      - [ 3.36825877e-01, 2.52939403e-01, -7.25544810e-01,
          1.03159165e+00 ]
      - [ 8.45219046e-02, 3.63974363e-01, -4.18810785e-01,
          -6.68616235e-01 ]
      - [ 3.36825877e-01, 1.06452453e+00, -3.61528158e-01,
          -2.51244515e-01 ]
      - [ 2.15883449e-01, -9.83062625e-01, 2.13634938e-01,
          -1.14945042e+00 ]
      - [ 3.36825877e-01, 1.03719449e+00, -9.89197791e-01,
          7.52566695e-01 ]
      - [ -3.02441210e-01, 4.18348372e-01, -1.86223090e-01,
          -5.05371802e-02 ]
      - [ 3.36825877e-01, 6.76230490e-02, -3.62446040e-01,
          7.39427447e-01 ]
      - [ 3.36825877e-01, 7.02730000e-01, -4.31160867e-01,
          -3.24405245e-02 ]
      - [ -4.67742682e+00, -3.16257209e-01, 4.53567594e-01,
          -2.04796004e+00 ]
      - [ 3.36825877e-01, 1.44010520e+00, -5.42071819e-01,
          6.57022715e-01 ]
      - [ 3.36825877e-01, 3.11669916e-01, -6.79967523e-01,
          1.20876348e+00 ]
      - [ 2.15367869e-01, -4.01430815e-01, 2.15621680e-01,
          -6.59345314e-02 ]
      - [ 3.82266082e-02, 2.94250906e-01, -8.16131473e-01,
          6.96991801e-01 ]
      - [ -6.65257752e-01, -1.92875430e-01, -2.24540055e-01,
          1.68791935e-01 ]
      - [ -3.69440496e-01, -1.08352447e+00, 1.33188188e+00,
          -5.61092615e-01 ]
      - [ 3.36825877e-01, 9.04432595e-01, -7.51211822e-01,
          1.06652808e+00 ]
      - [ 2.07585752e-01, 2.11597109e+00, -3.29244435e-01,
          -1.14121079e+00 ]
      - [ 3.36825877e-01, 8.58255386e-01, -8.83442760e-01,
          9.66623664e-01 ]
      - [ 3.36825877e-01, 1.22595978e+00, -7.26470649e-01,
          7.93384016e-01 ]
      - [ -1.27814937e+00, -1.99601209e+00, 1.98383868e+00,
          -7.34702051e-01 ]
      - [ 3.36825877e-01, -2.97247976e-01, 1.93782881e-01,
          3.88328098e-02 ]
      - [ -7.28874654e-02, -1.93225932e+00, 2.43142676e+00,
          -9.99677598e-01 ]
      - [ 3.36825877e-01, -4.68348712e-01, -4.11382198e-01,
          1.58012378e+00 ]
      - [ 3.08774799e-01, 1.12255752e+00, -7.51602292e-01,
          3.11092556e-01 ]
      - [ 3.36825877e-01, 3.92239004e-01, -7.28400946e-01,
          1.03311121e+00 ]
      - [ 3.36825877e-01, 2.21364808e+00, -7.02934504e-01,
          -4.66205150e-01 ]
      - [ 3.36825877e-01, -2.82021701e-01, -4.30054724e-01,
          9.88719344e-01 ]
      - [ 3.36825877e-01, -1.34126574e-01, -6.89052284e-01,
          -1.52836829e-01 ]
      - [ 3.36825877e-01, 1.10491961e-01, -2.49677062e-01,
          1.12530664e-02 ]
      - [ 3.36825877e-01, 6.00015163e-01, -1.02636242e+00,
          1.99753916e+00 ]
      - [ -4.12949371e+00, 3.75396460e-02, -1.94121093e-01,
          -1.34133112e+00 ]
      - [ 3.36825877e-01, 1.23602879e+00, -2.74950713e-01,
          -1.18181634e+00 ]
      - [ -5.26183903e-01, -6.08027816e-01, -2.84493417e-02,
          5.36615789e-01 ]
      - [ 3.36825877e-01, 2.29858786e-01, -7.93450892e-01,
          1.22925067e+00 ]
      - [ 3.36825877e-01, -3.75536799e-01, 2.10599437e-01,
          -3.65734905e-01 ]
      - [ 3.36825877e-01, 8.15420032e-01, -6.30646110e-01,
          1.03546000e+00 ]
      - [ -3.76696289e-01, -2.02065158e+00, 1.70656931e+00,
          1.06721204e-02 ]
      - [ 3.36825877e-01, 8.02305222e-01, -7.32504725e-01,
          -5.17818570e-01 ]
      - [ 1.11907020e-01, -7.71032050e-02, -2.58605182e-01,
          -5.41613102e-01 ]
      - [ 3.36825877e-01, 9.87372041e-01, -6.12709999e-01,
          -1.48426577e-01 ]
      - [ 3.36825877e-01, -3.00741822e-01, 4.17464703e-01,
          -1.41577268e+00 ]
      - [ 3.36825877e-01, 7.07910180e-01, -5.41362941e-01,
          -5.26166022e-01 ]
      - [ 3.36825877e-01, 7.00257540e-01, -9.26205516e-01,
          1.02520347e+00 ]
      - [ -7.66865730e-01, -6.66856885e-01, 3.47514063e-01,
          -5.97939014e-01 ]
      - [ -2.95067281e-01, -1.45748401e+00, 2.99158263e+00,
          -1.86244428e+00 ]
      - [ 3.36825877e-01, 3.93490642e-01, -3.62075001e-01,
          3.24822634e-01 ]
      - [ 3.36825877e-01, 9.52842593e-01, -8.62367988e-01,
          1.30392015e+00 ]
      - [ 3.36825877e-01, -2.01496854e-02, -5.96928298e-01,
          1.36018682e+00 ]
      - [ -6.25713408e-01, 3.85834485e-01, -1.40036359e-01,
          -4.83080298e-01 ]
      - [ 3.22674125e-01, 4.09450173e-01, -1.06441939e+00,
          1.21026027e+00 ]
      - [ 3.36825877e-01, 6.10642374e-01, -2.59125024e-01,
          1.85427502e-01 ]
      - [ 3.36825877e-01, 8.97943020e-01, -1.04622555e+00,
          1.53754997e+00 ]
      - [ -1.69430867e-01, -7.16072798e-01, -1.35127194e-02,
          -9.89339411e-01 ]
      - [ 2.66002685e-01, 6.02767587e-01, -3.85770291e-01,
          8.27902853e-01 ]
      - [ 3.36825877e-01, -7.53106594e-01, -3.71211059e-02,
          -7.93935001e-01 ]
      - [ 3.36825877e-01, -3.90795954e-02, -2.91966259e-01,
          2.20992029e-01 ]
      - [ 3.36825877e-01, -1.34246826e+00, 7.88963914e-01,
          -1.05609846e+00 ]
      - [ -3.59499365e-01, -1.69826579e+00, 2.51601672e+00,
          -1.75395083e+00 ]
      - [ -1.58915073e-01, -7.99382210e-01, 2.49367729e-01,
          7.68703446e-02 ]
      - [ 3.36825877e-01, 3.55882436e-01, -3.21881101e-02,
          -1.48281917e-01 ]
      - [ 3.36825877e-01, -8.59332621e-01, 4.81893390e-01,
          3.91631536e-02 ]
      - [ 3.36825877e-01, 3.00893217e-01, -3.34880263e-01,
          -1.07838166e+00 ]
      - [ 3.36825877e-01, -9.76559043e-01, -1.18776441e-01,
          6.90609753e-01 ]
      - [ 3.36825877e-01, 2.44792557e+00, -9.36929941e-01,
          3.24879885e+00 ]
      - [ 3.36825877e-01, -1.77860487e+00, 2.03628087e+00,
          -4.26083058e-01 ]
      - [ 3.36825877e-01, -7.16639936e-01, -5.63081987e-02,
          8.82358372e-01 ]
      - [ 3.36825877e-01, -2.69959641e+00, 4.38205385e+00,
          -1.32900715e+00 ]
      - [ 3.36825877e-01, 2.69648522e-01, -8.64073277e-01,
          1.35989904e+00 ]
      - [ 3.36825877e-01, -6.30346596e-01, -2.98087187e-02,
          5.76229453e-01 ]
      - [ -5.81904769e-01, 5.56381345e-01, 9.51818004e-02,
          -1.51139641e+00 ]
      - [ 4.73138057e-02, 8.33978117e-01, -5.19494832e-01,
          2.26383045e-01 ]
      - [ 3.36825877e-01, -3.17505077e-02, -7.35041022e-01,
          8.99385035e-01 ]
      - [ 3.36825877e-01, 1.63406834e-01, -1.03465617e-01,
          7.94348568e-02 ]
      - [ 3.36825877e-01, 6.18423462e-01, -4.09715950e-01,
          9.10936445e-02 ]
      - [ 3.36825877e-01, 1.14212596e+00, -9.04244661e-01,
          -2.26852000e-01 ]
      - [ -4.51542139e-01, 1.60833871e+00, -9.73326385e-01,
          5.61058819e-01 ]
      - [ 3.93759347e-02, 5.81981301e-01, -6.39547110e-01,
          9.62071002e-01 ]
      - [ 3.36825877e-01, -2.49349403e+00, 2.85695148e+00,
          -1.03767979e+00 ]
      - [ 3.36825877e-01, -7.36483932e-01, -2.29607001e-01,
          6.72841191e-01 ]
      - [ -4.12804365e+00, -2.62086916e+00, 3.86508012e+00,
          -1.58696985e+00 ]
      - [ 3.36825877e-01, 7.15769053e-01, -7.55342305e-01,
          1.20140934e+00 ]
      - [ 3.36825877e-01, -1.90771770e+00, 1.95312178e+00,
          -7.01433957e-01 ]
      - [ 3.36825877e-01, 7.53894866e-01, -2.73281455e-01,
          -3.77490163e-01 ]
      - [ 1.61795303e-01, -8.52553964e-01, 7.80536413e-01,
          -5.80378532e-01 ]
      - [ 3.36825877e-01, -4.70551550e-01, -3.67453128e-01,
          8.89142931e-01 ]
      - [ 3.36825877e-01, 5.84693432e-01, -8.20505500e-01,
          -4.93568838e-01 ]
      - [ -3.79547477e+00, 1.23940611e+00, -6.28282905e-01,
          -9.35207367e-01 ]
