%YAML:1.0
---
opencv_ml_svm:
   format: 3
   svmType: C_SVC
   kernel:
      type: RBF
      gamma: 5.0625000000000009e-01
   C: 2.5000000000000000e+00
   term_criteria: { iterations:10000 }
   var_count: 1
   class_count: 2
   class_labels: !!opencv-matrix
      rows: 2
      cols: 1
      dt: i
      data: [ 0, 1 ]
   sv_total: 4426
   support_vectors:
      - [ -4.30140764e-01 ]
      - [ -1.12238717e+00 ]
      - [ 3.55563343e-01 ]
      - [ -6.38623476e-01 ]
      - [ -4.76570100e-01 ]
      - [ -2.80668288e-01 ]
      - [ -1.14665020e+00 ]
      - [ -4.78367358e-01 ]
      - [ 1.95606813e-01 ]
      - [ 4.20564413e-01 ]
      - [ 4.57108796e-01 ]
      - [ -1.53785479e+00 ]
      - [ -2.01289102e-01 ]
      - [ 3.78029168e-01 ]
      - [ 3.12429011e-01 ]
      - [ -1.22767827e-02 ]
      - [ -6.97633624e-01 ]
      - [ -6.90744102e-01 ]
      - [ 2.51621544e-01 ]
      - [ 6.59301043e-01 ]
      - [ -9.68721032e-01 ]
      - [ -7.29984403e-01 ]
      - [ 3.02584767e-02 ]
      - [ -1.40695405e+00 ]
      - [ -5.31686246e-01 ]
      - [ 5.07731736e-01 ]
      - [ 1.38240051e+00 ]
      - [ -7.90192783e-01 ]
      - [ -2.10698843e+00 ]
      - [ -1.06034078e-01 ]
      - [ 5.38584769e-01 ]
      - [ -6.00581348e-01 ]
      - [ -9.83099163e-01 ]
      - [ -7.22795367e-01 ]
      - [ -5.88599622e-01 ]
      - [ 7.51900896e-02 ]
      - [ -1.54564297e+00 ]
      - [ -1.36471832e+00 ]
      - [ -2.28248060e-01 ]
      - [ 1.10711944e+00 ]
      - [ -9.88450199e-02 ]
      - [ -4.28343505e-01 ]
      - [ -4.73574668e-01 ]
      - [ -8.29691887e-02 ]
      - [ 7.00937688e-01 ]
      - [ -3.38779837e-01 ]
      - [ -1.21011287e-01 ]
      - [ 5.46073377e-01 ]
      - [ -1.40481651e-01 ]
      - [ -1.53725564e+00 ]
      - [ -2.93507949e-02 ]
      - [ -5.25994897e-01 ]
      - [ 2.68695563e-01 ]
      - [ 7.85109580e-01 ]
      - [ 4.88560915e-01 ]
      - [ -2.06325507e+00 ]
      - [ -7.58441091e-01 ]
      - [ -9.58495811e-02 ]
      - [ 8.98677483e-02 ]
      - [ -7.37173438e-01 ]
      - [ 7.63242841e-01 ]
      - [ 8.77069592e-01 ]
      - [ 3.28304827e-01 ]
      - [ -2.17109108e+00 ]
      - [ 1.94314694e+00 ]
      - [ -1.75232840e+00 ]
      - [ -5.25395811e-01 ]
      - [ 4.63399231e-01 ]
      - [ 2.18372166e-01 ]
      - [ -1.78587723e+00 ]
      - [ -2.22556725e-01 ]
      - [ -3.58250201e-01 ]
      - [ 6.92550421e-01 ]
      - [ -1.16941559e+00 ]
      - [ -3.45070243e-01 ]
      - [ 5.72433233e-01 ]
      - [ -1.39107823e+00 ]
      - [ -3.78319651e-01 ]
      - [ -9.99574065e-01 ]
      - [ 1.85122773e-01 ]
      - [ -1.70436054e-01 ]
      - [ -4.28302810e-02 ]
      - [ -3.96591842e-01 ]
      - [ -9.54642475e-01 ]
      - [ 1.00351788e-01 ]
      - [ -1.59716451e+00 ]
      - [ -8.31230283e-01 ]
      - [ -2.87517067e-02 ]
      - [ -5.71825147e-01 ]
      - [ 1.79431424e-01 ]
      - [ -1.31559312e+00 ]
      - [ -7.91690469e-01 ]
      - [ 2.03271055e+00 ]
      - [ 4.60104227e-01 ]
      - [ -8.01874995e-01 ]
      - [ -1.22767827e-02 ]
      - [ -2.09228415e-03 ]
      - [ 4.21762586e-01 ]
      - [ -1.02563441e+00 ]
      - [ 1.88593411e+00 ]
      - [ -7.42565274e-01 ]
      - [ -3.81169391e+00 ]
      - [ -8.56092453e-01 ]
      - [ 2.43589687e+00 ]
      - [ -4.58297908e-01 ]
      - [ 1.27516365e+00 ]
      - [ 1.84523672e-01 ]
      - [ -1.36352015e+00 ]
      - [ 9.55849707e-01 ]
      - [ 2.84986687e+00 ]
      - [ -1.60375452e+00 ]
      - [ 1.91558897e+00 ]
      - [ -1.85926557e+00 ]
      - [ 4.01434302e-02 ]
      - [ -6.92840934e-01 ]
      - [ -8.08764517e-01 ]
      - [ -1.58039010e+00 ]
      - [ -9.72016037e-01 ]
      - [ 2.12616849e+00 ]
      - [ -5.85903704e-01 ]
      - [ 7.33887494e-01 ]
      - [ -1.95452058e+00 ]
      - [ 3.27106655e-01 ]
      - [ 2.40238875e-01 ]
      - [ -1.40964997e+00 ]
      - [ -1.87783730e+00 ]
      - [ 7.15615332e-01 ]
      - [ 1.24401104e+00 ]
      - [ -9.81002331e-01 ]
      - [ -1.06487465e+00 ]
      - [ -3.38439569e-02 ]
      - [ -1.59053385e-01 ]
      - [ -1.21854079e+00 ]
      - [ -4.43280004e-02 ]
      - [ -1.19937003e+00 ]
      - [ 2.65456414e+00 ]
      - [ -1.25718200e+00 ]
      - [ 6.23355746e-01 ]
      - [ 1.04121971e+00 ]
      - [ -8.73166442e-01 ]
      - [ -1.59177268e+00 ]
      - [ -1.94823015e+00 ]
      - [ 3.15424442e-01 ]
      - [ -5.37976623e-01 ]
      - [ -1.03312302e+00 ]
      - [ -1.62472260e+00 ]
      - [ 1.82003438e+00 ]
      - [ 3.90610009e-01 ]
      - [ -1.22183573e+00 ]
      - [ -5.93392313e-01 ]
      - [ 6.50055930e-02 ]
      - [ -4.67583776e-01 ]
      - [ -5.61041534e-01 ]
      - [ 1.80929154e-01 ]
      - [ 3.06138575e-01 ]
      - [ -1.54174888e+00 ]
      - [ 5.57156503e-01 ]
      - [ 1.52772009e-01 ]
      - [ -4.70878780e-01 ]
      - [ 4.09481287e-01 ]
      - [ -1.41294491e+00 ]
      - [ -1.65942892e-01 ]
      - [ 2.21367598e-01 ]
      - [ 6.14668965e-01 ]
      - [ -1.11010587e+00 ]
      - [ -9.81002331e-01 ]
      - [ -1.41474211e+00 ]
      - [ -9.97436568e-02 ]
      - [ -2.71681964e-01 ]
      - [ -1.68433189e+00 ]
      - [ 3.59157890e-01 ]
      - [ -4.46316153e-01 ]
      - [ -4.47514325e-01 ]
      - [ 1.55314064e+00 ]
      - [ -1.07715595e+00 ]
      - [ -2.08602047e+00 ]
      - [ -3.44471157e-01 ]
      - [ -8.20746243e-01 ]
      - [ -3.26498538e-01 ]
      - [ 1.52737975e+00 ]
      - [ -2.02191806e+00 ]
      - [ 1.05649650e+00 ]
      - [ -7.47657478e-01 ]
      - [ 5.16418517e-01 ]
      - [ -1.58997548e+00 ]
      - [ 4.76878703e-01 ]
      - [ -1.61543667e+00 ]
      - [ 6.87458217e-01 ]
      - [ -2.89055526e-01 ]
      - [ 1.64809608e+00 ]
      - [ -2.60898381e-01 ]
      - [ -1.07805467e+00 ]
      - [ 7.60887191e-02 ]
      - [ -8.10561776e-01 ]
      - [ 1.13827205e+00 ]
      - [ -1.06008196e+00 ]
      - [ -6.51803374e-01 ]
      - [ 7.58150578e-01 ]
      - [ 1.11101353e+00 ]
      - [ -6.85352325e-01 ]
      - [ 1.08375502e+00 ]
      - [ 1.92577338e+00 ]
      - [ 2.38142073e-01 ]
      - [ 3.61554235e-01 ]
      - [ 5.31096160e-01 ]
      - [ 1.25213951e-01 ]
      - [ -1.11399996e+00 ]
      - [ 4.24758017e-01 ]
      - [ -1.86705375e+00 ]
      - [ 6.47060424e-02 ]
      - [ -4.37289104e-02 ]
      - [ 1.57710409e+00 ]
      - [ -1.53515887e+00 ]
      - [ 7.67736018e-01 ]
      - [ 1.61993897e+00 ]
      - [ -4.15762663e-01 ]
      - [ -5.43068886e-01 ]
      - [ 5.30497074e-01 ]
      - [ -1.47644830e+00 ]
      - [ 6.16466224e-01 ]
      - [ -1.29462504e+00 ]
      - [ 2.24868202e+00 ]
      - [ -2.08332467e+00 ]
      - [ -1.10770953e+00 ]
      - [ -5.46363890e-01 ]
      - [ -8.95931840e-01 ]
      - [ -1.85686922e+00 ]
      - [ -5.42469800e-01 ]
      - [ -3.05489711e-02 ]
      - [ -9.28582132e-01 ]
      - [ -3.41176182e-01 ]
      - [ 4.69090551e-01 ]
      - [ 9.72624183e-01 ]
      - [ 9.15411234e-01 ]
      - [ -1.22632897e+00 ]
      - [ 1.32129347e+00 ]
      - [ -7.85699606e-01 ]
      - [ 4.37338889e-01 ]
      - [ 1.23083115e+00 ]
      - [ -1.17121279e+00 ]
      - [ 5.78124583e-01 ]
      - [ 5.59852421e-01 ]
      - [ -6.58093810e-01 ]
      - [ -3.54356110e-01 ]
      - [ 5.23607552e-01 ]
      - [ -1.96496397e-01 ]
      - [ 2.35745713e-01 ]
      - [ -3.53157938e-01 ]
      - [ -4.55261767e-02 ]
      - [ -4.43320721e-01 ]
      - [ -1.15144289e+00 ]
      - [ 9.72624183e-01 ]
      - [ -2.00634170e+00 ]
      - [ -9.60633337e-01 ]
      - [ -9.02222276e-01 ]
      - [ -9.00724530e-01 ]
      - [ 3.04307294e+00 ]
      - [ 3.35493892e-01 ]
      - [ 7.79418230e-01 ]
      - [ 6.30844355e-01 ]
      - [ 3.12429011e-01 ]
      - [ -2.24537802e+00 ]
      - [ -9.13904488e-01 ]
      - [ 8.95940840e-01 ]
      - [ -3.01636368e-01 ]
      - [ -1.92157078e+00 ]
      - [ 8.55801940e-01 ]
      - [ 8.99834931e-01 ]
      - [ -1.12747943e+00 ]
      - [ -1.83829749e+00 ]
      - [ -1.75592291e+00 ]
      - [ 4.00794506e-01 ]
      - [ -1.39882565e-01 ]
      - [ 1.25030148e+00 ]
      - [ 4.41532493e-01 ]
      - [ 8.72875988e-01 ]
      - [ -1.90869033e+00 ]
      - [ 9.47462440e-01 ]
      - [ -1.52377617e+00 ]
      - [ 4.81371850e-01 ]
      - [ -5.48760235e-01 ]
      - [ -8.17710087e-02 ]
      - [ 4.33444798e-01 ]
      - [ -6.20351255e-01 ]
      - [ 3.00922441e+00 ]
      - [ -1.22153628e+00 ]
      - [ -8.72267842e-01 ]
      - [ -2.08572102e+00 ]
      - [ 2.43739462e+00 ]
      - [ -9.64227855e-01 ]
      - [ -8.05469513e-01 ]
      - [ -1.72207439e+00 ]
      - [ -1.96141016e+00 ]
      - [ -1.04236819e-01 ]
      - [ -9.64826941e-01 ]
      - [ 2.63644028e-02 ]
      - [ 5.52064240e-01 ]
      - [ 1.89615920e-01 ]
      - [ -1.02739096e-01 ]
      - [ -5.56248844e-01 ]
      - [ -9.07913566e-01 ]
      - [ 1.15265012e+00 ]
      - [ 7.00638115e-01 ]
      - [ -7.79708743e-01 ]
      - [ 3.41525488e-02 ]
      - [ -4.17260379e-01 ]
      - [ -1.51449037e+00 ]
      - [ -5.35280764e-01 ]
      - [ 1.10876551e-02 ]
      - [ 7.67736018e-01 ]
      - [ -1.22808546e-01 ]
      - [ 1.57021463e+00 ]
      - [ -1.25897920e+00 ]
      - [ -1.83170748e+00 ]
      - [ -6.83555067e-01 ]
      - [ 5.75728238e-01 ]
      - [ -1.30451000e+00 ]
      - [ 8.19257557e-01 ]
      - [ -2.78871000e-01 ]
      - [ -3.31714654e+00 ]
      - [ 5.36188424e-01 ]
      - [ -1.29432547e+00 ]
      - [ -2.07523680e+00 ]
      - [ 2.13785052e+00 ]
      - [ -1.01724720e+00 ]
      - [ -9.39665258e-01 ]
      - [ -1.78823292e-01 ]
      - [ 1.59687400e+00 ]
      - [ -6.09567702e-01 ]
      - [ -3.04665828e+00 ]
      - [ -1.32487893e+00 ]
      - [ -7.53648400e-01 ]
      - [ 7.88404524e-01 ]
      - [ -1.56151879e+00 ]
      - [ -1.96560371e+00 ]
      - [ 5.57197221e-02 ]
      - [ -8.07865858e-01 ]
      - [ -2.98940480e-01 ]
      - [ 1.35903597e+00 ]
      - [ -5.51115870e-02 ]
      - [ 4.49320644e-01 ]
      - [ 8.77668679e-01 ]
      - [ -4.81063277e-01 ]
      - [ 1.32099390e+00 ]
      - [ -7.96483159e-01 ]
      - [ 6.47918344e-01 ]
      - [ -8.36622119e-01 ]
      - [ -1.39377403e+00 ]
      - [ 1.80178881e-03 ]
      - [ -1.80175316e+00 ]
      - [ -5.45764804e-01 ]
      - [ -1.24040747e+00 ]
      - [ -1.87154686e+00 ]
      - [ -2.56704748e-01 ]
      - [ -9.53144729e-01 ]
      - [ 8.63590121e-01 ]
      - [ -1.04061162e+00 ]
      - [ 2.27658018e-01 ]
      - [ -1.89307332e-01 ]
      - [ 2.75625791e-02 ]
      - [ 7.48265624e-01 ]
      - [ -1.04330754e+00 ]
      - [ -1.04031205e+00 ]
      - [ -5.45165718e-01 ]
      - [ -1.23920929e+00 ]
      - [ -1.06787014e+00 ]
      - [ -1.41803718e+00 ]
      - [ -3.37282121e-01 ]
      - [ 9.04328108e-01 ]
      - [ 7.78220057e-01 ]
      - [ 1.85298419e+00 ]
      - [ 6.41328394e-01 ]
      - [ 1.19862873e-02 ]
      - [ -2.05516744e+00 ]
      - [ 9.21102583e-01 ]
      - [ -5.99682748e-01 ]
      - [ -9.21093524e-01 ]
      - [ 1.39438224e+00 ]
      - [ 6.16765797e-01 ]
      - [ 9.88947880e-03 ]
      - [ -1.29672182e+00 ]
      - [ 3.97799075e-01 ]
      - [ 2.72885108e+00 ]
      - [ -3.48365247e-01 ]
      - [ 2.77681887e-01 ]
      - [ 7.11122155e-01 ]
      - [ 9.58586335e-02 ]
      - [ 1.01366174e+00 ]
      - [ -1.42312944e+00 ]
      - [ -3.62537742e+00 ]
      - [ 1.63641381e+00 ]
      - [ 1.00677216e+00 ]
      - [ -1.47405195e+00 ]
      - [ -6.02977693e-01 ]
      - [ -7.03025460e-01 ]
      - [ -7.94086814e-01 ]
      - [ 6.18263483e-01 ]
      - [ -3.80375721e-02 ]
      - [ -1.08584273e+00 ]
      - [ -1.56211782e+00 ]
      - [ 1.53696525e+00 ]
      - [ 4.90358174e-01 ]
      - [ -1.00017321e+00 ]
      - [ 4.38836604e-01 ]
      - [ 4.54712451e-01 ]
      - [ -2.64492899e-01 ]
      - [ 2.53418803e-01 ]
      - [ -2.69285589e-01 ]
      - [ -2.91751415e-01 ]
      - [ 4.73324880e-02 ]
      - [ -2.88156867e-01 ]
      - [ 5.47571123e-01 ]
      - [ -3.06129515e-01 ]
      - [ -1.48094141e+00 ]
      - [ -1.40905082e+00 ]
      - [ 7.51261055e-01 ]
      - [ -1.34884250e+00 ]
      - [ 1.15328997e-01 ]
      - [ -1.21105218e+00 ]
      - [ -6.03576779e-01 ]
      - [ -2.94241691e+00 ]
      - [ 1.33417392e+00 ]
      - [ 4.01094049e-01 ]
      - [ 3.67245555e-01 ]
      - [ -1.39946544e+00 ]
      - [ -2.89355069e-01 ]
      - [ -4.46275435e-02 ]
      - [ -2.04198742e+00 ]
      - [ 5.66142857e-01 ]
      - [ 1.62083757e+00 ]
      - [ -1.26467061e+00 ]
      - [ 1.34645522e+00 ]
      - [ -4.63689715e-01 ]
      - [ -1.54354608e+00 ]
      - [ -1.31319678e+00 ]
      - [ 1.29732990e+00 ]
      - [ 2.38741159e-01 ]
      - [ -1.98147953e+00 ]
      - [ -3.13019037e-01 ]
      - [ -5.81111014e-01 ]
      - [ 1.94614244e+00 ]
      - [ 3.06138575e-01 ]
      - [ 7.59049237e-01 ]
      - [ 2.24662587e-01 ]
      - [ -1.26017737e+00 ]
      - [ 3.41484785e-01 ]
      - [ 1.79730967e-01 ]
      - [ -1.57439911e+00 ]
      - [ -2.70667577e+00 ]
      - [ 2.06090853e-01 ]
      - [ -8.68225377e-03 ]
      - [ -6.72172368e-01 ]
      - [ 4.53214705e-01 ]
      - [ 1.79730967e-01 ]
      - [ -1.46472529e-01 ]
      - [ -9.55541074e-01 ]
      - [ -4.97197919e-02 ]
      - [ 6.60199702e-01 ]
      - [ -1.57889235e+00 ]
      - [ 8.55502427e-01 ]
      - [ -1.49112594e+00 ]
      - [ 6.31743014e-01 ]
      - [ 1.22817598e-01 ]
      - [ -5.84065728e-02 ]
      - [ 1.25299740e+00 ]
      - [ -4.86754596e-01 ]
      - [ 1.90959799e+00 ]
      - [ 6.43425226e-01 ]
      - [ 1.25868881e+00 ]
      - [ -2.74078310e-01 ]
      - [ -2.93548673e-01 ]
      - [ 1.96920729e+00 ]
      - [ -1.70380223e+00 ]
      - [ -6.02678180e-01 ]
      - [ 1.11041439e+00 ]
      - [ 7.10223556e-01 ]
      - [ -1.37969553e+00 ]
      - [ 1.10536292e-01 ]
      - [ -1.01694763e+00 ]
      - [ -2.92949587e-01 ]
      - [ -1.13886201e+00 ]
      - [ 8.35732520e-01 ]
      - [ -2.21961713e+00 ]
      - [ -3.49563420e-01 ]
      - [ -2.33104753e+00 ]
      - [ -1.02024257e+00 ]
      - [ 5.07731736e-01 ]
      - [ -2.11058307e+00 ]
      - [ -1.67834091e+00 ]
      - [ -2.29570127e+00 ]
      - [ -4.34334397e-01 ]
      - [ -7.88695037e-01 ]
      - [ -1.23052251e+00 ]
      - [ 6.15268052e-01 ]
      - [ -8.75862360e-01 ]
      - [ 5.23008466e-01 ]
      - [ 1.27246773e+00 ]
      - [ 2.58810610e-01 ]
      - [ 9.49559271e-01 ]
      - [ -5.08022249e-01 ]
      - [ 5.94599545e-01 ]
      - [ -5.83207786e-01 ]
      - [ -2.40229830e-01 ]
      - [ 2.29001904e+00 ]
      - [ 6.49116576e-01 ]
      - [ -2.53409773e-01 ]
      - [ 1.03193390e+00 ]
      - [ 1.29133904e+00 ]
      - [ 7.79717743e-01 ]
      - [ 1.63641381e+00 ]
      - [ -1.57649601e+00 ]
      - [ 1.55104375e+00 ]
      - [ 6.11074448e-01 ]
      - [ -1.47704732e+00 ]
      - [ -2.87517067e-02 ]
      - [ 1.75683057e+00 ]
      - [ -2.56499147e+00 ]
      - [ -4.81063277e-01 ]
      - [ -3.33987117e-01 ]
      - [ -1.11399996e+00 ]
      - [ -4.28043962e-01 ]
      - [ 7.03973845e-02 ]
      - [ 4.13416065e-02 ]
      - [ 3.78029168e-01 ]
      - [ 2.48666834e-02 ]
      - [ 2.22022533e+00 ]
      - [ -1.07925284e+00 ]
      - [ 1.10951579e+00 ]
      - [ -9.64527428e-01 ]
      - [ -2.14952374e+00 ]
      - [ -1.55458853e-01 ]
      - [ 1.11340988e+00 ]
      - [ 7.47067451e-01 ]
      - [ -6.07470870e-01 ]
      - [ -3.53157938e-01 ]
      - [ 1.90450573e+00 ]
      - [ 8.13865781e-01 ]
      - [ -1.10111952e+00 ]
      - [ 4.07384485e-01 ]
      - [ -7.33279407e-01 ]
      - [ -2.25851715e-01 ]
      - [ 2.82175034e-01 ]
      - [ -1.03731668e+00 ]
      - [ -1.50760078e+00 ]
      - [ -7.39828646e-02 ]
      - [ 1.51869297e+00 ]
      - [ -7.01827228e-01 ]
      - [ -5.72424233e-01 ]
      - [ -7.73418307e-01 ]
      - [ -2.37533927e-01 ]
      - [ -8.17750812e-01 ]
      - [ 5.11625826e-01 ]
      - [ -8.33626628e-01 ]
      - [ -1.31559312e+00 ]
      - [ 3.79526883e-01 ]
      - [ 6.01788580e-01 ]
      - [ -1.08344638e+00 ]
      - [ 1.44440603e+00 ]
      - [ 1.40486622e+00 ]
      - [ -1.18139732e+00 ]
      - [ -1.00286901e+00 ]
      - [ -3.28595340e-01 ]
      - [ 3.00473118e+00 ]
      - [ 1.17092228e+00 ]
      - [ -2.05187249e+00 ]
      - [ -1.91168582e+00 ]
      - [ -3.19009930e-01 ]
      - [ -1.91947389e+00 ]
      - [ 2.95954078e-01 ]
      - [ 1.34499818e-01 ]
      - [ 8.69580984e-01 ]
      - [ -6.26641691e-01 ]
      - [ -8.68632570e-02 ]
      - [ -2.11058307e+00 ]
      - [ -1.06936789e+00 ]
      - [ 9.32784796e-01 ]
      - [ -1.02593398e+00 ]
      - [ -1.03492022e+00 ]
      - [ 1.15085292e+00 ]
      - [ -3.10922235e-01 ]
      - [ 1.01665711e+00 ]
      - [ -1.56211782e+00 ]
      - [ -2.84562349e-01 ]
      - [ 5.26603043e-01 ]
      - [ 5.00542700e-01 ]
      - [ 1.77150822e+00 ]
      - [ -2.99843168e+00 ]
      - [ -1.29132998e+00 ]
      - [ 2.24962130e-01 ]
      - [ 1.15628541e-01 ]
      - [ -1.88802183e+00 ]
      - [ -2.30644420e-01 ]
      - [ -2.14113665e+00 ]
      - [ 1.80505717e+00 ]
      - [ -5.25395811e-01 ]
      - [ 8.09672177e-01 ]
      - [ -1.39317501e+00 ]
      - [ 5.58354676e-01 ]
      - [ 8.48013818e-01 ]
      - [ -5.96387744e-01 ]
      - [ 6.65291905e-01 ]
      - [ -1.79122835e-01 ]
      - [ -3.89402777e-01 ]
      - [ -1.74929217e-01 ]
      - [ -5.42769372e-01 ]
      - [ 3.89711380e-01 ]
      - [ -1.50666147e-01 ]
      - [ 8.68682384e-01 ]
      - [ -6.75766945e-01 ]
      - [ -2.98041850e-01 ]
      - [ 2.47184229e+00 ]
      - [ -1.07232258e-01 ]
      - [ 1.54085922e+00 ]
      - [ 7.92598188e-01 ]
      - [ 3.36991608e-01 ]
      - [ 9.06724453e-01 ]
      - [ 4.90358174e-01 ]
      - [ 1.21016264e+00 ]
      - [ -1.18109775e+00 ]
      - [ -1.82721436e+00 ]
      - [ -1.81942618e+00 ]
      - [ 1.75533283e+00 ]
      - [ -1.21135175e+00 ]
      - [ 5.75728238e-01 ]
      - [ -6.47310257e-01 ]
      - [ -2.69544423e-02 ]
      - [ 1.05439973e+00 ]
      - [ 9.40872490e-01 ]
      - [ 1.22034717e+00 ]
      - [ 1.38719320e+00 ]
      - [ -2.84521636e-02 ]
      - [ 1.20270066e-03 ]
      - [ 2.12081730e-01 ]
      - [ 4.08882201e-01 ]
      - [ -1.23022306e+00 ]
      - [ 8.94143581e-01 ]
      - [ -1.30690634e+00 ]
      - [ 6.77573264e-01 ]
      - [ -4.94243205e-01 ]
      - [ -1.01634860e+00 ]
      - [ -3.04332256e-01 ]
      - [ 2.45331123e-01 ]
      - [ 1.65951952e-01 ]
      - [ 6.59042224e-02 ]
      - [ -6.89845502e-01 ]
      - [ 4.85565484e-01 ]
      - [ 1.02055120e+00 ]
      - [ 2.41437048e-01 ]
      - [ -5.57746530e-01 ]
      - [ 3.48074734e-01 ]
      - [ 8.55801940e-01 ]
      - [ -2.39930287e-01 ]
      - [ 1.47436047e+00 ]
      - [ 2.58810610e-01 ]
      - [ -2.91152328e-01 ]
      - [ -9.50748384e-01 ]
      - [ -1.22183573e+00 ]
      - [ -2.62396097e-01 ]
      - [ 5.62548280e-01 ]
      - [ 1.24161470e+00 ]
      - [ 5.17017603e-01 ]
      - [ 1.50042081e+00 ]
      - [ 1.68074632e+00 ]
      - [ -6.58093810e-01 ]
      - [ 4.65795577e-01 ]
      - [ -6.64084673e-01 ]
      - [ -1.62891614e+00 ]
      - [ 1.36297077e-01 ]
      - [ 1.08555222e+00 ]
      - [ 1.75922692e+00 ]
      - [ 1.06188834e+00 ]
      - [ 1.51274279e-01 ]
      - [ 3.90909553e-01 ]
      - [ -8.25538933e-01 ]
      - [ 6.01788580e-01 ]
      - [ 3.71139646e-01 ]
      - [ -1.69930899e+00 ]
      - [ -7.35675752e-01 ]
      - [ -5.17008543e-01 ]
      - [ 2.49225199e-01 ]
      - [ -1.57589686e+00 ]
      - [ -3.65738809e-01 ]
      - [ -6.70075595e-01 ]
      - [ -1.62741852e+00 ]
      - [ -4.91207056e-02 ]
      - [ -1.09423006e+00 ]
      - [ 6.14668965e-01 ]
      - [ -1.58248687e+00 ]
      - [ -5.20003974e-01 ]
      - [ 4.02591765e-01 ]
      - [ -7.82704175e-01 ]
      - [ 1.04840875e+00 ]
      - [ -5.05026817e-01 ]
      - [ 2.20494843e+00 ]
      - [ 8.11169922e-01 ]
      - [ -1.94463563e+00 ]
      - [ -9.94781375e-01 ]
      - [ -7.76713252e-01 ]
      - [ 7.20408022e-01 ]
      - [ 5.24506211e-01 ]
      - [ 8.39175843e-03 ]
      - [ -1.33236754e+00 ]
      - [ 9.66333747e-01 ]
      - [ -3.41775268e-01 ]
      - [ -1.45518064e+00 ]
      - [ 6.87757730e-01 ]
      - [ 1.29463398e+00 ]
      - [ -2.93249130e-01 ]
      - [ -7.22495794e-01 ]
      - [ 1.72841460e-01 ]
      - [ -1.60850644e-01 ]
      - [ -1.54234791e+00 ]
      - [ 4.15771723e-01 ]
      - [ 1.19848037e+00 ]
      - [ -1.58248687e+00 ]
      - [ -2.09350896e+00 ]
      - [ 5.78124583e-01 ]
      - [ -1.85477245e+00 ]
      - [ -8.43811154e-01 ]
      - [ 5.91304541e-01 ]
      - [ -1.10950673e+00 ]
      - [ 6.63494647e-01 ]
      - [ -3.77720565e-01 ]
      - [ -1.51265234e-01 ]
      - [ -3.32283807e+00 ]
      - [ -2.08062863e+00 ]
      - [ -1.02054214e+00 ]
      - [ -4.61293370e-01 ]
      - [ -4.60694283e-01 ]
      - [ 2.31252551e-01 ]
      - [ 4.10420634e-02 ]
      - [ 5.99691749e-01 ]
      - [ -6.66780591e-01 ]
      - [ 3.08235377e-01 ]
      - [ -1.35513294e+00 ]
      - [ 2.76184171e-01 ]
      - [ -1.79067004e+00 ]
      - [ 2.83672780e-01 ]
      - [ -1.16312516e+00 ]
      - [ -2.62695640e-01 ]
      - [ -1.25059199e+00 ]
      - [ -9.04577896e-02 ]
      - [ -5.67631483e-01 ]
      - [ 9.36079800e-01 ]
      - [ -1.98207867e+00 ]
      - [ -3.35185289e-01 ]
      - [ 3.17221701e-01 ]
      - [ 3.10931265e-01 ]
      - [ 5.21211207e-01 ]
      - [ -9.11208570e-01 ]
      - [ -3.98988187e-01 ]
      - [ -2.47123408e+00 ]
      - [ 8.13865781e-01 ]
      - [ -3.13083029e+00 ]
      - [ -2.02487275e-01 ]
      - [ 4.33444798e-01 ]
      - [ -6.83255494e-01 ]
      - [ 9.61540997e-01 ]
      - [ 4.23559844e-01 ]
      - [ 2.77258444e+00 ]
      - [ -5.93092740e-01 ]
      - [ 5.58055162e-01 ]
      - [ -1.44050300e+00 ]
      - [ 1.56965628e-01 ]
      - [ 2.10190535e+00 ]
      - [ 2.63988662e+00 ]
      - [ 5.82617760e-01 ]
      - [ 1.01485991e+00 ]
      - [ -1.31199861e+00 ]
      - [ -2.12631058e-02 ]
      - [ 6.83005750e-02 ]
      - [ 8.47414732e-01 ]
      - [ -9.52845216e-01 ]
      - [ 3.43881130e-01 ]
      - [ 5.87151647e-02 ]
      - [ -8.43511581e-01 ]
      - [ -8.03672254e-01 ]
      - [ -1.27275825e+00 ]
      - [ 2.95055449e-01 ]
      - [ 2.22262168e+00 ]
      - [ -1.99491829e-01 ]
      - [ 4.43928838e-01 ]
      - [ 7.30292976e-01 ]
      - [ 1.18949401e+00 ]
      - [ 1.56901646e+00 ]
      - [ 8.80704820e-02 ]
      - [ 6.38932049e-01 ]
      - [ -1.99645674e+00 ]
      - [ -3.45968902e-01 ]
      - [ -5.75120091e-01 ]
      - [ -1.61753356e+00 ]
      - [ 3.00746769e-01 ]
      - [ 1.05529833e+00 ]
      - [ 5.35289824e-01 ]
      - [ 1.47076595e+00 ]
      - [ -1.31589258e+00 ]
      - [ 1.06941760e-01 ]
      - [ 2.45331123e-01 ]
      - [ -1.70500040e+00 ]
      - [ -1.51718628e+00 ]
      - [ -3.13622189e+00 ]
      - [ 6.85660899e-01 ]
      - [ -5.90097308e-01 ]
      - [ -5.66433311e-01 ]
      - [ 1.55168355e-01 ]
      - [ -1.94074154e+00 ]
      - [ -1.38658500e+00 ]
      - [ -2.25436425e+00 ]
      - [ -1.80924177e+00 ]
      - [ -5.25096238e-01 ]
      - [ -1.15174246e+00 ]
      - [ -9.64826941e-01 ]
      - [ -2.09710360e+00 ]
      - [ 2.12706709e+00 ]
      - [ -4.03481364e-01 ]
      - [ -4.84957337e-01 ]
      - [ -1.84548652e+00 ]
      - [ -2.06381351e-01 ]
      - [ -3.21106732e-01 ]
      - [ -6.20650828e-01 ]
      - [ -9.22890782e-01 ]
      - [ 6.56046793e-02 ]
      - [ 2.46828854e-01 ]
      - [ -3.19009930e-01 ]
      - [ 3.80425513e-01 ]
      - [ -1.27245867e+00 ]
      - [ -1.11250222e+00 ]
      - [ -1.50999713e+00 ]
      - [ -1.64269519e+00 ]
      - [ -2.82765090e-01 ]
      - [ 4.26251698e+00 ]
      - [ 2.17948723e+00 ]
      - [ -3.83411884e-01 ]
      - [ -1.70559943e+00 ]
      - [ -4.01384532e-01 ]
      - [ -7.76114166e-01 ]
      - [ 3.39987069e-01 ]
      - [ 9.89997685e-01 ]
      - [ -1.13227212e+00 ]
      - [ 6.38932049e-01 ]
      - [ -1.96081102e+00 ]
      - [ -7.39270270e-01 ]
      - [ -1.53635705e+00 ]
      - [ 7.17712164e-01 ]
      - [ -1.01065719e+00 ]
      - [ 3.86116832e-01 ]
      - [ 1.16523099e+00 ]
      - [ -1.59836268e+00 ]
      - [ -1.76580787e+00 ]
      - [ 6.87158644e-01 ]
      - [ -1.42672396e+00 ]
      - [ -1.04390657e+00 ]
      - [ 4.28652108e-01 ]
      - [ -9.37268913e-01 ]
      - [ -1.42013395e+00 ]
      - [ -3.32788944e-01 ]
      - [ -4.62491542e-01 ]
      - [ -1.20625949e+00 ]
      - [ -4.24748987e-01 ]
      - [ 3.62752408e-01 ]
      - [ 9.01332676e-01 ]
      - [ -1.80175316e+00 ]
      - [ 1.74065518e+00 ]
      - [ -1.24010801e+00 ]
      - [ -9.37268913e-01 ]
      - [ -6.88946843e-01 ]
      - [ 5.57456076e-01 ]
      - [ 3.26507568e-01 ]
      - [ -6.20051742e-01 ]
      - [ -1.58009052e+00 ]
      - [ 2.95055449e-01 ]
      - [ -2.52810687e-01 ]
      - [ 5.97594976e-01 ]
      - [ -1.59566677e+00 ]
      - [ -1.12358534e+00 ]
      - [ -1.54384565e+00 ]
      - [ 1.82302976e+00 ]
      - [ -4.48712498e-01 ]
      - [ -2.01892257e+00 ]
      - [ -3.41775268e-01 ]
      - [ -1.92426670e+00 ]
      - [ 5.49667895e-01 ]
      - [ 8.90249550e-01 ]
      - [ -6.79660976e-01 ]
      - [ 2.71690995e-01 ]
      - [ -6.28997311e-02 ]
      - [ -1.80864263e+00 ]
      - [ 1.27310753e-01 ]
      - [ -1.14904654e+00 ]
      - [ 1.31504372e-01 ]
      - [ 5.05934477e-01 ]
      - [ 1.74938262e-01 ]
      - [ 5.09229481e-01 ]
      - [ -9.79205072e-01 ]
      - [ -7.39828646e-02 ]
      - [ -7.07818151e-01 ]
      - [ 1.42673302e+00 ]
      - [ -6.96735024e-01 ]
      - [ 4.72385526e-01 ]
      - [ -1.38898134e+00 ]
      - [ 7.06029952e-01 ]
      - [ 1.46781117e-01 ]
      - [ -1.33775938e+00 ]
      - [ 1.11460805e+00 ]
      - [ 3.76531422e-01 ]
      - [ -3.11820865e-01 ]
      - [ -1.74753559e+00 ]
      - [ -1.51449037e+00 ]
      - [ 2.05397820e+00 ]
      - [ 9.46264267e-01 ]
      - [ -1.27994728e+00 ]
      - [ 1.54569268e-01 ]
      - [ -2.11657405e+00 ]
      - [ 2.74985999e-01 ]
      - [ -1.33955657e+00 ]
      - [ 1.79607081e+00 ]
      - [ 1.07746458e+00 ]
      - [ -1.86645460e+00 ]
      - [ 1.30332077e+00 ]
      - [ -1.03581893e+00 ]
      - [ -8.92936409e-01 ]
      - [ -1.67294919e+00 ]
      - [ -1.06068110e+00 ]
      - [ -1.17900097e+00 ]
      - [ -6.70974195e-01 ]
      - [ -7.21297622e-01 ]
      - [ -1.40605533e+00 ]
      - [ -6.86250985e-01 ]
      - [ 8.81862283e-01 ]
      - [ 1.32908165e+00 ]
      - [ 1.45882487e-01 ]
      - [ -7.06320405e-01 ]
      - [ 2.46285605e+00 ]
      - [ -1.82182252e+00 ]
      - [ 5.96137978e-02 ]
      - [ 1.59361973e-01 ]
      - [ -1.48004282e+00 ]
      - [ 8.13566267e-01 ]
      - [ -2.16569924e+00 ]
      - [ 7.13218987e-01 ]
      - [ -2.09560585e+00 ]
      - [ -4.15762663e-01 ]
      - [ 3.04041773e-01 ]
      - [ -4.51408416e-01 ]
      - [ -1.14095891e+00 ]
      - [ -5.26294410e-01 ]
      - [ 3.85218203e-01 ]
      - [ 7.06969276e-02 ]
      - [ -1.90299904e+00 ]
      - [ -1.31978667e+00 ]
      - [ 7.39578843e-01 ]
      - [ -2.23155811e-01 ]
      - [ -6.20950341e-01 ]
      - [ 1.70261312e+00 ]
      - [ -2.17738152e+00 ]
      - [ 5.94599545e-01 ]
      - [ -4.53505218e-01 ]
      - [ -1.06157970e+00 ]
      - [ 5.05634904e-01 ]
      - [ -1.85836697e+00 ]
      - [ 2.55515635e-01 ]
      - [ -1.14994526e+00 ]
      - [ -3.04032713e-01 ]
      - [ -7.36873925e-01 ]
      - [ -1.03971303e+00 ]
      - [ -5.01731813e-01 ]
      - [ -1.10351586e+00 ]
      - [ -7.63233781e-01 ]
      - [ -1.09782457e+00 ]
      - [ -2.14682794e+00 ]
      - [ -5.05625904e-01 ]
      - [ -2.12406254e+00 ]
      - [ 4.14573520e-01 ]
      - [ -1.02203989e+00 ]
      - [ -1.28414094e+00 ]
      - [ -1.00466633e+00 ]
      - [ -1.57380009e+00 ]
      - [ 9.11517143e-01 ]
      - [ -4.92445946e-01 ]
      - [ 7.04532206e-01 ]
      - [ 4.20564413e-01 ]
      - [ 1.30481851e+00 ]
      - [ -2.46220708e-01 ]
      - [ -8.98028612e-01 ]
      - [ 4.53214705e-01 ]
      - [ 1.50521350e+00 ]
      - [ -7.33279407e-01 ]
      - [ -1.77778959e+00 ]
      - [ -1.78288186e+00 ]
      - [ 1.87545002e+00 ]
      - [ -8.18948984e-01 ]
      - [ 5.12224913e-01 ]
      - [ -1.23980844e+00 ]
      - [ -1.85926557e+00 ]
      - [ -2.16150546e+00 ]
      - [ 6.22157574e-01 ]
      - [ -1.15743375e+00 ]
      - [ -4.84657794e-01 ]
      - [ 2.82474577e-01 ]
      - [ 4.15771723e-01 ]
      - [ -6.88946843e-01 ]
      - [ -5.74521005e-01 ]
      - [ 2.93598436e-02 ]
      - [ -4.75671470e-01 ]
      - [ -4.11868572e-01 ]
      - [ -1.29398525e-01 ]
      - [ -1.67444694e+00 ]
      - [ -1.13796341e+00 ]
      - [ 2.16091561e+00 ]
      - [ 1.10891676e+00 ]
      - [ 6.87158644e-01 ]
      - [ 2.18072608e-01 ]
      - [ 7.15615332e-01 ]
      - [ -3.10922235e-01 ]
      - [ -1.00556493e+00 ]
      - [ -1.87394321e+00 ]
      - [ -1.05469024e+00 ]
      - [ -2.15341783e+00 ]
      - [ -2.39630744e-01 ]
      - [ 1.79131880e-01 ]
      - [ -9.66324687e-01 ]
      - [ 2.30353922e-01 ]
      - [ -2.59400636e-01 ]
      - [ -2.23070025e+00 ]
      - [ -1.18439281e+00 ]
      - [ -3.47766161e-01 ]
      - [ -1.31195784e-01 ]
      - [ 3.24111223e-01 ]
      - [ -4.19956267e-01 ]
      - [ 4.06485856e-01 ]
      - [ -6.33830726e-01 ]
      - [ -2.51912057e-01 ]
      - [ 1.10622084e+00 ]
      - [ -1.72233328e-01 ]
      - [ -1.32008624e+00 ]
      - [ -1.50460541e+00 ]
      - [ -5.01731813e-01 ]
      - [ 9.03729022e-01 ]
      - [ 1.49562812e+00 ]
      - [ -1.84215084e-01 ]
      - [ 4.31048453e-01 ]
      - [ 7.39279330e-01 ]
      - [ -1.31649172e+00 ]
      - [ -4.97837752e-01 ]
      - [ 4.10979003e-01 ]
      - [ -2.01952171e+00 ]
      - [ -1.39467275e+00 ]
      - [ -2.12855577e+00 ]
      - [ -1.29372633e+00 ]
      - [ 1.46118057e+00 ]
      - [ -1.18529141e+00 ]
      - [ 6.96144938e-01 ]
      - [ 3.95402700e-01 ]
      - [ 7.75823712e-01 ]
      - [ -1.53186393e+00 ]
      - [ -1.12747943e+00 ]
      - [ 1.12569118e+00 ]
      - [ -1.62502205e+00 ]
      - [ -3.51061136e-01 ]
      - [ 5.37985682e-01 ]
      - [ 1.37794808e-01 ]
      - [ 1.27756000e+00 ]
      - [ -3.51754165e+00 ]
      - [ -1.27934825e+00 ]
      - [ 6.67688251e-01 ]
      - [ -1.24220479e+00 ]
      - [ -1.07116508e+00 ]
      - [ 1.25120020e+00 ]
      - [ -1.93115616e+00 ]
      - [ -7.94685900e-01 ]
      - [ -6.04475439e-01 ]
      - [ -2.51013428e-01 ]
      - [ 3.04041773e-01 ]
      - [ -1.54324663e+00 ]
      - [ 2.19985628e+00 ]
      - [ -1.18619001e+00 ]
      - [ 1.71609259e+00 ]
      - [ -1.22872531e+00 ]
      - [ 4.72984642e-01 ]
      - [ 8.52207422e-01 ]
      - [ -5.94290912e-01 ]
      - [ -5.16409457e-01 ]
      - [ -1.00796127e+00 ]
      - [ -2.26005554e+00 ]
      - [ -1.26526964e+00 ]
      - [ -1.75053108e+00 ]
      - [ 1.30272174e+00 ]
      - [ -1.10321629e+00 ]
      - [ -9.48352039e-01 ]
      - [ -1.18614934e-01 ]
      - [ -1.02739096e-01 ]
      - [ -1.96800005e+00 ]
      - [ 2.23699975e+00 ]
      - [ -5.58645189e-01 ]
      - [ 7.20408022e-01 ]
      - [ -1.55702555e+00 ]
      - [ -1.65467703e+00 ]
      - [ -4.47214782e-01 ]
      - [ -2.90796947e+00 ]
      - [ 2.29155749e-01 ]
      - [ -1.67115188e+00 ]
      - [ -6.49407029e-01 ]
      - [ -1.23202026e+00 ]
      - [ 2.13879004e-01 ]
      - [ 1.42853022e+00 ]
      - [ 7.56053805e-01 ]
      - [ 1.28924227e+00 ]
      - [ -1.83949566e+00 ]
      - [ 3.21415335e-01 ]
      - [ -1.05798519e+00 ]
      - [ 7.84850717e-02 ]
      - [ -4.31938052e-01 ]
      - [ 1.24970245e+00 ]
      - [ -8.32687318e-02 ]
      - [ -1.56511331e+00 ]
      - [ -5.59244275e-01 ]
      - [ -1.82811296e+00 ]
      - [ -1.26736653e+00 ]
      - [ 2.63644028e-02 ]
      - [ 1.36596620e-01 ]
      - [ -1.04210937e+00 ]
      - [ -8.09064031e-01 ]
      - [ 7.26998031e-01 ]
      - [ 1.33686972e+00 ]
      - [ -1.56181836e+00 ]
      - [ -8.08464944e-01 ]
      - [ 6.80868208e-01 ]
      - [ 1.24191427e+00 ]
      - [ -2.10099769e+00 ]
      - [ -9.88191426e-01 ]
      - [ 1.83025956e-01 ]
      - [ 2.01443839e+00 ]
      - [ 8.51308823e-01 ]
      - [ -2.17977786e+00 ]
      - [ -2.10848618e+00 ]
      - [ 2.15077177e-01 ]
      - [ -2.30045334e-01 ]
      - [ -9.71117377e-01 ]
      - [ -7.00029969e-01 ]
      - [ -1.06517422e+00 ]
      - [ 4.96648610e-01 ]
      - [ 2.72315979e+00 ]
      - [ -3.16014469e-01 ]
      - [ -5.40372968e-01 ]
      - [ -4.98436838e-01 ]
      - [ -1.09902275e+00 ]
      - [ 1.60859689e-01 ]
      - [ 5.11625826e-01 ]
      - [ -1.23980844e+00 ]
      - [ -6.81158721e-01 ]
      - [ -1.42912030e+00 ]
      - [ -9.38766599e-01 ]
      - [ -1.78078508e+00 ]
      - [ -3.08226347e-01 ]
      - [ -3.64540607e-01 ]
      - [ -1.14425385e+00 ]
      - [ -1.18559098e+00 ]
      - [ -3.29194427e-01 ]
      - [ -1.17810237e+00 ]
      - [ 3.54964256e-01 ]
      - [ -2.90287709e+00 ]
      - [ -5.00193387e-02 ]
      - [ -1.97249329e+00 ]
      - [ -1.10786064e-02 ]
      - [ -7.51551569e-01 ]
      - [ -1.63400841e+00 ]
      - [ 2.78880060e-01 ]
      - [ -8.76761019e-01 ]
      - [ -4.21154439e-01 ]
      - [ -4.37289104e-02 ]
      - [ 1.03882337e+00 ]
      - [ -3.32788944e-01 ]
      - [ 1.70860398e+00 ]
      - [ 7.71030962e-01 ]
      - [ 1.26647687e+00 ]
      - [ 2.90408444e+00 ]
      - [ -1.16462290e+00 ]
      - [ -2.43824363e-01 ]
      - [ -1.22333348e+00 ]
      - [ -1.45248473e+00 ]
      - [ -1.19307959e+00 ]
      - [ -1.47734690e+00 ]
      - [ -4.47813869e-01 ]
      - [ -7.72819221e-01 ]
      - [ -1.37430370e+00 ]
      - [ -3.04631799e-01 ]
      - [ -4.17260379e-01 ]
      - [ 6.56006038e-01 ]
      - [ -2.88156867e-01 ]
      - [ -8.68972838e-01 ]
      - [ 1.83800697e+00 ]
      - [ -1.52347672e+00 ]
      - [ 1.59118271e+00 ]
      - [ 5.33792078e-01 ]
      - [ -2.07913089e+00 ]
      - [ 1.96804985e-01 ]
      - [ -1.00047266e+00 ]
      - [ 1.61799043e-02 ]
      - [ -4.27744418e-01 ]
      - [ 7.50661969e-01 ]
      - [ -4.78818081e-03 ]
      - [ -9.30079818e-01 ]
      - [ -9.78905559e-01 ]
      - [ 3.88812751e-01 ]
      - [ 1.27276731e+00 ]
      - [ -1.82717368e-01 ]
      - [ -2.24897242e+00 ]
      - [ 3.91508639e-01 ]
      - [ 8.25547993e-01 ]
      - [ -1.65643349e-01 ]
      - [ -1.57409966e+00 ]
      - [ 1.34200275e-01 ]
      - [ 1.15029454e-01 ]
      - [ 1.19069219e+00 ]
      - [ -9.41462517e-01 ]
      - [ -1.33057034e+00 ]
      - [ -1.30900311e+00 ]
      - [ -5.51115870e-02 ]
      - [ 2.57013351e-01 ]
      - [ 8.12967181e-01 ]
      - [ 2.21667141e-01 ]
      - [ -1.60525215e+00 ]
      - [ 2.54732728e+00 ]
      - [ 6.66190565e-01 ]
      - [ -1.13167298e+00 ]
      - [ 2.00998604e-01 ]
      - [ -1.09512866e+00 ]
      - [ 1.36382878e+00 ]
      - [ -8.58189285e-01 ]
      - [ -1.09393048e+00 ]
      - [ -4.96939093e-01 ]
      - [ 1.39438224e+00 ]
      - [ -7.66528785e-01 ]
      - [ -1.20925498e+00 ]
      - [ 2.12227440e+00 ]
      - [ 2.29455292e-01 ]
      - [ 6.20659888e-01 ]
      - [ -1.49591863e+00 ]
      - [ 7.37781584e-01 ]
      - [ -3.79817367e-01 ]
      - [ -7.70422876e-01 ]
      - [ -1.27605331e+00 ]
      - [ 2.66175318e+00 ]
      - [ -1.40905082e+00 ]
      - [ 4.56509709e-01 ]
      - [ -8.28234851e-01 ]
      - [ -7.29085743e-01 ]
      - [ -1.39407361e+00 ]
      - [ -1.25029242e+00 ]
      - [ 1.42283893e+00 ]
      - [ -1.35932648e+00 ]
      - [ -2.91126442e+00 ]
      - [ -6.24245346e-01 ]
      - [ -3.50615883e+00 ]
      - [ -1.32907259e+00 ]
      - [ -1.43121707e+00 ]
      - [ 9.22899842e-01 ]
      - [ -5.61640620e-01 ]
      - [ 4.22960758e-01 ]
      - [ -2.21957639e-01 ]
      - [ -1.31109989e+00 ]
      - [ -7.07219064e-01 ]
      - [ -1.44469655e+00 ]
      - [ 2.08453178e+00 ]
      - [ 2.42036134e-01 ]
      - [ 3.34595263e-01 ]
      - [ 1.31140852e+00 ]
      - [ -1.76041603e+00 ]
      - [ -4.16661292e-01 ]
      - [ -3.11221778e-01 ]
      - [ 7.11721241e-01 ]
      - [ -2.58202463e-01 ]
      - [ -1.01455128e+00 ]
      - [ -2.21033120e+00 ]
      - [ 1.09933126e+00 ]
      - [ 5.57156503e-01 ]
      - [ -1.43451202e+00 ]
      - [ 5.65244198e-01 ]
      - [ 5.50866067e-01 ]
      - [ -1.46207011e+00 ]
      - [ 1.40276945e+00 ]
      - [ -3.63641977e-01 ]
      - [ 1.36562598e+00 ]
      - [ -1.13822229e-01 ]
      - [ 2.17080045e+00 ]
      - [ -1.87210530e-01 ]
      - [ 6.94987476e-02 ]
      - [ -9.85795021e-01 ]
      - [ -1.38149273e+00 ]
      - [ 7.20408022e-01 ]
      - [ -1.26347244e+00 ]
      - [ -1.28713644e+00 ]
      - [ -7.05421805e-01 ]
      - [ -3.38779837e-01 ]
      - [ -2.22920251e+00 ]
      - [ 2.30353922e-01 ]
      - [ -1.96620286e+00 ]
      - [ 3.05239946e-01 ]
      - [ 8.08814242e-02 ]
      - [ -2.33374333e+00 ]
      - [ 7.45910034e-02 ]
      - [ -1.72926342e+00 ]
      - [ -3.34885746e-01 ]
      - [ 4.09481287e-01 ]
      - [ -1.49322271e+00 ]
      - [ -1.70290363e+00 ]
      - [ 5.75728238e-01 ]
      - [ -1.52617252e+00 ]
      - [ 2.06689939e-01 ]
      - [ 5.48769295e-01 ]
      - [ -1.62981486e+00 ]
      - [ -3.68135154e-01 ]
      - [ -1.54324663e+00 ]
      - [ -2.50418401e+00 ]
      - [ 4.95749980e-01 ]
      - [ 5.46372950e-01 ]
      - [ 1.18110681e+00 ]
      - [ 4.37039346e-01 ]
      - [ -2.89055526e-01 ]
      - [ -1.04210937e+00 ]
      - [ 8.77369165e-01 ]
      - [ 1.09633589e+00 ]
      - [ 1.02115035e+00 ]
      - [ 1.91918349e+00 ]
      - [ -4.31938052e-01 ]
      - [ -7.30883002e-01 ]
      - [ 1.31410444e+00 ]
      - [ -4.55002934e-01 ]
      - [ -8.74065101e-01 ]
      - [ -9.86993194e-01 ]
      - [ -5.56248844e-01 ]
      - [ 1.09038569e-01 ]
      - [ -1.21524584e+00 ]
      - [ -6.25743032e-01 ]
      - [ -1.88262999e+00 ]
      - [ -1.48902905e+00 ]
      - [ 5.63446939e-01 ]
      - [ -1.04780066e+00 ]
      - [ -1.19188142e+00 ]
      - [ -5.43368459e-01 ]
      - [ -1.00496590e+00 ]
      - [ 4.25956219e-01 ]
      - [ 1.20626855e+00 ]
      - [ -8.66876066e-01 ]
      - [ -2.42027089e-01 ]
      - [ -5.68230569e-01 ]
      - [ -5.58345616e-01 ]
      - [ -5.58944702e-01 ]
      - [ 2.62431026e+00 ]
      - [ -1.93564928e+00 ]
      - [ -1.57919192e+00 ]
      - [ -4.87054139e-01 ]
      - [ -6.28997311e-02 ]
      - [ -8.24041247e-01 ]
      - [ -1.36172283e+00 ]
      - [ 7.41675675e-01 ]
      - [ -1.51988208e+00 ]
      - [ 1.83025956e-01 ]
      - [ -7.15306759e-01 ]
      - [ -1.70694888e-02 ]
      - [ -1.00706267e+00 ]
      - [ 1.40007353e+00 ]
      - [ -3.77380289e-02 ]
      - [ -1.30896240e-01 ]
      - [ -7.95884073e-01 ]
      - [ 3.39088410e-01 ]
      - [ 1.00557399e+00 ]
      - [ -1.75053108e+00 ]
      - [ -4.63390172e-01 ]
      - [ -8.59686971e-01 ]
      - [ -1.51868391e+00 ]
      - [ -9.77707326e-01 ]
      - [ -1.40740471e-02 ]
      - [ 1.28684592e+00 ]
      - [ 1.58429313e+00 ]
      - [ 1.01336217e+00 ]
      - [ 1.51839352e+00 ]
      - [ -1.15833247e+00 ]
      - [ -1.94882929e+00 ]
      - [ -8.76761019e-01 ]
      - [ -6.21849000e-01 ]
      - [ 7.68934190e-01 ]
      - [ 3.48074734e-01 ]
      - [ 2.05757284e+00 ]
      - [ -1.58548224e+00 ]
      - [ -1.06697154e+00 ]
      - [ -7.17403531e-01 ]
      - [ -6.91343188e-01 ]
      - [ 5.14022171e-01 ]
      - [ 1.12029934e+00 ]
      - [ -7.88095951e-01 ]
      - [ 1.17725350e-01 ]
      - [ -2.95046389e-01 ]
      - [ 3.86116832e-01 ]
      - [ 3.09433550e-01 ]
      - [ 5.21211207e-01 ]
      - [ 1.45882487e-01 ]
      - [ -3.62743348e-01 ]
      - [ -1.05019701e+00 ]
      - [ 7.26998031e-01 ]
      - [ -2.32441679e-01 ]
      - [ -1.90629399e+00 ]
      - [ 3.37590694e-01 ]
      - [ -1.04869926e+00 ]
      - [ -1.97339189e+00 ]
      - [ 2.34247997e-01 ]
      - [ -9.35471654e-01 ]
      - [ -8.10262203e-01 ]
      - [ 4.06485856e-01 ]
      - [ 5.02040386e-01 ]
      - [ 1.94254792e+00 ]
      - [ -6.12263560e-01 ]
      - [ 1.28534818e+00 ]
      - [ -6.48807943e-01 ]
      - [ -1.35034025e+00 ]
      - [ 3.11346579e+00 ]
      - [ 2.44248700e+00 ]
      - [ -6.16457164e-01 ]
      - [ -5.16409457e-01 ]
      - [ -2.57303834e-01 ]
      - [ -5.24497151e-01 ]
      - [ 8.61792862e-01 ]
      - [ 2.16600776e+00 ]
      - [ -2.56704748e-01 ]
      - [ -9.92385030e-01 ]
      - [ 1.46481574e-01 ]
      - [ 1.11370945e+00 ]
      - [ 9.78615046e-01 ]
      - [ -2.40529373e-01 ]
      - [ -1.88472688e+00 ]
      - [ 8.27045739e-01 ]
      - [ 9.18706238e-01 ]
      - [ -1.55717675e-02 ]
      - [ -2.96098876e+00 ]
      - [ 7.94994533e-01 ]
      - [ -8.82152796e-01 ]
      - [ 1.11400890e+00 ]
      - [ -3.15115839e-01 ]
      - [ 7.32988894e-01 ]
      - [ -1.27006233e+00 ]
      - [ -4.28302810e-02 ]
      - [ -4.27444875e-01 ]
      - [ -2.66548991e-02 ]
      - [ 7.18951002e-02 ]
      - [ -3.28295797e-01 ]
      - [ 8.82461369e-01 ]
      - [ -7.73418307e-01 ]
      - [ 1.86077237e+00 ]
      - [ -1.49531949e+00 ]
      - [ -1.15863192e+00 ]
      - [ -1.51329219e+00 ]
      - [ -7.89294124e-01 ]
      - [ 2.16574892e-01 ]
      - [ -1.83200705e+00 ]
      - [ -3.26498538e-01 ]
      - [ -5.38875282e-01 ]
      - [ -1.95002747e+00 ]
      - [ -2.19745088e+00 ]
      - [ -1.83829749e+00 ]
      - [ 5.58953762e-01 ]
      - [ -6.38024390e-01 ]
      - [ 1.15328997e-01 ]
      - [ -8.69871497e-01 ]
      - [ -7.63832867e-01 ]
      - [ 1.45283401e-01 ]
      - [ 1.55433881e+00 ]
      - [ -1.40665448e+00 ]
      - [ 8.74673247e-01 ]
      - [ 1.74039632e-01 ]
      - [ 1.23652244e+00 ]
      - [ 7.40177929e-01 ]
      - [ 1.07986093e+00 ]
      - [ 7.98589051e-01 ]
      - [ -1.63251066e+00 ]
      - [ 1.78532794e-01 ]
      - [ 5.40981114e-01 ]
      - [ -1.12029028e+00 ]
      - [ 1.89671767e+00 ]
      - [ 4.34942544e-01 ]
      - [ 5.94599545e-01 ]
      - [ -1.22812617e+00 ]
      - [ 6.61098301e-01 ]
      - [ 9.96587694e-01 ]
      - [ -1.42877996e-01 ]
      - [ -2.75276482e-01 ]
      - [ 8.98037672e-01 ]
      - [ -2.96843648e-01 ]
      - [ -7.06878752e-02 ]
      - [ 3.06138575e-01 ]
      - [ -2.26305103e+00 ]
      - [ 4.16071266e-01 ]
      - [ 1.42793119e+00 ]
      - [ -9.20194864e-01 ]
      - [ 1.50076106e-01 ]
      - [ 9.94191349e-01 ]
      - [ -1.33116937e+00 ]
      - [ -5.31686246e-01 ]
      - [ -3.11521322e-01 ]
      - [ -1.54833877e+00 ]
      - [ 1.63855135e-01 ]
      - [ -3.65439266e-01 ]
      - [ -8.16852212e-01 ]
      - [ 1.05559790e+00 ]
      - [ -1.75292742e+00 ]
      - [ 1.01250425e-01 ]
      - [ -2.64492899e-01 ]
      - [ 7.93496788e-01 ]
      - [ -3.57651114e-01 ]
      - [ 1.50311673e+00 ]
      - [ 5.40082514e-01 ]
      - [ -1.26976287e+00 ]
      - [ 9.12715316e-01 ]
      - [ -9.52246130e-01 ]
      - [ -1.00436676e+00 ]
      - [ -1.40935040e+00 ]
      - [ 4.70588267e-01 ]
      - [ -2.98940480e-01 ]
      - [ -1.51898348e+00 ]
      - [ 1.40127170e+00 ]
      - [ -1.09153414e+00 ]
      - [ 1.70785375e-02 ]
      - [ -2.83364177e-01 ]
      - [ 1.98302701e-01 ]
      - [ 3.70840102e-01 ]
      - [ 5.53561985e-01 ]
      - [ -2.27143812e+00 ]
      - [ -1.48004282e+00 ]
      - [ -1.57260191e+00 ]
      - [ -1.35004067e+00 ]
      - [ 1.80178881e-03 ]
      - [ -7.81506002e-01 ]
      - [ 3.39387953e-01 ]
      - [ 7.49463797e-01 ]
      - [ 8.20755303e-01 ]
      - [ -4.62791085e-01 ]
      - [ -2.01289102e-01 ]
      - [ -1.77625120e-01 ]
      - [ -1.78677595e+00 ]
      - [ -7.41666615e-01 ]
      - [ 6.88656390e-01 ]
      - [ -5.94889998e-01 ]
      - [ 6.64992392e-01 ]
      - [ 8.44119728e-01 ]
      - [ -7.53049314e-01 ]
      - [ 7.39279330e-01 ]
      - [ -8.73466015e-01 ]
      - [ 2.42036134e-01 ]
      - [ -4.70279694e-01 ]
      - [ -9.79504645e-01 ]
      - [ 2.42840838e+00 ]
      - [ -1.65437746e+00 ]
      - [ -6.65881991e-01 ]
      - [ 3.34894806e-01 ]
      - [ -5.77516437e-01 ]
      - [ 2.49225199e-01 ]
      - [ -1.55758396e-01 ]
      - [ 1.05320156e+00 ]
      - [ -1.30001676e+00 ]
      - [ 1.52468395e+00 ]
      - [ 4.82869595e-01 ]
      - [ -1.60645044e+00 ]
      - [ 1.98302701e-01 ]
      - [ 9.17208493e-01 ]
      - [ -1.12508309e+00 ]
      - [ -1.05498970e+00 ]
      - [ 6.95545852e-01 ]
      - [ -9.29181218e-01 ]
      - [ -1.65078294e+00 ]
      - [ -1.50760078e+00 ]
      - [ -5.08022249e-01 ]
      - [ -3.42374355e-01 ]
      - [ 3.27406198e-01 ]
      - [ -9.96878147e-01 ]
      - [ 8.30939829e-01 ]
      - [ 1.16493142e+00 ]
      - [ -2.52635026e+00 ]
      - [ -4.42422092e-01 ]
      - [ 1.72541916e-01 ]
      - [ -1.64445177e-01 ]
      - [ -2.33939409e-01 ]
      - [ 8.35773200e-02 ]
      - [ -1.24609888e+00 ]
      - [ -5.48460662e-01 ]
      - [ 1.76551735e+00 ]
      - [ -7.10514009e-01 ]
      - [ -5.39474368e-01 ]
      - [ 1.21944845e+00 ]
      - [ -1.32517850e+00 ]
      - [ -1.79122835e-01 ]
      - [ -2.24837327e+00 ]
      - [ -1.06397605e+00 ]
      - [ 1.30511808e+00 ]
      - [ 3.41185242e-01 ]
      - [ 8.55801940e-01 ]
      - [ -1.91104606e-01 ]
      - [ 9.17508066e-01 ]
      - [ -1.60016000e+00 ]
      - [ -6.16457164e-01 ]
      - [ -9.15102661e-01 ]
      - [ -3.60890245e+00 ]
      - [ 4.51417446e-01 ]
      - [ 1.51599717e+00 ]
      - [ -2.17464477e-01 ]
      - [ -1.09003639e+00 ]
      - [ -1.72207439e+00 ]
      - [ 1.74039632e-01 ]
      - [ -3.09424520e-01 ]
      - [ -1.07146466e+00 ]
      - [ -1.20985401e+00 ]
      - [ -1.87843645e+00 ]
      - [ -3.94195497e-01 ]
      - [ -1.64599025e+00 ]
      - [ 9.85504568e-01 ]
      - [ -7.63233781e-01 ]
      - [ -1.03372204e+00 ]
      - [ 1.43392205e+00 ]
      - [ -4.54104304e-01 ]
      - [ -1.01994312e+00 ]
      - [ 4.99344498e-01 ]
      - [ 3.77729625e-01 ]
      - [ 6.18862569e-01 ]
      - [ -9.23489869e-01 ]
      - [ -9.01623130e-01 ]
      - [ -1.84608567e+00 ]
      - [ 3.13926727e-01 ]
      - [ 1.51599717e+00 ]
      - [ -8.43511581e-01 ]
      - [ 6.66490078e-01 ]
      - [ 2.02881670e+00 ]
      - [ 6.26092404e-02 ]
      - [ -2.88156867e-01 ]
      - [ -2.09975883e-01 ]
      - [ -1.32967162e+00 ]
      - [ -8.84249628e-01 ]
      - [ -7.09874257e-02 ]
      - [ 2.52336383e+00 ]
      - [ -1.59057450e+00 ]
      - [ -9.02222276e-01 ]
      - [ -9.65725601e-01 ]
      - [ 2.77681887e-01 ]
      - [ 1.15628541e-01 ]
      - [ 8.16861212e-01 ]
      - [ -1.50666147e-01 ]
      - [ -3.37581664e-01 ]
      - [ -2.03959107e+00 ]
      - [ -9.05517220e-01 ]
      - [ -9.39665258e-01 ]
      - [ -1.53995156e+00 ]
      - [ 1.29407570e-01 ]
      - [ -4.22311909e-02 ]
      - [ -2.24612821e-02 ]
      - [ 1.06308651e+00 ]
      - [ -1.71933785e-01 ]
      - [ -2.99240023e-01 ]
      - [ 2.60308325e-01 ]
      - [ 5.37686169e-01 ]
      - [ -1.42822170e+00 ]
      - [ -1.98892742e-01 ]
      - [ -6.55697465e-01 ]
      - [ 6.94347680e-01 ]
      - [ -3.22304904e-01 ]
      - [ -2.62490034e+00 ]
      - [ 1.88833046e+00 ]
      - [ -8.66576493e-01 ]
      - [ -3.91200036e-01 ]
      - [ 7.21905768e-01 ]
      - [ -9.61531997e-01 ]
      - [ 1.31680036e+00 ]
      - [ 3.97199988e-01 ]
      - [ 1.55044472e+00 ]
      - [ 1.70201397e+00 ]
      - [ 3.19134712e+00 ]
      - [ -2.36429691e+00 ]
      - [ 6.40130222e-01 ]
      - [ -2.03479838e+00 ]
      - [ -1.82212210e+00 ]
      - [ -1.24605812e-01 ]
      - [ -9.38467085e-01 ]
      - [ -6.74868286e-01 ]
      - [ 4.29251194e-01 ]
      - [ -4.15463120e-01 ]
      - [ -1.04300797e+00 ]
      - [ -2.71082878e-01 ]
      - [ 3.13028097e-01 ]
      - [ -2.34538496e-01 ]
      - [ -3.50421332e-02 ]
      - [ 8.37230206e-01 ]
      - [ 6.24553919e-01 ]
      - [ 6.16765797e-01 ]
      - [ 7.38680243e-01 ]
      - [ -1.89007789e-01 ]
      - [ 2.27658018e-01 ]
      - [ 1.31919670e+00 ]
      - [ -1.35782874e+00 ]
      - [ -1.67624414e+00 ]
      - [ 4.30149823e-01 ]
      - [ -2.67488331e-01 ]
      - [ 3.02539968e+00 ]
      - [ -8.60585630e-01 ]
      - [ 5.29897988e-01 ]
      - [ -8.48603845e-01 ]
      - [ 1.98268676e+00 ]
      - [ -2.87258238e-01 ]
      - [ -1.45128655e+00 ]
      - [ -9.01582465e-02 ]
      - [ 1.59747314e+00 ]
      - [ 3.17221701e-01 ]
      - [ -4.43280004e-02 ]
      - [ -5.47562063e-01 ]
      - [ -8.06667686e-01 ]
      - [ 3.49572480e-01 ]
      - [ -6.08069956e-01 ]
      - [ 6.74877346e-01 ]
      - [ 6.63494647e-01 ]
      - [ -5.74521005e-01 ]
      - [ 1.01515937e+00 ]
      - [ -2.18187451e+00 ]
      - [ -9.16001260e-01 ]
      - [ 4.00794506e-01 ]
      - [ -5.27492583e-01 ]
      - [ -1.33236754e+00 ]
      - [ 7.49463797e-01 ]
      - [ -1.59177268e+00 ]
      - [ 3.63051951e-01 ]
      - [ 1.71343744e-01 ]
      - [ -2.05426884e+00 ]
      - [ -2.12675834e+00 ]
      - [ -2.19984722e+00 ]
      - [ 1.12239623e+00 ]
      - [ 1.66487050e+00 ]
      - [ -6.84154153e-01 ]
      - [ -2.66548991e-02 ]
      - [ -4.44518894e-01 ]
      - [ -1.44709289e+00 ]
      - [ -2.71681964e-01 ]
      - [ 1.55168355e-01 ]
      - [ 2.25916600e+00 ]
      - [ -5.38875282e-01 ]
      - [ -1.07206368e+00 ]
      - [ -2.81566918e-01 ]
      - [ -2.83064634e-01 ]
      - [ -9.73813295e-01 ]
      - [ -9.33374822e-01 ]
      - [ -1.06367648e+00 ]
      - [ -9.64826941e-01 ]
      - [ -6.69176936e-01 ]
      - [ 9.81910050e-01 ]
      - [ 1.81228697e-01 ]
      - [ -5.41271627e-01 ]
      - [ -6.01779521e-01 ]
      - [ -5.93092740e-01 ]
      - [ -4.93045032e-01 ]
      - [ -1.80321008e-01 ]
      - [ -1.35782874e+00 ]
      - [ -4.28302810e-02 ]
      - [ -8.65078807e-01 ]
      - [ 2.15612292e+00 ]
      - [ -9.02521789e-01 ]
      - [ -7.38072097e-01 ]
      - [ -1.15054429e+00 ]
      - [ 1.16822648e+00 ]
      - [ -3.39079380e-01 ]
      - [ -1.31080031e+00 ]
      - [ -7.53947914e-01 ]
      - [ -7.60837436e-01 ]
      - [ 1.30242217e+00 ]
      - [ 7.73726881e-01 ]
      - [ -1.23052251e+00 ]
      - [ 1.21319875e-01 ]
      - [ -3.93596411e-01 ]
      - [ 3.20557393e-02 ]
      - [ -1.56331599e+00 ]
      - [ -1.36951101e+00 ]
      - [ -1.14245665e+00 ]
      - [ 4.90657717e-01 ]
      - [ -1.35988489e-01 ]
      - [ -1.74004710e+00 ]
      - [ 9.78615046e-01 ]
      - [ -2.11473599e-01 ]
      - [ -8.68225377e-03 ]
      - [ 5.31395733e-01 ]
      - [ 1.32309067e+00 ]
      - [ 9.74720955e-01 ]
      - [ 1.19822159e-01 ]
      - [ 1.05889285e+00 ]
      - [ -1.42013395e+00 ]
      - [ -1.34884250e+00 ]
      - [ 4.93952721e-01 ]
      - [ 4.69390094e-01 ]
      - [ 1.00078130e+00 ]
      - [ 8.84258628e-01 ]
      - [ -9.50748384e-01 ]
      - [ -8.82452309e-01 ]
      - [ 2.66598761e-01 ]
      - [ -2.20404077e+00 ]
      - [ -3.55254769e-01 ]
      - [ -3.08226347e-01 ]
      - [ -1.48633325e+00 ]
      - [ 2.21367598e-01 ]
      - [ 1.40516579e+00 ]
      - [ -1.18614934e-01 ]
      - [ -7.15905845e-01 ]
      - [ 5.17916262e-01 ]
      - [ 5.20911694e-01 ]
      - [ 1.69546470e-01 ]
      - [ 1.20836532e+00 ]
      - [ 1.09513772e+00 ]
      - [ -7.72519648e-01 ]
      - [ 7.89003611e-01 ]
      - [ 3.29768538e+00 ]
      - [ -2.14383245e+00 ]
      - [ -1.25478566e+00 ]
      - [ 7.77321398e-01 ]
      - [ -2.60898381e-01 ]
      - [ -3.02534997e-01 ]
      - [ -1.00915945e+00 ]
      - [ 5.66142857e-01 ]
      - [ -4.58896995e-01 ]
      - [ -1.08314693e+00 ]
      - [ 5.88009536e-01 ]
      - [ -6.08069956e-01 ]
      - [ 3.06643724e+00 ]
      - [ -7.38072097e-01 ]
      - [ 1.86320946e-01 ]
      - [ -1.20835626e+00 ]
      - [ 1.57265171e-01 ]
      - [ 4.66095120e-01 ]
      - [ -4.58896995e-01 ]
      - [ -3.46567988e-01 ]
      - [ 5.05934477e-01 ]
      - [ -9.66025114e-01 ]
      - [ 9.59144652e-01 ]
      - [ -8.54295194e-01 ]
      - [ 8.35732520e-01 ]
      - [ -9.36969340e-01 ]
      - [ -8.05469513e-01 ]
      - [ 8.90249550e-01 ]
      - [ 8.38768706e-02 ]
      - [ -5.39773881e-01 ]
      - [ -4.47214782e-01 ]
      - [ -2.87557781e-01 ]
      - [ -1.79422379e-01 ]
      - [ 2.71391451e-01 ]
      - [ 8.24649394e-01 ]
      - [ -5.00234067e-01 ]
      - [ 2.40504384e+00 ]
      - [ -7.88395524e-01 ]
      - [ -4.68182862e-01 ]
      - [ 1.01246357e+00 ]
      - [ -2.96244562e-01 ]
      - [ -2.16266304e-01 ]
      - [ -1.04001248e+00 ]
      - [ -1.02713215e+00 ]
      - [ -8.82452309e-01 ]
      - [ -1.54624200e+00 ]
      - [ -1.61363947e+00 ]
      - [ 2.07524586e+00 ]
      - [ -9.23789442e-01 ]
      - [ -7.97082245e-01 ]
      - [ -3.43936062e+00 ]
      - [ -3.05230886e-01 ]
      - [ -1.74034655e+00 ]
      - [ 1.59687400e+00 ]
      - [ 5.05335391e-01 ]
      - [ 1.96052051e+00 ]
      - [ -1.34165347e+00 ]
      - [ -4.92146403e-01 ]
      - [ -4.31638509e-01 ]
      - [ -2.22856268e-01 ]
      - [ -1.24759662e+00 ]
      - [ -3.23462375e-02 ]
      - [ -3.57052028e-01 ]
      - [ -2.71082878e-01 ]
      - [ -2.18157506e+00 ]
      - [ 4.44527954e-01 ]
      - [ 9.66932833e-01 ]
      - [ -1.29372633e+00 ]
      - [ -3.65398526e-02 ]
      - [ 9.56748307e-01 ]
      - [ -3.53416763e-02 ]
      - [ 1.06877780e+00 ]
      - [ -2.06381351e-01 ]
      - [ -1.36951101e+00 ]
      - [ 8.09073091e-01 ]
      - [ -1.48483551e+00 ]
      - [ 6.90154076e-01 ]
      - [ -1.58098912e+00 ]
      - [ -8.45308900e-01 ]
      - [ -6.75467372e-01 ]
      - [ 1.12778795e+00 ]
      - [ -6.34988174e-02 ]
      - [ -3.54655653e-01 ]
      - [ 5.77825069e-01 ]
      - [ -1.63760293e+00 ]
      - [ -1.23711252e+00 ]
      - [ -1.38089371e+00 ]
      - [ -1.16282558e+00 ]
      - [ -3.24701250e-01 ]
      - [ 1.13048387e+00 ]
      - [ -3.26198965e-01 ]
      - [ 8.56101513e-01 ]
      - [ 6.40429795e-01 ]
      - [ -1.14720859e-01 ]
      - [ -2.03086361e-01 ]
      - [ -4.84657794e-01 ]
      - [ -8.50101590e-01 ]
      - [ -1.80984080e+00 ]
      - [ 1.90121078e+00 ]
      - [ 1.28055549e+00 ]
      - [ -3.06429058e-01 ]
      - [ 5.47870636e-01 ]
      - [ 7.79267028e-03 ]
      - [ 1.24281287e+00 ]
      - [ -8.36023033e-01 ]
      - [ -2.41727546e-01 ]
      - [ -1.46027291e+00 ]
      - [ -1.35273659e+00 ]
      - [ -1.96021199e+00 ]
      - [ 6.01489067e-01 ]
      - [ 3.74135077e-01 ]
      - [ 8.51608336e-01 ]
      - [ -2.05037475e+00 ]
      - [ 6.91052735e-01 ]
      - [ -5.60102202e-02 ]
      - [ 1.62982392e+00 ]
      - [ 6.05682671e-01 ]
      - [ -3.31590772e-01 ]
      - [ -8.49802017e-01 ]
      - [ -4.55261767e-02 ]
      - [ -1.33386528e+00 ]
      - [ 1.92337704e+00 ]
      - [ -1.25927877e+00 ]
      - [ -2.15162063e+00 ]
      - [ 8.70180070e-01 ]
      - [ 5.04736304e-01 ]
      - [ 1.04541337e+00 ]
      - [ -4.40924376e-01 ]
      - [ -7.06878752e-02 ]
      - [ 7.67736018e-01 ]
      - [ -1.32308173e+00 ]
      - [ -2.02880764e+00 ]
      - [ 8.72576416e-01 ]
      - [ 4.48422015e-01 ]
      - [ -1.19098270e+00 ]
      - [ -6.36826217e-01 ]
      - [ 2.78127122e+00 ]
      - [ -5.26294410e-01 ]
      - [ 3.23552862e-02 ]
      - [ 3.19917589e-01 ]
      - [ -2.13694286e+00 ]
      - [ 1.89462078e+00 ]
      - [ 8.04879487e-01 ]
      - [ -7.82105088e-01 ]
      - [ -4.49270867e-02 ]
      - [ -4.40284573e-02 ]
      - [ -9.62430596e-01 ]
      - [ 5.12524426e-01 ]
      - [ 4.23859388e-01 ]
      - [ -2.16629815e+00 ]
      - [ -6.44015253e-01 ]
      - [ -7.47058392e-01 ]
      - [ -5.63437879e-01 ]
      - [ 7.96192706e-01 ]
      - [ 4.37039346e-01 ]
      - [ -1.82062435e+00 ]
      - [ 8.16861212e-01 ]
      - [ -2.04883620e-01 ]
      - [ 8.81562769e-01 ]
      - [ 1.69546470e-01 ]
      - [ -9.09411311e-01 ]
      - [ -2.59999752e-01 ]
      - [ -1.45274356e-01 ]
      - [ -2.23155811e-01 ]
      - [ 7.26698458e-01 ]
      - [ 7.92298615e-01 ]
      - [ -1.44709289e+00 ]
      - [ 3.71479914e-02 ]
      - [ 2.19416499e+00 ]
      - [ 6.86259985e-01 ]
      - [ -7.05721319e-01 ]
      - [ -2.14652824e+00 ]
      - [ -9.57937419e-01 ]
      - [ 9.13654715e-02 ]
      - [ -7.92589128e-01 ]
      - [ 4.04988110e-01 ]
      - [ -1.63546547e-01 ]
      - [ -1.29941773e+00 ]
      - [ 7.55155146e-01 ]
      - [ -1.79007089e+00 ]
      - [ -1.84099340e+00 ]
      - [ 3.58558774e-01 ]
      - [ -2.06381351e-01 ]
      - [ -1.64145634e-01 ]
      - [ -1.51265234e-01 ]
      - [ -4.27444875e-01 ]
      - [ 6.68028519e-02 ]
      - [ 1.39767718e+00 ]
      - [ -1.10081995e+00 ]
      - [ -5.91295481e-01 ]
      - [ 9.25636441e-02 ]
      - [ 1.53071553e-01 ]
      - [ -1.18614934e-01 ]
      - [ 8.13865781e-01 ]
      - [ -1.33536303e+00 ]
      - [ -8.95033181e-01 ]
      - [ 4.68791008e-01 ]
      - [ -5.88599622e-01 ]
      - [ -8.72567356e-01 ]
      - [ -1.06247830e+00 ]
      - [ 2.58211523e-01 ]
      - [ -4.63390172e-01 ]
      - [ -2.21658096e-01 ]
      - [ 3.67844641e-01 ]
      - [ -6.86550498e-01 ]
      - [ -1.24430156e+00 ]
      - [ -1.26826513e+00 ]
      - [ 4.11877632e-01 ]
      - [ 1.43631840e+00 ]
      - [ -1.80744445e+00 ]
      - [ -2.00005126e+00 ]
      - [ -4.12168145e-01 ]
      - [ -2.59943891e+00 ]
      - [ -4.31638509e-01 ]
      - [ -3.22604448e-01 ]
      - [ 4.85565484e-01 ]
      - [ -7.76713252e-01 ]
      - [ 1.01935303e+00 ]
      - [ -3.65738809e-01 ]
      - [ -1.40481651e-01 ]
      - [ -1.11190307e+00 ]
      - [ -3.17811757e-01 ]
      - [ -1.88742268e+00 ]
      - [ 4.85565484e-01 ]
      - [ 3.82821858e-01 ]
      - [ -2.11477661e+00 ]
      - [ -7.75814652e-01 ]
      - [ -6.46112084e-01 ]
      - [ -1.41833675e+00 ]
      - [ -8.59087884e-01 ]
      - [ -4.10370857e-01 ]
      - [ -5.22400379e-01 ]
      - [ -2.08631992e+00 ]
      - [ -7.46758878e-01 ]
      - [ -2.15072203e+00 ]
      - [ -3.62443805e-01 ]
      - [ 4.28652108e-01 ]
      - [ -9.44457948e-01 ]
      - [ 7.13218987e-01 ]
      - [ -9.12706316e-01 ]
      - [ 7.18011677e-01 ]
      - [ -1.21704304e+00 ]
      - [ 9.18706238e-01 ]
      - [ -1.65228057e+00 ]
      - [ -3.75024676e-01 ]
      - [ -3.38480294e-01 ]
      - [ -1.32338119e+00 ]
      - [ -1.65343806e-01 ]
      - [ -2.89329171e+00 ]
      - [ -1.96170962e+00 ]
      - [ 9.19904411e-01 ]
      - [ 1.58878636e+00 ]
      - [ -3.31890315e-01 ]
      - [ -2.07703424e+00 ]
      - [ -3.53757024e-01 ]
      - [ 1.35697991e-01 ]
      - [ 3.60356063e-01 ]
      - [ 1.00797033e+00 ]
      - [ -9.49250638e-01 ]
      - [ -9.49849784e-01 ]
      - [ -2.08212638e+00 ]
      - [ 9.81910050e-01 ]
      - [ -6.92840934e-01 ]
      - [ 2.64202416e-01 ]
      - [ 3.45977932e-01 ]
      - [ -3.33272290e+00 ]
      - [ -3.12120408e-01 ]
      - [ -5.17607629e-01 ]
      - [ -1.07475960e+00 ]
      - [ -1.06667197e+00 ]
      - [ -9.22291696e-01 ]
      - [ 3.07003188e+00 ]
      - [ -1.40725362e+00 ]
      - [ -2.99498830e-02 ]
      - [ 1.63940930e+00 ]
      - [ -1.69900954e+00 ]
      - [ 3.87015462e-01 ]
      - [ -3.06163549e+00 ]
      - [ 8.99084657e-03 ]
      - [ -1.60850644e-01 ]
      - [ -5.03188819e-02 ]
      - [ 4.38237518e-01 ]
      - [ 1.91708660e+00 ]
      - [ 4.87961829e-01 ]
      - [ -1.66815650e+00 ]
      - [ 1.49817280e-02 ]
      - [ -1.67414737e+00 ]
      - [ -1.83679974e+00 ]
      - [ -2.94810843e+00 ]
      - [ -1.58218729e+00 ]
      - [ -1.20176637e+00 ]
      - [ 2.03390884e+00 ]
      - [ -1.54923749e+00 ]
      - [ 7.18951002e-02 ]
      - [ -1.58668041e+00 ]
      - [ 6.71023950e-02 ]
      - [ -3.44171613e-01 ]
      - [ -3.16014469e-01 ]
      - [ -6.42217994e-01 ]
      - [ -3.45669359e-01 ]
      - [ -7.37173438e-01 ]
      - [ 1.01096582e+00 ]
      - [ 2.24962130e-01 ]
      - [ 1.76342058e+00 ]
      - [ -9.57637906e-01 ]
      - [ -3.92697752e-01 ]
      - [ -1.15919031e-01 ]
      - [ -1.86615515e+00 ]
      - [ -1.12598169e+00 ]
      - [ -1.75292742e+00 ]
      - [ -1.10201812e+00 ]
      - [ -1.77479410e+00 ]
      - [ -1.42732298e+00 ]
      - [ -2.23754898e-01 ]
      - [ -7.04523146e-01 ]
      - [ -1.26497018e+00 ]
      - [ -4.60993826e-01 ]
      - [ -3.22604448e-01 ]
      - [ 1.42403710e+00 ]
      - [ -1.12658072e+00 ]
      - [ -2.75576025e-01 ]
      - [ 3.41784328e-01 ]
      - [ -1.24819565e+00 ]
      - [ 1.40037310e+00 ]
      - [ 6.10475361e-01 ]
      - [ 1.05499876e+00 ]
      - [ -2.87142491e+00 ]
      - [ 1.98658085e+00 ]
      - [ -4.53505218e-01 ]
      - [ 4.35242087e-01 ]
      - [ -1.38808274e+00 ]
      - [ 3.06104541e+00 ]
      - [ 1.01250425e-01 ]
      - [ 8.41764137e-02 ]
      - [ 1.34799361e-01 ]
      - [ 7.15955570e-02 ]
      - [ -7.77911425e-01 ]
      - [ 3.46577018e-01 ]
      - [ 9.29489791e-01 ]
      - [ -1.49322271e+00 ]
      - [ 9.95988607e-01 ]
      - [ -2.72195244e+00 ]
      - [ -4.05877709e-01 ]
      - [ -7.41966188e-01 ]
      - [ -1.96081102e+00 ]
      - [ 2.54017919e-01 ]
      - [ 1.08375502e+00 ]
      - [ -1.12747943e+00 ]
      - [ -1.58128870e+00 ]
      - [ -1.50730133e+00 ]
      - [ 4.25956219e-01 ]
      - [ 6.86859071e-01 ]
      - [ -2.68087417e-01 ]
      - [ -1.64569068e+00 ]
      - [ -1.37190735e+00 ]
      - [ -1.25763267e-02 ]
      - [ -9.71716464e-01 ]
      - [ -2.89055526e-01 ]
      - [ -4.51408416e-01 ]
      - [ -1.53366113e+00 ]
      - [ 3.09134007e-01 ]
      - [ -8.42912495e-01 ]
      - [ 8.62391949e-01 ]
      - [ -1.30690634e+00 ]
      - [ -2.15880966e+00 ]
      - [ -8.30331683e-01 ]
      - [ -5.18206716e-01 ]
      - [ 3.78029168e-01 ]
      - [ -5.83207786e-01 ]
      - [ 7.05131292e-01 ]
      - [ -1.12927663e+00 ]
      - [ -7.82105088e-01 ]
      - [ -2.13993835e+00 ]
      - [ -8.32728028e-01 ]
      - [ -3.03134084e-01 ]
      - [ 1.72028613e+00 ]
      - [ 3.02584767e-02 ]
      - [ -1.27695191e+00 ]
      - [ 1.11011493e+00 ]
      - [ 1.56452322e+00 ]
      - [ -9.33374822e-01 ]
      - [ -1.03971303e+00 ]
      - [ -1.42253029e+00 ]
      - [ -5.36138676e-02 ]
      - [ -1.84788287e+00 ]
      - [ -3.75923306e-01 ]
      - [ 8.53106081e-01 ]
      - [ -2.40828916e-01 ]
      - [ 1.07416964e+00 ]
      - [ 5.87151647e-02 ]
      - [ -1.60585129e+00 ]
      - [ -1.30151451e+00 ]
      - [ 2.91161358e-01 ]
      - [ -1.51239359e+00 ]
      - [ -3.22069335e+00 ]
      - [ -8.79456878e-01 ]
      - [ 2.95954078e-01 ]
      - [ -1.21344852e+00 ]
      - [ -6.32932127e-01 ]
      - [ 5.83516419e-01 ]
      - [ -1.52916801e+00 ]
      - [ -1.46266925e+00 ]
      - [ -3.10622692e-01 ]
      - [ 1.74994099e+00 ]
      - [ 1.10532212e+00 ]
      - [ 1.51689577e+00 ]
      - [ 2.00605130e+00 ]
      - [ 1.19458628e+00 ]
      - [ 1.53217244e+00 ]
      - [ -4.27444875e-01 ]
      - [ -1.63281024e+00 ]
      - [ -1.52976704e+00 ]
      - [ -7.39869356e-01 ]
      - [ -4.87054139e-01 ]
      - [ -5.40372968e-01 ]
      - [ 6.26351178e-01 ]
      - [ 6.68028519e-02 ]
      - [ 2.18971252e-01 ]
      - [ -1.41979367e-01 ]
      - [ 2.43979096e+00 ]
      - [ -9.60034251e-01 ]
      - [ 1.32518756e+00 ]
      - [ -1.34644616e+00 ]
      - [ -1.33326614e+00 ]
      - [ -1.80864263e+00 ]
      - [ -1.50670218e+00 ]
      - [ -1.74783516e+00 ]
      - [ 4.48422015e-01 ]
      - [ -3.10922235e-01 ]
      - [ 1.67150125e-01 ]
      - [ 1.18923523e-01 ]
      - [ -7.43463874e-01 ]
      - [ 2.06989482e-01 ]
      - [ 1.30751443e+00 ]
      - [ 4.68191922e-01 ]
      - [ -1.05139518e+00 ]
      - [ 2.92659104e-01 ]
      - [ 2.86967754e-01 ]
      - [ 1.92787027e+00 ]
      - [ -1.99615717e+00 ]
      - [ -9.94781375e-01 ]
      - [ -3.09129047e+00 ]
      - [ -7.23693967e-01 ]
      - [ -1.52856886e+00 ]
      - [ 3.33696634e-01 ]
      - [ -4.65187430e-01 ]
      - [ -7.64731526e-01 ]
      - [ -9.18996692e-01 ]
      - [ 9.87900913e-01 ]
      - [ -1.06397605e+00 ]
      - [ -5.28690755e-01 ]
      - [ 3.94504070e-01 ]
      - [ 1.41235483e+00 ]
      - [ -2.93792391e+00 ]
      - [ -3.99287730e-01 ]
      - [ -6.64384246e-01 ]
      - [ -2.10249543e+00 ]
      - [ -1.01874495e+00 ]
      - [ -1.98417544e+00 ]
      - [ 5.12524426e-01 ]
      - [ 7.81215489e-01 ]
      - [ 5.82617760e-01 ]
      - [ -1.60850644e-01 ]
      - [ -1.94373703e+00 ]
      - [ 5.17017603e-01 ]
      - [ -3.58250201e-01 ]
      - [ 9.29789364e-01 ]
      - [ 9.88540724e-02 ]
      - [ 4.74781901e-01 ]
      - [ 3.29203457e-01 ]
      - [ 7.10822642e-01 ]
      - [ 3.87015462e-01 ]
      - [ 3.82821858e-01 ]
      - [ -5.76617837e-01 ]
      - [ 5.55658817e-01 ]
      - [ -2.33639851e-01 ]
      - [ 1.55793333e+00 ]
      - [ -1.34734476e+00 ]
      - [ -1.42877996e-01 ]
      - [ -6.08069956e-01 ]
      - [ -2.17438602e+00 ]
      - [ 1.25149965e+00 ]
      - [ -1.55283201e+00 ]
      - [ -1.13406932e+00 ]
      - [ 7.30892062e-01 ]
      - [ 3.80125970e-01 ]
      - [ 2.20768511e-01 ]
      - [ -1.42877996e-01 ]
      - [ -6.43116593e-01 ]
      - [ 1.58668947e+00 ]
      - [ -7.56943345e-01 ]
      - [ 2.20768511e-01 ]
      - [ 4.81072307e-01 ]
      - [ -3.25300336e-01 ]
      - [ -2.17164934e-01 ]
      - [ -7.48814940e-02 ]
      - [ 1.02893841e+00 ]
      - [ 3.67844641e-01 ]
      - [ -8.62083316e-01 ]
      - [ -1.12024963e-01 ]
      - [ 1.34825242e+00 ]
      - [ 1.88383722e+00 ]
      - [ -4.80164647e-01 ]
      - [ -1.70140588e+00 ]
      - [ -2.25556231e+00 ]
      - [ -2.07579523e-01 ]
      - [ 1.08824813e+00 ]
      - [ 6.94347680e-01 ]
      - [ 1.37011909e+00 ]
      - [ -1.99735546e+00 ]
      - [ -1.36831284e+00 ]
      - [ -3.67835611e-01 ]
      - [ -2.02701020e+00 ]
      - [ 5.39631769e-03 ]
      - [ 5.78424156e-01 ]
      - [ -1.27874911e+00 ]
      - [ -5.11017680e-01 ]
      - [ -3.56153399e-01 ]
      - [ 1.12269568e+00 ]
      - [ -8.85447800e-01 ]
      - [ 5.27501643e-01 ]
      - [ -1.07595778e+00 ]
      - [ 8.31538916e-01 ]
      - [ -2.02101946e+00 ]
      - [ -4.06776339e-01 ]
      - [ 5.70935547e-01 ]
      - [ 3.89112294e-01 ]
      - [ -4.77768272e-01 ]
      - [ -9.61491242e-02 ]
      - [ -4.42422092e-01 ]
      - [ -1.21165133e+00 ]
      - [ -2.97926092e+00 ]
      - [ 1.00950882e-01 ]
      - [ 2.48326570e-01 ]
      - [ 9.62739170e-01 ]
      - [ -4.16361749e-01 ]
      - [ -1.44140160e+00 ]
      - [ 5.73930979e-01 ]
      - [ 3.65448296e-01 ]
      - [ -1.18614934e-01 ]
      - [ -1.19966948e+00 ]
      - [ -4.01384532e-01 ]
      - [ -9.06415880e-01 ]
      - [ -7.06878752e-02 ]
      - [ 4.96648610e-01 ]
      - [ -4.01084989e-01 ]
      - [ 1.29283679e+00 ]
      - [ -3.68434697e-01 ]
      - [ 7.71030962e-01 ]
      - [ 3.16323072e-01 ]
      - [ -1.08254778e+00 ]
      - [ -3.72927845e-01 ]
      - [ -8.62641707e-02 ]
      - [ -1.25867975e+00 ]
      - [ 8.15363526e-01 ]
      - [ 3.38530056e-02 ]
      - [ -1.52463406e-01 ]
      - [ -8.70770097e-01 ]
      - [ 2.21213746e+00 ]
      - [ -9.88191426e-01 ]
      - [ 1.24550879e+00 ]
      - [ -8.48304331e-01 ]
      - [ -2.94447303e-01 ]
      - [ -1.28499880e-01 ]
      - [ -1.84878159e+00 ]
      - [ 2.25261673e-01 ]
      - [ 7.21007109e-01 ]
      - [ 4.37338889e-01 ]
      - [ -7.69524217e-01 ]
      - [ -5.46663404e-01 ]
      - [ 2.62251306e+00 ]
      - [ 1.57321000e+00 ]
      - [ 2.16570830e+00 ]
      - [ -1.84309018e+00 ]
      - [ -1.35123885e+00 ]
      - [ -1.55758396e-01 ]
      - [ 6.63494647e-01 ]
      - [ -1.97309232e+00 ]
      - [ 1.38693437e-01 ]
      - [ 8.64189208e-01 ]
      - [ -9.68121946e-01 ]
      - [ -1.71788073e+00 ]
      - [ 8.83060455e-01 ]
      - [ 1.26711667e-01 ]
      - [ -1.26526964e+00 ]
      - [ 5.15261069e-02 ]
      - [ 5.57456076e-01 ]
      - [ -1.03791571e+00 ]
      - [ -1.39646995e+00 ]
      - [ 2.33405209e+00 ]
      - [ 1.71878850e+00 ]
      - [ -4.83160079e-01 ]
      - [ -1.86311901e-01 ]
      - [ 1.29108027e-01 ]
      - [ -1.05648744e+00 ]
      - [ -1.16402376e+00 ]
      - [ -1.36471832e+00 ]
      - [ 5.01441300e-01 ]
      - [ -8.95931840e-01 ]
      - [ 5.49368382e-01 ]
      - [ -1.64119744e+00 ]
      - [ 1.76551735e+00 ]
      - [ -1.33775938e+00 ]
      - [ 7.48905465e-02 ]
      - [ -1.49442089e+00 ]
      - [ 3.42383415e-01 ]
      - [ -8.46507072e-01 ]
      - [ 9.98384953e-01 ]
      - [ -1.41204631e+00 ]
      - [ -1.23501575e+00 ]
      - [ -1.91198540e+00 ]
      - [ 1.40786171e+00 ]
      - [ 4.74182814e-01 ]
      - [ 4.30748910e-01 ]
      - [ 5.26603043e-01 ]
      - [ -3.43187189e+00 ]
      - [ -2.72281051e-01 ]
      - [ 1.46182030e-01 ]
      - [ 3.31599832e-01 ]
      - [ -2.79683852e+00 ]
      - [ -1.71099126e+00 ]
      - [ -1.15533698e+00 ]
      - [ -7.19500363e-01 ]
      - [ 8.11769009e-01 ]
      - [ 1.37431276e+00 ]
      - [ 7.89003611e-01 ]
      - [ -6.30535781e-01 ]
      - [ -3.20841217e+00 ]
      - [ -2.66548991e-02 ]
      - [ -1.84249115e+00 ]
      - [ -1.72596848e+00 ]
      - [ 7.96192706e-01 ]
      - [ 7.98289478e-01 ]
      - [ 5.80221415e-01 ]
      - [ 7.61445582e-01 ]
      - [ -8.94107856e-04 ]
      - [ 9.39973831e-01 ]
      - [ 1.35334468e+00 ]
      - [ -2.90553242e-01 ]
      - [ -1.20745766e+00 ]
      - [ 3.53507251e-02 ]
      - [ 3.08235377e-01 ]
      - [ 5.66142857e-01 ]
      - [ -1.98237824e+00 ]
      - [ -2.40529373e-01 ]
      - [ -2.17887902e+00 ]
      - [ -2.71082878e-01 ]
      - [ -1.26257372e+00 ]
      - [ -9.98974979e-01 ]
      - [ -1.41979367e-01 ]
      - [ 2.86694098e+00 ]
      - [ 6.10475361e-01 ]
      - [ -1.42312944e+00 ]
      - [ -1.53306210e+00 ]
      - [ -1.05528927e+00 ]
      - [ 4.08882201e-01 ]
      - [ 4.17568982e-01 ]
      - [ 2.12081730e-01 ]
      - [ -1.74424064e+00 ]
      - [ -9.72016037e-01 ]
      - [ -4.74173754e-01 ]
      - [ -7.67427385e-01 ]
      - [ -9.91785944e-01 ]
      - [ 2.11183101e-01 ]
      - [ 1.06642216e-01 ]
      - [ 1.12359440e+00 ]
      - [ -1.01964355e+00 ]
      - [ 6.95845425e-01 ]
      - [ -9.37268913e-01 ]
      - [ -1.06098056e+00 ]
      - [ -1.21374810e+00 ]
      - [ -2.84521636e-02 ]
      - [ -6.37983680e-02 ]
      - [ -1.44799161e+00 ]
      - [ -4.84358251e-01 ]
      - [ -1.18798733e+00 ]
      - [ -4.43280004e-02 ]
      - [ 4.86763656e-01 ]
      - [ -5.52354753e-01 ]
      - [ -4.23251271e-01 ]
      - [ -4.91247773e-01 ]
      - [ 5.54161072e-01 ]
      - [ -1.58398461e+00 ]
      - [ -5.42170286e-01 ]
      - [ -7.23094881e-01 ]
      - [ 3.16922158e-01 ]
      - [ 4.10420634e-02 ]
      - [ 2.58511066e-01 ]
      - [ 3.08575649e-02 ]
      - [ -1.74603796e+00 ]
      - [ 6.56046793e-02 ]
      - [ -8.93535495e-01 ]
      - [ -1.31499398e+00 ]
      - [ 1.94134974e+00 ]
      - [ -2.60598838e-01 ]
      - [ -1.55792427e+00 ]
      - [ -5.57746530e-01 ]
      - [ -1.98597276e+00 ]
      - [ -1.86311901e-01 ]
      - [ -3.53416763e-02 ]
      - [ -1.86910987e-01 ]
      - [ 2.64202416e-01 ]
      - [ 7.80316830e-01 ]
      - [ 1.00351788e-01 ]
      - [ 1.19159091e+00 ]
      - [ 1.88417748e-01 ]
      - [ -1.35688946e-01 ]
      - [ 4.36140716e-01 ]
      - [ 1.93809539e-01 ]
      - [ -1.26736653e+00 ]
      - [ -4.34933484e-01 ]
      - [ -8.13856721e-01 ]
      - [ -3.58549744e-01 ]
      - [ -2.15367675e-01 ]
      - [ -1.92127120e+00 ]
      - [ -9.00724530e-01 ]
      - [ -1.73076117e+00 ]
      - [ 5.23308039e-01 ]
      - [ -3.82213712e-01 ]
      - [ -4.65486974e-01 ]
      - [ 1.14725840e+00 ]
      - [ -8.68225377e-03 ]
      - [ 2.25860760e-01 ]
      - [ 1.30841303e+00 ]
      - [ 3.06138575e-01 ]
      - [ 2.14623785e+00 ]
      - [ -3.30093056e-01 ]
      - [ -1.93205476e+00 ]
      - [ 9.94790435e-01 ]
      - [ -8.16852212e-01 ]
      - [ 3.32498461e-01 ]
      - [ -1.05588841e+00 ]
      - [ -9.10309911e-01 ]
      - [ -1.76726490e-01 ]
      - [ -4.88551885e-01 ]
      - [ 5.17916262e-01 ]
      - [ 9.19645578e-02 ]
      - [ -1.65377831e+00 ]
      - [ 3.75932336e-01 ]
      - [ 1.94748901e-02 ]
      - [ -4.25048530e-01 ]
      - [ -6.42217994e-01 ]
      - [ -2.30644420e-01 ]
      - [ 4.86164570e-01 ]
      - [ -2.78530754e-02 ]
      - [ -5.54751098e-01 ]
      - [ 1.25090063e+00 ]
      - [ 9.70826864e-01 ]
      - [ -1.67774189e+00 ]
      - [ -4.82261449e-01 ]
      - [ -6.32033467e-01 ]
      - [ -1.93055713e+00 ]
      - [ -6.17355824e-01 ]
      - [ 2.66598761e-01 ]
      - [ 1.29108027e-01 ]
      - [ 1.10562170e+00 ]
      - [ 1.06458414e+00 ]
      - [ 5.73032379e-01 ]
      - [ 1.29463398e+00 ]
      - [ 7.16513991e-01 ]
      - [ 7.34486639e-01 ]
      - [ -4.87353683e-01 ]
      - [ -7.64731526e-01 ]
      - [ 1.23772061e+00 ]
      - [ -7.99778163e-01 ]
      - [ 1.01755571e+00 ]
      - [ -1.07232258e-01 ]
      - [ -6.61388814e-01 ]
      - [ -1.41983438e+00 ]
      - [ -3.15714926e-01 ]
      - [ -1.65018380e+00 ]
      - [ 2.18607712e+00 ]
      - [ -3.73826474e-01 ]
      - [ -8.08165431e-01 ]
      - [ 3.31300288e-01 ]
      - [ 8.68723094e-02 ]
      - [ -1.32038581e+00 ]
      - [ -5.12215853e-01 ]
      - [ 1.14665926e+00 ]
      - [ -1.79606175e+00 ]
      - [ -1.00376773e+00 ]
      - [ 6.33540273e-01 ]
      - [ -7.61137009e-01 ]
      - [ -2.88969731e+00 ]
      - [ -7.82105088e-01 ]
      - [ -1.55762470e+00 ]
      - [ -1.30151451e+00 ]
      - [ 6.05124272e-02 ]
      - [ -1.49168432e-01 ]
      - [ -4.44818437e-01 ]
      - [ 4.40633863e-01 ]
      - [ -4.29242134e-01 ]
      - [ 7.04532206e-01 ]
      - [ -2.86958694e-01 ]
      - [ -1.62532163e+00 ]
      - [ -5.35580277e-01 ]
      - [ 6.15268052e-01 ]
      - [ 3.93904984e-01 ]
      - [ 3.76531422e-01 ]
      - [ 1.06728005e+00 ]
      - [ -4.46915239e-01 ]
      - [ 7.67436445e-01 ]
      - [ -1.51059628e+00 ]
      - [ 3.85517746e-01 ]
      - [ -1.69451630e+00 ]
      - [ -2.03330064e+00 ]
      - [ -7.55445659e-01 ]
      - [ 4.68191922e-01 ]
      - [ -8.02773595e-01 ]
      - [ -6.61388814e-01 ]
      - [ 1.59537625e+00 ]
      - [ -4.78367358e-01 ]
      - [ -1.55043566e+00 ]
      - [ -4.11269486e-01 ]
      - [ -8.64779234e-01 ]
      - [ -1.56810868e+00 ]
      - [ 8.53705168e-01 ]
      - [ -5.38276196e-01 ]
      - [ 9.26194847e-01 ]
      - [ -2.42750072e+00 ]
      - [ 1.13707387e+00 ]
      - [ 6.11973107e-01 ]
      - [ 8.55801940e-01 ]
      - [ 9.32784796e-01 ]
      - [ -2.23938704e+00 ]
      - [ 8.15063953e-01 ]
      - [ 6.91052735e-01 ]
      - [ 7.04532206e-01 ]
      - [ -1.17117211e-01 ]
      - [ 2.21123886e+00 ]
      - [ -5.51456153e-01 ]
      - [ -8.18050385e-01 ]
      - [ 2.45671384e-02 ]
      - [ -1.11100447e+00 ]
      - [ 4.79315780e-02 ]
      - [ 3.14825356e-01 ]
      - [ 1.18260455e+00 ]
      - [ -9.39665258e-01 ]
      - [ -1.64445177e-01 ]
      - [ -6.67938069e-02 ]
      - [ -1.58068955e+00 ]
      - [ 5.23607552e-01 ]
      - [ -1.61094356e+00 ]
      - [ 4.61901486e-01 ]
      - [ -1.62562120e+00 ]
      - [ -1.95781553e+00 ]
      - [ -1.29821956e+00 ]
      - [ 3.32198918e-01 ]
      - [ -8.32687318e-02 ]
      - [ -2.27349430e-01 ]
      - [ 2.97451794e-01 ]
      - [ 4.25956219e-01 ]
      - [ 1.12029934e+00 ]
      - [ 1.56512237e+00 ]
      - [ 2.00036001e+00 ]
      - [ -1.40485716e+00 ]
      - [ -6.49407029e-01 ]
      - [ 3.21115792e-01 ]
      - [ 7.00039029e-01 ]
      - [ -9.64227855e-01 ]
      - [ 8.54903340e-01 ]
      - [ -3.30093056e-01 ]
      - [ -3.29194427e-01 ]
      - [ 2.00934625e+00 ]
      - [ 1.25149965e+00 ]
      - [ 5.12265638e-02 ]
      - [ -8.31230283e-01 ]
      - [ -9.24388528e-01 ]
      - [ -4.16062206e-01 ]
      - [ -9.61491242e-02 ]
      - [ -7.62934268e-01 ]
      - [ 5.55958331e-01 ]
      - [ -2.03749442e+00 ]
      - [ 1.93505931e+00 ]
      - [ -9.59435165e-01 ]
      - [ -6.15858078e-01 ]
      - [ -9.59435165e-01 ]
      - [ -9.74711895e-01 ]
      - [ 1.53371096e-01 ]
      - [ -4.72376496e-01 ]
      - [ 1.29103947e+00 ]
      - [ 9.23498929e-01 ]
      - [ -3.26292920e+00 ]
      - [ -1.15383923e+00 ]
      - [ -1.64868605e+00 ]
      - [ -1.15144289e+00 ]
      - [ -6.28590118e-03 ]
      - [ 1.03253293e+00 ]
      - [ -1.28024685e+00 ]
      - [ 1.03972208e+00 ]
      - [ -1.05019701e+00 ]
      - [ -5.35879850e-01 ]
      - [ 5.38884342e-01 ]
      - [ -1.11819351e+00 ]
      - [ 6.00590408e-01 ]
      - [ -1.26107609e+00 ]
      - [ -1.43776640e-01 ]
      - [ 1.16523099e+00 ]
      - [ 7.39919096e-02 ]
      - [ -7.64132440e-01 ]
      - [ -1.49168432e-01 ]
      - [ -2.07074380e+00 ]
      - [ 2.95055449e-01 ]
      - [ -5.04128158e-01 ]
      - [ -1.03132570e+00 ]
      - [ 5.38584769e-01 ]
      - [ 3.54365170e-01 ]
      - [ -1.97039640e+00 ]
      - [ 2.01383948e+00 ]
      - [ -1.24006726e-01 ]
      - [ -7.29385316e-01 ]
      - [ 2.19805908e+00 ]
      - [ -3.89402777e-01 ]
      - [ -1.66366327e+00 ]
      - [ -1.76790464e+00 ]
      - [ -9.48651552e-01 ]
      - [ -7.93746561e-02 ]
      - [ -8.23142588e-01 ]
      - [ -8.86945486e-01 ]
      - [ -1.11010587e+00 ]
      - [ -1.22782671e+00 ]
      - [ 7.09624469e-01 ]
      - [ 5.91604054e-01 ]
      - [ 1.97160363e+00 ]
      - [ 4.27753478e-01 ]
      - [ -1.40994942e+00 ]
      - [ 6.64992392e-01 ]
      - [ -1.48243916e+00 ]
      - [ -3.58250201e-01 ]
      - [ -9.88191426e-01 ]
      - [ -1.59866226e+00 ]
      - [ 6.68886483e-01 ]
      - [ 1.75083971e+00 ]
      - [ 1.42553484e+00 ]
      - [ -1.37909639e+00 ]
      - [ 1.78049457e+00 ]
      - [ -9.27983046e-01 ]
      - [ 6.88955903e-01 ]
      - [ -2.55600500e+00 ]
      - [ 2.18072608e-01 ]
      - [ -3.78319651e-01 ]
      - [ -4.13965404e-01 ]
      - [ -4.16321047e-02 ]
      - [ 7.97989964e-01 ]
      - [ 4.27753478e-01 ]
      - [ -2.18127537e+00 ]
      - [ -7.01527715e-01 ]
      - [ -1.01840466e-01 ]
      - [ -1.44889021e+00 ]
      - [ 2.16874436e-01 ]
      - [ 1.18923523e-01 ]
      - [ -7.42265701e-01 ]
      - [ -8.09363604e-01 ]
      - [ 1.10876551e-02 ]
      - [ -1.24605812e-01 ]
      - [ 7.16513991e-01 ]
      - [ -3.78533411e+00 ]
      - [ -1.30211365e+00 ]
      - [ -4.58896995e-01 ]
      - [ 1.71643287e-01 ]
      - [ 5.86511850e-01 ]
      - [ -1.85087836e+00 ]
      - [ 4.10379916e-01 ]
      - [ -1.73525429e+00 ]
      - [ -2.39930287e-01 ]
      - [ -2.02790880e+00 ]
      - [ -5.83207786e-01 ]
      - [ -2.69544423e-02 ]
      - [ 1.49477020e-01 ]
      - [ 1.50224473e-03 ]
      - [ 1.43871474e+00 ]
      - [ -1.00736225e+00 ]
      - [ 1.92187929e+00 ]
      - [ 5.83516419e-01 ]
      - [ 1.72541916e-01 ]
      - [ 3.54365170e-01 ]
      - [ -1.81343532e+00 ]
      - [ 1.63855135e-01 ]
      - [ 3.78029168e-01 ]
      - [ 5.99092662e-01 ]
      - [ 1.29433453e+00 ]
      - [ 9.01632190e-01 ]
      - [ -5.42129539e-02 ]
      - [ 5.09270169e-02 ]
      - [ 1.37551093e+00 ]
      - [ -5.87401390e-01 ]
      - [ -2.94147760e-01 ]
      - [ -1.54594243e+00 ]
      - [ -8.89940917e-01 ]
      - [ 2.18712427e-02 ]
      - [ -7.14108586e-01 ]
      - [ -1.35363519e+00 ]
      - [ 2.63603330e-01 ]
      - [ -3.79218280e-01 ]
      - [ -1.86345923e+00 ]
      - [ -1.10022092e+00 ]
      - [ -1.27335739e+00 ]
      - [ -4.48113412e-01 ]
      - [ 7.81814575e-01 ]
      - [ 1.53636611e+00 ]
      - [ -1.08045101e+00 ]
      - [ 2.91161358e-01 ]
      - [ 8.47755000e-02 ]
      - [ -1.07925284e+00 ]
      - [ 6.76974118e-01 ]
      - [ 9.37577486e-01 ]
      - [ -6.72471941e-01 ]
      - [ -1.26407146e+00 ]
      - [ 1.69632268e+00 ]
      - [ 3.85218203e-01 ]
      - [ -1.57350051e+00 ]
      - [ -9.61491242e-02 ]
      - [ -1.41380280e-01 ]
      - [ -6.17015548e-02 ]
      - [ -4.48113412e-01 ]
      - [ -2.60898381e-01 ]
      - [ -1.52677166e+00 ]
      - [ -1.10441446e+00 ]
      - [ -4.22951728e-01 ]
      - [ 5.40981114e-01 ]
      - [ 6.15268052e-01 ]
      - [ 9.52554703e-01 ]
      - [ 1.01815486e+00 ]
      - [ 4.11278546e-01 ]
      - [ 4.85306643e-02 ]
      - [ -7.63233781e-01 ]
      - [ -1.07685649e+00 ]
      - [ -1.17117211e-01 ]
      - [ 4.04988110e-01 ]
      - [ 2.91097379e+00 ]
      - [ 6.35037959e-01 ]
      - [ -1.19365193e-03 ]
      - [ 1.42044258e+00 ]
      - [ 5.60192689e-02 ]
      - [ -3.09124976e-01 ]
      - [ -1.03462076e+00 ]
      - [ 6.21558487e-01 ]
      - [ -1.87809616e-01 ]
      - [ 4.89459544e-01 ]
      - [ 3.41784328e-01 ]
      - [ -3.10323149e-01 ]
      - [ -7.99478650e-01 ]
      - [ 2.13215923e+00 ]
      - [ 1.65352851e-01 ]
      - [ -1.73431501e-01 ]
      - [ -1.50965691e-01 ]
      - [ 1.31803915e-01 ]
      - [ 1.17331874e+00 ]
      - [ -1.08194864e+00 ]
      - [ -1.03042710e+00 ]
      - [ -8.39018464e-01 ]
      - [ -3.35484833e-01 ]
      - [ -1.47970244e-01 ]
      - [ -3.88204604e-01 ]
      - [ -9.40264344e-01 ]
      - [ 7.82114148e-01 ]
      - [ -1.83859706e+00 ]
      - [ 1.28355086e+00 ]
      - [ 8.33635688e-01 ]
      - [ -1.78737497e+00 ]
      - [ 2.65101045e-01 ]
      - [ -1.62741852e+00 ]
      - [ -1.96889877e+00 ]
      - [ -4.72076952e-01 ]
      - [ -3.49862963e-01 ]
      - [ 1.80176222e+00 ]
      - [ -3.23462375e-02 ]
      - [ -3.01935911e-01 ]
      - [ -6.72771454e-01 ]
      - [ -1.54983652e+00 ]
      - [ -1.73225892e+00 ]
      - [ 6.61098301e-01 ]
      - [ -1.20506132e+00 ]
      - [ -9.81301904e-01 ]
      - [ -4.90948230e-01 ]
      - [ 1.15025377e+00 ]
      - [ -4.84657794e-01 ]
      - [ -3.25000793e-01 ]
      - [ 6.79070950e-01 ]
      - [ -9.20494437e-01 ]
      - [ 4.66394663e-01 ]
      - [ 4.91855919e-01 ]
      - [ 1.35574102e+00 ]
      - [ -2.19565368e+00 ]
      - [ -1.58068955e+00 ]
      - [ 7.54556060e-01 ]
      - [ -1.64059842e+00 ]
      - [ 1.78169274e+00 ]
      - [ 1.65917921e+00 ]
      - [ -1.60075903e+00 ]
      - [ 4.65496033e-01 ]
      - [ -1.81972575e+00 ]
      - [ -2.16959333e+00 ]
      - [ 4.63399231e-01 ]
      - [ 2.21707858e-02 ]
      - [ 2.66598761e-01 ]
      - [ 1.36173189e+00 ]
      - [ -1.47135603e+00 ]
      - [ 1.21645308e+00 ]
      - [ 4.81671393e-01 ]
      - [ -3.35185289e-01 ]
      - [ -1.19278002e+00 ]
      - [ -1.06307745e+00 ]
      - [ -1.50071132e+00 ]
      - [ -1.09512866e+00 ]
      - [ 3.19618046e-01 ]
      - [ -1.85866654e+00 ]
      - [ 7.21905768e-01 ]
      - [ -2.57603377e-01 ]
      - [ 7.06928551e-01 ]
      - [ 1.26557827e+00 ]
      - [ 7.66837358e-01 ]
      - [ -1.58817816e+00 ]
      - [ 1.91229391e+00 ]
      - [ 3.28304827e-01 ]
      - [ -2.75576025e-01 ]
      - [ -1.14964569e+00 ]
      - [ -7.39828646e-02 ]
      - [ 6.32083267e-02 ]
      - [ 4.35242087e-01 ]
      - [ -3.33388031e-01 ]
      - [ 9.45365667e-01 ]
      - [ -6.76965117e-01 ]
      - [ -2.31487203e+00 ]
      - [ 8.24948907e-01 ]
      - [ -4.67583776e-01 ]
      - [ -1.80321008e-01 ]
      - [ -8.36322546e-01 ]
      - [ 1.30811357e+00 ]
      - [ 4.35541630e-01 ]
      - [ 2.01597691e-01 ]
      - [ 1.47975230e+00 ]
      - [ -4.54703391e-01 ]
      - [ 1.17152143e+00 ]
      - [ 2.12081730e-01 ]
      - [ -1.14425385e+00 ]
      - [ -5.89498222e-01 ]
      - [ -1.06487465e+00 ]
      - [ -1.56780922e+00 ]
      - [ -3.19609016e-01 ]
      - [ 8.09073091e-01 ]
      - [ -3.09124976e-01 ]
      - [ -1.30061591e+00 ]
      - [ 6.56305611e-01 ]
      - [ 1.63855135e-01 ]
      - [ -1.05798519e+00 ]
      - [ 1.17361820e+00 ]
      - [ -1.17716298e-01 ]
      - [ 3.93006355e-01 ]
      - [ 2.77981430e-01 ]
      - [ -1.76685769e-02 ]
      - [ 7.91399956e-01 ]
      - [ 4.75081444e-01 ]
      - [ 2.61742067e+00 ]
      - [ -3.37581664e-01 ]
      - [ -2.07314014e+00 ]
      - [ -5.24197638e-01 ]
      - [ -1.23591435e+00 ]
      - [ -4.55002934e-01 ]
      - [ 5.09229481e-01 ]
      - [ 6.96744084e-01 ]
      - [ 1.31504372e-01 ]
      - [ -1.86375880e+00 ]
      - [ -1.36322057e+00 ]
      - [ 1.34799361e-01 ]
      - [ -8.17151725e-01 ]
      - [ -4.52606589e-01 ]
      - [ -5.78415096e-01 ]
      - [ -1.03637725e-01 ]
      - [ -1.16552150e+00 ]
      - [ -1.73195934e+00 ]
      - [ 3.23238468e+00 ]
      - [ -5.85304618e-01 ]
      - [ -1.61992991e+00 ]
      - [ -4.13665861e-01 ]
      - [ 1.67789925e-02 ]
      - [ -1.52722234e-02 ]
      - [ 6.87158644e-01 ]
      - [ -5.06524503e-01 ]
      - [ -1.40126264e+00 ]
      - [ -1.28414094e+00 ]
      - [ 9.07623112e-01 ]
      - [ 1.33002102e-01 ]
      - [ -1.39796770e+00 ]
      - [ 3.02584767e-02 ]
      - [ -1.03611851e+00 ]
      - [ -3.07028145e-01 ]
      - [ -1.78467906e+00 ]
      - [ -1.32338119e+00 ]
      - [ 3.34894806e-01 ]
      - [ 2.40953708e+00 ]
      - [ -6.92840934e-01 ]
      - [ 1.73436475e+00 ]
      - [ 4.30149823e-01 ]
      - [ 2.63004214e-01 ]
      - [ 2.12980360e-01 ]
      - [ -6.33830726e-01 ]
      - [ -1.13706481e+00 ]
      - [ -1.81583166e+00 ]
      - [ -1.68223500e+00 ]
      - [ -8.03971767e-01 ]
      - [ -2.02487275e-01 ]
      - [ -4.62791085e-01 ]
      - [ -5.71825147e-01 ]
      - [ -9.94182289e-01 ]
      - [ -2.91066527e+00 ]
      - [ -1.06034078e-01 ]
      - [ 9.47162926e-01 ]
      - [ 7.67736018e-01 ]
      - [ -2.84262806e-01 ]
      - [ -5.44566631e-01 ]
      - [ -1.04151022e+00 ]
      - [ -1.34255207e+00 ]
      - [ -1.37580144e+00 ]
      - [ -1.16222656e+00 ]
      - [ -3.41176182e-01 ]
      - [ 1.53576708e+00 ]
      - [ -2.70783335e-01 ]
      - [ 2.71391451e-01 ]
      - [ -1.90205961e-01 ]
      - [ -1.88502634e+00 ]
      - [ 2.15716977e-02 ]
      - [ -1.88143182e+00 ]
      - [ 5.77225983e-01 ]
      - [ -9.52246130e-01 ]
      - [ 1.16867432e-02 ]
      - [ -8.99825871e-01 ]
      - [ 6.63494647e-01 ]
      - [ 9.58586335e-02 ]
      - [ -1.66635919e+00 ]
      - [ -3.52203488e+00 ]
      - [ 6.38332963e-01 ]
      - [ -1.29698068e-01 ]
      - [ -3.25963426e+00 ]
      - [ -8.93535495e-01 ]
      - [ -1.47135603e+00 ]
      - [ 3.01345855e-01 ]
      - [ -1.05049658e+00 ]
      - [ -5.69129229e-01 ]
      - [ -1.82118282e-01 ]
      - [ -3.41176182e-01 ]
      - [ 1.72541916e-01 ]
      - [ 1.38240051e+00 ]
      - [ 1.35034919e+00 ]
      - [ -7.42864788e-01 ]
      - [ 5.99991322e-01 ]
      - [ -1.89307332e-01 ]
      - [ -1.56631148e+00 ]
      - [ -1.57080460e+00 ]
      - [ -1.38029456e+00 ]
      - [ 8.48912477e-01 ]
      - [ -9.85454768e-02 ]
      - [ -4.80164647e-01 ]
      - [ 1.46747100e+00 ]
      - [ -2.99539566e-01 ]
      - [ -9.26485300e-01 ]
      - [ -5.48460662e-01 ]
      - [ -1.72117579e+00 ]
      - [ 1.87574959e+00 ]
      - [ -4.66984689e-01 ]
      - [ 3.38530056e-02 ]
      - [ 2.13579461e-01 ]
      - [ -7.70422876e-01 ]
      - [ -5.61041534e-01 ]
      - [ -1.50666147e-01 ]
      - [ 2.92954564e+00 ]
      - [ -1.84698427e+00 ]
      - [ -1.02383709e+00 ]
      - [ 7.63542414e-01 ]
      - [ 1.26467967e+00 ]
      - [ -5.06824076e-01 ]
      - [ 5.46372950e-01 ]
      - [ -7.14408100e-01 ]
      - [ -6.28738523e-01 ]
      - [ -7.30842277e-02 ]
      - [ -1.13137352e+00 ]
      - [ 1.92910910e-01 ]
      - [ -3.93895954e-01 ]
      - [ -1.01634860e+00 ]
      - [ -1.11999083e+00 ]
      - [ -1.86495697e+00 ]
      - [ -2.48017982e-01 ]
      - [ 1.22484028e+00 ]
      - [ 6.58102870e-01 ]
      - [ 3.85817289e-01 ]
      - [ -1.16072881e+00 ]
      - [ -1.64359379e+00 ]
      - [ -3.45164180e+00 ]
      - [ -1.71933785e-01 ]
      - [ -8.21944416e-01 ]
      - [ 5.52663326e-01 ]
      - [ 3.23512137e-01 ]
      - [ -2.99839109e-01 ]
      - [ 4.36440259e-01 ]
      - [ 1.29707113e-01 ]
      - [ -8.35682750e-02 ]
      - [ -6.63785160e-01 ]
      - [ 1.07506824e+00 ]
      - [ 1.42283893e+00 ]
      - [ 7.86607265e-01 ]
      - [ -5.52354753e-01 ]
      - [ -7.00928628e-01 ]
      - [ 2.62704670e-01 ]
      - [ 3.51968825e-01 ]
      - [ 5.95498145e-01 ]
      - [ -5.45764804e-01 ]
      - [ -7.21855983e-02 ]
      - [ -2.89055526e-01 ]
      - [ -8.51000190e-01 ]
      - [ 8.65387380e-01 ]
      - [ -2.14768589e-01 ]
      - [ -6.22448087e-01 ]
      - [ -2.22500896e+00 ]
      - [ 8.19856644e-01 ]
      - [ -1.73690319e-02 ]
      - [ -7.13509500e-01 ]
      - [ 3.94504070e-01 ]
      - [ 8.98936331e-01 ]
      - [ 7.92298615e-01 ]
      - [ -1.68343318e+00 ]
      - [ -9.45656121e-01 ]
      - [ 6.22157574e-01 ]
      - [ -2.63508487e+00 ]
      - [ 1.01216400e+00 ]
      - [ 9.58586335e-02 ]
      - [ -3.27341318e+00 ]
      - [ -8.14455807e-01 ]
      - [ -4.59496081e-01 ]
      - [ 9.01672915e-02 ]
      - [ 4.10379916e-01 ]
      - [ 5.77225983e-01 ]
      - [ 8.17759871e-01 ]
      - [ -9.61531997e-01 ]
      - [ -1.42432761e+00 ]
      - [ -9.25287127e-01 ]
      - [ -1.51478994e+00 ]
      - [ -1.03521979e+00 ]
      - [ 2.34154058e+00 ]
      - [ 3.31300288e-01 ]
      - [ 5.76926410e-01 ]
      - [ 7.29094803e-01 ]
      - [ -3.70531499e-01 ]
      - [ -2.05426884e+00 ]
      - [ -2.00649295e-02 ]
      - [ 1.13976979e+00 ]
      - [ 2.10669804e+00 ]
      - [ 1.38659406e+00 ]
      - [ -7.17104018e-01 ]
      - [ 7.51261055e-01 ]
      - [ 1.09304082e+00 ]
      - [ 5.16418517e-01 ]
      - [ -1.10711038e+00 ]
      - [ -1.53661594e-01 ]
      - [ -1.53545845e+00 ]
      - [ 4.91855919e-01 ]
      - [ -4.22053099e-01 ]
      - [ 2.68092394e+00 ]
      - [ 1.19822159e-01 ]
      - [ 1.74365067e+00 ]
      - [ -2.94447303e-01 ]
      - [ 6.88656390e-01 ]
      - [ -1.28384137e+00 ]
      - [ -4.25647616e-01 ]
      - [ 2.26994967e+00 ]
      - [ -1.28893363e+00 ]
      - [ 2.02162743e+00 ]
      - [ -7.56044745e-01 ]
      - [ 1.89915478e-01 ]
      - [ -1.25628340e+00 ]
      - [ 7.63542414e-01 ]
      - [ 1.08435404e+00 ]
      - [ -6.08069956e-01 ]
      - [ -1.69537425e-01 ]
      - [ -1.19772386e-02 ]
      - [ -1.18678916e+00 ]
      - [ 1.36592555e+00 ]
      - [ 6.83005750e-02 ]
      - [ -9.97436568e-02 ]
      - [ 8.86355460e-01 ]
      - [ 9.07623112e-01 ]
      - [ -3.08525890e-01 ]
      - [ -6.11664474e-01 ]
      - [ -7.64132440e-01 ]
      - [ 1.37495264e-01 ]
      - [ -8.81254137e-01 ]
      - [ -2.42626175e-01 ]
      - [ -8.12958121e-01 ]
      - [ -6.06871784e-01 ]
      - [ -1.27305782e+00 ]
      - [ -1.94343746e+00 ]
      - [ 1.71729076e+00 ]
      - [ 4.22661215e-01 ]
      - [ 9.07024026e-01 ]
      - [ 1.01306260e+00 ]
      - [ 4.10420634e-02 ]
      - [ -1.45817602e+00 ]
      - [ -4.50809330e-01 ]
      - [ 8.24649394e-01 ]
      - [ 1.60560146e-01 ]
      - [ -1.90150130e+00 ]
      - [ -9.65126514e-01 ]
      - [ -1.07625735e+00 ]
      - [ -6.20011017e-02 ]
      - [ -3.80116910e-01 ]
      - [ 1.92217886e+00 ]
      - [ 9.27093446e-01 ]
      - [ 2.74985999e-01 ]
      - [ -1.31559312e+00 ]
      - [ 1.07357049e+00 ]
      - [ -1.09482908e+00 ]
      - [ 2.76783258e-01 ]
      - [ -1.89610946e+00 ]
      - [ 1.32702559e-01 ]
      - [ -7.81206429e-01 ]
      - [ 3.69038749e+00 ]
      - [ -1.09542823e+00 ]
      - [ 9.38775659e-01 ]
      - [ 7.45869279e-01 ]
      - [ -7.52450228e-01 ]
      - [ -2.36934841e-01 ]
      - [ -1.77299690e+00 ]
      - [ 2.92359561e-01 ]
      - [ -1.11126326e-01 ]
      - [ -1.54859766e-01 ]
      - [ -1.58308589e+00 ]
      - [ -8.28234851e-01 ]
      - [ 3.59423399e+00 ]
      - [ 9.20503497e-01 ]
      - [ -1.38508725e+00 ]
      - [ -1.41979367e-01 ]
      - [ -3.53757024e-01 ]
      - [ -2.55207032e-01 ]
      - [ 3.56761515e-01 ]
      - [ 1.07027555e+00 ]
      - [ -3.98389101e-01 ]
      - [ -4.42422092e-01 ]
      - [ 2.83972323e-01 ]
      - [ 2.08902502e+00 ]
      - [ -7.13509500e-01 ]
      - [ -3.94794583e-01 ]
      - [ -1.12058985e+00 ]
      - [ 3.71439189e-01 ]
      - [ 3.45464635e+00 ]
      - [ -4.26845789e-01 ]
      - [ -1.64145634e-01 ]
      - [ -3.33987117e-01 ]
      - [ 6.14110604e-02 ]
      - [ 1.30661583e+00 ]
      - [ 4.61002856e-01 ]
      - [ 3.69342387e-01 ]
      - [ -1.99465954e+00 ]
      - [ 3.81923229e-01 ]
      - [ 2.62760520e+00 ]
      - [ -4.63390172e-01 ]
      - [ 8.87254119e-01 ]
      - [ -3.48964334e-01 ]
      - [ -1.04121065e+00 ]
      - [ 8.17800611e-02 ]
      - [ -1.34884250e+00 ]
      - [ -1.16162741e+00 ]
      - [ -3.76522392e-01 ]
      - [ -7.96483159e-01 ]
      - [ 9.21102583e-01 ]
      - [ 9.80412304e-01 ]
      - [ 8.45916986e-01 ]
      - [ -2.18962193e-01 ]
      - [ -3.01636368e-01 ]
      - [ -1.38388908e+00 ]
      - [ -4.55002934e-01 ]
      - [ -3.62443805e-01 ]
      - [ -9.24688041e-01 ]
      - [ 1.38992980e-01 ]
      - [ 4.33145255e-01 ]
      - [ -2.53409773e-01 ]
      - [ 9.69329178e-01 ]
      - [ -2.99839109e-01 ]
      - [ -2.08777696e-01 ]
      - [ 9.93592262e-01 ]
      - [ 7.02135861e-01 ]
      - [ -8.44110668e-01 ]
      - [ 1.41505075e+00 ]
      - [ -6.03876352e-01 ]
      - [ 3.96301329e-01 ]
      - [ -2.09171176e+00 ]
      - [ 5.37686169e-01 ]
      - [ -1.76880324e+00 ]
      - [ -1.95032704e+00 ]
      - [ -1.18708861e+00 ]
      - [ -1.41474211e+00 ]
      - [ 7.98589051e-01 ]
      - [ 1.59927034e+00 ]
      - [ -3.19009930e-01 ]
      - [ 2.70042103e-03 ]
      - [ -3.09124976e-01 ]
      - [ -1.09033597e+00 ]
      - [ -2.92949587e-01 ]
      - [ -5.19704461e-01 ]
      - [ -6.55098379e-01 ]
      - [ -4.47813869e-01 ]
      - [ -1.23441660e+00 ]
      - [ -2.21332669e+00 ]
      - [ -2.04528236e+00 ]
      - [ -9.14204001e-01 ]
      - [ -9.38167512e-01 ]
      - [ -2.74078310e-01 ]
      - [ -1.20715809e+00 ]
      - [ 3.03742230e-01 ]
      - [ -1.02713215e+00 ]
      - [ 5.27202129e-01 ]
      - [ -6.93739593e-01 ]
      - [ -5.70027888e-01 ]
      - [ 2.38142073e-01 ]
      - [ -2.99091637e-03 ]
      - [ -1.11160362e+00 ]
      - [ -1.70735598e-01 ]
      - [ 1.44740152e+00 ]
      - [ -7.27887571e-01 ]
      - [ -1.72267354e+00 ]
      - [ 1.37700868e+00 ]
      - [ -1.49168432e-01 ]
      - [ -6.68577850e-01 ]
      - [ 1.07327092e+00 ]
      - [ -6.81158721e-01 ]
      - [ -1.24699748e+00 ]
      - [ 5.25105298e-01 ]
      - [ 1.88417748e-01 ]
      - [ 1.64030790e+00 ]
      - [ -1.24849522e+00 ]
      - [ -1.37130833e+00 ]
      - [ 1.23652244e+00 ]
      - [ -1.39646995e+00 ]
      - [ -3.45070243e-01 ]
      - [ -9.67223287e-01 ]
      - [ 1.35098904e-01 ]
      - [ 1.08739026e-01 ]
      - [ -3.01191115e+00 ]
      - [ -1.77325577e-01 ]
      - [ 4.70588267e-01 ]
      - [ -2.33639851e-01 ]
      - [ -1.01365268e+00 ]
      - [ 4.99644041e-01 ]
      - [ 1.25239837e+00 ]
      - [ -9.51347470e-01 ]
      - [ 1.18350315e+00 ]
      - [ 1.72388065e+00 ]
      - [ -4.75971013e-01 ]
      - [ 1.17062283e+00 ]
      - [ 1.71878850e+00 ]
      - [ -7.12610841e-01 ]
      - [ -1.46731352e-02 ]
      - [ 5.12224913e-01 ]
      - [ 7.28495717e-01 ]
      - [ -9.15701747e-01 ]
      - [ -8.70171010e-01 ]
      - [ -1.40605533e+00 ]
      - [ -3.43572527e-01 ]
      - [ -4.49910671e-01 ]
      - [ 1.69063127e+00 ]
      - [ 2.13066149e+00 ]
      - [ 1.17425807e-01 ]
      - [ -1.42223072e+00 ]
      - [ -3.92697752e-01 ]
      - [ -6.80260062e-01 ]
      - [ -1.14275610e+00 ]
      - [ -9.72016037e-01 ]
      - [ -5.98635711e-03 ]
      - [ 1.38599503e+00 ]
      - [ -4.08573598e-01 ]
      - [ -4.93344575e-01 ]
      - [ -6.93140507e-01 ]
      - [ -7.26389885e-01 ]
      - [ 1.35697991e-01 ]
      - [ -1.52587306e+00 ]
      - [ 7.67736018e-01 ]
      - [ 3.13627183e-01 ]
      - [ -1.45967376e+00 ]
      - [ -1.60016000e+00 ]
      - [ -1.20416272e+00 ]
      - [ 1.46481574e-01 ]
      - [ 1.26557827e+00 ]
      - [ -1.12987578e+00 ]
      - [ 9.33683395e-01 ]
      - [ -1.65797198e+00 ]
      - [ 5.69586176e-03 ]
      - [ -7.05421805e-01 ]
      - [ -3.36982578e-01 ]
      - [ -3.88504148e-01 ]
      - [ 7.32090235e-01 ]
      - [ -2.03330064e+00 ]
      - [ -7.23094881e-01 ]
      - [ -2.06924605e+00 ]
      - [ 2.07854080e+00 ]
      - [ 6.47060424e-02 ]
      - [ -3.48964334e-01 ]
      - [ -3.33388031e-01 ]
      - [ 1.06308651e+00 ]
      - [ -1.39317501e+00 ]
      - [ 4.55311537e-01 ]
      - [ 4.55611080e-01 ]
      - [ -1.21284950e+00 ]
      - [ 7.26698458e-01 ]
      - [ 6.77573264e-01 ]
      - [ -6.75766945e-01 ]
      - [ -4.10330147e-02 ]
      - [ -3.80959702e+00 ]
      - [ -1.11130404e+00 ]
      - [ -1.80504811e+00 ]
      - [ 1.23861933e+00 ]
      - [ -8.69871497e-01 ]
      - [ -1.05319250e+00 ]
      - [ 4.15771723e-01 ]
      - [ 2.23164871e-01 ]
      - [ 7.15016246e-01 ]
      - [ 5.97894490e-01 ]
      - [ 5.16418517e-01 ]
      - [ -2.52810687e-01 ]
      - [ -7.57842004e-01 ]
      - [ 1.61005402e+00 ]
      - [ 1.91712737e-01 ]
      - [ -1.43600976e+00 ]
      - [ -1.26103535e-01 ]
      - [ -3.49862963e-01 ]
      - [ 1.86620489e-01 ]
      - [ -6.21849000e-01 ]
      - [ -1.38358963e+00 ]
      - [ -8.77060533e-01 ]
      - [ -1.45997334e+00 ]
      - [ -6.78462803e-01 ]
      - [ -8.99226785e-01 ]
      - [ 2.43234321e-01 ]
      - [ -1.80021465e-01 ]
      - [ -1.23291886e+00 ]
      - [ -1.61363947e+00 ]
      - [ 7.66837358e-01 ]
      - [ 1.01605809e+00 ]
      - [ 4.43030208e-01 ]
      - [ -2.03685448e-01 ]
      - [ 8.08814242e-02 ]
      - [ -1.69601405e+00 ]
      - [ 6.54807866e-01 ]
      - [ -1.37040961e+00 ]
      - [ -1.02623355e+00 ]
      - [ -9.84596848e-01 ]
      - [ -1.27002165e-01 ]
      - [ -2.22257182e-01 ]
      - [ -1.37670004e+00 ]
      - [ -1.52377617e+00 ]
      - [ -9.26784873e-01 ]
      - [ -8.89042318e-01 ]
      - [ 1.28415000e+00 ]
      - [ -1.00915945e+00 ]
      - [ -1.70136511e-01 ]
      - [ 9.08521712e-01 ]
      - [ 1.72657657e+00 ]
      - [ 5.74230552e-01 ]
      - [ -2.65844917e+00 ]
      - [ -1.97095484e-01 ]
      - [ -1.75202882e+00 ]
      - [ 3.12429011e-01 ]
      - [ -7.53648400e-01 ]
      - [ -4.64887887e-01 ]
      - [ -1.08644187e+00 ]
      - [ -9.87592280e-01 ]
      - [ -6.14659905e-01 ]
      - [ 1.95606813e-01 ]
      - [ 8.01884055e-01 ]
      - [ -1.16102839e+00 ]
      - [ 2.47128397e-01 ]
      - [ -6.79660976e-01 ]
      - [ -1.77325577e-01 ]
      - [ -2.98940480e-01 ]
      - [ -1.59053385e-01 ]
      - [ 1.31919670e+00 ]
      - [ -1.51658714e+00 ]
      - [ -5.38875282e-01 ]
      - [ -9.94481802e-01 ]
      - [ 7.35684812e-01 ]
      - [ 7.65639186e-01 ]
      - [ -1.79576218e+00 ]
      - [ 3.36687994e+00 ]
      - [ -9.88450199e-02 ]
      - [ -9.64527428e-01 ]
      - [ -1.71877944e+00 ]
      - [ -1.82302070e+00 ]
      - [ 1.72541916e-01 ]
      - [ -4.10071313e-01 ]
      - [ 1.68348297e-01 ]
      - [ -3.05230886e-01 ]
      - [ 1.55014515e+00 ]
      - [ 2.07045317e+00 ]
      - [ -9.08812225e-01 ]
      - [ 7.28196204e-01 ]
      - [ -1.18828690e+00 ]
      - [ 2.71597075e+00 ]
      - [ 1.79906631e+00 ]
      - [ 1.00557399e+00 ]
      - [ -8.35124373e-01 ]
      - [ 7.65339673e-01 ]
      - [ -1.11879265e+00 ]
      - [ -2.52211601e-01 ]
      - [ 1.02833939e+00 ]
      - [ -4.25947160e-01 ]
      - [ -1.53755522e+00 ]
      - [ -3.74425590e-01 ]
      - [ -6.75766945e-01 ]
      - [ 7.35684812e-01 ]
      - [ -4.53505218e-01 ]
      - [ 2.03694493e-01 ]
      - [ -7.64132440e-01 ]
      - [ 1.36412823e+00 ]
      - [ -8.48903418e-01 ]
      - [ -3.49896979e+00 ]
      - [ -7.07219064e-01 ]
      - [ -6.87149584e-01 ]
      - [ -3.33687574e-01 ]
      - [ -5.65534711e-01 ]
      - [ 1.92611367e-01 ]
      - [ -8.54594767e-01 ]
      - [ 4.29550737e-01 ]
      - [ -1.44499612e+00 ]
      - [ -3.74425590e-01 ]
      - [ 8.93244982e-01 ]
      - [ 1.03462982e+00 ]
      - [ 1.25389600e+00 ]
      - [ -1.85297513e+00 ]
      - [ -8.93835008e-01 ]
      - [ -9.21093524e-01 ]
      - [ 8.00985396e-01 ]
      - [ 1.54505289e+00 ]
      - [ 5.21211207e-01 ]
      - [ -6.06871784e-01 ]
      - [ -9.77407813e-01 ]
      - [ -3.36383492e-01 ]
      - [ -1.26407146e+00 ]
      - [ -2.06834745e+00 ]
      - [ -6.30835295e-01 ]
      - [ -5.77516437e-01 ]
      - [ -1.95931327e+00 ]
      - [ 8.12967181e-01 ]
      - [ 8.90249550e-01 ]
      - [ -1.23681295e+00 ]
      - [ -1.43960428e+00 ]
      - [ 2.15716977e-02 ]
      - [ 1.91712737e-01 ]
      - [ 9.17208493e-01 ]
      - [ 1.64360285e+00 ]
      - [ -9.16600347e-01 ]
      - [ -9.19555053e-02 ]
      - [ 8.17759871e-01 ]
      - [ -1.58368504e+00 ]
      - [ -6.69176936e-01 ]
      - [ 3.58858347e-01 ]
      - [ -1.25448608e+00 ]
      - [ 3.19018960e-01 ]
      - [ -1.64145634e-01 ]
      - [ -1.32727528e+00 ]
      - [ -6.66780591e-01 ]
      - [ -4.22652185e-01 ]
      - [ 2.37542987e-01 ]
      - [ 3.34595263e-01 ]
      - [ -9.33374822e-01 ]
      - [ 1.55973053e+00 ]
      - [ -7.84501433e-01 ]
      - [ -1.58997548e+00 ]
      - [ -4.48863674e-03 ]
      - [ -1.27785051e+00 ]
      - [ 1.52737975e+00 ]
      - [ -1.51265234e-01 ]
      - [ -1.55193341e+00 ]
      - [ -2.87258238e-01 ]
      - [ 1.27037096e+00 ]
      - [ -8.33626628e-01 ]
      - [ 4.22361672e-01 ]
      - [ -2.42925718e-01 ]
      - [ 7.67736018e-01 ]
      - [ -1.64744720e-01 ]
      - [ -7.71021962e-01 ]
      - [ -1.39437318e+00 ]
      - [ 3.36392522e-01 ]
      - [ -1.79126906e+00 ]
      - [ -1.56721008e+00 ]
      - [ -8.45009327e-01 ]
      - [ -2.10279489e+00 ]
      - [ -1.71907890e+00 ]
      - [ 1.19848037e+00 ]
      - [ 1.91349208e+00 ]
      - [ 5.43377459e-01 ]
      - [ 1.24341202e+00 ]
      - [ -2.69544423e-02 ]
      - [ -8.92337263e-01 ]
      - [ -3.04931343e-01 ]
      - [ 1.38809180e+00 ]
      - [ 1.31140852e+00 ]
      - [ -4.98137295e-01 ]
      - [ -6.26641691e-01 ]
      - [ -7.07219064e-01 ]
      - [ -3.32189858e-01 ]
      - [ 4.70887810e-01 ]
      - [ -1.25149059e+00 ]
      - [ -2.17164934e-01 ]
      - [ 4.50818360e-01 ]
      - [ -1.05169475e+00 ]
