%YAML:1.0
---
opencv_ml_rtrees:
   format: 3
   is_classifier: 1
   var_all: 2
   var_count: 1
   ord_var_count: 1
   cat_var_count: 1
   training_params:
      use_surrogates: 0
      max_categories: 10
      regression_accuracy: 0.
      max_depth: 5
      min_sample_count: 10
      cross_validation_folds: 0
      nactive_vars: 0
   global_var_idx: 1
   var_idx: [ 0 ]
   var_type: [ 0, 1 ]
   cat_ofs: [ 0, 0 ]
   class_labels: [ 0, 1 ]
   missing_subst: [ 0., 0. ]
   oob_error: 1.7127829865081179e-01
   ntrees: 50
   trees:
      -
         nodes:
            -
               depth: 0
               value: 0.
               norm_class_idx: 0
               splits:
                  - { var:0, quality:8.5869072265625000e+03,
                      le:-2.1564248204231262e-01 }
            -
               depth: 1
               value: 0.
               norm_class_idx: 0
               splits:
                  - { var:0, quality:2.8655092773437500e+03,
                      le:-3.2874493598937988e+00 }
            -
               depth: 2
               value: 1.
               norm_class_idx: 1
               splits:
                  - { var:0, quality:1.6533332824707031e+01,
                      le:-3.5172276496887207e+00 }
            -
               depth: 3
               value: 0.
               norm_class_idx: 0
               splits:
                  - { var:0, quality:1.3222222328186035e+01,
                      le:-3.6343934535980225e+00 }
            -
               depth: 4
               value: 1.
               norm_class_idx: 1
            -
               depth: 4
               value: 0.
               norm_class_idx: 0
            -
               depth: 3
               value: 1.
               norm_class_idx: 1
            -
               depth: 2
               value: 0.
               norm_class_idx: 0
               splits:
                  - { var:0, quality:2.8542397460937500e+03,
                      le:-2.3653001785278320e+00 }
            -
               depth: 3
               value: 0.
               norm_class_idx: 0
               splits:
                  - { var:0, quality:8.6918426513671875e+01,
                      le:-2.5522794723510742e+00 }
            -
               depth: 4
               value: 0.
               norm_class_idx: 0
               splits:
                  - { var:0, quality:5.6589260101318359e+01,
                      le:-2.6815869808197021e+00 }
            -
               depth: 5
               value: 0.
               norm_class_idx: 0
            -
               depth: 5
               value: 0.
               norm_class_idx: 0
            -
               depth: 4
               value: 0.
               norm_class_idx: 0
               splits:
                  - { var:0, quality:3.2615383148193359e+01,
                      le:-2.4736633300781250e+00 }
            -
               depth: 5
               value: 0.
               norm_class_idx: 0
            -
               depth: 5
               value: 0.
               norm_class_idx: 0
            -
               depth: 3
               value: 0.
               norm_class_idx: 0
               splits:
                  - { var:0, quality:2.7727927246093750e+03,
                      le:-2.3571045398712158e+00 }
            -
               depth: 4
               value: 1.
               norm_class_idx: 1
            -
               depth: 4
               value: 0.
               norm_class_idx: 0
               splits:
                  - { var:0, quality:2.7707202148437500e+03,
                      le:-8.9192569255828857e-01 }
            -
               depth: 5
               value: 0.
               norm_class_idx: 0
            -
               depth: 5
               value: 0.
               norm_class_idx: 0
            -
               depth: 1
               value: 0.
               norm_class_idx: 0
               splits:
                  - { var:0, quality:5.7337187500000000e+03,
                      le:-3.3216010779142380e-02 }
            -
               depth: 2
               value: 0.
               norm_class_idx: 0
               splits:
                  - { var:0, quality:5.4361395263671875e+02,
                      le:-1.8619927763938904e-01 }
            -
               depth: 3
               value: 0.
               norm_class_idx: 0
               splits:
                  - { var:0, quality:1.1182853698730469e+02,
                      le:-2.0471510291099548e-01 }
            -
               depth: 4
               value: 0.
               norm_class_idx: 0
               splits:
                  - { var:0, quality:3.9651283264160156e+01,
                      le:-2.0532217621803284e-01 }
            -
               depth: 5
               value: 0.
               norm_class_idx: 0
            -
               depth: 5
               value: 1.
               norm_class_idx: 1
            -
               depth: 4
               value: 0.
               norm_class_idx: 0
               splits:
                  - { var:0, quality:7.5266670227050781e+01,
                      le:-1.9257357716560364e-01 }
            -
               depth: 5
               value: 0.
               norm_class_idx: 0
            -
               depth: 5
               value: 0.
               norm_class_idx: 0
            -
               depth: 3
               value: 0.
               norm_class_idx: 0
               splits:
                  - { var:0, quality:4.3657220458984375e+02,
                      le:-1.6282683610916138e-01 }
            -
               depth: 4
               value: 0.
               norm_class_idx: 0
               splits:
                  - { var:0, quality:4.8969970703125000e+01,
                      le:-1.6525512933731079e-01 }
            -
               depth: 5
               value: 0.
               norm_class_idx: 0
            -
               depth: 5
               value: 1.
               norm_class_idx: 1
            -
               depth: 4
               value: 0.
               norm_class_idx: 0
               splits:
                  - { var:0, quality:3.9404693603515625e+02,
                      le:-1.2033148109912872e-01 }
            -
               depth: 5
               value: 0.
               norm_class_idx: 0
            -
               depth: 5
               value: 0.
               norm_class_idx: 0
            -
               depth: 2
               value: 0.
               norm_class_idx: 0
               splits:
                  - { var:0, quality:5.1958833007812500e+03,
                      le:-8.0223381519317627e-03 }
            -
               depth: 3
               value: 0.
               norm_class_idx: 0
               splits:
                  - { var:0, quality:1.0716558074951172e+02,
                      le:-2.6841707527637482e-02 }
            -
               depth: 4
               value: 0.
               norm_class_idx: 0
               splits:
                  - { var:0, quality:2.2350000381469727e+01,
                      le:-2.8055861592292786e-02 }
            -
               depth: 5
               value: 0.
               norm_class_idx: 0
            -
               depth: 5
               value: 0.
               norm_class_idx: 0
            -
               depth: 4
               value: 0.
               norm_class_idx: 0
               splits:
                  - { var:0, quality:8.6074073791503906e+01,
                      le:-1.9556790590286255e-02 }
            -
               depth: 5
               value: 0.
               norm_class_idx: 0
            -
               depth: 5
               value: 0.
               norm_class_idx: 0
            -
               depth: 3
               value: 0.
               norm_class_idx: 0
               splits:
                  - { var:0, quality:5.0925478515625000e+03,
                      le:-7.4152611196041107e-03 }
            -
               depth: 4
               value: 1.
               norm_class_idx: 1
            -
               depth: 4
               value: 0.
               norm_class_idx: 0
               splits:
                  - { var:0, quality:5.0916259765625000e+03,
                      le:1.5715905427932739e+00 }
            -
               depth: 5
               value: 0.
               norm_class_idx: 0
            -
               depth: 5
               value: 0.
               norm_class_idx: 0
      -
         nodes:
            -
               depth: 0
               value: 0.
               norm_class_idx: 0
               splits:
                  - { var:0, quality:8.5942919921875000e+03,
                      le:-2.1412479877471924e-01 }
            -
               depth: 1
               value: 0.
               norm_class_idx: 0
               splits:
                  - { var:0, quality:2.8746113281250000e+03,
                      le:-3.2780394554138184e+00 }
            -
               depth: 2
               value: 1.
               norm_class_idx: 1
               splits:
                  - { var:0, quality:1.6500000000000000e+01,
                      le:-3.6343934535980225e+00 }
            -
               depth: 3
               value: 1.
               norm_class_idx: 1
            -
               depth: 3
               value: 1.
               norm_class_idx: 1
               splits:
                  - { var:0, quality:12., le:-3.4850525856018066e+00 }
            -
               depth: 4
               value: 0.
               norm_class_idx: 0
            -
               depth: 4
               value: 1.
               norm_class_idx: 1
            -
               depth: 2
               value: 0.
               norm_class_idx: 0
               splits:
                  - { var:0, quality:2.8653410644531250e+03,
                      le:-2.4736633300781250e+00 }
            -
               depth: 3
               value: 0.
               norm_class_idx: 0
               splits:
                  - { var:0, quality:7.4514282226562500e+01,
                      le:-2.7787191867828369e+00 }
            -
               depth: 4
               value: 0.
               norm_class_idx: 0
               splits:
                  - { var:0, quality:3.1235294342041016e+01,
                      le:-2.7872183322906494e+00 }
            -
               depth: 5
               value: 0.
               norm_class_idx: 0
            -
               depth: 5
               value: 1.
               norm_class_idx: 1
            -
               depth: 4
               value: 0.
               norm_class_idx: 0
            -
               depth: 3
               value: 0.
               norm_class_idx: 0
               splits:
                  - { var:0, quality:2.7963598632812500e+03,
                      le:-2.3613541126251221e+00 }
            -
               depth: 4
               value: 1.
               norm_class_idx: 1
               splits:
                  - { var:0, quality:1.4793650627136230e+01,
                      le:-2.3653001785278320e+00 }
            -
               depth: 5
               value: 0.
               norm_class_idx: 0
            -
               depth: 5
               value: 1.
               norm_class_idx: 1
            -
               depth: 4
               value: 0.
               norm_class_idx: 0
               splits:
                  - { var:0, quality:2.7866008300781250e+03,
                      le:-1.0588717460632324e+00 }
            -
               depth: 5
               value: 0.
               norm_class_idx: 0
            -
               depth: 5
               value: 0.
               norm_class_idx: 0
            -
               depth: 1
               value: 0.
               norm_class_idx: 0
               splits:
                  - { var:0, quality:5.7376821289062500e+03,
                      le:2.9447975158691406e+00 }
            -
               depth: 2
               value: 0.
               norm_class_idx: 0
               splits:
                  - { var:0, quality:5.7322973632812500e+03,
                      le:2.1167452335357666e+00 }
            -
               depth: 3
               value: 0.
               norm_class_idx: 0
               splits:
                  - { var:0, quality:5.6169848632812500e+03,
                      le:1.5764472484588623e+00 }
            -
               depth: 4
               value: 0.
               norm_class_idx: 0
               splits:
                  - { var:0, quality:5.2482900390625000e+03,
                      le:1.2264676094055176e+00 }
            -
               depth: 5
               value: 0.
               norm_class_idx: 0
            -
               depth: 5
               value: 0.
               norm_class_idx: 0
            -
               depth: 4
               value: 0.
               norm_class_idx: 0
               splits:
                  - { var:0, quality:3.7272451782226562e+02,
                      le:1.6365478038787842e+00 }
            -
               depth: 5
               value: 0.
               norm_class_idx: 0
            -
               depth: 5
               value: 0.
               norm_class_idx: 0
            -
               depth: 3
               value: 0.
               norm_class_idx: 0
               splits:
                  - { var:0, quality:1.2451724243164062e+02,
                      le:2.1270654201507568e+00 }
            -
               depth: 4
               value: 1.
               norm_class_idx: 1
            -
               depth: 4
               value: 0.
               norm_class_idx: 0
               splits:
                  - { var:0, quality:1.2187261199951172e+02,
                      le:2.1604547500610352e+00 }
            -
               depth: 5
               value: 0.
               norm_class_idx: 0
            -
               depth: 5
               value: 0.
               norm_class_idx: 0
            -
               depth: 2
               value: 1.
               norm_class_idx: 1
               splits:
                  - { var:0, quality:9.1999998092651367e+00,
                      le:3.1830749511718750e+00 }
            -
               depth: 3
               value: 1.
               norm_class_idx: 1
            -
               depth: 3
               value: 0.
               norm_class_idx: 0
      -
         nodes:
            -
               depth: 0
               value: 0.
               norm_class_idx: 0
               splits:
                  - { var:0, quality:8.5445488281250000e+03,
                      le:-2.1685662865638733e-01 }
            -
               depth: 1
               value: 0.
               norm_class_idx: 0
               splits:
                  - { var:0, quality:2.7616567382812500e+03,
                      le:-3.2319016456604004e+00 }
            -
               depth: 2
               value: 1.
               norm_class_idx: 1
               splits:
                  - { var:0, quality:1.6461538314819336e+01,
                      le:-3.5005331039428711e+00 }
            -
               depth: 3
               value: 1.
               norm_class_idx: 1
            -
               depth: 3
               value: 1.
               norm_class_idx: 1
               splits:
                  - { var:0, quality:9.7272729873657227e+00,
                      le:-3.4768571853637695e+00 }
            -
               depth: 4
               value: 0.
               norm_class_idx: 0
            -
               depth: 4
               value: 1.
               norm_class_idx: 1
               splits:
                  - { var:0, quality:8.3333330154418945e+00,
                      le:-3.3763859272003174e+00 }
            -
               depth: 5
               value: 1.
               norm_class_idx: 1
            -
               depth: 5
               value: 1.
               norm_class_idx: 1
            -
               depth: 2
               value: 0.
               norm_class_idx: 0
               splits:
                  - { var:0, quality:2.7502871093750000e+03,
                      le:-2.1807079017162323e-01 }
            -
               depth: 3
               value: 0.
               norm_class_idx: 0
               splits:
                  - { var:0, quality:2.7491149902343750e+03,
                      le:-4.0990695357322693e-01 }
            -
               depth: 4
               value: 0.
               norm_class_idx: 0
               splits:
                  - { var:0, quality:2.2761450195312500e+03,
                      le:-4.1962015628814697e-01 }
            -
               depth: 5
               value: 0.
               norm_class_idx: 0
            -
               depth: 5
               value: 1.
               norm_class_idx: 1
            -
               depth: 4
               value: 0.
               norm_class_idx: 0
               splits:
                  - { var:0, quality:4.8019293212890625e+02,
                      le:-3.2430917024612427e-01 }
            -
               depth: 5
               value: 0.
               norm_class_idx: 0
            -
               depth: 5
               value: 0.
               norm_class_idx: 0
            -
               depth: 3
               value: 1.
               norm_class_idx: 1
            -
               depth: 1
               value: 0.
               norm_class_idx: 0
               splits:
                  - { var:0, quality:5.8093613281250000e+03,
                      le:2.7198755741119385e+00 }
            -
               depth: 2
               value: 0.
               norm_class_idx: 0
               splits:
                  - { var:0, quality:5.7947441406250000e+03,
                      le:2.9369464516639709e-01 }
            -
               depth: 3
               value: 0.
               norm_class_idx: 0
               splits:
                  - { var:0, quality:1.9250252685546875e+03,
                      le:2.8944510221481323e-01 }
            -
               depth: 4
               value: 0.
               norm_class_idx: 0
               splits:
                  - { var:0, quality:1.9063187255859375e+03,
                      le:-1.7800374329090118e-01 }
            -
               depth: 5
               value: 0.
               norm_class_idx: 0
            -
               depth: 5
               value: 0.
               norm_class_idx: 0
            -
               depth: 4
               value: 0.
               norm_class_idx: 0
               splits:
                  - { var:0, quality:2.5191387176513672e+01,
                      le:2.9187342524528503e-01 }
            -
               depth: 5
               value: 1.
               norm_class_idx: 1
            -
               depth: 5
               value: 0.
               norm_class_idx: 0
            -
               depth: 3
               value: 0.
               norm_class_idx: 0
               splits:
                  - { var:0, quality:3.8770739746093750e+03,
                      le:4.1146749258041382e-01 }
            -
               depth: 4
               value: 0.
               norm_class_idx: 0
               splits:
                  - { var:0, quality:6.0897210693359375e+02,
                      le:3.9689764380455017e-01 }
            -
               depth: 5
               value: 0.
               norm_class_idx: 0
            -
               depth: 5
               value: 0.
               norm_class_idx: 0
            -
               depth: 4
               value: 0.
               norm_class_idx: 0
               splits:
                  - { var:0, quality:3.2722077636718750e+03,
                      le:4.2664438486099243e-01 }
            -
               depth: 5
               value: 0.
               norm_class_idx: 0
            -
               depth: 5
               value: 0.
               norm_class_idx: 0
            -
               depth: 2
               value: 1.
               norm_class_idx: 1
               splits:
                  - { var:0, quality:2.1636363983154297e+01,
                      le:2.7623710632324219e+00 }
            -
               depth: 3
               value: 1.
               norm_class_idx: 1
            -
               depth: 3
               value: 0.
               norm_class_idx: 0
               splits:
                  - { var:0, quality:1.9071428298950195e+01,
                      le:2.8780190944671631e+00 }
            -
               depth: 4
               value: 0.
               norm_class_idx: 0
            -
               depth: 4
               value: 1.
               norm_class_idx: 1
               splits:
                  - { var:0, quality:16., le:3.4975404739379883e+00 }
            -
               depth: 5
               value: 1.
               norm_class_idx: 1
            -
               depth: 5
               value: 0.
               norm_class_idx: 0
      -
         nodes:
            -
               depth: 0
               value: 0.
               norm_class_idx: 0
               splits:
                  - { var:0, quality:8.3513925781250000e+03,
                      le:-2.9877088963985443e-02 }
            -
               depth: 1
               value: 0.
               norm_class_idx: 0
               splits:
                  - { var:0, quality:3.3571079101562500e+03,
                      le:-3.2874493598937988e+00 }
            -
               depth: 2
               value: 1.
               norm_class_idx: 1
               splits:
                  - { var:0, quality:1.1250000000000000e+01,
                      le:-3.4850525856018066e+00 }
            -
               depth: 3
               value: 1.
               norm_class_idx: 1
            -
               depth: 3
               value: 1.
               norm_class_idx: 1
            -
               depth: 2
               value: 0.
               norm_class_idx: 0
               splits:
                  - { var:0, quality:3.3530771484375000e+03,
                      le:-5.1124766469001770e-02 }
            -
               depth: 3
               value: 0.
               norm_class_idx: 0
               splits:
                  - { var:0, quality:3.3165590820312500e+03,
                      le:-2.4538922309875488e-01 }
            -
               depth: 4
               value: 0.
               norm_class_idx: 0
               splits:
                  - { var:0, quality:2.7689731445312500e+03,
                      le:-2.5449538230895996e-01 }
            -
               depth: 5
               value: 0.
               norm_class_idx: 0
            -
               depth: 5
               value: 0.
               norm_class_idx: 0
            -
               depth: 4
               value: 0.
               norm_class_idx: 0
               splits:
                  - { var:0, quality:5.5267468261718750e+02,
                      le:-9.3620114028453827e-02 }
            -
               depth: 5
               value: 0.
               norm_class_idx: 0
            -
               depth: 5
               value: 0.
               norm_class_idx: 0
            -
               depth: 3
               value: 0.
               norm_class_idx: 0
               splits:
                  - { var:0, quality:4.6894309997558594e+01,
                      le:-5.0517685711383820e-02 }
            -
               depth: 4
               value: 1.
               norm_class_idx: 1
            -
               depth: 4
               value: 0.
               norm_class_idx: 0
               splits:
                  - { var:0, quality:4.4657894134521484e+01,
                      le:-4.9303535372018814e-02 }
            -
               depth: 5
               value: 0.
               norm_class_idx: 0
            -
               depth: 5
               value: 0.
               norm_class_idx: 0
            -
               depth: 1
               value: 0.
               norm_class_idx: 0
               splits:
                  - { var:0, quality:5.0126250000000000e+03,
                      le:2.8962314128875732e+00 }
            -
               depth: 2
               value: 0.
               norm_class_idx: 0
               splits:
                  - { var:0, quality:4.9975317382812500e+03,
                      le:2.1209948062896729e+00 }
            -
               depth: 3
               value: 0.
               norm_class_idx: 0
               splits:
                  - { var:0, quality:4.8772426757812500e+03,
                      le:1.5819108486175537e+00 }
            -
               depth: 4
               value: 0.
               norm_class_idx: 0
               splits:
                  - { var:0, quality:4.5470815429687500e+03,
                      le:1.5803930759429932e+00 }
            -
               depth: 5
               value: 0.
               norm_class_idx: 0
            -
               depth: 5
               value: 1.
               norm_class_idx: 1
            -
               depth: 4
               value: 0.
               norm_class_idx: 0
               splits:
                  - { var:0, quality:3.3691537475585938e+02,
                      le:1.9986689090728760e+00 }
            -
               depth: 5
               value: 0.
               norm_class_idx: 0
            -
               depth: 5
               value: 0.
               norm_class_idx: 0
            -
               depth: 3
               value: 0.
               norm_class_idx: 0
               splits:
                  - { var:0, quality:1.2823596191406250e+02,
                      le:2.1255478858947754e+00 }
            -
               depth: 4
               value: 1.
               norm_class_idx: 1
            -
               depth: 4
               value: 0.
               norm_class_idx: 0
               splits:
                  - { var:0, quality:1.2552795410156250e+02,
                      le:2.1604547500610352e+00 }
            -
               depth: 5
               value: 0.
               norm_class_idx: 0
            -
               depth: 5
               value: 0.
               norm_class_idx: 0
            -
               depth: 2
               value: 0.
               norm_class_idx: 0
               splits:
                  - { var:0, quality:2.0642856597900391e+01,
                      le:3.4975404739379883e+00 }
            -
               depth: 3
               value: 1.
               norm_class_idx: 1
               splits:
                  - { var:0, quality:17., le:3.2956876754760742e+00 }
            -
               depth: 4
               value: 0.
               norm_class_idx: 0
               splits:
                  - { var:0, quality:1.2736842155456543e+01,
                      le:3.0783543586730957e+00 }
            -
               depth: 5
               value: 1.
               norm_class_idx: 1
            -
               depth: 5
               value: 0.
               norm_class_idx: 0
            -
               depth: 4
               value: 1.
               norm_class_idx: 1
            -
               depth: 3
               value: 0.
               norm_class_idx: 0
      -
         nodes:
            -
               depth: 0
               value: 0.
               norm_class_idx: 0
               splits:
                  - { var:0, quality:8.6111914062500000e+03,
                      le:-2.1716016530990601e-01 }
            -
               depth: 1
               value: 0.
               norm_class_idx: 0
               splits:
                  - { var:0, quality:2.8883190917968750e+03,
                      le:-3.2874493598937988e+00 }
            -
               depth: 2
               value: 1.
               norm_class_idx: 1
               splits:
                  - { var:0, quality:1.6111110687255859e+01,
                      le:-3.6407675743103027e+00 }
            -
               depth: 3
               value: 1.
               norm_class_idx: 1
            -
               depth: 3
               value: 1.
               norm_class_idx: 1
               splits:
                  - { var:0, quality:1.3384614944458008e+01,
                      le:-3.5809707641601562e+00 }
            -
               depth: 4
               value: 0.
               norm_class_idx: 0
            -
               depth: 4
               value: 1.
               norm_class_idx: 1
               splits:
                  - { var:0, quality:9.2222223281860352e+00,
                      le:-3.5172276496887207e+00 }
            -
               depth: 5
               value: 0.
               norm_class_idx: 0
            -
               depth: 5
               value: 1.
               norm_class_idx: 1
            -
               depth: 2
               value: 0.
               norm_class_idx: 0
               splits:
                  - { var:0, quality:2.8790175781250000e+03,
                      le:-2.4779129028320312e+00 }
            -
               depth: 3
               value: 0.
               norm_class_idx: 0
               splits:
                  - { var:0, quality:8.0232482910156250e+01,
                      le:-2.7738626003265381e+00 }
            -
               depth: 4
               value: 0.
               norm_class_idx: 0
               splits:
                  - { var:0, quality:2.3642856597900391e+01,
                      le:-2.7838792800903320e+00 }
            -
               depth: 5
               value: 0.
               norm_class_idx: 0
            -
               depth: 5
               value: 1.
               norm_class_idx: 1
            -
               depth: 4
               value: 0.
               norm_class_idx: 0
               splits:
                  - { var:0, quality:5.8347827911376953e+01,
                      le:-2.5659389495849609e+00 }
            -
               depth: 5
               value: 0.
               norm_class_idx: 0
            -
               depth: 5
               value: 0.
               norm_class_idx: 0
            -
               depth: 3
               value: 0.
               norm_class_idx: 0
               splits:
                  - { var:0, quality:2.8027832031250000e+03,
                      le:-2.4678959846496582e+00 }
            -
               depth: 4
               value: 1.
               norm_class_idx: 1
            -
               depth: 4
               value: 0.
               norm_class_idx: 0
               splits:
                  - { var:0, quality:2.8022500000000000e+03,
                      le:-1.2082123756408691e+00 }
            -
               depth: 5
               value: 0.
               norm_class_idx: 0
            -
               depth: 5
               value: 0.
               norm_class_idx: 0
            -
               depth: 1
               value: 0.
               norm_class_idx: 0
               splits:
                  - { var:0, quality:5.7419130859375000e+03,
                      le:2.7286782264709473e+00 }
            -
               depth: 2
               value: 0.
               norm_class_idx: 0
               splits:
                  - { var:0, quality:5.7295424804687500e+03,
                      le:-3.3519551157951355e-02 }
            -
               depth: 3
               value: 0.
               norm_class_idx: 0
               splits:
                  - { var:0, quality:5.6469055175781250e+02,
                      le:-1.7254005372524261e-01 }
            -
               depth: 4
               value: 0.
               norm_class_idx: 0
               splits:
                  - { var:0, quality:1.6136045837402344e+02,
                      le:-1.7739666998386383e-01 }
            -
               depth: 5
               value: 0.
               norm_class_idx: 0
            -
               depth: 5
               value: 0.
               norm_class_idx: 0
            -
               depth: 4
               value: 0.
               norm_class_idx: 0
               splits:
                  - { var:0, quality:4.0977435302734375e+02,
                      le:-1.7011174559593201e-01 }
            -
               depth: 5
               value: 1.
               norm_class_idx: 1
            -
               depth: 5
               value: 0.
               norm_class_idx: 0
            -
               depth: 3
               value: 0.
               norm_class_idx: 0
               splits:
                  - { var:0, quality:5.1704575195312500e+03,
                      le:2.3395423889160156e+00 }
            -
               depth: 4
               value: 0.
               norm_class_idx: 0
               splits:
                  - { var:0, quality:5.1357280273437500e+03,
                      le:1.5813038349151611e+00 }
            -
               depth: 5
               value: 0.
               norm_class_idx: 0
            -
               depth: 5
               value: 0.
               norm_class_idx: 0
            -
               depth: 4
               value: 0.
               norm_class_idx: 0
               splits:
                  - { var:0, quality:3.9911010742187500e+01,
                      le:2.4931325912475586e+00 }
            -
               depth: 5
               value: 0.
               norm_class_idx: 0
            -
               depth: 5
               value: 0.
               norm_class_idx: 0
            -
               depth: 2
               value: 0.
               norm_class_idx: 0
               splits:
                  - { var:0, quality:1.7066667556762695e+01,
                      le:2.7623710632324219e+00 }
            -
               depth: 3
               value: 1.
               norm_class_idx: 1
            -
               depth: 3
               value: 0.
               norm_class_idx: 0
               splits:
                  - { var:0, quality:1.6518518447875977e+01,
                      le:2.8780190944671631e+00 }
            -
               depth: 4
               value: 0.
               norm_class_idx: 0
            -
               depth: 4
               value: 1.
               norm_class_idx: 1
               splits:
                  - { var:0, quality:1.4680000305175781e+01,
                      le:3.8223264217376709e+00 }
            -
               depth: 5
               value: 1.
               norm_class_idx: 1
            -
               depth: 5
               value: 0.
               norm_class_idx: 0
      -
         nodes:
            -
               depth: 0
               value: 0.
               norm_class_idx: 0
               splits:
                  - { var:0, quality:8.5168789062500000e+03,
                      le:-2.1564248204231262e-01 }
            -
               depth: 1
               value: 0.
               norm_class_idx: 0
               splits:
                  - { var:0, quality:2.7724782714843750e+03,
                      le:-3.2847175598144531e+00 }
            -
               depth: 2
               value: 1.
               norm_class_idx: 1
               splits:
                  - { var:0, quality:1.2800000190734863e+01,
                      le:-3.4768571853637695e+00 }
            -
               depth: 3
               value: 1.
               norm_class_idx: 1
            -
               depth: 3
               value: 1.
               norm_class_idx: 1
            -
               depth: 2
               value: 0.
               norm_class_idx: 0
               splits:
                  - { var:0, quality:2.7639584960937500e+03,
                      le:-2.4736633300781250e+00 }
            -
               depth: 3
               value: 0.
               norm_class_idx: 0
               splits:
                  - { var:0, quality:7.2855072021484375e+01,
                      le:-2.5556185245513916e+00 }
            -
               depth: 4
               value: 0.
               norm_class_idx: 0
               splits:
                  - { var:0, quality:5.6757575988769531e+01,
                      le:-2.5604753494262695e+00 }
            -
               depth: 5
               value: 0.
               norm_class_idx: 0
            -
               depth: 5
               value: 1.
               norm_class_idx: 1
            -
               depth: 4
               value: 0.
               norm_class_idx: 0
            -
               depth: 3
               value: 0.
               norm_class_idx: 0
               splits:
                  - { var:0, quality:2.6952321777343750e+03,
                      le:-2.1989202499389648e-01 }
            -
               depth: 4
               value: 0.
               norm_class_idx: 0
               splits:
                  - { var:0, quality:2.6886574707031250e+03,
                      le:-2.3571045398712158e+00 }
            -
               depth: 5
               value: 1.
               norm_class_idx: 1
            -
               depth: 5
               value: 0.
               norm_class_idx: 0
            -
               depth: 4
               value: 1.
               norm_class_idx: 1
               splits:
                  - { var:0, quality:15., le:-2.1685662865638733e-01 }
            -
               depth: 5
               value: 1.
               norm_class_idx: 1
            -
               depth: 5
               value: 0.
               norm_class_idx: 0
            -
               depth: 1
               value: 0.
               norm_class_idx: 0
               splits:
                  - { var:0, quality:5.7632416992187500e+03,
                      le:2.8780190944671631e+00 }
            -
               depth: 2
               value: 0.
               norm_class_idx: 0
               splits:
                  - { var:0, quality:5.7535219726562500e+03,
                      le:-1.8650281429290771e-01 }
            -
               depth: 3
               value: 0.
               norm_class_idx: 0
               splits:
                  - { var:0, quality:1.1524657440185547e+02,
                      le:-2.0350095629692078e-01 }
            -
               depth: 4
               value: 0.
               norm_class_idx: 0
            -
               depth: 4
               value: 0.
               norm_class_idx: 0
               splits:
                  - { var:0, quality:6.8112678527832031e+01,
                      le:-2.0289388298988342e-01 }
            -
               depth: 5
               value: 0.
               norm_class_idx: 0
            -
               depth: 5
               value: 0.
               norm_class_idx: 0
            -
               depth: 3
               value: 0.
               norm_class_idx: 0
               splits:
                  - { var:0, quality:5.6441274414062500e+03,
                      le:-1.5584544837474823e-01 }
            -
               depth: 4
               value: 0.
               norm_class_idx: 0
               splits:
                  - { var:0, quality:7.2329200744628906e+01,
                      le:-1.8498511612415314e-01 }
            -
               depth: 5
               value: 1.
               norm_class_idx: 1
            -
               depth: 5
               value: 0.
               norm_class_idx: 0
            -
               depth: 4
               value: 0.
               norm_class_idx: 0
               splits:
                  - { var:0, quality:5.5764326171875000e+03,
                      le:9.2687535285949707e-01 }
            -
               depth: 5
               value: 0.
               norm_class_idx: 0
            -
               depth: 5
               value: 0.
               norm_class_idx: 0
            -
               depth: 2
               value: 0.
               norm_class_idx: 0
               splits:
                  - { var:0, quality:1.3695652008056641e+01,
                      le:2.8837862014770508e+00 }
            -
               depth: 3
               value: 1.
               norm_class_idx: 1
            -
               depth: 3
               value: 0.
               norm_class_idx: 0
               splits:
                  - { var:0, quality:1.2862745285034180e+01,
                      le:2.9457082748413086e+00 }
            -
               depth: 4
               value: 0.
               norm_class_idx: 0
            -
               depth: 4
               value: 1.
               norm_class_idx: 1
               splits:
                  - { var:0, quality:1.1085714340209961e+01,
                      le:3.1830749511718750e+00 }
            -
               depth: 5
               value: 1.
               norm_class_idx: 1
            -
               depth: 5
               value: 0.
               norm_class_idx: 0
      -
         nodes:
            -
               depth: 0
               value: 0.
               norm_class_idx: 0
               splits:
                  - { var:0, quality:8.5033076171875000e+03,
                      le:-2.4599629640579224e-01 }
            -
               depth: 1
               value: 0.
               norm_class_idx: 0
               splits:
                  - { var:0, quality:2.7051752929687500e+03,
                      le:-3.2941269874572754e+00 }
            -
               depth: 2
               value: 1.
               norm_class_idx: 1
               splits:
                  - { var:0, quality:1.5461538314819336e+01,
                      le:-3.6343934535980225e+00 }
            -
               depth: 3
               value: 1.
               norm_class_idx: 1
            -
               depth: 3
               value: 1.
               norm_class_idx: 1
               splits:
                  - { var:0, quality:9.7222223281860352e+00,
                      le:-3.5151028633117676e+00 }
            -
               depth: 4
               value: 0.
               norm_class_idx: 0
            -
               depth: 4
               value: 1.
               norm_class_idx: 1
            -
               depth: 2
               value: 0.
               norm_class_idx: 0
               splits:
                  - { var:0, quality:2.6955065917968750e+03,
                      le:-2.4736633300781250e+00 }
            -
               depth: 3
               value: 0.
               norm_class_idx: 0
               splits:
                  - { var:0, quality:7.4529914855957031e+01,
                      le:-3.1001663208007812e+00 }
            -
               depth: 4
               value: 0.
               norm_class_idx: 0
            -
               depth: 4
               value: 0.
               norm_class_idx: 0
               splits:
                  - { var:0, quality:6.8834541320800781e+01,
                      le:-2.7371344566345215e+00 }
            -
               depth: 5
               value: 0.
               norm_class_idx: 0
            -
               depth: 5
               value: 0.
               norm_class_idx: 0
            -
               depth: 3
               value: 0.
               norm_class_idx: 0
               splits:
                  - { var:0, quality:2.6247644042968750e+03,
                      le:-2.4678959846496582e+00 }
            -
               depth: 4
               value: 1.
               norm_class_idx: 1
            -
               depth: 4
               value: 0.
               norm_class_idx: 0
               splits:
                  - { var:0, quality:2.6239558105468750e+03,
                      le:-4.0444326400756836e-01 }
            -
               depth: 5
               value: 0.
               norm_class_idx: 0
            -
               depth: 5
               value: 0.
               norm_class_idx: 0
            -
               depth: 1
               value: 0.
               norm_class_idx: 0
               splits:
                  - { var:0, quality:5.8150136718750000e+03,
                      le:2.0506149530410767e-01 }
            -
               depth: 2
               value: 0.
               norm_class_idx: 0
               splits:
                  - { var:0, quality:1.6048599853515625e+03,
                      le:1.7774304747581482e-01 }
            -
               depth: 3
               value: 0.
               norm_class_idx: 0
               splits:
                  - { var:0, quality:1.5202902832031250e+03,
                      le:1.5194231271743774e-01 }
            -
               depth: 4
               value: 0.
               norm_class_idx: 0
               splits:
                  - { var:0, quality:1.4302354736328125e+03,
                      le:1.4313969016075134e-01 }
            -
               depth: 5
               value: 0.
               norm_class_idx: 0
            -
               depth: 5
               value: 0.
               norm_class_idx: 0
            -
               depth: 4
               value: 0.
               norm_class_idx: 0
               splits:
                  - { var:0, quality:9.6339622497558594e+01,
                      le:1.6681566834449768e-01 }
            -
               depth: 5
               value: 0.
               norm_class_idx: 0
            -
               depth: 5
               value: 0.
               norm_class_idx: 0
            -
               depth: 3
               value: 0.
               norm_class_idx: 0
               splits:
                  - { var:0, quality:9.4642860412597656e+01,
                      le:1.8017135560512543e-01 }
            -
               depth: 4
               value: 1.
               norm_class_idx: 1
               splits:
                  - { var:0, quality:7.5428571701049805e+00,
                      le:1.7835012078285217e-01 }
            -
               depth: 5
               value: 1.
               norm_class_idx: 1
            -
               depth: 5
               value: 1.
               norm_class_idx: 1
            -
               depth: 4
               value: 0.
               norm_class_idx: 0
               splits:
                  - { var:0, quality:8.8397033691406250e+01,
                      le:1.9049166142940521e-01 }
            -
               depth: 5
               value: 0.
               norm_class_idx: 0
            -
               depth: 5
               value: 0.
               norm_class_idx: 0
            -
               depth: 2
               value: 0.
               norm_class_idx: 0
               splits:
                  - { var:0, quality:4.2149848632812500e+03,
                      le:7.4960911273956299e-01 }
            -
               depth: 3
               value: 0.
               norm_class_idx: 0
               splits:
                  - { var:0, quality:2.4197207031250000e+03,
                      le:2.4573561549186707e-01 }
            -
               depth: 4
               value: 0.
               norm_class_idx: 0
               splits:
                  - { var:0, quality:2.0955128479003906e+02,
                      le:2.3055870831012726e-01 }
            -
               depth: 5
               value: 0.
               norm_class_idx: 0
            -
               depth: 5
               value: 0.
               norm_class_idx: 0
            -
               depth: 4
               value: 0.
               norm_class_idx: 0
               splits:
                  - { var:0, quality:2.2134519042968750e+03,
                      le:3.0583617091178894e-01 }
            -
               depth: 5
               value: 0.
               norm_class_idx: 0
            -
               depth: 5
               value: 0.
               norm_class_idx: 0
            -
               depth: 3
               value: 0.
               norm_class_idx: 0
               splits:
                  - { var:0, quality:1.8018186035156250e+03,
                      le:7.5294798612594604e-01 }
            -
               depth: 4
               value: 1.
               norm_class_idx: 1
               splits:
                  - { var:0, quality:7., le:7.5051969289779663e-01 }
            -
               depth: 5
               value: 1.
               norm_class_idx: 1
            -
               depth: 5
               value: 0.
               norm_class_idx: 0
            -
               depth: 4
               value: 0.
               norm_class_idx: 0
               splits:
                  - { var:0, quality:1.7987158203125000e+03,
                      le:1.3008344173431396e+00 }
            -
               depth: 5
               value: 0.
               norm_class_idx: 0
            -
               depth: 5
               value: 0.
               norm_class_idx: 0
      -
         nodes:
            -
               depth: 0
               value: 0.
               norm_class_idx: 0
               splits:
                  - { var:0, quality:8.6062285156250000e+03,
                      le:-2.8970581293106079e-01 }
            -
               depth: 1
               value: 0.
               norm_class_idx: 0
               splits:
                  - { var:0, quality:2.5727219238281250e+03,
                      le:-3.2874493598937988e+00 }
            -
               depth: 2
               value: 1.
               norm_class_idx: 1
               splits:
                  - { var:0, quality:1.2142857551574707e+01,
                      le:-3.5005331039428711e+00 }
            -
               depth: 3
               value: 1.
               norm_class_idx: 1
            -
               depth: 3
               value: 1.
               norm_class_idx: 1
            -
               depth: 2
               value: 0.
               norm_class_idx: 0
               splits:
                  - { var:0, quality:2.5636074218750000e+03,
                      le:-4.0444326400756836e-01 }
            -
               depth: 3
               value: 0.
               norm_class_idx: 0
               splits:
                  - { var:0, quality:2.2895449218750000e+03,
                      le:-4.0747863054275513e-01 }
            -
               depth: 4
               value: 0.
               norm_class_idx: 0
               splits:
                  - { var:0, quality:2.2835759277343750e+03,
                      le:-4.1719186305999756e-01 }
            -
               depth: 5
               value: 0.
               norm_class_idx: 0
            -
               depth: 5
               value: 0.
               norm_class_idx: 0
            -
               depth: 4
               value: 1.
               norm_class_idx: 1
               splits:
                  - { var:0, quality:8.3999996185302734e+00,
                      le:-4.0535387396812439e-01 }
            -
               depth: 5
               value: 1.
               norm_class_idx: 1
            -
               depth: 5
               value: 0.
               norm_class_idx: 0
            -
               depth: 3
               value: 0.
               norm_class_idx: 0
               splits:
                  - { var:0, quality:2.8147763061523438e+02,
                      le:-3.0184733867645264e-01 }
            -
               depth: 4
               value: 0.
               norm_class_idx: 0
               splits:
                  - { var:0, quality:2.6574557495117188e+02,
                      le:-3.1247118115425110e-01 }
            -
               depth: 5
               value: 0.
               norm_class_idx: 0
            -
               depth: 5
               value: 0.
               norm_class_idx: 0
            -
               depth: 4
               value: 0.
               norm_class_idx: 0
               splits:
                  - { var:0, quality:1.8621212005615234e+01,
                      le:-2.9820486903190613e-01 }
            -
               depth: 5
               value: 1.
               norm_class_idx: 1
            -
               depth: 5
               value: 0.
               norm_class_idx: 0
            -
               depth: 1
               value: 0.
               norm_class_idx: 0
               splits:
                  - { var:0, quality:6.0501328125000000e+03,
                      le:2.7247321605682373e+00 }
            -
               depth: 2
               value: 0.
               norm_class_idx: 0
               splits:
                  - { var:0, quality:6.0382802734375000e+03,
                      le:-2.6538169011473656e-02 }
            -
               depth: 3
               value: 0.
               norm_class_idx: 0
               splits:
                  - { var:0, quality:8.2837524414062500e+02,
                      le:-3.0484165996313095e-02 }
            -
               depth: 4
               value: 0.
               norm_class_idx: 0
               splits:
                  - { var:0, quality:8.2350329589843750e+02,
                      le:-8.3906888961791992e-02 }
            -
               depth: 5
               value: 0.
               norm_class_idx: 0
            -
               depth: 5
               value: 0.
               norm_class_idx: 0
            -
               depth: 4
               value: 1.
               norm_class_idx: 1
               splits:
                  - { var:0, quality:8.8888893127441406e+00,
                      le:-2.9877088963985443e-02 }
            -
               depth: 5
               value: 1.
               norm_class_idx: 1
            -
               depth: 5
               value: 0.
               norm_class_idx: 0
            -
               depth: 3
               value: 0.
               norm_class_idx: 0
               splits:
                  - { var:0, quality:5.2186176757812500e+03,
                      le:1.5976948738098145e+00 }
            -
               depth: 4
               value: 0.
               norm_class_idx: 0
               splits:
                  - { var:0, quality:4.7376289062500000e+03,
                      le:7.9696106910705566e-01 }
            -
               depth: 5
               value: 0.
               norm_class_idx: 0
            -
               depth: 5
               value: 0.
               norm_class_idx: 0
            -
               depth: 4
               value: 0.
               norm_class_idx: 0
               splits:
                  - { var:0, quality:4.8592462158203125e+02,
                      le:2.3185982704162598e+00 }
            -
               depth: 5
               value: 0.
               norm_class_idx: 0
            -
               depth: 5
               value: 0.
               norm_class_idx: 0
            -
               depth: 2
               value: 0.
               norm_class_idx: 0
               splits:
                  - { var:0, quality:1.8896551132202148e+01,
                      le:2.7623710632324219e+00 }
            -
               depth: 3
               value: 1.
               norm_class_idx: 1
            -
               depth: 3
               value: 0.
               norm_class_idx: 0
               splits:
                  - { var:0, quality:1.7333333969116211e+01,
                      le:3.1830749511718750e+00 }
            -
               depth: 4
               value: 0.
               norm_class_idx: 0
               splits:
                  - { var:0, quality:1.7777778625488281e+01,
                      le:3.0410189628601074e+00 }
            -
               depth: 5
               value: 0.
               norm_class_idx: 0
            -
               depth: 5
               value: 1.
               norm_class_idx: 1
            -
               depth: 4
               value: 0.
               norm_class_idx: 0
      -
         nodes:
            -
               depth: 0
               value: 0.
               norm_class_idx: 0
               splits:
                  - { var:0, quality:8.5641074218750000e+03,
                      le:-2.1442833542823792e-01 }
            -
               depth: 1
               value: 0.
               norm_class_idx: 0
               splits:
                  - { var:0, quality:2.8609663085937500e+03,
                      le:-3.2847175598144531e+00 }
            -
               depth: 2
               value: 1.
               norm_class_idx: 1
               splits:
                  - { var:0, quality:1.0888889312744141e+01,
                      le:-3.6343934535980225e+00 }
            -
               depth: 3
               value: 1.
               norm_class_idx: 1
            -
               depth: 3
               value: 1.
               norm_class_idx: 1
            -
               depth: 2
               value: 0.
               norm_class_idx: 0
               splits:
                  - { var:0, quality:2.8562238769531250e+03,
                      le:-2.1503540873527527e-01 }
            -
               depth: 3
               value: 0.
               norm_class_idx: 0
               splits:
                  - { var:0, quality:2.8563757324218750e+03,
                      le:-2.2781848907470703e+00 }
            -
               depth: 4
               value: 0.
               norm_class_idx: 0
               splits:
                  - { var:0, quality:1.0886441040039062e+02,
                      le:-2.3212871551513672e+00 }
            -
               depth: 5
               value: 0.
               norm_class_idx: 0
            -
               depth: 5
               value: 0.
               norm_class_idx: 0
            -
               depth: 4
               value: 0.
               norm_class_idx: 0
               splits:
                  - { var:0, quality:2.7492375488281250e+03,
                      le:-2.0720820426940918e+00 }
            -
               depth: 5
               value: 0.
               norm_class_idx: 0
            -
               depth: 5
               value: 0.
               norm_class_idx: 0
            -
               depth: 3
               value: 1.
               norm_class_idx: 1
            -
               depth: 1
               value: 0.
               norm_class_idx: 0
               splits:
                  - { var:0, quality:5.7292211914062500e+03,
                      le:2.7247321605682373e+00 }
            -
               depth: 2
               value: 0.
               norm_class_idx: 0
               splits:
                  - { var:0, quality:5.7092143554687500e+03,
                      le:1.9534826278686523e-01 }
            -
               depth: 3
               value: 0.
               norm_class_idx: 0
               splits:
                  - { var:0, quality:1.4185773925781250e+03,
                      le:1.9352704286575317e-01 }
            -
               depth: 4
               value: 0.
               norm_class_idx: 0
               splits:
                  - { var:0, quality:1.4158779296875000e+03,
                      le:-2.0532217621803284e-01 }
            -
               depth: 5
               value: 0.
               norm_class_idx: 0
            -
               depth: 5
               value: 0.
               norm_class_idx: 0
            -
               depth: 4
               value: 1.
               norm_class_idx: 1
            -
               depth: 3
               value: 0.
               norm_class_idx: 0
               splits:
                  - { var:0, quality:4.3002128906250000e+03,
                      le:6.2940788269042969e-01 }
            -
               depth: 4
               value: 0.
               norm_class_idx: 0
               splits:
                  - { var:0, quality:2.1137070312500000e+03,
                      le:5.0131475925445557e-01 }
            -
               depth: 5
               value: 0.
               norm_class_idx: 0
            -
               depth: 5
               value: 0.
               norm_class_idx: 0
            -
               depth: 4
               value: 0.
               norm_class_idx: 0
               splits:
                  - { var:0, quality:2.1892702636718750e+03,
                      le:6.4701318740844727e-01 }
            -
               depth: 5
               value: 0.
               norm_class_idx: 0
            -
               depth: 5
               value: 0.
               norm_class_idx: 0
            -
               depth: 2
               value: 1.
               norm_class_idx: 1
               splits:
                  - { var:0, quality:2.3512195587158203e+01,
                      le:2.7769408226013184e+00 }
            -
               depth: 3
               value: 1.
               norm_class_idx: 1
            -
               depth: 3
               value: 1.
               norm_class_idx: 1
               splits:
                  - { var:0, quality:2.2837837219238281e+01,
                      le:2.8752870559692383e+00 }
            -
               depth: 4
               value: 0.
               norm_class_idx: 0
            -
               depth: 4
               value: 1.
               norm_class_idx: 1
               splits:
                  - { var:0, quality:2.0200000762939453e+01,
                      le:3.4975404739379883e+00 }
            -
               depth: 5
               value: 1.
               norm_class_idx: 1
            -
               depth: 5
               value: 0.
               norm_class_idx: 0
      -
         nodes:
            -
               depth: 0
               value: 0.
               norm_class_idx: 0
               splits:
                  - { var:0, quality:8.6863623046875000e+03,
                      le:-2.1442833542823792e-01 }
            -
               depth: 1
               value: 0.
               norm_class_idx: 0
               splits:
                  - { var:0, quality:2.9163242187500000e+03,
                      le:-3.6343934535980225e+00 }
            -
               depth: 2
               value: 1.
               norm_class_idx: 1
            -
               depth: 2
               value: 0.
               norm_class_idx: 0
               splits:
                  - { var:0, quality:2.9161083984375000e+03,
                      le:-2.1928493678569794e-01 }
            -
               depth: 3
               value: 0.
               norm_class_idx: 0
               splits:
                  - { var:0, quality:2.9074694824218750e+03,
                      le:-2.4351139068603516e+00 }
            -
               depth: 4
               value: 0.
               norm_class_idx: 0
               splits:
                  - { var:0, quality:9.8298454284667969e+01,
                      le:-2.6075236797332764e+00 }
            -
               depth: 5
               value: 0.
               norm_class_idx: 0
            -
               depth: 5
               value: 0.
               norm_class_idx: 0
            -
               depth: 4
               value: 0.
               norm_class_idx: 0
               splits:
                  - { var:0, quality:2.8144436035156250e+03,
                      le:-2.4238829612731934e+00 }
            -
               depth: 5
               value: 1.
               norm_class_idx: 1
            -
               depth: 5
               value: 0.
               norm_class_idx: 0
            -
               depth: 3
               value: 1.
               norm_class_idx: 1
               splits:
                  - { var:0, quality:1.7125000000000000e+01,
                      le:-2.1685662865638733e-01 }
            -
               depth: 4
               value: 1.
               norm_class_idx: 1
            -
               depth: 4
               value: 0.
               norm_class_idx: 0
               splits:
                  - { var:0, quality:1.1533333778381348e+01,
                      le:-2.1503540873527527e-01 }
            -
               depth: 5
               value: 0.
               norm_class_idx: 0
            -
               depth: 5
               value: 1.
               norm_class_idx: 1
            -
               depth: 1
               value: 0.
               norm_class_idx: 0
               splits:
                  - { var:0, quality:5.7837407226562500e+03,
                      le:2.9447975158691406e+00 }
            -
               depth: 2
               value: 0.
               norm_class_idx: 0
               splits:
                  - { var:0, quality:5.7795917968750000e+03,
                      le:-2.0167972147464752e-01 }
            -
               depth: 3
               value: 0.
               norm_class_idx: 0
            -
               depth: 3
               value: 0.
               norm_class_idx: 0
               splits:
                  - { var:0, quality:5.7230898437500000e+03,
                      le:1.5976948738098145e+00 }
            -
               depth: 4
               value: 0.
               norm_class_idx: 0
               splits:
                  - { var:0, quality:5.2449428710937500e+03,
                      le:1.5479145050048828e+00 }
            -
               depth: 5
               value: 0.
               norm_class_idx: 0
            -
               depth: 5
               value: 0.
               norm_class_idx: 0
            -
               depth: 4
               value: 0.
               norm_class_idx: 0
               splits:
                  - { var:0, quality:4.8586358642578125e+02,
                      le:2.7247321605682373e+00 }
            -
               depth: 5
               value: 0.
               norm_class_idx: 0
            -
               depth: 5
               value: 0.
               norm_class_idx: 0
            -
               depth: 2
               value: 1.
               norm_class_idx: 1
      -
         nodes:
            -
               depth: 0
               value: 0.
               norm_class_idx: 0
               splits:
                  - { var:0, quality:8.4353144531250000e+03,
                      le:-1.5584544837474823e-01 }
            -
               depth: 1
               value: 0.
               norm_class_idx: 0
               splits:
                  - { var:0, quality:2.9718833007812500e+03,
                      le:-3.3429965972900391e+00 }
            -
               depth: 2
               value: 1.
               norm_class_idx: 1
               splits:
                  - { var:0, quality:1.8333333969116211e+01,
                      le:-3.5266373157501221e+00 }
            -
               depth: 3
               value: 1.
               norm_class_idx: 1
            -
               depth: 3
               value: 1.
               norm_class_idx: 1
            -
               depth: 2
               value: 0.
               norm_class_idx: 0
               splits:
                  - { var:0, quality:2.9586647949218750e+03,
                      le:-1.7496836185455322e-01 }
            -
               depth: 3
               value: 0.
               norm_class_idx: 0
               splits:
                  - { var:0, quality:2.9186018066406250e+03,
                      le:-2.1716016530990601e-01 }
            -
               depth: 4
               value: 0.
               norm_class_idx: 0
               splits:
                  - { var:0, quality:2.7774165039062500e+03,
                      le:-2.4785199165344238e+00 }
            -
               depth: 5
               value: 0.
               norm_class_idx: 0
            -
               depth: 5
               value: 0.
               norm_class_idx: 0
            -
               depth: 4
               value: 0.
               norm_class_idx: 0
               splits:
                  - { var:0, quality:1.4593103027343750e+02,
                      le:-1.8710988759994507e-01 }
            -
               depth: 5
               value: 0.
               norm_class_idx: 0
            -
               depth: 5
               value: 0.
               norm_class_idx: 0
            -
               depth: 3
               value: 0.
               norm_class_idx: 0
               splits:
                  - { var:0, quality:4.8623287200927734e+01,
                      le:-1.7314712703227997e-01 }
            -
               depth: 4
               value: 1.
               norm_class_idx: 1
               splits:
                  - { var:0, quality:1.1199999809265137e+01,
                      le:-1.7375420033931732e-01 }
            -
               depth: 5
               value: 0.
               norm_class_idx: 0
            -
               depth: 5
               value: 1.
               norm_class_idx: 1
            -
               depth: 4
               value: 0.
               norm_class_idx: 0
               splits:
                  - { var:0, quality:4.1656715393066406e+01,
                      le:-1.7254005372524261e-01 }
            -
               depth: 5
               value: 0.
               norm_class_idx: 0
            -
               depth: 5
               value: 0.
               norm_class_idx: 0
            -
               depth: 1
               value: 0.
               norm_class_idx: 0
               splits:
                  - { var:0, quality:5.4885390625000000e+03,
                      le:2.7247321605682373e+00 }
            -
               depth: 2
               value: 0.
               norm_class_idx: 0
               splits:
                  - { var:0, quality:5.4757373046875000e+03,
                      le:1.5976948738098145e+00 }
            -
               depth: 3
               value: 0.
               norm_class_idx: 0
               splits:
                  - { var:0, quality:5.0136826171875000e+03,
                      le:9.9729621410369873e-01 }
            -
               depth: 4
               value: 0.
               norm_class_idx: 0
               splits:
                  - { var:0, quality:4.3065039062500000e+03,
                      le:2.2145256400108337e-01 }
            -
               depth: 5
               value: 0.
               norm_class_idx: 0
            -
               depth: 5
               value: 0.
               norm_class_idx: 0
            -
               depth: 4
               value: 0.
               norm_class_idx: 0
               splits:
                  - { var:0, quality:7.1407458496093750e+02,
                      le:1.0470764636993408e+00 }
            -
               depth: 5
               value: 0.
               norm_class_idx: 0
            -
               depth: 5
               value: 0.
               norm_class_idx: 0
            -
               depth: 3
               value: 0.
               norm_class_idx: 0
               splits:
                  - { var:0, quality:4.6911456298828125e+02,
                      le:2.2581939697265625e+00 }
            -
               depth: 4
               value: 0.
               norm_class_idx: 0
               splits:
                  - { var:0, quality:4.0698629760742188e+02,
                      le:1.9394788742065430e+00 }
            -
               depth: 5
               value: 0.
               norm_class_idx: 0
            -
               depth: 5
               value: 0.
               norm_class_idx: 0
            -
               depth: 4
               value: 0.
               norm_class_idx: 0
               splits:
                  - { var:0, quality:6.6688888549804688e+01,
                      le:2.2630505561828613e+00 }
            -
               depth: 5
               value: 1.
               norm_class_idx: 1
            -
               depth: 5
               value: 0.
               norm_class_idx: 0
            -
               depth: 2
               value: 0.
               norm_class_idx: 0
               splits:
                  - { var:0, quality:1.8362636566162109e+01,
                      le:3.1830749511718750e+00 }
            -
               depth: 3
               value: 1.
               norm_class_idx: 1
               splits:
                  - { var:0, quality:1.6060606002807617e+01,
                      le:2.9447975158691406e+00 }
            -
               depth: 4
               value: 0.
               norm_class_idx: 0
               splits:
                  - { var:0, quality:1.0555555343627930e+01,
                      le:2.9074621200561523e+00 }
            -
               depth: 5
               value: 1.
               norm_class_idx: 1
            -
               depth: 5
               value: 0.
               norm_class_idx: 0
            -
               depth: 4
               value: 1.
               norm_class_idx: 1
               splits:
                  - { var:0, quality:8.2222223281860352e+00,
                      le:3.0783543586730957e+00 }
            -
               depth: 5
               value: 1.
               norm_class_idx: 1
            -
               depth: 5
               value: 0.
               norm_class_idx: 0
            -
               depth: 3
               value: 0.
               norm_class_idx: 0
      -
         nodes:
            -
               depth: 0
               value: 0.
               norm_class_idx: 0
               splits:
                  - { var:0, quality:8.5329755859375000e+03,
                      le:-2.1685662865638733e-01 }
            -
               depth: 1
               value: 0.
               norm_class_idx: 0
               splits:
                  - { var:0, quality:2.7405937500000000e+03,
                      le:-3.2874493598937988e+00 }
            -
               depth: 2
               value: 1.
               norm_class_idx: 1
               splits:
                  - { var:0, quality:1.2282828330993652e+01,
                      le:-3.5172276496887207e+00 }
            -
               depth: 3
               value: 0.
               norm_class_idx: 0
            -
               depth: 3
               value: 1.
               norm_class_idx: 1
               splits:
                  - { var:0, quality:8., le:-3.5005331039428711e+00 }
            -
               depth: 4
               value: 1.
               norm_class_idx: 1
            -
               depth: 4
               value: 1.
               norm_class_idx: 1
            -
               depth: 2
               value: 0.
               norm_class_idx: 0
               splits:
                  - { var:0, quality:2.7344389648437500e+03,
                      le:-2.4757881164550781e+00 }
            -
               depth: 3
               value: 0.
               norm_class_idx: 0
               splits:
                  - { var:0, quality:7.5655059814453125e+01,
                      le:-3.0937919616699219e+00 }
            -
               depth: 4
               value: 0.
               norm_class_idx: 0
            -
               depth: 4
               value: 0.
               norm_class_idx: 0
               splits:
                  - { var:0, quality:7.1622314453125000e+01,
                      le:-2.6257359981536865e+00 }
            -
               depth: 5
               value: 0.
               norm_class_idx: 0
            -
               depth: 5
               value: 0.
               norm_class_idx: 0
            -
               depth: 3
               value: 0.
               norm_class_idx: 0
               splits:
                  - { var:0, quality:2.6648493652343750e+03,
                      le:-2.1837432682514191e-01 }
            -
               depth: 4
               value: 0.
               norm_class_idx: 0
               splits:
                  - { var:0, quality:2.6647282714843750e+03,
                      le:-4.1597771644592285e-01 }
            -
               depth: 5
               value: 0.
               norm_class_idx: 0
            -
               depth: 5
               value: 0.
               norm_class_idx: 0
            -
               depth: 4
               value: 1.
               norm_class_idx: 1
            -
               depth: 1
               value: 0.
               norm_class_idx: 0
               splits:
                  - { var:0, quality:5.8060590820312500e+03,
                      le:2.7147154808044434e+00 }
            -
               depth: 2
               value: 0.
               norm_class_idx: 0
               splits:
                  - { var:0, quality:5.7962392578125000e+03,
                      le:-3.3519551157951355e-02 }
            -
               depth: 3
               value: 0.
               norm_class_idx: 0
               splits:
                  - { var:0, quality:5.5088983154296875e+02,
                      le:-5.4767221212387085e-02 }
            -
               depth: 4
               value: 0.
               norm_class_idx: 0
               splits:
                  - { var:0, quality:4.8921090698242188e+02,
                      le:-1.8650281429290771e-01 }
            -
               depth: 5
               value: 0.
               norm_class_idx: 0
            -
               depth: 5
               value: 0.
               norm_class_idx: 0
            -
               depth: 4
               value: 0.
               norm_class_idx: 0
               splits:
                  - { var:0, quality:6.5723701477050781e+01,
                      le:-5.3553070873022079e-02 }
            -
               depth: 5
               value: 1.
               norm_class_idx: 1
            -
               depth: 5
               value: 0.
               norm_class_idx: 0
            -
               depth: 3
               value: 0.
               norm_class_idx: 0
               splits:
                  - { var:0, quality:5.2524370117187500e+03,
                      le:8.5645449161529541e-01 }
            -
               depth: 4
               value: 0.
               norm_class_idx: 0
               splits:
                  - { var:0, quality:3.7473942871093750e+03,
                      le:-1.2271872721612453e-02 }
            -
               depth: 5
               value: 0.
               norm_class_idx: 0
            -
               depth: 5
               value: 0.
               norm_class_idx: 0
            -
               depth: 4
               value: 0.
               norm_class_idx: 0
               splits:
                  - { var:0, quality:1.5103493652343750e+03,
                      le:1.4082870483398438e+00 }
            -
               depth: 5
               value: 0.
               norm_class_idx: 0
            -
               depth: 5
               value: 0.
               norm_class_idx: 0
            -
               depth: 2
               value: 0.
               norm_class_idx: 0
               splits:
                  - { var:0, quality:1.5363636016845703e+01,
                      le:3.4975404739379883e+00 }
            -
               depth: 3
               value: 1.
               norm_class_idx: 1
               splits:
                  - { var:0, quality:1.2526315689086914e+01,
                      le:3.3542704582214355e+00 }
            -
               depth: 4
               value: 1.
               norm_class_idx: 1
               splits:
                  - { var:0, quality:1.1794871330261230e+01,
                      le:3.0783543586730957e+00 }
            -
               depth: 5
               value: 1.
               norm_class_idx: 1
            -
               depth: 5
               value: 0.
               norm_class_idx: 0
            -
               depth: 4
               value: 1.
               norm_class_idx: 1
            -
               depth: 3
               value: 0.
               norm_class_idx: 0
      -
         nodes:
            -
               depth: 0
               value: 0.
               norm_class_idx: 0
               splits:
                  - { var:0, quality:8.6039179687500000e+03,
                      le:-2.1412479877471924e-01 }
            -
               depth: 1
               value: 0.
               norm_class_idx: 0
               splits:
                  - { var:0, quality:2.8307541503906250e+03,
                      le:-3.2874493598937988e+00 }
            -
               depth: 2
               value: 1.
               norm_class_idx: 1
               splits:
                  - { var:0, quality:17., le:-3.5005331039428711e+00 }
            -
               depth: 3
               value: 1.
               norm_class_idx: 1
            -
               depth: 3
               value: 1.
               norm_class_idx: 1
            -
               depth: 2
               value: 0.
               norm_class_idx: 0
               splits:
                  - { var:0, quality:2.8198278808593750e+03,
                      le:-2.4751811027526855e+00 }
            -
               depth: 3
               value: 0.
               norm_class_idx: 0
               splits:
                  - { var:0, quality:8.3525001525878906e+01,
                      le:-2.9647881984710693e+00 }
            -
               depth: 4
               value: 0.
               norm_class_idx: 0
               splits:
                  - { var:0, quality:1.4142857551574707e+01,
                      le:-2.9660024642944336e+00 }
            -
               depth: 5
               value: 0.
               norm_class_idx: 0
            -
               depth: 5
               value: 1.
               norm_class_idx: 1
            -
               depth: 4
               value: 0.
               norm_class_idx: 0
               splits:
                  - { var:0, quality:7.2551727294921875e+01,
                      le:-2.6075236797332764e+00 }
            -
               depth: 5
               value: 0.
               norm_class_idx: 0
            -
               depth: 5
               value: 0.
               norm_class_idx: 0
            -
               depth: 3
               value: 0.
               norm_class_idx: 0
               splits:
                  - { var:0, quality:2.7430336914062500e+03,
                      le:-2.3613541126251221e+00 }
            -
               depth: 4
               value: 1.
               norm_class_idx: 1
               splits:
                  - { var:0, quality:1.3533333778381348e+01,
                      le:-2.3722815513610840e+00 }
            -
               depth: 5
               value: 0.
               norm_class_idx: 0
            -
               depth: 5
               value: 1.
               norm_class_idx: 1
            -
               depth: 4
               value: 0.
               norm_class_idx: 0
               splits:
                  - { var:0, quality:2.7362219238281250e+03,
                      le:-2.1503540873527527e-01 }
            -
               depth: 5
               value: 0.
               norm_class_idx: 0
            -
               depth: 5
               value: 1.
               norm_class_idx: 1
            -
               depth: 1
               value: 0.
               norm_class_idx: 0
               splits:
                  - { var:0, quality:5.7944560546875000e+03,
                      le:2.8752870559692383e+00 }
            -
               depth: 2
               value: 0.
               norm_class_idx: 0
               splits:
                  - { var:0, quality:5.7898691406250000e+03,
                      le:-2.6841707527637482e-02 }
            -
               depth: 3
               value: 0.
               norm_class_idx: 0
               splits:
                  - { var:0, quality:6.1465209960937500e+02,
                      le:-1.1547486484050751e-01 }
            -
               depth: 4
               value: 0.
               norm_class_idx: 0
               splits:
                  - { var:0, quality:3.4880325317382812e+02,
                      le:-1.5129238367080688e-01 }
            -
               depth: 5
               value: 0.
               norm_class_idx: 0
            -
               depth: 5
               value: 0.
               norm_class_idx: 0
            -
               depth: 4
               value: 0.
               norm_class_idx: 0
               splits:
                  - { var:0, quality:2.7282843017578125e+02,
                      le:-1.1486779153347015e-01 }
            -
               depth: 5
               value: 1.
               norm_class_idx: 1
            -
               depth: 5
               value: 0.
               norm_class_idx: 0
            -
               depth: 3
               value: 0.
               norm_class_idx: 0
               splits:
                  - { var:0, quality:5.1829482421875000e+03,
                      le:9.7301316261291504e-01 }
            -
               depth: 4
               value: 0.
               norm_class_idx: 0
               splits:
                  - { var:0, quality:3.9626362304687500e+03,
                      le:2.2509501874446869e-01 }
            -
               depth: 5
               value: 0.
               norm_class_idx: 0
            -
               depth: 5
               value: 0.
               norm_class_idx: 0
            -
               depth: 4
               value: 0.
               norm_class_idx: 0
               splits:
                  - { var:0, quality:1.2279676513671875e+03,
                      le:1.3591138124465942e+00 }
            -
               depth: 5
               value: 0.
               norm_class_idx: 0
            -
               depth: 5
               value: 0.
               norm_class_idx: 0
            -
               depth: 2
               value: 1.
               norm_class_idx: 1
               splits:
                  - { var:0, quality:9.1666669845581055e+00,
                      le:2.8977489471435547e+00 }
            -
               depth: 3
               value: 1.
               norm_class_idx: 1
            -
               depth: 3
               value: 0.
               norm_class_idx: 0
               splits:
                  - { var:0, quality:7., le:3.8223264217376709e+00 }
            -
               depth: 4
               value: 0.
               norm_class_idx: 0
            -
               depth: 4
               value: 0.
               norm_class_idx: 0
      -
         nodes:
            -
               depth: 0
               value: 0.
               norm_class_idx: 0
               splits:
                  - { var:0, quality:8.5469677734375000e+03,
                      le:-2.1442833542823792e-01 }
            -
               depth: 1
               value: 0.
               norm_class_idx: 0
               splits:
                  - { var:0, quality:2.8011640625000000e+03,
                      le:-3.4164528846740723e+00 }
            -
               depth: 2
               value: 1.
               norm_class_idx: 1
               splits:
                  - { var:0, quality:1.3909090995788574e+01,
                      le:-3.6343934535980225e+00 }
            -
               depth: 3
               value: 1.
               norm_class_idx: 1
            -
               depth: 3
               value: 1.
               norm_class_idx: 1
               splits:
                  - { var:0, quality:8.3333330154418945e+00,
                      le:-3.4850525856018066e+00 }
            -
               depth: 4
               value: 0.
               norm_class_idx: 0
            -
               depth: 4
               value: 1.
               norm_class_idx: 1
            -
               depth: 2
               value: 0.
               norm_class_idx: 0
               splits:
                  - { var:0, quality:2.7943347167968750e+03,
                      le:-2.1807079017162323e-01 }
            -
               depth: 3
               value: 0.
               norm_class_idx: 0
               splits:
                  - { var:0, quality:2.7853684082031250e+03,
                      le:-4.1415646672248840e-01 }
            -
               depth: 4
               value: 0.
               norm_class_idx: 0
               splits:
                  - { var:0, quality:2.3031689453125000e+03,
                      le:-4.1962015628814697e-01 }
            -
               depth: 5
               value: 0.
               norm_class_idx: 0
            -
               depth: 5
               value: 1.
               norm_class_idx: 1
            -
               depth: 4
               value: 0.
               norm_class_idx: 0
               splits:
                  - { var:0, quality:4.9289459228515625e+02,
                      le:-3.2916578650474548e-01 }
            -
               depth: 5
               value: 0.
               norm_class_idx: 0
            -
               depth: 5
               value: 0.
               norm_class_idx: 0
            -
               depth: 3
               value: 1.
               norm_class_idx: 1
               splits:
                  - { var:0, quality:13., le:-2.1685662865638733e-01 }
            -
               depth: 4
               value: 1.
               norm_class_idx: 1
            -
               depth: 4
               value: 0.
               norm_class_idx: 0
               splits:
                  - { var:0, quality:10., le:-2.1503540873527527e-01 }
            -
               depth: 5
               value: 0.
               norm_class_idx: 0
            -
               depth: 5
               value: 1.
               norm_class_idx: 1
            -
               depth: 1
               value: 0.
               norm_class_idx: 0
               splits:
                  - { var:0, quality:5.7699243164062500e+03,
                      le:2.9196038246154785e+00 }
            -
               depth: 2
               value: 0.
               norm_class_idx: 0
               splits:
                  - { var:0, quality:5.7568022460937500e+03,
                      le:-1.8225327134132385e-01 }
            -
               depth: 3
               value: 0.
               norm_class_idx: 0
               splits:
                  - { var:0, quality:1.3317431640625000e+02,
                      le:-2.0350095629692078e-01 }
            -
               depth: 4
               value: 0.
               norm_class_idx: 0
            -
               depth: 4
               value: 0.
               norm_class_idx: 0
               splits:
                  - { var:0, quality:9.5146568298339844e+01,
                      le:-2.0107264816761017e-01 }
            -
               depth: 5
               value: 0.
               norm_class_idx: 0
            -
               depth: 5
               value: 0.
               norm_class_idx: 0
            -
               depth: 3
               value: 0.
               norm_class_idx: 0
               splits:
                  - { var:0, quality:5.6278911132812500e+03,
                      le:-1.7041528224945068e-01 }
            -
               depth: 4
               value: 0.
               norm_class_idx: 0
               splits:
                  - { var:0, quality:3.5982143402099609e+01,
                      le:-1.7375420033931732e-01 }
            -
               depth: 5
               value: 0.
               norm_class_idx: 0
            -
               depth: 5
               value: 1.
               norm_class_idx: 1
            -
               depth: 4
               value: 0.
               norm_class_idx: 0
               splits:
                  - { var:0, quality:5.5956372070312500e+03,
                      le:1.4085905551910400e+00 }
            -
               depth: 5
               value: 0.
               norm_class_idx: 0
            -
               depth: 5
               value: 0.
               norm_class_idx: 0
            -
               depth: 2
               value: 1.
               norm_class_idx: 1
               splits:
                  - { var:0, quality:1.8083333969116211e+01,
                      le:3.1830749511718750e+00 }
            -
               depth: 3
               value: 1.
               norm_class_idx: 1
               splits:
                  - { var:0, quality:1.4899999618530273e+01,
                      le:3.0410189628601074e+00 }
            -
               depth: 4
               value: 1.
               norm_class_idx: 1
               splits:
                  - { var:0, quality:1.3882352828979492e+01,
                      le:2.9836504459381104e+00 }
            -
               depth: 5
               value: 1.
               norm_class_idx: 1
            -
               depth: 5
               value: 0.
               norm_class_idx: 0
            -
               depth: 4
               value: 1.
               norm_class_idx: 1
            -
               depth: 3
               value: 0.
               norm_class_idx: 0
      -
         nodes:
            -
               depth: 0
               value: 0.
               norm_class_idx: 0
               splits:
                  - { var:0, quality:8.6673544921875000e+03,
                      le:-2.0770942792296410e-02 }
            -
               depth: 1
               value: 0.
               norm_class_idx: 0
               splits:
                  - { var:0, quality:3.4210861816406250e+03,
                      le:-3.2874493598937988e+00 }
            -
               depth: 2
               value: 1.
               norm_class_idx: 1
               splits:
                  - { var:0, quality:11., le:-3.5172276496887207e+00 }
            -
               depth: 3
               value: 1.
               norm_class_idx: 1
            -
               depth: 3
               value: 1.
               norm_class_idx: 1
            -
               depth: 2
               value: 0.
               norm_class_idx: 0
               splits:
                  - { var:0, quality:3.4147734375000000e+03,
                      le:-2.4736633300781250e+00 }
            -
               depth: 3
               value: 0.
               norm_class_idx: 0
               splits:
                  - { var:0, quality:6.8847457885742188e+01,
                      le:-2.5522794723510742e+00 }
            -
               depth: 4
               value: 0.
               norm_class_idx: 0
               splits:
                  - { var:0, quality:5.1551723480224609e+01,
                      le:-2.5592610836029053e+00 }
            -
               depth: 5
               value: 0.
               norm_class_idx: 0
            -
               depth: 5
               value: 1.
               norm_class_idx: 1
            -
               depth: 4
               value: 0.
               norm_class_idx: 0
            -
               depth: 3
               value: 0.
               norm_class_idx: 0
               splits:
                  - { var:0, quality:3.3523886718750000e+03,
                      le:-2.3616576194763184e+00 }
            -
               depth: 4
               value: 1.
               norm_class_idx: 1
               splits:
                  - { var:0, quality:1.4526315689086914e+01,
                      le:-2.3653001785278320e+00 }
            -
               depth: 5
               value: 0.
               norm_class_idx: 0
            -
               depth: 5
               value: 1.
               norm_class_idx: 1
            -
               depth: 4
               value: 0.
               norm_class_idx: 0
               splits:
                  - { var:0, quality:3.3439343261718750e+03,
                      le:-2.1685662865638733e-01 }
            -
               depth: 5
               value: 0.
               norm_class_idx: 0
            -
               depth: 5
               value: 0.
               norm_class_idx: 0
            -
               depth: 1
               value: 0.
               norm_class_idx: 0
               splits:
                  - { var:0, quality:5.2627065429687500e+03,
                      le:3.1308665275573730e+00 }
            -
               depth: 2
               value: 0.
               norm_class_idx: 0
               splits:
                  - { var:0, quality:5.2598676757812500e+03,
                      le:1.0797032155096531e-02 }
            -
               depth: 3
               value: 0.
               norm_class_idx: 0
               splits:
                  - { var:0, quality:1.2942173767089844e+02,
                      le:2.9050381854176521e-03 }
            -
               depth: 4
               value: 0.
               norm_class_idx: 0
               splits:
                  - { var:0, quality:9.0054054260253906e+01,
                      le:-5.5940318852663040e-03 }
            -
               depth: 5
               value: 0.
               norm_class_idx: 0
            -
               depth: 5
               value: 0.
               norm_class_idx: 0
            -
               depth: 4
               value: 0.
               norm_class_idx: 0
               splits:
                  - { var:0, quality:3.9900001525878906e+01,
                      le:7.7616497874259949e-03 }
            -
               depth: 5
               value: 0.
               norm_class_idx: 0
            -
               depth: 5
               value: 0.
               norm_class_idx: 0
            -
               depth: 3
               value: 0.
               norm_class_idx: 0
               splits:
                  - { var:0, quality:5.1325512695312500e+03,
                      le:2.1117331460118294e-02 }
            -
               depth: 4
               value: 0.
               norm_class_idx: 0
               splits:
                  - { var:0, quality:4.8571430206298828e+01,
                      le:1.9903179258108139e-02 }
            -
               depth: 5
               value: 0.
               norm_class_idx: 0
            -
               depth: 5
               value: 0.
               norm_class_idx: 0
            -
               depth: 4
               value: 0.
               norm_class_idx: 0
               splits:
                  - { var:0, quality:5.0875068359375000e+03,
                      le:8.0970966815948486e-01 }
            -
               depth: 5
               value: 0.
               norm_class_idx: 0
            -
               depth: 5
               value: 0.
               norm_class_idx: 0
            -
               depth: 2
               value: 1.
               norm_class_idx: 1
      -
         nodes:
            -
               depth: 0
               value: 0.
               norm_class_idx: 0
               splits:
                  - { var:0, quality:8.5070380859375000e+03,
                      le:-2.1412479877471924e-01 }
            -
               depth: 1
               value: 0.
               norm_class_idx: 0
               splits:
                  - { var:0, quality:2.8019062500000000e+03,
                      le:-3.2847175598144531e+00 }
            -
               depth: 2
               value: 1.
               norm_class_idx: 1
               splits:
                  - { var:0, quality:1.4636363983154297e+01,
                      le:-3.6343934535980225e+00 }
            -
               depth: 3
               value: 1.
               norm_class_idx: 1
            -
               depth: 3
               value: 1.
               norm_class_idx: 1
               splits:
                  - { var:0, quality:7.8000001907348633e+00,
                      le:-3.5809707641601562e+00 }
            -
               depth: 4
               value: 0.
               norm_class_idx: 0
            -
               depth: 4
               value: 1.
               norm_class_idx: 1
            -
               depth: 2
               value: 0.
               norm_class_idx: 0
               splits:
                  - { var:0, quality:2.7940419921875000e+03,
