%YAML:1.0
---
opencv_ml_rtrees:
   format: 3
   is_classifier: 1
   var_all: 6
   var_count: 5
   ord_var_count: 5
   cat_var_count: 1
   training_params:
      use_surrogates: 0
      max_categories: 10
      regression_accuracy: 0.
      max_depth: 5
      min_sample_count: 10
      cross_validation_folds: 0
      nactive_vars: 0
   global_var_idx: 1
   var_idx: [ 0, 1, 2, 3, 4 ]
   var_type: [ 0, 0, 0, 0, 0, 1 ]
   cat_ofs: [ 0, 0, 0, 0, 0, 0, 0, 0, 0, 0 ]
   class_labels: [ 0, 1 ]
   missing_subst: [ 0., 0., 0., 0., 0., 0. ]
   oob_error: 1.6743436204514048e-01
   ntrees: 50
   trees:
      -
         nodes:
            -
               depth: 0
               value: 0.
               norm_class_idx: 0
               splits:
                  - { var:4, quality:8.5279091796875000e+03,
                      le:-4.6171836555004120e-02 }
            -
               depth: 1
               value: 0.
               norm_class_idx: 0
               splits:
                  - { var:2, quality:3.3705954589843750e+03,
                      le:1.8653233349323273e-01 }
            -
               depth: 2
               value: 0.
               norm_class_idx: 0
               splits:
                  - { var:2, quality:1.6670078125000000e+03,
                      le:1.2528440356254578e-01 }
            -
               depth: 3
               value: 0.
               norm_class_idx: 0
               splits:
                  - { var:4, quality:1.4228598632812500e+03,
                      le:-5.5280625820159912e-02 }
            -
               depth: 4
               value: 0.
               norm_class_idx: 0
               splits:
                  - { var:4, quality:1.4062792968750000e+03,
                      le:-8.4732383489608765e-02 }
            -
               depth: 5
               value: 0.
               norm_class_idx: 0
            -
               depth: 5
               value: 0.
               norm_class_idx: 0
            -
               depth: 4
               value: 1.
               norm_class_idx: 1
               splits:
                  - { var:2, quality:2.0841176986694336e+01,
                      le:-1.3508592545986176e-01 }
            -
               depth: 5
               value: 0.
               norm_class_idx: 0
            -
               depth: 5
               value: 1.
               norm_class_idx: 1
            -
               depth: 3
               value: 0.
               norm_class_idx: 0
               splits:
                  - { var:4, quality:2.6231646728515625e+02,
                      le:-5.0738030672073364e-01 }
            -
               depth: 4
               value: 0.
               norm_class_idx: 0
               splits:
                  - { var:1, quality:2.5741876220703125e+02,
                      le:3.4212836623191833e-01 }
            -
               depth: 5
               value: 0.
               norm_class_idx: 0
            -
               depth: 5
               value: 0.
               norm_class_idx: 0
            -
               depth: 4
               value: 1.
               norm_class_idx: 1
            -
               depth: 2
               value: 0.
               norm_class_idx: 0
               splits:
                  - { var:3, quality:1.7154497070312500e+03,
                      le:-5.4371318817138672e+00 }
            -
               depth: 3
               value: 1.
               norm_class_idx: 1
               splits:
                  - { var:3, quality:1.3171428680419922e+01,
                      le:-6.2522616386413574e+00 }
            -
               depth: 4
               value: 0.
               norm_class_idx: 0
            -
               depth: 4
               value: 1.
               norm_class_idx: 1
               splits:
                  - { var:3, quality:11., le:-5.8646082878112793e+00 }
            -
               depth: 5
               value: 1.
               norm_class_idx: 1
            -
               depth: 5
               value: 1.
               norm_class_idx: 1
            -
               depth: 3
               value: 0.
               norm_class_idx: 0
               splits:
                  - { var:4, quality:1.7224625244140625e+03,
                      le:-6.5888988971710205e-01 }
            -
               depth: 4
               value: 0.
               norm_class_idx: 0
               splits:
                  - { var:4, quality:1.7020772705078125e+03,
                      le:-2.1005082130432129e+00 }
            -
               depth: 5
               value: 0.
               norm_class_idx: 0
            -
               depth: 5
               value: 0.
               norm_class_idx: 0
            -
               depth: 4
               value: 1.
               norm_class_idx: 1
               splits:
                  - { var:4, quality:2.7727272033691406e+01,
                      le:-6.5129923820495605e-01 }
            -
               depth: 5
               value: 1.
               norm_class_idx: 1
            -
               depth: 5
               value: 1.
               norm_class_idx: 1
            -
               depth: 1
               value: 0.
               norm_class_idx: 0
               splits:
                  - { var:1, quality:5.1824492187500000e+03,
                      le:-8.0869868397712708e-02 }
            -
               depth: 2
               value: 0.
               norm_class_idx: 0
               splits:
                  - { var:4, quality:5.1836577148437500e+03,
                      le:3.0915031433105469e+00 }
            -
               depth: 3
               value: 0.
               norm_class_idx: 0
               splits:
                  - { var:3, quality:5.1826088867187500e+03,
                      le:6.2777233123779297e-01 }
            -
               depth: 4
               value: 0.
               norm_class_idx: 0
               splits:
                  - { var:1, quality:2.9326064453125000e+03,
                      le:-3.0681064724922180e-01 }
            -
               depth: 5
               value: 0.
               norm_class_idx: 0
            -
               depth: 5
               value: 0.
               norm_class_idx: 0
            -
               depth: 4
               value: 0.
               norm_class_idx: 0
               splits:
                  - { var:1, quality:2.2777788085937500e+03,
                      le:-6.2820446491241455e-01 }
            -
               depth: 5
               value: 0.
               norm_class_idx: 0
            -
               depth: 5
               value: 0.
               norm_class_idx: 0
            -
               depth: 3
               value: 1.
               norm_class_idx: 1
            -
               depth: 2
               value: 1.
               norm_class_idx: 1
               splits:
                  - { var:2, quality:1.3736842155456543e+01,
                      le:-1.0235591977834702e-01 }
            -
               depth: 3
               value: 1.
               norm_class_idx: 1
               splits:
                  - { var:2, quality:1.2125000000000000e+01,
                      le:-1.0642574727535248e-01 }
            -
               depth: 4
               value: 1.
               norm_class_idx: 1
               splits:
                  - { var:3, quality:1.0793650627136230e+01,
                      le:5.7960640639066696e-02 }
            -
               depth: 5
               value: 0.
               norm_class_idx: 0
            -
               depth: 5
               value: 1.
               norm_class_idx: 1
            -
               depth: 4
               value: 0.
               norm_class_idx: 0
            -
               depth: 3
               value: 1.
               norm_class_idx: 1
      -
         nodes:
            -
               depth: 0
               value: 0.
               norm_class_idx: 0
               splits:
                  - { var:1, quality:8.5195117187500000e+03,
                      le:8.5461594164371490e-02 }
            -
               depth: 1
               value: 0.
               norm_class_idx: 0
               splits:
                  - { var:1, quality:5.9818076171875000e+03,
                      le:-1.6818791627883911e+00 }
            -
               depth: 2
               value: 1.
               norm_class_idx: 1
               splits:
                  - { var:4, quality:1.2461538314819336e+01,
                      le:3.3310644626617432e+00 }
            -
               depth: 3
               value: 1.
               norm_class_idx: 1
               splits:
                  - { var:2, quality:1.1199999809265137e+01,
                      le:-8.2854288816452026e-01 }
            -
               depth: 4
               value: 0.
               norm_class_idx: 0
            -
               depth: 4
               value: 1.
               norm_class_idx: 1
            -
               depth: 3
               value: 1.
               norm_class_idx: 1
            -
               depth: 2
               value: 0.
               norm_class_idx: 0
               splits:
                  - { var:3, quality:5.9769819335937500e+03,
                      le:6.1896675825119019e-01 }
            -
               depth: 3
               value: 0.
               norm_class_idx: 0
               splits:
                  - { var:1, quality:3.7809548339843750e+03,
                      le:-3.0717957019805908e-01 }
            -
               depth: 4
               value: 0.
               norm_class_idx: 0
               splits:
                  - { var:1, quality:1.9453818359375000e+03,
                      le:-5.8741438388824463e-01 }
            -
               depth: 5
               value: 0.
               norm_class_idx: 0
            -
               depth: 5
               value: 0.
               norm_class_idx: 0
            -
               depth: 4
               value: 0.
               norm_class_idx: 0
               splits:
                  - { var:4, quality:1.8474432373046875e+03,
                      le:2.6140168309211731e-01 }
            -
               depth: 5
               value: 0.
               norm_class_idx: 0
            -
               depth: 5
               value: 1.
               norm_class_idx: 1
            -
               depth: 3
               value: 0.
               norm_class_idx: 0
               splits:
                  - { var:2, quality:2.2253823242187500e+03,
                      le:-4.0553846955299377e-01 }
            -
               depth: 4
               value: 0.
               norm_class_idx: 0
               splits:
                  - { var:1, quality:1.8691417236328125e+03,
                      le:-1.0032601356506348e+00 }
            -
               depth: 5
               value: 0.
               norm_class_idx: 0
            -
               depth: 5
               value: 0.
               norm_class_idx: 0
            -
               depth: 4
               value: 0.
               norm_class_idx: 0
               splits:
                  - { var:1, quality:3.6813635253906250e+02,
                      le:-4.6716231107711792e-01 }
            -
               depth: 5
               value: 0.
               norm_class_idx: 0
            -
               depth: 5
               value: 0.
               norm_class_idx: 0
            -
               depth: 1
               value: 0.
               norm_class_idx: 0
               splits:
                  - { var:4, quality:2.5668271484375000e+03,
                      le:-3.3162279129028320e+00 }
            -
               depth: 2
               value: 1.
               norm_class_idx: 1
               splits:
                  - { var:4, quality:1.8235294342041016e+01,
                      le:-3.4889914989471436e+00 }
            -
               depth: 3
               value: 1.
               norm_class_idx: 1
               splits:
                  - { var:1, quality:1.1545454978942871e+01,
                      le:1.4072562217712402e+01 }
            -
               depth: 4
               value: 0.
               norm_class_idx: 0
               splits:
                  - { var:3, quality:8.1428575515747070e+00,
                      le:-6.2522616386413574e+00 }
            -
               depth: 5
               value: 0.
               norm_class_idx: 0
            -
               depth: 5
               value: 1.
               norm_class_idx: 1
            -
               depth: 4
               value: 1.
               norm_class_idx: 1
            -
               depth: 3
               value: 1.
               norm_class_idx: 1
            -
               depth: 2
               value: 0.
               norm_class_idx: 0
               splits:
                  - { var:1, quality:2.5546198730468750e+03,
                      le:8.7475121021270752e-02 }
            -
               depth: 3
               value: 1.
               norm_class_idx: 1
            -
               depth: 3
               value: 0.
               norm_class_idx: 0
               splits:
                  - { var:4, quality:2.5581809082031250e+03,
                      le:-3.0243250727653503e-01 }
            -
               depth: 4
               value: 0.
               norm_class_idx: 0
               splits:
                  - { var:2, quality:2.5169594726562500e+03,
                      le:4.0033683180809021e-02 }
            -
               depth: 5
               value: 0.
               norm_class_idx: 0
            -
               depth: 5
               value: 0.
               norm_class_idx: 0
            -
               depth: 4
               value: 0.
               norm_class_idx: 0
               splits:
                  - { var:1, quality:6.0518341064453125e+01,
                      le:1.3319408893585205e-01 }
            -
               depth: 5
               value: 0.
               norm_class_idx: 0
            -
               depth: 5
               value: 1.
               norm_class_idx: 1
      -
         nodes:
            -
               depth: 0
               value: 0.
               norm_class_idx: 0
               splits:
                  - { var:1, quality:8.5192324218750000e+03,
                      le:1.3416022062301636e-01 }
            -
               depth: 1
               value: 0.
               norm_class_idx: 0
               splits:
                  - { var:3, quality:6.1571411132812500e+03,
                      le:2.0273792743682861e+00 }
            -
               depth: 2
               value: 0.
               norm_class_idx: 0
               splits:
                  - { var:2, quality:6.1528085937500000e+03,
                      le:-2.0980203151702881e-01 }
            -
               depth: 3
               value: 0.
               norm_class_idx: 0
               splits:
                  - { var:3, quality:4.6459560546875000e+03,
                      le:6.8352252244949341e-01 }
            -
               depth: 4
               value: 0.
               norm_class_idx: 0
               splits:
                  - { var:2, quality:2.7330117187500000e+03,
                      le:-3.7332400679588318e-01 }
            -
               depth: 5
               value: 0.
               norm_class_idx: 0
            -
               depth: 5
               value: 0.
               norm_class_idx: 0
            -
               depth: 4
               value: 0.
               norm_class_idx: 0
               splits:
                  - { var:4, quality:1.9359763183593750e+03,
                      le:7.5145471096038818e-01 }
            -
               depth: 5
               value: 0.
               norm_class_idx: 0
            -
               depth: 5
               value: 0.
               norm_class_idx: 0
            -
               depth: 3
               value: 0.
               norm_class_idx: 0
               splits:
                  - { var:1, quality:1.5224415283203125e+03,
                      le:1.0170421004295349e-01 }
            -
               depth: 4
               value: 0.
               norm_class_idx: 0
               splits:
                  - { var:4, quality:1.4139018554687500e+03,
                      le:1.0199784487485886e-01 }
            -
               depth: 5
               value: 0.
               norm_class_idx: 0
            -
               depth: 5
               value: 0.
               norm_class_idx: 0
            -
               depth: 4
               value: 0.
               norm_class_idx: 0
               splits:
                  - { var:4, quality:1.1320896148681641e+02,
                      le:-2.8026777505874634e-01 }
            -
               depth: 5
               value: 0.
               norm_class_idx: 0
            -
               depth: 5
               value: 0.
               norm_class_idx: 0
            -
               depth: 2
               value: 1.
               norm_class_idx: 1
               splits:
                  - { var:2, quality:1.5166666984558105e+01,
                      le:-7.7522611618041992e-01 }
            -
               depth: 3
               value: 1.
               norm_class_idx: 1
               splits:
                  - { var:4, quality:7.8000001907348633e+00,
                      le:2.7903058528900146e+00 }
            -
               depth: 4
               value: 0.
               norm_class_idx: 0
            -
               depth: 4
               value: 1.
               norm_class_idx: 1
            -
               depth: 3
               value: 1.
               norm_class_idx: 1
            -
               depth: 1
               value: 0.
               norm_class_idx: 0
               splits:
                  - { var:1, quality:2.3939829101562500e+03,
                      le:6.9800624847412109e+00 }
            -
               depth: 2
               value: 0.
               norm_class_idx: 0
               splits:
                  - { var:3, quality:2.3852404785156250e+03,
                      le:8.0357007682323456e-03 }
            -
               depth: 3
               value: 0.
               norm_class_idx: 0
               splits:
                  - { var:4, quality:2.3866679687500000e+03,
                      le:-3.1002315878868103e-01 }
            -
               depth: 4
               value: 0.
               norm_class_idx: 0
               splits:
                  - { var:4, quality:2.3832919921875000e+03,
                      le:-3.3162279129028320e+00 }
            -
               depth: 5
               value: 1.
               norm_class_idx: 1
            -
               depth: 5
               value: 0.
               norm_class_idx: 0
            -
               depth: 4
               value: 1.
               norm_class_idx: 1
               splits:
                  - { var:3, quality:1.2600000381469727e+01,
                      le:-5.8529466390609741e-02 }
            -
               depth: 5
               value: 1.
               norm_class_idx: 1
            -
               depth: 5
               value: 0.
               norm_class_idx: 0
            -
               depth: 3
               value: 1.
               norm_class_idx: 1
               splits:
                  - { var:3, quality:9.1999998092651367e+00,
                      le:1.3576434552669525e-01 }
            -
               depth: 4
               value: 1.
               norm_class_idx: 1
            -
               depth: 4
               value: 0.
               norm_class_idx: 0
            -
               depth: 2
               value: 1.
               norm_class_idx: 1
               splits:
                  - { var:3, quality:1.6725000381469727e+01,
                      le:-5.5540819168090820e+00 }
            -
               depth: 3
               value: 1.
               norm_class_idx: 1
               splits:
                  - { var:2, quality:1.4666666984558105e+01,
                      le:1.1626718521118164e+01 }
            -
               depth: 4
               value: 1.
               norm_class_idx: 1
            -
               depth: 4
               value: 1.
               norm_class_idx: 1
            -
               depth: 3
               value: 1.
               norm_class_idx: 1
      -
         nodes:
            -
               depth: 0
               value: 0.
               norm_class_idx: 0
               splits:
                  - { var:3, quality:8.4951054687500000e+03,
                      le:-5.1725673675537109e-01 }
            -
               depth: 1
               value: 0.
               norm_class_idx: 0
               splits:
                  - { var:4, quality:1.8341584472656250e+03,
                      le:-3.4285697937011719e+00 }
            -
               depth: 2
               value: 1.
               norm_class_idx: 1
               splits:
                  - { var:2, quality:1.6799999237060547e+01,
                      le:1.1626718521118164e+01 }
            -
               depth: 3
               value: 1.
               norm_class_idx: 1
            -
               depth: 3
               value: 1.
               norm_class_idx: 1
            -
               depth: 2
               value: 0.
               norm_class_idx: 0
               splits:
                  - { var:3, quality:1.8268405761718750e+03,
                      le:-5.1953852176666260e-01 }
            -
               depth: 3
               value: 0.
               norm_class_idx: 0
               splits:
                  - { var:4, quality:1.8257049560546875e+03,
                      le:-5.0677305459976196e-01 }
            -
               depth: 4
               value: 0.
               norm_class_idx: 0
               splits:
                  - { var:4, quality:1.8203822021484375e+03,
                      le:-1.5661255121231079e+00 }
            -
               depth: 5
               value: 0.
               norm_class_idx: 0
            -
               depth: 5
               value: 0.
               norm_class_idx: 0
            -
               depth: 4
               value: 1.
               norm_class_idx: 1
            -
               depth: 3
               value: 1.
               norm_class_idx: 1
               splits:
                  - { var:1, quality:15., le:5.4866635799407959e-01 }
            -
               depth: 4
               value: 1.
               norm_class_idx: 1
            -
               depth: 4
               value: 0.
               norm_class_idx: 0
            -
               depth: 1
               value: 0.
               norm_class_idx: 0
               splits:
                  - { var:3, quality:6.7005698242187500e+03,
                      le:2.0273792743682861e+00 }
            -
               depth: 2
               value: 0.
               norm_class_idx: 0
               splits:
                  - { var:1, quality:6.7001259765625000e+03,
                      le:-6.1708461493253708e-02 }
            -
               depth: 3
               value: 0.
               norm_class_idx: 0
               splits:
                  - { var:2, quality:5.3973212890625000e+03,
                      le:-1.0688164830207825e-01 }
            -
               depth: 4
               value: 0.
               norm_class_idx: 0
               splits:
                  - { var:4, quality:5.3950488281250000e+03,
                      le:1.5952323675155640e+00 }
            -
               depth: 5
               value: 0.
               norm_class_idx: 0
            -
               depth: 5
               value: 0.
               norm_class_idx: 0
            -
               depth: 4
               value: 0.
               norm_class_idx: 0
               splits:
                  - { var:4, quality:8., le:-8.3821505308151245e-02 }
            -
               depth: 5
               value: 0.
               norm_class_idx: 0
            -
               depth: 5
               value: 1.
               norm_class_idx: 1
            -
               depth: 3
               value: 0.
               norm_class_idx: 0
               splits:
                  - { var:3, quality:1.3134766845703125e+03,
                      le:-1.1769643053412437e-02 }
            -
               depth: 4
               value: 0.
               norm_class_idx: 0
               splits:
                  - { var:2, quality:1.1690712890625000e+03,
                      le:2.4158902466297150e-02 }
            -
               depth: 5
               value: 0.
               norm_class_idx: 0
            -
               depth: 5
               value: 0.
               norm_class_idx: 0
            -
               depth: 4
               value: 0.
               norm_class_idx: 0
               splits:
                  - { var:1, quality:1.5184007263183594e+02,
                      le:-1.2662584893405437e-02 }
            -
               depth: 5
               value: 0.
               norm_class_idx: 0
            -
               depth: 5
               value: 0.
               norm_class_idx: 0
            -
               depth: 2
               value: 1.
               norm_class_idx: 1
               splits:
                  - { var:3, quality:1.9851852416992188e+01,
                      le:2.3001952171325684e+00 }
            -
               depth: 3
               value: 1.
               norm_class_idx: 1
               splits:
                  - { var:4, quality:1.9777778625488281e+01,
                      le:3.1409943103790283e+00 }
            -
               depth: 4
               value: 1.
               norm_class_idx: 1
               splits:
                  - { var:2, quality:1.3125000000000000e+01,
                      le:-8.2334637641906738e-01 }
            -
               depth: 5
               value: 0.
               norm_class_idx: 0
            -
               depth: 5
               value: 1.
               norm_class_idx: 1
            -
               depth: 4
               value: 1.
               norm_class_idx: 1
            -
               depth: 3
               value: 0.
               norm_class_idx: 0
      -
         nodes:
            -
               depth: 0
               value: 0.
               norm_class_idx: 0
               splits:
                  - { var:3, quality:8.5493642578125000e+03,
                      le:-1.9814901053905487e-01 }
            -
               depth: 1
               value: 0.
               norm_class_idx: 0
               splits:
                  - { var:3, quality:2.4343305664062500e+03,
                      le:-5.4371318817138672e+00 }
            -
               depth: 2
               value: 1.
               norm_class_idx: 1
               splits:
                  - { var:3, quality:1.5142857551574707e+01,
                      le:-5.8646082878112793e+00 }
            -
               depth: 3
               value: 1.
               norm_class_idx: 1
            -
               depth: 3
               value: 1.
               norm_class_idx: 1
            -
               depth: 2
               value: 0.
               norm_class_idx: 0
               splits:
                  - { var:3, quality:2.4246579589843750e+03,
                      le:-6.3831377029418945e-01 }
            -
               depth: 3
               value: 0.
               norm_class_idx: 0
               splits:
                  - { var:2, quality:1.5727277832031250e+03,
                      le:1.0944075584411621e+00 }
            -
               depth: 4
               value: 0.
               norm_class_idx: 0
               splits:
                  - { var:4, quality:1.1617309570312500e+03,
                      le:-6.7558932304382324e-01 }
            -
               depth: 5
               value: 0.
               norm_class_idx: 0
            -
               depth: 5
               value: 1.
               norm_class_idx: 1
            -
               depth: 4
               value: 0.
               norm_class_idx: 0
               splits:
                  - { var:1, quality:4.2906149291992188e+02,
                      le:1.6439218521118164e+00 }
            -
               depth: 5
               value: 1.
               norm_class_idx: 1
            -
               depth: 5
               value: 0.
               norm_class_idx: 0
            -
               depth: 3
               value: 0.
               norm_class_idx: 0
               splits:
                  - { var:1, quality:8.6398980712890625e+02,
                      le:9.8543927073478699e-02 }
            -
               depth: 4
               value: 0.
               norm_class_idx: 0
               splits:
                  - { var:1, quality:1.0324285888671875e+02,
                      le:-3.0055984854698181e-02 }
            -
               depth: 5
               value: 0.
               norm_class_idx: 0
            -
               depth: 5
               value: 0.
               norm_class_idx: 0
            -
               depth: 4
               value: 0.
               norm_class_idx: 0
               splits:
                  - { var:1, quality:7.6642596435546875e+02,
                      le:1.0565440356731415e-01 }
            -
               depth: 5
               value: 1.
               norm_class_idx: 1
            -
               depth: 5
               value: 0.
               norm_class_idx: 0
            -
               depth: 1
               value: 0.
               norm_class_idx: 0
               splits:
                  - { var:3, quality:6.1435073242187500e+03,
                      le:2.0339634418487549e+00 }
            -
               depth: 2
               value: 0.
               norm_class_idx: 0
               splits:
                  - { var:3, quality:6.1371689453125000e+03,
                      le:6.4396530389785767e-01 }
            -
               depth: 3
               value: 0.
               norm_class_idx: 0
               splits:
                  - { var:1, quality:4.0473149414062500e+03,
                      le:-2.1473307907581329e-01 }
            -
               depth: 4
               value: 0.
               norm_class_idx: 0
               splits:
                  - { var:3, quality:2.7307275390625000e+03,
                      le:2.2704960405826569e-01 }
            -
               depth: 5
               value: 0.
               norm_class_idx: 0
            -
               depth: 5
               value: 0.
               norm_class_idx: 0
            -
               depth: 4
               value: 0.
               norm_class_idx: 0
               splits:
                  - { var:4, quality:1.3387058105468750e+03,
                      le:1.6606301069259644e-01 }
            -
               depth: 5
               value: 0.
               norm_class_idx: 0
            -
               depth: 5
               value: 1.
               norm_class_idx: 1
            -
               depth: 3
               value: 0.
               norm_class_idx: 0
               splits:
                  - { var:1, quality:2.1328457031250000e+03,
                      le:-1.0007826089859009e+00 }
            -
               depth: 4
               value: 0.
               norm_class_idx: 0
               splits:
                  - { var:1, quality:7.2866662597656250e+02,
                      le:-1.4076721668243408e+00 }
            -
               depth: 5
               value: 0.
               norm_class_idx: 0
            -
               depth: 5
               value: 0.
               norm_class_idx: 0
            -
               depth: 4
               value: 0.
               norm_class_idx: 0
               splits:
                  - { var:1, quality:1.4107528076171875e+03,
                      le:-6.2804436683654785e-01 }
            -
               depth: 5
               value: 0.
               norm_class_idx: 0
            -
               depth: 5
               value: 0.
               norm_class_idx: 0
            -
               depth: 2
               value: 1.
               norm_class_idx: 1
               splits:
                  - { var:3, quality:13., le:2.1648280620574951e+00 }
            -
               depth: 3
               value: 1.
               norm_class_idx: 1
            -
               depth: 3
               value: 0.
               norm_class_idx: 0
      -
         nodes:
            -
               depth: 0
               value: 0.
               norm_class_idx: 0
               splits:
                  - { var:4, quality:8.5471406250000000e+03,
                      le:-3.7063043564558029e-02 }
            -
               depth: 1
               value: 0.
               norm_class_idx: 0
               splits:
                  - { var:2, quality:3.3700463867187500e+03,
                      le:2.1672926843166351e-01 }
            -
               depth: 2
               value: 0.
               norm_class_idx: 0
               splits:
                  - { var:4, quality:1.7983354492187500e+03,
                      le:-3.7670295685529709e-02 }
            -
               depth: 3
               value: 0.
               norm_class_idx: 0
               splits:
                  - { var:1, quality:1.7958121337890625e+03,
                      le:3.3910602331161499e-01 }
            -
               depth: 4
               value: 0.
               norm_class_idx: 0
               splits:
                  - { var:4, quality:1.3966622314453125e+03,
                      le:-4.7732129693031311e-01 }
            -
               depth: 5
               value: 0.
               norm_class_idx: 0
            -
               depth: 5
               value: 0.
               norm_class_idx: 0
            -
               depth: 4
               value: 0.
               norm_class_idx: 0
               splits:
                  - { var:2, quality:4.0528289794921875e+02,
                      le:1.4786818623542786e-01 }
            -
               depth: 5
               value: 0.
               norm_class_idx: 0
            -
               depth: 5
               value: 0.
               norm_class_idx: 0
            -
               depth: 3
               value: 1.
               norm_class_idx: 1
            -
               depth: 2
               value: 0.
               norm_class_idx: 0
               splits:
                  - { var:2, quality:1.5903144531250000e+03,
                      le:8.5351257324218750e+00 }
            -
               depth: 3
               value: 0.
               norm_class_idx: 0
               splits:
                  - { var:2, quality:1.5871108398437500e+03,
                      le:2.1704575419425964e-01 }
            -
               depth: 4
               value: 1.
               norm_class_idx: 1
            -
               depth: 4
               value: 0.
               norm_class_idx: 0
               splits:
                  - { var:4, quality:1.5947966308593750e+03,
                      le:-7.3601096868515015e-01 }
            -
               depth: 5
               value: 0.
               norm_class_idx: 0
            -
               depth: 5
               value: 1.
               norm_class_idx: 1
            -
               depth: 3
               value: 1.
               norm_class_idx: 1
               splits:
                  - { var:4, quality:1.2125000000000000e+01,
                      le:-3.4285697937011719e+00 }
            -
               depth: 4
               value: 1.
               norm_class_idx: 1
               splits:
                  - { var:4, quality:1.2571428298950195e+01,
                      le:-3.4889914989471436e+00 }
            -
               depth: 5
               value: 1.
               norm_class_idx: 1
            -
               depth: 5
               value: 1.
               norm_class_idx: 1
            -
               depth: 4
               value: 0.
               norm_class_idx: 0
            -
               depth: 1
               value: 0.
               norm_class_idx: 0
               splits:
                  - { var:4, quality:5.1976250000000000e+03,
                      le:2.7177391052246094e+00 }
            -
               depth: 2
               value: 0.
               norm_class_idx: 0
               splits:
                  - { var:1, quality:5.1893857421875000e+03,
                      le:-7.1962155401706696e-02 }
            -
               depth: 3
               value: 0.
               norm_class_idx: 0
               splits:
                  - { var:1, quality:5.1880781250000000e+03,
                      le:-6.5487819910049438e-01 }
            -
               depth: 4
               value: 0.
               norm_class_idx: 0
               splits:
                  - { var:3, quality:1.7563002929687500e+03,
                      le:6.8279379606246948e-01 }
            -
               depth: 5
               value: 0.
               norm_class_idx: 0
            -
               depth: 5
               value: 0.
               norm_class_idx: 0
            -
               depth: 4
               value: 0.
               norm_class_idx: 0
               splits:
                  - { var:4, quality:3.4376262207031250e+03,
                      le:8.9932072162628174e-01 }
            -
               depth: 5
               value: 0.
               norm_class_idx: 0
            -
               depth: 5
               value: 1.
               norm_class_idx: 1
            -
               depth: 3
               value: 1.
               norm_class_idx: 1
               splits:
                  - { var:4, quality:8.3333330154418945e+00,
                      le:-2.7043372392654419e-02 }
            -
               depth: 4
               value: 0.
               norm_class_idx: 0
            -
               depth: 4
               value: 1.
               norm_class_idx: 1
            -
               depth: 2
               value: 0.
               norm_class_idx: 0
               splits:
                  - { var:3, quality:1.9600000381469727e+01,
                      le:2.0304131507873535e+00 }
            -
               depth: 3
               value: 0.
               norm_class_idx: 0
            -
               depth: 3
               value: 1.
               norm_class_idx: 1
               splits:
                  - { var:2, quality:1.5058823585510254e+01,
                      le:-8.5616242885589600e-01 }
            -
               depth: 4
               value: 0.
               norm_class_idx: 0
            -
               depth: 4
               value: 1.
               norm_class_idx: 1
               splits:
                  - { var:2, quality:1.2500000000000000e+01,
                      le:-7.7979874610900879e-01 }
            -
               depth: 5
               value: 1.
               norm_class_idx: 1
            -
               depth: 5
               value: 1.
               norm_class_idx: 1
      -
         nodes:
            -
               depth: 0
               value: 0.
               norm_class_idx: 0
               splits:
                  - { var:2, quality:8.5144208984375000e+03,
                      le:-1.1681441962718964e-01 }
            -
               depth: 1
               value: 0.
               norm_class_idx: 0
               splits:
                  - { var:4, quality:5.3888129882812500e+03,
                      le:3.1376543045043945e+00 }
            -
               depth: 2
               value: 0.
               norm_class_idx: 0
               splits:
                  - { var:4, quality:5.3876088867187500e+03,
                      le:-2.1984612941741943e-01 }
            -
               depth: 3
               value: 1.
               norm_class_idx: 1
               splits:
                  - { var:3, quality:9.3333330154418945e+00,
                      le:1.2461237609386444e-02 }
            -
               depth: 4
               value: 0.
               norm_class_idx: 0
            -
               depth: 4
               value: 1.
               norm_class_idx: 1
            -
               depth: 3
               value: 0.
               norm_class_idx: 0
               splits:
                  - { var:2, quality:5.3841289062500000e+03,
                      le:-4.3287372589111328e-01 }
            -
               depth: 4
               value: 0.
               norm_class_idx: 0
               splits:
                  - { var:1, quality:1.5547381591796875e+03,
                      le:-1.0372890233993530e+00 }
            -
               depth: 5
               value: 0.
               norm_class_idx: 0
            -
               depth: 5
               value: 0.
               norm_class_idx: 0
            -
               depth: 4
               value: 0.
               norm_class_idx: 0
               splits:
                  - { var:1, quality:3.8373322753906250e+03,
                      le:-2.1473307907581329e-01 }
            -
               depth: 5
               value: 0.
               norm_class_idx: 0
            -
               depth: 5
               value: 0.
               norm_class_idx: 0
            -
               depth: 2
               value: 1.
               norm_class_idx: 1
            -
               depth: 1
               value: 0.
               norm_class_idx: 0
               splits:
                  - { var:1, quality:3.1455480957031250e+03,
                      le:9.1824140548706055e+00 }
            -
               depth: 2
               value: 0.
               norm_class_idx: 0
               splits:
                  - { var:3, quality:3.1437011718750000e+03,
                      le:7.9294368624687195e-02 }
            -
               depth: 3
               value: 0.
               norm_class_idx: 0
               splits:
                  - { var:2, quality:3.0839606933593750e+03,
                      le:4.1969656944274902e-02 }
            -
               depth: 4
               value: 0.
               norm_class_idx: 0
               splits:
                  - { var:2, quality:9.2122241210937500e+02,
                      le:-1.1615892499685287e-01 }
            -
               depth: 5
               value: 1.
               norm_class_idx: 1
            -
               depth: 5
               value: 0.
               norm_class_idx: 0
            -
               depth: 4
               value: 0.
               norm_class_idx: 0
               splits:
                  - { var:4, quality:2.1795256347656250e+03,
                      le:-5.4260098934173584e-01 }
            -
               depth: 5
               value: 0.
               norm_class_idx: 0
            -
               depth: 5
               value: 0.
               norm_class_idx: 0
            -
               depth: 3
               value: 0.
               norm_class_idx: 0
               splits:
                  - { var:3, quality:8.2083160400390625e+01,
                      le:1.0546664893627167e-01 }
            -
               depth: 4
               value: 1.
               norm_class_idx: 1
               splits:
                  - { var:4, quality:2.6333333969116211e+01,
                      le:-1.2724007666110992e-01 }
            -
               depth: 5
               value: 1.
               norm_class_idx: 1
            -
               depth: 5
               value: 1.
               norm_class_idx: 1
            -
               depth: 4
               value: 0.
               norm_class_idx: 0
               splits:
                  - { var:4, quality:7.0563491821289062e+01,
                      le:-8.1392496824264526e-02 }
            -
               depth: 5
               value: 0.
               norm_class_idx: 0
            -
               depth: 5
               value: 1.
               norm_class_idx: 1
            -
               depth: 2
               value: 1.
               norm_class_idx: 1
               splits:
                  - { var:4, quality:1.1500000000000000e+01,
                      le:-3.6383757591247559e+00 }
            -
               depth: 3
               value: 1.
               norm_class_idx: 1
            -
               depth: 3
               value: 1.
               norm_class_idx: 1
      -
         nodes:
            -
               depth: 0
               value: 0.
               norm_class_idx: 0
               splits:
                  - { var:2, quality:8.5028994140625000e+03,
                      le:-1.1018195748329163e-01 }
            -
               depth: 1
               value: 0.
               norm_class_idx: 0
               splits:
                  - { var:4, quality:5.4705903320312500e+03,
                      le:3.1409943103790283e+00 }
            -
               depth: 2
               value: 0.
               norm_class_idx: 0
               splits:
                  - { var:4, quality:5.4685571289062500e+03,
                      le:-2.1984612941741943e-01 }
            -
               depth: 3
               value: 0.
               norm_class_idx: 0
               splits:
                  - { var:4, quality:1.5461538314819336e+01,
                      le:-2.6539009809494019e-01 }
            -
               depth: 4
               value: 0.
               norm_class_idx: 0
            -
               depth: 4
               value: 1.
               norm_class_idx: 1
               splits:
                  - { var:2, quality:1.1199999809265137e+01,
                      le:-1.1645761132240295e-01 }
            -
               depth: 5
               value: 1.
               norm_class_idx: 1
            -
               depth: 5
               value: 0.
               norm_class_idx: 0
            -
               depth: 3
               value: 0.
               norm_class_idx: 0
               splits:
                  - { var:3, quality:5.4707124023437500e+03,
                      le:6.0325723886489868e-01 }
            -
               depth: 4
               value: 0.
               norm_class_idx: 0
               splits:
                  - { var:4, quality:3.1709028320312500e+03,
                      le:4.1837653517723083e-01 }
            -
               depth: 5
               value: 0.
               norm_class_idx: 0
            -
               depth: 5
               value: 0.
               norm_class_idx: 0
            -
               depth: 4
               value: 0.
               norm_class_idx: 0
               splits:
                  - { var:2, quality:2.3195717773437500e+03,
                      le:-3.6053001880645752e-01 }
            -
               depth: 5
               value: 0.
               norm_class_idx: 0
            -
               depth: 5
               value: 0.
               norm_class_idx: 0
            -
               depth: 2
               value: 1.
               norm_class_idx: 1
            -
               depth: 1
               value: 0.
               norm_class_idx: 0
               splits:
                  - { var:2, quality:3.0518740234375000e+03,
                      le:2.0170122385025024e-01 }
            -
               depth: 2
               value: 0.
               norm_class_idx: 0
               splits:
                  - { var:1, quality:1.4090140380859375e+03,
                      le:-3.4638438373804092e-02 }
            -
               depth: 3
               value: 0.
               norm_class_idx: 0
               splits:
                  - { var:4, quality:7.7041603088378906e+01,
                      le:-1.2298931181430817e-01 }
            -
               depth: 4
               value: 0.
               norm_class_idx: 0
               splits:
                  - { var:3, quality:4.3500000000000000e+01,
                      le:-2.8264287859201431e-02 }
            -
               depth: 5
               value: 0.
               norm_class_idx: 0
            -
               depth: 5
               value: 0.
               norm_class_idx: 0
            -
               depth: 4
               value: 1.
               norm_class_idx: 1
               splits:
                  - { var:2, quality:3.9680770874023438e+01,
                      le:-8.6668573319911957e-02 }
            -
               depth: 5
               value: 1.
               norm_class_idx: 1
            -
               depth: 5
               value: 0.
               norm_class_idx: 0
            -
               depth: 3
               value: 0.
               norm_class_idx: 0
               splits:
                  - { var:3, quality:1.3507252197265625e+03,
                      le:-3.3661343157291412e-02 }
            -
               depth: 4
               value: 0.
               norm_class_idx: 0
               splits:
                  - { var:2, quality:1.2191363525390625e+03,
                      le:2.9740193858742714e-02 }
            -
               depth: 5
               value: 0.
               norm_class_idx: 0
            -
               depth: 5
               value: 0.
               norm_class_idx: 0
            -
               depth: 4
               value: 0.
               norm_class_idx: 0
               splits:
                  - { var:1, quality:1.4032530212402344e+02,
                      le:-1.1757278814911842e-02 }
            -
               depth: 5
               value: 0.
               norm_class_idx: 0
            -
               depth: 5
               value: 0.
               norm_class_idx: 0
            -
               depth: 2
               value: 0.
               norm_class_idx: 0
               splits:
                  - { var:4, quality:1.6673077392578125e+03,
                      le:-6.5797901153564453e-01 }
            -
               depth: 3
               value: 0.
               norm_class_idx: 0
               splits:
                  - { var:1, quality:1.6596392822265625e+03,
                      le:6.6047048568725586e+00 }
            -
               depth: 4
               value: 0.
               norm_class_idx: 0
               splits:
                  - { var:1, quality:1.6506968994140625e+03,
                      le:8.3613419532775879e-01 }
            -
               depth: 5
               value: 0.
               norm_class_idx: 0
            -
               depth: 5
               value: 0.
               norm_class_idx: 0
            -
               depth: 4
               value: 1.
               norm_class_idx: 1
               splits:
                  - { var:4, quality:1.4142857551574707e+01,
                      le:-3.6383757591247559e+00 }
            -
               depth: 5
               value: 1.
               norm_class_idx: 1
            -
               depth: 5
               value: 1.
               norm_class_idx: 1
            -
               depth: 3
               value: 1.
               norm_class_idx: 1
               splits:
                  - { var:2, quality:17., le:2.0413307845592499e-01 }
            -
               depth: 4
               value: 0.
               norm_class_idx: 0
            -
               depth: 4
               value: 1.
               norm_class_idx: 1
      -
         nodes:
            -
               depth: 0
               value: 0.
               norm_class_idx: 0
               splits:
                  - { var:1, quality:8.5405585937500000e+03,
                      le:-6.3945285975933075e-02 }
            -
               depth: 1
               value: 0.
               norm_class_idx: 0
               splits:
                  - { var:4, quality:5.5482485351562500e+03,
                      le:3.1409943103790283e+00 }
            -
               depth: 2
               value: 0.
               norm_class_idx: 0
               splits:
                  - { var:4, quality:5.5463842773437500e+03,
                      le:-6.6514804959297180e-02 }
            -
               depth: 3
               value: 0.
               norm_class_idx: 0
               splits:
                  - { var:3, quality:2.4867710876464844e+02,
                      le:1.3409718871116638e-02 }
            -
               depth: 4
               value: 0.
               norm_class_idx: 0
               splits:
                  - { var:3, quality:1.4854945373535156e+02,
                      le:-4.3592885136604309e-02 }
            -
               depth: 5
               value: 0.
               norm_class_idx: 0
            -
               depth: 5
               value: 0.
               norm_class_idx: 0
            -
               depth: 4
               value: 0.
               norm_class_idx: 0
               splits:
                  - { var:4, quality:1.0366666412353516e+02,
                      le:-2.0800469815731049e-01 }
            -
               depth: 5
               value: 1.
               norm_class_idx: 1
            -
               depth: 5
               value: 0.
               norm_class_idx: 0
            -
               depth: 3
               value: 0.
               norm_class_idx: 0
               splits:
                  - { var:4, quality:5.3003168945312500e+03,
                      le:-3.7063043564558029e-02 }
            -
               depth: 4
               value: 0.
               norm_class_idx: 0
               splits:
                  - { var:4, quality:7.6078430175781250e+01,
                      le:-3.8277547806501389e-02 }
            -
               depth: 5
               value: 0.
               norm_class_idx: 0
            -
               depth: 5
               value: 1.
               norm_class_idx: 1
            -
               depth: 4
               value: 0.
               norm_class_idx: 0
               splits:
                  - { var:3, quality:5.2406499023437500e+03,
                      le:6.3427960872650146e-01 }
            -
               depth: 5
               value: 0.
               norm_class_idx: 0
            -
               depth: 5
               value: 0.
               norm_class_idx: 0
            -
               depth: 2
               value: 1.
               norm_class_idx: 1
            -
               depth: 1
               value: 0.
               norm_class_idx: 0
               splits:
                  - { var:3, quality:3.0059099121093750e+03,
                      le:-4.9316968917846680e+00 }
            -
               depth: 2
               value: 1.
               norm_class_idx: 1
               splits:
                  - { var:1, quality:1.2444444656372070e+01,
                      le:6.7285709381103516e+00 }
            -
               depth: 3
               value: 1.
               norm_class_idx: 1
            -
               depth: 3
               value: 1.
               norm_class_idx: 1
               splits:
                  - { var:1, quality:1.2133333206176758e+01,
                      le:7.6757001876831055e+00 }
            -
               depth: 4
               value: 0.
               norm_class_idx: 0
            -
               depth: 4
               value: 1.
               norm_class_idx: 1
               splits:
                  - { var:4, quality:1.0222222328186035e+01,
                      le:-3.5226941108703613e+00 }
            -
               depth: 5
               value: 0.
               norm_class_idx: 0
            -
               depth: 5
               value: 1.
               norm_class_idx: 1
            -
               depth: 2
               value: 0.
               norm_class_idx: 0
               splits:
                  - { var:1, quality:3.0043640136718750e+03,
                      le:2.0998287200927734e+00 }
            -
               depth: 3
               value: 0.
               norm_class_idx: 0
               splits:
                  - { var:2, quality:2.7603508300781250e+03,
                      le:4.4671386480331421e-02 }
            -
               depth: 4
               value: 0.
               norm_class_idx: 0
               splits:
                  - { var:1, quality:9.1931164550781250e+02,
                      le:-6.3830517232418060e-02 }
            -
               depth: 5
               value: 1.
               norm_class_idx: 1
            -
               depth: 5
               value: 0.
               norm_class_idx: 0
            -
               depth: 4
               value: 0.
               norm_class_idx: 0
               splits:
                  - { var:1, quality:1.8545156250000000e+03,
                      le:2.2748991847038269e-01 }
            -
               depth: 5
               value: 1.
               norm_class_idx: 1
            -
               depth: 5
               value: 0.
               norm_class_idx: 0
            -
               depth: 3
               value: 0.
               norm_class_idx: 0
               splits:
                  - { var:2, quality:2.5794244384765625e+02,
                      le:3.2100288867950439e+00 }
            -
               depth: 4
               value: 0.
               norm_class_idx: 0
               splits:
                  - { var:3, quality:2.1395985412597656e+02,
                      le:-2.0493373870849609e+00 }
            -
               depth: 5
               value: 0.
               norm_class_idx: 0
            -
               depth: 5
               value: 1.
               norm_class_idx: 1
            -
               depth: 4
               value: 0.
               norm_class_idx: 0
      -
         nodes:
            -
               depth: 0
               value: 0.
               norm_class_idx: 0
               splits:
                  - { var:1, quality:8.5849189453125000e+03,
                      le:-6.1762496829032898e-02 }
            -
               depth: 1
               value: 0.
               norm_class_idx: 0
               splits:
                  - { var:2, quality:5.5946826171875000e+03,
                      le:-7.9432821273803711e-01 }
            -
               depth: 2
               value: 1.
               norm_class_idx: 1
               splits:
                  - { var:2, quality:8.8500003814697266e+00,
                      le:-8.4002518653869629e-01 }
            -
               depth: 3
               value: 0.
               norm_class_idx: 0
            -
               depth: 3
               value: 1.
               norm_class_idx: 1
            -
               depth: 2
               value: 0.
               norm_class_idx: 0
               splits:
                  - { var:4, quality:5.5947866210937500e+03,
                      le:-2.1589899063110352e-01 }
            -
               depth: 3
               value: 1.
               norm_class_idx: 1
            -
               depth: 3
               value: 0.
               norm_class_idx: 0
               splits:
                  - { var:1, quality:5.5921713867187500e+03,
                      le:-2.6589560508728027e-01 }
            -
               depth: 4
               value: 0.
               norm_class_idx: 0
               splits:
                  - { var:2, quality:4.5333393554687500e+03,
                      le:-4.3442326784133911e-01 }
            -
               depth: 5
               value: 0.
               norm_class_idx: 0
            -
               depth: 5
               value: 0.
               norm_class_idx: 0
            -
               depth: 4
               value: 0.
               norm_class_idx: 0
               splits:
                  - { var:4, quality:1.0685870361328125e+03,
                      le:1.4420190453529358e-01 }
            -
               depth: 5
               value: 0.
               norm_class_idx: 0
            -
               depth: 5
               value: 0.
               norm_class_idx: 0
            -
               depth: 1
               value: 0.
               norm_class_idx: 0
               splits:
                  - { var:3, quality:3.0105986328125000e+03,
                      le:-4.6192917823791504e+00 }
            -
               depth: 2
               value: 1.
               norm_class_idx: 1
               splits:
                  - { var:2, quality:1.9333333969116211e+01,
                      le:2.3391283035278320e+01 }
            -
               depth: 3
               value: 1.
               norm_class_idx: 1
               splits:
                  - { var:3, quality:1.6168067932128906e+01,
                      le:-5.8202180862426758e+00 }
            -
               depth: 4
               value: 0.
               norm_class_idx: 0
            -
               depth: 4
               value: 1.
               norm_class_idx: 1
               splits:
                  - { var:4, quality:1.1771428108215332e+01,
                      le:-3.2967958450317383e+00 }
            -
               depth: 5
               value: 1.
               norm_class_idx: 1
            -
               depth: 5
               value: 1.
               norm_class_idx: 1
            -
               depth: 3
               value: 1.
               norm_class_idx: 1
            -
               depth: 2
               value: 0.
               norm_class_idx: 0
               splits:
                  - { var:4, quality:2.9989709472656250e+03,
                      le:-2.7043372392654419e-02 }
            -
               depth: 3
               value: 0.
               norm_class_idx: 0
               splits:
                  - { var:2, quality:3.0006804199218750e+03,
                      le:4.7460637986660004e-02 }
            -
               depth: 4
               value: 0.
               norm_class_idx: 0
               splits:
                  - { var:2, quality:8.7249334716796875e+02,
                      le:-1.1645761132240295e-01 }
            -
               depth: 5
               value: 1.
               norm_class_idx: 1
            -
               depth: 5
               value: 0.
               norm_class_idx: 0
            -
               depth: 4
               value: 0.
               norm_class_idx: 0
               splits:
                  - { var:1, quality:2.1430920410156250e+03,
                      le:2.4611003696918488e-01 }
            -
               depth: 5
               value: 0.
               norm_class_idx: 0
            -
               depth: 5
               value: 0.
               norm_class_idx: 0
            -
               depth: 3
               value: 1.
               norm_class_idx: 1
      -
         nodes:
            -
               depth: 0
               value: 0.
               norm_class_idx: 0
               splits:
                  - { var:4, quality:8.5416562500000000e+03,
                      le:-2.2834767401218414e-01 }
            -
               depth: 1
               value: 0.
               norm_class_idx: 0
               splits:
                  - { var:3, quality:2.7478261718750000e+03,
                      le:-4.5894899368286133e+00 }
            -
               depth: 2
               value: 1.
               norm_class_idx: 1
               splits:
                  - { var:4, quality:14., le:-3.7340178489685059e+00 }
            -
               depth: 3
               value: 1.
               norm_class_idx: 1
            -
               depth: 3
               value: 1.
               norm_class_idx: 1
               splits:
                  - { var:4, quality:1.1785714149475098e+01,
                      le:-3.4889914989471436e+00 }
            -
               depth: 4
               value: 0.
               norm_class_idx: 0
            -
               depth: 4
               value: 1.
               norm_class_idx: 1
               splits:
                  - { var:2, quality:9.8222217559814453e+00,
                      le:7.6698961257934570e+00 }
            -
               depth: 5
               value: 1.
               norm_class_idx: 1
            -
               depth: 5
               value: 1.
               norm_class_idx: 1
            -
               depth: 2
               value: 0.
               norm_class_idx: 0
               splits:
                  - { var:2, quality:2.7430969238281250e+03,
                      le:1.9560107588768005e-01 }
            -
               depth: 3
               value: 0.
               norm_class_idx: 0
               splits:
                  - { var:3, quality:1.1363610839843750e+03,
                      le:1.0209329426288605e-02 }
            -
               depth: 4
               value: 0.
               norm_class_idx: 0
               splits:
                  - { var:2, quality:1.1195139160156250e+03,
                      le:-2.0402081310749054e-02 }
            -
               depth: 5
               value: 0.
               norm_class_idx: 0
            -
               depth: 5
               value: 0.
               norm_class_idx: 0
            -
               depth: 4
               value: 1.
               norm_class_idx: 1
               splits:
                  - { var:2, quality:2.3514286041259766e+01,
                      le:-9.3563713133335114e-02 }
            -
               depth: 5
               value: 1.
               norm_class_idx: 1
            -
               depth: 5
               value: 0.
               norm_class_idx: 0
            -
               depth: 3
               value: 0.
               norm_class_idx: 0
               splits:
                  - { var:1, quality:1.6293277587890625e+03,
                      le:4.5623534917831421e-01 }
            -
               depth: 4
               value: 1.
               norm_class_idx: 1
               splits:
                  - { var:2, quality:2.3142856597900391e+01,
                      le:2.0170122385025024e-01 }
            -
               depth: 5
               value: 0.
               norm_class_idx: 0
            -
               depth: 5
               value: 1.
               norm_class_idx: 1
            -
               depth: 4
               value: 0.
               norm_class_idx: 0
               splits:
                  - { var:2, quality:1.6168802490234375e+03,
                      le:1.5689816474914551e+00 }
            -
               depth: 5
               value: 0.
               norm_class_idx: 0
            -
               depth: 5
               value: 0.
               norm_class_idx: 0
            -
               depth: 1
               value: 0.
               norm_class_idx: 0
               splits:
                  - { var:1, quality:5.8114624023437500e+03,
                      le:4.9646191298961639e-02 }
            -
               depth: 2
               value: 0.
               norm_class_idx: 0
               splits:
                  - { var:3, quality:5.8024213867187500e+03,
                      le:6.2040829658508301e-01 }
            -
               depth: 3
               value: 0.
               norm_class_idx: 0
               splits:
                  - { var:3, quality:3.6117819824218750e+03,
                      le:5.9811758995056152e-01 }
            -
               depth: 4
               value: 0.
               norm_class_idx: 0
               splits:
                  - { var:4, quality:3.5209836425781250e+03,
                      le:1.9855102896690369e-01 }
            -
               depth: 5
               value: 0.
               norm_class_idx: 0
            -
               depth: 5
               value: 0.
               norm_class_idx: 0
            -
               depth: 4
               value: 0.
               norm_class_idx: 0
               splits:
                  - { var:2, quality:1.0227920532226562e+02,
                      le:-3.0512899160385132e-01 }
            -
               depth: 5
               value: 0.
               norm_class_idx: 0
            -
               depth: 5
               value: 0.
               norm_class_idx: 0
            -
               depth: 3
               value: 0.
               norm_class_idx: 0
               splits:
                  - { var:1, quality:2.2073813476562500e+03,
                      le:-4.6001777052879333e-01 }
            -
               depth: 4
               value: 0.
               norm_class_idx: 0
               splits:
                  - { var:2, quality:2.1867817382812500e+03,
                      le:-5.7646900415420532e-01 }
            -
               depth: 5
               value: 0.
               norm_class_idx: 0
            -
               depth: 5
               value: 0.
               norm_class_idx: 0
            -
               depth: 4
               value: 1.
               norm_class_idx: 1
               splits:
                  - { var:4, quality:2.8285715103149414e+01,
                      le:3.7526160478591919e-01 }
            -
               depth: 5
               value: 0.
               norm_class_idx: 0
            -
               depth: 5
               value: 1.
               norm_class_idx: 1
            -
               depth: 2
               value: 0.
               norm_class_idx: 0
               splits:
                  - { var:2, quality:2.6407407760620117e+01,
                      le:-1.2416167184710503e-02 }
            -
               depth: 3
               value: 1.
               norm_class_idx: 1
               splits:
                  - { var:4, quality:1.7526315689086914e+01,
                      le:-2.0011042058467865e-01 }
            -
               depth: 4
               value: 0.
               norm_class_idx: 0
               splits:
                  - { var:1, quality:1.1636363983154297e+01,
                      le:7.4473805725574493e-02 }
            -
               depth: 5
               value: 0.
               norm_class_idx: 0
            -
               depth: 5
               value: 1.
               norm_class_idx: 1
            -
               depth: 4
               value: 1.
               norm_class_idx: 1
            -
               depth: 3
               value: 0.
               norm_class_idx: 0
      -
         nodes:
            -
               depth: 0
               value: 0.
               norm_class_idx: 0
               splits:
                  - { var:2, quality:8.6066220703125000e+03,
                      le:-1.7447189986705780e-01 }
            -
               depth: 1
               value: 0.
               norm_class_idx: 0
               splits:
                  - { var:3, quality:5.0061298828125000e+03,
                      le:5.6643301248550415e-01 }
            -
               depth: 2
               value: 0.
               norm_class_idx: 0
               splits:
                  - { var:2, quality:2.5207297363281250e+03,
                      le:-3.1031125783920288e-01 }
            -
               depth: 3
               value: 0.
               norm_class_idx: 0
               splits:
                  - { var:2, quality:8.7346728515625000e+02,
                      le:-3.2160168886184692e-01 }
            -
               depth: 4
               value: 0.
               norm_class_idx: 0
               splits:
                  - { var:4, quality:7.2258062744140625e+02,
                      le:4.0957137942314148e-01 }
            -
               depth: 5
               value: 0.
               norm_class_idx: 0
            -
               depth: 5
               value: 0.
               norm_class_idx: 0
            -
               depth: 4
               value: 0.
               norm_class_idx: 0
               splits:
                  - { var:4, quality:153., le:5.7170784473419189e-01 }
            -
               depth: 5
               value: 0.
               norm_class_idx: 0
            -
               depth: 5
               value: 0.
               norm_class_idx: 0
            -
               depth: 3
               value: 0.
               norm_class_idx: 0
               splits:
                  - { var:3, quality:1.6575693359375000e+03,
                      le:4.2567607760429382e-01 }
            -
               depth: 4
               value: 0.
               norm_class_idx: 0
               splits:
                  - { var:3, quality:1.4642364501953125e+03,
                      le:2.9424214363098145e-01 }
            -
               depth: 5
               value: 0.
               norm_class_idx: 0
            -
               depth: 5
               value: 0.
               norm_class_idx: 0
            -
               depth: 4
               value: 0.
               norm_class_idx: 0
               splits:
                  - { var:3, quality:2.0014965820312500e+02,
                      le:4.2588317394256592e-01 }
            -
               depth: 5
               value: 1.
               norm_class_idx: 1
            -
               depth: 5
               value: 0.
               norm_class_idx: 0
            -
               depth: 2
               value: 0.
               norm_class_idx: 0
               splits:
                  - { var:2, quality:2.5045031738281250e+03,
                      le:-2.7525746822357178e-01 }
            -
               depth: 3
               value: 0.
               norm_class_idx: 0
               splits:
                  - { var:3, quality:2.5018076171875000e+03,
                      le:2.0297617912292480e+00 }
            -
               depth: 4
               value: 0.
               norm_class_idx: 0
               splits:
                  - { var:4, quality:2.4986264648437500e+03,
                      le:6.4427459239959717e-01 }
            -
               depth: 5
               value: 0.
               norm_class_idx: 0
            -
               depth: 5
               value: 0.
               norm_class_idx: 0
            -
               depth: 4
               value: 1.
               norm_class_idx: 1
               splits:
                  - { var:2, quality:1.4416666984558105e+01,
                      le:-8.2573354244232178e-01 }
            -
               depth: 5
               value: 0.
               norm_class_idx: 0
            -
               depth: 5
               value: 1.
               norm_class_idx: 1
            -
               depth: 3
               value: 1.
               norm_class_idx: 1
               splits:
                  - { var:2, quality:18., le:-2.3893491923809052e-01 }
            -
               depth: 4
               value: 0.
               norm_class_idx: 0
               splits:
                  - { var:2, quality:1.0666666984558105e+01,
                      le:-2.7094900608062744e-01 }
            -
               depth: 5
               value: 1.
               norm_class_idx: 1
            -
               depth: 5
               value: 0.
               norm_class_idx: 0
            -
               depth: 4
               value: 1.
               norm_class_idx: 1
            -
               depth: 1
               value: 0.
               norm_class_idx: 0
               splits:
                  - { var:3, quality:3.6339274902343750e+03,
                      le:-5.5068750381469727e+00 }
            -
               depth: 2
               value: 1.
               norm_class_idx: 1
               splits:
                  - { var:2, quality:1.8285715103149414e+01,
                      le:1.1193094253540039e+01 }
            -
               depth: 3
               value: 1.
               norm_class_idx: 1
            -
               depth: 3
               value: 1.
               norm_class_idx: 1
               splits:
                  - { var:3, quality:1.2166666984558105e+01,
                      le:-5.9810047149658203e+00 }
            -
               depth: 4
               value: 1.
               norm_class_idx: 1
               splits:
                  - { var:4, quality:11., le:-3.6383757591247559e+00 }
            -
               depth: 5
               value: 1.
               norm_class_idx: 1
            -
               depth: 5
               value: 0.
               norm_class_idx: 0
            -
               depth: 4
               value: 0.
               norm_class_idx: 0
            -
               depth: 2
               value: 0.
               norm_class_idx: 0
               splits:
                  - { var:2, quality:3.6286599121093750e+03,
                      le:2.2471132874488831e-01 }
            -
               depth: 3
               value: 0.
               norm_class_idx: 0
               splits:
                  - { var:1, quality:2.0631767578125000e+03,
                      le:-1.8064750730991364e-01 }
            -
               depth: 4
               value: 0.
               norm_class_idx: 0
               splits:
                  - { var:1, quality:1.8976190567016602e+01,
                      le:-1.8159827589988708e-01 }
            -
               depth: 5
               value: 0.
               norm_class_idx: 0
            -
               depth: 5
               value: 1.
               norm_class_idx: 1
            -
               depth: 4
               value: 0.
               norm_class_idx: 0
               splits:
                  - { var:4, quality:2.0500620117187500e+03,
                      le:-6.1334592103958130e-01 }
            -
               depth: 5
               value: 0.
               norm_class_idx: 0
            -
               depth: 5
               value: 0.
               norm_class_idx: 0
            -
               depth: 3
               value: 0.
               norm_class_idx: 0
               splits:
                  - { var:4, quality:1.5840095214843750e+03,
                      le:-7.2508043050765991e-01 }
            -
               depth: 4
               value: 0.
               norm_class_idx: 0
               splits:
                  - { var:3, quality:1.5648189697265625e+03,
                      le:-5.9845519065856934e-01 }
            -
               depth: 5
               value: 0.
               norm_class_idx: 0
            -
               depth: 5
               value: 0.
               norm_class_idx: 0
            -
               depth: 4
               value: 1.
               norm_class_idx: 1
               splits:
                  - { var:4, quality:2.6062500000000000e+01,
                      le:-6.6314065456390381e-01 }
            -
               depth: 5
               value: 1.
               norm_class_idx: 1
            -
               depth: 5
               value: 1.
               norm_class_idx: 1
      -
         nodes:
            -
               depth: 0
               value: 0.
               norm_class_idx: 0
               splits:
                  - { var:1, quality:8.4647802734375000e+03,
                      le:1.3416022062301636e-01 }
            -
               depth: 1
               value: 0.
               norm_class_idx: 0
               splits:
                  - { var:3, quality:6.0632084960937500e+03,
                      le:2.0339634418487549e+00 }
            -
               depth: 2
               value: 0.
               norm_class_idx: 0
               splits:
                  - { var:2, quality:6.0643452148437500e+03,
                      le:-1.9371746480464935e-01 }
            -
               depth: 3
               value: 0.
               norm_class_idx: 0
               splits:
                  - { var:2, quality:4.7112158203125000e+03,
                      le:-4.3043377995491028e-01 }
            -
               depth: 4
               value: 0.
               norm_class_idx: 0
               splits:
                  - { var:2, quality:1.6067940673828125e+03,
                      le:-5.5580753087997437e-01 }
            -
               depth: 5
               value: 0.
               norm_class_idx: 0
            -
               depth: 5
               value: 0.
               norm_class_idx: 0
            -
               depth: 4
               value: 0.
               norm_class_idx: 0
               splits:
                  - { var:3, quality:3.1271330566406250e+03,
                      le:7.5801646709442139e-01 }
            -
               depth: 5
               value: 0.
               norm_class_idx: 0
            -
               depth: 5
               value: 0.
               norm_class_idx: 0
            -
               depth: 3
               value: 0.
               norm_class_idx: 0
               splits:
                  - { var:3, quality:1.3690190429687500e+03,
                      le:-2.1852266043424606e-02 }
            -
               depth: 4
               value: 0.
               norm_class_idx: 0
               splits:
                  - { var:2, quality:6.7037127685546875e+02,
                      le:-1.0770009458065033e-01 }
            -
               depth: 5
               value: 0.
               norm_class_idx: 0
            -
               depth: 5
               value: 0.
               norm_class_idx: 0
            -
               depth: 4
               value: 0.
               norm_class_idx: 0
               splits:
                  - { var:2, quality:7.0725097656250000e+02,
                      le:-1.1967720091342926e-01 }
            -
               depth: 5
               value: 0.
               norm_class_idx: 0
            -
               depth: 5
               value: 0.
               norm_class_idx: 0
            -
               depth: 2
               value: 1.
               norm_class_idx: 1
               splits:
                  - { var:3, quality:9.7272729873657227e+00,
                      le:2.3043637275695801e+00 }
            -
               depth: 3
               value: 1.
               norm_class_idx: 1
               splits:
                  - { var:2, quality:9.6666669845581055e+00,
                      le:-8.0942070484161377e-01 }
            -
               depth: 4
               value: 1.
               norm_class_idx: 1
            -
               depth: 4
               value: 0.
               norm_class_idx: 0
            -
               depth: 3
               value: 0.
               norm_class_idx: 0
            -
               depth: 1
               value: 0.
               norm_class_idx: 0
               splits:
                  - { var:3, quality:2.4220703125000000e+03,
                      le:-5.1147756576538086e+00 }
            -
               depth: 2
               value: 1.
               norm_class_idx: 1
               splits:
                  - { var:1, quality:1.6454545974731445e+01,
                      le:1.1025787353515625e+01 }
            -
               depth: 3
               value: 1.
               norm_class_idx: 1
               splits:
                  - { var:3, quality:1.6909090042114258e+01,
                      le:-5.5540819168090820e+00 }
            -
               depth: 4
               value: 1.
               norm_class_idx: 1
            -
               depth: 4
               value: 1.
               norm_class_idx: 1
               splits:
                  - { var:1, quality:7.8888888359069824e+00,
                      le:7.9261589050292969e+00 }
            -
               depth: 5
               value: 1.
               norm_class_idx: 1
            -
               depth: 5
               value: 0.
               norm_class_idx: 0
            -
               depth: 3
               value: 0.
               norm_class_idx: 0
            -
               depth: 2
               value: 0.
               norm_class_idx: 0
               splits:
                  - { var:1, quality:2.4131926269531250e+03,
                      le:4.7914588451385498e-01 }
            -
               depth: 3
               value: 0.
               norm_class_idx: 0
               splits:
                  - { var:1, quality:7.8844519042968750e+02,
                      le:1.5333676338195801e-01 }
            -
               depth: 4
               value: 0.
               norm_class_idx: 0
               splits:
                  - { var:3, quality:5.5016429901123047e+01,
                      le:-1.2191046029329300e-02 }
            -
               depth: 5
               value: 0.
               norm_class_idx: 0
            -
               depth: 5
               value: 1.
               norm_class_idx: 1
            -
               depth: 4
               value: 0.
               norm_class_idx: 0
               splits:
                  - { var:1, quality:7.4195489501953125e+02,
                      le:4.6547934412956238e-01 }
            -
               depth: 5
               value: 0.
               norm_class_idx: 0
            -
               depth: 5
               value: 0.
               norm_class_idx: 0
            -
               depth: 3
               value: 0.
               norm_class_idx: 0
               splits:
                  - { var:3, quality:1.6368502197265625e+03,
                      le:-1.7682304382324219e+00 }
            -
               depth: 4
               value: 0.
               norm_class_idx: 0
               splits:
                  - { var:3, quality:4.7419766235351562e+02,
                      le:-1.9742171764373779e+00 }
            -
               depth: 5
               value: 0.
               norm_class_idx: 0
            -
               depth: 5
               value: 0.
               norm_class_idx: 0
            -
               depth: 4
               value: 0.
               norm_class_idx: 0
               splits:
                  - { var:4, quality:1.1847310791015625e+03,
                      le:-7.3601096868515015e-01 }
            -
               depth: 5
               value: 0.
               norm_class_idx: 0
            -
               depth: 5
               value: 1.
               norm_class_idx: 1
      -
         nodes:
            -
               depth: 0
               value: 0.
               norm_class_idx: 0
               splits:
                  - { var:4, quality:8.5691650390625000e+03,
                      le:-2.2488977760076523e-02 }
            -
               depth: 1
               value: 0.
               norm_class_idx: 0
               splits:
                  - { var:3, quality:3.3630710449218750e+03,
                      le:-7.1602714061737061e-01 }
            -
               depth: 2
               value: 0.
               norm_class_idx: 0
               splits:
                  - { var:3, quality:1.3848546142578125e+03,
                      le:-5.1147756576538086e+00 }
            -
               depth: 3
               value: 1.
               norm_class_idx: 1
               splits:
                  - { var:3, quality:1.4100000381469727e+01,
                      le:-5.2235956192016602e+00 }
            -
               depth: 4
               value: 1.
               norm_class_idx: 1
               splits:
                  - { var:4, quality:1.2800000190734863e+01,
                      le:-3.6383757591247559e+00 }
            -
               depth: 5
               value: 1.
               norm_class_idx: 1
            -
               depth: 5
               value: 0.
               norm_class_idx: 0
            -
               depth: 4
               value: 1.
               norm_class_idx: 1
            -
               depth: 3
               value: 0.
               norm_class_idx: 0
               splits:
                  - { var:4, quality:1.3864984130859375e+03,
                      le:-9.1332882642745972e-01 }
            -
               depth: 4
               value: 0.
               norm_class_idx: 0
               splits:
                  - { var:3, quality:1.2991433105468750e+03,
                      le:-8.7383103370666504e-01 }
            -
               depth: 5
               value: 0.
               norm_class_idx: 0
            -
               depth: 5
               value: 0.
               norm_class_idx: 0
            -
               depth: 4
               value: 0.
               norm_class_idx: 0
               splits:
                  - { var:1, quality:1.1030527496337891e+02,
                      le:6.0975098609924316e-01 }
            -
               depth: 5
               value: 0.
               norm_class_idx: 0
            -
               depth: 5
               value: 1.
               norm_class_idx: 1
            -
               depth: 2
               value: 0.
               norm_class_idx: 0
               splits:
                  - { var:2, quality:1.9876843261718750e+03,
                      le:-1.3244318962097168e-01 }
            -
               depth: 3
               value: 0.
               norm_class_idx: 0
               splits:
                  - { var:3, quality:1.9396551513671875e+02,
                      le:3.0286228656768799e-01 }
            -
               depth: 4
               value: 0.
               norm_class_idx: 0
               splits:
                  - { var:3, quality:1.9269999694824219e+02,
                      le:1.5598717331886292e-01 }
            -
               depth: 5
               value: 0.
               norm_class_idx: 0
            -
               depth: 5
               value: 0.
               norm_class_idx: 0
            -
               depth: 4
               value: 1.
               norm_class_idx: 1
            -
               depth: 3
               value: 0.
               norm_class_idx: 0
               splits:
                  - { var:4, quality:1.8149298095703125e+03,
                      le:-6.1960406601428986e-02 }
            -
               depth: 4
               value: 0.
               norm_class_idx: 0
               splits:
                  - { var:4, quality:1.7857822265625000e+03,
                      le:-2.7905327081680298e-01 }
            -
               depth: 5
               value: 0.
               norm_class_idx: 0
            -
               depth: 5
               value: 0.
               norm_class_idx: 0
            -
               depth: 4
               value: 1.
               norm_class_idx: 1
               splits:
                  - { var:3, quality:3.3508773803710938e+01,
                      le:-1.3264699280261993e-01 }
            -
               depth: 5
               value: 1.
               norm_class_idx: 1
            -
               depth: 5
               value: 0.
               norm_class_idx: 0
            -
               depth: 1
               value: 0.
               norm_class_idx: 0
               splits:
                  - { var:3, quality:5.2255131835937500e+03,
                      le:2.0339634418487549e+00 }
            -
               depth: 2
               value: 0.
               norm_class_idx: 0
               splits:
                  - { var:3, quality:5.2217036132812500e+03,
                      le:5.9689116477966309e-01 }
            -
               depth: 3
               value: 0.
               norm_class_idx: 0
               splits:
                  - { var:2, quality:2.8656972656250000e+03,
                      le:-3.0672729015350342e-01 }
            -
               depth: 4
               value: 0.
               norm_class_idx: 0
               splits:
                  - { var:1, quality:1.0517883300781250e+03,
                      le:-5.1613199710845947e-01 }
            -
               depth: 5
               value: 0.
               norm_class_idx: 0
            -
               depth: 5
               value: 0.
               norm_class_idx: 0
            -
               depth: 4
               value: 0.
               norm_class_idx: 0
               splits:
                  - { var:4, quality:1.8170661621093750e+03,
                      le:2.1069608628749847e-01 }
            -
               depth: 5
               value: 0.
               norm_class_idx: 0
            -
               depth: 5
               value: 0.
               norm_class_idx: 0
            -
               depth: 3
               value: 0.
               norm_class_idx: 0
               splits:
                  - { var:1, quality:2.3816674804687500e+03,
                      le:-3.7224870920181274e-01 }
            -
               depth: 4
               value: 0.
               norm_class_idx: 0
               splits:
                  - { var:1, quality:2.3743610839843750e+03,
                      le:-9.7991263866424561e-01 }
            -
               depth: 5
               value: 0.
               norm_class_idx: 0
            -
               depth: 5
               value: 0.
               norm_class_idx: 0
            -
               depth: 4
               value: 1.
               norm_class_idx: 1
               splits:
                  - { var:3, quality:1.9147367477416992e+01,
                      le:6.6918408870697021e-01 }
            -
               depth: 5
               value: 1.
               norm_class_idx: 1
            -
               depth: 5
               value: 0.
               norm_class_idx: 0
            -
               depth: 2
               value: 1.
               norm_class_idx: 1
               splits:
                  - { var:2, quality:1.2142857551574707e+01,
                      le:-8.2505953311920166e-01 }
            -
               depth: 3
               value: 0.
               norm_class_idx: 0
            -
               depth: 3
               value: 1.
               norm_class_idx: 1
      -
         nodes:
            -
               depth: 0
               value: 0.
               norm_class_idx: 0
               splits:
                  - { var:2, quality:8.5406181640625000e+03,
                      le:3.4950859844684601e-02 }
            -
               depth: 1
               value: 0.
               norm_class_idx: 0
               splits:
                  - { var:1, quality:6.3532958984375000e+03,
                      le:-5.7772845029830933e-02 }
            -
               depth: 2
               value: 0.
               norm_class_idx: 0
               splits:
                  - { var:3, quality:5.4975634765625000e+03,
                      le:2.0297617912292480e+00 }
            -
               depth: 3
               value: 0.
               norm_class_idx: 0
               splits:
                  - { var:1, quality:5.4894160156250000e+03,
                      le:-1.0028340816497803e+00 }
            -
               depth: 4
               value: 0.
               norm_class_idx: 0
               splits:
                  - { var:3, quality:7.1797418212890625e+02,
                      le:1.5148942470550537e+00 }
            -
               depth: 5
               value: 0.
               norm_class_idx: 0
            -
               depth: 5
               value: 0.
               norm_class_idx: 0
            -
               depth: 4
               value: 0.
               norm_class_idx: 0
               splits:
                  - { var:1, quality:4.7789702148437500e+03,
                      le:-9.8497986793518066e-01 }
            -
               depth: 5
               value: 0.
               norm_class_idx: 0
            -
               depth: 5
               value: 0.
               norm_class_idx: 0
            -
               depth: 3
               value: 1.
               norm_class_idx: 1
               splits:
                  - { var:3, quality:1.4142857551574707e+01,
                      le:2.3001952171325684e+00 }
            -
               depth: 4
               value: 1.
               norm_class_idx: 1
               splits:
                  - { var:1, quality:1.2399999618530273e+01,
                      le:-1.6924669742584229e+00 }
            -
               depth: 5
               value: 1.
               norm_class_idx: 1
            -
               depth: 5
               value: 1.
               norm_class_idx: 1
            -
               depth: 4
               value: 0.
               norm_class_idx: 0
            -
               depth: 2
               value: 0.
               norm_class_idx: 0
               splits:
                  - { var:4, quality:8.8279650878906250e+02,
                      le:-1.1843491345643997e-01 }
            -
               depth: 3
               value: 0.
               norm_class_idx: 0
               splits:
                  - { var:4, quality:8.3763421630859375e+02,
                      le:-2.8542941808700562e-01 }
            -
               depth: 4
               value: 0.
               norm_class_idx: 0
               splits:
                  - { var:1, quality:4.6181253051757812e+02,
                      le:1.7850828170776367e-01 }
            -
               depth: 5
               value: 0.
               norm_class_idx: 0
            -
               depth: 5
               value: 0.
               norm_class_idx: 0
            -
               depth: 4
               value: 0.
               norm_class_idx: 0
               splits:
                  - { var:2, quality:3.8133773803710938e+02,
                      le:-3.9321124553680420e-02 }
            -
               depth: 5
               value: 0.
               norm_class_idx: 0
            -
               depth: 5
               value: 0.
               norm_class_idx: 0
            -
               depth: 3
               value: 0.
               norm_class_idx: 0
               splits:
                  - { var:4, quality:5.5348838806152344e+01,
                      le:-1.1782766133546829e-01 }
            -
               depth: 4
               value: 1.
               norm_class_idx: 1
            -
               depth: 4
               value: 0.
               norm_class_idx: 0
               splits:
                  - { var:3, quality:4.9162792205810547e+01,
                      le:5.6315578520298004e-02 }
            -
               depth: 5
               value: 0.
               norm_class_idx: 0
            -
               depth: 5
               value: 0.
               norm_class_idx: 0
            -
               depth: 1
               value: 0.
               norm_class_idx: 0
               splits:
                  - { var:3, quality:2.2081975097656250e+03,
                      le:-5.5540819168090820e+00 }
            -
               depth: 2
               value: 1.
               norm_class_idx: 1
               splits:
                  - { var:4, quality:1.6500000000000000e+01,
                      le:-3.5205686092376709e+00 }
            -
               depth: 3
               value: 1.
               norm_class_idx: 1
               splits:
                  - { var:4, quality:9.6000003814697266e+00,
                      le:-3.6447517871856689e+00 }
            -
               depth: 4
               value: 1.
               norm_class_idx: 1
            -
               depth: 4
               value: 0.
               norm_class_idx: 0
            -
               depth: 3
               value: 1.
               norm_class_idx: 1
            -
               depth: 2
               value: 0.
               norm_class_idx: 0
               splits:
                  - { var:2, quality:2.1977097167968750e+03,
                      le:2.9407653212547302e-01 }
            -
               depth: 3
               value: 0.
               norm_class_idx: 0
               splits:
                  - { var:4, quality:8.8232995605468750e+02,
