%YAML:1.0
---
opencv_ml_svm:
   format: 3
   svmType: C_SVC
   kernel:
      type: RBF
      gamma: 2.2500000000000003e-03
   C: 6.2500000000000000e+01
   term_criteria: { iterations:100 }
   var_count: 5
   class_count: 2
   class_labels: !!opencv-matrix
      rows: 2
      cols: 1
      dt: i
      data: [ 0, 1 ]
   sv_total: 28
   support_vectors:
      - [ 0., -1.86569571e+00, -8.62532437e-01, 2.24261308e+00,
          3.26305223e+00 ]
      - [ 0., 1.29449987e+00, 7.52615213e-01, -1.92368233e+00,
          -1.64476478e+00 ]
      - [ 0., -2.01693320e+00, -9.00809050e-01, 2.13916087e+00,
          3.73185134e+00 ]
      - [ 0., -1.79158449e+00, -8.22761118e-01, 2.23968816e+00,
          3.39907670e+00 ]
      - [ 0., -1.47474277e+00, -7.28061795e-01, 2.06525207e+00,
          2.55681729e+00 ]
      - [ 0., -1.33560359e+00, -7.01230347e-01, 1.73594022e+00,
          1.93863392e+00 ]
      - [ 0., 5.16433716e+00, 4.72959566e+00, -4.41440105e+00,
          -3.14042830e+00 ]
      - [ 0., -1.81588066e+00, -8.27358007e-01, 2.35483956e+00,
          3.50109529e+00 ]
      - [ 0., 8.25693607e+00, 1.00188990e+01, -5.55414152e+00,
          -3.44223309e+00 ]
      - [ 0., 9.14638805e+00, 1.13842268e+01, -5.83568525e+00,
          -3.52907014e+00 ]
      - [ 0., 9.21844006e+00, 1.18692102e+01, -5.76511908e+00,
          -3.51631784e+00 ]
      - [ 0., -1.76198816e+00, -8.28705966e-01, 2.19049525e+00,
          3.10152292e+00 ]
      - [ 0., 8.79188538e+00, 1.05489817e+01, -5.80475140e+00,
          -3.47563195e+00 ]
      - [ 0., 8.16147423e+00, 9.58697891e+00, -5.55402184e+00,
          -3.49688578e+00 ]
      - [ 0., -1.69020772e+00, -7.97434509e-01, 2.24555063e+00,
          2.97096348e+00 ]
      - [ 0., -1.87648034e+00, -8.49792421e-01, 2.25388765e+00,
          3.49016476e+00 ]
      - [ 0., 7.81015992e-01, 4.10118937e-01, -9.88116741e-01,
          -1.03143942e+00 ]
      - [ 0., 9.73406029e+00, 1.22407370e+01, -6.12632370e+00,
          -3.58797359e+00 ]
      - [ 0., -1.62481976e+00, -7.74994493e-01, 1.77585089e+00,
          2.85194206e+00 ]
      - [ 0., 1.10475750e+01, 1.58641729e+01, -6.27723551e+00,
          -3.63473201e+00 ]
      - [ 0., -1.68889511e+00, -8.08428109e-01, 2.21873474e+00,
          2.90355849e+00 ]
      - [ 0., -3.16935658e-01, -2.58900523e-01, 3.99140626e-01,
          2.43184119e-01 ]
      - [ 0., 1.03642359e+01, 1.37006960e+01, -6.22119904e+00,
          -3.65477157e+00 ]
      - [ 0., 1.10040007e+01, 1.55956755e+01, -6.22728777e+00,
          -3.64201927e+00 ]
      - [ 0., 5.68652809e-01, 2.83178329e-01, -1.33987689e+00,
          -1.00229132e+00 ]
      - [ 0., 9.00310040e+00, 1.10019617e+01, -5.89353132e+00,
          -3.51206708e+00 ]
      - [ 0., 7.87240601e+00, 9.11600780e+00, -5.55503321e+00,
          -3.46470141e+00 ]
      - [ 0., 6.38381052e+00, 6.59521532e+00, -4.94839668e+00,
          -3.32199693e+00 ]
   decision_functions:
      -
         sv_count: 28
         rho: 1.0381421442452179e+00
         alpha: [ 6.2500000000000000e+01, 6.2500000000000000e+01,
             3.3093105687634640e+01, 1.4260611948079681e+01,
             3.7887986072744160e+00, 6.2500000000000000e+01,
             6.5551499537461906e+00, 6.2500000000000000e+01,
             7.7592351099282526e+00, 4.1832898164474619e+00,
             6.2500000000000000e+01, -6.2500000000000000e+01,
             -1.7055490028588313e+01, -1.3581557536195895e+01,
             -6.2500000000000000e+01, -3.1778570075039392e+00,
             -2.5288429213732195e+00, -1.1401116166705009e+01,
             -6.8875012204184358e+00, -6.2500000000000000e+01,
             -5.1040142025005991e+01, -2.9402674539303364e+00,
             -1.7514795810449431e+01, -1.1581202059812677e+01,
             -1.6751561060323414e+01, -2.7281104164484294e+01,
             -4.1355569888935850e+00, -8.7631966794261000e+00 ]
         index: [ 21, 19, 13, 18, 24, 0, 1, 9, 11, 6, 7, 16, 17, 10, 23,
             5, 4, 22, 12, 15, 14, 27, 2, 8, 3, 25, 26, 20 ]
